svm_type c_svc
kernel_type rbf
gamma 0.015873
nr_class 2
total_sv 27959
rho -0.970162
label -1 1
nr_sv 21629 6330
SV
0.3076289553634773 1:-15 2:33 3:18 4:1 13:1 14:1 23:1 25:1 29:1 38:1 40:1 48:1 53:1 57:1 60:1 
0.1834275619893818 1:-90 2:108 3:18 8:1 12:1 18:1 23:1 28:1 29:1 38:1 40:1 48:1 53:1 57:1 60:1 
0.3937865577864816 1:-106 2:124 3:18 5:1 13:1 14:1 23:1 28:1 33:1 38:1 40:1 48:1 53:1 57:1 60:1 
0.03921182182338576 1:145 2:33 3:178 4:1 13:1 14:1 23:1 25:1 29:1 34:1 40:1 47:1 49:1 55:1 59:1 
0.02233266236034351 1:103 2:75 3:178 5:1 12:1 18:1 23:1 28:1 29:1 34:1 40:1 47:1 49:1 55:1 59:1 
0.4525458589687068 1:-300 2:318 3:18 8:1 13:1 18:1 19:1 28:1 29:1 38:1 40:1 48:1 53:1 57:1 60:1 
0.02669052546279833 1:248 2:75 3:323 5:1 12:1 18:1 23:1 28:1 29:1 38:1 39:1 48:1 53:1 55:1 63:1 
0.1806994334459945 1:199 2:124 3:323 5:1 13:1 14:1 23:1 28:1 33:1 38:1 39:1 48:1 53:1 55:1 63:1 
0.3124739548435677 1:47 2:276 3:323 5:1 13:1 15:1 23:1 24:1 30:1 38:1 39:1 48:1 53:1 55:1 63:1 
0.7038756379715029 1:18 2:305 3:323 7:1 13:1 18:1 23:1 28:1 29:1 38:1 39:1 48:1 53:1 55:1 63:1 
1 1:-11 2:22 3:11 8:1 13:1 14:1 23:1 28:1 33:1 34:1 39:1 48:1 53:1 55:1 60:1 
0.7209223234783976 1:19 2:22 3:41 8:1 13:1 14:1 23:1 28:1 33:1 34:1 43:1 45:1 50:1 58:1 63:1 
0.5066493422092786 1:21 2:22 3:43 8:1 13:1 14:1 23:1 28:1 33:1 35:1 43:1 45:1 53:1 58:1 63:1 
0.1305708385515303 1:-34 2:75 3:41 4:1 10:1 18:1 22:1 25:1 32:1 34:1 43:1 45:1 50:1 58:1 63:1 
0.4911942861201748 1:-32 2:75 3:43 4:1 10:1 18:1 22:1 25:1 32:1 35:1 43:1 45:1 53:1 58:1 63:1 
0.3087991443920916 1:-105 2:116 3:11 8:1 13:1 15:1 20:1 28:1 30:1 34:1 39:1 48:1 53:1 55:1 60:1 
0.2393554143520232 1:-97 2:116 3:19 8:1 13:1 15:1 20:1 28:1 30:1 35:1 40:1 48:1 53:1 54:1 61:1 
0.1203237488219835 1:-75 2:116 3:41 8:1 13:1 15:1 20:1 28:1 30:1 34:1 43:1 45:1 50:1 58:1 63:1 
0.2989898380567825 1:-222 2:233 3:11 8:1 13:1 15:1 22:1 25:1 29:1 34:1 39:1 48:1 53:1 55:1 60:1 
0.4619891406357681 1:-192 2:233 3:41 8:1 13:1 15:1 22:1 25:1 29:1 34:1 43:1 45:1 50:1 58:1 63:1 
0.04287965698840761 1:298 2:22 3:320 8:1 13:1 14:1 23:1 28:1 33:1 37:1 39:1 45:1 50:1 54:1 63:1 
0.02126457734865708 1:90 2:233 3:323 8:1 13:1 15:1 22:1 25:1 29:1 38:1 40:1 44:1 53:1 58:1 62:1 
0.1298957034263537 1:-352 2:363 3:11 8:1 9:1 15:1 22:1 25:1 32:1 34:1 39:1 48:1 53:1 55:1 60:1 
0.7383887696938378 1:-40 2:363 3:323 8:1 9:1 15:1 22:1 25:1 32:1 38:1 40:1 44:1 53:1 58:1 62:1 
1 1:-19 2:27 3:8 8:1 9:1 15:1 23:1 24:1 33:1 35:1 40:1 48:1 49:1 56:1 60:1 
0.7212695444824195 1:-7 2:27 3:20 8:1 9:1 15:1 23:1 24:1 33:1 38:1 43:1 45:1 53:1 56:1 63:1 
0.1353091585663858 1:16 2:27 3:43 8:1 9:1 15:1 23:1 24:1 33:1 35:1 43:1 44:1 50:1 58:1 63:1 
0.7209674116650444 1:-59 2:67 3:8 8:1 12:1 15:1 22:1 25:1 33:1 35:1 40:1 48:1 49:1 56:1 60:1 
0.9302805533151026 1:-47 2:67 3:20 8:1 12:1 15:1 22:1 25:1 33:1 38:1 43:1 45:1 53:1 56:1 63:1 
0.236365395605877 1:92 2:22 3:114 5:1 13:1 18:1 23:1 28:1 29:1 35:1 43:1 45:1 53:1 57:1 60:1 
0.04284831661331546 1:87 2:27 3:114 8:1 9:1 15:1 23:1 24:1 33:1 35:1 43:1 45:1 53:1 57:1 60:1 
0.643187937803944 1:47 2:67 3:114 8:1 12:1 15:1 22:1 25:1 33:1 35:1 43:1 45:1 53:1 57:1 60:1 
0.2630664173183497 1:125 2:10 3:135 8:1 13:1 14:1 20:1 24:1 31:1 38:1 43:1 45:1 49:1 58:1 63:1 
0.4490130043420886 1:122 2:13 3:135 6:1 10:1 14:1 22:1 25:1 33:1 38:1 43:1 45:1 49:1 58:1 63:1 
0.9040231279194521 1:113 2:22 3:135 5:1 13:1 18:1 23:1 28:1 29:1 38:1 43:1 45:1 49:1 58:1 63:1 
0.2771260412452644 1:108 2:27 3:135 8:1 9:1 15:1 23:1 24:1 33:1 38:1 43:1 45:1 49:1 58:1 63:1 
1 1:68 2:67 3:135 8:1 12:1 15:1 22:1 25:1 33:1 38:1 43:1 45:1 49:1 58:1 63:1 
0.6511451322886772 1:42 2:93 3:135 8:1 9:1 15:1 23:1 28:1 33:1 38:1 43:1 45:1 49:1 58:1 63:1 
0.2726705612566429 1:-119 2:139 3:20 4:1 13:1 18:1 23:1 24:1 33:1 38:1 43:1 45:1 53:1 56:1 63:1 
0.04653670280259117 1:-25 2:139 3:114 4:1 13:1 18:1 23:1 24:1 33:1 35:1 43:1 45:1 53:1 57:1 60:1 
1 1:-4 2:139 3:135 4:1 13:1 18:1 23:1 24:1 33:1 38:1 43:1 45:1 49:1 58:1 63:1 
0.1911940278109699 1:121 2:22 3:143 5:1 13:1 18:1 23:1 28:1 29:1 38:1 39:1 48:1 49:1 58:1 60:1 
0.1447949378335787 1:116 2:27 3:143 8:1 9:1 15:1 23:1 24:1 33:1 38:1 39:1 48:1 49:1 58:1 60:1 
0.3003918469371158 1:76 2:67 3:143 8:1 12:1 15:1 22:1 25:1 33:1 38:1 39:1 48:1 49:1 58:1 60:1 
0.4631092304131085 1:-128 2:148 3:20 8:1 10:1 18:1 19:1 25:1 33:1 38:1 43:1 45:1 53:1 56:1 63:1 
0.21664456000606 1:-34 2:148 3:114 8:1 10:1 18:1 19:1 25:1 33:1 35:1 43:1 45:1 53:1 57:1 60:1 
0.9882913511143516 1:-5 2:148 3:143 8:1 10:1 18:1 19:1 25:1 33:1 38:1 39:1 48:1 49:1 58:1 60:1 
0.3660462978399689 1:87 2:67 3:154 8:1 12:1 15:1 22:1 25:1 33:1 38:1 43:1 47:1 49:1 58:1 59:1 
0.1813750730361731 1:61 2:93 3:154 8:1 9:1 15:1 23:1 28:1 33:1 38:1 43:1 47:1 49:1 58:1 59:1 
0.05716834761716732 1:6 2:148 3:154 8:1 10:1 18:1 19:1 25:1 33:1 38:1 43:1 47:1 49:1 58:1 59:1 
0.3034981948630713 1:-165 2:173 3:8 8:1 9:1 15:1 22:1 25:1 33:1 35:1 40:1 48:1 49:1 56:1 60:1 
0.7666670392650284 1:-153 2:173 3:20 8:1 9:1 15:1 22:1 25:1 33:1 38:1 43:1 45:1 53:1 56:1 63:1 
0.1868632451876678 1:-130 2:173 3:43 8:1 9:1 15:1 22:1 25:1 33:1 35:1 43:1 44:1 50:1 58:1 63:1 
0.08663410884150344 1:-59 2:173 3:114 8:1 9:1 15:1 22:1 25:1 33:1 35:1 43:1 45:1 53:1 57:1 60:1 
0.3429108645671482 1:-38 2:173 3:135 8:1 9:1 15:1 22:1 25:1 33:1 38:1 43:1 45:1 49:1 58:1 63:1 
0.4137591218063887 1:-30 2:173 3:143 8:1 9:1 15:1 22:1 25:1 33:1 38:1 39:1 48:1 49:1 58:1 60:1 
0.1875928814029123 1:-19 2:173 3:154 8:1 9:1 15:1 22:1 25:1 33:1 38:1 43:1 47:1 49:1 58:1 59:1 
0.1421739210174106 1:-71 2:185 3:114 4:1 13:1 14:1 19:1 28:1 30:1 35:1 43:1 45:1 53:1 57:1 60:1 
0.5630266395364115 1:-50 2:185 3:135 4:1 13:1 14:1 19:1 28:1 30:1 38:1 43:1 45:1 49:1 58:1 63:1 
0.6638939901360897 1:-42 2:185 3:143 4:1 13:1 14:1 19:1 28:1 30:1 38:1 39:1 48:1 49:1 58:1 60:1 
0.008416485998628541 1:176 2:22 3:198 5:1 13:1 18:1 23:1 28:1 29:1 35:1 43:1 47:1 53:1 54:1 63:1 
0.836816276012195 1:131 2:67 3:198 8:1 12:1 15:1 22:1 25:1 33:1 35:1 43:1 47:1 53:1 54:1 63:1 
0.005294235717587651 1:105 2:93 3:198 8:1 9:1 15:1 23:1 28:1 33:1 35:1 43:1 47:1 53:1 54:1 63:1 
0.5843094027042467 1:50 2:148 3:198 8:1 10:1 18:1 19:1 25:1 33:1 35:1 43:1 47:1 53:1 54:1 63:1 
0.4194042343887689 1:13 2:185 3:198 4:1 13:1 14:1 19:1 28:1 30:1 35:1 43:1 47:1 53:1 54:1 63:1 
0.725292733236681 1:2 2:17 3:19 8:1 10:1 14:1 20:1 28:1 29:1 34:1 41:1 45:1 49:1 55:1 63:1 
0.03108378582084427 1:-33 2:40 3:7 7:1 13:1 18:1 19:1 28:1 33:1 34:1 43:1 48:1 53:1 55:1 60:1 
0.3504624242602075 1:-30 2:49 3:19 5:1 12:1 17:1 23:1 26:1 30:1 34:1 41:1 45:1 49:1 55:1 63:1 
0.4823682301208867 1:-27 2:49 3:22 5:1 12:1 17:1 23:1 26:1 30:1 38:1 39:1 45:1 53:1 56:1 63:1 
0.7656138025208459 1:-32 2:51 3:19 7:1 11:1 18:1 20:1 28:1 33:1 34:1 41:1 45:1 49:1 55:1 63:1 
0.1977178896051134 1:-70 2:77 3:7 8:1 13:1 15:1 23:1 28:1 29:1 34:1 43:1 48:1 53:1 55:1 60:1 
0.1601099458139745 1:-47 2:77 3:30 8:1 13:1 15:1 23:1 28:1 29:1 34:1 39:1 48:1 49:1 54:1 59:1 
0.3800852200867122 1:-62 2:81 3:19 8:1 13:1 14:1 23:1 27:1 33:1 34:1 41:1 45:1 49:1 55:1 63:1 
1 1:-59 2:81 3:22 8:1 13:1 14:1 23:1 27:1 33:1 38:1 39:1 45:1 53:1 56:1 63:1 
0.3314584725158383 1:-51 2:81 3:30 8:1 13:1 14:1 23:1 27:1 33:1 34:1 39:1 48:1 49:1 54:1 59:1 
0.5045311421667634 1:58 2:24 3:82 5:1 13:1 18:1 23:1 28:1 29:1 38:1 39:1 46:1 52:1 58:1 59:1 
0.1788837549698312 1:33 2:49 3:82 5:1 12:1 17:1 23:1 26:1 30:1 38:1 39:1 46:1 52:1 58:1 59:1 
0.04493366462429597 1:31 2:51 3:82 7:1 11:1 18:1 20:1 28:1 33:1 38:1 39:1 46:1 52:1 58:1 59:1 
1 1:1 2:81 3:82 8:1 13:1 14:1 23:1 27:1 33:1 38:1 39:1 46:1 52:1 58:1 59:1 
0.3332686537952623 1:-69 2:91 3:22 8:1 9:1 14:1 23:1 25:1 31:1 38:1 39:1 45:1 53:1 56:1 63:1 
0.3174907848716024 1:-61 2:91 3:30 8:1 9:1 14:1 23:1 25:1 31:1 34:1 39:1 48:1 49:1 54:1 59:1 
0.8615777971951217 1:-9 2:91 3:82 8:1 9:1 14:1 23:1 25:1 31:1 38:1 39:1 46:1 52:1 58:1 59:1 
0.1454377204927901 1:-87 2:94 3:7 6:1 13:1 15:1 20:1 26:1 30:1 34:1 43:1 48:1 53:1 55:1 60:1 
0.007637591249007521 1:-75 2:94 3:19 6:1 13:1 15:1 20:1 26:1 30:1 34:1 41:1 45:1 49:1 55:1 63:1 
0.4073376595487702 1:-72 2:94 3:22 6:1 13:1 15:1 20:1 26:1 30:1 38:1 39:1 45:1 53:1 56:1 63:1 
0.262067407496881 1:-64 2:94 3:30 6:1 13:1 15:1 20:1 26:1 30:1 34:1 39:1 48:1 49:1 54:1 59:1 
0.1247042663078729 1:-77 2:96 3:19 5:1 11:1 15:1 20:1 26:1 30:1 34:1 41:1 45:1 49:1 55:1 63:1 
0.08279829203138629 1:-74 2:96 3:22 5:1 11:1 15:1 20:1 26:1 30:1 38:1 39:1 45:1 53:1 56:1 63:1 
0.08164787556797343 1:-66 2:96 3:30 5:1 11:1 15:1 20:1 26:1 30:1 34:1 39:1 48:1 49:1 54:1 59:1 
0.01561487713635735 1:-16 2:98 3:82 5:1 11:1 15:1 20:1 28:1 29:1 38:1 39:1 46:1 52:1 58:1 59:1 
0.2236261270520536 1:83 2:17 3:100 8:1 10:1 14:1 20:1 28:1 29:1 35:1 41:1 45:1 49:1 58:1 59:1 
0.02917287558784891 1:76 2:24 3:100 5:1 13:1 18:1 23:1 28:1 29:1 35:1 41:1 45:1 49:1 58:1 59:1 
0.246945016564916 1:60 2:40 3:100 7:1 13:1 18:1 19:1 28:1 33:1 35:1 41:1 45:1 49:1 58:1 59:1 
0.09186898823575092 1:19 2:81 3:100 8:1 13:1 14:1 23:1 27:1 33:1 35:1 41:1 45:1 49:1 58:1 59:1 
0.4057064376169953 1:9 2:91 3:100 8:1 9:1 14:1 23:1 25:1 31:1 35:1 41:1 45:1 49:1 58:1 59:1 
0.1622675256256209 1:2 2:98 3:100 5:1 11:1 15:1 20:1 28:1 29:1 35:1 41:1 45:1 49:1 58:1 59:1 
0.2788878623385229 1:-98 2:105 3:7 8:1 9:1 14:1 23:1 28:1 29:1 34:1 43:1 48:1 53:1 55:1 60:1 
0.6075207667871441 1:-86 2:105 3:19 8:1 9:1 14:1 23:1 28:1 29:1 34:1 41:1 45:1 49:1 55:1 63:1 
0.5139933751806436 1:-75 2:105 3:30 8:1 9:1 14:1 23:1 28:1 29:1 34:1 39:1 48:1 49:1 54:1 59:1 
0.206991506304921 1:90 2:17 3:107 8:1 10:1 14:1 20:1 28:1 29:1 34:1 41:1 48:1 49:1 56:1 59:1 
0.1776516489844519 1:83 2:24 3:107 5:1 13:1 18:1 23:1 28:1 29:1 34:1 41:1 48:1 49:1 56:1 59:1 
0.2036641270074002 1:58 2:49 3:107 5:1 12:1 17:1 23:1 26:1 30:1 34:1 41:1 48:1 49:1 56:1 59:1 
0.4477191965769198 1:56 2:51 3:107 7:1 11:1 18:1 20:1 28:1 33:1 34:1 41:1 48:1 49:1 56:1 59:1 
0.01632126151235754 1:13 2:94 3:107 6:1 13:1 15:1 20:1 26:1 30:1 34:1 41:1 48:1 49:1 56:1 59:1 
0.06388203447226917 1:11 2:96 3:107 5:1 11:1 15:1 20:1 26:1 30:1 34:1 41:1 48:1 49:1 56:1 59:1 
1 1:2 2:105 3:107 8:1 9:1 14:1 23:1 28:1 29:1 34:1 41:1 48:1 49:1 56:1 59:1 
0.02120020834769003 1:-90 2:109 3:19 8:1 13:1 14:1 19:1 24:1 30:1 34:1 41:1 45:1 49:1 55:1 63:1 
0.04076996969507663 1:-27 2:109 3:82 8:1 13:1 14:1 19:1 24:1 30:1 38:1 39:1 46:1 52:1 58:1 59:1 
0.7695157809878823 1:-9 2:109 3:100 8:1 13:1 14:1 19:1 24:1 30:1 35:1 41:1 45:1 49:1 58:1 59:1 
0.1338246449945414 1:-139 2:146 3:7 8:1 9:1 15:1 22:1 25:1 29:1 34:1 43:1 48:1 53:1 55:1 60:1 
0.05306034232539732 1:-116 2:146 3:30 8:1 9:1 15:1 22:1 25:1 29:1 34:1 39:1 48:1 49:1 54:1 59:1 
0.2523726286745825 1:-64 2:146 3:82 8:1 9:1 15:1 22:1 25:1 29:1 38:1 39:1 46:1 52:1 58:1 59:1 
0.639315286619388 1:-46 2:146 3:100 8:1 9:1 15:1 22:1 25:1 29:1 35:1 41:1 45:1 49:1 58:1 59:1 
0.1344807598817119 1:-39 2:146 3:107 8:1 9:1 15:1 22:1 25:1 29:1 34:1 41:1 48:1 49:1 56:1 59:1 
0.004662543348474607 1:78 2:81 3:159 8:1 13:1 14:1 23:1 27:1 33:1 35:1 43:1 44:1 49:1 57:1 59:1 
0.1301215199535579 1:68 2:91 3:159 8:1 9:1 14:1 23:1 25:1 31:1 35:1 43:1 44:1 49:1 57:1 59:1 
0.1044588803620939 1:13 2:146 3:159 8:1 9:1 15:1 22:1 25:1 29:1 35:1 43:1 44:1 49:1 57:1 59:1 
0.5729293253973518 1:-177 2:207 3:30 8:1 12:1 15:1 20:1 28:1 33:1 34:1 39:1 48:1 49:1 54:1 59:1 
0.2354407809100187 1:-125 2:207 3:82 8:1 12:1 15:1 20:1 28:1 33:1 38:1 39:1 46:1 52:1 58:1 59:1 
0.07660246793415278 1:-100 2:207 3:107 8:1 12:1 15:1 20:1 28:1 33:1 34:1 41:1 48:1 49:1 56:1 59:1 
0.2275818102775906 1:-48 2:207 3:159 8:1 12:1 15:1 20:1 28:1 33:1 35:1 43:1 44:1 49:1 57:1 59:1 
0.3384982759115833 1:-199 2:221 3:22 8:1 10:1 18:1 20:1 28:1 29:1 38:1 39:1 45:1 53:1 56:1 63:1 
0.1529062524756307 1:-191 2:221 3:30 8:1 10:1 18:1 20:1 28:1 29:1 34:1 39:1 48:1 49:1 54:1 59:1 
0.8030808777345601 1:-139 2:221 3:82 8:1 10:1 18:1 20:1 28:1 29:1 38:1 39:1 46:1 52:1 58:1 59:1 
0.1025959408808917 1:-62 2:221 3:159 8:1 10:1 18:1 20:1 28:1 29:1 35:1 43:1 44:1 49:1 57:1 59:1 
0.9698184437272143 1:-221 2:240 3:19 8:1 11:1 15:1 20:1 26:1 33:1 34:1 41:1 45:1 49:1 55:1 63:1 
0.3190849905133415 1:-210 2:240 3:30 8:1 11:1 15:1 20:1 26:1 33:1 34:1 39:1 48:1 49:1 54:1 59:1 
0.3231807457516377 1:-133 2:240 3:107 8:1 11:1 15:1 20:1 26:1 33:1 34:1 41:1 48:1 49:1 56:1 59:1 
0.007874862698340646 1:-81 2:240 3:159 8:1 11:1 15:1 20:1 26:1 33:1 35:1 43:1 44:1 49:1 57:1 59:1 
0.04240581264515334 1:-235 2:242 3:7 5:1 11:1 15:1 23:1 27:1 33:1 34:1 43:1 48:1 53:1 55:1 60:1 
0.03561208448743682 1:-223 2:242 3:19 5:1 11:1 15:1 23:1 27:1 33:1 34:1 41:1 45:1 49:1 55:1 63:1 
0.04270328393456906 1:-160 2:242 3:82 5:1 11:1 15:1 23:1 27:1 33:1 38:1 39:1 46:1 52:1 58:1 59:1 
0.2839548858467752 1:-83 2:242 3:159 5:1 11:1 15:1 23:1 27:1 33:1 35:1 43:1 44:1 49:1 57:1 59:1 
0.08387109193975056 1:30 2:14 3:44 5:1 13:1 18:1 23:1 27:1 30:1 34:1 42:1 45:1 49:1 56:1 63:1 
0.01215069011227437 1:96 2:7 3:103 5:1 13:1 14:1 20:1 26:1 32:1 37:1 40:1 48:1 52:1 58:1 63:1 
0.01914572671381503 1:-119 2:222 3:103 5:1 13:1 15:1 22:1 25:1 33:1 37:1 40:1 48:1 52:1 58:1 63:1 
1 1:-7 2:46 3:39 6:1 13:1 18:1 20:1 25:1 30:1 38:1 42:1 45:1 49:1 55:1 59:1 
0.1904913302087049 1:5 2:46 3:51 6:1 13:1 18:1 20:1 25:1 30:1 35:1 40:1 45:1 53:1 58:1 59:1 
0.03008435054867555 1:18 2:46 3:64 6:1 13:1 18:1 20:1 25:1 30:1 38:1 42:1 45:1 49:1 56:1 60:1 
0.3983478548488212 1:-15 2:66 3:51 5:1 13:1 14:1 20:1 28:1 29:1 35:1 40:1 45:1 53:1 58:1 59:1 
1 1:2 2:66 3:68 5:1 13:1 14:1 20:1 28:1 29:1 34:1 41:1 45:1 49:1 58:1 63:1 
0.4895085928642053 1:-35 2:74 3:39 8:1 13:1 18:1 22:1 28:1 33:1 38:1 42:1 45:1 49:1 55:1 59:1 
1 1:-6 2:74 3:68 8:1 13:1 18:1 22:1 28:1 33:1 34:1 41:1 45:1 49:1 58:1 63:1 
0.07320099305305459 1:45 2:43 3:88 4:1 10:1 14:1 23:1 28:1 31:1 35:1 40:1 45:1 53:1 58:1 62:1 
0.5040900522068167 1:22 2:66 3:88 5:1 13:1 14:1 20:1 28:1 29:1 35:1 40:1 45:1 53:1 58:1 62:1 
0.0599806872788062 1:14 2:74 3:88 8:1 13:1 18:1 22:1 28:1 33:1 35:1 40:1 45:1 53:1 58:1 62:1 
0.3563757512594382 1:-81 2:120 3:39 8:1 9:1 14:1 23:1 28:1 29:1 38:1 42:1 45:1 49:1 55:1 59:1 
0.5355650877093717 1:-69 2:120 3:51 8:1 9:1 14:1 23:1 28:1 29:1 35:1 40:1 45:1 53:1 58:1 59:1 
0.03030928286700094 1:-56 2:120 3:64 8:1 9:1 14:1 23:1 28:1 29:1 38:1 42:1 45:1 49:1 56:1 60:1 
0.4392424749622423 1:-52 2:120 3:68 8:1 9:1 14:1 23:1 28:1 29:1 34:1 41:1 45:1 49:1 58:1 63:1 
0.09927314302526391 1:199 2:25 3:224 5:1 13:1 18:1 21:1 28:1 33:1 35:1 40:1 45:1 53:1 58:1 59:1 
0.05961690865911264 1:181 2:43 3:224 4:1 10:1 14:1 23:1 28:1 31:1 35:1 40:1 45:1 53:1 58:1 59:1 
0.03077651570550757 1:150 2:74 3:224 8:1 13:1 18:1 22:1 28:1 33:1 35:1 40:1 45:1 53:1 58:1 59:1 
0.3206671411597092 1:-212 2:251 3:39 8:1 9:1 15:1 23:1 24:1 29:1 38:1 42:1 45:1 49:1 55:1 59:1 
0.06675382574229181 1:-200 2:251 3:51 8:1 9:1 15:1 23:1 24:1 29:1 35:1 40:1 45:1 53:1 58:1 59:1 
0.0573541832951444 1:-187 2:251 3:64 8:1 9:1 15:1 23:1 24:1 29:1 38:1 42:1 45:1 49:1 56:1 60:1 
0.3055544657227706 1:-163 2:251 3:88 8:1 9:1 15:1 23:1 24:1 29:1 35:1 40:1 45:1 53:1 58:1 62:1 
1 1:-10 2:10 3:0 8:1 13:1 18:1 21:1 28:1 33:1 53:1 55:1 60:1 
1 1:-3 2:11 3:8 8:1 13:1 16:1 23:1 28:1 33:1 35:1 40:1 48:1 53:1 56:1 61:1 
0.2421782857304878 1:-28 2:28 3:0 7:1 10:1 18:1 23:1 24:1 29:1 53:1 55:1 60:1 
0.1303589459397125 1:12 2:28 3:40 7:1 10:1 18:1 23:1 24:1 29:1 35:1 40:1 48:1 49:1 58:1 63:1 
0.3453631773169259 1:-42 2:58 3:16 7:1 10:1 15:1 22:1 25:1 30:1 38:1 43:1 48:1 49:1 58:1 63:1 
0.05773037693928743 1:-74 2:74 3:0 4:1 10:1 17:1 19:1 28:1 29:1 53:1 55:1 60:1 
0.6943923291890877 1:-157 2:165 3:8 8:1 12:1 14:1 22:1 26:1 33:1 35:1 40:1 48:1 53:1 56:1 61:1 
0.03861363920706377 1:-125 2:165 3:40 8:1 12:1 14:1 22:1 26:1 33:1 35:1 40:1 48:1 49:1 58:1 63:1 
0.08841655117164271 1:-35 2:165 3:130 8:1 12:1 14:1 22:1 26:1 33:1 38:1 40:1 48:1 50:1 58:1 63:1 
0.04548127559220273 1:-159 2:167 3:8 4:1 11:1 17:1 23:1 28:1 29:1 35:1 40:1 48:1 53:1 56:1 61:1 
0.1976868147465471 1:-169 2:185 3:16 4:1 10:1 17:1 19:1 27:1 33:1 38:1 43:1 48:1 49:1 58:1 63:1 
0.4069301453018417 1:181 2:11 3:192 8:1 13:1 16:1 23:1 28:1 33:1 38:1 40:1 47:1 52:1 58:1 63:1 
0.4460954394203325 1:164 2:28 3:192 7:1 10:1 18:1 23:1 24:1 29:1 38:1 40:1 47:1 52:1 58:1 63:1 
0.04263733110475686 1:25 2:167 3:192 4:1 11:1 17:1 23:1 28:1 29:1 38:1 40:1 47:1 52:1 58:1 63:1 
0.310799746095462 1:12 2:180 3:192 7:1 12:1 18:1 22:1 24:1 30:1 38:1 40:1 47:1 52:1 58:1 63:1 
0.2822453887458151 1:225 2:11 3:236 8:1 13:1 16:1 23:1 28:1 33:1 34:1 42:1 45:1 53:1 58:1 63:1 
0.05136340517804002 1:178 2:58 3:236 7:1 10:1 15:1 22:1 25:1 30:1 34:1 42:1 45:1 53:1 58:1 63:1 
0.02792992993040893 1:162 2:74 3:236 4:1 10:1 17:1 19:1 28:1 29:1 34:1 42:1 45:1 53:1 58:1 63:1 
0.06595357067011115 1:69 2:167 3:236 4:1 11:1 17:1 23:1 28:1 29:1 34:1 42:1 45:1 53:1 58:1 63:1 
0.1877648409257234 1:51 2:185 3:236 4:1 10:1 17:1 19:1 27:1 33:1 34:1 42:1 45:1 53:1 58:1 63:1 
0.5182326072415226 1:243 2:28 3:271 7:1 10:1 18:1 23:1 24:1 29:1 34:1 40:1 48:1 53:1 55:1 59:1 
0.003375597505292012 1:213 2:58 3:271 7:1 10:1 15:1 22:1 25:1 30:1 34:1 40:1 48:1 53:1 55:1 59:1 
0.1286567693962535 1:104 2:167 3:271 4:1 11:1 17:1 23:1 28:1 29:1 34:1 40:1 48:1 53:1 55:1 59:1 
0.0538115140941826 1:91 2:180 3:271 7:1 12:1 18:1 22:1 24:1 30:1 34:1 40:1 48:1 53:1 55:1 59:1 
1 1:1 2:0 3:1 23:1 28:1 32:1 46:1 53:1 57:1 60:1 
0.2636079419681778 1:33 2:0 3:33 23:1 28:1 32:1 38:1 43:1 45:1 52:1 58:1 59:1 
0.4150213342593216 1:35 2:0 3:35 23:1 28:1 32:1 35:1 43:1 47:1 49:1 55:1 60:1 
0.1441251647896738 1:264 2:0 3:264 23:1 28:1 32:1 37:1 42:1 47:1 49:1 54:1 62:1 
0.4261971207542036 1:289 2:0 3:289 23:1 28:1 32:1 34:1 43:1 45:1 53:1 57:1 62:1 
0.1505011642684878 1:300 2:0 3:300 23:1 28:1 32:1 35:1 43:1 47:1 53:1 54:1 59:1 
0.08463425435146371 1:-273 2:306 3:33 4:1 10:1 18:1 19:1 28:1 33:1 38:1 43:1 45:1 52:1 58:1 59:1 
0.1734623132050983 1:-271 2:306 3:35 4:1 10:1 18:1 19:1 28:1 33:1 35:1 43:1 47:1 49:1 55:1 60:1 
0.02431904168613643 1:-225 2:306 3:81 4:1 10:1 18:1 19:1 28:1 33:1 35:1 40:1 45:1 53:1 58:1 63:1 
0.4141895612217668 1:-175 2:306 3:131 4:1 10:1 18:1 19:1 28:1 33:1 34:1 42:1 45:1 49:1 58:1 63:1 
0.1047004755192585 1:-123 2:306 3:183 4:1 10:1 18:1 19:1 28:1 33:1 38:1 39:1 45:1 52:1 54:1 59:1 
0.1177565523024132 1:-104 2:306 3:202 4:1 10:1 18:1 19:1 28:1 33:1 37:1 42:1 45:1 52:1 58:1 59:1 
0.05959454195098893 1:-85 2:306 3:221 4:1 10:1 18:1 19:1 28:1 33:1 38:1 42:1 45:1 53:1 57:1 63:1 
0.1211358968678661 1:-42 2:306 3:264 4:1 10:1 18:1 19:1 28:1 33:1 37:1 42:1 47:1 49:1 54:1 62:1 
0.4011757657885683 1:-34 2:306 3:272 4:1 10:1 18:1 19:1 28:1 33:1 38:1 40:1 47:1 49:1 54:1 63:1 
0.2182813473200112 1:-17 2:306 3:289 4:1 10:1 18:1 19:1 28:1 33:1 34:1 43:1 45:1 53:1 57:1 62:1 
0.7538659104379036 1:-6 2:306 3:300 4:1 10:1 18:1 19:1 28:1 33:1 35:1 43:1 47:1 53:1 54:1 59:1 
0.1921564044733048 1:19 2:306 3:325 4:1 10:1 18:1 19:1 28:1 33:1 35:1 43:1 47:1 53:1 54:1 59:1 
0.4433626026530665 1:92 2:306 3:398 4:1 10:1 18:1 19:1 28:1 33:1 35:1 39:1 48:1 52:1 54:1 59:1 
0.5612779409708837 1:458 2:0 3:458 23:1 28:1 32:1 38:1 39:1 45:1 53:1 58:1 63:1 
0.2829904252008332 1:161 2:306 3:467 4:1 10:1 18:1 19:1 28:1 33:1 37:1 40:1 48:1 52:1 57:1 63:1 
0.6339599994713212 1:191 2:306 3:497 4:1 10:1 18:1 19:1 28:1 33:1 34:1 43:1 48:1 49:1 56:1 62:1 
0.00919566036616779 1:-498 2:499 3:1 8:1 13:1 14:1 22:1 25:1 33:1 46:1 53:1 57:1 60:1 
0.05615128897667293 1:-464 2:499 3:35 8:1 13:1 14:1 22:1 25:1 33:1 35:1 43:1 47:1 49:1 55:1 60:1 
0.008177904490058785 1:-440 2:499 3:59 8:1 13:1 14:1 22:1 25:1 33:1 38:1 42:1 45:1 53:1 54:1 63:1 
0.01966291921845703 1:-418 2:499 3:81 8:1 13:1 14:1 22:1 25:1 33:1 35:1 40:1 45:1 53:1 58:1 63:1 
0.1172765522163406 1:-356 2:499 3:143 8:1 13:1 14:1 22:1 25:1 33:1 35:1 39:1 45:1 49:1 54:1 63:1 
0.01985551468625041 1:-316 2:499 3:183 8:1 13:1 14:1 22:1 25:1 33:1 38:1 39:1 45:1 52:1 54:1 59:1 
0.01177708033104941 1:-297 2:499 3:202 8:1 13:1 14:1 22:1 25:1 33:1 37:1 42:1 45:1 52:1 58:1 59:1 
0.02230445745271042 1:-278 2:499 3:221 8:1 13:1 14:1 22:1 25:1 33:1 38:1 42:1 45:1 53:1 57:1 63:1 
0.01670967378743854 1:-273 2:499 3:226 8:1 13:1 14:1 22:1 25:1 33:1 37:1 43:1 48:1 49:1 58:1 63:1 
0.01731219936254047 1:-235 2:499 3:264 8:1 13:1 14:1 22:1 25:1 33:1 37:1 42:1 47:1 49:1 54:1 62:1 
0.01299651444675294 1:-210 2:499 3:289 8:1 13:1 14:1 22:1 25:1 33:1 34:1 43:1 45:1 53:1 57:1 62:1 
0.01029601123567846 1:-199 2:499 3:300 8:1 13:1 14:1 22:1 25:1 33:1 35:1 43:1 47:1 53:1 54:1 59:1 
0.01504637956679349 1:-190 2:499 3:309 8:1 13:1 14:1 22:1 25:1 33:1 36:1 39:1 48:1 53:1 57:1 60:1 
0.01925150162614742 1:-174 2:499 3:325 8:1 13:1 14:1 22:1 25:1 33:1 35:1 43:1 47:1 53:1 54:1 59:1 
0.009774510576620023 1:-153 2:499 3:346 8:1 13:1 14:1 22:1 25:1 33:1 34:1 40:1 47:1 53:1 58:1 62:1 
0.02145121401722318 1:-151 2:499 3:348 8:1 13:1 14:1 22:1 25:1 33:1 37:1 43:1 48:1 52:1 58:1 59:1 
0.01113321778644851 1:-121 2:499 3:378 8:1 13:1 14:1 22:1 25:1 33:1 34:1 42:1 48:1 53:1 54:1 63:1 
0.06350515764891423 1:-95 2:499 3:404 8:1 13:1 14:1 22:1 25:1 33:1 34:1 40:1 48:1 49:1 54:1 63:1 
0.02077013843907585 1:-41 2:499 3:458 8:1 13:1 14:1 22:1 25:1 33:1 38:1 39:1 45:1 53:1 58:1 63:1 
0.008560075614776785 1:-32 2:499 3:467 8:1 13:1 14:1 22:1 25:1 33:1 37:1 40:1 48:1 52:1 57:1 63:1 
0.7716269572144134 1:-2 2:499 3:497 8:1 13:1 14:1 22:1 25:1 33:1 34:1 43:1 48:1 49:1 56:1 62:1 
0.6465682204781251 1:196 2:306 3:502 4:1 10:1 18:1 19:1 28:1 33:1 36:1 42:1 45:1 53:1 54:1 62:1 
0.03940540586384381 1:3 2:499 3:502 8:1 13:1 14:1 22:1 25:1 33:1 36:1 42:1 45:1 53:1 54:1 62:1 
0.2466972355527381 1:513 2:0 3:513 23:1 28:1 32:1 34:1 43:1 47:1 52:1 58:1 63:1 
0.01454254185056952 1:207 2:306 3:513 4:1 10:1 18:1 19:1 28:1 33:1 34:1 43:1 47:1 52:1 58:1 63:1 
0.01475599354158215 1:527 2:0 3:527 23:1 28:1 32:1 37:1 40:1 48:1 52:1 54:1 60:1 
0.02839537136743225 1:221 2:306 3:527 4:1 10:1 18:1 19:1 28:1 33:1 37:1 40:1 48:1 52:1 54:1 60:1 
0.02586349932943244 1:28 2:499 3:527 8:1 13:1 14:1 22:1 25:1 33:1 37:1 40:1 48:1 52:1 54:1 60:1 
0.04244937147554546 1:539 2:0 3:539 23:1 28:1 32:1 35:1 42:1 45:1 53:1 57:1 63:1 
0.02054211592241661 1:233 2:306 3:539 4:1 10:1 18:1 19:1 28:1 33:1 35:1 42:1 45:1 53:1 57:1 63:1 
0.01801607267522337 1:40 2:499 3:539 8:1 13:1 14:1 22:1 25:1 33:1 35:1 42:1 45:1 53:1 57:1 63:1 
0.1621387098017636 1:542 2:0 3:542 23:1 28:1 32:1 38:1 43:1 47:1 49:1 54:1 63:1 
0.01220636776613104 1:236 2:306 3:542 4:1 10:1 18:1 19:1 28:1 33:1 38:1 43:1 47:1 49:1 54:1 63:1 
1 1:-137 2:150 3:13 8:1 9:1 15:1 22:1 28:1 33:1 34:1 41:1 45:1 49:1 56:1 63:1 
0.4506825964387946 1:-149 2:162 3:13 5:1 13:1 14:1 22:1 25:1 33:1 34:1 41:1 45:1 49:1 56:1 63:1 
0.1123156259214135 1:159 2:15 3:174 5:1 13:1 14:1 23:1 28:1 33:1 38:1 42:1 48:1 53:1 58:1 63:1 
0.1204259672578799 1:12 2:162 3:174 5:1 13:1 14:1 22:1 25:1 33:1 38:1 42:1 48:1 53:1 58:1 63:1 
1 1:-166 2:179 3:13 8:1 13:1 15:1 22:1 25:1 33:1 34:1 41:1 45:1 49:1 56:1 63:1 
1 1:-5 2:179 3:174 8:1 13:1 15:1 22:1 25:1 33:1 38:1 42:1 48:1 53:1 58:1 63:1 
0.5233047397902999 1:167 2:15 3:182 5:1 13:1 14:1 23:1 28:1 33:1 36:1 42:1 45:1 53:1 58:1 63:1 
0.3511090627282692 1:169 2:15 3:184 5:1 13:1 14:1 23:1 28:1 33:1 35:1 43:1 48:1 53:1 57:1 62:1 
0.7329380521186309 1:34 2:150 3:184 8:1 9:1 15:1 22:1 28:1 33:1 35:1 43:1 48:1 53:1 57:1 62:1 
0.1921218686270882 1:22 2:162 3:184 5:1 13:1 14:1 22:1 25:1 33:1 35:1 43:1 48:1 53:1 57:1 62:1 
0.4094150428336503 1:14 2:170 3:184 4:1 12:1 14:1 23:1 27:1 33:1 35:1 43:1 48:1 53:1 57:1 62:1 
0.06768187199600653 1:151 2:46 3:197 8:1 13:1 15:1 23:1 28:1 32:1 38:1 43:1 48:1 53:1 55:1 63:1 
0.6213903372889215 1:47 2:150 3:197 8:1 9:1 15:1 22:1 28:1 33:1 38:1 43:1 48:1 53:1 55:1 63:1 
0.5046764381240626 1:18 2:179 3:197 8:1 13:1 15:1 22:1 25:1 33:1 38:1 43:1 48:1 53:1 55:1 63:1 
0.02292380393346257 1:-189 2:202 3:13 5:1 13:1 14:1 20:1 27:1 30:1 34:1 41:1 45:1 49:1 56:1 63:1 
0.5179555222231963 1:-37 2:202 3:165 5:1 13:1 14:1 20:1 27:1 30:1 36:1 42:1 45:1 53:1 54:1 62:1 
0.6962584416630625 1:-28 2:202 3:174 5:1 13:1 14:1 20:1 27:1 30:1 38:1 42:1 48:1 53:1 58:1 63:1 
0.02884919641776486 1:-18 2:202 3:184 5:1 13:1 14:1 20:1 27:1 30:1 35:1 43:1 48:1 53:1 57:1 62:1 
1 1:-5 2:202 3:197 5:1 13:1 14:1 20:1 27:1 30:1 38:1 43:1 48:1 53:1 55:1 63:1 
0.0007693891494808553 1:198 2:15 3:213 5:1 13:1 14:1 23:1 28:1 33:1 34:1 40:1 44:1 53:1 54:1 61:1 
0.324873806608556 1:167 2:46 3:213 8:1 13:1 15:1 23:1 28:1 32:1 34:1 40:1 44:1 53:1 54:1 61:1 
0.3533201952290157 1:43 2:170 3:213 4:1 12:1 14:1 23:1 27:1 33:1 34:1 40:1 44:1 53:1 54:1 61:1 
0.4157467187136766 1:34 2:179 3:213 8:1 13:1 15:1 22:1 25:1 33:1 34:1 40:1 44:1 53:1 54:1 61:1 
0.3242036956620638 1:11 2:202 3:213 5:1 13:1 14:1 20:1 27:1 30:1 34:1 40:1 44:1 53:1 54:1 61:1 
0.04802954523273638 1:-215 2:216 3:1 8:1 13:1 14:1 23:1 28:1 31:1 48:1 53:1 55:1 60:1 
0.8136849800737064 1:-203 2:216 3:13 8:1 13:1 14:1 23:1 28:1 31:1 34:1 41:1 45:1 49:1 56:1 63:1 
0.3469952621092868 1:-51 2:216 3:165 8:1 13:1 14:1 23:1 28:1 31:1 36:1 42:1 45:1 53:1 54:1 62:1 
0.03546741981156045 1:-42 2:216 3:174 8:1 13:1 14:1 23:1 28:1 31:1 38:1 42:1 48:1 53:1 58:1 63:1 
0.01194293014104159 1:-218 2:219 3:1 6:1 13:1 18:1 22:1 28:1 29:1 48:1 53:1 55:1 60:1 
1 1:-206 2:219 3:13 6:1 13:1 18:1 22:1 28:1 29:1 34:1 41:1 45:1 49:1 56:1 63:1 
0.5447269797901018 1:-45 2:219 3:174 6:1 13:1 18:1 22:1 28:1 29:1 38:1 42:1 48:1 53:1 58:1 63:1 
0.8383140127963937 1:-35 2:219 3:184 6:1 13:1 18:1 22:1 28:1 29:1 35:1 43:1 48:1 53:1 57:1 62:1 
0.7229844689484917 1:-22 2:219 3:197 6:1 13:1 18:1 22:1 28:1 29:1 38:1 43:1 48:1 53:1 55:1 63:1 
0.9383260627979997 1:-6 2:219 3:213 6:1 13:1 18:1 22:1 28:1 29:1 34:1 40:1 44:1 53:1 54:1 61:1 
0.006714722897116839 1:-45 2:227 3:182 8:1 12:1 15:1 19:1 27:1 33:1 36:1 42:1 45:1 53:1 58:1 63:1 
0.08066524818537525 1:-43 2:227 3:184 8:1 12:1 15:1 19:1 27:1 33:1 35:1 43:1 48:1 53:1 57:1 62:1 
0.3925994018797954 1:-14 2:227 3:213 8:1 12:1 15:1 19:1 27:1 33:1 34:1 40:1 44:1 53:1 54:1 61:1 
0.1520719156422781 1:199 2:46 3:245 8:1 13:1 15:1 23:1 28:1 32:1 38:1 42:1 45:1 53:1 54:1 63:1 
0.3003126458810777 1:29 2:216 3:245 8:1 13:1 14:1 23:1 28:1 31:1 38:1 42:1 45:1 53:1 54:1 63:1 
0.4231494991005945 1:18 2:227 3:245 8:1 12:1 15:1 19:1 27:1 33:1 38:1 42:1 45:1 53:1 54:1 63:1 
0.3497183755668276 1:57 2:216 3:273 8:1 13:1 14:1 23:1 28:1 31:1 38:1 39:1 45:1 53:1 58:1 63:1 
0.5205370989237439 1:46 2:227 3:273 8:1 12:1 15:1 19:1 27:1 33:1 38:1 39:1 45:1 53:1 58:1 63:1 
0.3193934275106495 1:264 2:11 3:275 8:1 10:1 14:1 20:1 28:1 29:1 35:1 43:1 48:1 53:1 58:1 63:1 
0.009255129629199249 1:260 2:15 3:275 5:1 13:1 14:1 23:1 28:1 33:1 35:1 43:1 48:1 53:1 58:1 63:1 
0.1153262793909256 1:229 2:46 3:275 8:1 13:1 15:1 23:1 28:1 32:1 35:1 43:1 48:1 53:1 58:1 63:1 
0.3613700405458383 1:125 2:150 3:275 8:1 9:1 15:1 22:1 28:1 33:1 35:1 43:1 48:1 53:1 58:1 63:1 
0.1036251349358678 1:113 2:162 3:275 5:1 13:1 14:1 22:1 25:1 33:1 35:1 43:1 48:1 53:1 58:1 63:1 
0.5029222074762822 1:105 2:170 3:275 4:1 12:1 14:1 23:1 27:1 33:1 35:1 43:1 48:1 53:1 58:1 63:1 
0.7025858502371684 1:96 2:179 3:275 8:1 13:1 15:1 22:1 25:1 33:1 35:1 43:1 48:1 53:1 58:1 63:1 
0.3720690882533856 1:56 2:219 3:275 6:1 13:1 18:1 22:1 28:1 29:1 35:1 43:1 48:1 53:1 58:1 63:1 
0.1610075817422495 1:117 2:179 3:296 8:1 13:1 15:1 22:1 25:1 33:1 37:1 40:1 48:1 52:1 58:1 60:1 
0.01219770842409801 1:77 2:219 3:296 6:1 13:1 18:1 22:1 28:1 29:1 37:1 40:1 48:1 52:1 58:1 60:1 
0.4508351508308985 1:295 2:15 3:310 5:1 13:1 14:1 23:1 28:1 33:1 38:1 42:1 48:1 53:1 58:1 63:1 
0.3236043604779872 1:148 2:162 3:310 5:1 13:1 14:1 22:1 25:1 33:1 38:1 42:1 48:1 53:1 58:1 63:1 
0.3703664062973238 1:108 2:202 3:310 5:1 13:1 14:1 20:1 27:1 30:1 38:1 42:1 48:1 53:1 58:1 63:1 
0.6905466493049058 1:94 2:216 3:310 8:1 13:1 14:1 23:1 28:1 31:1 38:1 42:1 48:1 53:1 58:1 63:1 
0.6017713167946792 1:122 2:202 3:324 5:1 13:1 14:1 20:1 27:1 30:1 38:1 42:1 48:1 52:1 58:1 59:1 
0.9391902358273621 1:108 2:216 3:324 8:1 13:1 14:1 23:1 28:1 31:1 38:1 42:1 48:1 52:1 58:1 59:1 
0.2672047467847574 1:-176 2:341 3:165 8:1 13:1 15:1 23:1 27:1 30:1 36:1 42:1 45:1 53:1 54:1 62:1 
0.04234007095440631 1:-159 2:341 3:182 8:1 13:1 15:1 23:1 27:1 30:1 36:1 42:1 45:1 53:1 58:1 63:1 
0.1300250855307374 1:-157 2:341 3:184 8:1 13:1 15:1 23:1 27:1 30:1 35:1 43:1 48:1 53:1 57:1 62:1 
0.008519751323022628 1:-144 2:341 3:197 8:1 13:1 15:1 23:1 27:1 30:1 38:1 43:1 48:1 53:1 55:1 63:1 
0.2741951468125015 1:-45 2:341 3:296 8:1 13:1 15:1 23:1 27:1 30:1 37:1 40:1 48:1 52:1 58:1 60:1 
0.1921113084926225 1:-31 2:341 3:310 8:1 13:1 15:1 23:1 27:1 30:1 38:1 42:1 48:1 53:1 58:1 63:1 
0.05550141720758946 1:175 2:170 3:345 4:1 12:1 14:1 23:1 27:1 33:1 38:1 42:1 45:1 49:1 58:1 60:1 
0.2461061467703719 1:126 2:219 3:345 6:1 13:1 18:1 22:1 28:1 29:1 38:1 42:1 45:1 49:1 58:1 60:1 
0.003096106369783413 1:118 2:227 3:345 8:1 12:1 15:1 19:1 27:1 33:1 38:1 42:1 45:1 49:1 58:1 60:1 
0.2442135725884899 1:4 2:341 3:345 8:1 13:1 15:1 23:1 27:1 30:1 38:1 42:1 45:1 49:1 58:1 60:1 
0.03211561267486251 1:149 2:202 3:351 5:1 13:1 14:1 20:1 27:1 30:1 35:1 43:1 47:1 49:1 57:1 62:1 
0.8150037312145478 1:135 2:216 3:351 8:1 13:1 14:1 23:1 28:1 31:1 35:1 43:1 47:1 49:1 57:1 62:1 
0.8155881785126675 1:-347 2:360 3:13 8:1 13:1 15:1 22:1 25:1 32:1 34:1 41:1 45:1 49:1 56:1 63:1 
0.3146461509836195 1:-176 2:360 3:184 8:1 13:1 15:1 22:1 25:1 32:1 35:1 43:1 48:1 53:1 57:1 62:1 
0.2220412457448459 1:-163 2:360 3:197 8:1 13:1 15:1 22:1 25:1 32:1 38:1 43:1 48:1 53:1 55:1 63:1 
0.05166182638236719 1:-147 2:360 3:213 8:1 13:1 15:1 22:1 25:1 32:1 34:1 40:1 44:1 53:1 54:1 61:1 
0.6461761617992238 1:-85 2:360 3:275 8:1 13:1 15:1 22:1 25:1 32:1 35:1 43:1 48:1 53:1 58:1 63:1 
0.2811926523134321 1:-15 2:360 3:345 8:1 13:1 15:1 22:1 25:1 32:1 38:1 42:1 45:1 49:1 58:1 60:1 
0.07491282900225286 1:-202 2:376 3:174 7:1 13:1 14:1 19:1 28:1 29:1 38:1 42:1 48:1 53:1 58:1 63:1 
0.1296103164914287 1:-192 2:376 3:184 7:1 13:1 14:1 19:1 28:1 29:1 35:1 43:1 48:1 53:1 57:1 62:1 
0.1626914726090754 1:-179 2:376 3:197 7:1 13:1 14:1 19:1 28:1 29:1 38:1 43:1 48:1 53:1 55:1 63:1 
0.008980270459424285 1:-103 2:376 3:273 7:1 13:1 14:1 19:1 28:1 29:1 38:1 39:1 45:1 53:1 58:1 63:1 
0.0006473449421303124 1:-101 2:376 3:275 7:1 13:1 14:1 19:1 28:1 29:1 35:1 43:1 48:1 53:1 58:1 63:1 
0.5641574062804099 1:-52 2:376 3:324 7:1 13:1 14:1 19:1 28:1 29:1 38:1 42:1 48:1 52:1 58:1 59:1 
0.04074431941680196 1:-427 2:428 3:1 8:1 9:1 15:1 22:1 25:1 33:1 48:1 53:1 55:1 60:1 
0.6684899676308884 1:-244 2:428 3:184 8:1 9:1 15:1 22:1 25:1 33:1 35:1 43:1 48:1 53:1 57:1 62:1 
0.01510059561241648 1:-231 2:428 3:197 8:1 9:1 15:1 22:1 25:1 33:1 38:1 43:1 48:1 53:1 55:1 63:1 
0.01193671978390126 1:-215 2:428 3:213 8:1 9:1 15:1 22:1 25:1 33:1 34:1 40:1 44:1 53:1 54:1 61:1 
1 1:-153 2:428 3:275 8:1 9:1 15:1 22:1 25:1 33:1 35:1 43:1 48:1 53:1 58:1 63:1 
0.0689363210558947 1:-132 2:428 3:296 8:1 9:1 15:1 22:1 25:1 33:1 37:1 40:1 48:1 52:1 58:1 60:1 
0.21996638753394 1:-83 2:428 3:345 8:1 9:1 15:1 22:1 25:1 33:1 38:1 42:1 45:1 49:1 58:1 60:1 
0.1662670864245134 1:418 2:15 3:433 5:1 13:1 14:1 23:1 28:1 33:1 35:1 43:1 45:1 53:1 58:1 63:1 
0.04077640809058858 1:387 2:46 3:433 8:1 13:1 15:1 23:1 28:1 32:1 35:1 43:1 45:1 53:1 58:1 63:1 
0.1844768971540232 1:271 2:162 3:433 5:1 13:1 14:1 22:1 25:1 33:1 35:1 43:1 45:1 53:1 58:1 63:1 
0.1639940029058993 1:231 2:202 3:433 5:1 13:1 14:1 20:1 27:1 30:1 35:1 43:1 45:1 53:1 58:1 63:1 
0.7570889576749003 1:217 2:216 3:433 8:1 13:1 14:1 23:1 28:1 31:1 35:1 43:1 45:1 53:1 58:1 63:1 
0.01502367768184868 1:57 2:376 3:433 7:1 13:1 14:1 19:1 28:1 29:1 35:1 43:1 45:1 53:1 58:1 63:1 
0.1319025836189947 1:12 2:16 3:28 5:1 9:1 14:1 20:1 25:1 33:1 38:1 42:1 48:1 53:1 54:1 60:1 
0.07606682224568678 1:16 2:16 3:32 5:1 9:1 14:1 20:1 25:1 33:1 38:1 39:1 45:1 49:1 56:1 63:1 
0.02563929982172018 1:-34 2:34 3:0 5:1 13:1 14:1 23:1 27:1 33:1 53:1 55:1 60:1 
0.554823552438435 1:-20 2:48 3:28 8:1 12:1 15:1 22:1 25:1 31:1 38:1 42:1 48:1 53:1 54:1 60:1 
0.4337167801494911 1:-16 2:48 3:32 8:1 12:1 15:1 22:1 25:1 31:1 38:1 39:1 45:1 49:1 56:1 63:1 
1 1:-40 2:51 3:11 6:1 12:1 15:1 22:1 28:1 32:1 34:1 39:1 45:1 49:1 55:1 59:1 
0.04574640561197953 1:-42 2:74 3:32 5:1 12:1 18:1 23:1 28:1 33:1 38:1 39:1 45:1 49:1 56:1 63:1 
0.2780774086215279 1:70 2:16 3:86 5:1 9:1 14:1 20:1 25:1 33:1 34:1 43:1 47:1 49:1 58:1 59:1 
0.5102862601168253 1:38 2:48 3:86 8:1 12:1 15:1 22:1 25:1 31:1 34:1 43:1 47:1 49:1 58:1 59:1 
0.2194897024941875 1:12 2:74 3:86 5:1 12:1 18:1 23:1 28:1 33:1 34:1 43:1 47:1 49:1 58:1 59:1 
0.92661548466661 1:79 2:16 3:95 5:1 9:1 14:1 20:1 25:1 33:1 38:1 40:1 48:1 53:1 57:1 63:1 
0.5412481747215547 1:47 2:48 3:95 8:1 12:1 15:1 22:1 25:1 31:1 38:1 40:1 48:1 53:1 57:1 63:1 
0.2755973508484425 1:-99 2:99 3:0 8:1 12:1 18:1 19:1 28:1 30:1 53:1 55:1 60:1 
0.7297707503571038 1:-88 2:99 3:11 8:1 12:1 18:1 19:1 28:1 30:1 34:1 39:1 45:1 49:1 55:1 59:1 
1 1:-4 2:99 3:95 8:1 12:1 18:1 19:1 28:1 30:1 38:1 40:1 48:1 53:1 57:1 63:1 
1 1:-92 2:103 3:11 4:1 13:1 15:1 22:1 25:1 33:1 34:1 39:1 45:1 49:1 55:1 59:1 
0.6634673768523864 1:75 2:34 3:109 5:1 13:1 14:1 23:1 27:1 33:1 38:1 39:1 48:1 49:1 58:1 60:1 
0.440403073439374 1:58 2:51 3:109 6:1 12:1 15:1 22:1 28:1 32:1 38:1 39:1 48:1 49:1 58:1 60:1 
0.05720660279444888 1:10 2:99 3:109 8:1 12:1 18:1 19:1 28:1 30:1 38:1 39:1 48:1 49:1 58:1 60:1 
0.04397097959299155 1:-104 2:136 3:32 7:1 13:1 18:1 20:1 24:1 32:1 38:1 39:1 45:1 49:1 56:1 63:1 
0.3145798745581254 1:158 2:16 3:174 5:1 9:1 14:1 20:1 25:1 33:1 38:1 43:1 45:1 49:1 57:1 62:1 
0.3003825949159402 1:126 2:48 3:174 8:1 12:1 15:1 22:1 25:1 31:1 38:1 43:1 45:1 49:1 57:1 62:1 
0.1527214849375017 1:38 2:136 3:174 7:1 13:1 18:1 20:1 24:1 32:1 38:1 43:1 45:1 49:1 57:1 62:1 
0.1481950151101135 1:-174 2:185 3:11 4:1 13:1 17:1 20:1 25:1 33:1 34:1 39:1 45:1 49:1 55:1 59:1 
0.08012815808946799 1:-153 2:185 3:32 4:1 13:1 17:1 20:1 25:1 33:1 38:1 39:1 45:1 49:1 56:1 63:1 
0.3587043062836066 1:-23 2:35 3:12 8:1 9:1 15:1 20:1 28:1 32:1 34:1 41:1 45:1 49:1 56:1 63:1 
0.5751738063889583 1:-7 2:35 3:28 8:1 9:1 15:1 20:1 28:1 32:1 38:1 42:1 45:1 53:1 54:1 62:1 
0.2754861089071463 1:84 2:35 3:119 8:1 9:1 15:1 20:1 28:1 32:1 38:1 42:1 45:1 53:1 54:1 63:1 
0.07999552965717635 1:-206 2:206 3:0 7:1 12:1 15:1 23:1 27:1 30:1 53:1 55:1 60:1 
0.2021684484427891 1:-146 2:206 3:60 7:1 12:1 15:1 23:1 27:1 30:1 36:1 43:1 47:1 49:1 57:1 59:1 
0.1075573406528545 1:189 2:4 3:193 5:1 13:1 17:1 20:1 25:1 30:1 37:1 43:1 48:1 53:1 54:1 63:1 
0.145110313484337 1:139 2:54 3:193 4:1 10:1 15:1 23:1 25:1 30:1 37:1 43:1 48:1 53:1 54:1 63:1 
0.5784343411222497 1:65 2:128 3:193 4:1 10:1 15:1 23:1 25:1 30:1 37:1 43:1 48:1 53:1 54:1 63:1 
0.2341123242126588 1:22 2:171 3:193 8:1 12:1 14:1 19:1 28:1 29:1 37:1 43:1 48:1 53:1 54:1 63:1 
0.3862252354515201 1:16 2:177 3:193 4:1 10:1 15:1 23:1 25:1 30:1 37:1 43:1 48:1 53:1 54:1 63:1 
0.1945906743069476 1:-29 2:222 3:193 4:1 10:1 15:1 23:1 25:1 30:1 37:1 43:1 48:1 53:1 54:1 63:1 
0.04550686841337609 1:226 2:4 3:230 5:1 13:1 17:1 20:1 25:1 30:1 34:1 42:1 44:1 52:1 56:1 63:1 
0.2136979066636605 1:176 2:54 3:230 4:1 10:1 15:1 23:1 25:1 30:1 34:1 42:1 44:1 52:1 56:1 63:1 
0.0356964999353605 1:140 2:90 3:230 8:1 10:1 15:1 23:1 25:1 30:1 34:1 42:1 44:1 52:1 56:1 63:1 
0.9377897217566908 1:102 2:128 3:230 4:1 10:1 15:1 23:1 25:1 30:1 34:1 42:1 44:1 52:1 56:1 63:1 
0.2583643971166182 1:59 2:171 3:230 8:1 12:1 14:1 19:1 28:1 29:1 34:1 42:1 44:1 52:1 56:1 63:1 
0.2148267506789782 1:53 2:177 3:230 4:1 10:1 15:1 23:1 25:1 30:1 34:1 42:1 44:1 52:1 56:1 63:1 
0.1622072696062562 1:-39 2:232 3:193 4:1 13:1 17:1 23:1 27:1 33:1 37:1 43:1 48:1 53:1 54:1 63:1 
0.4132924564830803 1:-57 2:250 3:193 8:1 9:1 15:1 23:1 25:1 29:1 37:1 43:1 48:1 53:1 54:1 63:1 
0.313451728256666 1:-20 2:250 3:230 8:1 9:1 15:1 23:1 25:1 29:1 34:1 42:1 44:1 52:1 56:1 63:1 
0.4096320852803489 1:-69 2:262 3:193 8:1 10:1 15:1 23:1 25:1 30:1 37:1 43:1 48:1 53:1 54:1 63:1 
0.1098866931559587 1:-32 2:262 3:230 8:1 10:1 15:1 23:1 25:1 30:1 34:1 42:1 44:1 52:1 56:1 63:1 
0.04692734401242989 1:-81 2:274 3:193 8:1 13:1 14:1 23:1 28:1 33:1 37:1 43:1 48:1 53:1 54:1 63:1 
0.08321143870884304 1:-44 2:274 3:230 8:1 13:1 14:1 23:1 28:1 33:1 34:1 42:1 44:1 52:1 56:1 63:1 
0.2112027872861401 1:-118 2:311 3:193 8:1 9:1 18:1 23:1 28:1 29:1 37:1 43:1 48:1 53:1 54:1 63:1 
0.2337483650120106 1:-135 2:328 3:193 8:1 10:1 15:1 19:1 28:1 30:1 37:1 43:1 48:1 53:1 54:1 63:1 
0.3715624876281319 1:271 2:75 3:346 5:1 13:1 18:1 22:1 27:1 31:1 37:1 39:1 45:1 53:1 58:1 60:1 
0.0455395668955756 1:256 2:90 3:346 8:1 10:1 15:1 23:1 25:1 30:1 37:1 39:1 45:1 53:1 58:1 60:1 
0.2080737036669289 1:175 2:171 3:346 8:1 12:1 14:1 19:1 28:1 29:1 37:1 39:1 45:1 53:1 58:1 60:1 
0.06690422992866929 1:124 2:222 3:346 4:1 10:1 15:1 23:1 25:1 30:1 37:1 39:1 45:1 53:1 58:1 60:1 
0.1796317234831218 1:91 2:255 3:346 5:1 9:1 18:1 22:1 24:1 32:1 37:1 39:1 45:1 53:1 58:1 60:1 
0.190164510013458 1:305 2:54 3:359 4:1 10:1 15:1 23:1 25:1 30:1 35:1 39:1 44:1 50:1 58:1 60:1 
0.430713262799393 1:269 2:90 3:359 8:1 10:1 15:1 23:1 25:1 30:1 35:1 39:1 44:1 50:1 58:1 60:1 
0.3238359518631864 1:188 2:171 3:359 8:1 12:1 14:1 19:1 28:1 29:1 35:1 39:1 44:1 50:1 58:1 60:1 
0.5405399779003005 1:137 2:222 3:359 4:1 10:1 15:1 23:1 25:1 30:1 35:1 39:1 44:1 50:1 58:1 60:1 
0.004871094201187212 1:127 2:232 3:359 4:1 13:1 17:1 23:1 27:1 33:1 35:1 39:1 44:1 50:1 58:1 60:1 
0.7839896552517874 1:104 2:255 3:359 5:1 9:1 18:1 22:1 24:1 32:1 35:1 39:1 44:1 50:1 58:1 60:1 
0.2468276235842655 1:97 2:262 3:359 8:1 10:1 15:1 23:1 25:1 30:1 35:1 39:1 44:1 50:1 58:1 60:1 
0.5915760454912381 1:48 2:311 3:359 8:1 9:1 18:1 23:1 28:1 29:1 35:1 39:1 44:1 50:1 58:1 60:1 
0.1986299258384941 1:31 2:328 3:359 8:1 10:1 15:1 19:1 28:1 30:1 35:1 39:1 44:1 50:1 58:1 60:1 
0.1179090527089974 1:-136 2:366 3:230 8:1 12:1 14:1 20:1 28:1 30:1 34:1 42:1 44:1 52:1 56:1 63:1 
0.07971433469578756 1:-186 2:379 3:193 8:1 10:1 15:1 23:1 25:1 37:1 43:1 48:1 53:1 54:1 63:1 
0.02099975833659212 1:-149 2:379 3:230 8:1 10:1 15:1 23:1 25:1 34:1 42:1 44:1 52:1 56:1 63:1 
0.001442605081811996 1:-33 2:379 3:346 8:1 10:1 15:1 23:1 25:1 37:1 39:1 45:1 53:1 58:1 60:1 
0.3204884118342947 1:41 2:72 3:113 8:1 13:1 15:1 22:1 26:1 30:1 38:1 43:1 47:1 53:1 54:1 60:1 
0.3003008723091676 1:39 2:74 3:113 5:1 11:1 17:1 20:1 28:1 33:1 38:1 43:1 47:1 53:1 54:1 60:1 
0.039799940524287 1:147 2:72 3:219 8:1 13:1 15:1 22:1 26:1 30:1 35:1 43:1 48:1 52:1 54:1 60:1 
0.03373628494714042 1:145 2:74 3:219 5:1 11:1 17:1 20:1 28:1 33:1 35:1 43:1 48:1 52:1 54:1 60:1 
0.01511624980328952 1:-153 2:266 3:113 7:1 13:1 15:1 20:1 28:1 33:1 38:1 43:1 47:1 53:1 54:1 60:1 
0.5038468059925962 1:-201 2:314 3:113 7:1 13:1 14:1 22:1 27:1 30:1 38:1 43:1 47:1 53:1 54:1 60:1 
0.1733489794107703 1:-5 2:314 3:309 7:1 13:1 14:1 22:1 27:1 30:1 34:1 43:1 48:1 49:1 57:1 63:1 
0.1314285371608748 1:256 2:74 3:330 5:1 11:1 17:1 20:1 28:1 33:1 34:1 39:1 45:1 50:1 54:1 60:1 
0.3389915366398936 1:64 2:266 3:330 7:1 13:1 15:1 20:1 28:1 33:1 34:1 39:1 45:1 50:1 54:1 60:1 
0.3954672045262179 1:16 2:314 3:330 7:1 13:1 14:1 22:1 27:1 30:1 34:1 39:1 45:1 50:1 54:1 60:1 
0.0776103429598079 1:-267 2:380 3:113 8:1 12:1 14:1 20:1 28:1 33:1 38:1 43:1 47:1 53:1 54:1 60:1 
0.4329214162741081 1:-71 2:380 3:309 8:1 12:1 14:1 20:1 28:1 33:1 34:1 43:1 48:1 49:1 57:1 63:1 
0.2300646171791867 1:-284 2:397 3:113 8:1 13:1 14:1 19:1 28:1 32:1 38:1 43:1 47:1 53:1 54:1 60:1 
0.1275726078856899 1:-178 2:397 3:219 8:1 13:1 14:1 19:1 28:1 32:1 35:1 43:1 48:1 52:1 54:1 60:1 
0.1862638751652264 1:-88 2:397 3:309 8:1 13:1 14:1 19:1 28:1 32:1 34:1 43:1 48:1 49:1 57:1 63:1 
0.02476898593890214 1:27 2:380 3:407 8:1 12:1 14:1 20:1 28:1 33:1 38:1 40:1 48:1 53:1 58:1 59:1 
0.2740725019331784 1:10 2:397 3:407 8:1 13:1 14:1 19:1 28:1 32:1 38:1 40:1 48:1 53:1 58:1 59:1 
0.4716759054068512 1:-307 2:420 3:113 8:1 10:1 18:1 23:1 24:1 33:1 38:1 43:1 47:1 53:1 54:1 60:1 
0.003201250138204897 1:-201 2:420 3:219 8:1 10:1 18:1 23:1 24:1 33:1 35:1 43:1 48:1 52:1 54:1 60:1 
0.02988599483087018 1:-444 2:557 3:113 5:1 13:1 17:1 23:1 28:1 29:1 38:1 43:1 47:1 53:1 54:1 60:1 
0.02939615442656596 1:-338 2:557 3:219 5:1 13:1 17:1 23:1 28:1 29:1 35:1 43:1 48:1 52:1 54:1 60:1 
0.02051632814879086 1:-248 2:557 3:309 5:1 13:1 17:1 23:1 28:1 29:1 34:1 43:1 48:1 49:1 57:1 63:1 
0.02291845796034814 1:-227 2:557 3:330 5:1 13:1 17:1 23:1 28:1 29:1 34:1 39:1 45:1 50:1 54:1 60:1 
0.0300032175049541 1:-150 2:557 3:407 5:1 13:1 17:1 23:1 28:1 29:1 38:1 40:1 48:1 53:1 58:1 59:1 
0.111271569824162 1:3 2:7 3:10 5:1 13:1 14:1 22:1 25:1 33:1 36:1 42:1 45:1 53:1 54:1 62:1 
0.5611087962567887 1:15 2:16 3:31 7:1 13:1 18:1 23:1 28:1 33:1 34:1 43:1 44:1 52:1 58:1 63:1 
0.3015547924348186 1:17 2:16 3:33 7:1 13:1 18:1 23:1 28:1 33:1 34:1 43:1 47:1 53:1 54:1 59:1 
0.3768630689749073 1:23 2:16 3:39 7:1 13:1 18:1 23:1 28:1 33:1 34:1 42:1 45:1 49:1 56:1 60:1 
0.2372175389962349 1:-31 2:41 3:10 5:1 13:1 14:1 20:1 28:1 32:1 36:1 42:1 45:1 53:1 54:1 62:1 
0.4115296087565309 1:-8 2:41 3:33 5:1 13:1 14:1 20:1 28:1 32:1 34:1 43:1 47:1 53:1 54:1 59:1 
0.3599584537300089 1:32 2:16 3:48 7:1 13:1 18:1 23:1 28:1 33:1 38:1 39:1 45:1 53:1 55:1 63:1 
0.1571633796517118 1:35 2:16 3:51 7:1 13:1 18:1 23:1 28:1 33:1 38:1 43:1 45:1 49:1 54:1 63:1 
0.2531714534120701 1:14 2:41 3:55 5:1 13:1 14:1 20:1 28:1 32:1 34:1 39:1 48:1 49:1 58:1 59:1 
0.1615010470980533 1:38 2:41 3:79 5:1 13:1 14:1 20:1 28:1 32:1 34:1 39:1 48:1 52:1 58:1 63:1 
0.5064909220879723 1:-71 2:85 3:14 8:1 9:1 14:1 22:1 25:1 31:1 38:1 39:1 47:1 53:1 56:1 63:1 
0.6811229279172072 1:-54 2:85 3:31 8:1 9:1 14:1 22:1 25:1 31:1 34:1 43:1 44:1 52:1 58:1 63:1 
0.4923471600169396 1:-52 2:85 3:33 8:1 9:1 14:1 22:1 25:1 31:1 34:1 43:1 47:1 53:1 54:1 59:1 
0.1531000323681417 1:-46 2:85 3:39 8:1 9:1 14:1 22:1 25:1 31:1 34:1 42:1 45:1 49:1 56:1 60:1 
0.4487489293811623 1:-37 2:85 3:48 8:1 9:1 14:1 22:1 25:1 31:1 38:1 39:1 45:1 53:1 55:1 63:1 
0.622056253195554 1:-34 2:85 3:51 8:1 9:1 14:1 22:1 25:1 31:1 38:1 43:1 45:1 49:1 54:1 63:1 
1 1:-4 2:85 3:81 8:1 9:1 14:1 22:1 25:1 31:1 38:1 43:1 47:1 53:1 54:1 59:1 
0.2366215133309226 1:-57 2:88 3:31 6:1 12:1 15:1 23:1 24:1 29:1 34:1 43:1 44:1 52:1 58:1 63:1 
0.2844868348127912 1:-37 2:88 3:51 6:1 12:1 15:1 23:1 24:1 29:1 38:1 43:1 45:1 49:1 54:1 63:1 
0.5429542688306634 1:-7 2:88 3:81 6:1 12:1 15:1 23:1 24:1 29:1 38:1 43:1 47:1 53:1 54:1 59:1 
0.1368055501779138 1:-66 2:97 3:31 8:1 9:1 15:1 22:1 25:1 30:1 34:1 43:1 44:1 52:1 58:1 63:1 
0.3801911013060447 1:-64 2:97 3:33 8:1 9:1 15:1 22:1 25:1 30:1 34:1 43:1 47:1 53:1 54:1 59:1 
0.2562728715451582 1:-58 2:97 3:39 8:1 9:1 15:1 22:1 25:1 30:1 34:1 42:1 45:1 49:1 56:1 60:1 
0.1782412708358584 1:-46 2:97 3:51 8:1 9:1 15:1 22:1 25:1 30:1 38:1 43:1 45:1 49:1 54:1 63:1 
0.09736035089608527 1:96 2:16 3:112 7:1 13:1 18:1 23:1 28:1 33:1 35:1 43:1 48:1 53:1 58:1 62:1 
0.08711554716535878 1:27 2:85 3:112 8:1 9:1 14:1 22:1 25:1 31:1 35:1 43:1 48:1 53:1 58:1 62:1 
0.549467732425556 1:36 2:85 3:121 8:1 9:1 14:1 22:1 25:1 31:1 35:1 43:1 47:1 53:1 54:1 63:1 
0.1676264966917526 1:33 2:88 3:121 6:1 12:1 15:1 23:1 24:1 29:1 35:1 43:1 47:1 53:1 54:1 63:1 
0.3168848498668335 1:24 2:97 3:121 8:1 9:1 15:1 22:1 25:1 30:1 35:1 43:1 47:1 53:1 54:1 63:1 
0.1808145369568062 1:124 2:7 3:131 5:1 13:1 14:1 22:1 25:1 33:1 38:1 43:1 47:1 50:1 58:1 59:1 
0.7507633062107206 1:90 2:41 3:131 5:1 13:1 14:1 20:1 28:1 32:1 38:1 43:1 47:1 50:1 58:1 59:1 
0.6193074969773589 1:117 2:16 3:133 7:1 13:1 18:1 23:1 28:1 33:1 37:1 43:1 45:1 49:1 58:1 62:1 
0.1071280498251096 1:48 2:85 3:133 8:1 9:1 14:1 22:1 25:1 31:1 37:1 43:1 45:1 49:1 58:1 62:1 
0.8564665657199392 1:45 2:88 3:133 6:1 12:1 15:1 23:1 24:1 29:1 37:1 43:1 45:1 49:1 58:1 62:1 
0.1468480989581569 1:36 2:97 3:133 8:1 9:1 15:1 22:1 25:1 30:1 37:1 43:1 45:1 49:1 58:1 62:1 
0.2415557733614416 1:62 2:85 3:147 8:1 9:1 14:1 22:1 25:1 31:1 35:1 43:1 47:1 53:1 54:1 63:1 
0.03963517551950517 1:50 2:97 3:147 8:1 9:1 15:1 22:1 25:1 30:1 35:1 43:1 47:1 53:1 54:1 63:1 
0.4079526733768277 1:111 2:41 3:152 5:1 13:1 14:1 20:1 28:1 32:1 34:1 43:1 47:1 50:1 58:1 63:1 
0.09878000910892229 1:138 2:16 3:154 7:1 13:1 18:1 23:1 28:1 33:1 37:1 43:1 45:1 53:1 58:1 63:1 
0.8438390099312146 1:69 2:85 3:154 8:1 9:1 14:1 22:1 25:1 31:1 37:1 43:1 45:1 53:1 58:1 63:1 
0.5374143432632639 1:66 2:88 3:154 6:1 12:1 15:1 23:1 24:1 29:1 37:1 43:1 45:1 53:1 58:1 63:1 
0.5555411899068332 1:57 2:97 3:154 8:1 9:1 15:1 22:1 25:1 30:1 37:1 43:1 45:1 53:1 58:1 63:1 
0.1119211484472316 1:123 2:41 3:164 5:1 13:1 14:1 20:1 28:1 32:1 34:1 40:1 48:1 53:1 58:1 59:1 
0.09625187900602843 1:79 2:85 3:164 8:1 9:1 14:1 22:1 25:1 31:1 34:1 40:1 48:1 53:1 58:1 59:1 
0.2527599706675019 1:76 2:88 3:164 6:1 12:1 15:1 23:1 24:1 29:1 34:1 40:1 48:1 53:1 58:1 59:1 
0.1031309907294361 1:158 2:16 3:174 7:1 13:1 18:1 23:1 28:1 33:1 37:1 43:1 45:1 53:1 58:1 62:1 
0.0989913529221003 1:133 2:41 3:174 5:1 13:1 14:1 20:1 28:1 32:1 37:1 43:1 45:1 53:1 58:1 62:1 
0.5221228486921737 1:89 2:85 3:174 8:1 9:1 14:1 22:1 25:1 31:1 37:1 43:1 45:1 53:1 58:1 62:1 
0.1244858012087499 1:77 2:97 3:174 8:1 9:1 15:1 22:1 25:1 30:1 37:1 43:1 45:1 53:1 58:1 62:1 
0.03666168637124058 1:-160 2:191 3:31 4:1 10:1 15:1 23:1 28:1 32:1 34:1 43:1 44:1 52:1 58:1 63:1 
0.5920410891496761 1:-140 2:191 3:51 4:1 10:1 15:1 23:1 28:1 32:1 38:1 43:1 45:1 49:1 54:1 63:1 
0.1636925671153328 1:-110 2:191 3:81 4:1 10:1 15:1 23:1 28:1 32:1 38:1 43:1 47:1 53:1 54:1 59:1 
0.0167035960850972 1:-79 2:191 3:112 4:1 10:1 15:1 23:1 28:1 32:1 35:1 43:1 48:1 53:1 58:1 62:1 
0.9055881696613615 1:-58 2:191 3:133 4:1 10:1 15:1 23:1 28:1 32:1 37:1 43:1 45:1 49:1 58:1 62:1 
0.3334016163536305 1:-44 2:191 3:147 4:1 10:1 15:1 23:1 28:1 32:1 35:1 43:1 47:1 53:1 54:1 63:1 
0.6319832061992889 1:-37 2:191 3:154 4:1 10:1 15:1 23:1 28:1 32:1 37:1 43:1 45:1 53:1 58:1 63:1 
0.02291012268684276 1:177 2:16 3:193 7:1 13:1 18:1 23:1 28:1 33:1 35:1 41:1 48:1 52:1 54:1 60:1 
0.3026380340271266 1:152 2:41 3:193 5:1 13:1 14:1 20:1 28:1 32:1 35:1 41:1 48:1 52:1 54:1 60:1 
0.1064905089162337 1:108 2:85 3:193 8:1 9:1 14:1 22:1 25:1 31:1 35:1 41:1 48:1 52:1 54:1 60:1 
0.1135686659777803 1:105 2:88 3:193 6:1 12:1 15:1 23:1 24:1 29:1 35:1 41:1 48:1 52:1 54:1 60:1 
0.1148783015720809 1:2 2:191 3:193 4:1 10:1 15:1 23:1 28:1 32:1 35:1 41:1 48:1 52:1 54:1 60:1 
0.05947688188970538 1:190 2:7 3:197 5:1 13:1 14:1 22:1 25:1 33:1 37:1 39:1 45:1 49:1 56:1 63:1 
0.2041723417335339 1:-144 2:199 3:55 5:1 13:1 14:1 23:1 28:1 29:1 34:1 39:1 48:1 49:1 58:1 59:1 
0.5685796358620976 1:-120 2:199 3:79 5:1 13:1 14:1 23:1 28:1 29:1 34:1 39:1 48:1 52:1 58:1 63:1 
0.1978621260178431 1:-68 2:199 3:131 5:1 13:1 14:1 23:1 28:1 29:1 38:1 43:1 47:1 50:1 58:1 59:1 
1 1:-47 2:199 3:152 5:1 13:1 14:1 23:1 28:1 29:1 34:1 43:1 47:1 50:1 58:1 63:1 
0.3669581036732464 1:-35 2:199 3:164 5:1 13:1 14:1 23:1 28:1 29:1 34:1 40:1 48:1 53:1 58:1 59:1 
0.9439651611727412 1:-6 2:199 3:193 5:1 13:1 14:1 23:1 28:1 29:1 35:1 41:1 48:1 52:1 54:1 60:1 
0.2715881193602478 1:115 2:88 3:203 6:1 12:1 15:1 23:1 24:1 29:1 38:1 43:1 44:1 53:1 58:1 63:1 
0.02284423038855615 1:106 2:97 3:203 8:1 9:1 15:1 22:1 25:1 30:1 38:1 43:1 44:1 53:1 58:1 63:1 
0.08723084626590762 1:120 2:85 3:205 8:1 9:1 14:1 22:1 25:1 31:1 34:1 43:1 48:1 53:1 54:1 59:1 
1 1:-7 2:77 3:70 8:1 13:1 15:1 22:1 27:1 30:1 35:1 43:1 44:1 53:1 54:1 61:1 
0.8330941881019471 1:-31 2:101 3:70 8:1 9:1 15:1 22:1 26:1 33:1 35:1 43:1 44:1 53:1 54:1 61:1 
0.5117398281946149 1:104 2:73 3:177 8:1 13:1 14:1 23:1 28:1 30:1 37:1 39:1 45:1 50:1 54:1 62:1 
0.4703136719259249 1:74 2:103 3:177 5:1 11:1 17:1 23:1 24:1 33:1 37:1 39:1 45:1 50:1 54:1 62:1 
0.06624663258002596 1:37 2:140 3:177 8:1 13:1 14:1 22:1 24:1 33:1 37:1 39:1 45:1 50:1 54:1 62:1 
0.01304578348039646 1:29 2:148 3:177 8:1 12:1 16:1 23:1 24:1 30:1 37:1 39:1 45:1 50:1 54:1 62:1 
0.3797882262029473 1:-148 2:218 3:70 4:1 13:1 18:1 20:1 35:1 43:1 44:1 53:1 54:1 61:1 
0.06838943869979526 1:-41 2:218 3:177 4:1 13:1 18:1 20:1 37:1 39:1 45:1 50:1 54:1 62:1 
1 1:2 2:38 3:40 7:1 13:1 14:1 20:1 28:1 29:1 34:1 41:1 45:1 49:1 56:1 60:1 
1 1:-6 2:42 3:36 5:1 13:1 14:1 20:1 28:1 33:1 35:1 39:1 47:1 49:1 56:1 60:1 
1 1:2 2:42 3:44 5:1 13:1 14:1 20:1 28:1 33:1 34:1 41:1 45:1 53:1 54:1 61:1 
1 1:-7 2:47 3:40 8:1 13:1 14:1 23:1 28:1 33:1 34:1 41:1 45:1 49:1 56:1 60:1 
0.735744705528246 1:-15 2:59 3:44 8:1 13:1 15:1 22:1 25:1 33:1 34:1 41:1 45:1 53:1 54:1 61:1 
0.5387193819744028 1:51 2:14 3:65 5:1 13:1 18:1 19:1 28:1 33:1 38:1 43:1 45:1 49:1 57:1 63:1 
0.152632576872583 1:18 2:47 3:65 8:1 13:1 14:1 23:1 28:1 33:1 38:1 43:1 45:1 49:1 57:1 63:1 
1 1:6 2:59 3:65 8:1 13:1 15:1 22:1 25:1 33:1 38:1 43:1 45:1 49:1 57:1 63:1 
0.06844710025923688 1:63 2:32 3:95 4:1 13:1 18:1 20:1 24:1 32:1 35:1 40:1 45:1 53:1 58:1 60:1 
0.1627128491860364 1:120 2:14 3:134 5:1 13:1 18:1 19:1 28:1 33:1 35:1 43:1 45:1 52:1 55:1 60:1 
1 1:96 2:38 3:134 7:1 13:1 14:1 20:1 28:1 29:1 35:1 43:1 45:1 52:1 55:1 60:1 
0.5782329356673112 1:87 2:47 3:134 8:1 13:1 14:1 23:1 28:1 33:1 35:1 43:1 45:1 52:1 55:1 60:1 
0.1120393803229422 1:136 2:7 3:143 5:1 13:1 14:1 22:1 25:1 33:1 34:1 40:1 48:1 53:1 58:1 63:1 
0.6075429724267711 1:105 2:38 3:143 7:1 13:1 14:1 20:1 28:1 29:1 34:1 40:1 48:1 53:1 58:1 63:1 
0.5538095178649188 1:96 2:47 3:143 8:1 13:1 14:1 23:1 28:1 33:1 34:1 40:1 48:1 53:1 58:1 63:1 
0.6651282440896501 1:84 2:59 3:143 8:1 13:1 15:1 22:1 25:1 33:1 34:1 40:1 48:1 53:1 58:1 63:1 
0.006083694371098684 1:135 2:42 3:177 5:1 13:1 14:1 20:1 28:1 33:1 35:1 39:1 48:1 53:1 58:1 59:1 
0.1790487895043603 1:118 2:59 3:177 8:1 13:1 15:1 22:1 25:1 33:1 35:1 39:1 48:1 53:1 58:1 59:1 
0.004271835529687171 1:181 2:7 3:188 5:1 13:1 14:1 22:1 25:1 33:1 37:1 43:1 48:1 49:1 58:1 63:1 
0.6920447543501757 1:129 2:59 3:188 8:1 13:1 15:1 22:1 25:1 33:1 37:1 43:1 48:1 49:1 58:1 63:1 
0.1749361584005024 1:-297 2:298 3:1 4:1 13:1 14:1 23:1 25:1 33:1 48:1 53:1 55:1 63:1 
0.1736131580919243 1:-277 2:298 3:21 4:1 13:1 14:1 23:1 25:1 33:1 37:1 43:1 45:1 50:1 55:1 60:1 
1 1:1 2:17 3:18 5:1 9:1 15:1 23:1 28:1 33:1 34:1 40:1 46:1 53:1 58:1 63:1 
0.4938928503823088 1:-37 2:64 3:27 7:1 9:1 15:1 20:1 28:1 29:1 34:1 40:1 45:1 53:1 54:1 59:1 
0.8034106378915993 1:49 2:17 3:66 5:1 9:1 15:1 23:1 28:1 33:1 35:1 41:1 45:1 49:1 58:1 63:1 
0.06300276396407953 1:2 2:64 3:66 7:1 9:1 15:1 20:1 28:1 29:1 35:1 41:1 45:1 49:1 58:1 63:1 
0.3162315284437818 1:130 2:17 3:147 5:1 9:1 15:1 23:1 28:1 33:1 34:1 42:1 48:1 49:1 56:1 63:1 
0.1929319583675672 1:83 2:64 3:147 7:1 9:1 15:1 20:1 28:1 29:1 34:1 42:1 48:1 49:1 56:1 63:1 
0.01521594339533017 1:-122 2:149 3:27 8:1 13:1 14:1 23:1 28:1 30:1 34:1 40:1 45:1 53:1 54:1 59:1 
0.0572080462903053 1:-83 2:149 3:66 8:1 13:1 14:1 23:1 28:1 30:1 35:1 41:1 45:1 49:1 58:1 63:1 
0.119690499206956 1:-63 2:149 3:86 8:1 13:1 14:1 23:1 28:1 30:1 34:1 43:1 48:1 49:1 58:1 62:1 
0.1315483670747105 1:-162 2:189 3:27 8:1 10:1 18:1 22:1 28:1 33:1 34:1 40:1 45:1 53:1 54:1 59:1 
0.09250505653544323 1:-103 2:189 3:86 8:1 10:1 18:1 22:1 28:1 33:1 34:1 43:1 48:1 49:1 58:1 62:1 
0.1568692917513833 1:-192 2:219 3:27 4:1 13:1 17:1 23:1 24:1 30:1 34:1 40:1 45:1 53:1 54:1 59:1 
0.1337374698033263 1:-133 2:219 3:86 4:1 13:1 17:1 23:1 24:1 30:1 34:1 43:1 48:1 49:1 58:1 62:1 
0.02332359057287426 1:-120 2:219 3:99 4:1 13:1 17:1 23:1 24:1 30:1 38:1 42:1 48:1 53:1 58:1 63:1 
0.2481358864153193 1:169 2:64 3:233 7:1 9:1 15:1 20:1 28:1 29:1 37:1 43:1 44:1 49:1 58:1 63:1 
0.3158614448959025 1:84 2:149 3:233 8:1 13:1 14:1 23:1 28:1 30:1 37:1 43:1 44:1 49:1 58:1 63:1 
0.1391594046037704 1:44 2:189 3:233 8:1 10:1 18:1 22:1 28:1 33:1 37:1 43:1 44:1 49:1 58:1 63:1 
0.0266088194522491 1:-255 2:256 3:1 8:1 13:1 18:1 20:1 28:1 32:1 48:1 53:1 58:1 63:1 
0.4101930218508394 1:-120 2:256 3:136 8:1 13:1 18:1 20:1 28:1 32:1 38:1 43:1 47:1 53:1 58:1 60:1 
0.2405761282423166 1:-77 2:256 3:179 8:1 13:1 18:1 20:1 28:1 32:1 35:1 42:1 48:1 49:1 58:1 63:1 
0.01280907973506143 1:9 2:44 3:53 8:1 13:1 18:1 23:1 28:1 29:1 35:1 43:1 45:1 53:1 58:1 63:1 
0.08605202618182564 1:-21 2:74 3:53 5:1 13:1 18:1 20:1 28:1 33:1 35:1 43:1 45:1 53:1 58:1 63:1 
1 1:2 2:74 3:76 5:1 13:1 18:1 20:1 28:1 33:1 38:1 41:1 45:1 53:1 54:1 61:1 
0.4879482815090076 1:-24 2:79 3:55 8:1 13:1 14:1 23:1 24:1 33:1 35:1 43:1 48:1 53:1 58:1 63:1 
1 1:-7 2:79 3:72 8:1 13:1 14:1 23:1 24:1 33:1 38:1 39:1 45:1 53:1 56:1 60:1 
0.2625099930394597 1:-39 2:111 3:72 8:1 13:1 15:1 23:1 28:1 32:1 38:1 39:1 45:1 53:1 56:1 60:1 
0.9098697340703367 1:-35 2:111 3:76 8:1 13:1 15:1 23:1 28:1 32:1 38:1 41:1 45:1 53:1 54:1 61:1 
0.1972486098053895 1:44 2:74 3:118 5:1 13:1 18:1 20:1 28:1 33:1 38:1 39:1 45:1 53:1 58:1 63:1 
0.6098222273168702 1:39 2:79 3:118 8:1 13:1 14:1 23:1 24:1 33:1 38:1 39:1 45:1 53:1 58:1 63:1 
1 1:7 2:111 3:118 8:1 13:1 15:1 23:1 28:1 32:1 38:1 39:1 45:1 53:1 58:1 63:1 
0.102285212511392 1:135 2:44 3:179 8:1 13:1 18:1 23:1 28:1 29:1 35:1 42:1 48:1 49:1 58:1 63:1 
0.1800726099232487 1:68 2:111 3:179 8:1 13:1 15:1 23:1 28:1 32:1 35:1 42:1 48:1 49:1 58:1 63:1 
0.1657586361341556 1:-128 2:183 3:55 4:1 13:1 18:1 20:1 27:1 29:1 35:1 43:1 48:1 53:1 58:1 63:1 
1 1:-4 2:183 3:179 4:1 13:1 18:1 20:1 27:1 29:1 35:1 42:1 48:1 49:1 58:1 63:1 
0.09721706768560683 1:112 2:79 3:191 8:1 13:1 14:1 23:1 24:1 33:1 38:1 43:1 45:1 53:1 58:1 61:1 
0.4519259018823784 1:80 2:111 3:191 8:1 13:1 15:1 23:1 28:1 32:1 38:1 43:1 45:1 53:1 58:1 61:1 
0.08181118596599758 1:-139 2:194 3:55 8:1 13:1 18:1 22:1 25:1 33:1 35:1 43:1 48:1 53:1 58:1 63:1 
0.1610770772680826 1:-118 2:194 3:76 8:1 13:1 18:1 22:1 25:1 33:1 38:1 41:1 45:1 53:1 54:1 61:1 
0.2496574104151262 1:-76 2:194 3:118 8:1 13:1 18:1 22:1 25:1 33:1 38:1 39:1 45:1 53:1 58:1 63:1 
0.03293476459567111 1:-170 2:223 3:53 8:1 9:1 18:1 20:1 27:1 32:1 35:1 43:1 45:1 53:1 58:1 63:1 
0.3205726912103701 1:-168 2:223 3:55 8:1 9:1 18:1 20:1 27:1 32:1 35:1 43:1 48:1 53:1 58:1 63:1 
0.2426121862933838 1:-151 2:223 3:72 8:1 9:1 18:1 20:1 27:1 32:1 38:1 39:1 45:1 53:1 56:1 60:1 
0.7303014058199935 1:-105 2:223 3:118 8:1 9:1 18:1 20:1 27:1 32:1 38:1 39:1 45:1 53:1 58:1 63:1 
0.07547733513085993 1:-44 2:223 3:179 8:1 9:1 18:1 20:1 27:1 32:1 35:1 42:1 48:1 49:1 58:1 63:1 
0.2385224774004115 1:29 2:25 3:54 8:1 12:1 18:1 20:1 27:1 30:1 38:1 43:1 44:1 53:1 54:1 60:1 
0.4602711759976242 1:-69 2:75 3:6 7:1 13:1 18:1 23:1 28:1 33:1 38:1 40:1 48:1 49:1 56:1 63:1 
0.4426448117958225 1:-21 2:75 3:54 7:1 13:1 18:1 23:1 28:1 33:1 38:1 43:1 44:1 53:1 54:1 60:1 
0.08428518029802679 1:109 2:8 3:117 8:1 13:1 14:1 23:1 25:1 29:1 34:1 39:1 45:1 53:1 55:1 63:1 
0.1019273437720357 1:42 2:75 3:117 7:1 13:1 18:1 23:1 28:1 33:1 34:1 39:1 45:1 53:1 55:1 63:1 
0.08021091647977728 1:124 2:25 3:149 8:1 12:1 18:1 20:1 27:1 30:1 38:1 42:1 48:1 50:1 57:1 61:1 
0.4637830002463155 1:-35 2:152 3:117 8:1 10:1 17:1 23:1 24:1 31:1 34:1 39:1 45:1 53:1 55:1 63:1 
1 1:-3 2:152 3:149 8:1 10:1 17:1 23:1 24:1 31:1 38:1 42:1 48:1 50:1 57:1 61:1 
0.2561950641189531 1:-101 2:155 3:54 6:1 13:1 14:1 20:1 27:1 33:1 38:1 43:1 44:1 53:1 54:1 60:1 
0.07387295191092531 1:-38 2:155 3:117 6:1 13:1 14:1 20:1 27:1 33:1 34:1 39:1 45:1 53:1 55:1 63:1 
1 1:-6 2:155 3:149 6:1 13:1 14:1 20:1 27:1 33:1 38:1 42:1 48:1 50:1 57:1 61:1 
0.2688426481237451 1:-64 2:163 3:99 5:1 12:1 18:1 23:1 24:1 33:1 38:1 43:1 45:1 52:1 58:1 63:1 
0.2386709531417658 1:-14 2:163 3:149 5:1 12:1 18:1 23:1 24:1 33:1 38:1 42:1 48:1 50:1 57:1 61:1 
0.1974931523488297 1:-117 2:171 3:54 4:1 9:1 18:1 23:1 24:1 30:1 38:1 43:1 44:1 53:1 54:1 60:1 
0.01770458173224334 1:-54 2:171 3:117 4:1 9:1 18:1 23:1 24:1 30:1 34:1 39:1 45:1 53:1 55:1 63:1 
0.04341674099938189 1:-22 2:171 3:149 4:1 9:1 18:1 23:1 24:1 30:1 38:1 42:1 48:1 50:1 57:1 61:1 
0.1052112614395221 1:103 2:75 3:178 7:1 13:1 18:1 23:1 28:1 33:1 38:1 43:1 47:1 49:1 54:1 59:1 
0.06426235280505004 1:-73 2:190 3:117 8:1 9:1 15:1 19:1 28:1 33:1 34:1 39:1 45:1 53:1 55:1 63:1 
0.2052370992789321 1:-41 2:190 3:149 8:1 9:1 15:1 19:1 28:1 33:1 38:1 42:1 48:1 50:1 57:1 61:1 
0.4810482668922386 1:118 2:75 3:193 7:1 13:1 18:1 23:1 28:1 33:1 36:1 39:1 48:1 53:1 58:1 59:1 
0.1239388903301385 1:41 2:152 3:193 8:1 10:1 17:1 23:1 24:1 31:1 36:1 39:1 48:1 53:1 58:1 59:1 
0.692771221637338 1:22 2:171 3:193 4:1 9:1 18:1 23:1 24:1 30:1 36:1 39:1 48:1 53:1 58:1 59:1 
0.4717998560647268 1:3 2:190 3:193 8:1 9:1 15:1 19:1 28:1 33:1 36:1 39:1 48:1 53:1 58:1 59:1 
0.03261949710676425 1:191 2:8 3:199 8:1 13:1 14:1 23:1 25:1 29:1 34:1 40:1 48:1 53:1 58:1 63:1 
0.09776922869734116 1:44 2:155 3:199 6:1 13:1 14:1 20:1 27:1 33:1 34:1 40:1 48:1 53:1 58:1 63:1 
0.20552109467132 1:28 2:171 3:199 4:1 9:1 18:1 23:1 24:1 30:1 34:1 40:1 48:1 53:1 58:1 63:1 
0.008646490633768607 1:187 2:25 3:212 8:1 12:1 18:1 20:1 27:1 30:1 38:1 42:1 48:1 53:1 54:1 63:1 
0.2535050793063021 1:137 2:75 3:212 7:1 13:1 18:1 23:1 28:1 33:1 38:1 42:1 48:1 53:1 54:1 63:1 
0.6327283436831461 1:173 2:152 3:325 8:1 10:1 17:1 23:1 24:1 31:1 35:1 43:1 48:1 53:1 54:1 63:1 
0.3373380377282806 1:154 2:171 3:325 4:1 9:1 18:1 23:1 24:1 30:1 35:1 43:1 48:1 53:1 54:1 63:1 
0.1159972519478825 1:135 2:190 3:325 8:1 9:1 15:1 19:1 28:1 33:1 35:1 43:1 48:1 53:1 54:1 63:1 
0.4173629105393757 1:-326 2:332 3:6 7:1 13:1 15:1 20:1 28:1 33:1 38:1 40:1 48:1 49:1 56:1 63:1 
0.1091005116774984 1:-278 2:332 3:54 7:1 13:1 15:1 20:1 28:1 33:1 38:1 43:1 44:1 53:1 54:1 60:1 
0.09159351328066803 1:-183 2:332 3:149 7:1 13:1 15:1 20:1 28:1 33:1 38:1 42:1 48:1 50:1 57:1 61:1 
0.231657025966372 1:-133 2:332 3:199 7:1 13:1 15:1 20:1 28:1 33:1 34:1 40:1 48:1 53:1 58:1 63:1 
1 1:-7 2:332 3:325 7:1 13:1 15:1 20:1 28:1 33:1 35:1 43:1 48:1 53:1 54:1 63:1 
1 1:-2 2:4 3:2 7:1 13:1 14:1 23:1 28:1 30:1 43:1 47:1 49:1 56:1 63:1 
1 1:-2 2:75 3:73 8:1 13:1 14:1 23:1 26:1 33:1 38:1 40:1 48:1 49:1 56:1 63:1 
1 1:-4 2:77 3:73 4:1 11:1 18:1 23:1 26:1 30:1 38:1 40:1 48:1 49:1 56:1 63:1 
1 1:-6 2:79 3:73 8:1 11:1 18:1 20:1 28:1 33:1 38:1 40:1 48:1 49:1 56:1 63:1 
0.1870740577417623 1:-84 2:86 3:2 8:1 10:1 18:1 23:1 28:1 33:1 43:1 47:1 49:1 56:1 63:1 
0.07897384330376044 1:-13 2:86 3:73 8:1 10:1 18:1 23:1 28:1 33:1 38:1 40:1 48:1 49:1 56:1 63:1 
0.1947032191570591 1:86 2:4 3:90 7:1 13:1 14:1 23:1 28:1 30:1 38:1 43:1 48:1 51:1 56:1 62:1 
0.2581437845575174 1:15 2:75 3:90 8:1 13:1 14:1 23:1 26:1 33:1 38:1 43:1 48:1 51:1 56:1 62:1 
0.07356238126191626 1:11 2:79 3:90 8:1 11:1 18:1 20:1 28:1 33:1 38:1 43:1 48:1 51:1 56:1 62:1 
0.7389779066148461 1:-1 2:91 3:90 8:1 13:1 18:1 21:1 27:1 31:1 38:1 43:1 48:1 51:1 56:1 62:1 
0.0497530805568519 1:-84 2:92 3:8 8:1 13:1 16:1 22:1 26:1 29:1 38:1 43:1 45:1 52:1 58:1 59:1 
0.07228912883536864 1:-19 2:92 3:73 8:1 13:1 16:1 22:1 26:1 29:1 38:1 40:1 48:1 49:1 56:1 63:1 
1 1:-2 2:92 3:90 8:1 13:1 16:1 22:1 26:1 29:1 38:1 43:1 48:1 51:1 56:1 62:1 
0.1946896243969621 1:-21 2:94 3:73 6:1 11:1 17:1 19:1 28:1 32:1 38:1 40:1 48:1 49:1 56:1 63:1 
0.2081170427455262 1:15 2:86 3:101 8:1 10:1 18:1 23:1 28:1 33:1 35:1 43:1 47:1 52:1 58:1 59:1 
0.1103731191484788 1:10 2:91 3:101 8:1 13:1 18:1 21:1 27:1 31:1 35:1 43:1 47:1 52:1 58:1 59:1 
0.04967651476089101 1:9 2:92 3:101 8:1 13:1 16:1 22:1 26:1 29:1 35:1 43:1 47:1 52:1 58:1 59:1 
0.5230384982183188 1:-99 2:107 3:8 4:1 10:1 18:1 23:1 26:1 32:1 38:1 43:1 45:1 52:1 58:1 59:1 
1 1:-17 2:107 3:90 4:1 10:1 18:1 23:1 26:1 32:1 38:1 43:1 48:1 51:1 56:1 62:1 
1 1:-6 2:107 3:101 4:1 10:1 18:1 23:1 26:1 32:1 35:1 43:1 47:1 52:1 58:1 59:1 
0.109845870767629 1:-99 2:109 3:10 8:1 11:1 18:1 22:1 28:1 33:1 35:1 43:1 47:1 49:1 54:1 63:1 
0.1157007194225848 1:-36 2:109 3:73 8:1 11:1 18:1 22:1 28:1 33:1 38:1 40:1 48:1 49:1 56:1 63:1 
0.04966615355206602 1:-124 2:126 3:2 4:1 13:1 18:1 19:1 25:1 33:1 43:1 47:1 49:1 56:1 63:1 
0.2020662162976377 1:-36 2:126 3:90 4:1 13:1 18:1 19:1 25:1 33:1 38:1 43:1 48:1 51:1 56:1 62:1 
0.1661723542376315 1:-147 2:155 3:8 8:1 13:1 18:1 20:1 26:1 29:1 38:1 43:1 45:1 52:1 58:1 59:1 
0.1794481266402743 1:-82 2:155 3:73 8:1 13:1 18:1 20:1 26:1 29:1 38:1 40:1 48:1 49:1 56:1 63:1 
0.4917901675823769 1:-65 2:155 3:90 8:1 13:1 18:1 20:1 26:1 29:1 38:1 43:1 48:1 51:1 56:1 62:1 
0.2480692374560797 1:-84 2:157 3:73 8:1 11:1 15:1 19:1 27:1 33:1 38:1 40:1 48:1 49:1 56:1 63:1 
0.6960616107800065 1:-155 2:163 3:8 8:1 10:1 18:1 23:1 28:1 30:1 38:1 43:1 45:1 52:1 58:1 59:1 
0.3303529546025338 1:-73 2:163 3:90 8:1 10:1 18:1 23:1 28:1 30:1 38:1 43:1 48:1 51:1 56:1 62:1 
0.1172884884484748 1:-62 2:163 3:101 8:1 10:1 18:1 23:1 28:1 30:1 35:1 43:1 47:1 52:1 58:1 59:1 
0.2829961847884751 1:164 2:4 3:168 7:1 13:1 14:1 23:1 28:1 30:1 38:1 40:1 48:1 53:1 54:1 62:1 
0.1617602685825688 1:93 2:75 3:168 8:1 13:1 14:1 23:1 26:1 33:1 38:1 40:1 48:1 53:1 54:1 62:1 
0.005418594253328096 1:89 2:79 3:168 8:1 11:1 18:1 20:1 28:1 33:1 38:1 40:1 48:1 53:1 54:1 62:1 
0.2315476458326937 1:82 2:86 3:168 8:1 10:1 18:1 23:1 28:1 33:1 38:1 40:1 48:1 53:1 54:1 62:1 
0.1913960976096957 1:76 2:92 3:168 8:1 13:1 16:1 22:1 26:1 29:1 38:1 40:1 48:1 53:1 54:1 62:1 
0.2933198707596644 1:13 2:155 3:168 8:1 13:1 18:1 20:1 26:1 29:1 38:1 40:1 48:1 53:1 54:1 62:1 
0.2641493249078681 1:11 2:157 3:168 8:1 11:1 15:1 19:1 27:1 33:1 38:1 40:1 48:1 53:1 54:1 62:1 
0.1580909701942033 1:-104 2:177 3:73 8:1 9:1 15:1 23:1 28:1 33:1 38:1 40:1 48:1 49:1 56:1 63:1 
0.1764477854564408 1:-179 2:187 3:8 4:1 10:1 18:1 23:1 24:1 32:1 38:1 43:1 45:1 52:1 58:1 59:1 
0.490056983718293 1:-97 2:187 3:90 4:1 10:1 18:1 23:1 24:1 32:1 38:1 43:1 48:1 51:1 56:1 62:1 
0.2378568261093293 1:-122 2:212 3:90 8:1 10:1 18:1 22:1 25:1 33:1 38:1 43:1 48:1 51:1 56:1 62:1 
0.1660114015773682 1:-214 2:216 3:2 7:1 10:1 18:1 23:1 28:1 30:1 43:1 47:1 49:1 56:1 63:1 
0.5408221035744994 1:-143 2:216 3:73 7:1 10:1 18:1 23:1 28:1 30:1 38:1 40:1 48:1 49:1 56:1 63:1 
0.06867749743227992 1:-115 2:216 3:101 7:1 10:1 18:1 23:1 28:1 30:1 35:1 43:1 47:1 52:1 58:1 59:1 
0.2163056048919058 1:168 2:75 3:243 8:1 13:1 14:1 23:1 26:1 33:1 37:1 43:1 48:1 49:1 55:1 63:1 
0.6745512212235326 1:157 2:86 3:243 8:1 10:1 18:1 23:1 28:1 33:1 37:1 43:1 48:1 49:1 55:1 63:1 
0.03938786341962783 1:152 2:91 3:243 8:1 13:1 18:1 21:1 27:1 31:1 37:1 43:1 48:1 49:1 55:1 63:1 
0.06991828227145327 1:151 2:92 3:243 8:1 13:1 16:1 22:1 26:1 29:1 37:1 43:1 48:1 49:1 55:1 63:1 
0.6704321581458358 1:136 2:107 3:243 4:1 10:1 18:1 23:1 26:1 32:1 37:1 43:1 48:1 49:1 55:1 63:1 
0.193278252551567 1:117 2:126 3:243 4:1 13:1 18:1 19:1 25:1 33:1 37:1 43:1 48:1 49:1 55:1 63:1 
0.3457151709621744 1:88 2:155 3:243 8:1 13:1 18:1 20:1 26:1 29:1 37:1 43:1 48:1 49:1 55:1 63:1 
0.1433612005717099 1:56 2:187 3:243 4:1 10:1 18:1 23:1 24:1 32:1 37:1 43:1 48:1 49:1 55:1 63:1 
0.05362403076526418 1:-257 2:259 3:2 5:1 13:1 18:1 23:1 27:1 33:1 43:1 47:1 49:1 56:1 63:1 
0.2260072780092793 1:-249 2:259 3:10 5:1 13:1 18:1 23:1 27:1 33:1 35:1 43:1 47:1 49:1 54:1 63:1 
0.5273661592061245 1:-169 2:259 3:90 5:1 13:1 18:1 23:1 27:1 33:1 38:1 43:1 48:1 51:1 56:1 62:1 
0.06322473151723966 1:-158 2:259 3:101 5:1 13:1 18:1 23:1 27:1 33:1 35:1 43:1 47:1 52:1 58:1 59:1 
0.3524595311360205 1:-91 2:259 3:168 5:1 13:1 18:1 23:1 27:1 33:1 38:1 40:1 48:1 53:1 54:1 62:1 
0.1160645290281197 1:-271 2:273 3:2 8:1 9:1 15:1 23:1 27:1 33:1 43:1 47:1 49:1 56:1 63:1 
0.1870213718516542 1:-183 2:273 3:90 8:1 9:1 15:1 23:1 27:1 33:1 38:1 43:1 48:1 51:1 56:1 62:1 
0.5057841867679819 1:-30 2:273 3:243 8:1 9:1 15:1 23:1 27:1 33:1 37:1 43:1 48:1 49:1 55:1 63:1 
0.1062159522930519 1:272 2:4 3:276 7:1 13:1 14:1 23:1 28:1 30:1 36:1 43:1 47:1 53:1 56:1 63:1 
0.4217822345310292 1:199 2:77 3:276 4:1 11:1 18:1 23:1 26:1 30:1 36:1 43:1 47:1 53:1 56:1 63:1 
0.5181066527585159 1:190 2:86 3:276 8:1 10:1 18:1 23:1 28:1 33:1 36:1 43:1 47:1 53:1 56:1 63:1 
0.2818961699446892 1:185 2:91 3:276 8:1 13:1 18:1 21:1 27:1 31:1 36:1 43:1 47:1 53:1 56:1 63:1 
0.1987404140580181 1:184 2:92 3:276 8:1 13:1 16:1 22:1 26:1 29:1 36:1 43:1 47:1 53:1 56:1 63:1 
0.2628156416040251 1:169 2:107 3:276 4:1 10:1 18:1 23:1 26:1 32:1 36:1 43:1 47:1 53:1 56:1 63:1 
0.733982612194939 1:121 2:155 3:276 8:1 13:1 18:1 20:1 26:1 29:1 36:1 43:1 47:1 53:1 56:1 63:1 
0.3415121557250591 1:64 2:212 3:276 8:1 10:1 18:1 22:1 25:1 33:1 36:1 43:1 47:1 53:1 56:1 63:1 
0.4021435206668636 1:3 2:273 3:276 8:1 9:1 15:1 23:1 27:1 33:1 36:1 43:1 47:1 53:1 56:1 63:1 
0.01238894093074973 1:-177 2:278 3:101 7:1 13:1 18:1 23:1 24:1 31:1 35:1 43:1 47:1 52:1 58:1 59:1 
0.4366390177812606 1:-2 2:278 3:276 7:1 13:1 18:1 23:1 24:1 31:1 36:1 43:1 47:1 53:1 56:1 63:1 
0.06666130817316847 1:-191 2:281 3:90 6:1 13:1 14:1 20:1 28:1 33:1 38:1 43:1 48:1 51:1 56:1 62:1 
0.03119481876002232 1:-113 2:281 3:168 6:1 13:1 14:1 20:1 28:1 33:1 38:1 40:1 48:1 53:1 54:1 62:1 
0.1655660057799813 1:-38 2:281 3:243 6:1 13:1 14:1 20:1 28:1 33:1 37:1 43:1 48:1 49:1 55:1 63:1 
1 1:-5 2:281 3:276 6:1 13:1 14:1 20:1 28:1 33:1 36:1 43:1 47:1 53:1 56:1 63:1 
0.2615658351482322 1:-197 2:287 3:90 8:1 12:1 17:1 19:1 27:1 33:1 38:1 43:1 48:1 51:1 56:1 62:1 
0.05104579961582142 1:216 2:79 3:295 8:1 11:1 18:1 20:1 28:1 33:1 35:1 43:1 45:1 53:1 56:1 63:1 
0.3657430635064495 1:209 2:86 3:295 8:1 10:1 18:1 23:1 28:1 33:1 35:1 43:1 45:1 53:1 56:1 63:1 
0.416685212235445 1:203 2:92 3:295 8:1 13:1 16:1 22:1 26:1 29:1 35:1 43:1 45:1 53:1 56:1 63:1 
0.5072872959096788 1:188 2:107 3:295 4:1 10:1 18:1 23:1 26:1 32:1 35:1 43:1 45:1 53:1 56:1 63:1 
0.8469701633689737 1:140 2:155 3:295 8:1 13:1 18:1 20:1 26:1 29:1 35:1 43:1 45:1 53:1 56:1 63:1 
0.0169309580004424 1:132 2:163 3:295 8:1 10:1 18:1 23:1 28:1 30:1 35:1 43:1 45:1 53:1 56:1 63:1 
0.12259687022078 1:36 2:259 3:295 5:1 13:1 18:1 23:1 27:1 33:1 35:1 43:1 45:1 53:1 56:1 63:1 
0.01895006312316504 1:22 2:273 3:295 8:1 9:1 15:1 23:1 27:1 33:1 35:1 43:1 45:1 53:1 56:1 63:1 
0.1978370685704892 1:17 2:278 3:295 7:1 13:1 18:1 23:1 24:1 31:1 35:1 43:1 45:1 53:1 56:1 63:1 
0.08626854378196576 1:-289 2:297 3:8 5:1 13:1 18:1 23:1 24:1 30:1 38:1 43:1 45:1 52:1 58:1 59:1 
0.04632204114978228 1:-287 2:297 3:10 5:1 13:1 18:1 23:1 24:1 30:1 35:1 43:1 47:1 49:1 54:1 63:1 
0.2954798975820309 1:-207 2:297 3:90 5:1 13:1 18:1 23:1 24:1 30:1 38:1 43:1 48:1 51:1 56:1 62:1 
0.1944196914806879 1:-196 2:297 3:101 5:1 13:1 18:1 23:1 24:1 30:1 35:1 43:1 47:1 52:1 58:1 59:1 
0.326501581087817 1:-129 2:297 3:168 5:1 13:1 18:1 23:1 24:1 30:1 38:1 40:1 48:1 53:1 54:1 62:1 
0.1663244732535556 1:-21 2:297 3:276 5:1 13:1 18:1 23:1 24:1 30:1 36:1 43:1 47:1 53:1 56:1 63:1 
1 1:-2 2:297 3:295 5:1 13:1 18:1 23:1 24:1 30:1 35:1 43:1 45:1 53:1 56:1 63:1 
0.03894251188154992 1:-201 2:302 3:101 4:1 10:1 18:1 19:1 27:1 33:1 35:1 43:1 47:1 52:1 58:1 59:1 
0.3998926908856485 1:-134 2:302 3:168 4:1 10:1 18:1 19:1 27:1 33:1 38:1 40:1 48:1 53:1 54:1 62:1 
0.1455232558529028 1:-59 2:302 3:243 4:1 10:1 18:1 19:1 27:1 33:1 37:1 43:1 48:1 49:1 55:1 63:1 
0.7986677070160346 1:-7 2:302 3:295 4:1 10:1 18:1 19:1 27:1 33:1 35:1 43:1 45:1 53:1 56:1 63:1 
0.8861922952246702 1:301 2:4 3:305 7:1 13:1 14:1 23:1 28:1 30:1 36:1 39:1 47:1 49:1 58:1 63:1 
0.3069854390380315 1:228 2:77 3:305 4:1 11:1 18:1 23:1 26:1 30:1 36:1 39:1 47:1 49:1 58:1 63:1 
1 1:219 2:86 3:305 8:1 10:1 18:1 23:1 28:1 33:1 36:1 39:1 47:1 49:1 58:1 63:1 
0.178511342619596 1:214 2:91 3:305 8:1 13:1 18:1 21:1 27:1 31:1 36:1 39:1 47:1 49:1 58:1 63:1 
0.3613125491057941 1:213 2:92 3:305 8:1 13:1 16:1 22:1 26:1 29:1 36:1 39:1 47:1 49:1 58:1 63:1 
0.6040558040427626 1:198 2:107 3:305 4:1 10:1 18:1 23:1 26:1 32:1 36:1 39:1 47:1 49:1 58:1 63:1 
0.1299623738940876 1:179 2:126 3:305 4:1 13:1 18:1 19:1 25:1 33:1 36:1 39:1 47:1 49:1 58:1 63:1 
0.6718548440270851 1:150 2:155 3:305 8:1 13:1 18:1 20:1 26:1 29:1 36:1 39:1 47:1 49:1 58:1 63:1 
0.3173606986357825 1:118 2:187 3:305 4:1 10:1 18:1 23:1 24:1 32:1 36:1 39:1 47:1 49:1 58:1 63:1 
0.6326758264319735 1:93 2:212 3:305 8:1 10:1 18:1 22:1 25:1 33:1 36:1 39:1 47:1 49:1 58:1 63:1 
0.2893138593254387 1:46 2:259 3:305 5:1 13:1 18:1 23:1 27:1 33:1 36:1 39:1 47:1 49:1 58:1 63:1 
0.1880884650764955 1:32 2:273 3:305 8:1 9:1 15:1 23:1 27:1 33:1 36:1 39:1 47:1 49:1 58:1 63:1 
3.801184292916808e-05 1:27 2:278 3:305 7:1 13:1 18:1 23:1 24:1 31:1 36:1 39:1 47:1 49:1 58:1 63:1 
0.2616625241113668 1:18 2:287 3:305 8:1 12:1 17:1 19:1 27:1 33:1 36:1 39:1 47:1 49:1 58:1 63:1 
0.1365835307835503 1:3 2:302 3:305 4:1 10:1 18:1 19:1 27:1 33:1 36:1 39:1 47:1 49:1 58:1 63:1 
0.1318124316315126 1:304 2:4 3:308 7:1 13:1 14:1 23:1 28:1 30:1 38:1 39:1 48:1 52:1 55:1 62:1 
0.7038054111150965 1:199 2:109 3:308 8:1 11:1 18:1 22:1 28:1 33:1 38:1 39:1 48:1 52:1 55:1 62:1 
0.3589270700282001 1:182 2:126 3:308 4:1 13:1 18:1 19:1 25:1 33:1 38:1 39:1 48:1 52:1 55:1 62:1 
0.05103775027778311 1:151 2:157 3:308 8:1 11:1 15:1 19:1 27:1 33:1 38:1 39:1 48:1 52:1 55:1 62:1 
0.9652848840497028 1:131 2:177 3:308 8:1 9:1 15:1 23:1 28:1 33:1 38:1 39:1 48:1 52:1 55:1 62:1 
0.2449661780694668 1:121 2:187 3:308 4:1 10:1 18:1 23:1 24:1 32:1 38:1 39:1 48:1 52:1 55:1 62:1 
0.0881668707700647 1:96 2:212 3:308 8:1 10:1 18:1 22:1 25:1 33:1 38:1 39:1 48:1 52:1 55:1 62:1 
0.2224830842168617 1:92 2:216 3:308 7:1 10:1 18:1 23:1 28:1 30:1 38:1 39:1 48:1 52:1 55:1 62:1 
0.1459060877319573 1:49 2:259 3:308 5:1 13:1 18:1 23:1 27:1 33:1 38:1 39:1 48:1 52:1 55:1 62:1 
0.3154129386656282 1:30 2:278 3:308 7:1 13:1 18:1 23:1 24:1 31:1 38:1 39:1 48:1 52:1 55:1 62:1 
0.5285229906400705 1:27 2:281 3:308 6:1 13:1 14:1 20:1 28:1 33:1 38:1 39:1 48:1 52:1 55:1 62:1 
0.03028949323313145 1:21 2:287 3:308 8:1 12:1 17:1 19:1 27:1 33:1 38:1 39:1 48:1 52:1 55:1 62:1 
0.005748955875480389 1:-244 2:317 3:73 5:1 13:1 14:1 23:1 27:1 33:1 38:1 40:1 48:1 49:1 56:1 63:1 
0.2896143059507816 1:-227 2:317 3:90 5:1 13:1 14:1 23:1 27:1 33:1 38:1 43:1 48:1 51:1 56:1 62:1 
0.01055656703606368 1:-149 2:317 3:168 5:1 13:1 14:1 23:1 27:1 33:1 38:1 40:1 48:1 53:1 54:1 62:1 
0.2631802286982602 1:-74 2:317 3:243 5:1 13:1 14:1 23:1 27:1 33:1 37:1 43:1 48:1 49:1 55:1 63:1 
0.1454345251205242 1:-22 2:317 3:295 5:1 13:1 14:1 23:1 27:1 33:1 35:1 43:1 45:1 53:1 56:1 63:1 
0.1349045098149709 1:-12 2:317 3:305 5:1 13:1 14:1 23:1 27:1 33:1 36:1 39:1 47:1 49:1 58:1 63:1 
0.1806080106311022 1:316 2:4 3:320 7:1 13:1 14:1 23:1 28:1 30:1 36:1 43:1 47:1 52:1 57:1 60:1 
0.5366952001284032 1:241 2:79 3:320 8:1 11:1 18:1 20:1 28:1 33:1 36:1 43:1 47:1 52:1 57:1 60:1 
0.2700916640140773 1:234 2:86 3:320 8:1 10:1 18:1 23:1 28:1 33:1 36:1 43:1 47:1 52:1 57:1 60:1 
0.2644340481845798 1:229 2:91 3:320 8:1 13:1 18:1 21:1 27:1 31:1 36:1 43:1 47:1 52:1 57:1 60:1 
0.409642070764945 1:228 2:92 3:320 8:1 13:1 16:1 22:1 26:1 29:1 36:1 43:1 47:1 52:1 57:1 60:1 
0.495303475938944 1:213 2:107 3:320 4:1 10:1 18:1 23:1 26:1 32:1 36:1 43:1 47:1 52:1 57:1 60:1 
0.4973801044923817 1:165 2:155 3:320 8:1 13:1 18:1 20:1 26:1 29:1 36:1 43:1 47:1 52:1 57:1 60:1 
0.08485422307066014 1:157 2:163 3:320 8:1 10:1 18:1 23:1 28:1 30:1 36:1 43:1 47:1 52:1 57:1 60:1 
0.3099522927462393 1:133 2:187 3:320 4:1 10:1 18:1 23:1 24:1 32:1 36:1 43:1 47:1 52:1 57:1 60:1 
0.01557522024436137 1:104 2:216 3:320 7:1 10:1 18:1 23:1 28:1 30:1 36:1 43:1 47:1 52:1 57:1 60:1 
0.4001433764371552 1:61 2:259 3:320 5:1 13:1 18:1 23:1 27:1 33:1 36:1 43:1 47:1 52:1 57:1 60:1 
0.5710909231079001 1:39 2:281 3:320 6:1 13:1 14:1 20:1 28:1 33:1 36:1 43:1 47:1 52:1 57:1 60:1 
0.2078342444839301 1:18 2:302 3:320 4:1 10:1 18:1 19:1 27:1 33:1 36:1 43:1 47:1 52:1 57:1 60:1 
1 1:3 2:317 3:320 5:1 13:1 14:1 23:1 27:1 33:1 36:1 43:1 47:1 52:1 57:1 60:1 
0.003651399190585619 1:327 2:4 3:331 7:1 13:1 14:1 23:1 28:1 30:1 38:1 43:1 47:1 52:1 54:1 63:1 
0.07952334624606106 1:256 2:75 3:331 8:1 13:1 14:1 23:1 26:1 33:1 38:1 43:1 47:1 52:1 54:1 63:1 
0.1537871227417215 1:254 2:77 3:331 4:1 11:1 18:1 23:1 26:1 30:1 38:1 43:1 47:1 52:1 54:1 63:1 
0.08502405407083352 1:245 2:86 3:331 8:1 10:1 18:1 23:1 28:1 33:1 38:1 43:1 47:1 52:1 54:1 63:1 
0.01137355358100272 1:240 2:91 3:331 8:1 13:1 18:1 21:1 27:1 31:1 38:1 43:1 47:1 52:1 54:1 63:1 
0.6434951436121801 1:239 2:92 3:331 8:1 13:1 16:1 22:1 26:1 29:1 38:1 43:1 47:1 52:1 54:1 63:1 
0.7175284013076639 1:224 2:107 3:331 4:1 10:1 18:1 23:1 26:1 32:1 38:1 43:1 47:1 52:1 54:1 63:1 
0.2518220103460446 1:205 2:126 3:331 4:1 13:1 18:1 19:1 25:1 33:1 38:1 43:1 47:1 52:1 54:1 63:1 
0.5460899243516647 1:176 2:155 3:331 8:1 13:1 18:1 20:1 26:1 29:1 38:1 43:1 47:1 52:1 54:1 63:1 
0.462018309412576 1:168 2:163 3:331 8:1 10:1 18:1 23:1 28:1 30:1 38:1 43:1 47:1 52:1 54:1 63:1 
0.489358228229631 1:58 2:273 3:331 8:1 9:1 15:1 23:1 27:1 33:1 38:1 43:1 47:1 52:1 54:1 63:1 
0.8526342627632123 1:29 2:302 3:331 4:1 10:1 18:1 19:1 27:1 33:1 38:1 43:1 47:1 52:1 54:1 63:1 
0.1253630822360884 1:14 2:317 3:331 5:1 13:1 14:1 23:1 27:1 33:1 38:1 43:1 47:1 52:1 54:1 63:1 
0.09441158385970282 1:-348 2:350 3:2 4:1 13:1 14:1 23:1 28:1 29:1 43:1 47:1 49:1 56:1 63:1 
0.07327777271058447 1:-342 2:350 3:8 4:1 13:1 14:1 23:1 28:1 29:1 38:1 43:1 45:1 52:1 58:1 59:1 
0.5877684495766808 1:-277 2:350 3:73 4:1 13:1 14:1 23:1 28:1 29:1 38:1 40:1 48:1 49:1 56:1 63:1 
0.3427072276082369 1:-182 2:350 3:168 4:1 13:1 14:1 23:1 28:1 29:1 38:1 40:1 48:1 53:1 54:1 62:1 
0.1127723044000314 1:-107 2:350 3:243 4:1 13:1 14:1 23:1 28:1 29:1 37:1 43:1 48:1 49:1 55:1 63:1 
0.2487092434806845 1:-55 2:350 3:295 4:1 13:1 14:1 23:1 28:1 29:1 35:1 43:1 45:1 53:1 56:1 63:1 
0.3341974523961389 1:-42 2:350 3:308 4:1 13:1 14:1 23:1 28:1 29:1 38:1 39:1 48:1 52:1 55:1 62:1 
0.19411635337821 1:-30 2:350 3:320 4:1 13:1 14:1 23:1 28:1 29:1 36:1 43:1 47:1 52:1 57:1 60:1 
0.2962544102867555 1:348 2:4 3:352 7:1 13:1 14:1 23:1 28:1 30:1 34:1 41:1 48:1 49:1 54:1 63:1 
0.2106127611540885 1:277 2:75 3:352 8:1 13:1 14:1 23:1 26:1 33:1 34:1 41:1 48:1 49:1 54:1 63:1 
0.07119947871166707 1:275 2:77 3:352 4:1 11:1 18:1 23:1 26:1 30:1 34:1 41:1 48:1 49:1 54:1 63:1 
0.1714844861123043 1:266 2:86 3:352 8:1 10:1 18:1 23:1 28:1 33:1 34:1 41:1 48:1 49:1 54:1 63:1 
0.3684260603361169 1:260 2:92 3:352 8:1 13:1 16:1 22:1 26:1 29:1 34:1 41:1 48:1 49:1 54:1 63:1 
0.4979772034907163 1:245 2:107 3:352 4:1 10:1 18:1 23:1 26:1 32:1 34:1 41:1 48:1 49:1 54:1 63:1 
0.004312690515359319 1:226 2:126 3:352 4:1 13:1 18:1 19:1 25:1 33:1 34:1 41:1 48:1 49:1 54:1 63:1 
0.3466499450464228 1:197 2:155 3:352 8:1 13:1 18:1 20:1 26:1 29:1 34:1 41:1 48:1 49:1 54:1 63:1 
0.06568760815596658 1:65 2:287 3:352 8:1 12:1 17:1 19:1 27:1 33:1 34:1 41:1 48:1 49:1 54:1 63:1 
0.1120288661793283 1:50 2:302 3:352 4:1 10:1 18:1 19:1 27:1 33:1 34:1 41:1 48:1 49:1 54:1 63:1 
0.1205042421120465 1:35 2:317 3:352 5:1 13:1 14:1 23:1 27:1 33:1 34:1 41:1 48:1 49:1 54:1 63:1 
0.751812737760426 1:2 2:350 3:352 4:1 13:1 14:1 23:1 28:1 29:1 34:1 41:1 48:1 49:1 54:1 63:1 
0.04428951162191237 1:-120 2:363 3:243 5:1 10:1 14:1 23:1 25:1 37:1 43:1 48:1 49:1 55:1 63:1 
0.08136042347151 1:-87 2:363 3:276 5:1 10:1 14:1 23:1 25:1 36:1 43:1 47:1 53:1 56:1 63:1 
0.1708111624059132 1:-55 2:363 3:308 5:1 10:1 14:1 23:1 25:1 38:1 39:1 48:1 52:1 55:1 62:1 
0.07605666762402434 1:-32 2:363 3:331 5:1 10:1 14:1 23:1 25:1 38:1 43:1 47:1 52:1 54:1 63:1 
0.02713286662877518 1:18 2:9 3:27 5:1 13:1 14:1 22:1 25:1 33:1 37:1 39:1 47:1 50:1 58:1 59:1 
0.1852784999783294 1:6 2:21 3:27 4:1 13:1 17:1 23:1 24:1 32:1 37:1 39:1 47:1 50:1 58:1 59:1 
0.1476214286014543 1:8 2:21 3:29 4:1 13:1 17:1 23:1 24:1 32:1 37:1 43:1 45:1 49:1 58:1 63:1 
0.004855889734974493 1:33 2:9 3:42 5:1 13:1 14:1 22:1 25:1 33:1 34:1 43:1 48:1 53:1 54:1 62:1 
0.1878872314508054 1:37 2:21 3:58 4:1 13:1 17:1 23:1 24:1 32:1 34:1 42:1 48:1 49:1 58:1 62:1 
0.1665718565099121 1:-51 2:64 3:13 7:1 13:1 18:1 20:1 28:1 33:1 37:1 40:1 48:1 53:1 58:1 62:1 
0.78227812538679 1:-35 2:64 3:29 7:1 13:1 18:1 20:1 28:1 33:1 37:1 43:1 45:1 49:1 58:1 63:1 
1 1:-2 2:64 3:62 7:1 13:1 18:1 20:1 28:1 33:1 34:1 43:1 47:1 53:1 56:1 60:1 
0.2042098000550871 1:49 2:21 3:70 4:1 13:1 17:1 23:1 24:1 32:1 38:1 42:1 48:1 53:1 54:1 62:1 
0.35402929401563 1:-61 2:76 3:15 7:1 13:1 18:1 22:1 28:1 33:1 38:1 43:1 48:1 52:1 58:1 59:1 
0.01554265593069954 1:-49 2:76 3:27 7:1 13:1 18:1 22:1 28:1 33:1 37:1 39:1 47:1 50:1 58:1 59:1 
0.5812495294443695 1:-47 2:76 3:29 7:1 13:1 18:1 22:1 28:1 33:1 37:1 43:1 45:1 49:1 58:1 63:1 
0.2337294180871198 1:-34 2:76 3:42 7:1 13:1 18:1 22:1 28:1 33:1 34:1 43:1 48:1 53:1 54:1 62:1 
0.6188611006494253 1:-6 2:76 3:70 7:1 13:1 18:1 22:1 28:1 33:1 38:1 42:1 48:1 53:1 54:1 62:1 
0.00722444547420598 1:81 2:9 3:90 5:1 13:1 14:1 22:1 25:1 33:1 34:1 43:1 45:1 49:1 54:1 63:1 
0.4463993736930222 1:69 2:21 3:90 4:1 13:1 17:1 23:1 24:1 32:1 34:1 43:1 45:1 49:1 54:1 63:1 
0.3042253670021884 1:14 2:76 3:90 7:1 13:1 18:1 22:1 28:1 33:1 34:1 43:1 45:1 49:1 54:1 63:1 
0.2751197110133515 1:87 2:9 3:96 5:1 13:1 14:1 22:1 25:1 33:1 38:1 42:1 48:1 53:1 58:1 63:1 
5.969597605349218e-05 1:75 2:21 3:96 4:1 13:1 17:1 23:1 24:1 32:1 38:1 42:1 48:1 53:1 58:1 63:1 
0.04861892124443892 1:20 2:76 3:96 7:1 13:1 18:1 22:1 28:1 33:1 38:1 42:1 48:1 53:1 58:1 63:1 
0.3762195617029261 1:-100 2:115 3:15 7:1 9:1 15:1 22:1 25:1 33:1 38:1 43:1 48:1 52:1 58:1 59:1 
0.7343046626722705 1:-88 2:115 3:27 7:1 9:1 15:1 22:1 25:1 33:1 37:1 39:1 47:1 50:1 58:1 59:1 
0.08468944784151501 1:-86 2:115 3:29 7:1 9:1 15:1 22:1 25:1 33:1 37:1 43:1 45:1 49:1 58:1 63:1 
0.436886022184425 1:-73 2:115 3:42 7:1 9:1 15:1 22:1 25:1 33:1 34:1 43:1 48:1 53:1 54:1 62:1 
0.1693253962197916 1:-57 2:115 3:58 7:1 9:1 15:1 22:1 25:1 33:1 34:1 42:1 48:1 49:1 58:1 62:1 
0.1952547710765376 1:-53 2:115 3:62 7:1 9:1 15:1 22:1 25:1 33:1 34:1 43:1 47:1 53:1 56:1 60:1 
0.06181672720455869 1:-48 2:115 3:67 7:1 9:1 15:1 22:1 25:1 33:1 36:1 40:1 48:1 52:1 58:1 63:1 
0.08595315747338106 1:-45 2:115 3:70 7:1 9:1 15:1 22:1 25:1 33:1 38:1 42:1 48:1 53:1 54:1 62:1 
0.5441074289646034 1:-25 2:115 3:90 7:1 9:1 15:1 22:1 25:1 33:1 34:1 43:1 45:1 49:1 54:1 63:1 
0.3814941635459169 1:-19 2:115 3:96 7:1 9:1 15:1 22:1 25:1 33:1 38:1 42:1 48:1 53:1 58:1 63:1 
0.06971381313268846 1:98 2:21 3:119 4:1 13:1 17:1 23:1 24:1 32:1 37:1 40:1 48:1 53:1 54:1 62:1 
0.2699125222549847 1:43 2:76 3:119 7:1 13:1 18:1 22:1 28:1 33:1 37:1 40:1 48:1 53:1 54:1 62:1 
0.5502207300549995 1:4 2:115 3:119 7:1 9:1 15:1 22:1 25:1 33:1 37:1 40:1 48:1 53:1 54:1 62:1 
0.1617569241376447 1:121 2:9 3:130 5:1 13:1 14:1 22:1 25:1 33:1 35:1 40:1 48:1 53:1 57:1 60:1 
0.02563901981043299 1:109 2:21 3:130 4:1 13:1 17:1 23:1 24:1 32:1 35:1 40:1 48:1 53:1 57:1 60:1 
0.004917821727126048 1:54 2:76 3:130 7:1 13:1 18:1 22:1 28:1 33:1 35:1 40:1 48:1 53:1 57:1 60:1 
0.03644745555092642 1:115 2:21 3:136 4:1 13:1 17:1 23:1 24:1 32:1 35:1 42:1 48:1 53:1 54:1 63:1 
0.1575562550857955 1:60 2:76 3:136 7:1 13:1 18:1 22:1 28:1 33:1 35:1 42:1 48:1 53:1 54:1 63:1 
0.4661451576298398 1:21 2:115 3:136 7:1 9:1 15:1 22:1 25:1 33:1 35:1 42:1 48:1 53:1 54:1 63:1 
0.6439874958462189 1:76 2:76 3:152 7:1 13:1 18:1 22:1 28:1 33:1 38:1 39:1 48:1 53:1 58:1 62:1 
0.312964521772748 1:37 2:115 3:152 7:1 9:1 15:1 22:1 25:1 33:1 38:1 39:1 48:1 53:1 58:1 62:1 
0.2911622240629336 1:-149 2:162 3:13 4:1 10:1 15:1 23:1 27:1 33:1 37:1 40:1 48:1 53:1 58:1 62:1 
0.5021019655098592 1:-120 2:162 3:42 4:1 10:1 15:1 23:1 27:1 33:1 34:1 43:1 48:1 53:1 54:1 62:1 
0.2636925177348036 1:-66 2:162 3:96 4:1 10:1 15:1 23:1 27:1 33:1 38:1 42:1 48:1 53:1 58:1 63:1 
0.1688586793517976 1:-32 2:162 3:130 4:1 10:1 15:1 23:1 27:1 33:1 35:1 40:1 48:1 53:1 57:1 60:1 
0.07506146811582926 1:-10 2:162 3:152 4:1 10:1 15:1 23:1 27:1 33:1 38:1 39:1 48:1 53:1 58:1 62:1 
0.8272125781778198 1:170 2:21 3:191 4:1 13:1 17:1 23:1 24:1 32:1 38:1 42:1 45:1 52:1 58:1 63:1 
0.936851616083019 1:127 2:64 3:191 7:1 13:1 18:1 20:1 28:1 33:1 38:1 42:1 45:1 52:1 58:1 63:1 
0.3965535491097724 1:115 2:76 3:191 7:1 13:1 18:1 22:1 28:1 33:1 38:1 42:1 45:1 52:1 58:1 63:1 
0.4912185433089497 1:76 2:115 3:191 7:1 9:1 15:1 22:1 25:1 33:1 38:1 42:1 45:1 52:1 58:1 63:1 
0.7633825379597947 1:29 2:162 3:191 4:1 10:1 15:1 23:1 27:1 33:1 38:1 42:1 45:1 52:1 58:1 63:1 
0.3359243478375867 1:-194 2:207 3:13 8:1 10:1 15:1 22:1 25:1 30:1 37:1 40:1 48:1 53:1 58:1 62:1 
0.7733373540806322 1:-192 2:207 3:15 8:1 10:1 15:1 22:1 25:1 30:1 38:1 43:1 48:1 52:1 58:1 59:1 
0.35443270069261 1:-180 2:207 3:27 8:1 10:1 15:1 22:1 25:1 30:1 37:1 39:1 47:1 50:1 58:1 59:1 
0.45372676292587 1:-178 2:207 3:29 8:1 10:1 15:1 22:1 25:1 30:1 37:1 43:1 45:1 49:1 58:1 63:1 
0.0298711292058553 1:-165 2:207 3:42 8:1 10:1 15:1 22:1 25:1 30:1 34:1 43:1 48:1 53:1 54:1 62:1 
0.2533606091756859 1:-145 2:207 3:62 8:1 10:1 15:1 22:1 25:1 30:1 34:1 43:1 47:1 53:1 56:1 60:1 
0.8004126340470219 1:-140 2:207 3:67 8:1 10:1 15:1 22:1 25:1 30:1 36:1 40:1 48:1 52:1 58:1 63:1 
0.63492469933896 1:-137 2:207 3:70 8:1 10:1 15:1 22:1 25:1 30:1 38:1 42:1 48:1 53:1 54:1 62:1 
0.03111315002487572 1:-107 2:207 3:100 8:1 10:1 15:1 22:1 25:1 30:1 38:1 43:1 48:1 52:1 57:1 63:1 
0.5686631300666369 1:-88 2:207 3:119 8:1 10:1 15:1 22:1 25:1 30:1 37:1 40:1 48:1 53:1 54:1 62:1 
0.2679076111968089 1:-77 2:207 3:130 8:1 10:1 15:1 22:1 25:1 30:1 35:1 40:1 48:1 53:1 57:1 60:1 
0.1434081266281156 1:-71 2:207 3:136 8:1 10:1 15:1 22:1 25:1 30:1 35:1 42:1 48:1 53:1 54:1 63:1 
0.6955575579146847 1:-55 2:207 3:152 8:1 10:1 15:1 22:1 25:1 30:1 38:1 39:1 48:1 53:1 58:1 62:1 
0.9618878739664565 1:-16 2:207 3:191 8:1 10:1 15:1 22:1 25:1 30:1 38:1 42:1 45:1 52:1 58:1 63:1 
0.03088515017086786 1:136 2:76 3:212 7:1 13:1 18:1 22:1 28:1 33:1 35:1 40:1 48:1 53:1 58:1 62:1 
0.5678463562428909 1:-250 2:263 3:13 8:1 12:1 15:1 23:1 24:1 30:1 37:1 40:1 48:1 53:1 58:1 62:1 
0.09836205833334592 1:-248 2:263 3:15 8:1 12:1 15:1 23:1 24:1 30:1 38:1 43:1 48:1 52:1 58:1 59:1 
0.158890305242093 1:-236 2:263 3:27 8:1 12:1 15:1 23:1 24:1 30:1 37:1 39:1 47:1 50:1 58:1 59:1 
0.06743997545283531 1:-221 2:263 3:42 8:1 12:1 15:1 23:1 24:1 30:1 34:1 43:1 48:1 53:1 54:1 62:1 
0.06309696706787138 1:-201 2:263 3:62 8:1 12:1 15:1 23:1 24:1 30:1 34:1 43:1 47:1 53:1 56:1 60:1 
0.141305073964514 1:-196 2:263 3:67 8:1 12:1 15:1 23:1 24:1 30:1 36:1 40:1 48:1 52:1 58:1 63:1 
0.2117888086046934 1:-189 2:263 3:74 8:1 12:1 15:1 23:1 24:1 30:1 38:1 39:1 47:1 53:1 56:1 62:1 
0.2183386224849951 1:-173 2:263 3:90 8:1 12:1 15:1 23:1 24:1 30:1 34:1 43:1 45:1 49:1 54:1 63:1 
0.1471824783198375 1:-165 2:263 3:98 8:1 12:1 15:1 23:1 24:1 30:1 38:1 43:1 48:1 53:1 58:1 62:1 
0.3632201658254073 1:-163 2:263 3:100 8:1 12:1 15:1 23:1 24:1 30:1 38:1 43:1 48:1 52:1 57:1 63:1 
0.4011913734219218 1:-144 2:263 3:119 8:1 12:1 15:1 23:1 24:1 30:1 37:1 40:1 48:1 53:1 54:1 62:1 
0.1619024141492104 1:-133 2:263 3:130 8:1 12:1 15:1 23:1 24:1 30:1 35:1 40:1 48:1 53:1 57:1 60:1 
0.6888333367223395 1:-127 2:263 3:136 8:1 12:1 15:1 23:1 24:1 30:1 35:1 42:1 48:1 53:1 54:1 63:1 
0.297443668469892 1:-72 2:263 3:191 8:1 12:1 15:1 23:1 24:1 30:1 38:1 42:1 45:1 52:1 58:1 63:1 
0.5113520486631514 1:-51 2:263 3:212 8:1 12:1 15:1 23:1 24:1 30:1 35:1 40:1 48:1 53:1 58:1 62:1 
0.3551134426285196 1:197 2:76 3:273 7:1 13:1 18:1 22:1 28:1 33:1 38:1 40:1 47:1 53:1 54:1 59:1 
0.2583303498183847 1:158 2:115 3:273 7:1 9:1 15:1 22:1 25:1 33:1 38:1 40:1 47:1 53:1 54:1 59:1 
0.1706778543546641 1:66 2:207 3:273 8:1 10:1 15:1 22:1 25:1 30:1 38:1 40:1 47:1 53:1 54:1 59:1 
0.586769065826045 1:10 2:263 3:273 8:1 12:1 15:1 23:1 24:1 30:1 38:1 40:1 47:1 53:1 54:1 59:1 
0.1668872004619913 1:257 2:21 3:278 4:1 13:1 17:1 23:1 24:1 32:1 34:1 39:1 45:1 49:1 58:1 63:1 
0.128724467138831 1:116 2:162 3:278 4:1 10:1 15:1 23:1 27:1 33:1 34:1 39:1 45:1 49:1 58:1 63:1 
0.1195141175197743 1:15 2:263 3:278 8:1 12:1 15:1 23:1 24:1 30:1 34:1 39:1 45:1 49:1 58:1 63:1 
0.1973989749859699 1:280 2:9 3:289 5:1 13:1 14:1 22:1 25:1 33:1 35:1 42:1 48:1 53:1 58:1 62:1 
0.02216934323701868 1:268 2:21 3:289 4:1 13:1 17:1 23:1 24:1 32:1 35:1 42:1 48:1 53:1 58:1 62:1 
0.06999538277142241 1:26 2:263 3:289 8:1 12:1 15:1 23:1 24:1 30:1 35:1 42:1 48:1 53:1 58:1 62:1 
0.04016875280964263 1:176 2:115 3:291 7:1 9:1 15:1 22:1 25:1 33:1 38:1 43:1 48:1 52:1 58:1 59:1 
0.1123179584351311 1:129 2:162 3:291 4:1 10:1 15:1 23:1 27:1 33:1 38:1 43:1 48:1 52:1 58:1 59:1 
0.07259218926781752 1:28 2:263 3:291 8:1 12:1 15:1 23:1 24:1 30:1 38:1 43:1 48:1 52:1 58:1 59:1 
1 1:-9 2:11 3:2 8:1 10:1 14:1 20:1 28:1 32:1 43:1 48:1 50:1 55:1 63:1 
1 1:-2 2:17 3:15 7:1 13:1 14:1 19:1 25:1 30:1 35:1 43:1 47:1 49:1 56:1 59:1 
0.4254231627221132 1:22 2:17 3:39 7:1 13:1 14:1 19:1 25:1 30:1 35:1 43:1 48:1 53:1 58:1 59:1 
0.2463826892765627 1:-48 2:63 3:15 8:1 9:1 15:1 22:1 25:1 33:1 35:1 43:1 47:1 49:1 56:1 59:1 
0.1407360404029408 1:-40 2:63 3:23 8:1 9:1 15:1 22:1 25:1 33:1 35:1 43:1 48:1 52:1 54:1 59:1 
0.2441437613215742 1:-24 2:63 3:39 8:1 9:1 15:1 22:1 25:1 33:1 35:1 43:1 48:1 53:1 58:1 59:1 
0.1947936772474404 1:54 2:17 3:71 7:1 13:1 14:1 19:1 25:1 30:1 38:1 43:1 48:1 50:1 58:1 62:1 
1 1:75 2:17 3:92 7:1 13:1 14:1 19:1 25:1 30:1 38:1 43:1 47:1 50:1 55:1 63:1 
0.1807953830944035 1:108 2:17 3:125 7:1 13:1 14:1 19:1 25:1 30:1 35:1 43:1 47:1 49:1 54:1 59:1 
0.1990716591915637 1:62 2:63 3:125 8:1 9:1 15:1 22:1 25:1 33:1 35:1 43:1 47:1 49:1 54:1 59:1 
0.648444566385996 1:147 2:17 3:164 7:1 13:1 14:1 19:1 25:1 30:1 38:1 42:1 48:1 53:1 54:1 60:1 
0.3888044544842872 1:101 2:63 3:164 8:1 9:1 15:1 22:1 25:1 33:1 38:1 42:1 48:1 53:1 54:1 60:1 
1 1:-194 2:209 3:15 8:1 9:1 15:1 22:1 28:1 33:1 35:1 43:1 47:1 49:1 56:1 59:1 
0.1359932348387752 1:-170 2:209 3:39 8:1 9:1 15:1 22:1 28:1 33:1 35:1 43:1 48:1 53:1 58:1 59:1 
0.3238848503480638 1:-75 2:209 3:134 8:1 9:1 15:1 22:1 28:1 33:1 37:1 43:1 47:1 53:1 58:1 63:1 
0.2042019017368832 1:-73 2:209 3:136 8:1 9:1 15:1 22:1 28:1 33:1 37:1 43:1 48:1 53:1 54:1 63:1 
0.1882110422122555 1:206 2:11 3:217 8:1 10:1 14:1 20:1 28:1 32:1 38:1 42:1 48:1 53:1 54:1 62:1 
0.1147177163383617 1:200 2:17 3:217 7:1 13:1 14:1 19:1 25:1 30:1 38:1 42:1 48:1 53:1 54:1 62:1 
0.0202281923556929 1:154 2:63 3:217 8:1 9:1 15:1 22:1 25:1 33:1 38:1 42:1 48:1 53:1 54:1 62:1 
0.6151428025497805 1:214 2:11 3:225 8:1 10:1 14:1 20:1 28:1 32:1 38:1 43:1 48:1 53:1 58:1 59:1 
0.3095691393036883 1:208 2:17 3:225 7:1 13:1 14:1 19:1 25:1 30:1 38:1 43:1 48:1 53:1 58:1 59:1 
0.469833230545434 1:162 2:63 3:225 8:1 9:1 15:1 22:1 25:1 33:1 38:1 43:1 48:1 53:1 58:1 59:1 
1 1:16 2:209 3:225 8:1 9:1 15:1 22:1 28:1 33:1 38:1 43:1 48:1 53:1 58:1 59:1 
0.01724985661386676 1:-243 2:245 3:2 8:1 13:1 18:1 23:1 28:1 30:1 43:1 48:1 50:1 55:1 63:1 
0.6189526442161981 1:-232 2:245 3:13 8:1 13:1 18:1 23:1 28:1 30:1 34:1 41:1 45:1 52:1 58:1 59:1 
0.2123509651569763 1:-206 2:245 3:39 8:1 13:1 18:1 23:1 28:1 30:1 35:1 43:1 48:1 53:1 58:1 59:1 
0.01599755904291586 1:-179 2:245 3:66 8:1 13:1 18:1 23:1 28:1 30:1 36:1 42:1 45:1 52:1 58:1 63:1 
0.34628120004232 1:-153 2:245 3:92 8:1 13:1 18:1 23:1 28:1 30:1 38:1 43:1 47:1 50:1 55:1 63:1 
0.03646690322507322 1:-131 2:245 3:114 8:1 13:1 18:1 23:1 28:1 30:1 38:1 43:1 47:1 53:1 55:1 60:1 
0.2211630085421222 1:-120 2:245 3:125 8:1 13:1 18:1 23:1 28:1 30:1 35:1 43:1 47:1 49:1 54:1 59:1 
0.1277987230848028 1:-111 2:245 3:134 8:1 13:1 18:1 23:1 28:1 30:1 37:1 43:1 47:1 53:1 58:1 63:1 
0.06406575888015004 1:-109 2:245 3:136 8:1 13:1 18:1 23:1 28:1 30:1 37:1 43:1 48:1 53:1 54:1 63:1 
0.03534323671607515 1:230 2:17 3:247 7:1 13:1 14:1 19:1 25:1 30:1 38:1 41:1 48:1 50:1 58:1 63:1 
0.06339277020624653 1:258 2:11 3:269 8:1 10:1 14:1 20:1 28:1 32:1 38:1 42:1 45:1 53:1 58:1 63:1 
1 1:-271 2:286 3:15 8:1 13:1 15:1 22:1 25:1 30:1 35:1 43:1 47:1 49:1 56:1 59:1 
1 1:-263 2:286 3:23 8:1 13:1 15:1 22:1 25:1 30:1 35:1 43:1 48:1 52:1 54:1 59:1 
0.313730918385611 1:-247 2:286 3:39 8:1 13:1 15:1 22:1 25:1 30:1 35:1 43:1 48:1 53:1 58:1 59:1 
0.005173103605450965 1:-215 2:286 3:71 8:1 13:1 15:1 22:1 25:1 30:1 38:1 43:1 48:1 50:1 58:1 62:1 
0.2653061278701357 1:-194 2:286 3:92 8:1 13:1 15:1 22:1 25:1 30:1 38:1 43:1 47:1 50:1 55:1 63:1 
0.02463981907295 1:-150 2:286 3:136 8:1 13:1 15:1 22:1 25:1 30:1 37:1 43:1 48:1 53:1 54:1 63:1 
0.001987362780038369 1:-69 2:286 3:217 8:1 13:1 15:1 22:1 25:1 30:1 38:1 42:1 48:1 53:1 54:1 62:1 
0.2984753021071069 1:-61 2:286 3:225 8:1 13:1 15:1 22:1 25:1 30:1 38:1 43:1 48:1 53:1 58:1 59:1 
0.1514968363698183 1:-39 2:286 3:247 8:1 13:1 15:1 22:1 25:1 30:1 38:1 41:1 48:1 50:1 58:1 63:1 
0.0950087803335567 1:233 2:63 3:296 8:1 9:1 15:1 22:1 25:1 33:1 38:1 43:1 47:1 50:1 58:1 63:1 
0.1982613437031564 1:292 2:11 3:303 8:1 10:1 14:1 20:1 28:1 32:1 38:1 40:1 45:1 49:1 58:1 63:1 
0.3604101864237467 1:321 2:11 3:332 8:1 10:1 14:1 20:1 28:1 32:1 38:1 39:1 48:1 53:1 54:1 63:1 
0.2317566456259026 1:269 2:63 3:332 8:1 9:1 15:1 22:1 25:1 33:1 38:1 39:1 48:1 53:1 54:1 63:1 
0.1451609768385979 1:46 2:286 3:332 8:1 13:1 15:1 22:1 25:1 30:1 38:1 39:1 48:1 53:1 54:1 63:1 
0.3308833776176006 1:322 2:17 3:339 7:1 13:1 14:1 19:1 25:1 30:1 35:1 43:1 44:1 52:1 57:1 60:1 
0.3433681802626652 1:276 2:63 3:339 8:1 9:1 15:1 22:1 25:1 33:1 35:1 43:1 44:1 52:1 57:1 60:1 
0.1647982795401547 1:130 2:209 3:339 8:1 9:1 15:1 22:1 28:1 33:1 35:1 43:1 44:1 52:1 57:1 60:1 
0.0006865344605046919 1:94 2:245 3:339 8:1 13:1 18:1 23:1 28:1 30:1 35:1 43:1 44:1 52:1 57:1 60:1 
0.2827883480130053 1:53 2:286 3:339 8:1 13:1 15:1 22:1 25:1 30:1 35:1 43:1 44:1 52:1 57:1 60:1 
0.3890812464314572 1:344 2:17 3:361 7:1 13:1 14:1 19:1 25:1 30:1 35:1 43:1 47:1 53:1 58:1 63:1 
0.08319491923719262 1:298 2:63 3:361 8:1 9:1 15:1 22:1 25:1 33:1 35:1 43:1 47:1 53:1 58:1 63:1 
0.1925802428025775 1:152 2:209 3:361 8:1 9:1 15:1 22:1 28:1 33:1 35:1 43:1 47:1 53:1 58:1 63:1 
0.09502691384866969 1:116 2:245 3:361 8:1 13:1 18:1 23:1 28:1 30:1 35:1 43:1 47:1 53:1 58:1 63:1 
0.0993075979653696 1:75 2:286 3:361 8:1 13:1 15:1 22:1 25:1 30:1 35:1 43:1 47:1 53:1 58:1 63:1 
0.1915515433125953 1:374 2:17 3:391 7:1 13:1 14:1 19:1 25:1 30:1 38:1 39:1 47:1 49:1 58:1 63:1 
0.740480408613989 1:328 2:63 3:391 8:1 9:1 15:1 22:1 25:1 33:1 38:1 39:1 47:1 49:1 58:1 63:1 
0.3124402527105186 1:182 2:209 3:391 8:1 9:1 15:1 22:1 28:1 33:1 38:1 39:1 47:1 49:1 58:1 63:1 
0.02368502620086196 1:146 2:245 3:391 8:1 13:1 18:1 23:1 28:1 30:1 38:1 39:1 47:1 49:1 58:1 63:1 
0.3728578833820494 1:105 2:286 3:391 8:1 13:1 15:1 22:1 25:1 30:1 38:1 39:1 47:1 49:1 58:1 63:1 
0.4151053187887341 1:-388 2:403 3:15 8:1 12:1 15:1 23:1 27:1 33:1 35:1 43:1 47:1 49:1 56:1 59:1 
0.03376994113552636 1:-332 2:403 3:71 8:1 12:1 15:1 23:1 27:1 33:1 38:1 43:1 48:1 50:1 58:1 62:1 
0.02511989129532187 1:-311 2:403 3:92 8:1 12:1 15:1 23:1 27:1 33:1 38:1 43:1 47:1 50:1 55:1 63:1 
0.0008477026354630213 1:-278 2:403 3:125 8:1 12:1 15:1 23:1 27:1 33:1 35:1 43:1 47:1 49:1 54:1 59:1 
0.1025252199092857 1:-239 2:403 3:164 8:1 12:1 15:1 23:1 27:1 33:1 38:1 42:1 48:1 53:1 54:1 60:1 
0.2436128030891557 1:-186 2:403 3:217 8:1 12:1 15:1 23:1 27:1 33:1 38:1 42:1 48:1 53:1 54:1 62:1 
0.01798998141707886 1:-156 2:403 3:247 8:1 12:1 15:1 23:1 27:1 33:1 38:1 41:1 48:1 50:1 58:1 63:1 
0.02736730918853992 1:-107 2:403 3:296 8:1 12:1 15:1 23:1 27:1 33:1 38:1 43:1 47:1 50:1 58:1 63:1 
0.564201442094235 1:-64 2:403 3:339 8:1 12:1 15:1 23:1 27:1 33:1 35:1 43:1 44:1 52:1 57:1 60:1 
0.1563202636269964 1:395 2:11 3:406 8:1 10:1 14:1 20:1 28:1 32:1 36:1 43:1 47:1 49:1 54:1 59:1 
0.3088761660672531 1:389 2:17 3:406 7:1 13:1 14:1 19:1 25:1 30:1 36:1 43:1 47:1 49:1 54:1 59:1 
0.1418435102568822 1:343 2:63 3:406 8:1 9:1 15:1 22:1 25:1 33:1 36:1 43:1 47:1 49:1 54:1 59:1 
0.2040064308269906 1:197 2:209 3:406 8:1 9:1 15:1 22:1 28:1 33:1 36:1 43:1 47:1 49:1 54:1 59:1 
0.09624074981535946 1:120 2:286 3:406 8:1 13:1 15:1 22:1 25:1 30:1 36:1 43:1 47:1 49:1 54:1 59:1 
0.3698498192438255 1:3 2:403 3:406 8:1 12:1 15:1 23:1 27:1 33:1 36:1 43:1 47:1 49:1 54:1 59:1 
0.1644113099513031 1:399 2:17 3:416 7:1 13:1 14:1 19:1 25:1 30:1 37:1 43:1 45:1 49:1 55:1 63:1 
0.2438010792426607 1:353 2:63 3:416 8:1 9:1 15:1 22:1 25:1 33:1 37:1 43:1 45:1 49:1 55:1 63:1 
0.09683675379634932 1:207 2:209 3:416 8:1 9:1 15:1 22:1 28:1 33:1 37:1 43:1 45:1 49:1 55:1 63:1 
0.5533739176856313 1:171 2:245 3:416 8:1 13:1 18:1 23:1 28:1 30:1 37:1 43:1 45:1 49:1 55:1 63:1 
0.2436300663122313 1:13 2:403 3:416 8:1 12:1 15:1 23:1 27:1 33:1 37:1 43:1 45:1 49:1 55:1 63:1 
0.003983467175922533 1:436 2:11 3:447 8:1 10:1 14:1 20:1 28:1 32:1 38:1 42:1 48:1 49:1 54:1 63:1 
0.06118671807092848 1:246 2:245 3:491 8:1 13:1 18:1 23:1 28:1 30:1 35:1 39:1 45:1 53:1 54:1 62:1 
0.5110252974709367 1:-134 2:146 3:12 5:1 9:1 15:1 19:1 25:1 33:1 38:1 40:1 48:1 53:1 54:1 63:1 
0.04329526420906206 1:-221 2:233 3:12 8:1 10:1 18:1 19:1 25:1 33:1 38:1 40:1 48:1 53:1 54:1 63:1 
0.0466732083609516 1:114 2:146 3:260 5:1 9:1 15:1 19:1 25:1 33:1 35:1 41:1 48:1 49:1 58:1 59:1 
0.1330456890836055 1:27 2:233 3:260 8:1 10:1 18:1 19:1 25:1 33:1 35:1 41:1 48:1 49:1 58:1 59:1 
1 1:2 2:258 3:260 5:1 9:1 15:1 23:1 28:1 29:1 35:1 41:1 48:1 49:1 58:1 59:1 
0.1721280587845502 1:-106 2:366 3:260 4:1 10:1 14:1 20:1 27:1 33:1 35:1 41:1 48:1 49:1 58:1 59:1 
0.6814543113031103 1:-123 2:383 3:260 4:1 10:1 14:1 20:1 25:1 33:1 35:1 41:1 48:1 49:1 58:1 59:1 
0.3403028290756977 1:-425 2:437 3:12 5:1 13:1 14:1 20:1 27:1 31:1 38:1 40:1 48:1 53:1 54:1 63:1 
0.1611428058589642 1:-180 2:440 3:260 6:1 10:1 17:1 20:1 24:1 33:1 35:1 41:1 48:1 49:1 58:1 59:1 
0.009179340755557375 1:-467 2:479 3:12 6:1 13:1 15:1 19:1 25:1 33:1 38:1 40:1 48:1 53:1 54:1 63:1 
0.03015775928518921 1:-290 2:550 3:260 4:1 10:1 15:1 20:1 35:1 41:1 48:1 49:1 58:1 59:1 
0.08941375952831035 1:63 2:19 3:82 7:1 13:1 18:1 20:1 24:1 33:1 38:1 43:1 48:1 50:1 58:1 63:1 
0.1585335760394707 1:-211 2:293 3:82 5:1 9:1 15:1 23:1 24:1 33:1 38:1 43:1 48:1 50:1 58:1 63:1 
0.7464576853157797 1:429 2:19 3:448 7:1 13:1 18:1 20:1 24:1 33:1 35:1 42:1 48:1 49:1 58:1 59:1 
0.2468442525977425 1:235 2:213 3:448 8:1 9:1 15:1 19:1 25:1 32:1 35:1 42:1 48:1 49:1 58:1 59:1 
0.04791597759885829 1:155 2:293 3:448 5:1 9:1 15:1 23:1 24:1 33:1 35:1 42:1 48:1 49:1 58:1 59:1 
0.00637512614135154 1:-399 2:454 3:55 4:1 10:1 15:1 23:1 26:1 31:1 38:1 42:1 45:1 53:1 58:1 62:1 
1 1:-6 2:454 3:448 4:1 10:1 15:1 23:1 26:1 31:1 35:1 42:1 48:1 49:1 58:1 59:1 
0.008069174599720685 1:-401 2:456 3:55 5:1 11:1 18:1 21:1 26:1 30:1 38:1 42:1 45:1 53:1 58:1 62:1 
1 1:-8 2:456 3:448 5:1 11:1 18:1 21:1 26:1 30:1 35:1 42:1 48:1 49:1 58:1 59:1 
0.7152447069093923 1:-9 2:457 3:448 6:1 13:1 16:1 21:1 25:1 35:1 42:1 48:1 49:1 58:1 59:1 
0.001032562798723602 1:-376 2:458 3:82 8:1 11:1 16:1 20:1 38:1 43:1 48:1 50:1 58:1 63:1 
0.3272154407783762 1:-10 2:458 3:448 8:1 11:1 16:1 20:1 35:1 42:1 48:1 49:1 58:1 59:1 
0.47346050541317 1:-21 2:54 3:33 5:1 13:1 18:1 20:1 24:1 29:1 38:1 39:1 48:1 53:1 54:1 59:1 
0.1150156428672653 1:163 2:13 3:176 5:1 13:1 14:1 22:1 24:1 33:1 37:1 40:1 44:1 52:1 58:1 63:1 
0.1847877141552808 1:-132 2:308 3:176 7:1 9:1 14:1 20:1 28:1 32:1 37:1 40:1 44:1 52:1 58:1 63:1 
0.01832129158972706 1:-63 2:308 3:245 7:1 9:1 14:1 20:1 28:1 32:1 35:1 43:1 48:1 53:1 57:1 60:1 
0.2243856499520951 1:-307 2:340 3:33 8:1 13:1 18:1 23:1 24:1 32:1 38:1 39:1 48:1 53:1 54:1 59:1 
0.5535498840489712 1:114 2:254 3:368 8:1 13:1 18:1 23:1 28:1 33:1 37:1 40:1 48:1 53:1 54:1 63:1 
0.4891371108243029 1:60 2:308 3:368 7:1 9:1 14:1 20:1 28:1 32:1 37:1 40:1 48:1 53:1 54:1 63:1 
0.3604004866589579 1:74 2:308 3:382 7:1 9:1 14:1 20:1 28:1 32:1 35:1 43:1 48:1 49:1 58:1 60:1 
0.3244677521555333 1:177 2:50 3:227 4:1 10:1 17:1 20:1 28:1 29:1 38:1 42:1 45:1 49:1 57:1 63:1 
0.008315013936190829 1:162 2:65 3:227 7:1 13:1 15:1 22:1 28:1 30:1 38:1 42:1 45:1 49:1 57:1 63:1 
0.05194358011841285 1:65 2:162 3:227 7:1 13:1 18:1 20:1 26:1 30:1 38:1 42:1 45:1 49:1 57:1 63:1 
0.1236804307077394 1:63 2:164 3:227 8:1 11:1 15:1 20:1 28:1 33:1 38:1 42:1 45:1 49:1 57:1 63:1 
0.06959131403617953 1:284 2:1 3:285 14:1 20:1 24:1 30:1 35:1 40:1 44:1 53:1 55:1 59:1 
0.6718096856738037 1:255 2:30 3:285 5:1 13:1 15:1 20:1 26:1 30:1 35:1 40:1 44:1 53:1 55:1 59:1 
0.3173244766216473 1:181 2:104 3:285 8:1 9:1 14:1 22:1 24:1 30:1 35:1 40:1 44:1 53:1 55:1 59:1 
0.06977770551958812 1:59 2:11 3:70 4:1 11:1 15:1 20:1 28:1 32:1 37:1 43:1 45:1 49:1 54:1 62:1 
1 1:-6 2:76 3:70 7:1 13:1 18:1 20:1 27:1 33:1 37:1 43:1 45:1 49:1 54:1 62:1 
0.3541100477596726 1:-54 2:97 3:43 8:1 12:1 15:1 19:1 25:1 30:1 38:1 43:1 45:1 53:1 54:1 63:1 
0.3074928384461157 1:-77 2:120 3:43 8:1 10:1 18:1 20:1 25:1 30:1 38:1 43:1 45:1 53:1 54:1 63:1 
0.05192919515624378 1:-88 2:158 3:70 8:1 10:1 18:1 23:1 27:1 30:1 37:1 43:1 45:1 49:1 54:1 62:1 
0.2625638841819593 1:-170 2:171 3:1 4:1 10:1 18:1 23:1 26:1 29:1 48:1 53:1 55:1 63:1 
0.1464032192208465 1:-250 2:251 3:1 5:1 13:1 15:1 23:1 28:1 30:1 48:1 53:1 55:1 63:1 
0.1121746170020309 1:294 2:76 3:370 7:1 13:1 18:1 20:1 27:1 33:1 38:1 42:1 45:1 52:1 58:1 62:1 
0.1663875564369262 1:197 2:173 3:370 8:1 11:1 18:1 19:1 28:1 32:1 38:1 42:1 45:1 52:1 58:1 62:1 
0.002023336711950041 1:119 2:251 3:370 5:1 13:1 15:1 23:1 28:1 30:1 38:1 42:1 45:1 52:1 58:1 62:1 
0.1316267024737973 1:401 2:9 3:410 8:1 10:1 14:1 20:1 26:1 30:1 38:1 43:1 48:1 52:1 57:1 63:1 
0.1367201066557626 1:399 2:11 3:410 4:1 11:1 15:1 20:1 28:1 32:1 38:1 43:1 48:1 52:1 57:1 63:1 
0.004426674922879847 1:334 2:76 3:410 7:1 13:1 18:1 20:1 27:1 33:1 38:1 43:1 48:1 52:1 57:1 63:1 
0.04279431638672331 1:290 2:120 3:410 8:1 10:1 18:1 20:1 25:1 30:1 38:1 43:1 48:1 52:1 57:1 63:1 
0.01837084224428632 1:252 2:158 3:410 8:1 10:1 18:1 23:1 27:1 30:1 38:1 43:1 48:1 52:1 57:1 63:1 
0.01663346154248069 1:237 2:173 3:410 8:1 11:1 18:1 19:1 28:1 32:1 38:1 43:1 48:1 52:1 57:1 63:1 
0.05562865671791317 1:159 2:251 3:410 5:1 13:1 15:1 23:1 28:1 30:1 38:1 43:1 48:1 52:1 57:1 63:1 
0.216065305290977 1:46 2:364 3:410 5:1 13:1 18:1 23:1 27:1 33:1 38:1 43:1 48:1 52:1 57:1 63:1 
0.7710022467770795 1:-424 2:425 3:1 8:1 13:1 14:1 23:1 28:1 32:1 48:1 53:1 55:1 63:1 
0.002495438198275565 1:-355 2:425 3:70 8:1 13:1 14:1 23:1 28:1 32:1 37:1 43:1 45:1 49:1 54:1 62:1 
0.01613872412952886 1:337 2:97 3:434 8:1 12:1 15:1 19:1 25:1 30:1 35:1 43:1 45:1 53:1 57:1 60:1 
0.2439473047950399 1:276 2:158 3:434 8:1 10:1 18:1 23:1 27:1 30:1 35:1 43:1 45:1 53:1 57:1 60:1 
0.7532500830301521 1:263 2:171 3:434 4:1 10:1 18:1 23:1 26:1 29:1 35:1 43:1 45:1 53:1 57:1 60:1 
0.2103121374694853 1:183 2:251 3:434 5:1 13:1 15:1 23:1 28:1 30:1 35:1 43:1 45:1 53:1 57:1 60:1 
0.4384193250888869 1:70 2:364 3:434 5:1 13:1 18:1 23:1 27:1 33:1 35:1 43:1 45:1 53:1 57:1 60:1 
0.2642698373749471 1:9 2:425 3:434 8:1 13:1 14:1 23:1 28:1 32:1 35:1 43:1 45:1 53:1 57:1 60:1 
0.09239784254449958 1:17 2:1 3:18 14:1 20:1 25:1 30:1 37:1 39:1 45:1 53:1 58:1 59:1 
0.7017362953525154 1:26 2:1 3:27 14:1 20:1 25:1 30:1 38:1 39:1 45:1 49:1 56:1 63:1 
1 1:-11 2:29 3:18 5:1 13:1 14:1 23:1 24:1 31:1 37:1 39:1 45:1 53:1 58:1 59:1 
0.06723502321745869 1:-54 2:81 3:27 7:1 10:1 17:1 19:1 28:1 33:1 38:1 39:1 45:1 49:1 56:1 63:1 
0.7835042539465308 1:-92 2:110 3:18 8:1 9:1 15:1 20:1 25:1 30:1 37:1 39:1 45:1 53:1 58:1 59:1 
0.3251905523780538 1:123 2:1 3:124 14:1 20:1 25:1 30:1 35:1 43:1 45:1 53:1 58:1 62:1 
0.3453460664313932 1:14 2:110 3:124 8:1 9:1 15:1 20:1 25:1 30:1 35:1 43:1 45:1 53:1 58:1 62:1 
0.2212620424601932 1:-167 2:194 3:27 5:1 12:1 18:1 23:1 27:1 33:1 38:1 39:1 45:1 49:1 56:1 63:1 
0.1732055172542786 1:-70 2:194 3:124 5:1 12:1 18:1 23:1 27:1 33:1 35:1 43:1 45:1 53:1 58:1 62:1 
0.170004497184289 1:-176 2:203 3:27 5:1 13:1 18:1 19:1 27:1 29:1 38:1 39:1 45:1 49:1 56:1 63:1 
0.07192111070147286 1:-208 2:226 3:18 4:1 10:1 14:1 19:1 27:1 29:1 37:1 39:1 45:1 53:1 58:1 59:1 
0.3737930672912803 1:20 2:81 3:101 4:1 13:1 14:1 19:1 24:1 33:1 38:1 43:1 45:1 53:1 54:1 63:1 
0.06681893487113144 1:127 2:81 3:208 4:1 13:1 14:1 19:1 24:1 33:1 38:1 43:1 45:1 50:1 58:1 60:1 
0.2339322641259502 1:260 2:8 3:268 8:1 10:1 14:1 20:1 28:1 33:1 35:1 43:1 48:1 53:1 54:1 59:1 
0.2434911071871728 1:187 2:81 3:268 4:1 13:1 14:1 19:1 24:1 33:1 35:1 43:1 48:1 53:1 54:1 59:1 
0.1455569918762534 1:349 2:8 3:357 8:1 10:1 14:1 20:1 28:1 33:1 35:1 43:1 48:1 52:1 58:1 59:1 
0.6349544272463828 1:4 2:31 3:35 8:1 13:1 14:1 23:1 27:1 30:1 38:1 42:1 45:1 53:1 58:1 63:1 
0.4781930030552286 1:17 2:31 3:48 8:1 13:1 14:1 23:1 27:1 30:1 37:1 42:1 45:1 53:1 57:1 63:1 
0.5029893909213564 1:-104 2:116 3:12 8:1 13:1 18:1 19:1 28:1 31:1 35:1 43:1 47:1 49:1 54:1 63:1 
0.3687726480886684 1:-79 2:116 3:37 8:1 13:1 18:1 19:1 28:1 31:1 35:1 43:1 48:1 53:1 58:1 62:1 
0.5212193556724619 1:-51 2:116 3:65 8:1 13:1 18:1 19:1 28:1 31:1 38:1 43:1 45:1 49:1 58:1 63:1 
0.3122165620505777 1:-100 2:119 3:19 6:1 9:1 18:1 19:1 25:1 31:1 34:1 40:1 48:1 53:1 58:1 59:1 
0.9262274991860774 1:-84 2:119 3:35 6:1 9:1 18:1 19:1 25:1 31:1 38:1 42:1 45:1 53:1 58:1 63:1 
0.8356771900858875 1:-71 2:119 3:48 6:1 9:1 18:1 19:1 25:1 31:1 37:1 42:1 45:1 53:1 57:1 63:1 
0.4548966847635166 1:-110 2:122 3:12 6:1 9:1 15:1 19:1 27:1 33:1 35:1 43:1 47:1 49:1 54:1 63:1 
0.8617775748105622 1:-85 2:122 3:37 6:1 9:1 15:1 19:1 27:1 33:1 35:1 43:1 48:1 53:1 58:1 62:1 
