svm_type c_svc
kernel_type rbf
gamma 0.015873
nr_class 2
total_sv 14091
rho -0.407525
label -1 1
nr_sv 8445 5646
SV
2.030603321725509 1:-15 2:33 3:18 4:1 13:1 14:1 23:1 25:1 29:1 38:1 40:1 48:1 53:1 57:1 60:1 
2.563558338090281 1:145 2:33 3:178 4:1 13:1 14:1 23:1 25:1 29:1 34:1 40:1 47:1 49:1 55:1 59:1 
2.411192237107203 1:103 2:75 3:178 5:1 12:1 18:1 23:1 28:1 29:1 34:1 40:1 47:1 49:1 55:1 59:1 
1.520105090439543 1:248 2:75 3:323 5:1 12:1 18:1 23:1 28:1 29:1 38:1 39:1 48:1 53:1 55:1 63:1 
2.022481503688912 1:215 2:108 3:323 8:1 12:1 18:1 23:1 28:1 29:1 38:1 39:1 48:1 53:1 55:1 63:1 
4 1:-11 2:22 3:11 8:1 13:1 14:1 23:1 28:1 33:1 34:1 39:1 48:1 53:1 55:1 60:1 
2.47133765604834 1:-34 2:75 3:41 4:1 10:1 18:1 22:1 25:1 32:1 34:1 43:1 45:1 50:1 58:1 63:1 
3.877947795297913 1:-32 2:75 3:43 4:1 10:1 18:1 22:1 25:1 32:1 35:1 43:1 45:1 53:1 58:1 63:1 
2.710487409730346 1:-105 2:116 3:11 8:1 13:1 15:1 20:1 28:1 30:1 34:1 39:1 48:1 53:1 55:1 60:1 
3.975440988339155 1:-97 2:116 3:19 8:1 13:1 15:1 20:1 28:1 30:1 35:1 40:1 48:1 53:1 54:1 61:1 
3.712108944433673 1:-222 2:233 3:11 8:1 13:1 15:1 22:1 25:1 29:1 34:1 39:1 48:1 53:1 55:1 60:1 
1.686243616300781 1:-24 2:67 3:43 8:1 12:1 15:1 22:1 25:1 33:1 35:1 43:1 44:1 50:1 58:1 63:1 
2.994885264742828 1:-85 2:93 3:8 8:1 9:1 15:1 23:1 28:1 33:1 35:1 40:1 48:1 49:1 56:1 60:1 
2.856526040993681 1:87 2:27 3:114 8:1 9:1 15:1 23:1 24:1 33:1 35:1 43:1 45:1 53:1 57:1 60:1 
4 1:125 2:10 3:135 8:1 13:1 14:1 20:1 24:1 31:1 38:1 43:1 45:1 49:1 58:1 63:1 
4 1:-119 2:139 3:20 4:1 13:1 18:1 23:1 24:1 33:1 38:1 43:1 45:1 53:1 56:1 63:1 
3.627252077895327 1:121 2:22 3:143 5:1 13:1 18:1 23:1 28:1 29:1 38:1 39:1 48:1 49:1 58:1 60:1 
3.118667978438499 1:-140 2:148 3:8 8:1 10:1 18:1 19:1 25:1 33:1 35:1 40:1 48:1 49:1 56:1 60:1 
0.01235254458622313 1:141 2:13 3:154 6:1 10:1 14:1 22:1 25:1 33:1 38:1 43:1 47:1 49:1 58:1 59:1 
4 1:-38 2:173 3:135 8:1 9:1 15:1 22:1 25:1 33:1 38:1 43:1 45:1 49:1 58:1 63:1 
4 1:-50 2:185 3:135 4:1 13:1 14:1 19:1 28:1 30:1 38:1 43:1 45:1 49:1 58:1 63:1 
0.6396225072468361 1:59 2:139 3:198 4:1 13:1 18:1 23:1 24:1 33:1 35:1 43:1 47:1 53:1 54:1 63:1 
2.422418860957809 1:13 2:185 3:198 4:1 13:1 14:1 19:1 28:1 30:1 35:1 43:1 47:1 53:1 54:1 63:1 
1.401717612121602 1:-17 2:24 3:7 5:1 13:1 18:1 23:1 28:1 29:1 34:1 43:1 48:1 53:1 55:1 60:1 
4 1:-18 2:40 3:22 7:1 13:1 18:1 19:1 28:1 33:1 38:1 39:1 45:1 53:1 56:1 63:1 
3.430444092509024 1:-10 2:40 3:30 7:1 13:1 18:1 19:1 28:1 33:1 34:1 39:1 48:1 49:1 54:1 59:1 
1.456978460386999 1:42 2:40 3:82 7:1 13:1 18:1 19:1 28:1 33:1 38:1 39:1 46:1 52:1 58:1 59:1 
2.225472020185461 1:31 2:51 3:82 7:1 11:1 18:1 20:1 28:1 33:1 38:1 39:1 46:1 52:1 58:1 59:1 
3.227331882067946 1:-87 2:94 3:7 6:1 13:1 15:1 20:1 26:1 30:1 34:1 43:1 48:1 53:1 55:1 60:1 
4 1:-75 2:94 3:19 6:1 13:1 15:1 20:1 26:1 30:1 34:1 41:1 45:1 49:1 55:1 63:1 
2.820463589305193 1:-74 2:96 3:22 5:1 11:1 15:1 20:1 26:1 30:1 38:1 39:1 45:1 53:1 56:1 63:1 
0.4173972399515742 1:-14 2:96 3:82 5:1 11:1 15:1 20:1 26:1 30:1 38:1 39:1 46:1 52:1 58:1 59:1 
2.824276084925467 1:83 2:17 3:100 8:1 10:1 14:1 20:1 28:1 29:1 35:1 41:1 45:1 49:1 58:1 59:1 
3.572614006643134 1:-98 2:105 3:7 8:1 9:1 14:1 23:1 28:1 29:1 34:1 43:1 48:1 53:1 55:1 60:1 
4 1:-86 2:105 3:19 8:1 9:1 14:1 23:1 28:1 29:1 34:1 41:1 45:1 49:1 55:1 63:1 
2.815704197739792 1:-75 2:105 3:30 8:1 9:1 14:1 23:1 28:1 29:1 34:1 39:1 48:1 49:1 54:1 59:1 
1.337993278801114 1:-23 2:105 3:82 8:1 9:1 14:1 23:1 28:1 29:1 38:1 39:1 46:1 52:1 58:1 59:1 
4 1:90 2:17 3:107 8:1 10:1 14:1 20:1 28:1 29:1 34:1 41:1 48:1 49:1 56:1 59:1 
3.69633860338795 1:58 2:49 3:107 5:1 12:1 17:1 23:1 26:1 30:1 34:1 41:1 48:1 49:1 56:1 59:1 
1.421711783433735 1:9 2:98 3:107 5:1 11:1 15:1 20:1 28:1 29:1 34:1 41:1 48:1 49:1 56:1 59:1 
1.509105084089933 1:-102 2:109 3:7 8:1 13:1 14:1 19:1 24:1 30:1 34:1 43:1 48:1 53:1 55:1 60:1 
1.684864681683115 1:-185 2:207 3:22 8:1 12:1 15:1 20:1 28:1 33:1 38:1 39:1 45:1 53:1 56:1 63:1 
4 1:-139 2:221 3:82 8:1 10:1 18:1 20:1 28:1 29:1 38:1 39:1 46:1 52:1 58:1 59:1 
0.1032210920508543 1:-131 2:238 3:107 4:1 13:1 18:1 20:1 26:1 30:1 34:1 41:1 48:1 49:1 56:1 59:1 
3.801423252939999 1:-223 2:242 3:19 5:1 11:1 15:1 23:1 27:1 33:1 34:1 41:1 45:1 49:1 55:1 63:1 
4 1:-7 2:46 3:39 6:1 13:1 18:1 20:1 25:1 30:1 38:1 42:1 45:1 49:1 55:1 59:1 
0.4100274678089408 1:25 2:26 3:51 8:1 13:1 16:1 23:1 28:1 30:1 35:1 40:1 45:1 53:1 58:1 59:1 
1.477125665334975 1:38 2:26 3:64 8:1 13:1 16:1 23:1 28:1 30:1 38:1 42:1 45:1 49:1 56:1 60:1 
2.223752373785478 1:-27 2:66 3:39 5:1 13:1 14:1 20:1 28:1 29:1 38:1 42:1 45:1 49:1 55:1 59:1 
1.169270548818164 1:61 2:7 3:68 5:1 13:1 14:1 22:1 25:1 30:1 34:1 41:1 45:1 49:1 58:1 63:1 
0.8991688291507148 1:45 2:43 3:88 4:1 10:1 14:1 23:1 28:1 31:1 35:1 40:1 45:1 53:1 58:1 62:1 
3.58015268680829 1:22 2:66 3:88 5:1 13:1 14:1 20:1 28:1 29:1 35:1 40:1 45:1 53:1 58:1 62:1 
4 1:14 2:74 3:88 8:1 13:1 18:1 22:1 28:1 33:1 35:1 40:1 45:1 53:1 58:1 62:1 
0.4633695131923534 1:5 2:11 3:16 8:1 13:1 16:1 23:1 28:1 33:1 38:1 43:1 48:1 49:1 58:1 63:1 
2.11577773167624 1:-12 2:28 3:16 7:1 10:1 18:1 23:1 24:1 29:1 38:1 43:1 48:1 49:1 58:1 63:1 
1.032492347011355 1:-66 2:74 3:8 4:1 10:1 17:1 19:1 28:1 29:1 35:1 40:1 48:1 53:1 56:1 61:1 
4 1:-157 2:165 3:8 8:1 12:1 14:1 22:1 26:1 33:1 35:1 40:1 48:1 53:1 56:1 61:1 
3.182844117589095 1:-125 2:165 3:40 8:1 12:1 14:1 22:1 26:1 33:1 35:1 40:1 48:1 49:1 58:1 63:1 
0.1276671717047263 1:-37 2:167 3:130 4:1 11:1 17:1 23:1 28:1 29:1 38:1 40:1 48:1 50:1 58:1 63:1 
0.7803612082369062 1:-172 2:180 3:8 7:1 12:1 18:1 22:1 24:1 30:1 35:1 40:1 48:1 53:1 56:1 61:1 
1.289742835917527 1:-177 2:185 3:8 4:1 10:1 17:1 19:1 27:1 33:1 35:1 40:1 48:1 53:1 56:1 61:1 
1.202948884231701 1:-145 2:185 3:40 4:1 10:1 17:1 19:1 27:1 33:1 35:1 40:1 48:1 49:1 58:1 63:1 
0.5016493024596889 1:226 2:10 3:236 8:1 13:1 18:1 21:1 28:1 33:1 34:1 42:1 45:1 53:1 58:1 63:1 
0.5343431318884221 1:162 2:74 3:236 4:1 10:1 17:1 19:1 28:1 29:1 34:1 42:1 45:1 53:1 58:1 63:1 
3.021415171681246 1:69 2:167 3:236 4:1 11:1 17:1 23:1 28:1 29:1 34:1 42:1 45:1 53:1 58:1 63:1 
2.950270395340262 1:197 2:74 3:271 4:1 10:1 17:1 19:1 28:1 29:1 34:1 40:1 48:1 53:1 55:1 59:1 
1.187137024515356 1:104 2:167 3:271 4:1 11:1 17:1 23:1 28:1 29:1 34:1 40:1 48:1 53:1 55:1 59:1 
2.437765501488478 1:143 2:0 3:143 23:1 28:1 32:1 35:1 39:1 45:1 49:1 54:1 63:1 
1.358655800120558 1:264 2:0 3:264 23:1 28:1 32:1 37:1 42:1 47:1 49:1 54:1 62:1 
0.4256592968861881 1:-273 2:306 3:33 4:1 10:1 18:1 19:1 28:1 33:1 38:1 43:1 45:1 52:1 58:1 59:1 
0.8416491912199842 1:-271 2:306 3:35 4:1 10:1 18:1 19:1 28:1 33:1 35:1 43:1 47:1 49:1 55:1 60:1 
0.9790246574972378 1:-123 2:306 3:183 4:1 10:1 18:1 19:1 28:1 33:1 38:1 39:1 45:1 52:1 54:1 59:1 
2.081428838251365 1:-34 2:306 3:272 4:1 10:1 18:1 19:1 28:1 33:1 38:1 40:1 47:1 49:1 54:1 63:1 
4 1:-6 2:306 3:300 4:1 10:1 18:1 19:1 28:1 33:1 35:1 43:1 47:1 53:1 54:1 59:1 
3.598895498138897 1:19 2:306 3:325 4:1 10:1 18:1 19:1 28:1 33:1 35:1 43:1 47:1 53:1 54:1 59:1 
0.4049889609958703 1:42 2:306 3:348 4:1 10:1 18:1 19:1 28:1 33:1 37:1 43:1 48:1 52:1 58:1 59:1 
0.6948454838913461 1:467 2:0 3:467 23:1 28:1 32:1 37:1 40:1 48:1 52:1 57:1 63:1 
0.5747094140046964 1:-464 2:499 3:35 8:1 13:1 14:1 22:1 25:1 33:1 35:1 43:1 47:1 49:1 55:1 60:1 
0.5895379345809341 1:-418 2:499 3:81 8:1 13:1 14:1 22:1 25:1 33:1 35:1 40:1 45:1 53:1 58:1 63:1 
1.012858735049746 1:-368 2:499 3:131 8:1 13:1 14:1 22:1 25:1 33:1 34:1 42:1 45:1 49:1 58:1 63:1 
0.5922927232406692 1:-316 2:499 3:183 8:1 13:1 14:1 22:1 25:1 33:1 38:1 39:1 45:1 52:1 54:1 59:1 
0.499282302698574 1:-174 2:499 3:325 8:1 13:1 14:1 22:1 25:1 33:1 35:1 43:1 47:1 53:1 54:1 59:1 
0.5872211677584793 1:-153 2:499 3:346 8:1 13:1 14:1 22:1 25:1 33:1 34:1 40:1 47:1 53:1 58:1 62:1 
3.384732493784696 1:-2 2:499 3:497 8:1 13:1 14:1 22:1 25:1 33:1 34:1 43:1 48:1 49:1 56:1 62:1 
0.351152090641667 1:502 2:0 3:502 23:1 28:1 32:1 36:1 42:1 45:1 53:1 54:1 62:1 
0.3748089673527072 1:14 2:499 3:513 8:1 13:1 14:1 22:1 25:1 33:1 34:1 43:1 47:1 52:1 58:1 63:1 
2.445635788875717 1:-14 2:15 3:1 5:1 13:1 14:1 23:1 28:1 33:1 48:1 53:1 55:1 60:1 
4 1:-149 2:162 3:13 5:1 13:1 14:1 22:1 25:1 33:1 34:1 41:1 45:1 49:1 56:1 63:1 
0.4738076445583615 1:20 2:162 3:182 5:1 13:1 14:1 22:1 25:1 33:1 36:1 42:1 45:1 53:1 58:1 63:1 
0.3629223420405591 1:138 2:46 3:184 8:1 13:1 15:1 23:1 28:1 32:1 35:1 43:1 48:1 53:1 57:1 62:1 
0.2781066037544594 1:186 2:11 3:197 8:1 10:1 14:1 20:1 28:1 29:1 38:1 43:1 48:1 53:1 55:1 63:1 
4 1:18 2:179 3:197 8:1 13:1 15:1 22:1 25:1 33:1 38:1 43:1 48:1 53:1 55:1 63:1 
4 1:-189 2:202 3:13 5:1 13:1 14:1 20:1 27:1 30:1 34:1 41:1 45:1 49:1 56:1 63:1 
3.219532905634352 1:-37 2:202 3:165 5:1 13:1 14:1 20:1 27:1 30:1 36:1 42:1 45:1 53:1 54:1 62:1 
4 1:-28 2:202 3:174 5:1 13:1 14:1 20:1 27:1 30:1 38:1 42:1 48:1 53:1 58:1 63:1 
0.3957747869590139 1:63 2:150 3:213 8:1 9:1 15:1 22:1 28:1 33:1 34:1 40:1 44:1 53:1 54:1 61:1 
4 1:34 2:179 3:213 8:1 13:1 15:1 22:1 25:1 33:1 34:1 40:1 44:1 53:1 54:1 61:1 
2.176394782008169 1:-218 2:219 3:1 6:1 13:1 18:1 22:1 28:1 29:1 48:1 53:1 55:1 60:1 
0.8747220101283907 1:-62 2:227 3:165 8:1 12:1 15:1 19:1 27:1 33:1 36:1 42:1 45:1 53:1 54:1 62:1 
1.602895570448701 1:-45 2:227 3:182 8:1 12:1 15:1 19:1 27:1 33:1 36:1 42:1 45:1 53:1 58:1 63:1 
0.2267183683854171 1:-43 2:227 3:184 8:1 12:1 15:1 19:1 27:1 33:1 35:1 43:1 48:1 53:1 57:1 62:1 
2.868506519663206 1:18 2:227 3:245 8:1 12:1 15:1 19:1 27:1 33:1 38:1 42:1 45:1 53:1 54:1 63:1 
2.193646229247635 1:227 2:46 3:273 8:1 13:1 15:1 23:1 28:1 32:1 38:1 39:1 45:1 53:1 58:1 63:1 
0.06195475477708189 1:80 2:216 3:296 8:1 13:1 14:1 23:1 28:1 31:1 37:1 40:1 48:1 52:1 58:1 60:1 
0.6807726696207902 1:264 2:46 3:310 8:1 13:1 15:1 23:1 28:1 32:1 38:1 42:1 48:1 53:1 58:1 63:1 
0.4376529976960247 1:-157 2:341 3:184 8:1 13:1 15:1 23:1 27:1 30:1 35:1 43:1 48:1 53:1 57:1 62:1 
0.2843468580949881 1:-144 2:341 3:197 8:1 13:1 15:1 23:1 27:1 30:1 38:1 43:1 48:1 53:1 55:1 63:1 
0.6419217166894268 1:334 2:11 3:345 8:1 10:1 14:1 20:1 28:1 29:1 38:1 42:1 45:1 49:1 58:1 60:1 
0.8163390938954214 1:183 2:162 3:345 5:1 13:1 14:1 22:1 25:1 33:1 38:1 42:1 45:1 49:1 58:1 60:1 
1.576161669084067 1:175 2:170 3:345 4:1 12:1 14:1 23:1 27:1 33:1 38:1 42:1 45:1 49:1 58:1 60:1 
0.3439706310659358 1:129 2:216 3:345 8:1 13:1 14:1 23:1 28:1 31:1 38:1 42:1 45:1 49:1 58:1 60:1 
0.9190652945684099 1:118 2:227 3:345 8:1 12:1 15:1 19:1 27:1 33:1 38:1 42:1 45:1 49:1 58:1 60:1 
0.842019634857908 1:336 2:15 3:351 5:1 13:1 14:1 23:1 28:1 33:1 35:1 43:1 47:1 49:1 57:1 62:1 
1.322047041167387 1:124 2:227 3:351 8:1 12:1 15:1 19:1 27:1 33:1 35:1 43:1 47:1 49:1 57:1 62:1 
1.741265673143664 1:-186 2:360 3:174 8:1 13:1 15:1 22:1 25:1 32:1 38:1 42:1 48:1 53:1 58:1 63:1 
1.099847689905639 1:-202 2:376 3:174 7:1 13:1 14:1 19:1 28:1 29:1 38:1 42:1 48:1 53:1 58:1 63:1 
1.614014096228032 1:-192 2:376 3:184 7:1 13:1 14:1 19:1 28:1 29:1 35:1 43:1 48:1 53:1 57:1 62:1 
0.4071483061402471 1:-131 2:376 3:245 7:1 13:1 14:1 19:1 28:1 29:1 38:1 42:1 45:1 53:1 54:1 63:1 
0.8020037626959461 1:-80 2:376 3:296 7:1 13:1 14:1 19:1 28:1 29:1 37:1 40:1 48:1 52:1 58:1 60:1 
0.8692405374596028 1:-66 2:376 3:310 7:1 13:1 14:1 19:1 28:1 29:1 38:1 42:1 48:1 53:1 58:1 63:1 
0.5519890984893114 1:-215 2:428 3:213 8:1 9:1 15:1 22:1 25:1 33:1 34:1 40:1 44:1 53:1 54:1 61:1 
1.102125527791542 1:-132 2:428 3:296 8:1 9:1 15:1 22:1 25:1 33:1 37:1 40:1 48:1 52:1 58:1 60:1 
0.4854425403599646 1:206 2:227 3:433 8:1 12:1 15:1 19:1 27:1 33:1 35:1 43:1 45:1 53:1 58:1 63:1 
2.367384783663997 1:-23 2:34 3:11 5:1 13:1 14:1 23:1 27:1 33:1 34:1 39:1 45:1 49:1 55:1 59:1 
4 1:-20 2:48 3:28 8:1 12:1 15:1 22:1 25:1 31:1 38:1 42:1 48:1 53:1 54:1 60:1 
0.5477502119050367 1:-46 2:74 3:28 5:1 12:1 18:1 23:1 28:1 33:1 38:1 42:1 48:1 53:1 54:1 60:1 
0.8273637324112976 1:21 2:74 3:95 5:1 12:1 18:1 23:1 28:1 33:1 38:1 40:1 48:1 53:1 57:1 63:1 
2.001846375112205 1:35 2:74 3:109 5:1 12:1 18:1 23:1 28:1 33:1 38:1 39:1 48:1 49:1 58:1 60:1 
0.6024095529857644 1:75 2:99 3:174 8:1 12:1 18:1 19:1 28:1 30:1 38:1 43:1 45:1 49:1 57:1 62:1 
0.480299979292101 1:-153 2:185 3:32 4:1 13:1 17:1 20:1 25:1 33:1 38:1 39:1 45:1 49:1 56:1 63:1 
4 1:-23 2:35 3:12 8:1 9:1 15:1 20:1 28:1 32:1 34:1 41:1 45:1 49:1 56:1 63:1 
1.329287588921833 1:50 2:10 3:60 8:1 10:1 14:1 20:1 28:1 29:1 36:1 43:1 47:1 49:1 57:1 59:1 
4 1:139 2:54 3:193 4:1 10:1 15:1 23:1 25:1 30:1 37:1 43:1 48:1 53:1 54:1 63:1 
2.907190489486331 1:115 2:78 3:193 6:1 12:1 17:1 23:1 28:1 29:1 37:1 43:1 48:1 53:1 54:1 63:1 
3.500539143865513 1:-29 2:222 3:193 4:1 10:1 15:1 23:1 25:1 30:1 37:1 43:1 48:1 53:1 54:1 63:1 
0.2120409215552969 1:-32 2:262 3:230 8:1 10:1 15:1 23:1 25:1 30:1 34:1 42:1 44:1 52:1 56:1 63:1 
0.5513608292640455 1:-81 2:311 3:230 8:1 9:1 18:1 23:1 28:1 29:1 34:1 42:1 44:1 52:1 56:1 63:1 
0.8773959017159598 1:292 2:54 3:346 4:1 10:1 15:1 23:1 25:1 30:1 37:1 39:1 45:1 53:1 58:1 60:1 
0.8434805053266596 1:31 2:328 3:359 8:1 10:1 15:1 19:1 28:1 30:1 35:1 39:1 44:1 50:1 58:1 60:1 
2.261726273611479 1:-7 2:366 3:359 8:1 12:1 14:1 20:1 28:1 30:1 35:1 39:1 44:1 50:1 58:1 60:1 
0.3114907248205782 1:-33 2:379 3:346 8:1 10:1 15:1 23:1 25:1 37:1 39:1 45:1 53:1 58:1 60:1 
3.953787731293254 1:39 2:74 3:113 5:1 11:1 17:1 20:1 28:1 33:1 38:1 43:1 47:1 53:1 54:1 60:1 
0.5940959884030257 1:219 2:0 3:219 23:1 25:1 33:1 35:1 43:1 48:1 52:1 54:1 60:1 
1.354960225648409 1:256 2:74 3:330 5:1 11:1 17:1 20:1 28:1 33:1 34:1 39:1 45:1 50:1 54:1 60:1 
2.21744899932368 1:16 2:314 3:330 7:1 13:1 14:1 22:1 27:1 30:1 34:1 39:1 45:1 50:1 54:1 60:1 
1.4814265266042 1:-267 2:380 3:113 8:1 12:1 14:1 20:1 28:1 33:1 38:1 43:1 47:1 53:1 54:1 60:1 
0.2251258136889619 1:-161 2:380 3:219 8:1 12:1 14:1 20:1 28:1 33:1 35:1 43:1 48:1 52:1 54:1 60:1 
3.03023152387453 1:-71 2:380 3:309 8:1 12:1 14:1 20:1 28:1 33:1 34:1 43:1 48:1 49:1 57:1 63:1 
1.344556072684759 1:-67 2:397 3:330 8:1 13:1 14:1 19:1 28:1 32:1 34:1 39:1 45:1 50:1 54:1 60:1 
0.3167313685341242 1:-90 2:420 3:330 8:1 10:1 18:1 23:1 24:1 33:1 34:1 39:1 45:1 50:1 54:1 60:1 
0.5924937368353306 1:-338 2:557 3:219 5:1 13:1 17:1 23:1 28:1 29:1 35:1 43:1 48:1 52:1 54:1 60:1 
0.5916843122692661 1:-248 2:557 3:309 5:1 13:1 17:1 23:1 28:1 29:1 34:1 43:1 48:1 49:1 57:1 63:1 
0.5924836728470062 1:-227 2:557 3:330 5:1 13:1 17:1 23:1 28:1 29:1 34:1 39:1 45:1 50:1 54:1 60:1 
4 1:-71 2:85 3:14 8:1 9:1 14:1 22:1 25:1 31:1 38:1 39:1 47:1 53:1 56:1 63:1 
4 1:-52 2:85 3:33 8:1 9:1 14:1 22:1 25:1 31:1 34:1 43:1 47:1 53:1 54:1 59:1 
3.586767252610555 1:-46 2:85 3:39 8:1 9:1 14:1 22:1 25:1 31:1 34:1 42:1 45:1 49:1 56:1 60:1 
0.296368814929073 1:-40 2:85 3:45 8:1 9:1 14:1 22:1 25:1 31:1 35:1 43:1 47:1 49:1 55:1 63:1 
4 1:-37 2:85 3:48 8:1 9:1 14:1 22:1 25:1 31:1 38:1 39:1 45:1 53:1 55:1 63:1 
3.368896894197214 1:-43 2:88 3:45 6:1 12:1 15:1 23:1 24:1 29:1 35:1 43:1 47:1 49:1 55:1 63:1 
3.347037148793579 1:-16 2:97 3:81 8:1 9:1 15:1 22:1 25:1 30:1 38:1 43:1 47:1 53:1 54:1 59:1 
1.953461448353669 1:105 2:16 3:121 7:1 13:1 18:1 23:1 28:1 33:1 35:1 43:1 47:1 53:1 54:1 63:1 
4 1:36 2:85 3:121 8:1 9:1 14:1 22:1 25:1 31:1 35:1 43:1 47:1 53:1 54:1 63:1 
1.906543227176267 1:36 2:97 3:133 8:1 9:1 15:1 22:1 25:1 30:1 37:1 43:1 45:1 49:1 58:1 62:1 
2.636060447816804 1:59 2:88 3:147 6:1 12:1 15:1 23:1 24:1 29:1 35:1 43:1 47:1 53:1 54:1 63:1 
2.773476619050663 1:158 2:16 3:174 7:1 13:1 18:1 23:1 28:1 33:1 37:1 43:1 45:1 53:1 58:1 62:1 
0.6480601912799686 1:-160 2:191 3:31 4:1 10:1 15:1 23:1 28:1 32:1 34:1 43:1 44:1 52:1 58:1 63:1 
1.52034441817282 1:-27 2:191 3:164 4:1 10:1 15:1 23:1 28:1 32:1 34:1 40:1 48:1 53:1 58:1 59:1 
0.9028340900569669 1:186 2:7 3:193 5:1 13:1 14:1 22:1 25:1 33:1 35:1 41:1 48:1 52:1 54:1 60:1 
1.728799781499363 1:105 2:88 3:193 6:1 12:1 15:1 23:1 24:1 29:1 35:1 41:1 48:1 52:1 54:1 60:1 
1.012832311270982 1:96 2:97 3:193 8:1 9:1 15:1 22:1 25:1 30:1 35:1 41:1 48:1 52:1 54:1 60:1 
2.187269846434867 1:-35 2:199 3:164 5:1 13:1 14:1 23:1 28:1 29:1 34:1 40:1 48:1 53:1 58:1 59:1 
3.36240082474459 1:162 2:41 3:203 5:1 13:1 14:1 20:1 28:1 32:1 38:1 43:1 44:1 53:1 58:1 63:1 
1.164197450068825 1:14 2:191 3:205 4:1 10:1 15:1 23:1 28:1 32:1 34:1 43:1 48:1 53:1 54:1 59:1 
4 1:104 2:73 3:177 8:1 13:1 14:1 23:1 28:1 30:1 37:1 39:1 45:1 50:1 54:1 62:1 
4 1:4 2:32 3:36 4:1 13:1 18:1 20:1 24:1 32:1 35:1 39:1 47:1 49:1 56:1 60:1 
4 1:6 2:59 3:65 8:1 13:1 15:1 22:1 25:1 33:1 38:1 43:1 45:1 49:1 57:1 63:1 
1.541664345771981 1:36 2:59 3:95 8:1 13:1 15:1 22:1 25:1 33:1 35:1 40:1 45:1 53:1 58:1 60:1 
0.2717689800912412 1:136 2:7 3:143 5:1 13:1 14:1 22:1 25:1 33:1 34:1 40:1 48:1 53:1 58:1 63:1 
2.121066495161428 1:118 2:59 3:177 8:1 13:1 15:1 22:1 25:1 33:1 35:1 39:1 48:1 53:1 58:1 59:1 
0.7738657169046593 1:150 2:38 3:188 7:1 13:1 14:1 20:1 28:1 29:1 37:1 43:1 48:1 49:1 58:1 63:1 
2.626849470412574 1:-297 2:298 3:1 4:1 13:1 14:1 23:1 25:1 33:1 48:1 53:1 55:1 63:1 
1.792919865125555 1:-133 2:298 3:165 4:1 13:1 14:1 23:1 25:1 33:1 38:1 43:1 48:1 49:1 58:1 62:1 
1.910746555319787 1:82 2:17 3:99 5:1 9:1 15:1 23:1 28:1 33:1 38:1 42:1 48:1 53:1 58:1 63:1 
2.813790682894101 1:-83 2:149 3:66 8:1 13:1 14:1 23:1 28:1 30:1 35:1 41:1 45:1 49:1 58:1 63:1 
1.990881594574768 1:-153 2:219 3:66 4:1 13:1 17:1 23:1 24:1 30:1 35:1 41:1 45:1 49:1 58:1 63:1 
3.110907345515923 1:84 2:149 3:233 8:1 13:1 14:1 23:1 28:1 30:1 37:1 43:1 44:1 49:1 58:1 63:1 
2.74765598606703 1:-255 2:256 3:1 8:1 13:1 18:1 20:1 28:1 32:1 48:1 53:1 58:1 63:1 
1.726046969500164 1:-179 2:256 3:77 8:1 13:1 18:1 20:1 28:1 32:1 35:1 43:1 47:1 49:1 58:1 63:1 
1.301919274768063 1:-170 2:256 3:86 8:1 13:1 18:1 20:1 28:1 32:1 38:1 40:1 47:1 49:1 57:1 63:1 
3.000963850321595 1:-56 2:111 3:55 8:1 13:1 15:1 23:1 28:1 32:1 35:1 43:1 48:1 53:1 58:1 63:1 
4 1:44 2:74 3:118 5:1 13:1 18:1 20:1 28:1 33:1 38:1 39:1 45:1 53:1 58:1 63:1 
2.253846464036162 1:-15 2:194 3:179 8:1 13:1 18:1 22:1 25:1 33:1 35:1 42:1 48:1 49:1 58:1 63:1 
2.080930737312929 1:-147 2:223 3:76 8:1 9:1 18:1 20:1 27:1 32:1 38:1 41:1 45:1 53:1 54:1 61:1 
3.947726361130591 1:-105 2:223 3:118 8:1 9:1 18:1 20:1 27:1 32:1 38:1 39:1 45:1 53:1 58:1 63:1 
4 1:-44 2:223 3:179 8:1 9:1 18:1 20:1 27:1 32:1 35:1 42:1 48:1 49:1 58:1 63:1 
4 1:-69 2:75 3:6 7:1 13:1 18:1 23:1 28:1 33:1 38:1 40:1 48:1 49:1 56:1 63:1 
1.723435978782499 1:74 2:75 3:149 7:1 13:1 18:1 23:1 28:1 33:1 38:1 42:1 48:1 50:1 57:1 61:1 
4 1:-3 2:152 3:149 8:1 10:1 17:1 23:1 24:1 31:1 38:1 42:1 48:1 50:1 57:1 61:1 
0.4753824677276926 1:-109 2:163 3:54 5:1 12:1 18:1 23:1 24:1 33:1 38:1 43:1 44:1 53:1 54:1 60:1 
3.684463000420017 1:-14 2:163 3:149 5:1 12:1 18:1 23:1 24:1 33:1 38:1 42:1 48:1 50:1 57:1 61:1 
2.699214221757384 1:-41 2:190 3:149 8:1 9:1 15:1 19:1 28:1 33:1 38:1 42:1 48:1 50:1 57:1 61:1 
2.483304829730338 1:41 2:152 3:193 8:1 10:1 17:1 23:1 24:1 31:1 36:1 39:1 48:1 53:1 58:1 59:1 
4 1:22 2:171 3:193 4:1 9:1 18:1 23:1 24:1 30:1 36:1 39:1 48:1 53:1 58:1 59:1 
0.6628910405997683 1:317 2:8 3:325 8:1 13:1 14:1 23:1 25:1 29:1 35:1 43:1 48:1 53:1 54:1 63:1 
2.077318181094837 1:250 2:75 3:325 7:1 13:1 18:1 23:1 28:1 33:1 35:1 43:1 48:1 53:1 54:1 63:1 
0.4788711034807017 1:-215 2:332 3:117 7:1 13:1 15:1 20:1 28:1 33:1 34:1 39:1 45:1 53:1 55:1 63:1 
2.947922714593719 1:-78 2:86 3:8 8:1 10:1 18:1 23:1 28:1 33:1 38:1 43:1 45:1 52:1 58:1 59:1 
4 1:-13 2:86 3:73 8:1 10:1 18:1 23:1 28:1 33:1 38:1 40:1 48:1 49:1 56:1 63:1 
1.36123330425319 1:-92 2:94 3:2 6:1 11:1 17:1 19:1 28:1 32:1 43:1 47:1 49:1 56:1 63:1 
0.7917547776807758 1:-84 2:94 3:10 6:1 11:1 17:1 19:1 28:1 32:1 35:1 43:1 47:1 49:1 54:1 63:1 
1.937443134643592 1:10 2:91 3:101 8:1 13:1 18:1 21:1 27:1 31:1 35:1 43:1 47:1 52:1 58:1 59:1 
2.292682303322656 1:-97 2:107 3:10 4:1 10:1 18:1 23:1 26:1 32:1 35:1 43:1 47:1 49:1 54:1 63:1 
4 1:-8 2:109 3:101 8:1 11:1 18:1 22:1 28:1 33:1 35:1 43:1 47:1 52:1 58:1 59:1 
1.433591316738013 1:-118 2:126 3:8 4:1 13:1 18:1 19:1 25:1 33:1 38:1 43:1 45:1 52:1 58:1 59:1 
3.511617875314372 1:-147 2:155 3:8 8:1 13:1 18:1 20:1 26:1 29:1 38:1 43:1 45:1 52:1 58:1 59:1 
3.525941156276521 1:-82 2:155 3:73 8:1 13:1 18:1 20:1 26:1 29:1 38:1 40:1 48:1 49:1 56:1 63:1 
3.973128891986457 1:-147 2:157 3:10 8:1 11:1 15:1 19:1 27:1 33:1 35:1 43:1 47:1 49:1 54:1 63:1 
4 1:-155 2:163 3:8 8:1 10:1 18:1 23:1 28:1 30:1 38:1 43:1 45:1 52:1 58:1 59:1 
4 1:-73 2:163 3:90 8:1 10:1 18:1 23:1 28:1 30:1 38:1 43:1 48:1 51:1 56:1 62:1 
3.311769410405697 1:76 2:92 3:168 8:1 13:1 16:1 22:1 26:1 29:1 38:1 40:1 48:1 53:1 54:1 62:1 
3.717012971285554 1:13 2:155 3:168 8:1 13:1 18:1 20:1 26:1 29:1 38:1 40:1 48:1 53:1 54:1 62:1 
0.3389610047157514 1:-175 2:177 3:2 8:1 9:1 15:1 23:1 28:1 33:1 43:1 47:1 49:1 56:1 63:1 
1.107582964694617 1:-185 2:187 3:2 4:1 10:1 18:1 23:1 24:1 32:1 43:1 47:1 49:1 56:1 63:1 
0.4168262501827719 1:-202 2:212 3:10 8:1 10:1 18:1 22:1 25:1 33:1 35:1 43:1 47:1 49:1 54:1 63:1 
1.818213539763463 1:-139 2:212 3:73 8:1 10:1 18:1 22:1 25:1 33:1 38:1 40:1 48:1 49:1 56:1 63:1 
1.91171313126778 1:164 2:79 3:243 8:1 11:1 18:1 20:1 28:1 33:1 37:1 43:1 48:1 49:1 55:1 63:1 
1.078511832911526 1:152 2:91 3:243 8:1 13:1 18:1 21:1 27:1 31:1 37:1 43:1 48:1 49:1 55:1 63:1 
1.509359569695431 1:151 2:92 3:243 8:1 13:1 16:1 22:1 26:1 29:1 37:1 43:1 48:1 49:1 55:1 63:1 
1.301480017731343 1:117 2:126 3:243 4:1 13:1 18:1 19:1 25:1 33:1 37:1 43:1 48:1 49:1 55:1 63:1 
0.4960546990976497 1:-200 2:273 3:73 8:1 9:1 15:1 23:1 27:1 33:1 38:1 40:1 48:1 49:1 56:1 63:1 
0.6899168806880877 1:-105 2:273 3:168 8:1 9:1 15:1 23:1 27:1 33:1 38:1 40:1 48:1 53:1 54:1 62:1 
4 1:190 2:86 3:276 8:1 10:1 18:1 23:1 28:1 33:1 36:1 43:1 47:1 53:1 56:1 63:1 
2.009418857118956 1:185 2:91 3:276 8:1 13:1 18:1 21:1 27:1 31:1 36:1 43:1 47:1 53:1 56:1 63:1 
1.29558354295662 1:184 2:92 3:276 8:1 13:1 16:1 22:1 26:1 29:1 36:1 43:1 47:1 53:1 56:1 63:1 
0.5840843395066897 1:89 2:187 3:276 4:1 10:1 18:1 23:1 24:1 32:1 36:1 43:1 47:1 53:1 56:1 63:1 
0.5224523373903048 1:60 2:216 3:276 7:1 10:1 18:1 23:1 28:1 30:1 36:1 43:1 47:1 53:1 56:1 63:1 
4 1:3 2:273 3:276 8:1 9:1 15:1 23:1 27:1 33:1 36:1 43:1 47:1 53:1 56:1 63:1 
0.1487614521726681 1:-188 2:278 3:90 7:1 13:1 18:1 23:1 24:1 31:1 38:1 43:1 48:1 51:1 56:1 62:1 
4 1:-2 2:278 3:276 7:1 13:1 18:1 23:1 24:1 31:1 36:1 43:1 47:1 53:1 56:1 63:1 
0.4648008991124269 1:-273 2:281 3:8 6:1 13:1 14:1 20:1 28:1 33:1 38:1 43:1 45:1 52:1 58:1 59:1 
1.157298082057095 1:-191 2:281 3:90 6:1 13:1 14:1 20:1 28:1 33:1 38:1 43:1 48:1 51:1 56:1 62:1 
1.450281163406442 1:-119 2:287 3:168 8:1 12:1 17:1 19:1 27:1 33:1 38:1 40:1 48:1 53:1 54:1 62:1 
0.3095639406911708 1:291 2:4 3:295 7:1 13:1 14:1 23:1 28:1 30:1 35:1 43:1 45:1 53:1 56:1 63:1 
0.4883194229973746 1:218 2:77 3:295 4:1 11:1 18:1 23:1 26:1 30:1 35:1 43:1 45:1 53:1 56:1 63:1 
2.359906928766254 1:204 2:91 3:295 8:1 13:1 18:1 21:1 27:1 31:1 35:1 43:1 45:1 53:1 56:1 63:1 
1.064154570681677 1:36 2:259 3:295 5:1 13:1 18:1 23:1 27:1 33:1 35:1 43:1 45:1 53:1 56:1 63:1 
2.093134044086233 1:17 2:278 3:295 7:1 13:1 18:1 23:1 24:1 31:1 35:1 43:1 45:1 53:1 56:1 63:1 
1.97772458376998 1:-289 2:297 3:8 5:1 13:1 18:1 23:1 24:1 30:1 38:1 43:1 45:1 52:1 58:1 59:1 
2.236274399224763 1:-21 2:297 3:276 5:1 13:1 18:1 23:1 24:1 30:1 36:1 43:1 47:1 53:1 56:1 63:1 
2.221746716099211 1:-212 2:302 3:90 4:1 10:1 18:1 19:1 27:1 33:1 38:1 43:1 48:1 51:1 56:1 62:1 
0.3013120157604877 1:142 2:163 3:305 8:1 10:1 18:1 23:1 28:1 30:1 36:1 39:1 47:1 49:1 58:1 63:1 
2.792772337780342 1:27 2:278 3:305 7:1 13:1 18:1 23:1 24:1 31:1 36:1 39:1 47:1 49:1 58:1 63:1 
4 1:3 2:302 3:305 4:1 10:1 18:1 19:1 27:1 33:1 36:1 39:1 47:1 49:1 58:1 63:1 
3.681140487455908 1:304 2:4 3:308 7:1 13:1 14:1 23:1 28:1 30:1 38:1 39:1 48:1 52:1 55:1 62:1 
0.8321311545081544 1:222 2:86 3:308 8:1 10:1 18:1 23:1 28:1 33:1 38:1 39:1 48:1 52:1 55:1 62:1 
2.210849359079385 1:214 2:94 3:308 6:1 11:1 17:1 19:1 28:1 32:1 38:1 39:1 48:1 52:1 55:1 62:1 
1.976039185473929 1:153 2:155 3:308 8:1 13:1 18:1 20:1 26:1 29:1 38:1 39:1 48:1 52:1 55:1 62:1 
2.372822531859397 1:151 2:157 3:308 8:1 11:1 15:1 19:1 27:1 33:1 38:1 39:1 48:1 52:1 55:1 62:1 
2.39891717438579 1:121 2:187 3:308 4:1 10:1 18:1 23:1 24:1 32:1 38:1 39:1 48:1 52:1 55:1 62:1 
1.95783402406374 1:35 2:273 3:308 8:1 9:1 15:1 23:1 27:1 33:1 38:1 39:1 48:1 52:1 55:1 62:1 
4 1:27 2:281 3:308 6:1 13:1 14:1 20:1 28:1 33:1 38:1 39:1 48:1 52:1 55:1 62:1 
1.887216829973724 1:-227 2:317 3:90 5:1 13:1 14:1 23:1 27:1 33:1 38:1 43:1 48:1 51:1 56:1 62:1 
1.688683563453312 1:-22 2:317 3:295 5:1 13:1 14:1 23:1 27:1 33:1 35:1 43:1 45:1 53:1 56:1 63:1 
0.6622935186729739 1:194 2:126 3:320 4:1 13:1 18:1 19:1 25:1 33:1 36:1 43:1 47:1 52:1 57:1 60:1 
0.7312949989053537 1:23 2:297 3:320 5:1 13:1 18:1 23:1 24:1 30:1 36:1 43:1 47:1 52:1 57:1 60:1 
4 1:3 2:317 3:320 5:1 13:1 14:1 23:1 27:1 33:1 36:1 43:1 47:1 52:1 57:1 60:1 
0.8148211605861106 1:327 2:4 3:331 7:1 13:1 14:1 23:1 28:1 30:1 38:1 43:1 47:1 52:1 54:1 63:1 
1.3772697120932 1:254 2:77 3:331 4:1 11:1 18:1 23:1 26:1 30:1 38:1 43:1 47:1 52:1 54:1 63:1 
2.156009048272461 1:-342 2:350 3:8 4:1 13:1 14:1 23:1 28:1 29:1 38:1 43:1 45:1 52:1 58:1 59:1 
1.15674315168414 1:-260 2:350 3:90 4:1 13:1 14:1 23:1 28:1 29:1 38:1 43:1 48:1 51:1 56:1 62:1 
3.917803471902304 1:-42 2:350 3:308 4:1 13:1 14:1 23:1 28:1 29:1 38:1 39:1 48:1 52:1 55:1 62:1 
1.853301023730425 1:-30 2:350 3:320 4:1 13:1 14:1 23:1 28:1 29:1 36:1 43:1 47:1 52:1 57:1 60:1 
1.764963786143162 1:-19 2:350 3:331 4:1 13:1 14:1 23:1 28:1 29:1 38:1 43:1 47:1 52:1 54:1 63:1 
1.596810913384865 1:275 2:77 3:352 4:1 11:1 18:1 23:1 26:1 30:1 34:1 41:1 48:1 49:1 54:1 63:1 
0.7357061376288548 1:165 2:187 3:352 4:1 10:1 18:1 23:1 24:1 32:1 34:1 41:1 48:1 49:1 54:1 63:1 
0.4096740699901995 1:65 2:287 3:352 8:1 12:1 17:1 19:1 27:1 33:1 34:1 41:1 48:1 49:1 54:1 63:1 
1.465140522902061 1:55 2:297 3:352 5:1 13:1 18:1 23:1 24:1 30:1 34:1 41:1 48:1 49:1 54:1 63:1 
2.595852202331925 1:50 2:302 3:352 4:1 10:1 18:1 19:1 27:1 33:1 34:1 41:1 48:1 49:1 54:1 63:1 
1.363050187152596 1:-120 2:363 3:243 5:1 10:1 14:1 23:1 25:1 37:1 43:1 48:1 49:1 55:1 63:1 
0.8376847750937599 1:-32 2:363 3:331 5:1 10:1 14:1 23:1 25:1 38:1 43:1 47:1 52:1 54:1 63:1 
3.014437183642436 1:-11 2:363 3:352 5:1 10:1 14:1 23:1 25:1 34:1 41:1 48:1 49:1 54:1 63:1 
2.329852232205211 1:20 2:9 3:29 5:1 13:1 14:1 22:1 25:1 33:1 37:1 43:1 45:1 49:1 58:1 63:1 
1.594287245637474 1:20 2:21 3:41 4:1 13:1 17:1 23:1 24:1 32:1 35:1 39:1 48:1 53:1 58:1 59:1 
3.649543153137357 1:-51 2:64 3:13 7:1 13:1 18:1 20:1 28:1 33:1 37:1 40:1 48:1 53:1 58:1 62:1 
4 1:-6 2:64 3:58 7:1 13:1 18:1 20:1 28:1 33:1 34:1 42:1 48:1 49:1 58:1 62:1 
1.026925713901527 1:-18 2:76 3:58 7:1 13:1 18:1 22:1 28:1 33:1 34:1 42:1 48:1 49:1 58:1 62:1 
4 1:-6 2:76 3:70 7:1 13:1 18:1 22:1 28:1 33:1 38:1 42:1 48:1 53:1 54:1 62:1 
1.175885505572599 1:81 2:9 3:90 5:1 13:1 14:1 22:1 25:1 33:1 34:1 43:1 45:1 49:1 54:1 63:1 
3.773783406379102 1:69 2:21 3:90 4:1 13:1 17:1 23:1 24:1 32:1 34:1 43:1 45:1 49:1 54:1 63:1 
0.5231720984963718 1:-102 2:115 3:13 7:1 9:1 15:1 22:1 25:1 33:1 37:1 40:1 48:1 53:1 58:1 62:1 
4 1:-100 2:115 3:15 7:1 9:1 15:1 22:1 25:1 33:1 38:1 43:1 48:1 52:1 58:1 59:1 
0.8495074807652283 1:-74 2:115 3:41 7:1 9:1 15:1 22:1 25:1 33:1 35:1 39:1 48:1 53:1 58:1 59:1 
3.514123105335349 1:115 2:21 3:136 4:1 13:1 17:1 23:1 24:1 32:1 35:1 42:1 48:1 53:1 54:1 63:1 
3.876453479517887 1:21 2:115 3:136 7:1 9:1 15:1 22:1 25:1 33:1 35:1 42:1 48:1 53:1 54:1 63:1 
2.745949823534697 1:131 2:21 3:152 4:1 13:1 17:1 23:1 24:1 32:1 38:1 39:1 48:1 53:1 58:1 62:1 
0.954265264578407 1:-62 2:162 3:100 4:1 10:1 15:1 23:1 27:1 33:1 38:1 43:1 48:1 52:1 57:1 63:1 
4 1:-32 2:162 3:130 4:1 10:1 15:1 23:1 27:1 33:1 35:1 40:1 48:1 53:1 57:1 60:1 
1.392722802095528 1:-26 2:162 3:136 4:1 10:1 15:1 23:1 27:1 33:1 35:1 42:1 48:1 53:1 54:1 63:1 
0.545916147026428 1:182 2:9 3:191 5:1 13:1 14:1 22:1 25:1 33:1 38:1 42:1 45:1 52:1 58:1 63:1 
4 1:29 2:162 3:191 4:1 10:1 15:1 23:1 27:1 33:1 38:1 42:1 45:1 52:1 58:1 63:1 
2.973251788134131 1:-88 2:207 3:119 8:1 10:1 15:1 22:1 25:1 30:1 37:1 40:1 48:1 53:1 54:1 62:1 
4 1:-16 2:207 3:191 8:1 10:1 15:1 22:1 25:1 30:1 38:1 42:1 45:1 52:1 58:1 63:1 
0.01784784057383449 1:184 2:64 3:248 7:1 13:1 18:1 20:1 28:1 33:1 38:1 42:1 45:1 53:1 58:1 63:1 
2.69811119036723 1:-163 2:263 3:100 8:1 12:1 15:1 23:1 24:1 30:1 38:1 43:1 48:1 52:1 57:1 63:1 
1.52387426654968 1:264 2:9 3:273 5:1 13:1 14:1 22:1 25:1 33:1 38:1 40:1 47:1 53:1 54:1 59:1 
2.483694448510619 1:252 2:21 3:273 4:1 13:1 17:1 23:1 24:1 32:1 38:1 40:1 47:1 53:1 54:1 59:1 
1.157239392493424 1:209 2:64 3:273 7:1 13:1 18:1 20:1 28:1 33:1 38:1 40:1 47:1 53:1 54:1 59:1 
2.537790820889473 1:202 2:76 3:278 7:1 13:1 18:1 22:1 28:1 33:1 34:1 39:1 45:1 49:1 58:1 63:1 
1.287135624728204 1:116 2:162 3:278 4:1 10:1 15:1 23:1 27:1 33:1 34:1 39:1 45:1 49:1 58:1 63:1 
1.666941084020283 1:227 2:64 3:291 7:1 13:1 18:1 20:1 28:1 33:1 38:1 43:1 48:1 52:1 58:1 59:1 
0.2168905434430881 1:215 2:76 3:291 7:1 13:1 18:1 22:1 28:1 33:1 38:1 43:1 48:1 52:1 58:1 59:1 
0.2363386686171247 1:-16 2:17 3:1 7:1 13:1 14:1 19:1 25:1 30:1 48:1 53:1 55:1 60:1 
0.450745125601298 1:28 2:11 3:39 8:1 10:1 14:1 20:1 28:1 32:1 35:1 43:1 48:1 53:1 58:1 59:1 
4 1:-48 2:63 3:15 8:1 9:1 15:1 22:1 25:1 33:1 35:1 43:1 47:1 49:1 56:1 59:1 
2.908405159520669 1:54 2:17 3:71 7:1 13:1 14:1 19:1 25:1 30:1 38:1 43:1 48:1 50:1 58:1 62:1 
2.08012443147967 1:75 2:11 3:86 8:1 10:1 14:1 20:1 28:1 32:1 38:1 42:1 45:1 53:1 55:1 63:1 
0.3554700483418174 1:29 2:63 3:92 8:1 9:1 15:1 22:1 25:1 33:1 38:1 43:1 47:1 50:1 55:1 63:1 
3.263333861018355 1:62 2:63 3:125 8:1 9:1 15:1 22:1 25:1 33:1 35:1 43:1 47:1 49:1 54:1 59:1 
1.510909703658604 1:71 2:63 3:134 8:1 9:1 15:1 22:1 25:1 33:1 37:1 43:1 47:1 53:1 58:1 63:1 
0.8035992947692933 1:178 2:11 3:189 8:1 10:1 14:1 20:1 28:1 32:1 35:1 42:1 48:1 53:1 58:1 59:1 
0.3408069414501392 1:-208 2:209 3:1 8:1 9:1 15:1 22:1 28:1 33:1 48:1 53:1 55:1 60:1 
1.7179921729663 1:-138 2:209 3:71 8:1 9:1 15:1 22:1 28:1 33:1 38:1 43:1 48:1 50:1 58:1 62:1 
1.876162461456026 1:-117 2:209 3:92 8:1 9:1 15:1 22:1 28:1 33:1 38:1 43:1 47:1 50:1 55:1 63:1 
4 1:-73 2:209 3:136 8:1 9:1 15:1 22:1 28:1 33:1 37:1 43:1 48:1 53:1 54:1 63:1 
2.47888219140976 1:206 2:11 3:217 8:1 10:1 14:1 20:1 28:1 32:1 38:1 42:1 48:1 53:1 54:1 62:1 
2.826994590144745 1:8 2:209 3:217 8:1 9:1 15:1 22:1 28:1 33:1 38:1 42:1 48:1 53:1 54:1 62:1 
4 1:-232 2:245 3:13 8:1 13:1 18:1 23:1 28:1 30:1 34:1 41:1 45:1 52:1 58:1 59:1 
1.267876022127206 1:-179 2:245 3:66 8:1 13:1 18:1 23:1 28:1 30:1 36:1 42:1 45:1 52:1 58:1 63:1 
1.921758006537774 1:-159 2:245 3:86 8:1 13:1 18:1 23:1 28:1 30:1 38:1 42:1 45:1 53:1 55:1 63:1 
2.881940095553666 1:-247 2:286 3:39 8:1 13:1 15:1 22:1 25:1 30:1 35:1 43:1 48:1 53:1 58:1 59:1 
3.179759128903395 1:-194 2:286 3:92 8:1 13:1 15:1 22:1 25:1 30:1 38:1 43:1 47:1 50:1 55:1 63:1 
0.7894478301666247 1:-69 2:286 3:217 8:1 13:1 15:1 22:1 25:1 30:1 38:1 42:1 48:1 53:1 54:1 62:1 
1.177076832843922 1:123 2:209 3:332 8:1 9:1 15:1 22:1 28:1 33:1 38:1 39:1 48:1 53:1 54:1 63:1 
2.163340475899028 1:53 2:286 3:339 8:1 13:1 15:1 22:1 25:1 30:1 35:1 43:1 44:1 52:1 57:1 60:1 
2.146318915525653 1:344 2:17 3:361 7:1 13:1 14:1 19:1 25:1 30:1 35:1 43:1 47:1 53:1 58:1 63:1 
0.07106342231236661 1:129 2:245 3:374 8:1 13:1 18:1 23:1 28:1 30:1 38:1 39:1 45:1 53:1 58:1 63:1 
0.2362904940178614 1:-332 2:403 3:71 8:1 12:1 15:1 23:1 27:1 33:1 38:1 43:1 48:1 50:1 58:1 62:1 
2.388632963007985 1:-239 2:403 3:164 8:1 12:1 15:1 23:1 27:1 33:1 38:1 42:1 48:1 53:1 54:1 60:1 
2.511986754253624 1:-12 2:403 3:391 8:1 12:1 15:1 23:1 27:1 33:1 38:1 39:1 47:1 49:1 58:1 63:1 
1.225242792236913 1:389 2:17 3:406 7:1 13:1 14:1 19:1 25:1 30:1 36:1 43:1 47:1 49:1 54:1 59:1 
0.3974728832143505 1:426 2:11 3:437 8:1 10:1 14:1 20:1 28:1 32:1 38:1 42:1 45:1 53:1 58:1 60:1 
0.356081860544554 1:202 2:245 3:447 8:1 13:1 18:1 23:1 28:1 30:1 38:1 42:1 48:1 49:1 54:1 63:1 
0.4314541639994958 1:448 2:11 3:459 8:1 10:1 14:1 20:1 28:1 32:1 34:1 40:1 48:1 53:1 58:1 63:1 
2.045312448345358 1:27 2:233 3:260 8:1 10:1 18:1 19:1 25:1 33:1 35:1 41:1 48:1 49:1 58:1 59:1 
3.435201165018212 1:-123 2:383 3:260 4:1 10:1 14:1 20:1 25:1 33:1 35:1 41:1 48:1 49:1 58:1 59:1 
1.129748689429009 1:-428 2:440 3:12 6:1 10:1 17:1 20:1 24:1 33:1 38:1 40:1 48:1 53:1 54:1 63:1 
0.2374686454352964 1:-453 2:465 3:12 5:1 13:1 14:1 20:1 28:1 30:1 38:1 40:1 48:1 53:1 54:1 63:1 
0.712925999296567 1:-216 2:476 3:260 7:1 10:1 16:1 23:1 25:1 31:1 35:1 41:1 48:1 49:1 58:1 59:1 
0.592462488784376 1:-290 2:550 3:260 4:1 10:1 15:1 20:1 35:1 41:1 48:1 49:1 58:1 59:1 
0.7521003601329429 1:-238 2:293 3:55 5:1 9:1 15:1 23:1 24:1 33:1 38:1 42:1 45:1 53:1 58:1 62:1 
2.284354871776671 1:-211 2:293 3:82 5:1 9:1 15:1 23:1 24:1 33:1 38:1 43:1 48:1 50:1 58:1 63:1 
0.2489261002795381 1:-374 2:456 3:82 5:1 11:1 18:1 21:1 26:1 30:1 38:1 43:1 48:1 50:1 58:1 63:1 
2.371215948242462 1:163 2:13 3:176 5:1 13:1 14:1 22:1 24:1 33:1 37:1 40:1 44:1 52:1 58:1 63:1 
0.929879137032721 1:-78 2:254 3:176 8:1 13:1 18:1 23:1 28:1 33:1 37:1 40:1 44:1 52:1 58:1 63:1 
1.043375013980255 1:-95 2:340 3:245 8:1 13:1 18:1 23:1 24:1 32:1 35:1 43:1 48:1 53:1 57:1 60:1 
0.7125278949431031 1:13 2:272 3:285 5:1 10:1 15:1 20:1 27:1 29:1 35:1 40:1 44:1 53:1 55:1 59:1 
3.057517819946134 1:-96 2:97 3:1 8:1 12:1 15:1 19:1 25:1 30:1 48:1 53:1 55:1 63:1 
1.134288982497109 1:-56 2:97 3:41 8:1 12:1 15:1 19:1 25:1 30:1 38:1 39:1 48:1 50:1 58:1 63:1 
0.503105752306951 1:-54 2:97 3:43 8:1 12:1 15:1 19:1 25:1 30:1 38:1 43:1 45:1 53:1 54:1 63:1 
1.323366038778387 1:-50 2:120 3:70 8:1 10:1 18:1 20:1 25:1 30:1 37:1 43:1 45:1 49:1 54:1 62:1 
1.406942761431506 1:-130 2:171 3:41 4:1 10:1 18:1 23:1 26:1 29:1 38:1 39:1 48:1 50:1 58:1 63:1 
1.752896764405839 1:-172 2:173 3:1 8:1 11:1 18:1 19:1 28:1 32:1 48:1 53:1 55:1 63:1 
2.876094340653763 1:197 2:173 3:370 8:1 11:1 18:1 19:1 28:1 32:1 38:1 42:1 45:1 52:1 58:1 62:1 
1.635558723684004 1:399 2:11 3:410 4:1 11:1 15:1 20:1 28:1 32:1 38:1 43:1 48:1 52:1 57:1 63:1 
0.4489819019296943 1:334 2:76 3:410 7:1 13:1 18:1 20:1 27:1 33:1 38:1 43:1 48:1 52:1 57:1 63:1 
0.5341151986383492 1:237 2:173 3:410 8:1 11:1 18:1 19:1 28:1 32:1 38:1 43:1 48:1 52:1 57:1 63:1 
0.6787245191294655 1:159 2:251 3:410 5:1 13:1 15:1 23:1 28:1 30:1 38:1 43:1 48:1 52:1 57:1 63:1 
0.3092120083969302 1:-382 2:425 3:43 8:1 13:1 14:1 23:1 28:1 32:1 38:1 43:1 45:1 53:1 54:1 63:1 
0.4051088508214751 1:-355 2:425 3:70 8:1 13:1 14:1 23:1 28:1 32:1 37:1 43:1 45:1 49:1 54:1 62:1 
0.06468727178322448 1:-55 2:425 3:370 8:1 13:1 14:1 23:1 28:1 32:1 38:1 42:1 45:1 52:1 58:1 62:1 
3.334324338786932 1:263 2:171 3:434 4:1 10:1 18:1 23:1 26:1 29:1 35:1 43:1 45:1 53:1 57:1 60:1 
3.140900983167817 1:-11 2:29 3:18 5:1 13:1 14:1 23:1 24:1 31:1 37:1 39:1 45:1 53:1 58:1 59:1 
3.148264206367279 1:-14 2:32 3:18 6:1 13:1 14:1 20:1 27:1 33:1 37:1 39:1 45:1 53:1 58:1 59:1 
4 1:-70 2:194 3:124 5:1 12:1 18:1 23:1 27:1 33:1 35:1 43:1 45:1 53:1 58:1 62:1 
1.960940552760336 1:-79 2:203 3:124 5:1 13:1 18:1 19:1 27:1 29:1 35:1 43:1 45:1 53:1 58:1 62:1 
0.02443352544492553 1:-45 2:81 3:36 4:1 13:1 14:1 19:1 24:1 33:1 35:1 43:1 48:1 49:1 57:1 60:1 
3.854331379575107 1:20 2:81 3:101 4:1 13:1 14:1 19:1 24:1 33:1 38:1 43:1 45:1 53:1 54:1 63:1 
2.356406888206279 1:59 2:81 3:140 4:1 13:1 14:1 19:1 24:1 33:1 38:1 40:1 47:1 53:1 54:1 63:1 
0.6348951060898527 1:164 2:8 3:172 8:1 10:1 14:1 20:1 28:1 33:1 35:1 42:1 48:1 50:1 54:1 63:1 
1.626305099632741 1:127 2:81 3:208 4:1 13:1 14:1 19:1 24:1 33:1 38:1 43:1 45:1 50:1 58:1 60:1 
1.467160123175172 1:34 2:31 3:65 8:1 13:1 14:1 23:1 27:1 30:1 38:1 43:1 45:1 49:1 58:1 63:1 
2.577479249721355 1:-81 2:116 3:35 8:1 13:1 18:1 19:1 28:1 31:1 38:1 42:1 45:1 53:1 58:1 63:1 
3.238989614905449 1:-51 2:116 3:65 8:1 13:1 18:1 19:1 28:1 31:1 38:1 43:1 45:1 49:1 58:1 63:1 
4 1:-85 2:122 3:37 6:1 9:1 15:1 19:1 27:1 33:1 35:1 43:1 48:1 53:1 58:1 62:1 
3.156149655076372 1:-57 2:122 3:65 6:1 9:1 15:1 19:1 27:1 33:1 38:1 43:1 45:1 49:1 58:1 63:1 
1.264328263437609 1:-128 2:140 3:12 8:1 12:1 15:1 22:1 25:1 32:1 35:1 43:1 47:1 49:1 54:1 63:1 
2.447728388616082 1:43 2:116 3:159 8:1 13:1 18:1 19:1 28:1 31:1 34:1 40:1 48:1 49:1 58:1 59:1 
3.354023341644329 1:56 2:116 3:172 8:1 13:1 18:1 19:1 28:1 31:1 38:1 43:1 48:1 53:1 56:1 62:1 
4 1:77 2:122 3:199 6:1 9:1 15:1 19:1 27:1 33:1 35:1 43:1 48:1 52:1 54:1 59:1 
0.2481855591278953 1:59 2:140 3:199 8:1 12:1 15:1 22:1 25:1 32:1 35:1 43:1 48:1 52:1 54:1 59:1 
4 1:1 2:2 3:3 13:1 14:1 23:1 28:1 31:1 38:1 39:1 46:1 53:1 56:1 60:1 
2.138572045316586 1:-26 2:29 3:3 5:1 10:1 15:1 19:1 25:1 31:1 38:1 39:1 46:1 53:1 56:1 60:1 
0.3075641967797096 1:-38 2:41 3:3 8:1 10:1 18:1 22:1 25:1 33:1 38:1 39:1 46:1 53:1 56:1 60:1 
4 1:58 2:22 3:80 7:1 9:1 15:1 23:1 24:1 30:1 35:1 43:1 47:1 49:1 54:1 63:1 
3.506130372025404 1:51 2:29 3:80 5:1 10:1 15:1 19:1 25:1 31:1 35:1 43:1 47:1 49:1 54:1 63:1 
0.944441204381066 1:-156 2:159 3:3 8:1 9:1 18:1 20:1 28:1 33:1 38:1 39:1 46:1 53:1 56:1 60:1 
1.217062908451481 1:230 2:2 3:232 13:1 14:1 23:1 28:1 31:1 37:1 39:1 45:1 52:1 58:1 62:1 
0.6150406081352671 1:203 2:29 3:232 5:1 10:1 15:1 19:1 25:1 31:1 37:1 39:1 45:1 52:1 58:1 62:1 
1.894084638431074 1:167 2:65 3:232 7:1 13:1 14:1 20:1 25:1 30:1 37:1 39:1 45:1 52:1 58:1 62:1 
1.955731915749478 1:94 2:138 3:232 8:1 13:1 14:1 23:1 28:1 30:1 37:1 39:1 45:1 52:1 58:1 62:1 
4 1:-30 2:262 3:232 4:1 13:1 15:1 22:1 27:1 30:1 37:1 39:1 45:1 52:1 58:1 62:1 
3.144487192082012 1:-125 2:357 3:232 5:1 10:1 15:1 22:1 25:1 33:1 37:1 39:1 45:1 52:1 58:1 62:1 
0.8496640957347615 1:298 2:65 3:363 7:1 13:1 14:1 20:1 25:1 30:1 38:1 40:1 48:1 52:1 58:1 59:1 
0.04092949581043889 1:256 2:107 3:363 8:1 12:1 18:1 22:1 28:1 33:1 38:1 40:1 48:1 52:1 58:1 59:1 
1.766304498682717 1:225 2:138 3:363 8:1 13:1 14:1 23:1 28:1 30:1 38:1 40:1 48:1 52:1 58:1 59:1 
0.8651456882858704 1:101 2:262 3:363 4:1 13:1 15:1 22:1 27:1 30:1 38:1 40:1 48:1 52:1 58:1 59:1 
2.13344498785352 1:52 2:311 3:363 8:1 9:1 18:1 19:1 27:1 30:1 38:1 40:1 48:1 52:1 58:1 59:1 
0.4781242045129178 1:-116 2:479 3:363 8:1 12:1 18:1 23:1 24:1 30:1 38:1 40:1 48:1 52:1 58:1 59:1 
0.1027893212763558 1:462 2:29 3:491 5:1 10:1 15:1 19:1 25:1 31:1 34:1 40:1 45:1 53:1 55:1 63:1 
0.5823261917635346 1:459 2:32 3:491 6:1 9:1 15:1 23:1 28:1 33:1 34:1 40:1 45:1 53:1 55:1 63:1 
0.160209715533736 1:332 2:159 3:491 8:1 9:1 18:1 20:1 28:1 33:1 34:1 40:1 45:1 53:1 55:1 63:1 
0.3713733043817053 1:167 2:324 3:491 8:1 9:1 15:1 23:1 28:1 33:1 34:1 40:1 45:1 53:1 55:1 63:1 
0.3035887941165557 1:134 2:357 3:491 5:1 10:1 15:1 22:1 25:1 33:1 34:1 40:1 45:1 53:1 55:1 63:1 
2.392476638419158 1:7 2:484 3:491 4:1 10:1 18:1 22:1 27:1 33:1 34:1 40:1 45:1 53:1 55:1 63:1 
4 1:-2 2:4 3:2 7:1 13:1 14:1 23:1 28:1 33:1 43:1 47:1 49:1 56:1 63:1 
4 1:-215 2:217 3:2 4:1 10:1 18:1 20:1 25:1 29:1 43:1 47:1 49:1 56:1 63:1 
4 1:146 2:2 3:148 13:1 14:1 21:1 28:1 33:1 38:1 40:1 48:1 53:1 57:1 63:1 
2.863490303148593 1:51 2:138 3:189 8:1 13:1 15:1 20:1 25:1 33:1 34:1 43:1 48:1 50:1 57:1 63:1 
4 1:-52 2:200 3:148 4:1 10:1 17:1 20:1 26:1 30:1 38:1 40:1 48:1 53:1 57:1 63:1 
1.142552809841846 1:-22 2:200 3:178 4:1 10:1 17:1 20:1 26:1 30:1 35:1 42:1 48:1 52:1 58:1 62:1 
1.122505817713576 1:-125 2:202 3:77 7:1 11:1 15:1 20:1 26:1 30:1 38:1 42:1 48:1 53:1 57:1 59:1 
1.353650196255335 1:-121 2:204 3:83 5:1 11:1 15:1 20:1 26:1 30:1 34:1 40:1 48:1 53:1 58:1 63:1 
1.922155704171861 1:-110 2:204 3:94 5:1 11:1 15:1 20:1 26:1 30:1 37:1 40:1 48:1 49:1 58:1 63:1 
2.908628882763978 1:-26 2:204 3:178 5:1 11:1 15:1 20:1 26:1 30:1 35:1 42:1 48:1 52:1 58:1 62:1 
3.351640663350671 1:-58 2:206 3:148 5:1 11:1 15:1 20:1 26:1 33:1 38:1 40:1 48:1 53:1 57:1 63:1 
1.982531938843343 1:-182 2:210 3:28 5:1 11:1 18:1 23:1 25:1 31:1 38:1 43:1 48:1 53:1 54:1 60:1 
0.4461177507050676 1:-127 2:210 3:83 5:1 11:1 18:1 23:1 25:1 31:1 34:1 40:1 48:1 53:1 58:1 63:1 
2.862784830331167 1:-32 2:210 3:178 5:1 11:1 18:1 23:1 25:1 31:1 35:1 42:1 48:1 52:1 58:1 62:1 
0.06973732649959653 1:-213 2:213 3:0 6:1 13:1 15:1 23:1 28:1 32:1 49:1 56:1 61:1 
0.6662164778128113 1:-119 2:213 3:94 6:1 13:1 15:1 23:1 28:1 32:1 37:1 40:1 48:1 49:1 58:1 63:1 
4 1:83 2:138 3:221 8:1 13:1 15:1 20:1 25:1 33:1 34:1 43:1 48:1 50:1 58:1 60:1 
0.8842395724750963 1:13 2:208 3:221 5:1 11:1 15:1 23:1 26:1 33:1 34:1 43:1 48:1 50:1 58:1 60:1 
4 1:14 2:213 3:227 6:1 13:1 15:1 23:1 28:1 32:1 35:1 43:1 48:1 52:1 58:1 63:1 
2.84513214708758 1:22 2:208 3:230 5:1 11:1 15:1 23:1 26:1 33:1 38:1 42:1 48:1 49:1 58:1 59:1 
2.946530858755937 1:-167 2:244 3:77 7:1 13:1 18:1 19:1 28:1 33:1 38:1 42:1 48:1 53:1 57:1 59:1 
1.810285877706469 1:-161 2:244 3:83 7:1 13:1 18:1 19:1 28:1 33:1 34:1 40:1 48:1 53:1 58:1 63:1 
0.4031435632771114 1:-229 2:257 3:28 8:1 12:1 18:1 23:1 27:1 30:1 38:1 43:1 48:1 53:1 54:1 60:1 
2.057266650549876 1:-30 2:257 3:227 8:1 12:1 18:1 23:1 27:1 30:1 35:1 43:1 48:1 52:1 58:1 63:1 
0.5612116612410036 1:514 2:44 3:558 4:1 10:1 18:1 22:1 28:1 29:1 38:1 39:1 45:1 49:1 58:1 63:1 
0.5920799470539198 1:389 2:169 3:558 8:1 9:1 18:1 19:1 28:1 29:1 38:1 39:1 45:1 49:1 58:1 63:1 
0.592527899850676 1:273 2:285 3:558 6:1 9:1 18:1 19:1 24:1 32:1 38:1 39:1 45:1 49:1 58:1 63:1 
0.3621374399111286 1:618 2:0 3:618 19:1 28:1 31:1 34:1 40:1 48:1 52:1 55:1 
0.2927454230085067 1:615 2:3 3:618 6:1 9:1 18:1 22:1 28:1 29:1 34:1 40:1 48:1 52:1 55:1 
0.5924962898727664 1:509 2:109 3:618 5:1 9:1 18:1 22:1 28:1 33:1 34:1 40:1 48:1 52:1 55:1 
0.5923654053100711 1:350 2:268 3:618 5:1 13:1 18:1 20:1 25:1 31:1 34:1 40:1 48:1 52:1 55:1 
2.917476530258525 1:-45 2:177 3:132 8:1 9:1 14:1 23:1 25:1 32:1 37:1 43:1 48:1 49:1 58:1 59:1 
0.5895662636930414 1:-31 2:177 3:146 8:1 9:1 14:1 23:1 25:1 32:1 38:1 39:1 44:1 49:1 54:1 63:1 
4 1:-101 2:182 3:81 5:1 12:1 18:1 23:1 25:1 33:1 35:1 43:1 48:1 49:1 54:1 62:1 
4 1:-138 2:219 3:81 8:1 13:1 14:1 23:1 28:1 30:1 35:1 43:1 48:1 49:1 54:1 62:1 
4 1:-107 2:219 3:112 8:1 13:1 14:1 23:1 28:1 30:1 38:1 40:1 48:1 53:1 54:1 62:1 
0.737168888518693 1:-243 2:284 3:41 5:1 9:1 14:1 22:1 24:1 30:1 38:1 42:1 45:1 53:1 57:1 63:1 
0.7580069730916624 1:-220 2:352 3:132 8:1 13:1 15:1 20:1 24:1 33:1 37:1 43:1 48:1 49:1 58:1 59:1 
1.205328333070522 1:-229 2:361 3:132 8:1 12:1 15:1 22:1 25:1 32:1 37:1 43:1 48:1 49:1 58:1 59:1 
0.780035469821993 1:-293 2:368 3:75 8:1 9:1 18:1 23:1 24:1 33:1 38:1 43:1 44:1 53:1 54:1 60:1 
0.04531812644749846 1:-310 2:391 3:81 4:1 13:1 14:1 20:1 28:1 29:1 35:1 43:1 48:1 49:1 54:1 62:1 
0.6388787721733056 1:-259 2:391 3:132 4:1 13:1 14:1 20:1 28:1 29:1 37:1 43:1 48:1 49:1 58:1 59:1 
0.5548622986789538 1:510 2:54 3:564 8:1 13:1 18:1 23:1 24:1 33:1 38:1 40:1 47:1 52:1 58:1 59:1 
0.4209672598262791 1:254 2:58 3:312 4:1 10:1 17:1 23:1 24:1 29:1 34:1 43:1 44:1 53:1 54:1 59:1 
0.2340350936998095 1:48 2:14 3:62 5:1 13:1 14:1 22:1 24:1 30:1 38:1 42:1 48:1 50:1 57:1 59:1 
4 1:-82 2:144 3:62 4:1 9:1 15:1 23:1 27:1 33:1 38:1 42:1 48:1 50:1 57:1 59:1 
4 1:-135 2:169 3:34 7:1 9:1 15:1 22:1 28:1 29:1 35:1 40:1 45:1 50:1 58:1 63:1 
1.931379657934038 1:-107 2:169 3:62 7:1 9:1 15:1 22:1 28:1 29:1 38:1 42:1 48:1 50:1 57:1 59:1 
0.5774482169137721 1:-140 2:174 3:34 8:1 9:1 14:1 23:1 26:1 30:1 35:1 40:1 45:1 50:1 58:1 63:1 
2.775811784100037 1:-174 2:208 3:34 8:1 9:1 17:1 23:1 25:1 32:1 35:1 40:1 45:1 50:1 58:1 63:1 
3.95810927143229 1:-179 2:241 3:62 6:1 13:1 15:1 22:1 24:1 33:1 38:1 42:1 48:1 50:1 57:1 59:1 
2.580181367756119 1:-211 2:245 3:34 7:1 9:1 18:1 19:1 28:1 29:1 35:1 40:1 45:1 50:1 58:1 63:1 
1.955739769613114 1:-169 2:169 3:0 7:1 10:1 14:1 23:1 27:1 33:1 53:1 55:1 63:1 
2.070884823862291 1:-175 2:212 3:37 8:1 10:1 14:1 20:1 28:1 33:1 37:1 40:1 47:1 53:1 58:1 63:1 
2.392506809574636 1:65 2:212 3:277 8:1 10:1 14:1 20:1 28:1 33:1 34:1 43:1 45:1 49:1 56:1 63:1 
1.976405596021933 1:-242 2:279 3:37 5:1 13:1 14:1 23:1 25:1 33:1 37:1 40:1 47:1 53:1 58:1 63:1 
0.9919233150199916 1:-92 2:296 3:204 4:1 9:1 15:1 22:1 25:1 29:1 34:1 40:1 48:1 53:1 55:1 63:1 
3.785291313753727 1:166 2:88 3:254 4:1 9:1 17:1 23:1 28:1 29:1 35:1 43:1 45:1 52:1 54:1 62:1 
0.7955935378722117 1:45 2:10 3:55 4:1 11:1 15:1 20:1 28:1 32:1 35:1 43:1 47:1 53:1 58:1 62:1 
1.684471518068802 1:131 2:8 3:139 8:1 10:1 14:1 20:1 26:1 30:1 34:1 42:1 47:1 53:1 58:1 63:1 
0.5518472124859499 1:-151 2:263 3:112 7:1 12:1 17:1 23:1 28:1 29:1 35:1 40:1 44:1 49:1 58:1 62:1 
4 1:-121 2:263 3:142 7:1 12:1 17:1 23:1 28:1 29:1 38:1 39:1 45:1 53:1 55:1 63:1 
1.835835939564997 1:79 2:224 3:303 7:1 10:1 18:1 23:1 28:1 29:1 35:1 40:1 45:1 51:1 55:1 63:1 
1.938549096438857 1:46 2:263 3:309 7:1 12:1 17:1 23:1 28:1 29:1 38:1 40:1 48:1 49:1 58:1 63:1 
0.8981122581415857 1:90 2:263 3:353 7:1 12:1 17:1 23:1 28:1 29:1 35:1 43:1 47:1 53:1 58:1 63:1 
3.341693621398383 1:198 2:169 3:367 4:1 13:1 15:1 23:1 28:1 33:1 37:1 42:1 45:1 53:1 58:1 62:1 
1.111037383218374 1:143 2:224 3:367 7:1 10:1 18:1 23:1 28:1 29:1 37:1 42:1 45:1 53:1 58:1 62:1 
0.169819091751278 1:228 2:154 3:382 8:1 12:1 15:1 23:1 28:1 29:1 35:1 43:1 47:1 49:1 58:1 59:1 
0.8532065528633761 1:158 2:224 3:382 7:1 10:1 18:1 23:1 28:1 29:1 35:1 43:1 47:1 49:1 58:1 59:1 
1.221435603201458 1:236 2:0 3:236 23:1 28:1 33:1 38:1 42:1 45:1 49:1 58:1 59:1 
4 1:148 2:88 3:236 4:1 10:1 18:1 22:1 28:1 32:1 38:1 42:1 45:1 49:1 58:1 59:1 
2.523954822974295 1:200 2:33 3:233 5:1 13:1 14:1 20:1 28:1 33:1 37:1 40:1 45:1 53:1 54:1 60:1 
0.9508907236405423 1:49 2:50 3:99 8:1 12:1 15:1 20:1 25:1 33:1 38:1 43:1 45:1 50:1 58:1 60:1 
0.9620476702947534 1:36 2:63 3:99 4:1 10:1 15:1 19:1 25:1 33:1 38:1 43:1 45:1 50:1 58:1 60:1 
2.326984654271192 1:-58 2:117 3:59 8:1 13:1 15:1 22:1 28:1 30:1 37:1 43:1 45:1 49:1 55:1 60:1 
4 1:-170 2:250 3:80 5:1 10:1 15:1 20:1 28:1 29:1 35:1 43:1 45:1 49:1 55:1 60:1 
0.2164090510014074 1:173 2:111 3:284 4:1 12:1 15:1 20:1 25:1 33:1 35:1 43:1 45:1 53:1 58:1 62:1 
0.6492312181431396 1:-15 2:299 3:284 7:1 12:1 14:1 23:1 24:1 30:1 35:1 43:1 45:1 53:1 58:1 62:1 
2.604154197278038 1:10 2:253 3:263 8:1 13:1 15:1 19:1 25:1 33:1 34:1 42:1 48:1 50:1 58:1 63:1 
4 1:55 2:37 3:92 5:1 13:1 14:1 22:1 25:1 33:1 37:1 43:1 45:1 49:1 56:1 63:1 
0.7697910861127021 1:-17 2:94 3:77 5:1 13:1 14:1 23:1 28:1 32:1 34:1 39:1 48:1 52:1 58:1 59:1 
2.489703490403512 1:-65 2:122 3:57 5:1 10:1 15:1 22:1 24:1 30:1 35:1 43:1 45:1 53:1 55:1 63:1 
3.980769868313818 1:-12 2:12 3:0 5:1 13:1 14:1 23:1 28:1 33:1 53:1 55:1 63:1 
4 1:-20 2:30 3:10 7:1 13:1 15:1 23:1 28:1 30:1 34:1 41:1 45:1 49:1 56:1 63:1 
1.244882484208865 1:-10 2:30 3:20 7:1 13:1 15:1 23:1 28:1 30:1 37:1 43:1 48:1 53:1 58:1 63:1 
4 1:147 2:12 3:159 5:1 13:1 14:1 23:1 28:1 33:1 38:1 39:1 45:1 49:1 56:1 60:1 
2.249753927049171 1:-145 2:161 3:16 5:1 13:1 14:1 20:1 28:1 29:1 38:1 43:1 48:1 52:1 58:1 63:1 
0.8990745148336525 1:155 2:8 3:163 8:1 10:1 14:1 20:1 28:1 29:1 34:1 41:1 45:1 49:1 56:1 60:1 
0.1920678534586309 1:-165 2:165 3:0 5:1 13:1 14:1 20:1 28:1 33:1 53:1 55:1 63:1 
1.519087540248806 1:-149 2:165 3:16 5:1 13:1 14:1 20:1 28:1 33:1 38:1 43:1 48:1 52:1 58:1 63:1 
3.300898543312251 1:2 2:165 3:167 5:1 13:1 14:1 20:1 28:1 33:1 34:1 41:1 45:1 53:1 54:1 61:1 
0.5318328703725252 1:-150 2:170 3:20 8:1 13:1 14:1 23:1 28:1 32:1 37:1 43:1 48:1 53:1 58:1 63:1 
4 1:-41 2:170 3:129 8:1 13:1 14:1 23:1 28:1 32:1 34:1 39:1 47:1 53:1 54:1 60:1 
2.934178737745628 1:-11 2:174 3:163 8:1 13:1 17:1 21:1 28:1 32:1 34:1 41:1 45:1 49:1 56:1 60:1 
4 1:-2 2:174 3:172 8:1 13:1 17:1 21:1 28:1 32:1 34:1 41:1 48:1 52:1 56:1 61:1 
4 1:-165 2:175 3:10 8:1 12:1 16:1 23:1 27:1 33:1 34:1 41:1 45:1 49:1 56:1 63:1 
0.01327620736268496 1:-16 2:175 3:159 8:1 12:1 16:1 23:1 27:1 33:1 38:1 39:1 45:1 49:1 56:1 60:1 
4 1:125 2:40 3:165 7:1 12:1 15:1 19:1 27:1 33:1 35:1 42:1 48:1 53:1 54:1 60:1 
2.618452820702528 1:136 2:40 3:176 7:1 12:1 15:1 19:1 27:1 33:1 34:1 41:1 45:1 49:1 57:1 63:1 
4 1:2 2:174 3:176 5:1 13:1 14:1 20:1 28:1 29:1 34:1 41:1 45:1 49:1 57:1 63:1 
4 1:157 2:22 3:179 5:1 11:1 15:1 20:1 26:1 33:1 38:1 39:1 47:1 49:1 56:1 60:1 
3.436254684640923 1:-12 2:181 3:169 7:1 13:1 14:1 20:1 28:1 29:1 38:1 39:1 45:1 53:1 55:1 63:1 
4 1:159 2:24 3:183 5:1 11:1 15:1 23:1 24:1 33:1 34:1 41:1 45:1 49:1 56:1 60:1 
3.820426193618638 1:143 2:40 3:183 7:1 12:1 15:1 19:1 27:1 33:1 34:1 41:1 45:1 49:1 56:1 60:1 
1.294943737578356 1:169 2:18 3:187 4:1 9:1 17:1 20:1 26:1 30:1 34:1 41:1 45:1 49:1 56:1 63:1 
4 1:165 2:22 3:187 5:1 11:1 15:1 20:1 26:1 33:1 34:1 41:1 45:1 49:1 56:1 63:1 
0.574397391153747 1:-105 2:274 3:169 4:1 13:1 17:1 20:1 28:1 33:1 38:1 39:1 45:1 53:1 55:1 63:1 
4 1:-63 2:73 3:10 5:1 13:1 14:1 23:1 28:1 32:1 36:1 42:1 45:1 49:1 55:1 63:1 
4 1:-127 2:137 3:10 8:1 9:1 15:1 22:1 25:1 32:1 36:1 42:1 45:1 49:1 55:1 63:1 
2.698795091038801 1:169 2:16 3:185 8:1 13:1 14:1 23:1 27:1 29:1 34:1 39:1 45:1 52:1 58:1 59:1 
4 1:-211 2:224 3:13 8:1 9:1 15:1 22:1 25:1 32:1 38:1 39:1 45:1 53:1 54:1 61:1 
2.787177085640198 1:-51 2:80 3:29 8:1 13:1 18:1 20:1 28:1 33:1 34:1 39:1 44:1 50:1 58:1 60:1 
1.970220825580474 1:-29 2:104 3:75 8:1 9:1 14:1 23:1 28:1 32:1 34:1 40:1 45:1 49:1 58:1 63:1 
2.344670686011962 1:130 2:80 3:210 8:1 13:1 18:1 20:1 28:1 33:1 38:1 40:1 47:1 53:1 54:1 63:1 
1.310761585487573 1:-329 2:358 3:29 5:1 9:1 15:1 21:1 28:1 29:1 34:1 39:1 44:1 50:1 58:1 60:1 
0.8270361058757698 1:246 2:140 3:386 7:1 9:1 18:1 23:1 27:1 33:1 38:1 42:1 45:1 52:1 56:1 60:1 
1.820575542337338 1:-359 2:388 3:29 5:1 13:1 17:1 20:1 27:1 30:1 34:1 39:1 44:1 50:1 58:1 60:1 
0.4855460026912363 1:155 2:327 3:482 5:1 13:1 18:1 20:1 28:1 30:1 38:1 43:1 48:1 50:1 
2.790009057315681 1:17 2:49 3:66 8:1 13:1 16:1 22:1 24:1 30:1 38:1 39:1 48:1 53:1 54:1 63:1 
2.301828747618852 1:-10 2:141 3:131 5:1 13:1 18:1 23:1 27:1 30:1 34:1 39:1 45:1 49:1 54:1 59:1 
4 1:-163 2:229 3:66 5:1 13:1 14:1 20:1 28:1 29:1 38:1 39:1 48:1 53:1 54:1 63:1 
0.1819213121610446 1:-356 2:422 3:66 5:1 13:1 15:1 19:1 26:1 33:1 38:1 39:1 48:1 53:1 54:1 63:1 
0.5894836719476797 1:-451 2:517 3:66 5:1 13:1 18:1 23:1 24:1 33:1 38:1 39:1 48:1 53:1 54:1 63:1 
0.5899132353743838 1:-464 2:530 3:66 8:1 13:1 18:1 23:1 25:1 38:1 39:1 48:1 53:1 54:1 63:1 
1.391913787544905 1:9 2:9 3:18 5:1 13:1 14:1 20:1 28:1 29:1 34:1 43:1 44:1 53:1 58:1 59:1 
3.49762070491978 1:-23 2:41 3:18 8:1 10:1 18:1 19:1 25:1 29:1 34:1 43:1 44:1 53:1 58:1 59:1 
4 1:-98 2:109 3:11 4:1 10:1 17:1 19:1 28:1 33:1 34:1 41:1 45:1 49:1 56:1 60:1 
2.693349940713202 1:-138 2:145 3:7 7:1 9:1 15:1 19:1 28:1 33:1 35:1 43:1 45:1 49:1 56:1 60:1 
3.836819401344894 1:-130 2:181 3:51 5:1 12:1 18:1 19:1 25:1 33:1 34:1 40:1 47:1 49:1 54:1 63:1 
1.402625233904905 1:107 2:109 3:216 4:1 10:1 17:1 19:1 28:1 33:1 38:1 40:1 48:1 53:1 58:1 63:1 
3.985208709165891 1:-263 2:281 3:18 5:1 13:1 15:1 20:1 25:1 33:1 34:1 43:1 44:1 53:1 58:1 59:1 
0.4663343645942108 1:28 2:287 3:315 8:1 13:1 18:1 19:1 28:1 29:1 34:1 40:1 44:1 52:1 58:1 63:1 
0.1394601959706784 1:198 2:145 3:343 7:1 9:1 15:1 19:1 28:1 33:1 37:1 40:1 45:1 49:1 57:1 60:1 
0.04517181574026315 1:62 2:281 3:343 5:1 13:1 15:1 20:1 25:1 33:1 37:1 40:1 45:1 49:1 57:1 60:1 
0.298732122624505 1:236 2:145 3:381 7:1 9:1 15:1 19:1 28:1 33:1 35:1 43:1 45:1 53:1 58:1 63:1 
2.299774420152449 1:10 2:57 3:67 8:1 13:1 15:1 20:1 24:1 30:1 34:1 40:1 48:1 53:1 54:1 63:1 
0.1532950959174678 1:-244 2:284 3:40 8:1 10:1 18:1 22:1 28:1 33:1 38:1 39:1 47:1 52:1 58:1 59:1 
1.459559670064782 1:161 2:133 3:294 4:1 9:1 17:1 19:1 25:1 29:1 38:1 41:1 47:1 52:1 54:1 61:1 
0.008289680595135478 1:-184 2:297 3:113 8:1 12:1 14:1 22:1 24:1 30:1 37:1 40:1 48:1 52:1 55:1 63:1 
0.4327503680320771 1:-246 2:313 3:67 8:1 13:1 18:1 23:1 28:1 33:1 34:1 40:1 48:1 53:1 54:1 63:1 
2.359871760784656 1:-216 2:329 3:113 4:1 13:1 15:1 23:1 28:1 30:1 37:1 40:1 48:1 52:1 55:1 63:1 
1.322608381393678 1:-229 2:342 3:113 4:1 12:1 14:1 20:1 26:1 29:1 37:1 40:1 48:1 52:1 55:1 63:1 
1.455534592951639 1:-269 2:382 3:113 5:1 10:1 16:1 20:1 37:1 40:1 48:1 52:1 55:1 63:1 
3.131255957775077 1:-251 2:267 3:16 8:1 10:1 18:1 22:1 25:1 30:1 37:1 42:1 45:1 49:1 54:1 59:1 
0.4534024708115428 1:-364 2:380 3:16 4:1 10:1 15:1 21:1 28:1 30:1 37:1 42:1 45:1 49:1 54:1 59:1 
2.644756412958171 1:-24 2:344 3:320 8:1 10:1 14:1 23:1 28:1 30:1 37:1 43:1 45:1 49:1 54:1 60:1 
3.385469754291033 1:-8 2:21 3:13 7:1 13:1 15:1 19:1 25:1 33:1 38:1 40:1 48:1 53:1 58:1 59:1 
0.8154253690380822 1:66 2:7 3:73 5:1 13:1 14:1 22:1 25:1 33:1 35:1 40:1 45:1 49:1 54:1 59:1 
4 1:60 2:21 3:81 7:1 13:1 15:1 19:1 25:1 33:1 35:1 42:1 48:1 50:1 58:1 62:1 
4 1:62 2:21 3:83 7:1 13:1 15:1 19:1 25:1 33:1 38:1 43:1 45:1 52:1 58:1 63:1 
0.7653916969170204 1:101 2:7 3:108 5:1 13:1 14:1 22:1 25:1 33:1 35:1 43:1 45:1 49:1 58:1 60:1 
3.090690585196361 1:57 2:51 3:108 5:1 13:1 14:1 22:1 28:1 32:1 35:1 43:1 45:1 49:1 58:1 60:1 
2.808314686338413 1:-86 2:129 3:43 7:1 9:1 15:1 20:1 24:1 33:1 38:1 39:1 45:1 49:1 55:1 59:1 
2.063639083179064 1:-101 2:150 3:49 5:1 10:1 15:1 23:1 24:1 30:1 34:1 39:1 45:1 49:1 56:1 62:1 
1.296339203991407 1:-49 2:150 3:101 5:1 10:1 15:1 23:1 24:1 30:1 37:1 43:1 45:1 50:1 58:1 59:1 
2.558484217752897 1:-136 2:179 3:43 7:1 13:1 18:1 23:1 28:1 30:1 38:1 39:1 45:1 49:1 55:1 59:1 
4 1:-98 2:179 3:81 7:1 13:1 18:1 23:1 28:1 30:1 35:1 42:1 48:1 50:1 58:1 62:1 
0.1906614252382106 1:-73 2:179 3:106 7:1 13:1 18:1 23:1 28:1 30:1 38:1 39:1 45:1 50:1 58:1 59:1 
3.562248500820896 1:90 2:179 3:269 7:1 13:1 18:1 23:1 28:1 30:1 38:1 39:1 45:1 53:1 54:1 61:1 
3.075233936426273 1:-223 2:272 3:49 8:1 13:1 14:1 20:1 26:1 33:1 34:1 39:1 45:1 49:1 56:1 62:1 
0.5066426342561244 1:-239 2:274 3:35 4:1 11:1 15:1 23:1 27:1 33:1 35:1 40:1 45:1 49:1 54:1 59:1 
0.5299305634719738 1:-225 2:274 3:49 4:1 11:1 15:1 23:1 27:1 33:1 34:1 39:1 45:1 49:1 56:1 62:1 
0.01638813033360838 1:-201 2:274 3:73 4:1 11:1 15:1 23:1 27:1 33:1 35:1 40:1 45:1 49:1 54:1 59:1 
0.1034623342990449 1:-168 2:274 3:106 4:1 11:1 15:1 23:1 27:1 33:1 38:1 39:1 45:1 50:1 58:1 59:1 
0.5306165344077767 1:-59 2:59 3:0 8:1 12:1 17:1 20:1 26:1 33:1 53:1 55:1 60:1 
0.0529595922769964 1:-139 2:139 3:0 5:1 10:1 15:1 20:1 25:1 30:1 53:1 55:1 60:1 
0.9688359483285056 1:130 2:31 3:161 4:1 9:1 15:1 20:1 25:1 33:1 35:1 43:1 45:1 50:1 58:1 63:1 
1.465417443453682 1:88 2:73 3:161 8:1 13:1 15:1 19:1 28:1 29:1 35:1 43:1 45:1 50:1 58:1 63:1 
1.389857457438212 1:150 2:13 3:163 6:1 10:1 18:1 20:1 24:1 30:1 35:1 43:1 45:1 53:1 54:1 60:1 
0.8679793021264375 1:104 2:59 3:163 8:1 12:1 17:1 20:1 26:1 33:1 35:1 43:1 45:1 53:1 54:1 60:1 
1.51964301864995 1:83 2:80 3:163 8:1 13:1 15:1 23:1 25:1 29:1 35:1 43:1 45:1 53:1 54:1 60:1 
0.6361295474815883 1:-23 2:186 3:163 4:1 12:1 15:1 23:1 28:1 32:1 35:1 43:1 45:1 53:1 54:1 60:1 
0.04210696228778206 1:-45 2:208 3:163 8:1 12:1 15:1 23:1 28:1 29:1 35:1 43:1 45:1 53:1 54:1 60:1 
2.070638647147666 1:215 2:13 3:228 6:1 10:1 18:1 20:1 24:1 30:1 36:1 43:1 48:1 49:1 55:1 59:1 
0.6657771135033096 1:148 2:80 3:228 8:1 13:1 15:1 23:1 25:1 29:1 36:1 43:1 48:1 49:1 55:1 59:1 
3.269188986691458 1:178 2:59 3:237 8:1 12:1 17:1 20:1 26:1 33:1 38:1 39:1 45:1 49:1 55:1 63:1 
3.980976128061405 1:98 2:139 3:237 5:1 10:1 15:1 20:1 25:1 30:1 38:1 39:1 45:1 49:1 55:1 63:1 
1.581358150000046 1:209 2:31 3:240 4:1 9:1 15:1 20:1 25:1 33:1 38:1 39:1 45:1 49:1 55:1 61:1 
0.741226797272115 1:-88 2:249 3:161 8:1 10:1 18:1 20:1 25:1 33:1 35:1 43:1 45:1 50:1 58:1 63:1 
1.034654795833347 1:33 2:68 3:101 5:1 13:1 17:1 23:1 28:1 29:1 37:1 39:1 48:1 52:1 54:1 60:1 
1.328239547085674 1:95 2:105 3:200 7:1 9:1 15:1 19:1 25:1 29:1 38:1 39:1 45:1 50:1 57:1 63:1 
3.192759721191213 1:176 2:30 3:206 8:1 9:1 14:1 20:1 28:1 30:1 38:1 39:1 48:1 49:1 58:1 59:1 
4 1:139 2:78 3:217 5:1 13:1 17:1 23:1 28:1 29:1 38:1 41:1 48:1 52:1 58:1 63:1 
0.1671198519763614 1:-127 2:333 3:206 8:1 10:1 15:1 19:1 28:1 33:1 38:1 39:1 48:1 49:1 58:1 59:1 
0.8196864515813297 1:243 2:1 3:244 15:1 23:1 24:1 32:1 38:1 43:1 45:1 53:1 54:1 61:1 
2.533068552471634 1:162 2:82 3:244 5:1 13:1 14:1 22:1 28:1 33:1 38:1 43:1 45:1 53:1 54:1 61:1 
0.283078988279212 1:83 2:177 3:260 4:1 13:1 14:1 23:1 24:1 32:1 35:1 40:1 48:1 49:1 54:1 60:1 
4 1:187 2:82 3:269 5:1 13:1 14:1 22:1 28:1 33:1 38:1 43:1 45:1 52:1 58:1 63:1 
3.572552103165369 1:92 2:177 3:269 4:1 13:1 14:1 23:1 24:1 32:1 38:1 43:1 45:1 52:1 58:1 63:1 
0.7504149099370452 1:-57 2:323 3:266 8:1 13:1 15:1 20:1 24:1 32:1 35:1 43:1 45:1 53:1 55:1 63:1 
1.186173066432423 1:287 2:82 3:369 5:1 13:1 14:1 22:1 28:1 33:1 38:1 43:1 47:1 50:1 58:1 62:1 
0.1312518032030367 1:-14 2:383 3:369 8:1 9:1 15:1 20:1 26:1 33:1 38:1 43:1 47:1 50:1 58:1 62:1 
2.401490932924518 1:-305 2:385 3:80 5:1 11:1 15:1 23:1 24:1 30:1 35:1 43:1 45:1 49:1 56:1 62:1 
0.3280338948729635 1:75 2:323 3:398 8:1 13:1 15:1 20:1 24:1 32:1 38:1 39:1 45:1 49:1 58:1 62:1 
2.505139663048443 1:24 2:167 3:191 7:1 13:1 15:1 19:1 24:1 32:1 37:1 40:1 45:1 49:1 54:1 60:1 
2.152929330178436 1:36 2:167 3:203 7:1 13:1 15:1 19:1 24:1 32:1 35:1 40:1 45:1 49:1 54:1 60:1 
0.5297222248514587 1:-42 2:245 3:203 4:1 9:1 18:1 20:1 28:1 29:1 35:1 40:1 45:1 49:1 54:1 60:1 
2.280847838546394 1:136 2:159 3:295 5:1 13:1 18:1 19:1 24:1 32:1 37:1 43:1 45:1 50:1 58:1 63:1 
3.79410443482948 1:-9 2:133 3:124 4:1 13:1 14:1 23:1 24:1 33:1 34:1 40:1 47:1 53:1 54:1 63:1 
0.02242375280198476 1:181 2:2 3:183 13:1 15:1 20:1 28:1 30:1 35:1 43:1 45:1 52:1 55:1 61:1 
4 1:50 2:133 3:183 4:1 13:1 14:1 23:1 24:1 33:1 35:1 43:1 45:1 52:1 55:1 61:1 
4 1:-3 2:186 3:183 8:1 12:1 15:1 20:1 28:1 29:1 35:1 43:1 45:1 52:1 55:1 61:1 
0.1483941462266527 1:-50 2:233 3:183 6:1 10:1 14:1 20:1 28:1 33:1 35:1 43:1 45:1 52:1 55:1 61:1 
0.4806067655896184 1:19 2:7 3:26 5:1 13:1 14:1 22:1 25:1 29:1 37:1 40:1 48:1 52:1 58:1 63:1 
4 1:-60 2:86 3:26 8:1 13:1 15:1 23:1 28:1 29:1 37:1 40:1 48:1 52:1 58:1 63:1 
2.413573185073393 1:-40 2:86 3:46 8:1 13:1 15:1 23:1 28:1 29:1 37:1 39:1 45:1 53:1 58:1 63:1 
4 1:75 2:86 3:161 8:1 13:1 15:1 23:1 28:1 29:1 38:1 43:1 45:1 49:1 55:1 63:1 
3.890806621500759 1:-44 2:196 3:152 5:1 13:1 14:1 19:1 27:1 30:1 38:1 43:1 48:1 52:1 58:1 62:1 
2.968856581871064 1:-133 2:229 3:96 7:1 10:1 18:1 20:1 28:1 29:1 35:1 39:1 48:1 53:1 58:1 62:1 
2.081189479343323 1:-77 2:229 3:152 7:1 10:1 18:1 20:1 28:1 29:1 38:1 43:1 48:1 52:1 58:1 62:1 
3.409198738156984 1:-68 2:229 3:161 7:1 10:1 18:1 20:1 28:1 29:1 38:1 43:1 45:1 49:1 55:1 63:1 
0.1647626345055642 1:27 2:49 3:76 7:1 9:1 15:1 20:1 28:1 29:1 34:1 40:1 45:1 50:1 54:1 61:1 
4 1:96 2:79 3:175 8:1 10:1 14:1 23:1 27:1 33:1 38:1 40:1 44:1 53:1 57:1 63:1 
2.307063236903798 1:135 2:63 3:198 4:1 13:1 17:1 20:1 25:1 30:1 38:1 39:1 45:1 50:1 58:1 63:1 
1.839756904532426 1:107 2:91 3:198 4:1 9:1 15:1 22:1 24:1 30:1 38:1 39:1 45:1 50:1 58:1 63:1 
4 1:4 2:109 3:113 4:1 13:1 18:1 23:1 24:1 32:1 38:1 39:1 47:1 49:1 54:1 63:1 
1.82873203829052 1:99 2:21 3:120 8:1 10:1 18:1 22:1 28:1 33:1 34:1 43:1 45:1 49:1 54:1 60:1 
2.812838723471872 1:33 2:99 3:132 5:1 10:1 16:1 20:1 25:1 33:1 35:1 43:1 48:1 53:1 57:1 60:1 
3.519986595798872 1:39 2:98 3:137 8:1 10:1 15:1 21:1 25:1 30:1 37:1 40:1 45:1 49:1 54:1 60:1 
2.830483272701182 1:119 2:29 3:148 7:1 10:1 18:1 23:1 28:1 29:1 34:1 42:1 48:1 49:1 55:1 59:1 
1.667942520620666 1:50 2:98 3:148 8:1 10:1 15:1 21:1 25:1 30:1 34:1 42:1 48:1 49:1 55:1 59:1 
3.108818351284173 1:144 2:29 3:173 7:1 10:1 18:1 23:1 28:1 29:1 38:1 39:1 45:1 49:1 54:1 60:1 
1.370968128080935 1:64 2:109 3:173 4:1 13:1 18:1 23:1 24:1 32:1 38:1 39:1 45:1 49:1 54:1 60:1 
2.402932643555492 1:88 2:98 3:186 8:1 10:1 15:1 21:1 25:1 30:1 34:1 39:1 45:1 53:1 54:1 63:1 
0.09996975987797561 1:27 2:11 3:38 5:1 13:1 14:1 20:1 28:1 32:1 38:1 43:1 45:1 52:1 55:1 61:1 
4 1:-5 2:41 3:36 8:1 12:1 15:1 23:1 28:1 33:1 34:1 40:1 48:1 50:1 58:1 62:1 
3.241030680654503 1:-3 2:41 3:38 8:1 12:1 15:1 23:1 28:1 33:1 38:1 43:1 45:1 52:1 55:1 61:1 
4 1:-149 2:158 3:9 7:1 13:1 15:1 19:1 24:1 33:1 38:1 39:1 45:1 49:1 56:1 60:1 
1.58590129075698 1:-180 2:189 3:9 8:1 12:1 18:1 20:1 28:1 30:1 38:1 39:1 45:1 49:1 56:1 60:1 
4 1:-12 2:12 3:0 5:1 13:1 14:1 20:1 28:1 33:1 53:1 55:1 63:1 
3.866108089839796 1:-70 2:80 3:10 8:1 13:1 14:1 21:1 28:1 29:1 34:1 41:1 45:1 49:1 56:1 60:1 
2.071216301606807 1:-86 2:96 3:10 8:1 9:1 18:1 23:1 27:1 33:1 34:1 41:1 45:1 49:1 56:1 60:1 
1.044729873982064 1:82 2:59 3:141 8:1 12:1 18:1 23:1 24:1 29:1 37:1 42:1 48:1 49:1 55:1 59:1 
2.849824831163288 1:52 2:89 3:141 8:1 13:1 14:1 20:1 28:1 32:1 37:1 42:1 48:1 49:1 55:1 59:1 
1.762529551185638 1:268 2:59 3:327 8:1 12:1 18:1 23:1 24:1 29:1 38:1 43:1 48:1 53:1 57:1 63:1 
0.9703456504734091 1:238 2:89 3:327 8:1 13:1 14:1 20:1 28:1 32:1 38:1 43:1 48:1 53:1 57:1 63:1 
3.195677181208859 1:280 2:59 3:339 8:1 12:1 18:1 23:1 24:1 29:1 38:1 39:1 48:1 53:1 54:1 63:1 
3.406395419878806 1:-119 2:350 3:231 7:1 13:1 18:1 20:1 24:1 30:1 34:1 42:1 45:1 53:1 54:1 63:1 
0.003785911590845864 1:-71 2:350 3:279 7:1 13:1 18:1 20:1 24:1 30:1 37:1 42:1 45:1 53:1 54:1 63:1 
0.5014500077782815 1:-23 2:350 3:327 7:1 13:1 18:1 20:1 24:1 30:1 38:1 43:1 48:1 53:1 57:1 63:1 
1.626932792340637 1:311 2:59 3:370 8:1 12:1 18:1 23:1 24:1 29:1 37:1 39:1 45:1 51:1 58:1 60:1 
1.174266711233638 1:281 2:89 3:370 8:1 13:1 14:1 20:1 28:1 32:1 37:1 39:1 45:1 51:1 58:1 60:1 
4 1:-84 2:371 3:287 4:1 10:1 18:1 23:1 25:1 30:1 34:1 43:1 45:1 53:1 57:1 63:1 
0.07254732086451487 1:-32 2:371 3:339 4:1 10:1 18:1 23:1 25:1 30:1 38:1 39:1 48:1 53:1 54:1 63:1 
0.124653661428129 1:288 2:89 3:377 8:1 13:1 14:1 20:1 28:1 32:1 35:1 43:1 47:1 53:1 55:1 63:1 
0.5557275929258108 1:6 2:371 3:377 4:1 10:1 18:1 23:1 25:1 30:1 35:1 43:1 47:1 53:1 55:1 63:1 
0.4796738509772643 1:-274 2:415 3:141 5:1 12:1 14:1 20:1 28:1 33:1 37:1 42:1 48:1 49:1 55:1 59:1 
0.2940815750848134 1:-184 2:415 3:231 5:1 12:1 14:1 20:1 28:1 33:1 34:1 42:1 45:1 53:1 54:1 63:1 
0.09180140981688341 1:-136 2:415 3:279 5:1 12:1 14:1 20:1 28:1 33:1 37:1 42:1 45:1 53:1 54:1 63:1 
0.3810729142980723 1:-90 2:415 3:325 5:1 12:1 14:1 20:1 28:1 33:1 38:1 40:1 48:1 53:1 58:1 63:1 
0.1783530178736065 1:337 2:89 3:426 8:1 13:1 14:1 20:1 28:1 32:1 38:1 43:1 48:1 49:1 58:1 62:1 
1.080621372602736 1:254 2:185 3:439 8:1 9:1 18:1 22:1 25:1 33:1 38:1 43:1 48:1 53:1 55:1 63:1 
3.486014966865218 1:-311 2:452 3:141 8:1 9:1 18:1 23:1 25:1 33:1 37:1 42:1 48:1 49:1 55:1 59:1 
0.1249289462953985 1:105 2:350 3:455 7:1 13:1 18:1 20:1 24:1 30:1 36:1 43:1 45:1 53:1 57:1 63:1 
0.5326972875631111 1:-180 2:467 3:287 5:1 9:1 14:1 19:1 27:1 31:1 34:1 43:1 45:1 53:1 57:1 63:1 
0.4083077609048105 1:-128 2:467 3:339 5:1 9:1 14:1 19:1 27:1 31:1 38:1 39:1 48:1 53:1 54:1 63:1 
0.1296403603731846 1:-191 2:470 3:279 6:1 9:1 17:1 22:1 25:1 33:1 37:1 42:1 45:1 53:1 54:1 63:1 
0.5123682460038166 1:-145 2:470 3:325 6:1 9:1 17:1 22:1 25:1 33:1 38:1 40:1 48:1 53:1 58:1 63:1 
0.284184340758134 1:-131 2:470 3:339 6:1 9:1 17:1 22:1 25:1 33:1 38:1 39:1 48:1 53:1 54:1 63:1 
0.674954024295467 1:-100 2:470 3:370 6:1 9:1 17:1 22:1 25:1 33:1 37:1 39:1 45:1 51:1 58:1 60:1 
0.8891088037876719 1:384 2:89 3:473 8:1 13:1 14:1 20:1 28:1 32:1 36:1 42:1 45:1 53:1 58:1 63:1 
0.5409751320311912 1:123 2:350 3:473 7:1 13:1 18:1 20:1 24:1 30:1 36:1 42:1 45:1 53:1 58:1 63:1 
0.373846050361999 1:102 2:371 3:473 4:1 10:1 18:1 23:1 25:1 30:1 36:1 42:1 45:1 53:1 58:1 63:1 
0.505457099060171 1:21 2:452 3:473 8:1 9:1 18:1 23:1 25:1 33:1 36:1 42:1 45:1 53:1 58:1 63:1 
0.1711657126318667 1:8 2:467 3:475 5:1 9:1 14:1 19:1 27:1 31:1 35:1 43:1 48:1 53:1 58:1 62:1 
0.7259190464707619 1:5 2:470 3:475 6:1 9:1 17:1 22:1 25:1 33:1 35:1 43:1 48:1 53:1 58:1 62:1 
0.5807386667059574 1:320 2:185 3:505 8:1 9:1 18:1 22:1 25:1 33:1 38:1 43:1 47:1 49:1 58:1 63:1 
0.3998702803156421 1:19 2:486 3:505 7:1 12:1 14:1 23:1 27:1 30:1 38:1 43:1 47:1 49:1 58:1 63:1 
0.2377128484354418 1:22 2:486 3:508 7:1 12:1 14:1 23:1 27:1 30:1 38:1 39:1 48:1 49:1 58:1 59:1 
0.6005080075864995 1:426 2:89 3:515 8:1 13:1 14:1 20:1 28:1 32:1 38:1 42:1 48:1 53:1 54:1 63:1 
0.5719526904293115 1:63 2:452 3:515 8:1 9:1 18:1 23:1 25:1 33:1 38:1 42:1 48:1 53:1 54:1 63:1 
0.5925589613345026 1:177 2:350 3:527 7:1 13:1 18:1 20:1 24:1 30:1 35:1 43:1 47:1 49:1 58:1 63:1 
0.5925527895476203 1:-305 2:536 3:231 8:1 9:1 18:1 20:1 25:1 33:1 34:1 42:1 45:1 53:1 54:1 63:1 
0.5812555649272406 1:-257 2:536 3:279 8:1 9:1 18:1 20:1 25:1 33:1 37:1 42:1 45:1 53:1 54:1 63:1 
0.4001518213066793 1:-61 2:536 3:475 8:1 9:1 18:1 20:1 25:1 33:1 35:1 43:1 48:1 53:1 58:1 62:1 
0.5717051886771269 1:-31 2:536 3:505 8:1 9:1 18:1 20:1 25:1 33:1 38:1 43:1 47:1 49:1 58:1 63:1 
0.5658434794194367 1:-21 2:536 3:515 8:1 9:1 18:1 20:1 25:1 33:1 38:1 42:1 48:1 53:1 54:1 63:1 
0.6549825864529363 1:-9 2:536 3:527 8:1 9:1 18:1 20:1 25:1 33:1 35:1 43:1 47:1 49:1 58:1 63:1 
2.132081767327756 1:-172 2:183 3:11 8:1 9:1 18:1 23:1 28:1 33:1 34:1 41:1 45:1 53:1 54:1 59:1 
0.5536505936399867 1:4 2:52 3:56 8:1 10:1 18:1 23:1 24:1 33:1 38:1 39:1 48:1 50:1 57:1 59:1 
3.740228041787156 1:27 2:52 3:79 8:1 10:1 18:1 23:1 24:1 33:1 34:1 40:1 48:1 53:1 55:1 60:1 
1.075323545557366 1:93 2:2 3:95 13:1 14:1 22:1 25:1 33:1 38:1 39:1 47:1 52:1 58:1 63:1 
1.226749238853435 1:-20 2:99 3:79 7:1 13:1 18:1 20:1 28:1 33:1 34:1 40:1 48:1 53:1 55:1 60:1 
4 1:-9 2:99 3:90 7:1 13:1 18:1 20:1 28:1 33:1 38:1 40:1 44:1 53:1 58:1 59:1 
0.7434480817229698 1:99 2:2 3:101 13:1 14:1 22:1 25:1 33:1 38:1 41:1 45:1 53:1 58:1 63:1 
2.197222261817385 1:134 2:2 3:136 13:1 14:1 22:1 25:1 33:1 38:1 42:1 45:1 53:1 55:1 60:1 
3.317121390327863 1:92 2:52 3:144 8:1 10:1 18:1 23:1 24:1 33:1 35:1 40:1 44:1 49:1 55:1 63:1 
4 1:-16 2:149 3:133 5:1 13:1 18:1 23:1 28:1 29:1 35:1 40:1 45:1 52:1 55:1 63:1 
0.761649912101054 1:149 2:2 3:151 13:1 14:1 22:1 25:1 33:1 38:1 41:1 48:1 49:1 58:1 60:1 
1.412967284905912 1:158 2:2 3:160 13:1 14:1 22:1 25:1 33:1 35:1 40:1 47:1 50:1 58:1 59:1 
2.669859507565323 1:13 2:149 3:162 5:1 13:1 18:1 23:1 28:1 29:1 37:1 43:1 45:1 49:1 58:1 60:1 
4 1:50 2:149 3:199 5:1 13:1 18:1 23:1 28:1 29:1 34:1 43:1 45:1 49:1 58:1 60:1 
3.335696539010864 1:89 2:83 3:172 5:1 12:1 15:1 20:1 25:1 30:1 37:1 40:1 45:1 53:1 54:1 63:1 
4 1:-45 2:178 3:133 8:1 13:1 18:1 23:1 27:1 33:1 34:1 43:1 45:1 53:1 54:1 63:1 
1.198419960330143 1:-37 2:178 3:141 8:1 13:1 18:1 23:1 27:1 33:1 35:1 39:1 45:1 49:1 55:1 60:1 
0.9478294963507786 1:161 2:21 3:182 4:1 9:1 15:1 20:1 24:1 31:1 38:1 42:1 48:1 52:1 55:1 59:1 
1.374666906117086 1:-63 2:199 3:136 8:1 13:1 15:1 20:1 24:1 29:1 38:1 43:1 44:1 53:1 55:1 59:1 
0.5222144093829902 1:-74 2:115 3:41 5:1 10:1 14:1 23:1 24:1 32:1 35:1 39:1 48:1 53:1 58:1 63:1 
0.3664843856084063 1:-58 2:115 3:57 5:1 10:1 14:1 23:1 24:1 32:1 34:1 43:1 45:1 53:1 57:1 59:1 
3.30149525630751 1:-11 2:115 3:104 5:1 10:1 14:1 23:1 24:1 32:1 35:1 43:1 47:1 49:1 55:1 59:1 
3.597005481836583 1:81 2:150 3:231 8:1 13:1 17:1 19:1 28:1 32:1 34:1 40:1 48:1 49:1 55:1 60:1 
1.569215772320789 1:154 2:115 3:269 5:1 10:1 14:1 23:1 24:1 32:1 35:1 43:1 44:1 49:1 55:1 
1.58744949836083 1:119 2:150 3:269 8:1 13:1 17:1 19:1 28:1 32:1 35:1 43:1 44:1 49:1 55:1 
0.3755352194322716 1:58 2:9 3:67 5:1 13:1 14:1 19:1 28:1 33:1 37:1 42:1 45:1 52:1 54:1 59:1 
3.724959317124747 1:-65 2:80 3:15 4:1 13:1 15:1 20:1 28:1 29:1 38:1 43:1 45:1 50:1 58:1 63:1 
0.1383725471823909 1:-138 2:145 3:7 5:1 13:1 14:1 20:1 28:1 33:1 38:1 43:1 45:1 49:1 56:1 59:1 
2.935076155584126 1:27 2:145 3:172 5:1 13:1 14:1 20:1 28:1 33:1 38:1 40:1 48:1 53:1 58:1 63:1 
1.024992081831782 1:-152 2:152 3:0 5:1 12:1 14:1 19:1 25:1 32:1 49:1 56:1 59:1 
4 1:-141 2:204 3:63 5:1 13:1 14:1 23:1 27:1 33:1 35:1 39:1 48:1 49:1 56:1 63:1 
0.02548244749010821 1:97 2:9 3:106 8:1 13:1 14:1 23:1 28:1 33:1 35:1 43:1 45:1 52:1 58:1 60:1 
0.1738855886078431 1:156 2:9 3:165 8:1 13:1 14:1 23:1 28:1 33:1 38:1 40:1 45:1 49:1 54:1 61:1 
1.6745688515865 1:151 2:14 3:165 8:1 13:1 18:1 23:1 28:1 33:1 38:1 40:1 45:1 49:1 54:1 61:1 
0.4319687885204649 1:-107 2:388 3:281 7:1 10:1 17:1 19:1 28:1 29:1 38:1 43:1 45:1 50:1 58:1 63:1 
3.161577149638867 1:13 2:35 3:48 7:1 13:1 18:1 19:1 25:1 33:1 35:1 43:1 44:1 52:1 57:1 59:1 
1.506170267816588 1:-146 2:147 3:1 8:1 13:1 18:1 23:1 24:1 33:1 48:1 53:1 56:1 63:1 
0.8990947611380244 1:-67 2:147 3:80 8:1 13:1 18:1 23:1 24:1 33:1 35:1 40:1 48:1 49:1 54:1 63:1 
3.14286927843806 1:-111 2:238 3:127 8:1 12:1 18:1 23:1 28:1 33:1 35:1 40:1 48:1 49:1 54:1 63:1 
0.7048449552969509 1:-151 2:278 3:127 5:1 9:1 15:1 22:1 24:1 33:1 35:1 40:1 48:1 49:1 54:1 63:1 
0.8547551257525045 1:277 2:35 3:312 7:1 13:1 18:1 19:1 25:1 33:1 38:1 43:1 47:1 53:1 57:1 60:1 
4 1:144 2:168 3:312 5:1 13:1 14:1 23:1 25:1 29:1 38:1 43:1 47:1 53:1 57:1 60:1 
0.4412675345076151 1:34 2:278 3:312 5:1 9:1 15:1 22:1 24:1 33:1 38:1 43:1 47:1 53:1 57:1 60:1 
1.22597844263586 1:2 2:9 3:11 5:1 11:1 15:1 20:1 28:1 29:1 35:1 41:1 45:1 49:1 56:1 63:1 
0.05724978133797666 1:47 2:7 3:54 5:1 13:1 15:1 20:1 26:1 30:1 37:1 40:1 45:1 53:1 54:1 59:1 
4 1:149 2:9 3:158 5:1 11:1 15:1 20:1 28:1 29:1 37:1 40:1 44:1 52:1 55:1 60:1 
0.767947032547372 1:159 2:7 3:166 5:1 13:1 15:1 20:1 26:1 30:1 35:1 40:1 48:1 53:1 57:1 62:1 
0.4901910727876562 1:-211 2:211 3:0 8:1 9:1 18:1 23:1 24:1 29:1 53:1 55:1 63:1 
2.653346383631884 1:-157 2:211 3:54 8:1 9:1 18:1 23:1 24:1 29:1 37:1 40:1 45:1 53:1 54:1 59:1 
0.9406157779890636 1:228 2:7 3:235 5:1 13:1 15:1 20:1 26:1 30:1 34:1 39:1 48:1 53:1 57:1 63:1 
0.4898911188706998 1:192 2:27 3:219 5:1 13:1 14:1 23:1 24:1 32:1 35:1 43:1 48:1 52:1 58:1 63:1 
4 1:188 2:31 3:219 8:1 9:1 17:1 20:1 26:1 31:1 35:1 43:1 48:1 52:1 58:1 63:1 
3.001531977938064 1:209 2:31 3:240 8:1 9:1 17:1 20:1 26:1 31:1 35:1 43:1 45:1 53:1 58:1 60:1 
1.798459464636026 1:207 2:33 3:240 7:1 11:1 15:1 21:1 28:1 32:1 35:1 43:1 45:1 53:1 58:1 60:1 
1.115029764010515 1:217 2:31 3:248 8:1 9:1 17:1 20:1 26:1 31:1 38:1 43:1 45:1 53:1 58:1 60:1 
1.919830195717632 1:22 2:226 3:248 8:1 12:1 18:1 20:1 27:1 33:1 38:1 43:1 45:1 53:1 58:1 60:1 
2.258877447658421 1:-141 2:311 3:170 5:1 13:1 18:1 20:1 28:1 30:1 38:1 39:1 45:1 49:1 56:1 63:1 
1.096777827792646 1:306 2:7 3:313 5:1 13:1 14:1 20:1 26:1 32:1 38:1 41:1 45:1 50:1 54:1 59:1 
2.079909002875627 1:286 2:27 3:313 5:1 13:1 14:1 23:1 24:1 32:1 38:1 41:1 45:1 50:1 54:1 59:1 
0.1168081756819934 1:87 2:226 3:313 8:1 12:1 18:1 20:1 27:1 33:1 38:1 41:1 45:1 50:1 54:1 59:1 
0.5393220649756026 1:6 2:311 3:317 5:1 13:1 18:1 20:1 28:1 30:1 35:1 39:1 44:1 50:1 58:1 60:1 
3.005701333863992 1:292 2:27 3:319 5:1 13:1 14:1 23:1 24:1 32:1 34:1 43:1 45:1 50:1 58:1 63:1 
0.4936675538078475 1:24 2:297 3:321 4:1 9:1 18:1 19:1 28:1 33:1 35:1 43:1 45:1 53:1 58:1 59:1 
4 1:-3 2:13 3:10 8:1 9:1 16:1 23:1 28:1 29:1 34:1 41:1 45:1 49:1 56:1 61:1 
0.06066115241636693 1:10 2:13 3:23 8:1 9:1 16:1 23:1 28:1 29:1 36:1 42:1 48:1 49:1 55:1 61:1 
4 1:-9 2:32 3:23 8:1 12:1 15:1 22:1 25:1 29:1 36:1 42:1 48:1 49:1 55:1 61:1 
0.5258697167411741 1:-50 2:50 3:0 5:1 13:1 18:1 23:1 24:1 32:1 53:1 55:1 63:1 
4 1:-40 2:50 3:10 5:1 13:1 18:1 23:1 24:1 32:1 34:1 41:1 45:1 49:1 56:1 61:1 
4 1:-35 2:50 3:15 5:1 13:1 18:1 23:1 24:1 32:1 36:1 41:1 48:1 49:1 58:1 63:1 
4 1:49 2:32 3:81 8:1 12:1 15:1 22:1 25:1 29:1 38:1 42:1 48:1 53:1 54:1 60:1 
1.950207096752978 1:31 2:50 3:81 5:1 13:1 18:1 23:1 24:1 32:1 38:1 42:1 48:1 53:1 54:1 60:1 
4 1:-94 2:104 3:10 5:1 13:1 18:1 22:1 24:1 30:1 34:1 41:1 45:1 49:1 56:1 61:1 
2.273734103579239 1:132 2:28 3:160 5:1 11:1 18:1 23:1 27:1 30:1 38:1 42:1 45:1 52:1 58:1 63:1 
2.014008657397818 1:151 2:12 3:163 5:1 13:1 14:1 21:1 28:1 33:1 38:1 42:1 48:1 49:1 54:1 60:1 
0.2776870608410421 1:64 2:99 3:163 8:1 13:1 15:1 22:1 25:1 33:1 38:1 42:1 48:1 49:1 54:1 60:1 
3.225141951478173 1:156 2:20 3:176 8:1 13:1 14:1 22:1 28:1 33:1 38:1 39:1 45:1 49:1 58:1 63:1 
4 1:148 2:28 3:176 5:1 11:1 18:1 23:1 27:1 30:1 38:1 39:1 45:1 49:1 58:1 63:1 
4 1:72 2:104 3:176 5:1 13:1 18:1 22:1 24:1 30:1 38:1 39:1 45:1 49:1 58:1 63:1 
3.40612915036301 1:151 2:28 3:179 5:1 11:1 18:1 23:1 27:1 30:1 38:1 39:1 48:1 49:1 58:1 59:1 
1.591345268410341 1:155 2:32 3:187 8:1 12:1 15:1 22:1 25:1 29:1 34:1 43:1 48:1 49:1 58:1 59:1 
2.795454461725729 1:166 2:28 3:194 5:1 11:1 18:1 23:1 27:1 30:1 35:1 43:1 48:1 53:1 54:1 59:1 
1.824513386495921 1:144 2:50 3:194 5:1 13:1 18:1 23:1 24:1 32:1 35:1 43:1 48:1 53:1 54:1 59:1 
1.675217040398622 1:193 2:12 3:205 5:1 13:1 14:1 21:1 28:1 33:1 37:1 42:1 48:1 49:1 58:1 63:1 
4 1:179 2:26 3:205 8:1 9:1 15:1 23:1 26:1 33:1 37:1 42:1 48:1 49:1 58:1 63:1 
1.690042439188391 1:173 2:32 3:205 8:1 12:1 15:1 22:1 25:1 29:1 37:1 42:1 48:1 49:1 58:1 63:1 
3.239805202979089 1:230 2:12 3:242 5:1 13:1 14:1 21:1 28:1 33:1 37:1 40:1 48:1 53:1 54:1 62:1 
1.539091965873318 1:-241 2:251 3:10 8:1 10:1 15:1 23:1 24:1 29:1 34:1 41:1 45:1 49:1 56:1 61:1 
4 1:-236 2:251 3:15 8:1 10:1 15:1 23:1 24:1 29:1 36:1 41:1 48:1 49:1 58:1 63:1 
2.45373388897465 1:-75 2:251 3:176 8:1 10:1 15:1 23:1 24:1 29:1 38:1 39:1 45:1 49:1 58:1 63:1 
1.128605336665397 1:245 2:12 3:257 5:1 13:1 14:1 21:1 28:1 33:1 34:1 42:1 48:1 53:1 58:1 59:1 
2.571717640322665 1:-80 2:267 3:187 8:1 9:1 15:1 22:1 25:1 31:1 34:1 43:1 48:1 49:1 58:1 59:1 
3.677117434160968 1:-260 2:270 3:10 6:1 12:1 15:1 19:1 28:1 29:1 34:1 41:1 45:1 49:1 56:1 61:1 
2.182578582865079 1:-189 2:270 3:81 6:1 12:1 15:1 19:1 28:1 29:1 38:1 42:1 48:1 53:1 54:1 60:1 
1.465409021446179 1:-110 2:270 3:160 6:1 12:1 15:1 19:1 28:1 29:1 38:1 42:1 45:1 52:1 58:1 63:1 
2.397594191693306 1:264 2:12 3:276 5:1 13:1 14:1 21:1 28:1 33:1 34:1 43:1 45:1 52:1 58:1 59:1 
0.7526876509796777 1:226 2:50 3:276 5:1 13:1 18:1 23:1 24:1 32:1 34:1 43:1 45:1 52:1 58:1 59:1 
0.4453240692058945 1:172 2:104 3:276 5:1 13:1 18:1 22:1 24:1 30:1 34:1 43:1 45:1 52:1 58:1 59:1 
4 1:275 2:12 3:287 5:1 13:1 14:1 21:1 28:1 33:1 36:1 42:1 45:1 53:1 58:1 63:1 
4 1:261 2:26 3:287 8:1 9:1 15:1 23:1 26:1 33:1 36:1 42:1 45:1 53:1 58:1 63:1 
1.011935676749901 1:188 2:99 3:287 8:1 13:1 15:1 22:1 25:1 33:1 36:1 42:1 45:1 53:1 58:1 63:1 
0.3718354026702341 1:183 2:104 3:287 5:1 13:1 18:1 22:1 24:1 30:1 36:1 42:1 45:1 53:1 58:1 63:1 
2.634047064279813 1:-35 2:292 3:257 8:1 13:1 18:1 23:1 27:1 33:1 34:1 42:1 48:1 53:1 58:1 59:1 
1.224486904174557 1:293 2:13 3:306 8:1 9:1 16:1 23:1 28:1 29:1 37:1 43:1 45:1 49:1 56:1 63:1 
4 1:286 2:20 3:306 8:1 13:1 14:1 22:1 28:1 33:1 37:1 43:1 45:1 49:1 56:1 63:1 
1.245701882480092 1:39 2:267 3:306 8:1 9:1 15:1 22:1 25:1 31:1 37:1 43:1 45:1 49:1 56:1 63:1 
2.89854645870671 1:22 2:284 3:306 7:1 13:1 15:1 22:1 25:1 33:1 37:1 43:1 45:1 49:1 56:1 63:1 
1.004222741456716 1:-121 2:308 3:187 5:1 13:1 14:1 23:1 27:1 33:1 34:1 43:1 48:1 49:1 58:1 59:1 
1.274619723615342 1:-66 2:308 3:242 5:1 13:1 14:1 23:1 27:1 33:1 37:1 40:1 48:1 53:1 54:1 62:1 
1.88137343846481 1:-51 2:308 3:257 5:1 13:1 14:1 23:1 27:1 33:1 34:1 42:1 48:1 53:1 58:1 59:1 
0.5530177026136422 1:-32 2:308 3:276 5:1 13:1 14:1 23:1 27:1 33:1 34:1 43:1 45:1 52:1 58:1 59:1 
2.84539579491604 1:308 2:8 3:316 8:1 10:1 14:1 20:1 28:1 29:1 35:1 43:1 45:1 49:1 56:1 59:1 
0.9202155491335742 1:290 2:26 3:316 8:1 9:1 15:1 23:1 26:1 33:1 35:1 43:1 45:1 49:1 56:1 59:1 
0.7975796071327117 1:-155 2:318 3:163 5:1 13:1 14:1 19:1 28:1 31:1 38:1 42:1 48:1 49:1 54:1 60:1 
1.314628333559742 1:-131 2:318 3:187 5:1 13:1 14:1 19:1 28:1 31:1 34:1 43:1 48:1 49:1 58:1 59:1 
4 1:-76 2:318 3:242 5:1 13:1 14:1 19:1 28:1 31:1 37:1 40:1 48:1 53:1 54:1 62:1 
2.97865436567107 1:-31 2:318 3:287 5:1 13:1 14:1 19:1 28:1 31:1 36:1 42:1 45:1 53:1 58:1 63:1 
0.2999248346354439 1:-12 2:318 3:306 5:1 13:1 14:1 19:1 28:1 31:1 37:1 43:1 45:1 49:1 56:1 63:1 
0.7126848672024808 1:-311 2:321 3:10 6:1 9:1 18:1 23:1 25:1 34:1 41:1 45:1 49:1 56:1 61:1 
1.069196752661312 1:-306 2:321 3:15 6:1 9:1 18:1 23:1 25:1 36:1 41:1 48:1 49:1 58:1 63:1 
3.029622623438786 1:-15 2:321 3:306 6:1 9:1 18:1 23:1 25:1 37:1 43:1 45:1 49:1 56:1 63:1 
4 1:-106 2:125 3:19 5:1 13:1 18:1 22:1 28:1 29:1 38:1 42:1 48:1 53:1 55:1 63:1 
3.927063759119677 1:-187 2:206 3:19 8:1 10:1 18:1 22:1 28:1 33:1 38:1 42:1 48:1 53:1 55:1 63:1 
4 1:-297 2:316 3:19 7:1 9:1 15:1 23:1 28:1 33:1 38:1 42:1 48:1 53:1 55:1 63:1 
3.603860542429836 1:273 2:61 3:334 4:1 11:1 15:1 20:1 25:1 33:1 38:1 43:1 47:1 53:1 54:1 60:1 
0.4553712120659035 1:254 2:80 3:334 4:1 13:1 15:1 22:1 28:1 31:1 38:1 43:1 47:1 53:1 54:1 60:1 
1.947128745448053 1:251 2:83 3:334 6:1 12:1 18:1 19:1 28:1 33:1 38:1 43:1 47:1 53:1 54:1 60:1 
1.750973110756914 1:161 2:173 3:334 4:1 9:1 15:1 22:1 28:1 30:1 38:1 43:1 47:1 53:1 54:1 60:1 
1.792748427422784 1:18 2:316 3:334 7:1 9:1 15:1 23:1 28:1 33:1 38:1 43:1 47:1 53:1 54:1 60:1 
2.03447398499864 1:299 2:80 3:379 4:1 13:1 15:1 22:1 28:1 31:1 35:1 43:1 45:1 49:1 58:1 59:1 
0.6614171256027542 1:254 2:125 3:379 5:1 13:1 18:1 22:1 28:1 29:1 35:1 43:1 45:1 49:1 58:1 59:1 
0.959258135613634 1:177 2:202 3:379 5:1 13:1 14:1 23:1 25:1 33:1 35:1 43:1 45:1 49:1 58:1 59:1 
4 1:-423 2:442 3:19 8:1 12:1 15:1 22:1 25:1 30:1 38:1 42:1 48:1 53:1 55:1 63:1 
2.274794286191302 1:387 2:59 3:446 8:1 13:1 14:1 20:1 26:1 30:1 37:1 40:1 45:1 53:1 54:1 63:1 
0.397989064959442 1:366 2:80 3:446 4:1 13:1 15:1 22:1 28:1 31:1 37:1 40:1 45:1 53:1 54:1 63:1 
0.2813733313829257 1:363 2:83 3:446 6:1 12:1 18:1 19:1 28:1 33:1 37:1 40:1 45:1 53:1 54:1 63:1 
0.5179058884228622 1:309 2:137 3:446 8:1 13:1 15:1 23:1 27:1 33:1 37:1 40:1 45:1 53:1 54:1 63:1 
0.4251098525065871 1:4 2:442 3:446 8:1 12:1 15:1 22:1 25:1 30:1 37:1 40:1 45:1 53:1 54:1 63:1 
0.5733882468988621 1:-162 2:496 3:334 8:1 10:1 15:1 23:1 25:1 33:1 38:1 43:1 47:1 53:1 54:1 60:1 
0.3734748789451937 1:-50 2:496 3:446 8:1 10:1 15:1 23:1 25:1 33:1 37:1 40:1 45:1 53:1 54:1 63:1 
0.975180542703949 1:453 2:47 3:500 8:1 10:1 14:1 20:1 24:1 31:1 38:1 40:1 48:1 53:1 54:1 60:1 
0.5183121166626913 1:327 2:173 3:500 4:1 9:1 15:1 22:1 28:1 30:1 38:1 40:1 48:1 53:1 54:1 60:1 
2.294699225616657 1:294 2:206 3:500 8:1 10:1 18:1 22:1 28:1 33:1 38:1 40:1 48:1 53:1 54:1 60:1 
1.099081674240147 1:263 2:237 3:500 7:1 13:1 15:1 23:1 28:1 33:1 38:1 40:1 48:1 53:1 54:1 60:1 
1.526114668178624 1:190 2:310 3:500 5:1 13:1 15:1 22:1 24:1 32:1 38:1 40:1 48:1 53:1 54:1 60:1 
0.8145070316868543 1:-57 2:58 3:1 8:1 13:1 15:1 22:1 25:1 31:1 48:1 53:1 55:1 63:1 
2.186639255897596 1:-94 2:225 3:131 4:1 13:1 15:1 22:1 25:1 33:1 38:1 39:1 48:1 53:1 54:1 59:1 
1.794974874857502 1:268 2:61 3:329 6:1 12:1 15:1 19:1 28:1 33:1 38:1 39:1 45:1 53:1 58:1 59:1 
3.585907252175275 1:24 2:67 3:91 8:1 13:1 18:1 22:1 25:1 32:1 35:1 43:1 47:1 53:1 54:1 63:1 
4 1:-95 2:116 3:21 8:1 13:1 17:1 23:1 27:1 30:1 38:1 39:1 48:1 53:1 54:1 59:1 
2.002787051086244 1:-68 2:116 3:48 8:1 13:1 17:1 23:1 27:1 30:1 34:1 40:1 47:1 52:1 54:1 60:1 
4 1:-114 2:135 3:21 8:1 10:1 15:1 23:1 27:1 30:1 38:1 39:1 48:1 53:1 54:1 59:1 
0.1612696169475523 1:-104 2:152 3:48 4:1 13:1 17:1 23:1 28:1 30:1 34:1 40:1 47:1 52:1 54:1 60:1 
0.8228471412327857 1:-61 2:152 3:91 4:1 13:1 17:1 23:1 28:1 30:1 35:1 43:1 47:1 53:1 54:1 63:1 
2.797926903151482 1:-161 2:209 3:48 5:1 13:1 18:1 20:1 28:1 30:1 34:1 40:1 47:1 52:1 54:1 60:1 
1.214857214578772 1:-240 2:261 3:21 5:1 13:1 18:1 22:1 28:1 30:1 38:1 39:1 48:1 53:1 54:1 59:1 
0.6915322632520178 1:-353 2:444 3:91 8:1 10:1 18:1 20:1 28:1 33:1 35:1 43:1 47:1 53:1 54:1 63:1 
1.308424256952858 1:241 2:67 3:308 5:1 13:1 18:1 20:1 25:1 30:1 36:1 42:1 48:1 50:1 58:1 63:1 
4 1:140 2:168 3:308 8:1 12:1 18:1 23:1 24:1 30:1 36:1 42:1 48:1 50:1 58:1 63:1 
3.737905408659808 1:136 2:172 3:308 8:1 9:1 15:1 23:1 28:1 32:1 36:1 42:1 48:1 50:1 58:1 63:1 
4 1:87 2:221 3:308 8:1 13:1 15:1 19:1 27:1 33:1 36:1 42:1 48:1 50:1 58:1 63:1 
0.5239333706383562 1:43 2:265 3:308 8:1 13:1 14:1 20:1 28:1 33:1 36:1 42:1 48:1 50:1 58:1 63:1 
0.04542542001692473 1:-77 2:385 3:308 4:1 9:1 15:1 23:1 28:1 33:1 36:1 42:1 48:1 50:1 58:1 63:1 
2.474713119710634 1:138 2:255 3:393 4:1 10:1 18:1 23:1 28:1 30:1 34:1 43:1 44:1 52:1 55:1 63:1 
0.9577199499808572 1:61 2:332 3:393 8:1 13:1 15:1 23:1 27:1 33:1 34:1 43:1 44:1 52:1 55:1 63:1 
0.001236850385168589 1:66 2:332 3:398 8:1 13:1 15:1 23:1 27:1 33:1 35:1 43:1 47:1 50:1 57:1 63:1 
1.506869794829813 1:-104 2:106 3:2 8:1 10:1 18:1 20:1 28:1 33:1 43:1 48:1 52:1 58:1 59:1 
0.8716711126065183 1:-161 2:163 3:2 8:1 13:1 14:1 19:1 25:1 30:1 43:1 48:1 52:1 58:1 59:1 
3.945758156594461 1:-122 2:180 3:58 8:1 12:1 18:1 19:1 28:1 29:1 34:1 40:1 45:1 52:1 54:1 62:1 
2.917362318868402 1:-159 2:217 3:58 7:1 10:1 18:1 23:1 27:1 32:1 34:1 40:1 45:1 52:1 54:1 62:1 
0.6143147905295721 1:-266 2:268 3:2 5:1 13:1 15:1 22:1 25:1 30:1 43:1 48:1 52:1 58:1 59:1 
1.240000795609669 1:229 2:1 3:230 18:1 20:1 28:1 30:1 38:1 39:1 48:1 52:1 54:1 59:1 
2.635508085539611 1:203 2:27 3:230 4:1 9:1 15:1 19:1 25:1 33:1 38:1 39:1 48:1 52:1 54:1 59:1 
0.9413890766495251 1:112 2:118 3:230 7:1 13:1 15:1 19:1 27:1 33:1 38:1 39:1 48:1 52:1 54:1 59:1 
4 1:2 2:2 3:4 13:1 14:1 20:1 28:1 29:1 34:1 41:1 45:1 49:1 56:1 60:1 
4 1:-6 2:6 3:0 5:1 13:1 14:1 20:1 28:1 29:1 49:1 56:1 60:1 
4 1:-6 2:10 3:4 5:1 13:1 14:1 20:1 28:1 29:1 34:1 41:1 45:1 49:1 56:1 60:1 
3.334024000456859 1:10 2:2 3:12 13:1 14:1 20:1 28:1 29:1 34:1 41:1 45:1 49:1 56:1 63:1 
0.07289241387752518 1:2 2:10 3:12 5:1 13:1 14:1 20:1 28:1 29:1 34:1 41:1 45:1 49:1 56:1 63:1 
2.712533638893413 1:212 2:14 3:226 5:1 13:1 14:1 23:1 27:1 30:1 34:1 41:1 45:1 53:1 56:1 60:1 
1.668540626434479 1:-220 2:228 3:8 5:1 13:1 18:1 20:1 28:1 29:1 34:1 41:1 45:1 49:1 56:1 60:1 
0.1505821244235307 1:284 2:2 3:286 13:1 14:1 20:1 28:1 29:1 37:1 39:1 45:1 49:1 56:1 60:1 
1.196141205583899 1:280 2:6 3:286 5:1 13:1 14:1 20:1 28:1 29:1 37:1 39:1 45:1 49:1 56:1 60:1 
0.7107180907998139 1:-288 2:292 3:4 5:1 13:1 14:1 20:1 28:1 29:1 34:1 41:1 45:1 49:1 56:1 60:1 
0.538579585498837 1:-71 2:292 3:221 5:1 13:1 14:1 20:1 28:1 29:1 38:1 39:1 45:1 53:1 54:1 61:1 
0.5825843248691766 1:-296 2:296 3:0 5:1 13:1 14:1 23:1 27:1 30:1 49:1 56:1 60:1 
3.12551739338982 1:-66 2:296 3:230 5:1 13:1 14:1 23:1 27:1 30:1 38:1 41:1 45:1 49:1 56:1 63:1 
1.758974056314475 1:414 2:14 3:428 5:1 13:1 14:1 23:1 27:1 30:1 34:1 42:1 48:1 53:1 55:1 63:1 
0.4705888558076804 1:137 2:292 3:429 5:1 13:1 14:1 20:1 28:1 29:1 37:1 43:1 48:1 50:1 58:1 61:1 
0.3203540873765732 1:429 2:2 3:431 13:1 14:1 20:1 28:1 29:1 38:1 43:1 45:1 51:1 58:1 60:1 
0.8785944209391068 1:421 2:10 3:431 5:1 13:1 14:1 20:1 28:1 29:1 38:1 43:1 45:1 51:1 58:1 60:1 
0.4706142409883709 1:199 2:232 3:431 5:1 13:1 14:1 23:1 27:1 30:1 38:1 43:1 45:1 51:1 58:1 60:1 
0.811057027386804 1:-432 2:432 3:0 8:1 10:1 18:1 23:1 25:1 33:1 49:1 56:1 60:1 
0.08345552930322248 1:-424 2:432 3:8 8:1 10:1 18:1 23:1 25:1 33:1 34:1 41:1 45:1 49:1 56:1 60:1 
0.4258905029601779 1:-420 2:432 3:12 8:1 10:1 18:1 23:1 25:1 33:1 34:1 41:1 45:1 49:1 56:1 63:1 
0.2039003211553281 1:-142 2:432 3:290 8:1 10:1 18:1 23:1 25:1 33:1 34:1 41:1 45:1 49:1 56:1 60:1 
2.535451980647044 1:-1 2:432 3:431 8:1 10:1 18:1 23:1 25:1 33:1 38:1 43:1 45:1 51:1 58:1 60:1 
0.42173912222337 1:426 2:14 3:440 5:1 13:1 14:1 23:1 27:1 30:1 37:1 43:1 45:1 52:1 58:1 61:1 
0.829832630638598 1:212 2:228 3:440 5:1 13:1 18:1 20:1 28:1 29:1 37:1 43:1 45:1 52:1 58:1 61:1 
0.4099538384963561 1:144 2:296 3:440 5:1 13:1 14:1 23:1 27:1 30:1 37:1 43:1 45:1 52:1 58:1 61:1 
0.5080951437233648 1:-222 2:443 3:221 8:1 12:1 18:1 20:1 38:1 39:1 45:1 53:1 54:1 61:1 
0.8742037773401007 1:-12 2:443 3:431 8:1 12:1 18:1 20:1 38:1 43:1 45:1 51:1 58:1 60:1 
4 1:10 2:18 3:28 8:1 13:1 14:1 20:1 27:1 33:1 34:1 43:1 45:1 53:1 54:1 61:1 
1.103523497389151 1:-15 2:16 3:1 8:1 13:1 14:1 23:1 28:1 29:1 48:1 53:1 55:1 63:1 
0.2528566932227034 1:-30 2:31 3:1 8:1 12:1 18:1 19:1 28:1 33:1 48:1 53:1 55:1 63:1 
3.80424855409259 1:-18 2:31 3:13 8:1 12:1 18:1 19:1 28:1 33:1 35:1 41:1 45:1 53:1 54:1 61:1 
2.687099842218624 1:-52 2:53 3:1 8:1 13:1 17:1 23:1 27:1 33:1 48:1 53:1 55:1 63:1 
4 1:-252 2:265 3:13 5:1 13:1 17:1 19:1 28:1 33:1 35:1 41:1 45:1 53:1 54:1 61:1 
3.13608071223571 1:75 2:1 3:76 14:1 23:1 27:1 33:1 38:1 39:1 45:1 49:1 58:1 63:1 
4 1:43 2:51 3:94 5:1 13:1 14:1 23:1 24:1 29:1 38:1 40:1 44:1 53:1 54:1 63:1 
0.3276969424628174 1:223 2:8 3:231 8:1 13:1 14:1 20:1 24:1 31:1 38:1 42:1 48:1 52:1 54:1 63:1 
4 1:11 2:40 3:51 8:1 13:1 18:1 20:1 28:1 29:1 34:1 41:1 45:1 49:1 56:1 63:1 
3.453196965026146 1:6 2:45 3:51 8:1 9:1 14:1 20:1 28:1 29:1 34:1 41:1 45:1 49:1 56:1 63:1 
0.4957133251329016 1:119 2:40 3:159 8:1 13:1 18:1 20:1 28:1 29:1 34:1 43:1 47:1 50:1 54:1 62:1 
0.0133914632375589 1:247 2:49 3:296 5:1 13:1 14:1 20:1 28:1 29:1 38:1 43:1 48:1 50:1 57:1 62:1 
0.3552032745481409 1:243 2:53 3:296 5:1 13:1 14:1 23:1 25:1 30:1 38:1 43:1 48:1 50:1 57:1 62:1 
0.828326892691043 1:-293 2:330 3:37 5:1 13:1 18:1 19:1 28:1 32:1 38:1 42:1 45:1 53:1 58:1 61:1 
1.982649106361443 1:-288 2:330 3:42 5:1 13:1 18:1 19:1 28:1 32:1 38:1 41:1 45:1 49:1 54:1 61:1 
0.3796695011957598 1:-279 2:330 3:51 5:1 13:1 18:1 19:1 28:1 32:1 34:1 41:1 45:1 49:1 56:1 63:1 
4 1:-2 2:111 3:109 8:1 13:1 18:1 23:1 24:1 33:1 38:1 40:1 48:1 53:1 56:1 63:1 
4 1:23 2:111 3:134 8:1 13:1 18:1 23:1 24:1 33:1 37:1 43:1 45:1 53:1 57:1 61:1 
2.134650183172028 1:-59 2:137 3:78 8:1 13:1 17:1 20:1 26:1 29:1 38:1 40:1 48:1 52:1 58:1 63:1 
4 1:-5 2:137 3:132 8:1 13:1 17:1 20:1 26:1 29:1 38:1 39:1 47:1 50:1 58:1 63:1 
1.439793719231994 1:-56 2:139 3:83 7:1 11:1 15:1 19:1 27:1 30:1 38:1 43:1 45:1 52:1 58:1 63:1 
1.998723425842916 1:-67 2:150 3:83 7:1 11:1 15:1 20:1 26:1 33:1 38:1 43:1 45:1 52:1 58:1 63:1 
4 1:-69 2:152 3:83 5:1 11:1 15:1 23:1 24:1 33:1 38:1 43:1 45:1 52:1 58:1 63:1 
0.2281686635440326 1:35 2:152 3:187 5:1 11:1 15:1 23:1 24:1 33:1 37:1 43:1 45:1 50:1 58:1 62:1 
3.171668941270626 1:39 2:152 3:191 5:1 11:1 15:1 23:1 24:1 33:1 35:1 43:1 47:1 53:1 58:1 59:1 
4 1:192 2:1 3:193 14:1 23:1 28:1 30:1 37:1 43:1 48:1 49:1 55:1 62:1 
3.896794014421244 1:-40 2:207 3:167 8:1 13:1 17:1 23:1 28:1 33:1 35:1 43:1 45:1 53:1 57:1 63:1 
0.969182014620342 1:217 2:1 3:218 14:1 23:1 28:1 30:1 38:1 43:1 47:1 50:1 58:1 60:1 
0.2978352250283029 1:86 2:137 3:223 8:1 13:1 17:1 20:1 26:1 29:1 38:1 40:1 44:1 50:1 58:1 59:1 
1.834466242939041 1:84 2:139 3:223 7:1 11:1 15:1 19:1 27:1 30:1 38:1 40:1 44:1 50:1 58:1 59:1 
1.840717713964322 1:77 2:148 3:225 5:1 13:1 17:1 20:1 26:1 30:1 34:1 43:1 45:1 49:1 58:1 62:1 
2.394164206599252 1:-167 2:245 3:78 8:1 13:1 17:1 23:1 28:1 29:1 38:1 40:1 48:1 52:1 58:1 63:1 
0.9802534379027049 1:-162 2:245 3:83 8:1 13:1 17:1 23:1 28:1 29:1 38:1 43:1 45:1 52:1 58:1 63:1 
0.1953275320922531 1:-113 2:245 3:132 8:1 13:1 17:1 23:1 28:1 29:1 38:1 39:1 47:1 50:1 58:1 63:1 
1.174048838093504 1:-111 2:245 3:134 8:1 13:1 17:1 23:1 28:1 29:1 37:1 43:1 45:1 53:1 57:1 61:1 
4 1:296 2:1 3:297 14:1 23:1 28:1 30:1 34:1 42:1 45:1 53:1 58:1 62:1 
3.280416152375855 1:186 2:111 3:297 8:1 13:1 18:1 23:1 24:1 33:1 34:1 42:1 45:1 53:1 58:1 62:1 
2.592788884430159 1:171 2:137 3:308 8:1 13:1 17:1 20:1 26:1 29:1 37:1 43:1 45:1 52:1 56:1 63:1 
1.088632260129337 1:-85 2:310 3:225 5:1 13:1 17:1 23:1 27:1 29:1 34:1 43:1 45:1 49:1 58:1 62:1 
1.841941837354823 1:200 2:137 3:337 8:1 13:1 17:1 20:1 26:1 29:1 35:1 43:1 45:1 53:1 58:1 62:1 
0.7848137347463287 1:27 2:310 3:337 5:1 13:1 17:1 23:1 27:1 29:1 35:1 43:1 45:1 53:1 58:1 62:1 
2.244296543417367 1:229 2:137 3:366 8:1 13:1 17:1 20:1 26:1 29:1 38:1 43:1 45:1 53:1 56:1 60:1 
0.879697241235659 1:218 2:148 3:366 5:1 13:1 17:1 20:1 26:1 30:1 38:1 43:1 45:1 53:1 56:1 60:1 
2.27925739624864 1:214 2:152 3:366 5:1 11:1 15:1 23:1 24:1 33:1 38:1 43:1 45:1 53:1 56:1 60:1 
2.370875750919407 1:-285 2:368 3:83 5:1 13:1 18:1 20:1 28:1 33:1 38:1 43:1 45:1 52:1 58:1 63:1 
2.964317604118521 1:-183 2:368 3:185 5:1 13:1 18:1 20:1 28:1 33:1 38:1 42:1 47:1 50:1 58:1 60:1 
0.4141240507721871 1:-177 2:368 3:191 5:1 13:1 18:1 20:1 28:1 33:1 35:1 43:1 47:1 53:1 58:1 59:1 
1.139738523899072 1:-263 2:372 3:109 5:1 13:1 18:1 20:1 28:1 33:1 38:1 40:1 48:1 53:1 56:1 63:1 
2.658309434222606 1:-238 2:372 3:134 5:1 13:1 18:1 20:1 28:1 33:1 37:1 43:1 45:1 53:1 57:1 61:1 
1.005761025502346 1:-147 2:372 3:225 5:1 13:1 18:1 20:1 28:1 33:1 34:1 43:1 45:1 49:1 58:1 62:1 
1.680880854146908 1:237 2:137 3:374 8:1 13:1 17:1 20:1 26:1 29:1 38:1 41:1 45:1 53:1 56:1 60:1 
3.085313797061727 1:-293 2:376 3:83 5:1 13:1 18:1 20:1 28:1 29:1 38:1 43:1 45:1 52:1 58:1 63:1 
2.04316652263463 1:-183 2:376 3:193 5:1 13:1 18:1 20:1 28:1 29:1 37:1 43:1 48:1 49:1 55:1 62:1 
0.386328292245749 1:256 2:150 3:406 7:1 11:1 15:1 20:1 26:1 33:1 35:1 42:1 48:1 50:1 57:1 59:1 
0.2118804525795002 1:161 2:245 3:406 8:1 13:1 17:1 23:1 28:1 29:1 35:1 42:1 48:1 50:1 57:1 59:1 
1.217126385726296 1:38 2:368 3:406 5:1 13:1 18:1 20:1 28:1 33:1 35:1 42:1 48:1 50:1 57:1 59:1 
1.703213859730427 1:30 2:376 3:406 5:1 13:1 18:1 20:1 28:1 29:1 35:1 42:1 48:1 50:1 57:1 59:1 
1.936225064211911 1:411 2:1 3:412 14:1 23:1 28:1 30:1 34:1 40:1 48:1 53:1 58:1 63:1 
1.581378340824244 1:301 2:111 3:412 8:1 13:1 18:1 23:1 24:1 33:1 34:1 40:1 48:1 53:1 58:1 63:1 
0.5423176129382223 1:275 2:137 3:412 8:1 13:1 17:1 20:1 26:1 29:1 34:1 40:1 48:1 53:1 58:1 63:1 
1.1392618737227 1:260 2:152 3:412 5:1 11:1 15:1 23:1 24:1 33:1 34:1 40:1 48:1 53:1 58:1 63:1 
0.9438409926760655 1:264 2:150 3:414 7:1 11:1 15:1 20:1 26:1 33:1 38:1 43:1 48:1 53:1 58:1 60:1 
4 1:46 2:368 3:414 5:1 13:1 18:1 20:1 28:1 33:1 38:1 43:1 48:1 53:1 58:1 60:1 
0.2926353313876502 1:295 2:137 3:432 8:1 13:1 17:1 20:1 26:1 29:1 38:1 40:1 47:1 53:1 54:1 62:1 
3.477968758511424 1:282 2:150 3:432 7:1 11:1 15:1 20:1 26:1 33:1 38:1 40:1 47:1 53:1 54:1 62:1 
0.5747601000179728 1:64 2:368 3:432 5:1 13:1 18:1 20:1 28:1 33:1 38:1 40:1 47:1 53:1 54:1 62:1 
0.2382577615657525 1:60 2:372 3:432 5:1 13:1 18:1 20:1 28:1 33:1 38:1 40:1 47:1 53:1 54:1 62:1 
0.3878005489926059 1:-336 2:445 3:109 7:1 13:1 18:1 23:1 24:1 32:1 38:1 40:1 48:1 53:1 56:1 63:1 
1.104351202790401 1:-137 2:445 3:308 7:1 13:1 18:1 23:1 24:1 32:1 37:1 43:1 45:1 52:1 56:1 63:1 
2.530330152150276 1:-71 2:445 3:374 7:1 13:1 18:1 23:1 24:1 32:1 38:1 41:1 45:1 53:1 56:1 60:1 
2.54203212512686 1:-31 2:445 3:414 7:1 13:1 18:1 23:1 24:1 32:1 38:1 43:1 48:1 53:1 58:1 60:1 
0.6114948511390635 1:13 2:7 3:20 5:1 13:1 14:1 20:1 26:1 32:1 34:1 42:1 44:1 53:1 56:1 59:1 
4 1:47 2:22 3:69 4:1 13:1 18:1 19:1 24:1 32:1 34:1 42:1 48:1 53:1 58:1 60:1 
1.727378981106299 1:88 2:9 3:97 4:1 11:1 15:1 22:1 25:1 33:1 37:1 43:1 45:1 49:1 55:1 63:1 
1.660816473966599 1:78 2:22 3:100 4:1 13:1 18:1 19:1 24:1 32:1 38:1 39:1 45:1 49:1 57:1 59:1 
1.138573568091154 1:-29 2:126 3:97 4:1 12:1 18:1 19:1 28:1 30:1 37:1 43:1 45:1 49:1 55:1 63:1 
0.1278842544763176 1:178 2:7 3:185 5:1 13:1 14:1 20:1 26:1 32:1 38:1 43:1 45:1 49:1 55:1 63:1 
0.4929032068054655 1:84 2:104 3:188 4:1 12:1 14:1 22:1 25:1 33:1 38:1 39:1 45:1 49:1 56:1 62:1 
1.371177452087589 1:-93 2:190 3:97 5:1 13:1 14:1 22:1 28:1 33:1 37:1 43:1 45:1 49:1 55:1 63:1 
1.518123367141117 1:188 2:13 3:201 7:1 10:1 18:1 19:1 24:1 29:1 38:1 39:1 45:1 53:1 58:1 61:1 
2.37223796734449 1:11 2:190 3:201 5:1 13:1 14:1 22:1 28:1 33:1 38:1 39:1 45:1 53:1 58:1 61:1 
1.049388928376347 1:-135 2:204 3:69 8:1 13:1 18:1 23:1 27:1 33:1 34:1 42:1 48:1 53:1 58:1 60:1 
1.89755585378092 1:-188 2:208 3:20 8:1 12:1 18:1 19:1 24:1 32:1 34:1 42:1 44:1 53:1 56:1 59:1 
4 1:-176 2:208 3:32 8:1 12:1 18:1 19:1 24:1 32:1 38:1 42:1 45:1 53:1 58:1 61:1 
4 1:-220 2:240 3:20 4:1 11:1 15:1 22:1 25:1 29:1 34:1 42:1 44:1 53:1 56:1 59:1 
0.1833813426800988 1:-143 2:240 3:97 4:1 11:1 15:1 22:1 25:1 29:1 37:1 43:1 45:1 49:1 55:1 63:1 
2.112123470321308 1:-208 2:277 3:69 4:1 13:1 14:1 20:1 26:1 30:1 34:1 42:1 48:1 53:1 58:1 60:1 
0.8553182765585902 1:-89 2:277 3:188 4:1 13:1 14:1 20:1 26:1 30:1 38:1 39:1 45:1 49:1 56:1 62:1 
4 1:-249 2:281 3:32 5:1 11:1 15:1 23:1 24:1 29:1 38:1 42:1 45:1 53:1 58:1 61:1 
3.299183772602244 1:-93 2:281 3:188 5:1 11:1 15:1 23:1 24:1 29:1 38:1 39:1 45:1 49:1 56:1 62:1 
0.3649873984047722 1:-84 2:285 3:201 8:1 9:1 14:1 20:1 26:1 30:1 38:1 39:1 45:1 53:1 58:1 61:1 
2.212039499613343 1:-267 2:287 3:20 4:1 11:1 15:1 20:1 26:1 29:1 34:1 42:1 44:1 53:1 56:1 59:1 
0.0112914947081473 1:-88 2:289 3:201 5:1 11:1 15:1 19:1 25:1 31:1 38:1 39:1 45:1 53:1 58:1 61:1 
0.01399437238547722 1:-91 2:292 3:201 6:1 9:1 15:1 21:1 28:1 33:1 38:1 39:1 45:1 53:1 58:1 61:1 
1.060494850178313 1:-105 2:293 3:188 4:1 10:1 16:1 23:1 28:1 29:1 38:1 39:1 45:1 49:1 56:1 62:1 
1.475297886071379 1:-277 2:297 3:20 8:1 13:1 14:1 23:1 25:1 33:1 34:1 42:1 44:1 53:1 56:1 59:1 
1.368438578440657 1:-200 2:297 3:97 8:1 13:1 14:1 23:1 25:1 33:1 37:1 43:1 45:1 49:1 55:1 63:1 
0.05742698723445689 1:-109 2:297 3:188 8:1 13:1 14:1 23:1 25:1 33:1 38:1 39:1 45:1 49:1 56:1 62:1 
1.289498488228933 1:-298 2:318 3:20 8:1 11:1 15:1 20:1 26:1 30:1 34:1 42:1 44:1 53:1 56:1 59:1 
1.859835017089414 1:-249 2:318 3:69 8:1 11:1 15:1 20:1 26:1 30:1 34:1 42:1 48:1 53:1 58:1 60:1 
1.754592769467977 1:-133 2:318 3:185 8:1 11:1 15:1 20:1 26:1 30:1 38:1 43:1 45:1 49:1 55:1 63:1 
0.3595239179345714 1:-222 2:322 3:100 5:1 11:1 15:1 20:1 26:1 30:1 38:1 39:1 45:1 49:1 57:1 59:1 
1.383366686671342 1:-137 2:322 3:185 5:1 11:1 15:1 20:1 26:1 30:1 38:1 43:1 45:1 49:1 55:1 63:1 
2.118910385592512 1:-304 2:324 3:20 5:1 11:1 15:1 20:1 26:1 30:1 34:1 42:1 44:1 53:1 56:1 59:1 
0.2383004821606492 1:-224 2:324 3:100 5:1 11:1 15:1 20:1 26:1 30:1 38:1 39:1 45:1 49:1 57:1 59:1 
0.9676162095983389 1:-296 2:328 3:32 5:1 11:1 15:1 23:1 25:1 29:1 38:1 42:1 45:1 53:1 58:1 61:1 
1.488659816538603 1:132 2:208 3:340 8:1 12:1 18:1 19:1 24:1 32:1 35:1 43:1 48:1 53:1 55:1 63:1 
0.1094350800644424 1:128 2:212 3:340 4:1 9:1 17:1 20:1 24:1 33:1 35:1 43:1 48:1 53:1 55:1 63:1 
0.1892660959483383 1:20 2:320 3:340 5:1 11:1 15:1 20:1 26:1 30:1 35:1 43:1 48:1 53:1 55:1 63:1 
3.321096944973552 1:12 2:328 3:340 5:1 11:1 15:1 23:1 25:1 29:1 35:1 43:1 48:1 53:1 55:1 63:1 
1.068170038119592 1:139 2:204 3:343 8:1 13:1 18:1 23:1 27:1 33:1 38:1 43:1 45:1 53:1 54:1 59:1 
2.149491393890662 1:51 2:292 3:343 6:1 9:1 15:1 21:1 28:1 33:1 38:1 43:1 45:1 53:1 54:1 59:1 
0.5316316474841631 1:27 2:316 3:343 4:1 11:1 18:1 20:1 26:1 30:1 38:1 43:1 45:1 53:1 54:1 59:1 
2.374604052386289 1:-281 2:350 3:69 7:1 10:1 18:1 19:1 24:1 29:1 34:1 42:1 48:1 53:1 58:1 60:1 
3.03276517495395 1:41 2:0 3:41 22:1 27:1 30:1 38:1 43:1 45:1 53:1 58:1 62:1 
4 1:49 2:0 3:49 22:1 27:1 30:1 34:1 43:1 44:1 49:1 58:1 59:1 
0.3364186378470906 1:271 2:0 3:271 22:1 27:1 30:1 35:1 42:1 48:1 49:1 54:1 63:1 
4 1:196 2:19 3:215 8:1 13:1 14:1 20:1 28:1 33:1 35:1 43:1 47:1 49:1 55:1 
0.1453764116238285 1:154 2:61 3:215 8:1 13:1 15:1 23:1 28:1 29:1 35:1 43:1 47:1 49:1 55:1 
3.922465725152033 1:68 2:147 3:215 4:1 9:1 15:1 23:1 24:1 33:1 35:1 43:1 47:1 49:1 55:1 
1.013139689609279 1:223 2:14 3:237 8:1 12:1 15:1 19:1 28:1 33:1 35:1 40:1 45:1 49:1 58:1 63:1 
4 1:-2 2:12 3:10 5:1 13:1 14:1 20:1 28:1 32:1 34:1 41:1 45:1 49:1 56:1 60:1 
2.385669025656224 1:8 2:46 3:54 8:1 13:1 15:1 23:1 28:1 33:1 38:1 43:1 48:1 52:1 54:1 59:1 
4 1:4 2:50 3:54 8:1 13:1 18:1 23:1 28:1 33:1 38:1 43:1 48:1 52:1 54:1 59:1 
0.8324627420571041 1:-60 2:60 3:0 4:1 10:1 18:1 23:1 24:1 32:1 53:1 55:1 63:1 
3.263051236082098 1:70 2:50 3:120 8:1 13:1 18:1 23:1 28:1 33:1 35:1 40:1 45:1 53:1 58:1 62:1 
0.6536227134313867 1:-43 2:163 3:120 8:1 9:1 15:1 22:1 25:1 33:1 35:1 40:1 45:1 53:1 58:1 62:1 
1.026554412522121 1:111 2:83 3:194 8:1 13:1 15:1 23:1 28:1 33:1 35:1 43:1 45:1 53:1 58:1 62:1 
1.316309174168691 1:178 2:18 3:196 7:1 10:1 18:1 23:1 24:1 33:1 35:1 43:1 48:1 52:1 58:1 59:1 
1.890159347427538 1:150 2:46 3:196 8:1 13:1 15:1 23:1 28:1 33:1 35:1 43:1 48:1 52:1 58:1 59:1 
0.6341250024604248 1:113 2:83 3:196 8:1 13:1 15:1 23:1 28:1 33:1 35:1 43:1 48:1 52:1 58:1 59:1 
3.657818522686814 1:122 2:83 3:205 8:1 13:1 15:1 23:1 28:1 33:1 35:1 43:1 48:1 53:1 57:1 63:1 
1.202023932488427 1:-21 2:215 3:194 7:1 13:1 15:1 22:1 25:1 33:1 35:1 43:1 45:1 53:1 58:1 62:1 
4 1:42 2:34 3:76 8:1 13:1 15:1 23:1 28:1 33:1 38:1 42:1 44:1 49:1 57:1 63:1 
2.803471778414736 1:126 2:12 3:138 5:1 13:1 14:1 20:1 28:1 32:1 35:1 41:1 47:1 53:1 57:1 63:1 
1.336642651922351 1:69 2:69 3:138 4:1 9:1 15:1 23:1 27:1 29:1 35:1 41:1 47:1 53:1 57:1 63:1 
3.302250733862392 1:31 2:107 3:138 7:1 9:1 15:1 23:1 24:1 32:1 35:1 41:1 47:1 53:1 57:1 63:1 
4 1:-60 2:198 3:138 7:1 12:1 14:1 20:1 28:1 33:1 35:1 41:1 47:1 53:1 57:1 63:1 
4 1:-184 2:215 3:31 4:1 9:1 15:1 22:1 25:1 33:1 37:1 40:1 47:1 53:1 55:1 61:1 
3.067987420898315 1:29 2:198 3:227 7:1 12:1 14:1 20:1 28:1 33:1 38:1 43:1 47:1 53:1 57:1 62:1 
1.121386171965634 1:260 2:8 3:268 8:1 10:1 14:1 20:1 28:1 29:1 35:1 43:1 45:1 49:1 56:1 63:1 
0.6167418397519219 1:-194 2:270 3:76 5:1 13:1 14:1 23:1 28:1 32:1 38:1 42:1 44:1 49:1 57:1 63:1 
1.840645634684622 1:280 2:8 3:288 8:1 10:1 14:1 20:1 28:1 29:1 38:1 42:1 47:1 50:1 55:1 60:1 
4 1:300 2:8 3:308 8:1 10:1 14:1 20:1 28:1 29:1 38:1 42:1 48:1 53:1 58:1 60:1 
1.990101737491126 1:271 2:42 3:313 7:1 10:1 18:1 22:1 28:1 33:1 38:1 40:1 45:1 52:1 58:1 59:1 
0.8539753441762041 1:115 2:198 3:313 7:1 12:1 14:1 20:1 28:1 33:1 38:1 40:1 45:1 52:1 58:1 59:1 
0.6000360051703418 1:98 2:215 3:313 4:1 9:1 15:1 22:1 25:1 33:1 38:1 40:1 45:1 52:1 58:1 59:1 
0.2254427184880988 1:64 2:249 3:313 5:1 13:1 17:1 21:1 27:1 29:1 38:1 40:1 45:1 52:1 58:1 59:1 
0.0697964409055945 1:43 2:270 3:313 5:1 13:1 14:1 23:1 28:1 32:1 38:1 40:1 45:1 52:1 58:1 59:1 
2.833700395677377 1:31 2:282 3:313 5:1 13:1 14:1 22:1 28:1 33:1 38:1 40:1 45:1 52:1 58:1 59:1 
2.125432656280307 1:85 2:8 3:93 8:1 10:1 14:1 20:1 28:1 31:1 38:1 39:1 45:1 53:1 55:1 63:1 
1.534901363574586 1:82 2:11 3:93 6:1 10:1 18:1 19:1 24:1 29:1 38:1 39:1 45:1 53:1 55:1 63:1 
4 1:16 2:87 3:103 8:1 13:1 17:1 19:1 27:1 33:1 34:1 41:1 45:1 50:1 58:1 63:1 
3.128120698771006 1:153 2:8 3:161 8:1 10:1 14:1 20:1 28:1 31:1 34:1 42:1 45:1 53:1 57:1 63:1 
1.514111100296896 1:-101 2:221 3:120 8:1 9:1 18:1 19:1 26:1 33:1 38:1 39:1 45:1 49:1 58:1 63:1 
0.5128017643472143 1:-60 2:221 3:161 8:1 9:1 18:1 19:1 26:1 33:1 34:1 42:1 45:1 53:1 57:1 63:1 
2.025693347388374 1:-130 2:223 3:93 8:1 11:1 14:1 23:1 24:1 30:1 38:1 39:1 45:1 53:1 55:1 63:1 
2.819045504482595 1:-103 2:223 3:120 8:1 11:1 14:1 23:1 24:1 30:1 38:1 39:1 45:1 49:1 58:1 63:1 
4 1:-12 2:20 3:8 5:1 13:1 14:1 20:1 28:1 32:1 38:1 43:1 47:1 51:1 55:1 63:1 
4 1:-2 2:20 3:18 5:1 13:1 14:1 20:1 28:1 32:1 34:1 41:1 45:1 49:1 56:1 60:1 
4 1:-118 2:136 3:18 4:1 10:1 15:1 22:1 25:1 33:1 34:1 41:1 45:1 49:1 56:1 60:1 
2.002757444263828 1:152 2:0 3:152 22:1 28:1 29:1 38:1 42:1 45:1 53:1 54:1 63:1 
3.740979616728223 1:108 2:71 3:179 4:1 13:1 15:1 22:1 28:1 32:1 34:1 40:1 48:1 52:1 55:1 63:1 
4 1:238 2:0 3:238 22:1 28:1 29:1 34:1 40:1 48:1 51:1 55:1 63:1 
0.5586887712525722 1:-67 2:246 3:179 8:1 10:1 14:1 20:1 28:1 33:1 34:1 40:1 48:1 52:1 55:1 63:1 
2.533023976879004 1:248 2:0 3:248 22:1 28:1 29:1 34:1 41:1 45:1 53:1 56:1 63:1 
0.9846763272389489 1:245 2:16 3:261 8:1 10:1 14:1 20:1 28:1 29:1 38:1 43:1 45:1 50:1 55:1 60:1 
3.941485909673361 1:190 2:71 3:261 4:1 13:1 15:1 22:1 28:1 32:1 38:1 43:1 45:1 50:1 55:1 60:1 
1.150995858226228 1:100 2:161 3:261 8:1 13:1 18:1 22:1 28:1 32:1 38:1 43:1 45:1 50:1 55:1 60:1 
2.702563820147393 1:304 2:20 3:324 5:1 13:1 14:1 20:1 28:1 32:1 38:1 39:1 45:1 53:1 55:1 63:1 
4 1:85 2:239 3:324 5:1 13:1 18:1 20:1 28:1 30:1 38:1 39:1 45:1 53:1 55:1 63:1 
0.0669149274955162 1:325 2:0 3:325 22:1 28:1 29:1 34:1 40:1 48:1 50:1 58:1 62:1 
2.465027073061614 1:189 2:136 3:325 4:1 10:1 15:1 22:1 25:1 33:1 34:1 40:1 48:1 50:1 58:1 62:1 
0.4214341960297501 1:217 2:161 3:378 8:1 13:1 18:1 22:1 28:1 32:1 34:1 40:1 48:1 53:1 55:1 60:1 
2.800597281638598 1:132 2:246 3:378 8:1 10:1 14:1 20:1 28:1 33:1 34:1 40:1 48:1 53:1 55:1 60:1 
2.419901776138985 1:110 2:50 3:160 4:1 10:1 17:1 23:1 28:1 32:1 38:1 43:1 45:1 53:1 54:1 63:1 
1.077277686107703 1:91 2:69 3:160 7:1 12:1 17:1 23:1 25:1 33:1 38:1 43:1 45:1 53:1 54:1 63:1 
4 1:33 2:127 3:160 5:1 10:1 18:1 20:1 28:1 33:1 38:1 43:1 45:1 53:1 54:1 63:1 
1.256116465128734 1:120 2:50 3:170 4:1 10:1 17:1 23:1 28:1 32:1 38:1 43:1 47:1 53:1 58:1 63:1 
0.02339549204751732 1:-29 2:189 3:160 4:1 10:1 17:1 19:1 28:1 33:1 38:1 43:1 45:1 53:1 54:1 63:1 
4 1:183 2:86 3:269 8:1 12:1 15:1 23:1 27:1 33:1 38:1 42:1 48:1 49:1 58:1 62:1 
0.7471620718225431 1:27 2:242 3:269 4:1 10:1 14:1 20:1 25:1 30:1 38:1 42:1 48:1 49:1 58:1 62:1 
0.5207901111856842 1:99 2:189 3:288 4:1 10:1 17:1 19:1 28:1 33:1 34:1 40:1 48:1 49:1 55:1 60:1 
1.301297464417111 1:70 2:218 3:288 5:1 13:1 14:1 23:1 27:1 32:1 34:1 40:1 48:1 49:1 55:1 60:1 
2.481036949695274 1:-10 2:54 3:44 8:1 12:1 18:1 19:1 25:1 29:1 34:1 43:1 45:1 49:1 54:1 62:1 
0.9991766125316813 1:-143 2:187 3:44 4:1 9:1 18:1 23:1 24:1 33:1 34:1 43:1 45:1 49:1 54:1 62:1 
0.7786491683493427 1:-164 2:208 3:44 4:1 9:1 14:1 23:1 24:1 30:1 34:1 43:1 45:1 49:1 54:1 62:1 
4 1:-1 2:283 3:282 4:1 13:1 18:1 23:1 25:1 32:1 35:1 39:1 48:1 51:1 58:1 60:1 
0.03676180191070055 1:-74 2:356 3:282 4:1 10:1 15:1 23:1 25:1 35:1 39:1 48:1 51:1 58:1 60:1 
3.062387870113387 1:74 2:178 3:252 7:1 13:1 14:1 21:1 25:1 33:1 38:1 39:1 45:1 49:1 56:1 63:1 
4 1:-77 2:88 3:11 8:1 10:1 14:1 23:1 24:1 32:1 34:1 43:1 48:1 53:1 54:1 63:1 
