svm_type c_svc
kernel_type rbf
gamma 0.015873
nr_class 2
total_sv 24333
rho -0.867205
label -1 1
nr_sv 18238 6095
SV
1.543140429715844 1:-90 2:108 3:18 8:1 12:1 18:1 23:1 28:1 29:1 38:1 40:1 48:1 53:1 57:1 60:1 
1.720844481675438 1:-106 2:124 3:18 5:1 13:1 14:1 23:1 28:1 33:1 38:1 40:1 48:1 53:1 57:1 60:1 
0.05138831335088125 1:103 2:75 3:178 5:1 12:1 18:1 23:1 28:1 29:1 34:1 40:1 47:1 49:1 55:1 59:1 
0.04204983143155958 1:-98 2:276 3:178 5:1 13:1 15:1 23:1 24:1 30:1 34:1 40:1 47:1 49:1 55:1 59:1 
2.316073498461921 1:-300 2:318 3:18 8:1 13:1 18:1 19:1 28:1 29:1 38:1 40:1 48:1 53:1 57:1 60:1 
0.1612148833144771 1:248 2:75 3:323 5:1 12:1 18:1 23:1 28:1 29:1 38:1 39:1 48:1 53:1 55:1 63:1 
0.9237922913701483 1:199 2:124 3:323 5:1 13:1 14:1 23:1 28:1 33:1 38:1 39:1 48:1 53:1 55:1 63:1 
3.719718877142021 1:18 2:305 3:323 7:1 13:1 18:1 23:1 28:1 29:1 38:1 39:1 48:1 53:1 55:1 63:1 
3.715285755076804 1:-11 2:22 3:11 8:1 13:1 14:1 23:1 28:1 33:1 34:1 39:1 48:1 53:1 55:1 60:1 
3.537960201231118 1:19 2:22 3:41 8:1 13:1 14:1 23:1 28:1 33:1 34:1 43:1 45:1 50:1 58:1 63:1 
0.9634191023511692 1:21 2:22 3:43 8:1 13:1 14:1 23:1 28:1 33:1 35:1 43:1 45:1 53:1 58:1 63:1 
3.491098558897855 1:-32 2:75 3:43 4:1 10:1 18:1 22:1 25:1 32:1 35:1 43:1 45:1 53:1 58:1 63:1 
0.6335369453831095 1:-97 2:116 3:19 8:1 13:1 15:1 20:1 28:1 30:1 35:1 40:1 48:1 53:1 54:1 61:1 
0.5664507964436996 1:-75 2:116 3:41 8:1 13:1 15:1 20:1 28:1 30:1 34:1 43:1 45:1 50:1 58:1 63:1 
1.039322324969997 1:-222 2:233 3:11 8:1 13:1 15:1 22:1 25:1 29:1 34:1 39:1 48:1 53:1 55:1 60:1 
1.65398035444721 1:-192 2:233 3:41 8:1 13:1 15:1 22:1 25:1 29:1 34:1 43:1 45:1 50:1 58:1 63:1 
0.2510872865820741 1:248 2:75 3:323 4:1 10:1 18:1 22:1 25:1 32:1 38:1 40:1 44:1 53:1 58:1 62:1 
0.6902072559835061 1:-352 2:363 3:11 8:1 9:1 15:1 22:1 25:1 32:1 34:1 39:1 48:1 53:1 55:1 60:1 
2.882252687142548 1:-40 2:363 3:323 8:1 9:1 15:1 22:1 25:1 32:1 38:1 40:1 44:1 53:1 58:1 62:1 
1.258984752897363 1:-7 2:27 3:20 8:1 9:1 15:1 23:1 24:1 33:1 38:1 43:1 45:1 53:1 56:1 63:1 
4 1:-59 2:67 3:8 8:1 12:1 15:1 22:1 25:1 33:1 35:1 40:1 48:1 49:1 56:1 60:1 
4 1:-47 2:67 3:20 8:1 12:1 15:1 22:1 25:1 33:1 38:1 43:1 45:1 53:1 56:1 63:1 
0.6063379119814574 1:92 2:22 3:114 5:1 13:1 18:1 23:1 28:1 29:1 35:1 43:1 45:1 53:1 57:1 60:1 
3.431506323289748 1:47 2:67 3:114 8:1 12:1 15:1 22:1 25:1 33:1 35:1 43:1 45:1 53:1 57:1 60:1 
1.340790638474637 1:125 2:10 3:135 8:1 13:1 14:1 20:1 24:1 31:1 38:1 43:1 45:1 49:1 58:1 63:1 
3.087754294885085 1:122 2:13 3:135 6:1 10:1 14:1 22:1 25:1 33:1 38:1 43:1 45:1 49:1 58:1 63:1 
4 1:113 2:22 3:135 5:1 13:1 18:1 23:1 28:1 29:1 38:1 43:1 45:1 49:1 58:1 63:1 
0.5615254740074285 1:108 2:27 3:135 8:1 9:1 15:1 23:1 24:1 33:1 38:1 43:1 45:1 49:1 58:1 63:1 
4 1:42 2:93 3:135 8:1 9:1 15:1 23:1 28:1 33:1 38:1 43:1 45:1 49:1 58:1 63:1 
0.3123554409335239 1:-119 2:139 3:20 4:1 13:1 18:1 23:1 24:1 33:1 38:1 43:1 45:1 53:1 56:1 63:1 
0.2294261900177724 1:-25 2:139 3:114 4:1 13:1 18:1 23:1 24:1 33:1 35:1 43:1 45:1 53:1 57:1 60:1 
0.6021663281676352 1:116 2:27 3:143 8:1 9:1 15:1 23:1 24:1 33:1 38:1 39:1 48:1 49:1 58:1 60:1 
1.27609304837869 1:76 2:67 3:143 8:1 12:1 15:1 22:1 25:1 33:1 38:1 39:1 48:1 49:1 58:1 60:1 
1.164810367876079 1:-34 2:148 3:114 8:1 10:1 18:1 19:1 25:1 33:1 35:1 43:1 45:1 53:1 57:1 60:1 
2.577973054034327 1:-5 2:148 3:143 8:1 10:1 18:1 19:1 25:1 33:1 38:1 39:1 48:1 49:1 58:1 60:1 
2.062759305618497 1:87 2:67 3:154 8:1 12:1 15:1 22:1 25:1 33:1 38:1 43:1 47:1 49:1 58:1 59:1 
0.5557482437368252 1:61 2:93 3:154 8:1 9:1 15:1 23:1 28:1 33:1 38:1 43:1 47:1 49:1 58:1 59:1 
0.9510690452340573 1:-165 2:173 3:8 8:1 9:1 15:1 22:1 25:1 33:1 35:1 40:1 48:1 49:1 56:1 60:1 
1.181339739998189 1:-130 2:173 3:43 8:1 9:1 15:1 22:1 25:1 33:1 35:1 43:1 44:1 50:1 58:1 63:1 
0.7460895886506643 1:-59 2:173 3:114 8:1 9:1 15:1 22:1 25:1 33:1 35:1 43:1 45:1 53:1 57:1 60:1 
2.705960432479684 1:-30 2:173 3:143 8:1 9:1 15:1 22:1 25:1 33:1 38:1 39:1 48:1 49:1 58:1 60:1 
2.002281531004904 1:-19 2:173 3:154 8:1 9:1 15:1 22:1 25:1 33:1 38:1 43:1 47:1 49:1 58:1 59:1 
0.03655246956634111 1:-177 2:185 3:8 4:1 13:1 14:1 19:1 28:1 30:1 35:1 40:1 48:1 49:1 56:1 60:1 
0.03206483089712406 1:-142 2:185 3:43 4:1 13:1 14:1 19:1 28:1 30:1 35:1 43:1 44:1 50:1 58:1 63:1 
0.6473964098941291 1:-71 2:185 3:114 4:1 13:1 14:1 19:1 28:1 30:1 35:1 43:1 45:1 53:1 57:1 60:1 
2.403026141618207 1:-50 2:185 3:135 4:1 13:1 14:1 19:1 28:1 30:1 38:1 43:1 45:1 49:1 58:1 63:1 
0.3184572898150957 1:-31 2:185 3:154 4:1 13:1 14:1 19:1 28:1 30:1 38:1 43:1 47:1 49:1 58:1 59:1 
0.1312457015699948 1:188 2:10 3:198 8:1 13:1 14:1 20:1 24:1 31:1 35:1 43:1 47:1 53:1 54:1 63:1 
4 1:131 2:67 3:198 8:1 12:1 15:1 22:1 25:1 33:1 35:1 43:1 47:1 53:1 54:1 63:1 
2.841231776493053 1:50 2:148 3:198 8:1 10:1 18:1 19:1 25:1 33:1 35:1 43:1 47:1 53:1 54:1 63:1 
2.560243508031628 1:-30 2:49 3:19 5:1 12:1 17:1 23:1 26:1 30:1 34:1 41:1 45:1 49:1 55:1 63:1 
4 1:-32 2:51 3:19 7:1 11:1 18:1 20:1 28:1 33:1 34:1 41:1 45:1 49:1 55:1 63:1 
3.807016927138359 1:-62 2:81 3:19 8:1 13:1 14:1 23:1 27:1 33:1 34:1 41:1 45:1 49:1 55:1 63:1 
2.111997737815013 1:58 2:24 3:82 5:1 13:1 18:1 23:1 28:1 29:1 38:1 39:1 46:1 52:1 58:1 59:1 
1.633812075320799 1:33 2:49 3:82 5:1 12:1 17:1 23:1 26:1 30:1 38:1 39:1 46:1 52:1 58:1 59:1 
3.244528225565787 1:1 2:81 3:82 8:1 13:1 14:1 23:1 27:1 33:1 38:1 39:1 46:1 52:1 58:1 59:1 
1.665946255185133 1:-61 2:91 3:30 8:1 9:1 14:1 23:1 25:1 31:1 34:1 39:1 48:1 49:1 54:1 59:1 
3.143445565448044 1:-9 2:91 3:82 8:1 9:1 14:1 23:1 25:1 31:1 38:1 39:1 46:1 52:1 58:1 59:1 
0.6273849709339424 1:-87 2:94 3:7 6:1 13:1 15:1 20:1 26:1 30:1 34:1 43:1 48:1 53:1 55:1 60:1 
0.04400415845958394 1:-75 2:94 3:19 6:1 13:1 15:1 20:1 26:1 30:1 34:1 41:1 45:1 49:1 55:1 63:1 
2.363761535197597 1:-72 2:94 3:22 6:1 13:1 15:1 20:1 26:1 30:1 38:1 39:1 45:1 53:1 56:1 63:1 
0.1542000437386882 1:-77 2:96 3:19 5:1 11:1 15:1 20:1 26:1 30:1 34:1 41:1 45:1 49:1 55:1 63:1 
0.245357235181107 1:-16 2:98 3:82 5:1 11:1 15:1 20:1 28:1 29:1 38:1 39:1 46:1 52:1 58:1 59:1 
1.108298675190732 1:83 2:17 3:100 8:1 10:1 14:1 20:1 28:1 29:1 35:1 41:1 45:1 49:1 58:1 59:1 
0.897556590768004 1:60 2:40 3:100 7:1 13:1 18:1 19:1 28:1 33:1 35:1 41:1 45:1 49:1 58:1 59:1 
2.47840075570363 1:19 2:81 3:100 8:1 13:1 14:1 23:1 27:1 33:1 35:1 41:1 45:1 49:1 58:1 59:1 
1.176838323066751 1:9 2:91 3:100 8:1 9:1 14:1 23:1 25:1 31:1 35:1 41:1 45:1 49:1 58:1 59:1 
1.902175752846007 1:-98 2:105 3:7 8:1 9:1 14:1 23:1 28:1 29:1 34:1 43:1 48:1 53:1 55:1 60:1 
2.625997083216558 1:-86 2:105 3:19 8:1 9:1 14:1 23:1 28:1 29:1 34:1 41:1 45:1 49:1 55:1 63:1 
1.960652812587444 1:-75 2:105 3:30 8:1 9:1 14:1 23:1 28:1 29:1 34:1 39:1 48:1 49:1 54:1 59:1 
2.518952452337556 1:90 2:17 3:107 8:1 10:1 14:1 20:1 28:1 29:1 34:1 41:1 48:1 49:1 56:1 59:1 
0.9541353869259266 1:83 2:24 3:107 5:1 13:1 18:1 23:1 28:1 29:1 34:1 41:1 48:1 49:1 56:1 59:1 
0.6970638919141032 1:58 2:49 3:107 5:1 12:1 17:1 23:1 26:1 30:1 34:1 41:1 48:1 49:1 56:1 59:1 
1.867133251904346 1:56 2:51 3:107 7:1 11:1 18:1 20:1 28:1 33:1 34:1 41:1 48:1 49:1 56:1 59:1 
0.04994410516494694 1:30 2:77 3:107 8:1 13:1 15:1 23:1 28:1 29:1 34:1 41:1 48:1 49:1 56:1 59:1 
0.1009998473411489 1:13 2:94 3:107 6:1 13:1 15:1 20:1 26:1 30:1 34:1 41:1 48:1 49:1 56:1 59:1 
0.9018437252067487 1:11 2:96 3:107 5:1 11:1 15:1 20:1 26:1 30:1 34:1 41:1 48:1 49:1 56:1 59:1 
3.34662918772376 1:2 2:105 3:107 8:1 9:1 14:1 23:1 28:1 29:1 34:1 41:1 48:1 49:1 56:1 59:1 
0.651566827366847 1:-90 2:109 3:19 8:1 13:1 14:1 19:1 24:1 30:1 34:1 41:1 45:1 49:1 55:1 63:1 
1.119425835739334 1:-139 2:146 3:7 8:1 9:1 15:1 22:1 25:1 29:1 34:1 43:1 48:1 53:1 55:1 60:1 
0.737590199458859 1:-116 2:146 3:30 8:1 9:1 15:1 22:1 25:1 29:1 34:1 39:1 48:1 49:1 54:1 59:1 
0.8270953850330049 1:-39 2:146 3:107 8:1 9:1 15:1 22:1 25:1 29:1 34:1 41:1 48:1 49:1 56:1 59:1 
0.2517534533834823 1:78 2:81 3:159 8:1 13:1 14:1 23:1 27:1 33:1 35:1 43:1 44:1 49:1 57:1 59:1 
1.42523462406831 1:68 2:91 3:159 8:1 9:1 14:1 23:1 25:1 31:1 35:1 43:1 44:1 49:1 57:1 59:1 
0.692277547603234 1:13 2:146 3:159 8:1 9:1 15:1 22:1 25:1 29:1 35:1 43:1 44:1 49:1 57:1 59:1 
0.4653649044538967 1:-188 2:207 3:19 8:1 12:1 15:1 20:1 28:1 33:1 34:1 41:1 45:1 49:1 55:1 63:1 
2.179209204358114 1:-177 2:207 3:30 8:1 12:1 15:1 20:1 28:1 33:1 34:1 39:1 48:1 49:1 54:1 59:1 
0.07394568474471634 1:-100 2:207 3:107 8:1 12:1 15:1 20:1 28:1 33:1 34:1 41:1 48:1 49:1 56:1 59:1 
0.851034899595829 1:-48 2:207 3:159 8:1 12:1 15:1 20:1 28:1 33:1 35:1 43:1 44:1 49:1 57:1 59:1 
2.613415224848289 1:-199 2:221 3:22 8:1 10:1 18:1 20:1 28:1 29:1 38:1 39:1 45:1 53:1 56:1 63:1 
0.3166533718704626 1:-191 2:221 3:30 8:1 10:1 18:1 20:1 28:1 29:1 34:1 39:1 48:1 49:1 54:1 59:1 
3.858050384653689 1:-139 2:221 3:82 8:1 10:1 18:1 20:1 28:1 29:1 38:1 39:1 46:1 52:1 58:1 59:1 
0.4445874493006498 1:-62 2:221 3:159 8:1 10:1 18:1 20:1 28:1 29:1 35:1 43:1 44:1 49:1 57:1 59:1 
0.4582623845050232 1:-131 2:238 3:107 4:1 13:1 18:1 20:1 26:1 30:1 34:1 41:1 48:1 49:1 56:1 59:1 
4 1:-221 2:240 3:19 8:1 11:1 15:1 20:1 26:1 33:1 34:1 41:1 45:1 49:1 55:1 63:1 
1.703592090737836 1:-81 2:240 3:159 8:1 11:1 15:1 20:1 26:1 33:1 35:1 43:1 44:1 49:1 57:1 59:1 
0.7411511769730914 1:-223 2:242 3:19 5:1 11:1 15:1 23:1 27:1 33:1 34:1 41:1 45:1 49:1 55:1 63:1 
0.2687491595218222 1:-160 2:242 3:82 5:1 11:1 15:1 23:1 27:1 33:1 38:1 39:1 46:1 52:1 58:1 59:1 
0.7648660108881892 1:-135 2:242 3:107 5:1 11:1 15:1 23:1 27:1 33:1 34:1 41:1 48:1 49:1 56:1 59:1 
0.573971625294838 1:30 2:14 3:44 5:1 13:1 18:1 23:1 27:1 30:1 34:1 42:1 45:1 49:1 56:1 63:1 
0.3674791545996411 1:96 2:7 3:103 5:1 13:1 14:1 20:1 26:1 32:1 37:1 40:1 48:1 52:1 58:1 63:1 
0.6986414170353781 1:14 2:25 3:39 5:1 13:1 18:1 21:1 28:1 33:1 38:1 42:1 45:1 49:1 55:1 59:1 
0.1079709644402064 1:13 2:26 3:39 8:1 13:1 16:1 23:1 28:1 30:1 38:1 42:1 45:1 49:1 55:1 59:1 
4 1:-7 2:46 3:39 6:1 13:1 18:1 20:1 25:1 30:1 38:1 42:1 45:1 49:1 55:1 59:1 
0.1407827183730327 1:25 2:26 3:51 8:1 13:1 16:1 23:1 28:1 30:1 35:1 40:1 45:1 53:1 58:1 59:1 
0.02707267082966168 1:38 2:26 3:64 8:1 13:1 16:1 23:1 28:1 30:1 38:1 42:1 45:1 49:1 56:1 60:1 
3.133588124527387 1:-15 2:66 3:51 5:1 13:1 14:1 20:1 28:1 29:1 35:1 40:1 45:1 53:1 58:1 59:1 
0.3244099460553262 1:22 2:46 3:68 6:1 13:1 18:1 20:1 25:1 30:1 34:1 41:1 45:1 49:1 58:1 63:1 
1.254146473587275 1:2 2:66 3:68 5:1 13:1 14:1 20:1 28:1 29:1 34:1 41:1 45:1 49:1 58:1 63:1 
2.749296610836959 1:-35 2:74 3:39 8:1 13:1 18:1 22:1 28:1 33:1 38:1 42:1 45:1 49:1 55:1 59:1 
2.652283587274076 1:-6 2:74 3:68 8:1 13:1 18:1 22:1 28:1 33:1 34:1 41:1 45:1 49:1 58:1 63:1 
1.955309413554601 1:22 2:66 3:88 5:1 13:1 14:1 20:1 28:1 29:1 35:1 40:1 45:1 53:1 58:1 62:1 
0.8232414837063247 1:14 2:74 3:88 8:1 13:1 18:1 22:1 28:1 33:1 35:1 40:1 45:1 53:1 58:1 62:1 
1.725190190238538 1:-81 2:120 3:39 8:1 9:1 14:1 23:1 28:1 29:1 38:1 42:1 45:1 49:1 55:1 59:1 
3.175639743473385 1:-69 2:120 3:51 8:1 9:1 14:1 23:1 28:1 29:1 35:1 40:1 45:1 53:1 58:1 59:1 
1.460148133436685 1:-56 2:120 3:64 8:1 9:1 14:1 23:1 28:1 29:1 38:1 42:1 45:1 49:1 56:1 60:1 
1.815936481749601 1:198 2:26 3:224 8:1 13:1 16:1 23:1 28:1 30:1 35:1 40:1 45:1 53:1 58:1 59:1 
0.1367083939632662 1:181 2:43 3:224 4:1 10:1 14:1 23:1 28:1 31:1 35:1 40:1 45:1 53:1 58:1 59:1 
1.127828501701564 1:-212 2:251 3:39 8:1 9:1 15:1 23:1 24:1 29:1 38:1 42:1 45:1 49:1 55:1 59:1 
0.02270616927054656 1:-200 2:251 3:51 8:1 9:1 15:1 23:1 24:1 29:1 35:1 40:1 45:1 53:1 58:1 59:1 
1.326658456824409 1:-163 2:251 3:88 8:1 9:1 15:1 23:1 24:1 29:1 35:1 40:1 45:1 53:1 58:1 62:1 
4 1:-3 2:11 3:8 8:1 13:1 16:1 23:1 28:1 33:1 35:1 40:1 48:1 53:1 56:1 61:1 
0.7828782557345044 1:-28 2:28 3:0 7:1 10:1 18:1 23:1 24:1 29:1 53:1 55:1 60:1 
1.998111404772789 1:-20 2:28 3:8 7:1 10:1 18:1 23:1 24:1 29:1 35:1 40:1 48:1 53:1 56:1 61:1 
0.7584486604492287 1:-74 2:74 3:0 4:1 10:1 17:1 19:1 28:1 29:1 53:1 55:1 60:1 
0.4013115091851798 1:119 2:11 3:130 8:1 13:1 16:1 23:1 28:1 33:1 38:1 40:1 48:1 50:1 58:1 63:1 
3.086022382931388 1:-157 2:165 3:8 8:1 12:1 14:1 22:1 26:1 33:1 35:1 40:1 48:1 53:1 56:1 61:1 
0.863343135282476 1:-159 2:167 3:8 4:1 11:1 17:1 23:1 28:1 29:1 35:1 40:1 48:1 53:1 56:1 61:1 
0.5602778488897796 1:-177 2:185 3:8 4:1 10:1 17:1 19:1 27:1 33:1 35:1 40:1 48:1 53:1 56:1 61:1 
0.6574492677143665 1:-169 2:185 3:16 4:1 10:1 17:1 19:1 27:1 33:1 38:1 43:1 48:1 49:1 58:1 63:1 
1.472802349720009 1:181 2:11 3:192 8:1 13:1 16:1 23:1 28:1 33:1 38:1 40:1 47:1 52:1 58:1 63:1 
0.2357989433380337 1:118 2:74 3:192 4:1 10:1 17:1 19:1 28:1 29:1 38:1 40:1 47:1 52:1 58:1 63:1 
0.6228367593843973 1:25 2:167 3:192 4:1 11:1 17:1 23:1 28:1 29:1 38:1 40:1 47:1 52:1 58:1 63:1 
1.641853964825083 1:12 2:180 3:192 7:1 12:1 18:1 22:1 24:1 30:1 38:1 40:1 47:1 52:1 58:1 63:1 
0.453984655009429 1:7 2:185 3:192 4:1 10:1 17:1 19:1 27:1 33:1 38:1 40:1 47:1 52:1 58:1 63:1 
0.9477950357563851 1:225 2:11 3:236 8:1 13:1 16:1 23:1 28:1 33:1 34:1 42:1 45:1 53:1 58:1 63:1 
0.1295639848645257 1:162 2:74 3:236 4:1 10:1 17:1 19:1 28:1 29:1 34:1 42:1 45:1 53:1 58:1 63:1 
0.396640855966209 1:69 2:167 3:236 4:1 11:1 17:1 23:1 28:1 29:1 34:1 42:1 45:1 53:1 58:1 63:1 
0.3971615787614524 1:51 2:185 3:236 4:1 10:1 17:1 19:1 27:1 33:1 34:1 42:1 45:1 53:1 58:1 63:1 
0.3041739851983042 1:213 2:58 3:271 7:1 10:1 15:1 22:1 25:1 30:1 34:1 40:1 48:1 53:1 55:1 59:1 
0.3830808963150634 1:197 2:74 3:271 4:1 10:1 17:1 19:1 28:1 29:1 34:1 40:1 48:1 53:1 55:1 59:1 
0.1641457910535797 1:106 2:165 3:271 8:1 12:1 14:1 22:1 26:1 33:1 34:1 40:1 48:1 53:1 55:1 59:1 
2.211017187490564 1:91 2:180 3:271 7:1 12:1 18:1 22:1 24:1 30:1 34:1 40:1 48:1 53:1 55:1 59:1 
4 1:1 2:0 3:1 23:1 28:1 32:1 46:1 53:1 57:1 60:1 
3.082591477997361 1:33 2:0 3:33 23:1 28:1 32:1 38:1 43:1 45:1 52:1 58:1 59:1 
2.967321374881795 1:35 2:0 3:35 23:1 28:1 32:1 35:1 43:1 47:1 49:1 55:1 60:1 
0.4632115463472508 1:272 2:0 3:272 23:1 28:1 32:1 38:1 40:1 47:1 49:1 54:1 63:1 
1.559828452856385 1:300 2:0 3:300 23:1 28:1 32:1 35:1 43:1 47:1 53:1 54:1 59:1 
0.1072374207840518 1:-273 2:306 3:33 4:1 10:1 18:1 19:1 28:1 33:1 38:1 43:1 45:1 52:1 58:1 59:1 
0.9001176149633568 1:-271 2:306 3:35 4:1 10:1 18:1 19:1 28:1 33:1 35:1 43:1 47:1 49:1 55:1 60:1 
2.099442107670017 1:-175 2:306 3:131 4:1 10:1 18:1 19:1 28:1 33:1 34:1 42:1 45:1 49:1 58:1 63:1 
0.2711893384133504 1:-85 2:306 3:221 4:1 10:1 18:1 19:1 28:1 33:1 38:1 42:1 45:1 53:1 57:1 63:1 
0.9480573462254085 1:-42 2:306 3:264 4:1 10:1 18:1 19:1 28:1 33:1 37:1 42:1 47:1 49:1 54:1 62:1 
1.752950137145808 1:-34 2:306 3:272 4:1 10:1 18:1 19:1 28:1 33:1 38:1 40:1 47:1 49:1 54:1 63:1 
1.647211200992551 1:-17 2:306 3:289 4:1 10:1 18:1 19:1 28:1 33:1 34:1 43:1 45:1 53:1 57:1 62:1 
1.214348086323836 1:92 2:306 3:398 4:1 10:1 18:1 19:1 28:1 33:1 35:1 39:1 48:1 52:1 54:1 59:1 
0.09562368865502245 1:98 2:306 3:404 4:1 10:1 18:1 19:1 28:1 33:1 34:1 40:1 48:1 49:1 54:1 63:1 
0.05235618203256388 1:-498 2:499 3:1 8:1 13:1 14:1 22:1 25:1 33:1 46:1 53:1 57:1 60:1 
0.05344476963931233 1:-466 2:499 3:33 8:1 13:1 14:1 22:1 25:1 33:1 38:1 43:1 45:1 52:1 58:1 59:1 
0.06194767620419388 1:-440 2:499 3:59 8:1 13:1 14:1 22:1 25:1 33:1 38:1 42:1 45:1 53:1 54:1 63:1 
0.3573891765798667 1:-356 2:499 3:143 8:1 13:1 14:1 22:1 25:1 33:1 35:1 39:1 45:1 49:1 54:1 63:1 
0.1313197283554837 1:-316 2:499 3:183 8:1 13:1 14:1 22:1 25:1 33:1 38:1 39:1 45:1 52:1 54:1 59:1 
0.07366831669366425 1:-297 2:499 3:202 8:1 13:1 14:1 22:1 25:1 33:1 37:1 42:1 45:1 52:1 58:1 59:1 
0.09879817676134331 1:-278 2:499 3:221 8:1 13:1 14:1 22:1 25:1 33:1 38:1 42:1 45:1 53:1 57:1 63:1 
0.07446132635300959 1:-273 2:499 3:226 8:1 13:1 14:1 22:1 25:1 33:1 37:1 43:1 48:1 49:1 58:1 63:1 
0.07473654335159469 1:-235 2:499 3:264 8:1 13:1 14:1 22:1 25:1 33:1 37:1 42:1 47:1 49:1 54:1 62:1 
0.07675590596670645 1:-210 2:499 3:289 8:1 13:1 14:1 22:1 25:1 33:1 34:1 43:1 45:1 53:1 57:1 62:1 
0.1115872976113562 1:-199 2:499 3:300 8:1 13:1 14:1 22:1 25:1 33:1 35:1 43:1 47:1 53:1 54:1 59:1 
0.1222019057765202 1:-190 2:499 3:309 8:1 13:1 14:1 22:1 25:1 33:1 36:1 39:1 48:1 53:1 57:1 60:1 
0.07820022048236858 1:-174 2:499 3:325 8:1 13:1 14:1 22:1 25:1 33:1 35:1 43:1 47:1 53:1 54:1 59:1 
0.05771005634927591 1:-153 2:499 3:346 8:1 13:1 14:1 22:1 25:1 33:1 34:1 40:1 47:1 53:1 58:1 62:1 
0.08086476565894966 1:-151 2:499 3:348 8:1 13:1 14:1 22:1 25:1 33:1 37:1 43:1 48:1 52:1 58:1 59:1 
0.07252970467794194 1:-121 2:499 3:378 8:1 13:1 14:1 22:1 25:1 33:1 34:1 42:1 48:1 53:1 54:1 63:1 
0.01676814743500078 1:-101 2:499 3:398 8:1 13:1 14:1 22:1 25:1 33:1 35:1 39:1 48:1 52:1 54:1 59:1 
0.1790774036309126 1:-95 2:499 3:404 8:1 13:1 14:1 22:1 25:1 33:1 34:1 40:1 48:1 49:1 54:1 63:1 
0.09402436927698499 1:-41 2:499 3:458 8:1 13:1 14:1 22:1 25:1 33:1 38:1 39:1 45:1 53:1 58:1 63:1 
0.04479695440352185 1:-32 2:499 3:467 8:1 13:1 14:1 22:1 25:1 33:1 37:1 40:1 48:1 52:1 57:1 63:1 
2.716672860324046 1:-2 2:499 3:497 8:1 13:1 14:1 22:1 25:1 33:1 34:1 43:1 48:1 49:1 56:1 62:1 
1.843664111595899 1:196 2:306 3:502 4:1 10:1 18:1 19:1 28:1 33:1 36:1 42:1 45:1 53:1 54:1 62:1 
3.032387333611672 1:513 2:0 3:513 23:1 28:1 32:1 34:1 43:1 47:1 52:1 58:1 63:1 
0.07699925318170625 1:207 2:306 3:513 4:1 10:1 18:1 19:1 28:1 33:1 34:1 43:1 47:1 52:1 58:1 63:1 
0.1048743812995875 1:527 2:0 3:527 23:1 28:1 32:1 37:1 40:1 48:1 52:1 54:1 60:1 
0.103073755607986 1:28 2:499 3:527 8:1 13:1 14:1 22:1 25:1 33:1 37:1 40:1 48:1 52:1 54:1 60:1 
0.08972796418554663 1:233 2:306 3:539 4:1 10:1 18:1 19:1 28:1 33:1 35:1 42:1 45:1 53:1 57:1 63:1 
0.0777938406814781 1:40 2:499 3:539 8:1 13:1 14:1 22:1 25:1 33:1 35:1 42:1 45:1 53:1 57:1 63:1 
0.06269436412757678 1:236 2:306 3:542 4:1 10:1 18:1 19:1 28:1 33:1 38:1 43:1 47:1 49:1 54:1 63:1 
4 1:-137 2:150 3:13 8:1 9:1 15:1 22:1 28:1 33:1 34:1 41:1 45:1 49:1 56:1 63:1 
2.554193933069441 1:-149 2:162 3:13 5:1 13:1 14:1 22:1 25:1 33:1 34:1 41:1 45:1 49:1 56:1 63:1 
0.08286857533242252 1:159 2:15 3:174 5:1 13:1 14:1 23:1 28:1 33:1 38:1 42:1 48:1 53:1 58:1 63:1 
0.1760857712195328 1:24 2:150 3:174 8:1 9:1 15:1 22:1 28:1 33:1 38:1 42:1 48:1 53:1 58:1 63:1 
2.301292711457271 1:12 2:162 3:174 5:1 13:1 14:1 22:1 25:1 33:1 38:1 42:1 48:1 53:1 58:1 63:1 
2.052361232506695 1:167 2:15 3:182 5:1 13:1 14:1 23:1 28:1 33:1 36:1 42:1 45:1 53:1 58:1 63:1 
2.796383370244191 1:34 2:150 3:184 8:1 9:1 15:1 22:1 28:1 33:1 35:1 43:1 48:1 53:1 57:1 62:1 
0.3129086189691898 1:22 2:162 3:184 5:1 13:1 14:1 22:1 25:1 33:1 35:1 43:1 48:1 53:1 57:1 62:1 
1.398601659855591 1:14 2:170 3:184 4:1 12:1 14:1 23:1 27:1 33:1 35:1 43:1 48:1 53:1 57:1 62:1 
0.792177341224327 1:5 2:179 3:184 8:1 13:1 15:1 22:1 25:1 33:1 35:1 43:1 48:1 53:1 57:1 62:1 
0.2213673134388189 1:151 2:46 3:197 8:1 13:1 15:1 23:1 28:1 32:1 38:1 43:1 48:1 53:1 55:1 63:1 
0.3620700531393319 1:-189 2:202 3:13 5:1 13:1 14:1 20:1 27:1 30:1 34:1 41:1 45:1 49:1 56:1 63:1 
2.13117266941351 1:-37 2:202 3:165 5:1 13:1 14:1 20:1 27:1 30:1 36:1 42:1 45:1 53:1 54:1 62:1 
2.90592309538878 1:-28 2:202 3:174 5:1 13:1 14:1 20:1 27:1 30:1 38:1 42:1 48:1 53:1 58:1 63:1 
0.4521751567820538 1:-18 2:202 3:184 5:1 13:1 14:1 20:1 27:1 30:1 35:1 43:1 48:1 53:1 57:1 62:1 
4 1:-5 2:202 3:197 5:1 13:1 14:1 20:1 27:1 30:1 38:1 43:1 48:1 53:1 55:1 63:1 
0.6628351088803961 1:198 2:15 3:213 5:1 13:1 14:1 23:1 28:1 33:1 34:1 40:1 44:1 53:1 54:1 61:1 
0.5638426515815392 1:63 2:150 3:213 8:1 9:1 15:1 22:1 28:1 33:1 34:1 40:1 44:1 53:1 54:1 61:1 
1.909917142795124 1:43 2:170 3:213 4:1 12:1 14:1 23:1 27:1 33:1 34:1 40:1 44:1 53:1 54:1 61:1 
3.222456510908894 1:34 2:179 3:213 8:1 13:1 15:1 22:1 25:1 33:1 34:1 40:1 44:1 53:1 54:1 61:1 
1.854610512000465 1:11 2:202 3:213 5:1 13:1 14:1 20:1 27:1 30:1 34:1 40:1 44:1 53:1 54:1 61:1 
0.05664387242628337 1:-215 2:216 3:1 8:1 13:1 14:1 23:1 28:1 31:1 48:1 53:1 55:1 60:1 
3.754071234180853 1:-203 2:216 3:13 8:1 13:1 14:1 23:1 28:1 31:1 34:1 41:1 45:1 49:1 56:1 63:1 
4 1:-206 2:219 3:13 6:1 13:1 18:1 22:1 28:1 29:1 34:1 41:1 45:1 49:1 56:1 63:1 
2.34045858264834 1:-45 2:219 3:174 6:1 13:1 18:1 22:1 28:1 29:1 38:1 42:1 48:1 53:1 58:1 63:1 
4 1:-35 2:219 3:184 6:1 13:1 18:1 22:1 28:1 29:1 35:1 43:1 48:1 53:1 57:1 62:1 
3.192926505169203 1:-22 2:219 3:197 6:1 13:1 18:1 22:1 28:1 29:1 38:1 43:1 48:1 53:1 55:1 63:1 
4 1:-6 2:219 3:213 6:1 13:1 18:1 22:1 28:1 29:1 34:1 40:1 44:1 53:1 54:1 61:1 
0.4473490189135159 1:-53 2:227 3:174 8:1 12:1 15:1 19:1 27:1 33:1 38:1 42:1 48:1 53:1 58:1 63:1 
0.6108502896457257 1:-43 2:227 3:184 8:1 12:1 15:1 19:1 27:1 33:1 35:1 43:1 48:1 53:1 57:1 62:1 
2.099526453220068 1:-14 2:227 3:213 8:1 12:1 15:1 19:1 27:1 33:1 34:1 40:1 44:1 53:1 54:1 61:1 
0.1565600113552095 1:230 2:15 3:245 5:1 13:1 14:1 23:1 28:1 33:1 38:1 42:1 45:1 53:1 54:1 63:1 
0.5254133744609425 1:83 2:162 3:245 5:1 13:1 14:1 22:1 25:1 33:1 38:1 42:1 45:1 53:1 54:1 63:1 
1.684064871572699 1:29 2:216 3:245 8:1 13:1 14:1 23:1 28:1 31:1 38:1 42:1 45:1 53:1 54:1 63:1 
1.627628880997355 1:18 2:227 3:245 8:1 12:1 15:1 19:1 27:1 33:1 38:1 42:1 45:1 53:1 54:1 63:1 
0.6355057559847798 1:227 2:46 3:273 8:1 13:1 15:1 23:1 28:1 32:1 38:1 39:1 45:1 53:1 58:1 63:1 
0.7820348469410456 1:71 2:202 3:273 5:1 13:1 14:1 20:1 27:1 30:1 38:1 39:1 45:1 53:1 58:1 63:1 
1.273031617399383 1:264 2:11 3:275 8:1 10:1 14:1 20:1 28:1 29:1 35:1 43:1 48:1 53:1 58:1 63:1 
0.6330267819753829 1:229 2:46 3:275 8:1 13:1 15:1 23:1 28:1 32:1 35:1 43:1 48:1 53:1 58:1 63:1 
2.238703106308176 1:125 2:150 3:275 8:1 9:1 15:1 22:1 28:1 33:1 35:1 43:1 48:1 53:1 58:1 63:1 
2.258422946102394 1:105 2:170 3:275 4:1 12:1 14:1 23:1 27:1 33:1 35:1 43:1 48:1 53:1 58:1 63:1 
4 1:96 2:179 3:275 8:1 13:1 15:1 22:1 25:1 33:1 35:1 43:1 48:1 53:1 58:1 63:1 
1.612261226813489 1:56 2:219 3:275 6:1 13:1 18:1 22:1 28:1 29:1 35:1 43:1 48:1 53:1 58:1 63:1 
1.394760287643694 1:48 2:227 3:275 8:1 12:1 15:1 19:1 27:1 33:1 35:1 43:1 48:1 53:1 58:1 63:1 
0.2038629863152793 1:77 2:219 3:296 6:1 13:1 18:1 22:1 28:1 29:1 37:1 40:1 48:1 52:1 58:1 60:1 
1.91294346357345 1:295 2:15 3:310 5:1 13:1 14:1 23:1 28:1 33:1 38:1 42:1 48:1 53:1 58:1 63:1 
1.916318946882656 1:148 2:162 3:310 5:1 13:1 14:1 22:1 25:1 33:1 38:1 42:1 48:1 53:1 58:1 63:1 
3.525640326120738 1:108 2:202 3:310 5:1 13:1 14:1 20:1 27:1 30:1 38:1 42:1 48:1 53:1 58:1 63:1 
3.772015630133369 1:108 2:216 3:324 8:1 13:1 14:1 23:1 28:1 31:1 38:1 42:1 48:1 52:1 58:1 59:1 
0.07049468305251073 1:97 2:227 3:324 8:1 12:1 15:1 19:1 27:1 33:1 38:1 42:1 48:1 52:1 58:1 59:1 
1.623029506221856 1:-176 2:341 3:165 8:1 13:1 15:1 23:1 27:1 30:1 36:1 42:1 45:1 53:1 54:1 62:1 
0.1423305175205196 1:-159 2:341 3:182 8:1 13:1 15:1 23:1 27:1 30:1 36:1 42:1 45:1 53:1 58:1 63:1 
0.5923496907139491 1:-157 2:341 3:184 8:1 13:1 15:1 23:1 27:1 30:1 35:1 43:1 48:1 53:1 57:1 62:1 
0.02074510148893532 1:-144 2:341 3:197 8:1 13:1 15:1 23:1 27:1 30:1 38:1 43:1 48:1 53:1 55:1 63:1 
0.2426012675307863 1:330 2:15 3:345 5:1 13:1 14:1 23:1 28:1 33:1 38:1 42:1 45:1 49:1 58:1 60:1 
0.7303393273169426 1:175 2:170 3:345 4:1 12:1 14:1 23:1 27:1 33:1 38:1 42:1 45:1 49:1 58:1 60:1 
1.797624723504533 1:126 2:219 3:345 6:1 13:1 18:1 22:1 28:1 29:1 38:1 42:1 45:1 49:1 58:1 60:1 
0.1538882590077463 1:4 2:341 3:345 8:1 13:1 15:1 23:1 27:1 30:1 38:1 42:1 45:1 49:1 58:1 60:1 
2.675684959893514 1:135 2:216 3:351 8:1 13:1 14:1 23:1 28:1 31:1 35:1 43:1 47:1 49:1 57:1 62:1 
0.2990576222584364 1:124 2:227 3:351 8:1 12:1 15:1 19:1 27:1 33:1 35:1 43:1 47:1 49:1 57:1 62:1 
3.122076906859899 1:-347 2:360 3:13 8:1 13:1 15:1 22:1 25:1 32:1 34:1 41:1 45:1 49:1 56:1 63:1 
3.286859803489617 1:-176 2:360 3:184 8:1 13:1 15:1 22:1 25:1 32:1 35:1 43:1 48:1 53:1 57:1 62:1 
1.15902895588144 1:-163 2:360 3:197 8:1 13:1 15:1 22:1 25:1 32:1 38:1 43:1 48:1 53:1 55:1 63:1 
0.3046236726900624 1:-147 2:360 3:213 8:1 13:1 15:1 22:1 25:1 32:1 34:1 40:1 44:1 53:1 54:1 61:1 
0.004723000274202688 1:-211 2:376 3:165 7:1 13:1 14:1 19:1 28:1 29:1 36:1 42:1 45:1 53:1 54:1 62:1 
0.3033114789278698 1:-202 2:376 3:174 7:1 13:1 14:1 19:1 28:1 29:1 38:1 42:1 48:1 53:1 58:1 63:1 
0.7606496822912689 1:-192 2:376 3:184 7:1 13:1 14:1 19:1 28:1 29:1 35:1 43:1 48:1 53:1 57:1 62:1 
0.5681291417799986 1:-179 2:376 3:197 7:1 13:1 14:1 19:1 28:1 29:1 38:1 43:1 48:1 53:1 55:1 63:1 
0.03341583928422709 1:-103 2:376 3:273 7:1 13:1 14:1 19:1 28:1 29:1 38:1 39:1 45:1 53:1 58:1 63:1 
2.67470639257024 1:-52 2:376 3:324 7:1 13:1 14:1 19:1 28:1 29:1 38:1 42:1 48:1 52:1 58:1 59:1 
0.01724272207134134 1:-427 2:428 3:1 8:1 9:1 15:1 22:1 25:1 33:1 48:1 53:1 55:1 60:1 
0.262289269955263 1:-254 2:428 3:174 8:1 9:1 15:1 22:1 25:1 33:1 38:1 42:1 48:1 53:1 58:1 63:1 
3.022993362271296 1:-244 2:428 3:184 8:1 9:1 15:1 22:1 25:1 33:1 35:1 43:1 48:1 53:1 57:1 62:1 
0.09837150316811999 1:-231 2:428 3:197 8:1 9:1 15:1 22:1 25:1 33:1 38:1 43:1 48:1 53:1 55:1 63:1 
4 1:-153 2:428 3:275 8:1 9:1 15:1 22:1 25:1 33:1 35:1 43:1 48:1 53:1 58:1 63:1 
0.8760823313286067 1:-132 2:428 3:296 8:1 9:1 15:1 22:1 25:1 33:1 37:1 40:1 48:1 52:1 58:1 60:1 
0.6559037592561477 1:-83 2:428 3:345 8:1 9:1 15:1 22:1 25:1 33:1 38:1 42:1 45:1 49:1 58:1 60:1 
0.5330917116982431 1:418 2:15 3:433 5:1 13:1 14:1 23:1 28:1 33:1 35:1 43:1 45:1 53:1 58:1 63:1 
0.7192407833359411 1:271 2:162 3:433 5:1 13:1 14:1 22:1 25:1 33:1 35:1 43:1 45:1 53:1 58:1 63:1 
0.5069460885266996 1:231 2:202 3:433 5:1 13:1 14:1 20:1 27:1 30:1 35:1 43:1 45:1 53:1 58:1 63:1 
0.06726187473567602 1:57 2:376 3:433 7:1 13:1 14:1 19:1 28:1 29:1 35:1 43:1 45:1 53:1 58:1 63:1 
4 1:-40 2:51 3:11 6:1 12:1 15:1 22:1 28:1 32:1 34:1 39:1 45:1 49:1 55:1 59:1 
0.3134645789812703 1:-46 2:74 3:28 5:1 12:1 18:1 23:1 28:1 33:1 38:1 42:1 48:1 53:1 54:1 60:1 
1.2267370803109 1:-42 2:74 3:32 5:1 12:1 18:1 23:1 28:1 33:1 38:1 39:1 45:1 49:1 56:1 63:1 
0.7681194709033035 1:70 2:16 3:86 5:1 9:1 14:1 20:1 25:1 33:1 34:1 43:1 47:1 49:1 58:1 59:1 
2.149546264404317 1:38 2:48 3:86 8:1 12:1 15:1 22:1 25:1 31:1 34:1 43:1 47:1 49:1 58:1 59:1 
0.4530887314085869 1:12 2:74 3:86 5:1 12:1 18:1 23:1 28:1 33:1 34:1 43:1 47:1 49:1 58:1 59:1 
4 1:79 2:16 3:95 5:1 9:1 14:1 20:1 25:1 33:1 38:1 40:1 48:1 53:1 57:1 63:1 
3.075390695777373 1:47 2:48 3:95 8:1 12:1 15:1 22:1 25:1 31:1 38:1 40:1 48:1 53:1 57:1 63:1 
4 1:-4 2:99 3:95 8:1 12:1 18:1 19:1 28:1 30:1 38:1 40:1 48:1 53:1 57:1 63:1 
4 1:75 2:34 3:109 5:1 13:1 14:1 23:1 27:1 33:1 38:1 39:1 48:1 49:1 58:1 60:1 
2.16349743723423 1:58 2:51 3:109 6:1 12:1 15:1 22:1 28:1 32:1 38:1 39:1 48:1 49:1 58:1 60:1 
0.1283521655376423 1:35 2:74 3:109 5:1 12:1 18:1 23:1 28:1 33:1 38:1 39:1 48:1 49:1 58:1 60:1 
1.624734815623127 1:10 2:99 3:109 8:1 12:1 18:1 19:1 28:1 30:1 38:1 39:1 48:1 49:1 58:1 60:1 
0.507483054630007 1:-41 2:136 3:95 7:1 13:1 18:1 20:1 24:1 32:1 38:1 40:1 48:1 53:1 57:1 63:1 
1.226928315575571 1:126 2:48 3:174 8:1 12:1 15:1 22:1 25:1 31:1 38:1 43:1 45:1 49:1 57:1 62:1 
0.2001920183857286 1:-153 2:185 3:32 4:1 13:1 17:1 20:1 25:1 33:1 38:1 39:1 45:1 49:1 56:1 63:1 
0.1804336347157078 1:-76 2:185 3:109 4:1 13:1 17:1 20:1 25:1 33:1 38:1 39:1 48:1 49:1 58:1 60:1 
0.1557619814212442 1:-11 2:185 3:174 4:1 13:1 17:1 20:1 25:1 33:1 38:1 43:1 45:1 49:1 57:1 62:1 
2.601445670086869 1:-23 2:35 3:12 8:1 9:1 15:1 20:1 28:1 32:1 34:1 41:1 45:1 49:1 56:1 63:1 
4 1:-7 2:35 3:28 8:1 9:1 15:1 20:1 28:1 32:1 38:1 42:1 45:1 53:1 54:1 62:1 
0.7273113932799365 1:-57 2:57 3:0 4:1 13:1 15:1 23:1 27:1 33:1 53:1 55:1 60:1 
0.5138728382700313 1:57 2:10 3:67 8:1 10:1 14:1 20:1 28:1 29:1 35:1 43:1 45:1 49:1 57:1 63:1 
0.3713228922595446 1:84 2:35 3:119 8:1 9:1 15:1 20:1 28:1 32:1 38:1 42:1 45:1 53:1 54:1 63:1 
0.2911981180505816 1:-206 2:206 3:0 7:1 12:1 15:1 23:1 27:1 30:1 53:1 55:1 60:1 
1.087015455685123 1:-146 2:206 3:60 7:1 12:1 15:1 23:1 27:1 30:1 36:1 43:1 47:1 49:1 57:1 59:1 
0.3786234221841297 1:189 2:4 3:193 5:1 13:1 17:1 20:1 25:1 30:1 37:1 43:1 48:1 53:1 54:1 63:1 
1.321293310992479 1:139 2:54 3:193 4:1 10:1 15:1 23:1 25:1 30:1 37:1 43:1 48:1 53:1 54:1 63:1 
0.3675057669303263 1:118 2:75 3:193 5:1 13:1 18:1 22:1 27:1 31:1 37:1 43:1 48:1 53:1 54:1 63:1 
0.3024686602920063 1:103 2:90 3:193 8:1 10:1 15:1 23:1 25:1 30:1 37:1 43:1 48:1 53:1 54:1 63:1 
3.502333226443255 1:65 2:128 3:193 4:1 10:1 15:1 23:1 25:1 30:1 37:1 43:1 48:1 53:1 54:1 63:1 
1.66972985959808 1:22 2:171 3:193 8:1 12:1 14:1 19:1 28:1 29:1 37:1 43:1 48:1 53:1 54:1 63:1 
2.045459360248056 1:16 2:177 3:193 4:1 10:1 15:1 23:1 25:1 30:1 37:1 43:1 48:1 53:1 54:1 63:1 
0.4427274780398843 1:-29 2:222 3:193 4:1 10:1 15:1 23:1 25:1 30:1 37:1 43:1 48:1 53:1 54:1 63:1 
0.03867980708772253 1:226 2:4 3:230 5:1 13:1 17:1 20:1 25:1 30:1 34:1 42:1 44:1 52:1 56:1 63:1 
1.54404900978538 1:59 2:171 3:230 8:1 12:1 14:1 19:1 28:1 29:1 34:1 42:1 44:1 52:1 56:1 63:1 
1.325591382142171 1:53 2:177 3:230 4:1 10:1 15:1 23:1 25:1 30:1 34:1 42:1 44:1 52:1 56:1 63:1 
1.028434867924225 1:8 2:222 3:230 4:1 10:1 15:1 23:1 25:1 30:1 34:1 42:1 44:1 52:1 56:1 63:1 
0.6214747027234935 1:-39 2:232 3:193 4:1 13:1 17:1 23:1 27:1 33:1 37:1 43:1 48:1 53:1 54:1 63:1 
1.547507934731196 1:-57 2:250 3:193 8:1 9:1 15:1 23:1 25:1 29:1 37:1 43:1 48:1 53:1 54:1 63:1 
1.670628052681138 1:-20 2:250 3:230 8:1 9:1 15:1 23:1 25:1 29:1 34:1 42:1 44:1 52:1 56:1 63:1 
0.6434739281771358 1:-62 2:255 3:193 5:1 9:1 18:1 22:1 24:1 32:1 37:1 43:1 48:1 53:1 54:1 63:1 
0.3733071976212157 1:-32 2:262 3:230 8:1 10:1 15:1 23:1 25:1 30:1 34:1 42:1 44:1 52:1 56:1 63:1 
0.1171139717776929 1:-81 2:274 3:193 8:1 13:1 14:1 23:1 28:1 33:1 37:1 43:1 48:1 53:1 54:1 63:1 
0.357169028395529 1:-44 2:274 3:230 8:1 13:1 14:1 23:1 28:1 33:1 34:1 42:1 44:1 52:1 56:1 63:1 
0.08577199834845815 1:-81 2:311 3:230 8:1 9:1 18:1 23:1 28:1 29:1 34:1 42:1 44:1 52:1 56:1 63:1 
1.550695099417535 1:-135 2:328 3:193 8:1 10:1 15:1 19:1 28:1 30:1 37:1 43:1 48:1 53:1 54:1 63:1 
0.190555904579347 1:268 2:78 3:346 6:1 12:1 17:1 23:1 28:1 29:1 37:1 39:1 45:1 53:1 58:1 60:1 
1.202651915379164 1:256 2:90 3:346 8:1 10:1 15:1 23:1 25:1 30:1 37:1 39:1 45:1 53:1 58:1 60:1 
0.0400023144217872 1:218 2:128 3:346 4:1 10:1 15:1 23:1 25:1 30:1 37:1 39:1 45:1 53:1 58:1 60:1 
0.5518037504376253 1:175 2:171 3:346 8:1 12:1 14:1 19:1 28:1 29:1 37:1 39:1 45:1 53:1 58:1 60:1 
0.893180490401295 1:91 2:255 3:346 5:1 9:1 18:1 22:1 24:1 32:1 37:1 39:1 45:1 53:1 58:1 60:1 
0.00983383378868965 1:84 2:262 3:346 8:1 10:1 15:1 23:1 25:1 30:1 37:1 39:1 45:1 53:1 58:1 60:1 
1.26048366059652 1:305 2:54 3:359 4:1 10:1 15:1 23:1 25:1 30:1 35:1 39:1 44:1 50:1 58:1 60:1 
1.711979872143564 1:269 2:90 3:359 8:1 10:1 15:1 23:1 25:1 30:1 35:1 39:1 44:1 50:1 58:1 60:1 
1.535968537930179 1:188 2:171 3:359 8:1 12:1 14:1 19:1 28:1 29:1 35:1 39:1 44:1 50:1 58:1 60:1 
3.979338267759358 1:104 2:255 3:359 5:1 9:1 18:1 22:1 24:1 32:1 35:1 39:1 44:1 50:1 58:1 60:1 
0.750498520093045 1:97 2:262 3:359 8:1 10:1 15:1 23:1 25:1 30:1 35:1 39:1 44:1 50:1 58:1 60:1 
1.989308713164146 1:48 2:311 3:359 8:1 9:1 18:1 23:1 28:1 29:1 35:1 39:1 44:1 50:1 58:1 60:1 
0.77483625921968 1:31 2:328 3:359 8:1 10:1 15:1 19:1 28:1 30:1 35:1 39:1 44:1 50:1 58:1 60:1 
1.017861679116202 1:-136 2:366 3:230 8:1 12:1 14:1 20:1 28:1 30:1 34:1 42:1 44:1 52:1 56:1 63:1 
0.3481795386513353 1:-149 2:379 3:230 8:1 10:1 15:1 23:1 25:1 34:1 42:1 44:1 52:1 56:1 63:1 
0.007023677127453164 1:-20 2:379 3:359 8:1 10:1 15:1 23:1 25:1 35:1 39:1 44:1 50:1 58:1 60:1 
0.5948377815392807 1:147 2:72 3:219 8:1 13:1 15:1 22:1 26:1 30:1 35:1 43:1 48:1 52:1 54:1 60:1 
0.6140519044096935 1:145 2:74 3:219 5:1 11:1 17:1 20:1 28:1 33:1 35:1 43:1 48:1 52:1 54:1 60:1 
0.4736895952066407 1:-153 2:266 3:113 7:1 13:1 15:1 20:1 28:1 33:1 38:1 43:1 47:1 53:1 54:1 60:1 
0.3662441882161691 1:-5 2:314 3:309 7:1 13:1 14:1 22:1 27:1 30:1 34:1 43:1 48:1 49:1 57:1 63:1 
0.6080896463380596 1:256 2:74 3:330 5:1 11:1 17:1 20:1 28:1 33:1 34:1 39:1 45:1 50:1 54:1 60:1 
0.7409127463009838 1:64 2:266 3:330 7:1 13:1 15:1 20:1 28:1 33:1 34:1 39:1 45:1 50:1 54:1 60:1 
1.655329963705832 1:16 2:314 3:330 7:1 13:1 14:1 22:1 27:1 30:1 34:1 39:1 45:1 50:1 54:1 60:1 
0.8208485007382567 1:-67 2:397 3:330 8:1 13:1 14:1 19:1 28:1 32:1 34:1 39:1 45:1 50:1 54:1 60:1 
0.2572641753785596 1:27 2:380 3:407 8:1 12:1 14:1 20:1 28:1 33:1 38:1 40:1 48:1 53:1 58:1 59:1 
1.114572567945352 1:10 2:397 3:407 8:1 13:1 14:1 19:1 28:1 32:1 38:1 40:1 48:1 53:1 58:1 59:1 
0.02618962508541245 1:-201 2:420 3:219 8:1 10:1 18:1 23:1 24:1 33:1 35:1 43:1 48:1 52:1 54:1 60:1 
0.2728417256137452 1:-111 2:420 3:309 8:1 10:1 18:1 23:1 24:1 33:1 34:1 43:1 48:1 49:1 57:1 63:1 
0.1332094094804285 1:-444 2:557 3:113 5:1 13:1 17:1 23:1 28:1 29:1 38:1 43:1 47:1 53:1 54:1 60:1 
0.1326414425750918 1:-338 2:557 3:219 5:1 13:1 17:1 23:1 28:1 29:1 35:1 43:1 48:1 52:1 54:1 60:1 
0.09098901581807628 1:-248 2:557 3:309 5:1 13:1 17:1 23:1 28:1 29:1 34:1 43:1 48:1 49:1 57:1 63:1 
0.1018864222515361 1:-227 2:557 3:330 5:1 13:1 17:1 23:1 28:1 29:1 34:1 39:1 45:1 50:1 54:1 60:1 
0.1326914242767381 1:-150 2:557 3:407 5:1 13:1 17:1 23:1 28:1 29:1 38:1 40:1 48:1 53:1 58:1 59:1 
0.1612467577351367 1:-31 2:41 3:10 5:1 13:1 14:1 20:1 28:1 32:1 36:1 42:1 45:1 53:1 54:1 62:1 
2.289805621135493 1:32 2:16 3:48 7:1 13:1 18:1 23:1 28:1 33:1 38:1 39:1 45:1 53:1 55:1 63:1 
0.5111789116989087 1:35 2:16 3:51 7:1 13:1 18:1 23:1 28:1 33:1 38:1 43:1 45:1 49:1 54:1 63:1 
1.314573450670313 1:14 2:41 3:55 5:1 13:1 14:1 20:1 28:1 32:1 34:1 39:1 48:1 49:1 58:1 59:1 
4 1:-54 2:85 3:31 8:1 9:1 14:1 22:1 25:1 31:1 34:1 43:1 44:1 52:1 58:1 63:1 
0.9767690732626826 1:-46 2:85 3:39 8:1 9:1 14:1 22:1 25:1 31:1 34:1 42:1 45:1 49:1 56:1 60:1 
3.013088007364518 1:-34 2:85 3:51 8:1 9:1 14:1 22:1 25:1 31:1 38:1 43:1 45:1 49:1 54:1 63:1 
0.2660320892580771 1:-55 2:88 3:33 6:1 12:1 15:1 23:1 24:1 29:1 34:1 43:1 47:1 53:1 54:1 59:1 
0.7263805095224716 1:-40 2:88 3:48 6:1 12:1 15:1 23:1 24:1 29:1 38:1 39:1 45:1 53:1 55:1 63:1 
2.987690899504777 1:-37 2:88 3:51 6:1 12:1 15:1 23:1 24:1 29:1 38:1 43:1 45:1 49:1 54:1 63:1 
3.893755480777255 1:-7 2:88 3:81 6:1 12:1 15:1 23:1 24:1 29:1 38:1 43:1 47:1 53:1 54:1 59:1 
0.5274991678758165 1:-66 2:97 3:31 8:1 9:1 15:1 22:1 25:1 30:1 34:1 43:1 44:1 52:1 58:1 63:1 
1.916229850083062 1:-64 2:97 3:33 8:1 9:1 15:1 22:1 25:1 30:1 34:1 43:1 47:1 53:1 54:1 59:1 
0.7996480451429371 1:-58 2:97 3:39 8:1 9:1 15:1 22:1 25:1 30:1 34:1 42:1 45:1 49:1 56:1 60:1 
0.02563488221534215 1:-16 2:97 3:81 8:1 9:1 15:1 22:1 25:1 30:1 38:1 43:1 47:1 53:1 54:1 59:1 
2.169260981463403 1:36 2:85 3:121 8:1 9:1 14:1 22:1 25:1 31:1 35:1 43:1 47:1 53:1 54:1 63:1 
1.87106335758366 1:33 2:88 3:121 6:1 12:1 15:1 23:1 24:1 29:1 35:1 43:1 47:1 53:1 54:1 63:1 
0.2958341491575393 1:24 2:97 3:121 8:1 9:1 15:1 22:1 25:1 30:1 35:1 43:1 47:1 53:1 54:1 63:1 
0.8212808982695589 1:124 2:7 3:131 5:1 13:1 14:1 22:1 25:1 33:1 38:1 43:1 47:1 50:1 58:1 59:1 
3.18105678855359 1:90 2:41 3:131 5:1 13:1 14:1 20:1 28:1 32:1 38:1 43:1 47:1 50:1 58:1 59:1 
2.090378242609602 1:48 2:85 3:133 8:1 9:1 14:1 22:1 25:1 31:1 37:1 43:1 45:1 49:1 58:1 62:1 
1.421743738948729 1:140 2:7 3:147 5:1 13:1 14:1 22:1 25:1 33:1 35:1 43:1 47:1 53:1 54:1 63:1 
1.115560252924469 1:50 2:97 3:147 8:1 9:1 15:1 22:1 25:1 30:1 35:1 43:1 47:1 53:1 54:1 63:1 
1.489381954470149 1:111 2:41 3:152 5:1 13:1 14:1 20:1 28:1 32:1 34:1 43:1 47:1 50:1 58:1 63:1 
2.532029541973743 1:138 2:16 3:154 7:1 13:1 18:1 23:1 28:1 33:1 37:1 43:1 45:1 53:1 58:1 63:1 
4 1:69 2:85 3:154 8:1 9:1 14:1 22:1 25:1 31:1 37:1 43:1 45:1 53:1 58:1 63:1 
0.3777914532708506 1:123 2:41 3:164 5:1 13:1 14:1 20:1 28:1 32:1 34:1 40:1 48:1 53:1 58:1 59:1 
0.3283968312606108 1:79 2:85 3:164 8:1 9:1 14:1 22:1 25:1 31:1 34:1 40:1 48:1 53:1 58:1 59:1 
1.238229022143325 1:76 2:88 3:164 6:1 12:1 15:1 23:1 24:1 29:1 34:1 40:1 48:1 53:1 58:1 59:1 
0.8937282794855335 1:158 2:16 3:174 7:1 13:1 18:1 23:1 28:1 33:1 37:1 43:1 45:1 53:1 58:1 62:1 
2.254088302864945 1:89 2:85 3:174 8:1 9:1 14:1 22:1 25:1 31:1 37:1 43:1 45:1 53:1 58:1 62:1 
0.654954279648117 1:77 2:97 3:174 8:1 9:1 15:1 22:1 25:1 30:1 37:1 43:1 45:1 53:1 58:1 62:1 
3.287674023485754 1:-140 2:191 3:51 4:1 10:1 15:1 23:1 28:1 32:1 38:1 43:1 45:1 49:1 54:1 63:1 
0.4147929660402109 1:-110 2:191 3:81 4:1 10:1 15:1 23:1 28:1 32:1 38:1 43:1 47:1 53:1 54:1 59:1 
0.3709973472200741 1:-79 2:191 3:112 4:1 10:1 15:1 23:1 28:1 32:1 35:1 43:1 48:1 53:1 58:1 62:1 
3.466965506092523 1:-58 2:191 3:133 4:1 10:1 15:1 23:1 28:1 32:1 37:1 43:1 45:1 49:1 58:1 62:1 
2.29982750094125 1:-37 2:191 3:154 4:1 10:1 15:1 23:1 28:1 32:1 37:1 43:1 45:1 53:1 58:1 63:1 
0.3273498109695537 1:177 2:16 3:193 7:1 13:1 18:1 23:1 28:1 33:1 35:1 41:1 48:1 52:1 54:1 60:1 
0.4808154527149263 1:108 2:85 3:193 8:1 9:1 14:1 22:1 25:1 31:1 35:1 41:1 48:1 52:1 54:1 60:1 
0.7804227716999667 1:105 2:88 3:193 6:1 12:1 15:1 23:1 24:1 29:1 35:1 41:1 48:1 52:1 54:1 60:1 
0.08796518434991882 1:109 2:88 3:197 6:1 12:1 15:1 23:1 24:1 29:1 37:1 39:1 45:1 49:1 56:1 63:1 
0.135918109003167 1:100 2:97 3:197 8:1 9:1 15:1 22:1 25:1 30:1 37:1 39:1 45:1 49:1 56:1 63:1 
0.8963960077433908 1:-144 2:199 3:55 5:1 13:1 14:1 23:1 28:1 29:1 34:1 39:1 48:1 49:1 58:1 59:1 
3.849864667141452 1:-120 2:199 3:79 5:1 13:1 14:1 23:1 28:1 29:1 34:1 39:1 48:1 52:1 58:1 63:1 
4 1:-47 2:199 3:152 5:1 13:1 14:1 23:1 28:1 29:1 34:1 43:1 47:1 50:1 58:1 63:1 
0.1984052457512001 1:-6 2:199 3:193 5:1 13:1 14:1 23:1 28:1 29:1 35:1 41:1 48:1 52:1 54:1 60:1 
1.3656858338886 1:115 2:88 3:203 6:1 12:1 15:1 23:1 24:1 29:1 38:1 43:1 44:1 53:1 58:1 63:1 
0.04099333893225379 1:106 2:97 3:203 8:1 9:1 15:1 22:1 25:1 30:1 38:1 43:1 44:1 53:1 58:1 63:1 
0.7624825812236005 1:120 2:85 3:205 8:1 9:1 14:1 22:1 25:1 31:1 34:1 43:1 48:1 53:1 54:1 59:1 
0.2531549287109334 1:29 2:41 3:70 8:1 10:1 14:1 22:1 28:1 30:1 35:1 43:1 44:1 53:1 54:1 61:1 
4 1:-7 2:77 3:70 8:1 13:1 15:1 22:1 27:1 30:1 35:1 43:1 44:1 53:1 54:1 61:1 
3.606715558715147 1:-31 2:101 3:70 8:1 9:1 15:1 22:1 26:1 33:1 35:1 43:1 44:1 53:1 54:1 61:1 
0.4959003486851196 1:-70 2:140 3:70 8:1 13:1 14:1 22:1 24:1 33:1 35:1 43:1 44:1 53:1 54:1 61:1 
0.09724402095850324 1:-78 2:148 3:70 8:1 12:1 16:1 23:1 24:1 30:1 35:1 43:1 44:1 53:1 54:1 61:1 
2.435319602274542 1:104 2:73 3:177 8:1 13:1 14:1 23:1 28:1 30:1 37:1 39:1 45:1 50:1 54:1 62:1 
3.006038927064107 1:74 2:103 3:177 5:1 11:1 17:1 23:1 24:1 33:1 37:1 39:1 45:1 50:1 54:1 62:1 
0.5566777726617538 1:37 2:140 3:177 8:1 13:1 14:1 22:1 24:1 33:1 37:1 39:1 45:1 50:1 54:1 62:1 
0.08403950981713813 1:29 2:148 3:177 8:1 12:1 16:1 23:1 24:1 30:1 37:1 39:1 45:1 50:1 54:1 62:1 
3.389918237385895 1:-148 2:218 3:70 4:1 13:1 18:1 20:1 35:1 43:1 44:1 53:1 54:1 61:1 
0.008432175882748078 1:-41 2:218 3:177 4:1 13:1 18:1 20:1 37:1 39:1 45:1 50:1 54:1 62:1 
0.9127932015884831 1:4 2:32 3:36 4:1 13:1 18:1 20:1 24:1 32:1 35:1 39:1 47:1 49:1 56:1 60:1 
3.56103098882206 1:2 2:38 3:40 7:1 13:1 14:1 20:1 28:1 29:1 34:1 41:1 45:1 49:1 56:1 60:1 
4 1:-6 2:42 3:36 5:1 13:1 14:1 20:1 28:1 33:1 35:1 39:1 47:1 49:1 56:1 60:1 
2.09050601777493 1:-19 2:59 3:40 8:1 13:1 15:1 22:1 25:1 33:1 34:1 41:1 45:1 49:1 56:1 60:1 
2.209626065699674 1:-15 2:59 3:44 8:1 13:1 15:1 22:1 25:1 33:1 34:1 41:1 45:1 53:1 54:1 61:1 
3.196129769553701 1:51 2:14 3:65 5:1 13:1 18:1 19:1 28:1 33:1 38:1 43:1 45:1 49:1 57:1 63:1 
1.192440563127595 1:18 2:47 3:65 8:1 13:1 14:1 23:1 28:1 33:1 38:1 43:1 45:1 49:1 57:1 63:1 
4 1:6 2:59 3:65 8:1 13:1 15:1 22:1 25:1 33:1 38:1 43:1 45:1 49:1 57:1 63:1 
0.1394887186498661 1:36 2:59 3:95 8:1 13:1 15:1 22:1 25:1 33:1 35:1 40:1 45:1 53:1 58:1 60:1 
4 1:96 2:38 3:134 7:1 13:1 14:1 20:1 28:1 29:1 35:1 43:1 45:1 52:1 55:1 60:1 
1.977330669642041 1:87 2:47 3:134 8:1 13:1 14:1 23:1 28:1 33:1 35:1 43:1 45:1 52:1 55:1 60:1 
0.9470877184157167 1:136 2:7 3:143 5:1 13:1 14:1 22:1 25:1 33:1 34:1 40:1 48:1 53:1 58:1 63:1 
3.121290629701987 1:105 2:38 3:143 7:1 13:1 14:1 20:1 28:1 29:1 34:1 40:1 48:1 53:1 58:1 63:1 
1.800677697855705 1:101 2:42 3:143 5:1 13:1 14:1 20:1 28:1 33:1 34:1 40:1 48:1 53:1 58:1 63:1 
1.72859961646634 1:96 2:47 3:143 8:1 13:1 14:1 23:1 28:1 33:1 34:1 40:1 48:1 53:1 58:1 63:1 
2.346663210017302 1:84 2:59 3:143 8:1 13:1 15:1 22:1 25:1 33:1 34:1 40:1 48:1 53:1 58:1 63:1 
0.3870726466711089 1:135 2:42 3:177 5:1 13:1 14:1 20:1 28:1 33:1 35:1 39:1 48:1 53:1 58:1 59:1 
1.591858107529007 1:118 2:59 3:177 8:1 13:1 15:1 22:1 25:1 33:1 35:1 39:1 48:1 53:1 58:1 59:1 
0.3237446636300089 1:181 2:7 3:188 5:1 13:1 14:1 22:1 25:1 33:1 37:1 43:1 48:1 49:1 58:1 63:1 
0.03600468696430686 1:156 2:32 3:188 4:1 13:1 18:1 20:1 24:1 32:1 37:1 43:1 48:1 49:1 58:1 63:1 
3.299028665836023 1:129 2:59 3:188 8:1 13:1 15:1 22:1 25:1 33:1 37:1 43:1 48:1 49:1 58:1 63:1 
0.5451906383840555 1:-174 2:175 3:1 8:1 13:1 14:1 19:1 25:1 33:1 48:1 53:1 55:1 63:1 
0.02693525329477874 1:-51 2:175 3:124 8:1 13:1 14:1 19:1 25:1 33:1 38:1 40:1 48:1 53:1 54:1 63:1 
1.997292227760922 1:-12 2:175 3:163 8:1 13:1 14:1 19:1 25:1 33:1 38:1 42:1 48:1 53:1 58:1 59:1 
0.9665583609873422 1:-297 2:298 3:1 4:1 13:1 14:1 23:1 25:1 33:1 48:1 53:1 55:1 63:1 
0.9131538513279427 1:-277 2:298 3:21 4:1 13:1 14:1 23:1 25:1 33:1 37:1 43:1 45:1 50:1 55:1 60:1 
0.7628431162804319 1:1 2:17 3:18 5:1 9:1 15:1 23:1 28:1 33:1 34:1 40:1 46:1 53:1 58:1 63:1 
3.244500698052348 1:-37 2:64 3:27 7:1 9:1 15:1 20:1 28:1 29:1 34:1 40:1 45:1 53:1 54:1 59:1 
2.028954056175683 1:2 2:64 3:66 7:1 9:1 15:1 20:1 28:1 29:1 35:1 41:1 45:1 49:1 58:1 63:1 
1.080914425668207 1:130 2:17 3:147 5:1 9:1 15:1 23:1 28:1 33:1 34:1 42:1 48:1 49:1 56:1 63:1 
0.9071695644636667 1:83 2:64 3:147 7:1 9:1 15:1 20:1 28:1 29:1 34:1 42:1 48:1 49:1 56:1 63:1 
0.3407778251440237 1:-131 2:149 3:18 8:1 13:1 14:1 23:1 28:1 30:1 34:1 40:1 46:1 53:1 58:1 63:1 
0.5941203972356003 1:-83 2:149 3:66 8:1 13:1 14:1 23:1 28:1 30:1 35:1 41:1 45:1 49:1 58:1 63:1 
1.497777514966398 1:-162 2:189 3:27 8:1 10:1 18:1 22:1 28:1 33:1 34:1 40:1 45:1 53:1 54:1 59:1 
0.8697286245697751 1:-103 2:189 3:86 8:1 10:1 18:1 22:1 28:1 33:1 34:1 43:1 48:1 49:1 58:1 62:1 
0.07032316981597124 1:-42 2:189 3:147 8:1 10:1 18:1 22:1 28:1 33:1 34:1 42:1 48:1 49:1 56:1 63:1 
0.1784674195519194 1:-153 2:219 3:66 4:1 13:1 17:1 23:1 24:1 30:1 35:1 41:1 45:1 49:1 58:1 63:1 
2.718748286391131 1:-133 2:219 3:86 4:1 13:1 17:1 23:1 24:1 30:1 34:1 43:1 48:1 49:1 58:1 62:1 
0.07796151078613997 1:-120 2:219 3:99 4:1 13:1 17:1 23:1 24:1 30:1 38:1 42:1 48:1 53:1 58:1 63:1 
1.629931708761294 1:84 2:149 3:233 8:1 13:1 14:1 23:1 28:1 30:1 37:1 43:1 44:1 49:1 58:1 63:1 
1.168381839592856 1:44 2:189 3:233 8:1 10:1 18:1 22:1 28:1 33:1 37:1 43:1 44:1 49:1 58:1 63:1 
0.4708611500323099 1:-255 2:256 3:1 8:1 13:1 18:1 20:1 28:1 32:1 48:1 53:1 58:1 63:1 
0.6127775062293832 1:-179 2:256 3:77 8:1 13:1 18:1 20:1 28:1 32:1 35:1 43:1 47:1 49:1 58:1 63:1 
0.2063208182020741 1:-128 2:256 3:128 8:1 13:1 18:1 20:1 28:1 32:1 38:1 42:1 45:1 50:1 57:1 63:1 
2.475847773856447 1:-120 2:256 3:136 8:1 13:1 18:1 20:1 28:1 32:1 38:1 43:1 47:1 53:1 58:1 60:1 
3.107136810717914 1:-77 2:256 3:179 8:1 13:1 18:1 20:1 28:1 32:1 35:1 42:1 48:1 49:1 58:1 63:1 
4 1:2 2:74 3:76 5:1 13:1 18:1 20:1 28:1 33:1 38:1 41:1 45:1 53:1 54:1 61:1 
0.4529641519997719 1:-26 2:79 3:53 8:1 13:1 14:1 23:1 24:1 33:1 35:1 43:1 45:1 53:1 58:1 63:1 
4 1:-35 2:111 3:76 8:1 13:1 15:1 23:1 28:1 32:1 38:1 41:1 45:1 53:1 54:1 61:1 
0.9296215907156226 1:44 2:74 3:118 5:1 13:1 18:1 20:1 28:1 33:1 38:1 39:1 45:1 53:1 58:1 63:1 
4 1:7 2:111 3:118 8:1 13:1 15:1 23:1 28:1 32:1 38:1 39:1 45:1 53:1 58:1 63:1 
0.6092817311267561 1:135 2:44 3:179 8:1 13:1 18:1 23:1 28:1 29:1 35:1 42:1 48:1 49:1 58:1 63:1 
0.5546585562676487 1:100 2:79 3:179 8:1 13:1 14:1 23:1 24:1 33:1 35:1 42:1 48:1 49:1 58:1 63:1 
0.8084538955015375 1:68 2:111 3:179 8:1 13:1 15:1 23:1 28:1 32:1 35:1 42:1 48:1 49:1 58:1 63:1 
0.6053136940297532 1:-128 2:183 3:55 4:1 13:1 18:1 20:1 27:1 29:1 35:1 43:1 48:1 53:1 58:1 63:1 
4 1:-4 2:183 3:179 4:1 13:1 18:1 20:1 27:1 29:1 35:1 42:1 48:1 49:1 58:1 63:1 
2.090783957130069 1:80 2:111 3:191 8:1 13:1 15:1 23:1 28:1 32:1 38:1 43:1 45:1 53:1 58:1 61:1 
1.446387958641996 1:-118 2:194 3:76 8:1 13:1 18:1 22:1 25:1 33:1 38:1 41:1 45:1 53:1 54:1 61:1 
2.067091071005693 1:-168 2:223 3:55 8:1 9:1 18:1 20:1 27:1 32:1 35:1 43:1 48:1 53:1 58:1 63:1 
1.608989872708199 1:-151 2:223 3:72 8:1 9:1 18:1 20:1 27:1 32:1 38:1 39:1 45:1 53:1 56:1 60:1 
3.236756500521664 1:-105 2:223 3:118 8:1 9:1 18:1 20:1 27:1 32:1 38:1 39:1 45:1 53:1 58:1 63:1 
1.272508608251875 1:-44 2:223 3:179 8:1 9:1 18:1 20:1 27:1 32:1 35:1 42:1 48:1 49:1 58:1 63:1 
0.610635438076768 1:-19 2:25 3:6 8:1 12:1 18:1 20:1 27:1 30:1 38:1 40:1 48:1 49:1 56:1 63:1 
0.6192489284713166 1:29 2:25 3:54 8:1 12:1 18:1 20:1 27:1 30:1 38:1 43:1 44:1 53:1 54:1 60:1 
2.676880993617933 1:-69 2:75 3:6 7:1 13:1 18:1 23:1 28:1 33:1 38:1 40:1 48:1 49:1 56:1 63:1 
2.289306667356092 1:-21 2:75 3:54 7:1 13:1 18:1 23:1 28:1 33:1 38:1 43:1 44:1 53:1 54:1 60:1 
1.389710292755497 1:42 2:75 3:117 7:1 13:1 18:1 23:1 28:1 33:1 34:1 39:1 45:1 53:1 55:1 63:1 
2.190022512327047 1:-35 2:152 3:117 8:1 10:1 17:1 23:1 24:1 31:1 34:1 39:1 45:1 53:1 55:1 63:1 
2.153492415615299 1:-3 2:152 3:149 8:1 10:1 17:1 23:1 24:1 31:1 38:1 42:1 48:1 50:1 57:1 61:1 
1.403100982333842 1:-101 2:155 3:54 6:1 13:1 14:1 20:1 27:1 33:1 38:1 43:1 44:1 53:1 54:1 60:1 
0.8327049762285926 1:-38 2:155 3:117 6:1 13:1 14:1 20:1 27:1 33:1 34:1 39:1 45:1 53:1 55:1 63:1 
1.504552757965467 1:-6 2:155 3:149 6:1 13:1 14:1 20:1 27:1 33:1 38:1 42:1 48:1 50:1 57:1 61:1 
0.1159728821990307 1:-109 2:163 3:54 5:1 12:1 18:1 23:1 24:1 33:1 38:1 43:1 44:1 53:1 54:1 60:1 
0.8575286077590888 1:-64 2:163 3:99 5:1 12:1 18:1 23:1 24:1 33:1 38:1 43:1 45:1 52:1 58:1 63:1 
1.492847886582046 1:-117 2:171 3:54 4:1 9:1 18:1 23:1 24:1 30:1 38:1 43:1 44:1 53:1 54:1 60:1 
0.1437690996727556 1:-54 2:171 3:117 4:1 9:1 18:1 23:1 24:1 30:1 34:1 39:1 45:1 53:1 55:1 63:1 
0.06331080649656801 1:26 2:152 3:178 8:1 10:1 17:1 23:1 24:1 31:1 38:1 43:1 47:1 49:1 54:1 59:1 
1.047264111925728 1:15 2:163 3:178 5:1 12:1 18:1 23:1 24:1 33:1 38:1 43:1 47:1 49:1 54:1 59:1 
0.02193912823477001 1:7 2:171 3:178 4:1 9:1 18:1 23:1 24:1 30:1 38:1 43:1 47:1 49:1 54:1 59:1 
0.3433896862685505 1:-136 2:190 3:54 8:1 9:1 15:1 19:1 28:1 33:1 38:1 43:1 44:1 53:1 54:1 60:1 
0.3053856784524864 1:-73 2:190 3:117 8:1 9:1 15:1 19:1 28:1 33:1 34:1 39:1 45:1 53:1 55:1 63:1 
0.9536715060666658 1:-41 2:190 3:149 8:1 9:1 15:1 19:1 28:1 33:1 38:1 42:1 48:1 50:1 57:1 61:1 
0.4285660957075 1:-12 2:190 3:178 8:1 9:1 15:1 19:1 28:1 33:1 38:1 43:1 47:1 49:1 54:1 59:1 
0.5204935324141909 1:41 2:152 3:193 8:1 10:1 17:1 23:1 24:1 31:1 36:1 39:1 48:1 53:1 58:1 59:1 
2.830004358131917 1:22 2:171 3:193 4:1 9:1 18:1 23:1 24:1 30:1 36:1 39:1 48:1 53:1 58:1 59:1 
0.1957726486184496 1:191 2:8 3:199 8:1 13:1 14:1 23:1 25:1 29:1 34:1 40:1 48:1 53:1 58:1 63:1 
0.2597870939276934 1:47 2:152 3:199 8:1 10:1 17:1 23:1 24:1 31:1 34:1 40:1 48:1 53:1 58:1 63:1 
0.9954202974706008 1:44 2:155 3:199 6:1 13:1 14:1 20:1 27:1 33:1 34:1 40:1 48:1 53:1 58:1 63:1 
0.5661029253242211 1:28 2:171 3:199 4:1 9:1 18:1 23:1 24:1 30:1 34:1 40:1 48:1 53:1 58:1 63:1 
0.9803229471038925 1:9 2:190 3:199 8:1 9:1 15:1 19:1 28:1 33:1 34:1 40:1 48:1 53:1 58:1 63:1 
0.8475664457409385 1:187 2:25 3:212 8:1 12:1 18:1 20:1 27:1 30:1 38:1 42:1 48:1 53:1 54:1 63:1 
0.9313457215560126 1:137 2:75 3:212 7:1 13:1 18:1 23:1 28:1 33:1 38:1 42:1 48:1 53:1 54:1 63:1 
0.5732005254396799 1:57 2:155 3:212 6:1 13:1 14:1 20:1 27:1 33:1 38:1 42:1 48:1 53:1 54:1 63:1 
0.634398589228947 1:41 2:171 3:212 4:1 9:1 18:1 23:1 24:1 30:1 38:1 42:1 48:1 53:1 54:1 63:1 
0.5454530165740692 1:22 2:190 3:212 8:1 9:1 15:1 19:1 28:1 33:1 38:1 42:1 48:1 53:1 54:1 63:1 
2.73124622608385 1:173 2:152 3:325 8:1 10:1 17:1 23:1 24:1 31:1 35:1 43:1 48:1 53:1 54:1 63:1 
2.373782742151413 1:154 2:171 3:325 4:1 9:1 18:1 23:1 24:1 30:1 35:1 43:1 48:1 53:1 54:1 63:1 
0.4695544154832992 1:135 2:190 3:325 8:1 9:1 15:1 19:1 28:1 33:1 35:1 43:1 48:1 53:1 54:1 63:1 
1.831115533655935 1:-326 2:332 3:6 7:1 13:1 15:1 20:1 28:1 33:1 38:1 40:1 48:1 49:1 56:1 63:1 
0.4186583292381418 1:-278 2:332 3:54 7:1 13:1 15:1 20:1 28:1 33:1 38:1 43:1 44:1 53:1 54:1 60:1 
0.5754186036883219 1:-183 2:332 3:149 7:1 13:1 15:1 20:1 28:1 33:1 38:1 42:1 48:1 50:1 57:1 61:1 
4 1:-2 2:75 3:73 8:1 13:1 14:1 23:1 26:1 33:1 38:1 40:1 48:1 49:1 56:1 63:1 
2.740017595007868 1:-4 2:77 3:73 4:1 11:1 18:1 23:1 26:1 30:1 38:1 40:1 48:1 49:1 56:1 63:1 
1.612926432140775 1:-6 2:79 3:73 8:1 11:1 18:1 20:1 28:1 33:1 38:1 40:1 48:1 49:1 56:1 63:1 
1.074404732841652 1:-84 2:86 3:2 8:1 10:1 18:1 23:1 28:1 33:1 43:1 47:1 49:1 56:1 63:1 
0.5808211913478121 1:86 2:4 3:90 7:1 13:1 14:1 23:1 28:1 30:1 38:1 43:1 48:1 51:1 56:1 62:1 
1.353561203662792 1:15 2:75 3:90 8:1 13:1 14:1 23:1 26:1 33:1 38:1 43:1 48:1 51:1 56:1 62:1 
0.1805657641471979 1:11 2:79 3:90 8:1 11:1 18:1 20:1 28:1 33:1 38:1 43:1 48:1 51:1 56:1 62:1 
0.1183297752780076 1:-18 2:91 3:73 8:1 13:1 18:1 21:1 27:1 31:1 38:1 40:1 48:1 49:1 56:1 63:1 
2.932699842897907 1:-1 2:91 3:90 8:1 13:1 18:1 21:1 27:1 31:1 38:1 43:1 48:1 51:1 56:1 62:1 
0.4111930490671964 1:-84 2:92 3:8 8:1 13:1 16:1 22:1 26:1 29:1 38:1 43:1 45:1 52:1 58:1 59:1 
0.6637883844391357 1:-19 2:92 3:73 8:1 13:1 16:1 22:1 26:1 29:1 38:1 40:1 48:1 49:1 56:1 63:1 
0.7096944696095637 1:-21 2:94 3:73 6:1 11:1 17:1 19:1 28:1 32:1 38:1 40:1 48:1 49:1 56:1 63:1 
0.3028061998401188 1:9 2:92 3:101 8:1 13:1 16:1 22:1 26:1 29:1 35:1 43:1 47:1 52:1 58:1 59:1 
0.09215232579537837 1:7 2:94 3:101 6:1 11:1 17:1 19:1 28:1 32:1 35:1 43:1 47:1 52:1 58:1 59:1 
2.50501738178484 1:-99 2:107 3:8 4:1 10:1 18:1 23:1 26:1 32:1 38:1 43:1 45:1 52:1 58:1 59:1 
3.143732735258811 1:-6 2:107 3:101 4:1 10:1 18:1 23:1 26:1 32:1 35:1 43:1 47:1 52:1 58:1 59:1 
0.6133462915944043 1:-99 2:109 3:10 8:1 11:1 18:1 22:1 28:1 33:1 35:1 43:1 47:1 49:1 54:1 63:1 
0.6773182672364318 1:-36 2:109 3:73 8:1 11:1 18:1 22:1 28:1 33:1 38:1 40:1 48:1 49:1 56:1 63:1 
0.6430402229615486 1:-124 2:126 3:2 4:1 13:1 18:1 19:1 25:1 33:1 43:1 47:1 49:1 56:1 63:1 
1.019044246375767 1:-36 2:126 3:90 4:1 13:1 18:1 19:1 25:1 33:1 38:1 43:1 48:1 51:1 56:1 62:1 
1.520441609467342 1:-82 2:155 3:73 8:1 13:1 18:1 20:1 26:1 29:1 38:1 40:1 48:1 49:1 56:1 63:1 
1.874598100605697 1:-84 2:157 3:73 8:1 11:1 15:1 19:1 27:1 33:1 38:1 40:1 48:1 49:1 56:1 63:1 
2.969719227325343 1:-155 2:163 3:8 8:1 10:1 18:1 23:1 28:1 30:1 38:1 43:1 45:1 52:1 58:1 59:1 
2.683582930088581 1:-73 2:163 3:90 8:1 10:1 18:1 23:1 28:1 30:1 38:1 43:1 48:1 51:1 56:1 62:1 
1.038212214414697 1:-62 2:163 3:101 8:1 10:1 18:1 23:1 28:1 30:1 35:1 43:1 47:1 52:1 58:1 59:1 
0.8000702227677717 1:93 2:75 3:168 8:1 13:1 14:1 23:1 26:1 33:1 38:1 40:1 48:1 53:1 54:1 62:1 
0.7416688506298533 1:82 2:86 3:168 8:1 10:1 18:1 23:1 28:1 33:1 38:1 40:1 48:1 53:1 54:1 62:1 
0.7696615371515182 1:76 2:92 3:168 8:1 13:1 16:1 22:1 26:1 29:1 38:1 40:1 48:1 53:1 54:1 62:1 
1.716067741312744 1:11 2:157 3:168 8:1 11:1 15:1 19:1 27:1 33:1 38:1 40:1 48:1 53:1 54:1 62:1 
1.014989131009898 1:-175 2:177 3:2 8:1 9:1 15:1 23:1 28:1 33:1 43:1 47:1 49:1 56:1 63:1 
1.158065840228544 1:-9 2:177 3:168 8:1 9:1 15:1 23:1 28:1 33:1 38:1 40:1 48:1 53:1 54:1 62:1 
1.468631888925219 1:-179 2:187 3:8 4:1 10:1 18:1 23:1 24:1 32:1 38:1 43:1 45:1 52:1 58:1 59:1 
2.322723617916263 1:-97 2:187 3:90 4:1 10:1 18:1 23:1 24:1 32:1 38:1 43:1 48:1 51:1 56:1 62:1 
0.1801252106306378 1:-19 2:187 3:168 4:1 10:1 18:1 23:1 24:1 32:1 38:1 40:1 48:1 53:1 54:1 62:1 
0.6650970376395159 1:-214 2:216 3:2 7:1 10:1 18:1 23:1 28:1 30:1 43:1 47:1 49:1 56:1 63:1 
2.809439225140846 1:-143 2:216 3:73 7:1 10:1 18:1 23:1 28:1 30:1 38:1 40:1 48:1 49:1 56:1 63:1 
0.3093767461009723 1:-115 2:216 3:101 7:1 10:1 18:1 23:1 28:1 30:1 35:1 43:1 47:1 52:1 58:1 59:1 
0.047144382882578 1:166 2:77 3:243 4:1 11:1 18:1 23:1 26:1 30:1 37:1 43:1 48:1 49:1 55:1 63:1 
2.810808818311567 1:157 2:86 3:243 8:1 10:1 18:1 23:1 28:1 33:1 37:1 43:1 48:1 49:1 55:1 63:1 
2.80473072919717 1:136 2:107 3:243 4:1 10:1 18:1 23:1 26:1 32:1 37:1 43:1 48:1 49:1 55:1 63:1 
1.656465051620985 1:88 2:155 3:243 8:1 13:1 18:1 20:1 26:1 29:1 37:1 43:1 48:1 49:1 55:1 63:1 
0.04674808615019462 1:31 2:212 3:243 8:1 10:1 18:1 22:1 25:1 33:1 37:1 43:1 48:1 49:1 55:1 63:1 
0.5538344550619101 1:-257 2:259 3:2 5:1 13:1 18:1 23:1 27:1 33:1 43:1 47:1 49:1 56:1 63:1 
1.322013739168924 1:-249 2:259 3:10 5:1 13:1 18:1 23:1 27:1 33:1 35:1 43:1 47:1 49:1 54:1 63:1 
0.5265468910570206 1:-158 2:259 3:101 5:1 13:1 18:1 23:1 27:1 33:1 35:1 43:1 47:1 52:1 58:1 59:1 
1.442822909264063 1:-91 2:259 3:168 5:1 13:1 18:1 23:1 27:1 33:1 38:1 40:1 48:1 53:1 54:1 62:1 
1.223316969771504 1:-271 2:273 3:2 8:1 9:1 15:1 23:1 27:1 33:1 43:1 47:1 49:1 56:1 63:1 
1.594677939045618 1:-183 2:273 3:90 8:1 9:1 15:1 23:1 27:1 33:1 38:1 43:1 48:1 51:1 56:1 62:1 
0.01848976844525789 1:-172 2:273 3:101 8:1 9:1 15:1 23:1 27:1 33:1 35:1 43:1 47:1 52:1 58:1 59:1 
0.04217922164377639 1:-105 2:273 3:168 8:1 9:1 15:1 23:1 27:1 33:1 38:1 40:1 48:1 53:1 54:1 62:1 
1.943153039501456 1:-30 2:273 3:243 8:1 9:1 15:1 23:1 27:1 33:1 37:1 43:1 48:1 49:1 55:1 63:1 
0.4080025257293284 1:272 2:4 3:276 7:1 13:1 14:1 23:1 28:1 30:1 36:1 43:1 47:1 53:1 56:1 63:1 
1.640457641784384 1:199 2:77 3:276 4:1 11:1 18:1 23:1 26:1 30:1 36:1 43:1 47:1 53:1 56:1 63:1 
3.152085670785397 1:190 2:86 3:276 8:1 10:1 18:1 23:1 28:1 33:1 36:1 43:1 47:1 53:1 56:1 63:1 
1.846221323072478 1:185 2:91 3:276 8:1 13:1 18:1 21:1 27:1 31:1 36:1 43:1 47:1 53:1 56:1 63:1 
0.6897912739657508 1:184 2:92 3:276 8:1 13:1 16:1 22:1 26:1 29:1 36:1 43:1 47:1 53:1 56:1 63:1 
1.777043157201788 1:169 2:107 3:276 4:1 10:1 18:1 23:1 26:1 32:1 36:1 43:1 47:1 53:1 56:1 63:1 
2.920598830358968 1:121 2:155 3:276 8:1 13:1 18:1 20:1 26:1 29:1 36:1 43:1 47:1 53:1 56:1 63:1 
1.588393252118504 1:64 2:212 3:276 8:1 10:1 18:1 22:1 25:1 33:1 36:1 43:1 47:1 53:1 56:1 63:1 
0.01498019943715415 1:-276 2:278 3:2 7:1 13:1 18:1 23:1 24:1 31:1 43:1 47:1 49:1 56:1 63:1 
0.06839431496294363 1:-177 2:278 3:101 7:1 13:1 18:1 23:1 24:1 31:1 35:1 43:1 47:1 52:1 58:1 59:1 
0.07114187895304956 1:-191 2:281 3:90 6:1 13:1 14:1 20:1 28:1 33:1 38:1 43:1 48:1 51:1 56:1 62:1 
3.134846663161622 1:-38 2:281 3:243 6:1 13:1 14:1 20:1 28:1 33:1 37:1 43:1 48:1 49:1 55:1 63:1 
4 1:-5 2:281 3:276 6:1 13:1 14:1 20:1 28:1 33:1 36:1 43:1 47:1 53:1 56:1 63:1 
1.344370703714243 1:-197 2:287 3:90 8:1 12:1 17:1 19:1 27:1 33:1 38:1 43:1 48:1 51:1 56:1 62:1 
0.3331428738241361 1:216 2:79 3:295 8:1 11:1 18:1 20:1 28:1 33:1 35:1 43:1 45:1 53:1 56:1 63:1 
1.604498388301529 1:209 2:86 3:295 8:1 10:1 18:1 23:1 28:1 33:1 35:1 43:1 45:1 53:1 56:1 63:1 
1.934664278660958 1:203 2:92 3:295 8:1 13:1 16:1 22:1 26:1 29:1 35:1 43:1 45:1 53:1 56:1 63:1 
2.396368108445684 1:188 2:107 3:295 4:1 10:1 18:1 23:1 26:1 32:1 35:1 43:1 45:1 53:1 56:1 63:1 
3.484291648609927 1:140 2:155 3:295 8:1 13:1 18:1 20:1 26:1 29:1 35:1 43:1 45:1 53:1 56:1 63:1 
0.3208571930218997 1:36 2:259 3:295 5:1 13:1 18:1 23:1 27:1 33:1 35:1 43:1 45:1 53:1 56:1 63:1 
0.8365796869713129 1:17 2:278 3:295 7:1 13:1 18:1 23:1 24:1 31:1 35:1 43:1 45:1 53:1 56:1 63:1 
0.4617424087364538 1:-289 2:297 3:8 5:1 13:1 18:1 23:1 24:1 30:1 38:1 43:1 45:1 52:1 58:1 59:1 
0.3729461372234176 1:-287 2:297 3:10 5:1 13:1 18:1 23:1 24:1 30:1 35:1 43:1 47:1 49:1 54:1 63:1 
0.8843026485001448 1:-207 2:297 3:90 5:1 13:1 18:1 23:1 24:1 30:1 38:1 43:1 48:1 51:1 56:1 62:1 
0.5695404289609707 1:-196 2:297 3:101 5:1 13:1 18:1 23:1 24:1 30:1 35:1 43:1 47:1 52:1 58:1 59:1 
1.29781157287861 1:-129 2:297 3:168 5:1 13:1 18:1 23:1 24:1 30:1 38:1 40:1 48:1 53:1 54:1 62:1 
4 1:-2 2:297 3:295 5:1 13:1 18:1 23:1 24:1 30:1 35:1 43:1 45:1 53:1 56:1 63:1 
0.86490057174261 1:-300 2:302 3:2 4:1 10:1 18:1 19:1 27:1 33:1 43:1 47:1 49:1 56:1 63:1 
0.01071693379905424 1:-294 2:302 3:8 4:1 10:1 18:1 19:1 27:1 33:1 38:1 43:1 45:1 52:1 58:1 59:1 
0.4463086727682505 1:-201 2:302 3:101 4:1 10:1 18:1 19:1 27:1 33:1 35:1 43:1 47:1 52:1 58:1 59:1 
1.752737006547455 1:-134 2:302 3:168 4:1 10:1 18:1 19:1 27:1 33:1 38:1 40:1 48:1 53:1 54:1 62:1 
0.5896574987156549 1:-59 2:302 3:243 4:1 10:1 18:1 19:1 27:1 33:1 37:1 43:1 48:1 49:1 55:1 63:1 
0.4712310151176325 1:230 2:75 3:305 8:1 13:1 14:1 23:1 26:1 33:1 36:1 39:1 47:1 49:1 58:1 63:1 
1.647085804239498 1:228 2:77 3:305 4:1 11:1 18:1 23:1 26:1 30:1 36:1 39:1 47:1 49:1 58:1 63:1 
4 1:219 2:86 3:305 8:1 10:1 18:1 23:1 28:1 33:1 36:1 39:1 47:1 49:1 58:1 63:1 
1.238887160485548 1:214 2:91 3:305 8:1 13:1 18:1 21:1 27:1 31:1 36:1 39:1 47:1 49:1 58:1 63:1 
2.752485537468126 1:198 2:107 3:305 4:1 10:1 18:1 23:1 26:1 32:1 36:1 39:1 47:1 49:1 58:1 63:1 
0.531030679993286 1:179 2:126 3:305 4:1 13:1 18:1 19:1 25:1 33:1 36:1 39:1 47:1 49:1 58:1 63:1 
2.923394726655824 1:93 2:212 3:305 8:1 10:1 18:1 22:1 25:1 33:1 36:1 39:1 47:1 49:1 58:1 63:1 
1.621683254735543 1:46 2:259 3:305 5:1 13:1 18:1 23:1 27:1 33:1 36:1 39:1 47:1 49:1 58:1 63:1 
0.9152127632986676 1:32 2:273 3:305 8:1 9:1 15:1 23:1 27:1 33:1 36:1 39:1 47:1 49:1 58:1 63:1 
0.4513838838878624 1:27 2:278 3:305 7:1 13:1 18:1 23:1 24:1 31:1 36:1 39:1 47:1 49:1 58:1 63:1 
1.375012226736833 1:18 2:287 3:305 8:1 12:1 17:1 19:1 27:1 33:1 36:1 39:1 47:1 49:1 58:1 63:1 
1.102935221007546 1:3 2:302 3:305 4:1 10:1 18:1 19:1 27:1 33:1 36:1 39:1 47:1 49:1 58:1 63:1 
0.08932294567380565 1:229 2:79 3:308 8:1 11:1 18:1 20:1 28:1 33:1 38:1 39:1 48:1 52:1 55:1 62:1 
3.251425760046663 1:199 2:109 3:308 8:1 11:1 18:1 22:1 28:1 33:1 38:1 39:1 48:1 52:1 55:1 62:1 
1.700002543643298 1:182 2:126 3:308 4:1 13:1 18:1 19:1 25:1 33:1 38:1 39:1 48:1 52:1 55:1 62:1 
0.4284313951103033 1:151 2:157 3:308 8:1 11:1 15:1 19:1 27:1 33:1 38:1 39:1 48:1 52:1 55:1 62:1 
4 1:131 2:177 3:308 8:1 9:1 15:1 23:1 28:1 33:1 38:1 39:1 48:1 52:1 55:1 62:1 
0.3979568734861184 1:96 2:212 3:308 8:1 10:1 18:1 22:1 25:1 33:1 38:1 39:1 48:1 52:1 55:1 62:1 
2.775893344096319 1:92 2:216 3:308 7:1 10:1 18:1 23:1 28:1 30:1 38:1 39:1 48:1 52:1 55:1 62:1 
3.506781338629413 1:27 2:281 3:308 6:1 13:1 14:1 20:1 28:1 33:1 38:1 39:1 48:1 52:1 55:1 62:1 
0.2389235230062768 1:21 2:287 3:308 8:1 12:1 17:1 19:1 27:1 33:1 38:1 39:1 48:1 52:1 55:1 62:1 
0.4304363381961179 1:-315 2:317 3:2 5:1 13:1 14:1 23:1 27:1 33:1 43:1 47:1 49:1 56:1 63:1 
1.116588010807141 1:-227 2:317 3:90 5:1 13:1 14:1 23:1 27:1 33:1 38:1 43:1 48:1 51:1 56:1 62:1 
1.286268327212665 1:-74 2:317 3:243 5:1 13:1 14:1 23:1 27:1 33:1 37:1 43:1 48:1 49:1 55:1 63:1 
1.374041791440609 1:-22 2:317 3:295 5:1 13:1 14:1 23:1 27:1 33:1 35:1 43:1 45:1 53:1 56:1 63:1 
1.431637203266504 1:-12 2:317 3:305 5:1 13:1 14:1 23:1 27:1 33:1 36:1 39:1 47:1 49:1 58:1 63:1 
1.084069889936178 1:316 2:4 3:320 7:1 13:1 14:1 23:1 28:1 30:1 36:1 43:1 47:1 52:1 57:1 60:1 
2.507093409117148 1:241 2:79 3:320 8:1 11:1 18:1 20:1 28:1 33:1 36:1 43:1 47:1 52:1 57:1 60:1 
2.48495109383403 1:229 2:91 3:320 8:1 13:1 18:1 21:1 27:1 31:1 36:1 43:1 47:1 52:1 57:1 60:1 
1.975533943787776 1:213 2:107 3:320 4:1 10:1 18:1 23:1 26:1 32:1 36:1 43:1 47:1 52:1 57:1 60:1 
0.01830611488883155 1:194 2:126 3:320 4:1 13:1 18:1 19:1 25:1 33:1 36:1 43:1 47:1 52:1 57:1 60:1 
2.113088683954529 1:165 2:155 3:320 8:1 13:1 18:1 20:1 26:1 29:1 36:1 43:1 47:1 52:1 57:1 60:1 
0.3448543053326247 1:157 2:163 3:320 8:1 10:1 18:1 23:1 28:1 30:1 36:1 43:1 47:1 52:1 57:1 60:1 
1.259838548519581 1:133 2:187 3:320 4:1 10:1 18:1 23:1 24:1 32:1 36:1 43:1 47:1 52:1 57:1 60:1 
0.1493062885962087 1:108 2:212 3:320 8:1 10:1 18:1 22:1 25:1 33:1 36:1 43:1 47:1 52:1 57:1 60:1 
2.339200851047245 1:39 2:281 3:320 6:1 13:1 14:1 20:1 28:1 33:1 36:1 43:1 47:1 52:1 57:1 60:1 
0.9514741648703531 1:18 2:302 3:320 4:1 10:1 18:1 19:1 27:1 33:1 36:1 43:1 47:1 52:1 57:1 60:1 
3.659436976638185 1:3 2:317 3:320 5:1 13:1 14:1 23:1 27:1 33:1 36:1 43:1 47:1 52:1 57:1 60:1 
0.7517755211730588 1:254 2:77 3:331 4:1 11:1 18:1 23:1 26:1 30:1 38:1 43:1 47:1 52:1 54:1 63:1 
0.03481308344754726 1:252 2:79 3:331 8:1 11:1 18:1 20:1 28:1 33:1 38:1 43:1 47:1 52:1 54:1 63:1 
1.253988907403871 1:245 2:86 3:331 8:1 10:1 18:1 23:1 28:1 33:1 38:1 43:1 47:1 52:1 54:1 63:1 
3.366509758010906 1:224 2:107 3:331 4:1 10:1 18:1 23:1 26:1 32:1 38:1 43:1 47:1 52:1 54:1 63:1 
1.039321849643686 1:205 2:126 3:331 4:1 13:1 18:1 19:1 25:1 33:1 38:1 43:1 47:1 52:1 54:1 63:1 
1.841349039174729 1:58 2:273 3:331 8:1 9:1 15:1 23:1 27:1 33:1 38:1 43:1 47:1 52:1 54:1 63:1 
3.428127804900921 1:29 2:302 3:331 4:1 10:1 18:1 19:1 27:1 33:1 38:1 43:1 47:1 52:1 54:1 63:1 
1.005189686104239 1:14 2:317 3:331 5:1 13:1 14:1 23:1 27:1 33:1 38:1 43:1 47:1 52:1 54:1 63:1 
0.5437451955525603 1:-348 2:350 3:2 4:1 13:1 14:1 23:1 28:1 29:1 43:1 47:1 49:1 56:1 63:1 
1.234036305757876 1:-342 2:350 3:8 4:1 13:1 14:1 23:1 28:1 29:1 38:1 43:1 45:1 52:1 58:1 59:1 
0.9206737576091758 1:-340 2:350 3:10 4:1 13:1 14:1 23:1 28:1 29:1 35:1 43:1 47:1 49:1 54:1 63:1 
2.40910533018252 1:-277 2:350 3:73 4:1 13:1 14:1 23:1 28:1 29:1 38:1 40:1 48:1 49:1 56:1 63:1 
1.629060034165345 1:-182 2:350 3:168 4:1 13:1 14:1 23:1 28:1 29:1 38:1 40:1 48:1 53:1 54:1 62:1 
0.381712720928076 1:-107 2:350 3:243 4:1 13:1 14:1 23:1 28:1 29:1 37:1 43:1 48:1 49:1 55:1 63:1 
0.8673157911865825 1:-55 2:350 3:295 4:1 13:1 14:1 23:1 28:1 29:1 35:1 43:1 45:1 53:1 56:1 63:1 
0.806673080086894 1:-30 2:350 3:320 4:1 13:1 14:1 23:1 28:1 29:1 36:1 43:1 47:1 52:1 57:1 60:1 
0.874191240611578 1:277 2:75 3:352 8:1 13:1 14:1 23:1 26:1 33:1 34:1 41:1 48:1 49:1 54:1 63:1 
0.4106393324611989 1:275 2:77 3:352 4:1 11:1 18:1 23:1 26:1 30:1 34:1 41:1 48:1 49:1 54:1 63:1 
0.04578040859060744 1:261 2:91 3:352 8:1 13:1 18:1 21:1 27:1 31:1 34:1 41:1 48:1 49:1 54:1 63:1 
1.817581254325784 1:260 2:92 3:352 8:1 13:1 16:1 22:1 26:1 29:1 34:1 41:1 48:1 49:1 54:1 63:1 
2.743385545867387 1:245 2:107 3:352 4:1 10:1 18:1 23:1 26:1 32:1 34:1 41:1 48:1 49:1 54:1 63:1 
0.05818210495387904 1:226 2:126 3:352 4:1 13:1 18:1 19:1 25:1 33:1 34:1 41:1 48:1 49:1 54:1 63:1 
1.45796337820208 1:197 2:155 3:352 8:1 13:1 18:1 20:1 26:1 29:1 34:1 41:1 48:1 49:1 54:1 63:1 
0.510340589661771 1:35 2:317 3:352 5:1 13:1 14:1 23:1 27:1 33:1 34:1 41:1 48:1 49:1 54:1 63:1 
0.5482317794385235 1:-195 2:363 3:168 5:1 10:1 14:1 23:1 25:1 38:1 40:1 48:1 53:1 54:1 62:1 
0.1844791391635484 1:-120 2:363 3:243 5:1 10:1 14:1 23:1 25:1 37:1 43:1 48:1 49:1 55:1 63:1 
1.598556441247686 1:-87 2:363 3:276 5:1 10:1 14:1 23:1 25:1 36:1 43:1 47:1 53:1 56:1 63:1 
0.688521192146754 1:-55 2:363 3:308 5:1 10:1 14:1 23:1 25:1 38:1 39:1 48:1 52:1 55:1 62:1 
0.7959618751325966 1:-11 2:363 3:352 5:1 10:1 14:1 23:1 25:1 34:1 41:1 48:1 49:1 54:1 63:1 
1.18687280478011 1:6 2:21 3:27 4:1 13:1 17:1 23:1 24:1 32:1 37:1 39:1 47:1 50:1 58:1 59:1 
0.4794856128783873 1:8 2:21 3:29 4:1 13:1 17:1 23:1 24:1 32:1 37:1 43:1 45:1 49:1 58:1 63:1 
0.9486487258582575 1:37 2:21 3:58 4:1 13:1 17:1 23:1 24:1 32:1 34:1 42:1 48:1 49:1 58:1 62:1 
0.9720930812874649 1:-51 2:64 3:13 7:1 13:1 18:1 20:1 28:1 33:1 37:1 40:1 48:1 53:1 58:1 62:1 
2.670237996901333 1:-6 2:64 3:58 7:1 13:1 18:1 20:1 28:1 33:1 34:1 42:1 48:1 49:1 58:1 62:1 
4 1:-2 2:64 3:62 7:1 13:1 18:1 20:1 28:1 33:1 34:1 43:1 47:1 53:1 56:1 60:1 
0.2032247728262829 1:46 2:21 3:67 4:1 13:1 17:1 23:1 24:1 32:1 36:1 40:1 48:1 52:1 58:1 63:1 
0.9466353062697144 1:49 2:21 3:70 4:1 13:1 17:1 23:1 24:1 32:1 38:1 42:1 48:1 53:1 54:1 62:1 
1.755809181614206 1:-61 2:76 3:15 7:1 13:1 18:1 22:1 28:1 33:1 38:1 43:1 48:1 52:1 58:1 59:1 
0.2888199245206449 1:-49 2:76 3:27 7:1 13:1 18:1 22:1 28:1 33:1 37:1 39:1 47:1 50:1 58:1 59:1 
3.248224958656715 1:-47 2:76 3:29 7:1 13:1 18:1 22:1 28:1 33:1 37:1 43:1 45:1 49:1 58:1 63:1 
1.090565412037761 1:-34 2:76 3:42 7:1 13:1 18:1 22:1 28:1 33:1 34:1 43:1 48:1 53:1 54:1 62:1 
0.8296536050220971 1:81 2:9 3:90 5:1 13:1 14:1 22:1 25:1 33:1 34:1 43:1 45:1 49:1 54:1 63:1 
2.41469273380727 1:69 2:21 3:90 4:1 13:1 17:1 23:1 24:1 32:1 34:1 43:1 45:1 49:1 54:1 63:1 
2.460725279861715 1:14 2:76 3:90 7:1 13:1 18:1 22:1 28:1 33:1 34:1 43:1 45:1 49:1 54:1 63:1 
1.311523114710357 1:87 2:9 3:96 5:1 13:1 14:1 22:1 25:1 33:1 38:1 42:1 48:1 53:1 58:1 63:1 
0.09869955157245497 1:75 2:21 3:96 4:1 13:1 17:1 23:1 24:1 32:1 38:1 42:1 48:1 53:1 58:1 63:1 
2.868376373755487 1:-88 2:115 3:27 7:1 9:1 15:1 22:1 25:1 33:1 37:1 39:1 47:1 50:1 58:1 59:1 
0.5796356798710123 1:-86 2:115 3:29 7:1 9:1 15:1 22:1 25:1 33:1 37:1 43:1 45:1 49:1 58:1 63:1 
0.2394453662646771 1:-74 2:115 3:41 7:1 9:1 15:1 22:1 25:1 33:1 35:1 39:1 48:1 53:1 58:1 59:1 
1.90873747815309 1:-73 2:115 3:42 7:1 9:1 15:1 22:1 25:1 33:1 34:1 43:1 48:1 53:1 54:1 62:1 
0.5839029034145655 1:-57 2:115 3:58 7:1 9:1 15:1 22:1 25:1 33:1 34:1 42:1 48:1 49:1 58:1 62:1 
1.140200753881452 1:-53 2:115 3:62 7:1 9:1 15:1 22:1 25:1 33:1 34:1 43:1 47:1 53:1 56:1 60:1 
0.1471771223341275 1:-45 2:115 3:70 7:1 9:1 15:1 22:1 25:1 33:1 38:1 42:1 48:1 53:1 54:1 62:1 
2.966352282162609 1:-19 2:115 3:96 7:1 9:1 15:1 22:1 25:1 33:1 38:1 42:1 48:1 53:1 58:1 63:1 
0.8536078569853121 1:43 2:76 3:119 7:1 13:1 18:1 22:1 28:1 33:1 37:1 40:1 48:1 53:1 54:1 62:1 
2.524130699256946 1:4 2:115 3:119 7:1 9:1 15:1 22:1 25:1 33:1 37:1 40:1 48:1 53:1 54:1 62:1 
0.1219225220008702 1:115 2:21 3:136 4:1 13:1 17:1 23:1 24:1 32:1 35:1 42:1 48:1 53:1 54:1 63:1 
0.8195622229816607 1:60 2:76 3:136 7:1 13:1 18:1 22:1 28:1 33:1 35:1 42:1 48:1 53:1 54:1 63:1 
1.978136954462344 1:21 2:115 3:136 7:1 9:1 15:1 22:1 25:1 33:1 35:1 42:1 48:1 53:1 54:1 63:1 
2.767658345384943 1:76 2:76 3:152 7:1 13:1 18:1 22:1 28:1 33:1 38:1 39:1 48:1 53:1 58:1 62:1 
2.302822748166497 1:37 2:115 3:152 7:1 9:1 15:1 22:1 25:1 33:1 38:1 39:1 48:1 53:1 58:1 62:1 
1.14558497836045 1:-149 2:162 3:13 4:1 10:1 15:1 23:1 27:1 33:1 37:1 40:1 48:1 53:1 58:1 62:1 
0.5102612015714214 1:-121 2:162 3:41 4:1 10:1 15:1 23:1 27:1 33:1 35:1 39:1 48:1 53:1 58:1 59:1 
1.47346297985205 1:-120 2:162 3:42 4:1 10:1 15:1 23:1 27:1 33:1 34:1 43:1 48:1 53:1 54:1 62:1 
0.8293863959124875 1:-95 2:162 3:67 4:1 10:1 15:1 23:1 27:1 33:1 36:1 40:1 48:1 52:1 58:1 63:1 
0.1384386863799176 1:-92 2:162 3:70 4:1 10:1 15:1 23:1 27:1 33:1 38:1 42:1 48:1 53:1 54:1 62:1 
0.7351881301912779 1:-72 2:162 3:90 4:1 10:1 15:1 23:1 27:1 33:1 34:1 43:1 45:1 49:1 54:1 63:1 
1.033985884225175 1:-66 2:162 3:96 4:1 10:1 15:1 23:1 27:1 33:1 38:1 42:1 48:1 53:1 58:1 63:1 
0.9018486362008643 1:-32 2:162 3:130 4:1 10:1 15:1 23:1 27:1 33:1 35:1 40:1 48:1 53:1 57:1 60:1 
2.380674098078058 1:115 2:76 3:191 7:1 13:1 18:1 22:1 28:1 33:1 38:1 42:1 45:1 52:1 58:1 63:1 
2.949954875842268 1:76 2:115 3:191 7:1 9:1 15:1 22:1 25:1 33:1 38:1 42:1 45:1 52:1 58:1 63:1 
4 1:-194 2:207 3:13 8:1 10:1 15:1 22:1 25:1 30:1 37:1 40:1 48:1 53:1 58:1 62:1 
1.162635336568519 1:-180 2:207 3:27 8:1 10:1 15:1 22:1 25:1 30:1 37:1 39:1 47:1 50:1 58:1 59:1 
2.139136034544792 1:-178 2:207 3:29 8:1 10:1 15:1 22:1 25:1 30:1 37:1 43:1 45:1 49:1 58:1 63:1 
0.3915878006815251 1:-165 2:207 3:42 8:1 10:1 15:1 22:1 25:1 30:1 34:1 43:1 48:1 53:1 54:1 62:1 
0.003959464393413284 1:-149 2:207 3:58 8:1 10:1 15:1 22:1 25:1 30:1 34:1 42:1 48:1 49:1 58:1 62:1 
3.511553336384551 1:-140 2:207 3:67 8:1 10:1 15:1 22:1 25:1 30:1 36:1 40:1 48:1 52:1 58:1 63:1 
2.511276325293951 1:-137 2:207 3:70 8:1 10:1 15:1 22:1 25:1 30:1 38:1 42:1 48:1 53:1 54:1 62:1 
0.1278529534338569 1:-107 2:207 3:100 8:1 10:1 15:1 22:1 25:1 30:1 38:1 43:1 48:1 52:1 57:1 63:1 
1.048344305968037 1:-77 2:207 3:130 8:1 10:1 15:1 22:1 25:1 30:1 35:1 40:1 48:1 53:1 57:1 60:1 
0.9754062056693753 1:-71 2:207 3:136 8:1 10:1 15:1 22:1 25:1 30:1 35:1 42:1 48:1 53:1 54:1 63:1 
3.417649897979389 1:-55 2:207 3:152 8:1 10:1 15:1 22:1 25:1 30:1 38:1 39:1 48:1 53:1 58:1 62:1 
2.780684656570438 1:-16 2:207 3:191 8:1 10:1 15:1 22:1 25:1 30:1 38:1 42:1 45:1 52:1 58:1 63:1 
1.271730473698116 1:5 2:207 3:212 8:1 10:1 15:1 22:1 25:1 30:1 35:1 40:1 48:1 53:1 58:1 62:1 
0.6314175332474806 1:133 2:115 3:248 7:1 9:1 15:1 22:1 25:1 33:1 38:1 42:1 45:1 53:1 58:1 63:1 
1.529603473952167 1:-248 2:263 3:15 8:1 12:1 15:1 23:1 24:1 30:1 38:1 43:1 48:1 52:1 58:1 59:1 
1.005561704356884 1:-236 2:263 3:27 8:1 12:1 15:1 23:1 24:1 30:1 37:1 39:1 47:1 50:1 58:1 59:1 
0.6670742889465117 1:-234 2:263 3:29 8:1 12:1 15:1 23:1 24:1 30:1 37:1 43:1 45:1 49:1 58:1 63:1 
0.6559820302215528 1:-196 2:263 3:67 8:1 12:1 15:1 23:1 24:1 30:1 36:1 40:1 48:1 52:1 58:1 63:1 
0.83844365892633 1:-189 2:263 3:74 8:1 12:1 15:1 23:1 24:1 30:1 38:1 39:1 47:1 53:1 56:1 62:1 
1.245430834051003 1:-173 2:263 3:90 8:1 12:1 15:1 23:1 24:1 30:1 34:1 43:1 45:1 49:1 54:1 63:1 
1.468142465524234 1:-165 2:263 3:98 8:1 12:1 15:1 23:1 24:1 30:1 38:1 43:1 48:1 53:1 58:1 62:1 
1.592895552189916 1:-144 2:263 3:119 8:1 12:1 15:1 23:1 24:1 30:1 37:1 40:1 48:1 53:1 54:1 62:1 
2.672730357546855 1:-127 2:263 3:136 8:1 12:1 15:1 23:1 24:1 30:1 35:1 42:1 48:1 53:1 54:1 63:1 
2.078994828968745 1:-51 2:263 3:212 8:1 12:1 15:1 23:1 24:1 30:1 35:1 40:1 48:1 53:1 58:1 62:1 
0.002453743617550893 1:264 2:9 3:273 5:1 13:1 14:1 22:1 25:1 33:1 38:1 40:1 47:1 53:1 54:1 59:1 
0.3276971082081636 1:252 2:21 3:273 4:1 13:1 17:1 23:1 24:1 32:1 38:1 40:1 47:1 53:1 54:1 59:1 
1.593691155757205 1:197 2:76 3:273 7:1 13:1 18:1 22:1 28:1 33:1 38:1 40:1 47:1 53:1 54:1 59:1 
0.9737575800173291 1:66 2:207 3:273 8:1 10:1 15:1 22:1 25:1 30:1 38:1 40:1 47:1 53:1 54:1 59:1 
3.289071301430368 1:10 2:263 3:273 8:1 12:1 15:1 23:1 24:1 30:1 38:1 40:1 47:1 53:1 54:1 59:1 
2.090270577337328 1:257 2:21 3:278 4:1 13:1 17:1 23:1 24:1 32:1 34:1 39:1 45:1 49:1 58:1 63:1 
0.9704740631719915 1:116 2:162 3:278 4:1 10:1 15:1 23:1 27:1 33:1 34:1 39:1 45:1 49:1 58:1 63:1 
0.5746882648900371 1:15 2:263 3:278 8:1 12:1 15:1 23:1 24:1 30:1 34:1 39:1 45:1 49:1 58:1 63:1 
1.089322233316198 1:280 2:9 3:289 5:1 13:1 14:1 22:1 25:1 33:1 35:1 42:1 48:1 53:1 58:1 62:1 
0.9598228381916989 1:268 2:21 3:289 4:1 13:1 17:1 23:1 24:1 32:1 35:1 42:1 48:1 53:1 58:1 62:1 
0.006588051222057354 1:174 2:115 3:289 7:1 9:1 15:1 22:1 25:1 33:1 35:1 42:1 48:1 53:1 58:1 62:1 
0.1540619823499253 1:176 2:115 3:291 7:1 9:1 15:1 22:1 25:1 33:1 38:1 43:1 48:1 52:1 58:1 59:1 
4 1:-9 2:11 3:2 8:1 10:1 14:1 20:1 28:1 32:1 43:1 48:1 50:1 55:1 63:1 
4 1:-2 2:17 3:15 7:1 13:1 14:1 19:1 25:1 30:1 35:1 43:1 47:1 49:1 56:1 59:1 
2.429385657015676 1:22 2:17 3:39 7:1 13:1 14:1 19:1 25:1 30:1 35:1 43:1 48:1 53:1 58:1 59:1 
1.266579234859139 1:-48 2:63 3:15 8:1 9:1 15:1 22:1 25:1 33:1 35:1 43:1 47:1 49:1 56:1 59:1 
1.249093272608065 1:-40 2:63 3:23 8:1 9:1 15:1 22:1 25:1 33:1 35:1 43:1 48:1 52:1 54:1 59:1 
1.629916327796206 1:54 2:17 3:71 7:1 13:1 14:1 19:1 25:1 30:1 38:1 43:1 48:1 50:1 58:1 62:1 
4 1:75 2:17 3:92 7:1 13:1 14:1 19:1 25:1 30:1 38:1 43:1 47:1 50:1 55:1 63:1 
0.9669702801910495 1:108 2:17 3:125 7:1 13:1 14:1 19:1 25:1 30:1 35:1 43:1 47:1 49:1 54:1 59:1 
0.8132229243847398 1:62 2:63 3:125 8:1 9:1 15:1 22:1 25:1 33:1 35:1 43:1 47:1 49:1 54:1 59:1 
0.9404760431371857 1:117 2:17 3:134 7:1 13:1 14:1 19:1 25:1 30:1 37:1 43:1 47:1 53:1 58:1 63:1 
1.453108237324758 1:101 2:63 3:164 8:1 9:1 15:1 22:1 25:1 33:1 38:1 42:1 48:1 53:1 54:1 60:1 
4 1:-194 2:209 3:15 8:1 9:1 15:1 22:1 28:1 33:1 35:1 43:1 47:1 49:1 56:1 59:1 
0.9656028311366529 1:-170 2:209 3:39 8:1 9:1 15:1 22:1 28:1 33:1 35:1 43:1 48:1 53:1 58:1 59:1 
1.945512995214557 1:-75 2:209 3:134 8:1 9:1 15:1 22:1 28:1 33:1 37:1 43:1 47:1 53:1 58:1 63:1 
1.887807301738862 1:-73 2:209 3:136 8:1 9:1 15:1 22:1 28:1 33:1 37:1 43:1 48:1 53:1 54:1 63:1 
1.083682467588261 1:206 2:11 3:217 8:1 10:1 14:1 20:1 28:1 32:1 38:1 42:1 48:1 53:1 54:1 62:1 
0.6067304534156485 1:200 2:17 3:217 7:1 13:1 14:1 19:1 25:1 30:1 38:1 42:1 48:1 53:1 54:1 62:1 
0.1925787511612622 1:154 2:63 3:217 8:1 9:1 15:1 22:1 25:1 33:1 38:1 42:1 48:1 53:1 54:1 62:1 
3.071180451820976 1:214 2:11 3:225 8:1 10:1 14:1 20:1 28:1 32:1 38:1 43:1 48:1 53:1 58:1 59:1 
1.206217358862847 1:208 2:17 3:225 7:1 13:1 14:1 19:1 25:1 30:1 38:1 43:1 48:1 53:1 58:1 59:1 
4 1:16 2:209 3:225 8:1 9:1 15:1 22:1 28:1 33:1 38:1 43:1 48:1 53:1 58:1 59:1 
2.781122333445035 1:-232 2:245 3:13 8:1 13:1 18:1 23:1 28:1 30:1 34:1 41:1 45:1 52:1 58:1 59:1 
0.2293297678849123 1:-230 2:245 3:15 8:1 13:1 18:1 23:1 28:1 30:1 35:1 43:1 47:1 49:1 56:1 59:1 
0.8987164470052329 1:-179 2:245 3:66 8:1 13:1 18:1 23:1 28:1 30:1 36:1 42:1 45:1 52:1 58:1 63:1 
0.09570858502817768 1:-131 2:245 3:114 8:1 13:1 18:1 23:1 28:1 30:1 38:1 43:1 47:1 53:1 55:1 60:1 
1.465714836269932 1:-120 2:245 3:125 8:1 13:1 18:1 23:1 28:1 30:1 35:1 43:1 47:1 49:1 54:1 59:1 
0.7390958607758498 1:-111 2:245 3:134 8:1 13:1 18:1 23:1 28:1 30:1 37:1 43:1 47:1 53:1 58:1 63:1 
0.7680332944098522 1:230 2:17 3:247 7:1 13:1 14:1 19:1 25:1 30:1 38:1 41:1 48:1 50:1 58:1 63:1 
1.286161776586493 1:2 2:245 3:247 8:1 13:1 18:1 23:1 28:1 30:1 38:1 41:1 48:1 50:1 58:1 63:1 
0.6987115358147468 1:258 2:11 3:269 8:1 10:1 14:1 20:1 28:1 32:1 38:1 42:1 45:1 53:1 58:1 63:1 
4 1:-263 2:286 3:23 8:1 13:1 15:1 22:1 25:1 30:1 35:1 43:1 48:1 52:1 54:1 59:1 
1.118825456816213 1:-247 2:286 3:39 8:1 13:1 15:1 22:1 25:1 30:1 35:1 43:1 48:1 53:1 58:1 59:1 
1.013172612727807 1:-150 2:286 3:136 8:1 13:1 15:1 22:1 25:1 30:1 37:1 43:1 48:1 53:1 54:1 63:1 
1.434692132019662 1:-61 2:286 3:225 8:1 13:1 15:1 22:1 25:1 30:1 38:1 43:1 48:1 53:1 58:1 59:1 
1.230351565876353 1:292 2:11 3:303 8:1 10:1 14:1 20:1 28:1 32:1 38:1 40:1 45:1 49:1 58:1 63:1 
1.238162831913379 1:269 2:63 3:332 8:1 9:1 15:1 22:1 25:1 33:1 38:1 39:1 48:1 53:1 54:1 63:1 
0.4563754663038844 1:46 2:286 3:332 8:1 13:1 15:1 22:1 25:1 30:1 38:1 39:1 48:1 53:1 54:1 63:1 
1.358610153607233 1:322 2:17 3:339 7:1 13:1 14:1 19:1 25:1 30:1 35:1 43:1 44:1 52:1 57:1 60:1 
0.5416450631724444 1:130 2:209 3:339 8:1 9:1 15:1 22:1 28:1 33:1 35:1 43:1 44:1 52:1 57:1 60:1 
0.372777796558123 1:298 2:63 3:361 8:1 9:1 15:1 22:1 25:1 33:1 35:1 43:1 47:1 53:1 58:1 63:1 
1.807630969084933 1:152 2:209 3:361 8:1 9:1 15:1 22:1 28:1 33:1 35:1 43:1 47:1 53:1 58:1 63:1 
0.434345539359117 1:116 2:245 3:361 8:1 13:1 18:1 23:1 28:1 30:1 35:1 43:1 47:1 53:1 58:1 63:1 
0.1651341074326615 1:363 2:11 3:374 8:1 10:1 14:1 20:1 28:1 32:1 38:1 39:1 45:1 53:1 58:1 63:1 
0.007353233130270382 1:380 2:11 3:391 8:1 10:1 14:1 20:1 28:1 32:1 38:1 39:1 47:1 49:1 58:1 63:1 
0.7490518905728414 1:374 2:17 3:391 7:1 13:1 14:1 19:1 25:1 30:1 38:1 39:1 47:1 49:1 58:1 63:1 
2.268861304606358 1:328 2:63 3:391 8:1 9:1 15:1 22:1 25:1 33:1 38:1 39:1 47:1 49:1 58:1 63:1 
1.117147346320686 1:182 2:209 3:391 8:1 9:1 15:1 22:1 28:1 33:1 38:1 39:1 47:1 49:1 58:1 63:1 
0.1933448534312181 1:146 2:245 3:391 8:1 13:1 18:1 23:1 28:1 30:1 38:1 39:1 47:1 49:1 58:1 63:1 
1.106447188544915 1:-364 2:403 3:39 8:1 12:1 15:1 23:1 27:1 33:1 35:1 43:1 48:1 53:1 58:1 59:1 
0.1625914681293804 1:-332 2:403 3:71 8:1 12:1 15:1 23:1 27:1 33:1 38:1 43:1 48:1 50:1 58:1 62:1 
1.351012510740296 1:-186 2:403 3:217 8:1 12:1 15:1 23:1 27:1 33:1 38:1 42:1 48:1 53:1 54:1 62:1 
0.07213083491711329 1:-156 2:403 3:247 8:1 12:1 15:1 23:1 27:1 33:1 38:1 41:1 48:1 50:1 58:1 63:1 
0.4864188519025791 1:-71 2:403 3:332 8:1 12:1 15:1 23:1 27:1 33:1 38:1 39:1 48:1 53:1 54:1 63:1 
0.4635207829897919 1:-12 2:403 3:391 8:1 12:1 15:1 23:1 27:1 33:1 38:1 39:1 47:1 49:1 58:1 63:1 
1.120639356808068 1:389 2:17 3:406 7:1 13:1 14:1 19:1 25:1 30:1 36:1 43:1 47:1 49:1 54:1 59:1 
0.6390673228210177 1:343 2:63 3:406 8:1 9:1 15:1 22:1 25:1 33:1 36:1 43:1 47:1 49:1 54:1 59:1 
1.059830747424043 1:197 2:209 3:406 8:1 9:1 15:1 22:1 28:1 33:1 36:1 43:1 47:1 49:1 54:1 59:1 
0.3505190187308568 1:120 2:286 3:406 8:1 13:1 15:1 22:1 25:1 30:1 36:1 43:1 47:1 49:1 54:1 59:1 
0.2679918572773212 1:400 2:11 3:411 8:1 10:1 14:1 20:1 28:1 32:1 34:1 39:1 45:1 52:1 57:1 63:1 
0.5209427982581195 1:399 2:17 3:416 7:1 13:1 14:1 19:1 25:1 30:1 37:1 43:1 45:1 49:1 55:1 63:1 
0.9490056057253617 1:353 2:63 3:416 8:1 9:1 15:1 22:1 25:1 33:1 37:1 43:1 45:1 49:1 55:1 63:1 
1.12735616987671 1:207 2:209 3:416 8:1 9:1 15:1 22:1 28:1 33:1 37:1 43:1 45:1 49:1 55:1 63:1 
1.70450693022425 1:171 2:245 3:416 8:1 13:1 18:1 23:1 28:1 30:1 37:1 43:1 45:1 49:1 55:1 63:1 
1.154178527505853 1:13 2:403 3:416 8:1 12:1 15:1 23:1 27:1 33:1 37:1 43:1 45:1 49:1 55:1 63:1 
0.02057997804697224 1:426 2:11 3:437 8:1 10:1 14:1 20:1 28:1 32:1 38:1 42:1 45:1 53:1 58:1 60:1 
0.008730739995635393 1:436 2:11 3:447 8:1 10:1 14:1 20:1 28:1 32:1 38:1 42:1 48:1 49:1 54:1 63:1 
0.8149896196761182 1:246 2:245 3:491 8:1 13:1 18:1 23:1 28:1 30:1 35:1 39:1 45:1 53:1 54:1 62:1 
0.6729305675282344 1:-221 2:233 3:12 8:1 10:1 18:1 19:1 25:1 33:1 38:1 40:1 48:1 53:1 54:1 63:1 
0.413845759895785 1:114 2:146 3:260 5:1 9:1 15:1 19:1 25:1 33:1 35:1 41:1 48:1 49:1 58:1 59:1 
0.7232974038948552 1:27 2:233 3:260 8:1 10:1 18:1 19:1 25:1 33:1 35:1 41:1 48:1 49:1 58:1 59:1 
3.314484409946757 1:2 2:258 3:260 5:1 9:1 15:1 23:1 28:1 29:1 35:1 41:1 48:1 49:1 58:1 59:1 
1.174204435575164 1:-106 2:366 3:260 4:1 10:1 14:1 20:1 27:1 33:1 35:1 41:1 48:1 49:1 58:1 59:1 
2.973359626502537 1:-123 2:383 3:260 4:1 10:1 14:1 20:1 25:1 33:1 35:1 41:1 48:1 49:1 58:1 59:1 
0.01051073164066924 1:-402 2:414 3:12 5:1 12:1 17:1 19:1 24:1 30:1 38:1 40:1 48:1 53:1 54:1 63:1 
0.5624457689198996 1:-180 2:440 3:260 6:1 10:1 17:1 20:1 24:1 33:1 35:1 41:1 48:1 49:1 58:1 59:1 
0.1327582396979006 1:-290 2:550 3:260 4:1 10:1 15:1 20:1 35:1 41:1 48:1 49:1 58:1 59:1 
0.1203894628734964 1:36 2:19 3:55 7:1 13:1 18:1 20:1 24:1 33:1 38:1 42:1 45:1 53:1 58:1 62:1 
1.271679384581626 1:63 2:19 3:82 7:1 13:1 18:1 20:1 24:1 33:1 38:1 43:1 48:1 50:1 58:1 63:1 
1.117801977374662 1:-211 2:293 3:82 5:1 9:1 15:1 23:1 24:1 33:1 38:1 43:1 48:1 50:1 58:1 63:1 
3.301511311398116 1:429 2:19 3:448 7:1 13:1 18:1 20:1 24:1 33:1 35:1 42:1 48:1 49:1 58:1 59:1 
1.882305720966927 1:235 2:213 3:448 8:1 9:1 15:1 19:1 25:1 32:1 35:1 42:1 48:1 49:1 58:1 59:1 
0.2705060038431287 1:155 2:293 3:448 5:1 9:1 15:1 23:1 24:1 33:1 35:1 42:1 48:1 49:1 58:1 59:1 
0.08320477879151443 1:-401 2:456 3:55 5:1 11:1 18:1 21:1 26:1 30:1 38:1 42:1 45:1 53:1 58:1 62:1 
2.292072196633632 1:-8 2:456 3:448 5:1 11:1 18:1 21:1 26:1 30:1 35:1 42:1 48:1 49:1 58:1 59:1 
1.130349783599097 1:-9 2:457 3:448 6:1 13:1 16:1 21:1 25:1 35:1 42:1 48:1 49:1 58:1 59:1 
0.03968514176593407 1:-376 2:458 3:82 8:1 11:1 16:1 20:1 38:1 43:1 48:1 50:1 58:1 63:1 
1.770860561353948 1:-10 2:458 3:448 8:1 11:1 16:1 20:1 35:1 42:1 48:1 49:1 58:1 59:1 
0.2968381509251879 1:163 2:13 3:176 5:1 13:1 14:1 22:1 24:1 33:1 37:1 40:1 44:1 52:1 58:1 63:1 
0.4393063576230812 1:232 2:13 3:245 5:1 13:1 14:1 22:1 24:1 33:1 35:1 43:1 48:1 53:1 57:1 60:1 
0.215775869440885 1:-63 2:308 3:245 7:1 9:1 14:1 20:1 28:1 32:1 35:1 43:1 48:1 53:1 57:1 60:1 
1.288623440026125 1:-307 2:340 3:33 8:1 13:1 18:1 23:1 24:1 32:1 38:1 39:1 48:1 53:1 54:1 59:1 
3.944280331403999 1:114 2:254 3:368 8:1 13:1 18:1 23:1 28:1 33:1 37:1 40:1 48:1 53:1 54:1 63:1 
1.954421654856944 1:60 2:308 3:368 7:1 9:1 14:1 20:1 28:1 32:1 37:1 40:1 48:1 53:1 54:1 63:1 
0.5413969430875656 1:217 2:10 3:227 5:1 13:1 18:1 20:1 28:1 29:1 38:1 42:1 45:1 49:1 57:1 63:1 
0.2313916335443135 1:190 2:37 3:227 4:1 10:1 14:1 23:1 25:1 32:1 38:1 42:1 45:1 49:1 57:1 63:1 
0.1474676515643898 1:65 2:162 3:227 7:1 13:1 18:1 20:1 26:1 30:1 38:1 42:1 45:1 49:1 57:1 63:1 
0.5300151078484845 1:63 2:164 3:227 8:1 11:1 15:1 20:1 28:1 33:1 38:1 42:1 45:1 49:1 57:1 63:1 
0.3452273883077398 1:284 2:1 3:285 14:1 20:1 24:1 30:1 35:1 40:1 44:1 53:1 55:1 59:1 
2.98167526901825 1:255 2:30 3:285 5:1 13:1 15:1 20:1 26:1 30:1 35:1 40:1 44:1 53:1 55:1 59:1 
0.4598825481802429 1:-33 2:76 3:43 7:1 13:1 18:1 20:1 27:1 33:1 38:1 43:1 45:1 53:1 54:1 63:1 
1.316372252012755 1:-6 2:76 3:70 7:1 13:1 18:1 20:1 27:1 33:1 37:1 43:1 45:1 49:1 54:1 62:1 
0.5347544292975932 1:-56 2:97 3:41 8:1 12:1 15:1 19:1 25:1 30:1 38:1 39:1 48:1 50:1 58:1 63:1 
0.7872721976247565 1:-54 2:97 3:43 8:1 12:1 15:1 19:1 25:1 30:1 38:1 43:1 45:1 53:1 54:1 63:1 
0.2729030627546301 1:-79 2:120 3:41 8:1 10:1 18:1 20:1 25:1 30:1 38:1 39:1 48:1 50:1 58:1 63:1 
1.52079641496521 1:-77 2:120 3:43 8:1 10:1 18:1 20:1 25:1 30:1 38:1 43:1 45:1 53:1 54:1 63:1 
1.162702076733425 1:-170 2:171 3:1 4:1 10:1 18:1 23:1 26:1 29:1 48:1 53:1 55:1 63:1 
0.1334545745779383 1:-130 2:173 3:43 8:1 11:1 18:1 19:1 28:1 32:1 38:1 43:1 45:1 53:1 54:1 63:1 
1.202066406539986 1:-250 2:251 3:1 5:1 13:1 15:1 23:1 28:1 30:1 48:1 53:1 55:1 63:1 
0.4158083425624459 1:-210 2:251 3:41 5:1 13:1 15:1 23:1 28:1 30:1 38:1 39:1 48:1 50:1 58:1 63:1 
0.7218379400739482 1:361 2:9 3:370 8:1 10:1 14:1 20:1 26:1 30:1 38:1 42:1 45:1 52:1 58:1 62:1 
0.0283323763093728 1:199 2:171 3:370 4:1 10:1 18:1 23:1 26:1 29:1 38:1 42:1 45:1 52:1 58:1 62:1 
1.638218574869166 1:197 2:173 3:370 8:1 11:1 18:1 19:1 28:1 32:1 38:1 42:1 45:1 52:1 58:1 62:1 
0.1778082626393811 1:119 2:251 3:370 5:1 13:1 15:1 23:1 28:1 30:1 38:1 42:1 45:1 52:1 58:1 62:1 
0.375146037577867 1:6 2:364 3:370 5:1 13:1 18:1 23:1 27:1 33:1 38:1 42:1 45:1 52:1 58:1 62:1 
0.969366936365555 1:399 2:11 3:410 4:1 11:1 15:1 20:1 28:1 32:1 38:1 43:1 48:1 52:1 57:1 63:1 
0.001698484312146531 1:334 2:76 3:410 7:1 13:1 18:1 20:1 27:1 33:1 38:1 43:1 48:1 52:1 57:1 63:1 
0.0364150128643498 1:252 2:158 3:410 8:1 10:1 18:1 23:1 27:1 30:1 38:1 43:1 48:1 52:1 57:1 63:1 
0.0593654641723817 1:239 2:171 3:410 4:1 10:1 18:1 23:1 26:1 29:1 38:1 43:1 48:1 52:1 57:1 63:1 
3.658743385717512 1:-424 2:425 3:1 8:1 13:1 14:1 23:1 28:1 32:1 48:1 53:1 55:1 63:1 
0.003454689491392093 1:-355 2:425 3:70 8:1 13:1 14:1 23:1 28:1 32:1 37:1 43:1 45:1 49:1 54:1 62:1 
0.06119807858794839 1:423 2:11 3:434 4:1 11:1 15:1 20:1 28:1 32:1 35:1 43:1 45:1 53:1 57:1 60:1 
0.08040806963342773 1:337 2:97 3:434 8:1 12:1 15:1 19:1 25:1 30:1 35:1 43:1 45:1 53:1 57:1 60:1 
0.09989174143337272 1:314 2:120 3:434 8:1 10:1 18:1 20:1 25:1 30:1 35:1 43:1 45:1 53:1 57:1 60:1 
1.54535538757044 1:276 2:158 3:434 8:1 10:1 18:1 23:1 27:1 30:1 35:1 43:1 45:1 53:1 57:1 60:1 
2.72640047563257 1:263 2:171 3:434 4:1 10:1 18:1 23:1 26:1 29:1 35:1 43:1 45:1 53:1 57:1 60:1 
0.7313716481319279 1:261 2:173 3:434 8:1 11:1 18:1 19:1 28:1 32:1 35:1 43:1 45:1 53:1 57:1 60:1 
0.8253933324532384 1:183 2:251 3:434 5:1 13:1 15:1 23:1 28:1 30:1 35:1 43:1 45:1 53:1 57:1 60:1 
1.363135556309893 1:9 2:425 3:434 8:1 13:1 14:1 23:1 28:1 32:1 35:1 43:1 45:1 53:1 57:1 60:1 
0.2808673392315157 1:17 2:1 3:18 14:1 20:1 25:1 30:1 37:1 39:1 45:1 53:1 58:1 59:1 
4 1:-11 2:29 3:18 5:1 13:1 14:1 23:1 24:1 31:1 37:1 39:1 45:1 53:1 58:1 59:1 
0.2601362148172459 1:-14 2:32 3:18 6:1 13:1 14:1 20:1 27:1 33:1 37:1 39:1 45:1 53:1 58:1 59:1 
1.029195704642674 1:-63 2:81 3:18 7:1 10:1 17:1 19:1 28:1 33:1 37:1 39:1 45:1 53:1 58:1 59:1 
0.02029526628925271 1:-54 2:81 3:27 7:1 10:1 17:1 19:1 28:1 33:1 38:1 39:1 45:1 49:1 56:1 63:1 
3.320451538167585 1:-92 2:110 3:18 8:1 9:1 15:1 20:1 25:1 30:1 37:1 39:1 45:1 53:1 58:1 59:1 
2.008823002503031 1:123 2:1 3:124 14:1 20:1 25:1 30:1 35:1 43:1 45:1 53:1 58:1 62:1 
0.6432387242434267 1:-176 2:203 3:27 5:1 13:1 18:1 19:1 27:1 29:1 38:1 39:1 45:1 49:1 56:1 63:1 
3.009012484645872 1:20 2:81 3:101 4:1 13:1 14:1 19:1 24:1 33:1 38:1 43:1 45:1 53:1 54:1 63:1 
0.2458392616591198 1:132 2:8 3:140 8:1 10:1 14:1 20:1 28:1 33:1 38:1 40:1 47:1 53:1 54:1 63:1 
0.09460149744220653 1:164 2:8 3:172 8:1 10:1 14:1 20:1 28:1 33:1 35:1 42:1 48:1 50:1 54:1 63:1 
0.03765086439300225 1:125 2:81 3:206 4:1 13:1 14:1 19:1 24:1 33:1 34:1 43:1 48:1 50:1 58:1 60:1 
0.8602123772948023 1:260 2:8 3:268 8:1 10:1 14:1 20:1 28:1 33:1 35:1 43:1 48:1 53:1 54:1 59:1 
1.575077982882383 1:187 2:81 3:268 4:1 13:1 14:1 19:1 24:1 33:1 35:1 43:1 48:1 53:1 54:1 59:1 
0.8345883828063797 1:349 2:8 3:357 8:1 10:1 14:1 20:1 28:1 33:1 35:1 43:1 48:1 52:1 58:1 59:1 
2.126438961886925 1:4 2:31 3:35 8:1 13:1 14:1 23:1 27:1 30:1 38:1 42:1 45:1 53:1 58:1 63:1 
2.607873309073483 1:17 2:31 3:48 8:1 13:1 14:1 23:1 27:1 30:1 37:1 42:1 45:1 53:1 57:1 63:1 
1.93998816998881 1:-104 2:116 3:12 8:1 13:1 18:1 19:1 28:1 31:1 35:1 43:1 47:1 49:1 54:1 63:1 
1.791330623129406 1:-79 2:116 3:37 8:1 13:1 18:1 19:1 28:1 31:1 35:1 43:1 48:1 53:1 58:1 62:1 
4 1:-84 2:119 3:35 6:1 9:1 18:1 19:1 25:1 31:1 38:1 42:1 45:1 53:1 58:1 63:1 
3.530100304758169 1:-71 2:119 3:48 6:1 9:1 18:1 19:1 25:1 31:1 37:1 42:1 45:1 53:1 57:1 63:1 
2.818323452140978 1:-110 2:122 3:12 6:1 9:1 15:1 19:1 27:1 33:1 35:1 43:1 47:1 49:1 54:1 63:1 
0.3815488296773422 1:-94 2:122 3:28 6:1 9:1 15:1 19:1 27:1 33:1 37:1 40:1 48:1 53:1 54:1 61:1 
1.857252390989006 1:-57 2:122 3:65 6:1 9:1 15:1 19:1 27:1 33:1 38:1 43:1 45:1 49:1 58:1 63:1 
0.9162970508127983 1:-128 2:140 3:12 8:1 12:1 15:1 22:1 25:1 32:1 35:1 43:1 47:1 49:1 54:1 63:1 
0.1566222301375524 1:-112 2:140 3:28 8:1 12:1 15:1 22:1 25:1 32:1 37:1 40:1 48:1 53:1 54:1 61:1 
4 1:-138 2:150 3:12 8:1 9:1 15:1 23:1 28:1 32:1 35:1 43:1 47:1 49:1 54:1 63:1 
4 1:-113 2:150 3:37 8:1 9:1 15:1 23:1 28:1 32:1 35:1 43:1 48:1 53:1 58:1 62:1 
0.3096977945698446 1:128 2:31 3:159 8:1 13:1 14:1 23:1 27:1 30:1 34:1 40:1 48:1 49:1 58:1 59:1 
1.842220902577002 1:40 2:119 3:159 6:1 9:1 18:1 19:1 25:1 31:1 34:1 40:1 48:1 49:1 58:1 59:1 
2.071250547908534 1:-131 2:168 3:37 7:1 9:1 17:1 23:1 28:1 33:1 35:1 43:1 48:1 53:1 58:1 62:1 
1.196522470171322 1:165 2:7 3:172 5:1 13:1 14:1 22:1 25:1 33:1 38:1 43:1 48:1 53:1 56:1 62:1 
2.761508050091372 1:141 2:31 3:172 8:1 13:1 14:1 23:1 27:1 30:1 38:1 43:1 48:1 53:1 56:1 62:1 
3.34121047695325 1:56 2:116 3:172 8:1 13:1 18:1 19:1 28:1 31:1 38:1 43:1 48:1 53:1 56:1 62:1 
3.765187567173939 1:32 2:140 3:172 8:1 12:1 15:1 22:1 25:1 32:1 38:1 43:1 48:1 53:1 56:1 62:1 
0.1117693064248367 1:4 2:168 3:172 7:1 9:1 17:1 23:1 28:1 33:1 38:1 43:1 48:1 53:1 56:1 62:1 
1.87277512308602 1:-137 2:174 3:37 8:1 13:1 18:1 22:1 28:1 33:1 35:1 43:1 48:1 53:1 58:1 62:1 
0.1411743199266783 1:180 2:7 3:187 5:1 13:1 14:1 22:1 25:1 33:1 34:1 40:1 44:1 53:1 54:1 63:1 
0.84750120232896 1:156 2:31 3:187 8:1 13:1 14:1 23:1 27:1 30:1 34:1 40:1 44:1 53:1 54:1 63:1 
2.2837341971746 1:68 2:119 3:187 6:1 9:1 18:1 19:1 25:1 31:1 34:1 40:1 44:1 53:1 54:1 63:1 
1.454229127672027 1:47 2:140 3:187 8:1 12:1 15:1 22:1 25:1 32:1 34:1 40:1 44:1 53:1 54:1 63:1 
4 1:76 2:116 3:192 8:1 13:1 18:1 19:1 28:1 31:1 34:1 43:1 47:1 53:1 57:1 63:1 
1.016878358022339 1:168 2:31 3:199 8:1 13:1 14:1 23:1 27:1 30:1 35:1 43:1 48:1 52:1 54:1 59:1 
0.5137720411692402 1:59 2:140 3:199 8:1 12:1 15:1 22:1 25:1 32:1 35:1 43:1 48:1 52:1 54:1 59:1 
1.744093436315576 1:49 2:150 3:199 8:1 9:1 15:1 23:1 28:1 32:1 35:1 43:1 48:1 52:1 54:1 59:1 
0.2612195095779342 1:31 2:168 3:199 7:1 9:1 17:1 23:1 28:1 33:1 35:1 43:1 48:1 52:1 54:1 59:1 
4 1:1 2:2 3:3 13:1 14:1 23:1 28:1 31:1 38:1 39:1 46:1 53:1 56:1 60:1 
4 1:-5 2:5 3:0 6:1 13:1 18:1 20:1 28:1 32:1 49:1 56:1 63:1 
4 1:-2 2:5 3:3 6:1 13:1 18:1 20:1 28:1 32:1 38:1 39:1 46:1 53:1 56:1 60:1 
0.312146191476609 1:-19 2:22 3:3 7:1 9:1 15:1 23:1 24:1 30:1 38:1 39:1 46:1 53:1 56:1 60:1 
0.1296141885318108 1:-26 2:29 3:3 5:1 10:1 15:1 19:1 25:1 31:1 38:1 39:1 46:1 53:1 56:1 60:1 
4 1:58 2:22 3:80 7:1 9:1 15:1 23:1 24:1 30:1 35:1 43:1 47:1 49:1 54:1 63:1 
3.905839334881463 1:48 2:32 3:80 6:1 9:1 15:1 23:1 28:1 33:1 35:1 43:1 47:1 49:1 54:1 63:1 
1.380728939382167 1:15 2:65 3:80 7:1 13:1 14:1 20:1 25:1 30:1 35:1 43:1 47:1 49:1 54:1 63:1 
2.000810183678548 1:-27 2:107 3:80 8:1 12:1 18:1 22:1 28:1 33:1 35:1 43:1 47:1 49:1 54:1 63:1 
0.1384410895652831 1:-110 2:113 3:3 8:1 13:1 18:1 20:1 28:1 33:1 38:1 39:1 46:1 53:1 56:1 60:1 
0.4191875287834696 1:-58 2:138 3:80 8:1 13:1 14:1 23:1 28:1 30:1 35:1 43:1 47:1 49:1 54:1 63:1 
1.001922456439147 1:-144 2:147 3:3 5:1 13:1 14:1 20:1 28:1 32:1 38:1 39:1 46:1 53:1 56:1 60:1 
0.08907256380936933 1:-67 2:147 3:80 5:1 13:1 14:1 20:1 28:1 32:1 35:1 43:1 47:1 49:1 54:1 63:1 
1.515103426802424 1:-79 2:159 3:80 8:1 9:1 18:1 20:1 28:1 33:1 35:1 43:1 47:1 49:1 54:1 63:1 
0.3980340483945113 1:200 2:32 3:232 6:1 9:1 15:1 23:1 28:1 33:1 37:1 39:1 45:1 52:1 58:1 62:1 
0.02416344314684621 1:191 2:41 3:232 8:1 10:1 18:1 22:1 25:1 33:1 37:1 39:1 45:1 52:1 58:1 62:1 
0.7139417395533566 1:119 2:113 3:232 8:1 13:1 18:1 20:1 28:1 33:1 37:1 39:1 45:1 52:1 58:1 62:1 
1.240350964222071 1:85 2:147 3:232 5:1 13:1 14:1 20:1 28:1 32:1 37:1 39:1 45:1 52:1 58:1 62:1 
0.7848585985563301 1:73 2:159 3:232 8:1 9:1 18:1 20:1 28:1 33:1 37:1 39:1 45:1 52:1 58:1 62:1 
1.529919480501985 1:-21 2:253 3:232 8:1 13:1 18:1 19:1 27:1 33:1 37:1 39:1 45:1 52:1 58:1 62:1 
2.215414592183816 1:-30 2:262 3:232 4:1 13:1 15:1 22:1 27:1 30:1 37:1 39:1 45:1 52:1 58:1 62:1 
0.2648281286455351 1:-79 2:311 3:232 8:1 9:1 18:1 19:1 27:1 30:1 37:1 39:1 45:1 52:1 58:1 62:1 
1.935908478167227 1:-244 2:324 3:80 8:1 9:1 15:1 23:1 28:1 33:1 35:1 43:1 47:1 49:1 54:1 63:1 
2.574581084850333 1:-336 2:339 3:3 5:1 10:1 15:1 22:1 25:1 33:1 38:1 39:1 46:1 53:1 56:1 60:1 
0.2810313323162106 1:-259 2:339 3:80 5:1 10:1 15:1 22:1 25:1 33:1 35:1 43:1 47:1 49:1 54:1 63:1 
0.349471624704256 1:-107 2:339 3:232 5:1 10:1 15:1 22:1 25:1 33:1 37:1 39:1 45:1 52:1 58:1 62:1 
0.4755142071031493 1:-354 2:357 3:3 5:1 10:1 15:1 22:1 25:1 33:1 38:1 39:1 46:1 53:1 56:1 60:1 
3.058074023692023 1:-277 2:357 3:80 5:1 10:1 15:1 22:1 25:1 33:1 35:1 43:1 47:1 49:1 54:1 63:1 
1.927706216925945 1:-125 2:357 3:232 5:1 10:1 15:1 22:1 25:1 33:1 37:1 39:1 45:1 52:1 58:1 62:1 
0.1358628491156407 1:341 2:22 3:363 7:1 9:1 15:1 23:1 24:1 30:1 38:1 40:1 48:1 52:1 58:1 59:1 
0.9759456563030068 1:225 2:138 3:363 8:1 13:1 14:1 23:1 28:1 30:1 38:1 40:1 48:1 52:1 58:1 59:1 
2.835072941466269 1:110 2:253 3:363 8:1 13:1 18:1 19:1 27:1 33:1 38:1 40:1 48:1 52:1 58:1 59:1 
0.6076992647249683 1:101 2:262 3:363 4:1 13:1 15:1 22:1 27:1 30:1 38:1 40:1 48:1 52:1 58:1 59:1 
0.0891136176957212 1:52 2:311 3:363 8:1 9:1 18:1 19:1 27:1 30:1 38:1 40:1 48:1 52:1 58:1 59:1 
1.853047161950922 1:-300 2:380 3:80 5:1 10:1 18:1 20:1 24:1 29:1 35:1 43:1 47:1 49:1 54:1 63:1 
0.9458046547995689 1:-476 2:479 3:3 8:1 12:1 18:1 23:1 24:1 30:1 38:1 39:1 46:1 53:1 56:1 60:1 
0.02308500333902494 1:-399 2:479 3:80 8:1 12:1 18:1 23:1 24:1 30:1 35:1 43:1 47:1 49:1 54:1 63:1 
0.07381712245231152 1:-404 2:484 3:80 4:1 10:1 18:1 22:1 27:1 33:1 35:1 43:1 47:1 49:1 54:1 63:1 
0.06908415425414481 1:-252 2:484 3:232 4:1 10:1 18:1 22:1 27:1 33:1 37:1 39:1 45:1 52:1 58:1 62:1 
1.225063340549788 1:486 2:5 3:491 6:1 13:1 18:1 20:1 28:1 32:1 34:1 40:1 45:1 53:1 55:1 63:1 
1.651938692704836 1:469 2:22 3:491 7:1 9:1 15:1 23:1 24:1 30:1 34:1 40:1 45:1 53:1 55:1 63:1 
0.00728373893616141 1:462 2:29 3:491 5:1 10:1 15:1 19:1 25:1 31:1 34:1 40:1 45:1 53:1 55:1 63:1 
1.708655134507608 1:450 2:41 3:491 8:1 10:1 18:1 22:1 25:1 33:1 34:1 40:1 45:1 53:1 55:1 63:1 
2.345432005770753 1:426 2:65 3:491 7:1 13:1 14:1 20:1 25:1 30:1 34:1 40:1 45:1 53:1 55:1 63:1 
0.4669144597439714 1:384 2:107 3:491 8:1 12:1 18:1 22:1 28:1 33:1 34:1 40:1 45:1 53:1 55:1 63:1 
0.0482001658570871 1:353 2:138 3:491 8:1 13:1 14:1 23:1 28:1 30:1 34:1 40:1 45:1 53:1 55:1 63:1 
1.70781608162445 1:238 2:253 3:491 8:1 13:1 18:1 19:1 27:1 33:1 34:1 40:1 45:1 53:1 55:1 63:1 
1.564910530124587 1:229 2:262 3:491 4:1 13:1 15:1 22:1 27:1 30:1 34:1 40:1 45:1 53:1 55:1 63:1 
0.2870015658031188 1:180 2:311 3:491 8:1 9:1 18:1 19:1 27:1 30:1 34:1 40:1 45:1 53:1 55:1 63:1 
0.04107666633292247 1:167 2:324 3:491 8:1 9:1 15:1 23:1 28:1 33:1 34:1 40:1 45:1 53:1 55:1 63:1 
0.1209170984246483 1:152 2:339 3:491 5:1 10:1 15:1 22:1 25:1 33:1 34:1 40:1 45:1 53:1 55:1 63:1 
0.03957766670250357 1:134 2:357 3:491 5:1 10:1 15:1 22:1 25:1 33:1 34:1 40:1 45:1 53:1 55:1 63:1 
0.02163058653858961 1:111 2:380 3:491 5:1 10:1 18:1 20:1 24:1 29:1 34:1 40:1 45:1 53:1 55:1 63:1 
0.7198290784725989 1:7 2:484 3:491 4:1 10:1 18:1 22:1 27:1 33:1 34:1 40:1 45:1 53:1 55:1 63:1 
0.6621862804946852 1:-200 2:202 3:2 8:1 10:1 18:1 23:1 25:1 33:1 43:1 47:1 49:1 56:1 63:1 
1.386192304665341 1:-215 2:217 3:2 4:1 10:1 18:1 20:1 25:1 29:1 43:1 47:1 49:1 56:1 63:1 
0.6314845222270008 1:74 2:3 3:77 8:1 9:1 16:1 23:1 28:1 29:1 38:1 42:1 48:1 53:1 57:1 59:1 
1.082091833648678 1:91 2:3 3:94 8:1 9:1 16:1 23:1 28:1 29:1 37:1 40:1 48:1 49:1 58:1 63:1 
1.543833230899391 1:-138 2:138 3:0 8:1 13:1 15:1 20:1 25:1 33:1 49:1 56:1 61:1 
1.007574565141056 1:145 2:3 3:148 8:1 9:1 16:1 23:1 28:1 29:1 38:1 40:1 48:1 53:1 57:1 63:1 
1.487241951607104 1:10 2:138 3:148 8:1 13:1 15:1 20:1 25:1 33:1 38:1 40:1 48:1 53:1 57:1 63:1 
0.8569465155763282 1:-174 2:202 3:28 7:1 11:1 15:1 20:1 26:1 30:1 38:1 43:1 48:1 53:1 54:1 60:1 
1.118248050688639 1:-108 2:202 3:94 7:1 11:1 15:1 20:1 26:1 30:1 37:1 40:1 48:1 49:1 58:1 63:1 
0.5971674235498274 1:-54 2:202 3:148 7:1 11:1 15:1 20:1 26:1 30:1 38:1 40:1 48:1 53:1 57:1 63:1 
0.049051511193905 1:-26 2:204 3:178 5:1 11:1 15:1 20:1 26:1 30:1 35:1 42:1 48:1 52:1 58:1 62:1 
1.114663780978392 1:-129 2:206 3:77 5:1 11:1 15:1 20:1 26:1 33:1 38:1 42:1 48:1 53:1 57:1 59:1 
1.287987232559256 1:-123 2:206 3:83 5:1 11:1 15:1 20:1 26:1 33:1 34:1 40:1 48:1 53:1 58:1 63:1 
1.192272664023542 1:-58 2:206 3:148 5:1 11:1 15:1 20:1 26:1 33:1 38:1 40:1 48:1 53:1 57:1 63:1 
1.473006843564578 1:-28 2:206 3:178 5:1 11:1 15:1 20:1 26:1 33:1 35:1 42:1 48:1 52:1 58:1 62:1 
0.8044613052076488 1:-180 2:208 3:28 5:1 11:1 15:1 23:1 26:1 33:1 38:1 43:1 48:1 53:1 54:1 60:1 
0.3243506822022788 1:-131 2:208 3:77 5:1 11:1 15:1 23:1 26:1 33:1 38:1 42:1 48:1 53:1 57:1 59:1 
1.784113435283481 1:-30 2:208 3:178 5:1 11:1 15:1 23:1 26:1 33:1 35:1 42:1 48:1 52:1 58:1 62:1 
0.09052046857288266 1:-62 2:210 3:148 5:1 11:1 18:1 23:1 25:1 31:1 38:1 40:1 48:1 53:1 57:1 63:1 
1.008744404897557 1:-185 2:213 3:28 6:1 13:1 15:1 23:1 28:1 32:1 38:1 43:1 48:1 53:1 54:1 60:1 
0.06290525231273639 1:-136 2:213 3:77 6:1 13:1 15:1 23:1 28:1 32:1 38:1 42:1 48:1 53:1 57:1 59:1 
0.09721401237271753 1:218 2:3 3:221 8:1 9:1 16:1 23:1 28:1 29:1 34:1 43:1 48:1 50:1 58:1 60:1 
3.297076731265067 1:83 2:138 3:221 8:1 13:1 15:1 20:1 25:1 33:1 34:1 43:1 48:1 50:1 58:1 60:1 
0.1292216789174802 1:19 2:202 3:221 7:1 11:1 15:1 20:1 26:1 30:1 34:1 43:1 48:1 50:1 58:1 60:1 
0.5395549048345304 1:89 2:138 3:227 8:1 13:1 15:1 20:1 25:1 33:1 35:1 43:1 48:1 52:1 58:1 63:1 
0.09077330667968338 1:228 2:2 3:230 13:1 14:1 21:1 28:1 33:1 38:1 42:1 48:1 49:1 58:1 59:1 
1.463641399289128 1:92 2:138 3:230 8:1 13:1 15:1 20:1 25:1 33:1 38:1 42:1 48:1 49:1 58:1 59:1 
1.781951196341619 1:28 2:202 3:230 7:1 11:1 15:1 20:1 26:1 30:1 38:1 42:1 48:1 49:1 58:1 59:1 
2.958159141668629 1:20 2:210 3:230 5:1 11:1 18:1 23:1 25:1 31:1 38:1 42:1 48:1 49:1 58:1 59:1 
1.206592951741813 1:-216 2:244 3:28 7:1 13:1 18:1 19:1 28:1 33:1 38:1 43:1 48:1 53:1 54:1 60:1 
3.657059510953653 1:-206 2:244 3:38 7:1 13:1 18:1 19:1 28:1 33:1 35:1 43:1 48:1 52:1 58:1 63:1 
0.8461630358108334 1:-167 2:244 3:77 7:1 13:1 18:1 19:1 28:1 33:1 38:1 42:1 48:1 53:1 57:1 59:1 
0.449870254823308 1:-161 2:244 3:83 7:1 13:1 18:1 19:1 28:1 33:1 34:1 40:1 48:1 53:1 58:1 63:1 
2.225664498366655 1:-150 2:244 3:94 7:1 13:1 18:1 19:1 28:1 33:1 37:1 40:1 48:1 49:1 58:1 63:1 
3.322048872862224 1:-96 2:244 3:148 7:1 13:1 18:1 19:1 28:1 33:1 38:1 40:1 48:1 53:1 57:1 63:1 
3.804808888612068 1:-14 2:244 3:230 7:1 13:1 18:1 19:1 28:1 33:1 38:1 42:1 48:1 49:1 58:1 59:1 
0.2439910154660669 1:-229 2:257 3:28 8:1 12:1 18:1 23:1 27:1 30:1 38:1 43:1 48:1 53:1 54:1 60:1 
0.9061650436346886 1:-219 2:257 3:38 8:1 12:1 18:1 23:1 27:1 30:1 35:1 43:1 48:1 52:1 58:1 63:1 
0.7235175399996053 1:-109 2:257 3:148 8:1 12:1 18:1 23:1 27:1 30:1 38:1 40:1 48:1 53:1 57:1 63:1 
0.2098235352771397 1:-79 2:257 3:178 8:1 12:1 18:1 23:1 27:1 30:1 35:1 42:1 48:1 52:1 58:1 62:1 
0.3862399855917763 1:-36 2:257 3:221 8:1 12:1 18:1 23:1 27:1 30:1 34:1 43:1 48:1 50:1 58:1 60:1 
2.548452919707222 1:-27 2:257 3:230 8:1 12:1 18:1 23:1 27:1 30:1 38:1 42:1 48:1 49:1 58:1 59:1 
0.1158036022328503 1:555 2:3 3:558 6:1 9:1 18:1 22:1 28:1 29:1 38:1 39:1 45:1 49:1 58:1 63:1 
0.115808499421098 1:514 2:44 3:558 4:1 10:1 18:1 22:1 28:1 29:1 38:1 39:1 45:1 49:1 58:1 63:1 
0.1298529045849643 1:492 2:66 3:558 8:1 13:1 15:1 19:1 28:1 29:1 38:1 39:1 45:1 49:1 58:1 63:1 
0.1544074304412119 1:449 2:109 3:558 5:1 9:1 18:1 22:1 28:1 33:1 38:1 39:1 45:1 49:1 58:1 63:1 
0.1314286731288285 1:404 2:154 3:558 8:1 12:1 18:1 19:1 25:1 33:1 38:1 39:1 45:1 49:1 58:1 63:1 
0.1112459649371484 1:389 2:169 3:558 8:1 9:1 18:1 19:1 28:1 29:1 38:1 39:1 45:1 49:1 58:1 63:1 
0.07347964619080771 1:336 2:222 3:558 4:1 10:1 17:1 19:1 24:1 31:1 38:1 39:1 45:1 49:1 58:1 63:1 
0.04903621293407313 1:333 2:225 3:558 6:1 9:1 14:1 23:1 25:1 29:1 38:1 39:1 45:1 49:1 58:1 63:1 
0.08179292357241325 1:290 2:268 3:558 5:1 13:1 18:1 20:1 25:1 31:1 38:1 39:1 45:1 49:1 58:1 63:1 
0.07723804856615768 1:287 2:271 3:558 6:1 10:1 15:1 22:1 27:1 30:1 38:1 39:1 45:1 49:1 58:1 63:1 
0.1310610660812898 1:276 2:282 3:558 5:1 12:1 17:1 19:1 28:1 31:1 38:1 39:1 45:1 49:1 58:1 63:1 
0.1231809548245321 1:618 2:0 3:618 19:1 28:1 31:1 34:1 40:1 48:1 52:1 55:1 
0.1332094305903003 1:574 2:44 3:618 4:1 10:1 18:1 22:1 28:1 29:1 34:1 40:1 48:1 52:1 55:1 
0.13242637563268 1:552 2:66 3:618 8:1 13:1 15:1 19:1 28:1 29:1 34:1 40:1 48:1 52:1 55:1 
0.132998307993711 1:509 2:109 3:618 5:1 9:1 18:1 22:1 28:1 33:1 34:1 40:1 48:1 52:1 55:1 
0.1329778651480252 1:464 2:154 3:618 8:1 12:1 18:1 19:1 25:1 33:1 34:1 40:1 48:1 52:1 55:1 
0.1327238994178012 1:449 2:169 3:618 8:1 9:1 18:1 19:1 28:1 29:1 34:1 40:1 48:1 52:1 55:1 
0.1240069261013435 1:396 2:222 3:618 4:1 10:1 17:1 19:1 24:1 31:1 34:1 40:1 48:1 52:1 55:1 
0.1323511107442351 1:383 2:235 3:618 8:1 10:1 15:1 23:1 27:1 30:1 34:1 40:1 48:1 52:1 55:1 
0.08196967882425406 1:350 2:268 3:618 5:1 13:1 18:1 20:1 25:1 31:1 34:1 40:1 48:1 52:1 55:1 
0.08144483717549526 1:347 2:271 3:618 6:1 10:1 15:1 22:1 27:1 30:1 34:1 40:1 48:1 52:1 55:1 
0.1239013871225461 1:333 2:285 3:618 6:1 9:1 18:1 19:1 24:1 32:1 34:1 40:1 48:1 52:1 55:1 
0.1328094429205438 1:17 2:601 3:618 4:1 9:1 18:1 22:1 28:1 29:1 34:1 40:1 48:1 52:1 55:1 
1.225677187477671 1:79 2:0 3:79 23:1 28:1 33:1 34:1 42:1 45:1 53:1 57:1 63:1 
0.4566144050219308 1:-326 2:405 3:79 5:1 9:1 18:1 19:1 27:1 30:1 34:1 42:1 45:1 53:1 57:1 63:1 
1.901138307851156 1:-13 2:54 3:41 8:1 13:1 18:1 23:1 24:1 33:1 38:1 42:1 45:1 53:1 57:1 63:1 
0.6693225477898974 1:58 2:54 3:112 8:1 13:1 18:1 23:1 24:1 33:1 38:1 40:1 48:1 53:1 54:1 62:1 
2.885331808711628 1:-136 2:177 3:41 8:1 9:1 14:1 23:1 25:1 32:1 38:1 42:1 45:1 53:1 57:1 63:1 
0.8994607967383149 1:-96 2:177 3:81 8:1 9:1 14:1 23:1 25:1 32:1 35:1 43:1 48:1 49:1 54:1 62:1 
1.755793547101116 1:-45 2:177 3:132 8:1 9:1 14:1 23:1 25:1 32:1 37:1 43:1 48:1 49:1 58:1 59:1 
0.0456683506643133 1:-31 2:177 3:146 8:1 9:1 14:1 23:1 25:1 32:1 38:1 39:1 44:1 49:1 54:1 63:1 
1.632640806815798 1:-101 2:182 3:81 5:1 12:1 18:1 23:1 25:1 33:1 35:1 43:1 48:1 49:1 54:1 62:1 
0.6439384478131103 1:-70 2:182 3:112 5:1 12:1 18:1 23:1 25:1 33:1 38:1 40:1 48:1 53:1 54:1 62:1 
2.289477222259375 1:-87 2:219 3:132 8:1 13:1 14:1 23:1 28:1 30:1 37:1 43:1 48:1 49:1 58:1 59:1 
4 1:-2 2:219 3:217 8:1 13:1 14:1 23:1 28:1 30:1 34:1 40:1 48:1 49:1 56:1 63:1 
0.6114745666518944 1:-243 2:284 3:41 5:1 9:1 14:1 22:1 24:1 30:1 38:1 42:1 45:1 53:1 57:1 63:1 
0.399911108456609 1:-172 2:284 3:112 5:1 9:1 14:1 22:1 24:1 30:1 38:1 40:1 48:1 53:1 54:1 62:1 
0.3403392051204542 1:-138 2:284 3:146 5:1 9:1 14:1 22:1 24:1 30:1 38:1 39:1 44:1 49:1 54:1 63:1 
0.7831306760072645 1:-67 2:284 3:217 5:1 9:1 14:1 22:1 24:1 30:1 34:1 40:1 48:1 49:1 56:1 63:1 
1.757567341603267 1:-277 2:352 3:75 8:1 13:1 15:1 20:1 24:1 33:1 38:1 43:1 44:1 53:1 54:1 60:1 
1.441588396961835 1:-220 2:352 3:132 8:1 13:1 15:1 20:1 24:1 33:1 37:1 43:1 48:1 49:1 58:1 59:1 
1.025623995503427 1:-206 2:352 3:146 8:1 13:1 15:1 20:1 24:1 33:1 38:1 39:1 44:1 49:1 54:1 63:1 
0.3428790343809642 1:-229 2:361 3:132 8:1 12:1 15:1 22:1 25:1 32:1 37:1 43:1 48:1 49:1 58:1 59:1 
2.164752581831397 1:-144 2:361 3:217 8:1 12:1 15:1 22:1 25:1 32:1 34:1 40:1 48:1 49:1 56:1 63:1 
0.4698088923101091 1:-327 2:368 3:41 8:1 9:1 18:1 23:1 24:1 33:1 38:1 42:1 45:1 53:1 57:1 63:1 
0.6655103221739396 1:-236 2:368 3:132 8:1 9:1 18:1 23:1 24:1 33:1 37:1 43:1 48:1 49:1 58:1 59:1 
0.1926939807946003 1:-151 2:368 3:217 8:1 9:1 18:1 23:1 24:1 33:1 34:1 40:1 48:1 49:1 56:1 63:1 
0.07671598941408747 1:387 2:177 3:564 8:1 9:1 14:1 23:1 25:1 32:1 38:1 40:1 47:1 52:1 58:1 59:1 
0.09945553571419002 1:382 2:182 3:564 5:1 12:1 18:1 23:1 25:1 33:1 38:1 40:1 47:1 52:1 58:1 59:1 
0.1243262741092757 1:345 2:219 3:564 8:1 13:1 14:1 23:1 28:1 30:1 38:1 40:1 47:1 52:1 58:1 59:1 
0.1256954694580077 1:212 2:352 3:564 8:1 13:1 15:1 20:1 24:1 33:1 38:1 40:1 47:1 52:1 58:1 59:1 
0.1037010109653362 1:203 2:361 3:564 8:1 12:1 15:1 22:1 25:1 32:1 38:1 40:1 47:1 52:1 58:1 59:1 
0.1140703848881738 1:196 2:368 3:564 8:1 9:1 18:1 23:1 24:1 33:1 38:1 40:1 47:1 52:1 58:1 59:1 
0.1202101318254671 1:173 2:391 3:564 4:1 13:1 14:1 20:1 28:1 29:1 38:1 40:1 47:1 52:1 58:1 59:1 
0.4972897699039687 1:254 2:58 3:312 4:1 10:1 17:1 23:1 24:1 29:1 34:1 43:1 44:1 53:1 54:1 59:1 
1.318297847094043 1:142 2:170 3:312 4:1 13:1 14:1 19:1 25:1 33:1 34:1 43:1 44:1 53:1 54:1 59:1 
