svm_type c_svc
kernel_type rbf
gamma 0.015873
nr_class 2
total_sv 17064
rho -0.5842
label -1 1
nr_sv 11221 5843
SV
0.712989196910759 1:-15 2:33 3:18 4:1 13:1 14:1 23:1 25:1 29:1 38:1 40:1 48:1 53:1 57:1 60:1 
0.990772281194085 1:-106 2:124 3:18 5:1 13:1 14:1 23:1 28:1 33:1 38:1 40:1 48:1 53:1 57:1 60:1 
1.916614514075609 1:103 2:75 3:178 5:1 12:1 18:1 23:1 28:1 29:1 34:1 40:1 47:1 49:1 55:1 59:1 
1.311613668029474 1:215 2:108 3:323 8:1 12:1 18:1 23:1 28:1 29:1 38:1 39:1 48:1 53:1 55:1 63:1 
0.3312207128884665 1:-64 2:75 3:11 4:1 10:1 18:1 22:1 25:1 32:1 34:1 39:1 48:1 53:1 55:1 60:1 
1.663331647973472 1:-34 2:75 3:41 4:1 10:1 18:1 22:1 25:1 32:1 34:1 43:1 45:1 50:1 58:1 63:1 
2.45040465465324 1:-32 2:75 3:43 4:1 10:1 18:1 22:1 25:1 32:1 35:1 43:1 45:1 53:1 58:1 63:1 
3.135451675004788 1:-105 2:116 3:11 8:1 13:1 15:1 20:1 28:1 30:1 34:1 39:1 48:1 53:1 55:1 60:1 
2.380163547153843 1:-192 2:233 3:41 8:1 13:1 15:1 22:1 25:1 29:1 34:1 43:1 45:1 50:1 58:1 63:1 
0.8415248518840915 1:87 2:233 3:320 8:1 13:1 15:1 22:1 25:1 29:1 37:1 39:1 45:1 50:1 54:1 63:1 
2.938544340513802 1:248 2:75 3:323 4:1 10:1 18:1 22:1 25:1 32:1 38:1 40:1 44:1 53:1 58:1 62:1 
4 1:-19 2:27 3:8 8:1 9:1 15:1 23:1 24:1 33:1 35:1 40:1 48:1 49:1 56:1 60:1 
3.713550660838423 1:16 2:27 3:43 8:1 9:1 15:1 23:1 24:1 33:1 35:1 43:1 44:1 50:1 58:1 63:1 
4 1:-59 2:67 3:8 8:1 12:1 15:1 22:1 25:1 33:1 35:1 40:1 48:1 49:1 56:1 60:1 
0.8025402523846619 1:-85 2:93 3:8 8:1 9:1 15:1 23:1 28:1 33:1 35:1 40:1 48:1 49:1 56:1 60:1 
0.8100421740432503 1:-50 2:93 3:43 8:1 9:1 15:1 23:1 28:1 33:1 35:1 43:1 44:1 50:1 58:1 63:1 
3.923103135750239 1:47 2:67 3:114 8:1 12:1 15:1 22:1 25:1 33:1 35:1 43:1 45:1 53:1 57:1 60:1 
3.376232895121358 1:122 2:13 3:135 6:1 10:1 14:1 22:1 25:1 33:1 38:1 43:1 45:1 49:1 58:1 63:1 
4 1:113 2:22 3:135 5:1 13:1 18:1 23:1 28:1 29:1 38:1 43:1 45:1 49:1 58:1 63:1 
2.545634926724264 1:76 2:67 3:143 8:1 12:1 15:1 22:1 25:1 33:1 38:1 39:1 48:1 49:1 58:1 60:1 
4 1:-128 2:148 3:20 8:1 10:1 18:1 19:1 25:1 33:1 38:1 43:1 45:1 53:1 56:1 63:1 
0.5001713702003877 1:-105 2:148 3:43 8:1 10:1 18:1 19:1 25:1 33:1 35:1 43:1 44:1 50:1 58:1 63:1 
3.904877876808126 1:-5 2:148 3:143 8:1 10:1 18:1 19:1 25:1 33:1 38:1 39:1 48:1 49:1 58:1 60:1 
1.548499587440233 1:141 2:13 3:154 6:1 10:1 14:1 22:1 25:1 33:1 38:1 43:1 47:1 49:1 58:1 59:1 
4 1:-50 2:185 3:135 4:1 13:1 14:1 19:1 28:1 30:1 38:1 43:1 45:1 49:1 58:1 63:1 
0.999265960499547 1:188 2:10 3:198 8:1 13:1 14:1 20:1 24:1 31:1 35:1 43:1 47:1 53:1 54:1 63:1 
4 1:131 2:67 3:198 8:1 12:1 15:1 22:1 25:1 33:1 35:1 43:1 47:1 53:1 54:1 63:1 
1.097202924674861 1:105 2:93 3:198 8:1 9:1 15:1 23:1 28:1 33:1 35:1 43:1 47:1 53:1 54:1 63:1 
4 1:13 2:185 3:198 4:1 13:1 14:1 19:1 28:1 30:1 35:1 43:1 47:1 53:1 54:1 63:1 
3.855658588163103 1:-17 2:24 3:7 5:1 13:1 18:1 23:1 28:1 29:1 34:1 43:1 48:1 53:1 55:1 60:1 
3.858469616565847 1:-10 2:40 3:30 7:1 13:1 18:1 19:1 28:1 33:1 34:1 39:1 48:1 49:1 54:1 59:1 
3.155947166181101 1:-30 2:49 3:19 5:1 12:1 17:1 23:1 26:1 30:1 34:1 41:1 45:1 49:1 55:1 63:1 
2.494383955557958 1:-27 2:49 3:22 5:1 12:1 17:1 23:1 26:1 30:1 38:1 39:1 45:1 53:1 56:1 63:1 
1.600447845485728 1:-74 2:81 3:7 8:1 13:1 14:1 23:1 27:1 33:1 34:1 43:1 48:1 53:1 55:1 60:1 
3.818295480648414 1:-62 2:81 3:19 8:1 13:1 14:1 23:1 27:1 33:1 34:1 41:1 45:1 49:1 55:1 63:1 
4 1:-59 2:81 3:22 8:1 13:1 14:1 23:1 27:1 33:1 38:1 39:1 45:1 53:1 56:1 63:1 
4 1:-51 2:81 3:30 8:1 13:1 14:1 23:1 27:1 33:1 34:1 39:1 48:1 49:1 54:1 59:1 
4 1:58 2:24 3:82 5:1 13:1 18:1 23:1 28:1 29:1 38:1 39:1 46:1 52:1 58:1 59:1 
1.10856248327772 1:42 2:40 3:82 7:1 13:1 18:1 19:1 28:1 33:1 38:1 39:1 46:1 52:1 58:1 59:1 
1.807723701598999 1:33 2:49 3:82 5:1 12:1 17:1 23:1 26:1 30:1 38:1 39:1 46:1 52:1 58:1 59:1 
4 1:1 2:81 3:82 8:1 13:1 14:1 23:1 27:1 33:1 38:1 39:1 46:1 52:1 58:1 59:1 
1.461062034707625 1:-84 2:91 3:7 8:1 9:1 14:1 23:1 25:1 31:1 34:1 43:1 48:1 53:1 55:1 60:1 
2.744304300680348 1:-72 2:94 3:22 6:1 13:1 15:1 20:1 26:1 30:1 38:1 39:1 45:1 53:1 56:1 63:1 
4 1:-64 2:94 3:30 6:1 13:1 15:1 20:1 26:1 30:1 34:1 39:1 48:1 49:1 54:1 59:1 
0.9563017906014231 1:-77 2:96 3:19 5:1 11:1 15:1 20:1 26:1 30:1 34:1 41:1 45:1 49:1 55:1 63:1 
0.8723343904798878 1:-76 2:98 3:22 5:1 11:1 15:1 20:1 28:1 29:1 38:1 39:1 45:1 53:1 56:1 63:1 
0.9203818478094986 1:-16 2:98 3:82 5:1 11:1 15:1 20:1 28:1 29:1 38:1 39:1 46:1 52:1 58:1 59:1 
2.97592737996242 1:60 2:40 3:100 7:1 13:1 18:1 19:1 28:1 33:1 35:1 41:1 45:1 49:1 58:1 59:1 
0.5316454253835863 1:4 2:96 3:100 5:1 11:1 15:1 20:1 26:1 30:1 35:1 41:1 45:1 49:1 58:1 59:1 
1.119049770272673 1:-23 2:105 3:82 8:1 9:1 14:1 23:1 28:1 29:1 38:1 39:1 46:1 52:1 58:1 59:1 
1.83535076538678 1:83 2:24 3:107 5:1 13:1 18:1 23:1 28:1 29:1 34:1 41:1 48:1 49:1 56:1 59:1 
0.01121003490394468 1:-27 2:109 3:82 8:1 13:1 14:1 19:1 24:1 30:1 38:1 39:1 46:1 52:1 58:1 59:1 
3.214265329821862 1:-46 2:146 3:100 8:1 9:1 15:1 22:1 25:1 29:1 35:1 41:1 45:1 49:1 58:1 59:1 
1.701015695560679 1:-39 2:146 3:107 8:1 9:1 15:1 22:1 25:1 29:1 34:1 41:1 48:1 49:1 56:1 59:1 
1.093294558536849 1:142 2:17 3:159 8:1 10:1 14:1 20:1 28:1 29:1 35:1 43:1 44:1 49:1 57:1 59:1 
0.8146697962290913 1:-200 2:207 3:7 8:1 12:1 15:1 20:1 28:1 33:1 34:1 43:1 48:1 53:1 55:1 60:1 
1.487958623299592 1:-125 2:207 3:82 8:1 12:1 15:1 20:1 28:1 33:1 38:1 39:1 46:1 52:1 58:1 59:1 
2.176260297222087 1:-100 2:207 3:107 8:1 12:1 15:1 20:1 28:1 33:1 34:1 41:1 48:1 49:1 56:1 59:1 
3.738792323684299 1:-219 2:238 3:19 4:1 13:1 18:1 20:1 26:1 30:1 34:1 41:1 45:1 49:1 55:1 63:1 
0.4649150161874269 1:-131 2:238 3:107 4:1 13:1 18:1 20:1 26:1 30:1 34:1 41:1 48:1 49:1 56:1 59:1 
1.826668167038781 1:-235 2:242 3:7 5:1 11:1 15:1 23:1 27:1 33:1 34:1 43:1 48:1 53:1 55:1 60:1 
2.680536457824863 1:-223 2:242 3:19 5:1 11:1 15:1 23:1 27:1 33:1 34:1 41:1 45:1 49:1 55:1 63:1 
1.21358423730953 1:-160 2:242 3:82 5:1 11:1 15:1 23:1 27:1 33:1 38:1 39:1 46:1 52:1 58:1 59:1 
1.500675105104865 1:-83 2:242 3:159 5:1 11:1 15:1 23:1 27:1 33:1 35:1 43:1 44:1 49:1 57:1 59:1 
3.053195463038706 1:5 2:46 3:51 6:1 13:1 18:1 20:1 25:1 30:1 35:1 40:1 45:1 53:1 58:1 59:1 
0.3484971105278095 1:-23 2:74 3:51 8:1 13:1 18:1 22:1 28:1 33:1 35:1 40:1 45:1 53:1 58:1 59:1 
4 1:-6 2:74 3:68 8:1 13:1 18:1 22:1 28:1 33:1 34:1 41:1 45:1 49:1 58:1 63:1 
0.6905961965290297 1:45 2:43 3:88 4:1 10:1 14:1 23:1 28:1 31:1 35:1 40:1 45:1 53:1 58:1 62:1 
2.648467725639828 1:22 2:66 3:88 5:1 13:1 14:1 20:1 28:1 29:1 35:1 40:1 45:1 53:1 58:1 62:1 
0.6073777890320575 1:181 2:43 3:224 4:1 10:1 14:1 23:1 28:1 31:1 35:1 40:1 45:1 53:1 58:1 59:1 
0.7601984182237378 1:158 2:66 3:224 5:1 13:1 14:1 20:1 28:1 29:1 35:1 40:1 45:1 53:1 58:1 59:1 
2.824953627951625 1:-163 2:251 3:88 8:1 9:1 15:1 23:1 24:1 29:1 35:1 40:1 45:1 53:1 58:1 62:1 
1.801736030473251 1:-10 2:10 3:0 8:1 13:1 18:1 21:1 28:1 33:1 53:1 55:1 60:1 
1.331929413548281 1:-28 2:28 3:0 7:1 10:1 18:1 23:1 24:1 29:1 53:1 55:1 60:1 
4 1:-42 2:58 3:16 7:1 10:1 15:1 22:1 25:1 30:1 38:1 43:1 48:1 49:1 58:1 63:1 
0.8100117484553511 1:119 2:11 3:130 8:1 13:1 16:1 23:1 28:1 33:1 38:1 40:1 48:1 50:1 58:1 63:1 
4 1:-157 2:165 3:8 8:1 12:1 14:1 22:1 26:1 33:1 35:1 40:1 48:1 53:1 56:1 61:1 
0.7131631708967943 1:-159 2:167 3:8 4:1 11:1 17:1 23:1 28:1 29:1 35:1 40:1 48:1 53:1 56:1 61:1 
0.5692330585196846 1:-172 2:180 3:8 7:1 12:1 18:1 22:1 24:1 30:1 35:1 40:1 48:1 53:1 56:1 61:1 
0.1726671038213061 1:-164 2:180 3:16 7:1 12:1 18:1 22:1 24:1 30:1 38:1 43:1 48:1 49:1 58:1 63:1 
1.160192839240847 1:-50 2:180 3:130 7:1 12:1 18:1 22:1 24:1 30:1 38:1 40:1 48:1 50:1 58:1 63:1 
0.01401965488868191 1:-185 2:185 3:0 4:1 10:1 17:1 19:1 27:1 33:1 53:1 55:1 60:1 
1.237880714382051 1:-177 2:185 3:8 4:1 10:1 17:1 19:1 27:1 33:1 35:1 40:1 48:1 53:1 56:1 61:1 
0.1207026545143406 1:-55 2:185 3:130 4:1 10:1 17:1 19:1 27:1 33:1 38:1 40:1 48:1 50:1 58:1 63:1 
2.397214688597843 1:164 2:28 3:192 7:1 10:1 18:1 23:1 24:1 29:1 38:1 40:1 47:1 52:1 58:1 63:1 
2.42663116805254 1:12 2:180 3:192 7:1 12:1 18:1 22:1 24:1 30:1 38:1 40:1 47:1 52:1 58:1 63:1 
0.6101578065355365 1:71 2:165 3:236 8:1 12:1 14:1 22:1 26:1 33:1 34:1 42:1 45:1 53:1 58:1 63:1 
3.160139989885425 1:69 2:167 3:236 4:1 11:1 17:1 23:1 28:1 29:1 34:1 42:1 45:1 53:1 58:1 63:1 
1.518146169909375 1:56 2:180 3:236 7:1 12:1 18:1 22:1 24:1 30:1 34:1 42:1 45:1 53:1 58:1 63:1 
1.529837618198045 1:51 2:185 3:236 4:1 10:1 17:1 19:1 27:1 33:1 34:1 42:1 45:1 53:1 58:1 63:1 
2.53917546266575 1:213 2:58 3:271 7:1 10:1 15:1 22:1 25:1 30:1 34:1 40:1 48:1 53:1 55:1 59:1 
2.584093626624802 1:91 2:180 3:271 7:1 12:1 18:1 22:1 24:1 30:1 34:1 40:1 48:1 53:1 55:1 59:1 
4 1:1 2:0 3:1 23:1 28:1 32:1 46:1 53:1 57:1 60:1 
0.8689685179275799 1:264 2:0 3:264 23:1 28:1 32:1 37:1 42:1 47:1 49:1 54:1 62:1 
0.209603856314089 1:272 2:0 3:272 23:1 28:1 32:1 38:1 40:1 47:1 49:1 54:1 63:1 
4 1:300 2:0 3:300 23:1 28:1 32:1 35:1 43:1 47:1 53:1 54:1 59:1 
2.264968833063772 1:-225 2:306 3:81 4:1 10:1 18:1 19:1 28:1 33:1 35:1 40:1 45:1 53:1 58:1 63:1 
3.783353730408547 1:-175 2:306 3:131 4:1 10:1 18:1 19:1 28:1 33:1 34:1 42:1 45:1 49:1 58:1 63:1 
1.086318086623002 1:-104 2:306 3:202 4:1 10:1 18:1 19:1 28:1 33:1 37:1 42:1 45:1 52:1 58:1 59:1 
2.23994871499108 1:-34 2:306 3:272 4:1 10:1 18:1 19:1 28:1 33:1 38:1 40:1 47:1 49:1 54:1 63:1 
3.543429231574953 1:-6 2:306 3:300 4:1 10:1 18:1 19:1 28:1 33:1 35:1 43:1 47:1 53:1 54:1 59:1 
2.563081067988958 1:191 2:306 3:497 4:1 10:1 18:1 19:1 28:1 33:1 34:1 43:1 48:1 49:1 56:1 62:1 
0.2998337213086973 1:-464 2:499 3:35 8:1 13:1 14:1 22:1 25:1 33:1 35:1 43:1 47:1 49:1 55:1 60:1 
0.3877504986210938 1:-368 2:499 3:131 8:1 13:1 14:1 22:1 25:1 33:1 34:1 42:1 45:1 49:1 58:1 63:1 
0.9387839140894607 1:-356 2:499 3:143 8:1 13:1 14:1 22:1 25:1 33:1 35:1 39:1 45:1 49:1 54:1 63:1 
0.4045676485363878 1:-316 2:499 3:183 8:1 13:1 14:1 22:1 25:1 33:1 38:1 39:1 45:1 52:1 54:1 59:1 
0.4142657345674154 1:-273 2:499 3:226 8:1 13:1 14:1 22:1 25:1 33:1 37:1 43:1 48:1 49:1 58:1 63:1 
0.3958440876997106 1:-210 2:499 3:289 8:1 13:1 14:1 22:1 25:1 33:1 34:1 43:1 45:1 53:1 57:1 62:1 
0.4133538675923387 1:-174 2:499 3:325 8:1 13:1 14:1 22:1 25:1 33:1 35:1 43:1 47:1 53:1 54:1 59:1 
0.3959388914954117 1:-151 2:499 3:348 8:1 13:1 14:1 22:1 25:1 33:1 37:1 43:1 48:1 52:1 58:1 59:1 
0.2980148329431868 1:-121 2:499 3:378 8:1 13:1 14:1 22:1 25:1 33:1 34:1 42:1 48:1 53:1 54:1 63:1 
0.2954837898576615 1:-41 2:499 3:458 8:1 13:1 14:1 22:1 25:1 33:1 38:1 39:1 45:1 53:1 58:1 63:1 
2.118482799477621 1:196 2:306 3:502 4:1 10:1 18:1 19:1 28:1 33:1 36:1 42:1 45:1 53:1 54:1 62:1 
0.4137063861847811 1:28 2:499 3:527 8:1 13:1 14:1 22:1 25:1 33:1 37:1 40:1 48:1 52:1 54:1 60:1 
4 1:-137 2:150 3:13 8:1 9:1 15:1 22:1 28:1 33:1 34:1 41:1 45:1 49:1 56:1 63:1 
4 1:-157 2:170 3:13 4:1 12:1 14:1 23:1 27:1 33:1 34:1 41:1 45:1 49:1 56:1 63:1 
1.193878059437708 1:159 2:15 3:174 5:1 13:1 14:1 23:1 28:1 33:1 38:1 42:1 48:1 53:1 58:1 63:1 
0.8643898663871542 1:24 2:150 3:174 8:1 9:1 15:1 22:1 28:1 33:1 38:1 42:1 48:1 53:1 58:1 63:1 
4 1:-166 2:179 3:13 8:1 13:1 15:1 22:1 25:1 33:1 34:1 41:1 45:1 49:1 56:1 63:1 
4 1:-5 2:179 3:174 8:1 13:1 15:1 22:1 25:1 33:1 38:1 42:1 48:1 53:1 58:1 63:1 
0.2207447090344251 1:182 2:15 3:197 5:1 13:1 14:1 23:1 28:1 33:1 38:1 43:1 48:1 53:1 55:1 63:1 
0.5347919455186467 1:151 2:46 3:197 8:1 13:1 15:1 23:1 28:1 32:1 38:1 43:1 48:1 53:1 55:1 63:1 
3.048096151933616 1:167 2:46 3:213 8:1 13:1 15:1 23:1 28:1 32:1 34:1 40:1 44:1 53:1 54:1 61:1 
3.2226016815038 1:34 2:179 3:213 8:1 13:1 15:1 22:1 25:1 33:1 34:1 40:1 44:1 53:1 54:1 61:1 
4 1:-203 2:216 3:13 8:1 13:1 14:1 23:1 28:1 31:1 34:1 41:1 45:1 49:1 56:1 63:1 
3.253486623510966 1:-51 2:216 3:165 8:1 13:1 14:1 23:1 28:1 31:1 36:1 42:1 45:1 53:1 54:1 62:1 
4 1:-42 2:216 3:174 8:1 13:1 14:1 23:1 28:1 31:1 38:1 42:1 48:1 53:1 58:1 63:1 
4 1:-206 2:219 3:13 6:1 13:1 18:1 22:1 28:1 29:1 34:1 41:1 45:1 49:1 56:1 63:1 
3.256417831367261 1:-22 2:219 3:197 6:1 13:1 18:1 22:1 28:1 29:1 38:1 43:1 48:1 53:1 55:1 63:1 
1.607523404957415 1:-43 2:227 3:184 8:1 12:1 15:1 19:1 27:1 33:1 35:1 43:1 48:1 53:1 57:1 62:1 
0.8190931981910701 1:-30 2:227 3:197 8:1 12:1 15:1 19:1 27:1 33:1 38:1 43:1 48:1 53:1 55:1 63:1 
1.920007254923078 1:-14 2:227 3:213 8:1 12:1 15:1 19:1 27:1 33:1 34:1 40:1 44:1 53:1 54:1 61:1 
2.43150137505835 1:18 2:227 3:245 8:1 12:1 15:1 19:1 27:1 33:1 38:1 42:1 45:1 53:1 54:1 63:1 
1.392122530448165 1:262 2:11 3:273 8:1 10:1 14:1 20:1 28:1 29:1 38:1 39:1 45:1 53:1 58:1 63:1 
2.789914418133447 1:264 2:11 3:275 8:1 10:1 14:1 20:1 28:1 29:1 35:1 43:1 48:1 53:1 58:1 63:1 
1.262138053116009 1:94 2:202 3:296 5:1 13:1 14:1 20:1 27:1 30:1 37:1 40:1 48:1 52:1 58:1 60:1 
0.2828283830190873 1:299 2:11 3:310 8:1 10:1 14:1 20:1 28:1 29:1 38:1 42:1 48:1 53:1 58:1 63:1 
0.6589570915775411 1:264 2:46 3:310 8:1 13:1 15:1 23:1 28:1 32:1 38:1 42:1 48:1 53:1 58:1 63:1 
1.088763905759871 1:83 2:227 3:310 8:1 12:1 15:1 19:1 27:1 33:1 38:1 42:1 48:1 53:1 58:1 63:1 
0.05830481793522056 1:97 2:227 3:324 8:1 12:1 15:1 19:1 27:1 33:1 38:1 42:1 48:1 52:1 58:1 59:1 
0.9352146619440902 1:-157 2:341 3:184 8:1 13:1 15:1 23:1 27:1 30:1 35:1 43:1 48:1 53:1 57:1 62:1 
0.1243193162128189 1:299 2:46 3:345 8:1 13:1 15:1 23:1 28:1 32:1 38:1 42:1 45:1 49:1 58:1 60:1 
1.001900591653824 1:183 2:162 3:345 5:1 13:1 14:1 22:1 25:1 33:1 38:1 42:1 45:1 49:1 58:1 60:1 
0.001569280890098232 1:305 2:46 3:351 8:1 13:1 15:1 23:1 28:1 32:1 35:1 43:1 47:1 49:1 57:1 62:1 
0.6976709226636509 1:149 2:202 3:351 5:1 13:1 14:1 20:1 27:1 30:1 35:1 43:1 47:1 49:1 57:1 62:1 
1.411647933606757 1:124 2:227 3:351 8:1 12:1 15:1 19:1 27:1 33:1 35:1 43:1 47:1 49:1 57:1 62:1 
0.03467108745237282 1:-359 2:360 3:1 8:1 13:1 15:1 22:1 25:1 32:1 48:1 53:1 55:1 60:1 
2.479264222032623 1:-163 2:360 3:197 8:1 13:1 15:1 22:1 25:1 32:1 38:1 43:1 48:1 53:1 55:1 63:1 
0.5189106637764185 1:-211 2:376 3:165 7:1 13:1 14:1 19:1 28:1 29:1 36:1 42:1 45:1 53:1 54:1 62:1 
0.5536631594482357 1:-202 2:376 3:174 7:1 13:1 14:1 19:1 28:1 29:1 38:1 42:1 48:1 53:1 58:1 63:1 
1.393713219338623 1:-179 2:376 3:197 7:1 13:1 14:1 19:1 28:1 29:1 38:1 43:1 48:1 53:1 55:1 63:1 
0.1472819419394892 1:-103 2:376 3:273 7:1 13:1 14:1 19:1 28:1 29:1 38:1 39:1 45:1 53:1 58:1 63:1 
1.294288843336662 1:-427 2:428 3:1 8:1 9:1 15:1 22:1 25:1 33:1 48:1 53:1 55:1 60:1 
0.7312647276776705 1:-83 2:428 3:345 8:1 9:1 15:1 22:1 25:1 33:1 38:1 42:1 45:1 49:1 58:1 60:1 
0.1270603882763533 1:422 2:11 3:433 8:1 10:1 14:1 20:1 28:1 29:1 35:1 43:1 45:1 53:1 58:1 63:1 
0.584113045347419 1:231 2:202 3:433 5:1 13:1 14:1 20:1 27:1 30:1 35:1 43:1 45:1 53:1 58:1 63:1 
0.2850796449909342 1:57 2:376 3:433 7:1 13:1 14:1 19:1 28:1 29:1 35:1 43:1 45:1 53:1 58:1 63:1 
1.024494954296205 1:-48 2:48 3:0 8:1 12:1 15:1 22:1 25:1 31:1 53:1 55:1 60:1 
0.3374240594125236 1:-63 2:74 3:11 5:1 12:1 18:1 23:1 28:1 33:1 34:1 39:1 45:1 49:1 55:1 59:1 
1.366312605999449 1:-46 2:74 3:28 5:1 12:1 18:1 23:1 28:1 33:1 38:1 42:1 48:1 53:1 54:1 60:1 
4 1:-42 2:74 3:32 5:1 12:1 18:1 23:1 28:1 33:1 38:1 39:1 45:1 49:1 56:1 63:1 
1.094988837580558 1:12 2:74 3:86 5:1 12:1 18:1 23:1 28:1 33:1 34:1 43:1 47:1 49:1 58:1 59:1 
4 1:-4 2:99 3:95 8:1 12:1 18:1 19:1 28:1 30:1 38:1 40:1 48:1 53:1 57:1 63:1 
4 1:75 2:34 3:109 5:1 13:1 14:1 23:1 27:1 33:1 38:1 39:1 48:1 49:1 58:1 60:1 
3.505211005026909 1:10 2:99 3:109 8:1 12:1 18:1 19:1 28:1 30:1 38:1 39:1 48:1 49:1 58:1 60:1 
0.3375049815237514 1:6 2:103 3:109 4:1 13:1 15:1 22:1 25:1 33:1 38:1 39:1 48:1 49:1 58:1 60:1 
1.686658255351065 1:-27 2:136 3:109 7:1 13:1 18:1 20:1 24:1 32:1 38:1 39:1 48:1 49:1 58:1 60:1 
0.9460034626549998 1:158 2:16 3:174 5:1 9:1 14:1 20:1 25:1 33:1 38:1 43:1 45:1 49:1 57:1 62:1 
0.9546790883248727 1:126 2:48 3:174 8:1 12:1 15:1 22:1 25:1 31:1 38:1 43:1 45:1 49:1 57:1 62:1 
0.9151070642268696 1:-76 2:185 3:109 4:1 13:1 17:1 20:1 25:1 33:1 38:1 39:1 48:1 49:1 58:1 60:1 
1.315328990211393 1:46 2:14 3:60 5:1 13:1 14:1 23:1 28:1 33:1 36:1 43:1 47:1 49:1 57:1 59:1 
0.1757312553692273 1:25 2:35 3:60 8:1 9:1 15:1 20:1 28:1 32:1 36:1 43:1 47:1 49:1 57:1 59:1 
1.1534699047307 1:84 2:35 3:119 8:1 9:1 15:1 20:1 28:1 32:1 38:1 42:1 45:1 53:1 54:1 63:1 
2.708673269830367 1:-146 2:206 3:60 7:1 12:1 15:1 23:1 27:1 30:1 36:1 43:1 47:1 49:1 57:1 59:1 
0.9684993195323767 1:189 2:4 3:193 5:1 13:1 17:1 20:1 25:1 30:1 37:1 43:1 48:1 53:1 54:1 63:1 
1.083356040354086 1:118 2:75 3:193 5:1 13:1 18:1 22:1 27:1 31:1 37:1 43:1 48:1 53:1 54:1 63:1 
1.895109495990233 1:-29 2:222 3:193 4:1 10:1 15:1 23:1 25:1 30:1 37:1 43:1 48:1 53:1 54:1 63:1 
0.7489205199297133 1:226 2:4 3:230 5:1 13:1 17:1 20:1 25:1 30:1 34:1 42:1 44:1 52:1 56:1 63:1 
0.7494299346865184 1:140 2:90 3:230 8:1 10:1 15:1 23:1 25:1 30:1 34:1 42:1 44:1 52:1 56:1 63:1 
4 1:102 2:128 3:230 4:1 10:1 15:1 23:1 25:1 30:1 34:1 42:1 44:1 52:1 56:1 63:1 
1.004340668273426 1:-39 2:232 3:193 4:1 13:1 17:1 23:1 27:1 33:1 37:1 43:1 48:1 53:1 54:1 63:1 
3.201519309096459 1:-20 2:250 3:230 8:1 9:1 15:1 23:1 25:1 29:1 34:1 42:1 44:1 52:1 56:1 63:1 
3.440180977810245 1:-69 2:262 3:193 8:1 10:1 15:1 23:1 25:1 30:1 37:1 43:1 48:1 53:1 54:1 63:1 
0.2663455389712855 1:-81 2:311 3:230 8:1 9:1 18:1 23:1 28:1 29:1 34:1 42:1 44:1 52:1 56:1 63:1 
2.032478191375655 1:256 2:90 3:346 8:1 10:1 15:1 23:1 25:1 30:1 37:1 39:1 45:1 53:1 58:1 60:1 
0.1351604299010484 1:218 2:128 3:346 4:1 10:1 15:1 23:1 25:1 30:1 37:1 39:1 45:1 53:1 58:1 60:1 
1.049717671101137 1:84 2:262 3:346 8:1 10:1 15:1 23:1 25:1 30:1 37:1 39:1 45:1 53:1 58:1 60:1 
0.07817862592783029 1:72 2:274 3:346 8:1 13:1 14:1 23:1 28:1 33:1 37:1 39:1 45:1 53:1 58:1 60:1 
0.2364783723666234 1:35 2:311 3:346 8:1 9:1 18:1 23:1 28:1 29:1 37:1 39:1 45:1 53:1 58:1 60:1 
0.8720934235216915 1:284 2:75 3:359 5:1 13:1 18:1 22:1 27:1 31:1 35:1 39:1 44:1 50:1 58:1 60:1 
0.1740968929259462 1:182 2:177 3:359 4:1 10:1 15:1 23:1 25:1 30:1 35:1 39:1 44:1 50:1 58:1 60:1 
3.318203315652053 1:104 2:255 3:359 5:1 9:1 18:1 22:1 24:1 32:1 35:1 39:1 44:1 50:1 58:1 60:1 
1.153315708262766 1:31 2:328 3:359 8:1 10:1 15:1 19:1 28:1 30:1 35:1 39:1 44:1 50:1 58:1 60:1 
0.2713795823209938 1:-186 2:379 3:193 8:1 10:1 15:1 23:1 25:1 37:1 43:1 48:1 53:1 54:1 63:1 
0.3178822721608952 1:-149 2:379 3:230 8:1 10:1 15:1 23:1 25:1 34:1 42:1 44:1 52:1 56:1 63:1 
1.657910261316131 1:41 2:72 3:113 8:1 13:1 15:1 22:1 26:1 30:1 38:1 43:1 47:1 53:1 54:1 60:1 
2.50831525160543 1:39 2:74 3:113 5:1 11:1 17:1 20:1 28:1 33:1 38:1 43:1 47:1 53:1 54:1 60:1 
4 1:145 2:74 3:219 5:1 11:1 17:1 20:1 28:1 33:1 35:1 43:1 48:1 52:1 54:1 60:1 
0.9009238437560907 1:-145 2:258 3:113 5:1 13:1 15:1 22:1 25:1 33:1 38:1 43:1 47:1 53:1 54:1 60:1 
2.439500421258618 1:16 2:314 3:330 7:1 13:1 14:1 22:1 27:1 30:1 34:1 39:1 45:1 50:1 54:1 60:1 
2.537191414655133 1:-71 2:380 3:309 8:1 12:1 14:1 20:1 28:1 33:1 34:1 43:1 48:1 49:1 57:1 63:1 
1.263526081721563 1:-88 2:397 3:309 8:1 13:1 14:1 19:1 28:1 32:1 34:1 43:1 48:1 49:1 57:1 63:1 
0.5869239555751233 1:-67 2:397 3:330 8:1 13:1 14:1 19:1 28:1 32:1 34:1 39:1 45:1 50:1 54:1 60:1 
0.1108708014851692 1:335 2:72 3:407 8:1 13:1 15:1 22:1 26:1 30:1 38:1 40:1 48:1 53:1 58:1 59:1 
0.2581318356100898 1:333 2:74 3:407 5:1 11:1 17:1 20:1 28:1 33:1 38:1 40:1 48:1 53:1 58:1 59:1 
0.169296546942399 1:141 2:266 3:407 7:1 13:1 15:1 20:1 28:1 33:1 38:1 40:1 48:1 53:1 58:1 59:1 
0.6535205481038133 1:27 2:380 3:407 8:1 12:1 14:1 20:1 28:1 33:1 38:1 40:1 48:1 53:1 58:1 59:1 
1.403385928058821 1:10 2:397 3:407 8:1 13:1 14:1 19:1 28:1 32:1 38:1 40:1 48:1 53:1 58:1 59:1 
0.3119751376832774 1:-111 2:420 3:309 8:1 10:1 18:1 23:1 24:1 33:1 34:1 43:1 48:1 49:1 57:1 63:1 
0.4157748823340579 1:-444 2:557 3:113 5:1 13:1 17:1 23:1 28:1 29:1 38:1 43:1 47:1 53:1 54:1 60:1 
0.4162268620271827 1:-227 2:557 3:330 5:1 13:1 17:1 23:1 28:1 29:1 34:1 39:1 45:1 50:1 54:1 60:1 
1.9318225343409 1:-31 2:41 3:10 5:1 13:1 14:1 20:1 28:1 32:1 36:1 42:1 45:1 53:1 54:1 62:1 
2.097534249346424 1:29 2:16 3:45 7:1 13:1 18:1 23:1 28:1 33:1 35:1 43:1 47:1 49:1 55:1 63:1 
0.03677258304201425 1:48 2:7 3:55 5:1 13:1 14:1 22:1 25:1 33:1 34:1 39:1 48:1 49:1 58:1 59:1 
3.219657505475392 1:14 2:41 3:55 5:1 13:1 14:1 20:1 28:1 32:1 34:1 39:1 48:1 49:1 58:1 59:1 
1.94241154358788 1:-75 2:85 3:10 8:1 9:1 14:1 22:1 25:1 31:1 36:1 42:1 45:1 53:1 54:1 62:1 
4 1:-37 2:85 3:48 8:1 9:1 14:1 22:1 25:1 31:1 38:1 39:1 45:1 53:1 55:1 63:1 
3.890742690709502 1:-57 2:88 3:31 6:1 12:1 15:1 23:1 24:1 29:1 34:1 43:1 44:1 52:1 58:1 63:1 
1.2553681012058 1:-43 2:88 3:45 6:1 12:1 15:1 23:1 24:1 29:1 35:1 43:1 47:1 49:1 55:1 63:1 
1.189635095355425 1:-40 2:88 3:48 6:1 12:1 15:1 23:1 24:1 29:1 38:1 39:1 45:1 53:1 55:1 63:1 
4 1:-7 2:88 3:81 6:1 12:1 15:1 23:1 24:1 29:1 38:1 43:1 47:1 53:1 54:1 59:1 
0.271496205714634 1:-49 2:97 3:48 8:1 9:1 15:1 22:1 25:1 30:1 38:1 39:1 45:1 53:1 55:1 63:1 
2.158662226979197 1:-16 2:97 3:81 8:1 9:1 15:1 22:1 25:1 30:1 38:1 43:1 47:1 53:1 54:1 59:1 
3.562039142044392 1:27 2:85 3:112 8:1 9:1 14:1 22:1 25:1 31:1 35:1 43:1 48:1 53:1 58:1 62:1 
1.668057329465638 1:24 2:97 3:121 8:1 9:1 15:1 22:1 25:1 30:1 35:1 43:1 47:1 53:1 54:1 63:1 
4 1:90 2:41 3:131 5:1 13:1 14:1 20:1 28:1 32:1 38:1 43:1 47:1 50:1 58:1 59:1 
1.435780337245995 1:48 2:85 3:133 8:1 9:1 14:1 22:1 25:1 31:1 37:1 43:1 45:1 49:1 58:1 62:1 
4 1:69 2:85 3:154 8:1 9:1 14:1 22:1 25:1 31:1 37:1 43:1 45:1 53:1 58:1 63:1 
3.122602407881172 1:66 2:88 3:154 6:1 12:1 15:1 23:1 24:1 29:1 37:1 43:1 45:1 53:1 58:1 63:1 
2.439077912085209 1:79 2:85 3:164 8:1 9:1 14:1 22:1 25:1 31:1 34:1 40:1 48:1 53:1 58:1 59:1 
0.1693772766181862 1:67 2:97 3:164 8:1 9:1 15:1 22:1 25:1 30:1 34:1 40:1 48:1 53:1 58:1 59:1 
0.9273827378768578 1:133 2:41 3:174 5:1 13:1 14:1 20:1 28:1 32:1 37:1 43:1 45:1 53:1 58:1 62:1 
3.343986469366066 1:89 2:85 3:174 8:1 9:1 14:1 22:1 25:1 31:1 37:1 43:1 45:1 53:1 58:1 62:1 
0.9489343352754948 1:-143 2:191 3:48 4:1 10:1 15:1 23:1 28:1 32:1 38:1 39:1 45:1 53:1 55:1 63:1 
1.141627329752385 1:-79 2:191 3:112 4:1 10:1 15:1 23:1 28:1 32:1 35:1 43:1 48:1 53:1 58:1 62:1 
2.963207888168411 1:-37 2:191 3:154 4:1 10:1 15:1 23:1 28:1 32:1 37:1 43:1 45:1 53:1 58:1 63:1 
0.5501521399010373 1:-27 2:191 3:164 4:1 10:1 15:1 23:1 28:1 32:1 34:1 40:1 48:1 53:1 58:1 59:1 
0.5457973049635928 1:177 2:16 3:193 7:1 13:1 18:1 23:1 28:1 33:1 35:1 41:1 48:1 52:1 54:1 60:1 
0.7314063987795053 1:108 2:85 3:193 8:1 9:1 14:1 22:1 25:1 31:1 35:1 41:1 48:1 52:1 54:1 60:1 
0.590513696100772 1:105 2:88 3:193 6:1 12:1 15:1 23:1 24:1 29:1 35:1 41:1 48:1 52:1 54:1 60:1 
0.5960245377946215 1:100 2:97 3:197 8:1 9:1 15:1 22:1 25:1 30:1 37:1 39:1 45:1 49:1 56:1 63:1 
0.8463443466184892 1:-166 2:199 3:33 5:1 13:1 14:1 23:1 28:1 29:1 34:1 43:1 47:1 53:1 54:1 59:1 
2.184293282827391 1:-68 2:199 3:131 5:1 13:1 14:1 23:1 28:1 29:1 38:1 43:1 47:1 50:1 58:1 59:1 
1.148135062638398 1:-25 2:199 3:174 5:1 13:1 14:1 23:1 28:1 29:1 37:1 43:1 45:1 53:1 58:1 62:1 
4 1:-6 2:199 3:193 5:1 13:1 14:1 23:1 28:1 29:1 35:1 41:1 48:1 52:1 54:1 60:1 
2.398357286692157 1:118 2:85 3:203 8:1 9:1 14:1 22:1 25:1 31:1 38:1 43:1 44:1 53:1 58:1 63:1 
1.081602506580122 1:108 2:97 3:205 8:1 9:1 15:1 22:1 25:1 30:1 34:1 43:1 48:1 53:1 54:1 59:1 
4 1:-31 2:101 3:70 8:1 9:1 15:1 22:1 26:1 33:1 35:1 43:1 44:1 53:1 54:1 61:1 
1.169662002840858 1:92 2:85 3:177 5:1 13:1 18:1 23:1 27:1 29:1 37:1 39:1 45:1 50:1 54:1 62:1 
3.91366122947366 1:74 2:103 3:177 5:1 11:1 17:1 23:1 24:1 33:1 37:1 39:1 45:1 50:1 54:1 62:1 
2.317338063999972 1:37 2:140 3:177 8:1 13:1 14:1 22:1 24:1 33:1 37:1 39:1 45:1 50:1 54:1 62:1 
1.017896562359622 1:-12 2:189 3:177 7:1 13:1 15:1 19:1 28:1 32:1 37:1 39:1 45:1 50:1 54:1 62:1 
1.182049006714164 1:-41 2:218 3:177 4:1 13:1 18:1 20:1 37:1 39:1 45:1 50:1 54:1 62:1 
2.353335092012244 1:4 2:32 3:36 4:1 13:1 18:1 20:1 24:1 32:1 35:1 39:1 47:1 49:1 56:1 60:1 
4 1:-6 2:42 3:36 5:1 13:1 14:1 20:1 28:1 33:1 35:1 39:1 47:1 49:1 56:1 60:1 
3.378207743427413 1:51 2:14 3:65 5:1 13:1 18:1 19:1 28:1 33:1 38:1 43:1 45:1 49:1 57:1 63:1 
0.1482648814138939 1:33 2:32 3:65 4:1 13:1 18:1 20:1 24:1 32:1 38:1 43:1 45:1 49:1 57:1 63:1 
2.11953693446891 1:18 2:47 3:65 8:1 13:1 14:1 23:1 28:1 33:1 38:1 43:1 45:1 49:1 57:1 63:1 
1.641813538434896 1:48 2:47 3:95 8:1 13:1 14:1 23:1 28:1 33:1 35:1 40:1 45:1 53:1 58:1 60:1 
0.1434418552383304 1:36 2:59 3:95 8:1 13:1 15:1 22:1 25:1 33:1 35:1 40:1 45:1 53:1 58:1 60:1 
3.161530521035329 1:87 2:47 3:134 8:1 13:1 14:1 23:1 28:1 33:1 35:1 43:1 45:1 52:1 55:1 60:1 
1.283442922033765 1:101 2:42 3:143 5:1 13:1 14:1 20:1 28:1 33:1 34:1 40:1 48:1 53:1 58:1 63:1 
2.817318321390986 1:145 2:32 3:177 4:1 13:1 18:1 20:1 24:1 32:1 35:1 39:1 48:1 53:1 58:1 59:1 
1.243752856554857 1:146 2:42 3:188 5:1 13:1 14:1 20:1 28:1 33:1 37:1 43:1 48:1 49:1 58:1 63:1 
3.439637143752929 1:129 2:59 3:188 8:1 13:1 15:1 22:1 25:1 33:1 37:1 43:1 48:1 49:1 58:1 63:1 
2.140342021536363 1:10 2:17 3:27 5:1 9:1 15:1 23:1 28:1 33:1 34:1 40:1 45:1 53:1 54:1 59:1 
4 1:49 2:17 3:66 5:1 9:1 15:1 23:1 28:1 33:1 35:1 41:1 45:1 49:1 58:1 63:1 
0.1361559975539327 1:-131 2:149 3:18 8:1 13:1 14:1 23:1 28:1 30:1 34:1 40:1 46:1 53:1 58:1 63:1 
2.249910070131291 1:-122 2:149 3:27 8:1 13:1 14:1 23:1 28:1 30:1 34:1 40:1 45:1 53:1 54:1 59:1 
0.8134570756305548 1:-63 2:149 3:86 8:1 13:1 14:1 23:1 28:1 30:1 34:1 43:1 48:1 49:1 58:1 62:1 
0.8588608120250595 1:-123 2:189 3:66 8:1 10:1 18:1 22:1 28:1 33:1 35:1 41:1 45:1 49:1 58:1 63:1 
1.287049941005475 1:-201 2:219 3:18 4:1 13:1 17:1 23:1 24:1 30:1 34:1 40:1 46:1 53:1 58:1 63:1 
2.38476506122779 1:84 2:149 3:233 8:1 13:1 14:1 23:1 28:1 30:1 37:1 43:1 44:1 49:1 58:1 63:1 
1.631081890262572 1:-255 2:256 3:1 8:1 13:1 18:1 20:1 28:1 32:1 48:1 53:1 58:1 63:1 
1.489936281313283 1:-179 2:256 3:77 8:1 13:1 18:1 20:1 28:1 32:1 35:1 43:1 47:1 49:1 58:1 63:1 
4 1:-120 2:256 3:136 8:1 13:1 18:1 20:1 28:1 32:1 38:1 43:1 47:1 53:1 58:1 60:1 
0.7215039541738402 1:9 2:44 3:53 8:1 13:1 18:1 23:1 28:1 29:1 35:1 43:1 45:1 53:1 58:1 63:1 
0.5425575383409335 1:48 2:7 3:55 5:1 13:1 14:1 22:1 25:1 30:1 35:1 43:1 48:1 53:1 58:1 63:1 
1.961928849442666 1:-21 2:74 3:53 5:1 13:1 18:1 20:1 28:1 33:1 35:1 43:1 45:1 53:1 58:1 63:1 
1.929712888974696 1:32 2:44 3:76 8:1 13:1 18:1 23:1 28:1 29:1 38:1 41:1 45:1 53:1 54:1 61:1 
3.725354896480597 1:44 2:74 3:118 5:1 13:1 18:1 20:1 28:1 33:1 38:1 39:1 45:1 53:1 58:1 63:1 
2.034614187390315 1:-128 2:183 3:55 4:1 13:1 18:1 20:1 27:1 29:1 35:1 43:1 48:1 53:1 58:1 63:1 
1.426977416250776 1:-118 2:194 3:76 8:1 13:1 18:1 22:1 25:1 33:1 38:1 41:1 45:1 53:1 54:1 61:1 
0.6942015908060368 1:-15 2:194 3:179 8:1 13:1 18:1 22:1 25:1 33:1 35:1 42:1 48:1 49:1 58:1 63:1 
2.374634521535075 1:-38 2:155 3:117 6:1 13:1 14:1 20:1 27:1 33:1 34:1 39:1 45:1 53:1 55:1 63:1 
0.0525731821470868 1:153 2:25 3:178 8:1 12:1 18:1 20:1 27:1 30:1 38:1 43:1 47:1 49:1 54:1 59:1 
0.4759532758012814 1:168 2:25 3:193 8:1 12:1 18:1 20:1 27:1 30:1 36:1 39:1 48:1 53:1 58:1 59:1 
1.711357579292013 1:187 2:25 3:212 8:1 12:1 18:1 20:1 27:1 30:1 38:1 42:1 48:1 53:1 54:1 63:1 
1.886180534458954 1:57 2:155 3:212 6:1 13:1 14:1 20:1 27:1 33:1 38:1 42:1 48:1 53:1 54:1 63:1 
0.6690502623404639 1:162 2:163 3:325 5:1 12:1 18:1 23:1 24:1 33:1 35:1 43:1 48:1 53:1 54:1 63:1 
3.127496849760904 1:-7 2:332 3:325 7:1 13:1 15:1 20:1 28:1 33:1 35:1 43:1 48:1 53:1 54:1 63:1 
0.2408884649292722 1:-67 2:75 3:8 8:1 13:1 14:1 23:1 26:1 33:1 38:1 43:1 45:1 52:1 58:1 59:1 
4 1:-4 2:77 3:73 4:1 11:1 18:1 23:1 26:1 30:1 38:1 40:1 48:1 49:1 56:1 63:1 
0.8627129078917588 1:-71 2:79 3:8 8:1 11:1 18:1 20:1 28:1 33:1 38:1 43:1 45:1 52:1 58:1 59:1 
2.580999954888746 1:-13 2:86 3:73 8:1 10:1 18:1 23:1 28:1 33:1 38:1 40:1 48:1 49:1 56:1 63:1 
0.8101661092894605 1:-83 2:91 3:8 8:1 13:1 18:1 21:1 27:1 31:1 38:1 43:1 45:1 52:1 58:1 59:1 
0.5076214517894153 1:-18 2:91 3:73 8:1 13:1 18:1 21:1 27:1 31:1 38:1 40:1 48:1 49:1 56:1 63:1 
1.164963921918365 1:-84 2:94 3:10 6:1 11:1 17:1 19:1 28:1 32:1 35:1 43:1 47:1 49:1 54:1 63:1 
1.23313144715122 1:15 2:86 3:101 8:1 10:1 18:1 23:1 28:1 33:1 35:1 43:1 47:1 52:1 58:1 59:1 
2.186864522642852 1:9 2:92 3:101 8:1 13:1 16:1 22:1 26:1 29:1 35:1 43:1 47:1 52:1 58:1 59:1 
0.295625859838513 1:7 2:94 3:101 6:1 11:1 17:1 19:1 28:1 32:1 35:1 43:1 47:1 52:1 58:1 59:1 
0.03674279008149296 1:-105 2:107 3:2 4:1 10:1 18:1 23:1 26:1 32:1 43:1 47:1 49:1 56:1 63:1 
4 1:-6 2:107 3:101 4:1 10:1 18:1 23:1 26:1 32:1 35:1 43:1 47:1 52:1 58:1 59:1 
3.664333089421824 1:-99 2:109 3:10 8:1 11:1 18:1 22:1 28:1 33:1 35:1 43:1 47:1 49:1 54:1 63:1 
4 1:-36 2:109 3:73 8:1 11:1 18:1 22:1 28:1 33:1 38:1 40:1 48:1 49:1 56:1 63:1 
4 1:-8 2:109 3:101 8:1 11:1 18:1 22:1 28:1 33:1 35:1 43:1 47:1 52:1 58:1 59:1 
1.575698287639837 1:-116 2:126 3:10 4:1 13:1 18:1 19:1 25:1 33:1 35:1 43:1 47:1 49:1 54:1 63:1 
1.260634692786463 1:-36 2:126 3:90 4:1 13:1 18:1 19:1 25:1 33:1 38:1 43:1 48:1 51:1 56:1 62:1 
0.02288488037547979 1:-153 2:155 3:2 8:1 13:1 18:1 20:1 26:1 29:1 43:1 47:1 49:1 56:1 63:1 
0.3614396713138183 1:-147 2:155 3:8 8:1 13:1 18:1 20:1 26:1 29:1 38:1 43:1 45:1 52:1 58:1 59:1 
3.997543956849412 1:-65 2:155 3:90 8:1 13:1 18:1 20:1 26:1 29:1 38:1 43:1 48:1 51:1 56:1 62:1 
0.04281244432887368 1:-147 2:157 3:10 8:1 11:1 15:1 19:1 27:1 33:1 35:1 43:1 47:1 49:1 54:1 63:1 
2.312021215806142 1:164 2:4 3:168 7:1 13:1 14:1 23:1 28:1 30:1 38:1 40:1 48:1 53:1 54:1 62:1 
1.462366454228832 1:76 2:92 3:168 8:1 13:1 16:1 22:1 26:1 29:1 38:1 40:1 48:1 53:1 54:1 62:1 
0.4496652314424879 1:59 2:109 3:168 8:1 11:1 18:1 22:1 28:1 33:1 38:1 40:1 48:1 53:1 54:1 62:1 
0.07790540816786526 1:5 2:163 3:168 8:1 10:1 18:1 23:1 28:1 30:1 38:1 40:1 48:1 53:1 54:1 62:1 
0.5134183230213708 1:-167 2:177 3:10 8:1 9:1 15:1 23:1 28:1 33:1 35:1 43:1 47:1 49:1 54:1 63:1 
4 1:-9 2:177 3:168 8:1 9:1 15:1 23:1 28:1 33:1 38:1 40:1 48:1 53:1 54:1 62:1 
0.1250735865592721 1:-177 2:187 3:10 4:1 10:1 18:1 23:1 24:1 32:1 35:1 43:1 47:1 49:1 54:1 63:1 
3.618855374118244 1:-97 2:187 3:90 4:1 10:1 18:1 23:1 24:1 32:1 38:1 43:1 48:1 51:1 56:1 62:1 
1.903670240428975 1:166 2:77 3:243 4:1 11:1 18:1 23:1 26:1 30:1 37:1 43:1 48:1 49:1 55:1 63:1 
2.059965328798727 1:151 2:92 3:243 8:1 13:1 16:1 22:1 26:1 29:1 37:1 43:1 48:1 49:1 55:1 63:1 
1.882518335583507 1:56 2:187 3:243 4:1 10:1 18:1 23:1 24:1 32:1 37:1 43:1 48:1 49:1 55:1 63:1 
0.6915417377437968 1:-257 2:259 3:2 5:1 13:1 18:1 23:1 27:1 33:1 43:1 47:1 49:1 56:1 63:1 
0.7892966165404937 1:-186 2:259 3:73 5:1 13:1 18:1 23:1 27:1 33:1 38:1 40:1 48:1 49:1 56:1 63:1 
0.838527329283637 1:-265 2:273 3:8 8:1 9:1 15:1 23:1 27:1 33:1 38:1 43:1 45:1 52:1 58:1 59:1 
0.6100181287959805 1:-263 2:273 3:10 8:1 9:1 15:1 23:1 27:1 33:1 35:1 43:1 47:1 49:1 54:1 63:1 
3.582834583272462 1:-30 2:273 3:243 8:1 9:1 15:1 23:1 27:1 33:1 37:1 43:1 48:1 49:1 55:1 63:1 
3.396655554619302 1:199 2:77 3:276 4:1 11:1 18:1 23:1 26:1 30:1 36:1 43:1 47:1 53:1 56:1 63:1 
2.298813325416409 1:190 2:86 3:276 8:1 10:1 18:1 23:1 28:1 33:1 36:1 43:1 47:1 53:1 56:1 63:1 
0.3656544153711428 1:150 2:126 3:276 4:1 13:1 18:1 19:1 25:1 33:1 36:1 43:1 47:1 53:1 56:1 63:1 
3.176962719691617 1:121 2:155 3:276 8:1 13:1 18:1 20:1 26:1 29:1 36:1 43:1 47:1 53:1 56:1 63:1 
0.4616330910074365 1:-188 2:278 3:90 7:1 13:1 18:1 23:1 24:1 31:1 38:1 43:1 48:1 51:1 56:1 62:1 
0.0205085448632258 1:-279 2:281 3:2 6:1 13:1 14:1 20:1 28:1 33:1 43:1 47:1 49:1 56:1 63:1 
0.05272733761641597 1:-208 2:281 3:73 6:1 13:1 14:1 20:1 28:1 33:1 38:1 40:1 48:1 49:1 56:1 63:1 
0.2223554438323447 1:-180 2:281 3:101 6:1 13:1 14:1 20:1 28:1 33:1 35:1 43:1 47:1 52:1 58:1 59:1 
3.825654426805249 1:-38 2:281 3:243 6:1 13:1 14:1 20:1 28:1 33:1 37:1 43:1 48:1 49:1 55:1 63:1 
0.3891639355669304 1:-214 2:287 3:73 8:1 12:1 17:1 19:1 27:1 33:1 38:1 40:1 48:1 49:1 56:1 63:1 
0.4505272570042234 1:-119 2:287 3:168 8:1 12:1 17:1 19:1 27:1 33:1 38:1 40:1 48:1 53:1 54:1 62:1 
1.102783623074575 1:-44 2:287 3:243 8:1 12:1 17:1 19:1 27:1 33:1 37:1 43:1 48:1 49:1 55:1 63:1 
1.587015771274194 1:291 2:4 3:295 7:1 13:1 14:1 23:1 28:1 30:1 35:1 43:1 45:1 53:1 56:1 63:1 
0.9356968979637583 1:216 2:79 3:295 8:1 11:1 18:1 20:1 28:1 33:1 35:1 43:1 45:1 53:1 56:1 63:1 
0.915405898120649 1:22 2:273 3:295 8:1 9:1 15:1 23:1 27:1 33:1 35:1 43:1 45:1 53:1 56:1 63:1 
0.8789188387691104 1:-289 2:297 3:8 5:1 13:1 18:1 23:1 24:1 30:1 38:1 43:1 45:1 52:1 58:1 59:1 
2.778108237921841 1:-129 2:297 3:168 5:1 13:1 18:1 23:1 24:1 30:1 38:1 40:1 48:1 53:1 54:1 62:1 
0.2904425014954686 1:-229 2:302 3:73 4:1 10:1 18:1 19:1 27:1 33:1 38:1 40:1 48:1 49:1 56:1 63:1 
2.483733183353169 1:-134 2:302 3:168 4:1 10:1 18:1 19:1 27:1 33:1 38:1 40:1 48:1 53:1 54:1 62:1 
3.68641309271485 1:-7 2:302 3:295 4:1 10:1 18:1 19:1 27:1 33:1 35:1 43:1 45:1 53:1 56:1 63:1 
2.478807565998 1:228 2:77 3:305 4:1 11:1 18:1 23:1 26:1 30:1 36:1 39:1 47:1 49:1 58:1 63:1 
3.125271655789149 1:213 2:92 3:305 8:1 13:1 16:1 22:1 26:1 29:1 36:1 39:1 47:1 49:1 58:1 63:1 
0.08614079009566168 1:142 2:163 3:305 8:1 10:1 18:1 23:1 28:1 30:1 36:1 39:1 47:1 49:1 58:1 63:1 
1.477829266861046 1:27 2:278 3:305 7:1 13:1 18:1 23:1 24:1 31:1 36:1 39:1 47:1 49:1 58:1 63:1 
1.835136743178292 1:18 2:287 3:305 8:1 12:1 17:1 19:1 27:1 33:1 36:1 39:1 47:1 49:1 58:1 63:1 
2.779152461994238 1:3 2:302 3:305 4:1 10:1 18:1 19:1 27:1 33:1 36:1 39:1 47:1 49:1 58:1 63:1 
4 1:131 2:177 3:308 8:1 9:1 15:1 23:1 28:1 33:1 38:1 39:1 48:1 52:1 55:1 62:1 
4 1:92 2:216 3:308 7:1 10:1 18:1 23:1 28:1 30:1 38:1 39:1 48:1 52:1 55:1 62:1 
1.720955012955001 1:35 2:273 3:308 8:1 9:1 15:1 23:1 27:1 33:1 38:1 39:1 48:1 52:1 55:1 62:1 
1.425582430892167 1:-227 2:317 3:90 5:1 13:1 14:1 23:1 27:1 33:1 38:1 43:1 48:1 51:1 56:1 62:1 
1.601571614420197 1:243 2:77 3:320 4:1 11:1 18:1 23:1 26:1 30:1 36:1 43:1 47:1 52:1 57:1 60:1 
2.751939075850204 1:228 2:92 3:320 8:1 13:1 16:1 22:1 26:1 29:1 36:1 43:1 47:1 52:1 57:1 60:1 
0.5826470990806563 1:194 2:126 3:320 4:1 13:1 18:1 19:1 25:1 33:1 36:1 43:1 47:1 52:1 57:1 60:1 
2.802967068019715 1:165 2:155 3:320 8:1 13:1 18:1 20:1 26:1 29:1 36:1 43:1 47:1 52:1 57:1 60:1 
1.846646282121662 1:133 2:187 3:320 4:1 10:1 18:1 23:1 24:1 32:1 36:1 43:1 47:1 52:1 57:1 60:1 
1.663375726300736 1:104 2:216 3:320 7:1 10:1 18:1 23:1 28:1 30:1 36:1 43:1 47:1 52:1 57:1 60:1 
1.434631308706367 1:61 2:259 3:320 5:1 13:1 18:1 23:1 27:1 33:1 36:1 43:1 47:1 52:1 57:1 60:1 
3.427769714167666 1:39 2:281 3:320 6:1 13:1 14:1 20:1 28:1 33:1 36:1 43:1 47:1 52:1 57:1 60:1 
0.304066323671304 1:23 2:297 3:320 5:1 13:1 18:1 23:1 24:1 30:1 36:1 43:1 47:1 52:1 57:1 60:1 
1.888777767485927 1:252 2:79 3:331 8:1 11:1 18:1 20:1 28:1 33:1 38:1 43:1 47:1 52:1 54:1 63:1 
4 1:224 2:107 3:331 4:1 10:1 18:1 23:1 26:1 32:1 38:1 43:1 47:1 52:1 54:1 63:1 
4 1:168 2:163 3:331 8:1 10:1 18:1 23:1 28:1 30:1 38:1 43:1 47:1 52:1 54:1 63:1 
0.931056127888209 1:119 2:212 3:331 8:1 10:1 18:1 22:1 25:1 33:1 38:1 43:1 47:1 52:1 54:1 63:1 
0.3507504896625111 1:115 2:216 3:331 7:1 10:1 18:1 23:1 28:1 30:1 38:1 43:1 47:1 52:1 54:1 63:1 
2.02173656931468 1:58 2:273 3:331 8:1 9:1 15:1 23:1 27:1 33:1 38:1 43:1 47:1 52:1 54:1 63:1 
2.315444592824985 1:-342 2:350 3:8 4:1 13:1 14:1 23:1 28:1 29:1 38:1 43:1 45:1 52:1 58:1 59:1 
1.678684178739948 1:-182 2:350 3:168 4:1 13:1 14:1 23:1 28:1 29:1 38:1 40:1 48:1 53:1 54:1 62:1 
3.832801303857852 1:-42 2:350 3:308 4:1 13:1 14:1 23:1 28:1 29:1 38:1 39:1 48:1 52:1 55:1 62:1 
1.023215068254679 1:-30 2:350 3:320 4:1 13:1 14:1 23:1 28:1 29:1 36:1 43:1 47:1 52:1 57:1 60:1 
1.042805972262026 1:275 2:77 3:352 4:1 11:1 18:1 23:1 26:1 30:1 34:1 41:1 48:1 49:1 54:1 63:1 
0.797371656408731 1:140 2:212 3:352 8:1 10:1 18:1 22:1 25:1 33:1 34:1 41:1 48:1 49:1 54:1 63:1 
0.7687824796879076 1:136 2:216 3:352 7:1 10:1 18:1 23:1 28:1 30:1 34:1 41:1 48:1 49:1 54:1 63:1 
0.245647383163131 1:71 2:281 3:352 6:1 13:1 14:1 20:1 28:1 33:1 34:1 41:1 48:1 49:1 54:1 63:1 
0.4845412205145131 1:65 2:287 3:352 8:1 12:1 17:1 19:1 27:1 33:1 34:1 41:1 48:1 49:1 54:1 63:1 
1.65703095485039 1:55 2:297 3:352 5:1 13:1 18:1 23:1 24:1 30:1 34:1 41:1 48:1 49:1 54:1 63:1 
1.050190490059081 1:50 2:302 3:352 4:1 10:1 18:1 19:1 27:1 33:1 34:1 41:1 48:1 49:1 54:1 63:1 
2.062270238443106 1:-353 2:363 3:10 5:1 10:1 14:1 23:1 25:1 35:1 43:1 47:1 49:1 54:1 63:1 
0.1828518499709548 1:-273 2:363 3:90 5:1 10:1 14:1 23:1 25:1 38:1 43:1 48:1 51:1 56:1 62:1 
1.536795880368355 1:-55 2:363 3:308 5:1 10:1 14:1 23:1 25:1 38:1 39:1 48:1 52:1 55:1 62:1 
1.772023554445667 1:-11 2:363 3:352 5:1 10:1 14:1 23:1 25:1 34:1 41:1 48:1 49:1 54:1 63:1 
2.135159174662616 1:-8 2:21 3:13 4:1 13:1 17:1 23:1 24:1 32:1 37:1 40:1 48:1 53:1 58:1 62:1 
2.066089906311285 1:6 2:21 3:27 4:1 13:1 17:1 23:1 24:1 32:1 37:1 39:1 47:1 50:1 58:1 59:1 
0.5441270120072941 1:20 2:21 3:41 4:1 13:1 17:1 23:1 24:1 32:1 35:1 39:1 48:1 53:1 58:1 59:1 
3.563108889437808 1:-6 2:64 3:58 7:1 13:1 18:1 20:1 28:1 33:1 34:1 42:1 48:1 49:1 58:1 62:1 
4 1:-2 2:64 3:62 7:1 13:1 18:1 20:1 28:1 33:1 34:1 43:1 47:1 53:1 56:1 60:1 
1.877568205161727 1:49 2:21 3:70 4:1 13:1 17:1 23:1 24:1 32:1 38:1 42:1 48:1 53:1 54:1 62:1 
0.3982089603319026 1:10 2:64 3:74 7:1 13:1 18:1 20:1 28:1 33:1 38:1 39:1 47:1 53:1 56:1 62:1 
4 1:69 2:21 3:90 4:1 13:1 17:1 23:1 24:1 32:1 34:1 43:1 45:1 49:1 54:1 63:1 
3.504972941930312 1:14 2:76 3:90 7:1 13:1 18:1 22:1 28:1 33:1 34:1 43:1 45:1 49:1 54:1 63:1 
2.750368333097286 1:75 2:21 3:96 4:1 13:1 17:1 23:1 24:1 32:1 38:1 42:1 48:1 53:1 58:1 63:1 
4 1:-88 2:115 3:27 7:1 9:1 15:1 22:1 25:1 33:1 37:1 39:1 47:1 50:1 58:1 59:1 
2.301263551985084 1:-73 2:115 3:42 7:1 9:1 15:1 22:1 25:1 33:1 34:1 43:1 48:1 53:1 54:1 62:1 
0.8257268997801057 1:-45 2:115 3:70 7:1 9:1 15:1 22:1 25:1 33:1 38:1 42:1 48:1 53:1 54:1 62:1 
0.7267652763997013 1:-15 2:115 3:100 7:1 9:1 15:1 22:1 25:1 33:1 38:1 43:1 48:1 52:1 57:1 63:1 
1.338965487842057 1:98 2:21 3:119 4:1 13:1 17:1 23:1 24:1 32:1 37:1 40:1 48:1 53:1 54:1 62:1 
3.311772275740373 1:43 2:76 3:119 7:1 13:1 18:1 22:1 28:1 33:1 37:1 40:1 48:1 53:1 54:1 62:1 
2.035055938822438 1:15 2:115 3:130 7:1 9:1 15:1 22:1 25:1 33:1 35:1 40:1 48:1 53:1 57:1 60:1 
1.744115338872387 1:60 2:76 3:136 7:1 13:1 18:1 22:1 28:1 33:1 35:1 42:1 48:1 53:1 54:1 63:1 
3.098610527961463 1:21 2:115 3:136 7:1 9:1 15:1 22:1 25:1 33:1 35:1 42:1 48:1 53:1 54:1 63:1 
4 1:76 2:76 3:152 7:1 13:1 18:1 22:1 28:1 33:1 38:1 39:1 48:1 53:1 58:1 62:1 
0.3261080293974556 1:-149 2:162 3:13 4:1 10:1 15:1 23:1 27:1 33:1 37:1 40:1 48:1 53:1 58:1 62:1 
1.298618944059494 1:-135 2:162 3:27 4:1 10:1 15:1 23:1 27:1 33:1 37:1 39:1 47:1 50:1 58:1 59:1 
1.092924753478251 1:-95 2:162 3:67 4:1 10:1 15:1 23:1 27:1 33:1 36:1 40:1 48:1 52:1 58:1 63:1 
0.6028955374971244 1:-62 2:162 3:100 4:1 10:1 15:1 23:1 27:1 33:1 38:1 43:1 48:1 52:1 57:1 63:1 
4 1:127 2:64 3:191 7:1 13:1 18:1 20:1 28:1 33:1 38:1 42:1 45:1 52:1 58:1 63:1 
4 1:76 2:115 3:191 7:1 9:1 15:1 22:1 25:1 33:1 38:1 42:1 45:1 52:1 58:1 63:1 
2.676474413206097 1:29 2:162 3:191 4:1 10:1 15:1 23:1 27:1 33:1 38:1 42:1 45:1 52:1 58:1 63:1 
2.934267866220648 1:-77 2:207 3:130 8:1 10:1 15:1 22:1 25:1 30:1 35:1 40:1 48:1 53:1 57:1 60:1 
2.446335295261943 1:-16 2:207 3:191 8:1 10:1 15:1 22:1 25:1 30:1 38:1 42:1 45:1 52:1 58:1 63:1 
0.4766425197855626 1:97 2:115 3:212 7:1 9:1 15:1 22:1 25:1 33:1 35:1 40:1 48:1 53:1 58:1 62:1 
0.2977128539772098 1:184 2:64 3:248 7:1 13:1 18:1 20:1 28:1 33:1 38:1 42:1 45:1 53:1 58:1 63:1 
1.837334385926973 1:133 2:115 3:248 7:1 9:1 15:1 22:1 25:1 33:1 38:1 42:1 45:1 53:1 58:1 63:1 
0.4773523829818778 1:86 2:162 3:248 4:1 10:1 15:1 23:1 27:1 33:1 38:1 42:1 45:1 53:1 58:1 63:1 
1.028575096948988 1:41 2:207 3:248 8:1 10:1 15:1 22:1 25:1 30:1 38:1 42:1 45:1 53:1 58:1 63:1 
2.580010418662274 1:-248 2:263 3:15 8:1 12:1 15:1 23:1 24:1 30:1 38:1 43:1 48:1 52:1 58:1 59:1 
2.051093218085123 1:-236 2:263 3:27 8:1 12:1 15:1 23:1 24:1 30:1 37:1 39:1 47:1 50:1 58:1 59:1 
2.421608832429996 1:-196 2:263 3:67 8:1 12:1 15:1 23:1 24:1 30:1 36:1 40:1 48:1 52:1 58:1 63:1 
1.121834700503371 1:-165 2:263 3:98 8:1 12:1 15:1 23:1 24:1 30:1 38:1 43:1 48:1 53:1 58:1 62:1 
2.645652161769075 1:-163 2:263 3:100 8:1 12:1 15:1 23:1 24:1 30:1 38:1 43:1 48:1 52:1 57:1 63:1 
0.7685400838068995 1:-133 2:263 3:130 8:1 12:1 15:1 23:1 24:1 30:1 35:1 40:1 48:1 53:1 57:1 60:1 
4 1:10 2:263 3:273 8:1 12:1 15:1 23:1 24:1 30:1 38:1 40:1 47:1 53:1 54:1 59:1 
0.4215317340383717 1:15 2:263 3:278 8:1 12:1 15:1 23:1 24:1 30:1 34:1 39:1 45:1 49:1 58:1 63:1 
0.002911191304831809 1:166 2:115 3:281 7:1 9:1 15:1 22:1 25:1 33:1 38:1 39:1 48:1 49:1 54:1 59:1 
1.888204247394151 1:174 2:115 3:289 7:1 9:1 15:1 22:1 25:1 33:1 35:1 42:1 48:1 53:1 58:1 62:1 
2.736066554452039 1:26 2:263 3:289 8:1 12:1 15:1 23:1 24:1 30:1 35:1 42:1 48:1 53:1 58:1 62:1 
1.256292698826683 1:270 2:21 3:291 4:1 13:1 17:1 23:1 24:1 32:1 38:1 43:1 48:1 52:1 58:1 59:1 
0.9466324410071497 1:227 2:64 3:291 7:1 13:1 18:1 20:1 28:1 33:1 38:1 43:1 48:1 52:1 58:1 59:1 
3.876203863803449 1:54 2:17 3:71 7:1 13:1 14:1 19:1 25:1 30:1 38:1 43:1 48:1 50:1 58:1 62:1 
1.0135324766921 1:108 2:17 3:125 7:1 13:1 14:1 19:1 25:1 30:1 35:1 43:1 47:1 49:1 54:1 59:1 
2.393222374185301 1:117 2:17 3:134 7:1 13:1 14:1 19:1 25:1 30:1 37:1 43:1 47:1 53:1 58:1 63:1 
0.1592856548729006 1:73 2:63 3:136 8:1 9:1 15:1 22:1 25:1 33:1 37:1 43:1 48:1 53:1 54:1 63:1 
4 1:147 2:17 3:164 7:1 13:1 14:1 19:1 25:1 30:1 38:1 42:1 48:1 53:1 54:1 60:1 
4 1:-194 2:209 3:15 8:1 9:1 15:1 22:1 28:1 33:1 35:1 43:1 47:1 49:1 56:1 59:1 
2.294634359406043 1:-138 2:209 3:71 8:1 9:1 15:1 22:1 28:1 33:1 38:1 43:1 48:1 50:1 58:1 62:1 
1.223102878607608 1:-75 2:209 3:134 8:1 9:1 15:1 22:1 28:1 33:1 37:1 43:1 47:1 53:1 58:1 63:1 
1.428539014750843 1:206 2:11 3:217 8:1 10:1 14:1 20:1 28:1 32:1 38:1 42:1 48:1 53:1 54:1 62:1 
2.648531229646144 1:214 2:11 3:225 8:1 10:1 14:1 20:1 28:1 32:1 38:1 43:1 48:1 53:1 58:1 59:1 
4 1:-232 2:245 3:13 8:1 13:1 18:1 23:1 28:1 30:1 34:1 41:1 45:1 52:1 58:1 59:1 
2.23836673339883 1:-230 2:245 3:15 8:1 13:1 18:1 23:1 28:1 30:1 35:1 43:1 47:1 49:1 56:1 59:1 
0.615825968403373 1:-208 2:245 3:37 8:1 13:1 18:1 23:1 28:1 30:1 38:1 43:1 45:1 53:1 58:1 63:1 
1.157270431571051 1:-159 2:245 3:86 8:1 13:1 18:1 23:1 28:1 30:1 38:1 42:1 45:1 53:1 55:1 63:1 
3.719622029248433 1:-131 2:245 3:114 8:1 13:1 18:1 23:1 28:1 30:1 38:1 43:1 47:1 53:1 55:1 60:1 
3.517283667052308 1:-111 2:245 3:134 8:1 13:1 18:1 23:1 28:1 30:1 37:1 43:1 47:1 53:1 58:1 63:1 
4 1:-271 2:286 3:15 8:1 13:1 15:1 22:1 25:1 30:1 35:1 43:1 47:1 49:1 56:1 59:1 
1.775595614580839 1:-61 2:286 3:225 8:1 13:1 15:1 22:1 25:1 30:1 38:1 43:1 48:1 53:1 58:1 59:1 
1.287094711056117 1:-39 2:286 3:247 8:1 13:1 15:1 22:1 25:1 30:1 38:1 41:1 48:1 50:1 58:1 63:1 
2.075964731626589 1:321 2:11 3:332 8:1 10:1 14:1 20:1 28:1 32:1 38:1 39:1 48:1 53:1 54:1 63:1 
0.2722808138925188 1:315 2:17 3:332 7:1 13:1 14:1 19:1 25:1 30:1 38:1 39:1 48:1 53:1 54:1 63:1 
2.47516785693931 1:269 2:63 3:332 8:1 9:1 15:1 22:1 25:1 33:1 38:1 39:1 48:1 53:1 54:1 63:1 
0.0345483504379705 1:46 2:286 3:332 8:1 13:1 15:1 22:1 25:1 30:1 38:1 39:1 48:1 53:1 54:1 63:1 
1.491413903185155 1:276 2:63 3:339 8:1 9:1 15:1 22:1 25:1 33:1 35:1 43:1 44:1 52:1 57:1 60:1 
1.096173538926379 1:130 2:209 3:339 8:1 9:1 15:1 22:1 28:1 33:1 35:1 43:1 44:1 52:1 57:1 60:1 
0.2218626347847493 1:350 2:11 3:361 8:1 10:1 14:1 20:1 28:1 32:1 35:1 43:1 47:1 53:1 58:1 63:1 
0.9246908921018966 1:152 2:209 3:361 8:1 9:1 15:1 22:1 28:1 33:1 35:1 43:1 47:1 53:1 58:1 63:1 
1.240614882548045 1:363 2:11 3:374 8:1 10:1 14:1 20:1 28:1 32:1 38:1 39:1 45:1 53:1 58:1 63:1 
0.5299014153730779 1:380 2:11 3:391 8:1 10:1 14:1 20:1 28:1 32:1 38:1 39:1 47:1 49:1 58:1 63:1 
2.249002102588901 1:328 2:63 3:391 8:1 9:1 15:1 22:1 25:1 33:1 38:1 39:1 47:1 49:1 58:1 63:1 
1.733216955509411 1:-388 2:403 3:15 8:1 12:1 15:1 23:1 27:1 33:1 35:1 43:1 47:1 49:1 56:1 59:1 
0.1693257993757957 1:-278 2:403 3:125 8:1 12:1 15:1 23:1 27:1 33:1 35:1 43:1 47:1 49:1 54:1 59:1 
0.6086612518205647 1:-267 2:403 3:136 8:1 12:1 15:1 23:1 27:1 33:1 37:1 43:1 48:1 53:1 54:1 63:1 
1.64136592816546 1:-239 2:403 3:164 8:1 12:1 15:1 23:1 27:1 33:1 38:1 42:1 48:1 53:1 54:1 60:1 
0.09815841249448987 1:-178 2:403 3:225 8:1 12:1 15:1 23:1 27:1 33:1 38:1 43:1 48:1 53:1 58:1 59:1 
0.1713230972124331 1:-71 2:403 3:332 8:1 12:1 15:1 23:1 27:1 33:1 38:1 39:1 48:1 53:1 54:1 63:1 
1.458687476975133 1:-12 2:403 3:391 8:1 12:1 15:1 23:1 27:1 33:1 38:1 39:1 47:1 49:1 58:1 63:1 
1.169974684230347 1:389 2:17 3:406 7:1 13:1 14:1 19:1 25:1 30:1 36:1 43:1 47:1 49:1 54:1 59:1 
0.6787382311296932 1:197 2:209 3:406 8:1 9:1 15:1 22:1 28:1 33:1 36:1 43:1 47:1 49:1 54:1 59:1 
0.06849828424012344 1:166 2:245 3:411 8:1 13:1 18:1 23:1 28:1 30:1 34:1 39:1 45:1 52:1 57:1 63:1 
0.6597106074755792 1:405 2:11 3:416 8:1 10:1 14:1 20:1 28:1 32:1 37:1 43:1 45:1 49:1 55:1 63:1 
1.568313543318042 1:353 2:63 3:416 8:1 9:1 15:1 22:1 25:1 33:1 37:1 43:1 45:1 49:1 55:1 63:1 
0.2831157948668872 1:192 2:245 3:437 8:1 13:1 18:1 23:1 28:1 30:1 38:1 42:1 45:1 53:1 58:1 60:1 
0.1230324243129613 1:448 2:11 3:459 8:1 10:1 14:1 20:1 28:1 32:1 34:1 40:1 48:1 53:1 58:1 63:1 
0.4518335830400794 1:114 2:146 3:260 5:1 9:1 15:1 19:1 25:1 33:1 35:1 41:1 48:1 49:1 58:1 59:1 
0.5115770316816295 1:-177 2:437 3:260 5:1 13:1 14:1 20:1 27:1 31:1 35:1 41:1 48:1 49:1 58:1 59:1 
0.7535291110268245 1:-428 2:440 3:12 6:1 10:1 17:1 20:1 24:1 33:1 38:1 40:1 48:1 53:1 54:1 63:1 
0.120085733305817 1:-215 2:475 3:260 8:1 12:1 15:1 21:1 28:1 30:1 35:1 41:1 48:1 49:1 58:1 59:1 
0.4058544175166139 1:-216 2:476 3:260 7:1 10:1 16:1 23:1 25:1 31:1 35:1 41:1 48:1 49:1 58:1 59:1 
0.4156145522407127 1:-290 2:550 3:260 4:1 10:1 15:1 20:1 35:1 41:1 48:1 49:1 58:1 59:1 
1.737282005210584 1:-211 2:293 3:82 5:1 9:1 15:1 23:1 24:1 33:1 38:1 43:1 48:1 50:1 58:1 63:1 
3.941223101186695 1:-8 2:456 3:448 5:1 11:1 18:1 21:1 26:1 30:1 35:1 42:1 48:1 49:1 58:1 59:1 
0.1993156352646901 1:-376 2:458 3:82 8:1 11:1 16:1 20:1 38:1 43:1 48:1 50:1 58:1 63:1 
1.519050150732817 1:-307 2:340 3:33 8:1 13:1 18:1 23:1 24:1 32:1 38:1 39:1 48:1 53:1 54:1 59:1 
0.2849091082441568 1:190 2:37 3:227 4:1 10:1 14:1 23:1 25:1 32:1 38:1 42:1 45:1 49:1 57:1 63:1 
0.0695559360267835 1:100 2:1 3:101 14:1 20:1 24:1 30:1 38:1 40:1 44:1 49:1 54:1 61:1 
0.03725334515148916 1:69 2:32 3:101 5:1 11:1 15:1 20:1 28:1 29:1 38:1 40:1 44:1 49:1 54:1 61:1 
0.5659666244823013 1:-171 2:272 3:101 5:1 10:1 15:1 20:1 27:1 29:1 38:1 40:1 44:1 49:1 54:1 61:1 
1.142521095830149 1:284 2:1 3:285 14:1 20:1 24:1 30:1 35:1 40:1 44:1 53:1 55:1 59:1 
0.01563708616799062 1:188 2:97 3:285 8:1 9:1 14:1 23:1 25:1 29:1 35:1 40:1 44:1 53:1 55:1 59:1 
0.239151482960686 1:215 2:104 3:319 8:1 9:1 14:1 22:1 24:1 30:1 37:1 40:1 44:1 53:1 57:1 63:1 
0.5802229835807596 1:47 2:272 3:319 5:1 10:1 15:1 20:1 27:1 29:1 37:1 40:1 44:1 53:1 57:1 63:1 
0.406130861297941 1:-75 2:76 3:1 7:1 13:1 18:1 20:1 27:1 33:1 48:1 53:1 55:1 63:1 
2.062965466447459 1:-77 2:120 3:43 8:1 10:1 18:1 20:1 25:1 30:1 38:1 43:1 45:1 53:1 54:1 63:1 
2.555501573944985 1:-50 2:120 3:70 8:1 10:1 18:1 20:1 25:1 30:1 37:1 43:1 45:1 49:1 54:1 62:1 
1.060738149066164 1:-170 2:171 3:1 4:1 10:1 18:1 23:1 26:1 29:1 48:1 53:1 55:1 63:1 
0.04211965742349032 1:-128 2:171 3:43 4:1 10:1 18:1 23:1 26:1 29:1 38:1 43:1 45:1 53:1 54:1 63:1 
2.833750469351987 1:-132 2:173 3:41 8:1 11:1 18:1 19:1 28:1 32:1 38:1 39:1 48:1 50:1 58:1 63:1 
2.424781995022614 1:-250 2:251 3:1 5:1 13:1 15:1 23:1 28:1 30:1 48:1 53:1 55:1 63:1 
0.8774854735429106 1:-210 2:251 3:41 5:1 13:1 15:1 23:1 28:1 30:1 38:1 39:1 48:1 50:1 58:1 63:1 
0.9823082077817433 1:359 2:11 3:370 4:1 11:1 15:1 20:1 28:1 32:1 38:1 42:1 45:1 52:1 58:1 62:1 
0.1411979144505422 1:273 2:97 3:370 8:1 12:1 15:1 19:1 25:1 30:1 38:1 42:1 45:1 52:1 58:1 62:1 
0.1032121423440723 1:212 2:158 3:370 8:1 10:1 18:1 23:1 27:1 30:1 38:1 42:1 45:1 52:1 58:1 62:1 
1.350900993280266 1:199 2:171 3:370 4:1 10:1 18:1 23:1 26:1 29:1 38:1 42:1 45:1 52:1 58:1 62:1 
1.550736796741651 1:399 2:11 3:410 4:1 11:1 15:1 20:1 28:1 32:1 38:1 43:1 48:1 52:1 57:1 63:1 
0.2251898943100933 1:290 2:120 3:410 8:1 10:1 18:1 20:1 25:1 30:1 38:1 43:1 48:1 52:1 57:1 63:1 
0.2242900914994344 1:252 2:158 3:410 8:1 10:1 18:1 23:1 27:1 30:1 38:1 43:1 48:1 52:1 57:1 63:1 
0.3444289031663754 1:-382 2:425 3:43 8:1 13:1 14:1 23:1 28:1 32:1 38:1 43:1 45:1 53:1 54:1 63:1 
0.251508595186775 1:-55 2:425 3:370 8:1 13:1 14:1 23:1 28:1 32:1 38:1 42:1 45:1 52:1 58:1 62:1 
0.243720916272106 1:337 2:97 3:434 8:1 12:1 15:1 19:1 25:1 30:1 35:1 43:1 45:1 53:1 57:1 60:1 
0.354387206337462 1:314 2:120 3:434 8:1 10:1 18:1 20:1 25:1 30:1 35:1 43:1 45:1 53:1 57:1 60:1 
3.359039233546971 1:-14 2:32 3:18 6:1 13:1 14:1 20:1 27:1 33:1 37:1 39:1 45:1 53:1 58:1 59:1 
1.594652502289752 1:-176 2:194 3:18 5:1 12:1 18:1 23:1 27:1 33:1 37:1 39:1 45:1 53:1 58:1 59:1 
2.55381120910685 1:-167 2:194 3:27 5:1 12:1 18:1 23:1 27:1 33:1 38:1 39:1 45:1 49:1 56:1 63:1 
2.591089222704935 1:-208 2:226 3:18 4:1 10:1 14:1 19:1 27:1 29:1 37:1 39:1 45:1 53:1 58:1 59:1 
1.946592872997379 1:20 2:81 3:101 4:1 13:1 14:1 19:1 24:1 33:1 38:1 43:1 45:1 53:1 54:1 63:1 
1.132625852231558 1:127 2:81 3:208 4:1 13:1 14:1 19:1 24:1 33:1 38:1 43:1 45:1 50:1 58:1 60:1 
1.29324795333455 1:260 2:8 3:268 8:1 10:1 14:1 20:1 28:1 33:1 35:1 43:1 48:1 53:1 54:1 59:1 
1.376226970458118 1:349 2:8 3:357 8:1 10:1 14:1 20:1 28:1 33:1 35:1 43:1 48:1 52:1 58:1 59:1 
0.001543773449407799 1:-19 2:31 3:12 8:1 13:1 14:1 23:1 27:1 30:1 35:1 43:1 47:1 49:1 54:1 63:1 
4 1:4 2:31 3:35 8:1 13:1 14:1 23:1 27:1 30:1 38:1 42:1 45:1 53:1 58:1 63:1 
4 1:17 2:31 3:48 8:1 13:1 14:1 23:1 27:1 30:1 37:1 42:1 45:1 53:1 57:1 63:1 
0.130977667732019 1:34 2:31 3:65 8:1 13:1 14:1 23:1 27:1 30:1 38:1 43:1 45:1 49:1 58:1 63:1 
4 1:-84 2:119 3:35 6:1 9:1 18:1 19:1 25:1 31:1 38:1 42:1 45:1 53:1 58:1 63:1 
3.168811162206315 1:-71 2:119 3:48 6:1 9:1 18:1 19:1 25:1 31:1 37:1 42:1 45:1 53:1 57:1 63:1 
4 1:-85 2:122 3:37 6:1 9:1 15:1 19:1 27:1 33:1 35:1 43:1 48:1 53:1 58:1 62:1 
3.575672818691851 1:-121 2:140 3:19 8:1 12:1 15:1 22:1 25:1 32:1 34:1 40:1 48:1 53:1 58:1 59:1 
2.525966698175918 1:-112 2:140 3:28 8:1 12:1 15:1 22:1 25:1 32:1 37:1 40:1 48:1 53:1 54:1 61:1 
2.406881976912138 1:-75 2:140 3:65 8:1 12:1 15:1 22:1 25:1 32:1 38:1 43:1 45:1 49:1 58:1 63:1 
4 1:-138 2:150 3:12 8:1 9:1 15:1 23:1 28:1 32:1 35:1 43:1 47:1 49:1 54:1 63:1 
0.8657421450234225 1:128 2:31 3:159 8:1 13:1 14:1 23:1 27:1 30:1 34:1 40:1 48:1 49:1 58:1 59:1 
1.930311769333749 1:40 2:119 3:159 6:1 9:1 18:1 19:1 25:1 31:1 34:1 40:1 48:1 49:1 58:1 59:1 
1.860709115570524 1:165 2:7 3:172 5:1 13:1 14:1 22:1 25:1 33:1 38:1 43:1 48:1 53:1 56:1 62:1 
2.529836759789049 1:53 2:119 3:172 6:1 9:1 18:1 19:1 25:1 31:1 38:1 43:1 48:1 53:1 56:1 62:1 
4 1:32 2:140 3:172 8:1 12:1 15:1 22:1 25:1 32:1 38:1 43:1 48:1 53:1 56:1 62:1 
1.035826508230546 1:-162 2:174 3:12 8:1 13:1 18:1 22:1 28:1 33:1 35:1 43:1 47:1 49:1 54:1 63:1 
3.676411383812784 1:-137 2:174 3:37 8:1 13:1 18:1 22:1 28:1 33:1 35:1 43:1 48:1 53:1 58:1 62:1 
2.907509297741306 1:-109 2:174 3:65 8:1 13:1 18:1 22:1 28:1 33:1 38:1 43:1 45:1 49:1 58:1 63:1 
0.745851834590199 1:180 2:7 3:187 5:1 13:1 14:1 22:1 25:1 33:1 34:1 40:1 44:1 53:1 54:1 63:1 
3.58019693378995 1:71 2:116 3:187 8:1 13:1 18:1 19:1 28:1 31:1 34:1 40:1 44:1 53:1 54:1 63:1 
1.491258334119067 1:52 2:140 3:192 8:1 12:1 15:1 22:1 25:1 32:1 34:1 43:1 47:1 53:1 57:1 63:1 
4 1:-5 2:5 3:0 6:1 13:1 18:1 20:1 28:1 32:1 49:1 56:1 63:1 
2.121762956272356 1:-29 2:32 3:3 6:1 9:1 15:1 23:1 28:1 33:1 38:1 39:1 46:1 53:1 56:1 60:1 
0.295939925841363 1:-62 2:65 3:3 7:1 13:1 14:1 20:1 25:1 30:1 38:1 39:1 46:1 53:1 56:1 60:1 
4 1:58 2:22 3:80 7:1 9:1 15:1 23:1 24:1 30:1 35:1 43:1 47:1 49:1 54:1 63:1 
0.8955530335333662 1:-144 2:147 3:3 5:1 13:1 14:1 20:1 28:1 32:1 38:1 39:1 46:1 53:1 56:1 60:1 
0.7017243084095451 1:-67 2:147 3:80 5:1 13:1 14:1 20:1 28:1 32:1 35:1 43:1 47:1 49:1 54:1 63:1 
0.5651411916999426 1:227 2:5 3:232 6:1 13:1 18:1 20:1 28:1 32:1 37:1 39:1 45:1 52:1 58:1 62:1 
0.8468023474186304 1:210 2:22 3:232 7:1 9:1 15:1 23:1 24:1 30:1 37:1 39:1 45:1 52:1 58:1 62:1 
0.9826995029901405 1:119 2:113 3:232 8:1 13:1 18:1 20:1 28:1 33:1 37:1 39:1 45:1 52:1 58:1 62:1 
1.909826396127319 1:73 2:159 3:232 8:1 9:1 18:1 20:1 28:1 33:1 37:1 39:1 45:1 52:1 58:1 62:1 
2.897363839480409 1:-250 2:253 3:3 8:1 13:1 18:1 19:1 27:1 33:1 38:1 39:1 46:1 53:1 56:1 60:1 
1.718561340178554 1:-259 2:262 3:3 4:1 13:1 15:1 22:1 27:1 30:1 38:1 39:1 46:1 53:1 56:1 60:1 
2.255405135178052 1:-231 2:311 3:80 8:1 9:1 18:1 19:1 27:1 30:1 35:1 43:1 47:1 49:1 54:1 63:1 
2.275022993793289 1:-244 2:324 3:80 8:1 9:1 15:1 23:1 28:1 33:1 35:1 43:1 47:1 49:1 54:1 63:1 
2.411538540498352 1:-336 2:339 3:3 5:1 10:1 15:1 22:1 25:1 33:1 38:1 39:1 46:1 53:1 56:1 60:1 
0.01116334991355124 1:-259 2:339 3:80 5:1 10:1 15:1 22:1 25:1 33:1 35:1 43:1 47:1 49:1 54:1 63:1 
4 1:-277 2:357 3:80 5:1 10:1 15:1 22:1 25:1 33:1 35:1 43:1 47:1 49:1 54:1 63:1 
0.846748227814889 1:341 2:22 3:363 7:1 9:1 15:1 23:1 24:1 30:1 38:1 40:1 48:1 52:1 58:1 59:1 
0.03340537446713523 1:298 2:65 3:363 7:1 13:1 14:1 20:1 25:1 30:1 38:1 40:1 48:1 52:1 58:1 59:1 
0.4227882773431825 1:216 2:147 3:363 5:1 13:1 14:1 20:1 28:1 32:1 38:1 40:1 48:1 52:1 58:1 59:1 
4 1:110 2:253 3:363 8:1 13:1 18:1 19:1 27:1 33:1 38:1 40:1 48:1 52:1 58:1 59:1 
1.531099413465069 1:-476 2:479 3:3 8:1 12:1 18:1 23:1 24:1 30:1 38:1 39:1 46:1 53:1 56:1 60:1 
0.1571757436824101 1:-399 2:479 3:80 8:1 12:1 18:1 23:1 24:1 30:1 35:1 43:1 47:1 49:1 54:1 63:1 
0.05434852344378967 1:-484 2:484 3:0 4:1 10:1 18:1 22:1 27:1 33:1 49:1 56:1 63:1 
0.2144925027640311 1:-404 2:484 3:80 4:1 10:1 18:1 22:1 27:1 33:1 35:1 43:1 47:1 49:1 54:1 63:1 
0.1868586151378966 1:-252 2:484 3:232 4:1 10:1 18:1 22:1 27:1 33:1 37:1 39:1 45:1 52:1 58:1 62:1 
0.3563712003513966 1:-121 2:484 3:363 4:1 10:1 18:1 22:1 27:1 33:1 38:1 40:1 48:1 52:1 58:1 59:1 
2.496739400193152 1:426 2:65 3:491 7:1 13:1 14:1 20:1 25:1 30:1 34:1 40:1 45:1 53:1 55:1 63:1 
0.3974931513728252 1:378 2:113 3:491 8:1 13:1 18:1 20:1 28:1 33:1 34:1 40:1 45:1 53:1 55:1 63:1 
0.7850660134322638 1:180 2:311 3:491 8:1 9:1 18:1 19:1 27:1 30:1 34:1 40:1 45:1 53:1 55:1 63:1 
0.2045222731627848 1:134 2:357 3:491 5:1 10:1 15:1 22:1 25:1 33:1 34:1 40:1 45:1 53:1 55:1 63:1 
1.398041318299666 1:-28 2:30 3:2 8:1 11:1 15:1 23:1 28:1 29:1 43:1 47:1 49:1 56:1 63:1 
4 1:-3 2:3 3:0 8:1 9:1 16:1 23:1 28:1 29:1 49:1 56:1 61:1 
4 1:-61 2:138 3:77 8:1 13:1 15:1 20:1 25:1 33:1 38:1 42:1 48:1 53:1 57:1 59:1 
1.556227368761971 1:-55 2:138 3:83 8:1 13:1 15:1 20:1 25:1 33:1 34:1 40:1 48:1 53:1 58:1 63:1 
1.830516771542461 1:145 2:3 3:148 8:1 9:1 16:1 23:1 28:1 29:1 38:1 40:1 48:1 53:1 57:1 63:1 
1.669166672658083 1:10 2:138 3:148 8:1 13:1 15:1 20:1 25:1 33:1 38:1 40:1 48:1 53:1 57:1 63:1 
0.4068717492556291 1:187 2:2 3:189 13:1 14:1 21:1 28:1 33:1 34:1 43:1 48:1 50:1 57:1 63:1 
2.089768046590444 1:-200 2:200 3:0 4:1 10:1 17:1 20:1 26:1 30:1 49:1 56:1 61:1 
0.4985505099149696 1:-106 2:200 3:94 4:1 10:1 17:1 20:1 26:1 30:1 37:1 40:1 48:1 49:1 58:1 63:1 
3.866930934626102 1:-178 2:206 3:28 5:1 11:1 15:1 20:1 26:1 33:1 38:1 43:1 48:1 53:1 54:1 60:1 
0.5188184738462319 1:-168 2:206 3:38 5:1 11:1 15:1 20:1 26:1 33:1 35:1 43:1 48:1 52:1 58:1 63:1 
2.711506657665653 1:-123 2:206 3:83 5:1 11:1 15:1 20:1 26:1 33:1 34:1 40:1 48:1 53:1 58:1 63:1 
3.186216895481824 1:-28 2:206 3:178 5:1 11:1 15:1 20:1 26:1 33:1 35:1 42:1 48:1 52:1 58:1 62:1 
1.970292740514343 1:-131 2:208 3:77 5:1 11:1 15:1 23:1 26:1 33:1 38:1 42:1 48:1 53:1 57:1 59:1 
2.776535244307348 1:-60 2:208 3:148 5:1 11:1 15:1 23:1 26:1 33:1 38:1 40:1 48:1 53:1 57:1 63:1 
0.364236229655204 1:-133 2:210 3:77 5:1 11:1 18:1 23:1 25:1 31:1 38:1 42:1 48:1 53:1 57:1 59:1 
0.04195694116919524 1:-116 2:210 3:94 5:1 11:1 18:1 23:1 25:1 31:1 37:1 40:1 48:1 49:1 58:1 63:1 
2.288604236329704 1:-185 2:213 3:28 6:1 13:1 15:1 23:1 28:1 32:1 38:1 43:1 48:1 53:1 54:1 60:1 
1.681572296260074 1:-119 2:213 3:94 6:1 13:1 15:1 23:1 28:1 32:1 37:1 40:1 48:1 49:1 58:1 63:1 
0.6323762568389694 1:-65 2:213 3:148 6:1 13:1 15:1 23:1 28:1 32:1 38:1 40:1 48:1 53:1 57:1 63:1 
2.424425369812841 1:-35 2:213 3:178 6:1 13:1 15:1 23:1 28:1 32:1 35:1 42:1 48:1 52:1 58:1 62:1 
4 1:83 2:138 3:221 8:1 13:1 15:1 20:1 25:1 33:1 34:1 43:1 48:1 50:1 58:1 60:1 
1.615629484187257 1:19 2:202 3:221 7:1 11:1 15:1 20:1 26:1 30:1 34:1 43:1 48:1 50:1 58:1 60:1 
0.5427245963926645 1:227 2:3 3:230 8:1 9:1 16:1 23:1 28:1 29:1 38:1 42:1 48:1 49:1 58:1 59:1 
2.106631188158323 1:28 2:202 3:230 7:1 11:1 15:1 20:1 26:1 30:1 38:1 42:1 48:1 49:1 58:1 59:1 
2.347083371433739 1:-216 2:244 3:28 7:1 13:1 18:1 19:1 28:1 33:1 38:1 43:1 48:1 53:1 54:1 60:1 
3.382320759747951 1:-206 2:244 3:38 7:1 13:1 18:1 19:1 28:1 33:1 35:1 43:1 48:1 52:1 58:1 63:1 
1.018558973760751 1:-167 2:244 3:77 7:1 13:1 18:1 19:1 28:1 33:1 38:1 42:1 48:1 53:1 57:1 59:1 
0.2973929901514804 1:-229 2:257 3:28 8:1 12:1 18:1 23:1 27:1 30:1 38:1 43:1 48:1 53:1 54:1 60:1 
0.6323805016634284 1:-79 2:257 3:178 8:1 12:1 18:1 23:1 27:1 30:1 35:1 42:1 48:1 52:1 58:1 62:1 
0.922553705981922 1:-30 2:257 3:227 8:1 12:1 18:1 23:1 27:1 30:1 35:1 43:1 48:1 52:1 58:1 63:1 
0.3980006929733209 1:558 2:0 3:558 19:1 28:1 31:1 38:1 39:1 45:1 49:1 58:1 63:1 
0.4150696319434312 1:290 2:268 3:558 5:1 13:1 18:1 20:1 25:1 31:1 38:1 39:1 45:1 49:1 58:1 63:1 
0.4150973703563032 1:276 2:282 3:558 5:1 12:1 17:1 19:1 28:1 31:1 38:1 39:1 45:1 49:1 58:1 63:1 
0.4158330932021764 1:449 2:169 3:618 8:1 9:1 18:1 19:1 28:1 29:1 34:1 40:1 48:1 52:1 55:1 
0.3821479360839737 1:396 2:222 3:618 4:1 10:1 17:1 19:1 24:1 31:1 34:1 40:1 48:1 52:1 55:1 
0.4158315703326282 1:350 2:268 3:618 5:1 13:1 18:1 20:1 25:1 31:1 34:1 40:1 48:1 52:1 55:1 
0.4158212631522927 1:86 2:532 3:618 5:1 9:1 18:1 22:1 28:1 33:1 34:1 40:1 48:1 52:1 55:1 
0.415732693861935 1:17 2:601 3:618 4:1 9:1 18:1 22:1 28:1 29:1 34:1 40:1 48:1 52:1 55:1 
1.671570672936926 1:79 2:0 3:79 23:1 28:1 33:1 34:1 42:1 45:1 53:1 57:1 63:1 
1.199950279988062 1:27 2:54 3:81 8:1 13:1 18:1 23:1 24:1 33:1 35:1 43:1 48:1 49:1 54:1 62:1 
0.001983878930368027 1:78 2:54 3:132 8:1 13:1 18:1 23:1 24:1 33:1 37:1 43:1 48:1 49:1 58:1 59:1 
2.130167917718628 1:-102 2:177 3:75 8:1 9:1 14:1 23:1 25:1 32:1 38:1 43:1 44:1 53:1 54:1 60:1 
2.591857544822461 1:-45 2:177 3:132 8:1 9:1 14:1 23:1 25:1 32:1 37:1 43:1 48:1 49:1 58:1 59:1 
2.472611453337128 1:-107 2:182 3:75 5:1 12:1 18:1 23:1 25:1 33:1 38:1 43:1 44:1 53:1 54:1 60:1 
1.742006420867333 1:-70 2:182 3:112 5:1 12:1 18:1 23:1 25:1 33:1 38:1 40:1 48:1 53:1 54:1 62:1 
4 1:-107 2:219 3:112 8:1 13:1 14:1 23:1 28:1 30:1 38:1 40:1 48:1 53:1 54:1 62:1 
2.36706638459284 1:-277 2:352 3:75 8:1 13:1 15:1 20:1 24:1 33:1 38:1 43:1 44:1 53:1 54:1 60:1 
2.333601343635101 1:-206 2:352 3:146 8:1 13:1 15:1 20:1 24:1 33:1 38:1 39:1 44:1 49:1 54:1 63:1 
0.00978078239629665 1:-316 2:391 3:75 4:1 13:1 14:1 20:1 28:1 29:1 38:1 43:1 44:1 53:1 54:1 60:1 
0.3656045928314782 1:-279 2:391 3:112 4:1 13:1 14:1 20:1 28:1 29:1 38:1 40:1 48:1 53:1 54:1 62:1 
0.4158089182326376 1:196 2:368 3:564 8:1 9:1 18:1 23:1 24:1 33:1 38:1 40:1 47:1 52:1 58:1 59:1 
0.3761686378632216 1:173 2:391 3:564 4:1 13:1 14:1 20:1 28:1 29:1 38:1 40:1 47:1 52:1 58:1 59:1 
1.179729357278483 1:254 2:58 3:312 4:1 10:1 17:1 23:1 24:1 29:1 34:1 43:1 44:1 53:1 54:1 59:1 
1.482662657821467 1:-55 2:348 3:293 4:1 10:1 15:1 21:1 26:1 30:1 38:1 39:1 45:1 50:1 54:1 63:1 
2.113071663314554 1:-57 2:350 3:293 5:1 11:1 16:1 20:1 38:1 39:1 45:1 50:1 54:1 63:1 
0.3271223881432136 1:11 2:1 3:12 14:1 20:1 25:1 30:1 38:1 43:1 45:1 49:1 56:1 62:1 
4 1:-166 2:178 3:12 8:1 11:1 15:1 23:1 24:1 29:1 38:1 43:1 45:1 49:1 56:1 62:1 
4 1:-207 2:219 3:12 7:1 9:1 15:1 23:1 28:1 32:1 38:1 43:1 45:1 49:1 56:1 62:1 
2.218365901777708 1:-179 2:241 3:62 6:1 13:1 15:1 22:1 24:1 33:1 38:1 42:1 48:1 50:1 57:1 59:1 
2.265180506606832 1:-230 2:264 3:34 4:1 9:1 15:1 23:1 28:1 33:1 35:1 40:1 45:1 50:1 58:1 63:1 
0.0408593458930454 1:-261 2:295 3:34 4:1 13:1 14:1 19:1 27:1 31:1 35:1 40:1 45:1 50:1 58:1 63:1 
0.9872987974726419 1:-269 2:303 3:34 8:1 9:1 15:1 19:1 27:1 32:1 35:1 40:1 45:1 50:1 58:1 63:1 
0.3280503426913758 1:119 2:8 3:127 8:1 10:1 14:1 20:1 28:1 30:1 35:1 43:1 45:1 53:1 58:1 63:1 
1.249946709185069 1:-169 2:169 3:0 7:1 10:1 14:1 23:1 27:1 33:1 53:1 55:1 63:1 
0.3574039197746999 1:-175 2:212 3:37 8:1 10:1 14:1 20:1 28:1 33:1 37:1 40:1 47:1 53:1 58:1 63:1 
0.4055141125898131 1:108 2:7 3:115 5:1 13:1 14:1 20:1 26:1 32:1 38:1 39:1 48:1 50:1 54:1 63:1 
2.652139659027358 1:49 2:66 3:115 5:1 9:1 18:1 20:1 25:1 33:1 38:1 39:1 48:1 50:1 54:1 63:1 
1.679520777201941 1:-68 2:88 3:20 4:1 9:1 17:1 23:1 28:1 29:1 35:1 43:1 48:1 53:1 58:1 63:1 
4 1:-55 2:88 3:33 4:1 9:1 17:1 23:1 28:1 29:1 35:1 43:1 45:1 49:1 58:1 62:1 
0.2473308586514104 1:120 2:88 3:208 4:1 9:1 17:1 23:1 28:1 29:1 38:1 43:1 45:1 49:1 58:1 62:1 
3.475345856927392 1:151 2:88 3:239 4:1 9:1 17:1 23:1 28:1 29:1 35:1 40:1 45:1 49:1 58:1 62:1 
0.6874316993286946 1:-245 2:258 3:13 7:1 9:1 17:1 23:1 25:1 30:1 35:1 39:1 48:1 53:1 55:1 63:1 
0.9308271584872559 1:-225 2:258 3:33 7:1 9:1 17:1 23:1 25:1 30:1 35:1 43:1 45:1 49:1 58:1 62:1 
1.944142784219676 1:-206 2:258 3:52 7:1 9:1 17:1 23:1 25:1 30:1 35:1 43:1 48:1 52:1 58:1 62:1 
0.393484956194635 1:195 2:88 3:283 4:1 9:1 17:1 23:1 28:1 29:1 38:1 43:1 45:1 49:1 54:1 62:1 
4 1:48 2:258 3:306 7:1 9:1 17:1 23:1 25:1 30:1 34:1 40:1 45:1 49:1 58:1 62:1 
2.608604296671986 1:13 2:1 3:14 18:1 20:1 28:1 30:1 35:1 43:1 47:1 49:1 55:1 59:1 
0.1634561359882629 1:-26 2:26 3:0 8:1 10:1 17:1 19:1 24:1 30:1 51:1 55:1 63:1 
0.9230572331472846 1:47 2:10 3:57 4:1 11:1 15:1 20:1 28:1 32:1 37:1 43:1 48:1 52:1 54:1 63:1 
0.5369483350304689 1:113 2:26 3:139 8:1 10:1 17:1 19:1 24:1 30:1 34:1 42:1 47:1 53:1 58:1 63:1 
1.74867387490942 1:125 2:26 3:151 8:1 10:1 17:1 19:1 24:1 30:1 38:1 42:1 45:1 53:1 54:1 63:1 
1.821761706039665 1:-153 2:154 3:1 8:1 12:1 15:1 23:1 28:1 29:1 48:1 53:1 55:1 63:1 
3.726890135919026 1:-112 2:224 3:112 7:1 10:1 18:1 23:1 28:1 29:1 35:1 40:1 44:1 49:1 58:1 62:1 
0.8100984728298329 1:134 2:169 3:303 4:1 13:1 15:1 23:1 28:1 33:1 35:1 40:1 45:1 51:1 55:1 63:1 
1.116178652112369 1:79 2:224 3:303 7:1 10:1 18:1 23:1 28:1 29:1 35:1 40:1 45:1 51:1 55:1 63:1 
0.5114028051445797 1:-303 2:304 3:1 5:1 10:1 18:1 20:1 28:1 30:1 48:1 53:1 55:1 63:1 
1.170056923362799 1:-192 2:304 3:112 5:1 10:1 18:1 20:1 28:1 30:1 35:1 40:1 44:1 49:1 58:1 62:1 
1.890038541801064 1:155 2:154 3:309 8:1 12:1 15:1 23:1 28:1 29:1 38:1 40:1 48:1 49:1 58:1 63:1 
4 1:199 2:154 3:353 8:1 12:1 15:1 23:1 28:1 29:1 35:1 43:1 47:1 53:1 58:1 63:1 
0.7195326717100571 1:43 2:193 3:236 8:1 13:1 15:1 20:1 28:1 33:1 38:1 42:1 45:1 49:1 58:1 59:1 
0.2338109892098807 1:226 2:7 3:233 5:1 13:1 14:1 22:1 25:1 33:1 37:1 40:1 45:1 53:1 54:1 60:1 
3.244295879995921 1:200 2:33 3:233 5:1 13:1 14:1 20:1 28:1 33:1 37:1 40:1 45:1 53:1 54:1 60:1 
3.307526824483897 1:-15 2:248 3:233 8:1 13:1 14:1 22:1 24:1 33:1 37:1 40:1 45:1 53:1 54:1 60:1 
4 1:-31 2:111 3:80 4:1 12:1 15:1 20:1 25:1 33:1 35:1 43:1 45:1 49:1 55:1 60:1 
2.172280045475668 1:183 2:50 3:233 8:1 12:1 15:1 20:1 25:1 33:1 38:1 43:1 45:1 53:1 57:1 62:1 
1.612137290823093 1:-170 2:250 3:80 5:1 10:1 15:1 20:1 28:1 29:1 35:1 43:1 45:1 49:1 55:1 60:1 
0.8332721446408629 1:-200 2:299 3:99 7:1 12:1 14:1 23:1 24:1 30:1 38:1 43:1 45:1 50:1 58:1 60:1 
1.881707822803295 1:-66 2:299 3:233 7:1 12:1 14:1 23:1 24:1 30:1 38:1 43:1 45:1 53:1 57:1 62:1 
1.48460529866978 1:-41 2:304 3:263 5:1 10:1 16:1 20:1 34:1 42:1 48:1 50:1 58:1 63:1 
4 1:55 2:37 3:92 5:1 13:1 14:1 22:1 25:1 33:1 37:1 43:1 45:1 49:1 56:1 63:1 
1.747709871252048 1:-111 2:122 3:11 5:1 10:1 15:1 22:1 24:1 30:1 35:1 40:1 48:1 53:1 57:1 59:1 
0.4325926779628552 1:-12 2:12 3:0 5:1 13:1 14:1 23:1 28:1 33:1 53:1 55:1 63:1 
1.376271429343893 1:4 2:12 3:16 5:1 13:1 14:1 23:1 28:1 33:1 38:1 43:1 48:1 52:1 58:1 63:1 
0.7182732495311748 1:-30 2:30 3:0 7:1 13:1 15:1 23:1 28:1 30:1 53:1 55:1 63:1 
4 1:-8 2:30 3:22 7:1 13:1 15:1 23:1 28:1 30:1 38:1 43:1 48:1 53:1 58:1 63:1 
0.5268576856193109 1:117 2:12 3:129 5:1 13:1 14:1 23:1 28:1 33:1 34:1 39:1 47:1 53:1 54:1 60:1 
2.057344687712426 1:141 2:12 3:153 5:1 13:1 14:1 23:1 28:1 33:1 38:1 39:1 45:1 49:1 55:1 63:1 
0.4167911706846554 1:123 2:30 3:153 7:1 13:1 15:1 23:1 28:1 30:1 38:1 39:1 45:1 49:1 55:1 63:1 
2.179823099116505 1:144 2:12 3:156 5:1 13:1 14:1 23:1 28:1 33:1 38:1 39:1 45:1 49:1 55:1 63:1 
1.577655352694102 1:129 2:30 3:159 7:1 13:1 15:1 23:1 28:1 30:1 38:1 39:1 45:1 49:1 56:1 60:1 
0.2553939330022307 1:-141 2:161 3:20 5:1 13:1 14:1 20:1 28:1 29:1 37:1 43:1 48:1 53:1 58:1 63:1 
0.8523276108867026 1:-32 2:161 3:129 5:1 13:1 14:1 20:1 28:1 29:1 34:1 39:1 47:1 53:1 54:1 60:1 
1.666936901370767 1:2 2:165 3:167 5:1 13:1 14:1 20:1 28:1 33:1 34:1 41:1 45:1 53:1 54:1 61:1 
0.3383441959136254 1:7 2:165 3:172 5:1 13:1 14:1 20:1 28:1 33:1 34:1 41:1 48:1 52:1 56:1 61:1 
1.371314724057518 1:-154 2:174 3:20 8:1 13:1 17:1 21:1 28:1 32:1 37:1 43:1 48:1 53:1 58:1 63:1 
0.4899872041214584 1:-21 2:174 3:153 8:1 13:1 17:1 21:1 28:1 32:1 38:1 39:1 45:1 49:1 55:1 63:1 
4 1:-2 2:174 3:172 8:1 13:1 17:1 21:1 28:1 32:1 34:1 41:1 48:1 52:1 56:1 61:1 
2.465362568712782 1:-159 2:175 3:16 8:1 12:1 16:1 23:1 27:1 33:1 38:1 43:1 48:1 52:1 58:1 63:1 
1.534583743283379 1:-153 2:175 3:22 8:1 12:1 16:1 23:1 27:1 33:1 38:1 43:1 48:1 53:1 58:1 63:1 
0.3576230907717736 1:-22 2:175 3:153 8:1 12:1 16:1 23:1 27:1 33:1 38:1 39:1 45:1 49:1 55:1 63:1 
1.433537248044569 1:141 2:24 3:165 5:1 11:1 15:1 23:1 24:1 33:1 35:1 42:1 48:1 53:1 54:1 60:1 
0.5086681115931529 1:147 2:22 3:169 5:1 11:1 15:1 20:1 26:1 33:1 38:1 39:1 45:1 53:1 55:1 63:1 
4 1:152 2:20 3:172 7:1 11:1 15:1 20:1 26:1 30:1 38:1 43:1 45:1 49:1 56:1 60:1 
4 1:158 2:18 3:176 4:1 9:1 17:1 20:1 26:1 30:1 34:1 41:1 45:1 49:1 57:1 63:1 
3.218587554007909 1:136 2:40 3:176 7:1 12:1 15:1 19:1 27:1 33:1 34:1 41:1 45:1 49:1 57:1 63:1 
4 1:157 2:22 3:179 5:1 11:1 15:1 20:1 26:1 33:1 38:1 39:1 47:1 49:1 56:1 60:1 
2.985064626367015 1:139 2:40 3:179 7:1 12:1 15:1 19:1 27:1 33:1 38:1 39:1 47:1 49:1 56:1 60:1 
4 1:-9 2:181 3:172 7:1 13:1 14:1 20:1 28:1 29:1 38:1 43:1 45:1 49:1 56:1 60:1 
3.202724397896703 1:169 2:18 3:187 4:1 9:1 17:1 20:1 26:1 30:1 34:1 41:1 45:1 49:1 56:1 63:1 
4 1:165 2:22 3:187 5:1 11:1 15:1 20:1 26:1 33:1 34:1 41:1 45:1 49:1 56:1 63:1 
1.159983918069209 1:147 2:40 3:187 7:1 12:1 15:1 19:1 27:1 33:1 34:1 41:1 45:1 49:1 56:1 63:1 
3.87111638835066 1:13 2:174 3:187 5:1 13:1 14:1 20:1 28:1 29:1 34:1 41:1 45:1 49:1 56:1 63:1 
1.450455777460322 1:61 2:7 3:68 5:1 13:1 14:1 22:1 25:1 33:1 34:1 40:1 45:1 49:1 55:1 63:1 
4 1:-63 2:73 3:10 5:1 13:1 14:1 23:1 28:1 32:1 36:1 42:1 45:1 49:1 55:1 63:1 
1.483568519022832 1:-33 2:101 3:68 8:1 9:1 17:1 19:1 25:1 29:1 34:1 40:1 45:1 49:1 55:1 63:1 
4 1:-124 2:137 3:13 8:1 9:1 15:1 22:1 25:1 32:1 38:1 39:1 45:1 53:1 54:1 61:1 
0.2660724685021573 1:-51 2:80 3:29 8:1 13:1 18:1 20:1 28:1 33:1 34:1 39:1 44:1 50:1 58:1 60:1 
1.409005551873878 1:-75 2:104 3:29 8:1 9:1 14:1 23:1 28:1 32:1 34:1 39:1 44:1 50:1 58:1 60:1 
3.007204074888779 1:-111 2:140 3:29 7:1 9:1 18:1 23:1 27:1 33:1 34:1 39:1 44:1 50:1 58:1 60:1 
0.9694464528073707 1:70 2:140 3:210 7:1 9:1 18:1 23:1 27:1 33:1 38:1 40:1 47:1 53:1 54:1 63:1 
0.4674318750113872 1:-284 2:359 3:75 4:1 10:1 16:1 23:1 24:1 30:1 34:1 40:1 45:1 49:1 58:1 63:1 
1.0971240129919 1:306 2:80 3:386 8:1 13:1 18:1 20:1 28:1 33:1 38:1 42:1 45:1 52:1 56:1 60:1 
0.5949130005584757 1:-359 2:388 3:29 5:1 13:1 17:1 20:1 27:1 30:1 34:1 39:1 44:1 50:1 58:1 60:1 
1.774413907009938 1:-178 2:388 3:210 5:1 13:1 17:1 20:1 27:1 30:1 38:1 40:1 47:1 53:1 54:1 63:1 
1.470098518684764 1:-421 2:460 3:39 5:1 10:1 14:1 20:1 38:1 42:1 47:1 49:1 58:1 59:1 
0.296830955901999 1:-385 2:460 3:75 5:1 10:1 14:1 20:1 34:1 40:1 45:1 49:1 58:1 63:1 
0.3341652528124059 1:155 2:327 3:482 5:1 13:1 18:1 20:1 28:1 30:1 38:1 43:1 48:1 50:1 
4 1:-7 2:73 3:66 8:1 13:1 14:1 20:1 28:1 33:1 38:1 39:1 48:1 53:1 54:1 63:1 
4 1:51 2:80 3:131 8:1 13:1 14:1 23:1 25:1 33:1 34:1 39:1 45:1 49:1 54:1 59:1 
3.778649891777641 1:-115 2:181 3:66 5:1 10:1 15:1 19:1 24:1 33:1 38:1 39:1 48:1 53:1 54:1 63:1 
0.6925351180019006 1:-50 2:181 3:131 5:1 10:1 15:1 19:1 24:1 33:1 34:1 39:1 45:1 49:1 54:1 59:1 
4 1:-65 2:196 3:131 7:1 13:1 14:1 23:1 27:1 30:1 34:1 39:1 45:1 49:1 54:1 59:1 
1.413780985210724 1:-254 2:385 3:131 6:1 13:1 15:1 23:1 28:1 30:1 34:1 39:1 45:1 49:1 54:1 59:1 
0.3703054263034629 1:-390 2:456 3:66 8:1 13:1 14:1 23:1 24:1 29:1 38:1 39:1 48:1 53:1 54:1 63:1 
0.95450684512207 1:-365 2:496 3:131 5:1 13:1 15:1 23:1 24:1 32:1 34:1 39:1 45:1 49:1 54:1 59:1 
0.3955739563940975 1:-378 2:509 3:131 4:1 13:1 14:1 23:1 24:1 32:1 34:1 39:1 45:1 49:1 54:1 59:1 
4 1:-6 2:13 3:7 5:1 13:1 14:1 20:1 24:1 33:1 35:1 43:1 45:1 49:1 56:1 60:1 
4 1:-30 2:41 3:11 8:1 10:1 18:1 19:1 25:1 29:1 34:1 41:1 45:1 49:1 56:1 60:1 
2.594023957629005 1:-23 2:41 3:18 8:1 10:1 18:1 19:1 25:1 29:1 34:1 43:1 44:1 53:1 58:1 59:1 
0.5791521852499083 1:38 2:13 3:51 5:1 13:1 14:1 20:1 24:1 33:1 34:1 40:1 47:1 49:1 54:1 63:1 
0.1832616773156011 1:-134 2:145 3:11 7:1 9:1 15:1 19:1 28:1 33:1 34:1 41:1 45:1 49:1 56:1 60:1 
2.584170446393675 1:-127 2:145 3:18 7:1 9:1 15:1 19:1 28:1 33:1 34:1 43:1 44:1 53:1 58:1 59:1 
1.497305051346216 1:-94 2:145 3:51 7:1 9:1 15:1 19:1 28:1 33:1 34:1 40:1 47:1 49:1 54:1 63:1 
4 1:-65 2:281 3:216 5:1 13:1 15:1 20:1 25:1 33:1 38:1 40:1 48:1 53:1 58:1 63:1 
0.09634779487616639 1:-287 2:287 3:0 8:1 13:1 18:1 19:1 28:1 29:1 53:1 55:1 63:1 
2.45879208185015 1:-269 2:287 3:18 8:1 13:1 18:1 19:1 28:1 29:1 34:1 43:1 44:1 53:1 58:1 59:1 
0.6386723362827356 1:-130 2:287 3:157 8:1 13:1 18:1 19:1 28:1 29:1 34:1 43:1 44:1 49:1 57:1 63:1 
0.5527227880549264 1:257 2:41 3:298 8:1 10:1 18:1 19:1 25:1 29:1 34:1 40:1 44:1 51:1 54:1 63:1 
1.179882101399213 1:17 2:281 3:298 5:1 13:1 15:1 20:1 25:1 33:1 34:1 40:1 44:1 51:1 54:1 63:1 
2.294162330792627 1:-288 2:299 3:11 5:1 9:1 18:1 19:1 28:1 33:1 34:1 41:1 45:1 49:1 56:1 60:1 
4 1:-1 2:299 3:298 5:1 9:1 18:1 19:1 28:1 33:1 34:1 40:1 44:1 51:1 54:1 63:1 
0.9249018224859706 1:324 2:13 3:337 5:1 13:1 14:1 20:1 24:1 33:1 38:1 43:1 45:1 49:1 58:1 62:1 
0.1082032782766893 1:296 2:41 3:337 8:1 10:1 18:1 19:1 25:1 29:1 38:1 43:1 45:1 49:1 58:1 62:1 
0.2975847203104975 1:156 2:181 3:337 5:1 12:1 18:1 19:1 25:1 33:1 38:1 43:1 45:1 49:1 58:1 62:1 
2.269718393045566 1:50 2:287 3:337 8:1 13:1 18:1 19:1 28:1 29:1 38:1 43:1 45:1 49:1 58:1 62:1 
0.2574910949134849 1:330 2:13 3:343 5:1 13:1 14:1 20:1 24:1 33:1 37:1 40:1 45:1 49:1 57:1 60:1 
0.0471916864504268 1:162 2:181 3:343 5:1 12:1 18:1 19:1 25:1 33:1 37:1 40:1 45:1 49:1 57:1 60:1 
0.426863266559699 1:272 2:109 3:381 4:1 10:1 17:1 19:1 28:1 33:1 35:1 43:1 45:1 53:1 58:1 63:1 
0.8596485936935664 1:100 2:281 3:381 5:1 13:1 15:1 20:1 25:1 33:1 35:1 43:1 45:1 53:1 58:1 63:1 
2.650667461483204 1:-34 2:74 3:40 8:1 9:1 14:1 20:1 28:1 33:1 38:1 39:1 47:1 52:1 58:1 59:1 
2.485512474054616 1:-171 2:284 3:113 8:1 10:1 18:1 22:1 28:1 33:1 37:1 40:1 48:1 52:1 55:1 63:1 
0.01572480093426605 1:10 2:284 3:294 8:1 10:1 18:1 22:1 28:1 33:1 38:1 41:1 47:1 52:1 54:1 61:1 
0.8294949291844574 1:-246 2:313 3:67 8:1 13:1 18:1 23:1 28:1 33:1 34:1 40:1 48:1 53:1 54:1 63:1 
0.9416467654256417 1:-216 2:329 3:113 4:1 13:1 15:1 23:1 28:1 30:1 37:1 40:1 48:1 52:1 55:1 63:1 
2.196964891995818 1:-223 2:336 3:113 5:1 9:1 18:1 22:1 25:1 29:1 37:1 40:1 48:1 52:1 55:1 63:1 
1.898052994748473 1:-229 2:342 3:113 4:1 12:1 14:1 20:1 26:1 29:1 37:1 40:1 48:1 52:1 55:1 63:1 
1.592686675034102 1:-277 2:344 3:67 4:1 11:1 15:1 19:1 28:1 33:1 34:1 40:1 48:1 53:1 54:1 63:1 
0.1284914696946795 1:-69 2:363 3:294 5:1 13:1 15:1 22:1 27:1 32:1 38:1 41:1 47:1 52:1 54:1 61:1 
0.4978641771855762 1:-364 2:380 3:16 4:1 10:1 15:1 21:1 28:1 30:1 37:1 42:1 45:1 49:1 54:1 59:1 
2.521556119037712 1:-8 2:21 3:13 7:1 13:1 15:1 19:1 25:1 33:1 38:1 40:1 48:1 53:1 58:1 59:1 
4 1:28 2:21 3:49 7:1 13:1 15:1 19:1 25:1 33:1 34:1 39:1 45:1 49:1 56:1 62:1 
1.256937685362738 1:74 2:7 3:81 5:1 13:1 14:1 22:1 25:1 33:1 35:1 42:1 48:1 50:1 58:1 62:1 
1.859231539329941 1:60 2:21 3:81 7:1 13:1 15:1 19:1 25:1 33:1 35:1 42:1 48:1 50:1 58:1 62:1 
1.864326339106939 1:30 2:51 3:81 5:1 13:1 14:1 22:1 28:1 32:1 35:1 42:1 48:1 50:1 58:1 62:1 
4 1:62 2:21 3:83 7:1 13:1 15:1 19:1 25:1 33:1 38:1 43:1 45:1 52:1 58:1 63:1 
3.147918581473129 1:55 2:51 3:106 5:1 13:1 14:1 22:1 28:1 32:1 38:1 39:1 45:1 50:1 58:1 59:1 
1.0534835422471 1:57 2:51 3:108 5:1 13:1 14:1 22:1 28:1 32:1 35:1 43:1 45:1 49:1 58:1 60:1 
2.125662147049794 1:-48 2:129 3:81 7:1 9:1 15:1 20:1 24:1 33:1 35:1 42:1 48:1 50:1 58:1 62:1 
0.8668647888044689 1:-46 2:129 3:83 7:1 9:1 15:1 20:1 24:1 33:1 38:1 43:1 45:1 52:1 58:1 63:1 
4 1:-115 2:150 3:35 5:1 10:1 15:1 23:1 24:1 30:1 35:1 40:1 45:1 49:1 54:1 59:1 
1.866575371951044 1:-101 2:150 3:49 5:1 10:1 15:1 23:1 24:1 30:1 34:1 39:1 45:1 49:1 56:1 62:1 
1.808419535486139 1:-144 2:179 3:35 7:1 13:1 18:1 23:1 28:1 30:1 35:1 40:1 45:1 49:1 54:1 59:1 
3.203806923906457 1:-130 2:179 3:49 7:1 13:1 18:1 23:1 28:1 30:1 34:1 39:1 45:1 49:1 56:1 62:1 
2.62950567775353 1:-106 2:179 3:73 7:1 13:1 18:1 23:1 28:1 30:1 35:1 40:1 45:1 49:1 54:1 59:1 
3.291971842151725 1:248 2:21 3:269 7:1 13:1 15:1 19:1 25:1 33:1 38:1 39:1 45:1 53:1 54:1 61:1 
4 1:140 2:129 3:269 7:1 9:1 15:1 20:1 24:1 33:1 38:1 39:1 45:1 53:1 54:1 61:1 
1.985138328183467 1:119 2:150 3:269 5:1 10:1 15:1 23:1 24:1 30:1 38:1 39:1 45:1 53:1 54:1 61:1 
1.775243307521574 1:-259 2:272 3:13 8:1 13:1 14:1 20:1 26:1 33:1 38:1 40:1 48:1 53:1 58:1 59:1 
0.2690839865731256 1:-171 2:272 3:101 8:1 13:1 14:1 20:1 26:1 33:1 37:1 43:1 45:1 50:1 58:1 59:1 
0.5372979700285478 1:-164 2:272 3:108 8:1 13:1 14:1 20:1 26:1 33:1 35:1 43:1 45:1 49:1 58:1 60:1 
2.068884470142697 1:-225 2:274 3:49 4:1 11:1 15:1 23:1 27:1 33:1 34:1 39:1 45:1 49:1 56:1 62:1 
2.754678403185495 1:-191 2:274 3:83 4:1 11:1 15:1 23:1 27:1 33:1 38:1 43:1 45:1 52:1 58:1 63:1 
0.5647543768516089 1:-31 2:31 3:0 4:1 9:1 15:1 20:1 25:1 33:1 53:1 55:1 60:1 
2.07381541105702 1:130 2:31 3:161 4:1 9:1 15:1 20:1 25:1 33:1 35:1 43:1 45:1 50:1 58:1 63:1 
0.280207502968677 1:18 2:143 3:161 5:1 10:1 15:1 23:1 24:1 30:1 35:1 43:1 45:1 50:1 58:1 63:1 
2.072578304448923 1:153 2:10 3:163 8:1 10:1 14:1 20:1 28:1 31:1 35:1 43:1 45:1 53:1 54:1 60:1 
1.852962188089547 1:24 2:139 3:163 5:1 10:1 15:1 20:1 25:1 30:1 35:1 43:1 45:1 53:1 54:1 60:1 
0.1247284081638578 1:-193 2:193 3:0 8:1 9:1 15:1 23:1 28:1 30:1 53:1 55:1 60:1 
1.133792246340973 1:-30 2:193 3:163 8:1 9:1 15:1 23:1 28:1 30:1 35:1 43:1 45:1 53:1 54:1 60:1 
0.6005461617728378 1:-221 2:221 3:0 8:1 10:1 14:1 23:1 24:1 30:1 53:1 55:1 60:1 
2.039571785978806 1:-58 2:221 3:163 8:1 10:1 14:1 23:1 24:1 30:1 35:1 43:1 45:1 53:1 54:1 60:1 
1.585478985520254 1:89 2:139 3:228 5:1 10:1 15:1 20:1 25:1 30:1 36:1 43:1 48:1 49:1 55:1 59:1 
1.150304313353379 1:85 2:143 3:228 5:1 10:1 15:1 23:1 24:1 30:1 36:1 43:1 48:1 49:1 55:1 59:1 
2.090894171409386 1:178 2:59 3:237 8:1 12:1 17:1 20:1 26:1 33:1 38:1 39:1 45:1 49:1 55:1 63:1 
4 1:101 2:139 3:240 5:1 10:1 15:1 20:1 25:1 30:1 38:1 39:1 45:1 49:1 55:1 61:1 
0.4623134347215923 1:-243 2:243 3:0 8:1 9:1 15:1 19:1 24:1 33:1 53:1 55:1 60:1 
1.473070849778209 1:-80 2:243 3:163 8:1 9:1 15:1 19:1 24:1 33:1 35:1 43:1 45:1 53:1 54:1 60:1 
0.02558457187993848 1:-18 2:30 3:12 8:1 9:1 14:1 20:1 28:1 30:1 35:1 43:1 47:1 53:1 54:1 60:1 
0.9154278118843857 1:-66 2:78 3:12 5:1 13:1 17:1 23:1 28:1 29:1 35:1 43:1 47:1 53:1 54:1 60:1 
1.638312322846181 1:33 2:68 3:101 5:1 13:1 17:1 23:1 28:1 29:1 37:1 39:1 48:1 52:1 54:1 60:1 
4 1:-93 2:105 3:12 7:1 9:1 15:1 19:1 25:1 29:1 35:1 43:1 47:1 53:1 54:1 60:1 
0.4213673016358579 1:35 2:165 3:200 7:1 13:1 17:1 19:1 25:1 33:1 38:1 39:1 45:1 50:1 57:1 63:1 
0.1286992337022682 1:-114 2:215 3:101 7:1 9:1 18:1 23:1 28:1 32:1 37:1 39:1 48:1 52:1 54:1 60:1 
1.230933279333352 1:2 2:215 3:217 7:1 9:1 18:1 23:1 28:1 32:1 38:1 41:1 48:1 52:1 58:1 63:1 
4 1:-97 2:177 3:80 4:1 13:1 14:1 23:1 24:1 32:1 35:1 43:1 45:1 49:1 56:1 62:1 
0.2759776649611576 1:265 2:1 3:266 15:1 23:1 24:1 32:1 35:1 43:1 45:1 53:1 55:1 63:1 
4 1:245 2:24 3:269 5:1 13:1 14:1 22:1 25:1 33:1 38:1 43:1 45:1 52:1 58:1 63:1 
1.144462212419673 1:92 2:177 3:269 4:1 13:1 14:1 23:1 24:1 32:1 38:1 43:1 45:1 52:1 58:1 63:1 
0.6998467146648238 1:-243 2:323 3:80 8:1 13:1 15:1 20:1 24:1 32:1 35:1 43:1 45:1 49:1 56:1 62:1 
1.861241378222934 1:-63 2:323 3:260 8:1 13:1 15:1 20:1 24:1 32:1 35:1 40:1 48:1 49:1 54:1 60:1 
0.3397015912595837 1:372 2:1 3:373 15:1 23:1 24:1 32:1 35:1 43:1 47:1 50:1 57:1 59:1 
0.6061842547060735 1:349 2:24 3:373 5:1 13:1 14:1 22:1 25:1 33:1 35:1 43:1 47:1 50:1 57:1 59:1 
0.2775178981143031 1:291 2:82 3:373 5:1 13:1 14:1 22:1 28:1 33:1 35:1 43:1 47:1 50:1 57:1 59:1 
4 1:-119 2:385 3:266 5:1 11:1 15:1 23:1 24:1 30:1 35:1 43:1 45:1 53:1 55:1 63:1 
1.542242187800506 1:30 2:167 3:197 7:1 13:1 15:1 19:1 24:1 32:1 35:1 40:1 45:1 49:1 54:1 60:1 
1.845723078069998 1:126 2:167 3:293 7:1 13:1 15:1 19:1 24:1 32:1 38:1 42:1 47:1 50:1 58:1 60:1 
1.224277583593351 1:136 2:159 3:295 5:1 13:1 18:1 19:1 24:1 32:1 37:1 43:1 45:1 50:1 58:1 63:1 
0.1789351698486147 1:47 2:2 3:49 13:1 15:1 20:1 28:1 30:1 34:1 39:1 45:1 53:1 54:1 63:1 
2.400145630198934 1:-84 2:133 3:49 4:1 13:1 14:1 23:1 24:1 33:1 34:1 39:1 45:1 53:1 54:1 63:1 
3.390333454654651 1:-58 2:133 3:75 4:1 13:1 14:1 23:1 24:1 33:1 35:1 43:1 45:1 49:1 54:1 62:1 
1.162043257817087 1:142 2:2 3:144 13:1 15:1 20:1 28:1 30:1 37:1 42:1 47:1 53:1 58:1 63:1 
0.4550932084380357 1:181 2:2 3:183 13:1 15:1 20:1 28:1 30:1 35:1 43:1 45:1 52:1 55:1 61:1 
3.443458711074954 1:50 2:133 3:183 4:1 13:1 14:1 23:1 24:1 33:1 35:1 43:1 45:1 52:1 55:1 61:1 
0.05363618750793486 1:58 2:167 3:225 5:1 12:1 18:1 19:1 25:1 33:1 35:1 43:1 45:1 49:1 58:1 63:1 
2.537562076964893 1:39 2:186 3:225 8:1 12:1 15:1 20:1 28:1 29:1 35:1 43:1 45:1 49:1 58:1 63:1 
0.9174363997823962 1:-106 2:230 3:124 8:1 13:1 15:1 20:1 24:1 31:1 34:1 40:1 47:1 53:1 54:1 63:1 
3.100434037556425 1:-5 2:230 3:225 8:1 13:1 15:1 20:1 24:1 31:1 35:1 43:1 45:1 49:1 58:1 63:1 
2.592939089294306 1:-60 2:86 3:26 8:1 13:1 15:1 23:1 28:1 29:1 37:1 40:1 48:1 52:1 58:1 63:1 
1.101711854200041 1:-40 2:86 3:46 8:1 13:1 15:1 23:1 28:1 29:1 37:1 39:1 45:1 53:1 58:1 63:1 
1.602190731157681 1:72 2:86 3:158 8:1 13:1 15:1 23:1 28:1 29:1 37:1 40:1 48:1 53:1 55:1 63:1 
2.297117701136293 1:154 2:7 3:161 5:1 13:1 14:1 22:1 25:1 29:1 38:1 43:1 45:1 49:1 55:1 63:1 
1.940701247476284 1:105 2:86 3:191 8:1 13:1 15:1 23:1 28:1 29:1 34:1 43:1 45:1 49:1 55:1 63:1 
0.2005661830902854 1:187 2:7 3:194 5:1 13:1 14:1 22:1 25:1 29:1 38:1 39:1 45:1 49:1 56:1 59:1 
4 1:-44 2:196 3:152 5:1 13:1 14:1 19:1 27:1 30:1 38:1 43:1 48:1 52:1 58:1 62:1 
2.063694027914468 1:-77 2:229 3:152 7:1 10:1 18:1 20:1 28:1 29:1 38:1 43:1 48:1 52:1 58:1 62:1 
2.278536928532681 1:-68 2:229 3:161 7:1 10:1 18:1 20:1 28:1 29:1 38:1 43:1 45:1 49:1 55:1 63:1 
0.2910875179802456 1:-15 2:91 3:76 4:1 9:1 15:1 22:1 24:1 30:1 34:1 40:1 45:1 50:1 54:1 61:1 
4 1:96 2:79 3:175 8:1 10:1 14:1 23:1 27:1 33:1 38:1 40:1 44:1 53:1 57:1 63:1 
0.1722596506067998 1:84 2:91 3:175 4:1 9:1 15:1 22:1 24:1 30:1 38:1 40:1 44:1 53:1 57:1 63:1 
1.926608580924156 1:64 2:111 3:175 8:1 13:1 15:1 23:1 27:1 29:1 38:1 40:1 44:1 53:1 57:1 63:1 
1.091941698693988 1:107 2:91 3:198 4:1 9:1 15:1 22:1 24:1 30:1 38:1 39:1 45:1 50:1 58:1 63:1 
0.6271014474629444 1:81 2:21 3:102 8:1 10:1 18:1 22:1 28:1 33:1 36:1 40:1 45:1 49:1 54:1 60:1 
0.2915379784344225 1:99 2:21 3:120 8:1 10:1 18:1 22:1 28:1 33:1 34:1 43:1 45:1 49:1 54:1 60:1 
1.314933689859403 1:21 2:99 3:120 5:1 10:1 16:1 20:1 25:1 33:1 34:1 43:1 45:1 49:1 54:1 60:1 
4 1:11 2:109 3:120 4:1 13:1 18:1 23:1 24:1 32:1 34:1 43:1 45:1 49:1 54:1 60:1 
2.393014513956611 1:33 2:99 3:132 5:1 10:1 16:1 20:1 25:1 33:1 35:1 43:1 48:1 53:1 57:1 60:1 
3.782433796151891 1:108 2:29 3:137 7:1 10:1 18:1 23:1 28:1 29:1 37:1 40:1 45:1 49:1 54:1 60:1 
0.2913456228509576 1:49 2:99 3:148 5:1 10:1 16:1 20:1 25:1 33:1 34:1 42:1 48:1 49:1 55:1 59:1 
1.310196406464537 1:75 2:98 3:173 8:1 10:1 15:1 21:1 25:1 30:1 38:1 39:1 45:1 49:1 54:1 60:1 
1.070716271964228 1:157 2:29 3:186 7:1 10:1 18:1 23:1 28:1 29:1 34:1 39:1 45:1 53:1 54:1 63:1 
0.5959507964616958 1:136 2:1 3:137 18:1 20:1 28:1 30:1 38:1 42:1 48:1 50:1 55:1 60:1 
1.479323992018247 1:-82 2:158 3:76 7:1 13:1 15:1 19:1 24:1 33:1 34:1 43:1 47:1 49:1 58:1 63:1 
0.6500223237303786 1:155 2:11 3:166 5:1 13:1 14:1 20:1 28:1 32:1 38:1 40:1 48:1 49:1 57:1 63:1 
2.46726015705424 1:125 2:41 3:166 8:1 12:1 15:1 23:1 28:1 33:1 38:1 40:1 48:1 49:1 57:1 63:1 
2.128682895870614 1:-138 2:176 3:38 5:1 9:1 15:1 20:1 28:1 29:1 38:1 43:1 45:1 52:1 55:1 61:1 
1.289078834880564 1:-113 2:189 3:76 8:1 12:1 18:1 20:1 28:1 30:1 34:1 43:1 47:1 49:1 58:1 63:1 
1.343700934791731 1:-52 2:189 3:137 8:1 12:1 18:1 20:1 28:1 30:1 38:1 42:1 48:1 50:1 55:1 60:1 
0.475337624347333 1:-36 2:189 3:153 8:1 12:1 18:1 20:1 28:1 30:1 38:1 42:1 47:1 53:1 57:1 63:1 
0.7382693551688833 1:-23 2:189 3:166 8:1 12:1 18:1 20:1 28:1 30:1 38:1 40:1 48:1 49:1 57:1 63:1 
1.024959972186513 1:-7 2:189 3:182 8:1 12:1 18:1 20:1 28:1 30:1 34:1 42:1 45:1 52:1 58:1 59:1 
4 1:-71 2:81 3:10 8:1 9:1 16:1 23:1 24:1 33:1 34:1 41:1 45:1 49:1 56:1 60:1 
0.9888048226696744 1:-96 2:96 3:0 8:1 9:1 18:1 23:1 27:1 33:1 53:1 55:1 63:1 
0.1442646403534729 1:-176 2:176 3:0 4:1 12:1 17:1 23:1 27:1 32:1 53:1 55:1 63:1 
3.004667474415593 1:52 2:89 3:141 8:1 13:1 14:1 20:1 28:1 32:1 37:1 42:1 48:1 49:1 55:1 59:1 
1.260332313723316 1:-44 2:185 3:141 8:1 9:1 18:1 22:1 25:1 33:1 37:1 42:1 48:1 49:1 55:1 59:1 
2.676902655491249 1:142 2:89 3:231 8:1 13:1 14:1 20:1 28:1 32:1 34:1 42:1 45:1 53:1 54:1 63:1 
1.196509873983231 1:140 2:185 3:325 8:1 9:1 18:1 22:1 25:1 33:1 38:1 40:1 48:1 53:1 58:1 63:1 
1.304663979926666 1:238 2:89 3:327 8:1 13:1 14:1 20:1 28:1 32:1 38:1 43:1 48:1 53:1 57:1 63:1 
1.471112933708621 1:250 2:89 3:339 8:1 13:1 14:1 20:1 28:1 32:1 38:1 39:1 48:1 53:1 54:1 63:1 
2.421934153410795 1:-209 2:350 3:141 7:1 13:1 18:1 20:1 24:1 30:1 37:1 42:1 48:1 49:1 55:1 59:1 
0.9417114072306011 1:-119 2:350 3:231 7:1 13:1 18:1 20:1 24:1 30:1 34:1 42:1 45:1 53:1 54:1 63:1 
1.118724463203051 1:-25 2:350 3:325 7:1 13:1 18:1 20:1 24:1 30:1 38:1 40:1 48:1 53:1 58:1 63:1 
0.2954768888531043 1:-23 2:350 3:327 7:1 13:1 18:1 20:1 24:1 30:1 38:1 43:1 48:1 53:1 57:1 63:1 
2.136713732637466 1:-11 2:350 3:339 7:1 13:1 18:1 20:1 24:1 30:1 38:1 39:1 48:1 53:1 54:1 63:1 
0.8562796321507724 1:311 2:59 3:370 8:1 12:1 18:1 23:1 24:1 29:1 37:1 39:1 45:1 51:1 58:1 60:1 
0.04886257725921404 1:-45 2:415 3:370 5:1 12:1 14:1 20:1 28:1 33:1 37:1 39:1 45:1 51:1 58:1 60:1 
0.01249790637348003 1:-38 2:415 3:377 5:1 12:1 14:1 20:1 28:1 33:1 35:1 43:1 47:1 53:1 55:1 63:1 
4 1:380 2:59 3:439 8:1 12:1 18:1 23:1 24:1 29:1 38:1 43:1 48:1 53:1 55:1 63:1 
0.3565128077968406 1:68 2:371 3:439 4:1 10:1 18:1 23:1 25:1 30:1 38:1 43:1 48:1 53:1 55:1 63:1 
0.3840907425982458 1:-221 2:452 3:231 8:1 9:1 18:1 23:1 25:1 33:1 34:1 42:1 45:1 53:1 54:1 63:1 
0.2250593027436671 1:-173 2:452 3:279 8:1 9:1 18:1 23:1 25:1 33:1 37:1 42:1 45:1 53:1 54:1 63:1 
0.7133582409822743 1:-75 2:452 3:377 8:1 9:1 18:1 23:1 25:1 33:1 35:1 43:1 47:1 53:1 55:1 63:1 
1.146415100407272 1:-13 2:452 3:439 8:1 9:1 18:1 23:1 25:1 33:1 38:1 43:1 48:1 53:1 55:1 63:1 
1.228340332318287 1:396 2:59 3:455 8:1 12:1 18:1 23:1 24:1 29:1 36:1 43:1 45:1 53:1 57:1 63:1 
0.3650767236403963 1:366 2:89 3:455 8:1 13:1 14:1 20:1 28:1 32:1 36:1 43:1 45:1 53:1 57:1 63:1 
0.3981193659056441 1:105 2:350 3:455 7:1 13:1 18:1 20:1 24:1 30:1 36:1 43:1 45:1 53:1 57:1 63:1 
0.2383913563375191 1:40 2:415 3:455 5:1 12:1 14:1 20:1 28:1 33:1 36:1 43:1 45:1 53:1 57:1 63:1 
0.2559078829700954 1:-180 2:467 3:287 5:1 9:1 14:1 19:1 27:1 31:1 34:1 43:1 45:1 53:1 57:1 63:1 
0.3175541692085154 1:-140 2:467 3:327 5:1 9:1 14:1 19:1 27:1 31:1 38:1 43:1 48:1 53:1 57:1 63:1 
0.4086477508589736 1:-128 2:467 3:339 5:1 9:1 14:1 19:1 27:1 31:1 38:1 39:1 48:1 53:1 54:1 63:1 
0.2222623942590775 1:-145 2:470 3:325 6:1 9:1 17:1 22:1 25:1 33:1 38:1 40:1 48:1 53:1 58:1 63:1 
2.388734442272097 1:-93 2:470 3:377 6:1 9:1 17:1 22:1 25:1 33:1 35:1 43:1 47:1 53:1 55:1 63:1 
0.06400372866106654 1:-15 2:470 3:455 6:1 9:1 17:1 22:1 25:1 33:1 36:1 43:1 45:1 53:1 57:1 63:1 
0.3902245204476756 1:288 2:185 3:473 8:1 9:1 18:1 22:1 25:1 33:1 36:1 42:1 45:1 53:1 58:1 63:1 
0.2769807315771606 1:102 2:371 3:473 4:1 10:1 18:1 23:1 25:1 30:1 36:1 42:1 45:1 53:1 58:1 63:1 
0.05213498812662457 1:104 2:371 3:475 4:1 10:1 18:1 23:1 25:1 30:1 35:1 43:1 48:1 53:1 58:1 62:1 
0.2456875454710579 1:-255 2:486 3:231 7:1 12:1 14:1 23:1 27:1 30:1 34:1 42:1 45:1 53:1 54:1 63:1 
0.1758099040116266 1:-159 2:486 3:327 7:1 12:1 14:1 23:1 27:1 30:1 38:1 43:1 48:1 53:1 57:1 63:1 
2.749786148536071 1:-147 2:486 3:339 7:1 12:1 14:1 23:1 27:1 30:1 38:1 39:1 48:1 53:1 54:1 63:1 
0.4144102088778165 1:155 2:350 3:505 7:1 13:1 18:1 20:1 24:1 30:1 38:1 43:1 47:1 49:1 58:1 63:1 
0.3866098864060739 1:53 2:452 3:505 8:1 9:1 18:1 23:1 25:1 33:1 38:1 43:1 47:1 49:1 58:1 63:1 
0.181297594144792 1:137 2:371 3:508 4:1 10:1 18:1 23:1 25:1 30:1 38:1 39:1 48:1 49:1 58:1 59:1 
0.3743800817495086 1:456 2:59 3:515 8:1 12:1 18:1 23:1 24:1 29:1 38:1 42:1 48:1 53:1 54:1 63:1 
0.4242180577091809 1:426 2:89 3:515 8:1 13:1 14:1 20:1 28:1 32:1 38:1 42:1 48:1 53:1 54:1 63:1 
0.216031200947137 1:112 2:415 3:527 5:1 12:1 14:1 20:1 28:1 33:1 35:1 43:1 47:1 49:1 58:1 63:1 
0.391522854217043 1:-305 2:536 3:231 8:1 9:1 18:1 20:1 25:1 33:1 34:1 42:1 45:1 53:1 54:1 63:1 
0.4084878770800576 1:-257 2:536 3:279 8:1 9:1 18:1 20:1 25:1 33:1 37:1 42:1 45:1 53:1 54:1 63:1 
0.4119651365621316 1:-209 2:536 3:327 8:1 9:1 18:1 20:1 25:1 33:1 38:1 43:1 48:1 53:1 57:1 63:1 
0.4116821276677367 1:-197 2:536 3:339 8:1 9:1 18:1 20:1 25:1 33:1 38:1 39:1 48:1 53:1 54:1 63:1 
0.4092619192948761 1:-159 2:536 3:377 8:1 9:1 18:1 20:1 25:1 33:1 35:1 43:1 47:1 53:1 55:1 63:1 
0.2793845725360576 1:-61 2:536 3:475 8:1 9:1 18:1 20:1 25:1 33:1 35:1 43:1 48:1 53:1 58:1 62:1 
0.2600135871647986 1:-31 2:536 3:505 8:1 9:1 18:1 20:1 25:1 33:1 38:1 43:1 47:1 49:1 58:1 63:1 
0.4910971534831301 1:-9 2:536 3:527 8:1 9:1 18:1 20:1 25:1 33:1 35:1 43:1 47:1 49:1 58:1 63:1 
0.2352580860395486 1:392 2:9 3:401 8:1 10:1 14:1 20:1 25:1 30:1 38:1 40:1 48:1 50:1 54:1 63:1 
1.114849284301639 1:-99 2:100 3:1 8:1 13:1 14:1 20:1 25:1 30:1 48:1 53:1 55:1 63:1 
4 1:-89 2:100 3:11 8:1 13:1 14:1 20:1 25:1 30:1 34:1 41:1 45:1 53:1 54:1 59:1 
2.040941200075452 1:-161 2:172 3:11 8:1 13:1 18:1 19:1 28:1 33:1 34:1 41:1 45:1 53:1 54:1 59:1 
0.2202211059519904 1:-153 2:183 3:30 8:1 9:1 18:1 23:1 28:1 33:1 35:1 43:1 47:1 53:1 54:1 59:1 
0.8587943714252479 1:-91 2:183 3:92 8:1 9:1 18:1 23:1 28:1 33:1 34:1 42:1 47:1 53:1 58:1 59:1 
0.2491022357384448 1:233 2:9 3:242 8:1 10:1 14:1 20:1 28:1 33:1 37:1 39:1 48:1 52:1 57:1 60:1 
2.849024009262739 1:142 2:100 3:242 8:1 13:1 14:1 20:1 25:1 30:1 37:1 39:1 48:1 52:1 57:1 60:1 
1.245961757361703 1:70 2:172 3:242 8:1 13:1 18:1 19:1 28:1 33:1 37:1 39:1 48:1 52:1 57:1 60:1 
1.506444365354026 1:51 2:2 3:53 13:1 14:1 22:1 25:1 33:1 35:1 43:1 46:1 49:1 58:1 63:1 
4 1:43 2:52 3:95 8:1 10:1 18:1 23:1 24:1 33:1 38:1 39:1 47:1 52:1 58:1 63:1 
0.2032574496441252 1:-46 2:99 3:53 7:1 13:1 18:1 20:1 28:1 33:1 35:1 43:1 46:1 49:1 58:1 63:1 
1.428958001664894 1:-20 2:99 3:79 7:1 13:1 18:1 20:1 28:1 33:1 34:1 40:1 48:1 53:1 55:1 60:1 
2.316375401527523 1:62 2:52 3:114 8:1 10:1 18:1 23:1 24:1 33:1 35:1 42:1 45:1 53:1 58:1 62:1 
0.1668190911136083 1:-96 2:149 3:53 5:1 13:1 18:1 23:1 28:1 29:1 35:1 43:1 46:1 49:1 58:1 63:1 
0.02299710610035762 1:-93 2:149 3:56 5:1 13:1 18:1 23:1 28:1 29:1 38:1 39:1 48:1 50:1 57:1 59:1 
3.161054377223619 1:-70 2:149 3:79 5:1 13:1 18:1 23:1 28:1 29:1 34:1 40:1 48:1 53:1 55:1 60:1 
0.08529804664565852 1:149 2:2 3:151 13:1 14:1 22:1 25:1 33:1 38:1 41:1 48:1 49:1 58:1 60:1 
0.2519440016599116 1:99 2:52 3:151 8:1 10:1 18:1 23:1 24:1 33:1 38:1 41:1 48:1 49:1 58:1 60:1 
1.301644740060295 1:52 2:99 3:151 7:1 13:1 18:1 20:1 28:1 33:1 38:1 41:1 48:1 49:1 58:1 60:1 
1.738111339817214 1:13 2:149 3:162 5:1 13:1 18:1 23:1 28:1 29:1 37:1 43:1 45:1 49:1 58:1 60:1 
0.7277094058344217 1:72 2:99 3:171 7:1 13:1 18:1 20:1 28:1 33:1 35:1 40:1 47:1 50:1 58:1 63:1 
4 1:90 2:99 3:189 7:1 13:1 18:1 20:1 28:1 33:1 38:1 43:1 45:1 49:1 55:1 60:1 
0.3719450186446163 1:195 2:2 3:197 13:1 14:1 22:1 25:1 33:1 35:1 40:1 44:1 50:1 58:1 59:1 
0.0942602649209747 1:145 2:52 3:197 8:1 10:1 18:1 23:1 24:1 33:1 35:1 40:1 44:1 50:1 58:1 59:1 
2.631157832138705 1:50 2:149 3:199 5:1 13:1 18:1 23:1 28:1 29:1 34:1 43:1 45:1 49:1 58:1 60:1 
1.470887450511568 1:112 2:21 3:133 4:1 9:1 15:1 20:1 24:1 31:1 34:1 43:1 45:1 53:1 54:1 63:1 
0.8046026905758001 1:112 2:24 3:136 6:1 10:1 14:1 19:1 25:1 30:1 38:1 43:1 44:1 53:1 55:1 59:1 
2.831074466625384 1:120 2:21 3:141 4:1 9:1 15:1 20:1 24:1 31:1 35:1 39:1 45:1 49:1 55:1 60:1 
1.196514779390116 1:82 2:59 3:141 8:1 9:1 15:1 20:1 24:1 29:1 35:1 39:1 45:1 49:1 55:1 60:1 
1.195438766869947 1:113 2:59 3:172 8:1 9:1 15:1 20:1 24:1 29:1 37:1 40:1 45:1 53:1 54:1 63:1 
0.378399917863436 1:89 2:83 3:172 5:1 12:1 15:1 20:1 25:1 30:1 37:1 40:1 45:1 53:1 54:1 63:1 
0.9261827009588279 1:161 2:21 3:182 4:1 9:1 15:1 20:1 24:1 31:1 38:1 42:1 48:1 52:1 55:1 59:1 
0.9962851125697919 1:123 2:59 3:182 8:1 9:1 15:1 20:1 24:1 29:1 38:1 42:1 48:1 52:1 55:1 59:1 
2.605636985661912 1:-63 2:199 3:136 8:1 13:1 15:1 20:1 24:1 29:1 38:1 43:1 44:1 53:1 55:1 59:1 
2.22788264513865 1:196 2:24 3:220 6:1 10:1 14:1 19:1 25:1 30:1 34:1 43:1 48:1 53:1 58:1 63:1 
0.4273573783352378 1:161 2:59 3:220 8:1 9:1 15:1 20:1 24:1 29:1 34:1 43:1 48:1 53:1 58:1 63:1 
0.3431360062859485 1:137 2:83 3:220 5:1 12:1 15:1 20:1 25:1 30:1 34:1 43:1 48:1 53:1 58:1 63:1 
1.254727633391606 1:-58 2:115 3:57 5:1 10:1 14:1 23:1 24:1 32:1 34:1 43:1 45:1 53:1 57:1 59:1 
3.065225653155943 1:-71 2:119 3:48 8:1 9:1 17:1 19:1 25:1 33:1 34:1 40:1 45:1 53:1 57:1 59:1 
1.798942289832325 1:-15 2:119 3:104 8:1 9:1 17:1 19:1 25:1 33:1 35:1 43:1 47:1 49:1 55:1 59:1 
1.427016836556655 1:-80 2:150 3:70 8:1 13:1 17:1 19:1 28:1 32:1 38:1 42:1 45:1 53:1 57:1 59:1 
2.411077429718802 1:81 2:150 3:231 8:1 13:1 17:1 19:1 28:1 32:1 34:1 40:1 48:1 49:1 55:1 60:1 
4 1:-73 2:80 3:7 4:1 13:1 15:1 20:1 28:1 29:1 38:1 43:1 45:1 49:1 56:1 59:1 
4 1:-13 2:80 3:67 4:1 13:1 15:1 20:1 28:1 29:1 37:1 42:1 45:1 52:1 54:1 59:1 
1.567440094753141 1:-104 2:108 3:4 8:1 13:1 18:1 19:1 25:1 32:1 38:1 39:1 45:1 53:1 55:1 63:1 
4 1:-101 2:108 3:7 8:1 13:1 18:1 19:1 25:1 32:1 38:1 43:1 45:1 49:1 56:1 59:1 
0.312075933739388 1:-26 2:108 3:82 8:1 13:1 18:1 19:1 25:1 32:1 35:1 41:1 45:1 49:1 58:1 63:1 
2.713849959009775 1:48 2:145 3:193 5:1 13:1 14:1 20:1 28:1 33:1 38:1 40:1 47:1 49:1 54:1 59:1 
1.36821966757686 1:-147 2:147 3:0 5:1 13:1 18:1 23:1 25:1 32:1 49:1 56:1 59:1 
0.8109514612934283 1:-156 2:156 3:0 4:1 10:1 17:1 20:1 24:1 33:1 49:1 56:1 59:1 
4 1:88 2:152 3:240 5:1 12:1 14:1 19:1 25:1 32:1 37:1 39:1 45:1 52:1 56:1 62:1 
3.976053992965283 1:84 2:156 3:240 4:1 10:1 17:1 20:1 24:1 33:1 37:1 39:1 45:1 52:1 56:1 62:1 
0.0773289960515938 1:119 2:46 3:165 8:1 12:1 17:1 23:1 27:1 30:1 38:1 40:1 45:1 49:1 54:1 61:1 
1.900763680189569 1:461 2:1 3:462 15:1 22:1 25:1 33:1 38:1 42:1 45:1 53:1 57:1 63:1 
0.6663083414198296 1:458 2:5 3:463 7:1 10:1 18:1 23:1 28:1 29:1 37:1 40:1 48:1 52:1 58:1 63:1 
0.09075417939633847 1:104 2:0 3:104 23:1 28:1 33:1 35:1 40:1 48:1 52:1 58:1 59:1 
1.557871662465061 1:-284 2:388 3:104 7:1 10:1 17:1 19:1 28:1 29:1 35:1 40:1 48:1 52:1 58:1 59:1 
4 1:-2 2:3 3:1 8:1 13:1 18:1 23:1 28:1 29:1 48:1 53:1 56:1 63:1 
0.7123791026283448 1:-42 2:90 3:48 4:1 10:1 18:1 23:1 25:1 30:1 35:1 43:1 44:1 52:1 57:1 59:1 
2.658608886569004 1:37 2:90 3:127 4:1 10:1 18:1 23:1 25:1 30:1 35:1 40:1 48:1 49:1 54:1 63:1 
2.325793663912115 1:-99 2:147 3:48 8:1 13:1 18:1 23:1 24:1 33:1 35:1 43:1 44:1 52:1 57:1 59:1 
0.03896901557217401 1:-167 2:168 3:1 5:1 13:1 14:1 23:1 25:1 29:1 48:1 53:1 56:1 63:1 
1.866945313210706 1:-120 2:168 3:48 5:1 13:1 14:1 23:1 25:1 29:1 35:1 43:1 44:1 52:1 57:1 59:1 
1.655572369320005 1:-187 2:188 3:1 4:1 10:1 18:1 23:1 28:1 32:1 48:1 53:1 56:1 63:1 
0.736237032057235 1:-140 2:188 3:48 4:1 10:1 18:1 23:1 28:1 32:1 35:1 43:1 44:1 52:1 57:1 59:1 
1.438880968595051 1:-61 2:188 3:127 4:1 10:1 18:1 23:1 28:1 32:1 35:1 40:1 48:1 49:1 54:1 63:1 
1.01336705654658 1:-237 2:238 3:1 8:1 12:1 18:1 23:1 28:1 33:1 48:1 53:1 56:1 63:1 
0.07991762051984692 1:246 2:3 3:249 8:1 13:1 18:1 23:1 28:1 29:1 38:1 42:1 45:1 50:1 55:1 63:1 
0.3584774977974954 1:159 2:90 3:249 4:1 10:1 18:1 23:1 25:1 30:1 38:1 42:1 45:1 50:1 55:1 63:1 
1.013092950678261 1:102 2:147 3:249 8:1 13:1 18:1 23:1 24:1 33:1 38:1 42:1 45:1 50:1 55:1 63:1 
1.37229923040253 1:-277 2:278 3:1 5:1 9:1 15:1 22:1 24:1 33:1 48:1 53:1 56:1 63:1 
0.06363685079346003 1:309 2:3 3:312 8:1 13:1 18:1 23:1 28:1 29:1 38:1 43:1 47:1 53:1 57:1 60:1 
0.9919877124079723 1:-68 2:317 3:249 7:1 10:1 15:1 21:1 25:1 38:1 42:1 45:1 50:1 55:1 63:1 
0.5341196290019878 1:-238 2:318 3:80 5:1 10:1 16:1 20:1 35:1 40:1 48:1 49:1 54:1 63:1 
0.1173402790256457 1:12 2:9 3:21 5:1 11:1 15:1 20:1 28:1 29:1 37:1 42:1 45:1 53:1 54:1 59:1 
0.3760068173234696 1:20 2:7 3:27 5:1 13:1 15:1 20:1 26:1 30:1 34:1 40:1 45:1 53:1 54:1 62:1 
0.3947819902065765 1:18 2:9 3:27 5:1 11:1 15:1 20:1 28:1 29:1 34:1 40:1 45:1 53:1 54:1 62:1 
2.766232067391173 1:41 2:13 3:54 5:1 13:1 14:1 23:1 27:1 29:1 37:1 40:1 45:1 53:1 54:1 59:1 
2.648172091097202 1:153 2:13 3:166 5:1 13:1 14:1 23:1 27:1 29:1 35:1 40:1 48:1 53:1 57:1 62:1 
1.834391815573139 1:-190 2:211 3:21 8:1 9:1 18:1 23:1 24:1 29:1 37:1 42:1 45:1 53:1 54:1 59:1 
2.358740880896629 1:-53 2:211 3:158 8:1 9:1 18:1 23:1 24:1 29:1 37:1 40:1 44:1 52:1 55:1 60:1 
3.924030411667098 1:-164 2:218 3:54 8:1 9:1 18:1 19:1 28:1 29:1 37:1 40:1 45:1 53:1 54:1 59:1 
4 1:-15 2:27 3:12 5:1 13:1 14:1 23:1 24:1 32:1 36:1 42:1 45:1 50:1 55:1 60:1 
4 1:-6 2:31 3:25 8:1 9:1 17:1 20:1 26:1 31:1 38:1 42:1 45:1 49:1 56:1 63:1 
0.04734671067170282 1:-21 2:33 3:12 7:1 11:1 15:1 21:1 28:1 32:1 36:1 42:1 45:1 50:1 55:1 60:1 
4 1:-8 2:33 3:25 7:1 11:1 15:1 21:1 28:1 32:1 38:1 42:1 45:1 49:1 56:1 63:1 
2.383451997143385 1:-107 2:132 3:25 8:1 12:1 15:1 21:1 28:1 32:1 38:1 42:1 45:1 49:1 56:1 63:1 
3.366928975741707 1:-108 2:133 3:25 7:1 10:1 16:1 23:1 27:1 30:1 38:1 42:1 45:1 49:1 56:1 63:1 
4 1:143 2:27 3:170 5:1 13:1 14:1 23:1 24:1 32:1 38:1 39:1 45:1 49:1 56:1 63:1 
0.02622691925993827 1:212 2:7 3:219 5:1 13:1 14:1 20:1 26:1 32:1 35:1 43:1 48:1 52:1 58:1 63:1 
1.85518559739644 1:186 2:33 3:219 7:1 11:1 15:1 21:1 28:1 32:1 35:1 43:1 48:1 52:1 58:1 63:1 
1.47317353507709 1:47 2:172 3:219 5:1 13:1 14:1 23:1 28:1 29:1 35:1 43:1 48:1 52:1 58:1 63:1 
4 1:-201 2:226 3:25 8:1 12:1 18:1 20:1 27:1 33:1 38:1 42:1 45:1 49:1 56:1 63:1 
0.7741388561532334 1:-56 2:226 3:170 8:1 12:1 18:1 20:1 27:1 33:1 38:1 39:1 45:1 49:1 56:1 63:1 
2.356402770094109 1:14 2:226 3:240 8:1 12:1 18:1 20:1 27:1 33:1 35:1 43:1 45:1 53:1 58:1 60:1 
2.423651470813012 1:214 2:34 3:248 6:1 10:1 16:1 23:1 27:1 30:1 38:1 43:1 45:1 53:1 58:1 60:1 
2.48371258703229 1:76 2:172 3:248 5:1 13:1 14:1 23:1 28:1 29:1 38:1 43:1 45:1 53:1 58:1 60:1 
0.4111586530538952 1:-141 2:311 3:170 5:1 13:1 18:1 20:1 28:1 30:1 38:1 39:1 45:1 49:1 56:1 63:1 
1.583909397803033 1:306 2:7 3:313 5:1 13:1 14:1 20:1 26:1 32:1 38:1 41:1 45:1 50:1 54:1 59:1 
1.553371296390591 1:141 2:172 3:313 5:1 13:1 14:1 23:1 28:1 29:1 38:1 41:1 45:1 50:1 54:1 59:1 
1.095624895414967 1:91 2:226 3:317 8:1 12:1 18:1 20:1 27:1 33:1 35:1 39:1 44:1 50:1 58:1 60:1 
2.789609526665583 1:292 2:27 3:319 5:1 13:1 14:1 23:1 24:1 32:1 34:1 43:1 45:1 50:1 58:1 63:1 
1.266631327746703 1:314 2:7 3:321 5:1 13:1 14:1 20:1 26:1 32:1 35:1 43:1 45:1 53:1 58:1 59:1 
0.3003489248416307 1:24 2:297 3:321 4:1 9:1 18:1 19:1 28:1 33:1 35:1 43:1 45:1 53:1 58:1 59:1 
4 1:-12 2:12 3:0 5:1 13:1 14:1 21:1 28:1 33:1 53:1 55:1 63:1 
1.930175786921553 1:-13 2:13 3:0 8:1 9:1 16:1 23:1 28:1 29:1 53:1 55:1 63:1 
2.465755379097138 1:15 2:8 3:23 8:1 10:1 14:1 20:1 28:1 29:1 36:1 42:1 48:1 49:1 55:1 61:1 
0.8236261863406007 1:-26 2:26 3:0 8:1 9:1 15:1 23:1 26:1 33:1 53:1 55:1 63:1 
4 1:-40 2:50 3:10 5:1 13:1 18:1 23:1 24:1 32:1 34:1 41:1 45:1 49:1 56:1 61:1 
4 1:-35 2:50 3:15 5:1 13:1 18:1 23:1 24:1 32:1 36:1 41:1 48:1 49:1 58:1 63:1 
0.7876712043745477 1:28 2:50 3:78 5:1 13:1 18:1 23:1 24:1 32:1 38:1 43:1 45:1 52:1 58:1 63:1 
3.712461519311718 1:49 2:32 3:81 8:1 12:1 15:1 22:1 25:1 29:1 38:1 42:1 48:1 53:1 54:1 60:1 
1.597581114100425 1:-76 2:99 3:23 8:1 13:1 15:1 22:1 25:1 33:1 36:1 42:1 48:1 49:1 55:1 61:1 
1.435485959907698 1:147 2:13 3:160 8:1 9:1 16:1 23:1 28:1 29:1 38:1 42:1 45:1 52:1 58:1 63:1 
0.8427724653633741 1:56 2:104 3:160 5:1 13:1 18:1 22:1 24:1 30:1 38:1 42:1 45:1 52:1 58:1 63:1 
0.3456390659814281 1:59 2:104 3:163 5:1 13:1 18:1 22:1 24:1 30:1 38:1 42:1 48:1 49:1 54:1 60:1 
4 1:167 2:12 3:179 5:1 13:1 14:1 21:1 28:1 33:1 38:1 39:1 48:1 49:1 58:1 59:1 
4 1:151 2:28 3:179 5:1 11:1 18:1 23:1 27:1 30:1 38:1 39:1 48:1 49:1 58:1 59:1 
1.332919659548422 1:147 2:32 3:179 8:1 12:1 15:1 22:1 25:1 29:1 38:1 39:1 48:1 49:1 58:1 59:1 
4 1:80 2:99 3:179 8:1 13:1 15:1 22:1 25:1 33:1 38:1 39:1 48:1 49:1 58:1 59:1 
0.8446270130209411 1:175 2:12 3:187 5:1 13:1 14:1 21:1 28:1 33:1 34:1 43:1 48:1 49:1 58:1 59:1 
1.440736656317127 1:174 2:13 3:187 8:1 9:1 16:1 23:1 28:1 29:1 34:1 43:1 48:1 49:1 58:1 59:1 
1.217887016242181 1:166 2:28 3:194 5:1 11:1 18:1 23:1 27:1 30:1 35:1 43:1 48:1 53:1 54:1 59:1 
1.183128372682789 1:162 2:32 3:194 8:1 12:1 15:1 22:1 25:1 29:1 35:1 43:1 48:1 53:1 54:1 59:1 
0.2606703251714258 1:197 2:8 3:205 8:1 10:1 14:1 20:1 28:1 29:1 37:1 42:1 48:1 49:1 58:1 63:1 
1.163225966314035 1:-251 2:251 3:0 8:1 10:1 15:1 23:1 24:1 29:1 53:1 55:1 63:1 
3.599108888269869 1:-173 2:251 3:78 8:1 10:1 15:1 23:1 24:1 29:1 38:1 43:1 45:1 52:1 58:1 63:1 
4 1:-64 2:251 3:187 8:1 10:1 15:1 23:1 24:1 29:1 34:1 43:1 48:1 49:1 58:1 59:1 
1.99209027260464 1:245 2:12 3:257 5:1 13:1 14:1 21:1 28:1 33:1 34:1 42:1 48:1 53:1 58:1 59:1 
0.4155233888085735 1:207 2:50 3:257 5:1 13:1 18:1 23:1 24:1 32:1 34:1 42:1 48:1 53:1 58:1 59:1 
4 1:-257 2:267 3:10 8:1 9:1 15:1 22:1 25:1 31:1 34:1 41:1 45:1 49:1 56:1 61:1 
2.507967832998231 1:-252 2:267 3:15 8:1 9:1 15:1 22:1 25:1 31:1 36:1 41:1 48:1 49:1 58:1 63:1 
1.517571195772077 1:-73 2:267 3:194 8:1 9:1 15:1 22:1 25:1 31:1 35:1 43:1 48:1 53:1 54:1 59:1 
2.733216810390972 1:-255 2:270 3:15 6:1 12:1 15:1 19:1 28:1 29:1 36:1 41:1 48:1 49:1 58:1 63:1 
0.5533508164686877 1:-110 2:270 3:160 6:1 12:1 15:1 19:1 28:1 29:1 38:1 42:1 45:1 52:1 58:1 63:1 
3.832745346078239 1:250 2:26 3:276 8:1 9:1 15:1 23:1 26:1 33:1 34:1 43:1 45:1 52:1 58:1 59:1 
0.5553088762912276 1:177 2:99 3:276 8:1 13:1 15:1 22:1 25:1 33:1 34:1 43:1 45:1 52:1 58:1 59:1 
3.860349567449604 1:6 2:270 3:276 6:1 12:1 15:1 19:1 28:1 29:1 34:1 43:1 45:1 52:1 58:1 59:1 
2.844050829281689 1:-274 2:284 3:10 7:1 13:1 15:1 22:1 25:1 33:1 34:1 41:1 45:1 49:1 56:1 61:1 
2.294743553761861 1:-121 2:284 3:163 7:1 13:1 15:1 22:1 25:1 33:1 38:1 42:1 48:1 49:1 54:1 60:1 
1.657329038985403 1:-90 2:284 3:194 7:1 13:1 15:1 22:1 25:1 33:1 35:1 43:1 48:1 53:1 54:1 59:1 
4 1:255 2:32 3:287 8:1 12:1 15:1 22:1 25:1 29:1 36:1 42:1 45:1 53:1 58:1 63:1 
1.269201562724881 1:188 2:99 3:287 8:1 13:1 15:1 22:1 25:1 33:1 36:1 42:1 45:1 53:1 58:1 63:1 
2.887545737136691 1:17 2:270 3:287 6:1 12:1 15:1 19:1 28:1 29:1 36:1 42:1 45:1 53:1 58:1 63:1 
1.608692335176416 1:185 2:104 3:289 5:1 13:1 18:1 22:1 24:1 30:1 35:1 43:1 48:1 53:1 58:1 61:1 
1.946832325055995 1:38 2:251 3:289 8:1 10:1 15:1 23:1 24:1 29:1 35:1 43:1 48:1 53:1 58:1 61:1 
0.07099507977970294 1:-292 2:292 3:0 8:1 13:1 18:1 23:1 27:1 33:1 53:1 55:1 63:1 
1.396250193930857 1:-277 2:292 3:15 8:1 13:1 18:1 23:1 27:1 33:1 36:1 41:1 48:1 49:1 58:1 63:1 
0.3742157642277762 1:-129 2:292 3:163 8:1 13:1 18:1 23:1 27:1 33:1 38:1 42:1 48:1 49:1 54:1 60:1 
3.374159165955125 1:298 2:8 3:306 8:1 10:1 14:1 20:1 28:1 29:1 37:1 43:1 45:1 49:1 56:1 63:1 
0.6908651372423077 1:293 2:13 3:306 8:1 9:1 16:1 23:1 28:1 29:1 37:1 43:1 45:1 49:1 56:1 63:1 
0.07188702329507096 1:55 2:251 3:306 8:1 10:1 15:1 23:1 24:1 29:1 37:1 43:1 45:1 49:1 56:1 63:1 
0.5953747798977058 1:39 2:267 3:306 8:1 9:1 15:1 22:1 25:1 31:1 37:1 43:1 45:1 49:1 56:1 63:1 
4 1:-129 2:308 3:179 5:1 13:1 14:1 23:1 27:1 33:1 38:1 39:1 48:1 49:1 58:1 59:1 
1.095614520948255 1:-121 2:308 3:187 5:1 13:1 14:1 23:1 27:1 33:1 34:1 43:1 48:1 49:1 58:1 59:1 
1.104102026531881 1:-103 2:308 3:205 5:1 13:1 14:1 23:1 27:1 33:1 37:1 42:1 48:1 49:1 58:1 63:1 
0.3316154185370762 1:-51 2:308 3:257 5:1 13:1 14:1 23:1 27:1 33:1 34:1 42:1 48:1 53:1 58:1 59:1 
0.7442040105875891 1:296 2:20 3:316 8:1 13:1 14:1 22:1 28:1 33:1 35:1 43:1 45:1 49:1 56:1 59:1 
