svm_type c_svc
kernel_type rbf
gamma 0.015873
nr_class 2
total_sv 21215
rho -0.767666
label -1 1
nr_sv 15194 6021
SV
0.5569494458616148 1:-57 2:75 3:18 5:1 12:1 18:1 23:1 28:1 29:1 38:1 40:1 48:1 53:1 57:1 60:1 
1.960373197744958 1:-106 2:124 3:18 5:1 13:1 14:1 23:1 28:1 33:1 38:1 40:1 48:1 53:1 57:1 60:1 
1.447702630892049 1:103 2:75 3:178 5:1 12:1 18:1 23:1 28:1 29:1 34:1 40:1 47:1 49:1 55:1 59:1 
2.518307820514781 1:-300 2:318 3:18 8:1 13:1 18:1 19:1 28:1 29:1 38:1 40:1 48:1 53:1 57:1 60:1 
0.8769438550014136 1:215 2:108 3:323 8:1 12:1 18:1 23:1 28:1 29:1 38:1 39:1 48:1 53:1 55:1 63:1 
1.750391984048785 1:47 2:276 3:323 5:1 13:1 15:1 23:1 24:1 30:1 38:1 39:1 48:1 53:1 55:1 63:1 
3.320939400424082 1:18 2:305 3:323 7:1 13:1 18:1 23:1 28:1 29:1 38:1 39:1 48:1 53:1 55:1 63:1 
0.4952548677675501 1:-323 2:341 3:18 5:1 13:1 18:1 23:1 28:1 29:1 38:1 40:1 48:1 53:1 57:1 60:1 
1.220105922781333 1:-97 2:116 3:19 8:1 13:1 15:1 20:1 28:1 30:1 35:1 40:1 48:1 53:1 54:1 61:1 
0.7581416208960551 1:-75 2:116 3:41 8:1 13:1 15:1 20:1 28:1 30:1 34:1 43:1 45:1 50:1 58:1 63:1 
1.627181215656629 1:-222 2:233 3:11 8:1 13:1 15:1 22:1 25:1 29:1 34:1 39:1 48:1 53:1 55:1 60:1 
3.734785165901693 1:-192 2:233 3:41 8:1 13:1 15:1 22:1 25:1 29:1 34:1 43:1 45:1 50:1 58:1 63:1 
0.1364088414017437 1:87 2:233 3:320 8:1 13:1 15:1 22:1 25:1 29:1 37:1 39:1 45:1 50:1 54:1 63:1 
1.520285016827682 1:248 2:75 3:323 4:1 10:1 18:1 22:1 25:1 32:1 38:1 40:1 44:1 53:1 58:1 62:1 
0.3255659240586256 1:207 2:116 3:323 8:1 13:1 15:1 20:1 28:1 30:1 38:1 40:1 44:1 53:1 58:1 62:1 
2.518740028269294 1:-40 2:363 3:323 8:1 9:1 15:1 22:1 25:1 32:1 38:1 40:1 44:1 53:1 58:1 62:1 
4 1:-19 2:27 3:8 8:1 9:1 15:1 23:1 24:1 33:1 35:1 40:1 48:1 49:1 56:1 60:1 
0.1018322582186574 1:-7 2:27 3:20 8:1 9:1 15:1 23:1 24:1 33:1 38:1 43:1 45:1 53:1 56:1 63:1 
0.5371868293644587 1:30 2:13 3:43 6:1 10:1 14:1 22:1 25:1 33:1 35:1 43:1 44:1 50:1 58:1 63:1 
2.085600164850962 1:16 2:27 3:43 8:1 9:1 15:1 23:1 24:1 33:1 35:1 43:1 44:1 50:1 58:1 63:1 
4 1:-59 2:67 3:8 8:1 12:1 15:1 22:1 25:1 33:1 35:1 40:1 48:1 49:1 56:1 60:1 
0.6023161455089394 1:-50 2:93 3:43 8:1 9:1 15:1 23:1 28:1 33:1 35:1 43:1 44:1 50:1 58:1 63:1 
0.250969938562309 1:87 2:27 3:114 8:1 9:1 15:1 23:1 24:1 33:1 35:1 43:1 45:1 53:1 57:1 60:1 
3.67867063808064 1:47 2:67 3:114 8:1 12:1 15:1 22:1 25:1 33:1 35:1 43:1 45:1 53:1 57:1 60:1 
2.111218126890804 1:125 2:10 3:135 8:1 13:1 14:1 20:1 24:1 31:1 38:1 43:1 45:1 49:1 58:1 63:1 
4 1:113 2:22 3:135 5:1 13:1 18:1 23:1 28:1 29:1 38:1 43:1 45:1 49:1 58:1 63:1 
4 1:108 2:27 3:135 8:1 9:1 15:1 23:1 24:1 33:1 38:1 43:1 45:1 49:1 58:1 63:1 
1.33309355756333 1:116 2:27 3:143 8:1 9:1 15:1 23:1 24:1 33:1 38:1 39:1 48:1 49:1 58:1 60:1 
1.621678510855519 1:76 2:67 3:143 8:1 12:1 15:1 22:1 25:1 33:1 38:1 39:1 48:1 49:1 58:1 60:1 
1.22739953600892 1:-140 2:148 3:8 8:1 10:1 18:1 19:1 25:1 33:1 35:1 40:1 48:1 49:1 56:1 60:1 
0.1820542215078978 1:141 2:13 3:154 6:1 10:1 14:1 22:1 25:1 33:1 38:1 43:1 47:1 49:1 58:1 59:1 
1.773165511276347 1:87 2:67 3:154 8:1 12:1 15:1 22:1 25:1 33:1 38:1 43:1 47:1 49:1 58:1 59:1 
1.645211795137786 1:15 2:139 3:154 4:1 13:1 18:1 23:1 24:1 33:1 38:1 43:1 47:1 49:1 58:1 59:1 
2.274372594140608 1:6 2:148 3:154 8:1 10:1 18:1 19:1 25:1 33:1 38:1 43:1 47:1 49:1 58:1 59:1 
4 1:-153 2:173 3:20 8:1 9:1 15:1 22:1 25:1 33:1 38:1 43:1 45:1 53:1 56:1 63:1 
2.450655261123931 1:-130 2:173 3:43 8:1 9:1 15:1 22:1 25:1 33:1 35:1 43:1 44:1 50:1 58:1 63:1 
0.468036987977383 1:-59 2:173 3:114 8:1 9:1 15:1 22:1 25:1 33:1 35:1 43:1 45:1 53:1 57:1 60:1 
2.704545056723097 1:-30 2:173 3:143 8:1 9:1 15:1 22:1 25:1 33:1 38:1 39:1 48:1 49:1 58:1 60:1 
2.371593784503344 1:-19 2:173 3:154 8:1 9:1 15:1 22:1 25:1 33:1 38:1 43:1 47:1 49:1 58:1 59:1 
3.856082631655259 1:-50 2:185 3:135 4:1 13:1 14:1 19:1 28:1 30:1 38:1 43:1 45:1 49:1 58:1 63:1 
0.2366599178868027 1:-31 2:185 3:154 4:1 13:1 14:1 19:1 28:1 30:1 38:1 43:1 47:1 49:1 58:1 59:1 
0.2926863400467479 1:105 2:93 3:198 8:1 9:1 15:1 23:1 28:1 33:1 35:1 43:1 47:1 53:1 54:1 63:1 
1.193095578866176 1:59 2:139 3:198 4:1 13:1 18:1 23:1 24:1 33:1 35:1 43:1 47:1 53:1 54:1 63:1 
3.153665671610235 1:50 2:148 3:198 8:1 10:1 18:1 19:1 25:1 33:1 35:1 43:1 47:1 53:1 54:1 63:1 
3.042546522161717 1:13 2:185 3:198 4:1 13:1 14:1 19:1 28:1 30:1 35:1 43:1 47:1 53:1 54:1 63:1 
1.507163685436252 1:2 2:17 3:19 8:1 10:1 14:1 20:1 28:1 29:1 34:1 41:1 45:1 49:1 55:1 63:1 
2.086250369730718 1:-27 2:49 3:22 5:1 12:1 17:1 23:1 26:1 30:1 38:1 39:1 45:1 53:1 56:1 63:1 
4 1:-32 2:51 3:19 7:1 11:1 18:1 20:1 28:1 33:1 34:1 41:1 45:1 49:1 55:1 63:1 
1.822645042701484 1:-21 2:51 3:30 7:1 11:1 18:1 20:1 28:1 33:1 34:1 39:1 48:1 49:1 54:1 59:1 
2.643147475240152 1:-47 2:77 3:30 8:1 13:1 15:1 23:1 28:1 29:1 34:1 39:1 48:1 49:1 54:1 59:1 
3.967278585581198 1:-62 2:81 3:19 8:1 13:1 14:1 23:1 27:1 33:1 34:1 41:1 45:1 49:1 55:1 63:1 
1.573843871140214 1:-51 2:81 3:30 8:1 13:1 14:1 23:1 27:1 33:1 34:1 39:1 48:1 49:1 54:1 59:1 
1.154749881198562 1:42 2:40 3:82 7:1 13:1 18:1 19:1 28:1 33:1 38:1 39:1 46:1 52:1 58:1 59:1 
1.378351789398268 1:31 2:51 3:82 7:1 11:1 18:1 20:1 28:1 33:1 38:1 39:1 46:1 52:1 58:1 59:1 
1.613807135268696 1:5 2:77 3:82 8:1 13:1 15:1 23:1 28:1 29:1 38:1 39:1 46:1 52:1 58:1 59:1 
2.097890538059928 1:1 2:81 3:82 8:1 13:1 14:1 23:1 27:1 33:1 38:1 39:1 46:1 52:1 58:1 59:1 
0.5038526547541525 1:-84 2:91 3:7 8:1 9:1 14:1 23:1 25:1 31:1 34:1 43:1 48:1 53:1 55:1 60:1 
1.843553599121786 1:-61 2:91 3:30 8:1 9:1 14:1 23:1 25:1 31:1 34:1 39:1 48:1 49:1 54:1 59:1 
0.6919647259004097 1:-75 2:94 3:19 6:1 13:1 15:1 20:1 26:1 30:1 34:1 41:1 45:1 49:1 55:1 63:1 
1.385713460921781 1:-64 2:94 3:30 6:1 13:1 15:1 20:1 26:1 30:1 34:1 39:1 48:1 49:1 54:1 59:1 
0.6906333184290527 1:-89 2:96 3:7 5:1 11:1 15:1 20:1 26:1 30:1 34:1 43:1 48:1 53:1 55:1 60:1 
0.2541344875640029 1:-77 2:96 3:19 5:1 11:1 15:1 20:1 26:1 30:1 34:1 41:1 45:1 49:1 55:1 63:1 
1.362744503354141 1:-66 2:96 3:30 5:1 11:1 15:1 20:1 26:1 30:1 34:1 39:1 48:1 49:1 54:1 59:1 
1.29190827932254 1:-76 2:98 3:22 5:1 11:1 15:1 20:1 28:1 29:1 38:1 39:1 45:1 53:1 56:1 63:1 
3.130498444493227 1:-86 2:105 3:19 8:1 9:1 14:1 23:1 28:1 29:1 34:1 41:1 45:1 49:1 55:1 63:1 
0.2912881753292107 1:-83 2:105 3:22 8:1 9:1 14:1 23:1 28:1 29:1 38:1 39:1 45:1 53:1 56:1 63:1 
3.213808548606729 1:-75 2:105 3:30 8:1 9:1 14:1 23:1 28:1 29:1 34:1 39:1 48:1 49:1 54:1 59:1 
2.996351608616554 1:90 2:17 3:107 8:1 10:1 14:1 20:1 28:1 29:1 34:1 41:1 48:1 49:1 56:1 59:1 
0.9310114153381358 1:83 2:24 3:107 5:1 13:1 18:1 23:1 28:1 29:1 34:1 41:1 48:1 49:1 56:1 59:1 
2.129420431598548 1:26 2:81 3:107 8:1 13:1 14:1 23:1 27:1 33:1 34:1 41:1 48:1 49:1 56:1 59:1 
0.5750471651092717 1:16 2:91 3:107 8:1 9:1 14:1 23:1 25:1 31:1 34:1 41:1 48:1 49:1 56:1 59:1 
1.897364204572089 1:11 2:96 3:107 5:1 11:1 15:1 20:1 26:1 30:1 34:1 41:1 48:1 49:1 56:1 59:1 
4 1:2 2:105 3:107 8:1 9:1 14:1 23:1 28:1 29:1 34:1 41:1 48:1 49:1 56:1 59:1 
4 1:-9 2:109 3:100 8:1 13:1 14:1 19:1 24:1 30:1 35:1 41:1 45:1 49:1 58:1 59:1 
1.651306375495797 1:-116 2:146 3:30 8:1 9:1 15:1 22:1 25:1 29:1 34:1 39:1 48:1 49:1 54:1 59:1 
1.041640960224866 1:78 2:81 3:159 8:1 13:1 14:1 23:1 27:1 33:1 35:1 43:1 44:1 49:1 57:1 59:1 
1.19908683879885 1:68 2:91 3:159 8:1 9:1 14:1 23:1 25:1 31:1 35:1 43:1 44:1 49:1 57:1 59:1 
1.099461809888606 1:-188 2:207 3:19 8:1 12:1 15:1 20:1 28:1 33:1 34:1 41:1 45:1 49:1 55:1 63:1 
1.219684399021239 1:-125 2:207 3:82 8:1 12:1 15:1 20:1 28:1 33:1 38:1 39:1 46:1 52:1 58:1 59:1 
1.263421740433576 1:-100 2:207 3:107 8:1 12:1 15:1 20:1 28:1 33:1 34:1 41:1 48:1 49:1 56:1 59:1 
0.174684927808107 1:-214 2:221 3:7 8:1 10:1 18:1 20:1 28:1 29:1 34:1 43:1 48:1 53:1 55:1 60:1 
3.162677729696914 1:-199 2:221 3:22 8:1 10:1 18:1 20:1 28:1 29:1 38:1 39:1 45:1 53:1 56:1 63:1 
3.915753651423678 1:-139 2:221 3:82 8:1 10:1 18:1 20:1 28:1 29:1 38:1 39:1 46:1 52:1 58:1 59:1 
2.198695989488209 1:-210 2:240 3:30 8:1 11:1 15:1 20:1 26:1 33:1 34:1 39:1 48:1 49:1 54:1 59:1 
1.880175455364152 1:-133 2:240 3:107 8:1 11:1 15:1 20:1 26:1 33:1 34:1 41:1 48:1 49:1 56:1 59:1 
0.1283941218026614 1:-81 2:240 3:159 8:1 11:1 15:1 20:1 26:1 33:1 35:1 43:1 44:1 49:1 57:1 59:1 
0.657273341896409 1:-235 2:242 3:7 5:1 11:1 15:1 23:1 27:1 33:1 34:1 43:1 48:1 53:1 55:1 60:1 
2.865253309192716 1:-223 2:242 3:19 5:1 11:1 15:1 23:1 27:1 33:1 34:1 41:1 45:1 49:1 55:1 63:1 
0.2801684646150037 1:-160 2:242 3:82 5:1 11:1 15:1 23:1 27:1 33:1 38:1 39:1 46:1 52:1 58:1 59:1 
2.255245372882456 1:-83 2:242 3:159 5:1 11:1 15:1 23:1 27:1 33:1 35:1 43:1 44:1 49:1 57:1 59:1 
0.635340602044392 1:30 2:14 3:44 5:1 13:1 18:1 23:1 27:1 30:1 34:1 42:1 45:1 49:1 56:1 63:1 
0.1408511092855509 1:14 2:25 3:39 5:1 13:1 18:1 21:1 28:1 33:1 38:1 42:1 45:1 49:1 55:1 59:1 
0.8783999184292397 1:13 2:26 3:39 8:1 13:1 16:1 23:1 28:1 30:1 38:1 42:1 45:1 49:1 55:1 59:1 
4 1:-7 2:46 3:39 6:1 13:1 18:1 20:1 25:1 30:1 38:1 42:1 45:1 49:1 55:1 59:1 
2.835621286877803 1:5 2:46 3:51 6:1 13:1 18:1 20:1 25:1 30:1 35:1 40:1 45:1 53:1 58:1 59:1 
0.8490730546012429 1:38 2:26 3:64 8:1 13:1 16:1 23:1 28:1 30:1 38:1 42:1 45:1 49:1 56:1 60:1 
0.1271170598189536 1:21 2:43 3:64 4:1 10:1 14:1 23:1 28:1 31:1 38:1 42:1 45:1 49:1 56:1 60:1 
3.338448862058434 1:-15 2:66 3:51 5:1 13:1 14:1 20:1 28:1 29:1 35:1 40:1 45:1 53:1 58:1 59:1 
0.8880244144248636 1:22 2:46 3:68 6:1 13:1 18:1 20:1 25:1 30:1 34:1 41:1 45:1 49:1 58:1 63:1 
2.406094669686218 1:2 2:66 3:68 5:1 13:1 14:1 20:1 28:1 29:1 34:1 41:1 45:1 49:1 58:1 63:1 
2.553281561953365 1:22 2:66 3:88 5:1 13:1 14:1 20:1 28:1 29:1 35:1 40:1 45:1 53:1 58:1 62:1 
2.770398344823289 1:-81 2:120 3:39 8:1 9:1 14:1 23:1 28:1 29:1 38:1 42:1 45:1 49:1 55:1 59:1 
4 1:-69 2:120 3:51 8:1 9:1 14:1 23:1 28:1 29:1 35:1 40:1 45:1 53:1 58:1 59:1 
0.3156104707575788 1:181 2:43 3:224 4:1 10:1 14:1 23:1 28:1 31:1 35:1 40:1 45:1 53:1 58:1 59:1 
0.5523844776992621 1:104 2:120 3:224 8:1 9:1 14:1 23:1 28:1 29:1 35:1 40:1 45:1 53:1 58:1 59:1 
1.637514685061375 1:-200 2:251 3:51 8:1 9:1 15:1 23:1 24:1 29:1 35:1 40:1 45:1 53:1 58:1 59:1 
1.801359258678735 1:-163 2:251 3:88 8:1 9:1 15:1 23:1 24:1 29:1 35:1 40:1 45:1 53:1 58:1 62:1 
0.5441936361047275 1:-28 2:28 3:0 7:1 10:1 18:1 23:1 24:1 29:1 53:1 55:1 60:1 
1.389401222484048 1:-20 2:28 3:8 7:1 10:1 18:1 23:1 24:1 29:1 35:1 40:1 48:1 53:1 56:1 61:1 
0.5633168470468783 1:-74 2:74 3:0 4:1 10:1 17:1 19:1 28:1 29:1 53:1 55:1 60:1 
0.2170312960835535 1:-34 2:74 3:40 4:1 10:1 17:1 19:1 28:1 29:1 35:1 40:1 48:1 49:1 58:1 63:1 
0.2535775117138331 1:-37 2:167 3:130 4:1 11:1 17:1 23:1 28:1 29:1 38:1 40:1 48:1 50:1 58:1 63:1 
1.523348893808526 1:-164 2:180 3:16 7:1 12:1 18:1 22:1 24:1 30:1 38:1 43:1 48:1 49:1 58:1 63:1 
0.1954124228387575 1:-177 2:185 3:8 4:1 10:1 17:1 19:1 27:1 33:1 35:1 40:1 48:1 53:1 56:1 61:1 
2.843417855755179 1:-169 2:185 3:16 4:1 10:1 17:1 19:1 27:1 33:1 38:1 43:1 48:1 49:1 58:1 63:1 
1.936987204693648 1:181 2:11 3:192 8:1 13:1 16:1 23:1 28:1 33:1 38:1 40:1 47:1 52:1 58:1 63:1 
3.897239603157364 1:164 2:28 3:192 7:1 10:1 18:1 23:1 24:1 29:1 38:1 40:1 47:1 52:1 58:1 63:1 
0.9628158248399734 1:118 2:74 3:192 4:1 10:1 17:1 19:1 28:1 29:1 38:1 40:1 47:1 52:1 58:1 63:1 
0.1542558592006308 1:25 2:167 3:192 4:1 11:1 17:1 23:1 28:1 29:1 38:1 40:1 47:1 52:1 58:1 63:1 
1.632669667155784 1:7 2:185 3:192 4:1 10:1 17:1 19:1 27:1 33:1 38:1 40:1 47:1 52:1 58:1 63:1 
0.931364270879501 1:178 2:58 3:236 7:1 10:1 15:1 22:1 25:1 30:1 34:1 42:1 45:1 53:1 58:1 63:1 
1.228065278188257 1:51 2:185 3:236 4:1 10:1 17:1 19:1 27:1 33:1 34:1 42:1 45:1 53:1 58:1 63:1 
0.9461464039032924 1:213 2:58 3:271 7:1 10:1 15:1 22:1 25:1 30:1 34:1 40:1 48:1 53:1 55:1 59:1 
0.5671795105262295 1:197 2:74 3:271 4:1 10:1 17:1 19:1 28:1 29:1 34:1 40:1 48:1 53:1 55:1 59:1 
0.03453507006259252 1:86 2:185 3:271 4:1 10:1 17:1 19:1 27:1 33:1 34:1 40:1 48:1 53:1 55:1 59:1 
1.597954834092731 1:33 2:0 3:33 23:1 28:1 32:1 38:1 43:1 45:1 52:1 58:1 59:1 
0.7157466894144395 1:264 2:0 3:264 23:1 28:1 32:1 37:1 42:1 47:1 49:1 54:1 62:1 
2.143856489003534 1:289 2:0 3:289 23:1 28:1 32:1 34:1 43:1 45:1 53:1 57:1 62:1 
2.297658693423986 1:300 2:0 3:300 23:1 28:1 32:1 35:1 43:1 47:1 53:1 54:1 59:1 
0.2198431147696839 1:-273 2:306 3:33 4:1 10:1 18:1 19:1 28:1 33:1 38:1 43:1 45:1 52:1 58:1 59:1 
0.8982929136614628 1:-271 2:306 3:35 4:1 10:1 18:1 19:1 28:1 33:1 35:1 43:1 47:1 49:1 55:1 60:1 
1.943185664320434 1:-175 2:306 3:131 4:1 10:1 18:1 19:1 28:1 33:1 34:1 42:1 45:1 49:1 58:1 63:1 
0.4102482010522484 1:-80 2:306 3:226 4:1 10:1 18:1 19:1 28:1 33:1 37:1 43:1 48:1 49:1 58:1 63:1 
1.61190765158918 1:-42 2:306 3:264 4:1 10:1 18:1 19:1 28:1 33:1 37:1 42:1 47:1 49:1 54:1 62:1 
1.297870417416666 1:-17 2:306 3:289 4:1 10:1 18:1 19:1 28:1 33:1 34:1 43:1 45:1 53:1 57:1 62:1 
3.74168854466523 1:-6 2:306 3:300 4:1 10:1 18:1 19:1 28:1 33:1 35:1 43:1 47:1 53:1 54:1 59:1 
1.488150293331517 1:19 2:306 3:325 4:1 10:1 18:1 19:1 28:1 33:1 35:1 43:1 47:1 53:1 54:1 59:1 
0.6776724906487138 1:72 2:306 3:378 4:1 10:1 18:1 19:1 28:1 33:1 34:1 42:1 48:1 53:1 54:1 63:1 
3.205690687677979 1:92 2:306 3:398 4:1 10:1 18:1 19:1 28:1 33:1 35:1 39:1 48:1 52:1 54:1 59:1 
0.2691888542523203 1:98 2:306 3:404 4:1 10:1 18:1 19:1 28:1 33:1 34:1 40:1 48:1 49:1 54:1 63:1 
1.074720621020174 1:161 2:306 3:467 4:1 10:1 18:1 19:1 28:1 33:1 37:1 40:1 48:1 52:1 57:1 63:1 
0.1204010400992542 1:-498 2:499 3:1 8:1 13:1 14:1 22:1 25:1 33:1 46:1 53:1 57:1 60:1 
0.05599923415796324 1:-466 2:499 3:33 8:1 13:1 14:1 22:1 25:1 33:1 38:1 43:1 45:1 52:1 58:1 59:1 
0.1376383943541525 1:-440 2:499 3:59 8:1 13:1 14:1 22:1 25:1 33:1 38:1 42:1 45:1 53:1 54:1 63:1 
0.1644312819623731 1:-418 2:499 3:81 8:1 13:1 14:1 22:1 25:1 33:1 35:1 40:1 45:1 53:1 58:1 63:1 
0.7454993132464401 1:-368 2:499 3:131 8:1 13:1 14:1 22:1 25:1 33:1 34:1 42:1 45:1 49:1 58:1 63:1 
0.6242931103994693 1:-356 2:499 3:143 8:1 13:1 14:1 22:1 25:1 33:1 35:1 39:1 45:1 49:1 54:1 63:1 
0.1170201478299461 1:-297 2:499 3:202 8:1 13:1 14:1 22:1 25:1 33:1 37:1 42:1 45:1 52:1 58:1 59:1 
0.1959864060033557 1:-273 2:499 3:226 8:1 13:1 14:1 22:1 25:1 33:1 37:1 43:1 48:1 49:1 58:1 63:1 
0.1752621740535582 1:-190 2:499 3:309 8:1 13:1 14:1 22:1 25:1 33:1 36:1 39:1 48:1 53:1 57:1 60:1 
0.2156472233387082 1:-153 2:499 3:346 8:1 13:1 14:1 22:1 25:1 33:1 34:1 40:1 47:1 53:1 58:1 62:1 
0.09862615083132978 1:-121 2:499 3:378 8:1 13:1 14:1 22:1 25:1 33:1 34:1 42:1 48:1 53:1 54:1 63:1 
0.2583065328027552 1:-95 2:499 3:404 8:1 13:1 14:1 22:1 25:1 33:1 34:1 40:1 48:1 49:1 54:1 63:1 
0.1511377844198507 1:-41 2:499 3:458 8:1 13:1 14:1 22:1 25:1 33:1 38:1 39:1 45:1 53:1 58:1 63:1 
2.107258842185276 1:196 2:306 3:502 4:1 10:1 18:1 19:1 28:1 33:1 36:1 42:1 45:1 53:1 54:1 62:1 
0.1550199962480072 1:207 2:306 3:513 4:1 10:1 18:1 19:1 28:1 33:1 34:1 43:1 47:1 52:1 58:1 63:1 
0.1609986537810239 1:527 2:0 3:527 23:1 28:1 32:1 37:1 40:1 48:1 52:1 54:1 60:1 
0.2241844923376272 1:221 2:306 3:527 4:1 10:1 18:1 19:1 28:1 33:1 37:1 40:1 48:1 52:1 54:1 60:1 
0.204964792757158 1:539 2:0 3:539 23:1 28:1 32:1 35:1 42:1 45:1 53:1 57:1 63:1 
0.2248915293489163 1:233 2:306 3:539 4:1 10:1 18:1 19:1 28:1 33:1 35:1 42:1 45:1 53:1 57:1 63:1 
0.6892656884814379 1:542 2:0 3:542 23:1 28:1 32:1 38:1 43:1 47:1 49:1 54:1 63:1 
0.1454139381360561 1:43 2:499 3:542 8:1 13:1 14:1 22:1 25:1 33:1 38:1 43:1 47:1 49:1 54:1 63:1 
0.4214653437220168 1:-45 2:46 3:1 8:1 13:1 15:1 23:1 28:1 32:1 48:1 53:1 55:1 60:1 
0.2548063797571269 1:-169 2:170 3:1 4:1 12:1 14:1 23:1 27:1 33:1 48:1 53:1 55:1 60:1 
4 1:-157 2:170 3:13 4:1 12:1 14:1 23:1 27:1 33:1 34:1 41:1 45:1 49:1 56:1 63:1 
0.8187450278246085 1:24 2:150 3:174 8:1 9:1 15:1 22:1 28:1 33:1 38:1 42:1 48:1 53:1 58:1 63:1 
0.2886093794114712 1:4 2:170 3:174 4:1 12:1 14:1 23:1 27:1 33:1 38:1 42:1 48:1 53:1 58:1 63:1 
4 1:-166 2:179 3:13 8:1 13:1 15:1 22:1 25:1 33:1 34:1 41:1 45:1 49:1 56:1 63:1 
1.677979896412275 1:171 2:11 3:182 8:1 10:1 14:1 20:1 28:1 29:1 36:1 42:1 45:1 53:1 58:1 63:1 
4 1:34 2:150 3:184 8:1 9:1 15:1 22:1 28:1 33:1 35:1 43:1 48:1 53:1 57:1 62:1 
3.304608888773695 1:14 2:170 3:184 4:1 12:1 14:1 23:1 27:1 33:1 35:1 43:1 48:1 53:1 57:1 62:1 
0.3254574039016716 1:27 2:170 3:197 4:1 12:1 14:1 23:1 27:1 33:1 38:1 43:1 48:1 53:1 55:1 63:1 
2.881198136064822 1:18 2:179 3:197 8:1 13:1 15:1 22:1 25:1 33:1 38:1 43:1 48:1 53:1 55:1 63:1 
1.239484535775063 1:-189 2:202 3:13 5:1 13:1 14:1 20:1 27:1 30:1 34:1 41:1 45:1 49:1 56:1 63:1 
4 1:-28 2:202 3:174 5:1 13:1 14:1 20:1 27:1 30:1 38:1 42:1 48:1 53:1 58:1 63:1 
0.3733260955205519 1:-18 2:202 3:184 5:1 13:1 14:1 20:1 27:1 30:1 35:1 43:1 48:1 53:1 57:1 62:1 
1.986721195856769 1:198 2:15 3:213 5:1 13:1 14:1 23:1 28:1 33:1 34:1 40:1 44:1 53:1 54:1 61:1 
0.5912131931368072 1:63 2:150 3:213 8:1 9:1 15:1 22:1 28:1 33:1 34:1 40:1 44:1 53:1 54:1 61:1 
1.391611152715328 1:43 2:170 3:213 4:1 12:1 14:1 23:1 27:1 33:1 34:1 40:1 44:1 53:1 54:1 61:1 
1.810553144961546 1:34 2:179 3:213 8:1 13:1 15:1 22:1 25:1 33:1 34:1 40:1 44:1 53:1 54:1 61:1 
1.137130500884604 1:-42 2:216 3:174 8:1 13:1 14:1 23:1 28:1 31:1 38:1 42:1 48:1 53:1 58:1 63:1 
0.2673082109018952 1:-34 2:216 3:182 8:1 13:1 14:1 23:1 28:1 31:1 36:1 42:1 45:1 53:1 58:1 63:1 
2.033063780879279 1:-19 2:216 3:197 8:1 13:1 14:1 23:1 28:1 31:1 38:1 43:1 48:1 53:1 55:1 63:1 
0.1772611124651418 1:-218 2:219 3:1 6:1 13:1 18:1 22:1 28:1 29:1 48:1 53:1 55:1 60:1 
4 1:-206 2:219 3:13 6:1 13:1 18:1 22:1 28:1 29:1 34:1 41:1 45:1 49:1 56:1 63:1 
2.460588703056467 1:-45 2:219 3:174 6:1 13:1 18:1 22:1 28:1 29:1 38:1 42:1 48:1 53:1 58:1 63:1 
4 1:-35 2:219 3:184 6:1 13:1 18:1 22:1 28:1 29:1 35:1 43:1 48:1 53:1 57:1 62:1 
2.587844675618244 1:-6 2:219 3:213 6:1 13:1 18:1 22:1 28:1 29:1 34:1 40:1 44:1 53:1 54:1 61:1 
1.773968814298319 1:-14 2:227 3:213 8:1 12:1 15:1 19:1 27:1 33:1 34:1 40:1 44:1 53:1 54:1 61:1 
0.6741134236704071 1:43 2:202 3:245 5:1 13:1 14:1 20:1 27:1 30:1 38:1 42:1 45:1 53:1 54:1 63:1 
2.516419337626335 1:18 2:227 3:245 8:1 12:1 15:1 19:1 27:1 33:1 38:1 42:1 45:1 53:1 54:1 63:1 
1.387133893125485 1:258 2:15 3:273 5:1 13:1 14:1 23:1 28:1 33:1 38:1 39:1 45:1 53:1 58:1 63:1 
1.738116127728416 1:264 2:11 3:275 8:1 10:1 14:1 20:1 28:1 29:1 35:1 43:1 48:1 53:1 58:1 63:1 
2.045884314922882 1:105 2:170 3:275 4:1 12:1 14:1 23:1 27:1 33:1 35:1 43:1 48:1 53:1 58:1 63:1 
4 1:96 2:179 3:275 8:1 13:1 15:1 22:1 25:1 33:1 35:1 43:1 48:1 53:1 58:1 63:1 
1.790427412978431 1:94 2:202 3:296 5:1 13:1 14:1 20:1 27:1 30:1 37:1 40:1 48:1 52:1 58:1 60:1 
0.4930669069787679 1:77 2:219 3:296 6:1 13:1 18:1 22:1 28:1 29:1 37:1 40:1 48:1 52:1 58:1 60:1 
2.782264968522003 1:108 2:202 3:310 5:1 13:1 14:1 20:1 27:1 30:1 38:1 42:1 48:1 53:1 58:1 63:1 
0.7440072949569775 1:313 2:11 3:324 8:1 10:1 14:1 20:1 28:1 29:1 38:1 42:1 48:1 52:1 58:1 59:1 
0.1663220055499414 1:309 2:15 3:324 5:1 13:1 14:1 23:1 28:1 33:1 38:1 42:1 48:1 52:1 58:1 59:1 
0.005157284266846707 1:162 2:162 3:324 5:1 13:1 14:1 22:1 25:1 33:1 38:1 42:1 48:1 52:1 58:1 59:1 
0.1026213219127072 1:97 2:227 3:324 8:1 12:1 15:1 19:1 27:1 33:1 38:1 42:1 48:1 52:1 58:1 59:1 
2.223746247248969 1:-176 2:341 3:165 8:1 13:1 15:1 23:1 27:1 30:1 36:1 42:1 45:1 53:1 54:1 62:1 
2.600495315900889 1:-45 2:341 3:296 8:1 13:1 15:1 23:1 27:1 30:1 37:1 40:1 48:1 52:1 58:1 60:1 
0.8002477808179903 1:330 2:15 3:345 5:1 13:1 14:1 23:1 28:1 33:1 38:1 42:1 45:1 49:1 58:1 60:1 
0.7379718483000181 1:175 2:170 3:345 4:1 12:1 14:1 23:1 27:1 33:1 38:1 42:1 45:1 49:1 58:1 60:1 
0.1422773629340922 1:143 2:202 3:345 5:1 13:1 14:1 20:1 27:1 30:1 38:1 42:1 45:1 49:1 58:1 60:1 
1.323619096300224 1:126 2:219 3:345 6:1 13:1 18:1 22:1 28:1 29:1 38:1 42:1 45:1 49:1 58:1 60:1 
3.801863683940721 1:135 2:216 3:351 8:1 13:1 14:1 23:1 28:1 31:1 35:1 43:1 47:1 49:1 57:1 62:1 
0.8205416999688586 1:124 2:227 3:351 8:1 12:1 15:1 19:1 27:1 33:1 35:1 43:1 47:1 49:1 57:1 62:1 
0.2362766987215329 1:10 2:341 3:351 8:1 13:1 15:1 23:1 27:1 30:1 35:1 43:1 47:1 49:1 57:1 62:1 
2.584799033332149 1:-176 2:360 3:184 8:1 13:1 15:1 22:1 25:1 32:1 35:1 43:1 48:1 53:1 57:1 62:1 
0.9065273472256639 1:-163 2:360 3:197 8:1 13:1 15:1 22:1 25:1 32:1 38:1 43:1 48:1 53:1 55:1 63:1 
2.205984210909232 1:-147 2:360 3:213 8:1 13:1 15:1 22:1 25:1 32:1 34:1 40:1 44:1 53:1 54:1 61:1 
2.947053536213377 1:-85 2:360 3:275 8:1 13:1 15:1 22:1 25:1 32:1 35:1 43:1 48:1 53:1 58:1 63:1 
1.35793935613286 1:-15 2:360 3:345 8:1 13:1 15:1 22:1 25:1 32:1 38:1 42:1 45:1 49:1 58:1 60:1 
0.1769035221108343 1:-211 2:376 3:165 7:1 13:1 14:1 19:1 28:1 29:1 36:1 42:1 45:1 53:1 54:1 62:1 
0.2460051559906992 1:-194 2:376 3:182 7:1 13:1 14:1 19:1 28:1 29:1 36:1 42:1 45:1 53:1 58:1 63:1 
0.1040050559264074 1:-101 2:376 3:275 7:1 13:1 14:1 19:1 28:1 29:1 35:1 43:1 48:1 53:1 58:1 63:1 
2.464050942834684 1:-52 2:376 3:324 7:1 13:1 14:1 19:1 28:1 29:1 38:1 42:1 48:1 52:1 58:1 59:1 
0.0006171625951803539 1:-31 2:376 3:345 7:1 13:1 14:1 19:1 28:1 29:1 38:1 42:1 45:1 49:1 58:1 60:1 
0.8306478905927501 1:-427 2:428 3:1 8:1 9:1 15:1 22:1 25:1 33:1 48:1 53:1 55:1 60:1 
0.306572901007233 1:-254 2:428 3:174 8:1 9:1 15:1 22:1 25:1 33:1 38:1 42:1 48:1 53:1 58:1 63:1 
0.1447866812075979 1:-231 2:428 3:197 8:1 9:1 15:1 22:1 25:1 33:1 38:1 43:1 48:1 53:1 55:1 63:1 
4 1:-153 2:428 3:275 8:1 9:1 15:1 22:1 25:1 33:1 35:1 43:1 48:1 53:1 58:1 63:1 
0.8527655651373256 1:-132 2:428 3:296 8:1 9:1 15:1 22:1 25:1 33:1 37:1 40:1 48:1 52:1 58:1 60:1 
0.5630789608092371 1:422 2:11 3:433 8:1 10:1 14:1 20:1 28:1 29:1 35:1 43:1 45:1 53:1 58:1 63:1 
0.2300699392241174 1:387 2:46 3:433 8:1 13:1 15:1 23:1 28:1 32:1 35:1 43:1 45:1 53:1 58:1 63:1 
0.6898868038396683 1:231 2:202 3:433 5:1 13:1 14:1 20:1 27:1 30:1 35:1 43:1 45:1 53:1 58:1 63:1 
1.695984273411771 1:12 2:16 3:28 5:1 9:1 14:1 20:1 25:1 33:1 38:1 42:1 48:1 53:1 54:1 60:1 
3.896570707423923 1:-16 2:48 3:32 8:1 12:1 15:1 22:1 25:1 31:1 38:1 39:1 45:1 49:1 56:1 63:1 
0.3906520138550982 1:-46 2:74 3:28 5:1 12:1 18:1 23:1 28:1 33:1 38:1 42:1 48:1 53:1 54:1 60:1 
2.539333684535475 1:-42 2:74 3:32 5:1 12:1 18:1 23:1 28:1 33:1 38:1 39:1 45:1 49:1 56:1 63:1 
2.701141558717297 1:38 2:48 3:86 8:1 12:1 15:1 22:1 25:1 31:1 34:1 43:1 47:1 49:1 58:1 59:1 
3.095110533166465 1:-88 2:99 3:11 8:1 12:1 18:1 19:1 28:1 30:1 34:1 39:1 45:1 49:1 55:1 59:1 
0.199925289804939 1:-71 2:99 3:28 8:1 12:1 18:1 19:1 28:1 30:1 38:1 42:1 48:1 53:1 54:1 60:1 
4 1:-4 2:99 3:95 8:1 12:1 18:1 19:1 28:1 30:1 38:1 40:1 48:1 53:1 57:1 63:1 
1.534810025062677 1:6 2:103 3:109 4:1 13:1 15:1 22:1 25:1 33:1 38:1 39:1 48:1 49:1 58:1 60:1 
1.033885775334408 1:-50 2:136 3:86 7:1 13:1 18:1 20:1 24:1 32:1 34:1 43:1 47:1 49:1 58:1 59:1 
1.777225262525637 1:126 2:48 3:174 8:1 12:1 15:1 22:1 25:1 31:1 38:1 43:1 45:1 49:1 57:1 62:1 
0.3059071783858505 1:100 2:74 3:174 5:1 12:1 18:1 23:1 28:1 33:1 38:1 43:1 45:1 49:1 57:1 62:1 
0.1038239063180398 1:-157 2:185 3:28 4:1 13:1 17:1 20:1 25:1 33:1 38:1 42:1 48:1 53:1 54:1 60:1 
3.845100278743805 1:-23 2:35 3:12 8:1 9:1 15:1 20:1 28:1 32:1 34:1 41:1 45:1 49:1 56:1 63:1 
0.02883621943434084 1:32 2:35 3:67 8:1 9:1 15:1 20:1 28:1 32:1 35:1 43:1 45:1 49:1 57:1 63:1 
2.3169912247179 1:84 2:35 3:119 8:1 9:1 15:1 20:1 28:1 32:1 38:1 42:1 45:1 53:1 54:1 63:1 
0.6081353918103951 1:-146 2:206 3:60 7:1 12:1 15:1 23:1 27:1 30:1 36:1 43:1 47:1 49:1 57:1 59:1 
1.005838835733039 1:189 2:4 3:193 5:1 13:1 17:1 20:1 25:1 30:1 37:1 43:1 48:1 53:1 54:1 63:1 
2.799706766803716 1:22 2:171 3:193 8:1 12:1 14:1 19:1 28:1 29:1 37:1 43:1 48:1 53:1 54:1 63:1 
1.819581821529916 1:16 2:177 3:193 4:1 10:1 15:1 23:1 25:1 30:1 37:1 43:1 48:1 53:1 54:1 63:1 
0.8494852554118031 1:-29 2:222 3:193 4:1 10:1 15:1 23:1 25:1 30:1 37:1 43:1 48:1 53:1 54:1 63:1 
1.463632259303215 1:176 2:54 3:230 4:1 10:1 15:1 23:1 25:1 30:1 34:1 42:1 44:1 52:1 56:1 63:1 
1.281983799386945 1:140 2:90 3:230 8:1 10:1 15:1 23:1 25:1 30:1 34:1 42:1 44:1 52:1 56:1 63:1 
1.324022229806012 1:59 2:171 3:230 8:1 12:1 14:1 19:1 28:1 29:1 34:1 42:1 44:1 52:1 56:1 63:1 
2.531839897317161 1:53 2:177 3:230 4:1 10:1 15:1 23:1 25:1 30:1 34:1 42:1 44:1 52:1 56:1 63:1 
1.793899945399223 1:-62 2:255 3:193 5:1 9:1 18:1 22:1 24:1 32:1 37:1 43:1 48:1 53:1 54:1 63:1 
0.9300239315026317 1:-32 2:262 3:230 8:1 10:1 15:1 23:1 25:1 30:1 34:1 42:1 44:1 52:1 56:1 63:1 
0.6124951634116658 1:-81 2:274 3:193 8:1 13:1 14:1 23:1 28:1 33:1 37:1 43:1 48:1 53:1 54:1 63:1 
0.6529049392663813 1:-44 2:274 3:230 8:1 13:1 14:1 23:1 28:1 33:1 34:1 42:1 44:1 52:1 56:1 63:1 
2.052551767809001 1:271 2:75 3:346 5:1 13:1 18:1 22:1 27:1 31:1 37:1 39:1 45:1 53:1 58:1 60:1 
2.09412842743503 1:91 2:255 3:346 5:1 9:1 18:1 22:1 24:1 32:1 37:1 39:1 45:1 53:1 58:1 60:1 
1.824847675113945 1:269 2:90 3:359 8:1 10:1 15:1 23:1 25:1 30:1 35:1 39:1 44:1 50:1 58:1 60:1 
1.588379878315948 1:188 2:171 3:359 8:1 12:1 14:1 19:1 28:1 29:1 35:1 39:1 44:1 50:1 58:1 60:1 
2.842869923153141 1:137 2:222 3:359 4:1 10:1 15:1 23:1 25:1 30:1 35:1 39:1 44:1 50:1 58:1 60:1 
3.759522594094956 1:104 2:255 3:359 5:1 9:1 18:1 22:1 24:1 32:1 35:1 39:1 44:1 50:1 58:1 60:1 
1.526753078596194 1:97 2:262 3:359 8:1 10:1 15:1 23:1 25:1 30:1 35:1 39:1 44:1 50:1 58:1 60:1 
0.9713424711517724 1:31 2:328 3:359 8:1 10:1 15:1 19:1 28:1 30:1 35:1 39:1 44:1 50:1 58:1 60:1 
0.05332745497283015 1:-20 2:379 3:359 8:1 10:1 15:1 23:1 25:1 35:1 39:1 44:1 50:1 58:1 60:1 
1.081638108664737 1:145 2:74 3:219 5:1 11:1 17:1 20:1 28:1 33:1 35:1 43:1 48:1 52:1 54:1 60:1 
0.2507227761745408 1:-39 2:258 3:219 5:1 13:1 15:1 22:1 25:1 33:1 35:1 43:1 48:1 52:1 54:1 60:1 
0.4021078908146661 1:237 2:72 3:309 8:1 13:1 15:1 22:1 26:1 30:1 34:1 43:1 48:1 49:1 57:1 63:1 
3.293053529708482 1:-201 2:314 3:113 7:1 13:1 14:1 22:1 27:1 30:1 38:1 43:1 47:1 53:1 54:1 60:1 
0.3944415239303647 1:256 2:74 3:330 5:1 11:1 17:1 20:1 28:1 33:1 34:1 39:1 45:1 50:1 54:1 60:1 
1.230361295431712 1:64 2:266 3:330 7:1 13:1 15:1 20:1 28:1 33:1 34:1 39:1 45:1 50:1 54:1 60:1 
0.2053459734722614 1:333 2:74 3:407 5:1 11:1 17:1 20:1 28:1 33:1 38:1 40:1 48:1 53:1 58:1 59:1 
0.9878465708023283 1:27 2:380 3:407 8:1 12:1 14:1 20:1 28:1 33:1 38:1 40:1 48:1 53:1 58:1 59:1 
0.05901726446784711 1:-201 2:420 3:219 8:1 10:1 18:1 23:1 24:1 33:1 35:1 43:1 48:1 52:1 54:1 60:1 
0.3922232595678175 1:-111 2:420 3:309 8:1 10:1 18:1 23:1 24:1 33:1 34:1 43:1 48:1 49:1 57:1 63:1 
0.5907997469997055 1:-13 2:420 3:407 8:1 10:1 18:1 23:1 24:1 33:1 38:1 40:1 48:1 53:1 58:1 59:1 
0.2323525828532488 1:-227 2:557 3:330 5:1 13:1 17:1 23:1 28:1 29:1 34:1 39:1 45:1 50:1 54:1 60:1 
3.839022774245947 1:15 2:16 3:31 7:1 13:1 18:1 23:1 28:1 33:1 34:1 43:1 44:1 52:1 58:1 63:1 
2.46509315939051 1:23 2:16 3:39 7:1 13:1 18:1 23:1 28:1 33:1 34:1 42:1 45:1 49:1 56:1 60:1 
1.782007573194135 1:-31 2:41 3:10 5:1 13:1 14:1 20:1 28:1 32:1 36:1 42:1 45:1 53:1 54:1 62:1 
0.6600884321376355 1:-10 2:41 3:31 5:1 13:1 14:1 20:1 28:1 32:1 34:1 43:1 44:1 52:1 58:1 63:1 
3.003855317896205 1:-8 2:41 3:33 5:1 13:1 14:1 20:1 28:1 32:1 34:1 43:1 47:1 53:1 54:1 59:1 
1.097326926802925 1:29 2:16 3:45 7:1 13:1 18:1 23:1 28:1 33:1 35:1 43:1 47:1 49:1 55:1 63:1 
1.127638433027162 1:32 2:16 3:48 7:1 13:1 18:1 23:1 28:1 33:1 38:1 39:1 45:1 53:1 55:1 63:1 
1.535997314261786 1:14 2:41 3:55 5:1 13:1 14:1 20:1 28:1 32:1 34:1 39:1 48:1 49:1 58:1 59:1 
0.9565287156427943 1:-75 2:85 3:10 8:1 9:1 14:1 22:1 25:1 31:1 36:1 42:1 45:1 53:1 54:1 62:1 
4 1:-54 2:85 3:31 8:1 9:1 14:1 22:1 25:1 31:1 34:1 43:1 44:1 52:1 58:1 63:1 
1.723718370292084 1:-46 2:85 3:39 8:1 9:1 14:1 22:1 25:1 31:1 34:1 42:1 45:1 49:1 56:1 60:1 
4 1:-34 2:85 3:51 8:1 9:1 14:1 22:1 25:1 31:1 38:1 43:1 45:1 49:1 54:1 63:1 
3.897319632332434 1:-4 2:85 3:81 8:1 9:1 14:1 22:1 25:1 31:1 38:1 43:1 47:1 53:1 54:1 59:1 
2.984605322865737 1:-55 2:88 3:33 6:1 12:1 15:1 23:1 24:1 29:1 34:1 43:1 47:1 53:1 54:1 59:1 
1.813879008757563 1:-49 2:88 3:39 6:1 12:1 15:1 23:1 24:1 29:1 34:1 42:1 45:1 49:1 56:1 60:1 
4 1:-7 2:88 3:81 6:1 12:1 15:1 23:1 24:1 29:1 38:1 43:1 47:1 53:1 54:1 59:1 
2.200688633549218 1:-64 2:97 3:33 8:1 9:1 15:1 22:1 25:1 30:1 34:1 43:1 47:1 53:1 54:1 59:1 
1.156941551880636 1:-58 2:97 3:39 8:1 9:1 15:1 22:1 25:1 30:1 34:1 42:1 45:1 49:1 56:1 60:1 
1.054464221634862 1:-46 2:97 3:51 8:1 9:1 15:1 22:1 25:1 30:1 38:1 43:1 45:1 49:1 54:1 63:1 
0.5492591460016495 1:96 2:16 3:112 7:1 13:1 18:1 23:1 28:1 33:1 35:1 43:1 48:1 53:1 58:1 62:1 
2.512481887088021 1:27 2:85 3:112 8:1 9:1 14:1 22:1 25:1 31:1 35:1 43:1 48:1 53:1 58:1 62:1 
2.673882161190378 1:15 2:97 3:112 8:1 9:1 15:1 22:1 25:1 30:1 35:1 43:1 48:1 53:1 58:1 62:1 
0.5604581690475211 1:105 2:16 3:121 7:1 13:1 18:1 23:1 28:1 33:1 35:1 43:1 47:1 53:1 54:1 63:1 
4 1:36 2:85 3:121 8:1 9:1 14:1 22:1 25:1 31:1 35:1 43:1 47:1 53:1 54:1 63:1 
2.543131152489912 1:24 2:97 3:121 8:1 9:1 15:1 22:1 25:1 30:1 35:1 43:1 47:1 53:1 54:1 63:1 
3.613867729926484 1:117 2:16 3:133 7:1 13:1 18:1 23:1 28:1 33:1 37:1 43:1 45:1 49:1 58:1 62:1 
4 1:45 2:88 3:133 6:1 12:1 15:1 23:1 24:1 29:1 37:1 43:1 45:1 49:1 58:1 62:1 
1.163114771005766 1:50 2:97 3:147 8:1 9:1 15:1 22:1 25:1 30:1 35:1 43:1 47:1 53:1 54:1 63:1 
1.876957694716644 1:138 2:16 3:154 7:1 13:1 18:1 23:1 28:1 33:1 37:1 43:1 45:1 53:1 58:1 63:1 
4 1:69 2:85 3:154 8:1 9:1 14:1 22:1 25:1 31:1 37:1 43:1 45:1 53:1 58:1 63:1 
1.988564728415329 1:57 2:97 3:154 8:1 9:1 15:1 22:1 25:1 30:1 37:1 43:1 45:1 53:1 58:1 63:1 
1.069040158212176 1:79 2:85 3:164 8:1 9:1 14:1 22:1 25:1 31:1 34:1 40:1 48:1 53:1 58:1 59:1 
3.344032359182638 1:76 2:88 3:164 6:1 12:1 15:1 23:1 24:1 29:1 34:1 40:1 48:1 53:1 58:1 59:1 
1.443857874369836 1:133 2:41 3:174 5:1 13:1 14:1 20:1 28:1 32:1 37:1 43:1 45:1 53:1 58:1 62:1 
2.333029528913866 1:89 2:85 3:174 8:1 9:1 14:1 22:1 25:1 31:1 37:1 43:1 45:1 53:1 58:1 62:1 
0.07544402420058331 1:-146 2:191 3:45 4:1 10:1 15:1 23:1 28:1 32:1 35:1 43:1 47:1 49:1 55:1 63:1 
0.6356568749968212 1:-110 2:191 3:81 4:1 10:1 15:1 23:1 28:1 32:1 38:1 43:1 47:1 53:1 54:1 59:1 
1.16071298701372 1:-44 2:191 3:147 4:1 10:1 15:1 23:1 28:1 32:1 35:1 43:1 47:1 53:1 54:1 63:1 
2.44958814496936 1:-37 2:191 3:154 4:1 10:1 15:1 23:1 28:1 32:1 37:1 43:1 45:1 53:1 58:1 63:1 
0.7875946189030375 1:-27 2:191 3:164 4:1 10:1 15:1 23:1 28:1 32:1 34:1 40:1 48:1 53:1 58:1 59:1 
0.2949799495186318 1:186 2:7 3:193 5:1 13:1 14:1 22:1 25:1 33:1 35:1 41:1 48:1 52:1 54:1 60:1 
1.627940835630482 1:152 2:41 3:193 5:1 13:1 14:1 20:1 28:1 32:1 35:1 41:1 48:1 52:1 54:1 60:1 
1.179806172238421 1:105 2:88 3:193 6:1 12:1 15:1 23:1 24:1 29:1 35:1 41:1 48:1 52:1 54:1 60:1 
1.458207994454903 1:2 2:191 3:193 4:1 10:1 15:1 23:1 28:1 32:1 35:1 41:1 48:1 52:1 54:1 60:1 
0.05284795816306545 1:181 2:16 3:197 7:1 13:1 18:1 23:1 28:1 33:1 37:1 39:1 45:1 49:1 56:1 63:1 
2.256198669649358 1:-68 2:199 3:131 5:1 13:1 14:1 23:1 28:1 29:1 38:1 43:1 47:1 50:1 58:1 59:1 
4 1:-47 2:199 3:152 5:1 13:1 14:1 23:1 28:1 29:1 34:1 43:1 47:1 50:1 58:1 63:1 
0.8666871313984715 1:-25 2:199 3:174 5:1 13:1 14:1 23:1 28:1 29:1 37:1 43:1 45:1 53:1 58:1 62:1 
0.2256063429218092 1:187 2:16 3:203 7:1 13:1 18:1 23:1 28:1 33:1 38:1 43:1 44:1 53:1 58:1 63:1 
0.472694090204767 1:118 2:85 3:203 8:1 9:1 14:1 22:1 25:1 31:1 38:1 43:1 44:1 53:1 58:1 63:1 
1.141341146612757 1:115 2:88 3:203 6:1 12:1 15:1 23:1 24:1 29:1 38:1 43:1 44:1 53:1 58:1 63:1 
0.4102103913578178 1:106 2:97 3:203 8:1 9:1 15:1 22:1 25:1 30:1 38:1 43:1 44:1 53:1 58:1 63:1 
0.1305595439865555 1:120 2:85 3:205 8:1 9:1 14:1 22:1 25:1 31:1 34:1 43:1 48:1 53:1 54:1 59:1 
0.3269740193395097 1:14 2:191 3:205 4:1 10:1 15:1 23:1 28:1 32:1 34:1 43:1 48:1 53:1 54:1 59:1 
4 1:-7 2:77 3:70 8:1 13:1 15:1 22:1 27:1 30:1 35:1 43:1 44:1 53:1 54:1 61:1 
0.206666482406266 1:-70 2:140 3:70 8:1 13:1 14:1 22:1 24:1 33:1 35:1 43:1 44:1 53:1 54:1 61:1 
3.117297257993382 1:74 2:103 3:177 5:1 11:1 17:1 23:1 24:1 33:1 37:1 39:1 45:1 50:1 54:1 62:1 
2.481755355004713 1:-148 2:218 3:70 4:1 13:1 18:1 20:1 35:1 43:1 44:1 53:1 54:1 61:1 
2.405201088499199 1:4 2:32 3:36 4:1 13:1 18:1 20:1 24:1 32:1 35:1 39:1 47:1 49:1 56:1 60:1 
0.002398112532228297 1:33 2:7 3:40 5:1 13:1 14:1 22:1 25:1 33:1 34:1 41:1 45:1 49:1 56:1 60:1 
4 1:-6 2:42 3:36 5:1 13:1 14:1 20:1 28:1 33:1 35:1 39:1 47:1 49:1 56:1 60:1 
0.9081309609415479 1:6 2:38 3:44 7:1 13:1 14:1 20:1 28:1 29:1 34:1 41:1 45:1 53:1 54:1 61:1 
4 1:2 2:42 3:44 5:1 13:1 14:1 20:1 28:1 33:1 34:1 41:1 45:1 53:1 54:1 61:1 
4 1:-7 2:47 3:40 8:1 13:1 14:1 23:1 28:1 33:1 34:1 41:1 45:1 49:1 56:1 60:1 
0.2801868548025058 1:23 2:42 3:65 5:1 13:1 14:1 20:1 28:1 33:1 38:1 43:1 45:1 49:1 57:1 63:1 
0.4125351744132721 1:88 2:7 3:95 5:1 13:1 14:1 22:1 25:1 33:1 35:1 40:1 45:1 53:1 58:1 60:1 
0.3810335607770837 1:127 2:7 3:134 5:1 13:1 14:1 22:1 25:1 33:1 35:1 43:1 45:1 52:1 55:1 60:1 
0.7207710837810372 1:102 2:32 3:134 4:1 13:1 18:1 20:1 24:1 32:1 35:1 43:1 45:1 52:1 55:1 60:1 
4 1:96 2:38 3:134 7:1 13:1 14:1 20:1 28:1 29:1 35:1 43:1 45:1 52:1 55:1 60:1 
2.675913451236214 1:105 2:38 3:143 7:1 13:1 14:1 20:1 28:1 29:1 34:1 40:1 48:1 53:1 58:1 63:1 
1.435470144402574 1:101 2:42 3:143 5:1 13:1 14:1 20:1 28:1 33:1 34:1 40:1 48:1 53:1 58:1 63:1 
0.7941968578836973 1:163 2:14 3:177 5:1 13:1 18:1 19:1 28:1 33:1 35:1 39:1 48:1 53:1 58:1 59:1 
2.128721495172887 1:145 2:32 3:177 4:1 13:1 18:1 20:1 24:1 32:1 35:1 39:1 48:1 53:1 58:1 59:1 
0.6254173631474103 1:174 2:14 3:188 5:1 13:1 18:1 19:1 28:1 33:1 37:1 43:1 48:1 49:1 58:1 63:1 
2.885130216321317 1:129 2:59 3:188 8:1 13:1 15:1 22:1 25:1 33:1 37:1 43:1 48:1 49:1 58:1 63:1 
0.09883704955859757 1:-174 2:175 3:1 8:1 13:1 14:1 19:1 25:1 33:1 48:1 53:1 55:1 63:1 
2.068041942129304 1:-12 2:175 3:163 8:1 13:1 14:1 19:1 25:1 33:1 38:1 42:1 48:1 53:1 58:1 59:1 
0.1094014586093203 1:55 2:175 3:230 8:1 13:1 14:1 19:1 25:1 33:1 34:1 42:1 48:1 52:1 58:1 59:1 
1.044449352181875 1:-220 2:298 3:78 4:1 13:1 14:1 23:1 25:1 33:1 35:1 43:1 47:1 53:1 58:1 63:1 
0.8505088874314282 1:-133 2:298 3:165 4:1 13:1 14:1 23:1 25:1 33:1 38:1 43:1 48:1 49:1 58:1 62:1 
0.5792348438975197 1:10 2:17 3:27 5:1 9:1 15:1 23:1 28:1 33:1 34:1 40:1 45:1 53:1 54:1 59:1 
2.116975739348391 1:2 2:64 3:66 7:1 9:1 15:1 20:1 28:1 29:1 35:1 41:1 45:1 49:1 58:1 63:1 
0.8794385134098782 1:130 2:17 3:147 5:1 9:1 15:1 23:1 28:1 33:1 34:1 42:1 48:1 49:1 56:1 63:1 
1.225160818841574 1:-83 2:149 3:66 8:1 13:1 14:1 23:1 28:1 30:1 35:1 41:1 45:1 49:1 58:1 63:1 
0.2669948865809003 1:-63 2:149 3:86 8:1 13:1 14:1 23:1 28:1 30:1 34:1 43:1 48:1 49:1 58:1 62:1 
0.1162895616034343 1:-42 2:189 3:147 8:1 10:1 18:1 22:1 28:1 33:1 34:1 42:1 48:1 49:1 56:1 63:1 
1.43660200905446 1:169 2:64 3:233 7:1 9:1 15:1 20:1 28:1 29:1 37:1 43:1 44:1 49:1 58:1 63:1 
2.227438817996069 1:44 2:189 3:233 8:1 10:1 18:1 22:1 28:1 33:1 37:1 43:1 44:1 49:1 58:1 63:1 
0.197824911898567 1:14 2:219 3:233 4:1 13:1 17:1 23:1 24:1 30:1 37:1 43:1 44:1 49:1 58:1 63:1 
0.03261798580568495 1:-255 2:256 3:1 8:1 13:1 18:1 20:1 28:1 32:1 48:1 53:1 58:1 63:1 
2.092070306184273 1:-77 2:256 3:179 8:1 13:1 18:1 20:1 28:1 32:1 35:1 42:1 48:1 49:1 58:1 63:1 
1.981692734968549 1:-24 2:79 3:55 8:1 13:1 14:1 23:1 24:1 33:1 35:1 43:1 48:1 53:1 58:1 63:1 
0.3251173131478347 1:-56 2:111 3:55 8:1 13:1 15:1 23:1 28:1 32:1 35:1 43:1 48:1 53:1 58:1 63:1 
4 1:-35 2:111 3:76 8:1 13:1 15:1 23:1 28:1 32:1 38:1 41:1 45:1 53:1 54:1 61:1 
4 1:7 2:111 3:118 8:1 13:1 15:1 23:1 28:1 32:1 38:1 39:1 45:1 53:1 58:1 63:1 
2.243911610634469 1:-128 2:183 3:55 4:1 13:1 18:1 20:1 27:1 29:1 35:1 43:1 48:1 53:1 58:1 63:1 
2.409980705859979 1:112 2:79 3:191 8:1 13:1 14:1 23:1 24:1 33:1 38:1 43:1 45:1 53:1 58:1 61:1 
3.161411810714699 1:80 2:111 3:191 8:1 13:1 15:1 23:1 28:1 32:1 38:1 43:1 45:1 53:1 58:1 61:1 
0.6688448191698448 1:8 2:183 3:191 4:1 13:1 18:1 20:1 27:1 29:1 38:1 43:1 45:1 53:1 58:1 61:1 
3.366257571848974 1:-139 2:194 3:55 8:1 13:1 18:1 22:1 25:1 33:1 35:1 43:1 48:1 53:1 58:1 63:1 
2.850745664158959 1:-76 2:194 3:118 8:1 13:1 18:1 22:1 25:1 33:1 38:1 39:1 45:1 53:1 58:1 63:1 
0.6313827329204533 1:-170 2:223 3:53 8:1 9:1 18:1 20:1 27:1 32:1 35:1 43:1 45:1 53:1 58:1 63:1 
0.7886228255772868 1:-168 2:223 3:55 8:1 9:1 18:1 20:1 27:1 32:1 35:1 43:1 48:1 53:1 58:1 63:1 
0.5858446310094819 1:-147 2:223 3:76 8:1 9:1 18:1 20:1 27:1 32:1 38:1 41:1 45:1 53:1 54:1 61:1 
2.070179271756164 1:-44 2:223 3:179 8:1 9:1 18:1 20:1 27:1 32:1 35:1 42:1 48:1 49:1 58:1 63:1 
0.6325636140295989 1:109 2:8 3:117 8:1 13:1 14:1 23:1 25:1 29:1 34:1 39:1 45:1 53:1 55:1 63:1 
3.631272990582996 1:42 2:75 3:117 7:1 13:1 18:1 23:1 28:1 33:1 34:1 39:1 45:1 53:1 55:1 63:1 
1.245718177191462 1:74 2:75 3:149 7:1 13:1 18:1 23:1 28:1 33:1 38:1 42:1 48:1 50:1 57:1 61:1 
2.91221472916939 1:-35 2:152 3:117 8:1 10:1 17:1 23:1 24:1 31:1 34:1 39:1 45:1 53:1 55:1 63:1 
3.299448373864951 1:-3 2:152 3:149 8:1 10:1 17:1 23:1 24:1 31:1 38:1 42:1 48:1 50:1 57:1 61:1 
1.489980478176693 1:-101 2:155 3:54 6:1 13:1 14:1 20:1 27:1 33:1 38:1 43:1 44:1 53:1 54:1 60:1 
0.972143423323122 1:-38 2:155 3:117 6:1 13:1 14:1 20:1 27:1 33:1 34:1 39:1 45:1 53:1 55:1 63:1 
1.658270597150313 1:-14 2:163 3:149 5:1 12:1 18:1 23:1 24:1 33:1 38:1 42:1 48:1 50:1 57:1 61:1 
0.6189299464735869 1:-54 2:171 3:117 4:1 9:1 18:1 23:1 24:1 30:1 34:1 39:1 45:1 53:1 55:1 63:1 
1.374108921470106 1:-22 2:171 3:149 4:1 9:1 18:1 23:1 24:1 30:1 38:1 42:1 48:1 50:1 57:1 61:1 
0.1489001971372259 1:153 2:25 3:178 8:1 12:1 18:1 20:1 27:1 30:1 38:1 43:1 47:1 49:1 54:1 59:1 
0.5065584056401312 1:26 2:152 3:178 8:1 10:1 17:1 23:1 24:1 31:1 38:1 43:1 47:1 49:1 54:1 59:1 
1.402367003825407 1:15 2:163 3:178 5:1 12:1 18:1 23:1 24:1 33:1 38:1 43:1 47:1 49:1 54:1 59:1 
0.6621105169869208 1:-136 2:190 3:54 8:1 9:1 15:1 19:1 28:1 33:1 38:1 43:1 44:1 53:1 54:1 60:1 
1.575301636460054 1:-41 2:190 3:149 8:1 9:1 15:1 19:1 28:1 33:1 38:1 42:1 48:1 50:1 57:1 61:1 
1.368853274393112 1:168 2:25 3:193 8:1 12:1 18:1 20:1 27:1 30:1 36:1 39:1 48:1 53:1 58:1 59:1 
2.542223176067836 1:137 2:75 3:212 7:1 13:1 18:1 23:1 28:1 33:1 38:1 42:1 48:1 53:1 54:1 63:1 
0.02546829453819362 1:60 2:152 3:212 8:1 10:1 17:1 23:1 24:1 31:1 38:1 42:1 48:1 53:1 54:1 63:1 
0.4181891193858802 1:22 2:190 3:212 8:1 9:1 15:1 19:1 28:1 33:1 38:1 42:1 48:1 53:1 54:1 63:1 
0.2543839228393034 1:317 2:8 3:325 8:1 13:1 14:1 23:1 25:1 29:1 35:1 43:1 48:1 53:1 54:1 63:1 
0.7306829809070037 1:250 2:75 3:325 7:1 13:1 18:1 23:1 28:1 33:1 35:1 43:1 48:1 53:1 54:1 63:1 
3.38451220096144 1:-326 2:332 3:6 7:1 13:1 15:1 20:1 28:1 33:1 38:1 40:1 48:1 49:1 56:1 63:1 
0.5670480281919233 1:-278 2:332 3:54 7:1 13:1 15:1 20:1 28:1 33:1 38:1 43:1 44:1 53:1 54:1 60:1 
1.128433166017833 1:-183 2:332 3:149 7:1 13:1 15:1 20:1 28:1 33:1 38:1 42:1 48:1 50:1 57:1 61:1 
0.5116352888159076 1:-2 2:4 3:2 7:1 13:1 14:1 23:1 28:1 30:1 43:1 47:1 49:1 56:1 63:1 
4 1:-2 2:75 3:73 8:1 13:1 14:1 23:1 26:1 33:1 38:1 40:1 48:1 49:1 56:1 63:1 
0.9515877405441802 1:-84 2:86 3:2 8:1 10:1 18:1 23:1 28:1 33:1 43:1 47:1 49:1 56:1 63:1 
1.413823161950993 1:86 2:4 3:90 7:1 13:1 14:1 23:1 28:1 30:1 38:1 43:1 48:1 51:1 56:1 62:1 
2.279202349543185 1:15 2:75 3:90 8:1 13:1 14:1 23:1 26:1 33:1 38:1 43:1 48:1 51:1 56:1 62:1 
1.537466358357001 1:11 2:79 3:90 8:1 11:1 18:1 20:1 28:1 33:1 38:1 43:1 48:1 51:1 56:1 62:1 
0.1670650131258062 1:-18 2:91 3:73 8:1 13:1 18:1 21:1 27:1 31:1 38:1 40:1 48:1 49:1 56:1 63:1 
4 1:-1 2:91 3:90 8:1 13:1 18:1 21:1 27:1 31:1 38:1 43:1 48:1 51:1 56:1 62:1 
1.91009984126241 1:-19 2:92 3:73 8:1 13:1 16:1 22:1 26:1 29:1 38:1 40:1 48:1 49:1 56:1 63:1 
0.4559244016034115 1:22 2:79 3:101 8:1 11:1 18:1 20:1 28:1 33:1 35:1 43:1 47:1 52:1 58:1 59:1 
1.131835026417058 1:10 2:91 3:101 8:1 13:1 18:1 21:1 27:1 31:1 35:1 43:1 47:1 52:1 58:1 59:1 
0.1475579532728085 1:9 2:92 3:101 8:1 13:1 16:1 22:1 26:1 29:1 35:1 43:1 47:1 52:1 58:1 59:1 
3.375732096871295 1:-99 2:107 3:8 4:1 10:1 18:1 23:1 26:1 32:1 38:1 43:1 45:1 52:1 58:1 59:1 
0.4303543505639246 1:-34 2:107 3:73 4:1 10:1 18:1 23:1 26:1 32:1 38:1 40:1 48:1 49:1 56:1 63:1 
1.829438593982327 1:-36 2:109 3:73 8:1 11:1 18:1 22:1 28:1 33:1 38:1 40:1 48:1 49:1 56:1 63:1 
2.930011999984012 1:-8 2:109 3:101 8:1 11:1 18:1 22:1 28:1 33:1 35:1 43:1 47:1 52:1 58:1 59:1 
0.1667957143984102 1:-147 2:155 3:8 8:1 13:1 18:1 20:1 26:1 29:1 38:1 43:1 45:1 52:1 58:1 59:1 
3.671634832140406 1:-65 2:155 3:90 8:1 13:1 18:1 20:1 26:1 29:1 38:1 43:1 48:1 51:1 56:1 62:1 
0.1598449108446001 1:-147 2:157 3:10 8:1 11:1 15:1 19:1 27:1 33:1 35:1 43:1 47:1 49:1 54:1 63:1 
2.922028701619234 1:-84 2:157 3:73 8:1 11:1 15:1 19:1 27:1 33:1 38:1 40:1 48:1 49:1 56:1 63:1 
3.694021183552318 1:-155 2:163 3:8 8:1 10:1 18:1 23:1 28:1 30:1 38:1 43:1 45:1 52:1 58:1 59:1 
1.49534478950445 1:-62 2:163 3:101 8:1 10:1 18:1 23:1 28:1 30:1 35:1 43:1 47:1 52:1 58:1 59:1 
2.067920008687274 1:164 2:4 3:168 7:1 13:1 14:1 23:1 28:1 30:1 38:1 40:1 48:1 53:1 54:1 62:1 
0.898034754802732 1:93 2:75 3:168 8:1 13:1 14:1 23:1 26:1 33:1 38:1 40:1 48:1 53:1 54:1 62:1 
0.119418492503889 1:89 2:79 3:168 8:1 11:1 18:1 20:1 28:1 33:1 38:1 40:1 48:1 53:1 54:1 62:1 
1.046452044600776 1:76 2:92 3:168 8:1 13:1 16:1 22:1 26:1 29:1 38:1 40:1 48:1 53:1 54:1 62:1 
1.026915739873492 1:13 2:155 3:168 8:1 13:1 18:1 20:1 26:1 29:1 38:1 40:1 48:1 53:1 54:1 62:1 
0.6409954900075034 1:11 2:157 3:168 8:1 11:1 15:1 19:1 27:1 33:1 38:1 40:1 48:1 53:1 54:1 62:1 
2.361566320470458 1:-9 2:177 3:168 8:1 9:1 15:1 23:1 28:1 33:1 38:1 40:1 48:1 53:1 54:1 62:1 
2.697567623723983 1:-97 2:187 3:90 4:1 10:1 18:1 23:1 24:1 32:1 38:1 43:1 48:1 51:1 56:1 62:1 
0.1419221852757721 1:-204 2:212 3:8 8:1 10:1 18:1 22:1 25:1 33:1 38:1 43:1 45:1 52:1 58:1 59:1 
1.925483846569832 1:-122 2:212 3:90 8:1 10:1 18:1 22:1 25:1 33:1 38:1 43:1 48:1 51:1 56:1 62:1 
1.868916853780275 1:-214 2:216 3:2 7:1 10:1 18:1 23:1 28:1 30:1 43:1 47:1 49:1 56:1 63:1 
3.281329438570304 1:-143 2:216 3:73 7:1 10:1 18:1 23:1 28:1 30:1 38:1 40:1 48:1 49:1 56:1 63:1 
0.09064547035002021 1:-48 2:216 3:168 7:1 10:1 18:1 23:1 28:1 30:1 38:1 40:1 48:1 53:1 54:1 62:1 
1.294829903333548 1:168 2:75 3:243 8:1 13:1 14:1 23:1 26:1 33:1 37:1 43:1 48:1 49:1 55:1 63:1 
2.105061230826959 1:88 2:155 3:243 8:1 13:1 18:1 20:1 26:1 29:1 37:1 43:1 48:1 49:1 55:1 63:1 
2.565491466815871 1:-158 2:259 3:101 5:1 13:1 18:1 23:1 27:1 33:1 35:1 43:1 47:1 52:1 58:1 59:1 
1.538985826505656 1:-271 2:273 3:2 8:1 9:1 15:1 23:1 27:1 33:1 43:1 47:1 49:1 56:1 63:1 
0.2061324952301763 1:-265 2:273 3:8 8:1 9:1 15:1 23:1 27:1 33:1 38:1 43:1 45:1 52:1 58:1 59:1 
0.5705697111419977 1:-172 2:273 3:101 8:1 9:1 15:1 23:1 27:1 33:1 35:1 43:1 47:1 52:1 58:1 59:1 
1.775751835467949 1:-30 2:273 3:243 8:1 9:1 15:1 23:1 27:1 33:1 37:1 43:1 48:1 49:1 55:1 63:1 
1.412878536541525 1:185 2:91 3:276 8:1 13:1 18:1 21:1 27:1 31:1 36:1 43:1 47:1 53:1 56:1 63:1 
0.9204954534836747 1:184 2:92 3:276 8:1 13:1 16:1 22:1 26:1 29:1 36:1 43:1 47:1 53:1 56:1 63:1 
0.1019296213849989 1:150 2:126 3:276 4:1 13:1 18:1 19:1 25:1 33:1 36:1 43:1 47:1 53:1 56:1 63:1 
1.184831397622826 1:64 2:212 3:276 8:1 10:1 18:1 22:1 25:1 33:1 36:1 43:1 47:1 53:1 56:1 63:1 
0.2159634107994436 1:-110 2:278 3:168 7:1 13:1 18:1 23:1 24:1 31:1 38:1 40:1 48:1 53:1 54:1 62:1 
4 1:-2 2:278 3:276 7:1 13:1 18:1 23:1 24:1 31:1 36:1 43:1 47:1 53:1 56:1 63:1 
0.8850298651546699 1:-191 2:281 3:90 6:1 13:1 14:1 20:1 28:1 33:1 38:1 43:1 48:1 51:1 56:1 62:1 
0.2114241264460276 1:-180 2:281 3:101 6:1 13:1 14:1 20:1 28:1 33:1 35:1 43:1 47:1 52:1 58:1 59:1 
2.335434819219896 1:-38 2:281 3:243 6:1 13:1 14:1 20:1 28:1 33:1 37:1 43:1 48:1 49:1 55:1 63:1 
0.4009556774350303 1:-119 2:287 3:168 8:1 12:1 17:1 19:1 27:1 33:1 38:1 40:1 48:1 53:1 54:1 62:1 
0.253407120140118 1:-11 2:287 3:276 8:1 12:1 17:1 19:1 27:1 33:1 36:1 43:1 47:1 53:1 56:1 63:1 
0.5659019802777261 1:204 2:91 3:295 8:1 13:1 18:1 21:1 27:1 31:1 35:1 43:1 45:1 53:1 56:1 63:1 
1.649312548572444 1:203 2:92 3:295 8:1 13:1 16:1 22:1 26:1 29:1 35:1 43:1 45:1 53:1 56:1 63:1 
3.586519246726378 1:188 2:107 3:295 4:1 10:1 18:1 23:1 26:1 32:1 35:1 43:1 45:1 53:1 56:1 63:1 
3.454541483097496 1:140 2:155 3:295 8:1 13:1 18:1 20:1 26:1 29:1 35:1 43:1 45:1 53:1 56:1 63:1 
0.3615101460307824 1:36 2:259 3:295 5:1 13:1 18:1 23:1 27:1 33:1 35:1 43:1 45:1 53:1 56:1 63:1 
2.295492754659733 1:17 2:278 3:295 7:1 13:1 18:1 23:1 24:1 31:1 35:1 43:1 45:1 53:1 56:1 63:1 
0.6528316207558488 1:-289 2:297 3:8 5:1 13:1 18:1 23:1 24:1 30:1 38:1 43:1 45:1 52:1 58:1 59:1 
0.4123608984681091 1:-224 2:297 3:73 5:1 13:1 18:1 23:1 24:1 30:1 38:1 40:1 48:1 49:1 56:1 63:1 
1.105740580486105 1:-21 2:297 3:276 5:1 13:1 18:1 23:1 24:1 30:1 36:1 43:1 47:1 53:1 56:1 63:1 
0.283309506035585 1:-294 2:302 3:8 4:1 10:1 18:1 19:1 27:1 33:1 38:1 43:1 45:1 52:1 58:1 59:1 
0.03306345325724701 1:-201 2:302 3:101 4:1 10:1 18:1 19:1 27:1 33:1 35:1 43:1 47:1 52:1 58:1 59:1 
0.8899418793512772 1:-59 2:302 3:243 4:1 10:1 18:1 19:1 27:1 33:1 37:1 43:1 48:1 49:1 55:1 63:1 
2.145347791471097 1:230 2:75 3:305 8:1 13:1 14:1 23:1 26:1 33:1 36:1 39:1 47:1 49:1 58:1 63:1 
4 1:219 2:86 3:305 8:1 10:1 18:1 23:1 28:1 33:1 36:1 39:1 47:1 49:1 58:1 63:1 
0.7211565437035278 1:214 2:91 3:305 8:1 13:1 18:1 21:1 27:1 31:1 36:1 39:1 47:1 49:1 58:1 63:1 
1.900617010520047 1:213 2:92 3:305 8:1 13:1 16:1 22:1 26:1 29:1 36:1 39:1 47:1 49:1 58:1 63:1 
3.168918175758987 1:198 2:107 3:305 4:1 10:1 18:1 23:1 26:1 32:1 36:1 39:1 47:1 49:1 58:1 63:1 
3.268454919382148 1:150 2:155 3:305 8:1 13:1 18:1 20:1 26:1 29:1 36:1 39:1 47:1 49:1 58:1 63:1 
1.792016101533547 1:118 2:187 3:305 4:1 10:1 18:1 23:1 24:1 32:1 36:1 39:1 47:1 49:1 58:1 63:1 
1.151474359027527 1:89 2:216 3:305 7:1 10:1 18:1 23:1 28:1 30:1 36:1 39:1 47:1 49:1 58:1 63:1 
3.119246100046837 1:46 2:259 3:305 5:1 13:1 18:1 23:1 27:1 33:1 36:1 39:1 47:1 49:1 58:1 63:1 
0.0571713322267297 1:24 2:281 3:305 6:1 13:1 14:1 20:1 28:1 33:1 36:1 39:1 47:1 49:1 58:1 63:1 
1.396092666607097 1:18 2:287 3:305 8:1 12:1 17:1 19:1 27:1 33:1 36:1 39:1 47:1 49:1 58:1 63:1 
1.496126178365183 1:8 2:297 3:305 5:1 13:1 18:1 23:1 24:1 30:1 36:1 39:1 47:1 49:1 58:1 63:1 
1.007409050627735 1:231 2:77 3:308 4:1 11:1 18:1 23:1 26:1 30:1 38:1 39:1 48:1 52:1 55:1 62:1 
0.5951557213025843 1:214 2:94 3:308 6:1 11:1 17:1 19:1 28:1 32:1 38:1 39:1 48:1 52:1 55:1 62:1 
1.905695264369287 1:182 2:126 3:308 4:1 13:1 18:1 19:1 25:1 33:1 38:1 39:1 48:1 52:1 55:1 62:1 
1.113122481603369 1:151 2:157 3:308 8:1 11:1 15:1 19:1 27:1 33:1 38:1 39:1 48:1 52:1 55:1 62:1 
0.2977649830635824 1:145 2:163 3:308 8:1 10:1 18:1 23:1 28:1 30:1 38:1 39:1 48:1 52:1 55:1 62:1 
4 1:131 2:177 3:308 8:1 9:1 15:1 23:1 28:1 33:1 38:1 39:1 48:1 52:1 55:1 62:1 
1.977755425900519 1:96 2:212 3:308 8:1 10:1 18:1 22:1 25:1 33:1 38:1 39:1 48:1 52:1 55:1 62:1 
2.152692896050531 1:92 2:216 3:308 7:1 10:1 18:1 23:1 28:1 30:1 38:1 39:1 48:1 52:1 55:1 62:1 
2.395335590462317 1:49 2:259 3:308 5:1 13:1 18:1 23:1 27:1 33:1 38:1 39:1 48:1 52:1 55:1 62:1 
2.875910032360197 1:27 2:281 3:308 6:1 13:1 14:1 20:1 28:1 33:1 38:1 39:1 48:1 52:1 55:1 62:1 
0.07886513056269374 1:21 2:287 3:308 8:1 12:1 17:1 19:1 27:1 33:1 38:1 39:1 48:1 52:1 55:1 62:1 
1.42448428465433 1:6 2:302 3:308 4:1 10:1 18:1 19:1 27:1 33:1 38:1 39:1 48:1 52:1 55:1 62:1 
0.2339953031587206 1:-315 2:317 3:2 5:1 13:1 14:1 23:1 27:1 33:1 43:1 47:1 49:1 56:1 63:1 
1.37024031145991 1:-12 2:317 3:305 5:1 13:1 14:1 23:1 27:1 33:1 36:1 39:1 47:1 49:1 58:1 63:1 
1.599082793085732 1:316 2:4 3:320 7:1 13:1 14:1 23:1 28:1 30:1 36:1 43:1 47:1 52:1 57:1 60:1 
2.687795599408378 1:241 2:79 3:320 8:1 11:1 18:1 20:1 28:1 33:1 36:1 43:1 47:1 52:1 57:1 60:1 
1.450694923600187 1:234 2:86 3:320 8:1 10:1 18:1 23:1 28:1 33:1 36:1 43:1 47:1 52:1 57:1 60:1 
3.772778373022969 1:228 2:92 3:320 8:1 13:1 16:1 22:1 26:1 29:1 36:1 43:1 47:1 52:1 57:1 60:1 
1.989643236514028 1:165 2:155 3:320 8:1 13:1 18:1 20:1 26:1 29:1 36:1 43:1 47:1 52:1 57:1 60:1 
0.5753930823610695 1:157 2:163 3:320 8:1 10:1 18:1 23:1 28:1 30:1 36:1 43:1 47:1 52:1 57:1 60:1 
1.364673008479964 1:133 2:187 3:320 4:1 10:1 18:1 23:1 24:1 32:1 36:1 43:1 47:1 52:1 57:1 60:1 
1.630047396232845 1:108 2:212 3:320 8:1 10:1 18:1 22:1 25:1 33:1 36:1 43:1 47:1 52:1 57:1 60:1 
0.8940508902574082 1:61 2:259 3:320 5:1 13:1 18:1 23:1 27:1 33:1 36:1 43:1 47:1 52:1 57:1 60:1 
2.781837477570706 1:39 2:281 3:320 6:1 13:1 14:1 20:1 28:1 33:1 36:1 43:1 47:1 52:1 57:1 60:1 
0.3331124214176331 1:23 2:297 3:320 5:1 13:1 18:1 23:1 24:1 30:1 36:1 43:1 47:1 52:1 57:1 60:1 
1.250662466910029 1:256 2:75 3:331 8:1 13:1 14:1 23:1 26:1 33:1 38:1 43:1 47:1 52:1 54:1 63:1 
2.914004671746992 1:240 2:91 3:331 8:1 13:1 18:1 21:1 27:1 31:1 38:1 43:1 47:1 52:1 54:1 63:1 
2.212503306707881 1:205 2:126 3:331 4:1 13:1 18:1 19:1 25:1 33:1 38:1 43:1 47:1 52:1 54:1 63:1 
2.887484212093177 1:176 2:155 3:331 8:1 13:1 18:1 20:1 26:1 29:1 38:1 43:1 47:1 52:1 54:1 63:1 
0.01894193051313217 1:72 2:259 3:331 5:1 13:1 18:1 23:1 27:1 33:1 38:1 43:1 47:1 52:1 54:1 63:1 
0.06093880726713121 1:50 2:281 3:331 6:1 13:1 14:1 20:1 28:1 33:1 38:1 43:1 47:1 52:1 54:1 63:1 
0.08853550176492747 1:34 2:297 3:331 5:1 13:1 18:1 23:1 24:1 30:1 38:1 43:1 47:1 52:1 54:1 63:1 
4 1:29 2:302 3:331 4:1 10:1 18:1 19:1 27:1 33:1 38:1 43:1 47:1 52:1 54:1 63:1 
4 1:-277 2:350 3:73 4:1 13:1 14:1 23:1 28:1 29:1 38:1 40:1 48:1 49:1 56:1 63:1 
1.867134445452072 1:-55 2:350 3:295 4:1 13:1 14:1 23:1 28:1 29:1 35:1 43:1 45:1 53:1 56:1 63:1 
1.142481716367503 1:-45 2:350 3:305 4:1 13:1 14:1 23:1 28:1 29:1 36:1 39:1 47:1 49:1 58:1 63:1 
2.611738916329615 1:-42 2:350 3:308 4:1 13:1 14:1 23:1 28:1 29:1 38:1 39:1 48:1 52:1 55:1 62:1 
0.8826989734254927 1:-30 2:350 3:320 4:1 13:1 14:1 23:1 28:1 29:1 36:1 43:1 47:1 52:1 57:1 60:1 
1.319184066319333 1:277 2:75 3:352 8:1 13:1 14:1 23:1 26:1 33:1 34:1 41:1 48:1 49:1 54:1 63:1 
0.1403478086531456 1:261 2:91 3:352 8:1 13:1 18:1 21:1 27:1 31:1 34:1 41:1 48:1 49:1 54:1 63:1 
2.42376880018552 1:260 2:92 3:352 8:1 13:1 16:1 22:1 26:1 29:1 34:1 41:1 48:1 49:1 54:1 63:1 
0.3503200181551068 1:65 2:287 3:352 8:1 12:1 17:1 19:1 27:1 33:1 34:1 41:1 48:1 49:1 54:1 63:1 
1.936187088670511 1:50 2:302 3:352 4:1 10:1 18:1 19:1 27:1 33:1 34:1 41:1 48:1 49:1 54:1 63:1 
0.4805141506310446 1:35 2:317 3:352 5:1 13:1 14:1 23:1 27:1 33:1 34:1 41:1 48:1 49:1 54:1 63:1 
0.8034292729320711 1:-353 2:363 3:10 5:1 10:1 14:1 23:1 25:1 35:1 43:1 47:1 49:1 54:1 63:1 
0.7664031967079186 1:-120 2:363 3:243 5:1 10:1 14:1 23:1 25:1 37:1 43:1 48:1 49:1 55:1 63:1 
0.165778641710725 1:-87 2:363 3:276 5:1 10:1 14:1 23:1 25:1 36:1 43:1 47:1 53:1 56:1 63:1 
1.094340150219372 1:-55 2:363 3:308 5:1 10:1 14:1 23:1 25:1 38:1 39:1 48:1 52:1 55:1 62:1 
0.3035725599659587 1:-43 2:363 3:320 5:1 10:1 14:1 23:1 25:1 36:1 43:1 47:1 52:1 57:1 60:1 
3.251173029195215 1:-8 2:21 3:13 4:1 13:1 17:1 23:1 24:1 32:1 37:1 40:1 48:1 53:1 58:1 62:1 
1.310714568766407 1:8 2:21 3:29 4:1 13:1 17:1 23:1 24:1 32:1 37:1 43:1 45:1 49:1 58:1 63:1 
1.569595320467305 1:37 2:21 3:58 4:1 13:1 17:1 23:1 24:1 32:1 34:1 42:1 48:1 49:1 58:1 62:1 
2.200187813200335 1:-51 2:64 3:13 7:1 13:1 18:1 20:1 28:1 33:1 37:1 40:1 48:1 53:1 58:1 62:1 
2.400221007487776 1:-37 2:64 3:27 7:1 13:1 18:1 20:1 28:1 33:1 37:1 39:1 47:1 50:1 58:1 59:1 
3.900429074435756 1:-6 2:64 3:58 7:1 13:1 18:1 20:1 28:1 33:1 34:1 42:1 48:1 49:1 58:1 62:1 
0.2988960111964284 1:46 2:21 3:67 4:1 13:1 17:1 23:1 24:1 32:1 36:1 40:1 48:1 52:1 58:1 63:1 
1.975219714296609 1:49 2:21 3:70 4:1 13:1 17:1 23:1 24:1 32:1 38:1 42:1 48:1 53:1 54:1 62:1 
0.5528690646443897 1:-61 2:76 3:15 7:1 13:1 18:1 22:1 28:1 33:1 38:1 43:1 48:1 52:1 58:1 59:1 
2.260592096257773 1:-34 2:76 3:42 7:1 13:1 18:1 22:1 28:1 33:1 34:1 43:1 48:1 53:1 54:1 62:1 
3.524375423505536 1:-6 2:76 3:70 7:1 13:1 18:1 22:1 28:1 33:1 38:1 42:1 48:1 53:1 54:1 62:1 
0.6753499139701686 1:81 2:9 3:90 5:1 13:1 14:1 22:1 25:1 33:1 34:1 43:1 45:1 49:1 54:1 63:1 
0.1051297190298446 1:26 2:64 3:90 7:1 13:1 18:1 20:1 28:1 33:1 34:1 43:1 45:1 49:1 54:1 63:1 
0.6058005031985747 1:20 2:76 3:96 7:1 13:1 18:1 22:1 28:1 33:1 38:1 42:1 48:1 53:1 58:1 63:1 
0.3273789251246179 1:79 2:21 3:100 4:1 13:1 17:1 23:1 24:1 32:1 38:1 43:1 48:1 52:1 57:1 63:1 
1.693212664404281 1:-73 2:115 3:42 7:1 9:1 15:1 22:1 25:1 33:1 34:1 43:1 48:1 53:1 54:1 62:1 
0.3773864841127972 1:-57 2:115 3:58 7:1 9:1 15:1 22:1 25:1 33:1 34:1 42:1 48:1 49:1 58:1 62:1 
1.359894624048877 1:-53 2:115 3:62 7:1 9:1 15:1 22:1 25:1 33:1 34:1 43:1 47:1 53:1 56:1 60:1 
4 1:-25 2:115 3:90 7:1 9:1 15:1 22:1 25:1 33:1 34:1 43:1 45:1 49:1 54:1 63:1 
1.606835705867093 1:-19 2:115 3:96 7:1 9:1 15:1 22:1 25:1 33:1 38:1 42:1 48:1 53:1 58:1 63:1 
1.971031206268737 1:98 2:21 3:119 4:1 13:1 17:1 23:1 24:1 32:1 37:1 40:1 48:1 53:1 54:1 62:1 
1.166822145234718 1:121 2:9 3:130 5:1 13:1 14:1 22:1 25:1 33:1 35:1 40:1 48:1 53:1 57:1 60:1 
0.06704933583263467 1:109 2:21 3:130 4:1 13:1 17:1 23:1 24:1 32:1 35:1 40:1 48:1 53:1 57:1 60:1 
1.534681602535146 1:15 2:115 3:130 7:1 9:1 15:1 22:1 25:1 33:1 35:1 40:1 48:1 53:1 57:1 60:1 
0.1057667925666203 1:127 2:9 3:136 5:1 13:1 14:1 22:1 25:1 33:1 35:1 42:1 48:1 53:1 54:1 63:1 
2.657638685234992 1:-149 2:162 3:13 4:1 10:1 15:1 23:1 27:1 33:1 37:1 40:1 48:1 53:1 58:1 62:1 
0.9871175711709173 1:-135 2:162 3:27 4:1 10:1 15:1 23:1 27:1 33:1 37:1 39:1 47:1 50:1 58:1 59:1 
1.301775168459448 1:-133 2:162 3:29 4:1 10:1 15:1 23:1 27:1 33:1 37:1 43:1 45:1 49:1 58:1 63:1 
1.274029616046527 1:-121 2:162 3:41 4:1 10:1 15:1 23:1 27:1 33:1 35:1 39:1 48:1 53:1 58:1 59:1 
1.161935321947908 1:-95 2:162 3:67 4:1 10:1 15:1 23:1 27:1 33:1 36:1 40:1 48:1 52:1 58:1 63:1 
1.7486910052038 1:-72 2:162 3:90 4:1 10:1 15:1 23:1 27:1 33:1 34:1 43:1 45:1 49:1 54:1 63:1 
1.182018304317711 1:-66 2:162 3:96 4:1 10:1 15:1 23:1 27:1 33:1 38:1 42:1 48:1 53:1 58:1 63:1 
4 1:170 2:21 3:191 4:1 13:1 17:1 23:1 24:1 32:1 38:1 42:1 45:1 52:1 58:1 63:1 
4 1:127 2:64 3:191 7:1 13:1 18:1 20:1 28:1 33:1 38:1 42:1 45:1 52:1 58:1 63:1 
2.948947982067058 1:29 2:162 3:191 4:1 10:1 15:1 23:1 27:1 33:1 38:1 42:1 45:1 52:1 58:1 63:1 
4 1:-192 2:207 3:15 8:1 10:1 15:1 22:1 25:1 30:1 38:1 43:1 48:1 52:1 58:1 59:1 
0.3593567668711846 1:-149 2:207 3:58 8:1 10:1 15:1 22:1 25:1 30:1 34:1 42:1 48:1 49:1 58:1 62:1 
3.746963445768364 1:-140 2:207 3:67 8:1 10:1 15:1 22:1 25:1 30:1 36:1 40:1 48:1 52:1 58:1 63:1 
2.168238736458942 1:-137 2:207 3:70 8:1 10:1 15:1 22:1 25:1 30:1 38:1 42:1 48:1 53:1 54:1 62:1 
1.708414704903128 1:-77 2:207 3:130 8:1 10:1 15:1 22:1 25:1 30:1 35:1 40:1 48:1 53:1 57:1 60:1 
1.36584941538267 1:-71 2:207 3:136 8:1 10:1 15:1 22:1 25:1 30:1 35:1 42:1 48:1 53:1 54:1 63:1 
2.039973824431896 1:5 2:207 3:212 8:1 10:1 15:1 22:1 25:1 30:1 35:1 40:1 48:1 53:1 58:1 62:1 
0.01198671837817078 1:184 2:64 3:248 7:1 13:1 18:1 20:1 28:1 33:1 38:1 42:1 45:1 53:1 58:1 63:1 
0.6872741822093678 1:133 2:115 3:248 7:1 9:1 15:1 22:1 25:1 33:1 38:1 42:1 45:1 53:1 58:1 63:1 
0.5345032987776186 1:-221 2:263 3:42 8:1 12:1 15:1 23:1 24:1 30:1 34:1 43:1 48:1 53:1 54:1 62:1 
0.6585686037230342 1:-196 2:263 3:67 8:1 12:1 15:1 23:1 24:1 30:1 36:1 40:1 48:1 52:1 58:1 63:1 
1.758894655839013 1:-189 2:263 3:74 8:1 12:1 15:1 23:1 24:1 30:1 38:1 39:1 47:1 53:1 56:1 62:1 
1.057217794182034 1:-173 2:263 3:90 8:1 12:1 15:1 23:1 24:1 30:1 34:1 43:1 45:1 49:1 54:1 63:1 
0.002685365111932939 1:-167 2:263 3:96 8:1 12:1 15:1 23:1 24:1 30:1 38:1 42:1 48:1 53:1 58:1 63:1 
1.544094807497117 1:-163 2:263 3:100 8:1 12:1 15:1 23:1 24:1 30:1 38:1 43:1 48:1 52:1 57:1 63:1 
0.8054346944542043 1:-133 2:263 3:130 8:1 12:1 15:1 23:1 24:1 30:1 35:1 40:1 48:1 53:1 57:1 60:1 
2.061695721788397 1:-127 2:263 3:136 8:1 12:1 15:1 23:1 24:1 30:1 35:1 42:1 48:1 53:1 54:1 63:1 
3.442953604136338 1:-72 2:263 3:191 8:1 12:1 15:1 23:1 24:1 30:1 38:1 42:1 45:1 52:1 58:1 63:1 
0.381451558796388 1:264 2:9 3:273 5:1 13:1 14:1 22:1 25:1 33:1 38:1 40:1 47:1 53:1 54:1 59:1 
0.5925557311070992 1:252 2:21 3:273 4:1 13:1 17:1 23:1 24:1 32:1 38:1 40:1 47:1 53:1 54:1 59:1 
2.485389145331271 1:197 2:76 3:273 7:1 13:1 18:1 22:1 28:1 33:1 38:1 40:1 47:1 53:1 54:1 59:1 
1.001637965811822 1:158 2:115 3:273 7:1 9:1 15:1 22:1 25:1 33:1 38:1 40:1 47:1 53:1 54:1 59:1 
1.204672885078999 1:66 2:207 3:273 8:1 10:1 15:1 22:1 25:1 30:1 38:1 40:1 47:1 53:1 54:1 59:1 
3.443318794969253 1:10 2:263 3:273 8:1 12:1 15:1 23:1 24:1 30:1 38:1 40:1 47:1 53:1 54:1 59:1 
0.3750728157707349 1:116 2:162 3:278 4:1 10:1 15:1 23:1 27:1 33:1 34:1 39:1 45:1 49:1 58:1 63:1 
0.3227317269886692 1:166 2:115 3:281 7:1 9:1 15:1 22:1 25:1 33:1 38:1 39:1 48:1 49:1 54:1 59:1 
2.111406030516624 1:280 2:9 3:289 5:1 13:1 14:1 22:1 25:1 33:1 35:1 42:1 48:1 53:1 58:1 62:1 
0.7327744880283626 1:174 2:115 3:289 7:1 9:1 15:1 22:1 25:1 33:1 35:1 42:1 48:1 53:1 58:1 62:1 
2.006190560623315 1:26 2:263 3:289 8:1 12:1 15:1 23:1 24:1 30:1 35:1 42:1 48:1 53:1 58:1 62:1 
0.4427320274847271 1:270 2:21 3:291 4:1 13:1 17:1 23:1 24:1 32:1 38:1 43:1 48:1 52:1 58:1 59:1 
0.5581515330217892 1:28 2:263 3:291 8:1 12:1 15:1 23:1 24:1 30:1 38:1 43:1 48:1 52:1 58:1 59:1 
2.867317572289498 1:-40 2:63 3:23 8:1 9:1 15:1 22:1 25:1 33:1 35:1 43:1 48:1 52:1 54:1 59:1 
2.207753581731504 1:-24 2:63 3:39 8:1 9:1 15:1 22:1 25:1 33:1 35:1 43:1 48:1 53:1 58:1 59:1 
1.165621711288416 1:55 2:11 3:66 8:1 10:1 14:1 20:1 28:1 32:1 36:1 42:1 45:1 52:1 58:1 63:1 
1.546381273138382 1:54 2:17 3:71 7:1 13:1 14:1 19:1 25:1 30:1 38:1 43:1 48:1 50:1 58:1 62:1 
4 1:75 2:17 3:92 7:1 13:1 14:1 19:1 25:1 30:1 38:1 43:1 47:1 50:1 55:1 63:1 
0.3539081210542672 1:114 2:11 3:125 8:1 10:1 14:1 20:1 28:1 32:1 35:1 43:1 47:1 49:1 54:1 59:1 
0.7482899952412314 1:108 2:17 3:125 7:1 13:1 14:1 19:1 25:1 30:1 35:1 43:1 47:1 49:1 54:1 59:1 
0.07757444095108673 1:73 2:63 3:136 8:1 9:1 15:1 22:1 25:1 33:1 37:1 43:1 48:1 53:1 54:1 63:1 
2.629812430262241 1:147 2:17 3:164 7:1 13:1 14:1 19:1 25:1 30:1 38:1 42:1 48:1 53:1 54:1 60:1 
0.5848590874553443 1:-170 2:209 3:39 8:1 9:1 15:1 22:1 28:1 33:1 35:1 43:1 48:1 53:1 58:1 59:1 
0.1967577539281813 1:-84 2:209 3:125 8:1 9:1 15:1 22:1 28:1 33:1 35:1 43:1 47:1 49:1 54:1 59:1 
0.2772700073878339 1:154 2:63 3:217 8:1 9:1 15:1 22:1 25:1 33:1 38:1 42:1 48:1 53:1 54:1 62:1 
3.337612962753572 1:214 2:11 3:225 8:1 10:1 14:1 20:1 28:1 32:1 38:1 43:1 48:1 53:1 58:1 59:1 
2.504163528493182 1:162 2:63 3:225 8:1 9:1 15:1 22:1 25:1 33:1 38:1 43:1 48:1 53:1 58:1 59:1 
4 1:-232 2:245 3:13 8:1 13:1 18:1 23:1 28:1 30:1 34:1 41:1 45:1 52:1 58:1 59:1 
0.01481215291053653 1:-208 2:245 3:37 8:1 13:1 18:1 23:1 28:1 30:1 38:1 43:1 45:1 53:1 58:1 63:1 
1.892813240601587 1:-206 2:245 3:39 8:1 13:1 18:1 23:1 28:1 30:1 35:1 43:1 48:1 53:1 58:1 59:1 
0.4195643918004566 1:-179 2:245 3:66 8:1 13:1 18:1 23:1 28:1 30:1 36:1 42:1 45:1 52:1 58:1 63:1 
2.628898179850835 1:-153 2:245 3:92 8:1 13:1 18:1 23:1 28:1 30:1 38:1 43:1 47:1 50:1 55:1 63:1 
1.458000984237975 1:-120 2:245 3:125 8:1 13:1 18:1 23:1 28:1 30:1 35:1 43:1 47:1 49:1 54:1 59:1 
1.349821823332788 1:-109 2:245 3:136 8:1 13:1 18:1 23:1 28:1 30:1 37:1 43:1 48:1 53:1 54:1 63:1 
0.1443002760004996 1:-81 2:245 3:164 8:1 13:1 18:1 23:1 28:1 30:1 38:1 42:1 48:1 53:1 54:1 60:1 
4 1:-271 2:286 3:15 8:1 13:1 15:1 22:1 25:1 30:1 35:1 43:1 47:1 49:1 56:1 59:1 
1.574806412115095 1:-247 2:286 3:39 8:1 13:1 15:1 22:1 25:1 30:1 35:1 43:1 48:1 53:1 58:1 59:1 
0.1655084771623922 1:-215 2:286 3:71 8:1 13:1 15:1 22:1 25:1 30:1 38:1 43:1 48:1 50:1 58:1 62:1 
2.002204517253798 1:-194 2:286 3:92 8:1 13:1 15:1 22:1 25:1 30:1 38:1 43:1 47:1 50:1 55:1 63:1 
0.8606824146580674 1:-122 2:286 3:164 8:1 13:1 15:1 22:1 25:1 30:1 38:1 42:1 48:1 53:1 54:1 60:1 
1.480698017768699 1:-61 2:286 3:225 8:1 13:1 15:1 22:1 25:1 30:1 38:1 43:1 48:1 53:1 58:1 59:1 
1.395876840330099 1:-39 2:286 3:247 8:1 13:1 15:1 22:1 25:1 30:1 38:1 41:1 48:1 50:1 58:1 63:1 
0.5882168474179972 1:292 2:11 3:303 8:1 10:1 14:1 20:1 28:1 32:1 38:1 40:1 45:1 49:1 58:1 63:1 
2.241282477690161 1:321 2:11 3:332 8:1 10:1 14:1 20:1 28:1 32:1 38:1 39:1 48:1 53:1 54:1 63:1 
2.631595808067658 1:269 2:63 3:332 8:1 9:1 15:1 22:1 25:1 33:1 38:1 39:1 48:1 53:1 54:1 63:1 
0.6089010128943354 1:46 2:286 3:332 8:1 13:1 15:1 22:1 25:1 30:1 38:1 39:1 48:1 53:1 54:1 63:1 
1.163103044665898 1:322 2:17 3:339 7:1 13:1 14:1 19:1 25:1 30:1 35:1 43:1 44:1 52:1 57:1 60:1 
2.553806432053515 1:276 2:63 3:339 8:1 9:1 15:1 22:1 25:1 33:1 35:1 43:1 44:1 52:1 57:1 60:1 
1.85040456421844 1:344 2:17 3:361 7:1 13:1 14:1 19:1 25:1 30:1 35:1 43:1 47:1 53:1 58:1 63:1 
1.001106218122464 1:152 2:209 3:361 8:1 9:1 15:1 22:1 28:1 33:1 35:1 43:1 47:1 53:1 58:1 63:1 
0.5988209167629168 1:75 2:286 3:361 8:1 13:1 15:1 22:1 25:1 30:1 35:1 43:1 47:1 53:1 58:1 63:1 
0.2619015412604805 1:363 2:11 3:374 8:1 10:1 14:1 20:1 28:1 32:1 38:1 39:1 45:1 53:1 58:1 63:1 
0.9523934152621338 1:374 2:17 3:391 7:1 13:1 14:1 19:1 25:1 30:1 38:1 39:1 47:1 49:1 58:1 63:1 
1.459296290040871 1:105 2:286 3:391 8:1 13:1 15:1 22:1 25:1 30:1 38:1 39:1 47:1 49:1 58:1 63:1 
1.552510420547858 1:-388 2:403 3:15 8:1 12:1 15:1 23:1 27:1 33:1 35:1 43:1 47:1 49:1 56:1 59:1 
0.06330000574057132 1:-380 2:403 3:23 8:1 12:1 15:1 23:1 27:1 33:1 35:1 43:1 48:1 52:1 54:1 59:1 
0.1685502525185335 1:-332 2:403 3:71 8:1 12:1 15:1 23:1 27:1 33:1 38:1 43:1 48:1 50:1 58:1 62:1 
0.2118282732269255 1:-311 2:403 3:92 8:1 12:1 15:1 23:1 27:1 33:1 38:1 43:1 47:1 50:1 55:1 63:1 
0.007453254851683634 1:-278 2:403 3:125 8:1 12:1 15:1 23:1 27:1 33:1 35:1 43:1 47:1 49:1 54:1 59:1 
0.1755755471200183 1:-267 2:403 3:136 8:1 12:1 15:1 23:1 27:1 33:1 37:1 43:1 48:1 53:1 54:1 63:1 
0.913491790907575 1:-239 2:403 3:164 8:1 12:1 15:1 23:1 27:1 33:1 38:1 42:1 48:1 53:1 54:1 60:1 
1.405407211262078 1:-186 2:403 3:217 8:1 12:1 15:1 23:1 27:1 33:1 38:1 42:1 48:1 53:1 54:1 62:1 
0.6443905095541616 1:-107 2:403 3:296 8:1 12:1 15:1 23:1 27:1 33:1 38:1 43:1 47:1 50:1 58:1 63:1 
2.744070854865576 1:-64 2:403 3:339 8:1 12:1 15:1 23:1 27:1 33:1 35:1 43:1 44:1 52:1 57:1 60:1 
1.133138693717845 1:389 2:17 3:406 7:1 13:1 14:1 19:1 25:1 30:1 36:1 43:1 47:1 49:1 54:1 59:1 
0.9551716579732172 1:343 2:63 3:406 8:1 9:1 15:1 22:1 25:1 33:1 36:1 43:1 47:1 49:1 54:1 59:1 
0.3176829817048761 1:400 2:11 3:411 8:1 10:1 14:1 20:1 28:1 32:1 34:1 39:1 45:1 52:1 57:1 63:1 
0.7605962001785374 1:166 2:245 3:411 8:1 13:1 18:1 23:1 28:1 30:1 34:1 39:1 45:1 52:1 57:1 63:1 
0.9464407327938604 1:399 2:17 3:416 7:1 13:1 14:1 19:1 25:1 30:1 37:1 43:1 45:1 49:1 55:1 63:1 
0.7291729468817854 1:353 2:63 3:416 8:1 9:1 15:1 22:1 25:1 33:1 37:1 43:1 45:1 49:1 55:1 63:1 
0.5500300391443832 1:207 2:209 3:416 8:1 9:1 15:1 22:1 28:1 33:1 37:1 43:1 45:1 49:1 55:1 63:1 
0.3451415808955562 1:130 2:286 3:416 8:1 13:1 15:1 22:1 25:1 30:1 37:1 43:1 45:1 49:1 55:1 63:1 
1.069398198174433 1:13 2:403 3:416 8:1 12:1 15:1 23:1 27:1 33:1 37:1 43:1 45:1 49:1 55:1 63:1 
0.0842310955890494 1:214 2:245 3:459 8:1 13:1 18:1 23:1 28:1 30:1 34:1 40:1 48:1 53:1 58:1 63:1 
0.1832152069245303 1:-221 2:233 3:12 8:1 10:1 18:1 19:1 25:1 33:1 38:1 40:1 48:1 53:1 54:1 63:1 
3.707607419318256 1:2 2:258 3:260 5:1 9:1 15:1 23:1 28:1 29:1 35:1 41:1 48:1 49:1 58:1 59:1 
0.1114210727901198 1:-298 2:310 3:12 5:1 13:1 18:1 22:1 27:1 30:1 38:1 40:1 48:1 53:1 54:1 63:1 
0.2860751154714878 1:-50 2:310 3:260 5:1 13:1 18:1 22:1 27:1 30:1 35:1 41:1 48:1 49:1 58:1 59:1 
1.796300150811504 1:-425 2:437 3:12 5:1 13:1 14:1 20:1 27:1 31:1 38:1 40:1 48:1 53:1 54:1 63:1 
0.1968099019729256 1:-177 2:437 3:260 5:1 13:1 14:1 20:1 27:1 31:1 35:1 41:1 48:1 49:1 58:1 59:1 
0.06872506302406657 1:-464 2:476 3:12 7:1 10:1 16:1 23:1 25:1 31:1 38:1 40:1 48:1 53:1 54:1 63:1 
0.220092452632428 1:-467 2:479 3:12 6:1 13:1 15:1 19:1 25:1 33:1 38:1 40:1 48:1 53:1 54:1 63:1 
0.5570127526766226 1:-219 2:479 3:260 6:1 13:1 15:1 19:1 25:1 33:1 35:1 41:1 48:1 49:1 58:1 59:1 
0.2690100134532283 1:-131 2:213 3:82 8:1 9:1 15:1 19:1 25:1 32:1 38:1 43:1 48:1 50:1 58:1 63:1 
0.1921042280586229 1:-211 2:293 3:82 5:1 9:1 15:1 23:1 24:1 33:1 38:1 43:1 48:1 50:1 58:1 63:1 
1.890283228202061 1:235 2:213 3:448 8:1 9:1 15:1 19:1 25:1 32:1 35:1 42:1 48:1 49:1 58:1 59:1 
0.3496867159488556 1:155 2:293 3:448 5:1 9:1 15:1 23:1 24:1 33:1 35:1 42:1 48:1 49:1 58:1 59:1 
0.05825821708575516 1:-399 2:454 3:55 4:1 10:1 15:1 23:1 26:1 31:1 38:1 42:1 45:1 53:1 58:1 62:1 
0.0604959137697751 1:-401 2:456 3:55 5:1 11:1 18:1 21:1 26:1 30:1 38:1 42:1 45:1 53:1 58:1 62:1 
2.736010944095827 1:-8 2:456 3:448 5:1 11:1 18:1 21:1 26:1 30:1 35:1 42:1 48:1 49:1 58:1 59:1 
0.1138475458671331 1:-375 2:457 3:82 6:1 13:1 16:1 21:1 25:1 38:1 43:1 48:1 50:1 58:1 63:1 
1.974591133746254 1:-9 2:457 3:448 6:1 13:1 16:1 21:1 25:1 35:1 42:1 48:1 49:1 58:1 59:1 
4 1:-21 2:54 3:33 5:1 13:1 18:1 20:1 24:1 29:1 38:1 39:1 48:1 53:1 54:1 59:1 
1.065231508731265 1:-307 2:340 3:33 8:1 13:1 18:1 23:1 24:1 32:1 38:1 39:1 48:1 53:1 54:1 59:1 
2.723251242541124 1:60 2:308 3:368 7:1 9:1 14:1 20:1 28:1 32:1 37:1 40:1 48:1 53:1 54:1 63:1 
0.07063985200509762 1:375 2:7 3:382 5:1 13:1 14:1 19:1 27:1 30:1 35:1 43:1 48:1 49:1 58:1 60:1 
2.303168526423101 1:74 2:308 3:382 7:1 9:1 14:1 20:1 28:1 32:1 35:1 43:1 48:1 49:1 58:1 60:1 
1.716532403654054 1:162 2:65 3:227 7:1 13:1 15:1 22:1 28:1 30:1 38:1 42:1 45:1 49:1 57:1 63:1 
0.4974290009920088 1:65 2:162 3:227 7:1 13:1 18:1 20:1 26:1 30:1 38:1 42:1 45:1 49:1 57:1 63:1 
0.4275562371849564 1:63 2:164 3:227 8:1 11:1 15:1 20:1 28:1 33:1 38:1 42:1 45:1 49:1 57:1 63:1 
4 1:255 2:30 3:285 5:1 13:1 15:1 20:1 26:1 30:1 35:1 40:1 44:1 53:1 55:1 59:1 
0.07347007249772347 1:318 2:1 3:319 14:1 20:1 24:1 30:1 37:1 40:1 44:1 53:1 57:1 63:1 
0.5611659404260956 1:59 2:11 3:70 4:1 11:1 15:1 20:1 28:1 32:1 37:1 43:1 45:1 49:1 54:1 62:1 
2.727415004817334 1:-33 2:76 3:43 7:1 13:1 18:1 20:1 27:1 33:1 38:1 43:1 45:1 53:1 54:1 63:1 
2.067705474682143 1:-54 2:97 3:43 8:1 12:1 15:1 19:1 25:1 30:1 38:1 43:1 45:1 53:1 54:1 63:1 
1.27729496161619 1:-77 2:120 3:43 8:1 10:1 18:1 20:1 25:1 30:1 38:1 43:1 45:1 53:1 54:1 63:1 
1.272443207583572 1:-88 2:158 3:70 8:1 10:1 18:1 23:1 27:1 30:1 37:1 43:1 45:1 49:1 54:1 62:1 
0.378026848066407 1:-170 2:171 3:1 4:1 10:1 18:1 23:1 26:1 29:1 48:1 53:1 55:1 63:1 
1.006438801647823 1:-132 2:173 3:41 8:1 11:1 18:1 19:1 28:1 32:1 38:1 39:1 48:1 50:1 58:1 63:1 
0.9271574196660788 1:-210 2:251 3:41 5:1 13:1 15:1 23:1 28:1 30:1 38:1 39:1 48:1 50:1 58:1 63:1 
0.1182322836252939 1:359 2:11 3:370 4:1 11:1 15:1 20:1 28:1 32:1 38:1 42:1 45:1 52:1 58:1 62:1 
0.3545962714281909 1:294 2:76 3:370 7:1 13:1 18:1 20:1 27:1 33:1 38:1 42:1 45:1 52:1 58:1 62:1 
1.00254459222879 1:401 2:9 3:410 8:1 10:1 14:1 20:1 26:1 30:1 38:1 43:1 48:1 52:1 57:1 63:1 
0.7282091297753093 1:252 2:158 3:410 8:1 10:1 18:1 23:1 27:1 30:1 38:1 43:1 48:1 52:1 57:1 63:1 
0.2828060180308115 1:239 2:171 3:410 4:1 10:1 18:1 23:1 26:1 29:1 38:1 43:1 48:1 52:1 57:1 63:1 
0.01201806373771455 1:237 2:173 3:410 8:1 11:1 18:1 19:1 28:1 32:1 38:1 43:1 48:1 52:1 57:1 63:1 
0.002401903893869739 1:-384 2:425 3:41 8:1 13:1 14:1 23:1 28:1 32:1 38:1 39:1 48:1 50:1 58:1 63:1 
0.06511214817967542 1:-55 2:425 3:370 8:1 13:1 14:1 23:1 28:1 32:1 38:1 42:1 45:1 52:1 58:1 62:1 
0.2956212887318543 1:423 2:11 3:434 4:1 11:1 15:1 20:1 28:1 32:1 35:1 43:1 45:1 53:1 57:1 60:1 
0.1654321098332055 1:358 2:76 3:434 7:1 13:1 18:1 20:1 27:1 33:1 35:1 43:1 45:1 53:1 57:1 60:1 
0.09463154780333481 1:337 2:97 3:434 8:1 12:1 15:1 19:1 25:1 30:1 35:1 43:1 45:1 53:1 57:1 60:1 
2.06927370251477 1:276 2:158 3:434 8:1 10:1 18:1 23:1 27:1 30:1 35:1 43:1 45:1 53:1 57:1 60:1 
2.849137425469402 1:263 2:171 3:434 4:1 10:1 18:1 23:1 26:1 29:1 35:1 43:1 45:1 53:1 57:1 60:1 
0.6848688027313404 1:261 2:173 3:434 8:1 11:1 18:1 19:1 28:1 32:1 35:1 43:1 45:1 53:1 57:1 60:1 
1.566372730911919 1:70 2:364 3:434 5:1 13:1 18:1 23:1 27:1 33:1 35:1 43:1 45:1 53:1 57:1 60:1 
1.28693521324143 1:9 2:425 3:434 8:1 13:1 14:1 23:1 28:1 32:1 35:1 43:1 45:1 53:1 57:1 60:1 
1.542732129321328 1:17 2:1 3:18 14:1 20:1 25:1 30:1 37:1 39:1 45:1 53:1 58:1 59:1 
3.391405956845121 1:-54 2:81 3:27 7:1 10:1 17:1 19:1 28:1 33:1 38:1 39:1 45:1 49:1 56:1 63:1 
3.756118069526923 1:-92 2:110 3:18 8:1 9:1 15:1 20:1 25:1 30:1 37:1 39:1 45:1 53:1 58:1 59:1 
1.975392754206697 1:123 2:1 3:124 14:1 20:1 25:1 30:1 35:1 43:1 45:1 53:1 58:1 62:1 
2.190251216690714 1:-167 2:194 3:27 5:1 12:1 18:1 23:1 27:1 33:1 38:1 39:1 45:1 49:1 56:1 63:1 
1.360426625273293 1:-70 2:194 3:124 5:1 12:1 18:1 23:1 27:1 33:1 35:1 43:1 45:1 53:1 58:1 62:1 
1.149190765890022 1:-208 2:226 3:18 4:1 10:1 14:1 19:1 27:1 29:1 37:1 39:1 45:1 53:1 58:1 59:1 
0.09875274850580729 1:91 2:81 3:172 4:1 13:1 14:1 19:1 24:1 33:1 35:1 42:1 48:1 50:1 54:1 63:1 
1.131432748196619 1:127 2:81 3:208 4:1 13:1 14:1 19:1 24:1 33:1 38:1 43:1 45:1 50:1 58:1 60:1 
1.226279204788697 1:260 2:8 3:268 8:1 10:1 14:1 20:1 28:1 33:1 35:1 43:1 48:1 53:1 54:1 59:1 
0.4051427255583084 1:349 2:8 3:357 8:1 10:1 14:1 20:1 28:1 33:1 35:1 43:1 48:1 52:1 58:1 59:1 
4 1:4 2:31 3:35 8:1 13:1 14:1 23:1 27:1 30:1 38:1 42:1 45:1 53:1 58:1 63:1 
3.000202005174138 1:17 2:31 3:48 8:1 13:1 14:1 23:1 27:1 30:1 37:1 42:1 45:1 53:1 57:1 63:1 
3.523357524031394 1:-104 2:116 3:12 8:1 13:1 18:1 19:1 28:1 31:1 35:1 43:1 47:1 49:1 54:1 63:1 
1.808423271351605 1:-68 2:116 3:48 8:1 13:1 18:1 19:1 28:1 31:1 37:1 42:1 45:1 53:1 57:1 63:1 
3.480362030480018 1:-51 2:116 3:65 8:1 13:1 18:1 19:1 28:1 31:1 38:1 43:1 45:1 49:1 58:1 63:1 
1.854383705728572 1:-100 2:119 3:19 6:1 9:1 18:1 19:1 25:1 31:1 34:1 40:1 48:1 53:1 58:1 59:1 
4 1:-84 2:119 3:35 6:1 9:1 18:1 19:1 25:1 31:1 38:1 42:1 45:1 53:1 58:1 63:1 
2.099853034918037 1:-110 2:122 3:12 6:1 9:1 15:1 19:1 27:1 33:1 35:1 43:1 47:1 49:1 54:1 63:1 
3.47328412545286 1:-85 2:122 3:37 6:1 9:1 15:1 19:1 27:1 33:1 35:1 43:1 48:1 53:1 58:1 62:1 
0.9546795688561769 1:-128 2:140 3:12 8:1 12:1 15:1 22:1 25:1 32:1 35:1 43:1 47:1 49:1 54:1 63:1 
3.895823297885433 1:-121 2:140 3:19 8:1 12:1 15:1 22:1 25:1 32:1 34:1 40:1 48:1 53:1 58:1 59:1 
2.048431031000985 1:-105 2:140 3:35 8:1 12:1 15:1 22:1 25:1 32:1 38:1 42:1 45:1 53:1 58:1 63:1 
4 1:-138 2:150 3:12 8:1 9:1 15:1 23:1 28:1 32:1 35:1 43:1 47:1 49:1 54:1 63:1 
4 1:-113 2:150 3:37 8:1 9:1 15:1 23:1 28:1 32:1 35:1 43:1 48:1 53:1 58:1 62:1 
0.7367776589913774 1:128 2:31 3:159 8:1 13:1 14:1 23:1 27:1 30:1 34:1 40:1 48:1 49:1 58:1 59:1 
1.989741619387854 1:40 2:119 3:159 6:1 9:1 18:1 19:1 25:1 31:1 34:1 40:1 48:1 49:1 58:1 59:1 
0.5704448412477415 1:-156 2:168 3:12 7:1 9:1 17:1 23:1 28:1 33:1 35:1 43:1 47:1 49:1 54:1 63:1 
2.103752631122598 1:56 2:116 3:172 8:1 13:1 18:1 19:1 28:1 31:1 38:1 43:1 48:1 53:1 56:1 62:1 
0.1659550636226344 1:50 2:122 3:172 6:1 9:1 15:1 19:1 27:1 33:1 38:1 43:1 48:1 53:1 56:1 62:1 
0.4580818432689763 1:-109 2:174 3:65 8:1 13:1 18:1 22:1 28:1 33:1 38:1 43:1 45:1 49:1 58:1 63:1 
1.582517109459943 1:156 2:31 3:187 8:1 13:1 14:1 23:1 27:1 30:1 34:1 40:1 44:1 53:1 54:1 63:1 
1.5995940667875 1:47 2:140 3:187 8:1 12:1 15:1 22:1 25:1 32:1 34:1 40:1 44:1 53:1 54:1 63:1 
0.03247968563312954 1:185 2:7 3:192 5:1 13:1 14:1 22:1 25:1 33:1 34:1 43:1 47:1 53:1 57:1 63:1 
1.866675860467389 1:161 2:31 3:192 8:1 13:1 14:1 23:1 27:1 30:1 34:1 43:1 47:1 53:1 57:1 63:1 
0.6371572249588962 1:168 2:31 3:199 8:1 13:1 14:1 23:1 27:1 30:1 35:1 43:1 48:1 52:1 54:1 59:1 
0.7196539181428026 1:83 2:116 3:199 8:1 13:1 18:1 19:1 28:1 31:1 35:1 43:1 48:1 52:1 54:1 59:1 
1.938872754762798 1:49 2:150 3:199 8:1 9:1 15:1 23:1 28:1 32:1 35:1 43:1 48:1 52:1 54:1 59:1 
0.1134005348875489 1:25 2:174 3:199 8:1 13:1 18:1 22:1 28:1 33:1 35:1 43:1 48:1 52:1 54:1 59:1 
4 1:-5 2:5 3:0 6:1 13:1 18:1 20:1 28:1 32:1 49:1 56:1 63:1 
0.005669022219023874 1:-62 2:65 3:3 7:1 13:1 14:1 20:1 25:1 30:1 38:1 39:1 46:1 53:1 56:1 60:1 
4 1:58 2:22 3:80 7:1 9:1 15:1 23:1 24:1 30:1 35:1 43:1 47:1 49:1 54:1 63:1 
2.367857875498362 1:15 2:65 3:80 7:1 13:1 14:1 20:1 25:1 30:1 35:1 43:1 47:1 49:1 54:1 63:1 
3.395606610300568 1:-27 2:107 3:80 8:1 12:1 18:1 22:1 28:1 33:1 35:1 43:1 47:1 49:1 54:1 63:1 
0.2513046916605353 1:-135 2:138 3:3 8:1 13:1 14:1 23:1 28:1 30:1 38:1 39:1 46:1 53:1 56:1 60:1 
1.099123537008015 1:-144 2:147 3:3 5:1 13:1 14:1 20:1 28:1 32:1 38:1 39:1 46:1 53:1 56:1 60:1 
0.7756176677253761 1:-67 2:147 3:80 5:1 13:1 14:1 20:1 28:1 32:1 35:1 43:1 47:1 49:1 54:1 63:1 
0.4089181140452228 1:227 2:5 3:232 6:1 13:1 18:1 20:1 28:1 32:1 37:1 39:1 45:1 52:1 58:1 62:1 
0.6368798703345997 1:125 2:107 3:232 8:1 12:1 18:1 22:1 28:1 33:1 37:1 39:1 45:1 52:1 58:1 62:1 
0.437905903221172 1:-253 2:253 3:0 8:1 13:1 18:1 19:1 27:1 33:1 49:1 56:1 63:1 
0.5601325538332872 1:-250 2:253 3:3 8:1 13:1 18:1 19:1 27:1 33:1 38:1 39:1 46:1 53:1 56:1 60:1 
3.735978316093156 1:-21 2:253 3:232 8:1 13:1 18:1 19:1 27:1 33:1 37:1 39:1 45:1 52:1 58:1 62:1 
0.9238696387457512 1:-259 2:262 3:3 4:1 13:1 15:1 22:1 27:1 30:1 38:1 39:1 46:1 53:1 56:1 60:1 
2.097545756650013 1:-182 2:262 3:80 4:1 13:1 15:1 22:1 27:1 30:1 35:1 43:1 47:1 49:1 54:1 63:1 
2.250272697709602 1:-336 2:339 3:3 5:1 10:1 15:1 22:1 25:1 33:1 38:1 39:1 46:1 53:1 56:1 60:1 
3.691877065425008 1:-277 2:357 3:80 5:1 10:1 15:1 22:1 25:1 33:1 35:1 43:1 47:1 49:1 54:1 63:1 
1.879483790945468 1:-125 2:357 3:232 5:1 10:1 15:1 22:1 25:1 33:1 37:1 39:1 45:1 52:1 58:1 62:1 
0.9135657205631967 1:334 2:29 3:363 5:1 10:1 15:1 19:1 25:1 31:1 38:1 40:1 48:1 52:1 58:1 59:1 
1.200543821680173 1:225 2:138 3:363 8:1 13:1 14:1 23:1 28:1 30:1 38:1 40:1 48:1 52:1 58:1 59:1 
3.560272559228336 1:110 2:253 3:363 8:1 13:1 18:1 19:1 27:1 33:1 38:1 40:1 48:1 52:1 58:1 59:1 
0.6033690086845576 1:101 2:262 3:363 4:1 13:1 15:1 22:1 27:1 30:1 38:1 40:1 48:1 52:1 58:1 59:1 
2.621159992177749 1:-300 2:380 3:80 5:1 10:1 18:1 20:1 24:1 29:1 35:1 43:1 47:1 49:1 54:1 63:1 
0.08718676039227075 1:-479 2:479 3:0 8:1 12:1 18:1 23:1 24:1 30:1 49:1 56:1 63:1 
1.501589632543439 1:-476 2:479 3:3 8:1 12:1 18:1 23:1 24:1 30:1 38:1 39:1 46:1 53:1 56:1 60:1 
0.1869975896429903 1:-247 2:479 3:232 8:1 12:1 18:1 23:1 24:1 30:1 37:1 39:1 45:1 52:1 58:1 62:1 
0.01602418205755551 1:-484 2:484 3:0 4:1 10:1 18:1 22:1 27:1 33:1 49:1 56:1 63:1 
1.133149206941477 1:486 2:5 3:491 6:1 13:1 18:1 20:1 28:1 32:1 34:1 40:1 45:1 53:1 55:1 63:1 
1.736070376850959 1:450 2:41 3:491 8:1 10:1 18:1 22:1 25:1 33:1 34:1 40:1 45:1 53:1 55:1 63:1 
2.406407884242787 1:426 2:65 3:491 7:1 13:1 14:1 20:1 25:1 30:1 34:1 40:1 45:1 53:1 55:1 63:1 
1.105261912018064 1:384 2:107 3:491 8:1 12:1 18:1 22:1 28:1 33:1 34:1 40:1 45:1 53:1 55:1 63:1 
0.007215843174118164 1:378 2:113 3:491 8:1 13:1 18:1 20:1 28:1 33:1 34:1 40:1 45:1 53:1 55:1 63:1 
0.08098012405708183 1:353 2:138 3:491 8:1 13:1 14:1 23:1 28:1 30:1 34:1 40:1 45:1 53:1 55:1 63:1 
0.0506885680254768 1:344 2:147 3:491 5:1 13:1 14:1 20:1 28:1 32:1 34:1 40:1 45:1 53:1 55:1 63:1 
1.679977544689273 1:229 2:262 3:491 4:1 13:1 15:1 22:1 27:1 30:1 34:1 40:1 45:1 53:1 55:1 63:1 
1.006015805095398 1:180 2:311 3:491 8:1 9:1 18:1 19:1 27:1 30:1 34:1 40:1 45:1 53:1 55:1 63:1 
0.2089546071455428 1:152 2:339 3:491 5:1 10:1 15:1 22:1 25:1 33:1 34:1 40:1 45:1 53:1 55:1 63:1 
0.179472068043017 1:134 2:357 3:491 5:1 10:1 15:1 22:1 25:1 33:1 34:1 40:1 45:1 53:1 55:1 63:1 
0.08973898419090272 1:111 2:380 3:491 5:1 10:1 18:1 20:1 24:1 29:1 34:1 40:1 45:1 53:1 55:1 63:1 
0.5377084143630244 1:12 2:479 3:491 8:1 12:1 18:1 23:1 24:1 30:1 34:1 40:1 45:1 53:1 55:1 63:1 
4 1:-2 2:4 3:2 7:1 13:1 14:1 23:1 28:1 33:1 43:1 47:1 49:1 56:1 63:1 
0.7945692330239802 1:-28 2:30 3:2 8:1 11:1 15:1 23:1 28:1 29:1 43:1 47:1 49:1 56:1 63:1 
0.5634226780390733 1:-82 2:84 3:2 4:1 10:1 14:1 23:1 27:1 33:1 43:1 47:1 49:1 56:1 63:1 
1.696074381905512 1:-200 2:202 3:2 8:1 10:1 18:1 23:1 25:1 33:1 43:1 47:1 49:1 56:1 63:1 
4 1:-3 2:3 3:0 8:1 9:1 16:1 23:1 28:1 29:1 49:1 56:1 61:1 
0.8930853927651244 1:91 2:3 3:94 8:1 9:1 16:1 23:1 28:1 29:1 37:1 40:1 48:1 49:1 58:1 63:1 
0.4057290705518073 1:-110 2:138 3:28 8:1 13:1 15:1 20:1 25:1 33:1 38:1 43:1 48:1 53:1 54:1 60:1 
1.782573819199558 1:145 2:3 3:148 8:1 9:1 16:1 23:1 28:1 29:1 38:1 40:1 48:1 53:1 57:1 63:1 
1.339919972154463 1:10 2:138 3:148 8:1 13:1 15:1 20:1 25:1 33:1 38:1 40:1 48:1 53:1 57:1 63:1 
0.9558252299440343 1:40 2:138 3:178 8:1 13:1 15:1 20:1 25:1 33:1 35:1 42:1 48:1 52:1 58:1 62:1 
0.03513115285162186 1:-202 2:202 3:0 7:1 11:1 15:1 20:1 26:1 30:1 49:1 56:1 61:1 
0.9030227778032256 1:-54 2:202 3:148 7:1 11:1 15:1 20:1 26:1 30:1 38:1 40:1 48:1 53:1 57:1 63:1 
1.093404579584791 1:-26 2:204 3:178 5:1 11:1 15:1 20:1 26:1 30:1 35:1 42:1 48:1 52:1 58:1 62:1 
2.042450166568421 1:-129 2:206 3:77 5:1 11:1 15:1 20:1 26:1 33:1 38:1 42:1 48:1 53:1 57:1 59:1 
1.06906888013216 1:-123 2:206 3:83 5:1 11:1 15:1 20:1 26:1 33:1 34:1 40:1 48:1 53:1 58:1 63:1 
2.03158856836315 1:-180 2:208 3:28 5:1 11:1 15:1 23:1 26:1 33:1 38:1 43:1 48:1 53:1 54:1 60:1 
1.773438221467293 1:-60 2:208 3:148 5:1 11:1 15:1 23:1 26:1 33:1 38:1 40:1 48:1 53:1 57:1 63:1 
2.364612701655392 1:-30 2:208 3:178 5:1 11:1 15:1 23:1 26:1 33:1 35:1 42:1 48:1 52:1 58:1 62:1 
0.3622196038883699 1:-136 2:213 3:77 6:1 13:1 15:1 23:1 28:1 32:1 38:1 42:1 48:1 53:1 57:1 59:1 
0.5570040566543478 1:-35 2:213 3:178 6:1 13:1 15:1 23:1 28:1 32:1 35:1 42:1 48:1 52:1 58:1 62:1 
3.664087834707355 1:83 2:138 3:221 8:1 13:1 15:1 20:1 25:1 33:1 34:1 43:1 48:1 50:1 58:1 60:1 
1.674516031224401 1:17 2:204 3:221 5:1 11:1 15:1 20:1 26:1 30:1 34:1 43:1 48:1 50:1 58:1 60:1 
0.06823586781945756 1:11 2:210 3:221 5:1 11:1 18:1 23:1 25:1 31:1 34:1 43:1 48:1 50:1 58:1 60:1 
1.015092523277482 1:8 2:213 3:221 6:1 13:1 15:1 23:1 28:1 32:1 34:1 43:1 48:1 50:1 58:1 60:1 
0.3897861587237901 1:19 2:208 3:227 5:1 11:1 15:1 23:1 26:1 33:1 35:1 43:1 48:1 52:1 58:1 63:1 
2.586271893230244 1:14 2:213 3:227 6:1 13:1 15:1 23:1 28:1 32:1 35:1 43:1 48:1 52:1 58:1 63:1 
0.3149736499747588 1:227 2:3 3:230 8:1 9:1 16:1 23:1 28:1 29:1 38:1 42:1 48:1 49:1 58:1 59:1 
1.244732842679616 1:92 2:138 3:230 8:1 13:1 15:1 20:1 25:1 33:1 38:1 42:1 48:1 49:1 58:1 59:1 
0.736948721837118 1:26 2:204 3:230 5:1 11:1 15:1 20:1 26:1 30:1 38:1 42:1 48:1 49:1 58:1 59:1 
2.558082888604156 1:22 2:208 3:230 5:1 11:1 15:1 23:1 26:1 33:1 38:1 42:1 48:1 49:1 58:1 59:1 
2.006278761771014 1:-216 2:244 3:28 7:1 13:1 18:1 19:1 28:1 33:1 38:1 43:1 48:1 53:1 54:1 60:1 
3.367431898287933 1:-206 2:244 3:38 7:1 13:1 18:1 19:1 28:1 33:1 35:1 43:1 48:1 52:1 58:1 63:1 
3.865585237162966 1:-14 2:244 3:230 7:1 13:1 18:1 19:1 28:1 33:1 38:1 42:1 48:1 49:1 58:1 59:1 
0.6002977233790711 1:-219 2:257 3:38 8:1 12:1 18:1 23:1 27:1 30:1 35:1 43:1 48:1 52:1 58:1 63:1 
0.8682587196230359 1:-174 2:257 3:83 8:1 12:1 18:1 23:1 27:1 30:1 34:1 40:1 48:1 53:1 58:1 63:1 
0.5405056192306441 1:-109 2:257 3:148 8:1 12:1 18:1 23:1 27:1 30:1 38:1 40:1 48:1 53:1 57:1 63:1 
0.3738840727247912 1:-79 2:257 3:178 8:1 12:1 18:1 23:1 27:1 30:1 35:1 42:1 48:1 52:1 58:1 62:1 
0.1672129029562332 1:555 2:3 3:558 6:1 9:1 18:1 22:1 28:1 29:1 38:1 39:1 45:1 49:1 58:1 63:1 
0.2318777008394243 1:492 2:66 3:558 8:1 13:1 15:1 19:1 28:1 29:1 38:1 39:1 45:1 49:1 58:1 63:1 
0.2296809333389034 1:404 2:154 3:558 8:1 12:1 18:1 19:1 25:1 33:1 38:1 39:1 45:1 49:1 58:1 63:1 
0.2173299599566549 1:333 2:225 3:558 6:1 9:1 14:1 23:1 25:1 29:1 38:1 39:1 45:1 49:1 58:1 63:1 
0.2274427649713672 1:323 2:235 3:558 8:1 10:1 15:1 23:1 27:1 30:1 38:1 39:1 45:1 49:1 58:1 63:1 
0.1421819754921659 1:290 2:268 3:558 5:1 13:1 18:1 20:1 25:1 31:1 38:1 39:1 45:1 49:1 58:1 63:1 
0.1362160280309193 1:287 2:271 3:558 6:1 10:1 15:1 22:1 27:1 30:1 38:1 39:1 45:1 49:1 58:1 63:1 
0.1938636914443756 1:273 2:285 3:558 6:1 9:1 18:1 19:1 24:1 32:1 38:1 39:1 45:1 49:1 58:1 63:1 
0.2323693753071928 1:26 2:532 3:558 5:1 9:1 18:1 22:1 28:1 33:1 38:1 39:1 45:1 49:1 58:1 63:1 
0.2322377783179479 1:615 2:3 3:618 6:1 9:1 18:1 22:1 28:1 29:1 34:1 40:1 48:1 52:1 55:1 
0.23230939810102 1:574 2:44 3:618 4:1 10:1 18:1 22:1 28:1 29:1 34:1 40:1 48:1 52:1 55:1 
0.2278308811376581 1:552 2:66 3:618 8:1 13:1 15:1 19:1 28:1 29:1 34:1 40:1 48:1 52:1 55:1 
0.2326065774179267 1:509 2:109 3:618 5:1 9:1 18:1 22:1 28:1 33:1 34:1 40:1 48:1 52:1 55:1 
0.2323062943822753 1:464 2:154 3:618 8:1 12:1 18:1 19:1 25:1 33:1 34:1 40:1 48:1 52:1 55:1 
0.2322119231014562 1:449 2:169 3:618 8:1 9:1 18:1 19:1 28:1 29:1 34:1 40:1 48:1 52:1 55:1 
0.1411435684792078 1:396 2:222 3:618 4:1 10:1 17:1 19:1 24:1 31:1 34:1 40:1 48:1 52:1 55:1 
0.1438164459219217 1:393 2:225 3:618 6:1 9:1 14:1 23:1 25:1 29:1 34:1 40:1 48:1 52:1 55:1 
0.2318770139775795 1:86 2:532 3:618 5:1 9:1 18:1 22:1 28:1 33:1 34:1 40:1 48:1 52:1 55:1 
1.592748045578144 1:79 2:0 3:79 23:1 28:1 33:1 34:1 42:1 45:1 53:1 57:1 63:1 
2.168124925030095 1:21 2:54 3:75 8:1 13:1 18:1 23:1 24:1 33:1 38:1 43:1 44:1 53:1 54:1 60:1 
0.3822677406806959 1:58 2:54 3:112 8:1 13:1 18:1 23:1 24:1 33:1 38:1 40:1 48:1 53:1 54:1 62:1 
0.5842922449897077 1:92 2:54 3:146 8:1 13:1 18:1 23:1 24:1 33:1 38:1 39:1 44:1 49:1 54:1 63:1 
3.085358910112031 1:-136 2:177 3:41 8:1 9:1 14:1 23:1 25:1 32:1 38:1 42:1 45:1 53:1 57:1 63:1 
0.4201937894042979 1:-102 2:177 3:75 8:1 9:1 14:1 23:1 25:1 32:1 38:1 43:1 44:1 53:1 54:1 60:1 
1.019613326159924 1:-96 2:177 3:81 8:1 9:1 14:1 23:1 25:1 32:1 35:1 43:1 48:1 49:1 54:1 62:1 
0.9157814193826702 1:-45 2:177 3:132 8:1 9:1 14:1 23:1 25:1 32:1 37:1 43:1 48:1 49:1 58:1 59:1 
0.9025221055623089 1:-31 2:177 3:146 8:1 9:1 14:1 23:1 25:1 32:1 38:1 39:1 44:1 49:1 54:1 63:1 
2.071934868209111 1:-101 2:182 3:81 5:1 12:1 18:1 23:1 25:1 33:1 35:1 43:1 48:1 49:1 54:1 62:1 
0.03089610155287227 1:-70 2:182 3:112 5:1 12:1 18:1 23:1 25:1 33:1 38:1 40:1 48:1 53:1 54:1 62:1 
4 1:-107 2:219 3:112 8:1 13:1 14:1 23:1 28:1 30:1 38:1 40:1 48:1 53:1 54:1 62:1 
4 1:-2 2:219 3:217 8:1 13:1 14:1 23:1 28:1 30:1 34:1 40:1 48:1 49:1 56:1 63:1 
0.2621970544766215 1:-243 2:284 3:41 5:1 9:1 14:1 22:1 24:1 30:1 38:1 42:1 45:1 53:1 57:1 63:1 
0.05616220254289123 1:-152 2:284 3:132 5:1 9:1 14:1 22:1 24:1 30:1 37:1 43:1 48:1 49:1 58:1 59:1 
0.0774531578218032 1:-311 2:352 3:41 8:1 13:1 15:1 20:1 24:1 33:1 38:1 42:1 45:1 53:1 57:1 63:1 
3.620839698140935 1:-277 2:352 3:75 8:1 13:1 15:1 20:1 24:1 33:1 38:1 43:1 44:1 53:1 54:1 60:1 
3.14937693395659 1:-220 2:352 3:132 8:1 13:1 15:1 20:1 24:1 33:1 37:1 43:1 48:1 49:1 58:1 59:1 
1.803816563830289 1:-144 2:361 3:217 8:1 12:1 15:1 22:1 25:1 32:1 34:1 40:1 48:1 49:1 56:1 63:1 
0.4824474356986841 1:-327 2:368 3:41 8:1 9:1 18:1 23:1 24:1 33:1 38:1 42:1 45:1 53:1 57:1 63:1 
0.1799662495358788 1:-287 2:368 3:81 8:1 9:1 18:1 23:1 24:1 33:1 35:1 43:1 48:1 49:1 54:1 62:1 
0.6343982381542457 1:-236 2:368 3:132 8:1 9:1 18:1 23:1 24:1 33:1 37:1 43:1 48:1 49:1 58:1 59:1 
0.1124605463634948 1:-350 2:391 3:41 4:1 13:1 14:1 20:1 28:1 29:1 38:1 42:1 45:1 53:1 57:1 63:1 
0.2325384807053568 1:510 2:54 3:564 8:1 13:1 18:1 23:1 24:1 33:1 38:1 40:1 47:1 52:1 58:1 59:1 
0.2052258115895398 1:382 2:182 3:564 5:1 12:1 18:1 23:1 25:1 33:1 38:1 40:1 47:1 52:1 58:1 59:1 
0.227178560315877 1:345 2:219 3:564 8:1 13:1 14:1 23:1 28:1 30:1 38:1 40:1 47:1 52:1 58:1 59:1 
0.1917523646101019 1:280 2:284 3:564 5:1 9:1 14:1 22:1 24:1 30:1 38:1 40:1 47:1 52:1 58:1 59:1 
0.1967270091989676 1:203 2:361 3:564 8:1 12:1 15:1 22:1 25:1 32:1 38:1 40:1 47:1 52:1 58:1 59:1 
0.1968719780975691 1:196 2:368 3:564 8:1 9:1 18:1 23:1 24:1 33:1 38:1 40:1 47:1 52:1 58:1 59:1 
1.865186489420602 1:-138 2:147 3:9 5:1 9:1 17:1 23:1 27:1 33:1 38:1 42:1 48:1 49:1 58:1 60:1 
1.884228206447398 1:142 2:170 3:312 4:1 13:1 14:1 19:1 25:1 33:1 34:1 43:1 44:1 53:1 54:1 59:1 
0.5537462145895748 1:-55 2:348 3:293 4:1 10:1 15:1 21:1 26:1 30:1 38:1 39:1 45:1 50:1 54:1 63:1 
0.3276724365321051 1:-56 2:349 3:293 5:1 10:1 16:1 21:1 25:1 38:1 39:1 45:1 50:1 54:1 63:1 
0.2718793328340104 1:-57 2:350 3:293 5:1 11:1 16:1 20:1 38:1 39:1 45:1 50:1 54:1 63:1 
4 1:-15 2:49 3:34 7:1 13:1 14:1 20:1 28:1 32:1 35:1 40:1 45:1 50:1 58:1 63:1 
2.931948527799278 1:-24 2:58 3:34 8:1 9:1 15:1 23:1 27:1 33:1 35:1 40:1 45:1 50:1 58:1 63:1 
2.223390958529919 1:4 2:58 3:62 8:1 9:1 15:1 23:1 27:1 33:1 38:1 42:1 48:1 50:1 57:1 59:1 
1.068343705180749 1:-110 2:144 3:34 4:1 9:1 15:1 23:1 27:1 33:1 35:1 40:1 45:1 50:1 58:1 63:1 
4 1:-135 2:169 3:34 7:1 9:1 15:1 22:1 28:1 29:1 35:1 40:1 45:1 50:1 58:1 63:1 
1.866974538724325 1:-164 2:176 3:12 4:1 11:1 18:1 20:1 26:1 33:1 38:1 43:1 45:1 49:1 56:1 62:1 
0.4345363114374002 1:-144 2:178 3:34 8:1 11:1 15:1 23:1 24:1 29:1 35:1 40:1 45:1 50:1 58:1 63:1 
1.305451910575907 1:-124 2:186 3:62 8:1 13:1 15:1 23:1 24:1 32:1 38:1 42:1 48:1 50:1 57:1 59:1 
4 1:-196 2:208 3:12 8:1 9:1 17:1 23:1 25:1 32:1 38:1 43:1 45:1 49:1 56:1 62:1 
0.6190756076316748 1:-174 2:208 3:34 8:1 9:1 17:1 23:1 25:1 32:1 35:1 40:1 45:1 50:1 58:1 63:1 
4 1:-207 2:219 3:12 7:1 9:1 15:1 23:1 28:1 32:1 38:1 43:1 45:1 49:1 56:1 62:1 
1.820050639979396 1:-185 2:219 3:34 7:1 9:1 15:1 23:1 28:1 32:1 35:1 40:1 45:1 50:1 58:1 63:1 
1.316391925133955 1:-202 2:264 3:62 4:1 9:1 15:1 23:1 28:1 33:1 38:1 42:1 48:1 50:1 57:1 59:1 
4 1:-241 2:303 3:62 8:1 9:1 15:1 19:1 27:1 32:1 38:1 42:1 48:1 50:1 57:1 59:1 
0.7764253625105999 1:35 2:169 3:204 7:1 10:1 14:1 23:1 27:1 33:1 34:1 40:1 48:1 53:1 55:1 63:1 
1.852928176537491 1:-161 2:212 3:51 8:1 10:1 14:1 20:1 28:1 33:1 35:1 43:1 45:1 52:1 58:1 63:1 
0.9966547148791224 1:65 2:212 3:277 8:1 10:1 14:1 20:1 28:1 33:1 34:1 43:1 45:1 49:1 56:1 63:1 
0.1221272942174325 1:-269 2:279 3:10 5:1 13:1 14:1 23:1 25:1 33:1 34:1 41:1 45:1 50:1 58:1 62:1 
1.366230481421354 1:-228 2:279 3:51 5:1 13:1 14:1 23:1 25:1 33:1 35:1 43:1 45:1 52:1 58:1 63:1 
2.738645897192563 1:-115 2:279 3:164 5:1 13:1 14:1 23:1 25:1 33:1 34:1 42:1 45:1 53:1 57:1 60:1 
1.305866098266354 1:-75 2:279 3:204 5:1 13:1 14:1 23:1 25:1 33:1 34:1 40:1 48:1 53:1 55:1 63:1 
0.423663263380566 1:-286 2:296 3:10 4:1 9:1 15:1 22:1 25:1 29:1 34:1 41:1 45:1 50:1 58:1 62:1 
0.6393577529988718 1:-245 2:296 3:51 4:1 9:1 15:1 22:1 25:1 29:1 35:1 43:1 45:1 52:1 58:1 63:1 
2.191012645208616 1:49 2:66 3:115 5:1 9:1 18:1 20:1 25:1 33:1 38:1 39:1 48:1 50:1 54:1 63:1 
1.053421876153741 1:-36 2:88 3:52 4:1 9:1 17:1 23:1 28:1 29:1 35:1 43:1 48:1 52:1 58:1 62:1 
2.997473351259749 1:151 2:88 3:239 4:1 9:1 17:1 23:1 28:1 29:1 35:1 40:1 45:1 49:1 58:1 62:1 
2.597641101193166 1:166 2:88 3:254 4:1 9:1 17:1 23:1 28:1 29:1 35:1 43:1 45:1 52:1 54:1 62:1 
1.785647887123106 1:-225 2:258 3:33 7:1 9:1 17:1 23:1 25:1 30:1 35:1 43:1 45:1 49:1 58:1 62:1 
1.248365814110117 1:-206 2:258 3:52 7:1 9:1 17:1 23:1 25:1 30:1 35:1 43:1 48:1 52:1 58:1 62:1 
1.522134818534888 1:-200 2:258 3:58 7:1 9:1 17:1 23:1 25:1 30:1 37:1 43:1 45:1 49:1 58:1 62:1 
0.003921391555991496 1:-163 2:258 3:95 7:1 9:1 17:1 23:1 25:1 30:1 34:1 39:1 47:1 52:1 58:1 59:1 
4 1:-50 2:258 3:208 7:1 9:1 17:1 23:1 25:1 30:1 38:1 43:1 45:1 49:1 58:1 62:1 
0.1854900417777733 1:76 2:258 3:334 7:1 9:1 17:1 23:1 25:1 30:1 35:1 43:1 45:1 49:1 57:1 60:1 
0.5035700025298847 1:11 2:1 3:12 18:1 20:1 28:1 30:1 35:1 41:1 45:1 52:1 58:1 59:1 
4 1:-14 2:26 3:12 8:1 10:1 17:1 19:1 24:1 30:1 35:1 41:1 45:1 52:1 58:1 59:1 
0.5731804532382604 1:113 2:26 3:139 8:1 10:1 17:1 19:1 24:1 30:1 34:1 42:1 47:1 53:1 58:1 63:1 
2.003938576126612 1:150 2:1 3:151 18:1 20:1 28:1 30:1 38:1 42:1 45:1 53:1 54:1 63:1 
1.096554639787633 1:125 2:26 3:151 8:1 10:1 17:1 19:1 24:1 30:1 38:1 42:1 45:1 53:1 54:1 63:1 
0.2366736633449457 1:-153 2:154 3:1 8:1 12:1 15:1 23:1 28:1 29:1 48:1 53:1 55:1 63:1 
2.53189576004403 1:-12 2:154 3:142 8:1 12:1 15:1 23:1 28:1 29:1 38:1 39:1 45:1 53:1 55:1 63:1 
2.152331909215618 1:-27 2:169 3:142 4:1 13:1 15:1 23:1 28:1 33:1 38:1 39:1 45:1 53:1 55:1 63:1 
1.095861804642087 1:-112 2:224 3:112 7:1 10:1 18:1 23:1 28:1 29:1 35:1 40:1 44:1 49:1 58:1 62:1 
0.5847920440259365 1:-192 2:304 3:112 5:1 10:1 18:1 20:1 28:1 30:1 35:1 40:1 44:1 49:1 58:1 62:1 
0.2454405321966013 1:155 2:154 3:309 8:1 12:1 15:1 23:1 28:1 29:1 38:1 40:1 48:1 49:1 58:1 63:1 
3.071763971147929 1:199 2:154 3:353 8:1 12:1 15:1 23:1 28:1 29:1 35:1 43:1 47:1 53:1 58:1 63:1 
1.602238504339473 1:184 2:169 3:353 4:1 13:1 15:1 23:1 28:1 33:1 35:1 43:1 47:1 53:1 58:1 63:1 
0.7158636936602115 1:358 2:9 3:367 8:1 10:1 14:1 20:1 28:1 29:1 37:1 42:1 45:1 53:1 58:1 62:1 
1.875415868688016 1:213 2:154 3:367 8:1 12:1 15:1 23:1 28:1 29:1 37:1 42:1 45:1 53:1 58:1 62:1 
1.58758963112877 1:198 2:169 3:367 4:1 13:1 15:1 23:1 28:1 33:1 37:1 42:1 45:1 53:1 58:1 62:1 
2.837368744476261 1:148 2:224 3:372 7:1 10:1 18:1 23:1 28:1 29:1 38:1 42:1 48:1 50:1 58:1 62:1 
0.1150867704293161 1:213 2:169 3:382 4:1 13:1 15:1 23:1 28:1 33:1 35:1 43:1 47:1 49:1 58:1 59:1 
0.2661296894736407 1:158 2:224 3:382 7:1 10:1 18:1 23:1 28:1 29:1 35:1 43:1 47:1 49:1 58:1 59:1 
2.18897810524598 1:184 2:52 3:236 7:1 10:1 18:1 22:1 25:1 30:1 38:1 42:1 45:1 49:1 58:1 59:1 
1.787453156367905 1:148 2:88 3:236 4:1 10:1 18:1 22:1 28:1 32:1 38:1 42:1 45:1 49:1 58:1 59:1 
2.533752939103859 1:31 2:205 3:236 7:1 10:1 18:1 23:1 27:1 30:1 38:1 42:1 45:1 49:1 58:1 59:1 
0.5577790056335562 1:46 2:13 3:59 7:1 9:1 18:1 23:1 24:1 30:1 37:1 43:1 45:1 49:1 55:1 60:1 
4 1:-4 2:63 3:59 4:1 10:1 15:1 19:1 25:1 33:1 37:1 43:1 45:1 49:1 55:1 60:1 
2.364258303524366 1:73 2:7 3:80 5:1 13:1 14:1 22:1 25:1 32:1 35:1 43:1 45:1 49:1 55:1 60:1 
3.528146473243104 1:30 2:50 3:80 8:1 12:1 15:1 20:1 25:1 33:1 35:1 43:1 45:1 49:1 55:1 60:1 
0.4368316738217717 1:36 2:63 3:99 4:1 10:1 15:1 19:1 25:1 33:1 38:1 43:1 45:1 50:1 58:1 60:1 
3.389174282106798 1:-12 2:111 3:99 4:1 12:1 15:1 20:1 25:1 33:1 38:1 43:1 45:1 50:1 58:1 60:1 
1.450332582696977 1:-58 2:117 3:59 8:1 13:1 15:1 22:1 28:1 30:1 37:1 43:1 45:1 49:1 55:1 60:1 
2.628897510596151 1:-37 2:117 3:80 8:1 13:1 15:1 22:1 28:1 30:1 35:1 43:1 45:1 49:1 55:1 60:1 
0.6348933093686766 1:183 2:50 3:233 8:1 12:1 15:1 20:1 25:1 33:1 38:1 43:1 45:1 53:1 57:1 62:1 
1.507638952593412 1:116 2:117 3:233 8:1 13:1 15:1 22:1 28:1 30:1 38:1 43:1 45:1 53:1 57:1 62:1 
2.016842771074937 1:60 2:173 3:233 8:1 9:1 14:1 23:1 27:1 33:1 38:1 43:1 45:1 53:1 57:1 62:1 
0.188734524118947 1:-200 2:299 3:99 7:1 12:1 14:1 23:1 24:1 30:1 38:1 43:1 45:1 50:1 58:1 60:1 
1.397968505033876 1:-66 2:299 3:233 7:1 12:1 14:1 23:1 24:1 30:1 38:1 43:1 45:1 53:1 57:1 62:1 
1.298155024922111 1:75 2:188 3:263 4:1 13:1 17:1 20:1 24:1 33:1 34:1 42:1 48:1 50:1 58:1 63:1 
2.71389509482808 1:10 2:253 3:263 8:1 13:1 15:1 19:1 25:1 33:1 34:1 42:1 48:1 50:1 58:1 63:1 
1.146964739671881 1:-40 2:303 3:263 8:1 10:1 15:1 21:1 25:1 34:1 42:1 48:1 50:1 58:1 63:1 
1.175932990750856 1:40 2:37 3:77 5:1 13:1 14:1 22:1 25:1 33:1 34:1 39:1 48:1 52:1 58:1 59:1 
0.7392500937686141 1:-17 2:94 3:77 5:1 13:1 14:1 23:1 28:1 32:1 34:1 39:1 48:1 52:1 58:1 59:1 
0.3290168656318516 1:-287 2:298 3:11 5:1 13:1 15:1 19:1 25:1 30:1 35:1 40:1 48:1 53:1 57:1 59:1 
0.3196800529982483 1:8 2:8 3:16 8:1 10:1 14:1 20:1 28:1 29:1 38:1 43:1 48:1 52:1 58:1 63:1 
0.8560052368648933 1:-30 2:30 3:0 7:1 13:1 15:1 23:1 28:1 30:1 53:1 55:1 63:1 
4 1:-20 2:30 3:10 7:1 13:1 15:1 23:1 28:1 30:1 34:1 41:1 45:1 49:1 56:1 63:1 
1.79390819355887 1:-8 2:30 3:22 7:1 13:1 15:1 23:1 28:1 30:1 38:1 43:1 48:1 53:1 58:1 63:1 
1.656590450229797 1:14 2:30 3:44 7:1 13:1 15:1 23:1 28:1 30:1 38:1 43:1 48:1 53:1 58:1 59:1 
2.039595702100202 1:141 2:12 3:153 5:1 13:1 14:1 23:1 28:1 33:1 38:1 39:1 45:1 49:1 55:1 63:1 
0.6332880321897267 1:151 2:8 3:159 8:1 10:1 14:1 20:1 28:1 29:1 38:1 39:1 45:1 49:1 56:1 60:1 
3.500986975531211 1:-145 2:161 3:16 5:1 13:1 14:1 20:1 28:1 29:1 38:1 43:1 48:1 52:1 58:1 63:1 
2.033352714072874 1:-117 2:161 3:44 5:1 13:1 14:1 20:1 28:1 29:1 38:1 43:1 48:1 53:1 58:1 59:1 
0.5196347861352063 1:155 2:8 3:163 8:1 10:1 14:1 20:1 28:1 29:1 34:1 41:1 45:1 49:1 56:1 60:1 
4 1:-9 2:165 3:156 5:1 13:1 14:1 20:1 28:1 33:1 38:1 39:1 45:1 49:1 55:1 63:1 
2.179449247366153 1:2 2:165 3:167 5:1 13:1 14:1 20:1 28:1 33:1 34:1 41:1 45:1 53:1 54:1 61:1 
4 1:-160 2:170 3:10 8:1 13:1 14:1 23:1 28:1 32:1 34:1 41:1 45:1 49:1 56:1 63:1 
1.672154768284386 1:-41 2:170 3:129 8:1 13:1 14:1 23:1 28:1 32:1 34:1 39:1 47:1 53:1 54:1 60:1 
4 1:-7 2:170 3:163 8:1 13:1 14:1 23:1 28:1 32:1 34:1 41:1 45:1 49:1 56:1 60:1 
1.047986385602452 1:164 2:8 3:172 8:1 10:1 14:1 20:1 28:1 29:1 34:1 41:1 48:1 52:1 56:1 61:1 
0.4583417733694473 1:160 2:12 3:172 5:1 13:1 14:1 23:1 28:1 33:1 34:1 41:1 48:1 52:1 56:1 61:1 
3.00157231067897 1:11 2:161 3:172 5:1 13:1 14:1 20:1 28:1 29:1 34:1 41:1 48:1 52:1 56:1 61:1 
0.1511500178957513 1:2 2:170 3:172 8:1 13:1 14:1 23:1 28:1 32:1 34:1 41:1 48:1 52:1 56:1 61:1 
1.730497077848944 1:-174 2:174 3:0 8:1 13:1 17:1 21:1 28:1 32:1 53:1 55:1 63:1 
0.02391368240906399 1:-158 2:174 3:16 8:1 13:1 17:1 21:1 28:1 32:1 38:1 43:1 48:1 52:1 58:1 63:1 
0.3255858465663568 1:-130 2:174 3:44 8:1 13:1 17:1 21:1 28:1 32:1 38:1 43:1 48:1 53:1 58:1 59:1 
2.382947832441956 1:-45 2:174 3:129 8:1 13:1 17:1 21:1 28:1 32:1 34:1 39:1 47:1 53:1 54:1 60:1 
1.828320135649588 1:-18 2:174 3:156 8:1 13:1 17:1 21:1 28:1 32:1 38:1 39:1 45:1 49:1 55:1 63:1 
4 1:-7 2:174 3:167 8:1 13:1 17:1 21:1 28:1 32:1 34:1 41:1 45:1 53:1 54:1 61:1 
4 1:-2 2:174 3:172 8:1 13:1 17:1 21:1 28:1 32:1 34:1 41:1 48:1 52:1 56:1 61:1 
0.7365352831540507 1:-159 2:175 3:16 8:1 12:1 16:1 23:1 27:1 33:1 38:1 43:1 48:1 52:1 58:1 63:1 
0.2737287377279665 1:-153 2:175 3:22 8:1 12:1 16:1 23:1 27:1 33:1 38:1 43:1 48:1 53:1 58:1 63:1 
1.971808783123627 1:145 2:20 3:165 7:1 11:1 15:1 20:1 26:1 30:1 35:1 42:1 48:1 53:1 54:1 60:1 
0.2685545387965954 1:141 2:24 3:165 5:1 11:1 15:1 23:1 24:1 33:1 35:1 42:1 48:1 53:1 54:1 60:1 
3.922344421753909 1:125 2:40 3:165 7:1 12:1 15:1 19:1 27:1 33:1 35:1 42:1 48:1 53:1 54:1 60:1 
0.04238186445429146 1:129 2:40 3:169 7:1 12:1 15:1 19:1 27:1 33:1 38:1 39:1 45:1 53:1 55:1 63:1 
4 1:152 2:20 3:172 7:1 11:1 15:1 20:1 26:1 30:1 38:1 43:1 45:1 49:1 56:1 60:1 
2.520621690532092 1:152 2:24 3:176 5:1 11:1 15:1 23:1 24:1 33:1 34:1 41:1 45:1 49:1 57:1 63:1 
2.13495469771647 1:136 2:40 3:176 7:1 12:1 15:1 19:1 27:1 33:1 34:1 41:1 45:1 49:1 57:1 63:1 
2.037310567541808 1:2 2:174 3:176 5:1 13:1 14:1 20:1 28:1 29:1 34:1 41:1 45:1 49:1 57:1 63:1 
1.582183168544151 1:161 2:18 3:179 4:1 9:1 17:1 20:1 26:1 30:1 38:1 39:1 47:1 49:1 56:1 60:1 
1.194090927490379 1:-12 2:181 3:169 7:1 13:1 14:1 20:1 28:1 29:1 38:1 39:1 45:1 53:1 55:1 63:1 
3.582789253464586 1:-9 2:181 3:172 7:1 13:1 14:1 20:1 28:1 29:1 38:1 43:1 45:1 49:1 56:1 60:1 
0.7289717641296491 1:165 2:18 3:183 4:1 9:1 17:1 20:1 26:1 30:1 34:1 41:1 45:1 49:1 56:1 60:1 
2.515287248270555 1:9 2:174 3:183 5:1 13:1 14:1 20:1 28:1 29:1 34:1 41:1 45:1 49:1 56:1 60:1 
4 1:2 2:181 3:183 7:1 13:1 14:1 20:1 28:1 29:1 34:1 41:1 45:1 49:1 56:1 60:1 
1.283346259214951 1:-20 2:185 3:165 5:1 13:1 14:1 20:1 28:1 29:1 35:1 42:1 48:1 53:1 54:1 60:1 
0.6910836293574485 1:169 2:18 3:187 4:1 9:1 17:1 20:1 26:1 30:1 34:1 41:1 45:1 49:1 56:1 63:1 
4 1:165 2:22 3:187 5:1 11:1 15:1 20:1 26:1 33:1 34:1 41:1 45:1 49:1 56:1 63:1 
4 1:-6 2:189 3:183 5:1 13:1 14:1 23:1 25:1 33:1 34:1 41:1 45:1 49:1 56:1 60:1 
1.506831904475242 1:61 2:7 3:68 5:1 13:1 14:1 22:1 25:1 33:1 34:1 40:1 45:1 49:1 55:1 63:1 
2.624739895291965 1:-60 2:73 3:13 5:1 13:1 14:1 23:1 28:1 32:1 38:1 39:1 45:1 53:1 54:1 61:1 
4 1:-88 2:101 3:13 8:1 9:1 17:1 19:1 25:1 29:1 38:1 39:1 45:1 53:1 54:1 61:1 
0.8754060290440892 1:-33 2:101 3:68 8:1 9:1 17:1 19:1 25:1 29:1 34:1 40:1 45:1 49:1 55:1 63:1 
0.1510979902191843 1:137 2:73 3:210 5:1 13:1 14:1 23:1 28:1 32:1 35:1 43:1 47:1 49:1 54:1 59:1 
0.2048488936627942 1:-214 2:224 3:10 8:1 9:1 15:1 22:1 25:1 32:1 36:1 42:1 45:1 49:1 55:1 63:1 
0.9381028546737018 1:-211 2:224 3:13 8:1 9:1 15:1 22:1 25:1 32:1 38:1 39:1 45:1 53:1 54:1 61:1 
3.287601879621124 1:-14 2:224 3:210 8:1 9:1 15:1 22:1 25:1 32:1 35:1 43:1 47:1 49:1 54:1 59:1 
1.319008934439942 1:-110 2:320 3:210 8:1 13:1 15:1 22:1 25:1 33:1 35:1 43:1 47:1 49:1 54:1 59:1 
0.06734961460626686 1:28 2:11 3:39 8:1 13:1 14:1 22:1 28:1 33:1 38:1 42:1 47:1 49:1 58:1 59:1 
0.689238968133591 1:-41 2:80 3:39 8:1 13:1 18:1 20:1 28:1 33:1 38:1 42:1 47:1 49:1 58:1 59:1 
0.1184180214853202 1:-75 2:104 3:29 8:1 9:1 14:1 23:1 28:1 32:1 34:1 39:1 44:1 50:1 58:1 60:1 
0.2256262458933631 1:-65 2:104 3:39 8:1 9:1 14:1 23:1 28:1 32:1 38:1 42:1 47:1 49:1 58:1 59:1 
1.448589868706756 1:-29 2:104 3:75 8:1 9:1 14:1 23:1 28:1 32:1 34:1 40:1 45:1 49:1 58:1 63:1 
0.5970715784484516 1:-111 2:140 3:29 7:1 9:1 18:1 23:1 27:1 33:1 34:1 39:1 44:1 50:1 58:1 60:1 
1.046151805895231 1:-65 2:140 3:75 7:1 9:1 18:1 23:1 27:1 33:1 34:1 40:1 45:1 49:1 58:1 63:1 
0.02664254170082692 1:199 2:11 3:210 8:1 13:1 14:1 22:1 28:1 33:1 38:1 40:1 47:1 53:1 54:1 63:1 
0.04086362018333191 1:-330 2:359 3:29 4:1 10:1 16:1 23:1 24:1 30:1 34:1 39:1 44:1 50:1 58:1 60:1 
0.7182262874040199 1:-284 2:359 3:75 4:1 10:1 16:1 23:1 24:1 30:1 34:1 40:1 45:1 49:1 58:1 63:1 
0.9533319603284618 1:306 2:80 3:386 8:1 13:1 18:1 20:1 28:1 33:1 38:1 42:1 45:1 52:1 56:1 60:1 
0.09128643600786068 1:282 2:104 3:386 8:1 9:1 14:1 23:1 28:1 32:1 38:1 42:1 45:1 52:1 56:1 60:1 
0.1705498508375349 1:28 2:358 3:386 5:1 9:1 15:1 21:1 28:1 29:1 38:1 42:1 45:1 52:1 56:1 60:1 
0.3923914054215902 1:-359 2:388 3:29 5:1 13:1 17:1 20:1 27:1 30:1 34:1 39:1 44:1 50:1 58:1 60:1 
1.950573074939203 1:-178 2:388 3:210 5:1 13:1 17:1 20:1 27:1 30:1 38:1 40:1 47:1 53:1 54:1 63:1 
0.4549962045947223 1:-431 2:460 3:29 5:1 10:1 14:1 20:1 34:1 39:1 44:1 50:1 58:1 60:1 
1.91371461922316 1:-421 2:460 3:39 5:1 10:1 14:1 20:1 38:1 42:1 47:1 49:1 58:1 59:1 
0.1363547677153495 1:-385 2:460 3:75 5:1 10:1 14:1 20:1 34:1 40:1 45:1 49:1 58:1 63:1 
0.2205481635240613 1:-250 2:460 3:210 5:1 10:1 14:1 20:1 38:1 40:1 47:1 53:1 54:1 63:1 
0.2433788506459103 1:291 2:191 3:482 4:1 13:1 18:1 19:1 27:1 33:1 38:1 43:1 48:1 50:1 
0.6956334438447097 1:66 2:0 3:66 21:1 27:1 33:1 38:1 39:1 48:1 53:1 54:1 63:1 
4 1:-7 2:73 3:66 8:1 13:1 14:1 20:1 28:1 33:1 38:1 39:1 48:1 53:1 54:1 63:1 
4 1:-14 2:80 3:66 8:1 13:1 14:1 23:1 25:1 33:1 38:1 39:1 48:1 53:1 54:1 63:1 
0.001439506173392988 1:58 2:73 3:131 8:1 13:1 14:1 20:1 28:1 33:1 34:1 39:1 45:1 49:1 54:1 59:1 
2.554041168003529 1:-27 2:158 3:131 7:1 9:1 18:1 20:1 28:1 32:1 34:1 39:1 45:1 49:1 54:1 59:1 
0.999911470096556 1:-130 2:196 3:66 7:1 13:1 14:1 23:1 27:1 30:1 38:1 39:1 48:1 53:1 54:1 63:1 
1.676325081366324 1:-163 2:229 3:66 5:1 13:1 14:1 20:1 28:1 29:1 38:1 39:1 48:1 53:1 54:1 63:1 
0.06706263250725282 1:-291 2:422 3:131 5:1 13:1 15:1 19:1 26:1 33:1 34:1 39:1 45:1 49:1 54:1 59:1 
0.1032420098126822 1:-293 2:424 3:131 5:1 11:1 14:1 23:1 24:1 30:1 34:1 39:1 45:1 49:1 54:1 59:1 
0.07882348530670541 1:-390 2:456 3:66 8:1 13:1 14:1 23:1 24:1 29:1 38:1 39:1 48:1 53:1 54:1 63:1 
0.6452093534458777 1:-325 2:456 3:131 8:1 13:1 14:1 23:1 24:1 29:1 34:1 39:1 45:1 49:1 54:1 59:1 
0.4444350191964197 1:-340 2:471 3:131 8:1 10:1 14:1 23:1 27:1 33:1 34:1 39:1 45:1 49:1 54:1 59:1 
0.2096025881108033 1:-430 2:496 3:66 5:1 13:1 15:1 23:1 24:1 32:1 38:1 39:1 48:1 53:1 54:1 63:1 
0.2176590298373893 1:-443 2:509 3:66 4:1 13:1 14:1 23:1 24:1 32:1 38:1 39:1 48:1 53:1 54:1 63:1 
0.1859074368897773 1:-378 2:509 3:131 4:1 13:1 14:1 23:1 24:1 32:1 34:1 39:1 45:1 49:1 54:1 59:1 
0.2106508922051782 1:-386 2:517 3:131 5:1 13:1 18:1 23:1 24:1 33:1 34:1 39:1 45:1 49:1 54:1 59:1 
2.327340965450471 1:-6 2:13 3:7 5:1 13:1 14:1 20:1 24:1 33:1 35:1 43:1 45:1 49:1 56:1 60:1 
3.133170520334822 1:-34 2:41 3:7 8:1 10:1 18:1 19:1 25:1 29:1 35:1 43:1 45:1 49:1 56:1 60:1 
1.290507850132292 1:38 2:13 3:51 5:1 13:1 14:1 20:1 24:1 33:1 34:1 40:1 47:1 49:1 54:1 63:1 
2.438651759281332 1:-98 2:109 3:11 4:1 10:1 17:1 19:1 28:1 33:1 34:1 41:1 45:1 49:1 56:1 60:1 
1.183041087305981 1:-91 2:109 3:18 4:1 10:1 17:1 19:1 28:1 33:1 34:1 43:1 44:1 53:1 58:1 59:1 
1.784412987031797 1:-58 2:109 3:51 4:1 10:1 17:1 19:1 28:1 33:1 34:1 40:1 47:1 49:1 54:1 63:1 
0.5548774660981 1:148 2:9 3:157 5:1 13:1 14:1 20:1 28:1 29:1 34:1 43:1 44:1 49:1 57:1 63:1 
0.8713488222395802 1:48 2:109 3:157 4:1 10:1 17:1 19:1 28:1 33:1 34:1 43:1 44:1 49:1 57:1 63:1 
4 1:-170 2:181 3:11 5:1 12:1 18:1 19:1 25:1 33:1 34:1 41:1 45:1 49:1 56:1 60:1 
0.1190681676072437 1:207 2:9 3:216 5:1 13:1 14:1 20:1 28:1 29:1 38:1 40:1 48:1 53:1 58:1 63:1 
3.403495419446867 1:175 2:41 3:216 8:1 10:1 18:1 19:1 25:1 29:1 38:1 40:1 48:1 53:1 58:1 63:1 
0.1851566443489774 1:-270 2:281 3:11 5:1 13:1 15:1 20:1 25:1 33:1 34:1 41:1 45:1 49:1 56:1 60:1 
2.831518834878454 1:-263 2:281 3:18 5:1 13:1 15:1 20:1 25:1 33:1 34:1 43:1 44:1 53:1 58:1 59:1 
1.034128238416872 1:-124 2:281 3:157 5:1 13:1 15:1 20:1 25:1 33:1 34:1 43:1 44:1 49:1 57:1 63:1 
4 1:-65 2:281 3:216 5:1 13:1 15:1 20:1 25:1 33:1 38:1 40:1 48:1 53:1 58:1 63:1 
0.9017776040585229 1:-130 2:287 3:157 8:1 13:1 18:1 19:1 28:1 29:1 34:1 43:1 44:1 49:1 57:1 63:1 
1.665442932877194 1:153 2:145 3:298 7:1 9:1 15:1 19:1 28:1 33:1 34:1 40:1 44:1 51:1 54:1 63:1 
0.08522938615964917 1:-292 2:299 3:7 5:1 9:1 18:1 19:1 28:1 33:1 35:1 43:1 45:1 49:1 56:1 60:1 
1.724843789392256 1:-288 2:299 3:11 5:1 9:1 18:1 19:1 28:1 33:1 34:1 41:1 45:1 49:1 56:1 60:1 
1.758343207736079 1:-281 2:299 3:18 5:1 9:1 18:1 19:1 28:1 33:1 34:1 43:1 44:1 53:1 58:1 59:1 
0.5447599136053152 1:-248 2:299 3:51 5:1 9:1 18:1 19:1 28:1 33:1 34:1 40:1 47:1 49:1 54:1 63:1 
