svm_type c_svc
kernel_type rbf
gamma 0.0103093
nr_class 2
total_sv 14140
rho -0.985072
label -1 1
nr_sv 9550 4590
SV
0.01400276645719352 1:-15 13:1 15:1 37:1 44:1 56:1 73:1 85:1 86:1 
4 1:-257 13:1 20:1 37:1 39:1 56:1 73:1 85:1 86:1 
4 1:-98 13:1 20:1 37:1 39:1 56:1 62:1 75:1 92:1 
1.033183388193947 1:-140 9:1 25:1 27:1 45:1 56:1 62:1 75:1 92:1 
1.782814861394382 1:214 2:1 21:1 36:1 49:1 51:1 73:1 85:1 92:1 
0.6414188912962924 1:47 13:1 20:1 37:1 39:1 51:1 73:1 85:1 92:1 
0.6810690128163913 1:-322 9:1 25:1 37:1 49:1 56:1 73:1 85:1 86:1 
4 1:-11 11:1 15:1 37:1 45:1 51:1 69:1 76:1 92:1 
2.952809842191618 1:19 11:1 15:1 37:1 45:1 61:1 68:1 80:1 89:1 
2.675434013167077 1:21 11:1 15:1 37:1 45:1 53:1 68:1 85:1 88:1 
2.623623504011437 1:-34 8:1 21:1 26:1 44:1 61:1 68:1 80:1 89:1 
0.2108936353728592 1:-32 8:1 21:1 26:1 44:1 53:1 68:1 85:1 88:1 
3.751804759023811 1:-97 13:1 20:1 32:1 49:1 56:1 73:1 83:1 87:1 
1.425222013881166 1:-192 13:1 20:1 26:1 44:1 61:1 68:1 80:1 89:1 
0.8208218968112067 1:-190 13:1 20:1 26:1 44:1 53:1 68:1 85:1 88:1 
1.971688538988936 1:302 11:1 15:1 37:1 45:1 56:1 63:1 85:1 94:1 
1.889337502486222 1:208 13:1 20:1 32:1 49:1 56:1 63:1 85:1 94:1 
1.07877700976566 1:91 13:1 20:1 26:1 44:1 56:1 63:1 85:1 94:1 
1.4967242632616 1:-321 3:1 20:1 26:1 44:1 53:1 68:1 85:1 88:1 
4 1:-40 3:1 20:1 26:1 44:1 56:1 63:1 85:1 94:1 
4 1:-5 8:1 15:1 26:1 44:1 56:1 73:1 75:1 90:1 
2.357894793441463 1:-59 2:1 20:1 26:1 44:1 56:1 73:1 75:1 90:1 
4 1:-47 2:1 20:1 26:1 44:1 57:1 68:1 83:1 90:1 
4 1:-85 3:1 20:1 33:1 40:1 56:1 73:1 75:1 90:1 
0.9014796649826431 1:-73 3:1 20:1 33:1 40:1 57:1 68:1 83:1 90:1 
2.702655557417132 1:-50 3:1 20:1 33:1 40:1 61:1 63:1 80:1 93:1 
1.848566666500392 1:104 5:1 15:1 32:1 39:1 61:1 68:1 85:1 86:1 
1.035229669394828 1:92 5:1 23:1 37:1 45:1 61:1 68:1 85:1 86:1 
1.458200299776787 1:47 2:1 20:1 26:1 44:1 61:1 68:1 85:1 86:1 
4 1:21 3:1 20:1 33:1 40:1 61:1 68:1 85:1 86:1 
1.219495351843856 1:113 5:1 23:1 37:1 45:1 61:1 68:1 75:1 93:1 
3.110089369015026 1:68 2:1 20:1 26:1 44:1 61:1 68:1 75:1 93:1 
2.155082267586015 1:42 3:1 20:1 33:1 40:1 61:1 68:1 75:1 93:1 
1.406408853510398 1:-119 9:1 25:1 33:1 39:1 57:1 68:1 83:1 90:1 
2.363185035107205 1:-25 9:1 25:1 33:1 39:1 61:1 68:1 85:1 86:1 
4 1:-4 9:1 25:1 33:1 39:1 61:1 68:1 75:1 93:1 
1.446614536989576 1:121 5:1 23:1 37:1 45:1 51:1 73:1 75:1 97:1 
1.926278465782308 1:76 2:1 20:1 26:1 44:1 51:1 73:1 75:1 97:1 
0.5025967548857965 1:50 3:1 20:1 33:1 40:1 51:1 73:1 75:1 97:1 
3.665933757622361 1:-128 8:1 22:1 27:1 44:1 57:1 68:1 83:1 90:1 
4 1:61 3:1 20:1 33:1 40:1 61:1 62:1 75:1 97:1 
1.642212508931276 1:-153 3:1 20:1 26:1 44:1 57:1 68:1 83:1 90:1 
4 1:-38 3:1 20:1 26:1 44:1 61:1 68:1 75:1 93:1 
4 1:-30 3:1 20:1 26:1 44:1 51:1 73:1 75:1 97:1 
3.113218289204518 1:-19 3:1 20:1 26:1 44:1 61:1 62:1 75:1 97:1 
2.016174420526923 1:176 5:1 23:1 37:1 45:1 57:1 62:1 81:1 87:1 
0.08320874665340122 1:131 2:1 20:1 26:1 44:1 57:1 62:1 81:1 87:1 
1.283862722625835 1:105 3:1 20:1 33:1 40:1 57:1 62:1 81:1 87:1 
0.1487214612027636 1:50 8:1 22:1 27:1 44:1 57:1 62:1 81:1 87:1 
0.417577486885967 1:25 3:1 20:1 26:1 44:1 57:1 62:1 81:1 87:1 
0.387934163995169 1:-30 2:1 14:1 37:1 42:1 54:1 68:1 75:1 92:1 
0.6907035740132669 1:-70 13:1 20:1 37:1 45:1 61:1 69:1 76:1 92:1 
1.733094855193355 1:-47 13:1 20:1 37:1 45:1 51:1 72:1 75:1 87:1 
4 1:1 9:1 15:1 29:1 38:1 51:1 66:1 74:1 97:1 
1.719369310710277 1:-61 3:1 15:1 32:1 42:1 51:1 72:1 75:1 87:1 
4 1:-9 3:1 15:1 32:1 42:1 51:1 66:1 74:1 97:1 
4 1:-11 6:1 20:1 32:1 42:1 51:1 66:1 74:1 97:1 
0.121973184233084 1:-13 6:1 20:1 32:1 42:1 51:1 66:1 74:1 97:1 
0.3455793406406545 1:59 13:1 25:1 27:1 49:1 54:1 68:1 75:1 97:1 
2.303902541931024 1:66 13:1 25:1 27:1 49:1 54:1 72:1 75:1 90:1 
1.003448961875399 1:57 2:1 14:1 37:1 42:1 54:1 72:1 75:1 90:1 
0.6291981134713925 1:29 13:1 20:1 37:1 45:1 54:1 72:1 75:1 90:1 
4 1:-89 5:1 15:1 27:1 39:1 54:1 68:1 75:1 92:1 
4 1:-9 5:1 15:1 27:1 39:1 54:1 68:1 75:1 97:1 
4 1:-115 3:1 20:1 26:1 44:1 51:1 72:1 75:1 87:1 
4 1:-46 3:1 20:1 26:1 44:1 54:1 68:1 75:1 97:1 
2.210375917379154 1:-199 2:1 20:1 32:1 45:1 61:1 69:1 76:1 92:1 
3.585188835341827 1:-187 2:1 20:1 32:1 45:1 54:1 68:1 75:1 92:1 
0.9932351993361009 1:-124 2:1 20:1 32:1 45:1 51:1 66:1 74:1 97:1 
2.190124003810263 1:-107 2:1 20:1 32:1 45:1 54:1 68:1 75:1 97:1 
3.737389864215567 1:-100 2:1 20:1 32:1 45:1 54:1 72:1 75:1 90:1 
2.778661824194341 1:-234 6:1 20:1 37:1 38:1 61:1 69:1 76:1 92:1 
3.135587105565275 1:-135 6:1 20:1 37:1 38:1 54:1 72:1 75:1 90:1 
4 1:35 6:1 20:1 26:1 44:1 50:1 68:1 75:1 90:1 
4 1:30 13:1 25:1 34:1 38:1 50:1 68:1 75:1 90:1 
1.518080129660527 1:96 13:1 15:1 32:1 42:1 56:1 69:1 75:1 87:1 
3.743751922065467 1:94 6:1 20:1 26:1 44:1 56:1 69:1 75:1 87:1 
4 1:-7 9:1 25:1 32:1 44:1 50:1 68:1 75:1 92:1 
1.103293647980155 1:38 4:1 18:1 37:1 49:1 50:1 68:1 75:1 90:1 
4 1:2 5:1 15:1 32:1 41:1 54:1 68:1 75:1 97:1 
4 1:-35 13:1 25:1 26:1 49:1 50:1 68:1 75:1 92:1 
4 1:-23 13:1 25:1 26:1 49:1 56:1 68:1 85:1 97:1 
4 1:-6 13:1 25:1 26:1 49:1 54:1 68:1 75:1 97:1 
0.1360100454155868 1:22 5:1 15:1 32:1 41:1 56:1 68:1 85:1 97:1 
0.9518498180606453 1:-32 3:1 15:1 33:1 49:1 56:1 68:1 85:1 97:1 
2.218350795365172 1:181 8:1 15:1 33:1 49:1 56:1 68:1 85:1 97:1 
0.2133374876237427 1:178 9:1 25:1 32:1 44:1 56:1 68:1 85:1 97:1 
4 1:104 3:1 15:1 33:1 49:1 56:1 68:1 85:1 97:1 
4 1:-11 13:1 18:1 33:1 49:1 76:1 92:1 
4 1:6 5:1 25:1 30:1 45:1 58:1 73:1 75:1 97:1 
0.6363773882574063 1:30 5:1 25:1 30:1 45:1 56:1 73:1 75:1 97:1 
0.9943203348887095 1:-42 8:1 20:1 26:1 44:1 58:1 73:1 75:1 97:1 
4 1:-18 8:1 20:1 26:1 44:1 56:1 73:1 75:1 97:1 
0.06887527134990447 1:-158 3:1 14:1 37:1 49:1 56:1 73:1 85:1 90:1 
0.04499126613226421 1:-163 2:1 19:1 26:1 39:1 58:1 73:1 75:1 97:1 
0.941783697154806 1:133 8:1 20:1 26:1 44:1 56:1 62:1 74:1 94:1 
1.580757839858858 1:69 3:1 14:1 37:1 49:1 50:1 68:1 84:1 88:1 
1.586046709437616 1:196 8:1 14:1 27:1 49:1 56:1 69:1 85:1 92:1 
0.2674608709410082 1:86 8:1 14:1 27:1 38:1 56:1 69:1 85:1 92:1 
0.3732901560143733 1:-273 8:1 21:1 27:1 45:1 61:1 68:1 74:1 89:1 
3.499933135561683 1:-34 8:1 21:1 27:1 45:1 56:1 62:1 75:1 87:1 
0.9406050420160655 1:349 29:1 39:1 53:1 69:1 74:1 97:1 
1.702384099394599 1:469 29:1 39:1 56:1 72:1 74:1 86:1 
0.2309563759621937 1:499 29:1 39:1 61:1 73:1 75:1 90:1 
1.139093512914932 1:-441 5:1 15:1 26:1 44:1 50:1 68:1 85:1 87:1 
0.8431747113775717 1:-369 5:1 15:1 26:1 44:1 50:1 68:1 75:1 97:1 
0.6022309929640723 1:-279 5:1 15:1 26:1 44:1 50:1 68:1 82:1 86:1 
4 1:-211 5:1 15:1 26:1 44:1 61:1 68:1 85:1 86:1 
2.812997634231959 1:-200 5:1 15:1 26:1 44:1 60:1 62:1 85:1 87:1 
0.4511649401525725 1:-191 5:1 15:1 26:1 44:1 51:1 69:1 85:1 86:1 
2.183081718938125 1:-154 5:1 15:1 26:1 44:1 56:1 62:1 81:1 89:1 
0.6290903226667153 1:-96 5:1 15:1 26:1 44:1 56:1 73:1 75:1 87:1 
1.203362804849241 1:-32 5:1 15:1 26:1 44:1 56:1 72:1 74:1 86:1 
4 1:-2 5:1 15:1 26:1 44:1 61:1 73:1 75:1 90:1 
0.6139663629589471 1:504 29:1 39:1 50:1 68:1 85:1 87:1 
4 1:3 5:1 15:1 26:1 44:1 50:1 68:1 85:1 87:1 
0.3251157839866308 1:515 29:1 39:1 57:1 62:1 75:1 94:1 
1.364395422500604 1:14 5:1 15:1 26:1 44:1 57:1 62:1 75:1 94:1 
1.100668262960417 1:541 29:1 39:1 50:1 68:1 85:1 86:1 
0.8359184268624534 1:234 8:1 21:1 27:1 45:1 50:1 68:1 85:1 86:1 
2.916164404568061 1:40 5:1 15:1 26:1 44:1 50:1 68:1 85:1 86:1 
0.1734164091809397 1:544 29:1 39:1 61:1 62:1 75:1 87:1 
2.627389951706135 1:43 5:1 15:1 26:1 44:1 61:1 62:1 75:1 87:1 
4 1:-14 5:1 15:1 32:1 42:1 69:1 76:1 92:1 
3.944219141011338 1:-139 3:1 20:1 26:1 40:1 54:1 68:1 75:1 90:1 
0.8239229932115282 1:-151 13:1 15:1 26:1 44:1 54:1 68:1 75:1 90:1 
4 1:152 5:1 15:1 32:1 42:1 50:1 68:1 83:1 87:1 
0.4912972534395815 1:150 6:1 20:1 37:1 45:1 50:1 68:1 83:1 87:1 
4 1:3 13:1 15:1 26:1 44:1 50:1 68:1 83:1 87:1 
0.8536227831791514 1:128 7:1 20:1 33:1 49:1 50:1 73:1 79:1 88:1 
2.396290863898942 1:24 3:1 20:1 26:1 40:1 50:1 73:1 79:1 88:1 
4 1:4 2:1 15:1 37:1 38:1 50:1 73:1 79:1 88:1 
4 1:-168 4:1 20:1 26:1 44:1 54:1 68:1 75:1 90:1 
4 1:-5 4:1 20:1 26:1 44:1 50:1 73:1 79:1 88:1 
0.5567472007596079 1:169 5:1 15:1 32:1 42:1 50:1 68:1 84:1 89:1 
4 1:167 6:1 20:1 37:1 45:1 50:1 68:1 84:1 89:1 
1.161540009502446 1:136 7:1 20:1 33:1 49:1 50:1 68:1 84:1 89:1 
0.5893769239466062 1:169 6:1 20:1 37:1 45:1 53:1 72:1 85:1 86:1 
2.038425434222757 1:138 7:1 20:1 33:1 49:1 53:1 72:1 85:1 86:1 
0.7593070418281187 1:182 6:1 20:1 37:1 45:1 59:1 73:1 76:1 92:1 
0.5511033482137061 1:35 13:1 15:1 26:1 44:1 59:1 73:1 76:1 92:1 
2.297286088391449 1:-191 4:1 15:1 32:1 38:1 54:1 68:1 75:1 90:1 
4 1:-37 4:1 15:1 32:1 38:1 50:1 68:1 83:1 87:1 
4 1:-5 4:1 15:1 32:1 38:1 59:1 73:1 76:1 92:1 
1.927677811788873 1:-208 13:1 21:1 26:1 49:1 54:1 68:1 75:1 90:1 
3.758692593687535 1:-45 13:1 21:1 26:1 49:1 50:1 73:1 79:1 88:1 
4 1:-62 2:1 20:1 27:1 38:1 50:1 68:1 83:1 87:1 
0.6605977638694357 1:199 7:1 20:1 33:1 49:1 50:1 68:1 85:1 87:1 
3.187227117381162 1:71 4:1 15:1 32:1 38:1 51:1 68:1 81:1 89:1 
1.155880239211809 1:46 2:1 20:1 27:1 38:1 51:1 68:1 81:1 89:1 
0.8659568254627092 1:262 5:1 15:1 32:1 42:1 53:1 69:1 85:1 97:1 
1.845557642352256 1:229 7:1 20:1 33:1 49:1 53:1 69:1 85:1 97:1 
2.829791476714287 1:125 3:1 20:1 26:1 40:1 53:1 69:1 85:1 97:1 
4 1:105 2:1 15:1 37:1 38:1 53:1 69:1 85:1 97:1 
0.3814154438202609 1:295 6:1 20:1 37:1 45:1 50:1 72:1 85:1 88:1 
1.039704291311803 1:264 7:1 20:1 33:1 49:1 50:1 72:1 85:1 88:1 
1.835528798241932 1:83 2:1 20:1 27:1 38:1 50:1 72:1 85:1 88:1 
3.056758355391597 1:278 7:1 20:1 33:1 49:1 50:1 69:1 74:1 93:1 
0.5540056210659541 1:162 13:1 15:1 26:1 44:1 50:1 69:1 74:1 93:1 
1.036926168285329 1:-330 13:1 20:1 34:1 38:1 54:1 68:1 75:1 90:1 
4 1:-176 13:1 20:1 34:1 38:1 50:1 68:1 83:1 87:1 
0.2285773264443366 1:-167 13:1 20:1 34:1 38:1 50:1 73:1 79:1 88:1 
0.3106759453713325 1:-144 13:1 20:1 34:1 38:1 59:1 73:1 76:1 92:1 
4 1:-68 13:1 20:1 34:1 38:1 51:1 68:1 81:1 89:1 
1.992279553831696 1:-31 13:1 20:1 34:1 38:1 50:1 72:1 85:1 88:1 
4 1:-17 13:1 20:1 34:1 38:1 50:1 69:1 74:1 93:1 
1.431836062836539 1:332 5:1 15:1 32:1 42:1 50:1 68:1 75:1 91:1 
1.227454807841545 1:166 4:1 20:1 26:1 44:1 50:1 68:1 75:1 91:1 
0.2957151154220902 1:143 4:1 15:1 32:1 38:1 50:1 68:1 75:1 91:1 
0.608723311250998 1:4 13:1 20:1 34:1 38:1 50:1 68:1 75:1 91:1 
1.487912951735421 1:124 2:1 20:1 27:1 38:1 61:1 62:1 75:1 86:1 
4 1:10 13:1 20:1 34:1 38:1 61:1 62:1 75:1 86:1 
4 1:-349 13:1 20:1 26:1 44:1 54:1 68:1 75:1 90:1 
2.592618571724554 1:-186 13:1 20:1 26:1 44:1 50:1 73:1 79:1 88:1 
4 1:-15 13:1 20:1 26:1 44:1 50:1 68:1 75:1 91:1 
0.7811856370347015 1:-201 2:1 25:1 28:1 49:1 50:1 73:1 79:1 88:1 
0.1582559408941576 1:-178 2:1 25:1 28:1 49:1 59:1 73:1 76:1 92:1 
1.882952235663769 1:-102 2:1 25:1 28:1 49:1 51:1 68:1 81:1 89:1 
1.401661610269951 1:-51 2:1 25:1 28:1 49:1 50:1 69:1 74:1 93:1 
2.877436383130928 1:-428 3:1 20:1 26:1 44:1 69:1 76:1 92:1 
0.3566868159245516 1:-230 3:1 20:1 26:1 44:1 59:1 73:1 76:1 92:1 
0.5441615448271484 1:417 6:1 20:1 37:1 45:1 61:1 68:1 85:1 88:1 
1.049734096214279 1:386 7:1 20:1 33:1 49:1 61:1 68:1 85:1 88:1 
2.734218635428503 1:270 13:1 15:1 26:1 44:1 61:1 68:1 85:1 88:1 
2.613176398571899 1:91 13:1 20:1 34:1 38:1 61:1 68:1 85:1 88:1 
4 1:-16 3:1 15:1 32:1 42:1 76:1 92:1 
0.1955585154695089 1:16 6:1 20:1 32:1 44:1 51:1 68:1 75:1 90:1 
4 1:-20 2:1 20:1 26:1 44:1 50:1 73:1 83:1 87:1 
3.496285837078387 1:-16 2:1 20:1 26:1 44:1 51:1 68:1 75:1 90:1 
2.402107150489587 1:-42 2:1 20:1 26:1 43:1 51:1 68:1 75:1 92:1 
1.290411237886334 1:73 3:1 15:1 32:1 42:1 61:1 62:1 75:1 97:1 
1.015885707134971 1:71 6:1 20:1 32:1 44:1 61:1 62:1 75:1 97:1 
4 1:39 2:1 20:1 26:1 44:1 61:1 62:1 75:1 97:1 
2.530194000956297 1:82 3:1 15:1 32:1 42:1 56:1 69:1 82:1 86:1 
0.8008138516553854 1:80 6:1 20:1 32:1 44:1 56:1 69:1 82:1 86:1 
1.00871420570595 1:48 2:1 20:1 26:1 44:1 56:1 69:1 82:1 86:1 
4 1:-95 13:1 20:1 26:1 44:1 51:1 68:1 75:1 92:1 
0.1299336919013445 1:76 5:1 15:1 36:1 38:1 51:1 69:1 75:1 97:1 
4 1:59 2:1 20:1 26:1 43:1 51:1 69:1 75:1 97:1 
0.2749930831229787 1:10 2:1 22:1 27:1 49:1 51:1 69:1 75:1 97:1 
4 1:-109 4:1 25:1 32:1 39:1 50:1 73:1 83:1 87:1 
0.7658839713202875 1:161 3:1 15:1 32:1 42:1 55:1 68:1 75:1 86:1 
4 1:127 2:1 20:1 26:1 44:1 55:1 68:1 75:1 86:1 
0.4855970729273765 1:38 4:1 25:1 32:1 39:1 55:1 68:1 75:1 86:1 
3.844197845290899 1:-7 3:1 20:1 32:1 48:1 50:1 68:1 82:1 87:1 
1.16175311399572 1:46 5:1 15:1 37:1 45:1 57:1 62:1 75:1 86:1 
1.500453748635425 1:202 3:1 20:1 32:1 48:1 50:1 68:1 85:1 86:1 
0.07566862504705599 1:140 8:1 20:1 37:1 49:1 52:1 73:1 85:1 87:1 
1.43793343973545 1:22 2:1 15:1 27:1 49:1 52:1 73:1 85:1 87:1 
3.392055552398808 1:59 2:1 15:1 27:1 49:1 50:1 63:1 85:1 94:1 
1.694923793607309 1:-59 3:1 20:1 37:1 44:1 52:1 73:1 85:1 87:1 
4 1:-22 3:1 20:1 37:1 44:1 50:1 63:1 85:1 94:1 
1.14994363233794 1:-64 3:1 21:1 26:1 39:1 52:1 73:1 85:1 87:1 
0.944869220193908 1:-34 8:1 20:1 37:1 44:1 50:1 63:1 85:1 94:1 
2.234369917110518 1:-100 8:1 20:1 37:1 44:1 50:1 63:1 85:1 94:1 
1.885397610105319 1:294 8:1 20:1 37:1 49:1 51:1 68:1 85:1 93:1 
1.784152771390444 1:219 8:1 20:1 37:1 44:1 51:1 68:1 85:1 93:1 
0.3562803263335728 1:176 2:1 15:1 27:1 49:1 51:1 68:1 85:1 93:1 
3.367103443524229 1:125 8:1 20:1 37:1 44:1 51:1 68:1 85:1 93:1 
2.484409507067411 1:113 10:1 14:1 34:1 38:1 51:1 68:1 85:1 93:1 
1.376482647614871 1:71 4:1 15:1 37:1 49:1 51:1 68:1 85:1 93:1 
3.233888114642988 1:34 3:1 22:1 37:1 43:1 51:1 68:1 85:1 93:1 
0.38690391221496 1:17 8:1 20:1 37:1 44:1 51:1 68:1 85:1 93:1 
2.528080156515231 1:307 8:1 20:1 37:1 49:1 51:1 63:1 80:1 97:1 
2.69675796680436 1:282 3:1 14:1 37:1 49:1 51:1 63:1 80:1 97:1 
0.832342524321296 1:103 3:1 21:1 26:1 39:1 51:1 63:1 80:1 97:1 
4 1:-7 2:1 15:1 32:1 49:1 51:1 63:1 80:1 97:1 
0.6238875495050379 1:-150 8:1 20:1 37:1 44:1 50:1 63:1 85:1 94:1 
1.725770722384075 1:41 13:1 20:1 26:1 42:1 61:1 62:1 85:1 87:1 
0.02684589978576007 1:237 13:1 20:1 26:1 42:1 60:1 67:1 75:1 86:1 
1.997932773501106 1:235 6:1 14:1 32:1 49:1 60:1 67:1 75:1 86:1 
1.238746163508701 1:329 37:1 44:1 51:1 68:1 80:1 87:1 
0.2522651102712213 1:-443 12:1 14:1 34:1 49:1 61:1 62:1 85:1 87:1 
1.629837554925638 1:-337 12:1 14:1 34:1 49:1 57:1 67:1 74:1 87:1 
1.131557095573209 1:-150 12:1 14:1 34:1 49:1 56:1 67:1 85:1 97:1 
3.114019573954454 1:3 13:1 15:1 26:1 44:1 50:1 68:1 83:1 87:1 
4 1:-8 5:1 15:1 32:1 49:1 51:1 62:1 85:1 87:1 
0.64607965608689 1:29 5:1 19:1 37:1 45:1 61:1 62:1 75:1 92:1 
1.647357584556899 1:32 5:1 19:1 37:1 45:1 51:1 68:1 85:1 92:1 
2.219759738255257 1:35 5:1 19:1 37:1 45:1 61:1 68:1 75:1 87:1 
0.2194489370626892 1:14 5:1 15:1 32:1 49:1 51:1 72:1 75:1 96:1 
1.412876117580169 1:38 5:1 15:1 32:1 49:1 51:1 69:1 74:1 89:1 
0.956406159074179 1:74 13:1 15:1 26:1 44:1 53:1 62:1 76:1 87:1 
0.09732352343296305 1:65 5:1 19:1 37:1 45:1 53:1 62:1 76:1 87:1 
2.442538807491733 1:-75 3:1 15:1 26:1 44:1 50:1 68:1 83:1 87:1 
4 1:-71 3:1 15:1 26:1 44:1 51:1 62:1 79:1 90:1 
0.435630658515105 1:-52 3:1 15:1 26:1 44:1 51:1 62:1 85:1 87:1 
4 1:-46 3:1 15:1 26:1 44:1 50:1 68:1 75:1 90:1 
1.868249270212998 1:-34 3:1 15:1 26:1 44:1 61:1 68:1 75:1 87:1 
4 1:-4 3:1 15:1 26:1 44:1 53:1 62:1 76:1 87:1 
1.559183579192656 1:-49 2:1 20:1 33:1 39:1 50:1 68:1 75:1 90:1 
1.807077352422021 1:-43 2:1 20:1 33:1 39:1 61:1 62:1 75:1 92:1 
3.884492203067285 1:-40 2:1 20:1 33:1 39:1 51:1 68:1 85:1 92:1 
4 1:-37 2:1 20:1 33:1 39:1 61:1 68:1 75:1 87:1 
2.533536911683093 1:-64 3:1 20:1 26:1 44:1 51:1 62:1 85:1 87:1 
3.717712240828546 1:-58 3:1 20:1 26:1 44:1 50:1 68:1 75:1 90:1 
4 1:-49 3:1 20:1 26:1 44:1 51:1 68:1 85:1 92:1 
4 1:-46 3:1 20:1 26:1 44:1 61:1 68:1 75:1 87:1 
1.202650491251053 1:105 13:1 15:1 26:1 44:1 52:1 69:1 76:1 97:1 
0.6296379946193238 1:96 5:1 19:1 37:1 45:1 52:1 69:1 76:1 97:1 
1.25131563495484 1:114 13:1 15:1 26:1 44:1 52:1 62:1 76:1 87:1 
1.186007039258642 1:105 5:1 19:1 37:1 45:1 52:1 62:1 76:1 87:1 
3.308220680242635 1:36 3:1 15:1 26:1 44:1 52:1 62:1 76:1 87:1 
2.768916448625317 1:33 2:1 20:1 33:1 39:1 52:1 62:1 76:1 87:1 
3.36379892273143 1:90 5:1 15:1 32:1 49:1 58:1 62:1 80:1 89:1 
3.818697497256057 1:117 5:1 19:1 37:1 45:1 53:1 68:1 75:1 97:1 
0.9641609811231379 1:45 2:1 20:1 33:1 39:1 53:1 68:1 75:1 97:1 
2.117446051219417 1:131 5:1 19:1 37:1 45:1 52:1 62:1 76:1 87:1 
0.8543549088837589 1:59 2:1 20:1 33:1 39:1 52:1 62:1 76:1 87:1 
4 1:111 5:1 15:1 32:1 49:1 61:1 62:1 80:1 89:1 
0.1926194140281944 1:69 3:1 15:1 26:1 44:1 53:1 68:1 76:1 93:1 
0.8248911501983297 1:148 5:1 19:1 37:1 45:1 56:1 69:1 84:1 97:1 
0.4055062043381743 1:133 5:1 15:1 32:1 49:1 61:1 68:1 82:1 93:1 
0.2256945726264731 1:86 2:1 20:1 33:1 39:1 61:1 68:1 82:1 93:1 
0.4048911648054084 1:-158 8:1 20:1 33:1 41:1 51:1 62:1 85:1 87:1 
1.365210562176974 1:-152 8:1 20:1 33:1 41:1 50:1 68:1 75:1 90:1 
0.8400455028862919 1:-140 8:1 20:1 33:1 41:1 61:1 68:1 75:1 87:1 
0.9475020938487739 1:-70 8:1 20:1 33:1 41:1 52:1 62:1 76:1 87:1 
2.715362175843588 1:-58 8:1 20:1 33:1 41:1 53:1 68:1 75:1 97:1 
1.694606272865337 1:-37 8:1 20:1 33:1 41:1 53:1 68:1 76:1 93:1 
2.988697407706145 1:-27 8:1 20:1 33:1 41:1 56:1 69:1 84:1 97:1 
3.559744105653308 1:-17 8:1 20:1 33:1 41:1 61:1 68:1 82:1 93:1 
0.6821471383370552 1:179 5:1 19:1 37:1 45:1 53:1 62:1 75:1 86:1 
0.4704783066594088 1:107 2:1 20:1 33:1 39:1 53:1 62:1 75:1 86:1 
0.8783161705223312 1:98 3:1 20:1 26:1 44:1 53:1 62:1 75:1 86:1 
0.7130031163838851 1:103 3:1 20:1 26:1 44:1 51:1 68:1 75:1 90:1 
4 1:-192 5:1 15:1 37:1 46:1 50:1 68:1 83:1 87:1 
0.4774915183988424 1:-147 5:1 15:1 37:1 46:1 51:1 72:1 75:1 96:1 
0.7209185183879268 1:-123 5:1 15:1 37:1 46:1 51:1 69:1 74:1 89:1 
0.3610534228864984 1:199 13:1 15:1 26:1 44:1 58:1 63:1 81:1 89:1 
1.031055880722042 1:190 5:1 19:1 37:1 45:1 58:1 63:1 81:1 89:1 
2.823516709107018 1:165 5:1 15:1 32:1 49:1 58:1 63:1 81:1 89:1 
1.544563753022221 1:121 3:1 15:1 26:1 44:1 58:1 63:1 81:1 89:1 
2.565653688325023 1:118 2:1 20:1 33:1 39:1 58:1 63:1 81:1 89:1 
1.588307580675462 1:109 3:1 20:1 26:1 44:1 58:1 63:1 81:1 89:1 
2.71247788683167 1:15 8:1 20:1 33:1 41:1 58:1 63:1 81:1 89:1 
1.550905961993617 1:4 5:1 15:1 37:1 46:1 58:1 63:1 81:1 89:1 
2.808866905843979 1:29 8:1 15:1 26:1 49:1 57:1 63:1 83:1 87:1 
4 1:-7 13:1 20:1 26:1 38:1 57:1 63:1 83:1 87:1 
4 1:-31 3:1 20:1 26:1 42:1 57:1 63:1 83:1 87:1 
0.3595197938643958 1:-120 13:1 20:1 27:1 46:1 57:1 63:1 83:1 87:1 
4 1:2 5:1 15:1 32:1 41:1 54:1 68:1 75:1 90:1 
4 1:-6 5:1 15:1 32:1 41:1 51:1 62:1 75:1 90:1 
0.3426550838101327 1:37 13:1 15:1 26:1 44:1 54:1 68:1 83:1 87:1 
4 1:2 5:1 15:1 32:1 41:1 54:1 68:1 83:1 87:1 
4 1:-7 11:1 15:1 37:1 48:1 54:1 68:1 75:1 90:1 
4 1:-19 13:1 20:1 26:1 44:1 54:1 68:1 75:1 90:1 
4 1:-15 13:1 20:1 26:1 44:1 54:1 68:1 83:1 87:1 
4 1:27 5:1 15:1 32:1 41:1 61:1 68:1 75:1 86:1 
4 1:18 11:1 15:1 37:1 48:1 61:1 68:1 75:1 86:1 
0.05600190673451969 1:88 13:1 15:1 26:1 44:1 56:1 68:1 85:1 97:1 
0.2286892820307835 1:53 5:1 15:1 32:1 41:1 56:1 68:1 85:1 97:1 
2.527461912683058 1:96 5:1 15:1 32:1 41:1 61:1 68:1 74:1 92:1 
0.1540946648177362 1:87 11:1 15:1 37:1 48:1 61:1 68:1 74:1 92:1 
0.2819238435857411 1:163 4:1 25:1 27:1 49:1 51:1 73:1 85:1 97:1 
0.2167457953378087 1:-46 3:1 20:1 32:1 41:1 56:1 66:1 81:1 97:1 
0.2501222563703245 1:22 3:1 20:1 32:1 41:1 61:1 73:1 75:1 97:1 
0.5131856198929147 1:130 3:1 20:1 29:1 45:1 50:1 73:1 75:1 90:1 
2.132012650374948 1:-63 5:1 15:1 37:1 49:1 61:1 73:1 75:1 97:1 
1.548852937207932 1:-50 5:1 15:1 37:1 49:1 50:1 73:1 85:1 97:1 
0.4430205768870472 1:-123 8:1 21:1 26:1 46:1 54:1 68:1 75:1 91:1 
2.773529703457481 1:-103 8:1 21:1 26:1 46:1 61:1 73:1 75:1 97:1 
0.4440703720965344 1:-133 10:1 14:1 37:1 39:1 61:1 73:1 75:1 97:1 
1.516944967054085 1:-170 13:1 19:1 32:1 46:1 56:1 62:1 75:1 86:1 
0.8303903040688148 1:-128 13:1 19:1 32:1 46:1 50:1 68:1 80:1 86:1 
0.7800173529635964 1:-120 13:1 19:1 32:1 46:1 61:1 62:1 85:1 97:1 
0.09987436100026878 1:46 13:1 15:1 26:1 44:1 60:1 68:1 84:1 88:1 
4 1:70 13:1 15:1 26:1 44:1 54:1 68:1 83:1 87:1 
4 1:2 5:1 23:1 32:1 41:1 54:1 68:1 83:1 87:1 
4 1:-7 11:1 15:1 37:1 39:1 51:1 68:1 83:1 90:1 
4 1:-39 13:1 20:1 31:1 40:1 51:1 68:1 83:1 90:1 
1.951842900842389 1:-35 13:1 20:1 31:1 40:1 54:1 68:1 83:1 87:1 
0.2002410239777454 1:75 13:1 21:1 28:1 49:1 51:1 68:1 85:1 97:1 
1.039819248253658 1:136 13:1 21:1 28:1 49:1 50:1 73:1 75:1 93:1 
0.5349473965748858 1:-111 9:1 25:1 32:1 38:1 51:1 68:1 83:1 90:1 
4 1:-4 9:1 25:1 32:1 38:1 50:1 73:1 75:1 93:1 
2.403028000785449 1:185 13:1 15:1 26:1 44:1 61:1 68:1 83:1 95:1 
0.8508488473245005 1:8 9:1 25:1 32:1 38:1 61:1 68:1 83:1 95:1 
4 1:-118 11:1 23:1 26:1 44:1 54:1 68:1 83:1 87:1 
0.2176645589124188 1:-76 11:1 23:1 26:1 44:1 51:1 68:1 85:1 97:1 
3.934343377510137 1:-15 11:1 23:1 26:1 44:1 50:1 73:1 75:1 93:1 
3.634767336030574 1:29 2:1 25:1 32:1 38:1 55:1 63:1 81:1 87:1 
4 1:-21 13:1 25:1 36:1 43:1 55:1 63:1 81:1 87:1 
4 1:91 5:1 15:1 33:1 44:1 61:1 68:1 74:1 93:1 
1.982882472862976 1:109 5:1 15:1 33:1 44:1 51:1 68:1 81:1 92:1 
2.143424006370601 1:42 13:1 25:1 36:1 43:1 51:1 68:1 81:1 92:1 
0.3731879877615253 1:141 5:1 15:1 33:1 44:1 50:1 73:1 80:1 86:1 
4 1:-53 8:1 14:1 37:1 39:1 61:1 68:1 74:1 93:1 
0.4161551591815207 1:-149 13:1 15:1 32:1 38:1 56:1 73:1 75:1 90:1 
2.008389519006935 1:-101 13:1 15:1 32:1 38:1 55:1 63:1 81:1 87:1 
0.1744337307638379 1:-56 13:1 15:1 32:1 38:1 61:1 68:1 74:1 93:1 
0.3817047185220249 1:-72 3:1 22:1 37:1 39:1 61:1 68:1 74:1 93:1 
0.7039215265909856 1:-22 3:1 22:1 37:1 39:1 50:1 73:1 80:1 86:1 
2.929839589507047 1:170 5:1 15:1 33:1 44:1 61:1 62:1 75:1 87:1 
1.061222529753002 1:-91 3:1 20:1 27:1 45:1 61:1 68:1 74:1 93:1 
0.3039694429357941 1:-73 3:1 20:1 27:1 45:1 51:1 68:1 81:1 92:1 
1.915641925633029 1:118 13:1 25:1 36:1 43:1 51:1 69:1 79:1 97:1 
4 1:3 3:1 20:1 27:1 45:1 51:1 69:1 79:1 97:1 
3.349226122368429 1:9 3:1 20:1 27:1 45:1 56:1 72:1 85:1 97:1 
4 1:137 13:1 25:1 36:1 43:1 50:1 73:1 85:1 87:1 
4 1:22 3:1 20:1 27:1 45:1 50:1 73:1 85:1 87:1 
1.709370974386418 1:162 2:1 21:1 33:1 39:1 61:1 69:1 85:1 87:1 
3.388476635299535 1:-139 13:1 20:1 32:1 45:1 51:1 69:1 79:1 97:1 
4 1:-7 13:1 20:1 32:1 45:1 61:1 69:1 85:1 87:1 
2.263714558514593 1:-73 5:1 15:1 37:1 38:1 61:1 62:1 75:1 97:1 
2.861378411818686 1:-67 5:1 15:1 37:1 38:1 61:1 68:1 74:1 89:1 
4 1:-2 5:1 15:1 37:1 38:1 56:1 70:1 75:1 90:1 
0.6255534798023923 1:-78 8:1 19:1 33:1 49:1 61:1 68:1 74:1 89:1 
0.5138934190552893 1:4 8:1 19:1 33:1 49:1 61:1 73:1 78:1 90:1 
1.231962100393615 1:-1 13:1 17:1 30:1 38:1 61:1 73:1 78:1 90:1 
2.221733132002571 1:-84 5:1 18:1 26:1 42:1 61:1 68:1 74:1 89:1 
4 1:-2 5:1 18:1 26:1 42:1 61:1 73:1 78:1 90:1 
0.08161823448431386 1:-21 6:1 14:1 27:1 49:1 56:1 70:1 75:1 90:1 
0.3968198173394987 1:-99 8:1 19:1 33:1 42:1 61:1 68:1 74:1 89:1 
0.1645572157247538 1:-34 8:1 19:1 33:1 42:1 56:1 70:1 75:1 90:1 
4 1:-17 8:1 19:1 33:1 42:1 61:1 73:1 78:1 90:1 
4 1:-6 8:1 19:1 33:1 42:1 58:1 62:1 74:1 97:1 
0.1003534006880998 1:-36 13:1 25:1 32:1 49:1 61:1 73:1 78:1 90:1 
0.3231904389327765 1:-146 7:1 25:1 32:1 42:1 61:1 68:1 74:1 89:1 
1.340601169823367 1:92 5:1 15:1 37:1 38:1 56:1 69:1 85:1 87:1 
1.075313275667948 1:75 5:1 18:1 26:1 42:1 56:1 69:1 85:1 87:1 
0.6308100054646087 1:60 8:1 19:1 33:1 42:1 56:1 69:1 85:1 87:1 
4 1:-75 3:1 20:1 33:1 49:1 58:1 62:1 74:1 97:1 
0.7989627209549647 1:-178 8:1 19:1 33:1 39:1 61:1 68:1 74:1 89:1 
1.035845741115318 1:-209 8:1 21:1 26:1 44:1 61:1 62:1 75:1 97:1 
0.6282689216787837 1:167 5:1 15:1 37:1 38:1 61:1 70:1 75:1 92:1 
0.6293325558591472 1:151 13:1 17:1 30:1 38:1 61:1 70:1 75:1 92:1 
0.1719166224789877 1:150 5:1 18:1 26:1 42:1 61:1 70:1 75:1 92:1 
1.057225153235287 1:135 8:1 19:1 33:1 42:1 61:1 70:1 75:1 92:1 
0.7911365858983799 1:88 7:1 25:1 32:1 42:1 61:1 70:1 75:1 92:1 
1.077814751177318 1:56 8:1 19:1 33:1 39:1 61:1 70:1 75:1 92:1 
0.3218292478676629 1:27 8:1 19:1 37:1 43:1 61:1 70:1 75:1 92:1 
0.617438871723711 1:-168 13:1 21:1 37:1 38:1 61:1 73:1 78:1 90:1 
1.889979970239377 1:-270 3:1 20:1 34:1 38:1 61:1 62:1 75:1 97:1 
0.3005161297722583 1:-199 3:1 20:1 34:1 38:1 56:1 70:1 75:1 90:1 
2.390552063014192 1:-182 3:1 20:1 34:1 38:1 61:1 73:1 78:1 90:1 
1.08808673499415 1:-171 3:1 20:1 34:1 38:1 58:1 62:1 74:1 97:1 
1.391771498083896 1:200 5:1 15:1 37:1 38:1 58:1 62:1 85:1 90:1 
1.509168054948789 1:183 5:1 18:1 26:1 42:1 58:1 62:1 85:1 90:1 
0.8946680506409692 1:168 8:1 19:1 33:1 42:1 58:1 62:1 85:1 90:1 
1.625712984262578 1:121 7:1 25:1 32:1 42:1 58:1 62:1 85:1 90:1 
2.487075068533089 1:113 8:1 19:1 37:1 46:1 58:1 62:1 85:1 90:1 
2.607502907188411 1:89 8:1 19:1 33:1 39:1 58:1 62:1 85:1 90:1 
0.07632157307480271 1:64 8:1 21:1 26:1 44:1 58:1 62:1 85:1 90:1 
2.216749416853208 1:60 8:1 19:1 37:1 43:1 58:1 62:1 85:1 90:1 
1.065379835191238 1:3 3:1 20:1 34:1 38:1 58:1 62:1 85:1 90:1 
4 1:-2 5:1 25:1 36:1 39:1 58:1 62:1 85:1 90:1 
2.729287772369945 1:-272 12:1 15:1 32:1 46:1 61:1 68:1 74:1 89:1 
1.092194141036531 1:-190 12:1 15:1 32:1 46:1 61:1 73:1 78:1 90:1 
4 1:-5 12:1 15:1 32:1 46:1 58:1 62:1 85:1 90:1 
0.2783559067081819 1:219 5:1 15:1 37:1 38:1 61:1 68:1 81:1 90:1 
1.697750327830001 1:202 5:1 18:1 26:1 42:1 61:1 68:1 81:1 90:1 
0.9337212688464273 1:83 8:1 21:1 26:1 44:1 61:1 68:1 81:1 90:1 
4 1:79 8:1 19:1 37:1 43:1 61:1 68:1 81:1 90:1 
4 1:22 3:1 20:1 34:1 38:1 61:1 68:1 81:1 90:1 
1.580476087341417 1:17 5:1 25:1 36:1 39:1 61:1 68:1 81:1 90:1 
1.97647997799199 1:14 12:1 15:1 32:1 46:1 61:1 68:1 81:1 90:1 
2.69541916424427 1:-294 5:1 21:1 37:1 39:1 61:1 62:1 75:1 97:1 
0.1418195545121922 1:-288 5:1 21:1 37:1 39:1 61:1 68:1 74:1 89:1 
0.9634386703961368 1:-286 5:1 21:1 37:1 39:1 53:1 62:1 75:1 87:1 
0.9839297598346045 1:-206 5:1 21:1 37:1 39:1 61:1 73:1 78:1 90:1 
0.1444215723748606 1:-129 5:1 21:1 37:1 39:1 56:1 69:1 85:1 87:1 
4 1:-2 5:1 21:1 37:1 39:1 61:1 68:1 81:1 90:1 
1.589453014191458 1:-211 8:1 19:1 27:1 38:1 61:1 73:1 78:1 90:1 
0.5199836067523707 1:-59 8:1 19:1 27:1 38:1 61:1 70:1 75:1 92:1 
0.7846343654807396 1:229 5:1 15:1 37:1 38:1 51:1 62:1 75:1 93:1 
0.5888340118528275 1:225 2:1 18:1 32:1 49:1 51:1 62:1 75:1 93:1 
2.181157512172508 1:212 5:1 18:1 26:1 42:1 51:1 62:1 75:1 93:1 
0.970939206846236 1:150 7:1 25:1 32:1 42:1 51:1 62:1 75:1 93:1 
1.044486687462302 1:118 8:1 19:1 33:1 39:1 51:1 62:1 75:1 93:1 
0.01983802425998736 1:46 13:1 21:1 37:1 38:1 51:1 62:1 75:1 93:1 
3.161196836684499 1:32 3:1 20:1 34:1 38:1 51:1 62:1 75:1 93:1 
4 1:3 8:1 19:1 27:1 38:1 51:1 62:1 75:1 93:1 
0.1647281071835139 1:215 5:1 18:1 26:1 42:1 51:1 69:1 74:1 92:1 
3.093464039166596 1:213 6:1 14:1 27:1 49:1 51:1 69:1 74:1 92:1 
0.4327822798497112 1:198 6:1 21:1 26:1 49:1 51:1 69:1 74:1 92:1 
4 1:151 6:1 20:1 27:1 38:1 51:1 69:1 74:1 92:1 
0.892791317127932 1:145 8:1 19:1 37:1 46:1 51:1 69:1 74:1 92:1 
1.915799962766937 1:121 8:1 19:1 33:1 39:1 51:1 69:1 74:1 92:1 
0.3977987455835738 1:11 5:1 21:1 37:1 39:1 51:1 69:1 74:1 92:1 
0.303246210373384 1:6 8:1 19:1 27:1 38:1 51:1 69:1 74:1 92:1 
0.8306369902268226 1:-226 13:1 15:1 37:1 38:1 61:1 73:1 78:1 90:1 
1.335777595196745 1:-215 13:1 15:1 37:1 38:1 58:1 62:1 74:1 97:1 
2.394446645295735 1:-41 13:1 15:1 37:1 38:1 58:1 62:1 85:1 90:1 
0.1677460979980851 1:-22 13:1 15:1 37:1 38:1 61:1 68:1 81:1 90:1 
4 1:-9 13:1 15:1 37:1 38:1 51:1 69:1 74:1 92:1 
0.9432699929315259 1:233 8:1 19:1 33:1 49:1 61:1 62:1 74:1 86:1 
2.233139587308725 1:227 5:1 18:1 26:1 42:1 61:1 62:1 74:1 86:1 
3.558139620665381 1:165 7:1 25:1 32:1 42:1 61:1 62:1 74:1 86:1 
0.9646076778528558 1:157 8:1 19:1 37:1 46:1 61:1 62:1 74:1 86:1 
0.4128150462296796 1:108 8:1 21:1 26:1 44:1 61:1 62:1 74:1 86:1 
0.07689272393554838 1:104 8:1 19:1 37:1 43:1 61:1 62:1 74:1 86:1 
0.2688081841033964 1:47 3:1 20:1 34:1 38:1 61:1 62:1 74:1 86:1 
0.471550217090757 1:255 5:1 15:1 37:1 38:1 60:1 62:1 74:1 87:1 
1.396294059790534 1:238 5:1 18:1 26:1 42:1 60:1 62:1 74:1 87:1 
0.2467562408763246 1:223 8:1 19:1 33:1 42:1 60:1 62:1 74:1 87:1 
1.397225328486684 1:176 7:1 25:1 32:1 42:1 60:1 62:1 74:1 87:1 
0.05963373058566577 1:144 8:1 19:1 33:1 39:1 60:1 62:1 74:1 87:1 
0.3546276938841388 1:115 8:1 19:1 37:1 43:1 60:1 62:1 74:1 87:1 
0.5451601147899481 1:72 13:1 21:1 37:1 38:1 60:1 62:1 74:1 87:1 
2.503199706245228 1:53 5:1 25:1 36:1 39:1 60:1 62:1 74:1 87:1 
1.935396624222331 1:50 12:1 15:1 32:1 46:1 60:1 62:1 74:1 87:1 
0.9512660512776716 1:34 5:1 21:1 37:1 39:1 60:1 62:1 74:1 87:1 
1.553581809902222 1:29 8:1 19:1 27:1 38:1 60:1 62:1 74:1 87:1 
0.2418186836383206 1:-259 9:1 15:1 33:1 41:1 61:1 73:1 78:1 90:1 
0.1306998423780313 1:-248 9:1 15:1 33:1 41:1 58:1 62:1 74:1 97:1 
0.4811581436107194 1:-107 9:1 15:1 33:1 41:1 61:1 70:1 75:1 92:1 
3.436851354648386 1:-74 9:1 15:1 33:1 41:1 58:1 62:1 85:1 90:1 
1.207385670799403 1:-55 9:1 15:1 33:1 41:1 61:1 68:1 81:1 90:1 
4 1:-45 9:1 15:1 33:1 41:1 51:1 62:1 75:1 93:1 
2.220010333815358 1:-30 9:1 15:1 33:1 41:1 61:1 62:1 74:1 86:1 
1.91890080608156 1:276 5:1 15:1 37:1 38:1 54:1 69:1 75:1 87:1 
1.11227980888945 1:259 5:1 18:1 26:1 42:1 54:1 69:1 75:1 87:1 
2.990116950258293 1:197 7:1 25:1 32:1 42:1 54:1 69:1 75:1 87:1 
0.1363341221984051 1:140 8:1 21:1 26:1 44:1 54:1 69:1 75:1 87:1 
1.776727263315032 1:136 8:1 19:1 37:1 43:1 54:1 69:1 75:1 87:1 
0.8798478131875138 1:55 5:1 21:1 37:1 39:1 54:1 69:1 75:1 87:1 
1.070978581290251 1:50 8:1 19:1 27:1 38:1 54:1 69:1 75:1 87:1 
0.8202882436335734 1:8 12:1 14:1 35:1 39:1 53:1 68:1 75:1 97:1 
0.06314259690562148 1:37 12:1 14:1 35:1 39:1 50:1 73:1 75:1 96:1 
1.278291477485679 1:-51 5:1 25:1 32:1 49:1 56:1 69:1 81:1 89:1 
4 1:-6 5:1 25:1 32:1 49:1 50:1 73:1 75:1 96:1 
4 1:-2 5:1 25:1 32:1 49:1 60:1 62:1 85:1 90:1 
4 1:3 5:1 25:1 32:1 49:1 56:1 73:1 74:1 97:1 
0.7228213987557991 1:49 12:1 14:1 35:1 39:1 50:1 73:1 83:1 87:1 
0.8814162362673315 1:65 13:1 15:1 26:1 44:1 51:1 62:1 79:1 90:1 
1.499473559149533 1:-63 5:1 19:1 26:1 49:1 56:1 69:1 81:1 89:1 
2.654339888348864 1:-49 5:1 19:1 26:1 49:1 51:1 62:1 80:1 89:1 
1.333229014086248 1:-47 5:1 19:1 26:1 49:1 53:1 68:1 75:1 97:1 
0.011647323087395 1:-34 5:1 19:1 26:1 49:1 57:1 65:1 85:1 87:1 
3.186534864270646 1:-18 5:1 19:1 26:1 49:1 50:1 73:1 75:1 96:1 
4 1:-6 5:1 19:1 26:1 49:1 50:1 73:1 83:1 87:1 
0.9652369153249346 1:20 5:1 19:1 26:1 49:1 50:1 69:1 81:1 89:1 
3.761479225063992 1:-102 3:1 20:1 26:1 44:1 56:1 69:1 81:1 89:1 
0.2780136725706069 1:-86 3:1 20:1 26:1 44:1 53:1 68:1 75:1 97:1 
4 1:-74 3:1 20:1 26:1 44:1 51:1 69:1 77:1 97:1 
1.453607153319051 1:-57 3:1 20:1 26:1 44:1 50:1 73:1 75:1 96:1 
4 1:-53 3:1 20:1 26:1 44:1 60:1 62:1 85:1 90:1 
4 1:-48 3:1 20:1 26:1 44:1 56:1 73:1 74:1 97:1 
4 1:-45 3:1 20:1 26:1 44:1 50:1 73:1 83:1 87:1 
4 1:-25 3:1 20:1 26:1 44:1 61:1 68:1 75:1 87:1 
3.235385028230855 1:43 5:1 19:1 26:1 49:1 56:1 69:1 85:1 87:1 
0.2378197729755953 1:109 12:1 14:1 35:1 39:1 56:1 67:1 85:1 86:1 
2.651987100507065 1:60 5:1 19:1 26:1 49:1 50:1 69:1 85:1 87:1 
0.1778587155386233 1:21 3:1 20:1 26:1 44:1 50:1 69:1 85:1 87:1 
1.581855818227433 1:76 5:1 19:1 26:1 49:1 51:1 69:1 85:1 97:1 
2.276618806740967 1:-135 8:1 20:1 34:1 38:1 51:1 62:1 80:1 89:1 
2.982412316880183 1:-133 8:1 20:1 34:1 38:1 53:1 68:1 75:1 97:1 
0.4703195449616052 1:-121 8:1 20:1 34:1 38:1 51:1 69:1 77:1 97:1 
2.546794508340006 1:-104 8:1 20:1 34:1 38:1 50:1 73:1 75:1 96:1 
2.177381998442492 1:-100 8:1 20:1 34:1 38:1 60:1 62:1 85:1 90:1 
1.395073304298417 1:-92 8:1 20:1 34:1 38:1 50:1 73:1 83:1 87:1 
3.255339660951106 1:-72 8:1 20:1 34:1 38:1 61:1 68:1 75:1 87:1 
3.175619782125397 1:-43 8:1 20:1 34:1 38:1 56:1 69:1 85:1 87:1 
2.900739020880766 1:-10 8:1 20:1 34:1 38:1 51:1 69:1 85:1 97:1 
4 1:115 5:1 19:1 26:1 49:1 50:1 68:1 74:1 97:1 
0.3000935314364935 1:-194 8:1 20:1 26:1 44:1 56:1 69:1 81:1 89:1 
2.785766271223035 1:-192 8:1 20:1 26:1 44:1 53:1 69:1 74:1 97:1 
2.555273373660375 1:-180 8:1 20:1 26:1 44:1 51:1 62:1 80:1 89:1 
1.417291610599287 1:-178 8:1 20:1 26:1 44:1 53:1 68:1 75:1 97:1 
1.283140720154881 1:-149 8:1 20:1 26:1 44:1 50:1 73:1 75:1 96:1 
2.711165031631764 1:-140 8:1 20:1 26:1 44:1 56:1 73:1 74:1 97:1 
4 1:-137 8:1 20:1 26:1 44:1 50:1 73:1 83:1 87:1 
1.038875358270398 1:-111 8:1 20:1 26:1 44:1 50:1 69:1 81:1 89:1 
4 1:-88 8:1 20:1 26:1 44:1 56:1 69:1 85:1 87:1 
4 1:-16 8:1 20:1 26:1 44:1 50:1 68:1 74:1 97:1 
0.4208594712598343 1:191 12:1 14:1 35:1 39:1 56:1 73:1 81:1 88:1 
4 1:136 5:1 19:1 26:1 49:1 56:1 73:1 81:1 88:1 
3.518549397706703 1:50 8:1 20:1 34:1 38:1 56:1 73:1 81:1 88:1 
2.418274410984689 1:86 8:1 20:1 34:1 38:1 50:1 68:1 85:1 97:1 
1.101824010992439 1:41 8:1 20:1 26:1 44:1 50:1 68:1 85:1 97:1 
1.416130591512098 1:-250 2:1 20:1 37:1 39:1 56:1 69:1 81:1 89:1 
3.546396961145486 1:-234 2:1 20:1 37:1 39:1 53:1 68:1 75:1 97:1 
0.839458090483122 1:-221 2:1 20:1 37:1 39:1 57:1 65:1 85:1 87:1 
0.5442022734098908 1:-193 2:1 20:1 37:1 39:1 50:1 73:1 83:1 87:1 
0.7512866449643479 1:-189 2:1 20:1 37:1 39:1 51:1 62:1 79:1 90:1 
1.685057179364308 1:-173 2:1 20:1 37:1 39:1 61:1 68:1 75:1 87:1 
0.1560091564744613 1:-167 2:1 20:1 37:1 39:1 50:1 69:1 81:1 89:1 
1.951281768069286 1:252 12:1 14:1 35:1 39:1 56:1 62:1 85:1 87:1 
0.7558079699687005 1:197 5:1 19:1 26:1 49:1 56:1 62:1 85:1 87:1 
4 1:111 8:1 20:1 34:1 38:1 56:1 62:1 85:1 87:1 
0.2042702470046129 1:66 8:1 20:1 26:1 44:1 56:1 62:1 85:1 87:1 
0.4348095370421693 1:214 5:1 25:1 32:1 49:1 51:1 68:1 75:1 96:1 
0.07525800516984792 1:202 5:1 19:1 26:1 49:1 51:1 68:1 75:1 96:1 
3.503637447430645 1:116 8:1 20:1 34:1 38:1 51:1 68:1 75:1 96:1 
0.1850621760193789 1:15 2:1 20:1 37:1 39:1 51:1 68:1 75:1 96:1 
0.7462493077207345 1:260 12:1 14:1 35:1 39:1 51:1 72:1 75:1 87:1 
4 1:166 3:1 20:1 26:1 44:1 51:1 72:1 75:1 87:1 
1.764221225292642 1:74 8:1 20:1 26:1 44:1 51:1 72:1 75:1 87:1 
1.99817666229996 1:268 12:1 14:1 35:1 39:1 50:1 73:1 81:1 89:1 
0.9144597312085115 1:174 3:1 20:1 26:1 44:1 50:1 73:1 81:1 89:1 
0.477919869795125 1:227 5:1 25:1 32:1 49:1 53:1 69:1 74:1 97:1 
4 1:-9 8:1 15:1 32:1 41:1 57:1 65:1 80:1 92:1 
4 1:-2 5:1 15:1 27:1 44:1 53:1 62:1 75:1 90:1 
1.390936979381391 1:12 8:1 15:1 32:1 41:1 61:1 69:1 74:1 87:1 
2.276907407378263 1:-62 3:1 20:1 26:1 44:1 69:1 77:1 92:1 
0.3531118479454305 1:75 5:1 15:1 27:1 44:1 61:1 62:1 80:1 92:1 
2.14885277497665 1:119 5:1 15:1 27:1 44:1 61:1 69:1 81:1 87:1 
2.808328717748964 1:73 3:1 20:1 26:1 44:1 61:1 69:1 81:1 87:1 
0.3567372297484087 1:147 5:1 15:1 27:1 44:1 50:1 73:1 75:1 97:1 
0.08143644495916794 1:-208 3:1 20:1 26:1 49:1 57:1 65:1 80:1 92:1 
4 1:-195 3:1 20:1 26:1 49:1 53:1 62:1 75:1 90:1 
3.113169237301518 1:-187 3:1 20:1 26:1 49:1 61:1 69:1 74:1 87:1 
1.843142874390397 1:-139 3:1 20:1 26:1 49:1 52:1 72:1 80:1 93:1 
0.6716168396897829 1:-118 3:1 20:1 26:1 49:1 61:1 62:1 80:1 92:1 
2.057113594245454 1:155 3:1 20:1 26:1 44:1 50:1 69:1 79:1 87:1 
0.05771336250465654 1:183 3:1 20:1 26:1 44:1 52:1 70:1 80:1 93:1 
0.5990979385930141 1:257 8:1 15:1 32:1 41:1 50:1 68:1 82:1 94:1 
2.167038507324111 1:-284 13:1 20:1 26:1 44:1 69:1 77:1 92:1 
0.581797491982457 1:-283 13:1 20:1 26:1 44:1 57:1 65:1 80:1 92:1 
0.5745313940947305 1:-270 13:1 20:1 26:1 44:1 53:1 62:1 75:1 90:1 
2.747041272757804 1:-262 13:1 20:1 26:1 44:1 61:1 69:1 74:1 87:1 
0.8530835217851148 1:-246 13:1 20:1 26:1 44:1 53:1 69:1 85:1 97:1 
4 1:-160 13:1 20:1 26:1 44:1 61:1 62:1 75:1 87:1 
0.4263826248605062 1:-149 13:1 20:1 26:1 44:1 61:1 69:1 81:1 87:1 
4 1:-67 13:1 20:1 26:1 44:1 50:1 69:1 79:1 87:1 
2.090203598038032 1:278 5:1 15:1 27:1 44:1 57:1 62:1 80:1 97:1 
2.189732733066338 1:10 13:1 20:1 26:1 44:1 57:1 62:1 80:1 97:1 
1.868864798684011 1:268 3:1 20:1 26:1 44:1 51:1 73:1 85:1 87:1 
3.132379254044424 1:121 3:1 20:1 26:1 49:1 51:1 73:1 85:1 87:1 
1.106319118661809 1:46 13:1 20:1 26:1 44:1 51:1 73:1 85:1 87:1 
1.190488747678154 1:321 5:1 15:1 27:1 44:1 53:1 63:1 74:1 86:1 
3.372008555526103 1:275 3:1 20:1 26:1 44:1 53:1 63:1 74:1 86:1 
1.745691932423263 1:128 3:1 20:1 26:1 49:1 53:1 63:1 74:1 86:1 
1.32662027097082 1:362 8:1 15:1 32:1 41:1 51:1 68:1 85:1 97:1 
4 1:180 3:1 20:1 26:1 49:1 51:1 62:1 75:1 97:1 
3.531987385932391 1:105 13:1 20:1 26:1 44:1 51:1 62:1 75:1 97:1 
0.8265361894325343 1:-387 2:1 20:1 33:1 38:1 53:1 62:1 75:1 90:1 
1.465103348590484 1:-331 2:1 20:1 33:1 38:1 52:1 72:1 80:1 93:1 
2.570929752169548 1:-184 2:1 20:1 33:1 38:1 50:1 69:1 79:1 87:1 
1.083257799116667 1:388 5:1 15:1 27:1 44:1 57:1 62:1 75:1 87:1 
0.5750271443165651 1:342 3:1 20:1 26:1 44:1 57:1 62:1 75:1 87:1 
1.60876434397897 1:195 3:1 20:1 26:1 49:1 57:1 62:1 75:1 87:1 
0.2216109871165278 1:399 8:1 15:1 32:1 41:1 51:1 68:1 74:1 86:1 
4 1:352 3:1 20:1 26:1 44:1 57:1 68:1 75:1 92:1 
4 1:13 2:1 20:1 33:1 38:1 57:1 68:1 75:1 92:1 
1.777507241430124 1:425 8:1 15:1 32:1 41:1 50:1 68:1 82:1 93:1 
1.142934695285931 1:447 8:1 15:1 32:1 41:1 56:1 72:1 85:1 94:1 
0.2834818190025494 1:200 3:1 20:1 27:1 45:1 54:1 73:1 75:1 97:1 
2.387228347110563 1:114 3:1 20:1 27:1 44:1 54:1 73:1 75:1 97:1 
0.03527555670914191 1:-50 10:1 21:1 26:1 38:1 54:1 73:1 75:1 97:1 
1.084828655869705 1:-211 3:1 20:1 37:1 39:1 61:1 73:1 80:1 88:1 
0.3763907259073818 1:-375 13:1 18:1 30:1 44:1 61:1 73:1 80:1 88:1 
2.859952268142859 1:-274 3:1 15:1 32:1 49:1 51:1 73:1 85:1 87:1 
0.01901315938987902 1:60 3:1 15:1 32:1 49:1 56:1 69:1 85:1 87:1 
0.8701693192549383 1:128 13:1 24:1 28:1 49:1 52:1 73:1 75:1 97:1 
1.892597657904707 1:74 3:1 15:1 32:1 49:1 52:1 73:1 75:1 97:1 
0.4141313171441294 1:189 8:1 15:1 31:1 44:1 50:1 68:1 75:1 86:1 
0.9014135879792546 1:4 3:1 15:1 37:1 44:1 56:1 63:1 75:1 87:1 
3.657574344067024 1:253 6:1 20:1 32:1 49:1 56:1 63:1 82:1 92:1 
0.08572465557247572 1:188 3:1 15:1 37:1 44:1 56:1 63:1 82:1 92:1 
2.764350528427638 1:181 3:1 15:1 26:1 39:1 56:1 63:1 82:1 92:1 
1.825234788998291 1:287 6:1 20:1 32:1 49:1 56:1 63:1 82:1 86:1 
3.282525466003922 1:222 3:1 15:1 37:1 44:1 56:1 63:1 82:1 86:1 
2.113241397680313 1:215 3:1 15:1 26:1 39:1 56:1 63:1 82:1 86:1 
4 1:-6 13:1 25:1 32:1 38:1 61:1 68:1 75:1 87:1 
2.233548270631473 1:-103 6:1 24:1 27:1 46:1 61:1 68:1 75:1 87:1 
0.4362524491206329 1:-181 12:1 20:1 37:1 49:1 61:1 68:1 75:1 87:1 
0.1008985840417116 1:-323 9:1 19:1 37:1 38:1 51:1 69:1 80:1 89:1 
1.015980002277951 1:-294 9:1 19:1 37:1 38:1 61:1 68:1 75:1 87:1 
1.493427089152906 1:400 6:1 20:1 32:1 40:1 61:1 73:1 74:1 86:1 
1.253458720220325 1:238 6:1 24:1 27:1 46:1 61:1 73:1 74:1 86:1 
4 1:-15 13:1 15:1 37:1 49:1 61:1 73:1 74:1 86:1 
4 1:14 3:1 20:1 32:1 44:1 58:1 68:1 82:1 97:1 
0.7917974617292983 1:-176 13:1 25:1 27:1 38:1 51:1 68:1 75:1 90:1 
0.3941758936474068 1:93 8:1 15:1 32:1 45:1 61:1 68:1 85:1 87:1 
0.2043545389786395 1:132 8:1 15:1 32:1 45:1 56:1 62:1 85:1 87:1 
0.9412008629804562 1:173 8:1 15:1 32:1 45:1 50:1 73:1 80:1 92:1 
4 1:-92 2:1 20:1 26:1 44:1 50:1 68:1 82:1 86:1 
4 1:-122 3:1 20:1 34:1 46:1 56:1 69:1 76:1 87:1 
0.1383554612445521 1:19 2:1 20:1 26:1 44:1 56:1 69:1 75:1 97:1 
0.6705392645936299 1:141 4:1 15:1 37:1 38:1 58:1 73:1 75:1 90:1 
3.014678541021381 1:56 13:1 21:1 27:1 45:1 58:1 73:1 75:1 90:1 
2.77234749363391 1:32 2:1 20:1 26:1 44:1 58:1 73:1 75:1 90:1 
3.643360578061078 1:-146 5:1 15:1 26:1 49:1 56:1 69:1 76:1 87:1 
1.557737366406174 1:71 13:1 21:1 27:1 45:1 56:1 63:1 85:1 87:1 
3.981633503138204 1:47 2:1 20:1 26:1 44:1 56:1 63:1 85:1 87:1 
1.682370555709845 1:76 13:1 21:1 27:1 45:1 57:1 62:1 85:1 86:1 
4 1:-5 4:1 23:1 32:1 49:1 75:1 90:1 
4 1:-22 3:1 20:1 33:1 39:1 75:1 90:1 
4 1:-32 3:1 20:1 33:1 49:1 75:1 90:1 
0.8469997568132942 1:230 5:1 15:1 28:1 47:1 51:1 68:1 74:1 97:1 
0.4239052254465577 1:125 2:1 23:1 26:1 49:1 51:1 68:1 74:1 97:1 
2.283215261861848 1:73 3:1 19:1 32:1 49:1 51:1 68:1 74:1 97:1 
1.245094661814216 1:-262 13:1 20:1 26:1 38:1 75:1 90:1 
1.869961160329077 1:-30 13:1 20:1 26:1 38:1 51:1 68:1 74:1 97:1 
0.6388909325660067 1:-79 3:1 25:1 27:1 38:1 51:1 68:1 74:1 97:1 
4 1:-92 3:1 20:1 33:1 49:1 51:1 68:1 74:1 97:1 
0.371178105803775 1:-107 8:1 20:1 26:1 44:1 51:1 68:1 74:1 97:1 
1.556905280655014 1:-357 8:1 20:1 26:1 44:1 75:1 90:1 
0.8925599416229032 1:361 5:1 15:1 28:1 47:1 56:1 73:1 74:1 97:1 
1.269949917925054 1:341 3:1 20:1 33:1 39:1 56:1 73:1 74:1 97:1 
0.3261046122395803 1:334 8:1 20:1 27:1 44:1 56:1 73:1 74:1 97:1 
0.3602182330621777 1:24 8:1 20:1 26:1 44:1 56:1 73:1 74:1 97:1 
4 1:6 8:1 20:1 26:1 44:1 56:1 73:1 74:1 97:1 
1.095239041355155 1:-479 2:1 21:1 37:1 39:1 75:1 90:1 
0.9332007841253078 1:486 4:1 23:1 32:1 49:1 56:1 68:1 76:1 92:1 
3.082984686292838 1:469 3:1 20:1 33:1 39:1 56:1 68:1 76:1 92:1 
1.783349640305168 1:450 8:1 25:1 26:1 44:1 56:1 68:1 76:1 92:1 
2.999933580697659 1:332 3:1 19:1 32:1 49:1 56:1 68:1 76:1 92:1 
2.907662644087712 1:180 3:1 25:1 27:1 38:1 56:1 68:1 76:1 92:1 
3.57621839528411 1:167 3:1 20:1 33:1 49:1 56:1 68:1 76:1 92:1 
1.234975610957213 1:152 8:1 20:1 26:1 44:1 56:1 68:1 76:1 92:1 
4 1:134 8:1 20:1 26:1 44:1 56:1 68:1 76:1 92:1 
1.583693591755524 1:36 5:1 15:1 30:1 49:1 61:1 73:1 74:1 97:1 
1.468875957447621 1:-110 13:1 20:1 32:1 44:1 52:1 73:1 85:1 87:1 
0.3587910308242792 1:-55 13:1 20:1 32:1 44:1 56:1 72:1 82:1 97:1 
2.025572604832068 1:146 5:1 15:1 30:1 49:1 56:1 69:1 85:1 86:1 
0.1188307582983443 1:145 3:1 18:1 37:1 40:1 56:1 69:1 85:1 86:1 
1.944953498872461 1:176 5:1 15:1 30:1 49:1 50:1 73:1 74:1 97:1 
0.06938889779054133 1:-162 8:1 14:1 32:1 42:1 61:1 73:1 74:1 97:1 
1.257313075498431 1:-164 6:1 20:1 32:1 42:1 61:1 73:1 74:1 97:1 
3.372450103692822 1:-125 6:1 20:1 32:1 42:1 50:1 73:1 85:1 86:1 
1.832430494627279 1:-24 6:1 20:1 32:1 42:1 50:1 73:1 74:1 97:1 
3.473270356682574 1:-125 6:1 20:1 36:1 42:1 56:1 72:1 82:1 97:1 
2.395039272121388 1:-114 6:1 20:1 36:1 42:1 56:1 73:1 75:1 97:1 
0.3558175827642207 1:-185 13:1 20:1 37:1 46:1 52:1 73:1 85:1 87:1 
2.694161105088251 1:-175 13:1 20:1 37:1 46:1 61:1 73:1 74:1 97:1 
0.05329917626804111 1:-65 13:1 20:1 37:1 46:1 56:1 69:1 85:1 86:1 
0.7075135469305213 1:30 8:1 14:1 32:1 42:1 50:1 73:1 75:1 94:1 
3.030523819344761 1:28 6:1 20:1 32:1 42:1 50:1 73:1 75:1 94:1 
0.08550051560161774 1:20 6:1 24:1 37:1 44:1 50:1 73:1 75:1 94:1 
2.350845423444814 1:-206 13:1 16:1 27:1 49:1 61:1 73:1 74:1 97:1 
0.02806300230666776 1:-23 13:1 16:1 27:1 49:1 52:1 73:1 80:1 96:1 
0.3704134666397012 1:-219 2:1 24:1 37:1 38:1 61:1 73:1 74:1 97:1 
0.4296066642625033 1:-163 2:1 24:1 37:1 38:1 56:1 73:1 75:1 97:1 
2.447769170177904 1:-79 2:1 24:1 37:1 38:1 50:1 73:1 74:1 97:1 
2.063510608090063 1:-36 2:1 24:1 37:1 38:1 52:1 73:1 80:1 96:1 
1.146855565493436 1:334 8:1 14:1 27:1 39:1 51:1 68:1 75:1 97:1 
0.006272981426333509 1:611 27:1 49:1 56:1 69:1 74:1 92:1 
0.1534939069917583 1:547 13:1 20:1 27:1 49:1 56:1 69:1 74:1 92:1 
1.794324302330984 1:393 8:1 14:1 27:1 39:1 56:1 69:1 74:1 92:1 
4 1:-138 5:1 15:1 33:1 49:1 61:1 69:1 75:1 87:1 
1.756501697930839 1:-87 5:1 15:1 33:1 49:1 61:1 73:1 75:1 97:1 
4 1:-2 5:1 15:1 33:1 49:1 56:1 69:1 75:1 90:1 
1.926720056767697 1:-271 13:1 20:1 32:1 39:1 61:1 69:1 75:1 87:1 
0.8425078918680303 1:-240 13:1 20:1 32:1 39:1 56:1 69:1 85:1 87:1 
3.38423145487993 1:-220 13:1 20:1 32:1 39:1 61:1 73:1 75:1 97:1 
2.244374455555661 1:-135 13:1 20:1 32:1 39:1 56:1 69:1 75:1 90:1 
1.243908678349486 1:-319 2:1 20:1 26:1 44:1 50:1 68:1 85:1 86:1 
1.296799870663181 1:-280 2:1 20:1 26:1 44:1 61:1 69:1 75:1 87:1 
0.512983378691133 1:-249 2:1 20:1 26:1 44:1 56:1 69:1 85:1 87:1 
2.843235165907868 1:-229 2:1 20:1 26:1 44:1 61:1 73:1 75:1 97:1 
3.251450182381542 1:-144 2:1 20:1 26:1 44:1 56:1 69:1 75:1 90:1 
0.5333579087494893 1:-279 9:1 15:1 32:1 43:1 56:1 69:1 85:1 87:1 
1.22904187243367 1:345 5:1 15:1 33:1 49:1 56:1 62:1 74:1 97:1 
0.02756922564947342 1:173 9:1 15:1 32:1 43:1 56:1 62:1 74:1 97:1 
0.3745258235770058 1:-24 3:1 21:1 37:1 49:1 50:1 73:1 75:1 97:1 
0.3767607730762257 1:-56 8:1 25:1 26:1 49:1 50:1 73:1 75:1 97:1 
1.040460996471021 1:-167 3:1 15:1 36:1 42:1 61:1 68:1 75:1 90:1 
0.7301725541287577 1:-171 6:1 20:1 33:1 39:1 61:1 68:1 75:1 90:1 
4 1:-212 3:1 20:1 31:1 49:1 61:1 68:1 75:1 90:1 
0.9652758242140581 1:-161 8:1 15:1 32:1 40:1 61:1 68:1 74:1 97:1 
1.280040905483871 1:-152 5:1 15:1 33:1 44:1 60:1 68:1 85:1 93:1 
3.985355856999066 1:-115 5:1 15:1 33:1 44:1 50:1 68:1 85:1 86:1 
0.2109757458546722 1:-75 5:1 15:1 33:1 44:1 56:1 69:1 76:1 92:1 
4 1:-259 3:1 20:1 26:1 44:1 56:1 62:1 85:1 97:1 
3.101566850799975 1:-245 3:1 20:1 26:1 44:1 61:1 68:1 74:1 97:1 
0.6436820162569609 1:-132 3:1 20:1 26:1 44:1 50:1 68:1 85:1 86:1 
0.3845340883537591 1:-92 3:1 20:1 26:1 44:1 56:1 69:1 76:1 92:1 
0.08188414144970353 1:-238 3:1 14:1 33:1 44:1 61:1 69:1 77:1 97:1 
0.6186413509540803 1:-206 3:1 14:1 33:1 44:1 57:1 67:1 74:1 97:1 
2.993950333600732 1:-174 3:1 14:1 33:1 44:1 61:1 68:1 75:1 87:1 
1.401511185501496 1:-19 3:1 14:1 33:1 44:1 56:1 68:1 75:1 97:1 
4 1:-4 3:1 14:1 33:1 44:1 61:1 68:1 74:1 87:1 
0.7847337064319954 1:25 3:1 14:1 33:1 44:1 61:1 68:1 75:1 87:1 
4 1:-1 17:1 32:1 49:1 78:1 92:1 
4 1:-12 2:1 20:1 33:1 49:1 51:1 68:1 76:1 92:1 
0.4782624686979449 1:-57 13:1 20:1 33:1 49:1 56:1 63:1 75:1 97:1 
1.460646995534207 1:-27 13:1 20:1 33:1 49:1 51:1 68:1 76:1 92:1 
0.1653502609323672 1:-82 8:1 25:1 33:1 49:1 51:1 68:1 76:1 92:1 
2.14865376311859 1:149 2:1 20:1 33:1 49:1 56:1 68:1 78:1 92:1 
2.975959277318379 1:40 2:1 14:1 33:1 49:1 56:1 68:1 78:1 92:1 
0.5991774664758703 1:-192 8:1 17:1 32:1 49:1 56:1 63:1 75:1 97:1 
0.5940494198845109 1:-162 8:1 17:1 32:1 49:1 51:1 68:1 76:1 92:1 
4 1:-1 8:1 17:1 32:1 49:1 56:1 68:1 78:1 92:1 
2.867909150665897 1:85 8:1 25:1 33:1 49:1 56:1 73:1 75:1 93:1 
3.012259957407935 1:213 2:1 20:1 33:1 49:1 50:1 68:1 85:1 94:1 
1.141994156207087 1:198 13:1 20:1 33:1 49:1 50:1 68:1 85:1 94:1 
0.5286767708440461 1:104 2:1 14:1 33:1 49:1 50:1 68:1 85:1 94:1 
3.184531137855635 1:109 2:1 14:1 33:1 49:1 50:1 73:1 80:1 97:1 
0.6825234810009462 1:226 13:1 15:1 26:1 44:1 56:1 68:1 82:1 87:1 
4 1:-4 8:1 20:1 27:1 44:1 61:1 68:1 75:1 92:1 
4 1:30 2:1 20:1 32:1 44:1 60:1 68:1 75:1 92:1 
1.856847624839311 1:-58 13:1 20:1 26:1 40:1 61:1 68:1 75:1 92:1 
1.122737040872677 1:-37 13:1 20:1 26:1 40:1 60:1 68:1 75:1 92:1 
0.9942678695839071 1:-114 3:1 15:1 27:1 38:1 61:1 68:1 75:1 92:1 
2.451838987210691 1:226 13:1 15:1 26:1 44:1 61:1 68:1 85:1 86:1 
0.2408130442311172 1:170 8:1 20:1 27:1 44:1 61:1 68:1 85:1 86:1 
0.8007738444880073 1:122 2:1 20:1 32:1 44:1 61:1 68:1 85:1 86:1 
0.6676012510061532 1:-191 8:1 20:1 32:1 45:1 61:1 68:1 75:1 92:1 
2.245000107158538 1:-17 8:1 20:1 32:1 45:1 61:1 68:1 85:1 86:1 
0.4149650157433433 1:277 13:1 15:1 26:1 44:1 61:1 68:1 85:1 97:1 
0.2495975095140259 1:271 3:1 25:1 34:1 39:1 61:1 68:1 85:1 97:1 
4 1:167 13:1 20:1 26:1 40:1 61:1 68:1 85:1 97:1 
4 1:-111 8:1 20:1 26:1 39:1 56:1 73:1 81:1 86:1 
3.191607568237223 1:-65 8:1 20:1 26:1 39:1 61:1 68:1 81:1 92:1 
1.8316649212472 1:-287 12:1 20:1 27:1 44:1 56:1 73:1 81:1 86:1 
4 1:-12 5:1 15:1 37:1 49:1 76:1 92:1 
4 1:14 8:1 15:1 32:1 41:1 53:1 72:1 82:1 93:1 
4 1:-20 13:1 20:1 37:1 49:1 54:1 68:1 75:1 90:1 
4 1:141 5:1 15:1 37:1 49:1 51:1 68:1 75:1 92:1 
1.836567834382676 1:123 13:1 20:1 37:1 49:1 51:1 68:1 75:1 92:1 
1.998645567454255 1:144 5:1 15:1 37:1 49:1 51:1 68:1 75:1 92:1 
1.22073072555245 1:147 5:1 15:1 37:1 49:1 51:1 68:1 75:1 90:1 
1.70621513256858 1:-151 5:1 15:1 32:1 41:1 54:1 68:1 75:1 90:1 
1.133138768120833 1:-145 5:1 15:1 32:1 41:1 61:1 69:1 74:1 97:1 
0.3161456527594326 1:155 8:1 15:1 32:1 41:1 54:1 68:1 75:1 90:1 
0.0975568042562056 1:133 13:1 20:1 37:1 49:1 54:1 68:1 75:1 90:1 
4 1:2 5:1 15:1 32:1 41:1 54:1 68:1 75:1 90:1 
1.266858335856782 1:-145 5:1 15:1 32:1 41:1 61:1 72:1 84:1 89:1 
3.496538818144109 1:-143 5:1 15:1 32:1 41:1 53:1 72:1 82:1 93:1 
4 1:-9 5:1 15:1 32:1 41:1 51:1 68:1 75:1 92:1 
4 1:-6 5:1 15:1 32:1 41:1 51:1 68:1 75:1 90:1 
2.077334435906217 1:159 8:1 15:1 32:1 41:1 54:1 68:1 83:1 87:1 
4 1:155 5:1 15:1 37:1 49:1 54:1 68:1 83:1 87:1 
4 1:137 13:1 20:1 37:1 49:1 54:1 68:1 83:1 87:1 
4 1:2 5:1 15:1 32:1 41:1 54:1 68:1 83:1 87:1 
0.5622643210977818 1:-170 11:1 15:1 36:1 40:1 76:1 92:1 
0.3800056137496663 1:-160 11:1 15:1 36:1 40:1 54:1 68:1 75:1 90:1 
0.9574608949045225 1:-148 11:1 15:1 36:1 40:1 53:1 72:1 82:1 93:1 
4 1:-14 11:1 15:1 36:1 40:1 51:1 68:1 75:1 92:1 
4 1:-7 11:1 15:1 36:1 40:1 54:1 68:1 75:1 90:1 
0.5318781416552715 1:-164 4:1 15:1 37:1 38:1 54:1 68:1 75:1 90:1 
1.324528040524486 1:-152 4:1 15:1 37:1 38:1 53:1 72:1 82:1 93:1 
4 1:-7 4:1 15:1 37:1 38:1 54:1 68:1 83:1 87:1 
1.652080392775348 1:141 6:1 20:1 37:1 39:1 50:1 73:1 83:1 87:1 
4 1:149 6:1 20:1 32:1 42:1 51:1 68:1 83:1 92:1 
0.6356170027175081 1:129 2:1 20:1 27:1 38:1 51:1 68:1 83:1 92:1 
2.532564807509818 1:152 6:1 20:1 32:1 42:1 59:1 68:1 75:1 90:1 
3.220121250639183 1:154 6:1 20:1 32:1 42:1 54:1 68:1 75:1 86:1 
1.014386470156299 1:152 6:1 20:1 37:1 39:1 54:1 68:1 75:1 86:1 
1.132220698185903 1:136 2:1 20:1 27:1 38:1 54:1 68:1 75:1 86:1 
4 1:157 6:1 20:1 32:1 42:1 51:1 62:1 75:1 90:1 
0.6543217976113568 1:139 2:1 20:1 27:1 38:1 51:1 62:1 75:1 90:1 
0.7835620591566191 1:-16 5:1 15:1 32:1 41:1 50:1 73:1 83:1 87:1 
4 1:-12 5:1 15:1 32:1 41:1 51:1 68:1 83:1 92:1 
4 1:-9 5:1 15:1 32:1 41:1 59:1 68:1 75:1 90:1 
4 1:163 6:1 20:1 32:1 42:1 54:1 68:1 75:1 90:1 
2.398111244796412 1:159 6:1 20:1 37:1 39:1 54:1 68:1 75:1 90:1 
4 1:2 5:1 15:1 32:1 41:1 54:1 68:1 75:1 90:1 
4 1:-20 5:1 15:1 32:1 41:1 50:1 73:1 83:1 87:1 
4 1:-9 5:1 15:1 32:1 41:1 54:1 68:1 75:1 86:1 
4 1:-6 5:1 15:1 32:1 41:1 51:1 62:1 75:1 90:1 
4 1:165 6:1 20:1 32:1 42:1 54:1 68:1 75:1 90:1 
4 1:2 5:1 15:1 32:1 41:1 54:1 68:1 75:1 90:1 
4 1:-24 5:1 15:1 37:1 44:1 50:1 73:1 83:1 87:1 
0.4134388133384789 1:-20 5:1 15:1 37:1 44:1 51:1 68:1 83:1 92:1 
4 1:-6 5:1 15:1 37:1 44:1 54:1 68:1 75:1 90:1 
0.4661950832973779 1:-109 13:1 14:1 32:1 48:1 50:1 73:1 83:1 87:1 
3.558406673911948 1:-91 13:1 14:1 32:1 48:1 54:1 68:1 75:1 90:1 
2.582483258551344 1:-87 13:1 14:1 32:1 48:1 54:1 68:1 75:1 90:1 
4 1:52 11:1 15:1 37:1 38:1 56:1 68:1 75:1 92:1 
1.642738508279186 1:-63 11:1 15:1 33:1 49:1 50:1 68:1 75:1 92:1 
4 1:-60 11:1 15:1 33:1 49:1 51:1 68:1 83:1 87:1 
2.519273770103351 1:-88 3:1 14:1 27:1 44:1 51:1 68:1 83:1 87:1 
4 1:-127 3:1 20:1 26:1 44:1 50:1 68:1 75:1 92:1 
4 1:-124 3:1 20:1 26:1 44:1 51:1 68:1 83:1 87:1 
1.478625968979519 1:169 11:1 15:1 37:1 38:1 51:1 68:1 74:1 93:1 
3.147054128612098 1:73 3:1 20:1 26:1 44:1 60:1 62:1 75:1 87:1 
2.116987657874311 1:-214 3:1 20:1 26:1 44:1 50:1 68:1 75:1 92:1 
4 1:-211 3:1 20:1 26:1 44:1 51:1 68:1 83:1 87:1 
2.119414463069137 1:-14 3:1 20:1 26:1 44:1 60:1 62:1 75:1 87:1 
2.725814017828561 1:-307 13:1 20:1 26:1 44:1 51:1 68:1 83:1 87:1 
1.293948381286745 1:-110 13:1 20:1 26:1 44:1 60:1 62:1 75:1 87:1 
2.215309265518159 1:-41 13:1 25:1 32:1 46:1 50:1 62:1 75:1 97:1 
1.385106394285079 1:-29 3:1 15:1 34:1 45:1 56:1 68:1 75:1 97:1 
3.154038756669563 1:-101 3:1 25:1 34:1 38:1 50:1 62:1 75:1 97:1 
0.548170337912265 1:199 4:1 15:1 26:1 40:1 56:1 62:1 85:1 87:1 
0.5905103838037199 1:-424 8:1 15:1 32:1 50:1 62:1 75:1 97:1 
4 1:-1 8:1 17:1 27:1 39:1 51:1 68:1 78:1 87:1 
1.590703098528508 1:-343 8:1 15:1 34:1 38:1 51:1 68:1 78:1 87:1 
1.508965039031983 1:-368 13:1 20:1 37:1 39:1 51:1 68:1 78:1 87:1 
4 1:-9 5:1 15:1 32:1 41:1 76:1 92:1 
4 1:2 5:1 15:1 32:1 41:1 54:1 68:1 75:1 90:1 
4 1:-6 5:1 15:1 32:1 39:1 61:1 68:1 75:1 90:1 
1.845741232032309 1:207 5:1 15:1 32:1 41:1 56:1 73:1 85:1 97:1 
0.09611944685818179 1:-270 13:1 20:1 32:1 44:1 54:1 68:1 75:1 90:1 
0.3237204785101966 1:-263 13:1 20:1 32:1 44:1 61:1 63:1 85:1 97:1 
0.228783006529167 1:-124 13:1 20:1 32:1 44:1 61:1 63:1 75:1 86:1 
1.911714527876027 1:306 5:1 15:1 32:1 41:1 56:1 63:1 74:1 97:1 
3.136264882573287 1:334 5:1 15:1 32:1 41:1 56:1 68:1 75:1 86:1 
0.8227394595862095 1:330 5:1 15:1 32:1 39:1 56:1 68:1 75:1 86:1 
0.01296521164003024 1:372 5:1 15:1 32:1 41:1 61:1 68:1 81:1 97:1 
1.959985836736105 1:368 5:1 15:1 32:1 39:1 61:1 68:1 81:1 97:1 
1.463828744868988 1:-200 13:1 25:1 27:1 46:1 56:1 69:1 74:1 92:1 
0.1149600970077742 1:-46 3:1 22:1 26:1 44:1 54:1 62:1 74:1 87:1 
4 1:-73 13:1 20:1 26:1 38:1 54:1 62:1 74:1 87:1 
0.7270649770422701 1:-343 8:1 20:1 30:1 44:1 50:1 64:1 74:1 91:1 
1.778053949754824 1:114 8:1 25:1 32:1 38:1 61:1 68:1 75:1 87:1 
1.980025335317767 1:-24 8:1 15:1 36:1 43:1 61:1 68:1 75:1 87:1 
0.6903288290839121 1:-47 7:1 20:1 27:1 38:1 61:1 68:1 75:1 87:1 
0.2759221844759897 1:-16 5:1 15:1 26:1 49:1 56:1 68:1 75:1 87:1 
2.76950234737092 1:52 13:1 20:1 27:1 44:1 56:1 68:1 75:1 87:1 
4 1:22 5:1 15:1 26:1 49:1 56:1 68:1 75:1 87:1 
2.103251026507868 1:76 13:1 15:1 26:1 44:1 53:1 68:1 74:1 95:1 
0.6490241782432959 1:62 13:1 20:1 27:1 44:1 53:1 68:1 74:1 95:1 
0.07037523466499053 1:32 5:1 15:1 26:1 49:1 53:1 68:1 74:1 95:1 
0.198202409934304 1:80 13:1 20:1 27:1 44:1 61:1 68:1 75:1 92:1 
0.9941636977729549 1:50 5:1 15:1 26:1 49:1 61:1 68:1 75:1 92:1 
3.233992018734466 1:-95 3:1 20:1 32:1 39:1 56:1 68:1 75:1 87:1 
1.568801197913112 1:-29 3:1 20:1 32:1 39:1 61:1 68:1 75:1 92:1 
2.732962112574441 1:-108 8:1 20:1 37:1 39:1 51:1 68:1 75:1 92:1 
0.2745396185834028 1:-102 8:1 20:1 37:1 39:1 51:1 68:1 75:1 90:1 
0.8273071130827351 1:-68 8:1 20:1 37:1 39:1 53:1 68:1 74:1 95:1 
3.373397248922201 1:-131 13:1 19:1 37:1 49:1 51:1 68:1 75:1 90:1 
4 1:219 5:1 15:1 26:1 49:1 51:1 68:1 83:1 87:1 
1.370837235769073 1:140 3:1 20:1 32:1 39:1 51:1 68:1 83:1 87:1 
1.457119540640386 1:90 13:1 19:1 37:1 49:1 51:1 68:1 83:1 87:1 
0.2661432792438669 1:-238 11:1 15:1 32:1 42:1 56:1 68:1 75:1 87:1 
0.9606628800349519 1:-190 11:1 15:1 32:1 42:1 53:1 68:1 74:1 95:1 
4 1:-240 6:1 20:1 37:1 38:1 56:1 68:1 75:1 87:1 
3.56056739626389 1:-174 6:1 20:1 37:1 38:1 61:1 68:1 75:1 92:1 
4 1:-13 8:1 25:1 32:1 39:1 76:1 92:1 
0.6198465576187542 1:-139 8:1 20:1 32:1 44:1 76:1 92:1 
0.6342136246923041 1:-211 2:1 20:1 33:1 49:1 76:1 92:1 
1.238410724945675 1:172 2:1 14:1 32:1 42:1 61:1 69:1 75:1 92:1 
1.38626556782042 1:170 6:1 20:1 33:1 39:1 61:1 69:1 75:1 92:1 
0.04740132326602732 1:97 8:1 20:1 33:1 39:1 51:1 68:1 75:1 92:1 
3.468335487541573 1:182 6:1 20:1 33:1 39:1 51:1 68:1 75:1 92:1 
2.274854240762235 1:47 3:1 20:1 37:1 49:1 51:1 68:1 75:1 92:1 
4 1:-4 3:1 20:1 27:1 44:1 51:1 72:1 74:1 87:1 
2.230657179442554 1:-153 12:1 14:1 27:1 44:1 52:1 62:1 85:1 87:1 
0.7594212919526219 1:-204 3:1 25:1 37:1 49:1 52:1 62:1 85:1 87:1 
2.171348937078143 1:79 20:1 37:1 39:1 61:1 68:1 75:1 90:1 
3.847501531200489 1:162 5:1 15:1 26:1 49:1 61:1 68:1 83:1 87:1 
4 1:-167 11:1 15:1 26:1 49:1 61:1 68:1 75:1 90:1 
0.3231823420320789 1:19 11:1 15:1 26:1 49:1 53:1 68:1 83:1 92:1 
0.8885491014145557 1:22 11:1 15:1 26:1 49:1 59:1 68:1 74:1 97:1 
4 1:-243 13:1 20:1 32:1 39:1 61:1 68:1 75:1 90:1 
3.448685197464422 1:-57 13:1 20:1 32:1 39:1 53:1 68:1 83:1 92:1 
0.2534655080619219 1:368 20:1 37:1 39:1 61:1 62:1 80:1 97:1 
0.7756310947196268 1:287 5:1 15:1 26:1 49:1 61:1 62:1 80:1 97:1 
4 1:-139 3:1 20:1 32:1 42:1 61:1 68:1 83:1 87:1 
3.162405943906504 1:-119 6:1 20:1 37:1 39:1 53:1 68:1 83:1 92:1 
0.6775925419997749 1:397 20:1 37:1 39:1 51:1 68:1 75:1 94:1 
0.581988160488584 1:374 13:1 15:1 26:1 44:1 51:1 68:1 75:1 94:1 
0.7346725148126086 1:24 13:1 21:1 27:1 39:1 61:1 68:1 75:1 92:1 
0.9185334199498578 1:134 13:1 21:1 27:1 39:1 50:1 62:1 80:1 88:1 
0.4794504080810963 1:48 3:1 25:1 32:1 49:1 50:1 62:1 80:1 88:1 
1.248945681685481 1:122 13:1 20:1 32:1 49:1 56:1 62:1 76:1 87:1 
0.01328509293321269 1:-58 12:1 15:1 36:1 39:1 61:1 68:1 75:1 87:1 
4 1:-9 12:1 15:1 36:1 39:1 56:1 62:1 76:1 87:1 
2.459823399709486 1:142 13:1 20:1 32:1 49:1 50:1 62:1 85:1 91:1 
1.587725951261813 1:11 12:1 15:1 36:1 39:1 50:1 62:1 85:1 91:1 
0.6136614856631424 1:181 13:1 20:1 32:1 49:1 61:1 68:1 74:1 92:1 
4 1:-137 2:1 20:1 32:1 49:1 51:1 68:1 85:1 87:1 
4 1:-111 2:1 20:1 32:1 49:1 61:1 68:1 75:1 87:1 
4 1:-3 2:1 20:1 32:1 49:1 61:1 68:1 74:1 92:1 
4 1:-5 13:1 20:1 32:1 39:1 61:1 68:1 75:1 91:1 
4 1:-8 8:1 15:1 32:1 48:1 61:1 68:1 75:1 91:1 
0.6270043853284191 1:39 13:1 15:1 26:1 44:1 51:1 68:1 82:1 93:1 
1.973322461121624 1:89 13:1 15:1 26:1 44:1 51:1 73:1 85:1 94:1 
1.813331496070635 1:151 13:1 15:1 26:1 44:1 56:1 73:1 81:1 92:1 
2.475330957014686 1:72 7:1 20:1 37:1 49:1 56:1 73:1 81:1 92:1 
4 1:-100 5:1 15:1 27:1 38:1 51:1 73:1 85:1 94:1 
3.102921668036901 1:-38 5:1 15:1 27:1 38:1 56:1 73:1 81:1 92:1 
0.5820188555721114 1:-183 8:1 19:1 32:1 49:1 51:1 68:1 82:1 93:1 
0.8745375630770378 1:-38 8:1 19:1 32:1 49:1 61:1 68:1 75:1 92:1 
4 1:172 3:1 15:1 26:1 44:1 56:1 63:1 82:1 86:1 
0.7473716711063183 1:127 3:1 20:1 32:1 49:1 56:1 63:1 82:1 86:1 
0.09252953703356537 1:84 3:1 20:1 26:1 39:1 56:1 63:1 82:1 86:1 
3.102242355541229 1:64 13:1 20:1 37:1 38:1 56:1 63:1 82:1 86:1 
1.878560229376861 1:119 8:1 15:1 33:1 38:1 51:1 68:1 80:1 97:1 
0.4736346242086332 1:87 13:1 20:1 37:1 38:1 51:1 68:1 80:1 97:1 
0.4615433891940877 1:85 8:1 25:1 37:1 46:1 51:1 62:1 75:1 87:1 
0.09140920369967404 1:23 8:1 20:1 33:1 39:1 61:1 68:1 75:1 87:1 
0.4913728867703839 1:104 8:1 25:1 37:1 46:1 61:1 69:1 85:1 86:1 
1.824972353206429 1:76 8:1 20:1 33:1 39:1 51:1 68:1 75:1 87:1 
2.964808119187016 1:166 8:1 23:1 26:1 49:1 51:1 68:1 76:1 87:1 
3.60230799815103 1:158 8:1 25:1 37:1 46:1 51:1 68:1 76:1 87:1 
4 1:-1 17:1 32:1 49:1 78:1 92:1 
2.885091118029822 1:94 3:1 25:1 26:1 44:1 50:1 68:1 85:1 87:1 
0.2208850537295723 1:198 13:1 15:1 32:1 48:1 55:1 68:1 85:1 86:1 
0.1383500749844511 1:102 3:1 25:1 26:1 44:1 55:1 68:1 85:1 86:1 
0.03315376372093594 1:236 13:1 15:1 32:1 48:1 56:1 73:1 79:1 89:1 
0.8459614673673896 1:20 13:1 25:1 32:1 39:1 51:1 68:1 81:1 97:1 
1.236402727903379 1:367 2:1 25:1 37:1 39:1 55:1 73:1 75:1 96:1 
1.253006120279833 1:241 3:1 25:1 26:1 44:1 55:1 73:1 75:1 96:1 
3.118490927543262 1:270 3:1 25:1 26:1 44:1 61:1 68:1 85:1 86:1 
1.439418397207422 1:-96 3:1 15:1 27:1 38:1 51:1 68:1 81:1 97:1 
0.6577428107936794 1:-41 3:1 15:1 27:1 38:1 55:1 73:1 75:1 96:1 
0.9862536950785589 1:-183 3:1 14:1 26:1 44:1 55:1 68:1 85:1 86:1 
2.978784731352731 1:-145 3:1 14:1 26:1 44:1 56:1 73:1 79:1 89:1 
2.316733961797661 1:-99 3:1 14:1 26:1 44:1 51:1 68:1 81:1 97:1 
2.105593955356275 1:-92 3:1 14:1 26:1 44:1 61:1 62:1 85:1 92:1 
0.08470497694635883 1:-31 3:1 14:1 26:1 44:1 61:1 73:1 85:1 92:1 
0.4752818332874513 1:414 2:1 25:1 37:1 39:1 50:1 68:1 79:1 89:1 
2.773997214830473 1:288 3:1 25:1 26:1 44:1 50:1 68:1 79:1 89:1 
3.104133905462974 1:57 2:1 15:1 32:1 40:1 50:1 68:1 79:1 89:1 
4 1:3 3:1 14:1 26:1 44:1 50:1 68:1 79:1 89:1 
3.014093229519149 1:-60 2:1 15:1 37:1 38:1 55:1 73:1 75:1 96:1 
0.04791968782595022 1:416 13:1 15:1 32:1 48:1 57:1 62:1 75:1 93:1 
0.547586016618847 1:35 3:1 14:1 26:1 44:1 57:1 62:1 75:1 93:1 
0.7597370680318931 1:449 2:1 25:1 37:1 39:1 51:1 69:1 75:1 97:1 
1.298301992836097 1:157 13:1 25:1 32:1 39:1 51:1 69:1 75:1 97:1 
1.057310416504415 1:426 13:1 15:1 32:1 48:1 50:1 69:1 85:1 87:1 
1.936508765364358 1:29 2:1 15:1 37:1 38:1 50:1 69:1 85:1 87:1 
0.3773700768124119 1:-249 3:1 25:1 32:1 44:1 55:1 68:1 85:1 86:1 
3.983795613547071 1:-97 3:1 25:1 32:1 44:1 61:1 73:1 85:1 92:1 
0.1789212462803422 1:320 8:1 15:1 32:1 44:1 51:1 68:1 85:1 86:1 
0.004762832281381334 1:78 13:1 15:1 26:1 44:1 56:1 70:1 81:1 92:1 
0.1520998195873257 1:101 13:1 15:1 26:1 44:1 54:1 68:1 81:1 97:1 
0.630541486144391 1:-58 3:1 16:1 32:1 43:1 56:1 63:1 82:1 93:1 
0.02069281054981895 1:66 13:1 25:1 32:1 41:1 54:1 68:1 75:1 93:1 
0.4708950941443686 1:68 3:1 16:1 32:1 43:1 56:1 62:1 80:1 
0.4909551064576834 1:53 2:1 20:1 32:1 44:1 61:1 63:1 85:1 92:1 
0.4097540478138881 1:120 3:1 20:1 32:1 39:1 51:1 68:1 75:1 92:1 
4 1:58 2:1 20:1 32:1 44:1 51:1 68:1 75:1 92:1 
1.167950520299712 1:137 2:1 20:1 32:1 44:1 61:1 73:1 76:1 91:1 
1.869521660117286 1:-69 3:1 14:1 27:1 44:1 56:1 68:1 82:1 86:1 
0.5958637679910108 1:-91 9:1 14:1 27:1 49:1 61:1 68:1 85:1 86:1 
1.859490406262746 1:-78 9:1 14:1 27:1 49:1 50:1 68:1 82:1 86:1 
3.357442966817466 1:-104 10:1 22:1 27:1 44:1 51:1 68:1 83:1 92:1 
2.277989360457019 1:-91 10:1 22:1 27:1 44:1 53:1 68:1 81:1 94:1 
1.352939826239745 1:-145 13:1 15:1 32:1 49:1 83:1 87:1 
4 1:-141 13:1 15:1 32:1 49:1 51:1 68:1 83:1 92:1 
0.2151268627718639 1:-138 13:1 15:1 32:1 49:1 59:1 68:1 75:1 90:1 
4 1:177 5:1 15:1 27:1 49:1 61:1 68:1 75:1 86:1 
0.5216826191565088 1:-142 13:1 15:1 34:1 38:1 51:1 69:1 75:1 90:1 
0.4455051703764464 1:101 8:1 25:1 31:1 49:1 61:1 68:1 82:1 87:1 
3.32910806899362 1:97 13:1 15:1 34:1 49:1 61:1 68:1 82:1 87:1 
0.4809646395051921 1:92 10:1 21:1 37:1 49:1 61:1 68:1 82:1 87:1 
0.6675955078593092 1:60 2:1 14:1 36:1 38:1 61:1 68:1 82:1 87:1 
0.6525620100549158 1:464 20:1 26:1 44:1 50:1 68:1 79:1 97:1 
0.3695957192495734 1:460 8:1 25:1 31:1 49:1 50:1 68:1 79:1 97:1 
1.141097821033675 1:456 13:1 15:1 34:1 49:1 50:1 68:1 79:1 97:1 
1.131138859751475 1:451 10:1 21:1 37:1 49:1 50:1 68:1 79:1 97:1 
0.1402010195218751 1:419 2:1 14:1 36:1 38:1 50:1 68:1 79:1 97:1 
1.123556785836191 1:391 13:1 25:1 37:1 44:1 50:1 68:1 79:1 97:1 
2.171900927668021 1:77 5:1 21:1 37:1 49:1 56:1 73:1 75:1 87:1 
0.09924204380744449 1:-186 8:1 25:1 31:1 49:1 69:1 81:1 90:1 
0.536943849345636 1:-139 8:1 25:1 31:1 49:1 61:1 63:1 74:1 86:1 
1.299176772226224 1:-107 8:1 25:1 31:1 49:1 56:1 73:1 75:1 87:1 
2.79789923459228 1:-60 8:1 25:1 31:1 49:1 56:1 73:1 75:1 87:1 
0.4639196805358248 1:-189 2:1 25:1 33:1 49:1 61:1 63:1 74:1 86:1 
2.529400625476556 1:-157 2:1 25:1 33:1 49:1 56:1 73:1 75:1 87:1 
2.784902217870162 1:-110 2:1 25:1 33:1 49:1 56:1 73:1 75:1 87:1 
1.463104702260714 1:245 5:1 21:1 37:1 49:1 50:1 68:1 80:1 92:1 
0.6460259463791103 1:11 2:1 25:1 33:1 49:1 50:1 68:1 80:1 92:1 
2.459003845766031 1:-276 3:1 20:1 26:1 39:1 69:1 81:1 90:1 
1.970430917734662 1:-229 3:1 20:1 26:1 39:1 61:1 63:1 74:1 86:1 
3.406941175732245 1:-197 3:1 20:1 26:1 39:1 56:1 73:1 75:1 87:1 
3.290954402791496 1:-150 3:1 20:1 26:1 39:1 56:1 73:1 75:1 87:1 
2.783458577369273 1:-29 3:1 20:1 26:1 39:1 50:1 68:1 80:1 92:1 
0.7420386766912949 1:124 8:1 25:1 31:1 49:1 61:1 62:1 85:1 86:1 
0.3733683097800607 1:-268 8:1 20:1 30:1 44:1 61:1 63:1 74:1 86:1 
0.9945936864643774 1:20 13:1 20:1 32:1 42:1 56:1 68:1 85:1 87:1 
0.934770684790316 1:18 6:1 20:1 32:1 41:1 56:1 68:1 85:1 87:1 
4 1:14 5:1 15:1 37:1 38:1 56:1 68:1 85:1 87:1 
4 1:47 13:1 20:1 32:1 42:1 56:1 68:1 85:1 87:1 
0.5626481355295017 1:41 5:1 15:1 37:1 38:1 56:1 68:1 85:1 87:1 
0.9328837967073701 1:164 13:1 20:1 32:1 42:1 50:1 68:1 75:1 97:1 
3.746786872259725 1:158 5:1 15:1 37:1 38:1 50:1 68:1 75:1 97:1 
0.3464592742340317 1:-211 3:1 21:1 31:1 39:1 76:1 92:1 
1.271059503242401 1:-200 3:1 21:1 31:1 39:1 54:1 68:1 75:1 90:1 
2.64619273891272 1:-53 3:1 21:1 31:1 39:1 56:1 63:1 74:1 92:1 
1.726209675615917 1:-40 3:1 21:1 31:1 39:1 50:1 68:1 75:1 97:1 
0.09412238715463997 1:-197 3:1 24:1 27:1 45:1 50:1 68:1 85:1 87:1 
0.03574202509913259 1:-47 3:1 24:1 27:1 45:1 50:1 68:1 75:1 97:1 
3.311180373030866 1:-6 3:1 14:1 32:1 42:1 50:1 68:1 75:1 90:1 
3.467910060006492 1:-21 6:1 20:1 33:1 42:1 50:1 68:1 80:1 92:1 
1.041371464377729 1:163 6:1 20:1 26:1 44:1 51:1 68:1 75:1 90:1 
1.548451325714662 1:145 5:1 15:1 33:1 39:1 51:1 68:1 75:1 90:1 
4 1:39 2:1 20:1 33:1 42:1 51:1 68:1 75:1 90:1 
1.695792889292697 1:-149 5:1 15:1 33:1 49:1 50:1 68:1 75:1 90:1 
1.705595498797817 1:194 5:1 15:1 33:1 39:1 52:1 72:1 74:1 97:1 
0.9994185991671297 1:188 6:1 20:1 33:1 42:1 52:1 72:1 74:1 97:1 
0.08085203353104227 1:88 2:1 20:1 33:1 42:1 52:1 72:1 74:1 97:1 
1.021799257124296 1:47 5:1 15:1 33:1 49:1 52:1 72:1 74:1 97:1 
1.446657587712844 1:233 6:1 20:1 26:1 44:1 61:1 68:1 82:1 97:1 
0.496467828552044 1:207 6:1 21:1 37:1 38:1 61:1 68:1 82:1 97:1 
4 1:109 2:1 20:1 33:1 42:1 61:1 68:1 82:1 97:1 
4 1:107 6:1 21:1 37:1 38:1 61:1 68:1 82:1 97:1 
4 1:68 5:1 15:1 33:1 49:1 61:1 68:1 82:1 97:1 
0.5990303220630965 1:217 6:1 20:1 33:1 42:1 61:1 68:1 82:1 97:1 
4 1:115 6:1 21:1 37:1 38:1 61:1 68:1 82:1 97:1 
1.912373640472204 1:-274 3:1 24:1 27:1 46:1 50:1 68:1 75:1 90:1 
2.721224768236398 1:-57 3:1 24:1 27:1 46:1 61:1 68:1 82:1 97:1 
0.5659634313483357 1:180 6:1 21:1 37:1 38:1 54:1 68:1 80:1 87:1 
1.982913782701168 1:141 5:1 15:1 33:1 49:1 54:1 68:1 80:1 87:1 
0.1594092149972536 1:16 3:1 24:1 27:1 46:1 54:1 68:1 80:1 87:1 
0.7333735207063958 1:310 6:1 20:1 26:1 44:1 51:1 63:1 80:1 89:1 
1.680152189405357 1:20 3:1 24:1 27:1 46:1 51:1 63:1 80:1 89:1 
0.3164210047889039 1:296 5:1 15:1 33:1 39:1 53:1 68:1 85:1 97:1 
0.7303410947857745 1:149 5:1 15:1 33:1 49:1 53:1 68:1 85:1 97:1 
4 1:-3 3:1 18:1 33:1 41:1 54:1 68:1 75:1 90:1 
4 1:-5 12:1 15:1 32:1 42:1 54:1 69:1 75:1 97:1 
4 1:-7 6:1 20:1 26:1 49:1 54:1 69:1 75:1 97:1 
4 1:-3 3:1 20:1 37:1 42:1 50:1 73:1 75:1 92:1 
4 1:-9 2:1 20:1 26:1 44:1 50:1 73:1 75:1 92:1 
0.9101077306207003 1:71 8:1 15:1 32:1 41:1 55:1 68:1 77:1 86:1 
2.333705543702141 1:66 3:1 18:1 33:1 41:1 55:1 68:1 77:1 86:1 
2.76681713809484 1:49 6:1 25:1 37:1 38:1 55:1 68:1 77:1 86:1 
1.095216407897591 1:67 3:1 18:1 33:1 41:1 56:1 65:1 74:1 93:1 
1.532628315080761 1:60 12:1 15:1 32:1 42:1 56:1 65:1 74:1 93:1 
3.402963568958753 1:55 3:1 20:1 37:1 42:1 50:1 69:1 85:1 87:1 
4 1:-86 13:1 20:1 26:1 44:1 54:1 69:1 75:1 97:1 
1.695498290328788 1:148 3:1 18:1 33:1 41:1 50:1 68:1 74:1 93:1 
0.01450098977126707 1:141 12:1 15:1 32:1 42:1 50:1 68:1 74:1 93:1 
2.253257817585412 1:139 6:1 20:1 26:1 49:1 50:1 68:1 74:1 93:1 
2.541713634425406 1:152 5:1 15:1 30:1 45:1 50:1 69:1 75:1 87:1 
1.437716242623045 1:142 6:1 20:1 26:1 49:1 50:1 69:1 75:1 87:1 
2.163708945912541 1:130 2:1 20:1 26:1 44:1 50:1 69:1 75:1 87:1 
0.7001334152116786 1:157 12:1 15:1 32:1 42:1 51:1 68:1 75:1 93:1 
1.268787688128353 1:155 6:1 20:1 26:1 49:1 51:1 68:1 75:1 93:1 
1.055708235254918 1:147 6:1 25:1 37:1 38:1 51:1 68:1 75:1 93:1 
2.581318937994755 1:168 5:1 15:1 30:1 45:1 51:1 69:1 75:1 96:1 
0.425950040264002 1:158 6:1 20:1 26:1 49:1 51:1 69:1 75:1 96:1 
2.652456721549036 1:152 3:1 20:1 37:1 42:1 51:1 69:1 75:1 96:1 
2.798492868361586 1:166 6:1 20:1 26:1 49:1 61:1 73:1 75:1 96:1 
1.084083806688888 1:160 3:1 20:1 37:1 42:1 61:1 73:1 75:1 96:1 
0.4997013868065211 1:158 6:1 25:1 37:1 38:1 61:1 73:1 75:1 96:1 
0.6231136352025912 1:87 13:1 20:1 26:1 44:1 61:1 73:1 75:1 96:1 
0.283269569201969 1:175 12:1 15:1 32:1 42:1 60:1 69:1 85:1 87:1 
0.7400485624859285 1:167 3:1 20:1 37:1 42:1 60:1 69:1 85:1 87:1 
0.8343786710852813 1:165 6:1 25:1 37:1 38:1 60:1 69:1 85:1 87:1 
1.652861372290066 1:-237 8:1 20:1 36:1 39:1 54:1 69:1 75:1 97:1 
1.61421965638677 1:-173 8:1 20:1 36:1 39:1 55:1 68:1 77:1 86:1 
2.460817133426707 1:-75 8:1 20:1 36:1 39:1 51:1 68:1 75:1 93:1 
0.5059219629249622 1:-72 8:1 20:1 36:1 39:1 51:1 69:1 75:1 96:1 
1.558007485167237 1:-268 3:1 20:1 26:1 44:1 76:1 92:1 
4 1:-258 3:1 20:1 26:1 44:1 54:1 68:1 75:1 90:1 
1.952263921829115 1:-253 3:1 20:1 26:1 44:1 54:1 69:1 75:1 97:1 
2.647990884025044 1:-188 3:1 20:1 26:1 44:1 56:1 65:1 74:1 93:1 
2.104752919800446 1:-107 3:1 20:1 26:1 44:1 50:1 68:1 74:1 93:1 
4 1:-91 3:1 20:1 26:1 44:1 51:1 68:1 75:1 93:1 
4 1:-80 3:1 20:1 26:1 44:1 61:1 73:1 75:1 96:1 
0.897899869164667 1:-110 2:1 20:1 27:1 49:1 50:1 68:1 74:1 93:1 
2.076346903163258 1:-83 2:1 20:1 27:1 49:1 61:1 73:1 75:1 96:1 
2.313648195634103 1:-285 7:1 20:1 26:1 44:1 76:1 92:1 
4 1:-275 7:1 20:1 26:1 44:1 54:1 68:1 75:1 90:1 
1.174065162920269 1:-270 7:1 20:1 26:1 44:1 54:1 69:1 75:1 97:1 
0.9916747799606922 1:-205 7:1 20:1 26:1 44:1 56:1 65:1 74:1 93:1 
2.58518089362564 1:-124 7:1 20:1 26:1 44:1 50:1 68:1 74:1 93:1 
1.757193726982245 1:-121 7:1 20:1 26:1 44:1 50:1 69:1 75:1 87:1 
1.857961426820596 1:-108 7:1 20:1 26:1 44:1 51:1 68:1 75:1 93:1 
2.761559177175849 1:276 5:1 15:1 30:1 45:1 50:1 68:1 84:1 89:1 
4 1:260 3:1 20:1 37:1 42:1 50:1 68:1 84:1 89:1 
1.648183993577662 1:254 2:1 20:1 26:1 44:1 50:1 68:1 84:1 89:1 
0.5536376199713482 1:270 12:1 15:1 32:1 42:1 53:1 72:1 77:1 97:1 
1.80290531510237 1:268 6:1 20:1 26:1 49:1 53:1 72:1 77:1 97:1 
2.563786313544207 1:260 6:1 25:1 37:1 38:1 53:1 72:1 77:1 97:1 
0.5006990622082589 1:38 8:1 20:1 36:1 39:1 53:1 72:1 77:1 97:1 
1.839428042938898 1:278 3:1 18:1 33:1 41:1 60:1 65:1 85:1 97:1 
0.7428355809785337 1:269 6:1 20:1 26:1 49:1 60:1 65:1 85:1 97:1 
3.131751154405203 1:261 6:1 25:1 37:1 38:1 60:1 65:1 85:1 97:1 
1.317182933341893 1:-294 13:1 25:1 34:1 38:1 76:1 92:1 
0.7613774493039617 1:-279 13:1 25:1 34:1 38:1 54:1 69:1 75:1 97:1 
0.5685846460928793 1:-214 13:1 25:1 34:1 38:1 56:1 65:1 74:1 93:1 
1.718726515953659 1:-6 13:1 25:1 34:1 38:1 50:1 68:1 84:1 89:1 
4 1:-4 13:1 25:1 34:1 38:1 53:1 72:1 77:1 97:1 
4 1:-3 13:1 25:1 34:1 38:1 60:1 65:1 85:1 97:1 
0.03773414714604349 1:56 8:1 20:1 36:1 39:1 61:1 68:1 75:1 90:1 
2.294274540519916 1:37 2:1 20:1 27:1 49:1 61:1 68:1 75:1 90:1 
2.401770416110187 1:-285 5:1 15:1 37:1 38:1 50:1 73:1 75:1 92:1 
0.06306856561819715 1:-130 5:1 15:1 37:1 38:1 51:1 69:1 75:1 96:1 
1.414877531222609 1:-122 5:1 15:1 37:1 38:1 61:1 73:1 75:1 96:1 
1.646553411843949 1:-22 5:1 15:1 37:1 38:1 50:1 68:1 84:1 89:1 
3.379495581373538 1:50 3:1 20:1 26:1 44:1 61:1 68:1 75:1 90:1 
2.507430214315023 1:-295 5:1 15:1 27:1 49:1 50:1 73:1 75:1 92:1 
0.03283300360976529 1:-241 5:1 15:1 27:1 49:1 55:1 68:1 77:1 86:1 
1.397651436964334 1:-143 5:1 15:1 27:1 49:1 51:1 68:1 75:1 93:1 
0.8051802475712544 1:-132 5:1 15:1 27:1 49:1 61:1 73:1 75:1 96:1 
0.6405076702027084 1:301 13:1 20:1 26:1 49:1 61:1 68:1 75:1 97:1 
4 1:208 3:1 20:1 26:1 49:1 61:1 68:1 75:1 97:1 
1.356504979671322 1:175 8:1 25:1 26:1 45:1 61:1 68:1 75:1 97:1 
3.297528633438234 1:71 13:1 20:1 26:1 39:1 61:1 68:1 75:1 97:1 
1.790337331436716 1:65 3:1 20:1 34:1 49:1 61:1 68:1 75:1 97:1 
4 1:-63 2:1 20:1 26:1 44:1 61:1 68:1 75:1 97:1 
1.223089707214271 1:387 6:1 20:1 32:1 44:1 56:1 68:1 85:1 87:1 
0.4065244889179757 1:365 2:1 25:1 27:1 49:1 56:1 68:1 85:1 87:1 
4 1:275 3:1 20:1 26:1 49:1 56:1 68:1 85:1 87:1 
1.35178846843914 1:246 9:1 15:1 37:1 44:1 56:1 68:1 85:1 87:1 
3.384937344044494 1:-50 8:1 20:1 37:1 44:1 56:1 68:1 85:1 87:1 
4 1:-41 2:1 20:1 27:1 49:1 61:1 68:1 75:1 92:1 
4 1:-38 2:1 20:1 27:1 49:1 51:1 68:1 75:1 92:1 
0.6761124780081418 1:73 13:1 20:1 26:1 44:1 51:1 73:1 84:1 87:1 
4 1:-17 3:1 20:1 26:1 44:1 51:1 73:1 84:1 87:1 
1.730490555074425 1:320 8:1 15:1 32:1 45:1 51:1 68:1 85:1 97:1 
3.04382578955957 1:268 2:1 20:1 27:1 49:1 51:1 68:1 85:1 97:1 
0.6845440978281843 1:-86 8:1 20:1 37:1 38:1 56:1 62:1 74:1 87:1 
2.579121325420198 1:-309 10:1 14:1 27:1 49:1 56:1 62:1 74:1 87:1 
1.03871353665429 1:-457 2:1 25:1 26:1 40:1 56:1 62:1 74:1 87:1 
0.419976109812246 1:233 13:1 20:1 27:1 49:1 50:1 73:1 80:1 93:1 
2.672169922855166 1:152 3:1 20:1 33:1 43:1 50:1 73:1 80:1 93:1 
0.1998399822989375 1:-24 13:1 20:1 33:1 38:1 50:1 73:1 80:1 93:1 
0.558471222679814 1:341 32:1 44:1 51:1 63:1 74:1 86:1 
0.07197010277375576 1:77 13:1 15:1 32:1 49:1 51:1 63:1 74:1 86:1 
0.4493771013163806 1:177 2:1 25:1 37:1 39:1 50:1 62:1 81:1 95:1 
2.947098522972468 1:80 13:1 15:1 32:1 49:1 50:1 62:1 81:1 95:1 
1.491284437161903 1:40 13:1 20:1 26:1 49:1 50:1 62:1 81:1 95:1 
1.857352040091483 1:-43 8:1 25:1 35:1 39:1 50:1 73:1 80:1 93:1 
0.8672752760405329 1:-55 3:1 20:1 33:1 39:1 50:1 73:1 80:1 93:1 
4 1:-80 3:1 20:1 34:1 45:1 50:1 73:1 80:1 93:1 
0.8384570950115713 1:321 13:1 20:1 27:1 49:1 57:1 63:1 74:1 92:1 
0.6566313521191116 1:224 3:1 20:1 34:1 45:1 57:1 63:1 74:1 92:1 
0.899155770106027 1:141 8:1 21:1 37:1 49:1 57:1 63:1 74:1 92:1 
1.538321404200579 1:180 13:1 20:1 27:1 38:1 61:1 62:1 80:1 86:1 
1.829862523917466 1:229 25:1 32:1 49:1 51:1 69:1 74:1 87:1 
1.717890333248338 1:223 13:1 15:1 26:1 44:1 51:1 69:1 74:1 87:1 
4 1:2 5:1 15:1 32:1 41:1 54:1 68:1 75:1 90:1 
4 1:-6 5:1 15:1 32:1 41:1 75:1 90:1 
4 1:2 5:1 15:1 32:1 41:1 54:1 68:1 75:1 90:1 
4 1:-6 5:1 15:1 32:1 41:1 54:1 68:1 75:1 90:1 
4 1:2 5:1 15:1 32:1 41:1 54:1 68:1 75:1 90:1 
4 1:-6 5:1 15:1 37:1 38:1 54:1 68:1 75:1 90:1 
1.854413346763611 1:219 5:1 15:1 32:1 41:1 51:1 68:1 83:1 87:1 
4 1:2 11:1 15:1 32:1 41:1 54:1 68:1 83:1 90:1 
4 1:-7 5:1 23:1 32:1 41:1 51:1 68:1 83:1 87:1 
1.968479803911534 1:228 5:1 15:1 32:1 41:1 54:1 68:1 75:1 90:1 
0.6670749922960485 1:2 5:1 23:1 32:1 41:1 54:1 68:1 75:1 90:1 
4 1:-232 5:1 15:1 37:1 38:1 75:1 90:1 
1.552357990460588 1:-228 5:1 15:1 37:1 38:1 54:1 68:1 75:1 90:1 
4 1:-6 5:1 15:1 37:1 38:1 54:1 68:1 83:1 90:1 
1.538226484678912 1:54 5:1 15:1 37:1 38:1 51:1 68:1 75:1 90:1 
2.876095316572739 1:-67 5:1 15:1 32:1 41:1 51:1 68:1 83:1 87:1 
2.431414459191149 1:-62 5:1 15:1 32:1 41:1 54:1 68:1 83:1 90:1 
0.1920781323871388 1:58 5:1 15:1 37:1 38:1 54:1 68:1 75:1 90:1 
4 1:2 5:1 15:1 32:1 41:1 54:1 68:1 75:1 90:1 
1.894045761956884 1:-66 5:1 15:1 32:1 41:1 54:1 68:1 83:1 90:1 
1.659835261275951 1:-62 5:1 15:1 32:1 41:1 54:1 68:1 75:1 90:1 
4 1:-6 5:1 15:1 32:1 41:1 51:1 68:1 75:1 90:1 
4 1:2 5:1 15:1 32:1 41:1 54:1 68:1 75:1 90:1 
2.766194733521432 1:-75 5:1 15:1 37:1 38:1 51:1 68:1 83:1 87:1 
2.089971175655723 1:-66 5:1 15:1 37:1 38:1 54:1 68:1 75:1 90:1 
4 1:-6 5:1 15:1 37:1 38:1 54:1 68:1 75:1 90:1 
1.305417370719996 1:137 5:1 23:1 32:1 41:1 61:1 73:1 74:1 87:1 
0.0113193917075311 1:69 5:1 15:1 37:1 38:1 61:1 73:1 74:1 87:1 
1.024177139055082 1:392 5:1 15:1 32:1 41:1 60:1 63:1 82:1 86:1 
0.8774764979567542 1:174 11:1 15:1 32:1 41:1 60:1 63:1 82:1 86:1 
1.630208819723124 1:166 5:1 15:1 37:1 38:1 60:1 63:1 82:1 86:1 
1.669407253226133 1:102 5:1 15:1 37:1 38:1 60:1 63:1 82:1 86:1 
0.4517072318922817 1:415 5:1 15:1 37:1 38:1 57:1 73:1 80:1 89:1 
1.191316561248099 1:133 5:1 15:1 37:1 38:1 57:1 73:1 80:1 89:1 
1.922547631048082 1:417 5:1 15:1 37:1 38:1 53:1 68:1 78:1 95:1 
0.6952286865469673 1:207 11:1 15:1 32:1 41:1 53:1 68:1 78:1 95:1 
1.118136197473118 1:199 5:1 15:1 37:1 38:1 53:1 68:1 78:1 95:1 
2.100940060238979 1:143 5:1 15:1 32:1 41:1 53:1 68:1 78:1 95:1 
0.9970656283962255 1:135 5:1 15:1 37:1 38:1 53:1 68:1 78:1 95:1 
0.2406170084744024 1:-424 8:1 17:1 35:1 44:1 54:1 68:1 75:1 90:1 
1.221891617019577 1:-206 8:1 17:1 35:1 44:1 54:1 68:1 83:1 90:1 
4 1:-80 2:1 25:1 32:1 61:1 73:1 74:1 87:1 
4 1:-17 13:1 15:1 32:1 38:1 69:1 85:1 92:1 
2.682932490574771 1:-81 3:1 21:1 37:1 46:1 61:1 68:1 83:1 87:1 
3.094290186619705 1:-18 2:1 25:1 27:1 46:1 54:1 68:1 83:1 87:1 
4 1:-40 13:1 14:1 34:1 38:1 54:1 68:1 83:1 87:1 
1.455532474969097 1:-72 2:1 20:1 31:1 49:1 69:1 76:1 92:1 
4 1:-60 2:1 20:1 31:1 49:1 54:1 68:1 83:1 87:1 
4 1:-98 3:1 21:1 27:1 38:1 54:1 68:1 83:1 87:1 
4 1:-130 13:1 15:1 32:1 38:1 54:1 68:1 83:1 87:1 
1.267853915161744 1:-244 2:1 14:1 27:1 49:1 54:1 68:1 83:1 87:1 
0.9795441939207603 1:-263 13:1 14:1 37:1 39:1 54:1 68:1 83:1 87:1 
0.4276828901748312 1:75 15:1 28:1 38:1 51:1 68:1 75:1 94:1 
2.249999610131989 1:-197 13:1 20:1 32:1 44:1 51:1 68:1 75:1 94:1 
4 1:-5 8:1 15:1 26:1 44:1 56:1 73:1 75:1 90:1 
0.01253989258711467 1:29 8:1 15:1 26:1 44:1 53:1 72:1 75:1 89:1 
1.174296466568152 1:31 8:1 15:1 26:1 44:1 53:1 63:1 85:1 86:1 
2.996667164142478 1:37 8:1 15:1 26:1 44:1 56:1 69:1 74:1 97:1 
1.629181601420845 1:-81 8:1 21:1 27:1 45:1 56:1 73:1 75:1 90:1 
0.6520139688712139 1:213 5:1 15:1 32:1 39:1 50:1 68:1 82:1 93:1 
4 1:-8 3:1 15:1 32:1 43:1 50:1 68:1 83:1 95:1 
4 1:-12 7:1 15:1 32:1 41:1 50:1 68:1 83:1 95:1 
1.183640116465119 1:103 13:1 15:1 26:1 44:1 51:1 68:1 85:1 97:1 
3.81147632183037 1:65 3:1 15:1 32:1 43:1 51:1 68:1 85:1 97:1 
2.870172918453072 1:57 5:1 15:1 37:1 44:1 51:1 68:1 85:1 97:1 
0.7149524143829482 1:119 11:1 23:1 32:1 49:1 58:1 62:1 80:1 87:1 
0.1385179971346112 1:106 5:1 15:1 37:1 44:1 58:1 62:1 80:1 87:1 
0.534485640568036 1:133 15:1 36:1 49:1 61:1 68:1 85:1 86:1 
1.151793932883948 1:-72 13:1 14:1 32:1 42:1 56:1 72:1 74:1 97:1 
0.1314941252793675 1:58 13:1 22:1 37:1 39:1 60:1 68:1 81:1 86:1 
0.8395979289652029 1:86 6:1 20:1 27:1 38:1 56:1 63:1 80:1 88:1 
4 1:75 6:1 20:1 32:1 42:1 56:1 63:1 80:1 88:1 
3.663446074565019 1:73 6:1 20:1 37:1 39:1 56:1 63:1 80:1 88:1 
0.2139248576547933 1:-152 8:1 16:1 34:1 38:1 56:1 72:1 74:1 97:1 
1.721879371709757 1:-41 8:1 16:1 34:1 38:1 61:1 68:1 80:1 94:1 
0.2301207998785336 1:-219 8:1 16:1 37:1 49:1 61:1 68:1 74:1 97:1 
1.901236198386038 1:-168 8:1 16:1 37:1 49:1 61:1 68:1 85:1 86:1 
0.07284567354372246 1:312 15:1 36:1 49:1 55:1 68:1 74:1 90:1 
0.6681171145581092 1:172 6:1 20:1 27:1 38:1 55:1 68:1 74:1 90:1 
2.169347431934341 1:159 6:1 20:1 37:1 39:1 55:1 68:1 74:1 90:1 
0.009919636089854527 1:116 12:1 16:1 32:1 38:1 55:1 68:1 74:1 90:1 
1.719759746187216 1:-232 5:1 14:1 35:1 38:1 61:1 68:1 74:1 97:1 
0.5200835818475831 1:-186 5:1 14:1 35:1 38:1 50:1 62:1 75:1 86:1 
4 1:-2 5:1 14:1 35:1 38:1 55:1 68:1 74:1 90:1 
0.5978547431325439 1:231 13:1 22:1 37:1 39:1 58:1 68:1 85:1 97:1 
4 1:203 2:1 20:1 32:1 42:1 58:1 68:1 85:1 97:1 
0.2453775412969197 1:201 6:1 20:1 27:1 38:1 58:1 68:1 85:1 97:1 
1.524537424079391 1:27 5:1 14:1 35:1 38:1 58:1 68:1 85:1 97:1 
0.5850792502433881 1:260 13:1 22:1 37:1 39:1 61:1 68:1 85:1 90:1 
0.7023574014360019 1:232 2:1 20:1 32:1 42:1 61:1 68:1 85:1 90:1 
2.637505393374468 1:219 6:1 20:1 32:1 42:1 61:1 68:1 85:1 90:1 
0.2013304976558367 1:174 12:1 16:1 32:1 38:1 61:1 68:1 85:1 90:1 
0.2895363491123299 1:141 8:1 16:1 34:1 38:1 61:1 68:1 85:1 90:1 
0.9302143988137145 1:56 5:1 14:1 35:1 38:1 61:1 68:1 85:1 90:1 
0.2065857729088939 1:-146 5:1 25:1 32:1 41:1 56:1 63:1 80:1 88:1 
1.216881791258127 1:223 6:1 20:1 32:1 42:1 54:1 68:1 85:1 90:1 
1.171038921677856 1:145 8:1 16:1 34:1 38:1 54:1 68:1 85:1 90:1 
4 1:2 5:1 25:1 32:1 41:1 54:1 68:1 85:1 90:1 
1.392240528132531 1:-299 5:1 25:1 32:1 41:1 56:1 72:1 74:1 97:1 
1.371588591714954 1:-188 5:1 25:1 32:1 41:1 61:1 68:1 80:1 94:1 
4 1:-6 5:1 25:1 32:1 41:1 61:1 68:1 85:1 90:1 
1.581506701707454 1:64 5:1 14:1 35:1 38:1 54:1 68:1 85:1 90:1 
4 1:2 5:1 25:1 32:1 41:1 54:1 68:1 85:1 90:1 
3.359767475770941 1:-298 5:1 25:1 32:1 49:1 61:1 68:1 74:1 97:1 
4 1:-247 5:1 25:1 32:1 49:1 61:1 68:1 85:1 86:1 
4 1:-6 5:1 25:1 32:1 49:1 54:1 68:1 85:1 90:1 
0.06563986422228614 1:416 15:1 36:1 49:1 56:1 73:1 84:1 89:1 
0.1106380923679777 1:267 13:1 14:1 32:1 42:1 56:1 73:1 84:1 89:1 
1.198248011719749 1:265 6:1 20:1 32:1 42:1 56:1 73:1 84:1 89:1 
0.3444955728416736 1:102 5:1 14:1 35:1 38:1 56:1 73:1 84:1 89:1 
3.910438325810695 1:40 5:1 25:1 32:1 41:1 56:1 73:1 84:1 89:1 
0.5321988719388294 1:280 2:1 20:1 32:1 42:1 53:1 72:1 85:1 97:1 
1.66052418577157 1:104 5:1 14:1 35:1 38:1 53:1 72:1 85:1 97:1 
1.287421063664025 1:42 5:1 25:1 32:1 41:1 53:1 72:1 85:1 97:1 
1.231056216483793 1:-372 7:1 25:1 34:1 39:1 56:1 72:1 74:1 97:1 
1.000561398082276 1:-281 7:1 25:1 34:1 39:1 60:1 68:1 81:1 86:1 
0.1872907841451856 1:-229 7:1 25:1 34:1 39:1 60:1 62:1 80:1 88:1 
0.5299809481546282 1:-79 7:1 25:1 34:1 39:1 61:1 68:1 85:1 90:1 
1.122763836087556 1:-33 7:1 25:1 34:1 39:1 56:1 73:1 84:1 89:1 
4 1:-2 5:1 16:1 27:1 39:1 50:1 63:1 76:1 90:1 
4 1:23 6:1 20:1 26:1 44:1 50:1 68:1 83:1 95:1 
1.462786892282925 1:88 6:1 20:1 26:1 44:1 61:1 68:1 75:1 92:1 
0.3028454057907204 1:62 11:1 23:1 33:1 40:1 61:1 68:1 75:1 92:1 
0.2946009938016602 1:91 6:1 20:1 26:1 44:1 51:1 68:1 75:1 86:1 
1.253071448592085 1:78 5:1 16:1 27:1 39:1 51:1 68:1 75:1 86:1 
2.468173212559496 1:-72 2:1 15:1 26:1 44:1 50:1 68:1 83:1 95:1 
0.6097024645386351 1:163 5:1 16:1 27:1 39:1 61:1 68:1 75:1 92:1 
0.02407121404042523 1:150 11:1 23:1 33:1 40:1 61:1 68:1 75:1 92:1 
1.061298002657187 1:153 11:1 23:1 33:1 40:1 51:1 68:1 75:1 90:1 
4 1:-158 5:1 15:1 26:1 49:1 50:1 68:1 83:1 95:1 
4 1:-121 5:1 15:1 26:1 49:1 50:1 69:1 85:1 97:1 
4 1:-93 5:1 15:1 26:1 49:1 61:1 68:1 75:1 92:1 
1.050289841774894 1:188 8:1 16:1 27:1 39:1 51:1 68:1 83:1 95:1 
0.6918777329295702 1:97 2:1 15:1 26:1 44:1 51:1 68:1 83:1 95:1 
4 1:11 5:1 15:1 26:1 49:1 51:1 68:1 83:1 95:1 
0.906741412763668 1:-184 11:1 23:1 34:1 38:1 50:1 63:1 76:1 90:1 
0.4663656261375235 1:-135 11:1 23:1 34:1 38:1 50:1 69:1 85:1 97:1 
0.05035638600869687 1:-176 2:1 16:1 27:1 39:1 50:1 68:1 83:1 95:1 
0.8864199220264775 1:-111 2:1 16:1 27:1 39:1 61:1 68:1 75:1 92:1 
3.527170716407102 1:-7 2:1 16:1 27:1 39:1 51:1 68:1 83:1 95:1 
0.3206105370962162 1:-192 3:1 14:1 32:1 39:1 50:1 63:1 76:1 90:1 
0.01641706147539354 1:-180 3:1 14:1 32:1 39:1 50:1 68:1 83:1 95:1 
1.871511860052011 1:-206 13:1 15:1 32:1 42:1 50:1 68:1 83:1 95:1 
1.853255481697744 1:-141 13:1 15:1 32:1 42:1 61:1 68:1 75:1 92:1 
1.135033490438154 1:-143 6:1 20:1 26:1 44:1 61:1 68:1 75:1 92:1 
2.136453078324309 1:-55 6:1 20:1 26:1 44:1 61:1 68:1 75:1 92:1 
4 1:-52 6:1 20:1 26:1 44:1 51:1 68:1 75:1 90:1 
4 1:-39 6:1 20:1 26:1 44:1 51:1 68:1 83:1 95:1 
4 1:-76 11:1 15:1 32:1 42:1 51:1 68:1 83:1 95:1 
1.688021382884942 1:-261 6:1 20:1 36:1 39:1 50:1 63:1 76:1 90:1 
1.597196117476611 1:-249 6:1 20:1 36:1 39:1 50:1 68:1 83:1 95:1 
0.09049448813233568 1:-96 6:1 20:1 36:1 39:1 61:1 68:1 75:1 92:1 
0.1660465543579517 1:-93 6:1 20:1 36:1 39:1 51:1 68:1 75:1 90:1 
0.3959122992000364 1:-216 3:1 15:1 32:1 42:1 50:1 69:1 85:1 97:1 
0.8416722679265964 1:-100 3:1 15:1 32:1 42:1 61:1 68:1 75:1 92:1 
4 1:-99 6:1 20:1 32:1 42:1 51:1 68:1 75:1 90:1 
2.57086617470338 1:-86 6:1 20:1 32:1 42:1 51:1 68:1 83:1 95:1 
1.317103101324077 1:-101 6:1 20:1 32:1 42:1 51:1 68:1 75:1 90:1 
1.703831814483713 1:-88 6:1 20:1 32:1 42:1 51:1 68:1 83:1 95:1 
2.321449637837956 1:-103 6:1 20:1 36:1 41:1 51:1 68:1 75:1 90:1 
2.227026093553417 1:-90 6:1 20:1 36:1 41:1 51:1 68:1 83:1 95:1 
2.61578345619932 1:103 5:1 15:1 26:1 49:1 54:1 72:1 75:1 90:1 
0.04866509864340155 1:89 11:1 23:1 34:1 38:1 54:1 72:1 75:1 90:1 
4 1:16 11:1 15:1 32:1 42:1 54:1 72:1 75:1 90:1 
1.977581049660478 1:2 6:1 20:1 36:1 41:1 54:1 72:1 75:1 90:1 
0.6327093912554705 1:-198 5:1 15:1 37:1 44:1 61:1 68:1 75:1 92:1 
4 1:-2 5:1 15:1 37:1 44:1 54:1 72:1 75:1 90:1 
0.06039652714926232 1:-212 11:1 15:1 36:1 42:1 51:1 68:1 75:1 86:1 
2.212308535261547 1:-127 11:1 15:1 36:1 42:1 61:1 68:1 75:1 92:1 
4 1:-124 11:1 15:1 36:1 42:1 51:1 68:1 75:1 90:1 
0.588464290812854 1:-111 11:1 15:1 36:1 42:1 51:1 68:1 83:1 95:1 
0.121693254636605 1:-129 6:1 24:1 32:1 42:1 61:1 68:1 75:1 92:1 
0.1330636020178588 1:-126 6:1 24:1 32:1 42:1 51:1 68:1 75:1 90:1 
2.191423625295055 1:-113 6:1 24:1 32:1 42:1 51:1 68:1 83:1 95:1 
2.415245566793402 1:-131 6:1 20:1 32:1 42:1 61:1 68:1 75:1 92:1 
4 1:-133 6:1 20:1 32:1 42:1 61:1 68:1 75:1 92:1 
0.2634886508956257 1:-220 6:1 20:1 32:1 42:1 51:1 68:1 75:1 86:1 
2.088845727518309 1:-135 6:1 20:1 32:1 42:1 61:1 68:1 75:1 92:1 
0.6516673067543501 1:-132 6:1 20:1 32:1 42:1 51:1 68:1 75:1 90:1 
4 1:-134 6:1 20:1 32:1 42:1 51:1 68:1 75:1 90:1 
3.346324551316303 1:-139 6:1 20:1 32:1 42:1 61:1 68:1 75:1 92:1 
4 1:-123 6:1 20:1 32:1 42:1 51:1 68:1 83:1 95:1 
1.724229458693319 1:-138 6:1 20:1 37:1 44:1 51:1 68:1 75:1 90:1 
3.890512724441733 1:-125 6:1 20:1 37:1 44:1 51:1 68:1 83:1 95:1 
0.7645460633771886 1:148 5:1 15:1 26:1 49:1 61:1 69:1 75:1 87:1 
0.6338951092640899 1:98 6:1 20:1 26:1 44:1 61:1 69:1 75:1 87:1 
3.007672032984201 1:12 6:1 20:1 37:1 44:1 61:1 69:1 75:1 87:1 
1.041484263853526 1:334 6:1 20:1 26:1 44:1 59:1 68:1 85:1 87:1 
0.6690984601111125 1:308 11:1 23:1 33:1 40:1 59:1 68:1 85:1 87:1 
1.956140634724173 1:153 5:1 15:1 26:1 49:1 59:1 68:1 85:1 87:1 
0.1482075664069853 1:131 3:1 14:1 32:1 39:1 59:1 68:1 85:1 87:1 
0.4143954667973642 1:62 6:1 20:1 36:1 39:1 59:1 68:1 85:1 87:1 
1.204732711688521 1:48 5:1 15:1 37:1 44:1 59:1 68:1 85:1 87:1 
1.60015995684982 1:31 11:1 15:1 36:1 42:1 59:1 68:1 85:1 87:1 
4 1:11 26:1 38:1 58:1 62:1 75:1 93:1 
4 1:41 26:1 38:1 61:1 68:1 81:1 88:1 
0.7130941014881143 1:121 26:1 38:1 61:1 68:1 85:1 87:1 
1.863193286854072 1:-27 10:1 14:1 26:1 44:1 61:1 68:1 85:1 87:1 
3.249210037068188 1:196 26:1 38:1 51:1 68:1 75:1 87:1 
0.3938114362180983 1:48 10:1 14:1 26:1 44:1 51:1 68:1 75:1 87:1 
0.09276943693727596 1:223 26:1 38:1 61:1 62:1 75:1 87:1 
2.135350127194382 1:75 10:1 14:1 26:1 44:1 61:1 62:1 75:1 87:1 
0.3780051346187981 1:301 26:1 38:1 50:1 68:1 75:1 94:1 
0.2419746427421346 1:27 9:1 16:1 32:1 45:1 61:1 68:1 75:1 92:1 
2.587801134357911 1:66 3:1 20:1 28:1 39:1 56:1 68:1 74:1 89:1 
0.5450111858740045 1:208 13:1 15:1 26:1 44:1 53:1 62:1 75:1 92:1 
4 1:-14 2:1 20:1 27:1 49:1 76:1 92:1 
0.4302418682997045 1:183 2:1 20:1 27:1 49:1 61:1 68:1 84:1 88:1 
3.140048753091772 1:-14 6:1 20:1 28:1 49:1 61:1 68:1 84:1 88:1 
4 1:-12 5:1 15:1 32:1 49:1 76:1 92:1 
4 1:-2 5:1 15:1 32:1 49:1 54:1 68:1 75:1 90:1 
3.876177989290301 1:-36 13:1 20:1 37:1 45:1 54:1 68:1 75:1 90:1 
4 1:-73 13:1 20:1 37:1 49:1 54:1 68:1 75:1 90:1 
2.888787262957902 1:-97 9:1 15:1 37:1 39:1 54:1 68:1 75:1 90:1 
4 1:-140 2:1 20:1 26:1 44:1 54:1 68:1 75:1 90:1 
4 1:-154 3:1 20:1 26:1 44:1 54:1 68:1 75:1 90:1 
1.253204039118436 1:112 13:1 20:1 37:1 49:1 61:1 68:1 81:1 89:1 
0.8970411770406748 1:75 8:1 20:1 27:1 49:1 61:1 68:1 81:1 89:1 
4 1:45 2:1 20:1 26:1 44:1 61:1 68:1 81:1 89:1 
2.945364248267817 1:31 3:1 20:1 26:1 44:1 61:1 68:1 81:1 89:1 
1.115397635441072 1:185 5:1 15:1 32:1 49:1 53:1 69:1 74:1 97:1 
0.2273078512517935 1:151 13:1 20:1 37:1 45:1 53:1 69:1 74:1 97:1 
1.275026938465901 1:194 5:1 15:1 32:1 49:1 60:1 69:1 82:1 86:1 
1.687812773453328 1:160 13:1 20:1 37:1 45:1 60:1 69:1 82:1 86:1 
1.399950798678699 1:123 13:1 20:1 37:1 49:1 60:1 69:1 82:1 86:1 
2.286921734656796 1:99 9:1 15:1 37:1 39:1 60:1 69:1 82:1 86:1 
3.457730714985868 1:56 2:1 20:1 26:1 44:1 60:1 69:1 82:1 86:1 
0.5104327746720391 1:42 3:1 20:1 26:1 44:1 60:1 69:1 82:1 86:1 
3.920945936803404 1:-206 7:1 20:1 26:1 44:1 54:1 68:1 75:1 90:1 
4 1:-162 7:1 20:1 26:1 44:1 52:1 69:1 74:1 87:1 
4 1:-21 7:1 20:1 26:1 44:1 61:1 68:1 81:1 89:1 
0.189002284586801 1:-226 10:1 14:1 27:1 49:1 76:1 92:1 
4 1:-12 5:1 15:1 32:1 49:1 76:1 92:1 
1.415236036065635 1:19 5:1 15:1 32:1 49:1 56:1 62:1 85:1 92:1 
1.636868132678603 1:126 5:1 15:1 32:1 49:1 51:1 62:1 85:1 86:1 
0.524271795313289 1:96 8:1 24:1 26:1 45:1 51:1 62:1 85:1 86:1 
1.266718683388292 1:-39 2:1 20:1 26:1 44:1 51:1 62:1 85:1 86:1 
3.486009745174303 1:-184 3:1 20:1 26:1 44:1 56:1 62:1 85:1 92:1 
2.062692779990416 1:219 8:1 15:1 32:1 41:1 58:1 62:1 82:1 86:1 
1.256368837013931 1:-112 2:1 18:1 26:1 39:1 51:1 62:1 85:1 86:1 
2.198368991637786 1:-251 12:1 15:1 26:1 46:1 56:1 62:1 85:1 92:1 
1.134796066003202 1:302 5:1 15:1 32:1 49:1 56:1 68:1 74:1 89:1 
4 1:99 3:1 20:1 26:1 44:1 56:1 68:1 74:1 89:1 
1.003996931751138 1:64 2:1 18:1 26:1 39:1 56:1 68:1 74:1 89:1 
0.7035414182456313 1:32 12:1 15:1 26:1 46:1 56:1 68:1 74:1 89:1 
0.1985078284136901 1:209 3:1 20:1 33:1 39:1 53:1 62:1 75:1 92:1 
0.2521793473454594 1:34 12:1 15:1 26:1 46:1 53:1 62:1 75:1 92:1 
1.058092236174258 1:8 2:1 25:1 27:1 49:1 53:1 62:1 75:1 92:1 
4 1:-8 8:1 15:1 32:1 49:1 76:1 92:1 
4 1:-11 8:1 25:1 27:1 39:1 76:1 92:1 
0.1064377711798515 1:72 9:1 25:1 27:1 38:1 51:1 68:1 85:1 92:1 
1.164901312375203 1:24 2:1 20:1 27:1 39:1 51:1 68:1 85:1 92:1 
4 1:-8 8:1 15:1 32:1 41:1 51:1 68:1 85:1 92:1 
0.2192372074238404 1:82 9:1 25:1 27:1 38:1 54:1 68:1 80:1 97:1 
4 1:-11 8:1 15:1 32:1 41:1 51:1 63:1 85:1 86:1 
4 1:-12 5:1 15:1 32:1 49:1 61:1 62:1 78:1 92:1 
4 1:-2 5:1 15:1 32:1 49:1 54:1 68:1 75:1 90:1 
3.761670902227131 1:-66 13:1 20:1 26:1 46:1 51:1 63:1 85:1 86:1 
2.445718936898428 1:-63 13:1 20:1 26:1 46:1 61:1 62:1 78:1 92:1 
4 1:-53 13:1 20:1 26:1 46:1 54:1 68:1 75:1 90:1 
1.308671737411457 1:132 5:1 15:1 32:1 49:1 50:1 68:1 85:1 87:1 
2.327232506414997 1:81 13:1 20:1 26:1 46:1 50:1 68:1 85:1 87:1 
0.5406718442993484 1:-156 9:1 16:1 26:1 46:1 51:1 63:1 85:1 86:1 
0.6014523644532377 1:-143 9:1 16:1 26:1 46:1 54:1 68:1 75:1 90:1 
0.8490194329977458 1:179 26:1 40:1 56:1 69:1 74:1 92:1 
0.5499942071983384 1:108 13:1 20:1 26:1 46:1 56:1 69:1 74:1 92:1 
1.627900807308477 1:43 8:1 20:1 26:1 44:1 56:1 69:1 74:1 92:1 
3.003463047329724 1:238 26:1 40:1 56:1 69:1 78:1 92:1 
1.583879535315566 1:229 2:1 17:1 32:1 49:1 56:1 69:1 78:1 92:1 
2.514919096327993 1:218 5:1 15:1 32:1 49:1 56:1 69:1 78:1 92:1 
0.1259142026619972 1:167 13:1 20:1 26:1 46:1 56:1 69:1 78:1 92:1 
2.611159626934842 1:102 8:1 20:1 26:1 44:1 56:1 69:1 78:1 92:1 
0.7552777649486216 1:228 5:1 15:1 32:1 49:1 54:1 68:1 75:1 97:1 
0.6734097364735816 1:112 8:1 20:1 26:1 44:1 54:1 68:1 75:1 97:1 
2.192807602307406 1:-244 13:1 15:1 37:1 38:1 61:1 62:1 78:1 92:1 
0.3424678018870235 1:24 9:1 17:1 32:1 49:1 61:1 68:1 80:1 92:1 
3.885542291361965 1:-269 3:1 20:1 26:1 44:1 61:1 62:1 78:1 92:1 
1.127766070537421 1:264 5:1 15:1 32:1 49:1 55:1 68:1 85:1 97:1 
3.617189533122319 1:38 8:1 15:1 32:1 41:1 55:1 68:1 85:1 97:1 
0.5456252444832206 1:317 2:1 17:1 32:1 49:1 51:1 68:1 77:1 92:1 
0.2218567886903314 1:310 8:1 15:1 32:1 41:1 51:1 68:1 77:1 92:1 
4 1:190 8:1 20:1 26:1 44:1 51:1 68:1 77:1 92:1 
0.7363457115543861 1:50 3:1 20:1 26:1 44:1 56:1 65:1 80:1 97:1 
1.254989546734554 1:309 13:1 20:1 26:1 46:1 56:1 69:1 75:1 97:1 
0.1778910737909658 1:244 8:1 20:1 26:1 44:1 56:1 69:1 75:1 97:1 
0.05675831878701706 1:84 2:1 20:1 37:1 38:1 61:1 62:1 85:1 97:1 
0.5955460767741168 1:43 8:1 25:1 32:1 43:1 61:1 62:1 85:1 97:1 
0.339798510992911 1:238 8:1 14:1 37:1 46:1 56:1 69:1 75:1 92:1 
3.772487955511846 1:149 8:1 25:1 32:1 49:1 56:1 69:1 75:1 92:1 
0.6148002467679381 1:-171 3:1 25:1 31:1 39:1 56:1 63:1 76:1 95:1 
0.4938939306111024 1:196 8:1 14:1 27:1 48:1 56:1 69:1 75:1 87:1 
0.2036300909257167 1:-68 13:1 15:1 37:1 44:1 52:1 73:1 81:1 87:1 
2.448217321345576 1:-137 3:1 25:1 36:1 38:1 52:1 73:1 81:1 87:1 
0.7096526946925144 1:223 4:1 16:1 28:1 49:1 56:1 68:1 74:1 88:1 
1.349206482050479 1:83 3:1 25:1 36:1 38:1 56:1 68:1 74:1 88:1 
0.1109633228447242 1:137 3:1 25:1 36:1 38:1 51:1 69:1 85:1 87:1 
0.1447114212508233 1:-24 3:1 14:1 33:1 39:1 66:1 75:1 87:1 
1.741165894424881 1:-59 13:1 20:1 34:1 49:1 66:1 75:1 87:1 
0.2425658705017114 1:43 3:1 14:1 33:1 39:1 50:1 73:1 85:1 97:1 
0.2711929238046185 1:44 13:1 20:1 34:1 49:1 61:1 62:1 85:1 86:1 
0.8517700147370192 1:88 3:1 14:1 33:1 39:1 58:1 73:1 80:1 92:1 
1.898549947570038 1:-140 2:1 20:1 26:1 49:1 66:1 75:1 87:1 
1.343258544163147 1:-135 2:1 20:1 26:1 49:1 51:1 64:1 80:1 97:1 
2.523779003586291 1:-37 2:1 20:1 26:1 49:1 61:1 62:1 85:1 86:1 
0.0430170254984439 1:3 2:1 20:1 26:1 49:1 50:1 73:1 85:1 87:1 
0.5342786467703045 1:-159 3:1 20:1 26:1 49:1 51:1 64:1 80:1 97:1 
4 1:-97 3:1 20:1 26:1 49:1 50:1 73:1 85:1 97:1 
0.8995803311093712 1:-52 3:1 20:1 26:1 49:1 58:1 73:1 80:1 92:1 
2.441806552188925 1:-21 3:1 20:1 26:1 49:1 50:1 73:1 85:1 87:1 
0.3569926582711067 1:150 3:1 14:1 33:1 39:1 51:1 69:1 79:1 86:1 
0.2133119133462523 1:115 13:1 20:1 34:1 49:1 51:1 69:1 79:1 86:1 
0.1026667361179769 1:34 2:1 20:1 26:1 49:1 51:1 69:1 79:1 86:1 
0.9096215983189732 1:10 3:1 20:1 26:1 49:1 51:1 69:1 79:1 86:1 
0.3266423216821512 1:-296 13:1 14:1 37:1 49:1 66:1 75:1 87:1 
0.4317551977002849 1:-184 13:1 14:1 37:1 49:1 58:1 73:1 80:1 92:1 
4 1:-219 8:1 14:1 26:1 39:1 50:1 73:1 85:1 87:1 
0.2762227002875714 1:-188 8:1 14:1 26:1 39:1 51:1 69:1 79:1 86:1 
2.127122354552033 1:-100 10:1 21:1 27:1 49:1 51:1 63:1 85:1 86:1 
0.003892723981374395 1:14 13:1 20:1 32:1 40:1 56:1 62:1 85:1 87:1 
2.470363340692162 1:-199 13:1 15:1 32:1 42:1 51:1 63:1 85:1 86:1 
0.6222373598452009 1:386 13:1 20:1 31:1 49:1 51:1 68:1 75:1 87:1 
0.1091676910921319 1:235 10:1 21:1 27:1 49:1 51:1 68:1 75:1 87:1 
4 1:-4 6:1 21:1 27:1 38:1 61:1 68:1 75:1 90:1 
0.3842555082122548 1:60 5:1 15:1 33:1 42:1 57:1 68:1 75:1 92:1 
1.432780907260825 1:30 7:1 20:1 33:1 49:1 57:1 68:1 75:1 92:1 
2.976250539368871 1:-132 13:1 20:1 27:1 46:1 61:1 68:1 75:1 90:1 
0.5039721974325554 1:202 4:1 20:1 27:1 46:1 52:1 71:1 74:1 97:1 
0.3668462691967197 1:155 5:1 15:1 33:1 42:1 52:1 71:1 74:1 97:1 
1.994926688116082 1:163 6:1 21:1 27:1 38:1 52:1 71:1 74:1 97:1 
0.7774445706041083 1:135 7:1 20:1 33:1 49:1 52:1 71:1 74:1 97:1 
0.2276582759897339 1:193 5:1 15:1 33:1 42:1 57:1 68:1 75:1 92:1 
4 1:-16 2:1 15:1 27:1 39:1 57:1 68:1 75:1 92:1 
1.505683262634989 1:-223 3:1 20:1 27:1 46:1 61:1 68:1 75:1 90:1 
0.2762560800196434 1:-56 3:1 20:1 27:1 46:1 52:1 71:1 74:1 97:1 
3.22864394709289 1:-28 3:1 20:1 27:1 46:1 57:1 68:1 75:1 92:1 
2.354980358017822 1:-121 3:1 14:1 26:1 49:1 51:1 62:1 75:1 92:1 
0.007636003314681976 1:92 8:1 25:1 28:1 39:1 58:1 68:1 76:1 97:1 
0.5813854425478412 1:199 6:1 15:1 32:1 38:1 61:1 68:1 74:1 87:1 
0.1301398303861165 1:135 13:1 15:1 32:1 45:1 61:1 68:1 74:1 87:1 
2.274863171912449 1:108 13:1 15:1 33:1 49:1 61:1 68:1 74:1 87:1 
2.134674757149109 1:39 10:1 14:1 27:1 38:1 61:1 68:1 74:1 87:1 
2.017376035520769 1:-193 13:1 25:1 26:1 39:1 51:1 62:1 75:1 92:1 
0.5170700317428654 1:-131 5:1 15:1 32:1 44:1 53:1 68:1 75:1 92:1 
0.8095297959756382 1:-201 8:1 15:1 27:1 49:1 53:1 68:1 75:1 92:1 
1.197068862243622 1:-217 10:1 14:1 26:1 45:1 61:1 68:1 80:1 89:1 
0.5629715603597033 1:-240 8:1 20:1 34:1 39:1 61:1 68:1 80:1 89:1 
4 1:-238 8:1 20:1 34:1 39:1 53:1 68:1 75:1 92:1 
0.7675950675045367 1:-391 13:1 20:1 37:1 38:1 61:1 68:1 80:1 89:1 
0.004897918396455325 1:-460 8:1 24:1 37:1 38:1 53:1 68:1 75:1 92:1 
4 1:7 6:1 14:1 33:1 38:1 51:1 73:1 75:1 90:1 
0.760257263619175 1:30 6:1 14:1 33:1 38:1 61:1 68:1 85:1 88:1 
0.3917720106216712 1:11 2:1 15:1 27:1 43:1 61:1 68:1 85:1 88:1 
0.1384710956568531 1:39 6:1 14:1 33:1 38:1 55:1 73:1 80:1 91:1 
0.1843766365489958 1:30 5:1 15:1 32:1 49:1 55:1 73:1 80:1 91:1 
3.039651711456722 1:-20 8:1 25:1 26:1 49:1 55:1 73:1 80:1 91:1 
1.891662321846189 1:144 26:1 42:1 56:1 73:1 74:1 90:1 
0.8771344334565746 1:142 6:1 14:1 33:1 38:1 56:1 73:1 74:1 90:1 
2.708059838444045 1:123 2:1 15:1 27:1 43:1 56:1 73:1 74:1 90:1 
1.420502179995167 1:-125 2:1 20:1 26:1 39:1 55:1 73:1 80:1 91:1 
0.5068230898503284 1:-190 3:1 20:1 26:1 39:1 55:1 73:1 80:1 91:1 
2.237069913995163 1:-223 3:1 20:1 36:1 39:1 55:1 73:1 80:1 91:1 
2.233627332758416 1:-291 3:1 20:1 26:1 39:1 55:1 73:1 80:1 91:1 
4 1:-311 2:1 20:1 36:1 49:1 55:1 73:1 80:1 91:1 
0.0521185002288629 1:-351 9:1 25:1 32:1 45:1 51:1 73:1 75:1 90:1 
0.129786163275089 1:-221 3:1 25:1 31:1 39:1 56:1 73:1 74:1 90:1 
0.2126788324957632 1:-80 2:1 20:1 31:1 44:1 52:1 73:1 74:1 97:1 
0.9771077988997811 1:-310 13:1 25:1 37:1 39:1 52:1 73:1 74:1 97:1 
3.090950664872498 1:-49 13:1 25:1 37:1 39:1 58:1 66:1 85:1 94:1 
2.452951668162606 1:-60 8:1 21:1 37:1 49:1 58:1 66:1 85:1 94:1 
3.624520456619074 1:138 37:1 49:1 52:1 63:1 80:1 88:1 
0.9540835112740111 1:147 37:1 49:1 50:1 68:1 75:1 92:1 
1.293988316412307 1:142 7:1 18:1 28:1 49:1 50:1 68:1 75:1 92:1 
3.962107533006774 1:32 8:1 25:1 33:1 40:1 50:1 68:1 75:1 92:1 
0.9358927253968448 1:167 13:1 19:1 30:1 40:1 61:1 73:1 82:1 86:1 
4 1:-51 5:1 20:1 37:1 44:1 50:1 68:1 75:1 92:1 
0.003841939772435293 1:231 13:1 19:1 30:1 40:1 61:1 62:1 74:1 97:1 
0.3170452453620902 1:130 2:1 25:1 27:1 49:1 56:1 62:1 85:1 92:1 
4 1:-117 13:1 20:1 26:1 39:1 50:1 68:1 75:1 92:1 
3.339220118287096 1:291 37:1 49:1 56:1 73:1 76:1 90:1 
0.7580223012970705 1:131 13:1 19:1 32:1 38:1 56:1 73:1 76:1 90:1 
0.1294392499257551 1:-159 5:1 16:1 32:1 49:1 51:1 73:1 80:1 88:1 
0.02198705468646123 1:-122 5:1 16:1 32:1 49:1 61:1 73:1 82:1 86:1 
4 1:-2 5:1 16:1 32:1 49:1 56:1 73:1 76:1 90:1 
0.3849100476137599 1:-210 3:1 20:1 26:1 39:1 50:1 68:1 75:1 92:1 
1.461944450948604 1:-229 2:1 20:1 26:1 39:1 50:1 68:1 75:1 92:1 
0.564447469349593 1:-284 2:1 25:1 27:1 44:1 56:1 73:1 82:1 93:1 
0.5672310333150332 1:-238 2:1 25:1 27:1 44:1 61:1 73:1 82:1 86:1 
1.796700674482509 1:419 37:1 49:1 51:1 63:1 75:1 94:1 
1.326091403675818 1:415 13:1 19:1 30:1 40:1 51:1 63:1 75:1 94:1 
4 1:10 2:1 25:1 27:1 44:1 51:1 63:1 75:1 94:1 
0.834435314031255 1:53 37:1 40:1 51:1 68:1 81:1 97:1 
2.328701053993719 1:31 11:1 15:1 37:1 44:1 51:1 68:1 81:1 97:1 
1.769140625543806 1:-69 11:1 15:1 26:1 49:1 56:1 62:1 83:1 87:1 
1.139872190145393 1:-43 11:1 15:1 26:1 49:1 61:1 68:1 75:1 86:1 
4 1:-91 13:1 25:1 33:1 39:1 56:1 62:1 83:1 87:1 
0.6918455594971562 1:-57 13:1 25:1 33:1 39:1 51:1 68:1 81:1 97:1 
0.1942732991175154 1:-118 2:1 25:1 34:1 38:1 51:1 68:1 81:1 97:1 
0.4951042390614587 1:181 37:1 40:1 61:1 73:1 75:1 90:1 
1.289985722490346 1:93 11:1 15:1 26:1 49:1 61:1 73:1 75:1 90:1 
0.04105561586182574 1:10 2:1 25:1 34:1 38:1 61:1 73:1 75:1 90:1 
3.69788460683557 1:-130 5:1 15:1 26:1 38:1 51:1 68:1 81:1 97:1 
0.2857540936540217 1:-161 3:1 16:1 26:1 38:1 51:1 68:1 81:1 97:1 
0.6285968554638596 1:-209 8:1 20:1 26:1 39:1 51:1 68:1 81:1 97:1 
1.794818269745824 1:-277 3:1 25:1 34:1 43:1 51:1 68:1 81:1 97:1 
1.464961261029887 1:-317 8:1 25:1 37:1 38:1 51:1 68:1 81:1 97:1 
0.795693166722748 1:-342 8:1 16:1 37:1 38:1 51:1 68:1 81:1 97:1 
0.5602727737480134 1:439 37:1 40:1 60:1 68:1 75:1 90:1 
0.3685819583444425 1:417 11:1 15:1 37:1 44:1 60:1 68:1 75:1 90:1 
1.607531698057178 1:351 11:1 15:1 26:1 49:1 60:1 68:1 75:1 90:1 
1.036878928200566 1:268 2:1 25:1 34:1 38:1 60:1 68:1 75:1 90:1 
0.4252076000658281 1:221 2:1 20:1 37:1 44:1 60:1 68:1 75:1 90:1 
0.5903835985788645 1:177 8:1 20:1 26:1 39:1 60:1 68:1 75:1 90:1 
0.1457837946216617 1:129 10:1 21:1 37:1 39:1 60:1 68:1 75:1 90:1 
0.09268864700492349 1:-422 5:1 15:1 26:1 49:1 56:1 62:1 83:1 87:1 
3.216476145775296 1:-260 5:1 15:1 26:1 49:1 61:1 73:1 75:1 90:1 
0.1404558102388854 1:-407 13:1 25:1 26:1 39:1 51:1 68:1 81:1 97:1 
0.810693479835832 1:-21 13:1 25:1 26:1 39:1 60:1 68:1 75:1 90:1 
0.5219742814789292 1:-421 8:1 21:1 37:1 39:1 51:1 68:1 81:1 97:1 
1.606140729346545 1:-35 8:1 21:1 37:1 39:1 60:1 68:1 75:1 90:1 
0.1584389709519278 1:-456 13:1 25:1 32:1 61:1 68:1 75:1 86:1 
0.6032478047388091 1:-448 13:1 25:1 32:1 51:1 68:1 81:1 97:1 
1.879897333219479 1:-20 8:1 20:1 37:1 49:1 56:1 68:1 80:1 86:1 
1.220631560095933 1:371 4:1 16:1 37:1 42:1 61:1 68:1 85:1 97:1 
0.4949899674277745 1:335 3:1 25:1 32:1 44:1 61:1 68:1 85:1 97:1 
1.364451256005674 1:38 8:1 25:1 33:1 49:1 61:1 63:1 85:1 87:1 
0.9859806556495985 1:18 2:1 15:1 31:1 49:1 61:1 63:1 85:1 87:1 
1.987207402940553 1:-34 8:1 20:1 32:1 49:1 61:1 63:1 85:1 87:1 
1.51140230113336 1:-44 7:1 25:1 33:1 49:1 61:1 63:1 85:1 87:1 
1.50773620309882 1:-86 10:1 21:1 26:1 49:1 61:1 63:1 85:1 87:1 
0.1556150678614348 1:-204 10:1 14:1 26:1 40:1 61:1 63:1 85:1 87:1 
1.73988936352489 1:-228 2:1 14:1 33:1 39:1 61:1 63:1 85:1 87:1 
2.908975948186084 1:252 2:1 15:1 31:1 49:1 60:1 69:1 85:1 87:1 
0.02867011350752894 1:165 2:1 14:1 33:1 40:1 60:1 69:1 85:1 87:1 
0.08534005743597696 1:142 2:1 20:1 26:1 49:1 60:1 69:1 85:1 87:1 
0.2792190082119329 1:105 10:1 21:1 26:1 48:1 60:1 69:1 85:1 87:1 
0.4556181981271539 1:85 13:1 14:1 37:1 39:1 60:1 69:1 85:1 87:1 
2.714889522066599 1:62 8:1 21:1 27:1 49:1 60:1 69:1 85:1 87:1 
4 1:-92 2:1 20:1 26:1 45:1 75:1 90:1 
0.4645392248495137 1:198 2:1 20:1 26:1 45:1 51:1 62:1 75:1 97:1 
0.8846516153788533 1:51 13:1 20:1 27:1 38:1 51:1 62:1 75:1 97:1 
2.642012894907396 1:-115 2:1 20:1 37:1 38:1 51:1 62:1 75:1 97:1 
2.945334193825584 1:447 3:1 18:1 26:1 40:1 56:1 68:1 76:1 92:1 
0.6224691163368911 1:443 4:1 25:1 37:1 49:1 56:1 68:1 76:1 92:1 
0.05741715064287418 1:358 2:1 20:1 26:1 45:1 56:1 68:1 76:1 92:1 
0.9764912117539729 1:258 7:1 15:1 36:1 39:1 56:1 68:1 76:1 92:1 
3.050204748018253 1:192 13:1 15:1 26:1 45:1 56:1 68:1 76:1 92:1 
1.989893165510456 1:177 10:1 14:1 32:1 49:1 56:1 68:1 76:1 92:1 
0.3299353738782924 1:113 13:1 20:1 27:1 39:1 56:1 68:1 76:1 92:1 
0.3451418302707281 1:45 2:1 20:1 37:1 38:1 56:1 68:1 76:1 92:1 
4 1:-5 8:1 15:1 27:1 38:1 56:1 73:1 75:1 90:1 
0.428130744511763 1:-37 5:1 23:1 26:1 38:1 53:1 69:1 85:1 86:1 
2.535316298876101 1:102 5:1 23:1 26:1 38:1 51:1 68:1 85:1 86:1 
2.443739123833813 1:249 13:1 15:1 26:1 44:1 50:1 62:1 75:1 87:1 
0.9002072972814281 1:33 13:1 20:1 32:1 38:1 51:1 68:1 85:1 87:1 
4 1:18 11:1 20:1 27:1 39:1 51:1 68:1 85:1 87:1 
1.707509439260645 1:74 11:1 20:1 27:1 39:1 51:1 72:1 75:1 86:1 
1.91548469081915 1:35 8:1 20:1 26:1 39:1 51:1 72:1 75:1 86:1 
0.5599668990675952 1:92 11:1 20:1 27:1 39:1 56:1 69:1 76:1 92:1 
0.2163139479453766 1:-27 6:1 20:1 32:1 45:1 51:1 72:1 75:1 86:1 
0.9131113190946465 1:66 8:1 20:1 26:1 39:1 57:1 68:1 80:1 89:1 
1.320012858356864 1:122 13:1 20:1 32:1 38:1 53:1 68:1 80:1 93:1 
0.4350986468817913 1:125 13:1 20:1 32:1 38:1 56:1 69:1 75:1 92:1 
0.04476029860161838 1:67 3:1 14:1 32:1 48:1 56:1 69:1 75:1 92:1 
2.420673171135227 1:11 13:1 20:1 32:1 42:1 56:1 69:1 75:1 92:1 
2.252582183787926 1:142 13:1 20:1 32:1 38:1 51:1 68:1 85:1 93:1 
0.6930876487895198 1:127 11:1 20:1 27:1 39:1 51:1 68:1 85:1 93:1 
4 1:-5 8:1 15:1 26:1 44:1 56:1 73:1 75:1 90:1 
4 1:-5 8:1 15:1 26:1 44:1 56:1 73:1 75:1 90:1 
1.252002154582785 1:31 8:1 15:1 26:1 44:1 61:1 62:1 75:1 92:1 
4 1:-3 3:1 20:1 32:1 42:1 61:1 62:1 75:1 92:1 
4 1:-5 6:1 20:1 32:1 42:1 61:1 62:1 75:1 92:1 
4 1:-7 6:1 20:1 26:1 39:1 61:1 62:1 75:1 92:1 
0.499743806011781 1:25 3:1 20:1 32:1 42:1 57:1 73:1 75:1 91:1 
2.089836563859459 1:23 6:1 20:1 32:1 42:1 57:1 73:1 75:1 91:1 
4 1:21 6:1 20:1 26:1 39:1 57:1 73:1 75:1 91:1 
1.59942701329156 1:85 5:1 15:1 32:1 39:1 61:1 69:1 75:1 97:1 
1.534533765052267 1:44 6:1 20:1 26:1 39:1 61:1 69:1 75:1 97:1 
0.1679866651350221 1:86 6:1 20:1 32:1 42:1 50:1 73:1 75:1 87:1 
