svm_type c_svc
kernel_type rbf
gamma 0.0103093
nr_class 2
total_sv 15646
rho -1.14722
label -1 1
nr_sv 8892 6754
SV
1.287477179275525 1:-0.157895 2:1 25:1 37:1 49:1 56:1 73:1 85:1 86:1 
2.794928313245886 1:-0.271468 13:1 20:1 37:1 39:1 56:1 62:1 75:1 92:1 
1.518675999147614 1:0.686981 2:1 25:1 37:1 49:1 51:1 73:1 85:1 92:1 
2.314107923251122 1:0.595568 2:1 21:1 36:1 49:1 51:1 73:1 85:1 92:1 
4 1:0.130194 13:1 20:1 37:1 39:1 51:1 73:1 85:1 92:1 
1.749847192277562 1:0.049861 13:1 21:1 36:1 49:1 51:1 73:1 85:1 92:1 
3.236898725715936 1:0.048843 11:1 15:1 37:1 45:1 61:1 68:1 80:1 89:1 
2.581354627024525 1:-0.087404 8:1 21:1 26:1 44:1 61:1 68:1 80:1 89:1 
4 1:-0.249357 13:1 20:1 32:1 49:1 56:1 73:1 83:1 87:1 
1.644141964614085 1:-0.493573 13:1 20:1 26:1 44:1 61:1 68:1 80:1 89:1 
2.126144340477821 1:0.77635 11:1 15:1 37:1 45:1 56:1 63:1 85:1 94:1 
3.73174226446764 1:0.233933 13:1 20:1 26:1 44:1 56:1 63:1 85:1 94:1 
1.931689982682844 1:-0.830334 3:1 20:1 26:1 44:1 61:1 68:1 80:1 89:1 
2.930290726616387 1:-0.825193 3:1 20:1 26:1 44:1 53:1 68:1 85:1 88:1 
1.936098889246405 1:-0.102828 3:1 20:1 26:1 44:1 56:1 63:1 85:1 94:1 
0.1847207592416954 1:0.032362 5:1 15:1 32:1 39:1 57:1 68:1 83:1 90:1 
2.619194272645202 1:-0.045307 5:1 23:1 37:1 45:1 56:1 73:1 75:1 90:1 
4 1:-0.190939 2:1 20:1 26:1 44:1 56:1 73:1 75:1 90:1 
3.353017825039927 1:-0.152104 2:1 20:1 26:1 44:1 57:1 68:1 83:1 90:1 
4 1:-0.423948 9:1 25:1 33:1 39:1 56:1 73:1 75:1 90:1 
4 1:-0.080906 9:1 25:1 33:1 39:1 61:1 68:1 85:1 86:1 
0.3605818907048496 1:-0.012945 9:1 25:1 33:1 39:1 61:1 68:1 75:1 93:1 
3.98803887729764 1:0.430421 5:1 15:1 32:1 39:1 51:1 73:1 75:1 97:1 
4 1:-0.495146 3:1 20:1 26:1 44:1 57:1 68:1 83:1 90:1 
2.832986478018876 1:-0.190939 3:1 20:1 26:1 44:1 61:1 68:1 85:1 86:1 
3.439283203664221 1:-0.122977 3:1 20:1 26:1 44:1 61:1 68:1 75:1 93:1 
3.686841826940538 1:-0.097087 3:1 20:1 26:1 44:1 51:1 73:1 75:1 97:1 
4 1:-0.061489 3:1 20:1 26:1 44:1 61:1 62:1 75:1 97:1 
0.6767556761120482 1:-0.190283 13:1 20:1 37:1 45:1 51:1 72:1 75:1 87:1 
4 1:0.020243 13:1 20:1 37:1 45:1 51:1 66:1 74:1 97:1 
4 1:-0.340081 3:1 15:1 32:1 42:1 61:1 69:1 76:1 92:1 
2.099054935496978 1:-0.348178 6:1 20:1 32:1 42:1 61:1 69:1 76:1 92:1 
2.155490144693319 1:-0.295547 6:1 20:1 32:1 42:1 51:1 68:1 83:1 90:1 
4 1:-0.364372 6:1 20:1 32:1 41:1 61:1 69:1 76:1 92:1 
4 1:0.089069 13:1 20:1 37:1 45:1 54:1 68:1 75:1 97:1 
1.137216855291546 1:0.117409 13:1 20:1 37:1 45:1 54:1 72:1 75:1 90:1 
4 1:-0.360324 5:1 15:1 27:1 39:1 54:1 68:1 75:1 92:1 
1.679829637356144 1:-0.348178 5:1 15:1 27:1 39:1 51:1 68:1 83:1 90:1 
2.924691548954772 1:-0.036437 5:1 15:1 27:1 39:1 54:1 68:1 75:1 97:1 
4 1:-0.255061 3:1 20:1 26:1 44:1 51:1 66:1 74:1 97:1 
4 1:-0.186235 3:1 20:1 26:1 44:1 54:1 68:1 75:1 97:1 
4 1:-0.757085 2:1 20:1 32:1 45:1 54:1 68:1 75:1 92:1 
4 1:0.179245 5:1 15:1 31:1 38:1 56:1 69:1 75:1 87:1 
4 1:-0.380503 13:1 20:1 26:1 44:1 56:1 69:1 75:1 87:1 
3.738810957233555 1:0.078947 8:1 15:1 33:1 49:1 50:1 68:1 75:1 90:1 
3.712660219488735 1:-0.131579 13:1 25:1 26:1 49:1 50:1 68:1 75:1 92:1 
2.160898440912868 1:-0.304511 3:1 15:1 33:1 49:1 50:1 68:1 75:1 92:1 
0.2088154399097022 1:-0.210526 3:1 15:1 33:1 49:1 50:1 68:1 75:1 90:1 
0.8352132910490816 1:-0.06079 8:1 21:1 37:1 39:1 56:1 73:1 85:1 90:1 
2.765655625832146 1:-0.483283 6:1 14:1 37:1 49:1 56:1 73:1 85:1 90:1 
4 1:0.49848 8:1 21:1 37:1 39:1 56:1 62:1 74:1 94:1 
4 1:0.407295 8:1 20:1 26:1 44:1 56:1 62:1 74:1 94:1 
2.687352999953936 1:0.075988 6:1 14:1 37:1 49:1 56:1 62:1 74:1 94:1 
1.736913154982616 1:0.68693 5:1 25:1 30:1 45:1 50:1 68:1 84:1 88:1 
0.2198881970082813 1:0.215805 2:1 15:1 26:1 42:1 50:1 68:1 84:1 88:1 
1.774596644907458 1:0.209726 6:1 14:1 37:1 49:1 50:1 68:1 84:1 88:1 
1.82352902255594 1:0.170213 2:1 19:1 26:1 39:1 50:1 68:1 84:1 88:1 
1.004016091630267 1:0.001808 29:1 39:1 66:1 75:1 93:1 
4 1:-0.493671 8:1 21:1 27:1 45:1 61:1 68:1 74:1 89:1 
2.116831463057287 1:-0.294756 8:1 21:1 27:1 45:1 51:1 68:1 75:1 87:1 
4 1:-0.222423 8:1 21:1 27:1 45:1 51:1 68:1 74:1 87:1 
0.4459015917598844 1:-0.030741 8:1 21:1 27:1 45:1 61:1 68:1 85:1 86:1 
1.798992392772478 1:-0.01085 8:1 21:1 27:1 45:1 60:1 62:1 85:1 87:1 
3.666667727354928 1:0.292948 8:1 21:1 27:1 45:1 56:1 72:1 74:1 86:1 
4 1:-0.844485 5:1 15:1 26:1 44:1 61:1 68:1 74:1 89:1 
4 1:-0.64557 5:1 15:1 26:1 44:1 51:1 68:1 75:1 87:1 
1.60667318918315 1:-0.573237 5:1 15:1 26:1 44:1 51:1 68:1 74:1 87:1 
4 1:-0.412297 5:1 15:1 26:1 44:1 56:1 62:1 75:1 87:1 
4 1:-0.173599 5:1 15:1 26:1 44:1 56:1 73:1 75:1 87:1 
4 1:-0.075949 5:1 15:1 26:1 44:1 51:1 68:1 75:1 97:1 
4 1:-0.057866 5:1 15:1 26:1 44:1 56:1 72:1 74:1 86:1 
4 1:-0.003617 5:1 15:1 26:1 44:1 61:1 73:1 75:1 90:1 
4 1:0.005425 5:1 15:1 26:1 44:1 50:1 68:1 85:1 87:1 
0.1049087340566765 1:0.37613 8:1 21:1 27:1 45:1 57:1 62:1 75:1 94:1 
1.917643953812519 1:0.401447 8:1 21:1 27:1 45:1 56:1 72:1 74:1 87:1 
4 1:0.050633 5:1 15:1 26:1 44:1 56:1 72:1 74:1 87:1 
4 1:-0.027778 5:1 15:1 32:1 42:1 69:1 76:1 92:1 
4 1:0.301587 5:1 15:1 32:1 42:1 50:1 68:1 83:1 87:1 
4 1:0.297619 6:1 20:1 37:1 45:1 50:1 68:1 83:1 87:1 
4 1:0.236111 7:1 20:1 33:1 49:1 50:1 68:1 83:1 87:1 
4 1:0.005952 13:1 15:1 26:1 44:1 50:1 68:1 83:1 87:1 
4 1:-0.333333 4:1 20:1 26:1 44:1 54:1 68:1 75:1 90:1 
4 1:-0.009921 4:1 20:1 26:1 44:1 50:1 73:1 79:1 88:1 
2.044802759586303 1:0.009921 4:1 20:1 26:1 44:1 53:1 72:1 85:1 86:1 
4 1:0.373016 8:1 15:1 32:1 41:1 59:1 73:1 76:1 92:1 
4 1:0.365079 5:1 15:1 32:1 42:1 59:1 73:1 76:1 92:1 
4 1:0.396825 5:1 15:1 32:1 42:1 56:1 63:1 83:1 87:1 
4 1:0.392857 6:1 20:1 37:1 45:1 56:1 63:1 83:1 87:1 
4 1:0.331349 7:1 20:1 33:1 49:1 56:1 63:1 83:1 87:1 
4 1:0.125 3:1 20:1 26:1 40:1 56:1 63:1 83:1 87:1 
4 1:0.10119 13:1 15:1 26:1 44:1 56:1 63:1 83:1 87:1 
3.16450440861171 1:0.085317 2:1 15:1 37:1 38:1 56:1 63:1 83:1 87:1 
4 1:0.06746 4:1 20:1 26:1 44:1 56:1 63:1 83:1 87:1 
4 1:-0.406746 11:1 15:1 37:1 45:1 54:1 68:1 75:1 90:1 
4 1:-0.10119 11:1 15:1 37:1 45:1 50:1 68:1 83:1 87:1 
4 1:-0.06746 11:1 15:1 37:1 45:1 50:1 68:1 84:1 89:1 
3.988242693776051 1:-0.011905 13:1 21:1 26:1 49:1 56:1 63:1 83:1 87:1 
4 1:-0.123016 2:1 20:1 27:1 38:1 50:1 68:1 83:1 87:1 
0.2866534260291286 1:-0.105159 2:1 20:1 27:1 38:1 50:1 73:1 79:1 88:1 
4 1:-0.089286 2:1 20:1 27:1 38:1 50:1 68:1 84:1 89:1 
1.120602054827136 1:-0.085317 2:1 20:1 27:1 38:1 53:1 72:1 85:1 86:1 
4 1:-0.027778 2:1 20:1 27:1 38:1 56:1 63:1 83:1 87:1 
4 1:0.460317 5:1 15:1 32:1 42:1 50:1 68:1 85:1 87:1 
3.972436124503731 1:0.456349 6:1 20:1 37:1 45:1 50:1 68:1 85:1 87:1 
4 1:0.05754 11:1 15:1 37:1 45:1 50:1 68:1 85:1 87:1 
4 1:0.035714 2:1 20:1 27:1 38:1 50:1 68:1 85:1 87:1 
4 1:0.515873 5:1 15:1 32:1 42:1 51:1 68:1 81:1 89:1 
4 1:0.511905 6:1 20:1 37:1 45:1 51:1 68:1 81:1 89:1 
4 1:0.113095 11:1 15:1 37:1 45:1 51:1 68:1 81:1 89:1 
4 1:0.09127 2:1 20:1 27:1 38:1 51:1 68:1 81:1 89:1 
3.362020218727376 1:0.190476 4:1 20:1 26:1 44:1 53:1 69:1 85:1 97:1 
4 1:0.589286 5:1 15:1 32:1 42:1 50:1 72:1 85:1 88:1 
4 1:0.585317 6:1 20:1 37:1 45:1 50:1 72:1 85:1 88:1 
1.670694219907524 1:0.52381 7:1 20:1 33:1 49:1 50:1 72:1 85:1 88:1 
1.607276798581349 1:0.214286 4:1 15:1 32:1 38:1 50:1 72:1 85:1 88:1 
0.252039661971965 1:0.186508 11:1 15:1 37:1 45:1 50:1 72:1 85:1 88:1 
4 1:0.164683 2:1 20:1 27:1 38:1 50:1 72:1 85:1 88:1 
0.3879840991018467 1:0.617063 5:1 15:1 32:1 42:1 50:1 69:1 74:1 93:1 
3.624809867252269 1:0.214286 11:1 15:1 37:1 45:1 50:1 69:1 74:1 93:1 
4 1:-0.654762 13:1 20:1 34:1 38:1 54:1 68:1 75:1 90:1 
4 1:-0.349206 13:1 20:1 34:1 38:1 50:1 68:1 83:1 87:1 
3.864833829312619 1:-0.315476 13:1 20:1 34:1 38:1 50:1 68:1 84:1 89:1 
4 1:-0.253968 13:1 20:1 34:1 38:1 56:1 63:1 83:1 87:1 
2.3197285996889 1:-0.061508 13:1 20:1 34:1 38:1 50:1 72:1 85:1 88:1 
4 1:-0.03373 13:1 20:1 34:1 38:1 50:1 69:1 74:1 93:1 
4 1:0.329365 4:1 20:1 26:1 44:1 50:1 68:1 75:1 91:1 
1.240271840697956 1:0.255952 11:1 15:1 37:1 45:1 50:1 68:1 75:1 91:1 
1.507329660080435 1:0.234127 2:1 20:1 27:1 38:1 50:1 68:1 75:1 91:1 
2.297811000892187 1:0.295635 4:1 15:1 32:1 38:1 61:1 62:1 75:1 86:1 
4 1:0.267857 11:1 15:1 37:1 45:1 61:1 62:1 75:1 86:1 
4 1:-0.69246 13:1 20:1 26:1 44:1 54:1 68:1 75:1 90:1 
2.18746084536012 1:-0.369048 13:1 20:1 26:1 44:1 50:1 73:1 79:1 88:1 
4 1:-0.291667 13:1 20:1 26:1 44:1 56:1 63:1 83:1 87:1 
1.06603905720739 1:-0.128968 2:1 25:1 28:1 49:1 50:1 72:1 85:1 88:1 
4 1:-0.825397 3:1 20:1 26:1 44:1 54:1 68:1 75:1 90:1 
4 1:-0.501984 3:1 20:1 26:1 44:1 50:1 73:1 79:1 88:1 
4 1:-0.424603 3:1 20:1 26:1 44:1 56:1 63:1 83:1 87:1 
1.698492648589356 1:0.831349 5:1 15:1 32:1 42:1 61:1 68:1 85:1 88:1 
1.528753768980424 1:0.827381 6:1 20:1 37:1 45:1 61:1 68:1 85:1 88:1 
4 1:0.456349 4:1 15:1 32:1 38:1 61:1 68:1 85:1 88:1 
3.337090962382188 1:0.428571 11:1 15:1 37:1 45:1 61:1 68:1 85:1 88:1 
4 1:-0.078049 3:1 15:1 32:1 42:1 76:1 92:1 
4 1:0.068293 3:1 15:1 32:1 42:1 50:1 73:1 83:1 87:1 
4 1:0.058537 6:1 20:1 32:1 44:1 50:1 73:1 83:1 87:1 
4 1:-0.121951 5:1 15:1 36:1 38:1 51:1 68:1 75:1 92:1 
4 1:-0.097561 2:1 20:1 26:1 44:1 50:1 73:1 83:1 87:1 
4 1:-0.078049 2:1 20:1 26:1 44:1 51:1 68:1 75:1 90:1 
4 1:-0.204878 2:1 20:1 26:1 43:1 51:1 68:1 75:1 92:1 
1.014754032339718 1:-0.35122 2:1 22:1 27:1 49:1 50:1 73:1 83:1 87:1 
4 1:-0.463415 13:1 20:1 26:1 44:1 51:1 68:1 75:1 92:1 
4 1:0.370732 5:1 15:1 36:1 38:1 51:1 69:1 75:1 97:1 
4 1:0.287805 2:1 20:1 26:1 43:1 51:1 69:1 75:1 97:1 
1.985355536203556 1:0.785366 3:1 15:1 32:1 42:1 55:1 68:1 75:1 86:1 
4 1:0.619512 2:1 20:1 26:1 44:1 55:1 68:1 75:1 86:1 
4 1:-0.050909 5:1 15:1 37:1 45:1 85:1 92:1 
0.4170354422805904 1:-0.025455 3:1 20:1 32:1 48:1 50:1 68:1 82:1 87:1 
4 1:-0.207273 10:1 20:1 33:1 38:1 85:1 92:1 
3.425204261315172 1:0.167273 5:1 15:1 37:1 45:1 57:1 62:1 75:1 86:1 
4 1:0.010909 10:1 20:1 33:1 38:1 57:1 62:1 75:1 86:1 
0.16979006154646 1:-0.162304 3:1 21:1 26:1 39:1 52:1 73:1 85:1 87:1 
4 1:-0.308901 3:1 22:1 37:1 43:1 52:1 73:1 85:1 87:1 
0.05565498958813317 1:0.235602 3:1 21:1 26:1 39:1 51:1 68:1 85:1 93:1 
3.053648038661961 1:0.089005 3:1 22:1 37:1 43:1 51:1 68:1 85:1 93:1 
1.888960147586427 1:0.798429 8:1 20:1 37:1 49:1 51:1 63:1 80:1 97:1 
2.696785843799169 1:0.732984 3:1 14:1 37:1 49:1 51:1 63:1 80:1 97:1 
4 1:0.329843 5:1 14:1 34:1 38:1 51:1 63:1 80:1 97:1 
4 1:0.282723 3:1 20:1 37:1 44:1 51:1 63:1 80:1 97:1 
2.714895237903079 1:0.269634 3:1 21:1 26:1 39:1 51:1 63:1 80:1 97:1 
3.372792900660549 1:0.219895 4:1 15:1 37:1 49:1 51:1 63:1 80:1 97:1 
2.084317134830041 1:0.123037 3:1 22:1 37:1 43:1 51:1 63:1 80:1 97:1 
0.2007243346086452 1:0.078534 8:1 20:1 37:1 44:1 51:1 63:1 80:1 97:1 
3.976052129385252 1:-0.052356 8:1 20:1 37:1 44:1 51:1 63:1 80:1 97:1 
3.361905256322665 1:0.071429 13:1 20:1 26:1 42:1 61:1 62:1 85:1 87:1 
0.2979473796548734 1:0.447735 13:1 20:1 26:1 42:1 51:1 68:1 80:1 87:1 
1.998847052461582 1:0.012552 13:1 15:1 26:1 44:1 50:1 68:1 83:1 87:1 
4 1:0.029289 13:1 15:1 26:1 44:1 51:1 62:1 79:1 90:1 
4 1:0.07113 5:1 19:1 37:1 45:1 51:1 62:1 85:1 87:1 
4 1:0.096234 5:1 19:1 37:1 45:1 50:1 68:1 75:1 90:1 
4 1:-0.129707 5:1 15:1 32:1 49:1 50:1 68:1 83:1 87:1 
1.033483712509495 1:0.158996 5:1 15:1 32:1 49:1 51:1 69:1 74:1 89:1 
4 1:-0.313808 3:1 15:1 26:1 44:1 50:1 68:1 83:1 87:1 
4 1:-0.297071 3:1 15:1 26:1 44:1 51:1 62:1 79:1 90:1 
4 1:-0.205021 2:1 20:1 33:1 39:1 50:1 68:1 75:1 90:1 
4 1:-0.179916 2:1 20:1 33:1 39:1 61:1 62:1 75:1 92:1 
4 1:-0.167364 2:1 20:1 33:1 39:1 51:1 68:1 85:1 92:1 
2.420251832031452 1:-0.154812 2:1 20:1 33:1 39:1 61:1 68:1 75:1 87:1 
0.8478300221525645 1:-0.267782 3:1 20:1 26:1 44:1 51:1 62:1 85:1 87:1 
4 1:-0.242678 3:1 20:1 26:1 44:1 50:1 68:1 75:1 90:1 
4 1:-0.205021 3:1 20:1 26:1 44:1 51:1 68:1 85:1 92:1 
4 1:-0.192469 3:1 20:1 26:1 44:1 61:1 68:1 75:1 87:1 
1.793835501166996 1:0.376569 5:1 15:1 32:1 49:1 58:1 62:1 80:1 89:1 
0.3896754350343096 1:0.280335 3:1 20:1 26:1 44:1 56:1 69:1 84:1 97:1 
3.709300305668392 1:0.359833 2:1 20:1 33:1 39:1 61:1 68:1 82:1 93:1 
4 1:-0.635983 8:1 20:1 33:1 41:1 50:1 68:1 75:1 90:1 
4 1:-0.460251 8:1 20:1 33:1 41:1 53:1 62:1 76:1 87:1 
4 1:-0.330544 8:1 20:1 33:1 41:1 52:1 69:1 76:1 97:1 
4 1:-0.292887 8:1 20:1 33:1 41:1 52:1 62:1 76:1 87:1 
4 1:-0.1841 8:1 20:1 33:1 41:1 52:1 62:1 76:1 87:1 
0.421047232141143 1:-0.154812 8:1 20:1 33:1 41:1 53:1 68:1 76:1 93:1 
1.536432958156972 1:0.635983 5:1 15:1 32:1 49:1 54:1 69:1 74:1 89:1 
3.308389005983756 1:0.769874 5:1 19:1 37:1 45:1 51:1 68:1 75:1 90:1 
1.693084876489976 1:0.468619 2:1 20:1 33:1 39:1 51:1 68:1 75:1 90:1 
4 1:0.430962 3:1 20:1 26:1 44:1 51:1 68:1 75:1 90:1 
4 1:-0.803347 5:1 15:1 37:1 46:1 50:1 68:1 83:1 87:1 
1.968413384803042 1:-0.615063 5:1 15:1 37:1 46:1 51:1 72:1 75:1 96:1 
1.212069340813385 1:-0.297071 5:1 15:1 37:1 46:1 58:1 62:1 80:1 89:1 
4 1:-0.209205 5:1 15:1 37:1 46:1 61:1 62:1 80:1 89:1 
3.674334085527623 1:-0.158996 5:1 15:1 37:1 46:1 56:1 69:1 84:1 97:1 
4 1:-0.117155 5:1 15:1 37:1 46:1 61:1 68:1 82:1 93:1 
2.153329906049872 1:-0.037657 5:1 15:1 37:1 46:1 54:1 69:1 74:1 89:1 
3.789049521577838 1:0.794979 5:1 19:1 37:1 45:1 58:1 63:1 81:1 89:1 
4 1:0.131818 8:1 15:1 26:1 49:1 57:1 63:1 83:1 87:1 
4 1:-0.031818 13:1 20:1 26:1 38:1 57:1 63:1 83:1 87:1 
4 1:-0.140909 3:1 20:1 26:1 42:1 57:1 63:1 83:1 87:1 
4 1:-0.272727 8:1 15:1 26:1 40:1 57:1 63:1 83:1 87:1 
4 1:-0.318182 9:1 15:1 26:1 39:1 57:1 63:1 83:1 87:1 
4 1:0.472727 11:1 15:1 37:1 49:1 51:1 68:1 80:1 87:1 
4 1:0.213636 8:1 15:1 26:1 40:1 51:1 68:1 80:1 87:1 
4 1:-0.540909 13:1 20:1 27:1 46:1 57:1 63:1 83:1 87:1 
4 1:-0.672727 13:1 19:1 32:1 57:1 63:1 83:1 87:1 
4 1:-0.021201 5:1 15:1 32:1 41:1 51:1 62:1 75:1 90:1 
4 1:-0.024735 11:1 15:1 37:1 48:1 54:1 68:1 75:1 90:1 
4 1:-0.067138 13:1 20:1 26:1 44:1 54:1 68:1 75:1 90:1 
4 1:-0.053004 13:1 20:1 26:1 44:1 54:1 68:1 83:1 87:1 
4 1:0.095406 5:1 15:1 32:1 41:1 61:1 68:1 75:1 86:1 
1.326264529493915 1:0.081272 5:1 15:1 32:1 41:1 61:1 68:1 75:1 86:1 
4 1:0.063604 11:1 15:1 37:1 48:1 61:1 68:1 75:1 86:1 
4 1:0.021201 13:1 20:1 26:1 44:1 61:1 68:1 75:1 86:1 
4 1:0.30742 11:1 15:1 37:1 48:1 61:1 68:1 74:1 92:1 
4 1:0.265018 13:1 20:1 26:1 44:1 61:1 68:1 74:1 92:1 
0.9544134616904151 1:0.575972 4:1 25:1 27:1 49:1 51:1 73:1 85:1 97:1 
0.08916875760483593 1:0.614841 4:1 25:1 27:1 49:1 61:1 73:1 75:1 97:1 
3.867057767365952 1:0.313433 5:1 15:1 37:1 49:1 61:1 63:1 75:1 97:1 
3.618286361613521 1:0.164179 8:1 21:1 26:1 46:1 61:1 63:1 75:1 97:1 
4 1:0.008547 5:1 23:1 32:1 41:1 54:1 68:1 83:1 87:1 
0.4092836878278202 1:-0.115385 11:1 15:1 37:1 39:1 60:1 68:1 84:1 88:1 
4 1:-0.029915 11:1 15:1 37:1 39:1 51:1 68:1 83:1 90:1 
1.218547740153097 1:0.581197 13:1 21:1 28:1 49:1 50:1 73:1 75:1 93:1 
4 1:0.478632 11:1 15:1 37:1 39:1 61:1 68:1 83:1 95:1 
4 1:-0.504274 11:1 23:1 26:1 44:1 54:1 68:1 83:1 87:1 
3.716499034449495 1:-0.188034 3:1 25:1 32:1 38:1 50:1 73:1 75:1 93:1 
2.84375108330463 1:-0.0475 2:1 25:1 32:1 38:1 56:1 73:1 75:1 90:1 
2.016009058464875 1:-0.0525 13:1 25:1 36:1 43:1 55:1 63:1 81:1 87:1 
0.1746355311276548 1:0.2725 5:1 15:1 33:1 44:1 51:1 68:1 81:1 92:1 
0.01482936962517899 1:-0.2275 3:1 20:1 27:1 45:1 61:1 68:1 74:1 93:1 
4 1:-0.1825 3:1 20:1 27:1 45:1 51:1 68:1 81:1 92:1 
0.6964503625430091 1:0.1425 13:1 15:1 32:1 38:1 50:1 73:1 85:1 87:1 
1.097050694896443 1:-0.183562 5:1 15:1 37:1 38:1 61:1 68:1 74:1 89:1 
4 1:-0.005479 5:1 15:1 37:1 38:1 56:1 70:1 75:1 90:1 
4 1:-0.194521 2:1 18:1 32:1 49:1 61:1 68:1 74:1 89:1 
4 1:0.030137 2:1 18:1 32:1 49:1 61:1 73:1 78:1 90:1 
3.650862313824376 1:-0.230137 5:1 18:1 26:1 42:1 61:1 68:1 74:1 89:1 
3.846817785670932 1:-0.005479 5:1 18:1 26:1 42:1 61:1 73:1 78:1 90:1 
4 1:0.071233 5:1 15:1 37:1 38:1 58:1 62:1 74:1 97:1 
3.874096340599834 1:0.060274 2:1 18:1 32:1 49:1 58:1 62:1 74:1 97:1 
0.2243454957258587 1:0.019178 6:1 14:1 27:1 49:1 58:1 62:1 74:1 97:1 
4 1:-0.021918 6:1 21:1 26:1 49:1 58:1 62:1 74:1 97:1 
4 1:-0.4 7:1 25:1 32:1 42:1 61:1 68:1 74:1 89:1 
4 1:-0.145205 7:1 25:1 32:1 42:1 58:1 62:1 74:1 97:1 
4 1:-0.150685 6:1 20:1 27:1 38:1 58:1 62:1 74:1 97:1 
2.253769928807776 1:-0.19726 8:1 19:1 37:1 46:1 61:1 73:1 78:1 90:1 
4 1:0.158904 6:1 21:1 26:1 49:1 56:1 69:1 85:1 87:1 
4 1:0.035616 7:1 25:1 32:1 42:1 56:1 69:1 85:1 87:1 
4 1:-0.476712 3:1 20:1 33:1 49:1 61:1 62:1 75:1 97:1 
4 1:-0.205479 3:1 20:1 33:1 49:1 58:1 62:1 74:1 97:1 
4 1:-0.556164 8:1 21:1 26:1 44:1 61:1 68:1 74:1 89:1 
1.003074924891051 1:-0.331507 8:1 21:1 26:1 44:1 61:1 73:1 78:1 90:1 
4 1:-0.30137 8:1 21:1 26:1 44:1 58:1 62:1 74:1 97:1 
4 1:0.457534 5:1 15:1 37:1 38:1 61:1 70:1 75:1 92:1 
1.299077017199502 1:0.084932 8:1 21:1 26:1 44:1 61:1 70:1 75:1 92:1 
3.838015981652382 1:-0.739726 3:1 20:1 34:1 38:1 61:1 62:1 75:1 97:1 
3.235515162260877 1:-0.723288 3:1 20:1 34:1 38:1 61:1 68:1 74:1 89:1 
0.06588996371063853 1:-0.468493 3:1 20:1 34:1 38:1 58:1 62:1 74:1 97:1 
1.375551833770955 1:0.460274 8:1 19:1 33:1 42:1 58:1 62:1 85:1 90:1 
1.97090912999576 1:0.175342 8:1 21:1 26:1 44:1 58:1 62:1 85:1 90:1 
1.097608912391765 1:-0.736986 5:1 25:1 36:1 39:1 61:1 68:1 74:1 89:1 
4 1:-0.005479 5:1 25:1 36:1 39:1 58:1 62:1 85:1 90:1 
2.592207516400974 1:-0.761644 12:1 15:1 32:1 46:1 61:1 62:1 75:1 97:1 
2.219143071137589 1:-0.309589 12:1 15:1 32:1 46:1 56:1 69:1 85:1 87:1 
1.294020757146555 1:-0.10411 12:1 15:1 32:1 46:1 61:1 70:1 75:1 92:1 
0.4383945165721131 1:-0.120548 2:1 14:1 27:1 38:1 61:1 70:1 75:1 92:1 
3.971283724532976 1:0.553425 5:1 18:1 26:1 42:1 61:1 68:1 81:1 90:1 
0.3607496250116579 1:0.512329 8:1 19:1 33:1 42:1 61:1 68:1 81:1 90:1 
0.4293560928812795 1:0.383562 7:1 25:1 32:1 42:1 61:1 68:1 81:1 90:1 
2.379606830130629 1:0.038356 12:1 15:1 32:1 46:1 61:1 68:1 81:1 90:1 
2.820590276012067 1:-0.578082 8:1 19:1 27:1 38:1 61:1 73:1 78:1 90:1 
0.1726712070377457 1:-0.071233 8:1 19:1 27:1 38:1 58:1 62:1 85:1 90:1 
2.565394906991793 1:-0.019178 8:1 19:1 27:1 38:1 61:1 68:1 81:1 90:1 
0.4702436336726998 1:0.410959 7:1 25:1 32:1 42:1 51:1 62:1 75:1 93:1 
4 1:0.254795 8:1 21:1 26:1 44:1 51:1 62:1 75:1 93:1 
1.884547900480047 1:0.126027 13:1 21:1 37:1 38:1 51:1 62:1 75:1 93:1 
4 1:0.087671 3:1 20:1 34:1 38:1 51:1 62:1 75:1 93:1 
1.289147244800565 1:0.413699 6:1 20:1 27:1 38:1 51:1 69:1 74:1 92:1 
2.406817561894364 1:-0.032877 13:1 15:1 37:1 38:1 51:1 62:1 75:1 93:1 
4 1:0.452055 7:1 25:1 32:1 42:1 61:1 62:1 74:1 86:1 
4 1:0.29589 8:1 21:1 26:1 44:1 61:1 62:1 74:1 86:1 
1.29559058905102 1:0.284932 8:1 19:1 37:1 43:1 61:1 62:1 74:1 86:1 
2.331136465788941 1:0.008219 13:1 15:1 37:1 38:1 61:1 62:1 74:1 86:1 
4 1:0.69863 5:1 15:1 37:1 38:1 60:1 62:1 74:1 87:1 
2.526230751582371 1:0.687671 2:1 18:1 32:1 49:1 60:1 62:1 74:1 87:1 
4 1:0.19726 13:1 21:1 37:1 38:1 60:1 62:1 74:1 87:1 
3.441032812302886 1:0.136986 12:1 15:1 32:1 46:1 60:1 62:1 74:1 87:1 
3.421943529084826 1:0.120548 2:1 14:1 27:1 38:1 60:1 62:1 74:1 87:1 
0.4603004982347412 1:0.093151 5:1 21:1 37:1 39:1 60:1 62:1 74:1 87:1 
4 1:0.038356 13:1 15:1 37:1 38:1 60:1 62:1 74:1 87:1 
2.591574270811991 1:-0.709589 9:1 15:1 33:1 41:1 61:1 73:1 78:1 90:1 
4 1:-0.49863 9:1 15:1 33:1 41:1 56:1 69:1 85:1 87:1 
0.8028310451340522 1:-0.293151 9:1 15:1 33:1 41:1 61:1 70:1 75:1 92:1 
4 1:0.005479 9:1 15:1 33:1 41:1 54:1 69:1 75:1 87:1 
3.657282115263987 1:0.010033 5:1 25:1 32:1 49:1 56:1 73:1 74:1 97:1 
1.861074653851999 1:0.16388 12:1 14:1 35:1 39:1 50:1 73:1 83:1 87:1 
4 1:0.020067 5:1 25:1 32:1 49:1 50:1 73:1 83:1 87:1 
4 1:0.033445 5:1 25:1 32:1 49:1 51:1 62:1 79:1 90:1 
4 1:-0.16388 5:1 19:1 26:1 49:1 51:1 62:1 80:1 89:1 
3.182550623371311 1:-0.117057 5:1 19:1 26:1 49:1 51:1 69:1 77:1 97:1 
3.789966902069772 1:-0.113712 5:1 19:1 26:1 49:1 57:1 65:1 85:1 87:1 
4 1:-0.046823 5:1 19:1 26:1 49:1 60:1 62:1 85:1 90:1 
4 1:-0.020067 5:1 19:1 26:1 49:1 50:1 73:1 83:1 87:1 
4 1:0.06689 5:1 19:1 26:1 49:1 50:1 69:1 81:1 89:1 
3.562233055359675 1:-0.294314 3:1 20:1 26:1 44:1 51:1 62:1 80:1 89:1 
1.344802524605508 1:-0.177258 3:1 20:1 26:1 44:1 60:1 62:1 85:1 90:1 
4 1:-0.160535 3:1 20:1 26:1 44:1 56:1 73:1 74:1 97:1 
4 1:-0.150502 3:1 20:1 26:1 44:1 50:1 73:1 83:1 87:1 
4 1:-0.083612 3:1 20:1 26:1 44:1 61:1 68:1 75:1 87:1 
0.5004398364857287 1:0.384615 12:1 14:1 35:1 39:1 50:1 69:1 85:1 87:1 
0.123271269574423 1:0.200669 5:1 19:1 26:1 49:1 50:1 69:1 85:1 87:1 
4 1:0.070234 3:1 20:1 26:1 44:1 50:1 69:1 85:1 87:1 
4 1:0.254181 5:1 19:1 26:1 49:1 51:1 69:1 85:1 97:1 
1.093835380185762 1:-0.404682 8:1 20:1 34:1 38:1 51:1 69:1 77:1 97:1 
2.435198472856949 1:-0.334448 8:1 20:1 34:1 38:1 60:1 62:1 85:1 90:1 
4 1:-0.307692 8:1 20:1 34:1 38:1 50:1 73:1 83:1 87:1 
4 1:0.384615 5:1 19:1 26:1 49:1 50:1 68:1 74:1 97:1 
2.152333518457408 1:-0.602007 8:1 20:1 26:1 44:1 51:1 62:1 80:1 89:1 
4 1:-0.555184 8:1 20:1 26:1 44:1 51:1 69:1 77:1 97:1 
4 1:-0.458194 8:1 20:1 26:1 44:1 50:1 73:1 83:1 87:1 
4 1:0.494983 5:1 25:1 32:1 49:1 56:1 73:1 81:1 88:1 
4 1:0.454849 5:1 19:1 26:1 49:1 56:1 73:1 81:1 88:1 
4 1:0.324415 3:1 20:1 26:1 44:1 56:1 73:1 81:1 88:1 
3.01339368895725 1:0.167224 8:1 20:1 34:1 38:1 56:1 73:1 81:1 88:1 
4 1:0.016722 8:1 20:1 26:1 44:1 56:1 73:1 81:1 88:1 
0.2715080719463046 1:0.759197 12:1 14:1 35:1 39:1 50:1 68:1 85:1 97:1 
4 1:0.615385 5:1 25:1 32:1 49:1 50:1 68:1 85:1 97:1 
0.5294861079515598 1:0.575251 5:1 19:1 26:1 49:1 50:1 68:1 85:1 97:1 
2.411094920745267 1:0.444816 3:1 20:1 26:1 44:1 50:1 68:1 85:1 97:1 
2.453170085230556 1:-0.685619 2:1 20:1 37:1 39:1 50:1 73:1 75:1 96:1 
3.827420056410245 1:-0.672241 2:1 20:1 37:1 39:1 60:1 62:1 85:1 90:1 
4 1:-0.645485 2:1 20:1 37:1 39:1 50:1 73:1 83:1 87:1 
4 1:-0.632107 2:1 20:1 37:1 39:1 51:1 62:1 79:1 90:1 
4 1:-0.170569 2:1 20:1 37:1 39:1 56:1 73:1 81:1 88:1 
2.681091853316239 1:0.712375 5:1 19:1 26:1 49:1 50:1 73:1 81:1 89:1 
4 1:0.004008 8:1 15:1 32:1 41:1 54:1 68:1 74:1 89:1 
4 1:-0.004008 5:1 15:1 27:1 44:1 53:1 62:1 75:1 90:1 
1.6302866007491 1:0.056112 8:1 15:1 32:1 41:1 53:1 69:1 85:1 97:1 
4 1:0.044088 5:1 15:1 27:1 44:1 53:1 69:1 85:1 97:1 
2.199565074071295 1:0.108216 5:1 15:1 27:1 44:1 52:1 72:1 80:1 93:1 
4 1:0.150301 8:1 15:1 32:1 41:1 50:1 68:1 85:1 92:1 
4 1:0.162325 8:1 15:1 32:1 41:1 61:1 62:1 80:1 92:1 
4 1:0.216433 5:1 15:1 27:1 44:1 61:1 62:1 75:1 87:1 
4 1:0.234469 5:1 15:1 27:1 44:1 61:1 62:1 81:1 89:1 
4 1:0.142285 3:1 20:1 26:1 44:1 61:1 62:1 81:1 89:1 
4 1:0.238477 5:1 15:1 27:1 44:1 53:1 69:1 81:1 87:1 
4 1:0.294589 5:1 15:1 27:1 44:1 50:1 73:1 75:1 97:1 
4 1:0.202405 3:1 20:1 26:1 44:1 50:1 73:1 75:1 97:1 
2.863779655642416 1:-0.278557 3:1 20:1 26:1 49:1 52:1 72:1 80:1 93:1 
4 1:-0.152305 3:1 20:1 26:1 49:1 61:1 62:1 81:1 89:1 
4 1:-0.092184 3:1 20:1 26:1 49:1 50:1 73:1 75:1 97:1 
1.401532182390909 1:0.458918 5:1 15:1 27:1 44:1 52:1 70:1 80:1 93:1 
4 1:-0.302605 13:1 20:1 26:1 44:1 61:1 62:1 81:1 89:1 
4 1:-0.242485 13:1 20:1 26:1 44:1 50:1 73:1 75:1 97:1 
0.6206925468482408 1:0.569138 8:1 15:1 32:1 41:1 57:1 62:1 80:1 97:1 
2.068936200975237 1:0.170341 3:1 20:1 26:1 49:1 57:1 62:1 80:1 97:1 
4 1:0.02004 13:1 20:1 26:1 44:1 57:1 62:1 80:1 97:1 
4 1:0.629259 5:1 15:1 27:1 44:1 51:1 73:1 85:1 87:1 
4 1:0.242485 3:1 20:1 26:1 49:1 51:1 73:1 85:1 87:1 
1.140868969822471 1:0.300601 3:1 20:1 26:1 49:1 57:1 62:1 82:1 91:1 
4 1:0.150301 13:1 20:1 26:1 44:1 57:1 62:1 82:1 91:1 
4 1:0.747495 5:1 15:1 27:1 44:1 51:1 62:1 75:1 97:1 
3.490407593566004 1:0.360721 3:1 20:1 26:1 49:1 51:1 62:1 75:1 97:1 
4 1:-0.663327 2:1 20:1 33:1 38:1 52:1 72:1 80:1 93:1 
4 1:-0.55511 2:1 20:1 33:1 38:1 61:1 62:1 75:1 87:1 
4 1:-0.537074 2:1 20:1 33:1 38:1 61:1 62:1 81:1 89:1 
4 1:-0.476954 2:1 20:1 33:1 38:1 50:1 73:1 75:1 97:1 
2.366167952220123 1:-0.368737 2:1 20:1 33:1 38:1 50:1 69:1 79:1 87:1 
4 1:-0.142285 2:1 20:1 33:1 38:1 51:1 73:1 85:1 87:1 
2.181496540588368 1:-0.084168 2:1 20:1 33:1 38:1 57:1 62:1 82:1 91:1 
2.333694863234839 1:-0.024048 2:1 20:1 33:1 38:1 51:1 62:1 75:1 97:1 
1.225820467986131 1:0.797595 5:1 15:1 27:1 44:1 57:1 68:1 75:1 92:1 
4 1:-0.09058 10:1 21:1 26:1 38:1 54:1 73:1 75:1 97:1 
1.690266571900342 1:-0.769928 12:1 15:1 32:1 38:1 56:1 69:1 85:1 87:1 
2.506237203959404 1:-0.320652 12:1 15:1 32:1 38:1 54:1 73:1 75:1 97:1 
2.623171457413701 1:-0.389493 2:1 20:1 30:1 43:1 54:1 73:1 75:1 97:1 
4 1:-0.458696 3:1 20:1 37:1 39:1 61:1 73:1 80:1 88:1 
0.4985748761677599 1:-0.017391 4:1 25:1 30:1 42:1 50:1 73:1 75:1 91:1 
1.324979678817123 1:-0.817391 6:1 18:1 32:1 61:1 73:1 80:1 88:1 
0.1673297029513193 1:0.050761 13:1 15:1 26:1 39:1 51:1 73:1 85:1 87:1 
4 1:0.7 8:1 15:1 31:1 44:1 50:1 68:1 75:1 86:1 
4 1:0.071269 8:1 15:1 32:1 42:1 51:1 69:1 80:1 89:1 
1.598020012800164 1:-0.289532 8:1 25:1 36:1 42:1 51:1 69:1 80:1 89:1 
1.573075953252496 1:-0.719376 9:1 19:1 37:1 38:1 51:1 69:1 80:1 89:1 
1.919777697371046 1:0.530067 6:1 24:1 27:1 46:1 61:1 73:1 74:1 86:1 
4 1:-0.321705 3:1 20:1 32:1 44:1 51:1 68:1 75:1 90:1 
4 1:0.484496 15:1 32:1 44:1 58:1 68:1 82:1 97:1 
4 1:0.166667 8:1 14:1 27:1 49:1 58:1 68:1 82:1 97:1 
4 1:0.054264 3:1 20:1 32:1 44:1 58:1 68:1 82:1 97:1 
4 1:-0.306202 13:1 25:1 27:1 38:1 58:1 68:1 82:1 97:1 
0.8038429219417094 1:-0.410628 3:1 20:1 27:1 38:1 53:1 72:1 82:1 94:1 
4 1:-0.507246 2:1 20:1 26:1 44:1 50:1 68:1 84:1 89:1 
4 1:-0.444444 2:1 20:1 26:1 44:1 50:1 68:1 82:1 86:1 
0.2132305182801325 1:0.193237 3:1 21:1 27:1 44:1 56:1 69:1 75:1 97:1 
0.60367851324682 1:-0.753623 3:1 14:1 34:1 46:1 57:1 62:1 75:1 87:1 
2.96341758305144 1:0.241546 3:1 20:1 27:1 38:1 58:1 73:1 79:1 90:1 
4 1:0.154589 2:1 20:1 26:1 44:1 58:1 73:1 79:1 90:1 
1.13487777753014 1:0.36715 13:1 21:1 27:1 45:1 57:1 62:1 85:1 86:1 
0.14230606267136 1:0.811594 4:1 15:1 37:1 38:1 60:1 69:1 74:1 87:1 
0.1410706420058026 1:0.371981 3:1 20:1 27:1 38:1 60:1 69:1 74:1 87:1 
4 1:0.002008 5:1 15:1 29:1 47:1 51:1 66:1 83:1 90:1 
4 1:-0.01004 5:1 23:1 32:1 49:1 75:1 90:1 
4 1:-0.004016 5:1 23:1 32:1 49:1 51:1 66:1 83:1 90:1 
4 1:-0.044177 3:1 20:1 33:1 39:1 75:1 90:1 
3.47027546250897 1:-0.064257 3:1 20:1 33:1 49:1 75:1 90:1 
4 1:-0.082329 8:1 25:1 26:1 44:1 75:1 90:1 
0.9209644408659843 1:0.156627 5:1 15:1 29:1 47:1 57:1 62:1 75:1 87:1 
0.1684108123067189 1:-0.214859 2:1 23:1 26:1 49:1 75:1 90:1 
4 1:-0.208835 2:1 23:1 26:1 49:1 51:1 66:1 83:1 90:1 
3.263078915354248 1:0.461847 5:1 15:1 29:1 47:1 51:1 68:1 74:1 97:1 
4 1:0.421687 3:1 20:1 33:1 39:1 51:1 68:1 74:1 97:1 
4 1:0.383534 8:1 25:1 26:1 44:1 51:1 68:1 74:1 97:1 
4 1:0.251004 2:1 23:1 26:1 49:1 51:1 68:1 74:1 97:1 
4 1:-0.060241 13:1 20:1 26:1 38:1 51:1 68:1 74:1 97:1 
4 1:-0.214859 8:1 20:1 26:1 44:1 51:1 68:1 74:1 97:1 
4 1:-0.251004 8:1 20:1 26:1 44:1 51:1 68:1 74:1 97:1 
4 1:0.684739 3:1 20:1 33:1 39:1 56:1 73:1 74:1 97:1 
4 1:0.202811 13:1 20:1 26:1 38:1 56:1 73:1 74:1 97:1 
4 1:0.104418 3:1 25:1 27:1 38:1 56:1 73:1 74:1 97:1 
3.755849157862332 1:0.078313 3:1 20:1 33:1 49:1 56:1 73:1 74:1 97:1 
3.98338362759511 1:0.927711 8:1 20:1 27:1 44:1 56:1 68:1 76:1 92:1 
3.400877178597342 1:0.855422 9:1 15:1 32:1 44:1 56:1 68:1 76:1 92:1 
1.327086961840644 1:0.708835 4:1 15:1 36:1 40:1 56:1 68:1 76:1 92:1 
4 1:0.690763 13:1 15:1 32:1 46:1 56:1 68:1 76:1 92:1 
4 1:0.222892 8:1 25:1 32:1 39:1 56:1 68:1 76:1 92:1 
4 1:-0.007812 5:1 15:1 37:1 49:1 61:1 62:1 75:1 90:1 
4 1:-0.375 9:1 25:1 37:1 44:1 61:1 62:1 75:1 90:1 
0.6494289160613613 1:-0.839844 8:1 22:1 32:1 44:1 61:1 62:1 75:1 90:1 
0.2304763860947105 1:-0.010989 3:1 18:1 37:1 40:1 75:1 90:1 
3.607517691031017 1:0.095238 5:1 15:1 30:1 49:1 52:1 73:1 85:1 87:1 
3.310677976961698 1:0.296703 5:1 15:1 30:1 49:1 56:1 72:1 82:1 97:1 
0.03995222423008702 1:0.29304 3:1 18:1 37:1 40:1 56:1 72:1 82:1 97:1 
1.368274655171792 1:-0.457875 6:1 20:1 32:1 42:1 50:1 73:1 85:1 86:1 
4 1:-0.197802 6:1 20:1 32:1 42:1 56:1 69:1 85:1 86:1 
4 1:-0.205128 6:1 20:1 32:1 42:1 56:1 69:1 85:1 86:1 
4 1:-0.212454 6:1 20:1 32:1 42:1 56:1 69:1 85:1 86:1 
2.744491877789492 1:-0.659341 6:1 20:1 36:1 42:1 52:1 73:1 85:1 87:1 
0.006911419536400698 1:-0.479853 6:1 20:1 36:1 42:1 50:1 73:1 85:1 86:1 
0.7058969994050621 1:-0.666667 6:1 24:1 37:1 44:1 52:1 73:1 85:1 87:1 
4 1:-0.487179 6:1 24:1 37:1 44:1 50:1 73:1 85:1 86:1 
4 1:-0.227106 6:1 24:1 37:1 44:1 56:1 69:1 85:1 86:1 
0.006037766432160072 1:0.835165 5:1 15:1 30:1 49:1 50:1 73:1 75:1 94:1 
3.138237981664229 1:-0.249084 2:1 24:1 37:1 38:1 61:1 73:1 80:1 86:1 
4 1:0.794788 13:1 20:1 27:1 49:1 51:1 68:1 75:1 97:1 
4 1:-0.124786 5:1 15:1 33:1 49:1 51:1 63:1 75:1 87:1 
4 1:-0.003419 5:1 15:1 33:1 49:1 56:1 69:1 75:1 90:1 
1.444327323993166 1:-0.545299 2:1 20:1 26:1 44:1 50:1 68:1 85:1 86:1 
4 1:-0.391453 2:1 20:1 26:1 44:1 61:1 73:1 75:1 97:1 
4 1:-0.367521 2:1 20:1 26:1 44:1 51:1 63:1 75:1 87:1 
2.207382284869319 1:-0.189831 8:1 25:1 26:1 49:1 50:1 73:1 75:1 97:1 
2.325205485848856 1:0.318386 12:1 15:1 27:1 44:1 61:1 63:1 85:1 87:1 
1.277449582894441 1:0.05848 5:1 15:1 26:1 39:1 56:1 68:1 80:1 94:1 
4 1:-0.48538 6:1 20:1 33:1 39:1 61:1 68:1 75:1 90:1 
1.975531558881575 1:-0.444444 13:1 20:1 34:1 39:1 56:1 68:1 80:1 94:1 
4 1:-0.605263 3:1 20:1 31:1 49:1 61:1 68:1 75:1 90:1 
1.710124578441529 1:-0.596491 8:1 21:1 37:1 44:1 56:1 68:1 80:1 94:1 
4 1:-0.605263 13:1 20:1 26:1 39:1 56:1 68:1 80:1 94:1 
4 1:-0.523392 13:1 20:1 26:1 39:1 50:1 73:1 80:1 86:1 
0.009846909957422149 1:-0.672515 3:1 20:1 33:1 46:1 56:1 68:1 80:1 94:1 
4 1:-0.590643 3:1 20:1 33:1 46:1 50:1 73:1 80:1 86:1 
4 1:-0.494152 8:1 15:1 34:1 38:1 76:1 92:1 
4 1:0.102339 8:1 15:1 34:1 38:1 56:1 69:1 76:1 92:1 
2.814888449886449 1:-0.248538 8:1 15:1 32:1 40:1 60:1 68:1 85:1 93:1 
4 1:-0.716374 3:1 20:1 26:1 44:1 61:1 68:1 74:1 97:1 
1.584980515213865 1:0.195373 3:1 14:1 33:1 44:1 61:1 68:1 75:1 86:1 
4 1:0.019802 8:1 15:1 32:1 42:1 54:1 68:1 74:1 89:1 
4 1:0.009901 6:1 20:1 32:1 41:1 54:1 68:1 74:1 89:1 
2.619257470386884 1:0.029703 8:1 15:1 32:1 42:1 53:1 62:1 75:1 92:1 
1.323453052827739 1:-0.128713 8:1 14:1 27:1 39:1 78:1 92:1 
3.363967100612404 1:0.235698 8:1 15:1 32:1 40:1 56:1 63:1 75:1 97:1 
4 1:-0.256293 8:1 25:1 33:1 49:1 56:1 63:1 75:1 97:1 
3.658365375661391 1:-0.693364 8:1 17:1 32:1 49:1 69:1 76:1 92:1 
4 1:0.194508 8:1 25:1 33:1 49:1 56:1 73:1 75:1 93:1 
3.975204346633806 1:0.787185 8:1 15:1 32:1 40:1 61:1 62:1 85:1 97:1 
4 1:0.295195 8:1 25:1 33:1 49:1 61:1 62:1 85:1 97:1 
3.928731314252869 1:0.819222 8:1 15:1 32:1 40:1 50:1 68:1 85:1 94:1 
4 1:0.487414 2:1 20:1 33:1 49:1 50:1 68:1 85:1 94:1 
0.8882535909422712 1:0.453089 13:1 20:1 33:1 49:1 50:1 68:1 85:1 94:1 
4 1:0.327231 8:1 25:1 33:1 49:1 50:1 68:1 85:1 94:1 
4 1:0.237986 2:1 14:1 33:1 49:1 50:1 68:1 85:1 94:1 
4 1:0.338673 8:1 25:1 33:1 49:1 50:1 73:1 80:1 97:1 
4 1:0.249428 2:1 14:1 33:1 49:1 50:1 73:1 80:1 97:1 
4 1:0.361556 8:1 25:1 33:1 49:1 57:1 62:1 75:1 97:1 
4 1:-0.053763 11:1 15:1 26:1 39:1 56:1 68:1 82:1 87:1 
4 1:0.269592 3:1 25:1 34:1 39:1 61:1 68:1 80:1 96:1 
1.887755258060036 1:0.112853 8:1 20:1 27:1 44:1 61:1 68:1 80:1 96:1 
4 1:-0.357367 3:1 15:1 27:1 38:1 61:1 68:1 75:1 92:1 
3.63481996924649 1:-0.291536 3:1 15:1 27:1 38:1 60:1 68:1 75:1 92:1 
2.2806259812007 1:-0.231975 3:1 15:1 27:1 38:1 61:1 68:1 80:1 96:1 
2.335466487853801 1:0.188088 3:1 15:1 27:1 38:1 61:1 68:1 85:1 86:1 
4 1:0.320261 2:1 25:1 26:1 44:1 50:1 73:1 80:1 97:1 
3.54532671460519 1:-0.320809 8:1 20:1 26:1 39:1 56:1 73:1 81:1 86:1 
4 1:0.022099 5:1 15:1 37:1 49:1 61:1 69:1 74:1 97:1 
0.9738984189160792 1:0.044199 5:1 15:1 37:1 49:1 61:1 72:1 84:1 89:1 
1.720356045158134 1:0.055249 5:1 15:1 37:1 49:1 53:1 72:1 82:1 93:1 
3.179421073534527 1:-0.110497 13:1 20:1 37:1 49:1 54:1 68:1 75:1 90:1 
4 1:-0.077348 13:1 20:1 37:1 49:1 61:1 69:1 74:1 97:1 
3.327873991371737 1:-0.055249 13:1 20:1 37:1 49:1 61:1 72:1 84:1 89:1 
1.56038615004557 1:0.646409 5:1 15:1 37:1 49:1 51:1 62:1 83:1 87:1 
2.904555050587622 1:0.546961 13:1 20:1 37:1 49:1 51:1 62:1 83:1 87:1 
4 1:0.679558 13:1 20:1 37:1 49:1 51:1 68:1 75:1 92:1 
4 1:0.696133 13:1 20:1 37:1 49:1 51:1 68:1 75:1 92:1 
4 1:0.812155 5:1 15:1 37:1 49:1 51:1 68:1 75:1 90:1 
4 1:-0.889503 5:1 15:1 32:1 41:1 76:1 92:1 
2.787401346867557 1:-0.911602 5:1 15:1 32:1 41:1 76:1 92:1 
4 1:-0.033149 5:1 15:1 32:1 41:1 51:1 68:1 75:1 90:1 
4 1:-0.226519 11:1 15:1 36:1 41:1 51:1 62:1 83:1 87:1 
4 1:-0.093923 11:1 15:1 36:1 41:1 51:1 68:1 75:1 92:1 
4 1:-0.077348 11:1 15:1 36:1 41:1 51:1 68:1 75:1 92:1 
2.466042948301544 1:0.883978 5:1 15:1 37:1 49:1 54:1 72:1 74:1 90:1 
4 1:0.78453 13:1 20:1 37:1 49:1 54:1 72:1 74:1 90:1 
2.686526895625396 1:-0.911602 2:1 18:1 37:1 38:1 54:1 68:1 75:1 90:1 
0.2817802245381137 1:-0.856354 2:1 18:1 37:1 38:1 61:1 72:1 84:1 89:1 
4 1:-0.088398 2:1 18:1 37:1 38:1 51:1 68:1 75:1 90:1 
4 1:0.510563 6:1 20:1 32:1 42:1 50:1 73:1 83:1 87:1 
4 1:0.503521 6:1 20:1 32:1 42:1 50:1 73:1 83:1 87:1 
4 1:0.496479 6:1 20:1 37:1 39:1 50:1 73:1 83:1 87:1 
4 1:0.440141 2:1 20:1 27:1 38:1 50:1 73:1 83:1 87:1 
0.6440228950958017 1:0.517606 6:1 20:1 32:1 42:1 51:1 68:1 83:1 92:1 
4 1:0.556338 3:1 14:1 32:1 42:1 54:1 68:1 75:1 86:1 
4 1:0.535211 6:1 20:1 37:1 39:1 54:1 68:1 75:1 86:1 
4 1:0.017606 5:1 15:1 32:1 41:1 51:1 62:1 75:1 90:1 
1.079949140166805 1:-0.042254 5:1 15:1 32:1 41:1 51:1 68:1 83:1 92:1 
4 1:-0.03169 5:1 15:1 32:1 41:1 59:1 68:1 75:1 90:1 
4 1:0.007042 5:1 15:1 32:1 41:1 54:1 68:1 75:1 90:1 
1.970489592375695 1:-0.070423 5:1 15:1 32:1 41:1 50:1 73:1 83:1 87:1 
4 1:-0.045775 5:1 15:1 32:1 41:1 59:1 68:1 75:1 90:1 
4 1:-0.021127 5:1 15:1 32:1 41:1 51:1 62:1 75:1 90:1 
4 1:0.045775 5:1 15:1 32:1 41:1 54:1 68:1 75:1 90:1 
4 1:0.007042 5:1 15:1 32:1 41:1 54:1 68:1 75:1 90:1 
4 1:-0.084507 5:1 15:1 37:1 44:1 50:1 73:1 83:1 87:1 
4 1:-0.059859 5:1 15:1 37:1 44:1 59:1 68:1 75:1 90:1 
4 1:-0.021127 5:1 15:1 37:1 44:1 54:1 68:1 75:1 90:1 
4 1:0.016949 13:1 15:1 26:1 44:1 51:1 68:1 83:1 87:1 
0.02526493214721649 1:0.172316 13:1 15:1 26:1 44:1 56:1 68:1 75:1 92:1 
4 1:0.146893 11:1 15:1 37:1 38:1 56:1 68:1 75:1 92:1 
4 1:-0.177966 11:1 15:1 33:1 49:1 50:1 68:1 75:1 92:1 
4 1:-0.169492 11:1 15:1 33:1 49:1 51:1 68:1 83:1 87:1 
4 1:-0.358757 3:1 20:1 26:1 44:1 50:1 68:1 75:1 92:1 
4 1:-0.350282 3:1 20:1 26:1 44:1 51:1 68:1 83:1 87:1 
4 1:0.477401 11:1 15:1 37:1 38:1 51:1 68:1 74:1 93:1 
4 1:0.387006 11:1 15:1 33:1 49:1 60:1 62:1 75:1 87:1 
4 1:-0.60452 3:1 20:1 26:1 44:1 50:1 68:1 75:1 92:1 
4 1:-0.596045 3:1 20:1 26:1 44:1 51:1 68:1 83:1 87:1 
4 1:-0.039548 3:1 20:1 26:1 44:1 60:1 62:1 75:1 87:1 
4 1:-0.875706 13:1 20:1 26:1 44:1 50:1 68:1 75:1 92:1 
4 1:-0.867232 13:1 20:1 26:1 44:1 51:1 68:1 83:1 87:1 
1.331070439137789 1:-0.24026 3:1 25:1 34:1 38:1 51:1 63:1 80:1 94:1 
1.685426636092552 1:-0.714286 8:1 18:1 36:1 39:1 51:1 63:1 80:1 94:1 
0.908509988903497 1:0.058442 8:1 18:1 36:1 39:1 50:1 68:1 74:1 90:1 
4 1:0.60124 12:1 21:1 27:1 38:1 61:1 73:1 80:1 
1.710447729164175 1:0.120527 30:1 44:1 51:1 70:1 81:1 87:1 
0.01866881993552 1:-0.026365 13:1 15:1 37:1 44:1 51:1 70:1 81:1 87:1 
0.484883901185073 1:0.242938 30:1 44:1 51:1 68:1 75:1 87:1 
4 1:-0.018832 13:1 24:1 36:1 38:1 51:1 68:1 75:1 87:1 
0.2186466863351594 1:-0.244821 13:1 15:1 37:1 38:1 51:1 70:1 81:1 87:1 
4 1:-0.122411 13:1 15:1 37:1 38:1 51:1 68:1 75:1 87:1 
0.3461999207324197 1:-0.427495 13:1 15:1 32:1 48:1 51:1 68:1 75:1 87:1 
0.09182580842546545 1:-0.548023 13:1 20:1 27:1 42:1 51:1 68:1 75:1 87:1 
4 1:-0.022222 5:1 15:1 32:1 41:1 76:1 92:1 
4 1:0.004938 5:1 15:1 32:1 41:1 54:1 68:1 75:1 90:1 
4 1:-0.014815 5:1 15:1 32:1 39:1 61:1 68:1 75:1 90:1 
4 1:0.501235 5:1 15:1 32:1 39:1 56:1 73:1 85:1 97:1 
0.8467264741904894 1:-0.693827 3:1 17:1 27:1 45:1 61:1 63:1 85:1 97:1 
4 1:-0.002469 3:1 17:1 27:1 45:1 56:1 63:1 78:1 87:1 
4 1:0.202469 3:1 17:1 27:1 45:1 61:1 68:1 81:1 97:1 
4 1:-0.65445 13:1 25:1 26:1 41:1 51:1 62:1 74:1 91:1 
1.451854170488082 1:-0.609948 8:1 25:1 31:1 46:1 56:1 70:1 85:1 87:1 
0.2563413867559508 1:-0.719895 6:1 20:1 27:1 45:1 56:1 70:1 85:1 87:1 
4 1:-0.840314 13:1 20:1 26:1 38:1 51:1 62:1 74:1 91:1 
4 1:0.068889 13:1 20:1 27:1 49:1 61:1 68:1 75:1 87:1 
4 1:-0.104444 7:1 20:1 27:1 38:1 61:1 68:1 75:1 87:1 
3.262544667981925 1:0.127208 13:1 15:1 26:1 44:1 51:1 68:1 75:1 92:1 
4 1:0.077739 13:1 20:1 27:1 44:1 51:1 68:1 75:1 92:1 
4 1:0.09894 13:1 20:1 27:1 44:1 51:1 68:1 75:1 90:1 
4 1:-0.056537 5:1 15:1 26:1 49:1 56:1 68:1 75:1 87:1 
4 1:0.077739 5:1 15:1 26:1 49:1 56:1 68:1 75:1 87:1 
4 1:-0.303887 3:1 20:1 32:1 39:1 51:1 68:1 75:1 92:1 
4 1:0.770318 5:1 15:1 26:1 49:1 51:1 68:1 83:1 87:1 
4 1:-0.837456 11:1 15:1 32:1 42:1 56:1 68:1 75:1 87:1 
4 1:-0.70318 11:1 15:1 32:1 42:1 56:1 68:1 75:1 87:1 
4 1:-0.795053 6:1 20:1 37:1 38:1 51:1 68:1 75:1 90:1 
1.474073079895159 1:-0.710247 6:1 20:1 37:1 38:1 56:1 68:1 75:1 87:1 
4 1:-0.049242 8:1 25:1 32:1 39:1 76:1 92:1 
4 1:-0.094697 13:1 15:1 32:1 45:1 76:1 92:1 
4 1:-0.200758 8:1 15:1 32:1 49:1 76:1 92:1 
4 1:-0.526515 8:1 20:1 32:1 44:1 76:1 92:1 
4 1:-0.098485 2:1 20:1 34:1 45:1 52:1 68:1 80:1 97:1 
4 1:-0.840909 8:1 15:1 37:1 39:1 76:1 92:1 
3.589041732509088 1:0.863636 8:1 15:1 32:1 49:1 51:1 68:1 75:1 92:1 
4 1:0.670455 6:1 20:1 33:1 39:1 51:1 68:1 75:1 92:1 
4 1:0.359848 8:1 20:1 33:1 39:1 51:1 68:1 75:1 92:1 
4 1:0.681818 6:1 20:1 33:1 39:1 51:1 68:1 75:1 92:1 
3.989286328707789 1:0.371212 8:1 20:1 33:1 39:1 51:1 68:1 75:1 92:1 
0.6835684683771135 1:0.17803 3:1 20:1 37:1 49:1 51:1 68:1 75:1 92:1 
0.280596704454968 1:-0.045455 8:1 22:1 32:1 44:1 51:1 68:1 75:1 92:1 
2.548034035589645 1:0.275676 3:1 20:1 27:1 44:1 51:1 72:1 75:1 97:1 
4 1:-0.240099 13:1 15:1 36:1 39:1 61:1 68:1 75:1 90:1 
4 1:-0.148515 13:1 15:1 36:1 39:1 56:1 73:1 85:1 87:1 
4 1:0.40099 5:1 15:1 26:1 49:1 61:1 68:1 83:1 87:1 
2.104293555786892 1:0.165842 13:1 15:1 36:1 39:1 61:1 68:1 83:1 87:1 
4 1:-0.413366 11:1 15:1 26:1 49:1 61:1 68:1 75:1 90:1 
4 1:0.04703 11:1 15:1 26:1 49:1 53:1 68:1 83:1 92:1 
0.8685604897466941 1:0.462871 5:1 15:1 26:1 49:1 59:1 68:1 74:1 97:1 
0.01095751110711199 1:0.227723 13:1 15:1 36:1 39:1 59:1 68:1 74:1 97:1 
4 1:0.054455 11:1 15:1 26:1 49:1 59:1 68:1 74:1 97:1 
0.2398541509103679 1:0.475248 13:1 15:1 36:1 39:1 61:1 62:1 80:1 97:1 
4 1:0.30198 11:1 15:1 26:1 49:1 61:1 62:1 80:1 97:1 
2.455278533184426 1:0.485149 13:1 15:1 36:1 39:1 61:1 62:1 80:1 86:1 
1.129114085424056 1:0.311881 11:1 15:1 26:1 49:1 61:1 62:1 80:1 86:1 
4 1:-0.344059 3:1 20:1 32:1 42:1 61:1 68:1 83:1 87:1 
2.72226648377279 1:-0.294554 6:1 20:1 37:1 39:1 53:1 68:1 83:1 92:1 
4 1:0.54703 13:1 15:1 36:1 39:1 51:1 68:1 75:1 94:1 
4 1:0.077922 13:1 21:1 27:1 39:1 61:1 68:1 75:1 92:1 
4 1:0.051948 13:1 20:1 27:1 39:1 61:1 68:1 75:1 92:1 
4 1:0.5 13:1 20:1 32:1 49:1 56:1 62:1 76:1 87:1 
0.6167483671439538 1:0.045082 12:1 15:1 36:1 39:1 50:1 62:1 85:1 91:1 
1.674143727588545 1:0.204918 12:1 15:1 36:1 39:1 61:1 68:1 74:1 92:1 
4 1:-0.446721 8:1 15:1 32:1 48:1 56:1 62:1 76:1 87:1 
1.52021280906919 1:-0.204918 8:1 15:1 32:1 48:1 61:1 68:1 74:1 92:1 
4 1:-0.192926 7:1 20:1 37:1 49:1 56:1 73:1 74:1 97:1 
1.174091575989642 1:-0.128617 7:1 20:1 37:1 49:1 51:1 68:1 82:1 93:1 
3.219842770376895 1:0.231511 7:1 20:1 37:1 49:1 56:1 73:1 81:1 92:1 
2.008293903925241 1:0.337621 7:1 20:1 37:1 49:1 61:1 68:1 75:1 92:1 
4 1:-0.122186 5:1 15:1 27:1 38:1 56:1 73:1 81:1 92:1 
4 1:-0.051546 3:1 20:1 26:1 39:1 56:1 68:1 80:1 87:1 
3.215098297499417 1:0.28866 3:1 20:1 26:1 39:1 56:1 63:1 82:1 86:1 
4 1:0.408935 8:1 15:1 33:1 38:1 51:1 68:1 80:1 97:1 
4 1:0.367698 3:1 20:1 26:1 39:1 51:1 68:1 80:1 97:1 
3.947121644604932 1:0.298969 13:1 20:1 37:1 38:1 51:1 68:1 80:1 97:1 
4 1:-0.056122 5:1 15:1 32:1 49:1 78:1 92:1 
4 1:-0.147959 5:1 20:1 26:1 44:1 51:1 68:1 75:1 90:1 
4 1:-0.760204 13:1 20:1 27:1 39:1 51:1 68:1 75:1 90:1 
0.6389653336693133 1:-0.107143 13:1 20:1 27:1 39:1 50:1 73:1 80:1 92:1 
0.9499072050165036 1:-0.05102 3:1 20:1 32:1 49:1 56:1 69:1 75:1 86:1 
4 1:-0.053333 5:1 15:1 32:1 49:1 85:1 92:1 
4 1:-0.151111 2:1 20:1 26:1 45:1 85:1 92:1 
2.654783360774856 1:0.149909 2:1 25:1 37:1 39:1 50:1 73:1 75:1 92:1 
1.156733151693366 1:-0.080439 3:1 25:1 26:1 44:1 50:1 73:1 75:1 92:1 
2.741046051755266 1:0.416819 2:1 25:1 37:1 39:1 55:1 68:1 85:1 86:1 
4 1:0.186472 3:1 25:1 26:1 44:1 55:1 68:1 85:1 86:1 
1.906105339181006 1:-0.155393 8:1 17:1 37:1 44:1 55:1 68:1 85:1 86:1 
4 1:-0.001828 8:1 17:1 37:1 44:1 51:1 68:1 78:1 97:1 
1.788499837161406 1:-0.06947 2:1 15:1 32:1 40:1 61:1 62:1 85:1 92:1 
3.769907287380811 1:0.153565 8:1 17:1 37:1 44:1 61:1 68:1 85:1 86:1 
3.25862710006637 1:-0.433272 3:1 15:1 27:1 38:1 50:1 68:1 85:1 87:1 
4 1:-0.345521 3:1 15:1 27:1 38:1 50:1 68:1 85:1 87:1 
1.441301765577782 1:-0.051188 3:1 15:1 27:1 38:1 61:1 73:1 85:1 92:1 
2.356943358295038 1:-0.468007 2:1 15:1 37:1 38:1 50:1 68:1 85:1 87:1 
4 1:-0.380256 2:1 15:1 37:1 38:1 50:1 68:1 85:1 87:1 
2.060705106739042 1:0.244973 8:1 17:1 37:1 44:1 57:1 62:1 75:1 93:1 
4 1:0.592322 3:1 25:1 26:1 44:1 51:1 69:1 75:1 97:1 
4 1:0.250457 8:1 17:1 37:1 44:1 51:1 69:1 75:1 97:1 
0.3588298413190412 1:0.102377 3:1 25:1 37:1 44:1 51:1 69:1 75:1 97:1 
4 1:0.074954 3:1 15:1 27:1 38:1 51:1 69:1 75:1 97:1 
4 1:0.263254 8:1 17:1 37:1 44:1 50:1 69:1 85:1 87:1 
2.954313007791496 1:0.115174 3:1 25:1 37:1 44:1 50:1 69:1 85:1 87:1 
4 1:0.087751 3:1 15:1 27:1 38:1 50:1 69:1 85:1 87:1 
4 1:0.053016 2:1 15:1 37:1 38:1 50:1 69:1 85:1 87:1 
4 1:0.285192 8:1 17:1 37:1 44:1 60:1 62:1 75:1 97:1 
1.049863822055364 1:-0.051188 3:1 25:1 32:1 44:1 51:1 69:1 75:1 97:1 
4 1:-0.002132 9:1 17:1 32:1 49:1 69:1 78:1 92:1 
0.1711881696916931 1:-0.032653 13:1 15:1 32:1 44:1 50:1 62:1 85:1 91:1 
0.3857636943318257 1:-0.620408 3:1 22:1 37:1 48:1 61:1 62:1 85:1 87:1 
0.98160650405533 1:0.57551 13:1 15:1 32:1 44:1 51:1 69:1 74:1 86:1 
3.04682970381645 1:-0.166667 7:1 25:1 37:1 41:1 50:1 68:1 84:1 89:1 
1.011470874561545 1:-0.157407 7:1 25:1 37:1 41:1 53:1 72:1 74:1 97:1 
2.1589226444942 1:0.24537 13:1 25:1 32:1 41:1 54:1 73:1 75:1 93:1 
0.3850960165520734 1:0.231481 7:1 25:1 37:1 41:1 56:1 63:1 80:1 88:1 
3.065001430197226 1:0.420849 8:1 15:1 27:1 44:1 61:1 68:1 85:1 87:1 
3.31550783146486 1:0.432432 8:1 15:1 27:1 44:1 61:1 63:1 85:1 92:1 
4 1:0.46332 3:1 20:1 32:1 39:1 51:1 68:1 75:1 92:1 
4 1:0.451737 8:1 15:1 27:1 44:1 51:1 68:1 75:1 92:1 
3.979866308104647 1:0.610039 8:1 15:1 27:1 44:1 50:1 69:1 74:1 92:1 
3.052381977512905 1:-0.223938 13:1 20:1 32:1 39:1 51:1 68:1 75:1 92:1 
4 1:0.756757 8:1 15:1 27:1 44:1 61:1 73:1 76:1 91:1 
0.1962836403461498 1:-0.051661 3:1 14:1 27:1 44:1 58:1 62:1 75:1 92:1 
4 1:0.027523 5:1 15:1 27:1 49:1 61:1 68:1 80:1 89:1 
1.913778862984406 1:0.266055 5:1 15:1 27:1 49:1 50:1 68:1 74:1 87:1 
3.212664145431476 1:-0.366972 7:1 20:1 32:1 41:1 83:1 87:1 
0.2531799408178043 1:-0.495413 10:1 22:1 27:1 44:1 83:1 87:1 
3.768703354335676 1:0.811927 5:1 15:1 27:1 49:1 61:1 68:1 75:1 86:1 
4 1:0.844037 5:1 15:1 27:1 49:1 56:1 62:1 75:1 87:1 
0.117510585717641 1:-0.994135 8:1 15:1 32:1 85:1 97:1 
4 1:0.683908 5:1 15:1 27:1 46:1 51:1 68:1 74:1 90:1 
4 1:-0.121951 9:1 18:1 37:1 44:1 51:1 69:1 75:1 90:1 
4 1:0.206967 8:1 25:1 31:1 49:1 61:1 68:1 74:1 97:1 
4 1:0.19877 13:1 15:1 34:1 49:1 61:1 68:1 74:1 97:1 
4 1:0.188525 10:1 21:1 37:1 49:1 61:1 68:1 74:1 97:1 
4 1:0.122951 2:1 14:1 36:1 38:1 61:1 68:1 74:1 97:1 
2.27363009709012 1:0.327869 8:1 25:1 31:1 49:1 56:1 68:1 75:1 87:1 
1.460572855872424 1:0.243852 2:1 14:1 36:1 38:1 56:1 68:1 75:1 87:1 
2.870985381243399 1:0.711392 37:1 45:1 61:1 68:1 80:1 95:1 
2.781799112143294 1:-0.583072 8:1 25:1 31:1 49:1 69:1 81:1 90:1 
4 1:-0.435737 8:1 25:1 31:1 49:1 61:1 63:1 74:1 86:1 
2.566685110991633 1:-0.344828 2:1 25:1 33:1 49:1 56:1 73:1 75:1 87:1 
3.11427294410443 1:0.191223 8:1 25:1 31:1 49:1 50:1 68:1 80:1 92:1 
3.449741654430519 1:0.034483 2:1 25:1 33:1 49:1 50:1 68:1 80:1 92:1 
3.972662307256137 1:-0.717868 3:1 20:1 26:1 39:1 61:1 63:1 74:1 86:1 
4 1:-0.617555 3:1 20:1 26:1 39:1 56:1 73:1 75:1 87:1 
4 1:-0.470219 3:1 20:1 26:1 39:1 56:1 73:1 75:1 87:1 
4 1:-0.090909 3:1 20:1 26:1 39:1 50:1 68:1 80:1 92:1 
4 1:0.027972 5:1 15:1 37:1 38:1 50:1 68:1 85:1 87:1 
4 1:0.048951 5:1 15:1 37:1 38:1 56:1 68:1 85:1 87:1 
4 1:0.143357 5:1 15:1 37:1 38:1 56:1 68:1 85:1 87:1 
0.1078826363223257 1:0.555944 13:1 20:1 32:1 42:1 56:1 73:1 82:1 86:1 
1.97055015638263 1:0.548951 6:1 20:1 32:1 41:1 56:1 73:1 82:1 86:1 
0.3880317950272621 1:0.534965 5:1 15:1 37:1 38:1 56:1 73:1 82:1 86:1 
0.2175621110628476 1:0.552448 5:1 15:1 37:1 38:1 50:1 68:1 75:1 97:1 
1.0253117906426 1:-0.13986 3:1 21:1 31:1 39:1 50:1 68:1 75:1 97:1 
4 1:-0.688811 3:1 24:1 27:1 45:1 50:1 68:1 85:1 87:1 
1.940349036480242 1:-0.667832 3:1 24:1 27:1 45:1 56:1 68:1 85:1 87:1 
4 1:-0.573427 3:1 24:1 27:1 45:1 56:1 68:1 85:1 87:1 
4 1:-0.181818 3:1 24:1 27:1 45:1 56:1 73:1 82:1 86:1 
4 1:-0.164336 3:1 24:1 27:1 45:1 50:1 68:1 75:1 97:1 
1.094763594891406 1:0.083916 3:1 21:1 31:1 39:1 51:1 72:1 81:1 86:1 
0.07431414359998231 1:-0.044248 5:1 15:1 33:1 39:1 50:1 68:1 80:1 92:1 
2.578240619484111 1:-0.356932 2:1 20:1 33:1 42:1 50:1 68:1 80:1 92:1 
4 1:0.427729 5:1 15:1 33:1 39:1 51:1 68:1 75:1 90:1 
0.1467608762262527 1:0.115044 2:1 20:1 33:1 42:1 51:1 68:1 75:1 90:1 
4 1:-0.439528 5:1 15:1 33:1 49:1 50:1 68:1 75:1 90:1 
4 1:0.548673 6:1 21:1 37:1 38:1 52:1 72:1 74:1 97:1 
3.337164396138551 1:0.253687 6:1 21:1 37:1 38:1 52:1 72:1 74:1 97:1 
0.2387601442387733 1:0.634218 5:1 15:1 33:1 39:1 61:1 68:1 82:1 97:1 
4 1:0.20059 5:1 15:1 33:1 49:1 61:1 68:1 82:1 97:1 
0.05114643718309567 1:0.224189 5:1 15:1 33:1 49:1 61:1 68:1 82:1 97:1 
4 1:0.861357 3:1 14:1 32:1 42:1 53:1 68:1 85:1 97:1 
4 1:-0.061728 12:1 15:1 32:1 42:1 76:1 92:1 
0.2669729751636266 1:-0.030864 12:1 15:1 32:1 42:1 54:1 68:1 75:1 90:1 
4 1:-0.015432 12:1 15:1 32:1 42:1 54:1 69:1 75:1 97:1 
4 1:-0.027778 2:1 20:1 26:1 44:1 50:1 73:1 75:1 92:1 
4 1:0.175926 6:1 20:1 26:1 49:1 55:1 68:1 74:1 93:1 
4 1:0.151235 6:1 25:1 37:1 38:1 55:1 68:1 74:1 93:1 
1.762637359791815 1:-0.262346 13:1 20:1 26:1 44:1 54:1 69:1 75:1 97:1 
4 1:-0.231481 13:1 20:1 26:1 44:1 50:1 73:1 75:1 92:1 
4 1:-0.055556 13:1 20:1 26:1 44:1 50:1 69:1 85:1 87:1 
4 1:0.432099 12:1 15:1 32:1 42:1 50:1 68:1 74:1 93:1 
4 1:0.425926 6:1 20:1 26:1 49:1 50:1 68:1 74:1 93:1 
4 1:0.401235 6:1 25:1 37:1 38:1 50:1 68:1 74:1 93:1 
4 1:0.441358 12:1 15:1 32:1 42:1 50:1 69:1 75:1 87:1 
4 1:0.435185 6:1 20:1 26:1 49:1 50:1 69:1 75:1 87:1 
3.979541536591611 1:0.410494 6:1 25:1 37:1 38:1 50:1 69:1 75:1 87:1 
2.188810850900671 1:0.481481 12:1 15:1 32:1 42:1 51:1 68:1 75:1 93:1 
4 1:0.475309 6:1 20:1 26:1 49:1 51:1 68:1 75:1 93:1 
4 1:0.484568 6:1 25:1 37:1 38:1 61:1 73:1 75:1 96:1 
2.367100766573889 1:0.561728 5:1 15:1 30:1 45:1 60:1 69:1 85:1 87:1 
4 1:0.537037 12:1 15:1 32:1 42:1 60:1 69:1 85:1 87:1 
4 1:0.530864 6:1 20:1 26:1 49:1 60:1 69:1 85:1 87:1 
3.985987689099504 1:0.506173 6:1 25:1 37:1 38:1 60:1 69:1 85:1 87:1 
3.093600337967896 1:-0.743827 8:1 20:1 36:1 39:1 54:1 68:1 75:1 90:1 
4 1:-0.79321 3:1 20:1 26:1 44:1 54:1 68:1 75:1 90:1 
3.412093482769059 1:-0.580247 3:1 20:1 26:1 44:1 55:1 68:1 74:1 93:1 
4 1:-0.330247 3:1 20:1 26:1 44:1 50:1 68:1 74:1 93:1 
1.980199527776529 1:-0.320988 3:1 20:1 26:1 44:1 50:1 69:1 75:1 87:1 
4 1:-0.280864 3:1 20:1 26:1 44:1 51:1 68:1 75:1 93:1 
4 1:-0.246914 3:1 20:1 26:1 44:1 61:1 73:1 75:1 96:1 
0.08084891666641174 1:-0.756173 2:1 20:1 27:1 49:1 50:1 73:1 75:1 92:1 
0.1766274653613484 1:-0.256173 2:1 20:1 27:1 49:1 61:1 73:1 75:1 96:1 
0.5006719056551077 1:0.765432 3:1 20:1 37:1 42:1 61:1 68:1 74:1 97:1 
4 1:0.54321 13:1 20:1 26:1 44:1 61:1 68:1 74:1 97:1 
4 1:-0.845679 7:1 20:1 26:1 44:1 54:1 68:1 75:1 90:1 
3.768826018024376 1:-0.830247 7:1 20:1 26:1 44:1 54:1 69:1 75:1 97:1 
4 1:-0.382716 7:1 20:1 26:1 44:1 50:1 68:1 74:1 93:1 
1.193083215007746 1:-0.333333 7:1 20:1 26:1 44:1 51:1 68:1 75:1 93:1 
4 1:-0.299383 7:1 20:1 26:1 44:1 61:1 73:1 75:1 96:1 
0.4579330527859164 1:0.799383 3:1 20:1 37:1 42:1 50:1 68:1 84:1 89:1 
2.116122185236718 1:0.780864 2:1 20:1 26:1 44:1 50:1 68:1 84:1 89:1 
3.411255316352171 1:0.57716 13:1 20:1 26:1 44:1 50:1 68:1 84:1 89:1 
1.547278073456571 1:0.830247 12:1 15:1 32:1 42:1 53:1 72:1 85:1 97:1 
4 1:0.824074 6:1 20:1 26:1 49:1 53:1 72:1 85:1 97:1 
2.400633690798447 1:0.067901 3:1 20:1 26:1 44:1 53:1 72:1 85:1 97:1 
1.639065721086182 1:0.015432 7:1 20:1 26:1 44:1 53:1 72:1 85:1 97:1 
0.218874898359142 1:-0.407407 13:1 25:1 34:1 38:1 50:1 68:1 74:1 93:1 
0.3654577390835967 1:-0.358025 13:1 25:1 34:1 38:1 51:1 68:1 75:1 93:1 
4 1:-0.049383 13:1 25:1 34:1 38:1 61:1 68:1 74:1 97:1 
3.169041853529872 1:-0.015432 13:1 25:1 34:1 38:1 50:1 68:1 84:1 89:1 
2.250933979284723 1:-0.317901 5:1 15:1 37:1 38:1 50:1 69:1 75:1 97:1 
4 1:0.938272 5:1 15:1 30:1 45:1 61:1 68:1 75:1 90:1 
4 1:0.024691 5:1 15:1 37:1 38:1 61:1 68:1 75:1 90:1 
0.895219571486033 1:-0.487654 5:1 15:1 27:1 49:1 50:1 68:1 74:1 93:1 
4 1:-0.438272 5:1 15:1 27:1 49:1 51:1 68:1 75:1 93:1 
2.615180796576912 1:-0.404321 5:1 15:1 27:1 49:1 61:1 73:1 75:1 96:1 
4 1:-0.348765 5:1 15:1 27:1 49:1 50:1 69:1 75:1 97:1 
4 1:-0.188272 5:1 15:1 27:1 49:1 50:1 73:1 85:1 97:1 
4 1:-0.12963 5:1 15:1 27:1 49:1 61:1 68:1 74:1 97:1 
4 1:-0.095679 5:1 15:1 27:1 49:1 50:1 68:1 84:1 89:1 
4 1:-0.089506 5:1 15:1 27:1 49:1 53:1 72:1 85:1 97:1 
4 1:-0.037037 5:1 15:1 27:1 49:1 61:1 68:1 75:1 90:1 
4 1:-0.41358 3:1 25:1 37:1 44:1 61:1 73:1 75:1 96:1 
2.03801789383765 1:0.032075 15:1 32:1 49:1 61:1 62:1 77:1 97:1 
4 1:-0.34717 9:1 15:1 37:1 44:1 61:1 62:1 77:1 97:1 
3.337504688553051 1:-0.35283 8:1 25:1 26:1 45:1 50:1 65:1 85:1 92:1 
2.590124574290552 1:-0.411321 13:1 20:1 37:1 46:1 50:1 65:1 85:1 92:1 
1.526425414623631 1:0.518868 11:1 15:1 32:1 42:1 61:1 62:1 85:1 87:1 
3.727963879218195 1:0.371698 13:1 20:1 37:1 38:1 61:1 62:1 85:1 87:1 
1.922297444953479 1:0.303774 3:1 20:1 26:1 49:1 61:1 62:1 85:1 87:1 
3.992702229454465 1:0.183019 13:1 20:1 37:1 46:1 61:1 62:1 85:1 87:1 
4 1:0.045283 13:1 20:1 26:1 39:1 61:1 62:1 85:1 87:1 
0.5333604480458761 1:0.388679 3:1 20:1 26:1 49:1 61:1 68:1 75:1 97:1 
4 1:0.130189 13:1 20:1 26:1 39:1 61:1 68:1 75:1 97:1 
4 1:0.730189 11:1 15:1 32:1 42:1 56:1 68:1 85:1 87:1 
1.196972420117608 1:0.690566 13:1 20:1 26:1 49:1 56:1 68:1 85:1 87:1 
4 1:0.515094 3:1 20:1 26:1 49:1 56:1 68:1 85:1 87:1 
3.116551471668185 1:0.45283 8:1 25:1 26:1 45:1 56:1 68:1 85:1 87:1 
4 1:0.256604 13:1 20:1 26:1 39:1 56:1 68:1 85:1 87:1 
4 1:0.007547 2:1 20:1 26:1 44:1 56:1 68:1 85:1 87:1 
4 1:-0.901887 8:1 20:1 37:1 44:1 61:1 62:1 77:1 97:1 
3.832460394220284 1:0.707547 9:1 25:1 26:1 49:1 56:1 69:1 85:1 87:1 
0.3558755237543406 1:0.616981 3:1 20:1 26:1 49:1 56:1 69:1 85:1 87:1 
4 1:0.029973 8:1 15:1 32:1 45:1 61:1 68:1 75:1 92:1 
4 1:0.038147 8:1 15:1 32:1 45:1 51:1 68:1 75:1 92:1 
4 1:-0.070845 8:1 15:1 26:1 44:1 69:1 76:1 92:1 
2.108740963962354 1:-0.111717 2:1 20:1 27:1 49:1 61:1 68:1 75:1 92:1 
4 1:-0.103542 2:1 20:1 27:1 49:1 51:1 68:1 75:1 92:1 
2.677521493607842 1:-0.039076 3:1 20:1 27:1 39:1 51:1 73:1 85:1 87:1 
1.209071555101019 1:0.008881 3:1 20:1 27:1 39:1 56:1 62:1 74:1 87:1 
0.003408275053387683 1:-0.232682 9:1 14:1 37:1 48:1 51:1 73:1 85:1 87:1 
1.470136086466576 1:-0.426288 13:1 25:1 26:1 49:1 51:1 73:1 85:1 87:1 
4 1:0.376238 3:1 20:1 33:1 43:1 50:1 73:1 80:1 93:1 
2.835660673530229 1:0.131188 8:1 21:1 37:1 49:1 50:1 73:1 80:1 93:1 
4 1:0.091584 13:1 20:1 26:1 49:1 51:1 63:1 74:1 86:1 
4 1:0.851485 32:1 44:1 50:1 62:1 81:1 95:1 
1.58216055001977 1:0.688119 13:1 25:1 32:1 44:1 50:1 62:1 81:1 95:1 
1.169511605707852 1:0.438119 2:1 25:1 37:1 39:1 50:1 62:1 81:1 95:1 
4 1:0.09901 13:1 20:1 26:1 49:1 50:1 62:1 81:1 95:1 
4 1:0.071782 3:1 20:1 32:1 44:1 50:1 62:1 81:1 95:1 
0.4382814152191888 1:0.212871 13:1 15:1 32:1 49:1 56:1 73:1 81:1 87:1 
4 1:0.113861 13:1 20:1 26:1 49:1 56:1 73:1 81:1 87:1 
4 1:0.086634 3:1 20:1 32:1 44:1 56:1 73:1 81:1 87:1 
1.576224120393161 1:-0.128713 3:1 20:1 33:1 39:1 50:1 73:1 80:1 93:1 
4 1:-0.106436 3:1 20:1 34:1 45:1 51:1 63:1 74:1 86:1 
4 1:-0.09901 3:1 20:1 34:1 45:1 50:1 62:1 81:1 95:1 
4 1:-0.084158 3:1 20:1 34:1 45:1 56:1 73:1 81:1 87:1 
4 1:0.586634 3:1 20:1 33:1 43:1 57:1 63:1 74:1 92:1 
2.337878751133338 1:0.54703 3:1 20:1 34:1 45:1 57:1 63:1 74:1 92:1 
2.326087180024893 1:0.844059 13:1 25:1 36:1 49:1 61:1 62:1 80:1 86:1 
4 1:0.59901 3:1 20:1 33:1 43:1 61:1 62:1 80:1 86:1 
4 1:0.39604 13:1 20:1 26:1 39:1 61:1 62:1 80:1 86:1 
0.7173819550096979 1:0.35396 8:1 21:1 37:1 49:1 61:1 62:1 80:1 86:1 
3.852211734961712 1:0.094059 3:1 20:1 33:1 39:1 61:1 62:1 80:1 86:1 
1.279479374435813 1:0.102473 13:1 15:1 27:1 44:1 56:1 68:1 74:1 87:1 
4 1:-0.943463 13:1 20:1 26:1 44:1 61:1 69:1 74:1 93:1 
4 1:-0.745583 13:1 20:1 26:1 44:1 56:1 68:1 74:1 87:1 
4 1:0.298667 7:1 20:1 27:1 38:1 51:1 69:1 74:1 87:1 
4 1:-0.013483 5:1 15:1 32:1 41:1 75:1 90:1 
4 1:-0.022472 5:1 15:1 32:1 41:1 75:1 90:1 
1.734486820276588 1:-0.013483 5:1 15:1 32:1 41:1 54:1 68:1 75:1 90:1 
4 1:0.022472 5:1 15:1 32:1 41:1 54:1 68:1 75:1 90:1 
4 1:-0.031461 5:1 15:1 37:1 38:1 75:1 90:1 
4 1:-0.022472 5:1 15:1 37:1 38:1 54:1 68:1 75:1 90:1 
4 1:-0.013483 5:1 15:1 37:1 38:1 54:1 68:1 75:1 90:1 
4 1:0.004494 11:1 15:1 32:1 41:1 54:1 68:1 83:1 90:1 
4 1:-0.01573 5:1 23:1 32:1 41:1 51:1 68:1 83:1 87:1 
4 1:-0.521348 5:1 15:1 37:1 38:1 75:1 90:1 
2.95649039951287 1:-0.494382 5:1 15:1 37:1 38:1 54:1 68:1 75:1 90:1 
4 1:-0.024719 5:1 15:1 37:1 38:1 51:1 68:1 83:1 87:1 
0.8836313639998261 1:0.629213 5:1 15:1 32:1 41:1 51:1 68:1 75:1 90:1 
4 1:0.620225 5:1 15:1 32:1 41:1 51:1 68:1 75:1 90:1 
4 1:0.611236 5:1 15:1 37:1 38:1 51:1 68:1 75:1 90:1 
4 1:0.121348 5:1 15:1 37:1 38:1 51:1 68:1 75:1 90:1 
4 1:-0.647191 5:1 15:1 32:1 41:1 75:1 90:1 
4 1:0.130337 5:1 15:1 37:1 38:1 54:1 68:1 75:1 90:1 
4 1:-0.65618 5:1 15:1 32:1 41:1 75:1 90:1 
4 1:-0.013483 5:1 15:1 32:1 41:1 51:1 68:1 75:1 90:1 
4 1:0.139326 5:1 15:1 37:1 38:1 54:1 68:1 75:1 90:1 
4 1:-0.665169 5:1 15:1 37:1 38:1 75:1 90:1 
3.861729131161103 1:-0.168539 5:1 15:1 37:1 38:1 51:1 68:1 83:1 87:1 
4 1:-0.148315 5:1 15:1 37:1 38:1 54:1 68:1 75:1 90:1 
4 1:-0.022472 5:1 15:1 37:1 38:1 51:1 68:1 75:1 90:1 
4 1:-0.013483 5:1 15:1 37:1 38:1 54:1 68:1 75:1 90:1 
1.203236263817247 1:0.316854 11:1 15:1 32:1 41:1 61:1 73:1 74:1 87:1 
3.568142326242832 1:0.45618 5:1 23:1 32:1 41:1 53:1 68:1 78:1 95:1 
1.41823151897086 1:-0.462921 8:1 17:1 35:1 44:1 54:1 68:1 83:1 90:1 
4 1:-0.002247 8:1 17:1 35:1 44:1 53:1 68:1 78:1 95:1 
4 1:0.485393 11:1 15:1 32:1 41:1 61:1 68:1 74:1 97:1 
1.261942768519094 1:0.467416 5:1 15:1 37:1 38:1 61:1 68:1 74:1 97:1 
4 1:0.323596 5:1 15:1 37:1 38:1 61:1 68:1 74:1 97:1 
4 1:0.017978 8:1 17:1 35:1 44:1 61:1 68:1 74:1 97:1 
4 1:-0.062731 13:1 15:1 32:1 38:1 69:1 85:1 92:1 
4 1:0.062731 6:1 20:1 32:1 49:1 61:1 68:1 83:1 87:1 
2.301372821515939 1:-0.139373 13:1 14:1 34:1 38:1 54:1 68:1 83:1 87:1 
4 1:-0.209059 2:1 20:1 31:1 49:1 54:1 68:1 83:1 87:1 
3.939827581168371 1:0.129584 9:1 15:1 37:1 39:1 50:1 73:1 85:1 87:1 
0.02666996844263126 1:0.109756 8:1 15:1 26:1 44:1 56:1 69:1 84:1 89:1 
3.302015367296847 1:0.138211 5:1 15:1 32:1 39:1 53:1 63:1 85:1 86:1 
0.7818320788575568 1:0.150407 8:1 15:1 26:1 44:1 56:1 69:1 74:1 97:1 
2.779321430016713 1:-0.182927 8:1 21:1 27:1 45:1 53:1 63:1 85:1 86:1 
4 1:-0.032164 5:1 15:1 37:1 44:1 54:1 68:1 75:1 87:1 
1.627646586662975 1:0.190058 3:1 15:1 32:1 43:1 51:1 68:1 85:1 97:1 
2.465545697232339 1:0.444444 13:1 15:1 26:1 44:1 58:1 62:1 80:1 87:1 
4 1:0.309942 5:1 15:1 37:1 44:1 58:1 62:1 80:1 87:1 
0.8874894583116986 1:0.733918 3:1 15:1 32:1 43:1 61:1 73:1 80:1 86:1 
4 1:-0.118393 2:1 20:1 32:1 42:1 61:1 68:1 74:1 97:1 
0.2622646561795259 1:-0.133192 6:1 20:1 27:1 38:1 56:1 72:1 74:1 97:1 
1.674647194738708 1:-0.122622 6:1 20:1 27:1 38:1 61:1 68:1 74:1 97:1 
3.934780726820268 1:-0.145877 6:1 20:1 32:1 42:1 61:1 68:1 74:1 97:1 
4 1:-0.150106 6:1 20:1 37:1 39:1 61:1 68:1 74:1 97:1 
4 1:0.10148 2:1 20:1 32:1 42:1 50:1 62:1 80:1 89:1 
2.736717526398184 1:0.097252 6:1 20:1 27:1 38:1 50:1 62:1 80:1 89:1 
3.00085819072557 1:0.069767 6:1 20:1 37:1 39:1 50:1 62:1 80:1 89:1 
4 1:0.116279 6:1 20:1 27:1 38:1 51:1 72:1 75:1 92:1 
1.790288962853074 1:0.232558 5:1 22:1 37:1 39:1 60:1 62:1 80:1 89:1 
2.585956306008041 1:0.173362 6:1 20:1 27:1 38:1 53:1 68:1 80:1 87:1 
4 1:0.340381 2:1 20:1 32:1 42:1 50:1 68:1 85:1 97:1 
4 1:0.336152 6:1 20:1 27:1 38:1 50:1 68:1 85:1 97:1 
0.6737747642929888 1:0.317125 13:1 14:1 32:1 42:1 50:1 68:1 85:1 97:1 
3.418151473036948 1:0.312896 6:1 20:1 32:1 42:1 50:1 68:1 85:1 97:1 
2.709485141404961 1:0.308668 6:1 20:1 37:1 39:1 50:1 68:1 85:1 97:1 
4 1:0.331924 6:1 20:1 37:1 39:1 55:1 68:1 74:1 90:1 
1.949102212838398 1:-0.389006 5:1 14:1 35:1 38:1 50:1 62:1 75:1 86:1 
4 1:0.545455 5:1 22:1 37:1 39:1 61:1 68:1 85:1 90:1 
4 1:0.486258 2:1 20:1 32:1 42:1 61:1 68:1 85:1 90:1 
4 1:0.48203 6:1 20:1 27:1 38:1 61:1 68:1 85:1 90:1 
4 1:0.458774 6:1 20:1 32:1 42:1 61:1 68:1 85:1 90:1 
4 1:0.454545 6:1 20:1 37:1 39:1 61:1 68:1 85:1 90:1 
0.8473459732578954 1:0.118393 5:1 14:1 35:1 38:1 61:1 68:1 85:1 90:1 
1.553398234981052 1:-0.317125 5:1 25:1 32:1 41:1 60:1 62:1 80:1 89:1 
3.214115530786954 1:0.494715 2:1 20:1 32:1 42:1 54:1 68:1 85:1 90:1 
2.993239709167021 1:0.46723 6:1 20:1 32:1 42:1 54:1 68:1 85:1 90:1 
1.515958766597564 1:0.12685 5:1 14:1 35:1 38:1 54:1 68:1 85:1 90:1 
4 1:-0.012685 5:1 25:1 32:1 41:1 61:1 68:1 85:1 90:1 
2.702998176239263 1:-0.167019 5:1 25:1 32:1 49:1 50:1 68:1 85:1 97:1 
4 1:-0.021142 5:1 25:1 32:1 49:1 61:1 68:1 85:1 90:1 
4 1:-0.012685 5:1 25:1 32:1 49:1 54:1 68:1 85:1 90:1 
0.6779283111441843 1:0.570825 2:1 20:1 32:1 42:1 50:1 69:1 80:1 86:1 
4 1:0.566596 6:1 20:1 27:1 38:1 50:1 69:1 80:1 86:1 
1.738892769370059 1:0.547569 13:1 14:1 32:1 42:1 50:1 69:1 80:1 86:1 
2.388474628308875 1:0.539112 6:1 20:1 37:1 39:1 50:1 69:1 80:1 86:1 
3.742142938482679 1:0.58351 2:1 20:1 32:1 42:1 56:1 73:1 84:1 89:1 
2.990980088893643 1:0.579281 6:1 20:1 27:1 38:1 56:1 73:1 84:1 89:1 
0.8285997274759392 1:0.084567 5:1 25:1 32:1 41:1 56:1 73:1 84:1 89:1 
4 1:0.07611 5:1 25:1 32:1 49:1 56:1 73:1 84:1 89:1 
0.4896616156699301 1:0.587738 2:1 20:1 32:1 42:1 53:1 72:1 85:1 97:1 
4 1:0.58351 6:1 20:1 27:1 38:1 53:1 72:1 85:1 97:1 
3.627308337117364 1:-0.782241 7:1 25:1 34:1 39:1 56:1 72:1 74:1 97:1 
4 1:-0.167019 7:1 25:1 34:1 39:1 61:1 68:1 85:1 90:1 
0.4296857147792429 1:-0.150106 7:1 25:1 34:1 39:1 54:1 68:1 85:1 90:1 
4 1:-0.082452 7:1 25:1 34:1 39:1 50:1 69:1 80:1 86:1 
0.9728243155947398 1:-0.069767 7:1 25:1 34:1 39:1 56:1 73:1 84:1 89:1 
4 1:0.036415 13:1 15:1 32:1 42:1 50:1 63:1 76:1 90:1 
4 1:0.064426 6:1 20:1 26:1 44:1 50:1 68:1 83:1 95:1 
4 1:0.173669 11:1 23:1 33:1 40:1 61:1 68:1 75:1 92:1 
0.00408561050549777 1:0.182073 11:1 23:1 33:1 40:1 51:1 68:1 75:1 86:1 
4 1:0.420168 11:1 23:1 33:1 40:1 61:1 68:1 75:1 92:1 
2.019025036805766 1:0.235294 2:1 15:1 26:1 44:1 51:1 68:1 75:1 90:1 
4 1:-0.442577 5:1 15:1 26:1 49:1 50:1 68:1 83:1 95:1 
4 1:-0.260504 5:1 15:1 26:1 49:1 61:1 68:1 75:1 92:1 
4 1:-0.252101 5:1 15:1 26:1 49:1 51:1 68:1 75:1 86:1 
4 1:0.030812 5:1 15:1 26:1 49:1 51:1 68:1 83:1 95:1 
4 1:-0.29972 11:1 23:1 34:1 38:1 61:1 68:1 75:1 92:1 
2.076786766523204 1:-0.053221 11:1 23:1 34:1 38:1 61:1 68:1 75:1 92:1 
4 1:-0.044818 11:1 23:1 34:1 38:1 51:1 68:1 75:1 90:1 
1.903959759925444 1:-0.610644 13:1 15:1 32:1 42:1 50:1 63:1 76:1 90:1 
4 1:-0.582633 6:1 20:1 26:1 44:1 50:1 68:1 83:1 95:1 
1.142369616307386 1:-0.154062 6:1 20:1 26:1 44:1 61:1 68:1 75:1 92:1 
2.307756397367132 1:-0.145658 6:1 20:1 26:1 44:1 51:1 68:1 75:1 90:1 
4 1:-0.109244 6:1 20:1 26:1 44:1 51:1 68:1 83:1 95:1 
4 1:-0.686275 11:1 15:1 32:1 42:1 50:1 68:1 83:1 95:1 
1.333357027753018 1:-0.495798 11:1 15:1 32:1 42:1 51:1 68:1 75:1 86:1 
4 1:-0.257703 11:1 15:1 32:1 42:1 61:1 68:1 75:1 92:1 
4 1:-0.212885 11:1 15:1 32:1 42:1 51:1 68:1 83:1 95:1 
0.3160427618269205 1:-0.72549 6:1 20:1 32:1 42:1 50:1 63:1 76:1 90:1 
4 1:-0.254902 6:1 20:1 32:1 42:1 51:1 68:1 75:1 90:1 
4 1:-0.277311 6:1 20:1 32:1 42:1 51:1 68:1 75:1 90:1 
4 1:-0.282913 6:1 20:1 32:1 42:1 51:1 68:1 75:1 90:1 
1.132849701787245 1:-0.72549 6:1 20:1 31:1 48:1 50:1 68:1 83:1 95:1 
4 1:-0.535014 6:1 20:1 31:1 48:1 51:1 68:1 75:1 86:1 
0.2420394914259115 1:-0.296919 6:1 20:1 31:1 48:1 61:1 68:1 75:1 92:1 
2.522600232878312 1:-0.288515 6:1 20:1 31:1 48:1 51:1 68:1 75:1 90:1 
3.452606194056162 1:0.291317 5:1 15:1 26:1 49:1 55:1 72:1 75:1 90:1 
4 1:-0.635854 5:1 15:1 37:1 44:1 50:1 69:1 85:1 97:1 
4 1:-0.302521 5:1 15:1 37:1 44:1 51:1 68:1 75:1 90:1 
4 1:-0.787115 11:1 15:1 36:1 42:1 50:1 68:1 83:1 95:1 
1.242455763904739 1:-0.358543 11:1 15:1 36:1 42:1 61:1 68:1 75:1 92:1 
4 1:-0.313725 11:1 15:1 36:1 42:1 51:1 68:1 83:1 95:1 
1.678010170938797 1:-0.792717 6:1 24:1 32:1 42:1 50:1 68:1 83:1 95:1 
3.656523391363381 1:-0.602241 6:1 24:1 32:1 42:1 51:1 68:1 75:1 86:1 
4 1:-0.361345 6:1 20:1 32:1 42:1 51:1 68:1 75:1 90:1 
4 1:-0.366947 6:1 20:1 32:1 42:1 51:1 68:1 75:1 90:1 
4 1:-0.372549 6:1 20:1 32:1 42:1 51:1 68:1 75:1 90:1 
4 1:-0.378151 6:1 20:1 32:1 42:1 51:1 68:1 75:1 90:1 
4 1:-0.383754 6:1 20:1 32:1 42:1 51:1 68:1 75:1 90:1 
3.967775128880863 1:-0.389356 6:1 20:1 37:1 44:1 51:1 68:1 75:1 90:1 
4 1:0.173669 11:1 15:1 32:1 42:1 61:1 69:1 75:1 87:1 
4 1:0.120448 5:1 15:1 37:1 44:1 61:1 69:1 75:1 87:1 
4 1:0.072829 11:1 15:1 36:1 42:1 61:1 69:1 75:1 87:1 
4 1:0.431373 5:1 15:1 26:1 49:1 59:1 68:1 85:1 87:1 
1.899138512372049 1:0.086835 11:1 15:1 36:1 42:1 59:1 68:1 85:1 87:1 
0.8629608472083873 1:0.034483 26:1 38:1 58:1 62:1 75:1 93:1 
4 1:0.128527 26:1 38:1 61:1 68:1 81:1 88:1 
4 1:0.153605 26:1 38:1 61:1 63:1 75:1 97:1 
4 1:0.37931 26:1 38:1 61:1 68:1 85:1 87:1 
4 1:-0.310345 10:1 14:1 26:1 44:1 61:1 63:1 75:1 97:1 
4 1:0.61442 26:1 38:1 51:1 68:1 75:1 87:1 
2.968185430360839 1:0.15047 10:1 14:1 26:1 44:1 51:1 68:1 75:1 87:1 
3.14769128238022 1:0.943574 26:1 38:1 50:1 68:1 75:1 94:1 
1.502552785275522 1:0.706422 13:1 20:1 33:1 43:1 53:1 62:1 75:1 92:1 
4 1:0.091743 3:1 15:1 33:1 44:1 53:1 62:1 75:1 92:1 
4 1:-0.044118 4:1 20:1 32:1 42:1 61:1 68:1 84:1 88:1 
3.878960292313212 1:-0.165441 6:1 20:1 28:1 49:1 56:1 73:1 74:1 97:1 
4 1:-0.051948 5:1 15:1 32:1 49:1 76:1 92:1 
4 1:-0.008658 5:1 15:1 32:1 49:1 54:1 68:1 75:1 90:1 
4 1:-0.155844 13:1 20:1 37:1 45:1 54:1 68:1 75:1 90:1 
4 1:0.181818 5:1 15:1 32:1 49:1 52:1 69:1 74:1 87:1 
4 1:-0.316017 13:1 20:1 37:1 49:1 54:1 68:1 75:1 90:1 
0.3249966277137208 1:-0.125541 13:1 20:1 37:1 49:1 52:1 69:1 74:1 87:1 
4 1:-0.606061 2:1 20:1 26:1 44:1 54:1 68:1 75:1 90:1 
0.639249847913914 1:-0.415584 2:1 20:1 26:1 44:1 52:1 69:1 74:1 87:1 
4 1:-0.666667 3:1 20:1 26:1 44:1 54:1 68:1 75:1 90:1 
2.117390078045426 1:0.194805 2:1 20:1 26:1 44:1 61:1 68:1 81:1 89:1 
4 1:0.134199 3:1 20:1 26:1 44:1 61:1 68:1 81:1 89:1 
3.893289215600522 1:-0.891775 7:1 20:1 26:1 44:1 54:1 68:1 75:1 90:1 
4 1:-0.701299 7:1 20:1 26:1 44:1 52:1 69:1 74:1 87:1 
4 1:-0.090909 7:1 20:1 26:1 44:1 61:1 68:1 81:1 89:1 
4 1:-0.037736 5:1 15:1 32:1 49:1 76:1 92:1 
4 1:0.072327 8:1 15:1 32:1 41:1 56:1 62:1 85:1 92:1 
4 1:-0.132075 8:1 24:1 26:1 45:1 76:1 92:1 
4 1:-0.034591 8:1 24:1 26:1 45:1 56:1 62:1 85:1 92:1 
4 1:0.301887 8:1 24:1 26:1 45:1 54:1 62:1 85:1 86:1 
1.462031751147993 1:0.216981 3:1 20:1 31:1 38:1 54:1 62:1 85:1 86:1 
4 1:0.097484 3:1 20:1 33:1 39:1 54:1 62:1 85:1 86:1 
1.356332574240135 1:0.040881 13:1 21:1 36:1 39:1 54:1 62:1 85:1 86:1 
1.816984625025237 1:-0.09434 12:1 14:1 33:1 38:1 54:1 62:1 85:1 86:1 
4 1:0.688679 8:1 15:1 32:1 41:1 58:1 62:1 82:1 86:1 
4 1:0.091195 2:1 15:1 32:1 49:1 58:1 62:1 82:1 86:1 
4 1:-0.072327 2:1 18:1 26:1 39:1 58:1 62:1 82:1 86:1 
4 1:0.880503 8:1 15:1 32:1 41:1 50:1 62:1 80:1 92:1 
2.269423267592741 1:0.345912 2:1 15:1 32:1 49:1 50:1 73:1 85:1 97:1 
4 1:0.852201 8:1 24:1 26:1 45:1 56:1 68:1 74:1 89:1 
3.659043406385559 1:0.767296 3:1 20:1 31:1 38:1 56:1 68:1 74:1 89:1 
4 1:0.647799 3:1 20:1 33:1 39:1 56:1 68:1 74:1 89:1 
0.8313168104224679 1:0.556604 2:1 20:1 26:1 41:1 56:1 68:1 74:1 89:1 
2.930596967366315 1:0.455975 12:1 14:1 33:1 38:1 56:1 68:1 74:1 89:1 
4 1:0.308176 3:1 20:1 26:1 44:1 56:1 68:1 74:1 89:1 
4 1:0.198113 2:1 18:1 26:1 39:1 56:1 68:1 74:1 89:1 
4 1:0.858491 8:1 24:1 26:1 45:1 53:1 62:1 75:1 92:1 
4 1:0.654088 3:1 20:1 33:1 39:1 53:1 62:1 75:1 92:1 
4 1:0.462264 12:1 14:1 33:1 38:1 53:1 62:1 75:1 92:1 
4 1:0.141509 5:1 15:1 33:1 49:1 53:1 62:1 75:1 92:1 
4 1:-0.031008 8:1 15:1 32:1 49:1 76:1 92:1 
4 1:0.329457 8:1 15:1 32:1 49:1 51:1 68:1 85:1 92:1 
0.1124691595466283 1:0.248062 9:1 14:1 27:1 45:1 51:1 68:1 85:1 92:1 
4 1:0.093023 2:1 20:1 27:1 39:1 51:1 68:1 85:1 92:1 
4 1:-0.391473 8:1 15:1 32:1 41:1 76:1 92:1 
1.844160024454401 1:0.352713 9:1 14:1 27:1 45:1 51:1 68:1 75:1 97:1 
0.4879218586905617 1:0.197674 2:1 20:1 27:1 39:1 51:1 68:1 75:1 97:1 
4 1:0.127907 10:1 14:1 27:1 38:1 51:1 68:1 75:1 97:1 
4 1:0.511628 9:1 14:1 27:1 45:1 50:1 68:1 85:1 86:1 
0.0246616680464972 1:0.012438 26:1 40:1 51:1 63:1 85:1 86:1 
0.6543428312626264 1:-0.037313 5:1 15:1 32:1 49:1 51:1 63:1 85:1 86:1 
4 1:-0.004975 5:1 15:1 32:1 49:1 54:1 68:1 75:1 90:1 
4 1:-0.164179 13:1 20:1 26:1 46:1 51:1 63:1 85:1 86:1 
4 1:-0.325871 8:1 20:1 26:1 44:1 51:1 63:1 85:1 86:1 
4 1:0.328358 5:1 15:1 32:1 49:1 50:1 68:1 85:1 87:1 
4 1:0.201493 13:1 20:1 26:1 46:1 50:1 68:1 85:1 87:1 
0.5060325490463139 1:0.445274 26:1 40:1 56:1 69:1 74:1 92:1 
4 1:0.405473 8:1 15:1 32:1 41:1 56:1 69:1 74:1 92:1 
2.453517505017661 1:0.59204 26:1 40:1 56:1 69:1 78:1 92:1 
4 1:-0.166667 8:1 15:1 32:1 41:1 56:1 69:1 74:1 92:1 
4 1:0.567164 5:1 15:1 32:1 49:1 54:1 68:1 79:1 90:1 
4 1:0.440299 13:1 20:1 26:1 46:1 54:1 68:1 79:1 90:1 
4 1:0.278607 8:1 20:1 26:1 44:1 54:1 68:1 79:1 90:1 
1.249321489615515 1:0.216418 9:1 16:1 26:1 46:1 54:1 68:1 79:1 90:1 
2.084263909576114 1:-0.60199 5:1 19:1 37:1 38:1 61:1 62:1 78:1 92:1 
4 1:-0.243781 5:1 19:1 37:1 38:1 50:1 68:1 85:1 87:1 
4 1:0.649254 26:1 40:1 61:1 68:1 80:1 92:1 
1.092667575640123 1:0.037313 8:1 15:1 32:1 41:1 61:1 68:1 80:1 92:1 
4 1:-0.30597 3:1 20:1 26:1 44:1 50:1 68:1 85:1 87:1 
1.830767878627867 1:0.363184 8:1 20:1 26:1 44:1 55:1 68:1 85:1 97:1 
3.014398720174938 1:0.186567 5:1 19:1 37:1 38:1 56:1 65:1 80:1 97:1 
4 1:-0.00565 5:1 15:1 37:1 44:1 61:1 62:1 75:1 90:1 
2.645521051125848 1:0.468927 5:1 15:1 37:1 44:1 61:1 62:1 85:1 97:1 
4 1:0.237288 2:1 20:1 37:1 38:1 61:1 62:1 85:1 97:1 
4 1:0.59887 5:1 15:1 37:1 44:1 61:1 68:1 75:1 90:1 
4 1:0.129944 8:1 15:1 32:1 44:1 56:1 69:1 75:1 92:1 
4 1:0.101205 5:1 15:1 30:1 44:1 59:1 68:1 75:1 87:1 
4 1:0.751807 5:1 15:1 30:1 44:1 56:1 69:1 75:1 87:1 
4 1:-0.002786 12:1 17:1 37:1 44:1 51:1 72:1 78:1 97:1 
4 1:0.314879 13:1 23:1 33:1 49:1 51:1 68:1 75:1 90:1 
2.525541790235323 1:0.108911 13:1 15:1 37:1 44:1 56:1 62:1 75:1 87:1 
2.499468718229694 1:-0.442244 3:1 25:1 36:1 38:1 52:1 73:1 81:1 87:1 
1.367771753240933 1:-0.118812 3:1 25:1 36:1 38:1 56:1 62:1 75:1 87:1 
4 1:0.30033 8:1 15:1 33:1 39:1 50:1 68:1 81:1 87:1 
1.917166272521556 1:-0.128713 3:1 15:1 26:1 39:1 50:1 68:1 75:1 92:1 
3.441850918753993 1:0.465347 13:1 15:1 37:1 44:1 50:1 69:1 85:1 87:1 
0.6394202932637215 1:0.491749 13:1 15:1 37:1 44:1 56:1 68:1 74:1 89:1 
0.1598664849987928 1:0.541254 8:1 15:1 33:1 39:1 51:1 68:1 74:1 89:1 
2.311399686878462 1:0.353135 3:1 25:1 36:1 38:1 51:1 68:1 74:1 89:1 
4 1:0.224422 3:1 15:1 26:1 39:1 51:1 68:1 81:1 89:1 
4 1:0.116216 3:1 14:1 33:1 39:1 50:1 73:1 85:1 97:1 
1.990663732722291 1:0.213514 3:1 14:1 33:1 39:1 61:1 62:1 85:1 86:1 
2.590227749946943 1:0.118919 13:1 20:1 34:1 49:1 61:1 62:1 85:1 86:1 
0.005188539554659026 1:0.237838 3:1 14:1 33:1 39:1 58:1 73:1 80:1 92:1 
1.108689227801904 1:0.143243 13:1 20:1 34:1 49:1 58:1 73:1 80:1 92:1 
4 1:0.321622 3:1 14:1 33:1 39:1 50:1 73:1 85:1 87:1 
1.588922153555386 1:0.008108 2:1 20:1 26:1 49:1 50:1 73:1 85:1 87:1 
1.096695461482079 1:-0.262162 3:1 20:1 26:1 49:1 50:1 73:1 85:1 97:1 
0.2047832644728346 1:-0.140541 3:1 20:1 26:1 49:1 58:1 73:1 80:1 92:1 
4 1:-0.056757 3:1 20:1 26:1 49:1 50:1 73:1 85:1 87:1 
1.103007987411422 1:0.091892 2:1 20:1 26:1 49:1 51:1 69:1 79:1 86:1 
4 1:0.027027 3:1 20:1 26:1 49:1 51:1 69:1 79:1 86:1 
2.758257011545392 1:-0.554054 8:1 22:1 37:1 49:1 50:1 73:1 85:1 87:1 
4 1:0.207143 26:1 45:1 51:1 63:1 85:1 86:1 
4 1:-0.071429 3:1 21:1 27:1 38:1 51:1 63:1 85:1 86:1 
4 1:0.061905 3:1 21:1 27:1 38:1 61:1 73:1 75:1 92:1 
4 1:0.897619 13:1 20:1 31:1 49:1 51:1 63:1 75:1 92:1 
4 1:0.852381 8:1 25:1 27:1 49:1 51:1 63:1 75:1 92:1 
4 1:0.654762 13:1 25:1 27:1 44:1 51:1 63:1 75:1 92:1 
4 1:0.585714 13:1 25:1 27:1 44:1 51:1 63:1 75:1 92:1 
2.550625933575507 1:0.554762 13:1 14:1 27:1 44:1 51:1 63:1 75:1 92:1 
0.3549256582603131 1:0.542857 10:1 21:1 27:1 49:1 51:1 63:1 75:1 92:1 
3.378324791970636 1:0.521429 13:1 20:1 32:1 40:1 51:1 63:1 75:1 92:1 
1.450975641065498 1:0.302381 6:1 20:1 32:1 49:1 51:1 63:1 75:1 92:1 
3.953820643196968 1:0.711905 3:1 21:1 27:1 38:1 51:1 68:1 75:1 87:1 
0.04420921738155453 1:0.397436 37:1 39:1 54:1 68:1 75:1 92:1 
4 1:0.185897 6:1 21:1 27:1 38:1 54:1 68:1 75:1 92:1 
4 1:-0.423077 13:1 20:1 27:1 46:1 61:1 68:1 75:1 90:1 
4 1:-0.224359 13:1 20:1 27:1 46:1 54:1 68:1 75:1 92:1 
4 1:-0.714744 3:1 20:1 27:1 46:1 61:1 68:1 75:1 90:1 
4 1:-0.516026 3:1 20:1 27:1 46:1 54:1 68:1 75:1 92:1 
3.122520190986877 1:0.592 6:1 15:1 32:1 38:1 58:1 68:1 76:1 97:1 
4 1:0.014815 27:1 39:1 53:1 68:1 75:1 92:1 
4 1:-0.242593 5:1 15:1 32:1 44:1 53:1 68:1 75:1 92:1 
3.310877999343675 1:-0.375926 8:1 15:1 27:1 49:1 61:1 68:1 80:1 89:1 
4 1:-0.372222 8:1 15:1 27:1 49:1 53:1 68:1 75:1 92:1 
2.678451729842854 1:-0.401852 10:1 14:1 26:1 45:1 61:1 68:1 80:1 89:1 
4 1:-0.398148 10:1 14:1 26:1 45:1 53:1 68:1 75:1 92:1 
1.876723153321102 1:-0.422222 3:1 20:1 37:1 38:1 53:1 68:1 75:1 92:1 
2.859249157189054 1:-0.444444 8:1 20:1 34:1 39:1 61:1 68:1 80:1 89:1 
1.267087535650742 1:-0.518519 10:1 14:1 26:1 38:1 61:1 68:1 80:1 89:1 
4 1:-0.72037 13:1 20:1 37:1 38:1 53:1 68:1 75:1 92:1 
0.5584393095701334 1:-0.855556 8:1 24:1 37:1 38:1 61:1 68:1 80:1 89:1 
4 1:-0.909259 13:1 20:1 37:1 39:1 53:1 68:1 75:1 92:1 
3.699694749432095 1:0.018817 6:1 14:1 33:1 38:1 51:1 73:1 75:1 90:1 
4 1:0.086022 26:1 42:1 61:1 68:1 85:1 88:1 
4 1:0.080645 6:1 14:1 33:1 38:1 61:1 68:1 85:1 88:1 
4 1:0.38172 6:1 14:1 33:1 38:1 56:1 73:1 74:1 90:1 
2.03365940386487 1:-0.645161 8:1 21:1 27:1 49:1 51:1 73:1 75:1 90:1 
0.2351564188839397 1:-0.583333 8:1 21:1 27:1 49:1 61:1 68:1 85:1 88:1 
3.917286066660487 1:-0.282258 8:1 21:1 27:1 49:1 56:1 73:1 74:1 90:1 
0.5655781684628102 1:0.6775 28:1 38:1 58:1 66:1 85:1 94:1 
1.456737251245803 1:0.4525 2:1 20:1 31:1 44:1 58:1 66:1 85:1 94:1 
0.8086924319508861 1:-0.15 8:1 21:1 37:1 49:1 58:1 66:1 85:1 94:1 
1.6355624508929 1:0.006536 2:1 25:1 27:1 49:1 51:1 73:1 80:1 88:1 
4 1:0.298475 37:1 49:1 52:1 63:1 80:1 88:1 
2.180639399740104 1:0.015251 2:1 25:1 27:1 49:1 52:1 63:1 80:1 88:1 
4 1:0.30719 7:1 18:1 28:1 49:1 50:1 68:1 75:1 92:1 
4 1:0.169935 2:1 20:1 26:1 39:1 50:1 68:1 75:1 92:1 
4 1:0.067538 8:1 25:1 33:1 40:1 50:1 68:1 75:1 92:1 
0.5542446472854282 1:-0.056645 13:1 19:1 32:1 38:1 51:1 73:1 80:1 88:1 
4 1:-0.04793 13:1 19:1 32:1 38:1 52:1 63:1 80:1 88:1 
1.698279268541141 1:-0.108932 5:1 20:1 37:1 44:1 50:1 68:1 75:1 92:1 
4 1:-0.252723 13:1 20:1 26:1 39:1 50:1 68:1 75:1 92:1 
4 1:0.62963 37:1 49:1 56:1 73:1 76:1 90:1 
0.9328009308034454 1:0.620915 13:1 19:1 30:1 40:1 56:1 73:1 76:1 90:1 
4 1:0.546841 13:1 15:1 32:1 48:1 56:1 73:1 76:1 90:1 
4 1:0.283224 13:1 19:1 32:1 38:1 56:1 73:1 76:1 90:1 
0.0375108823327788 1:-0.335512 5:1 16:1 32:1 49:1 52:1 63:1 80:1 88:1 
4 1:-0.004357 5:1 16:1 32:1 49:1 56:1 73:1 76:1 90:1 
4 1:-0.324619 13:1 20:1 37:1 38:1 50:1 68:1 75:1 92:1 
0.2566404857720776 1:-0.40305 3:1 14:1 37:1 39:1 51:1 73:1 80:1 88:1 
4 1:-0.394336 3:1 14:1 37:1 39:1 52:1 63:1 80:1 88:1 
4 1:-0.455338 3:1 20:1 26:1 39:1 50:1 68:1 75:1 92:1 
4 1:-0.496732 2:1 20:1 26:1 39:1 50:1 68:1 75:1 92:1 
0.6569545575214106 1:0.215686 3:1 14:1 37:1 39:1 51:1 63:1 75:1 94:1 
4 1:0.039604 30:1 49:1 56:1 62:1 83:1 87:1 
2.151468554878786 1:0.037624 18:1 37:1 40:1 56:1 62:1 83:1 87:1 
4 1:0.061386 11:1 15:1 37:1 44:1 51:1 68:1 81:1 97:1 
4 1:-0.136634 11:1 15:1 26:1 49:1 56:1 62:1 83:1 87:1 
4 1:-0.085149 11:1 15:1 26:1 49:1 61:1 68:1 75:1 86:1 
4 1:-0.069307 11:1 15:1 26:1 49:1 51:1 68:1 81:1 97:1 
4 1:-0.180198 13:1 25:1 33:1 39:1 56:1 62:1 83:1 87:1 
4 1:-0.128713 13:1 25:1 33:1 39:1 61:1 68:1 75:1 86:1 
3.690184107154703 1:-0.112871 13:1 25:1 33:1 39:1 51:1 68:1 81:1 97:1 
4 1:-0.253465 8:1 25:1 37:1 44:1 56:1 62:1 83:1 87:1 
4 1:-0.30297 2:1 25:1 34:1 38:1 56:1 62:1 83:1 87:1 
0.8704858738806386 1:-0.251485 2:1 25:1 34:1 38:1 61:1 68:1 75:1 86:1 
1.77642794847378 1:-0.320792 3:1 16:1 26:1 38:1 51:1 68:1 81:1 97:1 
4 1:-0.550495 3:1 25:1 34:1 43:1 51:1 68:1 81:1 97:1 
4 1:0.506931 5:1 15:1 26:1 38:1 60:1 68:1 75:1 90:1 
0.07890060859604835 1:0.445545 3:1 16:1 26:1 38:1 60:1 68:1 75:1 90:1 
4 1:0.215842 3:1 25:1 34:1 43:1 60:1 68:1 75:1 90:1 
4 1:-0.837624 5:1 15:1 26:1 49:1 56:1 62:1 83:1 87:1 
0.4414320763802106 1:-0.786139 5:1 15:1 26:1 49:1 61:1 68:1 75:1 86:1 
4 1:-0.514851 5:1 15:1 26:1 49:1 61:1 73:1 75:1 90:1 
4 1:0.096354 8:1 15:1 32:1 44:1 57:1 63:1 75:1 97:1 
0.06636826894930102 1:0.127604 8:1 15:1 32:1 44:1 61:1 62:1 80:1 97:1 
4 1:-0.239583 2:1 25:1 32:1 49:1 57:1 63:1 75:1 97:1 
4 1:0.007463 30:1 39:1 54:1 63:1 79:1 90:1 
1.565441308810326 1:0.004975 18:1 27:1 41:1 54:1 63:1 79:1 90:1 
4 1:-0.057214 13:1 25:1 32:1 38:1 54:1 63:1 79:1 90:1 
4 1:-0.089552 3:1 25:1 32:1 44:1 54:1 63:1 79:1 90:1 
1.880665373360051 1:0.865672 13:1 25:1 32:1 38:1 61:1 68:1 85:1 97:1 
4 1:0.833333 3:1 25:1 32:1 44:1 61:1 68:1 85:1 97:1 
4 1:0.280556 27:1 38:1 61:1 63:1 83:1 87:1 
1.902675701939648 1:0.105556 8:1 25:1 33:1 49:1 61:1 63:1 83:1 87:1 
4 1:-0.233333 10:1 21:1 26:1 49:1 61:1 63:1 83:1 87:1 
4 1:-0.25 2:1 20:1 26:1 49:1 61:1 63:1 83:1 87:1 
4 1:-0.425 3:1 25:1 34:1 39:1 61:1 63:1 83:1 87:1 
4 1:-0.561111 10:1 14:1 26:1 40:1 61:1 63:1 83:1 87:1 
2.291095034706036 1:-0.627778 2:1 14:1 33:1 39:1 61:1 63:1 83:1 87:1 
0.599378452061789 1:0.613889 8:1 22:1 27:1 45:1 60:1 69:1 85:1 87:1 
0.4127206628450318 1:0.516667 13:1 21:1 37:1 45:1 60:1 69:1 85:1 87:1 
0.9383197743819169 1:0.291667 10:1 21:1 26:1 48:1 60:1 69:1 85:1 87:1 
3.081750726471073 1:0.191667 6:1 20:1 27:1 38:1 60:1 69:1 85:1 87:1 
4 1:-0.240175 13:1 15:1 27:1 38:1 75:1 90:1 
4 1:-0.419214 7:1 15:1 36:1 39:1 75:1 90:1 
0.5103845010590194 1:0.617904 4:1 25:1 37:1 49:1 51:1 62:1 75:1 97:1 
2.507909145384573 1:0.432314 2:1 20:1 26:1 45:1 51:1 62:1 75:1 97:1 
4 1:0.393013 13:1 15:1 27:1 38:1 51:1 62:1 75:1 97:1 
4 1:0.111354 13:1 20:1 27:1 38:1 51:1 62:1 75:1 97:1 
4 1:-0.650655 8:1 15:1 32:1 44:1 75:1 90:1 
2.048124681216253 1:-0.10262 13:1 20:1 27:1 39:1 51:1 62:1 75:1 97:1 
2.028300881582599 1:-0.213974 13:1 25:1 34:1 49:1 51:1 62:1 75:1 97:1 
4 1:0.334061 8:1 15:1 32:1 44:1 56:1 68:1 76:1 92:1 
4 1:-0.018587 8:1 15:1 27:1 38:1 56:1 73:1 75:1 90:1 
4 1:0.306306 5:1 23:1 26:1 38:1 51:1 68:1 85:1 86:1 
4 1:0.037037 11:1 20:1 27:1 39:1 51:1 68:1 80:1 87:1 
2.933057900188935 1:0.055556 11:1 20:1 27:1 39:1 51:1 68:1 85:1 87:1 
4 1:-0.064815 8:1 20:1 26:1 39:1 51:1 68:1 85:1 87:1 
4 1:0.16358 8:1 20:1 26:1 39:1 56:1 69:1 76:1 92:1 
4 1:0.033951 13:1 20:1 32:1 42:1 56:1 69:1 75:1 92:1 
1.188719061642083 1:0.271605 8:1 20:1 26:1 39:1 51:1 68:1 85:1 93:1 
4 1:0.08642 13:1 20:1 32:1 42:1 51:1 68:1 85:1 93:1 
4 1:0.051587 5:1 15:1 32:1 39:1 50:1 73:1 75:1 97:1 
4 1:-0.072254 7:1 15:1 32:1 49:1 56:1 73:1 75:1 90:1 
3.691956345667953 1:0.031792 7:1 15:1 32:1 49:1 61:1 62:1 75:1 92:1 
4 1:-0.112717 3:1 20:1 32:1 42:1 56:1 73:1 75:1 90:1 
4 1:-0.118497 6:1 20:1 32:1 42:1 56:1 73:1 75:1 90:1 
4 1:-0.124277 6:1 20:1 26:1 39:1 56:1 73:1 75:1 90:1 
0.7182169051551461 1:0.236994 8:1 15:1 26:1 44:1 61:1 69:1 75:1 97:1 
4 1:0.083815 13:1 20:1 32:1 41:1 61:1 69:1 75:1 97:1 
4 1:-0.260116 3:1 25:1 32:1 44:1 56:1 73:1 75:1 90:1 
1.312604368900503 1:0.219653 3:1 20:1 32:1 42:1 61:1 62:1 80:1 96:1 
0.01642180893588113 1:0.213873 6:1 20:1 32:1 42:1 61:1 62:1 80:1 96:1 
0.3557718314909884 1:-0.092486 12:1 25:1 28:1 49:1 61:1 69:1 75:1 97:1 
1.055608496238438 1:0.355491 7:1 15:1 32:1 49:1 50:1 68:1 85:1 97:1 
4 1:0.315029 3:1 20:1 32:1 42:1 50:1 68:1 85:1 97:1 
4 1:0.303468 6:1 20:1 26:1 39:1 50:1 68:1 85:1 97:1 
0.08175485157200912 1:0.16763 3:1 25:1 32:1 44:1 50:1 68:1 85:1 97:1 
4 1:-0.361272 13:1 20:1 26:1 41:1 61:1 62:1 75:1 92:1 
2.118723398039077 1:-0.060694 13:1 20:1 26:1 41:1 51:1 62:1 85:1 87:1 
4 1:-0.037572 13:1 20:1 26:1 41:1 50:1 68:1 85:1 97:1 
4 1:0.479769 8:1 15:1 26:1 44:1 50:1 62:1 80:1 92:1 
4 1:0.369942 6:1 20:1 26:1 39:1 50:1 62:1 80:1 92:1 
4 1:0.028902 13:1 20:1 26:1 41:1 50:1 62:1 80:1 92:1 
3.442662224581452 1:0.50289 3:1 20:1 32:1 42:1 60:1 73:1 75:1 87:1 
3.362898168645674 1:0.49711 6:1 20:1 32:1 42:1 60:1 73:1 75:1 87:1 
1.133196401846991 1:0.491329 6:1 20:1 26:1 39:1 60:1 73:1 75:1 87:1 
4 1:-0.641618 3:1 20:1 30:1 44:1 56:1 73:1 75:1 90:1 
0.6613391019355311 1:0.320809 12:1 25:1 28:1 49:1 61:1 69:1 74:1 97:1 
0.005609955889905812 1:0.65896 6:1 20:1 26:1 39:1 51:1 73:1 80:1 92:1 
1.375717978016175 1:0.439306 12:1 25:1 28:1 49:1 51:1 73:1 80:1 92:1 
4 1:0.106936 13:1 20:1 27:1 39:1 51:1 73:1 80:1 92:1 
1.388612116102179 1:-0.632948 13:1 20:1 34:1 38:1 54:1 68:1 80:1 93:1 
0.8336130858629421 1:-0.473988 13:1 20:1 34:1 38:1 61:1 62:1 80:1 96:1 
3.930832542699482 1:-0.378613 13:1 20:1 34:1 38:1 50:1 68:1 85:1 97:1 
0.4848042031975444 1:-0.312139 13:1 20:1 34:1 38:1 50:1 62:1 80:1 92:1 
4 1:-0.820809 13:1 20:1 37:1 39:1 56:1 73:1 75:1 90:1 
4 1:-0.488439 13:1 20:1 37:1 39:1 61:1 62:1 80:1 96:1 
3.612264357505234 1:-0.205202 13:1 20:1 37:1 39:1 60:1 73:1 75:1 87:1 
4 1:-0.589595 3:1 15:1 26:1 49:1 61:1 69:1 75:1 97:1 
0.172670104785748 1:-0.176301 3:1 15:1 26:1 49:1 61:1 69:1 74:1 97:1 
2.013467186978172 1:0.390173 13:1 20:1 26:1 41:1 53:1 68:1 83:1 87:1 
4 1:0.014451 3:1 15:1 26:1 49:1 53:1 68:1 83:1 87:1 
4 1:-0.49711 11:1 15:1 32:1 42:1 50:1 73:1 75:1 87:1 
4 1:-0.459538 11:1 15:1 32:1 42:1 51:1 62:1 85:1 87:1 
0.6262055434347114 1:-0.248555 11:1 15:1 32:1 42:1 60:1 73:1 75:1 87:1 
2.177370145663024 1:0.803468 7:1 15:1 32:1 49:1 54:1 68:1 83:1 87:1 
4 1:0.751445 6:1 20:1 26:1 39:1 54:1 68:1 83:1 87:1 
4 1:0.410405 13:1 20:1 26:1 41:1 54:1 68:1 83:1 87:1 
3.547044269073157 1:0.234104 3:1 20:1 30:1 44:1 54:1 68:1 83:1 87:1 
0.06171028910090227 1:0.069364 13:1 20:1 34:1 38:1 54:1 68:1 83:1 87:1 
4 1:0.054913 13:1 20:1 37:1 39:1 54:1 68:1 83:1 87:1 
4 1:0.034682 3:1 15:1 26:1 49:1 54:1 68:1 83:1 87:1 
4 1:0.011561 11:1 15:1 32:1 42:1 54:1 68:1 83:1 87:1 
3.555693921995551 1:-0.710983 11:1 15:1 26:1 49:1 54:1 68:1 80:1 93:1 
4 1:-0.632948 11:1 15:1 26:1 49:1 61:1 69:1 75:1 97:1 
4 1:-0.552023 11:1 15:1 26:1 49:1 61:1 62:1 80:1 96:1 
4 1:-0.517341 11:1 15:1 26:1 49:1 50:1 73:1 75:1 87:1 
4 1:-0.479769 11:1 15:1 26:1 49:1 51:1 62:1 85:1 87:1 
0.7086306004785358 1:-0.456647 11:1 15:1 26:1 49:1 50:1 68:1 85:1 97:1 
4 1:-0.413295 11:1 15:1 26:1 49:1 54:1 62:1 75:1 92:1 
0.113677318564516 1:-0.390173 11:1 15:1 26:1 49:1 50:1 62:1 80:1 92:1 
4 1:-0.268786 11:1 15:1 26:1 49:1 60:1 73:1 75:1 87:1 
4 1:-0.219653 11:1 15:1 26:1 49:1 61:1 69:1 74:1 97:1 
4 1:-0.028902 11:1 15:1 26:1 49:1 53:1 68:1 83:1 87:1 
3.702535894826488 1:-0.592486 12:1 21:1 26:1 44:1 61:1 62:1 80:1 96:1 
1.123640804783981 1:-0.557803 12:1 21:1 26:1 44:1 50:1 73:1 75:1 87:1 
4 1:-0.528902 12:1 21:1 26:1 44:1 50:1 73:1 75:1 86:1 
0.8769739876584887 1:-0.430636 12:1 21:1 26:1 44:1 50:1 62:1 80:1 92:1 
0.077254960938258 1:-0.075145 12:1 21:1 26:1 44:1 50:1 73:1 80:1 89:1 
4 1:-0.049133 12:1 21:1 26:1 44:1 54:1 68:1 83:1 87:1 
2.452813387643388 1:-0.17341 8:1 15:1 27:1 49:1 51:1 73:1 80:1 92:1 
4 1:-0.080925 8:1 15:1 27:1 49:1 54:1 68:1 83:1 87:1 
2.54460195037189 1:-0.632948 3:1 25:1 36:1 49:1 61:1 62:1 80:1 96:1 
2.724863083900375 1:-0.569364 3:1 25:1 36:1 49:1 50:1 73:1 75:1 86:1 
1.776501598696274 1:-0.115607 3:1 25:1 36:1 49:1 50:1 73:1 80:1 89:1 
4 1:-0.009259 5:1 20:1 26:1 44:1 56:1 69:1 80:1 90:1 
1.961622416496084 1:0.208333 5:1 20:1 26:1 44:1 61:1 62:1 84:1 88:1 
4 1:0.268519 5:1 20:1 26:1 44:1 50:1 68:1 75:1 92:1 
0.3545302066058882 1:-0.175926 13:1 20:1 32:1 42:1 61:1 62:1 84:1 88:1 
4 1:-0.115741 13:1 20:1 32:1 42:1 50:1 68:1 75:1 92:1 
3.369531976797791 1:-0.236111 6:1 20:1 32:1 42:1 60:1 69:1 80:1 88:1 
0.4627831477966816 1:-0.194444 6:1 20:1 32:1 49:1 61:1 62:1 84:1 88:1 
4 1:-0.5 4:1 15:1 26:1 38:1 61:1 62:1 84:1 88:1 
0.2717389841184719 1:0.377163 3:1 20:1 29:1 39:1 56:1 68:1 79:1 90:1 
4 1:0.321799 6:1 20:1 33:1 42:1 56:1 68:1 79:1 90:1 
4 1:0.089965 5:1 15:1 32:1 42:1 56:1 68:1 79:1 90:1 
4 1:0.083045 6:1 20:1 37:1 39:1 56:1 68:1 79:1 90:1 
4 1:-0.103806 5:1 19:1 32:1 49:1 56:1 68:1 75:1 90:1 
0.2781943051410747 1:0.401384 6:1 21:1 37:1 38:1 52:1 72:1 85:1 86:1 
2.365299094827858 1:0.079585 5:1 19:1 32:1 49:1 52:1 72:1 85:1 86:1 
4 1:0.463668 13:1 20:1 32:1 42:1 61:1 62:1 75:1 97:1 
4 1:0.128028 5:1 19:1 32:1 49:1 61:1 62:1 75:1 97:1 
4 1:0.532872 6:1 20:1 33:1 42:1 61:1 62:1 79:1 90:1 
4 1:0.294118 6:1 20:1 37:1 39:1 61:1 62:1 79:1 90:1 
4 1:0.204152 5:1 19:1 32:1 49:1 61:1 62:1 79:1 90:1 
3.018452326574526 1:0.041522 13:1 14:1 32:1 49:1 61:1 62:1 79:1 90:1 
1.107616905198682 1:-0.446367 5:1 19:1 32:1 44:1 55:1 73:1 75:1 96:1 
1.311943192261425 1:-0.32526 5:1 19:1 32:1 44:1 61:1 66:1 80:1 92:1 
4 1:-0.314879 5:1 19:1 32:1 44:1 56:1 68:1 75:1 90:1 
4 1:-0.280277 5:1 19:1 32:1 44:1 56:1 68:1 80:1 87:1 
4 1:-0.217993 5:1 19:1 32:1 44:1 56:1 68:1 79:1 90:1 
4 1:-0.131488 5:1 19:1 32:1 44:1 52:1 72:1 85:1 86:1 
4 1:-0.083045 5:1 19:1 32:1 44:1 61:1 62:1 75:1 97:1 
0.4151840308615674 1:-0.33564 8:1 15:1 32:1 44:1 56:1 68:1 75:1 90:1 
2.140228885157824 1:-0.280277 8:1 15:1 32:1 44:1 56:1 68:1 79:1 90:1 
4 1:0.100346 8:1 15:1 32:1 44:1 50:1 69:1 75:1 92:1 
2.948539883813083 1:0.058824 8:1 15:1 32:1 44:1 50:1 69:1 75:1 92:1 
4 1:0.342561 5:1 19:1 32:1 49:1 51:1 68:1 77:1 95:1 
4 1:-0.039474 5:1 15:1 32:1 49:1 85:1 92:1 
4 1:-0.065789 13:1 15:1 27:1 38:1 85:1 92:1 
4 1:0.052632 13:1 15:1 27:1 38:1 51:1 68:1 82:1 86:1 
4 1:0.039474 2:1 20:1 27:1 38:1 51:1 68:1 82:1 86:1 
4 1:-0.138158 3:1 20:1 27:1 45:1 54:1 68:1 75:1 90:1 
4 1:-0.052632 3:1 20:1 27:1 45:1 51:1 68:1 82:1 86:1 
4 1:-0.085526 2:1 20:1 26:1 44:1 51:1 68:1 82:1 86:1 
4 1:0.309211 8:1 15:1 32:1 41:1 56:1 69:1 75:1 92:1 
4 1:0.269737 13:1 15:1 27:1 38:1 56:1 69:1 75:1 92:1 
4 1:0.164474 3:1 20:1 27:1 45:1 56:1 69:1 75:1 92:1 
4 1:-0.226974 3:1 20:1 26:1 44:1 51:1 68:1 82:1 86:1 
0.03080649719333141 1:-0.1875 3:1 20:1 26:1 44:1 56:1 62:1 85:1 87:1 
4 1:0.289474 13:1 15:1 27:1 38:1 50:1 68:1 74:1 89:1 
0.009445452040258219 1:0.276316 2:1 20:1 27:1 38:1 50:1 68:1 74:1 89:1 
3.554593148051636 1:0.184211 3:1 20:1 27:1 45:1 50:1 68:1 74:1 89:1 
2.807533258671531 1:0.151316 2:1 20:1 26:1 44:1 50:1 68:1 74:1 89:1 
4 1:0.009868 3:1 20:1 26:1 44:1 50:1 68:1 74:1 89:1 
4 1:0.322368 5:1 15:1 32:1 49:1 53:1 62:1 82:1 86:1 
4 1:0.296053 13:1 15:1 27:1 38:1 53:1 62:1 82:1 86:1 
0.5990714338973255 1:0.282895 2:1 20:1 27:1 38:1 53:1 62:1 82:1 86:1 
4 1:0.190789 3:1 20:1 27:1 45:1 53:1 62:1 82:1 86:1 
4 1:0.016447 3:1 20:1 26:1 44:1 53:1 62:1 82:1 86:1 
4 1:0.305921 13:1 15:1 27:1 38:1 58:1 62:1 85:1 87:1 
4 1:0.026316 3:1 20:1 26:1 44:1 58:1 62:1 85:1 87:1 
4 1:0.368421 5:1 15:1 32:1 49:1 50:1 73:1 80:1 97:1 
4 1:0.342105 13:1 15:1 27:1 38:1 50:1 73:1 80:1 97:1 
1.928709331052424 1:0.203947 2:1 20:1 26:1 44:1 50:1 73:1 80:1 97:1 
4 1:0.0625 3:1 20:1 26:1 44:1 50:1 73:1 80:1 97:1 
0.60482217146373 1:-0.177632 7:1 24:1 37:1 39:1 61:1 69:1 75:1 94:1 
0.4034072380118028 1:-0.082237 7:1 24:1 37:1 39:1 58:1 62:1 85:1 87:1 
4 1:0.4375 5:1 15:1 32:1 49:1 56:1 69:1 76:1 92:1 
4 1:-0.167763 8:1 15:1 32:1 41:1 56:1 69:1 75:1 92:1 
4 1:0.470395 5:1 15:1 32:1 49:1 54:1 68:1 78:1 97:1 
4 1:0.305921 2:1 20:1 26:1 44:1 54:1 68:1 78:1 97:1 
4 1:0.164474 3:1 20:1 26:1 44:1 54:1 68:1 78:1 97:1 
4 1:-0.236842 8:1 17:1 37:1 42:1 61:1 69:1 75:1 94:1 
4 1:-0.036184 8:1 17:1 37:1 42:1 56:1 69:1 76:1 92:1 
4 1:-0.003289 8:1 17:1 37:1 42:1 54:1 68:1 78:1 97:1 
4 1:-0.111842 6:1 25:1 32:1 49:1 50:1 73:1 80:1 97:1 
4 1:0.503289 5:1 15:1 32:1 49:1 50:1 68:1 75:1 90:1 
4 1:0.476974 13:1 15:1 27:1 38:1 50:1 68:1 75:1 90:1 
4 1:-0.194079 5:1 15:1 37:1 38:1 50:1 68:1 74:1 89:1 
4 1:-0.006579 5:1 15:1 37:1 38:1 50:1 68:1 75:1 90:1 
3.692368118921295 1:0.569079 5:1 15:1 32:1 49:1 50:1 68:1 75:1 97:1 
4 1:0.542763 13:1 15:1 27:1 38:1 50:1 68:1 75:1 97:1 
4 1:0.529605 2:1 20:1 27:1 38:1 50:1 68:1 75:1 97:1 
4 1:0.059211 5:1 15:1 37:1 38:1 50:1 68:1 75:1 97:1 
4 1:0.476974 2:1 20:1 26:1 44:1 61:1 68:1 85:1 90:1 
4 1:0.335526 3:1 20:1 26:1 44:1 61:1 68:1 85:1 90:1 
4 1:0.161184 6:1 25:1 32:1 49:1 61:1 68:1 85:1 90:1 
4 1:0.131579 5:1 15:1 37:1 38:1 61:1 68:1 85:1 90:1 
4 1:-0.654605 5:1 25:1 37:1 45:1 54:1 68:1 75:1 90:1 
4 1:-0.279605 5:1 25:1 37:1 45:1 50:1 73:1 80:1 97:1 
0.5173856351574554 1:-0.144737 5:1 25:1 37:1 45:1 50:1 68:1 75:1 90:1 
4 1:-0.730263 4:1 20:1 26:1 44:1 54:1 68:1 75:1 90:1 
2.385896738420077 1:-0.644737 4:1 20:1 26:1 44:1 51:1 68:1 82:1 86:1 
3.161165393322718 1:-0.486842 4:1 20:1 26:1 44:1 61:1 69:1 75:1 94:1 
4 1:-0.407895 4:1 20:1 26:1 44:1 50:1 68:1 74:1 89:1 
2.651607919591142 1:-0.401316 4:1 20:1 26:1 44:1 53:1 62:1 82:1 86:1 
4 1:-0.391447 4:1 20:1 26:1 44:1 58:1 62:1 85:1 87:1 
4 1:-0.355263 4:1 20:1 26:1 44:1 50:1 73:1 80:1 97:1 
4 1:-0.220395 4:1 20:1 26:1 44:1 50:1 68:1 75:1 90:1 
4 1:-0.154605 4:1 20:1 26:1 44:1 50:1 68:1 75:1 97:1 
4 1:-0.776316 8:1 15:1 26:1 44:1 85:1 92:1 
4 1:-0.368421 8:1 15:1 26:1 44:1 50:1 73:1 80:1 97:1 
4 1:-0.299342 8:1 15:1 26:1 44:1 56:1 69:1 76:1 92:1 
4 1:0.404605 8:1 17:1 37:1 42:1 56:1 69:1 75:1 90:1 
4 1:0.368421 5:1 15:1 37:1 38:1 56:1 69:1 75:1 90:1 
0.3232619710859067 1:-0.868421 5:1 15:1 36:1 41:1 57:1 63:1 85:1 87:1 
1.641667613220755 1:-0.648026 5:1 15:1 36:1 41:1 61:1 69:1 75:1 94:1 
4 1:-0.243421 5:1 15:1 36:1 41:1 61:1 68:1 85:1 90:1 
0.1844176108374119 1:-0.052632 5:1 15:1 36:1 41:1 50:1 68:1 75:1 97:1 
4 1:0.381579 5:1 15:1 37:1 38:1 54:1 72:1 75:1 90:1 
3.811431993870246 1:0.243421 5:1 25:1 37:1 45:1 54:1 72:1 75:1 90:1 
3.848114131650621 1:0.167763 4:1 20:1 26:1 44:1 54:1 72:1 75:1 90:1 
4 1:-0.904605 5:1 15:1 30:1 49:1 54:1 68:1 75:1 90:1 
4 1:-0.394737 5:1 15:1 30:1 49:1 50:1 68:1 75:1 90:1 
4 1:-0.256579 5:1 15:1 30:1 49:1 61:1 68:1 85:1 90:1 
4 1:-0.019737 5:1 15:1 30:1 49:1 56:1 69:1 75:1 90:1 
1.680543534240433 1:-0.009868 3:1 18:1 37:1 49:1 54:1 72:1 75:1 90:1 
4 1:-0.234783 9:1 25:1 37:1 39:1 51:1 69:1 85:1 87:1 
4 1:-0.034483 2:1 20:1 26:1 49:1 58:1 73:1 80:1 87:1 
3.094099881233698 1:-0.094828 2:1 14:1 37:1 49:1 58:1 73:1 80:1 87:1 
4 1:0.158046 2:1 20:1 26:1 49:1 61:1 68:1 83:1 90:1 
4 1:-0.278736 11:1 15:1 27:1 49:1 58:1 73:1 80:1 87:1 
4 1:-0.086207 11:1 15:1 27:1 49:1 61:1 68:1 83:1 90:1 
4 1:0.218391 11:1 15:1 27:1 49:1 61:1 73:1 75:1 97:1 
1.08875379425226 1:0.217021 8:1 15:1 32:1 49:1 50:1 68:1 84:1 90:1 
2.520591211214844 1:-0.506383 5:1 25:1 32:1 42:1 50:1 68:1 84:1 90:1 
3.444381686104024 1:-0.514894 6:1 20:1 26:1 44:1 50:1 68:1 84:1 90:1 
4 1:-0.010076 8:1 15:1 33:1 41:1 54:1 63:1 75:1 92:1 
2.10795853091298 1:-0.070529 12:1 24:1 26:1 44:1 54:1 69:1 85:1 92:1 
0.7197818485027954 1:-0.095718 12:1 24:1 36:1 49:1 54:1 69:1 85:1 92:1 
4 1:-0.284635 7:1 20:1 36:1 49:1 54:1 69:1 85:1 92:1 
0.543441324865657 1:-0.440806 13:1 20:1 34:1 38:1 54:1 69:1 85:1 92:1 
4 1:-0.675063 8:1 24:1 34:1 45:1 54:1 69:1 85:1 92:1 
2.102152711870654 1:0.821159 8:1 15:1 33:1 41:1 56:1 68:1 78:1 92:1 
4 1:-0.002519 8:1 17:1 32:1 56:1 68:1 78:1 92:1 
4 1:0.713333 9:1 21:1 26:1 44:1 56:1 68:1 78:1 90:1 
4 1:0.014599 2:1 20:1 26:1 49:1 61:1 68:1 85:1 87:1 
0.4682908858580349 1:-0.416058 6:1 22:1 32:1 39:1 61:1 68:1 85:1 87:1 
4 1:-0.40146 13:1 14:1 37:1 43:1 61:1 68:1 82:1 86:1 
3.58484549380152 1:-0.642336 13:1 14:1 37:1 43:1 61:1 68:1 82:1 86:1 
1.145011742754005 1:-0.346939 2:1 25:1 35:1 45:1 53:1 68:1 85:1 92:1 
1.821200083396204 1:0.426866 13:1 20:1 27:1 49:1 56:1 68:1 78:1 92:1 
1.998813537434269 1:-0.577566 5:1 16:1 32:1 61:1 68:1 75:1 86:1 
4 1:-0.043307 3:1 20:1 27:1 44:1 56:1 68:1 78:1 90:1 
4 1:0.716535 8:1 17:1 30:1 44:1 56:1 68:1 78:1 92:1 
4 1:0.712598 5:1 18:1 32:1 39:1 56:1 68:1 78:1 92:1 
3.923604525834016 1:0.677165 3:1 20:1 27:1 44:1 56:1 68:1 78:1 92:1 
4 1:-0.724409 8:1 17:1 32:1 56:1 68:1 78:1 90:1 
4 1:-0.356998 3:1 20:1 32:1 42:1 56:1 73:1 85:1 86:1 
0.6367845423741617 1:0.808791 37:1 38:1 61:1 68:1 78:1 87:1 
4 1:0.03956 13:1 20:1 37:1 39:1 61:1 73:1 75:1 90:1 
4 1:0.242347 3:1 20:1 31:1 49:1 61:1 68:1 75:1 97:1 
2.455809626038029 1:0.201531 8:1 22:1 37:1 43:1 61:1 68:1 75:1 97:1 
4 1:0.191327 7:1 21:1 26:1 49:1 61:1 68:1 75:1 97:1 
1.852922587053147 1:0.112245 13:1 14:1 37:1 43:1 61:1 68:1 75:1 97:1 
3.990341340334699 1:-0.193878 13:1 20:1 26:1 38:1 61:1 68:1 75:1 97:1 
4 1:-0.114754 13:1 15:1 32:1 49:1 51:1 69:1 76:1 86:1 
4 1:-0.571429 13:1 14:1 37:1 49:1 61:1 73:1 75:1 96:1 
4 1:-0.901639 2:1 20:1 27:1 46:1 61:1 73:1 75:1 96:1 
1.523374449483184 1:-0.004702 8:1 14:1 27:1 49:1 50:1 73:1 80:1 86:1 
0.6004296876790456 1:0.492163 3:1 15:1 27:1 49:1 56:1 73:1 74:1 97:1 
2.944626895643776 1:-0.010972 3:1 20:1 27:1 44:1 56:1 73:1 74:1 97:1 
1.446378775283445 1:0.609718 13:1 15:1 26:1 38:1 56:1 73:1 82:1 86:1 
3.761463295130406 1:0.945141 8:1 14:1 27:1 49:1 56:1 68:1 78:1 92:1 
4 1:-0.258621 8:1 17:1 32:1 56:1 68:1 80:1 86:1 
3.641629385339928 1:-0.133229 8:1 17:1 32:1 56:1 73:1 74:1 97:1 
1.986797151005409 1:0.02583 3:1 20:1 32:1 49:1 51:1 73:1 85:1 92:1 
4 1:-0.129412 12:1 15:1 27:1 38:1 50:1 69:1 85:1 87:1 
2.905723699180846 1:0.117647 13:1 22:1 37:1 38:1 50:1 73:1 75:1 92:1 
4 1:-0.156863 3:1 20:1 26:1 44:1 50:1 69:1 85:1 87:1 
4 1:-0.011765 3:1 20:1 26:1 44:1 50:1 73:1 75:1 92:1 
4 1:0.039216 12:1 15:1 27:1 38:1 50:1 68:1 84:1 87:1 
3.936286724203532 1:0.011765 3:1 20:1 26:1 44:1 50:1 68:1 84:1 87:1 
4 1:0.027451 3:1 20:1 26:1 44:1 51:1 69:1 75:1 93:1 
4 1:0.105882 12:1 15:1 27:1 38:1 51:1 69:1 85:1 87:1 
3.74508864838079 1:0.078431 3:1 20:1 26:1 44:1 51:1 69:1 85:1 87:1 
4 1:-0.152941 3:1 20:1 26:1 38:1 50:1 73:1 75:1 92:1 
2.147578126306939 1:-0.129412 3:1 20:1 26:1 38:1 50:1 68:1 84:1 87:1 
4 1:-0.113725 3:1 20:1 26:1 38:1 51:1 69:1 75:1 93:1 
2.98172288092687 1:0.152941 3:1 20:1 26:1 44:1 50:1 62:1 74:1 93:1 
4 1:0.011765 3:1 20:1 26:1 38:1 50:1 62:1 74:1 93:1 
4 1:0.192157 12:1 15:1 27:1 38:1 50:1 69:1 85:1 92:1 
1.880407658205233 1:0.12549 3:1 20:1 26:1 38:1 50:1 69:1 75:1 86:1 
4 1:-0.298039 13:1 20:1 27:1 45:1 50:1 73:1 75:1 92:1 
4 1:-0.258824 13:1 20:1 27:1 45:1 51:1 69:1 75:1 93:1 
4 1:0.4 12:1 15:1 27:1 38:1 58:1 62:1 81:1 89:1 
3.988482524234319 1:0.372549 3:1 20:1 26:1 44:1 58:1 62:1 81:1 89:1 
2.535611831758399 1:0.231373 3:1 20:1 26:1 38:1 58:1 62:1 81:1 89:1 
3.537597011572873 1:0.07451 3:1 21:1 27:1 38:1 58:1 62:1 81:1 89:1 
1.616647749268233 1:-0.611765 2:1 20:1 26:1 44:1 50:1 69:1 85:1 87:1 
4 1:-0.466667 2:1 20:1 26:1 44:1 50:1 73:1 75:1 92:1 
4 1:-0.427451 2:1 20:1 26:1 44:1 51:1 69:1 75:1 93:1 
1.90461396140524 1:-0.301961 2:1 20:1 26:1 44:1 50:1 62:1 74:1 93:1 
2.291883356543217 1:-0.188235 2:1 20:1 26:1 44:1 50:1 69:1 75:1 86:1 
0.3215199778772536 1:-0.760784 3:1 20:1 26:1 41:1 50:1 69:1 85:1 87:1 
4 1:0.639216 12:1 15:1 27:1 38:1 54:1 62:1 75:1 97:1 
4 1:0.52549 3:1 20:1 26:1 38:1 50:1 68:1 81:1 89:1 
4 1:0.211765 2:1 20:1 26:1 44:1 50:1 68:1 81:1 89:1 
4 1:-0.882353 7:1 20:1 34:1 38:1 50:1 69:1 85:1 87:1 
0.4985335016824192 1:-0.560784 7:1 20:1 34:1 38:1 50:1 69:1 85:1 92:1 
0.8671077608651564 1:-0.113725 7:1 20:1 34:1 38:1 54:1 62:1 75:1 97:1 
3.310593126305622 1:-0.615686 3:1 20:1 32:1 42:1 50:1 62:1 74:1 93:1 
0.6084964820102906 1:-0.184314 3:1 20:1 32:1 42:1 61:1 69:1 85:1 91:1 
4 1:-0.101961 3:1 20:1 32:1 42:1 50:1 68:1 81:1 89:1 
4 1:-0.109804 6:1 20:1 32:1 39:1 50:1 68:1 81:1 89:1 
0.6166494534543118 1:-0.411765 3:1 20:1 36:1 41:1 53:1 69:1 85:1 97:1 
2.714730117298088 1:0.8 3:1 20:1 26:1 44:1 54:1 72:1 74:1 90:1 
4 1:0.658824 3:1 20:1 26:1 38:1 54:1 72:1 74:1 90:1 
0.1979514874164918 1:0.513725 13:1 20:1 27:1 45:1 54:1 72:1 74:1 90:1 
4 1:0.345098 2:1 20:1 26:1 44:1 54:1 72:1 74:1 90:1 
2.042269424905213 1:0.007843 3:1 20:1 36:1 41:1 54:1 72:1 74:1 90:1 
1.761890504608778 1:0.047431 13:1 20:1 26:1 45:1 50:1 68:1 83:1 97:1 
4 1:0.636364 13:1 20:1 36:1 45:1 51:1 68:1 85:1 97:1 
4 1:0.426877 13:1 20:1 36:1 38:1 51:1 68:1 85:1 97:1 
4 1:0.387352 13:1 20:1 27:1 45:1 51:1 68:1 85:1 97:1 
4 1:0.177866 13:1 20:1 26:1 44:1 51:1 68:1 85:1 97:1 
4 1:0.134387 13:1 20:1 26:1 45:1 51:1 68:1 85:1 97:1 
3.72038194493953 1:-0.3083 8:1 22:1 26:1 40:1 52:1 68:1 80:1 87:1 
1.927534282564913 1:0.590909 2:1 20:1 32:1 43:1 54:1 68:1 83:1 87:1 
4 1:0.298419 13:1 20:1 26:1 44:1 54:1 68:1 83:1 87:1 
4 1:0.254941 13:1 20:1 26:1 45:1 54:1 68:1 83:1 87:1 
1.822899920214553 1:0.081028 8:1 22:1 26:1 40:1 54:1 68:1 83:1 87:1 
0.7033043513415317 1:-0.418972 2:1 20:1 33:1 39:1 52:1 68:1 80:1 87:1 
4 1:-0.237154 2:1 20:1 33:1 39:1 50:1 68:1 83:1 97:1 
2.493422471469429 1:-0.150198 2:1 20:1 33:1 39:1 51:1 68:1 85:1 97:1 
4 1:-0.029644 2:1 20:1 33:1 39:1 54:1 68:1 83:1 87:1 
4 1:0.656126 2:1 20:1 32:1 43:1 50:1 73:1 75:1 86:1 
4 1:0.160079 3:1 14:1 27:1 49:1 50:1 73:1 75:1 86:1 
2.237319422021729 1:0.045455 3:1 14:1 32:1 49:1 50:1 73:1 75:1 86:1 
3.992542110933081 1:0.035573 2:1 20:1 33:1 39:1 50:1 73:1 75:1 86:1 
2.700018108907148 1:-0.284585 8:1 15:1 33:1 38:1 51:1 68:1 85:1 97:1 
4 1:-0.164032 8:1 15:1 33:1 38:1 54:1 68:1 83:1 87:1 
3.525202667298472 1:-0.098814 8:1 15:1 33:1 38:1 50:1 73:1 75:1 86:1 
3.911587501771031 1:-0.183794 3:1 21:1 33:1 41:1 54:1 68:1 83:1 87:1 
0.5472066822828713 1:0.003953 3:1 21:1 33:1 41:1 54:1 69:1 75:1 97:1 
2.072426485830306 1:-0.193069 3:1 25:1 36:1 38:1 61:1 73:1 75:1 90:1 
0.04437576367781555 1:-0.50495 3:1 20:1 27:1 45:1 61:1 73:1 75:1 90:1 
4 1:-0.524752 13:1 20:1 32:1 42:1 61:1 73:1 75:1 90:1 
2.897499473944214 1:0.081683 3:1 20:1 27:1 45:1 53:1 68:1 75:1 87:1 
0.271638112478758 1:0.673267 3:1 20:1 32:1 49:1 56:1 69:1 76:1 97:1 
4 1:0.126238 6:1 20:1 32:1 42:1 56:1 69:1 76:1 97:1 
4 1:0.121287 6:1 20:1 32:1 42:1 56:1 69:1 76:1 97:1 
4 1:0.116337 6:1 20:1 32:1 42:1 56:1 69:1 76:1 97:1 
4 1:0.111386 6:1 20:1 32:1 42:1 56:1 69:1 76:1 97:1 
0.6371980077709111 1:0.440594 3:1 20:1 27:1 48:1 51:1 72:1 82:1 87:1 
4 1:0.200495 3:1 20:1 27:1 45:1 61:1 69:1 75:1 92:1 
1.324104864884202 1:0.180693 13:1 20:1 32:1 42:1 61:1 69:1 75:1 92:1 
2.482169977663466 1:0.284653 3:1 20:1 27:1 45:1 51:1 69:1 75:1 97:1 
4 1:-0.282178 8:1 15:1 37:1 44:1 56:1 69:1 76:1 97:1 
0.1797693159123324 1:-0.540146 8:1 14:1 37:1 49:1 50:1 73:1 80:1 97:1 
1.119699419855388 1:0.123656 8:1 25:1 32:1 47:1 61:1 68:1 81:1 91:1 
4 1:0.443548 8:1 25:1 32:1 47:1 56:1 69:1 76:1 92:1 
4 1:0.424731 4:1 20:1 32:1 40:1 56:1 69:1 76:1 92:1 
4 1:-0.021505 8:1 15:1 32:1 45:1 56:1 69:1 76:1 92:1 
4 1:-0.022727 5:1 15:1 32:1 41:1 76:1 92:1 
4 1:0.005051 5:1 15:1 32:1 41:1 54:1 68:1 75:1 90:1 
4 1:-0.015152 5:1 15:1 32:1 45:1 61:1 68:1 75:1 90:1 
0.6773024018260526 1:0.083333 5:1 15:1 32:1 45:1 50:1 68:1 75:1 92:1 
4 1:0.10101 5:1 15:1 32:1 41:1 51:1 68:1 83:1 87:1 
4 1:0.090909 5:1 15:1 32:1 45:1 51:1 68:1 83:1 87:1 
0.7634988666519811 1:-0.131313 11:1 15:1 27:1 41:1 76:1 92:1 
3.974341671362056 1:-0.113636 11:1 15:1 27:1 41:1 61:1 68:1 75:1 90:1 
3.6838723718947 1:-0.022727 3:1 14:1 32:1 42:1 51:1 68:1 83:1 87:1 
0.2106821107944785 1:-0.020202 6:1 21:1 37:1 38:1 54:1 63:1 81:1 87:1 
3.595720610455766 1:-0.272727 9:1 25:1 27:1 45:1 54:1 68:1 75:1 90:1 
2.326867488794674 1:-0.184343 9:1 25:1 27:1 45:1 50:1 68:1 75:1 92:1 
4 1:-0.176768 9:1 25:1 27:1 45:1 51:1 68:1 83:1 87:1 
4 1:-0.164141 9:1 25:1 27:1 45:1 54:1 63:1 81:1 87:1 
1.834768469385318 1:0.166667 3:1 14:1 32:1 42:1 51:1 73:1 75:1 97:1 
3.558540602503913 1:0.036199 8:1 15:1 30:1 44:1 56:1 69:1 80:1 89:1 
0.2876719106540209 1:0.072398 8:1 15:1 30:1 44:1 53:1 68:1 84:1 97:1 
4 1:0.180995 8:1 15:1 30:1 44:1 51:1 68:1 84:1 89:1 
4 1:0.190045 8:1 15:1 30:1 44:1 53:1 72:1 75:1 92:1 
0.8924409473678838 1:-0.192905 13:1 20:1 32:1 39:1 56:1 73:1 75:1 90:1 
2.88756327480898 1:0.011211 30:1 44:1 54:1 73:1 82:1 86:1 
4 1:-0.233184 3:1 25:1 26:1 49:1 54:1 73:1 82:1 86:1 
4 1:0.257848 6:1 20:1 37:1 41:1 61:1 62:1 75:1 87:1 
1.466678643516423 1:0.100897 13:1 20:1 26:1 39:1 61:1 62:1 75:1 87:1 
4 1:-0.85426 13:1 14:1 34:1 45:1 54:1 73:1 82:1 86:1 
4 1:-0.681614 10:1 21:1 26:1 44:1 61:1 62:1 75:1 87:1 
4 1:-0.943946 8:1 14:1 26:1 45:1 54:1 73:1 82:1 86:1 
2.464591743649582 1:-0.61991 4:1 15:1 26:1 38:1 61:1 68:1 84:1 88:1 
4 1:0.112554 8:1 15:1 32:1 41:1 56:1 69:1 80:1 97:1 
1.210955856743952 1:-0.164502 2:1 22:1 37:1 44:1 50:1 68:1 85:1 94:1 
3.861762486805031 1:0.324675 8:1 15:1 32:1 41:1 56:1 69:1 75:1 93:1 
0.5887929953720191 1:0.363636 8:1 15:1 32:1 41:1 51:1 69:1 80:1 97:1 
4 1:-0.692641 5:1 15:1 37:1 44:1 78:1 92:1 
1.910925210046921 1:-0.649351 5:1 15:1 37:1 44:1 54:1 68:1 85:1 90:1 
0.371914337376064 1:-0.619048 5:1 15:1 37:1 44:1 50:1 68:1 85:1 94:1 
4 1:-0.545455 5:1 15:1 37:1 44:1 56:1 69:1 80:1 97:1 
4 1:-0.333333 5:1 15:1 37:1 44:1 56:1 69:1 75:1 93:1 
3.021212250337929 1:-0.294372 5:1 15:1 37:1 44:1 51:1 69:1 80:1 97:1 
4 1:-0.008658 5:1 15:1 37:1 44:1 50:1 68:1 75:1 90:1 
4 1:0.212121 5:1 15:1 37:1 44:1 50:1 68:1 81:1 97:1 
2.573140295252912 1:-0.891775 2:1 21:1 37:1 39:1 50:1 68:1 85:1 94:1 
0.3435067506297641 1:-0.606061 2:1 21:1 37:1 39:1 56:1 69:1 75:1 93:1 
4 1:-0.331878 13:1 20:1 36:1 49:1 61:1 68:1 81:1 89:1 
3.672506580016373 1:-0.235808 13:1 20:1 36:1 49:1 58:1 62:1 85:1 97:1 
4 1:-0.821074 3:1 20:1 26:1 39:1 54:1 68:1 83:1 95:1 
4 1:-0.333996 3:1 20:1 26:1 39:1 61:1 68:1 85:1 93:1 
4 1:0.081511 3:1 20:1 26:1 39:1 51:1 68:1 85:1 97:1 
0.5271262378338019 1:-0.512712 8:1 25:1 37:1 41:1 61:1 68:1 82:1 86:1 
3.967053627460002 1:0.542373 13:1 25:1 37:1 44:1 54:1 73:1 74:1 97:1 
1.177689883956486 1:0.40678 6:1 25:1 36:1 39:1 55:1 73:1 75:1 86:1 
0.5904332346386374 1:-0.222656 5:1 15:1 34:1 38:1 58:1 68:1 83:1 87:1 
4 1:0.222656 5:1 15:1 34:1 38:1 56:1 68:1 75:1 90:1 
4 1:-0.453125 5:1 15:1 26:1 44:1 58:1 68:1 83:1 87:1 
4 1:-0.238281 5:1 15:1 26:1 44:1 50:1 68:1 75:1 90:1 
4 1:-0.074219 5:1 15:1 26:1 44:1 56:1 72:1 75:1 94:1 
0.6852402058037609 1:-0.095041 8:1 25:1 26:1 39:1 73:1 85:1 92:1 
1.185407260363938 1:-0.289256 8:1 25:1 26:1 49:1 73:1 85:1 92:1 
2.096444172826525 1:-0.22314 8:1 25:1 26:1 49:1 61:1 69:1 85:1 88:1 
4 1:0.090909 8:1 25:1 26:1 49:1 51:1 68:1 85:1 90:1 
4 1:-0.396694 6:1 24:1 32:1 41:1 73:1 85:1 92:1 
4 1:-0.330579 6:1 24:1 32:1 41:1 61:1 69:1 85:1 88:1 
4 1:-0.033058 5:1 25:1 36:1 42:1 51:1 68:1 85:1 90:1 
0.6093945291303983 1:-0.041322 6:1 24:1 32:1 41:1 51:1 68:1 85:1 90:1 
0.3806209262512111 1:0.033058 6:1 24:1 32:1 41:1 54:1 68:1 85:1 90:1 
3.886164993853779 1:-0.057851 5:1 25:1 36:1 42:1 51:1 68:1 85:1 90:1 
4 1:-0.446281 6:1 24:1 32:1 41:1 73:1 85:1 92:1 
4 1:-0.380165 6:1 24:1 32:1 41:1 61:1 69:1 85:1 88:1 
4 1:0.057851 6:1 24:1 32:1 41:1 54:1 68:1 85:1 90:1 
2.162804787101145 1:0.016529 5:1 25:1 36:1 42:1 54:1 68:1 85:1 90:1 
4 1:-0.057851 5:1 25:1 37:1 39:1 54:1 68:1 85:1 90:1 
4 1:-0.033058 5:1 25:1 37:1 39:1 54:1 68:1 85:1 90:1 
3.564577611571489 1:0.123967 5:1 25:1 36:1 42:1 54:1 68:1 85:1 90:1 
4 1:0.115702 6:1 24:1 32:1 41:1 54:1 68:1 85:1 90:1 
4 1:0.090909 6:1 24:1 32:1 41:1 54:1 68:1 85:1 90:1 
4 1:0.066116 6:1 24:1 32:1 41:1 54:1 68:1 85:1 90:1 
3.918163671762987 1:0.049587 5:1 25:1 37:1 39:1 54:1 68:1 85:1 90:1 
1.872574409241357 1:-0.454545 5:1 25:1 32:1 42:1 61:1 69:1 85:1 88:1 
4 1:-0.140496 5:1 25:1 32:1 42:1 51:1 68:1 85:1 90:1 
0.6661995288515348 1:-0.090909 5:1 25:1 32:1 42:1 54:1 68:1 85:1 90:1 
4 1:-0.066116 5:1 25:1 32:1 42:1 54:1 68:1 85:1 90:1 
4 1:-0.46281 6:1 20:1 37:1 39:1 61:1 69:1 85:1 88:1 
4 1:-0.123967 6:1 20:1 37:1 39:1 54:1 68:1 85:1 90:1 
4 1:-0.099174 6:1 20:1 37:1 39:1 54:1 68:1 85:1 90:1 
2.598893959053113 1:-0.07438 6:1 20:1 37:1 39:1 54:1 68:1 85:1 90:1 
0.5408312223707843 1:0.289256 8:1 25:1 26:1 49:1 61:1 68:1 81:1 97:1 
4 1:0.181818 6:1 24:1 32:1 41:1 61:1 68:1 81:1 97:1 
3.174407874357375 1:0.157025 6:1 24:1 32:1 41:1 61:1 68:1 81:1 97:1 
4 1:0.049587 6:1 20:1 37:1 39:1 61:1 68:1 81:1 97:1 
1.842774318247645 1:0.454545 8:1 25:1 26:1 49:1 51:1 68:1 85:1 90:1 
1.644732812285224 1:0.330579 5:1 25:1 36:1 42:1 51:1 68:1 85:1 90:1 
4 1:0.22314 5:1 25:1 32:1 42:1 51:1 68:1 85:1 90:1 
1.564846541341994 1:-0.297521 5:1 25:1 36:1 41:1 54:1 68:1 85:1 90:1 
4 1:-0.239669 5:1 25:1 36:1 41:1 54:1 68:1 85:1 90:1 
0.9148547715446806 1:-0.702479 5:1 25:1 37:1 38:1 61:1 69:1 85:1 88:1 
4 1:-0.363636 5:1 25:1 37:1 38:1 54:1 68:1 85:1 90:1 
4 1:-0.338843 5:1 25:1 37:1 38:1 54:1 68:1 85:1 90:1 
