svm_type c_svc
kernel_type rbf
gamma 0.015873
nr_class 2
total_sv 27734
rho -0.94339
label -1 1
nr_sv 21536 6198
SV
1.050338131588542 1:-15 2:33 3:18 4:1 13:1 14:1 23:1 25:1 29:1 38:1 40:1 48:1 53:1 57:1 60:1 
0.553774003793611 1:-90 2:108 3:18 8:1 12:1 18:1 23:1 28:1 29:1 38:1 40:1 48:1 53:1 57:1 60:1 
1.174238153169462 1:-106 2:124 3:18 5:1 13:1 14:1 23:1 28:1 33:1 38:1 40:1 48:1 53:1 57:1 60:1 
0.1160876227433448 1:145 2:33 3:178 4:1 13:1 14:1 23:1 25:1 29:1 34:1 40:1 47:1 49:1 55:1 59:1 
0.06330149086536367 1:103 2:75 3:178 5:1 12:1 18:1 23:1 28:1 29:1 34:1 40:1 47:1 49:1 55:1 59:1 
1.356772895324917 1:-300 2:318 3:18 8:1 13:1 18:1 19:1 28:1 29:1 38:1 40:1 48:1 53:1 57:1 60:1 
0.07068262762059768 1:248 2:75 3:323 5:1 12:1 18:1 23:1 28:1 29:1 38:1 39:1 48:1 53:1 55:1 63:1 
0.5414361667042188 1:199 2:124 3:323 5:1 13:1 14:1 23:1 28:1 33:1 38:1 39:1 48:1 53:1 55:1 63:1 
0.9362163906158363 1:47 2:276 3:323 5:1 13:1 15:1 23:1 24:1 30:1 38:1 39:1 48:1 53:1 55:1 63:1 
2.091042242106095 1:18 2:305 3:323 7:1 13:1 18:1 23:1 28:1 29:1 38:1 39:1 48:1 53:1 55:1 63:1 
1.653280073715762 1:-11 2:22 3:11 8:1 13:1 14:1 23:1 28:1 33:1 34:1 39:1 48:1 53:1 55:1 60:1 
2.076228743959526 1:19 2:22 3:41 8:1 13:1 14:1 23:1 28:1 33:1 34:1 43:1 45:1 50:1 58:1 63:1 
1.420498789127235 1:21 2:22 3:43 8:1 13:1 14:1 23:1 28:1 33:1 35:1 43:1 45:1 53:1 58:1 63:1 
0.4030410053415143 1:-34 2:75 3:41 4:1 10:1 18:1 22:1 25:1 32:1 34:1 43:1 45:1 50:1 58:1 63:1 
1.45798809231148 1:-32 2:75 3:43 4:1 10:1 18:1 22:1 25:1 32:1 35:1 43:1 45:1 53:1 58:1 63:1 
0.927353531572424 1:-105 2:116 3:11 8:1 13:1 15:1 20:1 28:1 30:1 34:1 39:1 48:1 53:1 55:1 60:1 
0.7077538551792493 1:-97 2:116 3:19 8:1 13:1 15:1 20:1 28:1 30:1 35:1 40:1 48:1 53:1 54:1 61:1 
0.3571419986783049 1:-75 2:116 3:41 8:1 13:1 15:1 20:1 28:1 30:1 34:1 43:1 45:1 50:1 58:1 63:1 
0.8976604084952684 1:-222 2:233 3:11 8:1 13:1 15:1 22:1 25:1 29:1 34:1 39:1 48:1 53:1 55:1 60:1 
1.379065727751549 1:-192 2:233 3:41 8:1 13:1 15:1 22:1 25:1 29:1 34:1 43:1 45:1 50:1 58:1 63:1 
0.1328162853230862 1:298 2:22 3:320 8:1 13:1 14:1 23:1 28:1 33:1 37:1 39:1 45:1 50:1 54:1 63:1 
0.06418804738072972 1:90 2:233 3:323 8:1 13:1 15:1 22:1 25:1 29:1 38:1 40:1 44:1 53:1 58:1 62:1 
0.3803805880154524 1:-352 2:363 3:11 8:1 9:1 15:1 22:1 25:1 32:1 34:1 39:1 48:1 53:1 55:1 60:1 
2.199227344446804 1:-40 2:363 3:323 8:1 9:1 15:1 22:1 25:1 32:1 38:1 40:1 44:1 53:1 58:1 62:1 
3 1:-19 2:27 3:8 8:1 9:1 15:1 23:1 24:1 33:1 35:1 40:1 48:1 49:1 56:1 60:1 
0.6422783489770572 1:16 2:27 3:43 8:1 9:1 15:1 23:1 24:1 33:1 35:1 43:1 44:1 50:1 58:1 63:1 
2.17422521177985 1:-59 2:67 3:8 8:1 12:1 15:1 22:1 25:1 33:1 35:1 40:1 48:1 49:1 56:1 60:1 
2.804075184332825 1:-47 2:67 3:20 8:1 12:1 15:1 22:1 25:1 33:1 38:1 43:1 45:1 53:1 56:1 63:1 
0.001253275546172276 1:-50 2:93 3:43 8:1 9:1 15:1 23:1 28:1 33:1 35:1 43:1 44:1 50:1 58:1 63:1 
0.7063265781438606 1:92 2:22 3:114 5:1 13:1 18:1 23:1 28:1 29:1 35:1 43:1 45:1 53:1 57:1 60:1 
0.1240069637132095 1:87 2:27 3:114 8:1 9:1 15:1 23:1 24:1 33:1 35:1 43:1 45:1 53:1 57:1 60:1 
1.927031916850587 1:47 2:67 3:114 8:1 12:1 15:1 22:1 25:1 33:1 35:1 43:1 45:1 53:1 57:1 60:1 
0.7996905178650837 1:125 2:10 3:135 8:1 13:1 14:1 20:1 24:1 31:1 38:1 43:1 45:1 49:1 58:1 63:1 
1.359371905655416 1:122 2:13 3:135 6:1 10:1 14:1 22:1 25:1 33:1 38:1 43:1 45:1 49:1 58:1 63:1 
2.716788077210448 1:113 2:22 3:135 5:1 13:1 18:1 23:1 28:1 29:1 38:1 43:1 45:1 49:1 58:1 63:1 
0.8529313921266857 1:108 2:27 3:135 8:1 9:1 15:1 23:1 24:1 33:1 38:1 43:1 45:1 49:1 58:1 63:1 
3 1:68 2:67 3:135 8:1 12:1 15:1 22:1 25:1 33:1 38:1 43:1 45:1 49:1 58:1 63:1 
1.959145964312554 1:42 2:93 3:135 8:1 9:1 15:1 23:1 28:1 33:1 38:1 43:1 45:1 49:1 58:1 63:1 
0.8287180732710316 1:-119 2:139 3:20 4:1 13:1 18:1 23:1 24:1 33:1 38:1 43:1 45:1 53:1 56:1 63:1 
0.09824511824746497 1:-25 2:139 3:114 4:1 13:1 18:1 23:1 24:1 33:1 35:1 43:1 45:1 53:1 57:1 60:1 
3 1:-4 2:139 3:135 4:1 13:1 18:1 23:1 24:1 33:1 38:1 43:1 45:1 49:1 58:1 63:1 
0.5839351148142983 1:121 2:22 3:143 5:1 13:1 18:1 23:1 28:1 29:1 38:1 39:1 48:1 49:1 58:1 60:1 
0.4183529916301257 1:116 2:27 3:143 8:1 9:1 15:1 23:1 24:1 33:1 38:1 39:1 48:1 49:1 58:1 60:1 
0.9005358388538163 1:76 2:67 3:143 8:1 12:1 15:1 22:1 25:1 33:1 38:1 39:1 48:1 49:1 58:1 60:1 
1.412784572819144 1:-128 2:148 3:20 8:1 10:1 18:1 19:1 25:1 33:1 38:1 43:1 45:1 53:1 56:1 63:1 
0.6512127190799064 1:-34 2:148 3:114 8:1 10:1 18:1 19:1 25:1 33:1 35:1 43:1 45:1 53:1 57:1 60:1 
1.566762868396428 1:-5 2:148 3:143 8:1 10:1 18:1 19:1 25:1 33:1 38:1 39:1 48:1 49:1 58:1 60:1 
1.095024475525055 1:87 2:67 3:154 8:1 12:1 15:1 22:1 25:1 33:1 38:1 43:1 47:1 49:1 58:1 59:1 
0.5412408865450916 1:61 2:93 3:154 8:1 9:1 15:1 23:1 28:1 33:1 38:1 43:1 47:1 49:1 58:1 59:1 
0.1092996855995208 1:6 2:148 3:154 8:1 10:1 18:1 19:1 25:1 33:1 38:1 43:1 47:1 49:1 58:1 59:1 
0.9187539265399869 1:-165 2:173 3:8 8:1 9:1 15:1 22:1 25:1 33:1 35:1 40:1 48:1 49:1 56:1 60:1 
2.316942628684445 1:-153 2:173 3:20 8:1 9:1 15:1 22:1 25:1 33:1 38:1 43:1 45:1 53:1 56:1 63:1 
0.5697194327424639 1:-130 2:173 3:43 8:1 9:1 15:1 22:1 25:1 33:1 35:1 43:1 44:1 50:1 58:1 63:1 
0.2616044399530804 1:-59 2:173 3:114 8:1 9:1 15:1 22:1 25:1 33:1 35:1 43:1 45:1 53:1 57:1 60:1 
1.018005764240251 1:-38 2:173 3:135 8:1 9:1 15:1 22:1 25:1 33:1 38:1 43:1 45:1 49:1 58:1 63:1 
1.15357362178568 1:-30 2:173 3:143 8:1 9:1 15:1 22:1 25:1 33:1 38:1 39:1 48:1 49:1 58:1 60:1 
0.5466530254906496 1:-19 2:173 3:154 8:1 9:1 15:1 22:1 25:1 33:1 38:1 43:1 47:1 49:1 58:1 59:1 
0.4233133187102597 1:-71 2:185 3:114 4:1 13:1 14:1 19:1 28:1 30:1 35:1 43:1 45:1 53:1 57:1 60:1 
1.687101617423313 1:-50 2:185 3:135 4:1 13:1 14:1 19:1 28:1 30:1 38:1 43:1 45:1 49:1 58:1 63:1 
1.993403798582567 1:-42 2:185 3:143 4:1 13:1 14:1 19:1 28:1 30:1 38:1 39:1 48:1 49:1 58:1 60:1 
0.008784549731926666 1:176 2:22 3:198 5:1 13:1 18:1 23:1 28:1 29:1 35:1 43:1 47:1 53:1 54:1 63:1 
2.503156650493452 1:131 2:67 3:198 8:1 12:1 15:1 22:1 25:1 33:1 35:1 43:1 47:1 53:1 54:1 63:1 
0.02326161397091415 1:105 2:93 3:198 8:1 9:1 15:1 23:1 28:1 33:1 35:1 43:1 47:1 53:1 54:1 63:1 
1.748155867289293 1:50 2:148 3:198 8:1 10:1 18:1 19:1 25:1 33:1 35:1 43:1 47:1 53:1 54:1 63:1 
0.8204645219846027 1:13 2:185 3:198 4:1 13:1 14:1 19:1 28:1 30:1 35:1 43:1 47:1 53:1 54:1 63:1 
1.501018302148419 1:2 2:17 3:19 8:1 10:1 14:1 20:1 28:1 29:1 34:1 41:1 45:1 49:1 55:1 63:1 
0.08593736283616876 1:-33 2:40 3:7 7:1 13:1 18:1 19:1 28:1 33:1 34:1 43:1 48:1 53:1 55:1 60:1 
1.016381964880716 1:-30 2:49 3:19 5:1 12:1 17:1 23:1 26:1 30:1 34:1 41:1 45:1 49:1 55:1 63:1 
1.395783602061013 1:-27 2:49 3:22 5:1 12:1 17:1 23:1 26:1 30:1 38:1 39:1 45:1 53:1 56:1 63:1 
2.338531147428033 1:-32 2:51 3:19 7:1 11:1 18:1 20:1 28:1 33:1 34:1 41:1 45:1 49:1 55:1 63:1 
0.5844600814533777 1:-70 2:77 3:7 8:1 13:1 15:1 23:1 28:1 29:1 34:1 43:1 48:1 53:1 55:1 60:1 
0.4867755700620363 1:-47 2:77 3:30 8:1 13:1 15:1 23:1 28:1 29:1 34:1 39:1 48:1 49:1 54:1 59:1 
1.145099774832879 1:-62 2:81 3:19 8:1 13:1 14:1 23:1 27:1 33:1 34:1 41:1 45:1 49:1 55:1 63:1 
3 1:-59 2:81 3:22 8:1 13:1 14:1 23:1 27:1 33:1 38:1 39:1 45:1 53:1 56:1 63:1 
0.9932200304994732 1:-51 2:81 3:30 8:1 13:1 14:1 23:1 27:1 33:1 34:1 39:1 48:1 49:1 54:1 59:1 
1.508588207435281 1:58 2:24 3:82 5:1 13:1 18:1 23:1 28:1 29:1 38:1 39:1 46:1 52:1 58:1 59:1 
0.5324587582484877 1:33 2:49 3:82 5:1 12:1 17:1 23:1 26:1 30:1 38:1 39:1 46:1 52:1 58:1 59:1 
0.1353742955978386 1:31 2:51 3:82 7:1 11:1 18:1 20:1 28:1 33:1 38:1 39:1 46:1 52:1 58:1 59:1 
2.969833729946997 1:1 2:81 3:82 8:1 13:1 14:1 23:1 27:1 33:1 38:1 39:1 46:1 52:1 58:1 59:1 
1.003952504012503 1:-69 2:91 3:22 8:1 9:1 14:1 23:1 25:1 31:1 38:1 39:1 45:1 53:1 56:1 63:1 
0.9466807411056767 1:-61 2:91 3:30 8:1 9:1 14:1 23:1 25:1 31:1 34:1 39:1 48:1 49:1 54:1 59:1 
2.65476232276012 1:-9 2:91 3:82 8:1 9:1 14:1 23:1 25:1 31:1 38:1 39:1 46:1 52:1 58:1 59:1 
0.4442934016039651 1:-87 2:94 3:7 6:1 13:1 15:1 20:1 26:1 30:1 34:1 43:1 48:1 53:1 55:1 60:1 
0.03673587970021122 1:-75 2:94 3:19 6:1 13:1 15:1 20:1 26:1 30:1 34:1 41:1 45:1 49:1 55:1 63:1 
1.205396058691086 1:-72 2:94 3:22 6:1 13:1 15:1 20:1 26:1 30:1 38:1 39:1 45:1 53:1 56:1 63:1 
0.7985311577685715 1:-64 2:94 3:30 6:1 13:1 15:1 20:1 26:1 30:1 34:1 39:1 48:1 49:1 54:1 59:1 
0.3455302913178179 1:-77 2:96 3:19 5:1 11:1 15:1 20:1 26:1 30:1 34:1 41:1 45:1 49:1 55:1 63:1 
0.2665805757008376 1:-74 2:96 3:22 5:1 11:1 15:1 20:1 26:1 30:1 38:1 39:1 45:1 53:1 56:1 63:1 
0.2324502161662858 1:-66 2:96 3:30 5:1 11:1 15:1 20:1 26:1 30:1 34:1 39:1 48:1 49:1 54:1 59:1 
0.0733128218759997 1:-16 2:98 3:82 5:1 11:1 15:1 20:1 28:1 29:1 38:1 39:1 46:1 52:1 58:1 59:1 
0.6747140557885066 1:83 2:17 3:100 8:1 10:1 14:1 20:1 28:1 29:1 35:1 41:1 45:1 49:1 58:1 59:1 
0.09440622226375796 1:76 2:24 3:100 5:1 13:1 18:1 23:1 28:1 29:1 35:1 41:1 45:1 49:1 58:1 59:1 
0.7260620003265144 1:60 2:40 3:100 7:1 13:1 18:1 19:1 28:1 33:1 35:1 41:1 45:1 49:1 58:1 59:1 
0.2638642636726667 1:19 2:81 3:100 8:1 13:1 14:1 23:1 27:1 33:1 35:1 41:1 45:1 49:1 58:1 59:1 
1.365828096907526 1:9 2:91 3:100 8:1 9:1 14:1 23:1 25:1 31:1 35:1 41:1 45:1 49:1 58:1 59:1 
0.1883889056467555 1:2 2:98 3:100 5:1 11:1 15:1 20:1 28:1 29:1 35:1 41:1 45:1 49:1 58:1 59:1 
0.8206844410088305 1:-98 2:105 3:7 8:1 9:1 14:1 23:1 28:1 29:1 34:1 43:1 48:1 53:1 55:1 60:1 
1.79773497743814 1:-86 2:105 3:19 8:1 9:1 14:1 23:1 28:1 29:1 34:1 41:1 45:1 49:1 55:1 63:1 
1.54177127221575 1:-75 2:105 3:30 8:1 9:1 14:1 23:1 28:1 29:1 34:1 39:1 48:1 49:1 54:1 59:1 
0.6135699091635571 1:90 2:17 3:107 8:1 10:1 14:1 20:1 28:1 29:1 34:1 41:1 48:1 49:1 56:1 59:1 
0.5301503709529608 1:83 2:24 3:107 5:1 13:1 18:1 23:1 28:1 29:1 34:1 41:1 48:1 49:1 56:1 59:1 
0.5962308557604455 1:58 2:49 3:107 5:1 12:1 17:1 23:1 26:1 30:1 34:1 41:1 48:1 49:1 56:1 59:1 
1.354986258961593 1:56 2:51 3:107 7:1 11:1 18:1 20:1 28:1 33:1 34:1 41:1 48:1 49:1 56:1 59:1 
0.2274597226922817 1:11 2:96 3:107 5:1 11:1 15:1 20:1 26:1 30:1 34:1 41:1 48:1 49:1 56:1 59:1 
3 1:2 2:105 3:107 8:1 9:1 14:1 23:1 28:1 29:1 34:1 41:1 48:1 49:1 56:1 59:1 
0.07240613522664932 1:-90 2:109 3:19 8:1 13:1 14:1 19:1 24:1 30:1 34:1 41:1 45:1 49:1 55:1 63:1 
0.1002053132502679 1:-27 2:109 3:82 8:1 13:1 14:1 19:1 24:1 30:1 38:1 39:1 46:1 52:1 58:1 59:1 
2.445441936938549 1:-9 2:109 3:100 8:1 13:1 14:1 19:1 24:1 30:1 35:1 41:1 45:1 49:1 58:1 59:1 
0.392902533813341 1:-139 2:146 3:7 8:1 9:1 15:1 22:1 25:1 29:1 34:1 43:1 48:1 53:1 55:1 60:1 
0.2055489725872002 1:-116 2:146 3:30 8:1 9:1 15:1 22:1 25:1 29:1 34:1 39:1 48:1 49:1 54:1 59:1 
0.7503138285614986 1:-64 2:146 3:82 8:1 9:1 15:1 22:1 25:1 29:1 38:1 39:1 46:1 52:1 58:1 59:1 
1.910386428892624 1:-46 2:146 3:100 8:1 9:1 15:1 22:1 25:1 29:1 35:1 41:1 45:1 49:1 58:1 59:1 
0.4015252356614009 1:-39 2:146 3:107 8:1 9:1 15:1 22:1 25:1 29:1 34:1 41:1 48:1 49:1 56:1 59:1 
0.0103455848466549 1:78 2:81 3:159 8:1 13:1 14:1 23:1 27:1 33:1 35:1 43:1 44:1 49:1 57:1 59:1 
0.3862395767327353 1:68 2:91 3:159 8:1 9:1 14:1 23:1 25:1 31:1 35:1 43:1 44:1 49:1 57:1 59:1 
0.2285973110089456 1:13 2:146 3:159 8:1 9:1 15:1 22:1 25:1 29:1 35:1 43:1 44:1 49:1 57:1 59:1 
1.722386497690056 1:-177 2:207 3:30 8:1 12:1 15:1 20:1 28:1 33:1 34:1 39:1 48:1 49:1 54:1 59:1 
0.6969951043163052 1:-125 2:207 3:82 8:1 12:1 15:1 20:1 28:1 33:1 38:1 39:1 46:1 52:1 58:1 59:1 
0.2320121873862265 1:-100 2:207 3:107 8:1 12:1 15:1 20:1 28:1 33:1 34:1 41:1 48:1 49:1 56:1 59:1 
0.6632300235745473 1:-48 2:207 3:159 8:1 12:1 15:1 20:1 28:1 33:1 35:1 43:1 44:1 49:1 57:1 59:1 
1.017802149061623 1:-199 2:221 3:22 8:1 10:1 18:1 20:1 28:1 29:1 38:1 39:1 45:1 53:1 56:1 63:1 
0.4623814737801538 1:-191 2:221 3:30 8:1 10:1 18:1 20:1 28:1 29:1 34:1 39:1 48:1 49:1 54:1 59:1 
2.408634132417179 1:-139 2:221 3:82 8:1 10:1 18:1 20:1 28:1 29:1 38:1 39:1 46:1 52:1 58:1 59:1 
0.3002388009889488 1:-62 2:221 3:159 8:1 10:1 18:1 20:1 28:1 29:1 35:1 43:1 44:1 49:1 57:1 59:1 
2.900533418230244 1:-221 2:240 3:19 8:1 11:1 15:1 20:1 26:1 33:1 34:1 41:1 45:1 49:1 55:1 63:1 
0.950799729713986 1:-210 2:240 3:30 8:1 11:1 15:1 20:1 26:1 33:1 34:1 39:1 48:1 49:1 54:1 59:1 
0.9599573249922703 1:-133 2:240 3:107 8:1 11:1 15:1 20:1 26:1 33:1 34:1 41:1 48:1 49:1 56:1 59:1 
0.0306439865020928 1:-81 2:240 3:159 8:1 11:1 15:1 20:1 26:1 33:1 35:1 43:1 44:1 49:1 57:1 59:1 
0.1302759593889249 1:-235 2:242 3:7 5:1 11:1 15:1 23:1 27:1 33:1 34:1 43:1 48:1 53:1 55:1 60:1 
0.1141750691498468 1:-223 2:242 3:19 5:1 11:1 15:1 23:1 27:1 33:1 34:1 41:1 45:1 49:1 55:1 63:1 
0.1201106608029506 1:-160 2:242 3:82 5:1 11:1 15:1 23:1 27:1 33:1 38:1 39:1 46:1 52:1 58:1 59:1 
0.843101479670671 1:-83 2:242 3:159 5:1 11:1 15:1 23:1 27:1 33:1 35:1 43:1 44:1 49:1 57:1 59:1 
0.2428943236387314 1:30 2:14 3:44 5:1 13:1 18:1 23:1 27:1 30:1 34:1 42:1 45:1 49:1 56:1 63:1 
0.03862848296997314 1:96 2:7 3:103 5:1 13:1 14:1 20:1 26:1 32:1 37:1 40:1 48:1 52:1 58:1 63:1 
0.05410771510938106 1:-119 2:222 3:103 5:1 13:1 15:1 22:1 25:1 33:1 37:1 40:1 48:1 52:1 58:1 63:1 
3 1:-7 2:46 3:39 6:1 13:1 18:1 20:1 25:1 30:1 38:1 42:1 45:1 49:1 55:1 59:1 
0.0711443367487785 1:5 2:46 3:51 6:1 13:1 18:1 20:1 25:1 30:1 35:1 40:1 45:1 53:1 58:1 59:1 
0.0926034236300267 1:18 2:46 3:64 6:1 13:1 18:1 20:1 25:1 30:1 38:1 42:1 45:1 49:1 56:1 60:1 
1.285222580851129 1:-15 2:66 3:51 5:1 13:1 14:1 20:1 28:1 29:1 35:1 40:1 45:1 53:1 58:1 59:1 
1.401172184046386 1:2 2:66 3:68 5:1 13:1 14:1 20:1 28:1 29:1 34:1 41:1 45:1 49:1 58:1 63:1 
1.464510877633517 1:-35 2:74 3:39 8:1 13:1 18:1 22:1 28:1 33:1 38:1 42:1 45:1 49:1 55:1 59:1 
1.851643393532635 1:-6 2:74 3:68 8:1 13:1 18:1 22:1 28:1 33:1 34:1 41:1 45:1 49:1 58:1 63:1 
0.2133579647098218 1:45 2:43 3:88 4:1 10:1 14:1 23:1 28:1 31:1 35:1 40:1 45:1 53:1 58:1 62:1 
1.515319484767194 1:22 2:66 3:88 5:1 13:1 14:1 20:1 28:1 29:1 35:1 40:1 45:1 53:1 58:1 62:1 
0.01232475308273429 1:14 2:74 3:88 8:1 13:1 18:1 22:1 28:1 33:1 35:1 40:1 45:1 53:1 58:1 62:1 
1.062722629941349 1:-81 2:120 3:39 8:1 9:1 14:1 23:1 28:1 29:1 38:1 42:1 45:1 49:1 55:1 59:1 
1.607646368705415 1:-69 2:120 3:51 8:1 9:1 14:1 23:1 28:1 29:1 35:1 40:1 45:1 53:1 58:1 59:1 
0.09326804075101802 1:-56 2:120 3:64 8:1 9:1 14:1 23:1 28:1 29:1 38:1 42:1 45:1 49:1 56:1 60:1 
1.305579367094662 1:-52 2:120 3:68 8:1 9:1 14:1 23:1 28:1 29:1 34:1 41:1 45:1 49:1 58:1 63:1 
0.3011459688924055 1:199 2:25 3:224 5:1 13:1 18:1 21:1 28:1 33:1 35:1 40:1 45:1 53:1 58:1 59:1 
0.1757101348263053 1:181 2:43 3:224 4:1 10:1 14:1 23:1 28:1 31:1 35:1 40:1 45:1 53:1 58:1 59:1 
0.09055230693462953 1:150 2:74 3:224 8:1 13:1 18:1 22:1 28:1 33:1 35:1 40:1 45:1 53:1 58:1 59:1 
0.9523763334320223 1:-212 2:251 3:39 8:1 9:1 15:1 23:1 24:1 29:1 38:1 42:1 45:1 49:1 55:1 59:1 
0.1960145375326354 1:-200 2:251 3:51 8:1 9:1 15:1 23:1 24:1 29:1 35:1 40:1 45:1 53:1 58:1 59:1 
0.1601690829129304 1:-187 2:251 3:64 8:1 9:1 15:1 23:1 24:1 29:1 38:1 42:1 45:1 49:1 56:1 60:1 
0.9245703635842257 1:-163 2:251 3:88 8:1 9:1 15:1 23:1 24:1 29:1 35:1 40:1 45:1 53:1 58:1 62:1 
3 1:-3 2:11 3:8 8:1 13:1 16:1 23:1 28:1 33:1 35:1 40:1 48:1 53:1 56:1 61:1 
0.7508312793593963 1:-28 2:28 3:0 7:1 10:1 18:1 23:1 24:1 29:1 53:1 55:1 60:1 
1.002837191892361 1:-42 2:58 3:16 7:1 10:1 15:1 22:1 25:1 30:1 38:1 43:1 48:1 49:1 58:1 63:1 
0.1700840970807852 1:-74 2:74 3:0 4:1 10:1 17:1 19:1 28:1 29:1 53:1 55:1 60:1 
2.07629150051661 1:-157 2:165 3:8 8:1 12:1 14:1 22:1 26:1 33:1 35:1 40:1 48:1 53:1 56:1 61:1 
0.1428769700416871 1:-125 2:165 3:40 8:1 12:1 14:1 22:1 26:1 33:1 35:1 40:1 48:1 49:1 58:1 63:1 
0.2893836622643574 1:-35 2:165 3:130 8:1 12:1 14:1 22:1 26:1 33:1 38:1 40:1 48:1 50:1 58:1 63:1 
0.1345086162615978 1:-159 2:167 3:8 4:1 11:1 17:1 23:1 28:1 29:1 35:1 40:1 48:1 53:1 56:1 61:1 
0.5890243325819479 1:-169 2:185 3:16 4:1 10:1 17:1 19:1 27:1 33:1 38:1 43:1 48:1 49:1 58:1 63:1 
1.220292294130398 1:181 2:11 3:192 8:1 13:1 16:1 23:1 28:1 33:1 38:1 40:1 47:1 52:1 58:1 63:1 
1.331417324093656 1:164 2:28 3:192 7:1 10:1 18:1 23:1 24:1 29:1 38:1 40:1 47:1 52:1 58:1 63:1 
0.1335472580118925 1:25 2:167 3:192 4:1 11:1 17:1 23:1 28:1 29:1 38:1 40:1 47:1 52:1 58:1 63:1 
0.6376600981844414 1:12 2:180 3:192 7:1 12:1 18:1 22:1 24:1 30:1 38:1 40:1 47:1 52:1 58:1 63:1 
0.2944245643394367 1:7 2:185 3:192 4:1 10:1 17:1 19:1 27:1 33:1 38:1 40:1 47:1 52:1 58:1 63:1 
0.8484252529033812 1:225 2:11 3:236 8:1 13:1 16:1 23:1 28:1 33:1 34:1 42:1 45:1 53:1 58:1 63:1 
0.1519150479487189 1:178 2:58 3:236 7:1 10:1 15:1 22:1 25:1 30:1 34:1 42:1 45:1 53:1 58:1 63:1 
0.08041073569872079 1:162 2:74 3:236 4:1 10:1 17:1 19:1 28:1 29:1 34:1 42:1 45:1 53:1 58:1 63:1 
0.1960308120184595 1:69 2:167 3:236 4:1 11:1 17:1 23:1 28:1 29:1 34:1 42:1 45:1 53:1 58:1 63:1 
0.558245324769261 1:51 2:185 3:236 4:1 10:1 17:1 19:1 27:1 33:1 34:1 42:1 45:1 53:1 58:1 63:1 
1.54966408614954 1:243 2:28 3:271 7:1 10:1 18:1 23:1 24:1 29:1 34:1 40:1 48:1 53:1 55:1 59:1 
0.02115443096107666 1:213 2:58 3:271 7:1 10:1 15:1 22:1 25:1 30:1 34:1 40:1 48:1 53:1 55:1 59:1 
0.3865393889745855 1:104 2:167 3:271 4:1 11:1 17:1 23:1 28:1 29:1 34:1 40:1 48:1 53:1 55:1 59:1 
0.1567211886141818 1:91 2:180 3:271 7:1 12:1 18:1 22:1 24:1 30:1 34:1 40:1 48:1 53:1 55:1 59:1 
3 1:1 2:0 3:1 23:1 28:1 32:1 46:1 53:1 57:1 60:1 
0.7981055076409688 1:33 2:0 3:33 23:1 28:1 32:1 38:1 43:1 45:1 52:1 58:1 59:1 
1.244787297801275 1:35 2:0 3:35 23:1 28:1 32:1 35:1 43:1 47:1 49:1 55:1 60:1 
0.4275719716293381 1:264 2:0 3:264 23:1 28:1 32:1 37:1 42:1 47:1 49:1 54:1 62:1 
1.261517808103359 1:289 2:0 3:289 23:1 28:1 32:1 34:1 43:1 45:1 53:1 57:1 62:1 
0.43529304770685 1:300 2:0 3:300 23:1 28:1 32:1 35:1 43:1 47:1 53:1 54:1 59:1 
0.2468376135278761 1:-273 2:306 3:33 4:1 10:1 18:1 19:1 28:1 33:1 38:1 43:1 45:1 52:1 58:1 59:1 
0.5284968379652163 1:-271 2:306 3:35 4:1 10:1 18:1 19:1 28:1 33:1 35:1 43:1 47:1 49:1 55:1 60:1 
0.06635130987899092 1:-225 2:306 3:81 4:1 10:1 18:1 19:1 28:1 33:1 35:1 40:1 45:1 53:1 58:1 63:1 
1.237704937341642 1:-175 2:306 3:131 4:1 10:1 18:1 19:1 28:1 33:1 34:1 42:1 45:1 49:1 58:1 63:1 
0.3001001657175686 1:-123 2:306 3:183 4:1 10:1 18:1 19:1 28:1 33:1 38:1 39:1 45:1 52:1 54:1 59:1 
0.3085193869033521 1:-104 2:306 3:202 4:1 10:1 18:1 19:1 28:1 33:1 37:1 42:1 45:1 52:1 58:1 59:1 
0.1813603213152865 1:-85 2:306 3:221 4:1 10:1 18:1 19:1 28:1 33:1 38:1 42:1 45:1 53:1 57:1 63:1 
0.3551187969682655 1:-42 2:306 3:264 4:1 10:1 18:1 19:1 28:1 33:1 37:1 42:1 47:1 49:1 54:1 62:1 
1.19467357109282 1:-34 2:306 3:272 4:1 10:1 18:1 19:1 28:1 33:1 38:1 40:1 47:1 49:1 54:1 63:1 
0.512476990295773 1:-17 2:306 3:289 4:1 10:1 18:1 19:1 28:1 33:1 34:1 43:1 45:1 53:1 57:1 62:1 
0.8263933018728837 1:-6 2:306 3:300 4:1 10:1 18:1 19:1 28:1 33:1 35:1 43:1 47:1 53:1 54:1 59:1 
0.5653979964460929 1:19 2:306 3:325 4:1 10:1 18:1 19:1 28:1 33:1 35:1 43:1 47:1 53:1 54:1 59:1 
1.142673998451604 1:92 2:306 3:398 4:1 10:1 18:1 19:1 28:1 33:1 35:1 39:1 48:1 52:1 54:1 59:1 
1.672901001547982 1:458 2:0 3:458 23:1 28:1 32:1 38:1 39:1 45:1 53:1 58:1 63:1 
0.7827729077108323 1:161 2:306 3:467 4:1 10:1 18:1 19:1 28:1 33:1 37:1 40:1 48:1 52:1 57:1 63:1 
1.787681242355834 1:191 2:306 3:497 4:1 10:1 18:1 19:1 28:1 33:1 34:1 43:1 48:1 49:1 56:1 62:1 
0.01755173171663603 1:-498 2:499 3:1 8:1 13:1 14:1 22:1 25:1 33:1 46:1 53:1 57:1 60:1 
0.1454588380468584 1:-464 2:499 3:35 8:1 13:1 14:1 22:1 25:1 33:1 35:1 43:1 47:1 49:1 55:1 60:1 
0.008281419371631848 1:-440 2:499 3:59 8:1 13:1 14:1 22:1 25:1 33:1 38:1 42:1 45:1 53:1 54:1 63:1 
0.03832892876852972 1:-418 2:499 3:81 8:1 13:1 14:1 22:1 25:1 33:1 35:1 40:1 45:1 53:1 58:1 63:1 
0.3275915453638605 1:-356 2:499 3:143 8:1 13:1 14:1 22:1 25:1 33:1 35:1 39:1 45:1 49:1 54:1 63:1 
0.03779013530429032 1:-316 2:499 3:183 8:1 13:1 14:1 22:1 25:1 33:1 38:1 39:1 45:1 52:1 54:1 59:1 
0.0212710522330532 1:-297 2:499 3:202 8:1 13:1 14:1 22:1 25:1 33:1 37:1 42:1 45:1 52:1 58:1 59:1 
0.04162510142098592 1:-278 2:499 3:221 8:1 13:1 14:1 22:1 25:1 33:1 38:1 42:1 45:1 53:1 57:1 63:1 
0.03164546322061022 1:-273 2:499 3:226 8:1 13:1 14:1 22:1 25:1 33:1 37:1 43:1 48:1 49:1 58:1 63:1 
0.0303701226649023 1:-235 2:499 3:264 8:1 13:1 14:1 22:1 25:1 33:1 37:1 42:1 47:1 49:1 54:1 62:1 
0.02656432999101738 1:-210 2:499 3:289 8:1 13:1 14:1 22:1 25:1 33:1 34:1 43:1 45:1 53:1 57:1 62:1 
0.01988473980884978 1:-199 2:499 3:300 8:1 13:1 14:1 22:1 25:1 33:1 35:1 43:1 47:1 53:1 54:1 59:1 
0.02803704706416243 1:-190 2:499 3:309 8:1 13:1 14:1 22:1 25:1 33:1 36:1 39:1 48:1 53:1 57:1 60:1 
0.0353779606218193 1:-174 2:499 3:325 8:1 13:1 14:1 22:1 25:1 33:1 35:1 43:1 47:1 53:1 54:1 59:1 
0.01809376803794756 1:-153 2:499 3:346 8:1 13:1 14:1 22:1 25:1 33:1 34:1 40:1 47:1 53:1 58:1 62:1 
0.03811678502674824 1:-151 2:499 3:348 8:1 13:1 14:1 22:1 25:1 33:1 37:1 43:1 48:1 52:1 58:1 59:1 
0.02056577233444055 1:-121 2:499 3:378 8:1 13:1 14:1 22:1 25:1 33:1 34:1 42:1 48:1 53:1 54:1 63:1 
0.1227730949318514 1:-95 2:499 3:404 8:1 13:1 14:1 22:1 25:1 33:1 34:1 40:1 48:1 49:1 54:1 63:1 
0.03923797439482252 1:-41 2:499 3:458 8:1 13:1 14:1 22:1 25:1 33:1 38:1 39:1 45:1 53:1 58:1 63:1 
0.01741114200819464 1:-32 2:499 3:467 8:1 13:1 14:1 22:1 25:1 33:1 37:1 40:1 48:1 52:1 57:1 63:1 
2.160190925111972 1:-2 2:499 3:497 8:1 13:1 14:1 22:1 25:1 33:1 34:1 43:1 48:1 49:1 56:1 62:1 
1.748141020572212 1:196 2:306 3:502 4:1 10:1 18:1 19:1 28:1 33:1 36:1 42:1 45:1 53:1 54:1 62:1 
0.2188560517743267 1:3 2:499 3:502 8:1 13:1 14:1 22:1 25:1 33:1 36:1 42:1 45:1 53:1 54:1 62:1 
0.7288716657742557 1:513 2:0 3:513 23:1 28:1 32:1 34:1 43:1 47:1 52:1 58:1 63:1 
0.02059265796577253 1:207 2:306 3:513 4:1 10:1 18:1 19:1 28:1 33:1 34:1 43:1 47:1 52:1 58:1 63:1 
0.03217447913195007 1:527 2:0 3:527 23:1 28:1 32:1 37:1 40:1 48:1 52:1 54:1 60:1 
0.05364061429665001 1:221 2:306 3:527 4:1 10:1 18:1 19:1 28:1 33:1 37:1 40:1 48:1 52:1 54:1 60:1 
0.04914278011776801 1:28 2:499 3:527 8:1 13:1 14:1 22:1 25:1 33:1 37:1 40:1 48:1 52:1 54:1 60:1 
0.1104854101623878 1:539 2:0 3:539 23:1 28:1 32:1 35:1 42:1 45:1 53:1 57:1 63:1 
0.03843210589922269 1:233 2:306 3:539 4:1 10:1 18:1 19:1 28:1 33:1 35:1 42:1 45:1 53:1 57:1 63:1 
0.03337180379881088 1:40 2:499 3:539 8:1 13:1 14:1 22:1 25:1 33:1 35:1 42:1 45:1 53:1 57:1 63:1 
0.4796131891347309 1:542 2:0 3:542 23:1 28:1 32:1 38:1 43:1 47:1 49:1 54:1 63:1 
0.02384479989976346 1:236 2:306 3:542 4:1 10:1 18:1 19:1 28:1 33:1 38:1 43:1 47:1 49:1 54:1 63:1 
3 1:-137 2:150 3:13 8:1 9:1 15:1 22:1 28:1 33:1 34:1 41:1 45:1 49:1 56:1 63:1 
1.34045625144449 1:-149 2:162 3:13 5:1 13:1 14:1 22:1 25:1 33:1 34:1 41:1 45:1 49:1 56:1 63:1 
0.3499939002607702 1:159 2:15 3:174 5:1 13:1 14:1 23:1 28:1 33:1 38:1 42:1 48:1 53:1 58:1 63:1 
3 1:-166 2:179 3:13 8:1 13:1 15:1 22:1 25:1 33:1 34:1 41:1 45:1 49:1 56:1 63:1 
3 1:-5 2:179 3:174 8:1 13:1 15:1 22:1 25:1 33:1 38:1 42:1 48:1 53:1 58:1 63:1 
1.579057298703939 1:167 2:15 3:182 5:1 13:1 14:1 23:1 28:1 33:1 36:1 42:1 45:1 53:1 58:1 63:1 
1.05877891081542 1:169 2:15 3:184 5:1 13:1 14:1 23:1 28:1 33:1 35:1 43:1 48:1 53:1 57:1 62:1 
2.193241589638661 1:34 2:150 3:184 8:1 9:1 15:1 22:1 28:1 33:1 35:1 43:1 48:1 53:1 57:1 62:1 
0.5454114845363849 1:22 2:162 3:184 5:1 13:1 14:1 22:1 25:1 33:1 35:1 43:1 48:1 53:1 57:1 62:1 
1.126289281022484 1:14 2:170 3:184 4:1 12:1 14:1 23:1 27:1 33:1 35:1 43:1 48:1 53:1 57:1 62:1 
0.08217848294687363 1:5 2:179 3:184 8:1 13:1 15:1 22:1 25:1 33:1 35:1 43:1 48:1 53:1 57:1 62:1 
0.1976189323370006 1:151 2:46 3:197 8:1 13:1 15:1 23:1 28:1 32:1 38:1 43:1 48:1 53:1 55:1 63:1 
1.864833554416252 1:47 2:150 3:197 8:1 9:1 15:1 22:1 28:1 33:1 38:1 43:1 48:1 53:1 55:1 63:1 
1.473144032870147 1:18 2:179 3:197 8:1 13:1 15:1 22:1 25:1 33:1 38:1 43:1 48:1 53:1 55:1 63:1 
0.07063904208578786 1:-189 2:202 3:13 5:1 13:1 14:1 20:1 27:1 30:1 34:1 41:1 45:1 49:1 56:1 63:1 
1.488130264657166 1:-37 2:202 3:165 5:1 13:1 14:1 20:1 27:1 30:1 36:1 42:1 45:1 53:1 54:1 62:1 
2.012453634435395 1:-28 2:202 3:174 5:1 13:1 14:1 20:1 27:1 30:1 38:1 42:1 48:1 53:1 58:1 63:1 
0.1994154479386401 1:-18 2:202 3:184 5:1 13:1 14:1 20:1 27:1 30:1 35:1 43:1 48:1 53:1 57:1 62:1 
3 1:-5 2:202 3:197 5:1 13:1 14:1 20:1 27:1 30:1 38:1 43:1 48:1 53:1 55:1 63:1 
0.9779261354114527 1:167 2:46 3:213 8:1 13:1 15:1 23:1 28:1 32:1 34:1 40:1 44:1 53:1 54:1 61:1 
1.055913010769323 1:43 2:170 3:213 4:1 12:1 14:1 23:1 27:1 33:1 34:1 40:1 44:1 53:1 54:1 61:1 
1.241635666639253 1:34 2:179 3:213 8:1 13:1 15:1 22:1 25:1 33:1 34:1 40:1 44:1 53:1 54:1 61:1 
1.015882207309048 1:11 2:202 3:213 5:1 13:1 14:1 20:1 27:1 30:1 34:1 40:1 44:1 53:1 54:1 61:1 
0.1472914193734897 1:-215 2:216 3:1 8:1 13:1 14:1 23:1 28:1 31:1 48:1 53:1 55:1 60:1 
2.451074404992473 1:-203 2:216 3:13 8:1 13:1 14:1 23:1 28:1 31:1 34:1 41:1 45:1 49:1 56:1 63:1 
1.017155186149002 1:-51 2:216 3:165 8:1 13:1 14:1 23:1 28:1 31:1 36:1 42:1 45:1 53:1 54:1 62:1 
0.08570079036417623 1:-42 2:216 3:174 8:1 13:1 14:1 23:1 28:1 31:1 38:1 42:1 48:1 53:1 58:1 63:1 
0.04429092849081794 1:-218 2:219 3:1 6:1 13:1 18:1 22:1 28:1 29:1 48:1 53:1 55:1 60:1 
3 1:-206 2:219 3:13 6:1 13:1 18:1 22:1 28:1 29:1 34:1 41:1 45:1 49:1 56:1 63:1 
1.596543411236988 1:-45 2:219 3:174 6:1 13:1 18:1 22:1 28:1 29:1 38:1 42:1 48:1 53:1 58:1 63:1 
2.559074818627737 1:-35 2:219 3:184 6:1 13:1 18:1 22:1 28:1 29:1 35:1 43:1 48:1 53:1 57:1 62:1 
2.142854028335776 1:-22 2:219 3:197 6:1 13:1 18:1 22:1 28:1 29:1 38:1 43:1 48:1 53:1 55:1 63:1 
2.429655435220033 1:-6 2:219 3:213 6:1 13:1 18:1 22:1 28:1 29:1 34:1 40:1 44:1 53:1 54:1 61:1 
0.2375678942408845 1:-43 2:227 3:184 8:1 12:1 15:1 19:1 27:1 33:1 35:1 43:1 48:1 53:1 57:1 62:1 
0.8978104833580834 1:-14 2:227 3:213 8:1 12:1 15:1 19:1 27:1 33:1 34:1 40:1 44:1 53:1 54:1 61:1 
0.4549317506873957 1:199 2:46 3:245 8:1 13:1 15:1 23:1 28:1 32:1 38:1 42:1 45:1 53:1 54:1 63:1 
0.8985807331386308 1:29 2:216 3:245 8:1 13:1 14:1 23:1 28:1 31:1 38:1 42:1 45:1 53:1 54:1 63:1 
1.338158394914572 1:18 2:227 3:245 8:1 12:1 15:1 19:1 27:1 33:1 38:1 42:1 45:1 53:1 54:1 63:1 
1.04514610574456 1:57 2:216 3:273 8:1 13:1 14:1 23:1 28:1 31:1 38:1 39:1 45:1 53:1 58:1 63:1 
1.565231675567251 1:46 2:227 3:273 8:1 12:1 15:1 19:1 27:1 33:1 38:1 39:1 45:1 53:1 58:1 63:1 
0.9590619160411652 1:264 2:11 3:275 8:1 10:1 14:1 20:1 28:1 29:1 35:1 43:1 48:1 53:1 58:1 63:1 
0.0351461031945451 1:260 2:15 3:275 5:1 13:1 14:1 23:1 28:1 33:1 35:1 43:1 48:1 53:1 58:1 63:1 
0.3615978784421073 1:229 2:46 3:275 8:1 13:1 15:1 23:1 28:1 32:1 35:1 43:1 48:1 53:1 58:1 63:1 
1.079668301150239 1:125 2:150 3:275 8:1 9:1 15:1 22:1 28:1 33:1 35:1 43:1 48:1 53:1 58:1 63:1 
0.3046180729697663 1:113 2:162 3:275 5:1 13:1 14:1 22:1 25:1 33:1 35:1 43:1 48:1 53:1 58:1 63:1 
1.496770686290265 1:105 2:170 3:275 4:1 12:1 14:1 23:1 27:1 33:1 35:1 43:1 48:1 53:1 58:1 63:1 
2.112087144967829 1:96 2:179 3:275 8:1 13:1 15:1 22:1 25:1 33:1 35:1 43:1 48:1 53:1 58:1 63:1 
1.111212797238079 1:56 2:219 3:275 6:1 13:1 18:1 22:1 28:1 29:1 35:1 43:1 48:1 53:1 58:1 63:1 
0.4791358345883666 1:117 2:179 3:296 8:1 13:1 15:1 22:1 25:1 33:1 37:1 40:1 48:1 52:1 58:1 60:1 
0.03652192702359743 1:77 2:219 3:296 6:1 13:1 18:1 22:1 28:1 29:1 37:1 40:1 48:1 52:1 58:1 60:1 
1.348513152325834 1:295 2:15 3:310 5:1 13:1 14:1 23:1 28:1 33:1 38:1 42:1 48:1 53:1 58:1 63:1 
0.9666244903577307 1:148 2:162 3:310 5:1 13:1 14:1 22:1 25:1 33:1 38:1 42:1 48:1 53:1 58:1 63:1 
1.104879774862404 1:108 2:202 3:310 5:1 13:1 14:1 20:1 27:1 30:1 38:1 42:1 48:1 53:1 58:1 63:1 
2.064947388045462 1:94 2:216 3:310 8:1 13:1 14:1 23:1 28:1 31:1 38:1 42:1 48:1 53:1 58:1 63:1 
1.80296355347579 1:122 2:202 3:324 5:1 13:1 14:1 20:1 27:1 30:1 38:1 42:1 48:1 52:1 58:1 59:1 
2.821881816016818 1:108 2:216 3:324 8:1 13:1 14:1 23:1 28:1 31:1 38:1 42:1 48:1 52:1 58:1 59:1 
0.7980860511078717 1:-176 2:341 3:165 8:1 13:1 15:1 23:1 27:1 30:1 36:1 42:1 45:1 53:1 54:1 62:1 
0.1292995828756556 1:-159 2:341 3:182 8:1 13:1 15:1 23:1 27:1 30:1 36:1 42:1 45:1 53:1 58:1 63:1 
0.3845948044089806 1:-157 2:341 3:184 8:1 13:1 15:1 23:1 27:1 30:1 35:1 43:1 48:1 53:1 57:1 62:1 
0.8207419861361847 1:-45 2:341 3:296 8:1 13:1 15:1 23:1 27:1 30:1 37:1 40:1 48:1 52:1 58:1 60:1 
0.5676706050792693 1:-31 2:341 3:310 8:1 13:1 15:1 23:1 27:1 30:1 38:1 42:1 48:1 53:1 58:1 63:1 
0.1673732980680348 1:175 2:170 3:345 4:1 12:1 14:1 23:1 27:1 33:1 38:1 42:1 45:1 49:1 58:1 60:1 
0.7332001248283609 1:126 2:219 3:345 6:1 13:1 18:1 22:1 28:1 29:1 38:1 42:1 45:1 49:1 58:1 60:1 
0.561801494743438 1:4 2:341 3:345 8:1 13:1 15:1 23:1 27:1 30:1 38:1 42:1 45:1 49:1 58:1 60:1 
0.09147628103508507 1:149 2:202 3:351 5:1 13:1 14:1 20:1 27:1 30:1 35:1 43:1 47:1 49:1 57:1 62:1 
2.433679708360563 1:135 2:216 3:351 8:1 13:1 14:1 23:1 28:1 31:1 35:1 43:1 47:1 49:1 57:1 62:1 
2.449651528000337 1:-347 2:360 3:13 8:1 13:1 15:1 22:1 25:1 32:1 34:1 41:1 45:1 49:1 56:1 63:1 
0.9385814964101654 1:-176 2:360 3:184 8:1 13:1 15:1 22:1 25:1 32:1 35:1 43:1 48:1 53:1 57:1 62:1 
0.6483094163402749 1:-163 2:360 3:197 8:1 13:1 15:1 22:1 25:1 32:1 38:1 43:1 48:1 53:1 55:1 63:1 
0.1544269287411032 1:-147 2:360 3:213 8:1 13:1 15:1 22:1 25:1 32:1 34:1 40:1 44:1 53:1 54:1 61:1 
1.928121795452845 1:-85 2:360 3:275 8:1 13:1 15:1 22:1 25:1 32:1 35:1 43:1 48:1 53:1 58:1 63:1 
1.058236185141181 1:-15 2:360 3:345 8:1 13:1 15:1 22:1 25:1 32:1 38:1 42:1 45:1 49:1 58:1 60:1 
0.2155554518669936 1:-202 2:376 3:174 7:1 13:1 14:1 19:1 28:1 29:1 38:1 42:1 48:1 53:1 58:1 63:1 
0.370008140003185 1:-192 2:376 3:184 7:1 13:1 14:1 19:1 28:1 29:1 35:1 43:1 48:1 53:1 57:1 62:1 
0.487642050396799 1:-179 2:376 3:197 7:1 13:1 14:1 19:1 28:1 29:1 38:1 43:1 48:1 53:1 55:1 63:1 
0.01097604360708744 1:-103 2:376 3:273 7:1 13:1 14:1 19:1 28:1 29:1 38:1 39:1 45:1 53:1 58:1 63:1 
0.005547489917307279 1:-101 2:376 3:275 7:1 13:1 14:1 19:1 28:1 29:1 35:1 43:1 48:1 53:1 58:1 63:1 
1.687701724822638 1:-52 2:376 3:324 7:1 13:1 14:1 19:1 28:1 29:1 38:1 42:1 48:1 52:1 58:1 59:1 
0.1177021350965295 1:-427 2:428 3:1 8:1 9:1 15:1 22:1 25:1 33:1 48:1 53:1 55:1 60:1 
1.979939462141491 1:-244 2:428 3:184 8:1 9:1 15:1 22:1 25:1 33:1 35:1 43:1 48:1 53:1 57:1 62:1 
0.02560764367430164 1:-231 2:428 3:197 8:1 9:1 15:1 22:1 25:1 33:1 38:1 43:1 48:1 53:1 55:1 63:1 
0.02385997592150586 1:-215 2:428 3:213 8:1 9:1 15:1 22:1 25:1 33:1 34:1 40:1 44:1 53:1 54:1 61:1 
3 1:-153 2:428 3:275 8:1 9:1 15:1 22:1 25:1 33:1 35:1 43:1 48:1 53:1 58:1 63:1 
0.1949499093229788 1:-132 2:428 3:296 8:1 9:1 15:1 22:1 25:1 33:1 37:1 40:1 48:1 52:1 58:1 60:1 
0.6346407832706003 1:-83 2:428 3:345 8:1 9:1 15:1 22:1 25:1 33:1 38:1 42:1 45:1 49:1 58:1 60:1 
0.4885224441890639 1:418 2:15 3:433 5:1 13:1 14:1 23:1 28:1 33:1 35:1 43:1 45:1 53:1 58:1 63:1 
0.0968474054610578 1:387 2:46 3:433 8:1 13:1 15:1 23:1 28:1 32:1 35:1 43:1 45:1 53:1 58:1 63:1 
0.5332305639564884 1:271 2:162 3:433 5:1 13:1 14:1 22:1 25:1 33:1 35:1 43:1 45:1 53:1 58:1 63:1 
0.428374413559202 1:231 2:202 3:433 5:1 13:1 14:1 20:1 27:1 30:1 35:1 43:1 45:1 53:1 58:1 63:1 
2.284351195248969 1:217 2:216 3:433 8:1 13:1 14:1 23:1 28:1 31:1 35:1 43:1 45:1 53:1 58:1 63:1 
0.02887930699109904 1:57 2:376 3:433 7:1 13:1 14:1 19:1 28:1 29:1 35:1 43:1 45:1 53:1 58:1 63:1 
0.9140761060868003 1:-16 2:16 3:0 5:1 9:1 14:1 20:1 25:1 33:1 53:1 55:1 60:1 
0.4750114085248894 1:12 2:16 3:28 5:1 9:1 14:1 20:1 25:1 33:1 38:1 42:1 48:1 53:1 54:1 60:1 
0.3025132160786908 1:16 2:16 3:32 5:1 9:1 14:1 20:1 25:1 33:1 38:1 39:1 45:1 49:1 56:1 63:1 
0.09085309758701549 1:-34 2:34 3:0 5:1 13:1 14:1 23:1 27:1 33:1 53:1 55:1 60:1 
1.662548455450801 1:-20 2:48 3:28 8:1 12:1 15:1 22:1 25:1 31:1 38:1 42:1 48:1 53:1 54:1 60:1 
1.231202278017163 1:-16 2:48 3:32 8:1 12:1 15:1 22:1 25:1 31:1 38:1 39:1 45:1 49:1 56:1 63:1 
3 1:-40 2:51 3:11 6:1 12:1 15:1 22:1 28:1 32:1 34:1 39:1 45:1 49:1 55:1 59:1 
0.1348398282534197 1:-42 2:74 3:32 5:1 12:1 18:1 23:1 28:1 33:1 38:1 39:1 45:1 49:1 56:1 63:1 
0.839293066976128 1:70 2:16 3:86 5:1 9:1 14:1 20:1 25:1 33:1 34:1 43:1 47:1 49:1 58:1 59:1 
1.527265063220539 1:38 2:48 3:86 8:1 12:1 15:1 22:1 25:1 31:1 34:1 43:1 47:1 49:1 58:1 59:1 
0.5405722432903948 1:12 2:74 3:86 5:1 12:1 18:1 23:1 28:1 33:1 34:1 43:1 47:1 49:1 58:1 59:1 
2.785972880294014 1:79 2:16 3:95 5:1 9:1 14:1 20:1 25:1 33:1 38:1 40:1 48:1 53:1 57:1 63:1 
1.614933054507887 1:47 2:48 3:95 8:1 12:1 15:1 22:1 25:1 31:1 38:1 40:1 48:1 53:1 57:1 63:1 
0.8131757483468638 1:-99 2:99 3:0 8:1 12:1 18:1 19:1 28:1 30:1 53:1 55:1 60:1 
2.150706332565796 1:-88 2:99 3:11 8:1 12:1 18:1 19:1 28:1 30:1 34:1 39:1 45:1 49:1 55:1 59:1 
3 1:-4 2:99 3:95 8:1 12:1 18:1 19:1 28:1 30:1 38:1 40:1 48:1 53:1 57:1 63:1 
3 1:-92 2:103 3:11 4:1 13:1 15:1 22:1 25:1 33:1 34:1 39:1 45:1 49:1 55:1 59:1 
2.44393238188765 1:75 2:34 3:109 5:1 13:1 14:1 23:1 27:1 33:1 38:1 39:1 48:1 49:1 58:1 60:1 
1.334718990483878 1:58 2:51 3:109 6:1 12:1 15:1 22:1 28:1 32:1 38:1 39:1 48:1 49:1 58:1 60:1 
0.1909834227034395 1:10 2:99 3:109 8:1 12:1 18:1 19:1 28:1 30:1 38:1 39:1 48:1 49:1 58:1 60:1 
0.1080341620830099 1:-104 2:136 3:32 7:1 13:1 18:1 20:1 24:1 32:1 38:1 39:1 45:1 49:1 56:1 63:1 
0.9463128957789559 1:158 2:16 3:174 5:1 9:1 14:1 20:1 25:1 33:1 38:1 43:1 45:1 49:1 57:1 62:1 
0.891494688272037 1:126 2:48 3:174 8:1 12:1 15:1 22:1 25:1 31:1 38:1 43:1 45:1 49:1 57:1 62:1 
0.4536178916799113 1:38 2:136 3:174 7:1 13:1 18:1 20:1 24:1 32:1 38:1 43:1 45:1 49:1 57:1 62:1 
0.4479332178149467 1:-174 2:185 3:11 4:1 13:1 17:1 20:1 25:1 33:1 34:1 39:1 45:1 49:1 55:1 59:1 
0.2283478418649764 1:-153 2:185 3:32 4:1 13:1 17:1 20:1 25:1 33:1 38:1 39:1 45:1 49:1 56:1 63:1 
1.078128187183974 1:-23 2:35 3:12 8:1 9:1 15:1 20:1 28:1 32:1 34:1 41:1 45:1 49:1 56:1 63:1 
2.068719744205802 1:-7 2:35 3:28 8:1 9:1 15:1 20:1 28:1 32:1 38:1 42:1 45:1 53:1 54:1 62:1 
0.2309985033565572 1:3 2:57 3:60 4:1 13:1 15:1 23:1 27:1 33:1 36:1 43:1 47:1 49:1 57:1 59:1 
0.009284858936982216 1:32 2:35 3:67 8:1 9:1 15:1 20:1 28:1 32:1 35:1 43:1 45:1 49:1 57:1 63:1 
0.7011596596403297 1:84 2:35 3:119 8:1 9:1 15:1 20:1 28:1 32:1 38:1 42:1 45:1 53:1 54:1 63:1 
0.2336471943081849 1:-206 2:206 3:0 7:1 12:1 15:1 23:1 27:1 30:1 53:1 55:1 60:1 
0.605839726684594 1:-146 2:206 3:60 7:1 12:1 15:1 23:1 27:1 30:1 36:1 43:1 47:1 49:1 57:1 59:1 
0.3253809059450175 1:189 2:4 3:193 5:1 13:1 17:1 20:1 25:1 30:1 37:1 43:1 48:1 53:1 54:1 63:1 
0.4395271663077545 1:139 2:54 3:193 4:1 10:1 15:1 23:1 25:1 30:1 37:1 43:1 48:1 53:1 54:1 63:1 
1.728198337132823 1:65 2:128 3:193 4:1 10:1 15:1 23:1 25:1 30:1 37:1 43:1 48:1 53:1 54:1 63:1 
0.6805700268247231 1:22 2:171 3:193 8:1 12:1 14:1 19:1 28:1 29:1 37:1 43:1 48:1 53:1 54:1 63:1 
1.406442580698606 1:16 2:177 3:193 4:1 10:1 15:1 23:1 25:1 30:1 37:1 43:1 48:1 53:1 54:1 63:1 
0.5790248644468874 1:-29 2:222 3:193 4:1 10:1 15:1 23:1 25:1 30:1 37:1 43:1 48:1 53:1 54:1 63:1 
0.129964890243583 1:226 2:4 3:230 5:1 13:1 17:1 20:1 25:1 30:1 34:1 42:1 44:1 52:1 56:1 63:1 
0.6360278874842209 1:176 2:54 3:230 4:1 10:1 15:1 23:1 25:1 30:1 34:1 42:1 44:1 52:1 56:1 63:1 
0.1084305754025956 1:140 2:90 3:230 8:1 10:1 15:1 23:1 25:1 30:1 34:1 42:1 44:1 52:1 56:1 63:1 
2.809289807340237 1:102 2:128 3:230 4:1 10:1 15:1 23:1 25:1 30:1 34:1 42:1 44:1 52:1 56:1 63:1 
0.7681812035283417 1:59 2:171 3:230 8:1 12:1 14:1 19:1 28:1 29:1 34:1 42:1 44:1 52:1 56:1 63:1 
0.6386588714182165 1:53 2:177 3:230 4:1 10:1 15:1 23:1 25:1 30:1 34:1 42:1 44:1 52:1 56:1 63:1 
0.4782018416833685 1:-39 2:232 3:193 4:1 13:1 17:1 23:1 27:1 33:1 37:1 43:1 48:1 53:1 54:1 63:1 
1.234661742763974 1:-57 2:250 3:193 8:1 9:1 15:1 23:1 25:1 29:1 37:1 43:1 48:1 53:1 54:1 63:1 
0.9691337893992218 1:-20 2:250 3:230 8:1 9:1 15:1 23:1 25:1 29:1 34:1 42:1 44:1 52:1 56:1 63:1 
1.224723964295597 1:-69 2:262 3:193 8:1 10:1 15:1 23:1 25:1 30:1 37:1 43:1 48:1 53:1 54:1 63:1 
0.3260811328264899 1:-32 2:262 3:230 8:1 10:1 15:1 23:1 25:1 30:1 34:1 42:1 44:1 52:1 56:1 63:1 
0.1252874633233608 1:-81 2:274 3:193 8:1 13:1 14:1 23:1 28:1 33:1 37:1 43:1 48:1 53:1 54:1 63:1 
0.2496317643368565 1:-44 2:274 3:230 8:1 13:1 14:1 23:1 28:1 33:1 34:1 42:1 44:1 52:1 56:1 63:1 
0.623389955329416 1:-118 2:311 3:193 8:1 9:1 18:1 23:1 28:1 29:1 37:1 43:1 48:1 53:1 54:1 63:1 
0.6952409885767284 1:-135 2:328 3:193 8:1 10:1 15:1 19:1 28:1 30:1 37:1 43:1 48:1 53:1 54:1 63:1 
1.111466130087823 1:271 2:75 3:346 5:1 13:1 18:1 22:1 27:1 31:1 37:1 39:1 45:1 53:1 58:1 60:1 
0.1340648890217177 1:256 2:90 3:346 8:1 10:1 15:1 23:1 25:1 30:1 37:1 39:1 45:1 53:1 58:1 60:1 
0.6209588860145249 1:175 2:171 3:346 8:1 12:1 14:1 19:1 28:1 29:1 37:1 39:1 45:1 53:1 58:1 60:1 
0.1970665047320442 1:124 2:222 3:346 4:1 10:1 15:1 23:1 25:1 30:1 37:1 39:1 45:1 53:1 58:1 60:1 
0.5287491879681749 1:91 2:255 3:346 5:1 9:1 18:1 22:1 24:1 32:1 37:1 39:1 45:1 53:1 58:1 60:1 
0.5643691610315534 1:305 2:54 3:359 4:1 10:1 15:1 23:1 25:1 30:1 35:1 39:1 44:1 50:1 58:1 60:1 
1.283051224129255 1:269 2:90 3:359 8:1 10:1 15:1 23:1 25:1 30:1 35:1 39:1 44:1 50:1 58:1 60:1 
0.9626230472671418 1:188 2:171 3:359 8:1 12:1 14:1 19:1 28:1 29:1 35:1 39:1 44:1 50:1 58:1 60:1 
1.610432187208661 1:137 2:222 3:359 4:1 10:1 15:1 23:1 25:1 30:1 35:1 39:1 44:1 50:1 58:1 60:1 
0.01274162299900802 1:127 2:232 3:359 4:1 13:1 17:1 23:1 27:1 33:1 35:1 39:1 44:1 50:1 58:1 60:1 
2.354045660190586 1:104 2:255 3:359 5:1 9:1 18:1 22:1 24:1 32:1 35:1 39:1 44:1 50:1 58:1 60:1 
0.7263648873639461 1:97 2:262 3:359 8:1 10:1 15:1 23:1 25:1 30:1 35:1 39:1 44:1 50:1 58:1 60:1 
1.765619036989753 1:48 2:311 3:359 8:1 9:1 18:1 23:1 28:1 29:1 35:1 39:1 44:1 50:1 58:1 60:1 
0.5807041336982739 1:31 2:328 3:359 8:1 10:1 15:1 19:1 28:1 30:1 35:1 39:1 44:1 50:1 58:1 60:1 
0.3449376696312366 1:-136 2:366 3:230 8:1 12:1 14:1 20:1 28:1 30:1 34:1 42:1 44:1 52:1 56:1 63:1 
0.2183989466614951 1:-186 2:379 3:193 8:1 10:1 15:1 23:1 25:1 37:1 43:1 48:1 53:1 54:1 63:1 
0.0481173195483899 1:-149 2:379 3:230 8:1 10:1 15:1 23:1 25:1 34:1 42:1 44:1 52:1 56:1 63:1 
0.963826638667646 1:41 2:72 3:113 8:1 13:1 15:1 22:1 26:1 30:1 38:1 43:1 47:1 53:1 54:1 60:1 
0.9005538520137898 1:39 2:74 3:113 5:1 11:1 17:1 20:1 28:1 33:1 38:1 43:1 47:1 53:1 54:1 60:1 
0.1110044447601894 1:147 2:72 3:219 8:1 13:1 15:1 22:1 26:1 30:1 35:1 43:1 48:1 52:1 54:1 60:1 
0.108260707865798 1:145 2:74 3:219 5:1 11:1 17:1 20:1 28:1 33:1 35:1 43:1 48:1 52:1 54:1 60:1 
0.0321025045017637 1:-153 2:266 3:113 7:1 13:1 15:1 20:1 28:1 33:1 38:1 43:1 47:1 53:1 54:1 60:1 
1.504582548821607 1:-201 2:314 3:113 7:1 13:1 14:1 22:1 27:1 30:1 38:1 43:1 47:1 53:1 54:1 60:1 
0.387790756860816 1:256 2:74 3:330 5:1 11:1 17:1 20:1 28:1 33:1 34:1 39:1 45:1 50:1 54:1 60:1 
0.8196285706259835 1:64 2:266 3:330 7:1 13:1 15:1 20:1 28:1 33:1 34:1 39:1 45:1 50:1 54:1 60:1 
1.102608398344432 1:16 2:314 3:330 7:1 13:1 14:1 22:1 27:1 30:1 34:1 39:1 45:1 50:1 54:1 60:1 
0.2289764947360729 1:-267 2:380 3:113 8:1 12:1 14:1 20:1 28:1 33:1 38:1 43:1 47:1 53:1 54:1 60:1 
1.294332628403435 1:-71 2:380 3:309 8:1 12:1 14:1 20:1 28:1 33:1 34:1 43:1 48:1 49:1 57:1 63:1 
0.6721788662567958 1:-284 2:397 3:113 8:1 13:1 14:1 19:1 28:1 32:1 38:1 43:1 47:1 53:1 54:1 60:1 
0.2070814962092442 1:-178 2:397 3:219 8:1 13:1 14:1 19:1 28:1 32:1 35:1 43:1 48:1 52:1 54:1 60:1 
0.5482527085283465 1:-88 2:397 3:309 8:1 13:1 14:1 19:1 28:1 32:1 34:1 43:1 48:1 49:1 57:1 63:1 
0.03983805048270658 1:27 2:380 3:407 8:1 12:1 14:1 20:1 28:1 33:1 38:1 40:1 48:1 53:1 58:1 59:1 
0.9276758443836171 1:10 2:397 3:407 8:1 13:1 14:1 19:1 28:1 32:1 38:1 40:1 48:1 53:1 58:1 59:1 
1.39598395602752 1:-307 2:420 3:113 8:1 10:1 18:1 23:1 24:1 33:1 38:1 43:1 47:1 53:1 54:1 60:1 
0.007772558133150317 1:-201 2:420 3:219 8:1 10:1 18:1 23:1 24:1 33:1 35:1 43:1 48:1 52:1 54:1 60:1 
0.05672540725579089 1:-444 2:557 3:113 5:1 13:1 17:1 23:1 28:1 29:1 38:1 43:1 47:1 53:1 54:1 60:1 
0.0569785784689219 1:-338 2:557 3:219 5:1 13:1 17:1 23:1 28:1 29:1 35:1 43:1 48:1 52:1 54:1 60:1 
0.03916533561522981 1:-248 2:557 3:309 5:1 13:1 17:1 23:1 28:1 29:1 34:1 43:1 48:1 49:1 57:1 63:1 
0.04356515853518345 1:-227 2:557 3:330 5:1 13:1 17:1 23:1 28:1 29:1 34:1 39:1 45:1 50:1 54:1 60:1 
0.05621284013254768 1:-150 2:557 3:407 5:1 13:1 17:1 23:1 28:1 29:1 38:1 40:1 48:1 53:1 58:1 59:1 
1.700736817955318 1:15 2:16 3:31 7:1 13:1 18:1 23:1 28:1 33:1 34:1 43:1 44:1 52:1 58:1 63:1 
0.8926349815809059 1:17 2:16 3:33 7:1 13:1 18:1 23:1 28:1 33:1 34:1 43:1 47:1 53:1 54:1 59:1 
1.144816155746206 1:23 2:16 3:39 7:1 13:1 18:1 23:1 28:1 33:1 34:1 42:1 45:1 49:1 56:1 60:1 
0.6570240671253611 1:-31 2:41 3:10 5:1 13:1 14:1 20:1 28:1 32:1 36:1 42:1 45:1 53:1 54:1 62:1 
0.7152950540439477 1:-8 2:41 3:33 5:1 13:1 14:1 20:1 28:1 32:1 34:1 43:1 47:1 53:1 54:1 59:1 
1.081940743406472 1:32 2:16 3:48 7:1 13:1 18:1 23:1 28:1 33:1 38:1 39:1 45:1 53:1 55:1 63:1 
0.4781863761310138 1:35 2:16 3:51 7:1 13:1 18:1 23:1 28:1 33:1 38:1 43:1 45:1 49:1 54:1 63:1 
0.7321377696940283 1:14 2:41 3:55 5:1 13:1 14:1 20:1 28:1 32:1 34:1 39:1 48:1 49:1 58:1 59:1 
0.4873926335674421 1:38 2:41 3:79 5:1 13:1 14:1 20:1 28:1 32:1 34:1 39:1 48:1 52:1 58:1 63:1 
1.521830978422524 1:-71 2:85 3:14 8:1 9:1 14:1 22:1 25:1 31:1 38:1 39:1 47:1 53:1 56:1 63:1 
2.056613447579642 1:-54 2:85 3:31 8:1 9:1 14:1 22:1 25:1 31:1 34:1 43:1 44:1 52:1 58:1 63:1 
1.462497198533268 1:-52 2:85 3:33 8:1 9:1 14:1 22:1 25:1 31:1 34:1 43:1 47:1 53:1 54:1 59:1 
0.465415420083381 1:-46 2:85 3:39 8:1 9:1 14:1 22:1 25:1 31:1 34:1 42:1 45:1 49:1 56:1 60:1 
1.347199319525769 1:-37 2:85 3:48 8:1 9:1 14:1 22:1 25:1 31:1 38:1 39:1 45:1 53:1 55:1 63:1 
1.857762604411437 1:-34 2:85 3:51 8:1 9:1 14:1 22:1 25:1 31:1 38:1 43:1 45:1 49:1 54:1 63:1 
2.84840246408995 1:-4 2:85 3:81 8:1 9:1 14:1 22:1 25:1 31:1 38:1 43:1 47:1 53:1 54:1 59:1 
0.7023928770178415 1:-57 2:88 3:31 6:1 12:1 15:1 23:1 24:1 29:1 34:1 43:1 44:1 52:1 58:1 63:1 
0.861668642394474 1:-37 2:88 3:51 6:1 12:1 15:1 23:1 24:1 29:1 38:1 43:1 45:1 49:1 54:1 63:1 
2.167323314117662 1:-7 2:88 3:81 6:1 12:1 15:1 23:1 24:1 29:1 38:1 43:1 47:1 53:1 54:1 59:1 
0.4006497170824688 1:-66 2:97 3:31 8:1 9:1 15:1 22:1 25:1 30:1 34:1 43:1 44:1 52:1 58:1 63:1 
1.146090556205378 1:-64 2:97 3:33 8:1 9:1 15:1 22:1 25:1 30:1 34:1 43:1 47:1 53:1 54:1 59:1 
0.7665560416648028 1:-58 2:97 3:39 8:1 9:1 15:1 22:1 25:1 30:1 34:1 42:1 45:1 49:1 56:1 60:1 
0.5417822803653521 1:-46 2:97 3:51 8:1 9:1 15:1 22:1 25:1 30:1 38:1 43:1 45:1 49:1 54:1 63:1 
0.2909012771985485 1:96 2:16 3:112 7:1 13:1 18:1 23:1 28:1 33:1 35:1 43:1 48:1 53:1 58:1 62:1 
0.2541918488991732 1:27 2:85 3:112 8:1 9:1 14:1 22:1 25:1 31:1 35:1 43:1 48:1 53:1 58:1 62:1 
1.649502233838295 1:36 2:85 3:121 8:1 9:1 14:1 22:1 25:1 31:1 35:1 43:1 47:1 53:1 54:1 63:1 
0.4901077577539147 1:33 2:88 3:121 6:1 12:1 15:1 23:1 24:1 29:1 35:1 43:1 47:1 53:1 54:1 63:1 
0.9489275126985789 1:24 2:97 3:121 8:1 9:1 15:1 22:1 25:1 30:1 35:1 43:1 47:1 53:1 54:1 63:1 
0.5324956466594585 1:124 2:7 3:131 5:1 13:1 14:1 22:1 25:1 33:1 38:1 43:1 47:1 50:1 58:1 59:1 
1.933919355185753 1:90 2:41 3:131 5:1 13:1 14:1 20:1 28:1 32:1 38:1 43:1 47:1 50:1 58:1 59:1 
1.844260694102635 1:117 2:16 3:133 7:1 13:1 18:1 23:1 28:1 33:1 37:1 43:1 45:1 49:1 58:1 62:1 
0.3230911993310482 1:48 2:85 3:133 8:1 9:1 14:1 22:1 25:1 31:1 37:1 43:1 45:1 49:1 58:1 62:1 
2.55793873307899 1:45 2:88 3:133 6:1 12:1 15:1 23:1 24:1 29:1 37:1 43:1 45:1 49:1 58:1 62:1 
0.4455161284287534 1:36 2:97 3:133 8:1 9:1 15:1 22:1 25:1 30:1 37:1 43:1 45:1 49:1 58:1 62:1 
0.7149721484049415 1:62 2:85 3:147 8:1 9:1 14:1 22:1 25:1 31:1 35:1 43:1 47:1 53:1 54:1 63:1 
0.1171578411680858 1:50 2:97 3:147 8:1 9:1 15:1 22:1 25:1 30:1 35:1 43:1 47:1 53:1 54:1 63:1 
0.9758299963146719 1:111 2:41 3:152 5:1 13:1 14:1 20:1 28:1 32:1 34:1 43:1 47:1 50:1 58:1 63:1 
0.2934154343628859 1:138 2:16 3:154 7:1 13:1 18:1 23:1 28:1 33:1 37:1 43:1 45:1 53:1 58:1 63:1 
2.53060722759664 1:69 2:85 3:154 8:1 9:1 14:1 22:1 25:1 31:1 37:1 43:1 45:1 53:1 58:1 63:1 
1.605586007816467 1:66 2:88 3:154 6:1 12:1 15:1 23:1 24:1 29:1 37:1 43:1 45:1 53:1 58:1 63:1 
1.661403864401869 1:57 2:97 3:154 8:1 9:1 15:1 22:1 25:1 30:1 37:1 43:1 45:1 53:1 58:1 63:1 
0.3460681203034588 1:123 2:41 3:164 5:1 13:1 14:1 20:1 28:1 32:1 34:1 40:1 48:1 53:1 58:1 59:1 
0.2806007841595174 1:79 2:85 3:164 8:1 9:1 14:1 22:1 25:1 31:1 34:1 40:1 48:1 53:1 58:1 59:1 
0.75749542019205 1:76 2:88 3:164 6:1 12:1 15:1 23:1 24:1 29:1 34:1 40:1 48:1 53:1 58:1 59:1 
0.3160725838632704 1:158 2:16 3:174 7:1 13:1 18:1 23:1 28:1 33:1 37:1 43:1 45:1 53:1 58:1 62:1 
0.2917574481828986 1:133 2:41 3:174 5:1 13:1 14:1 20:1 28:1 32:1 37:1 43:1 45:1 53:1 58:1 62:1 
1.567810856410229 1:89 2:85 3:174 8:1 9:1 14:1 22:1 25:1 31:1 37:1 43:1 45:1 53:1 58:1 62:1 
0.3766744929835399 1:77 2:97 3:174 8:1 9:1 15:1 22:1 25:1 30:1 37:1 43:1 45:1 53:1 58:1 62:1 
0.09839598673017774 1:-160 2:191 3:31 4:1 10:1 15:1 23:1 28:1 32:1 34:1 43:1 44:1 52:1 58:1 63:1 
1.770210569609495 1:-140 2:191 3:51 4:1 10:1 15:1 23:1 28:1 32:1 38:1 43:1 45:1 49:1 54:1 63:1 
0.4873269932329172 1:-110 2:191 3:81 4:1 10:1 15:1 23:1 28:1 32:1 38:1 43:1 47:1 53:1 54:1 59:1 
0.04968390470933995 1:-79 2:191 3:112 4:1 10:1 15:1 23:1 28:1 32:1 35:1 43:1 48:1 53:1 58:1 62:1 
2.718334893678987 1:-58 2:191 3:133 4:1 10:1 15:1 23:1 28:1 32:1 37:1 43:1 45:1 49:1 58:1 62:1 
0.9996806683546661 1:-44 2:191 3:147 4:1 10:1 15:1 23:1 28:1 32:1 35:1 43:1 47:1 53:1 54:1 63:1 
1.887162687475019 1:-37 2:191 3:154 4:1 10:1 15:1 23:1 28:1 32:1 37:1 43:1 45:1 53:1 58:1 63:1 
0.06810938651127063 1:177 2:16 3:193 7:1 13:1 18:1 23:1 28:1 33:1 35:1 41:1 48:1 52:1 54:1 60:1 
0.8980551876443452 1:152 2:41 3:193 5:1 13:1 14:1 20:1 28:1 32:1 35:1 41:1 48:1 52:1 54:1 60:1 
0.3174509367415121 1:108 2:85 3:193 8:1 9:1 14:1 22:1 25:1 31:1 35:1 41:1 48:1 52:1 54:1 60:1 
0.3395009335365145 1:105 2:88 3:193 6:1 12:1 15:1 23:1 24:1 29:1 35:1 41:1 48:1 52:1 54:1 60:1 
0.1691349337967443 1:190 2:7 3:197 5:1 13:1 14:1 22:1 25:1 33:1 37:1 39:1 45:1 49:1 56:1 63:1 
0.6083033580786663 1:-144 2:199 3:55 5:1 13:1 14:1 23:1 28:1 29:1 34:1 39:1 48:1 49:1 58:1 59:1 
1.7109378061767 1:-120 2:199 3:79 5:1 13:1 14:1 23:1 28:1 29:1 34:1 39:1 48:1 52:1 58:1 63:1 
0.5995222560733264 1:-68 2:199 3:131 5:1 13:1 14:1 23:1 28:1 29:1 38:1 43:1 47:1 50:1 58:1 59:1 
3 1:-47 2:199 3:152 5:1 13:1 14:1 23:1 28:1 29:1 34:1 43:1 47:1 50:1 58:1 63:1 
1.17715976393394 1:-35 2:199 3:164 5:1 13:1 14:1 23:1 28:1 29:1 34:1 40:1 48:1 53:1 58:1 59:1 
0.8066815082005431 1:115 2:88 3:203 6:1 12:1 15:1 23:1 24:1 29:1 38:1 43:1 44:1 53:1 58:1 63:1 
0.06866538363805488 1:106 2:97 3:203 8:1 9:1 15:1 22:1 25:1 30:1 38:1 43:1 44:1 53:1 58:1 63:1 
0.2644135566309815 1:120 2:85 3:205 8:1 9:1 14:1 22:1 25:1 31:1 34:1 43:1 48:1 53:1 54:1 59:1 
2.830367666146552 1:-7 2:77 3:70 8:1 13:1 15:1 22:1 27:1 30:1 35:1 43:1 44:1 53:1 54:1 61:1 
2.496265108091811 1:-31 2:101 3:70 8:1 9:1 15:1 22:1 26:1 33:1 35:1 43:1 44:1 53:1 54:1 61:1 
1.533636962236637 1:104 2:73 3:177 8:1 13:1 14:1 23:1 28:1 30:1 37:1 39:1 45:1 50:1 54:1 62:1 
1.403571670058442 1:74 2:103 3:177 5:1 11:1 17:1 23:1 24:1 33:1 37:1 39:1 45:1 50:1 54:1 62:1 
0.1973155148911055 1:37 2:140 3:177 8:1 13:1 14:1 22:1 24:1 33:1 37:1 39:1 45:1 50:1 54:1 62:1 
0.04086772232119686 1:29 2:148 3:177 8:1 12:1 16:1 23:1 24:1 30:1 37:1 39:1 45:1 50:1 54:1 62:1 
1.134445636197376 1:-148 2:218 3:70 4:1 13:1 18:1 20:1 35:1 43:1 44:1 53:1 54:1 61:1 
0.3580548899429694 1:4 2:32 3:36 4:1 13:1 18:1 20:1 24:1 32:1 35:1 39:1 47:1 49:1 56:1 60:1 
3 1:2 2:38 3:40 7:1 13:1 14:1 20:1 28:1 29:1 34:1 41:1 45:1 49:1 56:1 60:1 
3 1:-6 2:42 3:36 5:1 13:1 14:1 20:1 28:1 33:1 35:1 39:1 47:1 49:1 56:1 60:1 
3 1:2 2:42 3:44 5:1 13:1 14:1 20:1 28:1 33:1 34:1 41:1 45:1 53:1 54:1 61:1 
0.4835862070147214 1:-11 2:47 3:36 8:1 13:1 14:1 23:1 28:1 33:1 35:1 39:1 47:1 49:1 56:1 60:1 
3 1:-7 2:47 3:40 8:1 13:1 14:1 23:1 28:1 33:1 34:1 41:1 45:1 49:1 56:1 60:1 
1.993278687149172 1:-15 2:59 3:44 8:1 13:1 15:1 22:1 25:1 33:1 34:1 41:1 45:1 53:1 54:1 61:1 
1.611889237533673 1:51 2:14 3:65 5:1 13:1 18:1 19:1 28:1 33:1 38:1 43:1 45:1 49:1 57:1 63:1 
4.004097352279579e-05 1:23 2:42 3:65 5:1 13:1 14:1 20:1 28:1 33:1 38:1 43:1 45:1 49:1 57:1 63:1 
0.4666200718150249 1:18 2:47 3:65 8:1 13:1 14:1 23:1 28:1 33:1 38:1 43:1 45:1 49:1 57:1 63:1 
3 1:6 2:59 3:65 8:1 13:1 15:1 22:1 25:1 33:1 38:1 43:1 45:1 49:1 57:1 63:1 
0.2062316827002973 1:63 2:32 3:95 4:1 13:1 18:1 20:1 24:1 32:1 35:1 40:1 45:1 53:1 58:1 60:1 
0.4963820598819843 1:120 2:14 3:134 5:1 13:1 18:1 19:1 28:1 33:1 35:1 43:1 45:1 52:1 55:1 60:1 
3 1:96 2:38 3:134 7:1 13:1 14:1 20:1 28:1 29:1 35:1 43:1 45:1 52:1 55:1 60:1 
1.78372486161022 1:87 2:47 3:134 8:1 13:1 14:1 23:1 28:1 33:1 35:1 43:1 45:1 52:1 55:1 60:1 
0.3459712351801317 1:136 2:7 3:143 5:1 13:1 14:1 22:1 25:1 33:1 34:1 40:1 48:1 53:1 58:1 63:1 
1.32113604477611 1:105 2:38 3:143 7:1 13:1 14:1 20:1 28:1 29:1 34:1 40:1 48:1 53:1 58:1 63:1 
2.180593051427365 1:96 2:47 3:143 8:1 13:1 14:1 23:1 28:1 33:1 34:1 40:1 48:1 53:1 58:1 63:1 
2.002991180582933 1:84 2:59 3:143 8:1 13:1 15:1 22:1 25:1 33:1 34:1 40:1 48:1 53:1 58:1 63:1 
0.01703418979111528 1:135 2:42 3:177 5:1 13:1 14:1 20:1 28:1 33:1 35:1 39:1 48:1 53:1 58:1 59:1 
0.5394622769520863 1:118 2:59 3:177 8:1 13:1 15:1 22:1 25:1 33:1 35:1 39:1 48:1 53:1 58:1 59:1 
0.01619910429438368 1:181 2:7 3:188 5:1 13:1 14:1 22:1 25:1 33:1 37:1 43:1 48:1 49:1 58:1 63:1 
2.075420577030113 1:129 2:59 3:188 8:1 13:1 15:1 22:1 25:1 33:1 37:1 43:1 48:1 49:1 58:1 63:1 
0.2846549695426229 1:-12 2:175 3:163 8:1 13:1 14:1 19:1 25:1 33:1 38:1 42:1 48:1 53:1 58:1 59:1 
0.5155042138952115 1:-297 2:298 3:1 4:1 13:1 14:1 23:1 25:1 33:1 48:1 53:1 55:1 63:1 
0.5170609079279457 1:-277 2:298 3:21 4:1 13:1 14:1 23:1 25:1 33:1 37:1 43:1 45:1 50:1 55:1 60:1 
0.6415340947078544 1:1 2:17 3:18 5:1 9:1 15:1 23:1 28:1 33:1 34:1 40:1 46:1 53:1 58:1 63:1 
1.480563845618416 1:-37 2:64 3:27 7:1 9:1 15:1 20:1 28:1 29:1 34:1 40:1 45:1 53:1 54:1 59:1 
2.405209176735826 1:49 2:17 3:66 5:1 9:1 15:1 23:1 28:1 33:1 35:1 41:1 45:1 49:1 58:1 63:1 
1.336913794765555 1:2 2:64 3:66 7:1 9:1 15:1 20:1 28:1 29:1 35:1 41:1 45:1 49:1 58:1 63:1 
0.9441026346947997 1:130 2:17 3:147 5:1 9:1 15:1 23:1 28:1 33:1 34:1 42:1 48:1 49:1 56:1 63:1 
0.5749396204917688 1:83 2:64 3:147 7:1 9:1 15:1 20:1 28:1 29:1 34:1 42:1 48:1 49:1 56:1 63:1 
0.2098485705433218 1:-122 2:149 3:27 8:1 13:1 14:1 23:1 28:1 30:1 34:1 40:1 45:1 53:1 54:1 59:1 
0.177490106954847 1:-83 2:149 3:66 8:1 13:1 14:1 23:1 28:1 30:1 35:1 41:1 45:1 49:1 58:1 63:1 
0.358635445454054 1:-63 2:149 3:86 8:1 13:1 14:1 23:1 28:1 30:1 34:1 43:1 48:1 49:1 58:1 62:1 
0.3981862764259224 1:-162 2:189 3:27 8:1 10:1 18:1 22:1 28:1 33:1 34:1 40:1 45:1 53:1 54:1 59:1 
0.279086830454486 1:-103 2:189 3:86 8:1 10:1 18:1 22:1 28:1 33:1 34:1 43:1 48:1 49:1 58:1 62:1 
0.4655390866434796 1:-192 2:219 3:27 4:1 13:1 17:1 23:1 24:1 30:1 34:1 40:1 45:1 53:1 54:1 59:1 
0.402724349313153 1:-133 2:219 3:86 4:1 13:1 17:1 23:1 24:1 30:1 34:1 43:1 48:1 49:1 58:1 62:1 
0.0712235090423038 1:-120 2:219 3:99 4:1 13:1 17:1 23:1 24:1 30:1 38:1 42:1 48:1 53:1 58:1 63:1 
0.7346901071321695 1:169 2:64 3:233 7:1 9:1 15:1 20:1 28:1 29:1 37:1 43:1 44:1 49:1 58:1 63:1 
0.9408806259537508 1:84 2:149 3:233 8:1 13:1 14:1 23:1 28:1 30:1 37:1 43:1 44:1 49:1 58:1 63:1 
0.4157246896670743 1:44 2:189 3:233 8:1 10:1 18:1 22:1 28:1 33:1 37:1 43:1 44:1 49:1 58:1 63:1 
0.07645955667382255 1:-255 2:256 3:1 8:1 13:1 18:1 20:1 28:1 32:1 48:1 53:1 58:1 63:1 
1.22882998101429 1:-120 2:256 3:136 8:1 13:1 18:1 20:1 28:1 32:1 38:1 43:1 47:1 53:1 58:1 60:1 
0.7189162923132704 1:-77 2:256 3:179 8:1 13:1 18:1 20:1 28:1 32:1 35:1 42:1 48:1 49:1 58:1 63:1 
0.01051694799891429 1:9 2:44 3:53 8:1 13:1 18:1 23:1 28:1 29:1 35:1 43:1 45:1 53:1 58:1 63:1 
0.306130197904045 1:-21 2:74 3:53 5:1 13:1 18:1 20:1 28:1 33:1 35:1 43:1 45:1 53:1 58:1 63:1 
3 1:2 2:74 3:76 5:1 13:1 18:1 20:1 28:1 33:1 38:1 41:1 45:1 53:1 54:1 61:1 
1.387778459524741 1:-24 2:79 3:55 8:1 13:1 14:1 23:1 24:1 33:1 35:1 43:1 48:1 53:1 58:1 63:1 
3 1:-7 2:79 3:72 8:1 13:1 14:1 23:1 24:1 33:1 38:1 39:1 45:1 53:1 56:1 60:1 
0.7853220335070201 1:-39 2:111 3:72 8:1 13:1 15:1 23:1 28:1 32:1 38:1 39:1 45:1 53:1 56:1 60:1 
2.723458568836597 1:-35 2:111 3:76 8:1 13:1 15:1 23:1 28:1 32:1 38:1 41:1 45:1 53:1 54:1 61:1 
0.5821678205515062 1:44 2:74 3:118 5:1 13:1 18:1 20:1 28:1 33:1 38:1 39:1 45:1 53:1 58:1 63:1 
1.826646844090067 1:39 2:79 3:118 8:1 13:1 14:1 23:1 24:1 33:1 38:1 39:1 45:1 53:1 58:1 63:1 
3 1:7 2:111 3:118 8:1 13:1 15:1 23:1 28:1 32:1 38:1 39:1 45:1 53:1 58:1 63:1 
0.3117274825222867 1:135 2:44 3:179 8:1 13:1 18:1 23:1 28:1 29:1 35:1 42:1 48:1 49:1 58:1 63:1 
0.5423747071378655 1:68 2:111 3:179 8:1 13:1 15:1 23:1 28:1 32:1 35:1 42:1 48:1 49:1 58:1 63:1 
0.4956977813224946 1:-128 2:183 3:55 4:1 13:1 18:1 20:1 27:1 29:1 35:1 43:1 48:1 53:1 58:1 63:1 
3 1:-4 2:183 3:179 4:1 13:1 18:1 20:1 27:1 29:1 35:1 42:1 48:1 49:1 58:1 63:1 
0.3013497808527829 1:112 2:79 3:191 8:1 13:1 14:1 23:1 24:1 33:1 38:1 43:1 45:1 53:1 58:1 61:1 
1.348781021725731 1:80 2:111 3:191 8:1 13:1 15:1 23:1 28:1 32:1 38:1 43:1 45:1 53:1 58:1 61:1 
0.2530475530627417 1:-139 2:194 3:55 8:1 13:1 18:1 22:1 25:1 33:1 35:1 43:1 48:1 53:1 58:1 63:1 
0.4822105680883281 1:-118 2:194 3:76 8:1 13:1 18:1 22:1 25:1 33:1 38:1 41:1 45:1 53:1 54:1 61:1 
0.7477614571369284 1:-76 2:194 3:118 8:1 13:1 18:1 22:1 25:1 33:1 38:1 39:1 45:1 53:1 58:1 63:1 
0.1010489886274418 1:-170 2:223 3:53 8:1 9:1 18:1 20:1 27:1 32:1 35:1 43:1 45:1 53:1 58:1 63:1 
0.9516916762131754 1:-168 2:223 3:55 8:1 9:1 18:1 20:1 27:1 32:1 35:1 43:1 48:1 53:1 58:1 63:1 
0.7277711022109269 1:-151 2:223 3:72 8:1 9:1 18:1 20:1 27:1 32:1 38:1 39:1 45:1 53:1 56:1 60:1 
2.185853803994444 1:-105 2:223 3:118 8:1 9:1 18:1 20:1 27:1 32:1 38:1 39:1 45:1 53:1 58:1 63:1 
0.3275374677430491 1:-44 2:223 3:179 8:1 9:1 18:1 20:1 27:1 32:1 35:1 42:1 48:1 49:1 58:1 63:1 
0.7074539017327355 1:29 2:25 3:54 8:1 12:1 18:1 20:1 27:1 30:1 38:1 43:1 44:1 53:1 54:1 60:1 
1.391403988647793 1:-69 2:75 3:6 7:1 13:1 18:1 23:1 28:1 33:1 38:1 40:1 48:1 49:1 56:1 63:1 
1.334375231078 1:-21 2:75 3:54 7:1 13:1 18:1 23:1 28:1 33:1 38:1 43:1 44:1 53:1 54:1 60:1 
0.2524805466257674 1:109 2:8 3:117 8:1 13:1 14:1 23:1 25:1 29:1 34:1 39:1 45:1 53:1 55:1 63:1 
0.318162239042576 1:42 2:75 3:117 7:1 13:1 18:1 23:1 28:1 33:1 34:1 39:1 45:1 53:1 55:1 63:1 
0.2384269945652789 1:124 2:25 3:149 8:1 12:1 18:1 20:1 27:1 30:1 38:1 42:1 48:1 50:1 57:1 61:1 
1.386860789244838 1:-35 2:152 3:117 8:1 10:1 17:1 23:1 24:1 31:1 34:1 39:1 45:1 53:1 55:1 63:1 
1.591808363911545 1:-3 2:152 3:149 8:1 10:1 17:1 23:1 24:1 31:1 38:1 42:1 48:1 50:1 57:1 61:1 
0.816446281432977 1:-101 2:155 3:54 6:1 13:1 14:1 20:1 27:1 33:1 38:1 43:1 44:1 53:1 54:1 60:1 
0.2136011015059077 1:-38 2:155 3:117 6:1 13:1 14:1 20:1 27:1 33:1 34:1 39:1 45:1 53:1 55:1 63:1 
1.391677531866604 1:-6 2:155 3:149 6:1 13:1 14:1 20:1 27:1 33:1 38:1 42:1 48:1 50:1 57:1 61:1 
0.8047646210599189 1:-64 2:163 3:99 5:1 12:1 18:1 23:1 24:1 33:1 38:1 43:1 45:1 52:1 58:1 63:1 
0.619670092376909 1:-14 2:163 3:149 5:1 12:1 18:1 23:1 24:1 33:1 38:1 42:1 48:1 50:1 57:1 61:1 
0.6226070359536299 1:-117 2:171 3:54 4:1 9:1 18:1 23:1 24:1 30:1 38:1 43:1 44:1 53:1 54:1 60:1 
0.04584511103011536 1:-54 2:171 3:117 4:1 9:1 18:1 23:1 24:1 30:1 34:1 39:1 45:1 53:1 55:1 63:1 
0.1986671961122442 1:-22 2:171 3:149 4:1 9:1 18:1 23:1 24:1 30:1 38:1 42:1 48:1 50:1 57:1 61:1 
0.3176129849522599 1:103 2:75 3:178 7:1 13:1 18:1 23:1 28:1 33:1 38:1 43:1 47:1 49:1 54:1 59:1 
0.07971607124273086 1:7 2:171 3:178 4:1 9:1 18:1 23:1 24:1 30:1 38:1 43:1 47:1 49:1 54:1 59:1 
0.1895940216927198 1:-73 2:190 3:117 8:1 9:1 15:1 19:1 28:1 33:1 34:1 39:1 45:1 53:1 55:1 63:1 
0.6040518260205746 1:-41 2:190 3:149 8:1 9:1 15:1 19:1 28:1 33:1 38:1 42:1 48:1 50:1 57:1 61:1 
0.2303629769751906 1:-12 2:190 3:178 8:1 9:1 15:1 19:1 28:1 33:1 38:1 43:1 47:1 49:1 54:1 59:1 
1.446235855495454 1:118 2:75 3:193 7:1 13:1 18:1 23:1 28:1 33:1 36:1 39:1 48:1 53:1 58:1 59:1 
0.3667177006231633 1:41 2:152 3:193 8:1 10:1 17:1 23:1 24:1 31:1 36:1 39:1 48:1 53:1 58:1 59:1 
2.04008595906821 1:22 2:171 3:193 4:1 9:1 18:1 23:1 24:1 30:1 36:1 39:1 48:1 53:1 58:1 59:1 
1.060747666817386 1:3 2:190 3:193 8:1 9:1 15:1 19:1 28:1 33:1 36:1 39:1 48:1 53:1 58:1 59:1 
0.09276259779584135 1:191 2:8 3:199 8:1 13:1 14:1 23:1 25:1 29:1 34:1 40:1 48:1 53:1 58:1 63:1 
0.2916569317723179 1:44 2:155 3:199 6:1 13:1 14:1 20:1 27:1 33:1 34:1 40:1 48:1 53:1 58:1 63:1 
0.634930579728901 1:28 2:171 3:199 4:1 9:1 18:1 23:1 24:1 30:1 34:1 40:1 48:1 53:1 58:1 63:1 
0.6061304531211494 1:9 2:190 3:199 8:1 9:1 15:1 19:1 28:1 33:1 34:1 40:1 48:1 53:1 58:1 63:1 
0.02490171687131549 1:187 2:25 3:212 8:1 12:1 18:1 20:1 27:1 30:1 38:1 42:1 48:1 53:1 54:1 63:1 
0.7595908863013074 1:137 2:75 3:212 7:1 13:1 18:1 23:1 28:1 33:1 38:1 42:1 48:1 53:1 54:1 63:1 
1.893686519983568 1:173 2:152 3:325 8:1 10:1 17:1 23:1 24:1 31:1 35:1 43:1 48:1 53:1 54:1 63:1 
0.9995595210811953 1:154 2:171 3:325 4:1 9:1 18:1 23:1 24:1 30:1 35:1 43:1 48:1 53:1 54:1 63:1 
0.3387175902050425 1:135 2:190 3:325 8:1 9:1 15:1 19:1 28:1 33:1 35:1 43:1 48:1 53:1 54:1 63:1 
1.247741580830263 1:-326 2:332 3:6 7:1 13:1 15:1 20:1 28:1 33:1 38:1 40:1 48:1 49:1 56:1 63:1 
0.3207530336281532 1:-278 2:332 3:54 7:1 13:1 15:1 20:1 28:1 33:1 38:1 43:1 44:1 53:1 54:1 60:1 
0.2774407929293271 1:-183 2:332 3:149 7:1 13:1 15:1 20:1 28:1 33:1 38:1 42:1 48:1 50:1 57:1 61:1 
0.6889419046073842 1:-133 2:332 3:199 7:1 13:1 15:1 20:1 28:1 33:1 34:1 40:1 48:1 53:1 58:1 63:1 
1.627286131159357 1:-7 2:332 3:325 7:1 13:1 15:1 20:1 28:1 33:1 35:1 43:1 48:1 53:1 54:1 63:1 
3 1:-2 2:75 3:73 8:1 13:1 14:1 23:1 26:1 33:1 38:1 40:1 48:1 49:1 56:1 63:1 
3 1:-4 2:77 3:73 4:1 11:1 18:1 23:1 26:1 30:1 38:1 40:1 48:1 49:1 56:1 63:1 
0.5581319825672981 1:-84 2:86 3:2 8:1 10:1 18:1 23:1 28:1 33:1 43:1 47:1 49:1 56:1 63:1 
0.7880977083489116 1:-13 2:86 3:73 8:1 10:1 18:1 23:1 28:1 33:1 38:1 40:1 48:1 49:1 56:1 63:1 
0.5753053855428107 1:86 2:4 3:90 7:1 13:1 14:1 23:1 28:1 30:1 38:1 43:1 48:1 51:1 56:1 62:1 
0.8040815505258899 1:15 2:75 3:90 8:1 13:1 14:1 23:1 26:1 33:1 38:1 43:1 48:1 51:1 56:1 62:1 
0.2652210628332335 1:11 2:79 3:90 8:1 11:1 18:1 20:1 28:1 33:1 38:1 43:1 48:1 51:1 56:1 62:1 
0.1876074961011717 1:-1 2:91 3:90 8:1 13:1 18:1 21:1 27:1 31:1 38:1 43:1 48:1 51:1 56:1 62:1 
0.1395845028358623 1:-84 2:92 3:8 8:1 13:1 16:1 22:1 26:1 29:1 38:1 43:1 45:1 52:1 58:1 59:1 
0.1832414190542327 1:-19 2:92 3:73 8:1 13:1 16:1 22:1 26:1 29:1 38:1 40:1 48:1 49:1 56:1 63:1 
3 1:-2 2:92 3:90 8:1 13:1 16:1 22:1 26:1 29:1 38:1 43:1 48:1 51:1 56:1 62:1 
0.6364307308476499 1:-21 2:94 3:73 6:1 11:1 17:1 19:1 28:1 32:1 38:1 40:1 48:1 49:1 56:1 63:1 
0.6050416640313087 1:15 2:86 3:101 8:1 10:1 18:1 23:1 28:1 33:1 35:1 43:1 47:1 52:1 58:1 59:1 
0.2619178580238937 1:10 2:91 3:101 8:1 13:1 18:1 21:1 27:1 31:1 35:1 43:1 47:1 52:1 58:1 59:1 
0.4122064047033966 1:9 2:92 3:101 8:1 13:1 16:1 22:1 26:1 29:1 35:1 43:1 47:1 52:1 58:1 59:1 
1.593079545574757 1:-99 2:107 3:8 4:1 10:1 18:1 23:1 26:1 32:1 38:1 43:1 45:1 52:1 58:1 59:1 
3 1:-17 2:107 3:90 4:1 10:1 18:1 23:1 26:1 32:1 38:1 43:1 48:1 51:1 56:1 62:1 
1.905012147099853 1:-6 2:107 3:101 4:1 10:1 18:1 23:1 26:1 32:1 35:1 43:1 47:1 52:1 58:1 59:1 
0.3259345232298877 1:-99 2:109 3:10 8:1 11:1 18:1 22:1 28:1 33:1 35:1 43:1 47:1 49:1 54:1 63:1 
0.3508189804238945 1:-36 2:109 3:73 8:1 11:1 18:1 22:1 28:1 33:1 38:1 40:1 48:1 49:1 56:1 63:1 
0.541900551967195 1:-8 2:109 3:101 8:1 11:1 18:1 22:1 28:1 33:1 35:1 43:1 47:1 52:1 58:1 59:1 
0.1565947738974224 1:-124 2:126 3:2 4:1 13:1 18:1 19:1 25:1 33:1 43:1 47:1 49:1 56:1 63:1 
0.5963818465264833 1:-36 2:126 3:90 4:1 13:1 18:1 19:1 25:1 33:1 38:1 43:1 48:1 51:1 56:1 62:1 
0.4927929045344145 1:-147 2:155 3:8 8:1 13:1 18:1 20:1 26:1 29:1 38:1 43:1 45:1 52:1 58:1 59:1 
0.5441182527192061 1:-82 2:155 3:73 8:1 13:1 18:1 20:1 26:1 29:1 38:1 40:1 48:1 49:1 56:1 63:1 
1.466565088360321 1:-65 2:155 3:90 8:1 13:1 18:1 20:1 26:1 29:1 38:1 43:1 48:1 51:1 56:1 62:1 
0.7369376404750434 1:-84 2:157 3:73 8:1 11:1 15:1 19:1 27:1 33:1 38:1 40:1 48:1 49:1 56:1 63:1 
2.075201210010859 1:-155 2:163 3:8 8:1 10:1 18:1 23:1 28:1 30:1 38:1 43:1 45:1 52:1 58:1 59:1 
0.9957652622668598 1:-73 2:163 3:90 8:1 10:1 18:1 23:1 28:1 30:1 38:1 43:1 48:1 51:1 56:1 62:1 
0.3524286211085432 1:-62 2:163 3:101 8:1 10:1 18:1 23:1 28:1 30:1 35:1 43:1 47:1 52:1 58:1 59:1 
0.8507291299705775 1:164 2:4 3:168 7:1 13:1 14:1 23:1 28:1 30:1 38:1 40:1 48:1 53:1 54:1 62:1 
0.4849797161472963 1:93 2:75 3:168 8:1 13:1 14:1 23:1 26:1 33:1 38:1 40:1 48:1 53:1 54:1 62:1 
0.01547457333431209 1:89 2:79 3:168 8:1 11:1 18:1 20:1 28:1 33:1 38:1 40:1 48:1 53:1 54:1 62:1 
0.6907027113186422 1:82 2:86 3:168 8:1 10:1 18:1 23:1 28:1 33:1 38:1 40:1 48:1 53:1 54:1 62:1 
0.5668959566323595 1:76 2:92 3:168 8:1 13:1 16:1 22:1 26:1 29:1 38:1 40:1 48:1 53:1 54:1 62:1 
0.975717532929065 1:13 2:155 3:168 8:1 13:1 18:1 20:1 26:1 29:1 38:1 40:1 48:1 53:1 54:1 62:1 
0.5871265444012175 1:11 2:157 3:168 8:1 11:1 15:1 19:1 27:1 33:1 38:1 40:1 48:1 53:1 54:1 62:1 
0.4751404680678868 1:-104 2:177 3:73 8:1 9:1 15:1 23:1 28:1 33:1 38:1 40:1 48:1 49:1 56:1 63:1 
0.532813473576774 1:-179 2:187 3:8 4:1 10:1 18:1 23:1 24:1 32:1 38:1 43:1 45:1 52:1 58:1 59:1 
1.464902028345546 1:-97 2:187 3:90 4:1 10:1 18:1 23:1 24:1 32:1 38:1 43:1 48:1 51:1 56:1 62:1 
0.02487049348422112 1:-19 2:187 3:168 4:1 10:1 18:1 23:1 24:1 32:1 38:1 40:1 48:1 53:1 54:1 62:1 
0.7061176887053821 1:-122 2:212 3:90 8:1 10:1 18:1 22:1 25:1 33:1 38:1 43:1 48:1 51:1 56:1 62:1 
0.5009664156394699 1:-214 2:216 3:2 7:1 10:1 18:1 23:1 28:1 30:1 43:1 47:1 49:1 56:1 63:1 
1.622689542472297 1:-143 2:216 3:73 7:1 10:1 18:1 23:1 28:1 30:1 38:1 40:1 48:1 49:1 56:1 63:1 
0.2013165779231316 1:-115 2:216 3:101 7:1 10:1 18:1 23:1 28:1 30:1 35:1 43:1 47:1 52:1 58:1 59:1 
0.6438457063538428 1:168 2:75 3:243 8:1 13:1 14:1 23:1 26:1 33:1 37:1 43:1 48:1 49:1 55:1 63:1 
2.019712157950306 1:157 2:86 3:243 8:1 10:1 18:1 23:1 28:1 33:1 37:1 43:1 48:1 49:1 55:1 63:1 
0.1173984608429396 1:152 2:91 3:243 8:1 13:1 18:1 21:1 27:1 31:1 37:1 43:1 48:1 49:1 55:1 63:1 
0.2092835191600549 1:151 2:92 3:243 8:1 13:1 16:1 22:1 26:1 29:1 37:1 43:1 48:1 49:1 55:1 63:1 
2.00665037760572 1:136 2:107 3:243 4:1 10:1 18:1 23:1 26:1 32:1 37:1 43:1 48:1 49:1 55:1 63:1 
0.5805781212145671 1:117 2:126 3:243 4:1 13:1 18:1 19:1 25:1 33:1 37:1 43:1 48:1 49:1 55:1 63:1 
1.033063390076998 1:88 2:155 3:243 8:1 13:1 18:1 20:1 26:1 29:1 37:1 43:1 48:1 49:1 55:1 63:1 
0.4273905885970563 1:56 2:187 3:243 4:1 10:1 18:1 23:1 24:1 32:1 37:1 43:1 48:1 49:1 55:1 63:1 
0.1588752411111231 1:-257 2:259 3:2 5:1 13:1 18:1 23:1 27:1 33:1 43:1 47:1 49:1 56:1 63:1 
0.6859376740968041 1:-249 2:259 3:10 5:1 13:1 18:1 23:1 27:1 33:1 35:1 43:1 47:1 49:1 54:1 63:1 
1.580757102081625 1:-169 2:259 3:90 5:1 13:1 18:1 23:1 27:1 33:1 38:1 43:1 48:1 51:1 56:1 62:1 
0.1894664414431139 1:-158 2:259 3:101 5:1 13:1 18:1 23:1 27:1 33:1 35:1 43:1 47:1 52:1 58:1 59:1 
1.057896915169359 1:-91 2:259 3:168 5:1 13:1 18:1 23:1 27:1 33:1 38:1 40:1 48:1 53:1 54:1 62:1 
0.3420885031609403 1:-271 2:273 3:2 8:1 9:1 15:1 23:1 27:1 33:1 43:1 47:1 49:1 56:1 63:1 
0.5545516439351047 1:-183 2:273 3:90 8:1 9:1 15:1 23:1 27:1 33:1 38:1 43:1 48:1 51:1 56:1 62:1 
1.508266043261683 1:-30 2:273 3:243 8:1 9:1 15:1 23:1 27:1 33:1 37:1 43:1 48:1 49:1 55:1 63:1 
0.318411048875912 1:272 2:4 3:276 7:1 13:1 14:1 23:1 28:1 30:1 36:1 43:1 47:1 53:1 56:1 63:1 
1.260814192544718 1:199 2:77 3:276 4:1 11:1 18:1 23:1 26:1 30:1 36:1 43:1 47:1 53:1 56:1 63:1 
1.553004060060355 1:190 2:86 3:276 8:1 10:1 18:1 23:1 28:1 33:1 36:1 43:1 47:1 53:1 56:1 63:1 
0.8434427179439085 1:185 2:91 3:276 8:1 13:1 18:1 21:1 27:1 31:1 36:1 43:1 47:1 53:1 56:1 63:1 
0.5919823589161608 1:184 2:92 3:276 8:1 13:1 16:1 22:1 26:1 29:1 36:1 43:1 47:1 53:1 56:1 63:1 
0.7869017170434625 1:169 2:107 3:276 4:1 10:1 18:1 23:1 26:1 32:1 36:1 43:1 47:1 53:1 56:1 63:1 
2.195856689279007 1:121 2:155 3:276 8:1 13:1 18:1 20:1 26:1 29:1 36:1 43:1 47:1 53:1 56:1 63:1 
1.020599861547258 1:64 2:212 3:276 8:1 10:1 18:1 22:1 25:1 33:1 36:1 43:1 47:1 53:1 56:1 63:1 
1.301238130273578 1:3 2:273 3:276 8:1 9:1 15:1 23:1 27:1 33:1 36:1 43:1 47:1 53:1 56:1 63:1 
0.01954378194009391 1:-177 2:278 3:101 7:1 13:1 18:1 23:1 24:1 31:1 35:1 43:1 47:1 52:1 58:1 59:1 
1.008113005784079 1:-2 2:278 3:276 7:1 13:1 18:1 23:1 24:1 31:1 36:1 43:1 47:1 53:1 56:1 63:1 
0.1953860202610368 1:-191 2:281 3:90 6:1 13:1 14:1 20:1 28:1 33:1 38:1 43:1 48:1 51:1 56:1 62:1 
0.08691991477353339 1:-113 2:281 3:168 6:1 13:1 14:1 20:1 28:1 33:1 38:1 40:1 48:1 53:1 54:1 62:1 
0.4950457285500109 1:-38 2:281 3:243 6:1 13:1 14:1 20:1 28:1 33:1 37:1 43:1 48:1 49:1 55:1 63:1 
2.713193720033682 1:-5 2:281 3:276 6:1 13:1 14:1 20:1 28:1 33:1 36:1 43:1 47:1 53:1 56:1 63:1 
0.7830753442784411 1:-197 2:287 3:90 8:1 12:1 17:1 19:1 27:1 33:1 38:1 43:1 48:1 51:1 56:1 62:1 
0.1624284594865865 1:216 2:79 3:295 8:1 11:1 18:1 20:1 28:1 33:1 35:1 43:1 45:1 53:1 56:1 63:1 
1.119315386390259 1:209 2:86 3:295 8:1 10:1 18:1 23:1 28:1 33:1 35:1 43:1 45:1 53:1 56:1 63:1 
1.235727245885402 1:203 2:92 3:295 8:1 13:1 16:1 22:1 26:1 29:1 35:1 43:1 45:1 53:1 56:1 63:1 
1.514264319415935 1:188 2:107 3:295 4:1 10:1 18:1 23:1 26:1 32:1 35:1 43:1 45:1 53:1 56:1 63:1 
2.533877966643028 1:140 2:155 3:295 8:1 13:1 18:1 20:1 26:1 29:1 35:1 43:1 45:1 53:1 56:1 63:1 
0.04385472300846453 1:132 2:163 3:295 8:1 10:1 18:1 23:1 28:1 30:1 35:1 43:1 45:1 53:1 56:1 63:1 
0.3591819768249258 1:36 2:259 3:295 5:1 13:1 18:1 23:1 27:1 33:1 35:1 43:1 45:1 53:1 56:1 63:1 
0.05144902975673717 1:22 2:273 3:295 8:1 9:1 15:1 23:1 27:1 33:1 35:1 43:1 45:1 53:1 56:1 63:1 
0.6001347873354542 1:17 2:278 3:295 7:1 13:1 18:1 23:1 24:1 31:1 35:1 43:1 45:1 53:1 56:1 63:1 
0.2592437315444391 1:-289 2:297 3:8 5:1 13:1 18:1 23:1 24:1 30:1 38:1 43:1 45:1 52:1 58:1 59:1 
0.1382297507410018 1:-287 2:297 3:10 5:1 13:1 18:1 23:1 24:1 30:1 35:1 43:1 47:1 49:1 54:1 63:1 
0.8784361423136041 1:-207 2:297 3:90 5:1 13:1 18:1 23:1 24:1 30:1 38:1 43:1 48:1 51:1 56:1 62:1 
0.5746606571387921 1:-196 2:297 3:101 5:1 13:1 18:1 23:1 24:1 30:1 35:1 43:1 47:1 52:1 58:1 59:1 
0.978597676578254 1:-129 2:297 3:168 5:1 13:1 18:1 23:1 24:1 30:1 38:1 40:1 48:1 53:1 54:1 62:1 
0.4967389458623498 1:-21 2:297 3:276 5:1 13:1 18:1 23:1 24:1 30:1 36:1 43:1 47:1 53:1 56:1 63:1 
3 1:-2 2:297 3:295 5:1 13:1 18:1 23:1 24:1 30:1 35:1 43:1 45:1 53:1 56:1 63:1 
0.1101556306016788 1:-201 2:302 3:101 4:1 10:1 18:1 19:1 27:1 33:1 35:1 43:1 47:1 52:1 58:1 59:1 
1.192795605992725 1:-134 2:302 3:168 4:1 10:1 18:1 19:1 27:1 33:1 38:1 40:1 48:1 53:1 54:1 62:1 
0.4324448491098273 1:-59 2:302 3:243 4:1 10:1 18:1 19:1 27:1 33:1 37:1 43:1 48:1 49:1 55:1 63:1 
1.008220606724166 1:-7 2:302 3:295 4:1 10:1 18:1 19:1 27:1 33:1 35:1 43:1 45:1 53:1 56:1 63:1 
2.659705910917451 1:301 2:4 3:305 7:1 13:1 14:1 23:1 28:1 30:1 36:1 39:1 47:1 49:1 58:1 63:1 
0.9348796445544069 1:228 2:77 3:305 4:1 11:1 18:1 23:1 26:1 30:1 36:1 39:1 47:1 49:1 58:1 63:1 
3 1:219 2:86 3:305 8:1 10:1 18:1 23:1 28:1 33:1 36:1 39:1 47:1 49:1 58:1 63:1 
0.45519304591118 1:214 2:91 3:305 8:1 13:1 18:1 21:1 27:1 31:1 36:1 39:1 47:1 49:1 58:1 63:1 
1.091291365703309 1:213 2:92 3:305 8:1 13:1 16:1 22:1 26:1 29:1 36:1 39:1 47:1 49:1 58:1 63:1 
1.808258718371196 1:198 2:107 3:305 4:1 10:1 18:1 23:1 26:1 32:1 36:1 39:1 47:1 49:1 58:1 63:1 
0.3855425900522004 1:179 2:126 3:305 4:1 13:1 18:1 19:1 25:1 33:1 36:1 39:1 47:1 49:1 58:1 63:1 
2.014784861433056 1:150 2:155 3:305 8:1 13:1 18:1 20:1 26:1 29:1 36:1 39:1 47:1 49:1 58:1 63:1 
0.9527349057411031 1:118 2:187 3:305 4:1 10:1 18:1 23:1 24:1 32:1 36:1 39:1 47:1 49:1 58:1 63:1 
1.890513997640487 1:93 2:212 3:305 8:1 10:1 18:1 22:1 25:1 33:1 36:1 39:1 47:1 49:1 58:1 63:1 
0.8665480228391133 1:46 2:259 3:305 5:1 13:1 18:1 23:1 27:1 33:1 36:1 39:1 47:1 49:1 58:1 63:1 
0.5620748862045138 1:32 2:273 3:305 8:1 9:1 15:1 23:1 27:1 33:1 36:1 39:1 47:1 49:1 58:1 63:1 
0.8273711184476032 1:18 2:287 3:305 8:1 12:1 17:1 19:1 27:1 33:1 36:1 39:1 47:1 49:1 58:1 63:1 
0.225724120054565 1:3 2:302 3:305 4:1 10:1 18:1 19:1 27:1 33:1 36:1 39:1 47:1 49:1 58:1 63:1 
0.3951328603344078 1:304 2:4 3:308 7:1 13:1 14:1 23:1 28:1 30:1 38:1 39:1 48:1 52:1 55:1 62:1 
2.108285504599182 1:199 2:109 3:308 8:1 11:1 18:1 22:1 28:1 33:1 38:1 39:1 48:1 52:1 55:1 62:1 
1.075233523642209 1:182 2:126 3:308 4:1 13:1 18:1 19:1 25:1 33:1 38:1 39:1 48:1 52:1 55:1 62:1 
0.1537715372903019 1:151 2:157 3:308 8:1 11:1 15:1 19:1 27:1 33:1 38:1 39:1 48:1 52:1 55:1 62:1 
2.897177802492036 1:131 2:177 3:308 8:1 9:1 15:1 23:1 28:1 33:1 38:1 39:1 48:1 52:1 55:1 62:1 
0.7264830013823864 1:121 2:187 3:308 4:1 10:1 18:1 23:1 24:1 32:1 38:1 39:1 48:1 52:1 55:1 62:1 
0.272289179928788 1:96 2:212 3:308 8:1 10:1 18:1 22:1 25:1 33:1 38:1 39:1 48:1 52:1 55:1 62:1 
0.6583673246077296 1:92 2:216 3:308 7:1 10:1 18:1 23:1 28:1 30:1 38:1 39:1 48:1 52:1 55:1 62:1 
0.4326299137969962 1:49 2:259 3:308 5:1 13:1 18:1 23:1 27:1 33:1 38:1 39:1 48:1 52:1 55:1 62:1 
0.9433209587673016 1:30 2:278 3:308 7:1 13:1 18:1 23:1 24:1 31:1 38:1 39:1 48:1 52:1 55:1 62:1 
1.576894685539938 1:27 2:281 3:308 6:1 13:1 14:1 20:1 28:1 33:1 38:1 39:1 48:1 52:1 55:1 62:1 
0.08524379864845653 1:21 2:287 3:308 8:1 12:1 17:1 19:1 27:1 33:1 38:1 39:1 48:1 52:1 55:1 62:1 
0.009381918248713155 1:-244 2:317 3:73 5:1 13:1 14:1 23:1 27:1 33:1 38:1 40:1 48:1 49:1 56:1 63:1 
0.8611966350872059 1:-227 2:317 3:90 5:1 13:1 14:1 23:1 27:1 33:1 38:1 43:1 48:1 51:1 56:1 62:1 
0.01710959251941381 1:-149 2:317 3:168 5:1 13:1 14:1 23:1 27:1 33:1 38:1 40:1 48:1 53:1 54:1 62:1 
0.7794745775145013 1:-74 2:317 3:243 5:1 13:1 14:1 23:1 27:1 33:1 37:1 43:1 48:1 49:1 55:1 63:1 
0.4069003645453417 1:-22 2:317 3:295 5:1 13:1 14:1 23:1 27:1 33:1 35:1 43:1 45:1 53:1 56:1 63:1 
0.9907925750668825 1:-12 2:317 3:305 5:1 13:1 14:1 23:1 27:1 33:1 36:1 39:1 47:1 49:1 58:1 63:1 
0.5437021747206373 1:316 2:4 3:320 7:1 13:1 14:1 23:1 28:1 30:1 36:1 43:1 47:1 52:1 57:1 60:1 
1.606028485568799 1:241 2:79 3:320 8:1 11:1 18:1 20:1 28:1 33:1 36:1 43:1 47:1 52:1 57:1 60:1 
0.798365230715279 1:234 2:86 3:320 8:1 10:1 18:1 23:1 28:1 33:1 36:1 43:1 47:1 52:1 57:1 60:1 
0.7824252073473087 1:229 2:91 3:320 8:1 13:1 18:1 21:1 27:1 31:1 36:1 43:1 47:1 52:1 57:1 60:1 
1.231969235074605 1:228 2:92 3:320 8:1 13:1 16:1 22:1 26:1 29:1 36:1 43:1 47:1 52:1 57:1 60:1 
1.473123655665228 1:213 2:107 3:320 4:1 10:1 18:1 23:1 26:1 32:1 36:1 43:1 47:1 52:1 57:1 60:1 
1.483267678199429 1:165 2:155 3:320 8:1 13:1 18:1 20:1 26:1 29:1 36:1 43:1 47:1 52:1 57:1 60:1 
0.2441826018387761 1:157 2:163 3:320 8:1 10:1 18:1 23:1 28:1 30:1 36:1 43:1 47:1 52:1 57:1 60:1 
0.9151488673916901 1:133 2:187 3:320 4:1 10:1 18:1 23:1 24:1 32:1 36:1 43:1 47:1 52:1 57:1 60:1 
0.03280596253721368 1:104 2:216 3:320 7:1 10:1 18:1 23:1 28:1 30:1 36:1 43:1 47:1 52:1 57:1 60:1 
1.010601430203826 1:61 2:259 3:320 5:1 13:1 18:1 23:1 27:1 33:1 36:1 43:1 47:1 52:1 57:1 60:1 
1.717106051869483 1:39 2:281 3:320 6:1 13:1 14:1 20:1 28:1 33:1 36:1 43:1 47:1 52:1 57:1 60:1 
0.6262124128098034 1:18 2:302 3:320 4:1 10:1 18:1 19:1 27:1 33:1 36:1 43:1 47:1 52:1 57:1 60:1 
3 1:3 2:317 3:320 5:1 13:1 14:1 23:1 27:1 33:1 36:1 43:1 47:1 52:1 57:1 60:1 
0.00847211811741555 1:327 2:4 3:331 7:1 13:1 14:1 23:1 28:1 30:1 38:1 43:1 47:1 52:1 54:1 63:1 
0.2401613449175407 1:256 2:75 3:331 8:1 13:1 14:1 23:1 26:1 33:1 38:1 43:1 47:1 52:1 54:1 63:1 
0.4542829205557815 1:254 2:77 3:331 4:1 11:1 18:1 23:1 26:1 30:1 38:1 43:1 47:1 52:1 54:1 63:1 
0.2549476692366148 1:245 2:86 3:331 8:1 10:1 18:1 23:1 28:1 33:1 38:1 43:1 47:1 52:1 54:1 63:1 
0.02576764308701542 1:240 2:91 3:331 8:1 13:1 18:1 21:1 27:1 31:1 38:1 43:1 47:1 52:1 54:1 63:1 
1.919834268916066 1:239 2:92 3:331 8:1 13:1 16:1 22:1 26:1 29:1 38:1 43:1 47:1 52:1 54:1 63:1 
2.152840159870557 1:224 2:107 3:331 4:1 10:1 18:1 23:1 26:1 32:1 38:1 43:1 47:1 52:1 54:1 63:1 
0.7411553869637597 1:205 2:126 3:331 4:1 13:1 18:1 19:1 25:1 33:1 38:1 43:1 47:1 52:1 54:1 63:1 
1.628277429481533 1:176 2:155 3:331 8:1 13:1 18:1 20:1 26:1 29:1 38:1 43:1 47:1 52:1 54:1 63:1 
1.387427246425644 1:168 2:163 3:331 8:1 10:1 18:1 23:1 28:1 30:1 38:1 43:1 47:1 52:1 54:1 63:1 
1.442256317033616 1:58 2:273 3:331 8:1 9:1 15:1 23:1 27:1 33:1 38:1 43:1 47:1 52:1 54:1 63:1 
2.556437663378949 1:29 2:302 3:331 4:1 10:1 18:1 19:1 27:1 33:1 38:1 43:1 47:1 52:1 54:1 63:1 
0.4772747397206419 1:14 2:317 3:331 5:1 13:1 14:1 23:1 27:1 33:1 38:1 43:1 47:1 52:1 54:1 63:1 
0.2790817444553714 1:-348 2:350 3:2 4:1 13:1 14:1 23:1 28:1 29:1 43:1 47:1 49:1 56:1 63:1 
0.2077897502582766 1:-342 2:350 3:8 4:1 13:1 14:1 23:1 28:1 29:1 38:1 43:1 45:1 52:1 58:1 59:1 
1.756129068431536 1:-277 2:350 3:73 4:1 13:1 14:1 23:1 28:1 29:1 38:1 40:1 48:1 49:1 56:1 63:1 
0.9795898354473895 1:-182 2:350 3:168 4:1 13:1 14:1 23:1 28:1 29:1 38:1 40:1 48:1 53:1 54:1 62:1 
0.3227736273529681 1:-107 2:350 3:243 4:1 13:1 14:1 23:1 28:1 29:1 37:1 43:1 48:1 49:1 55:1 63:1 
0.7380703989270966 1:-55 2:350 3:295 4:1 13:1 14:1 23:1 28:1 29:1 35:1 43:1 45:1 53:1 56:1 63:1 
1.000365781383038 1:-42 2:350 3:308 4:1 13:1 14:1 23:1 28:1 29:1 38:1 39:1 48:1 52:1 55:1 62:1 
0.5745282612320838 1:-30 2:350 3:320 4:1 13:1 14:1 23:1 28:1 29:1 36:1 43:1 47:1 52:1 57:1 60:1 
0.879431807110548 1:348 2:4 3:352 7:1 13:1 14:1 23:1 28:1 30:1 34:1 41:1 48:1 49:1 54:1 63:1 
0.6263883926656229 1:277 2:75 3:352 8:1 13:1 14:1 23:1 26:1 33:1 34:1 41:1 48:1 49:1 54:1 63:1 
0.2066931961531751 1:275 2:77 3:352 4:1 11:1 18:1 23:1 26:1 30:1 34:1 41:1 48:1 49:1 54:1 63:1 
0.5043557906969551 1:266 2:86 3:352 8:1 10:1 18:1 23:1 28:1 33:1 34:1 41:1 48:1 49:1 54:1 63:1 
1.103121741860264 1:260 2:92 3:352 8:1 13:1 16:1 22:1 26:1 29:1 34:1 41:1 48:1 49:1 54:1 63:1 
1.482791808215464 1:245 2:107 3:352 4:1 10:1 18:1 23:1 26:1 32:1 34:1 41:1 48:1 49:1 54:1 63:1 
0.0009120998974272432 1:226 2:126 3:352 4:1 13:1 18:1 19:1 25:1 33:1 34:1 41:1 48:1 49:1 54:1 63:1 
1.036814307117639 1:197 2:155 3:352 8:1 13:1 18:1 20:1 26:1 29:1 34:1 41:1 48:1 49:1 54:1 63:1 
0.1734471774024332 1:65 2:287 3:352 8:1 12:1 17:1 19:1 27:1 33:1 34:1 41:1 48:1 49:1 54:1 63:1 
0.3345290579256613 1:50 2:302 3:352 4:1 10:1 18:1 19:1 27:1 33:1 34:1 41:1 48:1 49:1 54:1 63:1 
0.3505469345759758 1:35 2:317 3:352 5:1 13:1 14:1 23:1 27:1 33:1 34:1 41:1 48:1 49:1 54:1 63:1 
1.480410629080595 1:2 2:350 3:352 4:1 13:1 14:1 23:1 28:1 29:1 34:1 41:1 48:1 49:1 54:1 63:1 
0.04478024854825506 1:-195 2:363 3:168 5:1 10:1 14:1 23:1 25:1 38:1 40:1 48:1 53:1 54:1 62:1 
0.1197402509642681 1:-120 2:363 3:243 5:1 10:1 14:1 23:1 25:1 37:1 43:1 48:1 49:1 55:1 63:1 
0.2311232290136834 1:-87 2:363 3:276 5:1 10:1 14:1 23:1 25:1 36:1 43:1 47:1 53:1 56:1 63:1 
0.5102439786149883 1:-55 2:363 3:308 5:1 10:1 14:1 23:1 25:1 38:1 39:1 48:1 52:1 55:1 62:1 
0.2144319049629143 1:-32 2:363 3:331 5:1 10:1 14:1 23:1 25:1 38:1 43:1 47:1 52:1 54:1 63:1 
0.5326923801576054 1:-11 2:363 3:352 5:1 10:1 14:1 23:1 25:1 34:1 41:1 48:1 49:1 54:1 63:1 
0.10968963107373 1:18 2:9 3:27 5:1 13:1 14:1 22:1 25:1 33:1 37:1 39:1 47:1 50:1 58:1 59:1 
0.5588123228961396 1:6 2:21 3:27 4:1 13:1 17:1 23:1 24:1 32:1 37:1 39:1 47:1 50:1 58:1 59:1 
0.3777588717120078 1:8 2:21 3:29 4:1 13:1 17:1 23:1 24:1 32:1 37:1 43:1 45:1 49:1 58:1 63:1 
0.008761964257611441 1:33 2:9 3:42 5:1 13:1 14:1 22:1 25:1 33:1 34:1 43:1 48:1 53:1 54:1 62:1 
0.5642474546598442 1:37 2:21 3:58 4:1 13:1 17:1 23:1 24:1 32:1 34:1 42:1 48:1 49:1 58:1 62:1 
0.4952579821434736 1:-51 2:64 3:13 7:1 13:1 18:1 20:1 28:1 33:1 37:1 40:1 48:1 53:1 58:1 62:1 
2.342187600271261 1:-35 2:64 3:29 7:1 13:1 18:1 20:1 28:1 33:1 37:1 43:1 45:1 49:1 58:1 63:1 
3 1:-2 2:64 3:62 7:1 13:1 18:1 20:1 28:1 33:1 34:1 43:1 47:1 53:1 56:1 60:1 
0.6063730382742356 1:49 2:21 3:70 4:1 13:1 17:1 23:1 24:1 32:1 38:1 42:1 48:1 53:1 54:1 62:1 
1.069603655235509 1:-61 2:76 3:15 7:1 13:1 18:1 22:1 28:1 33:1 38:1 43:1 48:1 52:1 58:1 59:1 
0.04959570416056246 1:-49 2:76 3:27 7:1 13:1 18:1 22:1 28:1 33:1 37:1 39:1 47:1 50:1 58:1 59:1 
1.734877332208362 1:-47 2:76 3:29 7:1 13:1 18:1 22:1 28:1 33:1 37:1 43:1 45:1 49:1 58:1 63:1 
0.7007773161523235 1:-34 2:76 3:42 7:1 13:1 18:1 22:1 28:1 33:1 34:1 43:1 48:1 53:1 54:1 62:1 
0.03167967529933621 1:81 2:9 3:90 5:1 13:1 14:1 22:1 25:1 33:1 34:1 43:1 45:1 49:1 54:1 63:1 
1.344496153451012 1:69 2:21 3:90 4:1 13:1 17:1 23:1 24:1 32:1 34:1 43:1 45:1 49:1 54:1 63:1 
1.066749426562661 1:14 2:76 3:90 7:1 13:1 18:1 22:1 28:1 33:1 34:1 43:1 45:1 49:1 54:1 63:1 
0.825848243229655 1:87 2:9 3:96 5:1 13:1 14:1 22:1 25:1 33:1 38:1 42:1 48:1 53:1 58:1 63:1 
0.1261918322861308 1:20 2:76 3:96 7:1 13:1 18:1 22:1 28:1 33:1 38:1 42:1 48:1 53:1 58:1 63:1 
1.117213395132705 1:-100 2:115 3:15 7:1 9:1 15:1 22:1 25:1 33:1 38:1 43:1 48:1 52:1 58:1 59:1 
2.191949131016054 1:-88 2:115 3:27 7:1 9:1 15:1 22:1 25:1 33:1 37:1 39:1 47:1 50:1 58:1 59:1 
0.2587345205340935 1:-86 2:115 3:29 7:1 9:1 15:1 22:1 25:1 33:1 37:1 43:1 45:1 49:1 58:1 63:1 
1.305693889174102 1:-73 2:115 3:42 7:1 9:1 15:1 22:1 25:1 33:1 34:1 43:1 48:1 53:1 54:1 62:1 
0.5101519680418547 1:-57 2:115 3:58 7:1 9:1 15:1 22:1 25:1 33:1 34:1 42:1 48:1 49:1 58:1 62:1 
0.5783198454305761 1:-53 2:115 3:62 7:1 9:1 15:1 22:1 25:1 33:1 34:1 43:1 47:1 53:1 56:1 60:1 
0.1860759744315319 1:-48 2:115 3:67 7:1 9:1 15:1 22:1 25:1 33:1 36:1 40:1 48:1 52:1 58:1 63:1 
0.250403317169983 1:-45 2:115 3:70 7:1 9:1 15:1 22:1 25:1 33:1 38:1 42:1 48:1 53:1 54:1 62:1 
1.640772779008564 1:-25 2:115 3:90 7:1 9:1 15:1 22:1 25:1 33:1 34:1 43:1 45:1 49:1 54:1 63:1 
1.09110947505715 1:-19 2:115 3:96 7:1 9:1 15:1 22:1 25:1 33:1 38:1 42:1 48:1 53:1 58:1 63:1 
0.2079018367896456 1:98 2:21 3:119 4:1 13:1 17:1 23:1 24:1 32:1 37:1 40:1 48:1 53:1 54:1 62:1 
0.8001234416523797 1:43 2:76 3:119 7:1 13:1 18:1 22:1 28:1 33:1 37:1 40:1 48:1 53:1 54:1 62:1 
1.45706583264984 1:4 2:115 3:119 7:1 9:1 15:1 22:1 25:1 33:1 37:1 40:1 48:1 53:1 54:1 62:1 
0.478685534691369 1:121 2:9 3:130 5:1 13:1 14:1 22:1 25:1 33:1 35:1 40:1 48:1 53:1 57:1 60:1 
0.07576194352717908 1:109 2:21 3:130 4:1 13:1 17:1 23:1 24:1 32:1 35:1 40:1 48:1 53:1 57:1 60:1 
0.01186166662710638 1:54 2:76 3:130 7:1 13:1 18:1 22:1 28:1 33:1 35:1 40:1 48:1 53:1 57:1 60:1 
0.1041119646844386 1:115 2:21 3:136 4:1 13:1 17:1 23:1 24:1 32:1 35:1 42:1 48:1 53:1 54:1 63:1 
0.4732181247565359 1:60 2:76 3:136 7:1 13:1 18:1 22:1 28:1 33:1 35:1 42:1 48:1 53:1 54:1 63:1 
1.381688164543753 1:21 2:115 3:136 7:1 9:1 15:1 22:1 25:1 33:1 35:1 42:1 48:1 53:1 54:1 63:1 
1.927902483049698 1:76 2:76 3:152 7:1 13:1 18:1 22:1 28:1 33:1 38:1 39:1 48:1 53:1 58:1 62:1 
0.9326844696541481 1:37 2:115 3:152 7:1 9:1 15:1 22:1 25:1 33:1 38:1 39:1 48:1 53:1 58:1 62:1 
0.8600275806067913 1:-149 2:162 3:13 4:1 10:1 15:1 23:1 27:1 33:1 37:1 40:1 48:1 53:1 58:1 62:1 
1.565580046829017 1:-120 2:162 3:42 4:1 10:1 15:1 23:1 27:1 33:1 34:1 43:1 48:1 53:1 54:1 62:1 
0.7914084249175531 1:-66 2:162 3:96 4:1 10:1 15:1 23:1 27:1 33:1 38:1 42:1 48:1 53:1 58:1 63:1 
0.4621189286438932 1:-32 2:162 3:130 4:1 10:1 15:1 23:1 27:1 33:1 35:1 40:1 48:1 53:1 57:1 60:1 
1.20328697123667 1:-10 2:162 3:152 4:1 10:1 15:1 23:1 27:1 33:1 38:1 39:1 48:1 53:1 58:1 62:1 
2.478832191700679 1:170 2:21 3:191 4:1 13:1 17:1 23:1 24:1 32:1 38:1 42:1 45:1 52:1 58:1 63:1 
2.804700407440171 1:127 2:64 3:191 7:1 13:1 18:1 20:1 28:1 33:1 38:1 42:1 45:1 52:1 58:1 63:1 
1.188949187483026 1:115 2:76 3:191 7:1 13:1 18:1 22:1 28:1 33:1 38:1 42:1 45:1 52:1 58:1 63:1 
1.469292906286022 1:76 2:115 3:191 7:1 9:1 15:1 22:1 25:1 33:1 38:1 42:1 45:1 52:1 58:1 63:1 
2.263327383496097 1:29 2:162 3:191 4:1 10:1 15:1 23:1 27:1 33:1 38:1 42:1 45:1 52:1 58:1 63:1 
1.008350274609463 1:-194 2:207 3:13 8:1 10:1 15:1 22:1 25:1 30:1 37:1 40:1 48:1 53:1 58:1 62:1 
2.314434033658248 1:-192 2:207 3:15 8:1 10:1 15:1 22:1 25:1 30:1 38:1 43:1 48:1 52:1 58:1 59:1 
1.057065709233908 1:-180 2:207 3:27 8:1 10:1 15:1 22:1 25:1 30:1 37:1 39:1 47:1 50:1 58:1 59:1 
1.368557307810437 1:-178 2:207 3:29 8:1 10:1 15:1 22:1 25:1 30:1 37:1 43:1 45:1 49:1 58:1 63:1 
0.08792934580623871 1:-165 2:207 3:42 8:1 10:1 15:1 22:1 25:1 30:1 34:1 43:1 48:1 53:1 54:1 62:1 
0.7537668956447633 1:-145 2:207 3:62 8:1 10:1 15:1 22:1 25:1 30:1 34:1 43:1 47:1 53:1 56:1 60:1 
2.397841578628483 1:-140 2:207 3:67 8:1 10:1 15:1 22:1 25:1 30:1 36:1 40:1 48:1 52:1 58:1 63:1 
1.898893721574901 1:-137 2:207 3:70 8:1 10:1 15:1 22:1 25:1 30:1 38:1 42:1 48:1 53:1 54:1 62:1 
0.09025877104552373 1:-107 2:207 3:100 8:1 10:1 15:1 22:1 25:1 30:1 38:1 43:1 48:1 52:1 57:1 63:1 
1.696921795855528 1:-88 2:207 3:119 8:1 10:1 15:1 22:1 25:1 30:1 37:1 40:1 48:1 53:1 54:1 62:1 
0.8014087029696413 1:-77 2:207 3:130 8:1 10:1 15:1 22:1 25:1 30:1 35:1 40:1 48:1 53:1 57:1 60:1 
0.427833900361028 1:-71 2:207 3:136 8:1 10:1 15:1 22:1 25:1 30:1 35:1 42:1 48:1 53:1 54:1 63:1 
2.087206916123822 1:-55 2:207 3:152 8:1 10:1 15:1 22:1 25:1 30:1 38:1 39:1 48:1 53:1 58:1 62:1 
2.218769150324089 1:-16 2:207 3:191 8:1 10:1 15:1 22:1 25:1 30:1 38:1 42:1 45:1 52:1 58:1 63:1 
0.09634421150689397 1:136 2:76 3:212 7:1 13:1 18:1 22:1 28:1 33:1 35:1 40:1 48:1 53:1 58:1 62:1 
0.07734062556435589 1:5 2:207 3:212 8:1 10:1 15:1 22:1 25:1 30:1 35:1 40:1 48:1 53:1 58:1 62:1 
1.705155957989323 1:-250 2:263 3:13 8:1 12:1 15:1 23:1 24:1 30:1 37:1 40:1 48:1 53:1 58:1 62:1 
0.2900286417283398 1:-248 2:263 3:15 8:1 12:1 15:1 23:1 24:1 30:1 38:1 43:1 48:1 52:1 58:1 59:1 
0.4694019747514301 1:-236 2:263 3:27 8:1 12:1 15:1 23:1 24:1 30:1 37:1 39:1 47:1 50:1 58:1 59:1 
0.1946778625481748 1:-221 2:263 3:42 8:1 12:1 15:1 23:1 24:1 30:1 34:1 43:1 48:1 53:1 54:1 62:1 
0.188610868986681 1:-201 2:263 3:62 8:1 12:1 15:1 23:1 24:1 30:1 34:1 43:1 47:1 53:1 56:1 60:1 
0.4241259780897382 1:-196 2:263 3:67 8:1 12:1 15:1 23:1 24:1 30:1 36:1 40:1 48:1 52:1 58:1 63:1 
0.6291807553685507 1:-189 2:263 3:74 8:1 12:1 15:1 23:1 24:1 30:1 38:1 39:1 47:1 53:1 56:1 62:1 
0.6486867162619887 1:-173 2:263 3:90 8:1 12:1 15:1 23:1 24:1 30:1 34:1 43:1 45:1 49:1 54:1 63:1 
0.4455000813609968 1:-165 2:263 3:98 8:1 12:1 15:1 23:1 24:1 30:1 38:1 43:1 48:1 53:1 58:1 62:1 
1.082974371147884 1:-163 2:263 3:100 8:1 12:1 15:1 23:1 24:1 30:1 38:1 43:1 48:1 52:1 57:1 63:1 
1.190820629971735 1:-144 2:263 3:119 8:1 12:1 15:1 23:1 24:1 30:1 37:1 40:1 48:1 53:1 54:1 62:1 
0.4734312823216313 1:-133 2:263 3:130 8:1 12:1 15:1 23:1 24:1 30:1 35:1 40:1 48:1 53:1 57:1 60:1 
2.060221615605994 1:-127 2:263 3:136 8:1 12:1 15:1 23:1 24:1 30:1 35:1 42:1 48:1 53:1 54:1 63:1 
0.8875217518682543 1:-72 2:263 3:191 8:1 12:1 15:1 23:1 24:1 30:1 38:1 42:1 45:1 52:1 58:1 63:1 
1.530679446233623 1:-51 2:263 3:212 8:1 12:1 15:1 23:1 24:1 30:1 35:1 40:1 48:1 53:1 58:1 62:1 
0.0008495416015138479 1:264 2:9 3:273 5:1 13:1 14:1 22:1 25:1 33:1 38:1 40:1 47:1 53:1 54:1 59:1 
1.068133191342993 1:197 2:76 3:273 7:1 13:1 18:1 22:1 28:1 33:1 38:1 40:1 47:1 53:1 54:1 59:1 
0.7735877835642041 1:158 2:115 3:273 7:1 9:1 15:1 22:1 25:1 33:1 38:1 40:1 47:1 53:1 54:1 59:1 
0.5049606983509977 1:66 2:207 3:273 8:1 10:1 15:1 22:1 25:1 30:1 38:1 40:1 47:1 53:1 54:1 59:1 
1.649800256520407 1:10 2:263 3:273 8:1 12:1 15:1 23:1 24:1 30:1 38:1 40:1 47:1 53:1 54:1 59:1 
0.4970945446965694 1:257 2:21 3:278 4:1 13:1 17:1 23:1 24:1 32:1 34:1 39:1 45:1 49:1 58:1 63:1 
0.3824800985341333 1:116 2:162 3:278 4:1 10:1 15:1 23:1 27:1 33:1 34:1 39:1 45:1 49:1 58:1 63:1 
0.3839846670670634 1:15 2:263 3:278 8:1 12:1 15:1 23:1 24:1 30:1 34:1 39:1 45:1 49:1 58:1 63:1 
0.5878631988568062 1:280 2:9 3:289 5:1 13:1 14:1 22:1 25:1 33:1 35:1 42:1 48:1 53:1 58:1 62:1 
0.06843654464923782 1:268 2:21 3:289 4:1 13:1 17:1 23:1 24:1 32:1 35:1 42:1 48:1 53:1 58:1 62:1 
0.2160716190690159 1:26 2:263 3:289 8:1 12:1 15:1 23:1 24:1 30:1 35:1 42:1 48:1 53:1 58:1 62:1 
0.1150409859061082 1:176 2:115 3:291 7:1 9:1 15:1 22:1 25:1 33:1 38:1 43:1 48:1 52:1 58:1 59:1 
0.3324304687996279 1:129 2:162 3:291 4:1 10:1 15:1 23:1 27:1 33:1 38:1 43:1 48:1 52:1 58:1 59:1 
0.2183661983501042 1:28 2:263 3:291 8:1 12:1 15:1 23:1 24:1 30:1 38:1 43:1 48:1 52:1 58:1 59:1 
3 1:-9 2:11 3:2 8:1 10:1 14:1 20:1 28:1 32:1 43:1 48:1 50:1 55:1 63:1 
3 1:-2 2:17 3:15 7:1 13:1 14:1 19:1 25:1 30:1 35:1 43:1 47:1 49:1 56:1 59:1 
1.336783646352354 1:22 2:17 3:39 7:1 13:1 14:1 19:1 25:1 30:1 35:1 43:1 48:1 53:1 58:1 59:1 
0.736327730223892 1:-48 2:63 3:15 8:1 9:1 15:1 22:1 25:1 33:1 35:1 43:1 47:1 49:1 56:1 59:1 
0.4279489907296499 1:-40 2:63 3:23 8:1 9:1 15:1 22:1 25:1 33:1 35:1 43:1 48:1 52:1 54:1 59:1 
0.6829798183555466 1:-24 2:63 3:39 8:1 9:1 15:1 22:1 25:1 33:1 35:1 43:1 48:1 53:1 58:1 59:1 
0.5757214520158336 1:54 2:17 3:71 7:1 13:1 14:1 19:1 25:1 30:1 38:1 43:1 48:1 50:1 58:1 62:1 
0.1683473406609184 1:8 2:63 3:71 8:1 9:1 15:1 22:1 25:1 33:1 38:1 43:1 48:1 50:1 58:1 62:1 
3 1:75 2:17 3:92 7:1 13:1 14:1 19:1 25:1 30:1 38:1 43:1 47:1 50:1 55:1 63:1 
0.5388156336337939 1:108 2:17 3:125 7:1 13:1 14:1 19:1 25:1 30:1 35:1 43:1 47:1 49:1 54:1 59:1 
0.6053039908184833 1:62 2:63 3:125 8:1 9:1 15:1 22:1 25:1 33:1 35:1 43:1 47:1 49:1 54:1 59:1 
1.953551666695194 1:147 2:17 3:164 7:1 13:1 14:1 19:1 25:1 30:1 38:1 42:1 48:1 53:1 54:1 60:1 
1.169376291009345 1:101 2:63 3:164 8:1 9:1 15:1 22:1 25:1 33:1 38:1 42:1 48:1 53:1 54:1 60:1 
3 1:-194 2:209 3:15 8:1 9:1 15:1 22:1 28:1 33:1 35:1 43:1 47:1 49:1 56:1 59:1 
0.4137668367566185 1:-170 2:209 3:39 8:1 9:1 15:1 22:1 28:1 33:1 35:1 43:1 48:1 53:1 58:1 59:1 
0.9581298602520724 1:-75 2:209 3:134 8:1 9:1 15:1 22:1 28:1 33:1 37:1 43:1 47:1 53:1 58:1 63:1 
0.6252039289513399 1:-73 2:209 3:136 8:1 9:1 15:1 22:1 28:1 33:1 37:1 43:1 48:1 53:1 54:1 63:1 
0.5693239422877114 1:206 2:11 3:217 8:1 10:1 14:1 20:1 28:1 32:1 38:1 42:1 48:1 53:1 54:1 62:1 
0.3430630363045602 1:200 2:17 3:217 7:1 13:1 14:1 19:1 25:1 30:1 38:1 42:1 48:1 53:1 54:1 62:1 
0.05341064208758822 1:154 2:63 3:217 8:1 9:1 15:1 22:1 25:1 33:1 38:1 42:1 48:1 53:1 54:1 62:1 
1.83566805229276 1:214 2:11 3:225 8:1 10:1 14:1 20:1 28:1 32:1 38:1 43:1 48:1 53:1 58:1 59:1 
0.9172902472682457 1:208 2:17 3:225 7:1 13:1 14:1 19:1 25:1 30:1 38:1 43:1 48:1 53:1 58:1 59:1 
1.410877887781957 1:162 2:63 3:225 8:1 9:1 15:1 22:1 25:1 33:1 38:1 43:1 48:1 53:1 58:1 59:1 
3 1:16 2:209 3:225 8:1 9:1 15:1 22:1 28:1 33:1 38:1 43:1 48:1 53:1 58:1 59:1 
0.05158300824626336 1:-243 2:245 3:2 8:1 13:1 18:1 23:1 28:1 30:1 43:1 48:1 50:1 55:1 63:1 
1.855397552803109 1:-232 2:245 3:13 8:1 13:1 18:1 23:1 28:1 30:1 34:1 41:1 45:1 52:1 58:1 59:1 
0.6457837021408199 1:-206 2:245 3:39 8:1 13:1 18:1 23:1 28:1 30:1 35:1 43:1 48:1 53:1 58:1 59:1 
0.04968366203159752 1:-179 2:245 3:66 8:1 13:1 18:1 23:1 28:1 30:1 36:1 42:1 45:1 52:1 58:1 63:1 
1.02793996006539 1:-153 2:245 3:92 8:1 13:1 18:1 23:1 28:1 30:1 38:1 43:1 47:1 50:1 55:1 63:1 
0.1065115893639385 1:-131 2:245 3:114 8:1 13:1 18:1 23:1 28:1 30:1 38:1 43:1 47:1 53:1 55:1 60:1 
0.6629759362433506 1:-120 2:245 3:125 8:1 13:1 18:1 23:1 28:1 30:1 35:1 43:1 47:1 49:1 54:1 59:1 
0.3725404378063963 1:-111 2:245 3:134 8:1 13:1 18:1 23:1 28:1 30:1 37:1 43:1 47:1 53:1 58:1 63:1 
0.2054089824584209 1:-109 2:245 3:136 8:1 13:1 18:1 23:1 28:1 30:1 37:1 43:1 48:1 53:1 54:1 63:1 
0.1003135037594858 1:230 2:17 3:247 7:1 13:1 14:1 19:1 25:1 30:1 38:1 41:1 48:1 50:1 58:1 63:1 
0.186107817866251 1:258 2:11 3:269 8:1 10:1 14:1 20:1 28:1 32:1 38:1 42:1 45:1 53:1 58:1 63:1 
3 1:-271 2:286 3:15 8:1 13:1 15:1 22:1 25:1 30:1 35:1 43:1 47:1 49:1 56:1 59:1 
3 1:-263 2:286 3:23 8:1 13:1 15:1 22:1 25:1 30:1 35:1 43:1 48:1 52:1 54:1 59:1 
0.933036702695395 1:-247 2:286 3:39 8:1 13:1 15:1 22:1 25:1 30:1 35:1 43:1 48:1 53:1 58:1 59:1 
0.0115651282334859 1:-215 2:286 3:71 8:1 13:1 15:1 22:1 25:1 30:1 38:1 43:1 48:1 50:1 58:1 62:1 
0.7927069967816646 1:-194 2:286 3:92 8:1 13:1 15:1 22:1 25:1 30:1 38:1 43:1 47:1 50:1 55:1 63:1 
0.04473973781284481 1:-161 2:286 3:125 8:1 13:1 15:1 22:1 25:1 30:1 35:1 43:1 47:1 49:1 54:1 59:1 
0.6090404404585132 1:-150 2:286 3:136 8:1 13:1 15:1 22:1 25:1 30:1 37:1 43:1 48:1 53:1 54:1 63:1 
0.003843046282211268 1:-69 2:286 3:217 8:1 13:1 15:1 22:1 25:1 30:1 38:1 42:1 48:1 53:1 54:1 62:1 
0.8850204166324672 1:-61 2:286 3:225 8:1 13:1 15:1 22:1 25:1 30:1 38:1 43:1 48:1 53:1 58:1 59:1 
0.4391608895335924 1:-39 2:286 3:247 8:1 13:1 15:1 22:1 25:1 30:1 38:1 41:1 48:1 50:1 58:1 63:1 
0.2809238197359723 1:233 2:63 3:296 8:1 9:1 15:1 22:1 25:1 33:1 38:1 43:1 47:1 50:1 58:1 63:1 
0.5714384781921301 1:292 2:11 3:303 8:1 10:1 14:1 20:1 28:1 32:1 38:1 40:1 45:1 49:1 58:1 63:1 
1.075177862082641 1:321 2:11 3:332 8:1 10:1 14:1 20:1 28:1 32:1 38:1 39:1 48:1 53:1 54:1 63:1 
0.6907039892194026 1:269 2:63 3:332 8:1 9:1 15:1 22:1 25:1 33:1 38:1 39:1 48:1 53:1 54:1 63:1 
0.423135691230451 1:46 2:286 3:332 8:1 13:1 15:1 22:1 25:1 30:1 38:1 39:1 48:1 53:1 54:1 63:1 
0.9850620801343101 1:322 2:17 3:339 7:1 13:1 14:1 19:1 25:1 30:1 35:1 43:1 44:1 52:1 57:1 60:1 
1.022028192868342 1:276 2:63 3:339 8:1 9:1 15:1 22:1 25:1 33:1 35:1 43:1 44:1 52:1 57:1 60:1 
0.4896011256307589 1:130 2:209 3:339 8:1 9:1 15:1 22:1 28:1 33:1 35:1 43:1 44:1 52:1 57:1 60:1 
0.8333154875673306 1:53 2:286 3:339 8:1 13:1 15:1 22:1 25:1 30:1 35:1 43:1 44:1 52:1 57:1 60:1 
1.172732073122737 1:344 2:17 3:361 7:1 13:1 14:1 19:1 25:1 30:1 35:1 43:1 47:1 53:1 58:1 63:1 
0.2323012456716675 1:298 2:63 3:361 8:1 9:1 15:1 22:1 25:1 33:1 35:1 43:1 47:1 53:1 58:1 63:1 
0.5746214224307237 1:152 2:209 3:361 8:1 9:1 15:1 22:1 28:1 33:1 35:1 43:1 47:1 53:1 58:1 63:1 
0.2271422726302664 1:116 2:245 3:361 8:1 13:1 18:1 23:1 28:1 30:1 35:1 43:1 47:1 53:1 58:1 63:1 
0.2906078794562561 1:75 2:286 3:361 8:1 13:1 15:1 22:1 25:1 30:1 35:1 43:1 47:1 53:1 58:1 63:1 
0.5547089724835828 1:374 2:17 3:391 7:1 13:1 14:1 19:1 25:1 30:1 38:1 39:1 47:1 49:1 58:1 63:1 
1.963001046742209 1:328 2:63 3:391 8:1 9:1 15:1 22:1 25:1 33:1 38:1 39:1 47:1 49:1 58:1 63:1 
0.919125723232175 1:182 2:209 3:391 8:1 9:1 15:1 22:1 28:1 33:1 38:1 39:1 47:1 49:1 58:1 63:1 
0.1341868142156035 1:146 2:245 3:391 8:1 13:1 18:1 23:1 28:1 30:1 38:1 39:1 47:1 49:1 58:1 63:1 
1.112303814687969 1:105 2:286 3:391 8:1 13:1 15:1 22:1 25:1 30:1 38:1 39:1 47:1 49:1 58:1 63:1 
1.215113119254187 1:-388 2:403 3:15 8:1 12:1 15:1 23:1 27:1 33:1 35:1 43:1 47:1 49:1 56:1 59:1 
0.3877912935428181 1:-364 2:403 3:39 8:1 12:1 15:1 23:1 27:1 33:1 35:1 43:1 48:1 53:1 58:1 59:1 
0.09429279891203159 1:-332 2:403 3:71 8:1 12:1 15:1 23:1 27:1 33:1 38:1 43:1 48:1 50:1 58:1 62:1 
0.05505645930168729 1:-311 2:403 3:92 8:1 12:1 15:1 23:1 27:1 33:1 38:1 43:1 47:1 50:1 55:1 63:1 
0.2994482799705853 1:-239 2:403 3:164 8:1 12:1 15:1 23:1 27:1 33:1 38:1 42:1 48:1 53:1 54:1 60:1 
0.5774775536797238 1:-186 2:403 3:217 8:1 12:1 15:1 23:1 27:1 33:1 38:1 42:1 48:1 53:1 54:1 62:1 
0.03480116987441286 1:-156 2:403 3:247 8:1 12:1 15:1 23:1 27:1 33:1 38:1 41:1 48:1 50:1 58:1 63:1 
0.06551999458540164 1:-107 2:403 3:296 8:1 12:1 15:1 23:1 27:1 33:1 38:1 43:1 47:1 50:1 58:1 63:1 
1.667644821408389 1:-64 2:403 3:339 8:1 12:1 15:1 23:1 27:1 33:1 35:1 43:1 44:1 52:1 57:1 60:1 
0.1162512025135192 1:-12 2:403 3:391 8:1 12:1 15:1 23:1 27:1 33:1 38:1 39:1 47:1 49:1 58:1 63:1 
0.4518023943937696 1:395 2:11 3:406 8:1 10:1 14:1 20:1 28:1 32:1 36:1 43:1 47:1 49:1 54:1 59:1 
0.9048240701423567 1:389 2:17 3:406 7:1 13:1 14:1 19:1 25:1 30:1 36:1 43:1 47:1 49:1 54:1 59:1 
0.4191208317412281 1:343 2:63 3:406 8:1 9:1 15:1 22:1 25:1 33:1 36:1 43:1 47:1 49:1 54:1 59:1 
0.5892985384211157 1:197 2:209 3:406 8:1 9:1 15:1 22:1 28:1 33:1 36:1 43:1 47:1 49:1 54:1 59:1 
0.2702044814165028 1:120 2:286 3:406 8:1 13:1 15:1 22:1 25:1 30:1 36:1 43:1 47:1 49:1 54:1 59:1 
1.030649568063056 1:3 2:403 3:406 8:1 12:1 15:1 23:1 27:1 33:1 36:1 43:1 47:1 49:1 54:1 59:1 
0.4786332463310948 1:399 2:17 3:416 7:1 13:1 14:1 19:1 25:1 30:1 37:1 43:1 45:1 49:1 55:1 63:1 
0.7385914154478411 1:353 2:63 3:416 8:1 9:1 15:1 22:1 25:1 33:1 37:1 43:1 45:1 49:1 55:1 63:1 
0.2780070574022761 1:207 2:209 3:416 8:1 9:1 15:1 22:1 28:1 33:1 37:1 43:1 45:1 49:1 55:1 63:1 
1.623169326977726 1:171 2:245 3:416 8:1 13:1 18:1 23:1 28:1 30:1 37:1 43:1 45:1 49:1 55:1 63:1 
0.6994752725374436 1:13 2:403 3:416 8:1 12:1 15:1 23:1 27:1 33:1 37:1 43:1 45:1 49:1 55:1 63:1 
0.1468336609972228 1:246 2:245 3:491 8:1 13:1 18:1 23:1 28:1 30:1 35:1 39:1 45:1 53:1 54:1 62:1 
1.526472153103613 1:-134 2:146 3:12 5:1 9:1 15:1 19:1 25:1 33:1 38:1 40:1 48:1 53:1 54:1 63:1 
0.121114888388523 1:-221 2:233 3:12 8:1 10:1 18:1 19:1 25:1 33:1 38:1 40:1 48:1 53:1 54:1 63:1 
0.1383401723691089 1:114 2:146 3:260 5:1 9:1 15:1 19:1 25:1 33:1 35:1 41:1 48:1 49:1 58:1 59:1 
0.4017284439501916 1:27 2:233 3:260 8:1 10:1 18:1 19:1 25:1 33:1 35:1 41:1 48:1 49:1 58:1 59:1 
2.499781230730118 1:2 2:258 3:260 5:1 9:1 15:1 23:1 28:1 29:1 35:1 41:1 48:1 49:1 58:1 59:1 
0.4999056248506427 1:-106 2:366 3:260 4:1 10:1 14:1 20:1 27:1 33:1 35:1 41:1 48:1 49:1 58:1 59:1 
2.040268383401361 1:-123 2:383 3:260 4:1 10:1 14:1 20:1 25:1 33:1 35:1 41:1 48:1 49:1 58:1 59:1 
1.005985341490817 1:-425 2:437 3:12 5:1 13:1 14:1 20:1 27:1 31:1 38:1 40:1 48:1 53:1 54:1 63:1 
0.4643871060662225 1:-180 2:440 3:260 6:1 10:1 17:1 20:1 24:1 33:1 35:1 41:1 48:1 49:1 58:1 59:1 
0.0112896277332401 1:-467 2:479 3:12 6:1 13:1 15:1 19:1 25:1 33:1 38:1 40:1 48:1 53:1 54:1 63:1 
0.05679038208565201 1:-290 2:550 3:260 4:1 10:1 15:1 20:1 35:1 41:1 48:1 49:1 58:1 59:1 
0.2744723785036773 1:63 2:19 3:82 7:1 13:1 18:1 20:1 24:1 33:1 38:1 43:1 48:1 50:1 58:1 63:1 
0.4722544102497939 1:-211 2:293 3:82 5:1 9:1 15:1 23:1 24:1 33:1 38:1 43:1 48:1 50:1 58:1 63:1 
2.228838075527734 1:429 2:19 3:448 7:1 13:1 18:1 20:1 24:1 33:1 35:1 42:1 48:1 49:1 58:1 59:1 
0.7403061357320723 1:235 2:213 3:448 8:1 9:1 15:1 19:1 25:1 32:1 35:1 42:1 48:1 49:1 58:1 59:1 
0.1655393256181593 1:155 2:293 3:448 5:1 9:1 15:1 23:1 24:1 33:1 35:1 42:1 48:1 49:1 58:1 59:1 
0.001886112681332515 1:-399 2:454 3:55 4:1 10:1 15:1 23:1 26:1 31:1 38:1 42:1 45:1 53:1 58:1 62:1 
3 1:-6 2:454 3:448 4:1 10:1 15:1 23:1 26:1 31:1 35:1 42:1 48:1 49:1 58:1 59:1 
0.009023020219978832 1:-401 2:456 3:55 5:1 11:1 18:1 21:1 26:1 30:1 38:1 42:1 45:1 53:1 58:1 62:1 
0.8143747133757228 1:-8 2:456 3:448 5:1 11:1 18:1 21:1 26:1 30:1 35:1 42:1 48:1 49:1 58:1 59:1 
0.5512048203080833 1:-9 2:457 3:448 6:1 13:1 16:1 21:1 25:1 35:1 42:1 48:1 49:1 58:1 59:1 
1.806087695753842 1:-10 2:458 3:448 8:1 11:1 16:1 20:1 35:1 42:1 48:1 49:1 58:1 59:1 
1.473706279534766 1:-21 2:54 3:33 5:1 13:1 18:1 20:1 24:1 29:1 38:1 39:1 48:1 53:1 54:1 59:1 
0.3452791187291186 1:163 2:13 3:176 5:1 13:1 14:1 22:1 24:1 33:1 37:1 40:1 44:1 52:1 58:1 63:1 
0.5460130377306394 1:-132 2:308 3:176 7:1 9:1 14:1 20:1 28:1 32:1 37:1 40:1 44:1 52:1 58:1 63:1 
0.04072040679892697 1:-63 2:308 3:245 7:1 9:1 14:1 20:1 28:1 32:1 35:1 43:1 48:1 53:1 57:1 60:1 
0.6714497061042999 1:-307 2:340 3:33 8:1 13:1 18:1 23:1 24:1 32:1 38:1 39:1 48:1 53:1 54:1 59:1 
1.708641534374715 1:114 2:254 3:368 8:1 13:1 18:1 23:1 28:1 33:1 37:1 40:1 48:1 53:1 54:1 63:1 
1.462231079602906 1:60 2:308 3:368 7:1 9:1 14:1 20:1 28:1 32:1 37:1 40:1 48:1 53:1 54:1 63:1 
1.063191137914653 1:74 2:308 3:382 7:1 9:1 14:1 20:1 28:1 32:1 35:1 43:1 48:1 49:1 58:1 60:1 
0.9688748325550598 1:177 2:50 3:227 4:1 10:1 17:1 20:1 28:1 29:1 38:1 42:1 45:1 49:1 57:1 63:1 
0.02325928406433735 1:162 2:65 3:227 7:1 13:1 15:1 22:1 28:1 30:1 38:1 42:1 45:1 49:1 57:1 63:1 
0.1491717399044379 1:65 2:162 3:227 7:1 13:1 18:1 20:1 26:1 30:1 38:1 42:1 45:1 49:1 57:1 63:1 
0.3743587127543371 1:63 2:164 3:227 8:1 11:1 15:1 20:1 28:1 33:1 38:1 42:1 45:1 49:1 57:1 63:1 
0.19964164682482 1:284 2:1 3:285 14:1 20:1 24:1 30:1 35:1 40:1 44:1 53:1 55:1 59:1 
2.013488384682926 1:255 2:30 3:285 5:1 13:1 15:1 20:1 26:1 30:1 35:1 40:1 44:1 53:1 55:1 59:1 
0.9511228925920121 1:181 2:104 3:285 8:1 9:1 14:1 22:1 24:1 30:1 35:1 40:1 44:1 53:1 55:1 59:1 
0.2086152116581733 1:59 2:11 3:70 4:1 11:1 15:1 20:1 28:1 32:1 37:1 43:1 45:1 49:1 54:1 62:1 
2.13606009384739 1:-6 2:76 3:70 7:1 13:1 18:1 20:1 27:1 33:1 37:1 43:1 45:1 49:1 54:1 62:1 
1.065369567960129 1:-54 2:97 3:43 8:1 12:1 15:1 19:1 25:1 30:1 38:1 43:1 45:1 53:1 54:1 63:1 
0.923392308677019 1:-77 2:120 3:43 8:1 10:1 18:1 20:1 25:1 30:1 38:1 43:1 45:1 53:1 54:1 63:1 
0.1634559272629327 1:-88 2:158 3:70 8:1 10:1 18:1 23:1 27:1 30:1 37:1 43:1 45:1 49:1 54:1 62:1 
0.7877057788726983 1:-170 2:171 3:1 4:1 10:1 18:1 23:1 26:1 29:1 48:1 53:1 55:1 63:1 
0.4276269047213959 1:-250 2:251 3:1 5:1 13:1 15:1 23:1 28:1 30:1 48:1 53:1 55:1 63:1 
0.3341095930911113 1:294 2:76 3:370 7:1 13:1 18:1 20:1 27:1 33:1 38:1 42:1 45:1 52:1 58:1 62:1 
0.4925598639142849 1:197 2:173 3:370 8:1 11:1 18:1 19:1 28:1 32:1 38:1 42:1 45:1 52:1 58:1 62:1 
0.3883522304667762 1:401 2:9 3:410 8:1 10:1 14:1 20:1 26:1 30:1 38:1 43:1 48:1 52:1 57:1 63:1 
0.4101340400226222 1:399 2:11 3:410 4:1 11:1 15:1 20:1 28:1 32:1 38:1 43:1 48:1 52:1 57:1 63:1 
0.1148850302376208 1:290 2:120 3:410 8:1 10:1 18:1 20:1 25:1 30:1 38:1 43:1 48:1 52:1 57:1 63:1 
0.03901147227020696 1:252 2:158 3:410 8:1 10:1 18:1 23:1 27:1 30:1 38:1 43:1 48:1 52:1 57:1 63:1 
0.02564199724206634 1:237 2:173 3:410 8:1 11:1 18:1 19:1 28:1 32:1 38:1 43:1 48:1 52:1 57:1 63:1 
0.1451758965218423 1:159 2:251 3:410 5:1 13:1 15:1 23:1 28:1 30:1 38:1 43:1 48:1 52:1 57:1 63:1 
0.6386463504521035 1:46 2:364 3:410 5:1 13:1 18:1 23:1 27:1 33:1 38:1 43:1 48:1 52:1 57:1 63:1 
2.30053793344117 1:-424 2:425 3:1 8:1 13:1 14:1 23:1 28:1 32:1 48:1 53:1 55:1 63:1 
0.005377252453668275 1:-355 2:425 3:70 8:1 13:1 14:1 23:1 28:1 32:1 37:1 43:1 45:1 49:1 54:1 62:1 
0.001093307554275602 1:-55 2:425 3:370 8:1 13:1 14:1 23:1 28:1 32:1 38:1 42:1 45:1 52:1 58:1 62:1 
0.02382406781044009 1:337 2:97 3:434 8:1 12:1 15:1 19:1 25:1 30:1 35:1 43:1 45:1 53:1 57:1 60:1 
0.7211970018203089 1:276 2:158 3:434 8:1 10:1 18:1 23:1 27:1 30:1 35:1 43:1 45:1 53:1 57:1 60:1 
2.238374543360192 1:263 2:171 3:434 4:1 10:1 18:1 23:1 26:1 29:1 35:1 43:1 45:1 53:1 57:1 60:1 
0.6145931278237238 1:183 2:251 3:434 5:1 13:1 15:1 23:1 28:1 30:1 35:1 43:1 45:1 53:1 57:1 60:1 
1.294330915390689 1:70 2:364 3:434 5:1 13:1 18:1 23:1 27:1 33:1 35:1 43:1 45:1 53:1 57:1 60:1 
0.8587651204470936 1:9 2:425 3:434 8:1 13:1 14:1 23:1 28:1 32:1 35:1 43:1 45:1 53:1 57:1 60:1 
0.2017232463800996 1:17 2:1 3:18 14:1 20:1 25:1 30:1 37:1 39:1 45:1 53:1 58:1 59:1 
2.130366696836883 1:26 2:1 3:27 14:1 20:1 25:1 30:1 38:1 39:1 45:1 49:1 56:1 63:1 
3 1:-11 2:29 3:18 5:1 13:1 14:1 23:1 24:1 31:1 37:1 39:1 45:1 53:1 58:1 59:1 
0.2045041418288335 1:-54 2:81 3:27 7:1 10:1 17:1 19:1 28:1 33:1 38:1 39:1 45:1 49:1 56:1 63:1 
2.352003172126347 1:-92 2:110 3:18 8:1 9:1 15:1 20:1 25:1 30:1 37:1 39:1 45:1 53:1 58:1 59:1 
0.9689237527425349 1:123 2:1 3:124 14:1 20:1 25:1 30:1 35:1 43:1 45:1 53:1 58:1 62:1 
1.041206369555044 1:14 2:110 3:124 8:1 9:1 15:1 20:1 25:1 30:1 35:1 43:1 45:1 53:1 58:1 62:1 
0.6587143899524323 1:-167 2:194 3:27 5:1 12:1 18:1 23:1 27:1 33:1 38:1 39:1 45:1 49:1 56:1 63:1 
0.5266084792445751 1:-70 2:194 3:124 5:1 12:1 18:1 23:1 27:1 33:1 35:1 43:1 45:1 53:1 58:1 62:1 
0.5114424531310792 1:-176 2:203 3:27 5:1 13:1 18:1 19:1 27:1 29:1 38:1 39:1 45:1 49:1 56:1 63:1 
0.2106954150652379 1:-208 2:226 3:18 4:1 10:1 14:1 19:1 27:1 29:1 37:1 39:1 45:1 53:1 58:1 59:1 
1.113233743126921 1:20 2:81 3:101 4:1 13:1 14:1 19:1 24:1 33:1 38:1 43:1 45:1 53:1 54:1 63:1 
0.2020254025970079 1:127 2:81 3:208 4:1 13:1 14:1 19:1 24:1 33:1 38:1 43:1 45:1 50:1 58:1 60:1 
0.7002289895617876 1:260 2:8 3:268 8:1 10:1 14:1 20:1 28:1 33:1 35:1 43:1 48:1 53:1 54:1 59:1 
0.7275809726243664 1:187 2:81 3:268 4:1 13:1 14:1 19:1 24:1 33:1 35:1 43:1 48:1 53:1 54:1 59:1 
0.4383572108353244 1:349 2:8 3:357 8:1 10:1 14:1 20:1 28:1 33:1 35:1 43:1 48:1 52:1 58:1 59:1 
1.644484121330748 1:4 2:31 3:35 8:1 13:1 14:1 23:1 27:1 30:1 38:1 42:1 45:1 53:1 58:1 63:1 
0.2926330706851195 1:6 2:31 3:37 8:1 13:1 14:1 23:1 27:1 30:1 35:1 43:1 48:1 53:1 58:1 62:1 
1.555098240498551 1:17 2:31 3:48 8:1 13:1 14:1 23:1 27:1 30:1 37:1 42:1 45:1 53:1 57:1 63:1 
1.506036421220236 1:-104 2:116 3:12 8:1 13:1 18:1 19:1 28:1 31:1 35:1 43:1 47:1 49:1 54:1 63:1 
1.110156770905787 1:-79 2:116 3:37 8:1 13:1 18:1 19:1 28:1 31:1 35:1 43:1 48:1 53:1 58:1 62:1 
1.562514483951015 1:-51 2:116 3:65 8:1 13:1 18:1 19:1 28:1 31:1 38:1 43:1 45:1 49:1 58:1 63:1 
0.9416487743973393 1:-100 2:119 3:19 6:1 9:1 18:1 19:1 25:1 31:1 34:1 40:1 48:1 53:1 58:1 59:1 
2.776945971885913 1:-84 2:119 3:35 6:1 9:1 18:1 19:1 25:1 31:1 38:1 42:1 45:1 53:1 58:1 63:1 
2.497165939263516 1:-71 2:119 3:48 6:1 9:1 18:1 19:1 25:1 31:1 37:1 42:1 45:1 53:1 57:1 63:1 
1.364343104797073 1:-110 2:122 3:12 6:1 9:1 15:1 19:1 27:1 33:1 35:1 43:1 47:1 49:1 54:1 63:1 
2.579982542598958 1:-85 2:122 3:37 6:1 9:1 15:1 19:1 27:1 33:1 35:1 43:1 48:1 53:1 58:1 62:1 
0.8769073479777798 1:-57 2:122 3:65 6:1 9:1 15:1 19:1 27:1 33:1 38:1 43:1 45:1 49:1 58:1 63:1 
0.8166331645713986 1:-121 2:140 3:19 8:1 12:1 15:1 22:1 25:1 32:1 34:1 40:1 48:1 53:1 58:1 59:1 
1.58118393855972 1:-75 2:140 3:65 8:1 12:1 15:1 22:1 25:1 32:1 38:1 43:1 45:1 49:1 58:1 63:1 
