svm_type c_svc
kernel_type rbf
gamma 0.015873
nr_class 2
total_sv 25509
rho -0.892926
label -1 1
nr_sv 19380 6129
SV
1.427977460634741 1:-15 2:33 3:18 4:1 13:1 14:1 23:1 25:1 29:1 38:1 40:1 48:1 53:1 57:1 60:1 
0.9541148019182769 1:-90 2:108 3:18 8:1 12:1 18:1 23:1 28:1 29:1 38:1 40:1 48:1 53:1 57:1 60:1 
2.596135031403136 1:-106 2:124 3:18 5:1 13:1 14:1 23:1 28:1 33:1 38:1 40:1 48:1 53:1 57:1 60:1 
1.526404993587453 1:145 2:33 3:178 4:1 13:1 14:1 23:1 25:1 29:1 34:1 40:1 47:1 49:1 55:1 59:1 
0.3278451787915941 1:-127 2:305 3:178 7:1 13:1 18:1 23:1 28:1 29:1 34:1 40:1 47:1 49:1 55:1 59:1 
2.417832441817738 1:-300 2:318 3:18 8:1 13:1 18:1 19:1 28:1 29:1 38:1 40:1 48:1 53:1 57:1 60:1 
0.3197231631414311 1:248 2:75 3:323 5:1 12:1 18:1 23:1 28:1 29:1 38:1 39:1 48:1 53:1 55:1 63:1 
0.7791368673852045 1:199 2:124 3:323 5:1 13:1 14:1 23:1 28:1 33:1 38:1 39:1 48:1 53:1 55:1 63:1 
1.810523969299811 1:47 2:276 3:323 5:1 13:1 15:1 23:1 24:1 30:1 38:1 39:1 48:1 53:1 55:1 63:1 
3.006290526386064 1:18 2:305 3:323 7:1 13:1 18:1 23:1 28:1 29:1 38:1 39:1 48:1 53:1 55:1 63:1 
1.195055357411338 1:-11 2:22 3:11 8:1 13:1 14:1 23:1 28:1 33:1 34:1 39:1 48:1 53:1 55:1 60:1 
2.731282291661674 1:-34 2:75 3:41 4:1 10:1 18:1 22:1 25:1 32:1 34:1 43:1 45:1 50:1 58:1 63:1 
2.437958362549474 1:-105 2:116 3:11 8:1 13:1 15:1 20:1 28:1 30:1 34:1 39:1 48:1 53:1 55:1 60:1 
0.8580280383081078 1:-75 2:116 3:41 8:1 13:1 15:1 20:1 28:1 30:1 34:1 43:1 45:1 50:1 58:1 63:1 
1.137266989268733 1:-222 2:233 3:11 8:1 13:1 15:1 22:1 25:1 29:1 34:1 39:1 48:1 53:1 55:1 60:1 
1.819866841879466 1:-192 2:233 3:41 8:1 13:1 15:1 22:1 25:1 29:1 34:1 43:1 45:1 50:1 58:1 63:1 
0.2726631343467738 1:298 2:22 3:320 8:1 13:1 14:1 23:1 28:1 33:1 37:1 39:1 45:1 50:1 54:1 63:1 
0.1144870633010616 1:90 2:233 3:323 8:1 13:1 15:1 22:1 25:1 29:1 38:1 40:1 44:1 53:1 58:1 62:1 
2.528862621631366 1:-40 2:363 3:323 8:1 9:1 15:1 22:1 25:1 32:1 38:1 40:1 44:1 53:1 58:1 62:1 
0.9389056291801221 1:-7 2:27 3:20 8:1 9:1 15:1 23:1 24:1 33:1 38:1 43:1 45:1 53:1 56:1 63:1 
3.789783216121295 1:-59 2:67 3:8 8:1 12:1 15:1 22:1 25:1 33:1 35:1 40:1 48:1 49:1 56:1 60:1 
1.468001823939783 1:92 2:22 3:114 5:1 13:1 18:1 23:1 28:1 29:1 35:1 43:1 45:1 53:1 57:1 60:1 
0.615303609868865 1:87 2:27 3:114 8:1 9:1 15:1 23:1 24:1 33:1 35:1 43:1 45:1 53:1 57:1 60:1 
2.301470458055863 1:47 2:67 3:114 8:1 12:1 15:1 22:1 25:1 33:1 35:1 43:1 45:1 53:1 57:1 60:1 
2.070650212707954 1:122 2:13 3:135 6:1 10:1 14:1 22:1 25:1 33:1 38:1 43:1 45:1 49:1 58:1 63:1 
1.9863700557979 1:108 2:27 3:135 8:1 9:1 15:1 23:1 24:1 33:1 38:1 43:1 45:1 49:1 58:1 63:1 
4 1:68 2:67 3:135 8:1 12:1 15:1 22:1 25:1 33:1 38:1 43:1 45:1 49:1 58:1 63:1 
2.62062101598512 1:42 2:93 3:135 8:1 9:1 15:1 23:1 28:1 33:1 38:1 43:1 45:1 49:1 58:1 63:1 
0.9410861669694096 1:-119 2:139 3:20 4:1 13:1 18:1 23:1 24:1 33:1 38:1 43:1 45:1 53:1 56:1 63:1 
1.047658137035234 1:121 2:22 3:143 5:1 13:1 18:1 23:1 28:1 29:1 38:1 39:1 48:1 49:1 58:1 60:1 
0.5871663489490022 1:116 2:27 3:143 8:1 9:1 15:1 23:1 24:1 33:1 38:1 39:1 48:1 49:1 58:1 60:1 
0.6711955209772997 1:76 2:67 3:143 8:1 12:1 15:1 22:1 25:1 33:1 38:1 39:1 48:1 49:1 58:1 60:1 
1.558999711224267 1:-128 2:148 3:20 8:1 10:1 18:1 19:1 25:1 33:1 38:1 43:1 45:1 53:1 56:1 63:1 
0.8281407946914261 1:-34 2:148 3:114 8:1 10:1 18:1 19:1 25:1 33:1 35:1 43:1 45:1 53:1 57:1 60:1 
1.90581658725276 1:-5 2:148 3:143 8:1 10:1 18:1 19:1 25:1 33:1 38:1 39:1 48:1 49:1 58:1 60:1 
0.0252411858055395 1:127 2:27 3:154 8:1 9:1 15:1 23:1 24:1 33:1 38:1 43:1 47:1 49:1 58:1 59:1 
1.383696677177524 1:87 2:67 3:154 8:1 12:1 15:1 22:1 25:1 33:1 38:1 43:1 47:1 49:1 58:1 59:1 
1.777096835022651 1:61 2:93 3:154 8:1 9:1 15:1 23:1 28:1 33:1 38:1 43:1 47:1 49:1 58:1 59:1 
1.222870454379515 1:-165 2:173 3:8 8:1 9:1 15:1 22:1 25:1 33:1 35:1 40:1 48:1 49:1 56:1 60:1 
4 1:-153 2:173 3:20 8:1 9:1 15:1 22:1 25:1 33:1 38:1 43:1 45:1 53:1 56:1 63:1 
1.979731811580854 1:-130 2:173 3:43 8:1 9:1 15:1 22:1 25:1 33:1 35:1 43:1 44:1 50:1 58:1 63:1 
0.5278800822766141 1:-59 2:173 3:114 8:1 9:1 15:1 22:1 25:1 33:1 35:1 43:1 45:1 53:1 57:1 60:1 
0.8814457465773012 1:-71 2:185 3:114 4:1 13:1 14:1 19:1 28:1 30:1 35:1 43:1 45:1 53:1 57:1 60:1 
2.295625892830693 1:-50 2:185 3:135 4:1 13:1 14:1 19:1 28:1 30:1 38:1 43:1 45:1 49:1 58:1 63:1 
2.831303434989391 1:-42 2:185 3:143 4:1 13:1 14:1 19:1 28:1 30:1 38:1 39:1 48:1 49:1 58:1 60:1 
0.1681686147467302 1:-31 2:185 3:154 4:1 13:1 14:1 19:1 28:1 30:1 38:1 43:1 47:1 49:1 58:1 59:1 
0.1715569031445216 1:188 2:10 3:198 8:1 13:1 14:1 20:1 24:1 31:1 35:1 43:1 47:1 53:1 54:1 63:1 
4 1:131 2:67 3:198 8:1 12:1 15:1 22:1 25:1 33:1 35:1 43:1 47:1 53:1 54:1 63:1 
0.01009424306069183 1:105 2:93 3:198 8:1 9:1 15:1 23:1 28:1 33:1 35:1 43:1 47:1 53:1 54:1 63:1 
0.08463032216445805 1:59 2:139 3:198 4:1 13:1 18:1 23:1 24:1 33:1 35:1 43:1 47:1 53:1 54:1 63:1 
2.775772207981533 1:50 2:148 3:198 8:1 10:1 18:1 19:1 25:1 33:1 35:1 43:1 47:1 53:1 54:1 63:1 
0.189507319778513 1:2 2:17 3:19 8:1 10:1 14:1 20:1 28:1 29:1 34:1 41:1 45:1 49:1 55:1 63:1 
0.6170048683263856 1:-33 2:40 3:7 7:1 13:1 18:1 19:1 28:1 33:1 34:1 43:1 48:1 53:1 55:1 60:1 
1.06617973545959 1:-30 2:49 3:19 5:1 12:1 17:1 23:1 26:1 30:1 34:1 41:1 45:1 49:1 55:1 63:1 
1.478834868379159 1:-27 2:49 3:22 5:1 12:1 17:1 23:1 26:1 30:1 38:1 39:1 45:1 53:1 56:1 63:1 
3.653676317107141 1:-32 2:51 3:19 7:1 11:1 18:1 20:1 28:1 33:1 34:1 41:1 45:1 49:1 55:1 63:1 
2.082491337254656 1:-70 2:77 3:7 8:1 13:1 15:1 23:1 28:1 29:1 34:1 43:1 48:1 53:1 55:1 60:1 
1.448603882053679 1:-47 2:77 3:30 8:1 13:1 15:1 23:1 28:1 29:1 34:1 39:1 48:1 49:1 54:1 59:1 
1.840766803036748 1:-62 2:81 3:19 8:1 13:1 14:1 23:1 27:1 33:1 34:1 41:1 45:1 49:1 55:1 63:1 
4 1:-59 2:81 3:22 8:1 13:1 14:1 23:1 27:1 33:1 38:1 39:1 45:1 53:1 56:1 63:1 
1.585896800022047 1:-51 2:81 3:30 8:1 13:1 14:1 23:1 27:1 33:1 34:1 39:1 48:1 49:1 54:1 59:1 
0.633283574688538 1:65 2:17 3:82 8:1 10:1 14:1 20:1 28:1 29:1 38:1 39:1 46:1 52:1 58:1 59:1 
0.753540439027888 1:33 2:49 3:82 5:1 12:1 17:1 23:1 26:1 30:1 38:1 39:1 46:1 52:1 58:1 59:1 
0.0913125976670069 1:31 2:51 3:82 7:1 11:1 18:1 20:1 28:1 33:1 38:1 39:1 46:1 52:1 58:1 59:1 
3.904677601708187 1:1 2:81 3:82 8:1 13:1 14:1 23:1 27:1 33:1 38:1 39:1 46:1 52:1 58:1 59:1 
2.341587163542957 1:-69 2:91 3:22 8:1 9:1 14:1 23:1 25:1 31:1 38:1 39:1 45:1 53:1 56:1 63:1 
1.495489693660564 1:-61 2:91 3:30 8:1 9:1 14:1 23:1 25:1 31:1 34:1 39:1 48:1 49:1 54:1 59:1 
3.06462197329643 1:-9 2:91 3:82 8:1 9:1 14:1 23:1 25:1 31:1 38:1 39:1 46:1 52:1 58:1 59:1 
1.049548059557413 1:-87 2:94 3:7 6:1 13:1 15:1 20:1 26:1 30:1 34:1 43:1 48:1 53:1 55:1 60:1 
1.080323477481825 1:-75 2:94 3:19 6:1 13:1 15:1 20:1 26:1 30:1 34:1 41:1 45:1 49:1 55:1 63:1 
0.007847691351669427 1:-77 2:96 3:19 5:1 11:1 15:1 20:1 26:1 30:1 34:1 41:1 45:1 49:1 55:1 63:1 
1.718824269672367 1:-74 2:96 3:22 5:1 11:1 15:1 20:1 26:1 30:1 38:1 39:1 45:1 53:1 56:1 63:1 
0.8969459231062045 1:-66 2:96 3:30 5:1 11:1 15:1 20:1 26:1 30:1 34:1 39:1 48:1 49:1 54:1 59:1 
0.05790525323580464 1:-16 2:98 3:82 5:1 11:1 15:1 20:1 28:1 29:1 38:1 39:1 46:1 52:1 58:1 59:1 
1.57880110330708 1:60 2:40 3:100 7:1 13:1 18:1 19:1 28:1 33:1 35:1 41:1 45:1 49:1 58:1 59:1 
0.3746031521429175 1:19 2:81 3:100 8:1 13:1 14:1 23:1 27:1 33:1 35:1 41:1 45:1 49:1 58:1 59:1 
2.592631977796069 1:9 2:91 3:100 8:1 9:1 14:1 23:1 25:1 31:1 35:1 41:1 45:1 49:1 58:1 59:1 
1.012823346031343 1:-98 2:105 3:7 8:1 9:1 14:1 23:1 28:1 29:1 34:1 43:1 48:1 53:1 55:1 60:1 
1.975397369432578 1:-86 2:105 3:19 8:1 9:1 14:1 23:1 28:1 29:1 34:1 41:1 45:1 49:1 55:1 63:1 
1.164062871287076 1:-83 2:105 3:22 8:1 9:1 14:1 23:1 28:1 29:1 38:1 39:1 45:1 53:1 56:1 63:1 
2.516705667065394 1:-75 2:105 3:30 8:1 9:1 14:1 23:1 28:1 29:1 34:1 39:1 48:1 49:1 54:1 59:1 
0.9166254804753164 1:90 2:17 3:107 8:1 10:1 14:1 20:1 28:1 29:1 34:1 41:1 48:1 49:1 56:1 59:1 
0.886803200181719 1:83 2:24 3:107 5:1 13:1 18:1 23:1 28:1 29:1 34:1 41:1 48:1 49:1 56:1 59:1 
1.184279515315313 1:58 2:49 3:107 5:1 12:1 17:1 23:1 26:1 30:1 34:1 41:1 48:1 49:1 56:1 59:1 
2.822289815821497 1:56 2:51 3:107 7:1 11:1 18:1 20:1 28:1 33:1 34:1 41:1 48:1 49:1 56:1 59:1 
0.251812114659674 1:30 2:77 3:107 8:1 13:1 15:1 23:1 28:1 29:1 34:1 41:1 48:1 49:1 56:1 59:1 
4 1:2 2:105 3:107 8:1 9:1 14:1 23:1 28:1 29:1 34:1 41:1 48:1 49:1 56:1 59:1 
0.1977768875874105 1:-102 2:109 3:7 8:1 13:1 14:1 19:1 24:1 30:1 34:1 43:1 48:1 53:1 55:1 60:1 
0.2515211303136757 1:-90 2:109 3:19 8:1 13:1 14:1 19:1 24:1 30:1 34:1 41:1 45:1 49:1 55:1 63:1 
0.2113176588335688 1:-27 2:109 3:82 8:1 13:1 14:1 19:1 24:1 30:1 38:1 39:1 46:1 52:1 58:1 59:1 
2.667325598435999 1:-9 2:109 3:100 8:1 13:1 14:1 19:1 24:1 30:1 35:1 41:1 45:1 49:1 58:1 59:1 
1.03969561562133 1:-64 2:146 3:82 8:1 9:1 15:1 22:1 25:1 29:1 38:1 39:1 46:1 52:1 58:1 59:1 
2.567197035195089 1:-46 2:146 3:100 8:1 9:1 15:1 22:1 25:1 29:1 35:1 41:1 45:1 49:1 58:1 59:1 
0.6456190142977039 1:-39 2:146 3:107 8:1 9:1 15:1 22:1 25:1 29:1 34:1 41:1 48:1 49:1 56:1 59:1 
0.2142239216293857 1:78 2:81 3:159 8:1 13:1 14:1 23:1 27:1 33:1 35:1 43:1 44:1 49:1 57:1 59:1 
0.09239925949679392 1:65 2:94 3:159 6:1 13:1 15:1 20:1 26:1 30:1 35:1 43:1 44:1 49:1 57:1 59:1 
0.3610096339688579 1:13 2:146 3:159 8:1 9:1 15:1 22:1 25:1 29:1 35:1 43:1 44:1 49:1 57:1 59:1 
0.4251763551005225 1:-200 2:207 3:7 8:1 12:1 15:1 20:1 28:1 33:1 34:1 43:1 48:1 53:1 55:1 60:1 
0.0762816543708992 1:-188 2:207 3:19 8:1 12:1 15:1 20:1 28:1 33:1 34:1 41:1 45:1 49:1 55:1 63:1 
2.344590472511579 1:-177 2:207 3:30 8:1 12:1 15:1 20:1 28:1 33:1 34:1 39:1 48:1 49:1 54:1 59:1 
0.1435611296264014 1:-100 2:207 3:107 8:1 12:1 15:1 20:1 28:1 33:1 34:1 41:1 48:1 49:1 56:1 59:1 
0.9155354973926179 1:-48 2:207 3:159 8:1 12:1 15:1 20:1 28:1 33:1 35:1 43:1 44:1 49:1 57:1 59:1 
0.358136284526188 1:-199 2:221 3:22 8:1 10:1 18:1 20:1 28:1 29:1 38:1 39:1 45:1 53:1 56:1 63:1 
0.6854836008670347 1:-191 2:221 3:30 8:1 10:1 18:1 20:1 28:1 29:1 34:1 39:1 48:1 49:1 54:1 59:1 
3.381731682217368 1:-139 2:221 3:82 8:1 10:1 18:1 20:1 28:1 29:1 38:1 39:1 46:1 52:1 58:1 59:1 
0.4436367674188048 1:-62 2:221 3:159 8:1 10:1 18:1 20:1 28:1 29:1 35:1 43:1 44:1 49:1 57:1 59:1 
3.904855819841373 1:-221 2:240 3:19 8:1 11:1 15:1 20:1 26:1 33:1 34:1 41:1 45:1 49:1 55:1 63:1 
2.539199545973604 1:-210 2:240 3:30 8:1 11:1 15:1 20:1 26:1 33:1 34:1 39:1 48:1 49:1 54:1 59:1 
1.821378840999373 1:-133 2:240 3:107 8:1 11:1 15:1 20:1 26:1 33:1 34:1 41:1 48:1 49:1 56:1 59:1 
0.2332367276412496 1:-81 2:240 3:159 8:1 11:1 15:1 20:1 26:1 33:1 35:1 43:1 44:1 49:1 57:1 59:1 
0.6493985264661247 1:-235 2:242 3:7 5:1 11:1 15:1 23:1 27:1 33:1 34:1 43:1 48:1 53:1 55:1 60:1 
0.6584773062212292 1:-223 2:242 3:19 5:1 11:1 15:1 23:1 27:1 33:1 34:1 41:1 45:1 49:1 55:1 63:1 
0.7953026266083555 1:-160 2:242 3:82 5:1 11:1 15:1 23:1 27:1 33:1 38:1 39:1 46:1 52:1 58:1 59:1 
0.8059392061485559 1:-83 2:242 3:159 5:1 11:1 15:1 23:1 27:1 33:1 35:1 43:1 44:1 49:1 57:1 59:1 
0.09390505762602185 1:30 2:14 3:44 5:1 13:1 18:1 23:1 27:1 30:1 34:1 42:1 45:1 49:1 56:1 63:1 
0.07839759097477532 1:-119 2:222 3:103 5:1 13:1 15:1 22:1 25:1 33:1 37:1 40:1 48:1 52:1 58:1 63:1 
1.193160082114233 1:14 2:25 3:39 5:1 13:1 18:1 21:1 28:1 33:1 38:1 42:1 45:1 49:1 55:1 59:1 
0.2269739743844422 1:13 2:26 3:39 8:1 13:1 16:1 23:1 28:1 30:1 38:1 42:1 45:1 49:1 55:1 59:1 
4 1:-7 2:46 3:39 6:1 13:1 18:1 20:1 25:1 30:1 38:1 42:1 45:1 49:1 55:1 59:1 
0.5659126101350824 1:5 2:46 3:51 6:1 13:1 18:1 20:1 25:1 30:1 35:1 40:1 45:1 53:1 58:1 59:1 
0.1158493364261735 1:18 2:46 3:64 6:1 13:1 18:1 20:1 25:1 30:1 38:1 42:1 45:1 49:1 56:1 60:1 
1.882165023304399 1:2 2:66 3:68 5:1 13:1 14:1 20:1 28:1 29:1 34:1 41:1 45:1 49:1 58:1 63:1 
2.214157344279719 1:-35 2:74 3:39 8:1 13:1 18:1 22:1 28:1 33:1 38:1 42:1 45:1 49:1 55:1 59:1 
1.815567864099377 1:22 2:66 3:88 5:1 13:1 14:1 20:1 28:1 29:1 35:1 40:1 45:1 53:1 58:1 62:1 
2.428130355474026 1:-69 2:120 3:51 8:1 9:1 14:1 23:1 28:1 29:1 35:1 40:1 45:1 53:1 58:1 59:1 
0.6310753054529578 1:199 2:25 3:224 5:1 13:1 18:1 21:1 28:1 33:1 35:1 40:1 45:1 53:1 58:1 59:1 
0.4243948545541662 1:150 2:74 3:224 8:1 13:1 18:1 22:1 28:1 33:1 35:1 40:1 45:1 53:1 58:1 59:1 
0.4131576075880906 1:104 2:120 3:224 8:1 9:1 14:1 23:1 28:1 29:1 35:1 40:1 45:1 53:1 58:1 59:1 
1.290377468294264 1:-212 2:251 3:39 8:1 9:1 15:1 23:1 24:1 29:1 38:1 42:1 45:1 49:1 55:1 59:1 
0.471899052725494 1:-187 2:251 3:64 8:1 9:1 15:1 23:1 24:1 29:1 38:1 42:1 45:1 49:1 56:1 60:1 
1.786268352005317 1:-163 2:251 3:88 8:1 9:1 15:1 23:1 24:1 29:1 35:1 40:1 45:1 53:1 58:1 62:1 
4 1:-3 2:11 3:8 8:1 13:1 16:1 23:1 28:1 33:1 35:1 40:1 48:1 53:1 56:1 61:1 
1.109482801631742 1:-20 2:28 3:8 7:1 10:1 18:1 23:1 24:1 29:1 35:1 40:1 48:1 53:1 56:1 61:1 
0.08929385111841547 1:-58 2:58 3:0 7:1 10:1 15:1 22:1 25:1 30:1 53:1 55:1 60:1 
0.8945683582641962 1:-42 2:58 3:16 7:1 10:1 15:1 22:1 25:1 30:1 38:1 43:1 48:1 49:1 58:1 63:1 
0.03476471333664136 1:-149 2:165 3:16 8:1 12:1 14:1 22:1 26:1 33:1 38:1 43:1 48:1 49:1 58:1 63:1 
0.5147168000388407 1:-125 2:165 3:40 8:1 12:1 14:1 22:1 26:1 33:1 35:1 40:1 48:1 49:1 58:1 63:1 
0.2419243575589925 1:-35 2:165 3:130 8:1 12:1 14:1 22:1 26:1 33:1 38:1 40:1 48:1 50:1 58:1 63:1 
1.537614773108147 1:-159 2:167 3:8 4:1 11:1 17:1 23:1 28:1 29:1 35:1 40:1 48:1 53:1 56:1 61:1 
0.6775752807171537 1:-164 2:180 3:16 7:1 12:1 18:1 22:1 24:1 30:1 38:1 43:1 48:1 49:1 58:1 63:1 
2.07947003981576 1:-169 2:185 3:16 4:1 10:1 17:1 19:1 27:1 33:1 38:1 43:1 48:1 49:1 58:1 63:1 
1.869926159469132 1:181 2:11 3:192 8:1 13:1 16:1 23:1 28:1 33:1 38:1 40:1 47:1 52:1 58:1 63:1 
3.013692496852499 1:164 2:28 3:192 7:1 10:1 18:1 23:1 24:1 29:1 38:1 40:1 47:1 52:1 58:1 63:1 
0.4765761299060536 1:25 2:167 3:192 4:1 11:1 17:1 23:1 28:1 29:1 38:1 40:1 47:1 52:1 58:1 63:1 
1.251824136392264 1:12 2:180 3:192 7:1 12:1 18:1 22:1 24:1 30:1 38:1 40:1 47:1 52:1 58:1 63:1 
0.6006107751391808 1:7 2:185 3:192 4:1 10:1 17:1 19:1 27:1 33:1 38:1 40:1 47:1 52:1 58:1 63:1 
0.6938061447613982 1:51 2:185 3:236 4:1 10:1 17:1 19:1 27:1 33:1 34:1 42:1 45:1 53:1 58:1 63:1 
0.811802250857921 1:213 2:58 3:271 7:1 10:1 15:1 22:1 25:1 30:1 34:1 40:1 48:1 53:1 55:1 59:1 
0.2481083260245779 1:197 2:74 3:271 4:1 10:1 17:1 19:1 28:1 29:1 34:1 40:1 48:1 53:1 55:1 59:1 
1.038246128715388 1:104 2:167 3:271 4:1 11:1 17:1 23:1 28:1 29:1 34:1 40:1 48:1 53:1 55:1 59:1 
0.1867700219476593 1:91 2:180 3:271 7:1 12:1 18:1 22:1 24:1 30:1 34:1 40:1 48:1 53:1 55:1 59:1 
0.3751025499084196 1:86 2:185 3:271 4:1 10:1 17:1 19:1 27:1 33:1 34:1 40:1 48:1 53:1 55:1 59:1 
1.458787074163635 1:33 2:0 3:33 23:1 28:1 32:1 38:1 43:1 45:1 52:1 58:1 59:1 
1.539674854542657 1:35 2:0 3:35 23:1 28:1 32:1 35:1 43:1 47:1 49:1 55:1 60:1 
0.8151029192843621 1:264 2:0 3:264 23:1 28:1 32:1 37:1 42:1 47:1 49:1 54:1 62:1 
1.685870294488318 1:289 2:0 3:289 23:1 28:1 32:1 34:1 43:1 45:1 53:1 57:1 62:1 
0.07962019546812478 1:-273 2:306 3:33 4:1 10:1 18:1 19:1 28:1 33:1 38:1 43:1 45:1 52:1 58:1 59:1 
1.053960544289829 1:-271 2:306 3:35 4:1 10:1 18:1 19:1 28:1 33:1 35:1 43:1 47:1 49:1 55:1 60:1 
0.4404351742400948 1:-247 2:306 3:59 4:1 10:1 18:1 19:1 28:1 33:1 38:1 42:1 45:1 53:1 54:1 63:1 
1.862417292693404 1:-175 2:306 3:131 4:1 10:1 18:1 19:1 28:1 33:1 34:1 42:1 45:1 49:1 58:1 63:1 
0.015443066397898 1:-123 2:306 3:183 4:1 10:1 18:1 19:1 28:1 33:1 38:1 39:1 45:1 52:1 54:1 59:1 
0.2940202823478974 1:-104 2:306 3:202 4:1 10:1 18:1 19:1 28:1 33:1 37:1 42:1 45:1 52:1 58:1 59:1 
0.5238989629230698 1:-85 2:306 3:221 4:1 10:1 18:1 19:1 28:1 33:1 38:1 42:1 45:1 53:1 57:1 63:1 
0.5695899253351411 1:-42 2:306 3:264 4:1 10:1 18:1 19:1 28:1 33:1 37:1 42:1 47:1 49:1 54:1 62:1 
1.645455273666114 1:-34 2:306 3:272 4:1 10:1 18:1 19:1 28:1 33:1 38:1 40:1 47:1 49:1 54:1 63:1 
1.027589112545626 1:-6 2:306 3:300 4:1 10:1 18:1 19:1 28:1 33:1 35:1 43:1 47:1 53:1 54:1 59:1 
0.2110545904069434 1:3 2:306 3:309 4:1 10:1 18:1 19:1 28:1 33:1 36:1 39:1 48:1 53:1 57:1 60:1 
0.01493345193083556 1:72 2:306 3:378 4:1 10:1 18:1 19:1 28:1 33:1 34:1 42:1 48:1 53:1 54:1 63:1 
1.173276125484111 1:92 2:306 3:398 4:1 10:1 18:1 19:1 28:1 33:1 35:1 39:1 48:1 52:1 54:1 59:1 
0.07876020097793224 1:98 2:306 3:404 4:1 10:1 18:1 19:1 28:1 33:1 34:1 40:1 48:1 49:1 54:1 63:1 
1.871899904138832 1:458 2:0 3:458 23:1 28:1 32:1 38:1 39:1 45:1 53:1 58:1 63:1 
1.024794174019921 1:161 2:306 3:467 4:1 10:1 18:1 19:1 28:1 33:1 37:1 40:1 48:1 52:1 57:1 63:1 
0.2164938988386905 1:-464 2:499 3:35 8:1 13:1 14:1 22:1 25:1 33:1 35:1 43:1 47:1 49:1 55:1 60:1 
0.07915040478171231 1:-440 2:499 3:59 8:1 13:1 14:1 22:1 25:1 33:1 38:1 42:1 45:1 53:1 54:1 63:1 
0.1052888484755115 1:-316 2:499 3:183 8:1 13:1 14:1 22:1 25:1 33:1 38:1 39:1 45:1 52:1 54:1 59:1 
0.05262512628019086 1:-297 2:499 3:202 8:1 13:1 14:1 22:1 25:1 33:1 37:1 42:1 45:1 52:1 58:1 59:1 
0.0884924971078368 1:-273 2:499 3:226 8:1 13:1 14:1 22:1 25:1 33:1 37:1 43:1 48:1 49:1 58:1 63:1 
0.05796570014747326 1:-235 2:499 3:264 8:1 13:1 14:1 22:1 25:1 33:1 37:1 42:1 47:1 49:1 54:1 62:1 
0.08648647668543974 1:-210 2:499 3:289 8:1 13:1 14:1 22:1 25:1 33:1 34:1 43:1 45:1 53:1 57:1 62:1 
0.03907050358145903 1:-199 2:499 3:300 8:1 13:1 14:1 22:1 25:1 33:1 35:1 43:1 47:1 53:1 54:1 59:1 
0.0544966801102791 1:-190 2:499 3:309 8:1 13:1 14:1 22:1 25:1 33:1 36:1 39:1 48:1 53:1 57:1 60:1 
0.06875711019620454 1:-174 2:499 3:325 8:1 13:1 14:1 22:1 25:1 33:1 35:1 43:1 47:1 53:1 54:1 59:1 
0.09250712398493877 1:-153 2:499 3:346 8:1 13:1 14:1 22:1 25:1 33:1 34:1 40:1 47:1 53:1 58:1 62:1 
0.03180983689295141 1:-121 2:499 3:378 8:1 13:1 14:1 22:1 25:1 33:1 34:1 42:1 48:1 53:1 54:1 63:1 
0.07278840021870558 1:-101 2:499 3:398 8:1 13:1 14:1 22:1 25:1 33:1 35:1 39:1 48:1 52:1 54:1 59:1 
0.07434219606589583 1:-41 2:499 3:458 8:1 13:1 14:1 22:1 25:1 33:1 38:1 39:1 45:1 53:1 58:1 63:1 
0.03120035510151705 1:-32 2:499 3:467 8:1 13:1 14:1 22:1 25:1 33:1 37:1 40:1 48:1 52:1 57:1 63:1 
2.7185163593833 1:-2 2:499 3:497 8:1 13:1 14:1 22:1 25:1 33:1 34:1 43:1 48:1 49:1 56:1 62:1 
0.3551208059086799 1:3 2:499 3:502 8:1 13:1 14:1 22:1 25:1 33:1 36:1 42:1 45:1 53:1 54:1 62:1 
0.02916746676220944 1:207 2:306 3:513 4:1 10:1 18:1 19:1 28:1 33:1 34:1 43:1 47:1 52:1 58:1 63:1 
0.03348227509609314 1:14 2:499 3:513 8:1 13:1 14:1 22:1 25:1 33:1 34:1 43:1 47:1 52:1 58:1 63:1 
0.09449900041618453 1:527 2:0 3:527 23:1 28:1 32:1 37:1 40:1 48:1 52:1 54:1 60:1 
0.08494950195385115 1:28 2:499 3:527 8:1 13:1 14:1 22:1 25:1 33:1 37:1 40:1 48:1 52:1 54:1 60:1 
0.1622101455208561 1:539 2:0 3:539 23:1 28:1 32:1 35:1 42:1 45:1 53:1 57:1 63:1 
0.1022160893291588 1:233 2:306 3:539 4:1 10:1 18:1 19:1 28:1 33:1 35:1 42:1 45:1 53:1 57:1 63:1 
0.06266150360921829 1:40 2:499 3:539 8:1 13:1 14:1 22:1 25:1 33:1 35:1 42:1 45:1 53:1 57:1 63:1 
0.6455581126850702 1:542 2:0 3:542 23:1 28:1 32:1 38:1 43:1 47:1 49:1 54:1 63:1 
4 1:-137 2:150 3:13 8:1 9:1 15:1 22:1 28:1 33:1 34:1 41:1 45:1 49:1 56:1 63:1 
0.2686752179036851 1:-169 2:170 3:1 4:1 12:1 14:1 23:1 27:1 33:1 48:1 53:1 55:1 60:1 
0.1605631534140556 1:-157 2:170 3:13 4:1 12:1 14:1 23:1 27:1 33:1 34:1 41:1 45:1 49:1 56:1 63:1 
0.6306196017051524 1:159 2:15 3:174 5:1 13:1 14:1 23:1 28:1 33:1 38:1 42:1 48:1 53:1 58:1 63:1 
0.2710721699564275 1:24 2:150 3:174 8:1 9:1 15:1 22:1 28:1 33:1 38:1 42:1 48:1 53:1 58:1 63:1 
4 1:-166 2:179 3:13 8:1 13:1 15:1 22:1 25:1 33:1 34:1 41:1 45:1 49:1 56:1 63:1 
4 1:-5 2:179 3:174 8:1 13:1 15:1 22:1 25:1 33:1 38:1 42:1 48:1 53:1 58:1 63:1 
2.242446614895931 1:167 2:15 3:182 5:1 13:1 14:1 23:1 28:1 33:1 36:1 42:1 45:1 53:1 58:1 63:1 
1.079197533896431 1:169 2:15 3:184 5:1 13:1 14:1 23:1 28:1 33:1 35:1 43:1 48:1 53:1 57:1 62:1 
3.306975371357892 1:34 2:150 3:184 8:1 9:1 15:1 22:1 28:1 33:1 35:1 43:1 48:1 53:1 57:1 62:1 
0.80681314976803 1:22 2:162 3:184 5:1 13:1 14:1 22:1 25:1 33:1 35:1 43:1 48:1 53:1 57:1 62:1 
1.399730783708139 1:14 2:170 3:184 4:1 12:1 14:1 23:1 27:1 33:1 35:1 43:1 48:1 53:1 57:1 62:1 
0.1037952907462014 1:5 2:179 3:184 8:1 13:1 15:1 22:1 25:1 33:1 35:1 43:1 48:1 53:1 57:1 62:1 
0.6367244401753887 1:151 2:46 3:197 8:1 13:1 15:1 23:1 28:1 32:1 38:1 43:1 48:1 53:1 55:1 63:1 
1.991631053525763 1:18 2:179 3:197 8:1 13:1 15:1 22:1 25:1 33:1 38:1 43:1 48:1 53:1 55:1 63:1 
2.034456610374529 1:-37 2:202 3:165 5:1 13:1 14:1 20:1 27:1 30:1 36:1 42:1 45:1 53:1 54:1 62:1 
2.57094207230858 1:-28 2:202 3:174 5:1 13:1 14:1 20:1 27:1 30:1 38:1 42:1 48:1 53:1 58:1 63:1 
0.4611456980359702 1:-18 2:202 3:184 5:1 13:1 14:1 20:1 27:1 30:1 35:1 43:1 48:1 53:1 57:1 62:1 
1.692669744389497 1:167 2:46 3:213 8:1 13:1 15:1 23:1 28:1 32:1 34:1 40:1 44:1 53:1 54:1 61:1 
1.239902453476033 1:34 2:179 3:213 8:1 13:1 15:1 22:1 25:1 33:1 34:1 40:1 44:1 53:1 54:1 61:1 
0.1868119912043536 1:-215 2:216 3:1 8:1 13:1 14:1 23:1 28:1 31:1 48:1 53:1 55:1 60:1 
2.519454381255472 1:-203 2:216 3:13 8:1 13:1 14:1 23:1 28:1 31:1 34:1 41:1 45:1 49:1 56:1 63:1 
1.747476199529031 1:-51 2:216 3:165 8:1 13:1 14:1 23:1 28:1 31:1 36:1 42:1 45:1 53:1 54:1 62:1 
4 1:-206 2:219 3:13 6:1 13:1 18:1 22:1 28:1 29:1 34:1 41:1 45:1 49:1 56:1 63:1 
1.984108414544811 1:-45 2:219 3:174 6:1 13:1 18:1 22:1 28:1 29:1 38:1 42:1 48:1 53:1 58:1 63:1 
4 1:-35 2:219 3:184 6:1 13:1 18:1 22:1 28:1 29:1 35:1 43:1 48:1 53:1 57:1 62:1 
3.246767236265793 1:-22 2:219 3:197 6:1 13:1 18:1 22:1 28:1 29:1 38:1 43:1 48:1 53:1 55:1 63:1 
0.5069924684049549 1:-43 2:227 3:184 8:1 12:1 15:1 19:1 27:1 33:1 35:1 43:1 48:1 53:1 57:1 62:1 
0.5189600014359522 1:199 2:46 3:245 8:1 13:1 15:1 23:1 28:1 32:1 38:1 42:1 45:1 53:1 54:1 63:1 
1.555036888499644 1:227 2:46 3:273 8:1 13:1 15:1 23:1 28:1 32:1 38:1 39:1 45:1 53:1 58:1 63:1 
1.55516728745532 1:57 2:216 3:273 8:1 13:1 14:1 23:1 28:1 31:1 38:1 39:1 45:1 53:1 58:1 63:1 
2.207886695233162 1:46 2:227 3:273 8:1 12:1 15:1 19:1 27:1 33:1 38:1 39:1 45:1 53:1 58:1 63:1 
1.309000355796695 1:264 2:11 3:275 8:1 10:1 14:1 20:1 28:1 29:1 35:1 43:1 48:1 53:1 58:1 63:1 
1.075616487254263 1:125 2:150 3:275 8:1 9:1 15:1 22:1 28:1 33:1 35:1 43:1 48:1 53:1 58:1 63:1 
2.014001729617549 1:105 2:170 3:275 4:1 12:1 14:1 23:1 27:1 33:1 35:1 43:1 48:1 53:1 58:1 63:1 
2.596776596524041 1:96 2:179 3:275 8:1 13:1 15:1 22:1 25:1 33:1 35:1 43:1 48:1 53:1 58:1 63:1 
2.093251055752179 1:56 2:219 3:275 6:1 13:1 18:1 22:1 28:1 29:1 35:1 43:1 48:1 53:1 58:1 63:1 
0.67588590388487 1:117 2:179 3:296 8:1 13:1 15:1 22:1 25:1 33:1 37:1 40:1 48:1 52:1 58:1 60:1 
0.3437171264086963 1:94 2:202 3:296 5:1 13:1 14:1 20:1 27:1 30:1 37:1 40:1 48:1 52:1 58:1 60:1 
0.3824493519442033 1:77 2:219 3:296 6:1 13:1 18:1 22:1 28:1 29:1 37:1 40:1 48:1 52:1 58:1 60:1 
2.045708379495711 1:295 2:15 3:310 5:1 13:1 14:1 23:1 28:1 33:1 38:1 42:1 48:1 53:1 58:1 63:1 
1.247734217343771 1:148 2:162 3:310 5:1 13:1 14:1 22:1 25:1 33:1 38:1 42:1 48:1 53:1 58:1 63:1 
2.501786517957789 1:108 2:202 3:310 5:1 13:1 14:1 20:1 27:1 30:1 38:1 42:1 48:1 53:1 58:1 63:1 
2.561685714397269 1:94 2:216 3:310 8:1 13:1 14:1 23:1 28:1 31:1 38:1 42:1 48:1 53:1 58:1 63:1 
0.2256073647538698 1:162 2:162 3:324 5:1 13:1 14:1 22:1 25:1 33:1 38:1 42:1 48:1 52:1 58:1 59:1 
0.9349719559473003 1:-176 2:341 3:165 8:1 13:1 15:1 23:1 27:1 30:1 36:1 42:1 45:1 53:1 54:1 62:1 
0.5209622966807478 1:-157 2:341 3:184 8:1 13:1 15:1 23:1 27:1 30:1 35:1 43:1 48:1 53:1 57:1 62:1 
0.02575026390725652 1:-144 2:341 3:197 8:1 13:1 15:1 23:1 27:1 30:1 38:1 43:1 48:1 53:1 55:1 63:1 
1.085280040553753 1:-45 2:341 3:296 8:1 13:1 15:1 23:1 27:1 30:1 37:1 40:1 48:1 52:1 58:1 60:1 
1.460617487089261 1:126 2:219 3:345 6:1 13:1 18:1 22:1 28:1 29:1 38:1 42:1 45:1 49:1 58:1 60:1 
1.194465284512047 1:149 2:202 3:351 5:1 13:1 14:1 20:1 27:1 30:1 35:1 43:1 47:1 49:1 57:1 62:1 
2.992442037062028 1:135 2:216 3:351 8:1 13:1 14:1 23:1 28:1 31:1 35:1 43:1 47:1 49:1 57:1 62:1 
0.2249992015525541 1:124 2:227 3:351 8:1 12:1 15:1 19:1 27:1 33:1 35:1 43:1 47:1 49:1 57:1 62:1 
3.828394720415401 1:-347 2:360 3:13 8:1 13:1 15:1 22:1 25:1 32:1 34:1 41:1 45:1 49:1 56:1 63:1 
1.483632034219769 1:-176 2:360 3:184 8:1 13:1 15:1 22:1 25:1 32:1 35:1 43:1 48:1 53:1 57:1 62:1 
1.334074182011004 1:-163 2:360 3:197 8:1 13:1 15:1 22:1 25:1 32:1 38:1 43:1 48:1 53:1 55:1 63:1 
1.273283982905604 1:-147 2:360 3:213 8:1 13:1 15:1 22:1 25:1 32:1 34:1 40:1 44:1 53:1 54:1 61:1 
0.3619877918117506 1:-202 2:376 3:174 7:1 13:1 14:1 19:1 28:1 29:1 38:1 42:1 48:1 53:1 58:1 63:1 
0.4969047711134915 1:-192 2:376 3:184 7:1 13:1 14:1 19:1 28:1 29:1 35:1 43:1 48:1 53:1 57:1 62:1 
0.8907309801074371 1:-179 2:376 3:197 7:1 13:1 14:1 19:1 28:1 29:1 38:1 43:1 48:1 53:1 55:1 63:1 
0.01292934809846064 1:-103 2:376 3:273 7:1 13:1 14:1 19:1 28:1 29:1 38:1 39:1 45:1 53:1 58:1 63:1 
0.02464125545911702 1:-101 2:376 3:275 7:1 13:1 14:1 19:1 28:1 29:1 35:1 43:1 48:1 53:1 58:1 63:1 
2.548076881272641 1:-52 2:376 3:324 7:1 13:1 14:1 19:1 28:1 29:1 38:1 42:1 48:1 52:1 58:1 59:1 
0.005627011526771338 1:-31 2:376 3:345 7:1 13:1 14:1 19:1 28:1 29:1 38:1 42:1 45:1 49:1 58:1 60:1 
0.1981636392888617 1:-427 2:428 3:1 8:1 9:1 15:1 22:1 25:1 33:1 48:1 53:1 55:1 60:1 
0.01732738551823904 1:-231 2:428 3:197 8:1 9:1 15:1 22:1 25:1 33:1 38:1 43:1 48:1 53:1 55:1 63:1 
4 1:-153 2:428 3:275 8:1 9:1 15:1 22:1 25:1 33:1 35:1 43:1 48:1 53:1 58:1 63:1 
0.6332260308917854 1:418 2:15 3:433 5:1 13:1 14:1 23:1 28:1 33:1 35:1 43:1 45:1 53:1 58:1 63:1 
0.1327595873213824 1:387 2:46 3:433 8:1 13:1 15:1 23:1 28:1 32:1 35:1 43:1 45:1 53:1 58:1 63:1 
0.8336260755927294 1:271 2:162 3:433 5:1 13:1 14:1 22:1 25:1 33:1 35:1 43:1 45:1 53:1 58:1 63:1 
0.4767863620353689 1:231 2:202 3:433 5:1 13:1 14:1 20:1 27:1 30:1 35:1 43:1 45:1 53:1 58:1 63:1 
3.124633940154598 1:217 2:216 3:433 8:1 13:1 14:1 23:1 28:1 31:1 35:1 43:1 45:1 53:1 58:1 63:1 
2.357885964853316 1:-16 2:16 3:0 5:1 9:1 14:1 20:1 25:1 33:1 53:1 55:1 60:1 
1.151690153378595 1:12 2:16 3:28 5:1 9:1 14:1 20:1 25:1 33:1 38:1 42:1 48:1 53:1 54:1 60:1 
0.2564109358555731 1:-23 2:34 3:11 5:1 13:1 14:1 23:1 27:1 33:1 34:1 39:1 45:1 49:1 55:1 59:1 
2.46825542060867 1:-20 2:48 3:28 8:1 12:1 15:1 22:1 25:1 31:1 38:1 42:1 48:1 53:1 54:1 60:1 
3.863576544005233 1:-40 2:51 3:11 6:1 12:1 15:1 22:1 28:1 32:1 34:1 39:1 45:1 49:1 55:1 59:1 
1.045689878719725 1:70 2:16 3:86 5:1 9:1 14:1 20:1 25:1 33:1 34:1 43:1 47:1 49:1 58:1 59:1 
2.538664549934654 1:38 2:48 3:86 8:1 12:1 15:1 22:1 25:1 31:1 34:1 43:1 47:1 49:1 58:1 59:1 
1.479377599755401 1:12 2:74 3:86 5:1 12:1 18:1 23:1 28:1 33:1 34:1 43:1 47:1 49:1 58:1 59:1 
3.526664156608173 1:79 2:16 3:95 5:1 9:1 14:1 20:1 25:1 33:1 38:1 40:1 48:1 53:1 57:1 63:1 
2.334998841336796 1:47 2:48 3:95 8:1 12:1 15:1 22:1 25:1 31:1 38:1 40:1 48:1 53:1 57:1 63:1 
2.870196212511429 1:-88 2:99 3:11 8:1 12:1 18:1 19:1 28:1 30:1 34:1 39:1 45:1 49:1 55:1 59:1 
4 1:-4 2:99 3:95 8:1 12:1 18:1 19:1 28:1 30:1 38:1 40:1 48:1 53:1 57:1 63:1 
1.415090786835243 1:10 2:99 3:109 8:1 12:1 18:1 19:1 28:1 30:1 38:1 39:1 48:1 49:1 58:1 60:1 
0.3512438153915743 1:-104 2:136 3:32 7:1 13:1 18:1 20:1 24:1 32:1 38:1 39:1 45:1 49:1 56:1 63:1 
1.070664522621211 1:126 2:48 3:174 8:1 12:1 15:1 22:1 25:1 31:1 38:1 43:1 45:1 49:1 57:1 62:1 
0.8510502431646417 1:38 2:136 3:174 7:1 13:1 18:1 20:1 24:1 32:1 38:1 43:1 45:1 49:1 57:1 62:1 
0.1655856888348457 1:-157 2:185 3:28 4:1 13:1 17:1 20:1 25:1 33:1 38:1 42:1 48:1 53:1 54:1 60:1 
0.1593382933466642 1:-76 2:185 3:109 4:1 13:1 17:1 20:1 25:1 33:1 38:1 39:1 48:1 49:1 58:1 60:1 
3.578862393779054 1:-23 2:35 3:12 8:1 9:1 15:1 20:1 28:1 32:1 34:1 41:1 45:1 49:1 56:1 63:1 
0.9431513684274059 1:84 2:35 3:119 8:1 9:1 15:1 20:1 28:1 32:1 38:1 42:1 45:1 53:1 54:1 63:1 
0.5481348977465532 1:-146 2:206 3:60 7:1 12:1 15:1 23:1 27:1 30:1 36:1 43:1 47:1 49:1 57:1 59:1 
0.5500024932964651 1:189 2:4 3:193 5:1 13:1 17:1 20:1 25:1 30:1 37:1 43:1 48:1 53:1 54:1 63:1 
0.8806985761997068 1:139 2:54 3:193 4:1 10:1 15:1 23:1 25:1 30:1 37:1 43:1 48:1 53:1 54:1 63:1 
0.7917508693747327 1:22 2:171 3:193 8:1 12:1 14:1 19:1 28:1 29:1 37:1 43:1 48:1 53:1 54:1 63:1 
2.132953134092735 1:16 2:177 3:193 4:1 10:1 15:1 23:1 25:1 30:1 37:1 43:1 48:1 53:1 54:1 63:1 
1.210672235161951 1:-29 2:222 3:193 4:1 10:1 15:1 23:1 25:1 30:1 37:1 43:1 48:1 53:1 54:1 63:1 
0.2111053613206704 1:226 2:4 3:230 5:1 13:1 17:1 20:1 25:1 30:1 34:1 42:1 44:1 52:1 56:1 63:1 
1.306188505904068 1:176 2:54 3:230 4:1 10:1 15:1 23:1 25:1 30:1 34:1 42:1 44:1 52:1 56:1 63:1 
3.719251346543558 1:102 2:128 3:230 4:1 10:1 15:1 23:1 25:1 30:1 34:1 42:1 44:1 52:1 56:1 63:1 
1.215287983205876 1:53 2:177 3:230 4:1 10:1 15:1 23:1 25:1 30:1 34:1 42:1 44:1 52:1 56:1 63:1 
0.0994883167153158 1:8 2:222 3:230 4:1 10:1 15:1 23:1 25:1 30:1 34:1 42:1 44:1 52:1 56:1 63:1 
1.670590694179883 1:-57 2:250 3:193 8:1 9:1 15:1 23:1 25:1 29:1 37:1 43:1 48:1 53:1 54:1 63:1 
2.516262330199337 1:-69 2:262 3:193 8:1 10:1 15:1 23:1 25:1 30:1 37:1 43:1 48:1 53:1 54:1 63:1 
1.162752355239251 1:-32 2:262 3:230 8:1 10:1 15:1 23:1 25:1 30:1 34:1 42:1 44:1 52:1 56:1 63:1 
0.3883209179342565 1:-44 2:274 3:230 8:1 13:1 14:1 23:1 28:1 33:1 34:1 42:1 44:1 52:1 56:1 63:1 
0.8418126868502974 1:-118 2:311 3:193 8:1 9:1 18:1 23:1 28:1 29:1 37:1 43:1 48:1 53:1 54:1 63:1 
0.9018090302112711 1:-135 2:328 3:193 8:1 10:1 15:1 19:1 28:1 30:1 37:1 43:1 48:1 53:1 54:1 63:1 
1.656957626653038 1:271 2:75 3:346 5:1 13:1 18:1 22:1 27:1 31:1 37:1 39:1 45:1 53:1 58:1 60:1 
0.001764701544154009 1:218 2:128 3:346 4:1 10:1 15:1 23:1 25:1 30:1 37:1 39:1 45:1 53:1 58:1 60:1 
0.9446708842235401 1:175 2:171 3:346 8:1 12:1 14:1 19:1 28:1 29:1 37:1 39:1 45:1 53:1 58:1 60:1 
0.6620878722358745 1:124 2:222 3:346 4:1 10:1 15:1 23:1 25:1 30:1 37:1 39:1 45:1 53:1 58:1 60:1 
0.6431791220784613 1:91 2:255 3:346 5:1 9:1 18:1 22:1 24:1 32:1 37:1 39:1 45:1 53:1 58:1 60:1 
0.7149626842645564 1:305 2:54 3:359 4:1 10:1 15:1 23:1 25:1 30:1 35:1 39:1 44:1 50:1 58:1 60:1 
1.810747472570818 1:269 2:90 3:359 8:1 10:1 15:1 23:1 25:1 30:1 35:1 39:1 44:1 50:1 58:1 60:1 
1.316346290415174 1:188 2:171 3:359 8:1 12:1 14:1 19:1 28:1 29:1 35:1 39:1 44:1 50:1 58:1 60:1 
1.913948499689623 1:137 2:222 3:359 4:1 10:1 15:1 23:1 25:1 30:1 35:1 39:1 44:1 50:1 58:1 60:1 
0.05388647017890538 1:127 2:232 3:359 4:1 13:1 17:1 23:1 27:1 33:1 35:1 39:1 44:1 50:1 58:1 60:1 
3.825675169921821 1:104 2:255 3:359 5:1 9:1 18:1 22:1 24:1 32:1 35:1 39:1 44:1 50:1 58:1 60:1 
0.9471359448316486 1:97 2:262 3:359 8:1 10:1 15:1 23:1 25:1 30:1 35:1 39:1 44:1 50:1 58:1 60:1 
0.5438203145760819 1:31 2:328 3:359 8:1 10:1 15:1 19:1 28:1 30:1 35:1 39:1 44:1 50:1 58:1 60:1 
1.112622159725098 1:-136 2:366 3:230 8:1 12:1 14:1 20:1 28:1 30:1 34:1 42:1 44:1 52:1 56:1 63:1 
0.07987902406588424 1:-186 2:379 3:193 8:1 10:1 15:1 23:1 25:1 37:1 43:1 48:1 53:1 54:1 63:1 
0.0469718765830262 1:-149 2:379 3:230 8:1 10:1 15:1 23:1 25:1 34:1 42:1 44:1 52:1 56:1 63:1 
0.01891903748609106 1:-33 2:379 3:346 8:1 10:1 15:1 23:1 25:1 37:1 39:1 45:1 53:1 58:1 60:1 
2.159536294017994 1:41 2:72 3:113 8:1 13:1 15:1 22:1 26:1 30:1 38:1 43:1 47:1 53:1 54:1 60:1 
0.6816818222205615 1:39 2:74 3:113 5:1 11:1 17:1 20:1 28:1 33:1 38:1 43:1 47:1 53:1 54:1 60:1 
0.1923755488637476 1:147 2:72 3:219 8:1 13:1 15:1 22:1 26:1 30:1 35:1 43:1 48:1 52:1 54:1 60:1 
0.7834017800308745 1:145 2:74 3:219 5:1 11:1 17:1 20:1 28:1 33:1 35:1 43:1 48:1 52:1 54:1 60:1 
0.5685000766184841 1:-5 2:314 3:309 7:1 13:1 14:1 22:1 27:1 30:1 34:1 43:1 48:1 49:1 57:1 63:1 
0.6987434154772841 1:256 2:74 3:330 5:1 11:1 17:1 20:1 28:1 33:1 34:1 39:1 45:1 50:1 54:1 60:1 
0.7649201958024099 1:64 2:266 3:330 7:1 13:1 15:1 20:1 28:1 33:1 34:1 39:1 45:1 50:1 54:1 60:1 
1.646831443538511 1:16 2:314 3:330 7:1 13:1 14:1 22:1 27:1 30:1 34:1 39:1 45:1 50:1 54:1 60:1 
0.9032086302686156 1:-284 2:397 3:113 8:1 13:1 14:1 19:1 28:1 32:1 38:1 43:1 47:1 53:1 54:1 60:1 
0.239309369967168 1:-178 2:397 3:219 8:1 13:1 14:1 19:1 28:1 32:1 35:1 43:1 48:1 52:1 54:1 60:1 
0.7441414714719253 1:-88 2:397 3:309 8:1 13:1 14:1 19:1 28:1 32:1 34:1 43:1 48:1 49:1 57:1 63:1 
0.09325348699413318 1:27 2:380 3:407 8:1 12:1 14:1 20:1 28:1 33:1 38:1 40:1 48:1 53:1 58:1 59:1 
1.078862126398916 1:10 2:397 3:407 8:1 13:1 14:1 19:1 28:1 32:1 38:1 40:1 48:1 53:1 58:1 59:1 
0.01007795318325634 1:-201 2:420 3:219 8:1 10:1 18:1 23:1 24:1 33:1 35:1 43:1 48:1 52:1 54:1 60:1 
0.2249226404918395 1:-13 2:420 3:407 8:1 10:1 18:1 23:1 24:1 33:1 38:1 40:1 48:1 53:1 58:1 59:1 
0.1073483654601367 1:-338 2:557 3:219 5:1 13:1 17:1 23:1 28:1 29:1 35:1 43:1 48:1 52:1 54:1 60:1 
0.07414591296203861 1:-248 2:557 3:309 5:1 13:1 17:1 23:1 28:1 29:1 34:1 43:1 48:1 49:1 57:1 63:1 
0.08234459206874611 1:-227 2:557 3:330 5:1 13:1 17:1 23:1 28:1 29:1 34:1 39:1 45:1 50:1 54:1 60:1 
2.770183432464942 1:15 2:16 3:31 7:1 13:1 18:1 23:1 28:1 33:1 34:1 43:1 44:1 52:1 58:1 63:1 
0.6151924961112313 1:17 2:16 3:33 7:1 13:1 18:1 23:1 28:1 33:1 34:1 43:1 47:1 53:1 54:1 59:1 
1.577493067742171 1:23 2:16 3:39 7:1 13:1 18:1 23:1 28:1 33:1 34:1 42:1 45:1 49:1 56:1 60:1 
1.128588432238967 1:-8 2:41 3:33 5:1 13:1 14:1 20:1 28:1 32:1 34:1 43:1 47:1 53:1 54:1 59:1 
1.595631270808618 1:32 2:16 3:48 7:1 13:1 18:1 23:1 28:1 33:1 38:1 39:1 45:1 53:1 55:1 63:1 
0.819792314674732 1:35 2:16 3:51 7:1 13:1 18:1 23:1 28:1 33:1 38:1 43:1 45:1 49:1 54:1 63:1 
1.081394147143427 1:14 2:41 3:55 5:1 13:1 14:1 20:1 28:1 32:1 34:1 39:1 48:1 49:1 58:1 59:1 
0.6486284595789529 1:38 2:41 3:79 5:1 13:1 14:1 20:1 28:1 32:1 34:1 39:1 48:1 52:1 58:1 63:1 
0.4838817144339124 1:65 2:16 3:81 7:1 13:1 18:1 23:1 28:1 33:1 38:1 43:1 47:1 53:1 54:1 59:1 
3.840364677609339 1:-71 2:85 3:14 8:1 9:1 14:1 22:1 25:1 31:1 38:1 39:1 47:1 53:1 56:1 63:1 
2.239328489019084 1:-54 2:85 3:31 8:1 9:1 14:1 22:1 25:1 31:1 34:1 43:1 44:1 52:1 58:1 63:1 
2.439601847748393 1:-52 2:85 3:33 8:1 9:1 14:1 22:1 25:1 31:1 34:1 43:1 47:1 53:1 54:1 59:1 
0.8466819691266458 1:-46 2:85 3:39 8:1 9:1 14:1 22:1 25:1 31:1 34:1 42:1 45:1 49:1 56:1 60:1 
0.7712159479369941 1:-40 2:85 3:45 8:1 9:1 14:1 22:1 25:1 31:1 35:1 43:1 47:1 49:1 55:1 63:1 
2.048278885579647 1:-37 2:85 3:48 8:1 9:1 14:1 22:1 25:1 31:1 38:1 39:1 45:1 53:1 55:1 63:1 
3.069547391340969 1:-34 2:85 3:51 8:1 9:1 14:1 22:1 25:1 31:1 38:1 43:1 45:1 49:1 54:1 63:1 
2.260801824874374 1:-4 2:85 3:81 8:1 9:1 14:1 22:1 25:1 31:1 38:1 43:1 47:1 53:1 54:1 59:1 
0.9872956660493628 1:-57 2:88 3:31 6:1 12:1 15:1 23:1 24:1 29:1 34:1 43:1 44:1 52:1 58:1 63:1 
0.1731372015449758 1:-55 2:88 3:33 6:1 12:1 15:1 23:1 24:1 29:1 34:1 43:1 47:1 53:1 54:1 59:1 
1.545385897340143 1:-43 2:88 3:45 6:1 12:1 15:1 23:1 24:1 29:1 35:1 43:1 47:1 49:1 55:1 63:1 
1.26418594410379 1:-37 2:88 3:51 6:1 12:1 15:1 23:1 24:1 29:1 38:1 43:1 45:1 49:1 54:1 63:1 
2.937729026251579 1:-7 2:88 3:81 6:1 12:1 15:1 23:1 24:1 29:1 38:1 43:1 47:1 53:1 54:1 59:1 
0.4543721532239625 1:-66 2:97 3:31 8:1 9:1 15:1 22:1 25:1 30:1 34:1 43:1 44:1 52:1 58:1 63:1 
1.467855701088078 1:-64 2:97 3:33 8:1 9:1 15:1 22:1 25:1 30:1 34:1 43:1 47:1 53:1 54:1 59:1 
1.10469641803175 1:-58 2:97 3:39 8:1 9:1 15:1 22:1 25:1 30:1 34:1 42:1 45:1 49:1 56:1 60:1 
0.5117783437730449 1:-46 2:97 3:51 8:1 9:1 15:1 22:1 25:1 30:1 38:1 43:1 45:1 49:1 54:1 63:1 
0.7860982275243384 1:27 2:85 3:112 8:1 9:1 14:1 22:1 25:1 31:1 35:1 43:1 48:1 53:1 58:1 62:1 
1.452249104109937 1:33 2:88 3:121 6:1 12:1 15:1 23:1 24:1 29:1 35:1 43:1 47:1 53:1 54:1 63:1 
1.952948502732877 1:24 2:97 3:121 8:1 9:1 15:1 22:1 25:1 30:1 35:1 43:1 47:1 53:1 54:1 63:1 
0.798763879358019 1:124 2:7 3:131 5:1 13:1 14:1 22:1 25:1 33:1 38:1 43:1 47:1 50:1 58:1 59:1 
0.3774432789445165 1:48 2:85 3:133 8:1 9:1 14:1 22:1 25:1 31:1 37:1 43:1 45:1 49:1 58:1 62:1 
3.809757089245527 1:45 2:88 3:133 6:1 12:1 15:1 23:1 24:1 29:1 37:1 43:1 45:1 49:1 58:1 62:1 
0.6172920112064509 1:36 2:97 3:133 8:1 9:1 15:1 22:1 25:1 30:1 37:1 43:1 45:1 49:1 58:1 62:1 
0.05665279808856419 1:140 2:7 3:147 5:1 13:1 14:1 22:1 25:1 33:1 35:1 43:1 47:1 53:1 54:1 63:1 
0.2996030323118729 1:50 2:97 3:147 8:1 9:1 15:1 22:1 25:1 30:1 35:1 43:1 47:1 53:1 54:1 63:1 
1.393534402493582 1:111 2:41 3:152 5:1 13:1 14:1 20:1 28:1 32:1 34:1 43:1 47:1 50:1 58:1 63:1 
0.5737495605620523 1:138 2:16 3:154 7:1 13:1 18:1 23:1 28:1 33:1 37:1 43:1 45:1 53:1 58:1 63:1 
3.151361976038469 1:66 2:88 3:154 6:1 12:1 15:1 23:1 24:1 29:1 37:1 43:1 45:1 53:1 58:1 63:1 
0.9864113318931803 1:79 2:85 3:164 8:1 9:1 14:1 22:1 25:1 31:1 34:1 40:1 48:1 53:1 58:1 59:1 
0.6413273131179201 1:133 2:41 3:174 5:1 13:1 14:1 20:1 28:1 32:1 37:1 43:1 45:1 53:1 58:1 62:1 
2.591940485124578 1:89 2:85 3:174 8:1 9:1 14:1 22:1 25:1 31:1 37:1 43:1 45:1 53:1 58:1 62:1 
0.3708496443125844 1:77 2:97 3:174 8:1 9:1 15:1 22:1 25:1 30:1 37:1 43:1 45:1 53:1 58:1 62:1 
0.05942520903890663 1:-160 2:191 3:31 4:1 10:1 15:1 23:1 28:1 32:1 34:1 43:1 44:1 52:1 58:1 63:1 
2.40697006084597 1:-140 2:191 3:51 4:1 10:1 15:1 23:1 28:1 32:1 38:1 43:1 45:1 49:1 54:1 63:1 
0.595451085972616 1:-110 2:191 3:81 4:1 10:1 15:1 23:1 28:1 32:1 38:1 43:1 47:1 53:1 54:1 59:1 
0.2941483154742966 1:-79 2:191 3:112 4:1 10:1 15:1 23:1 28:1 32:1 35:1 43:1 48:1 53:1 58:1 62:1 
0.04556520278790119 1:-70 2:191 3:121 4:1 10:1 15:1 23:1 28:1 32:1 35:1 43:1 47:1 53:1 54:1 63:1 
4 1:-58 2:191 3:133 4:1 10:1 15:1 23:1 28:1 32:1 37:1 43:1 45:1 49:1 58:1 62:1 
1.404786965441028 1:-44 2:191 3:147 4:1 10:1 15:1 23:1 28:1 32:1 35:1 43:1 47:1 53:1 54:1 63:1 
2.330178374982014 1:-37 2:191 3:154 4:1 10:1 15:1 23:1 28:1 32:1 37:1 43:1 45:1 53:1 58:1 63:1 
0.4886264157883169 1:-27 2:191 3:164 4:1 10:1 15:1 23:1 28:1 32:1 34:1 40:1 48:1 53:1 58:1 59:1 
0.22034652884444 1:186 2:7 3:193 5:1 13:1 14:1 22:1 25:1 33:1 35:1 41:1 48:1 52:1 54:1 60:1 
0.3382729187876274 1:177 2:16 3:193 7:1 13:1 18:1 23:1 28:1 33:1 35:1 41:1 48:1 52:1 54:1 60:1 
0.470460732684761 1:108 2:85 3:193 8:1 9:1 14:1 22:1 25:1 31:1 35:1 41:1 48:1 52:1 54:1 60:1 
0.3243020297024382 1:190 2:7 3:197 5:1 13:1 14:1 22:1 25:1 33:1 37:1 39:1 45:1 49:1 56:1 63:1 
0.06013242501828864 1:-166 2:199 3:33 5:1 13:1 14:1 23:1 28:1 29:1 34:1 43:1 47:1 53:1 54:1 59:1 
1.48216016043351 1:-144 2:199 3:55 5:1 13:1 14:1 23:1 28:1 29:1 34:1 39:1 48:1 49:1 58:1 59:1 
2.547677612948606 1:-120 2:199 3:79 5:1 13:1 14:1 23:1 28:1 29:1 34:1 39:1 48:1 52:1 58:1 63:1 
0.7776112362817299 1:-68 2:199 3:131 5:1 13:1 14:1 23:1 28:1 29:1 38:1 43:1 47:1 50:1 58:1 59:1 
1.47628807290204 1:-35 2:199 3:164 5:1 13:1 14:1 23:1 28:1 29:1 34:1 40:1 48:1 53:1 58:1 59:1 
1.091102656639684 1:115 2:88 3:203 6:1 12:1 15:1 23:1 24:1 29:1 38:1 43:1 44:1 53:1 58:1 63:1 
0.09850349347903378 1:106 2:97 3:203 8:1 9:1 15:1 22:1 25:1 30:1 38:1 43:1 44:1 53:1 58:1 63:1 
1.03241369931878 1:120 2:85 3:205 8:1 9:1 14:1 22:1 25:1 31:1 34:1 43:1 48:1 53:1 54:1 59:1 
0.008363092172827651 1:108 2:97 3:205 8:1 9:1 15:1 22:1 25:1 30:1 34:1 43:1 48:1 53:1 54:1 59:1 
0.1065520385583286 1:29 2:41 3:70 8:1 10:1 14:1 22:1 28:1 30:1 35:1 43:1 44:1 53:1 54:1 61:1 
4 1:-7 2:77 3:70 8:1 13:1 15:1 22:1 27:1 30:1 35:1 43:1 44:1 53:1 54:1 61:1 
3.376369957426349 1:-31 2:101 3:70 8:1 9:1 15:1 22:1 26:1 33:1 35:1 43:1 44:1 53:1 54:1 61:1 
0.07506347844042961 1:-78 2:148 3:70 8:1 12:1 16:1 23:1 24:1 30:1 35:1 43:1 44:1 53:1 54:1 61:1 
2.314291425142817 1:104 2:73 3:177 8:1 13:1 14:1 23:1 28:1 30:1 37:1 39:1 45:1 50:1 54:1 62:1 
0.1336252224515194 1:92 2:85 3:177 5:1 13:1 18:1 23:1 27:1 29:1 37:1 39:1 45:1 50:1 54:1 62:1 
2.556413406411933 1:74 2:103 3:177 5:1 11:1 17:1 23:1 24:1 33:1 37:1 39:1 45:1 50:1 54:1 62:1 
1.808109110312147 1:-148 2:218 3:70 4:1 13:1 18:1 20:1 35:1 43:1 44:1 53:1 54:1 61:1 
0.7481364763863485 1:4 2:32 3:36 4:1 13:1 18:1 20:1 24:1 32:1 35:1 39:1 47:1 49:1 56:1 60:1 
3.697654509164749 1:2 2:38 3:40 7:1 13:1 14:1 20:1 28:1 29:1 34:1 41:1 45:1 49:1 56:1 60:1 
4 1:-6 2:42 3:36 5:1 13:1 14:1 20:1 28:1 33:1 35:1 39:1 47:1 49:1 56:1 60:1 
4 1:2 2:42 3:44 5:1 13:1 14:1 20:1 28:1 33:1 34:1 41:1 45:1 53:1 54:1 61:1 
2.464954606767985 1:-11 2:47 3:36 8:1 13:1 14:1 23:1 28:1 33:1 35:1 39:1 47:1 49:1 56:1 60:1 
4 1:-7 2:47 3:40 8:1 13:1 14:1 23:1 28:1 33:1 34:1 41:1 45:1 49:1 56:1 60:1 
2.251188321694347 1:-15 2:59 3:44 8:1 13:1 15:1 22:1 25:1 33:1 34:1 41:1 45:1 53:1 54:1 61:1 
1.847343105008726 1:51 2:14 3:65 5:1 13:1 18:1 19:1 28:1 33:1 38:1 43:1 45:1 49:1 57:1 63:1 
0.0836015277232833 1:23 2:42 3:65 5:1 13:1 14:1 20:1 28:1 33:1 38:1 43:1 45:1 49:1 57:1 63:1 
0.624017659743608 1:18 2:47 3:65 8:1 13:1 14:1 23:1 28:1 33:1 38:1 43:1 45:1 49:1 57:1 63:1 
4 1:6 2:59 3:65 8:1 13:1 15:1 22:1 25:1 33:1 38:1 43:1 45:1 49:1 57:1 63:1 
1.531677656640165 1:63 2:32 3:95 4:1 13:1 18:1 20:1 24:1 32:1 35:1 40:1 45:1 53:1 58:1 60:1 
0.03303072714942956 1:127 2:7 3:134 5:1 13:1 14:1 22:1 25:1 33:1 35:1 43:1 45:1 52:1 55:1 60:1 
1.024151698638151 1:120 2:14 3:134 5:1 13:1 18:1 19:1 28:1 33:1 35:1 43:1 45:1 52:1 55:1 60:1 
4 1:96 2:38 3:134 7:1 13:1 14:1 20:1 28:1 29:1 35:1 43:1 45:1 52:1 55:1 60:1 
2.351739940406626 1:87 2:47 3:134 8:1 13:1 14:1 23:1 28:1 33:1 35:1 43:1 45:1 52:1 55:1 60:1 
1.513139040252996 1:101 2:42 3:143 5:1 13:1 14:1 20:1 28:1 33:1 34:1 40:1 48:1 53:1 58:1 63:1 
2.650360554378484 1:96 2:47 3:143 8:1 13:1 14:1 23:1 28:1 33:1 34:1 40:1 48:1 53:1 58:1 63:1 
2.777430147754685 1:84 2:59 3:143 8:1 13:1 15:1 22:1 25:1 33:1 34:1 40:1 48:1 53:1 58:1 63:1 
1.096298761479407 1:118 2:59 3:177 8:1 13:1 15:1 22:1 25:1 33:1 35:1 39:1 48:1 53:1 58:1 59:1 
0.07068312919632823 1:181 2:7 3:188 5:1 13:1 14:1 22:1 25:1 33:1 37:1 43:1 48:1 49:1 58:1 63:1 
0.1700117745549531 1:156 2:32 3:188 4:1 13:1 18:1 20:1 24:1 32:1 37:1 43:1 48:1 49:1 58:1 63:1 
0.05869202687472944 1:150 2:38 3:188 7:1 13:1 14:1 20:1 28:1 29:1 37:1 43:1 48:1 49:1 58:1 63:1 
2.761634210637544 1:129 2:59 3:188 8:1 13:1 15:1 22:1 25:1 33:1 37:1 43:1 48:1 49:1 58:1 63:1 
0.2200607963680174 1:-51 2:175 3:124 8:1 13:1 14:1 19:1 25:1 33:1 38:1 40:1 48:1 53:1 54:1 63:1 
0.7136727454893219 1:-297 2:298 3:1 4:1 13:1 14:1 23:1 25:1 33:1 48:1 53:1 55:1 63:1 
0.4088379607219732 1:1 2:17 3:18 5:1 9:1 15:1 23:1 28:1 33:1 34:1 40:1 46:1 53:1 58:1 63:1 
3.736010707174522 1:-37 2:64 3:27 7:1 9:1 15:1 20:1 28:1 29:1 34:1 40:1 45:1 53:1 54:1 59:1 
3.620390869314312 1:49 2:17 3:66 5:1 9:1 15:1 23:1 28:1 33:1 35:1 41:1 45:1 49:1 58:1 63:1 
0.8841160549747095 1:130 2:17 3:147 5:1 9:1 15:1 23:1 28:1 33:1 34:1 42:1 48:1 49:1 56:1 63:1 
1.080510781148 1:83 2:64 3:147 7:1 9:1 15:1 20:1 28:1 29:1 34:1 42:1 48:1 49:1 56:1 63:1 
0.5351013267456697 1:-83 2:149 3:66 8:1 13:1 14:1 23:1 28:1 30:1 35:1 41:1 45:1 49:1 58:1 63:1 
1.754700816020955 1:-162 2:189 3:27 8:1 10:1 18:1 22:1 28:1 33:1 34:1 40:1 45:1 53:1 54:1 59:1 
0.165250037605901 1:-103 2:189 3:86 8:1 10:1 18:1 22:1 28:1 33:1 34:1 43:1 48:1 49:1 58:1 62:1 
0.8327600251597467 1:-192 2:219 3:27 4:1 13:1 17:1 23:1 24:1 30:1 34:1 40:1 45:1 53:1 54:1 59:1 
1.622607360783407 1:-133 2:219 3:86 4:1 13:1 17:1 23:1 24:1 30:1 34:1 43:1 48:1 49:1 58:1 62:1 
0.08885961993530048 1:-120 2:219 3:99 4:1 13:1 17:1 23:1 24:1 30:1 38:1 42:1 48:1 53:1 58:1 63:1 
0.03514292087031864 1:-72 2:219 3:147 4:1 13:1 17:1 23:1 24:1 30:1 34:1 42:1 48:1 49:1 56:1 63:1 
1.244387053651091 1:169 2:64 3:233 7:1 9:1 15:1 20:1 28:1 29:1 37:1 43:1 44:1 49:1 58:1 63:1 
1.749057773345194 1:84 2:149 3:233 8:1 13:1 14:1 23:1 28:1 30:1 37:1 43:1 44:1 49:1 58:1 63:1 
0.1353983943494776 1:-255 2:256 3:1 8:1 13:1 18:1 20:1 28:1 32:1 48:1 53:1 58:1 63:1 
1.397295353714618 1:-120 2:256 3:136 8:1 13:1 18:1 20:1 28:1 32:1 38:1 43:1 47:1 53:1 58:1 60:1 
0.9908677031792507 1:-77 2:256 3:179 8:1 13:1 18:1 20:1 28:1 32:1 35:1 42:1 48:1 49:1 58:1 63:1 
1.38866514216485 1:-21 2:74 3:53 5:1 13:1 18:1 20:1 28:1 33:1 35:1 43:1 45:1 53:1 58:1 63:1 
4 1:2 2:74 3:76 5:1 13:1 18:1 20:1 28:1 33:1 38:1 41:1 45:1 53:1 54:1 61:1 
2.593401123081678 1:-24 2:79 3:55 8:1 13:1 14:1 23:1 24:1 33:1 35:1 43:1 48:1 53:1 58:1 63:1 
4 1:-7 2:79 3:72 8:1 13:1 14:1 23:1 24:1 33:1 38:1 39:1 45:1 53:1 56:1 60:1 
3.969358528994686 1:-35 2:111 3:76 8:1 13:1 15:1 23:1 28:1 32:1 38:1 41:1 45:1 53:1 54:1 61:1 
1.53987546717744 1:44 2:74 3:118 5:1 13:1 18:1 20:1 28:1 33:1 38:1 39:1 45:1 53:1 58:1 63:1 
2.962218528818994 1:39 2:79 3:118 8:1 13:1 14:1 23:1 24:1 33:1 38:1 39:1 45:1 53:1 58:1 63:1 
4 1:7 2:111 3:118 8:1 13:1 15:1 23:1 28:1 32:1 38:1 39:1 45:1 53:1 58:1 63:1 
0.3475290529357177 1:135 2:44 3:179 8:1 13:1 18:1 23:1 28:1 29:1 35:1 42:1 48:1 49:1 58:1 63:1 
0.9119473246736883 1:68 2:111 3:179 8:1 13:1 15:1 23:1 28:1 32:1 35:1 42:1 48:1 49:1 58:1 63:1 
0.9109673623103598 1:-128 2:183 3:55 4:1 13:1 18:1 20:1 27:1 29:1 35:1 43:1 48:1 53:1 58:1 63:1 
4 1:-4 2:183 3:179 4:1 13:1 18:1 20:1 27:1 29:1 35:1 42:1 48:1 49:1 58:1 63:1 
0.1257178289548858 1:147 2:44 3:191 8:1 13:1 18:1 23:1 28:1 29:1 38:1 43:1 45:1 53:1 58:1 61:1 
0.4200338607047936 1:112 2:79 3:191 8:1 13:1 14:1 23:1 24:1 33:1 38:1 43:1 45:1 53:1 58:1 61:1 
1.7160737691699 1:80 2:111 3:191 8:1 13:1 15:1 23:1 28:1 32:1 38:1 43:1 45:1 53:1 58:1 61:1 
0.7823121214105444 1:-139 2:194 3:55 8:1 13:1 18:1 22:1 25:1 33:1 35:1 43:1 48:1 53:1 58:1 63:1 
1.618825494581744 1:-118 2:194 3:76 8:1 13:1 18:1 22:1 25:1 33:1 38:1 41:1 45:1 53:1 54:1 61:1 
1.324030197572629 1:-76 2:194 3:118 8:1 13:1 18:1 22:1 25:1 33:1 38:1 39:1 45:1 53:1 58:1 63:1 
0.5575323290846341 1:-170 2:223 3:53 8:1 9:1 18:1 20:1 27:1 32:1 35:1 43:1 45:1 53:1 58:1 63:1 
0.748541877941623 1:-168 2:223 3:55 8:1 9:1 18:1 20:1 27:1 32:1 35:1 43:1 48:1 53:1 58:1 63:1 
1.574347432089585 1:-151 2:223 3:72 8:1 9:1 18:1 20:1 27:1 32:1 38:1 39:1 45:1 53:1 56:1 60:1 
0.9425822555669985 1:29 2:25 3:54 8:1 12:1 18:1 20:1 27:1 30:1 38:1 43:1 44:1 53:1 54:1 60:1 
0.5419092287180094 1:109 2:8 3:117 8:1 13:1 14:1 23:1 25:1 29:1 34:1 39:1 45:1 53:1 55:1 63:1 
1.061648415064775 1:42 2:75 3:117 7:1 13:1 18:1 23:1 28:1 33:1 34:1 39:1 45:1 53:1 55:1 63:1 
2.079735374419129 1:-35 2:152 3:117 8:1 10:1 17:1 23:1 24:1 31:1 34:1 39:1 45:1 53:1 55:1 63:1 
1.468832251091005 1:-3 2:152 3:149 8:1 10:1 17:1 23:1 24:1 31:1 38:1 42:1 48:1 50:1 57:1 61:1 
0.9438258253696821 1:-101 2:155 3:54 6:1 13:1 14:1 20:1 27:1 33:1 38:1 43:1 44:1 53:1 54:1 60:1 
0.3883790428423873 1:-38 2:155 3:117 6:1 13:1 14:1 20:1 27:1 33:1 34:1 39:1 45:1 53:1 55:1 63:1 
1.185375370628945 1:-6 2:155 3:149 6:1 13:1 14:1 20:1 27:1 33:1 38:1 42:1 48:1 50:1 57:1 61:1 
0.3648365409342856 1:-157 2:163 3:6 5:1 12:1 18:1 23:1 24:1 33:1 38:1 40:1 48:1 49:1 56:1 63:1 
1.2124464136077 1:-64 2:163 3:99 5:1 12:1 18:1 23:1 24:1 33:1 38:1 43:1 45:1 52:1 58:1 63:1 
1.285025684507044 1:-117 2:171 3:54 4:1 9:1 18:1 23:1 24:1 30:1 38:1 43:1 44:1 53:1 54:1 60:1 
0.4704749327464935 1:-22 2:171 3:149 4:1 9:1 18:1 23:1 24:1 30:1 38:1 42:1 48:1 50:1 57:1 61:1 
0.2921624807160013 1:103 2:75 3:178 7:1 13:1 18:1 23:1 28:1 33:1 38:1 43:1 47:1 49:1 54:1 59:1 
0.3949169534525343 1:26 2:152 3:178 8:1 10:1 17:1 23:1 24:1 31:1 38:1 43:1 47:1 49:1 54:1 59:1 
0.1684959213633565 1:7 2:171 3:178 4:1 9:1 18:1 23:1 24:1 30:1 38:1 43:1 47:1 49:1 54:1 59:1 
0.3396254506808665 1:-73 2:190 3:117 8:1 9:1 15:1 19:1 28:1 33:1 34:1 39:1 45:1 53:1 55:1 63:1 
0.9755019204265083 1:-41 2:190 3:149 8:1 9:1 15:1 19:1 28:1 33:1 38:1 42:1 48:1 50:1 57:1 61:1 
0.3133418074123543 1:-12 2:190 3:178 8:1 9:1 15:1 19:1 28:1 33:1 38:1 43:1 47:1 49:1 54:1 59:1 
0.5726926663566041 1:168 2:25 3:193 8:1 12:1 18:1 20:1 27:1 30:1 36:1 39:1 48:1 53:1 58:1 59:1 
2.165462789774633 1:118 2:75 3:193 7:1 13:1 18:1 23:1 28:1 33:1 36:1 39:1 48:1 53:1 58:1 59:1 
0.9304052962264017 1:41 2:152 3:193 8:1 10:1 17:1 23:1 24:1 31:1 36:1 39:1 48:1 53:1 58:1 59:1 
2.543242330896865 1:22 2:171 3:193 4:1 9:1 18:1 23:1 24:1 30:1 36:1 39:1 48:1 53:1 58:1 59:1 
1.35762529314113 1:3 2:190 3:193 8:1 9:1 15:1 19:1 28:1 33:1 36:1 39:1 48:1 53:1 58:1 59:1 
0.05140227651843018 1:191 2:8 3:199 8:1 13:1 14:1 23:1 25:1 29:1 34:1 40:1 48:1 53:1 58:1 63:1 
0.02599510372517367 1:174 2:25 3:199 8:1 12:1 18:1 20:1 27:1 30:1 34:1 40:1 48:1 53:1 58:1 63:1 
0.6606972665891117 1:28 2:171 3:199 4:1 9:1 18:1 23:1 24:1 30:1 34:1 40:1 48:1 53:1 58:1 63:1 
0.974037079762201 1:9 2:190 3:199 8:1 9:1 15:1 19:1 28:1 33:1 34:1 40:1 48:1 53:1 58:1 63:1 
0.2490063285708897 1:187 2:25 3:212 8:1 12:1 18:1 20:1 27:1 30:1 38:1 42:1 48:1 53:1 54:1 63:1 
0.1421877502295877 1:41 2:171 3:212 4:1 9:1 18:1 23:1 24:1 30:1 38:1 42:1 48:1 53:1 54:1 63:1 
0.09256944843478364 1:22 2:190 3:212 8:1 9:1 15:1 19:1 28:1 33:1 38:1 42:1 48:1 53:1 54:1 63:1 
0.1248299610299168 1:250 2:75 3:325 7:1 13:1 18:1 23:1 28:1 33:1 35:1 43:1 48:1 53:1 54:1 63:1 
0.9367966670357971 1:170 2:155 3:325 6:1 13:1 14:1 20:1 27:1 33:1 35:1 43:1 48:1 53:1 54:1 63:1 
0.3255019763152618 1:-183 2:332 3:149 7:1 13:1 15:1 20:1 28:1 33:1 38:1 42:1 48:1 50:1 57:1 61:1 
0.933566183137255 1:-133 2:332 3:199 7:1 13:1 15:1 20:1 28:1 33:1 34:1 40:1 48:1 53:1 58:1 63:1 
2.34728158525058 1:-7 2:332 3:325 7:1 13:1 15:1 20:1 28:1 33:1 35:1 43:1 48:1 53:1 54:1 63:1 
4 1:-2 2:75 3:73 8:1 13:1 14:1 23:1 26:1 33:1 38:1 40:1 48:1 49:1 56:1 63:1 
3.232107749875682 1:-4 2:77 3:73 4:1 11:1 18:1 23:1 26:1 30:1 38:1 40:1 48:1 49:1 56:1 63:1 
0.2244002424844408 1:-71 2:79 3:8 8:1 11:1 18:1 20:1 28:1 33:1 38:1 43:1 45:1 52:1 58:1 59:1 
1.673165786652082 1:-13 2:86 3:73 8:1 10:1 18:1 23:1 28:1 33:1 38:1 40:1 48:1 49:1 56:1 63:1 
0.6806728684409928 1:86 2:4 3:90 7:1 13:1 14:1 23:1 28:1 30:1 38:1 43:1 48:1 51:1 56:1 62:1 
1.277278675108916 1:15 2:75 3:90 8:1 13:1 14:1 23:1 26:1 33:1 38:1 43:1 48:1 51:1 56:1 62:1 
0.356534607382267 1:-19 2:92 3:73 8:1 13:1 16:1 22:1 26:1 29:1 38:1 40:1 48:1 49:1 56:1 63:1 
0.8205081776466993 1:-21 2:94 3:73 6:1 11:1 17:1 19:1 28:1 32:1 38:1 40:1 48:1 49:1 56:1 63:1 
1.048312621131911 1:15 2:86 3:101 8:1 10:1 18:1 23:1 28:1 33:1 35:1 43:1 47:1 52:1 58:1 59:1 
0.967883560913817 1:9 2:92 3:101 8:1 13:1 16:1 22:1 26:1 29:1 35:1 43:1 47:1 52:1 58:1 59:1 
2.442574721766517 1:-99 2:107 3:8 4:1 10:1 18:1 23:1 26:1 32:1 38:1 43:1 45:1 52:1 58:1 59:1 
4 1:-17 2:107 3:90 4:1 10:1 18:1 23:1 26:1 32:1 38:1 43:1 48:1 51:1 56:1 62:1 
1.088794427234002 1:-6 2:107 3:101 4:1 10:1 18:1 23:1 26:1 32:1 35:1 43:1 47:1 52:1 58:1 59:1 
0.9777702086351368 1:-99 2:109 3:10 8:1 11:1 18:1 22:1 28:1 33:1 35:1 43:1 47:1 49:1 54:1 63:1 
0.3699854336641138 1:-36 2:109 3:73 8:1 11:1 18:1 22:1 28:1 33:1 38:1 40:1 48:1 49:1 56:1 63:1 
1.300859751818763 1:-8 2:109 3:101 8:1 11:1 18:1 22:1 28:1 33:1 35:1 43:1 47:1 52:1 58:1 59:1 
0.4634693021486124 1:-124 2:126 3:2 4:1 13:1 18:1 19:1 25:1 33:1 43:1 47:1 49:1 56:1 63:1 
0.9069737851782973 1:-36 2:126 3:90 4:1 13:1 18:1 19:1 25:1 33:1 38:1 43:1 48:1 51:1 56:1 62:1 
1.097009338474299 1:-147 2:155 3:8 8:1 13:1 18:1 20:1 26:1 29:1 38:1 43:1 45:1 52:1 58:1 59:1 
1.239366758628508 1:-82 2:155 3:73 8:1 13:1 18:1 20:1 26:1 29:1 38:1 40:1 48:1 49:1 56:1 63:1 
1.913042031623846 1:-65 2:155 3:90 8:1 13:1 18:1 20:1 26:1 29:1 38:1 43:1 48:1 51:1 56:1 62:1 
0.2225668427161274 1:-155 2:157 3:2 8:1 11:1 15:1 19:1 27:1 33:1 43:1 47:1 49:1 56:1 63:1 
3.081329346476704 1:-155 2:163 3:8 8:1 10:1 18:1 23:1 28:1 30:1 38:1 43:1 45:1 52:1 58:1 59:1 
1.605895353329956 1:-73 2:163 3:90 8:1 10:1 18:1 23:1 28:1 30:1 38:1 43:1 48:1 51:1 56:1 62:1 
0.3459240432525065 1:-62 2:163 3:101 8:1 10:1 18:1 23:1 28:1 30:1 35:1 43:1 47:1 52:1 58:1 59:1 
1.200651639623139 1:164 2:4 3:168 7:1 13:1 14:1 23:1 28:1 30:1 38:1 40:1 48:1 53:1 54:1 62:1 
0.2361938655472358 1:89 2:79 3:168 8:1 11:1 18:1 20:1 28:1 33:1 38:1 40:1 48:1 53:1 54:1 62:1 
1.115556876248682 1:82 2:86 3:168 8:1 10:1 18:1 23:1 28:1 33:1 38:1 40:1 48:1 53:1 54:1 62:1 
0.2683015747769375 1:74 2:94 3:168 6:1 11:1 17:1 19:1 28:1 32:1 38:1 40:1 48:1 53:1 54:1 62:1 
1.071300458471245 1:11 2:157 3:168 8:1 11:1 15:1 19:1 27:1 33:1 38:1 40:1 48:1 53:1 54:1 62:1 
0.9279443954321858 1:-104 2:177 3:73 8:1 9:1 15:1 23:1 28:1 33:1 38:1 40:1 48:1 49:1 56:1 63:1 
0.6006720725132935 1:-9 2:177 3:168 8:1 9:1 15:1 23:1 28:1 33:1 38:1 40:1 48:1 53:1 54:1 62:1 
1.518674982875932 1:-179 2:187 3:8 4:1 10:1 18:1 23:1 24:1 32:1 38:1 43:1 45:1 52:1 58:1 59:1 
2.017418145656246 1:-97 2:187 3:90 4:1 10:1 18:1 23:1 24:1 32:1 38:1 43:1 48:1 51:1 56:1 62:1 
1.040230935469093 1:-122 2:212 3:90 8:1 10:1 18:1 22:1 25:1 33:1 38:1 43:1 48:1 51:1 56:1 62:1 
0.9529676699907058 1:-214 2:216 3:2 7:1 10:1 18:1 23:1 28:1 30:1 43:1 47:1 49:1 56:1 63:1 
3.078964741877321 1:-143 2:216 3:73 7:1 10:1 18:1 23:1 28:1 30:1 38:1 40:1 48:1 49:1 56:1 63:1 
0.284886016930956 1:-115 2:216 3:101 7:1 10:1 18:1 23:1 28:1 30:1 35:1 43:1 47:1 52:1 58:1 59:1 
1.237205904311432 1:168 2:75 3:243 8:1 13:1 14:1 23:1 26:1 33:1 37:1 43:1 48:1 49:1 55:1 63:1 
0.9229656893818631 1:152 2:91 3:243 8:1 13:1 18:1 21:1 27:1 31:1 37:1 43:1 48:1 49:1 55:1 63:1 
0.1717136522671173 1:151 2:92 3:243 8:1 13:1 16:1 22:1 26:1 29:1 37:1 43:1 48:1 49:1 55:1 63:1 
0.6704011820397685 1:117 2:126 3:243 4:1 13:1 18:1 19:1 25:1 33:1 37:1 43:1 48:1 49:1 55:1 63:1 
1.408471397582044 1:88 2:155 3:243 8:1 13:1 18:1 20:1 26:1 29:1 37:1 43:1 48:1 49:1 55:1 63:1 
0.6683282541803695 1:56 2:187 3:243 4:1 10:1 18:1 23:1 24:1 32:1 37:1 43:1 48:1 49:1 55:1 63:1 
0.03387166669032719 1:27 2:216 3:243 7:1 10:1 18:1 23:1 28:1 30:1 37:1 43:1 48:1 49:1 55:1 63:1 
0.5439624167814815 1:-249 2:259 3:10 5:1 13:1 18:1 23:1 27:1 33:1 35:1 43:1 47:1 49:1 54:1 63:1 
0.1339409373316325 1:-186 2:259 3:73 5:1 13:1 18:1 23:1 27:1 33:1 38:1 40:1 48:1 49:1 56:1 63:1 
0.5231491652020492 1:-158 2:259 3:101 5:1 13:1 18:1 23:1 27:1 33:1 35:1 43:1 47:1 52:1 58:1 59:1 
1.467719310823622 1:-91 2:259 3:168 5:1 13:1 18:1 23:1 27:1 33:1 38:1 40:1 48:1 53:1 54:1 62:1 
0.7451940920203868 1:-271 2:273 3:2 8:1 9:1 15:1 23:1 27:1 33:1 43:1 47:1 49:1 56:1 63:1 
0.7806384910781237 1:-183 2:273 3:90 8:1 9:1 15:1 23:1 27:1 33:1 38:1 43:1 48:1 51:1 56:1 62:1 
1.881630410166304 1:-30 2:273 3:243 8:1 9:1 15:1 23:1 27:1 33:1 37:1 43:1 48:1 49:1 55:1 63:1 
0.4289489542055101 1:272 2:4 3:276 7:1 13:1 14:1 23:1 28:1 30:1 36:1 43:1 47:1 53:1 56:1 63:1 
0.2427492929929119 1:201 2:75 3:276 8:1 13:1 14:1 23:1 26:1 33:1 36:1 43:1 47:1 53:1 56:1 63:1 
2.035825014314465 1:199 2:77 3:276 4:1 11:1 18:1 23:1 26:1 30:1 36:1 43:1 47:1 53:1 56:1 63:1 
2.823392612921221 1:190 2:86 3:276 8:1 10:1 18:1 23:1 28:1 33:1 36:1 43:1 47:1 53:1 56:1 63:1 
1.297645790520736 1:185 2:91 3:276 8:1 13:1 18:1 21:1 27:1 31:1 36:1 43:1 47:1 53:1 56:1 63:1 
0.5825059368660618 1:184 2:92 3:276 8:1 13:1 16:1 22:1 26:1 29:1 36:1 43:1 47:1 53:1 56:1 63:1 
1.264505141132751 1:64 2:212 3:276 8:1 10:1 18:1 22:1 25:1 33:1 36:1 43:1 47:1 53:1 56:1 63:1 
1.709152763388812 1:3 2:273 3:276 8:1 9:1 15:1 23:1 27:1 33:1 36:1 43:1 47:1 53:1 56:1 63:1 
0.05317272757481133 1:-177 2:278 3:101 7:1 13:1 18:1 23:1 24:1 31:1 35:1 43:1 47:1 52:1 58:1 59:1 
2.575832303092596 1:-2 2:278 3:276 7:1 13:1 18:1 23:1 24:1 31:1 36:1 43:1 47:1 53:1 56:1 63:1 
0.3162610743118099 1:-191 2:281 3:90 6:1 13:1 14:1 20:1 28:1 33:1 38:1 43:1 48:1 51:1 56:1 62:1 
0.270973256467389 1:-113 2:281 3:168 6:1 13:1 14:1 20:1 28:1 33:1 38:1 40:1 48:1 53:1 54:1 62:1 
2.40501225106685 1:-38 2:281 3:243 6:1 13:1 14:1 20:1 28:1 33:1 37:1 43:1 48:1 49:1 55:1 63:1 
4 1:-5 2:281 3:276 6:1 13:1 14:1 20:1 28:1 33:1 36:1 43:1 47:1 53:1 56:1 63:1 
1.387623060387575 1:-197 2:287 3:90 8:1 12:1 17:1 19:1 27:1 33:1 38:1 43:1 48:1 51:1 56:1 62:1 
0.3196881080513262 1:216 2:79 3:295 8:1 11:1 18:1 20:1 28:1 33:1 35:1 43:1 45:1 53:1 56:1 63:1 
1.620315202306253 1:209 2:86 3:295 8:1 10:1 18:1 23:1 28:1 33:1 35:1 43:1 45:1 53:1 56:1 63:1 
1.551503474393817 1:203 2:92 3:295 8:1 13:1 16:1 22:1 26:1 29:1 35:1 43:1 45:1 53:1 56:1 63:1 
2.910850369604504 1:188 2:107 3:295 4:1 10:1 18:1 23:1 26:1 32:1 35:1 43:1 45:1 53:1 56:1 63:1 
3.275534028474634 1:140 2:155 3:295 8:1 13:1 18:1 20:1 26:1 29:1 35:1 43:1 45:1 53:1 56:1 63:1 
0.9245693071475387 1:36 2:259 3:295 5:1 13:1 18:1 23:1 27:1 33:1 35:1 43:1 45:1 53:1 56:1 63:1 
1.64145787525029 1:17 2:278 3:295 7:1 13:1 18:1 23:1 24:1 31:1 35:1 43:1 45:1 53:1 56:1 63:1 
0.4995501334895763 1:14 2:281 3:295 6:1 13:1 14:1 20:1 28:1 33:1 35:1 43:1 45:1 53:1 56:1 63:1 
0.1194830038183272 1:-289 2:297 3:8 5:1 13:1 18:1 23:1 24:1 30:1 38:1 43:1 45:1 52:1 58:1 59:1 
0.01682296163207083 1:-287 2:297 3:10 5:1 13:1 18:1 23:1 24:1 30:1 35:1 43:1 47:1 49:1 54:1 63:1 
1.121880929805028 1:-207 2:297 3:90 5:1 13:1 18:1 23:1 24:1 30:1 38:1 43:1 48:1 51:1 56:1 62:1 
0.5884833970351158 1:-196 2:297 3:101 5:1 13:1 18:1 23:1 24:1 30:1 35:1 43:1 47:1 52:1 58:1 59:1 
1.236684265694585 1:-129 2:297 3:168 5:1 13:1 18:1 23:1 24:1 30:1 38:1 40:1 48:1 53:1 54:1 62:1 
0.9015755441366509 1:-21 2:297 3:276 5:1 13:1 18:1 23:1 24:1 30:1 36:1 43:1 47:1 53:1 56:1 63:1 
4 1:-2 2:297 3:295 5:1 13:1 18:1 23:1 24:1 30:1 35:1 43:1 45:1 53:1 56:1 63:1 
0.2664229573190102 1:-294 2:302 3:8 4:1 10:1 18:1 19:1 27:1 33:1 38:1 43:1 45:1 52:1 58:1 59:1 
0.2437677997750856 1:-201 2:302 3:101 4:1 10:1 18:1 19:1 27:1 33:1 35:1 43:1 47:1 52:1 58:1 59:1 
1.59475699481222 1:-134 2:302 3:168 4:1 10:1 18:1 19:1 27:1 33:1 38:1 40:1 48:1 53:1 54:1 62:1 
0.8506445931040284 1:-59 2:302 3:243 4:1 10:1 18:1 19:1 27:1 33:1 37:1 43:1 48:1 49:1 55:1 63:1 
1.185711564943136 1:-7 2:302 3:295 4:1 10:1 18:1 19:1 27:1 33:1 35:1 43:1 45:1 53:1 56:1 63:1 
3.386166728730322 1:301 2:4 3:305 7:1 13:1 14:1 23:1 28:1 30:1 36:1 39:1 47:1 49:1 58:1 63:1 
1.742257261345423 1:228 2:77 3:305 4:1 11:1 18:1 23:1 26:1 30:1 36:1 39:1 47:1 49:1 58:1 63:1 
4 1:219 2:86 3:305 8:1 10:1 18:1 23:1 28:1 33:1 36:1 39:1 47:1 49:1 58:1 63:1 
1.769505386869112 1:213 2:92 3:305 8:1 13:1 16:1 22:1 26:1 29:1 36:1 39:1 47:1 49:1 58:1 63:1 
2.579171874932998 1:198 2:107 3:305 4:1 10:1 18:1 23:1 26:1 32:1 36:1 39:1 47:1 49:1 58:1 63:1 
0.5105773155024673 1:179 2:126 3:305 4:1 13:1 18:1 19:1 25:1 33:1 36:1 39:1 47:1 49:1 58:1 63:1 
2.846634097877324 1:150 2:155 3:305 8:1 13:1 18:1 20:1 26:1 29:1 36:1 39:1 47:1 49:1 58:1 63:1 
1.244505232209614 1:118 2:187 3:305 4:1 10:1 18:1 23:1 24:1 32:1 36:1 39:1 47:1 49:1 58:1 63:1 
2.092847274210861 1:46 2:259 3:305 5:1 13:1 18:1 23:1 27:1 33:1 36:1 39:1 47:1 49:1 58:1 63:1 
0.4580683336609932 1:32 2:273 3:305 8:1 9:1 15:1 23:1 27:1 33:1 36:1 39:1 47:1 49:1 58:1 63:1 
0.5750408974080837 1:27 2:278 3:305 7:1 13:1 18:1 23:1 24:1 31:1 36:1 39:1 47:1 49:1 58:1 63:1 
1.423913959965039 1:18 2:287 3:305 8:1 12:1 17:1 19:1 27:1 33:1 36:1 39:1 47:1 49:1 58:1 63:1 
2.604755239729556 1:3 2:302 3:305 4:1 10:1 18:1 19:1 27:1 33:1 36:1 39:1 47:1 49:1 58:1 63:1 
0.8077596208448238 1:304 2:4 3:308 7:1 13:1 14:1 23:1 28:1 30:1 38:1 39:1 48:1 52:1 55:1 62:1 
0.07136768438871098 1:233 2:75 3:308 8:1 13:1 14:1 23:1 26:1 33:1 38:1 39:1 48:1 52:1 55:1 62:1 
0.36554325439623 1:229 2:79 3:308 8:1 11:1 18:1 20:1 28:1 33:1 38:1 39:1 48:1 52:1 55:1 62:1 
2.988610361365708 1:199 2:109 3:308 8:1 11:1 18:1 22:1 28:1 33:1 38:1 39:1 48:1 52:1 55:1 62:1 
1.559162028068973 1:182 2:126 3:308 4:1 13:1 18:1 19:1 25:1 33:1 38:1 39:1 48:1 52:1 55:1 62:1 
0.1109665214340172 1:151 2:157 3:308 8:1 11:1 15:1 19:1 27:1 33:1 38:1 39:1 48:1 52:1 55:1 62:1 
3.810695418892142 1:131 2:177 3:308 8:1 9:1 15:1 23:1 28:1 33:1 38:1 39:1 48:1 52:1 55:1 62:1 
0.9759954239827016 1:121 2:187 3:308 4:1 10:1 18:1 23:1 24:1 32:1 38:1 39:1 48:1 52:1 55:1 62:1 
1.585028544690754 1:96 2:212 3:308 8:1 10:1 18:1 22:1 25:1 33:1 38:1 39:1 48:1 52:1 55:1 62:1 
0.6929321395632279 1:92 2:216 3:308 7:1 10:1 18:1 23:1 28:1 30:1 38:1 39:1 48:1 52:1 55:1 62:1 
0.7962985124138564 1:49 2:259 3:308 5:1 13:1 18:1 23:1 27:1 33:1 38:1 39:1 48:1 52:1 55:1 62:1 
1.001002452927357 1:30 2:278 3:308 7:1 13:1 18:1 23:1 24:1 31:1 38:1 39:1 48:1 52:1 55:1 62:1 
2.187567072251617 1:27 2:281 3:308 6:1 13:1 14:1 20:1 28:1 33:1 38:1 39:1 48:1 52:1 55:1 62:1 
0.1541665150385921 1:21 2:287 3:308 8:1 12:1 17:1 19:1 27:1 33:1 38:1 39:1 48:1 52:1 55:1 62:1 
0.401839893244029 1:-315 2:317 3:2 5:1 13:1 14:1 23:1 27:1 33:1 43:1 47:1 49:1 56:1 63:1 
0.05183958001636914 1:-149 2:317 3:168 5:1 13:1 14:1 23:1 27:1 33:1 38:1 40:1 48:1 53:1 54:1 62:1 
0.8018243005144358 1:-22 2:317 3:295 5:1 13:1 14:1 23:1 27:1 33:1 35:1 43:1 45:1 53:1 56:1 63:1 
0.8339294877533432 1:-9 2:317 3:308 5:1 13:1 14:1 23:1 27:1 33:1 38:1 39:1 48:1 52:1 55:1 62:1 
1.106063084085051 1:316 2:4 3:320 7:1 13:1 14:1 23:1 28:1 30:1 36:1 43:1 47:1 52:1 57:1 60:1 
0.1181480680675884 1:243 2:77 3:320 4:1 11:1 18:1 23:1 26:1 30:1 36:1 43:1 47:1 52:1 57:1 60:1 
2.926716359853116 1:241 2:79 3:320 8:1 11:1 18:1 20:1 28:1 33:1 36:1 43:1 47:1 52:1 57:1 60:1 
0.881996058035554 1:234 2:86 3:320 8:1 10:1 18:1 23:1 28:1 33:1 36:1 43:1 47:1 52:1 57:1 60:1 
0.8874442338253035 1:229 2:91 3:320 8:1 13:1 18:1 21:1 27:1 31:1 36:1 43:1 47:1 52:1 57:1 60:1 
1.671243807554323 1:228 2:92 3:320 8:1 13:1 16:1 22:1 26:1 29:1 36:1 43:1 47:1 52:1 57:1 60:1 
1.956152090398412 1:213 2:107 3:320 4:1 10:1 18:1 23:1 26:1 32:1 36:1 43:1 47:1 52:1 57:1 60:1 
1.824334838548721 1:165 2:155 3:320 8:1 13:1 18:1 20:1 26:1 29:1 36:1 43:1 47:1 52:1 57:1 60:1 
0.2843524970178261 1:157 2:163 3:320 8:1 10:1 18:1 23:1 28:1 30:1 36:1 43:1 47:1 52:1 57:1 60:1 
0.9511204280220995 1:133 2:187 3:320 4:1 10:1 18:1 23:1 24:1 32:1 36:1 43:1 47:1 52:1 57:1 60:1 
0.5105886611814712 1:108 2:212 3:320 8:1 10:1 18:1 22:1 25:1 33:1 36:1 43:1 47:1 52:1 57:1 60:1 
1.280083578435954 1:104 2:216 3:320 7:1 10:1 18:1 23:1 28:1 30:1 36:1 43:1 47:1 52:1 57:1 60:1 
1.052574852375525 1:61 2:259 3:320 5:1 13:1 18:1 23:1 27:1 33:1 36:1 43:1 47:1 52:1 57:1 60:1 
0.03515600478520466 1:47 2:273 3:320 8:1 9:1 15:1 23:1 27:1 33:1 36:1 43:1 47:1 52:1 57:1 60:1 
2.634756774158711 1:39 2:281 3:320 6:1 13:1 14:1 20:1 28:1 33:1 36:1 43:1 47:1 52:1 57:1 60:1 
0.9766979000592725 1:18 2:302 3:320 4:1 10:1 18:1 19:1 27:1 33:1 36:1 43:1 47:1 52:1 57:1 60:1 
3.812345716165827 1:3 2:317 3:320 5:1 13:1 14:1 23:1 27:1 33:1 36:1 43:1 47:1 52:1 57:1 60:1 
0.3444747527520766 1:256 2:75 3:331 8:1 13:1 14:1 23:1 26:1 33:1 38:1 43:1 47:1 52:1 54:1 63:1 
0.5472006886540906 1:254 2:77 3:331 4:1 11:1 18:1 23:1 26:1 30:1 38:1 43:1 47:1 52:1 54:1 63:1 
0.3910319312597831 1:245 2:86 3:331 8:1 10:1 18:1 23:1 28:1 33:1 38:1 43:1 47:1 52:1 54:1 63:1 
2.11731473962925 1:240 2:91 3:331 8:1 13:1 18:1 21:1 27:1 31:1 38:1 43:1 47:1 52:1 54:1 63:1 
2.810657212419488 1:224 2:107 3:331 4:1 10:1 18:1 23:1 26:1 32:1 38:1 43:1 47:1 52:1 54:1 63:1 
1.10895969982441 1:205 2:126 3:331 4:1 13:1 18:1 19:1 25:1 33:1 38:1 43:1 47:1 52:1 54:1 63:1 
2.437187837797236 1:176 2:155 3:331 8:1 13:1 18:1 20:1 26:1 29:1 38:1 43:1 47:1 52:1 54:1 63:1 
1.736088322909199 1:58 2:273 3:331 8:1 9:1 15:1 23:1 27:1 33:1 38:1 43:1 47:1 52:1 54:1 63:1 
0.7348446075489793 1:14 2:317 3:331 5:1 13:1 14:1 23:1 27:1 33:1 38:1 43:1 47:1 52:1 54:1 63:1 
0.6653750747011165 1:-348 2:350 3:2 4:1 13:1 14:1 23:1 28:1 29:1 43:1 47:1 49:1 56:1 63:1 
0.06469738551397812 1:-340 2:350 3:10 4:1 13:1 14:1 23:1 28:1 29:1 35:1 43:1 47:1 49:1 54:1 63:1 
3.069406076892948 1:-277 2:350 3:73 4:1 13:1 14:1 23:1 28:1 29:1 38:1 40:1 48:1 49:1 56:1 63:1 
0.2673986514959931 1:-260 2:350 3:90 4:1 13:1 14:1 23:1 28:1 29:1 38:1 43:1 48:1 51:1 56:1 62:1 
0.2360593156401037 1:-107 2:350 3:243 4:1 13:1 14:1 23:1 28:1 29:1 37:1 43:1 48:1 49:1 55:1 63:1 
1.318205812506482 1:-55 2:350 3:295 4:1 13:1 14:1 23:1 28:1 29:1 35:1 43:1 45:1 53:1 56:1 63:1 
2.564320250717729 1:-42 2:350 3:308 4:1 13:1 14:1 23:1 28:1 29:1 38:1 39:1 48:1 52:1 55:1 62:1 
0.6959593641447458 1:-30 2:350 3:320 4:1 13:1 14:1 23:1 28:1 29:1 36:1 43:1 47:1 52:1 57:1 60:1 
1.193192144647902 1:348 2:4 3:352 7:1 13:1 14:1 23:1 28:1 30:1 34:1 41:1 48:1 49:1 54:1 63:1 
0.7586220784993037 1:275 2:77 3:352 4:1 11:1 18:1 23:1 26:1 30:1 34:1 41:1 48:1 49:1 54:1 63:1 
0.7091147695408897 1:266 2:86 3:352 8:1 10:1 18:1 23:1 28:1 33:1 34:1 41:1 48:1 49:1 54:1 63:1 
1.483013213405519 1:260 2:92 3:352 8:1 13:1 16:1 22:1 26:1 29:1 34:1 41:1 48:1 49:1 54:1 63:1 
2.107029511120407 1:245 2:107 3:352 4:1 10:1 18:1 23:1 26:1 32:1 34:1 41:1 48:1 49:1 54:1 63:1 
0.04234614590016811 1:226 2:126 3:352 4:1 13:1 18:1 19:1 25:1 33:1 34:1 41:1 48:1 49:1 54:1 63:1 
1.472788088914952 1:197 2:155 3:352 8:1 13:1 18:1 20:1 26:1 29:1 34:1 41:1 48:1 49:1 54:1 63:1 
0.2335418429550889 1:65 2:287 3:352 8:1 12:1 17:1 19:1 27:1 33:1 34:1 41:1 48:1 49:1 54:1 63:1 
0.9219752299351994 1:50 2:302 3:352 4:1 10:1 18:1 19:1 27:1 33:1 34:1 41:1 48:1 49:1 54:1 63:1 
0.4849727688432931 1:-195 2:363 3:168 5:1 10:1 14:1 23:1 25:1 38:1 40:1 48:1 53:1 54:1 62:1 
0.2191907676781361 1:-120 2:363 3:243 5:1 10:1 14:1 23:1 25:1 37:1 43:1 48:1 49:1 55:1 63:1 
1.591558685763272 1:-87 2:363 3:276 5:1 10:1 14:1 23:1 25:1 36:1 43:1 47:1 53:1 56:1 63:1 
0.8554595004126319 1:-55 2:363 3:308 5:1 10:1 14:1 23:1 25:1 38:1 39:1 48:1 52:1 55:1 62:1 
0.5703954850732675 1:-43 2:363 3:320 5:1 10:1 14:1 23:1 25:1 36:1 43:1 47:1 52:1 57:1 60:1 
0.5438138272564347 1:-32 2:363 3:331 5:1 10:1 14:1 23:1 25:1 38:1 43:1 47:1 52:1 54:1 63:1 
1.720026965621128 1:-11 2:363 3:352 5:1 10:1 14:1 23:1 25:1 34:1 41:1 48:1 49:1 54:1 63:1 
1.595037043926587 1:6 2:21 3:27 4:1 13:1 17:1 23:1 24:1 32:1 37:1 39:1 47:1 50:1 58:1 59:1 
0.3557025357823235 1:20 2:9 3:29 5:1 13:1 14:1 22:1 25:1 33:1 37:1 43:1 45:1 49:1 58:1 63:1 
0.2139325109403047 1:8 2:21 3:29 4:1 13:1 17:1 23:1 24:1 32:1 37:1 43:1 45:1 49:1 58:1 63:1 
0.4638437256226811 1:20 2:21 3:41 4:1 13:1 17:1 23:1 24:1 32:1 35:1 39:1 48:1 53:1 58:1 59:1 
0.0005828864967702676 1:33 2:9 3:42 5:1 13:1 14:1 22:1 25:1 33:1 34:1 43:1 48:1 53:1 54:1 62:1 
0.9195699166368499 1:37 2:21 3:58 4:1 13:1 17:1 23:1 24:1 32:1 34:1 42:1 48:1 49:1 58:1 62:1 
1.377824203704018 1:-51 2:64 3:13 7:1 13:1 18:1 20:1 28:1 33:1 37:1 40:1 48:1 53:1 58:1 62:1 
4 1:-2 2:64 3:62 7:1 13:1 18:1 20:1 28:1 33:1 34:1 43:1 47:1 53:1 56:1 60:1 
1.411363190701087 1:49 2:21 3:70 4:1 13:1 17:1 23:1 24:1 32:1 38:1 42:1 48:1 53:1 54:1 62:1 
1.979628430845622 1:-61 2:76 3:15 7:1 13:1 18:1 22:1 28:1 33:1 38:1 43:1 48:1 52:1 58:1 59:1 
0.1568187270707847 1:81 2:9 3:90 5:1 13:1 14:1 22:1 25:1 33:1 34:1 43:1 45:1 49:1 54:1 63:1 
2.822640782119384 1:69 2:21 3:90 4:1 13:1 17:1 23:1 24:1 32:1 34:1 43:1 45:1 49:1 54:1 63:1 
1.286206358552995 1:14 2:76 3:90 7:1 13:1 18:1 22:1 28:1 33:1 34:1 43:1 45:1 49:1 54:1 63:1 
0.7273178338178128 1:87 2:9 3:96 5:1 13:1 14:1 22:1 25:1 33:1 38:1 42:1 48:1 53:1 58:1 63:1 
0.9303031163001193 1:75 2:21 3:96 4:1 13:1 17:1 23:1 24:1 32:1 38:1 42:1 48:1 53:1 58:1 63:1 
0.07074701194107054 1:20 2:76 3:96 7:1 13:1 18:1 22:1 28:1 33:1 38:1 42:1 48:1 53:1 58:1 63:1 
0.1190351771096927 1:89 2:9 3:98 5:1 13:1 14:1 22:1 25:1 33:1 38:1 43:1 48:1 53:1 58:1 62:1 
3.555941791410129 1:-88 2:115 3:27 7:1 9:1 15:1 22:1 25:1 33:1 37:1 39:1 47:1 50:1 58:1 59:1 
0.4387783893827361 1:-86 2:115 3:29 7:1 9:1 15:1 22:1 25:1 33:1 37:1 43:1 45:1 49:1 58:1 63:1 
1.696275140157045 1:-73 2:115 3:42 7:1 9:1 15:1 22:1 25:1 33:1 34:1 43:1 48:1 53:1 54:1 62:1 
0.2498481769458008 1:-57 2:115 3:58 7:1 9:1 15:1 22:1 25:1 33:1 34:1 42:1 48:1 49:1 58:1 62:1 
0.7346577483876349 1:-53 2:115 3:62 7:1 9:1 15:1 22:1 25:1 33:1 34:1 43:1 47:1 53:1 56:1 60:1 
0.00858501276325176 1:-48 2:115 3:67 7:1 9:1 15:1 22:1 25:1 33:1 36:1 40:1 48:1 52:1 58:1 63:1 
0.243828975766291 1:-45 2:115 3:70 7:1 9:1 15:1 22:1 25:1 33:1 38:1 42:1 48:1 53:1 54:1 62:1 
0.3000280431830572 1:-17 2:115 3:98 7:1 9:1 15:1 22:1 25:1 33:1 38:1 43:1 48:1 53:1 58:1 62:1 
0.07840075276487524 1:-15 2:115 3:100 7:1 9:1 15:1 22:1 25:1 33:1 38:1 43:1 48:1 52:1 57:1 63:1 
0.3880377930877495 1:98 2:21 3:119 4:1 13:1 17:1 23:1 24:1 32:1 37:1 40:1 48:1 53:1 54:1 62:1 
0.2474765501251062 1:55 2:64 3:119 7:1 13:1 18:1 20:1 28:1 33:1 37:1 40:1 48:1 53:1 54:1 62:1 
2.139955189058925 1:4 2:115 3:119 7:1 9:1 15:1 22:1 25:1 33:1 37:1 40:1 48:1 53:1 54:1 62:1 
0.2839582037716173 1:109 2:21 3:130 4:1 13:1 17:1 23:1 24:1 32:1 35:1 40:1 48:1 53:1 57:1 60:1 
0.03719288505584944 1:15 2:115 3:130 7:1 9:1 15:1 22:1 25:1 33:1 35:1 40:1 48:1 53:1 57:1 60:1 
0.05955595744244145 1:115 2:21 3:136 4:1 13:1 17:1 23:1 24:1 32:1 35:1 42:1 48:1 53:1 54:1 63:1 
0.5820831517292467 1:60 2:76 3:136 7:1 13:1 18:1 22:1 28:1 33:1 35:1 42:1 48:1 53:1 54:1 63:1 
2.057650369295274 1:21 2:115 3:136 7:1 9:1 15:1 22:1 25:1 33:1 35:1 42:1 48:1 53:1 54:1 63:1 
3.06615755363269 1:76 2:76 3:152 7:1 13:1 18:1 22:1 28:1 33:1 38:1 39:1 48:1 53:1 58:1 62:1 
0.5811942703032363 1:-149 2:162 3:13 4:1 10:1 15:1 23:1 27:1 33:1 37:1 40:1 48:1 53:1 58:1 62:1 
2.457725205546209 1:-120 2:162 3:42 4:1 10:1 15:1 23:1 27:1 33:1 34:1 43:1 48:1 53:1 54:1 62:1 
0.261359071565378 1:-92 2:162 3:70 4:1 10:1 15:1 23:1 27:1 33:1 38:1 42:1 48:1 53:1 54:1 62:1 
0.3204998809655634 1:-72 2:162 3:90 4:1 10:1 15:1 23:1 27:1 33:1 34:1 43:1 45:1 49:1 54:1 63:1 
1.082691440545989 1:-64 2:162 3:98 4:1 10:1 15:1 23:1 27:1 33:1 38:1 43:1 48:1 53:1 58:1 62:1 
1.56555505010454 1:-32 2:162 3:130 4:1 10:1 15:1 23:1 27:1 33:1 35:1 40:1 48:1 53:1 57:1 60:1 
2.409838486413427 1:-10 2:162 3:152 4:1 10:1 15:1 23:1 27:1 33:1 38:1 39:1 48:1 53:1 58:1 62:1 
3.731344647250133 1:170 2:21 3:191 4:1 13:1 17:1 23:1 24:1 32:1 38:1 42:1 45:1 52:1 58:1 63:1 
4 1:127 2:64 3:191 7:1 13:1 18:1 20:1 28:1 33:1 38:1 42:1 45:1 52:1 58:1 63:1 
1.655365363169358 1:115 2:76 3:191 7:1 13:1 18:1 22:1 28:1 33:1 38:1 42:1 45:1 52:1 58:1 63:1 
1.778479007269784 1:76 2:115 3:191 7:1 9:1 15:1 22:1 25:1 33:1 38:1 42:1 45:1 52:1 58:1 63:1 
1.549130015681724 1:-194 2:207 3:13 8:1 10:1 15:1 22:1 25:1 30:1 37:1 40:1 48:1 53:1 58:1 62:1 
4 1:-192 2:207 3:15 8:1 10:1 15:1 22:1 25:1 30:1 38:1 43:1 48:1 52:1 58:1 59:1 
2.422619584036132 1:-180 2:207 3:27 8:1 10:1 15:1 22:1 25:1 30:1 37:1 39:1 47:1 50:1 58:1 59:1 
0.2154622071252013 1:-165 2:207 3:42 8:1 10:1 15:1 22:1 25:1 30:1 34:1 43:1 48:1 53:1 54:1 62:1 
1.703639883084966 1:-145 2:207 3:62 8:1 10:1 15:1 22:1 25:1 30:1 34:1 43:1 47:1 53:1 56:1 60:1 
3.609103091954941 1:-137 2:207 3:70 8:1 10:1 15:1 22:1 25:1 30:1 38:1 42:1 48:1 53:1 54:1 62:1 
0.02058118949564128 1:-107 2:207 3:100 8:1 10:1 15:1 22:1 25:1 30:1 38:1 43:1 48:1 52:1 57:1 63:1 
2.367902845483699 1:-88 2:207 3:119 8:1 10:1 15:1 22:1 25:1 30:1 37:1 40:1 48:1 53:1 54:1 62:1 
0.9261162099929643 1:-77 2:207 3:130 8:1 10:1 15:1 22:1 25:1 30:1 35:1 40:1 48:1 53:1 57:1 60:1 
0.9488944942056136 1:-71 2:207 3:136 8:1 10:1 15:1 22:1 25:1 30:1 35:1 42:1 48:1 53:1 54:1 63:1 
2.645639884680752 1:-55 2:207 3:152 8:1 10:1 15:1 22:1 25:1 30:1 38:1 39:1 48:1 53:1 58:1 62:1 
0.403552678589827 1:136 2:76 3:212 7:1 13:1 18:1 22:1 28:1 33:1 35:1 40:1 48:1 53:1 58:1 62:1 
0.8652030735746707 1:5 2:207 3:212 8:1 10:1 15:1 22:1 25:1 30:1 35:1 40:1 48:1 53:1 58:1 62:1 
0.006188335941108125 1:41 2:207 3:248 8:1 10:1 15:1 22:1 25:1 30:1 38:1 42:1 45:1 53:1 58:1 63:1 
2.407465957545285 1:-250 2:263 3:13 8:1 12:1 15:1 23:1 24:1 30:1 37:1 40:1 48:1 53:1 58:1 62:1 
0.3707298182197543 1:-248 2:263 3:15 8:1 12:1 15:1 23:1 24:1 30:1 38:1 43:1 48:1 52:1 58:1 59:1 
0.8076556955081072 1:-236 2:263 3:27 8:1 12:1 15:1 23:1 24:1 30:1 37:1 39:1 47:1 50:1 58:1 59:1 
0.3503637435696037 1:-222 2:263 3:41 8:1 12:1 15:1 23:1 24:1 30:1 35:1 39:1 48:1 53:1 58:1 59:1 
0.3324800480096237 1:-201 2:263 3:62 8:1 12:1 15:1 23:1 24:1 30:1 34:1 43:1 47:1 53:1 56:1 60:1 
0.6133443652623763 1:-196 2:263 3:67 8:1 12:1 15:1 23:1 24:1 30:1 36:1 40:1 48:1 52:1 58:1 63:1 
1.029382246921718 1:-189 2:263 3:74 8:1 12:1 15:1 23:1 24:1 30:1 38:1 39:1 47:1 53:1 56:1 62:1 
0.686063436181368 1:-173 2:263 3:90 8:1 12:1 15:1 23:1 24:1 30:1 34:1 43:1 45:1 49:1 54:1 63:1 
0.9519831316025577 1:-167 2:263 3:96 8:1 12:1 15:1 23:1 24:1 30:1 38:1 42:1 48:1 53:1 58:1 63:1 
1.605429858183148 1:-144 2:263 3:119 8:1 12:1 15:1 23:1 24:1 30:1 37:1 40:1 48:1 53:1 54:1 62:1 
0.692394958322748 1:-133 2:263 3:130 8:1 12:1 15:1 23:1 24:1 30:1 35:1 40:1 48:1 53:1 57:1 60:1 
2.167475599841573 1:-127 2:263 3:136 8:1 12:1 15:1 23:1 24:1 30:1 35:1 42:1 48:1 53:1 54:1 63:1 
0.06519102022283374 1:-111 2:263 3:152 8:1 12:1 15:1 23:1 24:1 30:1 38:1 39:1 48:1 53:1 58:1 62:1 
2.383852268263492 1:-72 2:263 3:191 8:1 12:1 15:1 23:1 24:1 30:1 38:1 42:1 45:1 52:1 58:1 63:1 
1.990507904560596 1:-51 2:263 3:212 8:1 12:1 15:1 23:1 24:1 30:1 35:1 40:1 48:1 53:1 58:1 62:1 
0.0493477024815651 1:264 2:9 3:273 5:1 13:1 14:1 22:1 25:1 33:1 38:1 40:1 47:1 53:1 54:1 59:1 
1.553281252590543 1:197 2:76 3:273 7:1 13:1 18:1 22:1 28:1 33:1 38:1 40:1 47:1 53:1 54:1 59:1 
1.105910340721631 1:158 2:115 3:273 7:1 9:1 15:1 22:1 25:1 33:1 38:1 40:1 47:1 53:1 54:1 59:1 
0.8925135968530091 1:66 2:207 3:273 8:1 10:1 15:1 22:1 25:1 30:1 38:1 40:1 47:1 53:1 54:1 59:1 
3.301678934847436 1:10 2:263 3:273 8:1 12:1 15:1 23:1 24:1 30:1 38:1 40:1 47:1 53:1 54:1 59:1 
0.440193271319092 1:116 2:162 3:278 4:1 10:1 15:1 23:1 27:1 33:1 34:1 39:1 45:1 49:1 58:1 63:1 
0.5943548931752787 1:15 2:263 3:278 8:1 12:1 15:1 23:1 24:1 30:1 34:1 39:1 45:1 49:1 58:1 63:1 
0.4048813215670801 1:26 2:263 3:289 8:1 12:1 15:1 23:1 24:1 30:1 35:1 42:1 48:1 53:1 58:1 62:1 
0.1042433044134777 1:282 2:9 3:291 5:1 13:1 14:1 22:1 25:1 33:1 38:1 43:1 48:1 52:1 58:1 59:1 
0.2457679733954805 1:176 2:115 3:291 7:1 9:1 15:1 22:1 25:1 33:1 38:1 43:1 48:1 52:1 58:1 59:1 
0.4971012717937453 1:129 2:162 3:291 4:1 10:1 15:1 23:1 27:1 33:1 38:1 43:1 48:1 52:1 58:1 59:1 
0.3872392869506072 1:28 2:263 3:291 8:1 12:1 15:1 23:1 24:1 30:1 38:1 43:1 48:1 52:1 58:1 59:1 
4 1:-9 2:11 3:2 8:1 10:1 14:1 20:1 28:1 32:1 43:1 48:1 50:1 55:1 63:1 
1.1321950216695 1:-48 2:63 3:15 8:1 9:1 15:1 22:1 25:1 33:1 35:1 43:1 47:1 49:1 56:1 59:1 
1.250816651435861 1:-24 2:63 3:39 8:1 9:1 15:1 22:1 25:1 33:1 35:1 43:1 48:1 53:1 58:1 59:1 
1.519615703598952 1:54 2:17 3:71 7:1 13:1 14:1 19:1 25:1 30:1 38:1 43:1 48:1 50:1 58:1 62:1 
1.069277976267166 1:8 2:63 3:71 8:1 9:1 15:1 22:1 25:1 33:1 38:1 43:1 48:1 50:1 58:1 62:1 
4 1:75 2:17 3:92 7:1 13:1 14:1 19:1 25:1 30:1 38:1 43:1 47:1 50:1 55:1 63:1 
0.8959219510092665 1:108 2:17 3:125 7:1 13:1 14:1 19:1 25:1 30:1 35:1 43:1 47:1 49:1 54:1 59:1 
1.153875483294033 1:62 2:63 3:125 8:1 9:1 15:1 22:1 25:1 33:1 35:1 43:1 47:1 49:1 54:1 59:1 
3.570684133434245 1:147 2:17 3:164 7:1 13:1 14:1 19:1 25:1 30:1 38:1 42:1 48:1 53:1 54:1 60:1 
1.83964083100157 1:101 2:63 3:164 8:1 9:1 15:1 22:1 25:1 33:1 38:1 42:1 48:1 53:1 54:1 60:1 
4 1:-194 2:209 3:15 8:1 9:1 15:1 22:1 28:1 33:1 35:1 43:1 47:1 49:1 56:1 59:1 
0.5951648223092918 1:-75 2:209 3:134 8:1 9:1 15:1 22:1 28:1 33:1 37:1 43:1 47:1 53:1 58:1 63:1 
1.883886990092098 1:-73 2:209 3:136 8:1 9:1 15:1 22:1 28:1 33:1 37:1 43:1 48:1 53:1 54:1 63:1 
0.8469826028970426 1:206 2:11 3:217 8:1 10:1 14:1 20:1 28:1 32:1 38:1 42:1 48:1 53:1 54:1 62:1 
0.301274979914221 1:154 2:63 3:217 8:1 9:1 15:1 22:1 25:1 33:1 38:1 42:1 48:1 53:1 54:1 62:1 
2.719019199569471 1:214 2:11 3:225 8:1 10:1 14:1 20:1 28:1 32:1 38:1 43:1 48:1 53:1 58:1 59:1 
4 1:16 2:209 3:225 8:1 9:1 15:1 22:1 28:1 33:1 38:1 43:1 48:1 53:1 58:1 59:1 
0.6509336046558185 1:-230 2:245 3:15 8:1 13:1 18:1 23:1 28:1 30:1 35:1 43:1 47:1 49:1 56:1 59:1 
0.2358245697627306 1:-179 2:245 3:66 8:1 13:1 18:1 23:1 28:1 30:1 36:1 42:1 45:1 52:1 58:1 63:1 
1.976680850231432 1:-153 2:245 3:92 8:1 13:1 18:1 23:1 28:1 30:1 38:1 43:1 47:1 50:1 55:1 63:1 
1.568851112742279 1:-131 2:245 3:114 8:1 13:1 18:1 23:1 28:1 30:1 38:1 43:1 47:1 53:1 55:1 60:1 
1.141735039156281 1:-120 2:245 3:125 8:1 13:1 18:1 23:1 28:1 30:1 35:1 43:1 47:1 49:1 54:1 59:1 
0.1222058362464991 1:-111 2:245 3:134 8:1 13:1 18:1 23:1 28:1 30:1 37:1 43:1 47:1 53:1 58:1 63:1 
0.9289554144386598 1:-109 2:245 3:136 8:1 13:1 18:1 23:1 28:1 30:1 37:1 43:1 48:1 53:1 54:1 63:1 
0.3518250495318492 1:230 2:17 3:247 7:1 13:1 14:1 19:1 25:1 30:1 38:1 41:1 48:1 50:1 58:1 63:1 
4 1:-271 2:286 3:15 8:1 13:1 15:1 22:1 25:1 30:1 35:1 43:1 47:1 49:1 56:1 59:1 
1.16663754207354 1:-247 2:286 3:39 8:1 13:1 15:1 22:1 25:1 30:1 35:1 43:1 48:1 53:1 58:1 59:1 
0.1175441961281806 1:-215 2:286 3:71 8:1 13:1 15:1 22:1 25:1 30:1 38:1 43:1 48:1 50:1 58:1 62:1 
1.340130605941378 1:-194 2:286 3:92 8:1 13:1 15:1 22:1 25:1 30:1 38:1 43:1 47:1 50:1 55:1 63:1 
0.0656885842693346 1:-161 2:286 3:125 8:1 13:1 15:1 22:1 25:1 30:1 35:1 43:1 47:1 49:1 54:1 59:1 
0.9286092851074286 1:-150 2:286 3:136 8:1 13:1 15:1 22:1 25:1 30:1 37:1 43:1 48:1 53:1 54:1 63:1 
0.03675708721012022 1:-69 2:286 3:217 8:1 13:1 15:1 22:1 25:1 30:1 38:1 42:1 48:1 53:1 54:1 62:1 
0.7146149769753163 1:-61 2:286 3:225 8:1 13:1 15:1 22:1 25:1 30:1 38:1 43:1 48:1 53:1 58:1 59:1 
1.121650979361666 1:-39 2:286 3:247 8:1 13:1 15:1 22:1 25:1 30:1 38:1 41:1 48:1 50:1 58:1 63:1 
0.6384174388222716 1:233 2:63 3:296 8:1 9:1 15:1 22:1 25:1 33:1 38:1 43:1 47:1 50:1 58:1 63:1 
0.5914384720184085 1:292 2:11 3:303 8:1 10:1 14:1 20:1 28:1 32:1 38:1 40:1 45:1 49:1 58:1 63:1 
1.372537667673418 1:321 2:11 3:332 8:1 10:1 14:1 20:1 28:1 32:1 38:1 39:1 48:1 53:1 54:1 63:1 
1.892591497136348 1:269 2:63 3:332 8:1 9:1 15:1 22:1 25:1 33:1 38:1 39:1 48:1 53:1 54:1 63:1 
0.7482787814542017 1:46 2:286 3:332 8:1 13:1 15:1 22:1 25:1 30:1 38:1 39:1 48:1 53:1 54:1 63:1 
1.317363248760107 1:322 2:17 3:339 7:1 13:1 14:1 19:1 25:1 30:1 35:1 43:1 44:1 52:1 57:1 60:1 
1.819400441776527 1:276 2:63 3:339 8:1 9:1 15:1 22:1 25:1 33:1 35:1 43:1 44:1 52:1 57:1 60:1 
0.7392965915155857 1:130 2:209 3:339 8:1 9:1 15:1 22:1 28:1 33:1 35:1 43:1 44:1 52:1 57:1 60:1 
0.009376786989855777 1:94 2:245 3:339 8:1 13:1 18:1 23:1 28:1 30:1 35:1 43:1 44:1 52:1 57:1 60:1 
1.436832693606241 1:53 2:286 3:339 8:1 13:1 15:1 22:1 25:1 30:1 35:1 43:1 44:1 52:1 57:1 60:1 
1.602763181098595 1:344 2:17 3:361 7:1 13:1 14:1 19:1 25:1 30:1 35:1 43:1 47:1 53:1 58:1 63:1 
0.2706141743066786 1:298 2:63 3:361 8:1 9:1 15:1 22:1 25:1 33:1 35:1 43:1 47:1 53:1 58:1 63:1 
0.7230466423715101 1:152 2:209 3:361 8:1 9:1 15:1 22:1 28:1 33:1 35:1 43:1 47:1 53:1 58:1 63:1 
0.1456555998900047 1:116 2:245 3:361 8:1 13:1 18:1 23:1 28:1 30:1 35:1 43:1 47:1 53:1 58:1 63:1 
0.599639683915446 1:75 2:286 3:361 8:1 13:1 15:1 22:1 25:1 30:1 35:1 43:1 47:1 53:1 58:1 63:1 
0.3520272212301707 1:363 2:11 3:374 8:1 10:1 14:1 20:1 28:1 32:1 38:1 39:1 45:1 53:1 58:1 63:1 
0.7570943569144017 1:374 2:17 3:391 7:1 13:1 14:1 19:1 25:1 30:1 38:1 39:1 47:1 49:1 58:1 63:1 
2.120939030478226 1:328 2:63 3:391 8:1 9:1 15:1 22:1 25:1 33:1 38:1 39:1 47:1 49:1 58:1 63:1 
1.139246026516213 1:182 2:209 3:391 8:1 9:1 15:1 22:1 28:1 33:1 38:1 39:1 47:1 49:1 58:1 63:1 
0.3080306640584334 1:146 2:245 3:391 8:1 13:1 18:1 23:1 28:1 30:1 38:1 39:1 47:1 49:1 58:1 63:1 
1.295233884390209 1:105 2:286 3:391 8:1 13:1 15:1 22:1 25:1 30:1 38:1 39:1 47:1 49:1 58:1 63:1 
0.7247434012128996 1:-364 2:403 3:39 8:1 12:1 15:1 23:1 27:1 33:1 35:1 43:1 48:1 53:1 58:1 59:1 
0.1209710630688247 1:-332 2:403 3:71 8:1 12:1 15:1 23:1 27:1 33:1 38:1 43:1 48:1 50:1 58:1 62:1 
0.03739886198311072 1:-278 2:403 3:125 8:1 12:1 15:1 23:1 27:1 33:1 35:1 43:1 47:1 49:1 54:1 59:1 
0.4450848508109699 1:-239 2:403 3:164 8:1 12:1 15:1 23:1 27:1 33:1 38:1 42:1 48:1 53:1 54:1 60:1 
0.6333970614140592 1:-186 2:403 3:217 8:1 12:1 15:1 23:1 27:1 33:1 38:1 42:1 48:1 53:1 54:1 62:1 
0.06293362407244915 1:-156 2:403 3:247 8:1 12:1 15:1 23:1 27:1 33:1 38:1 41:1 48:1 50:1 58:1 63:1 
0.08061101491421119 1:-107 2:403 3:296 8:1 12:1 15:1 23:1 27:1 33:1 38:1 43:1 47:1 50:1 58:1 63:1 
2.241298126970659 1:-64 2:403 3:339 8:1 12:1 15:1 23:1 27:1 33:1 35:1 43:1 44:1 52:1 57:1 60:1 
0.003864510605118554 1:-42 2:403 3:361 8:1 12:1 15:1 23:1 27:1 33:1 35:1 43:1 47:1 53:1 58:1 63:1 
0.2339278883667028 1:-12 2:403 3:391 8:1 12:1 15:1 23:1 27:1 33:1 38:1 39:1 47:1 49:1 58:1 63:1 
0.6472589077381962 1:395 2:11 3:406 8:1 10:1 14:1 20:1 28:1 32:1 36:1 43:1 47:1 49:1 54:1 59:1 
0.9807728391055471 1:389 2:17 3:406 7:1 13:1 14:1 19:1 25:1 30:1 36:1 43:1 47:1 49:1 54:1 59:1 
0.465526120697181 1:343 2:63 3:406 8:1 9:1 15:1 22:1 25:1 33:1 36:1 43:1 47:1 49:1 54:1 59:1 
0.8113578161591579 1:197 2:209 3:406 8:1 9:1 15:1 22:1 28:1 33:1 36:1 43:1 47:1 49:1 54:1 59:1 
0.384933073170774 1:120 2:286 3:406 8:1 13:1 15:1 22:1 25:1 30:1 36:1 43:1 47:1 49:1 54:1 59:1 
0.5020580105055491 1:399 2:17 3:416 7:1 13:1 14:1 19:1 25:1 30:1 37:1 43:1 45:1 49:1 55:1 63:1 
0.8962814013644002 1:353 2:63 3:416 8:1 9:1 15:1 22:1 25:1 33:1 37:1 43:1 45:1 49:1 55:1 63:1 
0.5595812025112444 1:207 2:209 3:416 8:1 9:1 15:1 22:1 28:1 33:1 37:1 43:1 45:1 49:1 55:1 63:1 
1.952750951438652 1:171 2:245 3:416 8:1 13:1 18:1 23:1 28:1 30:1 37:1 43:1 45:1 49:1 55:1 63:1 
0.299783121835941 1:480 2:11 3:491 8:1 10:1 14:1 20:1 28:1 32:1 35:1 39:1 45:1 53:1 54:1 62:1 
2.180327908708098 1:-134 2:146 3:12 5:1 9:1 15:1 19:1 25:1 33:1 38:1 40:1 48:1 53:1 54:1 63:1 
0.1181983336639311 1:114 2:146 3:260 5:1 9:1 15:1 19:1 25:1 33:1 35:1 41:1 48:1 49:1 58:1 59:1 
0.2120295312221129 1:27 2:233 3:260 8:1 10:1 18:1 19:1 25:1 33:1 35:1 41:1 48:1 49:1 58:1 59:1 
3.180186039713954 1:2 2:258 3:260 5:1 9:1 15:1 23:1 28:1 29:1 35:1 41:1 48:1 49:1 58:1 59:1 
0.7939884849645593 1:-106 2:366 3:260 4:1 10:1 14:1 20:1 27:1 33:1 35:1 41:1 48:1 49:1 58:1 59:1 
2.527485402128709 1:-123 2:383 3:260 4:1 10:1 14:1 20:1 25:1 33:1 35:1 41:1 48:1 49:1 58:1 59:1 
1.416142049499437 1:-425 2:437 3:12 5:1 13:1 14:1 20:1 27:1 31:1 38:1 40:1 48:1 53:1 54:1 63:1 
0.5062161850565082 1:-180 2:440 3:260 6:1 10:1 17:1 20:1 24:1 33:1 35:1 41:1 48:1 49:1 58:1 59:1 
0.02943247862611598 1:-467 2:479 3:12 6:1 13:1 15:1 19:1 25:1 33:1 38:1 40:1 48:1 53:1 54:1 63:1 
0.1070917338549329 1:-290 2:550 3:260 4:1 10:1 15:1 20:1 35:1 41:1 48:1 49:1 58:1 59:1 
0.02105892311774845 1:36 2:19 3:55 7:1 13:1 18:1 20:1 24:1 33:1 38:1 42:1 45:1 53:1 58:1 62:1 
1.654054359990852 1:63 2:19 3:82 7:1 13:1 18:1 20:1 24:1 33:1 38:1 43:1 48:1 50:1 58:1 63:1 
0.9548302312680215 1:235 2:213 3:448 8:1 9:1 15:1 19:1 25:1 32:1 35:1 42:1 48:1 49:1 58:1 59:1 
0.294569637296882 1:155 2:293 3:448 5:1 9:1 15:1 23:1 24:1 33:1 35:1 42:1 48:1 49:1 58:1 59:1 
0.0513939599255015 1:-399 2:454 3:55 4:1 10:1 15:1 23:1 26:1 31:1 38:1 42:1 45:1 53:1 58:1 62:1 
3.822884191720544 1:-6 2:454 3:448 4:1 10:1 15:1 23:1 26:1 31:1 35:1 42:1 48:1 49:1 58:1 59:1 
0.0007342739157431555 1:-401 2:456 3:55 5:1 11:1 18:1 21:1 26:1 30:1 38:1 42:1 45:1 53:1 58:1 62:1 
0.2901992367314719 1:-8 2:456 3:448 5:1 11:1 18:1 21:1 26:1 30:1 35:1 42:1 48:1 49:1 58:1 59:1 
0.3857134977964413 1:-9 2:457 3:448 6:1 13:1 16:1 21:1 25:1 35:1 42:1 48:1 49:1 58:1 59:1 
0.02612231339965176 1:-376 2:458 3:82 8:1 11:1 16:1 20:1 38:1 43:1 48:1 50:1 58:1 63:1 
2.387473514866747 1:-10 2:458 3:448 8:1 11:1 16:1 20:1 35:1 42:1 48:1 49:1 58:1 59:1 
3.986523606899533 1:-21 2:54 3:33 5:1 13:1 18:1 20:1 24:1 29:1 38:1 39:1 48:1 53:1 54:1 59:1 
0.3366992872710354 1:163 2:13 3:176 5:1 13:1 14:1 22:1 24:1 33:1 37:1 40:1 44:1 52:1 58:1 63:1 
0.09778199524467222 1:-221 2:254 3:33 8:1 13:1 18:1 23:1 28:1 33:1 38:1 39:1 48:1 53:1 54:1 59:1 
0.139956243800987 1:-9 2:254 3:245 8:1 13:1 18:1 23:1 28:1 33:1 35:1 43:1 48:1 53:1 57:1 60:1 
1.313821114540514 1:-132 2:308 3:176 7:1 9:1 14:1 20:1 28:1 32:1 37:1 40:1 44:1 52:1 58:1 63:1 
1.100533294389904 1:-307 2:340 3:33 8:1 13:1 18:1 23:1 24:1 32:1 38:1 39:1 48:1 53:1 54:1 59:1 
0.3006009117250844 1:361 2:7 3:368 5:1 13:1 14:1 19:1 27:1 30:1 37:1 40:1 48:1 53:1 54:1 63:1 
1.885922295024582 1:60 2:308 3:368 7:1 9:1 14:1 20:1 28:1 32:1 37:1 40:1 48:1 53:1 54:1 63:1 
1.900198915580242 1:74 2:308 3:382 7:1 9:1 14:1 20:1 28:1 32:1 35:1 43:1 48:1 49:1 58:1 60:1 
0.2144987248156364 1:217 2:10 3:227 5:1 13:1 18:1 20:1 28:1 29:1 38:1 42:1 45:1 49:1 57:1 63:1 
1.443726126531044 1:177 2:50 3:227 4:1 10:1 17:1 20:1 28:1 29:1 38:1 42:1 45:1 49:1 57:1 63:1 
0.6459888029885306 1:162 2:65 3:227 7:1 13:1 15:1 22:1 28:1 30:1 38:1 42:1 45:1 49:1 57:1 63:1 
0.6632991648980455 1:63 2:164 3:227 8:1 11:1 15:1 20:1 28:1 33:1 38:1 42:1 45:1 49:1 57:1 63:1 
0.3803127668949329 1:284 2:1 3:285 14:1 20:1 24:1 30:1 35:1 40:1 44:1 53:1 55:1 59:1 
3.124344828810082 1:255 2:30 3:285 5:1 13:1 15:1 20:1 26:1 30:1 35:1 40:1 44:1 53:1 55:1 59:1 
0.328130306932198 1:59 2:11 3:70 4:1 11:1 15:1 20:1 28:1 32:1 37:1 43:1 45:1 49:1 54:1 62:1 
0.950468830991467 1:-33 2:76 3:43 7:1 13:1 18:1 20:1 27:1 33:1 38:1 43:1 45:1 53:1 54:1 63:1 
1.706333051567538 1:-54 2:97 3:43 8:1 12:1 15:1 19:1 25:1 30:1 38:1 43:1 45:1 53:1 54:1 63:1 
0.133344565293265 1:-79 2:120 3:41 8:1 10:1 18:1 20:1 25:1 30:1 38:1 39:1 48:1 50:1 58:1 63:1 
0.3305512378664066 1:-50 2:120 3:70 8:1 10:1 18:1 20:1 25:1 30:1 37:1 43:1 45:1 49:1 54:1 62:1 
0.5928446952264663 1:-132 2:173 3:41 8:1 11:1 18:1 19:1 28:1 32:1 38:1 39:1 48:1 50:1 58:1 63:1 
0.522856765083485 1:-250 2:251 3:1 5:1 13:1 15:1 23:1 28:1 30:1 48:1 53:1 55:1 63:1 
0.09017285780539003 1:361 2:9 3:370 8:1 10:1 14:1 20:1 26:1 30:1 38:1 42:1 45:1 52:1 58:1 62:1 
0.5665197397614679 1:294 2:76 3:370 7:1 13:1 18:1 20:1 27:1 33:1 38:1 42:1 45:1 52:1 58:1 62:1 
0.03345614615197841 1:199 2:171 3:370 4:1 10:1 18:1 23:1 26:1 29:1 38:1 42:1 45:1 52:1 58:1 62:1 
0.6695637474844567 1:197 2:173 3:370 8:1 11:1 18:1 19:1 28:1 32:1 38:1 42:1 45:1 52:1 58:1 62:1 
0.4890291450048219 1:6 2:364 3:370 5:1 13:1 18:1 23:1 27:1 33:1 38:1 42:1 45:1 52:1 58:1 62:1 
0.8663765522741246 1:401 2:9 3:410 8:1 10:1 14:1 20:1 26:1 30:1 38:1 43:1 48:1 52:1 57:1 63:1 
0.4413690563080589 1:252 2:158 3:410 8:1 10:1 18:1 23:1 27:1 30:1 38:1 43:1 48:1 52:1 57:1 63:1 
0.05643319842867095 1:237 2:173 3:410 8:1 11:1 18:1 19:1 28:1 32:1 38:1 43:1 48:1 52:1 57:1 63:1 
0.3994107125724653 1:159 2:251 3:410 5:1 13:1 15:1 23:1 28:1 30:1 38:1 43:1 48:1 52:1 57:1 63:1 
0.8628286665711051 1:46 2:364 3:410 5:1 13:1 18:1 23:1 27:1 33:1 38:1 43:1 48:1 52:1 57:1 63:1 
3.093560971835095 1:-424 2:425 3:1 8:1 13:1 14:1 23:1 28:1 32:1 48:1 53:1 55:1 63:1 
0.006603360037192696 1:-382 2:425 3:43 8:1 13:1 14:1 23:1 28:1 32:1 38:1 43:1 45:1 53:1 54:1 63:1 
0.3701613216435699 1:-15 2:425 3:410 8:1 13:1 14:1 23:1 28:1 32:1 38:1 43:1 48:1 52:1 57:1 63:1 
0.1294072130368162 1:358 2:76 3:434 7:1 13:1 18:1 20:1 27:1 33:1 35:1 43:1 45:1 53:1 57:1 60:1 
0.05594167821712522 1:337 2:97 3:434 8:1 12:1 15:1 19:1 25:1 30:1 35:1 43:1 45:1 53:1 57:1 60:1 
1.48908738795978 1:276 2:158 3:434 8:1 10:1 18:1 23:1 27:1 30:1 35:1 43:1 45:1 53:1 57:1 60:1 
2.871798000685405 1:263 2:171 3:434 4:1 10:1 18:1 23:1 26:1 29:1 35:1 43:1 45:1 53:1 57:1 60:1 
0.8405477430686962 1:183 2:251 3:434 5:1 13:1 15:1 23:1 28:1 30:1 35:1 43:1 45:1 53:1 57:1 60:1 
1.163302137977961 1:9 2:425 3:434 8:1 13:1 14:1 23:1 28:1 32:1 35:1 43:1 45:1 53:1 57:1 60:1 
0.09641409545398115 1:17 2:1 3:18 14:1 20:1 25:1 30:1 37:1 39:1 45:1 53:1 58:1 59:1 
2.957628911689954 1:26 2:1 3:27 14:1 20:1 25:1 30:1 38:1 39:1 45:1 49:1 56:1 63:1 
4 1:-11 2:29 3:18 5:1 13:1 14:1 23:1 24:1 31:1 37:1 39:1 45:1 53:1 58:1 59:1 
2.537631473598708 1:-92 2:110 3:18 8:1 9:1 15:1 20:1 25:1 30:1 37:1 39:1 45:1 53:1 58:1 59:1 
1.419087265303466 1:123 2:1 3:124 14:1 20:1 25:1 30:1 35:1 43:1 45:1 53:1 58:1 62:1 
1.774811488463334 1:-176 2:203 3:27 5:1 13:1 18:1 19:1 27:1 29:1 38:1 39:1 45:1 49:1 56:1 63:1 
1.146584634137986 1:-208 2:226 3:18 4:1 10:1 14:1 19:1 27:1 29:1 37:1 39:1 45:1 53:1 58:1 59:1 
2.082831667809113 1:20 2:81 3:101 4:1 13:1 14:1 19:1 24:1 33:1 38:1 43:1 45:1 53:1 54:1 63:1 
0.0935578427696668 1:91 2:81 3:172 4:1 13:1 14:1 19:1 24:1 33:1 35:1 42:1 48:1 50:1 54:1 63:1 
0.6213750160481004 1:127 2:81 3:208 4:1 13:1 14:1 19:1 24:1 33:1 38:1 43:1 45:1 50:1 58:1 60:1 
1.10827189248436 1:260 2:8 3:268 8:1 10:1 14:1 20:1 28:1 33:1 35:1 43:1 48:1 53:1 54:1 59:1 
1.726065547788842 1:187 2:81 3:268 4:1 13:1 14:1 19:1 24:1 33:1 35:1 43:1 48:1 53:1 54:1 59:1 
1.286036070744057 1:6 2:31 3:37 8:1 13:1 14:1 23:1 27:1 30:1 35:1 43:1 48:1 53:1 58:1 62:1 
1.486560733902256 1:-79 2:116 3:37 8:1 13:1 18:1 19:1 28:1 31:1 35:1 43:1 48:1 53:1 58:1 62:1 
2.47908024774716 1:-51 2:116 3:65 8:1 13:1 18:1 19:1 28:1 31:1 38:1 43:1 45:1 49:1 58:1 63:1 
1.621013125310111 1:-100 2:119 3:19 6:1 9:1 18:1 19:1 25:1 31:1 34:1 40:1 48:1 53:1 58:1 59:1 
3.565525179511167 1:-84 2:119 3:35 6:1 9:1 18:1 19:1 25:1 31:1 38:1 42:1 45:1 53:1 58:1 63:1 
4 1:-71 2:119 3:48 6:1 9:1 18:1 19:1 25:1 31:1 37:1 42:1 45:1 53:1 57:1 63:1 
3.358389856356743 1:-110 2:122 3:12 6:1 9:1 15:1 19:1 27:1 33:1 35:1 43:1 47:1 49:1 54:1 63:1 
3.408182191768633 1:-85 2:122 3:37 6:1 9:1 15:1 19:1 27:1 33:1 35:1 43:1 48:1 53:1 58:1 62:1 
1.607913965500097 1:-57 2:122 3:65 6:1 9:1 15:1 19:1 27:1 33:1 38:1 43:1 45:1 49:1 58:1 63:1 
1.540314587368846 1:-121 2:140 3:19 8:1 12:1 15:1 22:1 25:1 32:1 34:1 40:1 48:1 53:1 58:1 59:1 
2.251222389511771 1:-75 2:140 3:65 8:1 12:1 15:1 22:1 25:1 32:1 38:1 43:1 45:1 49:1 58:1 63:1 
4 1:-138 2:150 3:12 8:1 9:1 15:1 23:1 28:1 32:1 35:1 43:1 47:1 49:1 54:1 63:1 
3.756903253941292 1:-113 2:150 3:37 8:1 9:1 15:1 23:1 28:1 32:1 35:1 43:1 48:1 53:1 58:1 62:1 
1.750339726410585 1:-85 2:150 3:65 8:1 9:1 15:1 23:1 28:1 32:1 38:1 43:1 45:1 49:1 58:1 63:1 
0.05872705206507433 1:128 2:31 3:159 8:1 13:1 14:1 23:1 27:1 30:1 34:1 40:1 48:1 49:1 58:1 59:1 
1.153847771767684 1:40 2:119 3:159 6:1 9:1 18:1 19:1 25:1 31:1 34:1 40:1 48:1 49:1 58:1 59:1 
0.8813900361784374 1:-156 2:168 3:12 7:1 9:1 17:1 23:1 28:1 33:1 35:1 43:1 47:1 49:1 54:1 63:1 
1.738423107015308 1:-131 2:168 3:37 7:1 9:1 17:1 23:1 28:1 33:1 35:1 43:1 48:1 53:1 58:1 62:1 
0.6969546005932848 1:165 2:7 3:172 5:1 13:1 14:1 22:1 25:1 33:1 38:1 43:1 48:1 53:1 56:1 62:1 
1.758409984631339 1:56 2:116 3:172 8:1 13:1 18:1 19:1 28:1 31:1 38:1 43:1 48:1 53:1 56:1 62:1 
0.3564557450454609 1:53 2:119 3:172 6:1 9:1 18:1 19:1 25:1 31:1 38:1 43:1 48:1 53:1 56:1 62:1 
2.415922340902241 1:32 2:140 3:172 8:1 12:1 15:1 22:1 25:1 32:1 38:1 43:1 48:1 53:1 56:1 62:1 
0.32951045905697 1:22 2:150 3:172 8:1 9:1 15:1 23:1 28:1 32:1 38:1 43:1 48:1 53:1 56:1 62:1 
1.718068632801124 1:-137 2:174 3:37 8:1 13:1 18:1 22:1 28:1 33:1 35:1 43:1 48:1 53:1 58:1 62:1 
0.3035479915788949 1:180 2:7 3:187 5:1 13:1 14:1 22:1 25:1 33:1 34:1 40:1 44:1 53:1 54:1 63:1 
1.200371449880094 1:156 2:31 3:187 8:1 13:1 14:1 23:1 27:1 30:1 34:1 40:1 44:1 53:1 54:1 63:1 
1.311902046172429 1:68 2:119 3:187 6:1 9:1 18:1 19:1 25:1 31:1 34:1 40:1 44:1 53:1 54:1 63:1 
1.760577838595021 1:47 2:140 3:187 8:1 12:1 15:1 22:1 25:1 32:1 34:1 40:1 44:1 53:1 54:1 63:1 
0.2133577436965979 1:161 2:31 3:192 8:1 13:1 14:1 23:1 27:1 30:1 34:1 43:1 47:1 53:1 57:1 63:1 
4 1:73 2:119 3:192 6:1 9:1 18:1 19:1 25:1 31:1 34:1 43:1 47:1 53:1 57:1 63:1 
0.2639968278445136 1:168 2:31 3:199 8:1 13:1 14:1 23:1 27:1 30:1 35:1 43:1 48:1 52:1 54:1 59:1 
1.959179233343688 1:77 2:122 3:199 6:1 9:1 15:1 19:1 27:1 33:1 35:1 43:1 48:1 52:1 54:1 59:1 
0.9471297022922277 1:49 2:150 3:199 8:1 9:1 15:1 23:1 28:1 32:1 35:1 43:1 48:1 52:1 54:1 59:1 
4 1:-5 2:5 3:0 6:1 13:1 18:1 20:1 28:1 32:1 49:1 56:1 63:1 
0.8205568748991099 1:-29 2:32 3:3 6:1 9:1 15:1 23:1 28:1 33:1 38:1 39:1 46:1 53:1 56:1 60:1 
3.689948644156183 1:58 2:22 3:80 7:1 9:1 15:1 23:1 24:1 30:1 35:1 43:1 47:1 49:1 54:1 63:1 
3.106134630295855 1:48 2:32 3:80 6:1 9:1 15:1 23:1 28:1 33:1 35:1 43:1 47:1 49:1 54:1 63:1 
0.2662700774061279 1:39 2:41 3:80 8:1 10:1 18:1 22:1 25:1 33:1 35:1 43:1 47:1 49:1 54:1 63:1 
0.709317304314973 1:-104 2:107 3:3 8:1 12:1 18:1 22:1 28:1 33:1 38:1 39:1 46:1 53:1 56:1 60:1 
2.015248395464236 1:-27 2:107 3:80 8:1 12:1 18:1 22:1 28:1 33:1 35:1 43:1 47:1 49:1 54:1 63:1 
4 1:-33 2:113 3:80 8:1 13:1 18:1 20:1 28:1 33:1 35:1 43:1 47:1 49:1 54:1 63:1 
0.251097953034752 1:-138 2:138 3:0 8:1 13:1 14:1 23:1 28:1 30:1 49:1 56:1 63:1 
1.032935215302216 1:-144 2:147 3:3 5:1 13:1 14:1 20:1 28:1 32:1 38:1 39:1 46:1 53:1 56:1 60:1 
1.057454206099174 1:-79 2:159 3:80 8:1 9:1 18:1 20:1 28:1 33:1 35:1 43:1 47:1 49:1 54:1 63:1 
0.1575952106174572 1:227 2:5 3:232 6:1 13:1 18:1 20:1 28:1 32:1 37:1 39:1 45:1 52:1 58:1 62:1 
0.3114545907494997 1:191 2:41 3:232 8:1 10:1 18:1 22:1 25:1 33:1 37:1 39:1 45:1 52:1 58:1 62:1 
2.302101293382568 1:119 2:113 3:232 8:1 13:1 18:1 20:1 28:1 33:1 37:1 39:1 45:1 52:1 58:1 62:1 
0.7107580509592121 1:85 2:147 3:232 5:1 13:1 14:1 20:1 28:1 32:1 37:1 39:1 45:1 52:1 58:1 62:1 
1.670114064939783 1:-21 2:253 3:232 8:1 13:1 18:1 19:1 27:1 33:1 37:1 39:1 45:1 52:1 58:1 62:1 
1.043826506414898 1:-259 2:262 3:3 4:1 13:1 15:1 22:1 27:1 30:1 38:1 39:1 46:1 53:1 56:1 60:1 
1.364166051143304 1:-182 2:262 3:80 4:1 13:1 15:1 22:1 27:1 30:1 35:1 43:1 47:1 49:1 54:1 63:1 
2.638303148319689 1:-308 2:311 3:3 8:1 9:1 18:1 19:1 27:1 30:1 38:1 39:1 46:1 53:1 56:1 60:1 
0.7031262715713393 1:-231 2:311 3:80 8:1 9:1 18:1 19:1 27:1 30:1 35:1 43:1 47:1 49:1 54:1 63:1 
0.2133063496984401 1:-79 2:311 3:232 8:1 9:1 18:1 19:1 27:1 30:1 37:1 39:1 45:1 52:1 58:1 62:1 
2.65191992600482 1:-336 2:339 3:3 5:1 10:1 15:1 22:1 25:1 33:1 38:1 39:1 46:1 53:1 56:1 60:1 
0.4440920467750231 1:-259 2:339 3:80 5:1 10:1 15:1 22:1 25:1 33:1 35:1 43:1 47:1 49:1 54:1 63:1 
3.013954838020287 1:-277 2:357 3:80 5:1 10:1 15:1 22:1 25:1 33:1 35:1 43:1 47:1 49:1 54:1 63:1 
0.4038811498916812 1:334 2:29 3:363 5:1 10:1 15:1 19:1 25:1 31:1 38:1 40:1 48:1 52:1 58:1 59:1 
0.7867466008036026 1:225 2:138 3:363 8:1 13:1 14:1 23:1 28:1 30:1 38:1 40:1 48:1 52:1 58:1 59:1 
1.098446909690716 1:-300 2:380 3:80 5:1 10:1 18:1 20:1 24:1 29:1 35:1 43:1 47:1 49:1 54:1 63:1 
0.3447635823941015 1:-148 2:380 3:232 5:1 10:1 18:1 20:1 24:1 29:1 37:1 39:1 45:1 52:1 58:1 62:1 
0.2780798844180046 1:-479 2:479 3:0 8:1 12:1 18:1 23:1 24:1 30:1 49:1 56:1 63:1 
0.03718991520030633 1:-399 2:479 3:80 8:1 12:1 18:1 23:1 24:1 30:1 35:1 43:1 47:1 49:1 54:1 63:1 
0.06268616042602537 1:-247 2:479 3:232 8:1 12:1 18:1 23:1 24:1 30:1 37:1 39:1 45:1 52:1 58:1 62:1 
0.07353488373860045 1:-116 2:479 3:363 8:1 12:1 18:1 23:1 24:1 30:1 38:1 40:1 48:1 52:1 58:1 59:1 
0.05960253899801116 1:-481 2:484 3:3 4:1 10:1 18:1 22:1 27:1 33:1 38:1 39:1 46:1 53:1 56:1 60:1 
0.02194594372415332 1:-252 2:484 3:232 4:1 10:1 18:1 22:1 27:1 33:1 37:1 39:1 45:1 52:1 58:1 62:1 
0.01581051429930718 1:-121 2:484 3:363 4:1 10:1 18:1 22:1 27:1 33:1 38:1 40:1 48:1 52:1 58:1 59:1 
1.027999666981411 1:486 2:5 3:491 6:1 13:1 18:1 20:1 28:1 32:1 34:1 40:1 45:1 53:1 55:1 63:1 
1.742347855066277 1:469 2:22 3:491 7:1 9:1 15:1 23:1 24:1 30:1 34:1 40:1 45:1 53:1 55:1 63:1 
1.710227899145919 1:450 2:41 3:491 8:1 10:1 18:1 22:1 25:1 33:1 34:1 40:1 45:1 53:1 55:1 63:1 
2.34382578658434 1:426 2:65 3:491 7:1 13:1 14:1 20:1 25:1 30:1 34:1 40:1 45:1 53:1 55:1 63:1 
0.1119782757471073 1:378 2:113 3:491 8:1 13:1 18:1 20:1 28:1 33:1 34:1 40:1 45:1 53:1 55:1 63:1 
0.02289015220931084 1:353 2:138 3:491 8:1 13:1 14:1 23:1 28:1 30:1 34:1 40:1 45:1 53:1 55:1 63:1 
0.04423646627747688 1:344 2:147 3:491 5:1 13:1 14:1 20:1 28:1 32:1 34:1 40:1 45:1 53:1 55:1 63:1 
0.8321052140858103 1:238 2:253 3:491 8:1 13:1 18:1 19:1 27:1 33:1 34:1 40:1 45:1 53:1 55:1 63:1 
1.339302716753065 1:229 2:262 3:491 4:1 13:1 15:1 22:1 27:1 30:1 34:1 40:1 45:1 53:1 55:1 63:1 
0.3017888742079062 1:180 2:311 3:491 8:1 9:1 18:1 19:1 27:1 30:1 34:1 40:1 45:1 53:1 55:1 63:1 
0.03778680557345636 1:167 2:324 3:491 8:1 9:1 15:1 23:1 28:1 33:1 34:1 40:1 45:1 53:1 55:1 63:1 
0.05390909768726521 1:134 2:357 3:491 5:1 10:1 15:1 22:1 25:1 33:1 34:1 40:1 45:1 53:1 55:1 63:1 
0.06335188331585985 1:111 2:380 3:491 5:1 10:1 18:1 20:1 24:1 29:1 34:1 40:1 45:1 53:1 55:1 63:1 
0.9540136089228368 1:12 2:479 3:491 8:1 12:1 18:1 23:1 24:1 30:1 34:1 40:1 45:1 53:1 55:1 63:1 
0.03552962465656078 1:-28 2:30 3:2 8:1 11:1 15:1 23:1 28:1 29:1 43:1 47:1 49:1 56:1 63:1 
0.9467354622501565 1:-82 2:84 3:2 4:1 10:1 14:1 23:1 27:1 33:1 43:1 47:1 49:1 56:1 63:1 
1.091342253830031 1:-215 2:217 3:2 4:1 10:1 18:1 20:1 25:1 29:1 43:1 47:1 49:1 56:1 63:1 
4 1:-3 2:3 3:0 8:1 9:1 16:1 23:1 28:1 29:1 49:1 56:1 61:1 
0.7881942246471447 1:74 2:3 3:77 8:1 9:1 16:1 23:1 28:1 29:1 38:1 42:1 48:1 53:1 57:1 59:1 
1.47607293020889 1:92 2:2 3:94 13:1 14:1 21:1 28:1 33:1 37:1 40:1 48:1 49:1 58:1 63:1 
1.269676318321681 1:-138 2:138 3:0 8:1 13:1 15:1 20:1 25:1 33:1 49:1 56:1 61:1 
0.6556185769717089 1:-55 2:138 3:83 8:1 13:1 15:1 20:1 25:1 33:1 34:1 40:1 48:1 53:1 58:1 63:1 
2.065684778395478 1:146 2:2 3:148 13:1 14:1 21:1 28:1 33:1 38:1 40:1 48:1 53:1 57:1 63:1 
1.369555997483904 1:10 2:138 3:148 8:1 13:1 15:1 20:1 25:1 33:1 38:1 40:1 48:1 53:1 57:1 63:1 
1.729857885390826 1:186 2:3 3:189 8:1 9:1 16:1 23:1 28:1 29:1 34:1 43:1 48:1 50:1 57:1 63:1 
0.7629556451173979 1:-174 2:202 3:28 7:1 11:1 15:1 20:1 26:1 30:1 38:1 43:1 48:1 53:1 54:1 60:1 
0.7084068731398109 1:-54 2:202 3:148 7:1 11:1 15:1 20:1 26:1 30:1 38:1 40:1 48:1 53:1 57:1 63:1 
1.103375807624172 1:-127 2:204 3:77 5:1 11:1 15:1 20:1 26:1 30:1 38:1 42:1 48:1 53:1 57:1 59:1 
1.164846232278302 1:-121 2:204 3:83 5:1 11:1 15:1 20:1 26:1 30:1 34:1 40:1 48:1 53:1 58:1 63:1 
0.2798684130827053 1:-26 2:204 3:178 5:1 11:1 15:1 20:1 26:1 30:1 35:1 42:1 48:1 52:1 58:1 62:1 
0.5368577994682839 1:-112 2:206 3:94 5:1 11:1 15:1 20:1 26:1 33:1 37:1 40:1 48:1 49:1 58:1 63:1 
1.185185387187426 1:-180 2:208 3:28 5:1 11:1 15:1 23:1 26:1 33:1 38:1 43:1 48:1 53:1 54:1 60:1 
0.3055872444273208 1:-170 2:208 3:38 5:1 11:1 15:1 23:1 26:1 33:1 35:1 43:1 48:1 52:1 58:1 63:1 
0.1825581958355574 1:-125 2:208 3:83 5:1 11:1 15:1 23:1 26:1 33:1 34:1 40:1 48:1 53:1 58:1 63:1 
1.161039920402445 1:-60 2:208 3:148 5:1 11:1 15:1 23:1 26:1 33:1 38:1 40:1 48:1 53:1 57:1 63:1 
2.611413585572706 1:-30 2:208 3:178 5:1 11:1 15:1 23:1 26:1 33:1 35:1 42:1 48:1 52:1 58:1 62:1 
0.06677749412558857 1:-32 2:210 3:178 5:1 11:1 18:1 23:1 25:1 31:1 35:1 42:1 48:1 52:1 58:1 62:1 
0.2492908035943823 1:-175 2:213 3:38 6:1 13:1 15:1 23:1 28:1 32:1 35:1 43:1 48:1 52:1 58:1 63:1 
0.1388822054904626 1:-136 2:213 3:77 6:1 13:1 15:1 23:1 28:1 32:1 38:1 42:1 48:1 53:1 57:1 59:1 
0.3239100738538294 1:218 2:3 3:221 8:1 9:1 16:1 23:1 28:1 29:1 34:1 43:1 48:1 50:1 58:1 60:1 
2.529362106945691 1:83 2:138 3:221 8:1 13:1 15:1 20:1 25:1 33:1 34:1 43:1 48:1 50:1 58:1 60:1 
0.5745793835003123 1:17 2:204 3:221 5:1 11:1 15:1 20:1 26:1 30:1 34:1 43:1 48:1 50:1 58:1 60:1 
0.7270231415975349 1:89 2:138 3:227 8:1 13:1 15:1 20:1 25:1 33:1 35:1 43:1 48:1 52:1 58:1 63:1 
0.1375565912671778 1:19 2:208 3:227 5:1 11:1 15:1 23:1 26:1 33:1 35:1 43:1 48:1 52:1 58:1 63:1 
0.7702398733193334 1:92 2:138 3:230 8:1 13:1 15:1 20:1 25:1 33:1 38:1 42:1 48:1 49:1 58:1 59:1 
1.457823029360182 1:28 2:202 3:230 7:1 11:1 15:1 20:1 26:1 30:1 38:1 42:1 48:1 49:1 58:1 59:1 
1.77628562914213 1:20 2:210 3:230 5:1 11:1 18:1 23:1 25:1 31:1 38:1 42:1 48:1 49:1 58:1 59:1 
4 1:17 2:213 3:230 6:1 13:1 15:1 23:1 28:1 32:1 38:1 42:1 48:1 49:1 58:1 59:1 
0.2736676176147246 1:-216 2:244 3:28 7:1 13:1 18:1 19:1 28:1 33:1 38:1 43:1 48:1 53:1 54:1 60:1 
2.728474773021214 1:-206 2:244 3:38 7:1 13:1 18:1 19:1 28:1 33:1 35:1 43:1 48:1 52:1 58:1 63:1 
1.828798870583601 1:-150 2:244 3:94 7:1 13:1 18:1 19:1 28:1 33:1 37:1 40:1 48:1 49:1 58:1 63:1 
2.924671093289693 1:-96 2:244 3:148 7:1 13:1 18:1 19:1 28:1 33:1 38:1 40:1 48:1 53:1 57:1 63:1 
3.327725367529199 1:-14 2:244 3:230 7:1 13:1 18:1 19:1 28:1 33:1 38:1 42:1 48:1 49:1 58:1 59:1 
0.380558641210662 1:-229 2:257 3:28 8:1 12:1 18:1 23:1 27:1 30:1 38:1 43:1 48:1 53:1 54:1 60:1 
0.421244898209535 1:-180 2:257 3:77 8:1 12:1 18:1 23:1 27:1 30:1 38:1 42:1 48:1 53:1 57:1 59:1 
1.159034035071825 1:-174 2:257 3:83 8:1 12:1 18:1 23:1 27:1 30:1 34:1 40:1 48:1 53:1 58:1 63:1 
0.01549483865289809 1:-109 2:257 3:148 8:1 12:1 18:1 23:1 27:1 30:1 38:1 40:1 48:1 53:1 57:1 63:1 
0.1237577992376837 1:-79 2:257 3:178 8:1 12:1 18:1 23:1 27:1 30:1 35:1 42:1 48:1 52:1 58:1 62:1 
1.271502770236097 1:-68 2:257 3:189 8:1 12:1 18:1 23:1 27:1 30:1 34:1 43:1 48:1 50:1 57:1 63:1 
0.2213070531576151 1:-36 2:257 3:221 8:1 12:1 18:1 23:1 27:1 30:1 34:1 43:1 48:1 50:1 58:1 60:1 
2.406699244825118 1:-27 2:257 3:230 8:1 12:1 18:1 23:1 27:1 30:1 38:1 42:1 48:1 49:1 58:1 59:1 
0.06691803820799838 1:558 2:0 3:558 19:1 28:1 31:1 38:1 39:1 45:1 49:1 58:1 63:1 
0.04787346473035445 1:555 2:3 3:558 6:1 9:1 18:1 22:1 28:1 29:1 38:1 39:1 45:1 49:1 58:1 63:1 
0.08129106628206367 1:514 2:44 3:558 4:1 10:1 18:1 22:1 28:1 29:1 38:1 39:1 45:1 49:1 58:1 63:1 
0.1306918182482947 1:449 2:109 3:558 5:1 9:1 18:1 22:1 28:1 33:1 38:1 39:1 45:1 49:1 58:1 63:1 
0.1045961478899023 1:404 2:154 3:558 8:1 12:1 18:1 19:1 25:1 33:1 38:1 39:1 45:1 49:1 58:1 63:1 
0.08019361449545293 1:333 2:225 3:558 6:1 9:1 14:1 23:1 25:1 29:1 38:1 39:1 45:1 49:1 58:1 63:1 
0.06603550871680675 1:290 2:268 3:558 5:1 13:1 18:1 20:1 25:1 31:1 38:1 39:1 45:1 49:1 58:1 63:1 
0.06191804843911075 1:287 2:271 3:558 6:1 10:1 15:1 22:1 27:1 30:1 38:1 39:1 45:1 49:1 58:1 63:1 
0.03787699498757713 1:276 2:282 3:558 5:1 12:1 17:1 19:1 28:1 31:1 38:1 39:1 45:1 49:1 58:1 63:1 
0.06682265452805641 1:273 2:285 3:558 6:1 9:1 18:1 19:1 24:1 32:1 38:1 39:1 45:1 49:1 58:1 63:1 
0.1070711772742458 1:26 2:532 3:558 5:1 9:1 18:1 22:1 28:1 33:1 38:1 39:1 45:1 49:1 58:1 63:1 
0.1070787799150039 1:-43 2:601 3:558 4:1 9:1 18:1 22:1 28:1 29:1 38:1 39:1 45:1 49:1 58:1 63:1 
0.0600336589638117 1:618 2:0 3:618 19:1 28:1 31:1 34:1 40:1 48:1 52:1 55:1 
0.06337692604239074 1:615 2:3 3:618 6:1 9:1 18:1 22:1 28:1 29:1 34:1 40:1 48:1 52:1 55:1 
