svm_type c_svc
kernel_type rbf
gamma 0.015873
nr_class 2
total_sv 27713
rho -0.941129
label -1 1
nr_sv 21546 6167
SV
1.320608580195347 1:-15 2:33 3:18 4:1 13:1 14:1 23:1 25:1 29:1 38:1 40:1 48:1 53:1 57:1 60:1 
0.7994389068378263 1:-90 2:108 3:18 8:1 12:1 18:1 23:1 28:1 29:1 38:1 40:1 48:1 53:1 57:1 60:1 
1.56390873842571 1:-106 2:124 3:18 5:1 13:1 14:1 23:1 28:1 33:1 38:1 40:1 48:1 53:1 57:1 60:1 
0.152429180701049 1:145 2:33 3:178 4:1 13:1 14:1 23:1 25:1 29:1 34:1 40:1 47:1 49:1 55:1 59:1 
0.08519558225134007 1:103 2:75 3:178 5:1 12:1 18:1 23:1 28:1 29:1 34:1 40:1 47:1 49:1 55:1 59:1 
1.805246479089206 1:-300 2:318 3:18 8:1 13:1 18:1 19:1 28:1 29:1 38:1 40:1 48:1 53:1 57:1 60:1 
0.1753175452682019 1:248 2:75 3:323 5:1 12:1 18:1 23:1 28:1 29:1 38:1 39:1 48:1 53:1 55:1 63:1 
0.7260626870135025 1:199 2:124 3:323 5:1 13:1 14:1 23:1 28:1 33:1 38:1 39:1 48:1 53:1 55:1 63:1 
1.250231604987079 1:47 2:276 3:323 5:1 13:1 15:1 23:1 24:1 30:1 38:1 39:1 48:1 53:1 55:1 63:1 
2.792325991032373 1:18 2:305 3:323 7:1 13:1 18:1 23:1 28:1 29:1 38:1 39:1 48:1 53:1 55:1 63:1 
1.570224986347444 1:-11 2:22 3:11 8:1 13:1 14:1 23:1 28:1 33:1 34:1 39:1 48:1 53:1 55:1 60:1 
2.717642423813045 1:19 2:22 3:41 8:1 13:1 14:1 23:1 28:1 33:1 34:1 43:1 45:1 50:1 58:1 63:1 
1.908408086537859 1:21 2:22 3:43 8:1 13:1 14:1 23:1 28:1 33:1 35:1 43:1 45:1 53:1 58:1 63:1 
0.5177223310818064 1:-34 2:75 3:41 4:1 10:1 18:1 22:1 25:1 32:1 34:1 43:1 45:1 50:1 58:1 63:1 
1.936844462707558 1:-32 2:75 3:43 4:1 10:1 18:1 22:1 25:1 32:1 35:1 43:1 45:1 53:1 58:1 63:1 
1.241021683071165 1:-105 2:116 3:11 8:1 13:1 15:1 20:1 28:1 30:1 34:1 39:1 48:1 53:1 55:1 60:1 
0.9303074543474809 1:-97 2:116 3:19 8:1 13:1 15:1 20:1 28:1 30:1 35:1 40:1 48:1 53:1 54:1 61:1 
0.4708023822515879 1:-75 2:116 3:41 8:1 13:1 15:1 20:1 28:1 30:1 34:1 43:1 45:1 50:1 58:1 63:1 
1.195359155390963 1:-222 2:233 3:11 8:1 13:1 15:1 22:1 25:1 29:1 34:1 39:1 48:1 53:1 55:1 60:1 
1.837733733157974 1:-192 2:233 3:41 8:1 13:1 15:1 22:1 25:1 29:1 34:1 43:1 45:1 50:1 58:1 63:1 
0.1762618106191533 1:298 2:22 3:320 8:1 13:1 14:1 23:1 28:1 33:1 37:1 39:1 45:1 50:1 54:1 63:1 
0.01533110500965146 1:248 2:75 3:323 4:1 10:1 18:1 22:1 25:1 32:1 38:1 40:1 44:1 53:1 58:1 62:1 
0.08639089446049056 1:90 2:233 3:323 8:1 13:1 15:1 22:1 25:1 29:1 38:1 40:1 44:1 53:1 58:1 62:1 
0.526941549537151 1:-352 2:363 3:11 8:1 9:1 15:1 22:1 25:1 32:1 34:1 39:1 48:1 53:1 55:1 60:1 
2.894906754083474 1:-40 2:363 3:323 8:1 9:1 15:1 22:1 25:1 32:1 38:1 40:1 44:1 53:1 58:1 62:1 
3.890276237553766 1:-19 2:27 3:8 8:1 9:1 15:1 23:1 24:1 33:1 35:1 40:1 48:1 49:1 56:1 60:1 
0.9027622408984332 1:16 2:27 3:43 8:1 9:1 15:1 23:1 24:1 33:1 35:1 43:1 44:1 50:1 58:1 63:1 
2.826293207012951 1:-59 2:67 3:8 8:1 12:1 15:1 22:1 25:1 33:1 35:1 40:1 48:1 49:1 56:1 60:1 
3.847774990714223 1:-47 2:67 3:20 8:1 12:1 15:1 22:1 25:1 33:1 38:1 43:1 45:1 53:1 56:1 63:1 
0.0008401672780025038 1:-50 2:93 3:43 8:1 9:1 15:1 23:1 28:1 33:1 35:1 43:1 44:1 50:1 58:1 63:1 
0.9428503389995274 1:92 2:22 3:114 5:1 13:1 18:1 23:1 28:1 29:1 35:1 43:1 45:1 53:1 57:1 60:1 
0.1793641748786357 1:87 2:27 3:114 8:1 9:1 15:1 23:1 24:1 33:1 35:1 43:1 45:1 53:1 57:1 60:1 
2.568064074693469 1:47 2:67 3:114 8:1 12:1 15:1 22:1 25:1 33:1 35:1 43:1 45:1 53:1 57:1 60:1 
1.065487364613074 1:125 2:10 3:135 8:1 13:1 14:1 20:1 24:1 31:1 38:1 43:1 45:1 49:1 58:1 63:1 
1.794162705770364 1:122 2:13 3:135 6:1 10:1 14:1 22:1 25:1 33:1 38:1 43:1 45:1 49:1 58:1 63:1 
3.635773198573462 1:113 2:22 3:135 5:1 13:1 18:1 23:1 28:1 29:1 38:1 43:1 45:1 49:1 58:1 63:1 
1.04301564668386 1:108 2:27 3:135 8:1 9:1 15:1 23:1 24:1 33:1 38:1 43:1 45:1 49:1 58:1 63:1 
4 1:68 2:67 3:135 8:1 12:1 15:1 22:1 25:1 33:1 38:1 43:1 45:1 49:1 58:1 63:1 
2.613193987950527 1:42 2:93 3:135 8:1 9:1 15:1 23:1 28:1 33:1 38:1 43:1 45:1 49:1 58:1 63:1 
1.090753536478268 1:-119 2:139 3:20 4:1 13:1 18:1 23:1 24:1 33:1 38:1 43:1 45:1 53:1 56:1 63:1 
0.1156342180081329 1:-25 2:139 3:114 4:1 13:1 18:1 23:1 24:1 33:1 35:1 43:1 45:1 53:1 57:1 60:1 
2.959734275503121 1:-4 2:139 3:135 4:1 13:1 18:1 23:1 24:1 33:1 38:1 43:1 45:1 49:1 58:1 63:1 
0.773273180656576 1:121 2:22 3:143 5:1 13:1 18:1 23:1 28:1 29:1 38:1 39:1 48:1 49:1 58:1 60:1 
0.5546424963790765 1:116 2:27 3:143 8:1 9:1 15:1 23:1 24:1 33:1 38:1 39:1 48:1 49:1 58:1 60:1 
1.198393719597447 1:76 2:67 3:143 8:1 12:1 15:1 22:1 25:1 33:1 38:1 39:1 48:1 49:1 58:1 60:1 
1.898988261862475 1:-128 2:148 3:20 8:1 10:1 18:1 19:1 25:1 33:1 38:1 43:1 45:1 53:1 56:1 63:1 
0.8716602198305777 1:-34 2:148 3:114 8:1 10:1 18:1 19:1 25:1 33:1 35:1 43:1 45:1 53:1 57:1 60:1 
1.805368767990925 1:-5 2:148 3:143 8:1 10:1 18:1 19:1 25:1 33:1 38:1 39:1 48:1 49:1 58:1 60:1 
1.456881761852639 1:87 2:67 3:154 8:1 12:1 15:1 22:1 25:1 33:1 38:1 43:1 47:1 49:1 58:1 59:1 
0.7230705891216532 1:61 2:93 3:154 8:1 9:1 15:1 23:1 28:1 33:1 38:1 43:1 47:1 49:1 58:1 59:1 
0.2150815607995585 1:6 2:148 3:154 8:1 10:1 18:1 19:1 25:1 33:1 38:1 43:1 47:1 49:1 58:1 59:1 
1.231057217994186 1:-165 2:173 3:8 8:1 9:1 15:1 22:1 25:1 33:1 35:1 40:1 48:1 49:1 56:1 60:1 
3.072067293087745 1:-153 2:173 3:20 8:1 9:1 15:1 22:1 25:1 33:1 38:1 43:1 45:1 53:1 56:1 63:1 
0.7511049804402786 1:-130 2:173 3:43 8:1 9:1 15:1 22:1 25:1 33:1 35:1 43:1 44:1 50:1 58:1 63:1 
0.3506277384293652 1:-59 2:173 3:114 8:1 9:1 15:1 22:1 25:1 33:1 35:1 43:1 45:1 53:1 57:1 60:1 
1.36050464312448 1:-38 2:173 3:135 8:1 9:1 15:1 22:1 25:1 33:1 38:1 43:1 45:1 49:1 58:1 63:1 
1.491179573985342 1:-30 2:173 3:143 8:1 9:1 15:1 22:1 25:1 33:1 38:1 39:1 48:1 49:1 58:1 60:1 
0.7872788104962538 1:-19 2:173 3:154 8:1 9:1 15:1 22:1 25:1 33:1 38:1 43:1 47:1 49:1 58:1 59:1 
0.566664674202026 1:-71 2:185 3:114 4:1 13:1 14:1 19:1 28:1 30:1 35:1 43:1 45:1 53:1 57:1 60:1 
2.248592564328906 1:-50 2:185 3:135 4:1 13:1 14:1 19:1 28:1 30:1 38:1 43:1 45:1 49:1 58:1 63:1 
2.639622468414584 1:-42 2:185 3:143 4:1 13:1 14:1 19:1 28:1 30:1 38:1 39:1 48:1 49:1 58:1 60:1 
0.09968562851221816 1:-31 2:185 3:154 4:1 13:1 14:1 19:1 28:1 30:1 38:1 43:1 47:1 49:1 58:1 59:1 
0.01245443618880828 1:176 2:22 3:198 5:1 13:1 18:1 23:1 28:1 29:1 35:1 43:1 47:1 53:1 54:1 63:1 
3.339824958095221 1:131 2:67 3:198 8:1 12:1 15:1 22:1 25:1 33:1 35:1 43:1 47:1 53:1 54:1 63:1 
0.02728390084094534 1:105 2:93 3:198 8:1 9:1 15:1 23:1 28:1 33:1 35:1 43:1 47:1 53:1 54:1 63:1 
2.329895622149001 1:50 2:148 3:198 8:1 10:1 18:1 19:1 25:1 33:1 35:1 43:1 47:1 53:1 54:1 63:1 
1.056710599892914 1:13 2:185 3:198 4:1 13:1 14:1 19:1 28:1 30:1 35:1 43:1 47:1 53:1 54:1 63:1 
2.130206230888828 1:2 2:17 3:19 8:1 10:1 14:1 20:1 28:1 29:1 34:1 41:1 45:1 49:1 55:1 63:1 
0.08554523118882218 1:-33 2:40 3:7 7:1 13:1 18:1 19:1 28:1 33:1 34:1 43:1 48:1 53:1 55:1 60:1 
1.117911748026697 1:-30 2:49 3:19 5:1 12:1 17:1 23:1 26:1 30:1 34:1 41:1 45:1 49:1 55:1 63:1 
1.510194048913438 1:-27 2:49 3:22 5:1 12:1 17:1 23:1 26:1 30:1 38:1 39:1 45:1 53:1 56:1 63:1 
3.162032403788601 1:-32 2:51 3:19 7:1 11:1 18:1 20:1 28:1 33:1 34:1 41:1 45:1 49:1 55:1 63:1 
0.7838229206903937 1:-70 2:77 3:7 8:1 13:1 15:1 23:1 28:1 29:1 34:1 43:1 48:1 53:1 55:1 60:1 
0.6420529323559347 1:-47 2:77 3:30 8:1 13:1 15:1 23:1 28:1 29:1 34:1 39:1 48:1 49:1 54:1 59:1 
1.529207884554576 1:-62 2:81 3:19 8:1 13:1 14:1 23:1 27:1 33:1 34:1 41:1 45:1 49:1 55:1 63:1 
4 1:-59 2:81 3:22 8:1 13:1 14:1 23:1 27:1 33:1 38:1 39:1 45:1 53:1 56:1 63:1 
1.326215526410811 1:-51 2:81 3:30 8:1 13:1 14:1 23:1 27:1 33:1 34:1 39:1 48:1 49:1 54:1 59:1 
2.017238859443591 1:58 2:24 3:82 5:1 13:1 18:1 23:1 28:1 29:1 38:1 39:1 46:1 52:1 58:1 59:1 
0.7057837678084831 1:33 2:49 3:82 5:1 12:1 17:1 23:1 26:1 30:1 38:1 39:1 46:1 52:1 58:1 59:1 
0.1847405157796207 1:31 2:51 3:82 7:1 11:1 18:1 20:1 28:1 33:1 38:1 39:1 46:1 52:1 58:1 59:1 
0.09380047855586437 1:5 2:77 3:82 8:1 13:1 15:1 23:1 28:1 29:1 38:1 39:1 46:1 52:1 58:1 59:1 
3.634178799597217 1:1 2:81 3:82 8:1 13:1 14:1 23:1 27:1 33:1 38:1 39:1 46:1 52:1 58:1 59:1 
1.340242682211614 1:-69 2:91 3:22 8:1 9:1 14:1 23:1 25:1 31:1 38:1 39:1 45:1 53:1 56:1 63:1 
1.261383226577484 1:-61 2:91 3:30 8:1 9:1 14:1 23:1 25:1 31:1 34:1 39:1 48:1 49:1 54:1 59:1 
3.019534434781652 1:-9 2:91 3:82 8:1 9:1 14:1 23:1 25:1 31:1 38:1 39:1 46:1 52:1 58:1 59:1 
0.5851614646876375 1:-87 2:94 3:7 6:1 13:1 15:1 20:1 26:1 30:1 34:1 43:1 48:1 53:1 55:1 60:1 
0.04538598204947639 1:-75 2:94 3:19 6:1 13:1 15:1 20:1 26:1 30:1 34:1 41:1 45:1 49:1 55:1 63:1 
1.599753821506506 1:-72 2:94 3:22 6:1 13:1 15:1 20:1 26:1 30:1 38:1 39:1 45:1 53:1 56:1 63:1 
1.064855943453117 1:-64 2:94 3:30 6:1 13:1 15:1 20:1 26:1 30:1 34:1 39:1 48:1 49:1 54:1 59:1 
0.4244434241212328 1:-77 2:96 3:19 5:1 11:1 15:1 20:1 26:1 30:1 34:1 41:1 45:1 49:1 55:1 63:1 
0.3838779690439009 1:-74 2:96 3:22 5:1 11:1 15:1 20:1 26:1 30:1 38:1 39:1 45:1 53:1 56:1 63:1 
0.3075441766202463 1:-66 2:96 3:30 5:1 11:1 15:1 20:1 26:1 30:1 34:1 39:1 48:1 49:1 54:1 59:1 
0.1562856526874188 1:-16 2:98 3:82 5:1 11:1 15:1 20:1 28:1 29:1 38:1 39:1 46:1 52:1 58:1 59:1 
0.8990053428526786 1:83 2:17 3:100 8:1 10:1 14:1 20:1 28:1 29:1 35:1 41:1 45:1 49:1 58:1 59:1 
0.1316330499014534 1:76 2:24 3:100 5:1 13:1 18:1 23:1 28:1 29:1 35:1 41:1 45:1 49:1 58:1 59:1 
0.3954418811141626 1:60 2:40 3:100 7:1 13:1 18:1 19:1 28:1 33:1 35:1 41:1 45:1 49:1 58:1 59:1 
0.3482779416239162 1:19 2:81 3:100 8:1 13:1 14:1 23:1 27:1 33:1 35:1 41:1 45:1 49:1 58:1 59:1 
1.878654662343077 1:9 2:91 3:100 8:1 9:1 14:1 23:1 25:1 31:1 35:1 41:1 45:1 49:1 58:1 59:1 
1.094192943281909 1:-98 2:105 3:7 8:1 9:1 14:1 23:1 28:1 29:1 34:1 43:1 48:1 53:1 55:1 60:1 
2.279817812477974 1:-86 2:105 3:19 8:1 9:1 14:1 23:1 28:1 29:1 34:1 41:1 45:1 49:1 55:1 63:1 
2.054872339684125 1:-75 2:105 3:30 8:1 9:1 14:1 23:1 28:1 29:1 34:1 39:1 48:1 49:1 54:1 59:1 
0.8219367516527105 1:90 2:17 3:107 8:1 10:1 14:1 20:1 28:1 29:1 34:1 41:1 48:1 49:1 56:1 59:1 
0.6818608591479165 1:83 2:24 3:107 5:1 13:1 18:1 23:1 28:1 29:1 34:1 41:1 48:1 49:1 56:1 59:1 
0.7371700337397777 1:58 2:49 3:107 5:1 12:1 17:1 23:1 26:1 30:1 34:1 41:1 48:1 49:1 56:1 59:1 
1.809789363958831 1:56 2:51 3:107 7:1 11:1 18:1 20:1 28:1 33:1 34:1 41:1 48:1 49:1 56:1 59:1 
0.2716634993480637 1:11 2:96 3:107 5:1 11:1 15:1 20:1 26:1 30:1 34:1 41:1 48:1 49:1 56:1 59:1 
4 1:2 2:105 3:107 8:1 9:1 14:1 23:1 28:1 29:1 34:1 41:1 48:1 49:1 56:1 59:1 
0.2359276121930178 1:-90 2:109 3:19 8:1 13:1 14:1 19:1 24:1 30:1 34:1 41:1 45:1 49:1 55:1 63:1 
0.1562962460833206 1:-27 2:109 3:82 8:1 13:1 14:1 19:1 24:1 30:1 38:1 39:1 46:1 52:1 58:1 59:1 
2.942976750972486 1:-9 2:109 3:100 8:1 13:1 14:1 19:1 24:1 30:1 35:1 41:1 45:1 49:1 58:1 59:1 
0.5294137831953979 1:-139 2:146 3:7 8:1 9:1 15:1 22:1 25:1 29:1 34:1 43:1 48:1 53:1 55:1 60:1 
0.3285920758060921 1:-116 2:146 3:30 8:1 9:1 15:1 22:1 25:1 29:1 34:1 39:1 48:1 49:1 54:1 59:1 
1.002713948972434 1:-64 2:146 3:82 8:1 9:1 15:1 22:1 25:1 29:1 38:1 39:1 46:1 52:1 58:1 59:1 
2.57774210909299 1:-46 2:146 3:100 8:1 9:1 15:1 22:1 25:1 29:1 35:1 41:1 45:1 49:1 58:1 59:1 
0.5337943751653326 1:-39 2:146 3:107 8:1 9:1 15:1 22:1 25:1 29:1 34:1 41:1 48:1 49:1 56:1 59:1 
0.01319309638816991 1:78 2:81 3:159 8:1 13:1 14:1 23:1 27:1 33:1 35:1 43:1 44:1 49:1 57:1 59:1 
0.5122205979795594 1:68 2:91 3:159 8:1 9:1 14:1 23:1 25:1 31:1 35:1 43:1 44:1 49:1 57:1 59:1 
0.3022549199144718 1:13 2:146 3:159 8:1 9:1 15:1 22:1 25:1 29:1 35:1 43:1 44:1 49:1 57:1 59:1 
2.292012345941076 1:-177 2:207 3:30 8:1 12:1 15:1 20:1 28:1 33:1 34:1 39:1 48:1 49:1 54:1 59:1 
0.9260707878135103 1:-125 2:207 3:82 8:1 12:1 15:1 20:1 28:1 33:1 38:1 39:1 46:1 52:1 58:1 59:1 
0.3069510616262066 1:-100 2:207 3:107 8:1 12:1 15:1 20:1 28:1 33:1 34:1 41:1 48:1 49:1 56:1 59:1 
0.8764378375809611 1:-48 2:207 3:159 8:1 12:1 15:1 20:1 28:1 33:1 35:1 43:1 44:1 49:1 57:1 59:1 
1.134942106138139 1:-199 2:221 3:22 8:1 10:1 18:1 20:1 28:1 29:1 38:1 39:1 45:1 53:1 56:1 63:1 
0.6337253241502958 1:-191 2:221 3:30 8:1 10:1 18:1 20:1 28:1 29:1 34:1 39:1 48:1 49:1 54:1 59:1 
3.210770310978261 1:-139 2:221 3:82 8:1 10:1 18:1 20:1 28:1 29:1 38:1 39:1 46:1 52:1 58:1 59:1 
0.3989884295505911 1:-62 2:221 3:159 8:1 10:1 18:1 20:1 28:1 29:1 35:1 43:1 44:1 49:1 57:1 59:1 
3.871505490162336 1:-221 2:240 3:19 8:1 11:1 15:1 20:1 26:1 33:1 34:1 41:1 45:1 49:1 55:1 63:1 
1.267032243707563 1:-210 2:240 3:30 8:1 11:1 15:1 20:1 26:1 33:1 34:1 39:1 48:1 49:1 54:1 59:1 
1.279091328114228 1:-133 2:240 3:107 8:1 11:1 15:1 20:1 26:1 33:1 34:1 41:1 48:1 49:1 56:1 59:1 
0.04040856004737498 1:-81 2:240 3:159 8:1 11:1 15:1 20:1 26:1 33:1 35:1 43:1 44:1 49:1 57:1 59:1 
0.1742651058725795 1:-235 2:242 3:7 5:1 11:1 15:1 23:1 27:1 33:1 34:1 43:1 48:1 53:1 55:1 60:1 
0.1527670169018909 1:-223 2:242 3:19 5:1 11:1 15:1 23:1 27:1 33:1 34:1 41:1 45:1 49:1 55:1 63:1 
0.1605597400099598 1:-160 2:242 3:82 5:1 11:1 15:1 23:1 27:1 33:1 38:1 39:1 46:1 52:1 58:1 59:1 
1.122349473980834 1:-83 2:242 3:159 5:1 11:1 15:1 23:1 27:1 33:1 35:1 43:1 44:1 49:1 57:1 59:1 
0.3230221681970201 1:30 2:14 3:44 5:1 13:1 18:1 23:1 27:1 30:1 34:1 42:1 45:1 49:1 56:1 63:1 
0.05047303112020902 1:96 2:7 3:103 5:1 13:1 14:1 20:1 26:1 32:1 37:1 40:1 48:1 52:1 58:1 63:1 
0.07111393172472164 1:-119 2:222 3:103 5:1 13:1 15:1 22:1 25:1 33:1 37:1 40:1 48:1 52:1 58:1 63:1 
4 1:-7 2:46 3:39 6:1 13:1 18:1 20:1 25:1 30:1 38:1 42:1 45:1 49:1 55:1 59:1 
0.04184246503988506 1:5 2:46 3:51 6:1 13:1 18:1 20:1 25:1 30:1 35:1 40:1 45:1 53:1 58:1 59:1 
0.1259707371856174 1:18 2:46 3:64 6:1 13:1 18:1 20:1 25:1 30:1 38:1 42:1 45:1 49:1 56:1 60:1 
1.705733472749427 1:-15 2:66 3:51 5:1 13:1 14:1 20:1 28:1 29:1 35:1 40:1 45:1 53:1 58:1 59:1 
0.7760292024682868 1:2 2:66 3:68 5:1 13:1 14:1 20:1 28:1 29:1 34:1 41:1 45:1 49:1 58:1 63:1 
1.961824604662326 1:-35 2:74 3:39 8:1 13:1 18:1 22:1 28:1 33:1 38:1 42:1 45:1 49:1 55:1 59:1 
1.468960740864647 1:-6 2:74 3:68 8:1 13:1 18:1 22:1 28:1 33:1 34:1 41:1 45:1 49:1 58:1 63:1 
0.2818131988534386 1:45 2:43 3:88 4:1 10:1 14:1 23:1 28:1 31:1 35:1 40:1 45:1 53:1 58:1 62:1 
2.017608414785713 1:22 2:66 3:88 5:1 13:1 14:1 20:1 28:1 29:1 35:1 40:1 45:1 53:1 58:1 62:1 
1.420654056136937 1:-81 2:120 3:39 8:1 9:1 14:1 23:1 28:1 29:1 38:1 42:1 45:1 49:1 55:1 59:1 
2.143159213998219 1:-69 2:120 3:51 8:1 9:1 14:1 23:1 28:1 29:1 35:1 40:1 45:1 53:1 58:1 59:1 
0.125911871563737 1:-56 2:120 3:64 8:1 9:1 14:1 23:1 28:1 29:1 38:1 42:1 45:1 49:1 56:1 60:1 
1.73360183717412 1:-52 2:120 3:68 8:1 9:1 14:1 23:1 28:1 29:1 34:1 41:1 45:1 49:1 58:1 63:1 
0.3427796424863515 1:199 2:25 3:224 5:1 13:1 18:1 21:1 28:1 33:1 35:1 40:1 45:1 53:1 58:1 59:1 
0.2357597533097307 1:181 2:43 3:224 4:1 10:1 14:1 23:1 28:1 31:1 35:1 40:1 45:1 53:1 58:1 59:1 
0.1194126686670788 1:150 2:74 3:224 8:1 13:1 18:1 22:1 28:1 33:1 35:1 40:1 45:1 53:1 58:1 59:1 
1.266825846371694 1:-212 2:251 3:39 8:1 9:1 15:1 23:1 24:1 29:1 38:1 42:1 45:1 49:1 55:1 59:1 
0.2616843328905069 1:-200 2:251 3:51 8:1 9:1 15:1 23:1 24:1 29:1 35:1 40:1 45:1 53:1 58:1 59:1 
0.2070211846022817 1:-187 2:251 3:64 8:1 9:1 15:1 23:1 24:1 29:1 38:1 42:1 45:1 49:1 56:1 60:1 
1.230474780800415 1:-163 2:251 3:88 8:1 9:1 15:1 23:1 24:1 29:1 35:1 40:1 45:1 53:1 58:1 62:1 
4 1:-3 2:11 3:8 8:1 13:1 16:1 23:1 28:1 33:1 35:1 40:1 48:1 53:1 56:1 61:1 
0.9989209988632939 1:-28 2:28 3:0 7:1 10:1 18:1 23:1 24:1 29:1 53:1 55:1 60:1 
1.143189491621225 1:-42 2:58 3:16 7:1 10:1 15:1 22:1 25:1 30:1 38:1 43:1 48:1 49:1 58:1 63:1 
0.228114533161567 1:-74 2:74 3:0 4:1 10:1 17:1 19:1 28:1 29:1 53:1 55:1 60:1 
2.770072142479462 1:-157 2:165 3:8 8:1 12:1 14:1 22:1 26:1 33:1 35:1 40:1 48:1 53:1 56:1 61:1 
0.2465718700215298 1:-125 2:165 3:40 8:1 12:1 14:1 22:1 26:1 33:1 35:1 40:1 48:1 49:1 58:1 63:1 
0.3965610286174943 1:-35 2:165 3:130 8:1 12:1 14:1 22:1 26:1 33:1 38:1 40:1 48:1 50:1 58:1 63:1 
0.1778934962532183 1:-159 2:167 3:8 4:1 11:1 17:1 23:1 28:1 29:1 35:1 40:1 48:1 53:1 56:1 61:1 
0.7809719570905549 1:-169 2:185 3:16 4:1 10:1 17:1 19:1 27:1 33:1 38:1 43:1 48:1 49:1 58:1 63:1 
1.621154507392571 1:181 2:11 3:192 8:1 13:1 16:1 23:1 28:1 33:1 38:1 40:1 47:1 52:1 58:1 63:1 
1.775290093552469 1:164 2:28 3:192 7:1 10:1 18:1 23:1 24:1 29:1 38:1 40:1 47:1 52:1 58:1 63:1 
0.1793232523958986 1:25 2:167 3:192 4:1 11:1 17:1 23:1 28:1 29:1 38:1 40:1 47:1 52:1 58:1 63:1 
0.8042054418373179 1:12 2:180 3:192 7:1 12:1 18:1 22:1 24:1 30:1 38:1 40:1 47:1 52:1 58:1 63:1 
0.6614679315222303 1:7 2:185 3:192 4:1 10:1 17:1 19:1 27:1 33:1 38:1 40:1 47:1 52:1 58:1 63:1 
1.129390410385109 1:225 2:11 3:236 8:1 13:1 16:1 23:1 28:1 33:1 34:1 42:1 45:1 53:1 58:1 63:1 
0.2064770231860753 1:178 2:58 3:236 7:1 10:1 15:1 22:1 25:1 30:1 34:1 42:1 45:1 53:1 58:1 63:1 
0.1073627633820352 1:162 2:74 3:236 4:1 10:1 17:1 19:1 28:1 29:1 34:1 42:1 45:1 53:1 58:1 63:1 
0.2619688924662305 1:69 2:167 3:236 4:1 11:1 17:1 23:1 28:1 29:1 34:1 42:1 45:1 53:1 58:1 63:1 
0.6235161044845008 1:51 2:185 3:236 4:1 10:1 17:1 19:1 27:1 33:1 34:1 42:1 45:1 53:1 58:1 63:1 
2.061893546891454 1:243 2:28 3:271 7:1 10:1 18:1 23:1 24:1 29:1 34:1 40:1 48:1 53:1 55:1 59:1 
0.08024037656380555 1:213 2:58 3:271 7:1 10:1 15:1 22:1 25:1 30:1 34:1 40:1 48:1 53:1 55:1 59:1 
0.5104670250615008 1:104 2:167 3:271 4:1 11:1 17:1 23:1 28:1 29:1 34:1 40:1 48:1 53:1 55:1 59:1 
0.205804930061009 1:91 2:180 3:271 7:1 12:1 18:1 22:1 24:1 30:1 34:1 40:1 48:1 53:1 55:1 59:1 
4 1:1 2:0 3:1 23:1 28:1 32:1 46:1 53:1 57:1 60:1 
1.061981033832744 1:33 2:0 3:33 23:1 28:1 32:1 38:1 43:1 45:1 52:1 58:1 59:1 
1.659864737804407 1:35 2:0 3:35 23:1 28:1 32:1 35:1 43:1 47:1 49:1 55:1 60:1 
0.5668969490527915 1:264 2:0 3:264 23:1 28:1 32:1 37:1 42:1 47:1 49:1 54:1 62:1 
1.67870453691782 1:289 2:0 3:289 23:1 28:1 32:1 34:1 43:1 45:1 53:1 57:1 62:1 
0.5743800804472345 1:300 2:0 3:300 23:1 28:1 32:1 35:1 43:1 47:1 53:1 54:1 59:1 
0.3263600390664761 1:-273 2:306 3:33 4:1 10:1 18:1 19:1 28:1 33:1 38:1 43:1 45:1 52:1 58:1 59:1 
0.7014885749150591 1:-271 2:306 3:35 4:1 10:1 18:1 19:1 28:1 33:1 35:1 43:1 47:1 49:1 55:1 60:1 
0.08593960404713721 1:-225 2:306 3:81 4:1 10:1 18:1 19:1 28:1 33:1 35:1 40:1 45:1 53:1 58:1 63:1 
1.644888980772129 1:-175 2:306 3:131 4:1 10:1 18:1 19:1 28:1 33:1 34:1 42:1 45:1 49:1 58:1 63:1 
0.3026954414463923 1:-123 2:306 3:183 4:1 10:1 18:1 19:1 28:1 33:1 38:1 39:1 45:1 52:1 54:1 59:1 
0.3543366098552239 1:-104 2:306 3:202 4:1 10:1 18:1 19:1 28:1 33:1 37:1 42:1 45:1 52:1 58:1 59:1 
0.2473598341454858 1:-85 2:306 3:221 4:1 10:1 18:1 19:1 28:1 33:1 38:1 42:1 45:1 53:1 57:1 63:1 
0.4707837065790727 1:-42 2:306 3:264 4:1 10:1 18:1 19:1 28:1 33:1 37:1 42:1 47:1 49:1 54:1 62:1 
1.587275990244775 1:-34 2:306 3:272 4:1 10:1 18:1 19:1 28:1 33:1 38:1 40:1 47:1 49:1 54:1 63:1 
0.6252142192763507 1:-17 2:306 3:289 4:1 10:1 18:1 19:1 28:1 33:1 34:1 43:1 45:1 53:1 57:1 62:1 
0.9897318455487127 1:-6 2:306 3:300 4:1 10:1 18:1 19:1 28:1 33:1 35:1 43:1 47:1 53:1 54:1 59:1 
0.7529120792000333 1:19 2:306 3:325 4:1 10:1 18:1 19:1 28:1 33:1 35:1 43:1 47:1 53:1 54:1 59:1 
1.220853154249727 1:92 2:306 3:398 4:1 10:1 18:1 19:1 28:1 33:1 35:1 39:1 48:1 52:1 54:1 59:1 
0.05675538495362088 1:98 2:306 3:404 4:1 10:1 18:1 19:1 28:1 33:1 34:1 40:1 48:1 49:1 54:1 63:1 
2.229431616359621 1:458 2:0 3:458 23:1 28:1 32:1 38:1 39:1 45:1 53:1 58:1 63:1 
0.9952380023771512 1:161 2:306 3:467 4:1 10:1 18:1 19:1 28:1 33:1 37:1 40:1 48:1 52:1 57:1 63:1 
1.955667013369713 1:191 2:306 3:497 4:1 10:1 18:1 19:1 28:1 33:1 34:1 43:1 48:1 49:1 56:1 62:1 
0.01768186803876162 1:-498 2:499 3:1 8:1 13:1 14:1 22:1 25:1 33:1 46:1 53:1 57:1 60:1 
0.1810584118600694 1:-464 2:499 3:35 8:1 13:1 14:1 22:1 25:1 33:1 35:1 43:1 47:1 49:1 55:1 60:1 
0.01239919727493327 1:-440 2:499 3:59 8:1 13:1 14:1 22:1 25:1 33:1 38:1 42:1 45:1 53:1 54:1 63:1 
0.0385763877953187 1:-418 2:499 3:81 8:1 13:1 14:1 22:1 25:1 33:1 35:1 40:1 45:1 53:1 58:1 63:1 
0.3303997908194465 1:-356 2:499 3:143 8:1 13:1 14:1 22:1 25:1 33:1 35:1 39:1 45:1 49:1 54:1 63:1 
0.03936871885641979 1:-316 2:499 3:183 8:1 13:1 14:1 22:1 25:1 33:1 38:1 39:1 45:1 52:1 54:1 59:1 
0.02191993132391373 1:-297 2:499 3:202 8:1 13:1 14:1 22:1 25:1 33:1 37:1 42:1 45:1 52:1 58:1 59:1 
0.042941263612023 1:-278 2:499 3:221 8:1 13:1 14:1 22:1 25:1 33:1 38:1 42:1 45:1 53:1 57:1 63:1 
0.03351244332380171 1:-273 2:499 3:226 8:1 13:1 14:1 22:1 25:1 33:1 37:1 43:1 48:1 49:1 58:1 63:1 
0.02695113762383305 1:-235 2:499 3:264 8:1 13:1 14:1 22:1 25:1 33:1 37:1 42:1 47:1 49:1 54:1 62:1 
0.02347361071475523 1:-210 2:499 3:289 8:1 13:1 14:1 22:1 25:1 33:1 34:1 43:1 45:1 53:1 57:1 62:1 
0.02153433538246095 1:-199 2:499 3:300 8:1 13:1 14:1 22:1 25:1 33:1 35:1 43:1 47:1 53:1 54:1 59:1 
0.03011057334788292 1:-190 2:499 3:309 8:1 13:1 14:1 22:1 25:1 33:1 36:1 39:1 48:1 53:1 57:1 60:1 
0.0373093835897258 1:-174 2:499 3:325 8:1 13:1 14:1 22:1 25:1 33:1 35:1 43:1 47:1 53:1 54:1 59:1 
0.01607827461226648 1:-153 2:499 3:346 8:1 13:1 14:1 22:1 25:1 33:1 34:1 40:1 47:1 53:1 58:1 62:1 
0.03871649046869061 1:-151 2:499 3:348 8:1 13:1 14:1 22:1 25:1 33:1 37:1 43:1 48:1 52:1 58:1 59:1 
0.02039111157715472 1:-121 2:499 3:378 8:1 13:1 14:1 22:1 25:1 33:1 34:1 42:1 48:1 53:1 54:1 63:1 
0.1243562341808229 1:-95 2:499 3:404 8:1 13:1 14:1 22:1 25:1 33:1 34:1 40:1 48:1 49:1 54:1 63:1 
0.04019638678535653 1:-41 2:499 3:458 8:1 13:1 14:1 22:1 25:1 33:1 38:1 39:1 45:1 53:1 58:1 63:1 
0.01743979948800273 1:-32 2:499 3:467 8:1 13:1 14:1 22:1 25:1 33:1 37:1 40:1 48:1 52:1 57:1 63:1 
2.698161728697269 1:-2 2:499 3:497 8:1 13:1 14:1 22:1 25:1 33:1 34:1 43:1 48:1 49:1 56:1 62:1 
1.810406185447939 1:196 2:306 3:502 4:1 10:1 18:1 19:1 28:1 33:1 36:1 42:1 45:1 53:1 54:1 62:1 
0.3349305227778784 1:3 2:499 3:502 8:1 13:1 14:1 22:1 25:1 33:1 36:1 42:1 45:1 53:1 54:1 62:1 
0.9668187964623287 1:513 2:0 3:513 23:1 28:1 32:1 34:1 43:1 47:1 52:1 58:1 63:1 
0.02089518823337505 1:207 2:306 3:513 4:1 10:1 18:1 19:1 28:1 33:1 34:1 43:1 47:1 52:1 58:1 63:1 
0.03615640763899114 1:527 2:0 3:527 23:1 28:1 32:1 37:1 40:1 48:1 52:1 54:1 60:1 
0.05592248868329291 1:221 2:306 3:527 4:1 10:1 18:1 19:1 28:1 33:1 37:1 40:1 48:1 52:1 54:1 60:1 
0.0512127801402294 1:28 2:499 3:527 8:1 13:1 14:1 22:1 25:1 33:1 37:1 40:1 48:1 52:1 54:1 60:1 
0.1361964514472966 1:539 2:0 3:539 23:1 28:1 32:1 35:1 42:1 45:1 53:1 57:1 63:1 
0.0401566263666262 1:233 2:306 3:539 4:1 10:1 18:1 19:1 28:1 33:1 35:1 42:1 45:1 53:1 57:1 63:1 
0.0349227727350338 1:40 2:499 3:539 8:1 13:1 14:1 22:1 25:1 33:1 35:1 42:1 45:1 53:1 57:1 63:1 
0.637894169372682 1:542 2:0 3:542 23:1 28:1 32:1 38:1 43:1 47:1 49:1 54:1 63:1 
0.02515071878626596 1:236 2:306 3:542 4:1 10:1 18:1 19:1 28:1 33:1 38:1 43:1 47:1 49:1 54:1 63:1 
4 1:-137 2:150 3:13 8:1 9:1 15:1 22:1 28:1 33:1 34:1 41:1 45:1 49:1 56:1 63:1 
1.799585200167676 1:-149 2:162 3:13 5:1 13:1 14:1 22:1 25:1 33:1 34:1 41:1 45:1 49:1 56:1 63:1 
0.4675869211148011 1:159 2:15 3:174 5:1 13:1 14:1 23:1 28:1 33:1 38:1 42:1 48:1 53:1 58:1 63:1 
4 1:-166 2:179 3:13 8:1 13:1 15:1 22:1 25:1 33:1 34:1 41:1 45:1 49:1 56:1 63:1 
4 1:-5 2:179 3:174 8:1 13:1 15:1 22:1 25:1 33:1 38:1 42:1 48:1 53:1 58:1 63:1 
2.106850400160919 1:167 2:15 3:182 5:1 13:1 14:1 23:1 28:1 33:1 36:1 42:1 45:1 53:1 58:1 63:1 
1.411529254677891 1:169 2:15 3:184 5:1 13:1 14:1 23:1 28:1 33:1 35:1 43:1 48:1 53:1 57:1 62:1 
2.921763077328686 1:34 2:150 3:184 8:1 9:1 15:1 22:1 28:1 33:1 35:1 43:1 48:1 53:1 57:1 62:1 
0.7302526171016647 1:22 2:162 3:184 5:1 13:1 14:1 22:1 25:1 33:1 35:1 43:1 48:1 53:1 57:1 62:1 
1.52469718212169 1:14 2:170 3:184 4:1 12:1 14:1 23:1 27:1 33:1 35:1 43:1 48:1 53:1 57:1 62:1 
0.2579603570276347 1:5 2:179 3:184 8:1 13:1 15:1 22:1 25:1 33:1 35:1 43:1 48:1 53:1 57:1 62:1 
0.260470612621149 1:151 2:46 3:197 8:1 13:1 15:1 23:1 28:1 32:1 38:1 43:1 48:1 53:1 55:1 63:1 
2.480390218428462 1:47 2:150 3:197 8:1 9:1 15:1 22:1 28:1 33:1 38:1 43:1 48:1 53:1 55:1 63:1 
1.940148556458599 1:18 2:179 3:197 8:1 13:1 15:1 22:1 25:1 33:1 38:1 43:1 48:1 53:1 55:1 63:1 
0.09632595758402054 1:-189 2:202 3:13 5:1 13:1 14:1 20:1 27:1 30:1 34:1 41:1 45:1 49:1 56:1 63:1 
1.935106356187692 1:-37 2:202 3:165 5:1 13:1 14:1 20:1 27:1 30:1 36:1 42:1 45:1 53:1 54:1 62:1 
2.648862445914055 1:-28 2:202 3:174 5:1 13:1 14:1 20:1 27:1 30:1 38:1 42:1 48:1 53:1 58:1 63:1 
0.487143216466433 1:-18 2:202 3:184 5:1 13:1 14:1 20:1 27:1 30:1 35:1 43:1 48:1 53:1 57:1 62:1 
4 1:-5 2:202 3:197 5:1 13:1 14:1 20:1 27:1 30:1 38:1 43:1 48:1 53:1 55:1 63:1 
0.006246736405744133 1:198 2:15 3:213 5:1 13:1 14:1 23:1 28:1 33:1 34:1 40:1 44:1 53:1 54:1 61:1 
1.306621614901087 1:167 2:46 3:213 8:1 13:1 15:1 23:1 28:1 32:1 34:1 40:1 44:1 53:1 54:1 61:1 
1.409517928463771 1:43 2:170 3:213 4:1 12:1 14:1 23:1 27:1 33:1 34:1 40:1 44:1 53:1 54:1 61:1 
1.652178765406942 1:34 2:179 3:213 8:1 13:1 15:1 22:1 25:1 33:1 34:1 40:1 44:1 53:1 54:1 61:1 
1.352166270077601 1:11 2:202 3:213 5:1 13:1 14:1 20:1 27:1 30:1 34:1 40:1 44:1 53:1 54:1 61:1 
0.1935861726399518 1:-215 2:216 3:1 8:1 13:1 14:1 23:1 28:1 31:1 48:1 53:1 55:1 60:1 
3.222241913939234 1:-203 2:216 3:13 8:1 13:1 14:1 23:1 28:1 31:1 34:1 41:1 45:1 49:1 56:1 63:1 
1.351903322869492 1:-51 2:216 3:165 8:1 13:1 14:1 23:1 28:1 31:1 36:1 42:1 45:1 53:1 54:1 62:1 
0.1078332136209209 1:-42 2:216 3:174 8:1 13:1 14:1 23:1 28:1 31:1 38:1 42:1 48:1 53:1 58:1 63:1 
0.05939447619190518 1:-218 2:219 3:1 6:1 13:1 18:1 22:1 28:1 29:1 48:1 53:1 55:1 60:1 
4 1:-206 2:219 3:13 6:1 13:1 18:1 22:1 28:1 29:1 34:1 41:1 45:1 49:1 56:1 63:1 
2.018339941306261 1:-45 2:219 3:174 6:1 13:1 18:1 22:1 28:1 29:1 38:1 42:1 48:1 53:1 58:1 63:1 
3.426298261314536 1:-35 2:219 3:184 6:1 13:1 18:1 22:1 28:1 29:1 35:1 43:1 48:1 53:1 57:1 62:1 
2.869666835834464 1:-22 2:219 3:197 6:1 13:1 18:1 22:1 28:1 29:1 38:1 43:1 48:1 53:1 55:1 63:1 
3.117021620168027 1:-6 2:219 3:213 6:1 13:1 18:1 22:1 28:1 29:1 34:1 40:1 44:1 53:1 54:1 61:1 
0.3205790875662599 1:-43 2:227 3:184 8:1 12:1 15:1 19:1 27:1 33:1 35:1 43:1 48:1 53:1 57:1 62:1 
1.08747924996199 1:-14 2:227 3:213 8:1 12:1 15:1 19:1 27:1 33:1 34:1 40:1 44:1 53:1 54:1 61:1 
0.6090899596293584 1:199 2:46 3:245 8:1 13:1 15:1 23:1 28:1 32:1 38:1 42:1 45:1 53:1 54:1 63:1 
1.19864751714282 1:29 2:216 3:245 8:1 13:1 14:1 23:1 28:1 31:1 38:1 42:1 45:1 53:1 54:1 63:1 
1.791099477992073 1:18 2:227 3:245 8:1 12:1 15:1 19:1 27:1 33:1 38:1 42:1 45:1 53:1 54:1 63:1 
1.358262500653637 1:57 2:216 3:273 8:1 13:1 14:1 23:1 28:1 31:1 38:1 39:1 45:1 53:1 58:1 63:1 
2.126393279794045 1:46 2:227 3:273 8:1 12:1 15:1 19:1 27:1 33:1 38:1 39:1 45:1 53:1 58:1 63:1 
1.28026477750174 1:264 2:11 3:275 8:1 10:1 14:1 20:1 28:1 29:1 35:1 43:1 48:1 53:1 58:1 63:1 
0.05047904396147745 1:260 2:15 3:275 5:1 13:1 14:1 23:1 28:1 33:1 35:1 43:1 48:1 53:1 58:1 63:1 
0.5801061451505204 1:229 2:46 3:275 8:1 13:1 15:1 23:1 28:1 32:1 35:1 43:1 48:1 53:1 58:1 63:1 
1.434727377635306 1:125 2:150 3:275 8:1 9:1 15:1 22:1 28:1 33:1 35:1 43:1 48:1 53:1 58:1 63:1 
0.3994722067553339 1:113 2:162 3:275 5:1 13:1 14:1 22:1 25:1 33:1 35:1 43:1 48:1 53:1 58:1 63:1 
1.99234824097934 1:105 2:170 3:275 4:1 12:1 14:1 23:1 27:1 33:1 35:1 43:1 48:1 53:1 58:1 63:1 
2.814503874504108 1:96 2:179 3:275 8:1 13:1 15:1 22:1 25:1 33:1 35:1 43:1 48:1 53:1 58:1 63:1 
1.514830447475976 1:56 2:219 3:275 6:1 13:1 18:1 22:1 28:1 29:1 35:1 43:1 48:1 53:1 58:1 63:1 
0.6367888372673465 1:117 2:179 3:296 8:1 13:1 15:1 22:1 25:1 33:1 37:1 40:1 48:1 52:1 58:1 60:1 
0.04365975795309052 1:77 2:219 3:296 6:1 13:1 18:1 22:1 28:1 29:1 37:1 40:1 48:1 52:1 58:1 60:1 
1.797027486444676 1:295 2:15 3:310 5:1 13:1 14:1 23:1 28:1 33:1 38:1 42:1 48:1 53:1 58:1 63:1 
1.286680334720921 1:148 2:162 3:310 5:1 13:1 14:1 22:1 25:1 33:1 38:1 42:1 48:1 53:1 58:1 63:1 
1.465717093595997 1:108 2:202 3:310 5:1 13:1 14:1 20:1 27:1 30:1 38:1 42:1 48:1 53:1 58:1 63:1 
2.751596023293807 1:94 2:216 3:310 8:1 13:1 14:1 23:1 28:1 31:1 38:1 42:1 48:1 53:1 58:1 63:1 
2.401889162933798 1:122 2:202 3:324 5:1 13:1 14:1 20:1 27:1 30:1 38:1 42:1 48:1 52:1 58:1 59:1 
3.764264715592886 1:108 2:216 3:324 8:1 13:1 14:1 23:1 28:1 31:1 38:1 42:1 48:1 52:1 58:1 59:1 
1.062071715202509 1:-176 2:341 3:165 8:1 13:1 15:1 23:1 27:1 30:1 36:1 42:1 45:1 53:1 54:1 62:1 
0.1743168463631617 1:-159 2:341 3:182 8:1 13:1 15:1 23:1 27:1 30:1 36:1 42:1 45:1 53:1 58:1 63:1 
0.5093448824896321 1:-157 2:341 3:184 8:1 13:1 15:1 23:1 27:1 30:1 35:1 43:1 48:1 53:1 57:1 62:1 
1.040728658849494 1:-45 2:341 3:296 8:1 13:1 15:1 23:1 27:1 30:1 37:1 40:1 48:1 52:1 58:1 60:1 
0.7555183830159439 1:-31 2:341 3:310 8:1 13:1 15:1 23:1 27:1 30:1 38:1 42:1 48:1 53:1 58:1 63:1 
0.2190707899451654 1:175 2:170 3:345 4:1 12:1 14:1 23:1 27:1 33:1 38:1 42:1 45:1 49:1 58:1 60:1 
0.956654507136204 1:126 2:219 3:345 6:1 13:1 18:1 22:1 28:1 29:1 38:1 42:1 45:1 49:1 58:1 60:1 
0.7692103918498503 1:4 2:341 3:345 8:1 13:1 15:1 23:1 27:1 30:1 38:1 42:1 45:1 49:1 58:1 60:1 
0.1208972669863919 1:149 2:202 3:351 5:1 13:1 14:1 20:1 27:1 30:1 35:1 43:1 47:1 49:1 57:1 62:1 
3.096898315015195 1:135 2:216 3:351 8:1 13:1 14:1 23:1 28:1 31:1 35:1 43:1 47:1 49:1 57:1 62:1 
3.229953595211716 1:-347 2:360 3:13 8:1 13:1 15:1 22:1 25:1 32:1 34:1 41:1 45:1 49:1 56:1 63:1 
1.251919065653411 1:-176 2:360 3:184 8:1 13:1 15:1 22:1 25:1 32:1 35:1 43:1 48:1 53:1 57:1 62:1 
0.8559842315477213 1:-163 2:360 3:197 8:1 13:1 15:1 22:1 25:1 32:1 38:1 43:1 48:1 53:1 55:1 63:1 
0.2011397491076044 1:-147 2:360 3:213 8:1 13:1 15:1 22:1 25:1 32:1 34:1 40:1 44:1 53:1 54:1 61:1 
2.56572418102138 1:-85 2:360 3:275 8:1 13:1 15:1 22:1 25:1 32:1 35:1 43:1 48:1 53:1 58:1 63:1 
1.405710833144578 1:-15 2:360 3:345 8:1 13:1 15:1 22:1 25:1 32:1 38:1 42:1 45:1 49:1 58:1 60:1 
0.2795403865655313 1:-202 2:376 3:174 7:1 13:1 14:1 19:1 28:1 29:1 38:1 42:1 48:1 53:1 58:1 63:1 
0.4842990671732179 1:-192 2:376 3:184 7:1 13:1 14:1 19:1 28:1 29:1 35:1 43:1 48:1 53:1 57:1 62:1 
0.6492069737843804 1:-179 2:376 3:197 7:1 13:1 14:1 19:1 28:1 29:1 38:1 43:1 48:1 53:1 55:1 63:1 
0.006006742069230991 1:-103 2:376 3:273 7:1 13:1 14:1 19:1 28:1 29:1 38:1 39:1 45:1 53:1 58:1 63:1 
0.006440157167382972 1:-101 2:376 3:275 7:1 13:1 14:1 19:1 28:1 29:1 35:1 43:1 48:1 53:1 58:1 63:1 
2.28151163571064 1:-52 2:376 3:324 7:1 13:1 14:1 19:1 28:1 29:1 38:1 42:1 48:1 52:1 58:1 59:1 
0.1530467332060787 1:-427 2:428 3:1 8:1 9:1 15:1 22:1 25:1 33:1 48:1 53:1 55:1 60:1 
2.625921011072084 1:-244 2:428 3:184 8:1 9:1 15:1 22:1 25:1 33:1 35:1 43:1 48:1 53:1 57:1 62:1 
0.02415961368888533 1:-231 2:428 3:197 8:1 9:1 15:1 22:1 25:1 33:1 38:1 43:1 48:1 53:1 55:1 63:1 
0.02488559288461384 1:-215 2:428 3:213 8:1 9:1 15:1 22:1 25:1 33:1 34:1 40:1 44:1 53:1 54:1 61:1 
4 1:-153 2:428 3:275 8:1 9:1 15:1 22:1 25:1 33:1 35:1 43:1 48:1 53:1 58:1 63:1 
0.2446831367781481 1:-132 2:428 3:296 8:1 9:1 15:1 22:1 25:1 33:1 37:1 40:1 48:1 52:1 58:1 60:1 
0.7092064268373754 1:-83 2:428 3:345 8:1 9:1 15:1 22:1 25:1 33:1 38:1 42:1 45:1 49:1 58:1 60:1 
0.674374953854341 1:418 2:15 3:433 5:1 13:1 14:1 23:1 28:1 33:1 35:1 43:1 45:1 53:1 58:1 63:1 
0.1157326809403854 1:387 2:46 3:433 8:1 13:1 15:1 23:1 28:1 32:1 35:1 43:1 45:1 53:1 58:1 63:1 
0.7002847046731303 1:271 2:162 3:433 5:1 13:1 14:1 22:1 25:1 33:1 35:1 43:1 45:1 53:1 58:1 63:1 
0.4346699098357522 1:231 2:202 3:433 5:1 13:1 14:1 20:1 27:1 30:1 35:1 43:1 45:1 53:1 58:1 63:1 
3.105104243599298 1:217 2:216 3:433 8:1 13:1 14:1 23:1 28:1 31:1 35:1 43:1 45:1 53:1 58:1 63:1 
0.03061551044156296 1:57 2:376 3:433 7:1 13:1 14:1 19:1 28:1 29:1 35:1 43:1 45:1 53:1 58:1 63:1 
0.8387406346345609 1:-16 2:16 3:0 5:1 9:1 14:1 20:1 25:1 33:1 53:1 55:1 60:1 
0.6583770612370805 1:12 2:16 3:28 5:1 9:1 14:1 20:1 25:1 33:1 38:1 42:1 48:1 53:1 54:1 60:1 
0.4405703280468647 1:16 2:16 3:32 5:1 9:1 14:1 20:1 25:1 33:1 38:1 39:1 45:1 49:1 56:1 63:1 
0.1210057757293952 1:-34 2:34 3:0 5:1 13:1 14:1 23:1 27:1 33:1 53:1 55:1 60:1 
2.064900973285306 1:-20 2:48 3:28 8:1 12:1 15:1 22:1 25:1 31:1 38:1 42:1 48:1 53:1 54:1 60:1 
1.722277949028175 1:-16 2:48 3:32 8:1 12:1 15:1 22:1 25:1 31:1 38:1 39:1 45:1 49:1 56:1 63:1 
4 1:-40 2:51 3:11 6:1 12:1 15:1 22:1 28:1 32:1 34:1 39:1 45:1 49:1 55:1 59:1 
0.1795316640328637 1:-42 2:74 3:32 5:1 12:1 18:1 23:1 28:1 33:1 38:1 39:1 45:1 49:1 56:1 63:1 
1.124227912171619 1:70 2:16 3:86 5:1 9:1 14:1 20:1 25:1 33:1 34:1 43:1 47:1 49:1 58:1 59:1 
2.033978583658332 1:38 2:48 3:86 8:1 12:1 15:1 22:1 25:1 31:1 34:1 43:1 47:1 49:1 58:1 59:1 
0.68260933438938 1:12 2:74 3:86 5:1 12:1 18:1 23:1 28:1 33:1 34:1 43:1 47:1 49:1 58:1 59:1 
3.711261232387866 1:79 2:16 3:95 5:1 9:1 14:1 20:1 25:1 33:1 38:1 40:1 48:1 53:1 57:1 63:1 
2.13943108262589 1:47 2:48 3:95 8:1 12:1 15:1 22:1 25:1 31:1 38:1 40:1 48:1 53:1 57:1 63:1 
1.066831493752967 1:-99 2:99 3:0 8:1 12:1 18:1 19:1 28:1 30:1 53:1 55:1 60:1 
2.463979590286131 1:-88 2:99 3:11 8:1 12:1 18:1 19:1 28:1 30:1 34:1 39:1 45:1 49:1 55:1 59:1 
4 1:-4 2:99 3:95 8:1 12:1 18:1 19:1 28:1 30:1 38:1 40:1 48:1 53:1 57:1 63:1 
4 1:-92 2:103 3:11 4:1 13:1 15:1 22:1 25:1 33:1 34:1 39:1 45:1 49:1 55:1 59:1 
3.388621340758047 1:75 2:34 3:109 5:1 13:1 14:1 23:1 27:1 33:1 38:1 39:1 48:1 49:1 58:1 60:1 
1.755525329887765 1:58 2:51 3:109 6:1 12:1 15:1 22:1 28:1 32:1 38:1 39:1 48:1 49:1 58:1 60:1 
0.2363558809825913 1:10 2:99 3:109 8:1 12:1 18:1 19:1 28:1 30:1 38:1 39:1 48:1 49:1 58:1 60:1 
0.1155906540062611 1:-104 2:136 3:32 7:1 13:1 18:1 20:1 24:1 32:1 38:1 39:1 45:1 49:1 56:1 63:1 
1.266042244915485 1:158 2:16 3:174 5:1 9:1 14:1 20:1 25:1 33:1 38:1 43:1 45:1 49:1 57:1 62:1 
1.184713206474534 1:126 2:48 3:174 8:1 12:1 15:1 22:1 25:1 31:1 38:1 43:1 45:1 49:1 57:1 62:1 
0.6016291559671645 1:38 2:136 3:174 7:1 13:1 18:1 20:1 24:1 32:1 38:1 43:1 45:1 49:1 57:1 62:1 
0.5980627518236954 1:-174 2:185 3:11 4:1 13:1 17:1 20:1 25:1 33:1 34:1 39:1 45:1 49:1 55:1 59:1 
0.2999145619882668 1:-153 2:185 3:32 4:1 13:1 17:1 20:1 25:1 33:1 38:1 39:1 45:1 49:1 56:1 63:1 
1.460977731108119 1:-23 2:35 3:12 8:1 9:1 15:1 20:1 28:1 32:1 34:1 41:1 45:1 49:1 56:1 63:1 
2.671185446704579 1:-7 2:35 3:28 8:1 9:1 15:1 20:1 28:1 32:1 38:1 42:1 45:1 53:1 54:1 62:1 
0.3496415574990162 1:3 2:57 3:60 4:1 13:1 15:1 23:1 27:1 33:1 36:1 43:1 47:1 49:1 57:1 59:1 
0.01362847284287753 1:32 2:35 3:67 8:1 9:1 15:1 20:1 28:1 32:1 35:1 43:1 45:1 49:1 57:1 63:1 
0.8247453248387803 1:84 2:35 3:119 8:1 9:1 15:1 20:1 28:1 32:1 38:1 42:1 45:1 53:1 54:1 63:1 
0.3085418056070287 1:-206 2:206 3:0 7:1 12:1 15:1 23:1 27:1 30:1 53:1 55:1 60:1 
0.8003080163857867 1:-146 2:206 3:60 7:1 12:1 15:1 23:1 27:1 30:1 36:1 43:1 47:1 49:1 57:1 59:1 
0.4385929486851771 1:189 2:4 3:193 5:1 13:1 17:1 20:1 25:1 30:1 37:1 43:1 48:1 53:1 54:1 63:1 
0.5883252488876408 1:139 2:54 3:193 4:1 10:1 15:1 23:1 25:1 30:1 37:1 43:1 48:1 53:1 54:1 63:1 
2.221107934482532 1:65 2:128 3:193 4:1 10:1 15:1 23:1 25:1 30:1 37:1 43:1 48:1 53:1 54:1 63:1 
0.8995804072404151 1:22 2:171 3:193 8:1 12:1 14:1 19:1 28:1 29:1 37:1 43:1 48:1 53:1 54:1 63:1 
1.907634301274706 1:16 2:177 3:193 4:1 10:1 15:1 23:1 25:1 30:1 37:1 43:1 48:1 53:1 54:1 63:1 
0.7640248645561012 1:-29 2:222 3:193 4:1 10:1 15:1 23:1 25:1 30:1 37:1 43:1 48:1 53:1 54:1 63:1 
0.1727689650312666 1:226 2:4 3:230 5:1 13:1 17:1 20:1 25:1 30:1 34:1 42:1 44:1 52:1 56:1 63:1 
0.8470493138098534 1:176 2:54 3:230 4:1 10:1 15:1 23:1 25:1 30:1 34:1 42:1 44:1 52:1 56:1 63:1 
0.141343713516937 1:140 2:90 3:230 8:1 10:1 15:1 23:1 25:1 30:1 34:1 42:1 44:1 52:1 56:1 63:1 
3.743098185966709 1:102 2:128 3:230 4:1 10:1 15:1 23:1 25:1 30:1 34:1 42:1 44:1 52:1 56:1 63:1 
1.0375684930082 1:59 2:171 3:230 8:1 12:1 14:1 19:1 28:1 29:1 34:1 42:1 44:1 52:1 56:1 63:1 
0.8843518532250918 1:53 2:177 3:230 4:1 10:1 15:1 23:1 25:1 30:1 34:1 42:1 44:1 52:1 56:1 63:1 
0.63637025855052 1:-39 2:232 3:193 4:1 13:1 17:1 23:1 27:1 33:1 37:1 43:1 48:1 53:1 54:1 63:1 
1.64497367151624 1:-57 2:250 3:193 8:1 9:1 15:1 23:1 25:1 29:1 37:1 43:1 48:1 53:1 54:1 63:1 
1.354416576013578 1:-20 2:250 3:230 8:1 9:1 15:1 23:1 25:1 29:1 34:1 42:1 44:1 52:1 56:1 63:1 
1.632974180130173 1:-69 2:262 3:193 8:1 10:1 15:1 23:1 25:1 30:1 37:1 43:1 48:1 53:1 54:1 63:1 
0.4249789024041387 1:-32 2:262 3:230 8:1 10:1 15:1 23:1 25:1 30:1 34:1 42:1 44:1 52:1 56:1 63:1 
0.1604465464004146 1:-81 2:274 3:193 8:1 13:1 14:1 23:1 28:1 33:1 37:1 43:1 48:1 53:1 54:1 63:1 
0.3317162898230142 1:-44 2:274 3:230 8:1 13:1 14:1 23:1 28:1 33:1 34:1 42:1 44:1 52:1 56:1 63:1 
0.8255594905183815 1:-118 2:311 3:193 8:1 9:1 18:1 23:1 28:1 29:1 37:1 43:1 48:1 53:1 54:1 63:1 
0.9198709532956164 1:-135 2:328 3:193 8:1 10:1 15:1 19:1 28:1 30:1 37:1 43:1 48:1 53:1 54:1 63:1 
1.481114499520142 1:271 2:75 3:346 5:1 13:1 18:1 22:1 27:1 31:1 37:1 39:1 45:1 53:1 58:1 60:1 
0.1781363915285617 1:256 2:90 3:346 8:1 10:1 15:1 23:1 25:1 30:1 37:1 39:1 45:1 53:1 58:1 60:1 
0.8267706421279585 1:175 2:171 3:346 8:1 12:1 14:1 19:1 28:1 29:1 37:1 39:1 45:1 53:1 58:1 60:1 
0.2627036072898651 1:124 2:222 3:346 4:1 10:1 15:1 23:1 25:1 30:1 37:1 39:1 45:1 53:1 58:1 60:1 
0.6534427625672529 1:91 2:255 3:346 5:1 9:1 18:1 22:1 24:1 32:1 37:1 39:1 45:1 53:1 58:1 60:1 
0.7415415000538045 1:305 2:54 3:359 4:1 10:1 15:1 23:1 25:1 30:1 35:1 39:1 44:1 50:1 58:1 60:1 
1.705313740605616 1:269 2:90 3:359 8:1 10:1 15:1 23:1 25:1 30:1 35:1 39:1 44:1 50:1 58:1 60:1 
1.278813554368269 1:188 2:171 3:359 8:1 12:1 14:1 19:1 28:1 29:1 35:1 39:1 44:1 50:1 58:1 60:1 
2.04007775905314 1:137 2:222 3:359 4:1 10:1 15:1 23:1 25:1 30:1 35:1 39:1 44:1 50:1 58:1 60:1 
0.0454761013112509 1:127 2:232 3:359 4:1 13:1 17:1 23:1 27:1 33:1 35:1 39:1 44:1 50:1 58:1 60:1 
3.141870667861335 1:104 2:255 3:359 5:1 9:1 18:1 22:1 24:1 32:1 35:1 39:1 44:1 50:1 58:1 60:1 
0.9555735650297457 1:97 2:262 3:359 8:1 10:1 15:1 23:1 25:1 30:1 35:1 39:1 44:1 50:1 58:1 60:1 
1.754183262698183 1:48 2:311 3:359 8:1 9:1 18:1 23:1 28:1 29:1 35:1 39:1 44:1 50:1 58:1 60:1 
0.7670858205240501 1:31 2:328 3:359 8:1 10:1 15:1 19:1 28:1 30:1 35:1 39:1 44:1 50:1 58:1 60:1 
0.4546669972332399 1:-136 2:366 3:230 8:1 12:1 14:1 20:1 28:1 30:1 34:1 42:1 44:1 52:1 56:1 63:1 
0.2829803314452137 1:-186 2:379 3:193 8:1 10:1 15:1 23:1 25:1 37:1 43:1 48:1 53:1 54:1 63:1 
0.05389909101361334 1:-149 2:379 3:230 8:1 10:1 15:1 23:1 25:1 34:1 42:1 44:1 52:1 56:1 63:1 
1.287947769332179 1:41 2:72 3:113 8:1 13:1 15:1 22:1 26:1 30:1 38:1 43:1 47:1 53:1 54:1 60:1 
1.197605207189446 1:39 2:74 3:113 5:1 11:1 17:1 20:1 28:1 33:1 38:1 43:1 47:1 53:1 54:1 60:1 
0.1465838907926307 1:147 2:72 3:219 8:1 13:1 15:1 22:1 26:1 30:1 35:1 43:1 48:1 52:1 54:1 60:1 
0.1425070823992807 1:145 2:74 3:219 5:1 11:1 17:1 20:1 28:1 33:1 35:1 43:1 48:1 52:1 54:1 60:1 
0.03589627290038066 1:-153 2:266 3:113 7:1 13:1 15:1 20:1 28:1 33:1 38:1 43:1 47:1 53:1 54:1 60:1 
1.893168858910521 1:-201 2:314 3:113 7:1 13:1 14:1 22:1 27:1 30:1 38:1 43:1 47:1 53:1 54:1 60:1 
0.03644275013996644 1:-5 2:314 3:309 7:1 13:1 14:1 22:1 27:1 30:1 34:1 43:1 48:1 49:1 57:1 63:1 
0.513169203136662 1:256 2:74 3:330 5:1 11:1 17:1 20:1 28:1 33:1 34:1 39:1 45:1 50:1 54:1 60:1 
0.7556155164607883 1:64 2:266 3:330 7:1 13:1 15:1 20:1 28:1 33:1 34:1 39:1 45:1 50:1 54:1 60:1 
1.469373843435282 1:16 2:314 3:330 7:1 13:1 14:1 22:1 27:1 30:1 34:1 39:1 45:1 50:1 54:1 60:1 
0.3138092813384289 1:-267 2:380 3:113 8:1 12:1 14:1 20:1 28:1 33:1 38:1 43:1 47:1 53:1 54:1 60:1 
1.725758228479927 1:-71 2:380 3:309 8:1 12:1 14:1 20:1 28:1 33:1 34:1 43:1 48:1 49:1 57:1 63:1 
0.7398784462926423 1:-284 2:397 3:113 8:1 13:1 14:1 19:1 28:1 32:1 38:1 43:1 47:1 53:1 54:1 60:1 
0.2093624291536716 1:-178 2:397 3:219 8:1 13:1 14:1 19:1 28:1 32:1 35:1 43:1 48:1 52:1 54:1 60:1 
0.7278960243068973 1:-88 2:397 3:309 8:1 13:1 14:1 19:1 28:1 32:1 34:1 43:1 48:1 49:1 57:1 63:1 
0.06167901579212325 1:27 2:380 3:407 8:1 12:1 14:1 20:1 28:1 33:1 38:1 40:1 48:1 53:1 58:1 59:1 
1.084085592496466 1:10 2:397 3:407 8:1 13:1 14:1 19:1 28:1 32:1 38:1 40:1 48:1 53:1 58:1 59:1 
1.851312830303862 1:-307 2:420 3:113 8:1 10:1 18:1 23:1 24:1 33:1 38:1 43:1 47:1 53:1 54:1 60:1 
0.00954499789207363 1:-201 2:420 3:219 8:1 10:1 18:1 23:1 24:1 33:1 35:1 43:1 48:1 52:1 54:1 60:1 
0.05887993104418637 1:-444 2:557 3:113 5:1 13:1 17:1 23:1 28:1 29:1 38:1 43:1 47:1 53:1 54:1 60:1 
0.05890685497226822 1:-338 2:557 3:219 5:1 13:1 17:1 23:1 28:1 29:1 35:1 43:1 48:1 52:1 54:1 60:1 
0.04004970543346198 1:-248 2:557 3:309 5:1 13:1 17:1 23:1 28:1 29:1 34:1 43:1 48:1 49:1 57:1 63:1 
0.04502990881977798 1:-227 2:557 3:330 5:1 13:1 17:1 23:1 28:1 29:1 34:1 39:1 45:1 50:1 54:1 60:1 
0.05887711842792925 1:-150 2:557 3:407 5:1 13:1 17:1 23:1 28:1 29:1 38:1 40:1 48:1 53:1 58:1 59:1 
2.282475866247829 1:15 2:16 3:31 7:1 13:1 18:1 23:1 28:1 33:1 34:1 43:1 44:1 52:1 58:1 63:1 
1.163255192075589 1:17 2:16 3:33 7:1 13:1 18:1 23:1 28:1 33:1 34:1 43:1 47:1 53:1 54:1 59:1 
1.536137261370773 1:23 2:16 3:39 7:1 13:1 18:1 23:1 28:1 33:1 34:1 42:1 45:1 49:1 56:1 60:1 
0.7994241784212232 1:-31 2:41 3:10 5:1 13:1 14:1 20:1 28:1 32:1 36:1 42:1 45:1 53:1 54:1 62:1 
0.5969944833199117 1:-8 2:41 3:33 5:1 13:1 14:1 20:1 28:1 32:1 34:1 43:1 47:1 53:1 54:1 59:1 
1.442979766425858 1:32 2:16 3:48 7:1 13:1 18:1 23:1 28:1 33:1 38:1 39:1 45:1 53:1 55:1 63:1 
0.6386369909001304 1:35 2:16 3:51 7:1 13:1 18:1 23:1 28:1 33:1 38:1 43:1 45:1 49:1 54:1 63:1 
0.9781732649138231 1:14 2:41 3:55 5:1 13:1 14:1 20:1 28:1 32:1 34:1 39:1 48:1 49:1 58:1 59:1 
0.6567734187521821 1:38 2:41 3:79 5:1 13:1 14:1 20:1 28:1 32:1 34:1 39:1 48:1 52:1 58:1 63:1 
2.020291928988022 1:-71 2:85 3:14 8:1 9:1 14:1 22:1 25:1 31:1 38:1 39:1 47:1 53:1 56:1 63:1 
2.738861200815255 1:-54 2:85 3:31 8:1 9:1 14:1 22:1 25:1 31:1 34:1 43:1 44:1 52:1 58:1 63:1 
1.94895532508348 1:-52 2:85 3:33 8:1 9:1 14:1 22:1 25:1 31:1 34:1 43:1 47:1 53:1 54:1 59:1 
0.618227718536187 1:-46 2:85 3:39 8:1 9:1 14:1 22:1 25:1 31:1 34:1 42:1 45:1 49:1 56:1 60:1 
1.790664196987959 1:-37 2:85 3:48 8:1 9:1 14:1 22:1 25:1 31:1 38:1 39:1 45:1 53:1 55:1 63:1 
2.47850912647825 1:-34 2:85 3:51 8:1 9:1 14:1 22:1 25:1 31:1 38:1 43:1 45:1 49:1 54:1 63:1 
2.500840532215657 1:-4 2:85 3:81 8:1 9:1 14:1 22:1 25:1 31:1 38:1 43:1 47:1 53:1 54:1 59:1 
0.9377172415515179 1:-57 2:88 3:31 6:1 12:1 15:1 23:1 24:1 29:1 34:1 43:1 44:1 52:1 58:1 63:1 
1.14918046978281 1:-37 2:88 3:51 6:1 12:1 15:1 23:1 24:1 29:1 38:1 43:1 45:1 49:1 54:1 63:1 
3.143837665739996 1:-7 2:88 3:81 6:1 12:1 15:1 23:1 24:1 29:1 38:1 43:1 47:1 53:1 54:1 59:1 
0.537116579618755 1:-66 2:97 3:31 8:1 9:1 15:1 22:1 25:1 30:1 34:1 43:1 44:1 52:1 58:1 63:1 
1.526048414688775 1:-64 2:97 3:33 8:1 9:1 15:1 22:1 25:1 30:1 34:1 43:1 47:1 53:1 54:1 59:1 
1.021594324235874 1:-58 2:97 3:39 8:1 9:1 15:1 22:1 25:1 30:1 34:1 42:1 45:1 49:1 56:1 60:1 
0.7206093113849074 1:-46 2:97 3:51 8:1 9:1 15:1 22:1 25:1 30:1 38:1 43:1 45:1 49:1 54:1 63:1 
0.3787620665204376 1:96 2:16 3:112 7:1 13:1 18:1 23:1 28:1 33:1 35:1 43:1 48:1 53:1 58:1 62:1 
0.3622077172135754 1:27 2:85 3:112 8:1 9:1 14:1 22:1 25:1 31:1 35:1 43:1 48:1 53:1 58:1 62:1 
2.20884886477518 1:36 2:85 3:121 8:1 9:1 14:1 22:1 25:1 31:1 35:1 43:1 47:1 53:1 54:1 63:1 
0.7277477058863915 1:33 2:88 3:121 6:1 12:1 15:1 23:1 24:1 29:1 35:1 43:1 47:1 53:1 54:1 63:1 
1.289454046743796 1:24 2:97 3:121 8:1 9:1 15:1 22:1 25:1 30:1 35:1 43:1 47:1 53:1 54:1 63:1 
0.6987447553756049 1:124 2:7 3:131 5:1 13:1 14:1 22:1 25:1 33:1 38:1 43:1 47:1 50:1 58:1 59:1 
2.629064001655657 1:90 2:41 3:131 5:1 13:1 14:1 20:1 28:1 32:1 38:1 43:1 47:1 50:1 58:1 59:1 
2.450848895157063 1:117 2:16 3:133 7:1 13:1 18:1 23:1 28:1 33:1 37:1 43:1 45:1 49:1 58:1 62:1 
0.4253133392898572 1:48 2:85 3:133 8:1 9:1 14:1 22:1 25:1 31:1 37:1 43:1 45:1 49:1 58:1 62:1 
3.411884608335563 1:45 2:88 3:133 6:1 12:1 15:1 23:1 24:1 29:1 37:1 43:1 45:1 49:1 58:1 62:1 
0.5969708002913913 1:36 2:97 3:133 8:1 9:1 15:1 22:1 25:1 30:1 37:1 43:1 45:1 49:1 58:1 62:1 
0.9514326997680078 1:62 2:85 3:147 8:1 9:1 14:1 22:1 25:1 31:1 35:1 43:1 47:1 53:1 54:1 63:1 
0.154938958909565 1:50 2:97 3:147 8:1 9:1 15:1 22:1 25:1 30:1 35:1 43:1 47:1 53:1 54:1 63:1 
1.229932485391759 1:111 2:41 3:152 5:1 13:1 14:1 20:1 28:1 32:1 34:1 43:1 47:1 50:1 58:1 63:1 
0.5377143204971184 1:138 2:16 3:154 7:1 13:1 18:1 23:1 28:1 33:1 37:1 43:1 45:1 53:1 58:1 63:1 
3.372540827557313 1:69 2:85 3:154 8:1 9:1 14:1 22:1 25:1 31:1 37:1 43:1 45:1 53:1 58:1 63:1 
2.139466502640028 1:66 2:88 3:154 6:1 12:1 15:1 23:1 24:1 29:1 37:1 43:1 45:1 53:1 58:1 63:1 
2.218299443510255 1:57 2:97 3:154 8:1 9:1 15:1 22:1 25:1 30:1 37:1 43:1 45:1 53:1 58:1 63:1 
0.4584844194518592 1:123 2:41 3:164 5:1 13:1 14:1 20:1 28:1 32:1 34:1 40:1 48:1 53:1 58:1 59:1 
0.3755500553058519 1:79 2:85 3:164 8:1 9:1 14:1 22:1 25:1 31:1 34:1 40:1 48:1 53:1 58:1 59:1 
1.006216825157204 1:76 2:88 3:164 6:1 12:1 15:1 23:1 24:1 29:1 34:1 40:1 48:1 53:1 58:1 59:1 
0.4219215221701391 1:158 2:16 3:174 7:1 13:1 18:1 23:1 28:1 33:1 37:1 43:1 45:1 53:1 58:1 62:1 
0.3866518457571675 1:133 2:41 3:174 5:1 13:1 14:1 20:1 28:1 32:1 37:1 43:1 45:1 53:1 58:1 62:1 
2.090617627301387 1:89 2:85 3:174 8:1 9:1 14:1 22:1 25:1 31:1 37:1 43:1 45:1 53:1 58:1 62:1 
0.5048167998361811 1:77 2:97 3:174 8:1 9:1 15:1 22:1 25:1 30:1 37:1 43:1 45:1 53:1 58:1 62:1 
0.1330583188695605 1:-160 2:191 3:31 4:1 10:1 15:1 23:1 28:1 32:1 34:1 43:1 44:1 52:1 58:1 63:1 
2.35881966986097 1:-140 2:191 3:51 4:1 10:1 15:1 23:1 28:1 32:1 38:1 43:1 45:1 49:1 54:1 63:1 
0.654566498579257 1:-110 2:191 3:81 4:1 10:1 15:1 23:1 28:1 32:1 38:1 43:1 47:1 53:1 54:1 59:1 
0.06442199263664292 1:-79 2:191 3:112 4:1 10:1 15:1 23:1 28:1 32:1 35:1 43:1 48:1 53:1 58:1 62:1 
3.623850873502036 1:-58 2:191 3:133 4:1 10:1 15:1 23:1 28:1 32:1 37:1 43:1 45:1 49:1 58:1 62:1 
1.34098504476367 1:-44 2:191 3:147 4:1 10:1 15:1 23:1 28:1 32:1 35:1 43:1 47:1 53:1 54:1 63:1 
2.501652117155348 1:-37 2:191 3:154 4:1 10:1 15:1 23:1 28:1 32:1 37:1 43:1 45:1 53:1 58:1 63:1 
0.08892875438907953 1:177 2:16 3:193 7:1 13:1 18:1 23:1 28:1 33:1 35:1 41:1 48:1 52:1 54:1 60:1 
1.197983247239587 1:152 2:41 3:193 5:1 13:1 14:1 20:1 28:1 32:1 35:1 41:1 48:1 52:1 54:1 60:1 
0.4187575769223309 1:108 2:85 3:193 8:1 9:1 14:1 22:1 25:1 31:1 35:1 41:1 48:1 52:1 54:1 60:1 
0.4491414039086578 1:105 2:88 3:193 6:1 12:1 15:1 23:1 24:1 29:1 35:1 41:1 48:1 52:1 54:1 60:1 
0.2263322200689241 1:190 2:7 3:197 5:1 13:1 14:1 22:1 25:1 33:1 37:1 39:1 45:1 49:1 56:1 63:1 
0.8117615606802326 1:-144 2:199 3:55 5:1 13:1 14:1 23:1 28:1 29:1 34:1 39:1 48:1 49:1 58:1 59:1 
2.287250451700926 1:-120 2:199 3:79 5:1 13:1 14:1 23:1 28:1 29:1 34:1 39:1 48:1 52:1 58:1 63:1 
0.8007021380710623 1:-68 2:199 3:131 5:1 13:1 14:1 23:1 28:1 29:1 38:1 43:1 47:1 50:1 58:1 59:1 
4 1:-47 2:199 3:152 5:1 13:1 14:1 23:1 28:1 29:1 34:1 43:1 47:1 50:1 58:1 63:1 
1.553315880532616 1:-35 2:199 3:164 5:1 13:1 14:1 23:1 28:1 29:1 34:1 40:1 48:1 53:1 58:1 59:1 
1.071685369870185 1:115 2:88 3:203 6:1 12:1 15:1 23:1 24:1 29:1 38:1 43:1 44:1 53:1 58:1 63:1 
0.0872611634910844 1:106 2:97 3:203 8:1 9:1 15:1 22:1 25:1 30:1 38:1 43:1 44:1 53:1 58:1 63:1 
0.3484550554017709 1:120 2:85 3:205 8:1 9:1 14:1 22:1 25:1 31:1 34:1 43:1 48:1 53:1 54:1 59:1 
4 1:-7 2:77 3:70 8:1 13:1 15:1 22:1 27:1 30:1 35:1 43:1 44:1 53:1 54:1 61:1 
3.326560077513883 1:-31 2:101 3:70 8:1 9:1 15:1 22:1 26:1 33:1 35:1 43:1 44:1 53:1 54:1 61:1 
2.043597403038903 1:104 2:73 3:177 8:1 13:1 14:1 23:1 28:1 30:1 37:1 39:1 45:1 50:1 54:1 62:1 
1.866615210048744 1:74 2:103 3:177 5:1 11:1 17:1 23:1 24:1 33:1 37:1 39:1 45:1 50:1 54:1 62:1 
0.2635537567589748 1:37 2:140 3:177 8:1 13:1 14:1 22:1 24:1 33:1 37:1 39:1 45:1 50:1 54:1 62:1 
0.05331432585912595 1:29 2:148 3:177 8:1 12:1 16:1 23:1 24:1 30:1 37:1 39:1 45:1 50:1 54:1 62:1 
1.51124126804267 1:-148 2:218 3:70 4:1 13:1 18:1 20:1 35:1 43:1 44:1 53:1 54:1 61:1 
0.6234590107845805 1:4 2:32 3:36 4:1 13:1 18:1 20:1 24:1 32:1 35:1 39:1 47:1 49:1 56:1 60:1 
3.644231923839901 1:2 2:38 3:40 7:1 13:1 14:1 20:1 28:1 29:1 34:1 41:1 45:1 49:1 56:1 60:1 
4 1:-6 2:42 3:36 5:1 13:1 14:1 20:1 28:1 33:1 35:1 39:1 47:1 49:1 56:1 60:1 
4 1:2 2:42 3:44 5:1 13:1 14:1 20:1 28:1 33:1 34:1 41:1 45:1 53:1 54:1 61:1 
0.9227236999791759 1:-11 2:47 3:36 8:1 13:1 14:1 23:1 28:1 33:1 35:1 39:1 47:1 49:1 56:1 60:1 
4 1:-7 2:47 3:40 8:1 13:1 14:1 23:1 28:1 33:1 34:1 41:1 45:1 49:1 56:1 60:1 
2.184930490824005 1:-15 2:59 3:44 8:1 13:1 15:1 22:1 25:1 33:1 34:1 41:1 45:1 53:1 54:1 61:1 
2.150382015562468 1:51 2:14 3:65 5:1 13:1 18:1 19:1 28:1 33:1 38:1 43:1 45:1 49:1 57:1 63:1 
0.6201732739171104 1:18 2:47 3:65 8:1 13:1 14:1 23:1 28:1 33:1 38:1 43:1 45:1 49:1 57:1 63:1 
4 1:6 2:59 3:65 8:1 13:1 15:1 22:1 25:1 33:1 38:1 43:1 45:1 49:1 57:1 63:1 
0.5559146418022453 1:63 2:32 3:95 4:1 13:1 18:1 20:1 24:1 32:1 35:1 40:1 45:1 53:1 58:1 60:1 
0.6624612856963358 1:120 2:14 3:134 5:1 13:1 18:1 19:1 28:1 33:1 35:1 43:1 45:1 52:1 55:1 60:1 
4 1:96 2:38 3:134 7:1 13:1 14:1 20:1 28:1 29:1 35:1 43:1 45:1 52:1 55:1 60:1 
2.180146853056699 1:87 2:47 3:134 8:1 13:1 14:1 23:1 28:1 33:1 35:1 43:1 45:1 52:1 55:1 60:1 
0.3575307928912639 1:136 2:7 3:143 5:1 13:1 14:1 22:1 25:1 33:1 34:1 40:1 48:1 53:1 58:1 63:1 
1.892863902514088 1:105 2:38 3:143 7:1 13:1 14:1 20:1 28:1 29:1 34:1 40:1 48:1 53:1 58:1 63:1 
2.915199720432492 1:96 2:47 3:143 8:1 13:1 14:1 23:1 28:1 33:1 34:1 40:1 48:1 53:1 58:1 63:1 
2.45128189253543 1:84 2:59 3:143 8:1 13:1 15:1 22:1 25:1 33:1 34:1 40:1 48:1 53:1 58:1 63:1 
0.02523367117445462 1:135 2:42 3:177 5:1 13:1 14:1 20:1 28:1 33:1 35:1 39:1 48:1 53:1 58:1 59:1 
0.7187563583678884 1:118 2:59 3:177 8:1 13:1 15:1 22:1 25:1 33:1 35:1 39:1 48:1 53:1 58:1 59:1 
0.02284808615043878 1:181 2:7 3:188 5:1 13:1 14:1 22:1 25:1 33:1 37:1 43:1 48:1 49:1 58:1 63:1 
2.762139850745557 1:129 2:59 3:188 8:1 13:1 15:1 22:1 25:1 33:1 37:1 43:1 48:1 49:1 58:1 63:1 
0.6210023101422917 1:-12 2:175 3:163 8:1 13:1 14:1 19:1 25:1 33:1 38:1 42:1 48:1 53:1 58:1 59:1 
0.6829250934567093 1:-297 2:298 3:1 4:1 13:1 14:1 23:1 25:1 33:1 48:1 53:1 55:1 63:1 
0.6757636694941063 1:-277 2:298 3:21 4:1 13:1 14:1 23:1 25:1 33:1 37:1 43:1 45:1 50:1 55:1 60:1 
0.8690316934829693 1:1 2:17 3:18 5:1 9:1 15:1 23:1 28:1 33:1 34:1 40:1 46:1 53:1 58:1 63:1 
1.984162060138197 1:-37 2:64 3:27 7:1 9:1 15:1 20:1 28:1 29:1 34:1 40:1 45:1 53:1 54:1 59:1 
3.200661392010296 1:49 2:17 3:66 5:1 9:1 15:1 23:1 28:1 33:1 35:1 41:1 45:1 49:1 58:1 63:1 
2.230177424636005 1:2 2:64 3:66 7:1 9:1 15:1 20:1 28:1 29:1 35:1 41:1 45:1 49:1 58:1 63:1 
1.160555005774071 1:130 2:17 3:147 5:1 9:1 15:1 23:1 28:1 33:1 34:1 42:1 48:1 49:1 56:1 63:1 
0.7622374380901772 1:83 2:64 3:147 7:1 9:1 15:1 20:1 28:1 29:1 34:1 42:1 48:1 49:1 56:1 63:1 
0.3557158169411738 1:-122 2:149 3:27 8:1 13:1 14:1 23:1 28:1 30:1 34:1 40:1 45:1 53:1 54:1 59:1 
0.2346462752587266 1:-83 2:149 3:66 8:1 13:1 14:1 23:1 28:1 30:1 35:1 41:1 45:1 49:1 58:1 63:1 
0.4830980010245681 1:-63 2:149 3:86 8:1 13:1 14:1 23:1 28:1 30:1 34:1 43:1 48:1 49:1 58:1 62:1 
0.5326859538611673 1:-162 2:189 3:27 8:1 10:1 18:1 22:1 28:1 33:1 34:1 40:1 45:1 53:1 54:1 59:1 
0.4172337913212814 1:-103 2:189 3:86 8:1 10:1 18:1 22:1 28:1 33:1 34:1 43:1 48:1 49:1 58:1 62:1 
0.581528551738356 1:-192 2:219 3:27 4:1 13:1 17:1 23:1 24:1 30:1 34:1 40:1 45:1 53:1 54:1 59:1 
0.5364891681653069 1:-133 2:219 3:86 4:1 13:1 17:1 23:1 24:1 30:1 34:1 43:1 48:1 49:1 58:1 62:1 
0.09253637864989969 1:-120 2:219 3:99 4:1 13:1 17:1 23:1 24:1 30:1 38:1 42:1 48:1 53:1 58:1 63:1 
0.9795617814686653 1:169 2:64 3:233 7:1 9:1 15:1 20:1 28:1 29:1 37:1 43:1 44:1 49:1 58:1 63:1 
1.250432943608577 1:84 2:149 3:233 8:1 13:1 14:1 23:1 28:1 30:1 37:1 43:1 44:1 49:1 58:1 63:1 
0.5666717683081699 1:44 2:189 3:233 8:1 10:1 18:1 22:1 28:1 33:1 37:1 43:1 44:1 49:1 58:1 63:1 
0.104071836400462 1:-255 2:256 3:1 8:1 13:1 18:1 20:1 28:1 32:1 48:1 53:1 58:1 63:1 
1.509740828751033 1:-120 2:256 3:136 8:1 13:1 18:1 20:1 28:1 32:1 38:1 43:1 47:1 53:1 58:1 60:1 
0.9564134939107821 1:-77 2:256 3:179 8:1 13:1 18:1 20:1 28:1 32:1 35:1 42:1 48:1 49:1 58:1 63:1 
0.01100109521254209 1:9 2:44 3:53 8:1 13:1 18:1 23:1 28:1 29:1 35:1 43:1 45:1 53:1 58:1 63:1 
0.4139377437032186 1:-21 2:74 3:53 5:1 13:1 18:1 20:1 28:1 33:1 35:1 43:1 45:1 53:1 58:1 63:1 
4 1:2 2:74 3:76 5:1 13:1 18:1 20:1 28:1 33:1 38:1 41:1 45:1 53:1 54:1 61:1 
1.833112274302871 1:-24 2:79 3:55 8:1 13:1 14:1 23:1 24:1 33:1 35:1 43:1 48:1 53:1 58:1 63:1 
4 1:-7 2:79 3:72 8:1 13:1 14:1 23:1 24:1 33:1 38:1 39:1 45:1 53:1 56:1 60:1 
1.112104156221809 1:-39 2:111 3:72 8:1 13:1 15:1 23:1 28:1 32:1 38:1 39:1 45:1 53:1 56:1 60:1 
3.414664598688038 1:-35 2:111 3:76 8:1 13:1 15:1 23:1 28:1 32:1 38:1 41:1 45:1 53:1 54:1 61:1 
0.7852083989832299 1:44 2:74 3:118 5:1 13:1 18:1 20:1 28:1 33:1 38:1 39:1 45:1 53:1 58:1 63:1 
2.406815390445029 1:39 2:79 3:118 8:1 13:1 14:1 23:1 24:1 33:1 38:1 39:1 45:1 53:1 58:1 63:1 
4 1:7 2:111 3:118 8:1 13:1 15:1 23:1 28:1 32:1 38:1 39:1 45:1 53:1 58:1 63:1 
0.4119559832512227 1:135 2:44 3:179 8:1 13:1 18:1 23:1 28:1 29:1 35:1 42:1 48:1 49:1 58:1 63:1 
0.7249993846647308 1:68 2:111 3:179 8:1 13:1 15:1 23:1 28:1 32:1 35:1 42:1 48:1 49:1 58:1 63:1 
0.6717927240258375 1:-128 2:183 3:55 4:1 13:1 18:1 20:1 27:1 29:1 35:1 43:1 48:1 53:1 58:1 63:1 
3.004444514968858 1:-4 2:183 3:179 4:1 13:1 18:1 20:1 27:1 29:1 35:1 42:1 48:1 49:1 58:1 63:1 
0.396559047808354 1:112 2:79 3:191 8:1 13:1 14:1 23:1 24:1 33:1 38:1 43:1 45:1 53:1 58:1 61:1 
1.910502248002574 1:80 2:111 3:191 8:1 13:1 15:1 23:1 28:1 32:1 38:1 43:1 45:1 53:1 58:1 61:1 
0.3337555860023482 1:-139 2:194 3:55 8:1 13:1 18:1 22:1 25:1 33:1 35:1 43:1 48:1 53:1 58:1 63:1 
0.6442008611195024 1:-118 2:194 3:76 8:1 13:1 18:1 22:1 25:1 33:1 38:1 41:1 45:1 53:1 54:1 61:1 
0.9975555017497795 1:-76 2:194 3:118 8:1 13:1 18:1 22:1 25:1 33:1 38:1 39:1 45:1 53:1 58:1 63:1 
0.1406009129211025 1:-170 2:223 3:53 8:1 9:1 18:1 20:1 27:1 32:1 35:1 43:1 45:1 53:1 58:1 63:1 
1.262040401597275 1:-168 2:223 3:55 8:1 9:1 18:1 20:1 27:1 32:1 35:1 43:1 48:1 53:1 58:1 63:1 
0.9706926399056525 1:-151 2:223 3:72 8:1 9:1 18:1 20:1 27:1 32:1 38:1 39:1 45:1 53:1 56:1 60:1 
2.912116163432108 1:-105 2:223 3:118 8:1 9:1 18:1 20:1 27:1 32:1 38:1 39:1 45:1 53:1 58:1 63:1 
0.536699627963573 1:-44 2:223 3:179 8:1 9:1 18:1 20:1 27:1 32:1 35:1 42:1 48:1 49:1 58:1 63:1 
0.942341961749347 1:29 2:25 3:54 8:1 12:1 18:1 20:1 27:1 30:1 38:1 43:1 44:1 53:1 54:1 60:1 
1.85152649201567 1:-69 2:75 3:6 7:1 13:1 18:1 23:1 28:1 33:1 38:1 40:1 48:1 49:1 56:1 63:1 
1.765228149129908 1:-21 2:75 3:54 7:1 13:1 18:1 23:1 28:1 33:1 38:1 43:1 44:1 53:1 54:1 60:1 
0.3355840002136733 1:109 2:8 3:117 8:1 13:1 14:1 23:1 25:1 29:1 34:1 39:1 45:1 53:1 55:1 63:1 
0.4228869889249554 1:42 2:75 3:117 7:1 13:1 18:1 23:1 28:1 33:1 34:1 39:1 45:1 53:1 55:1 63:1 
0.3159386148541832 1:124 2:25 3:149 8:1 12:1 18:1 20:1 27:1 30:1 38:1 42:1 48:1 50:1 57:1 61:1 
1.84133816270908 1:-35 2:152 3:117 8:1 10:1 17:1 23:1 24:1 31:1 34:1 39:1 45:1 53:1 55:1 63:1 
1.442509141244166 1:-3 2:152 3:149 8:1 10:1 17:1 23:1 24:1 31:1 38:1 42:1 48:1 50:1 57:1 61:1 
1.122972191238222 1:-101 2:155 3:54 6:1 13:1 14:1 20:1 27:1 33:1 38:1 43:1 44:1 53:1 54:1 60:1 
0.2863585573970346 1:-38 2:155 3:117 6:1 13:1 14:1 20:1 27:1 33:1 34:1 39:1 45:1 53:1 55:1 63:1 
1.30653547118724 1:-6 2:155 3:149 6:1 13:1 14:1 20:1 27:1 33:1 38:1 42:1 48:1 50:1 57:1 61:1 
1.070954677661422 1:-64 2:163 3:99 5:1 12:1 18:1 23:1 24:1 33:1 38:1 43:1 45:1 52:1 58:1 63:1 
0.9236872657902472 1:-14 2:163 3:149 5:1 12:1 18:1 23:1 24:1 33:1 38:1 42:1 48:1 50:1 57:1 61:1 
0.9009704681880698 1:-117 2:171 3:54 4:1 9:1 18:1 23:1 24:1 30:1 38:1 43:1 44:1 53:1 54:1 60:1 
0.05960699854076458 1:-54 2:171 3:117 4:1 9:1 18:1 23:1 24:1 30:1 34:1 39:1 45:1 53:1 55:1 63:1 
0.3589121028144462 1:-22 2:171 3:149 4:1 9:1 18:1 23:1 24:1 30:1 38:1 42:1 48:1 50:1 57:1 61:1 
0.4195203243041704 1:103 2:75 3:178 7:1 13:1 18:1 23:1 28:1 33:1 38:1 43:1 47:1 49:1 54:1 59:1 
0.098873677127502 1:7 2:171 3:178 4:1 9:1 18:1 23:1 24:1 30:1 38:1 43:1 47:1 49:1 54:1 59:1 
0.2518759310480244 1:-73 2:190 3:117 8:1 9:1 15:1 19:1 28:1 33:1 34:1 39:1 45:1 53:1 55:1 63:1 
0.7927061633606564 1:-41 2:190 3:149 8:1 9:1 15:1 19:1 28:1 33:1 38:1 42:1 48:1 50:1 57:1 61:1 
0.5366790708171303 1:-12 2:190 3:178 8:1 9:1 15:1 19:1 28:1 33:1 38:1 43:1 47:1 49:1 54:1 59:1 
1.924055337998913 1:118 2:75 3:193 7:1 13:1 18:1 23:1 28:1 33:1 36:1 39:1 48:1 53:1 58:1 59:1 
0.4887748560843622 1:41 2:152 3:193 8:1 10:1 17:1 23:1 24:1 31:1 36:1 39:1 48:1 53:1 58:1 59:1 
2.725900047044364 1:22 2:171 3:193 4:1 9:1 18:1 23:1 24:1 30:1 36:1 39:1 48:1 53:1 58:1 59:1 
1.485459911277552 1:3 2:190 3:193 8:1 9:1 15:1 19:1 28:1 33:1 36:1 39:1 48:1 53:1 58:1 59:1 
0.1261301261245538 1:191 2:8 3:199 8:1 13:1 14:1 23:1 25:1 29:1 34:1 40:1 48:1 53:1 58:1 63:1 
0.3914837308716867 1:44 2:155 3:199 6:1 13:1 14:1 20:1 27:1 33:1 34:1 40:1 48:1 53:1 58:1 63:1 
0.841992269769643 1:28 2:171 3:199 4:1 9:1 18:1 23:1 24:1 30:1 34:1 40:1 48:1 53:1 58:1 63:1 
0.8883067288012342 1:9 2:190 3:199 8:1 9:1 15:1 19:1 28:1 33:1 34:1 40:1 48:1 53:1 58:1 63:1 
0.03735305575243192 1:187 2:25 3:212 8:1 12:1 18:1 20:1 27:1 30:1 38:1 42:1 48:1 53:1 54:1 63:1 
1.007567923407321 1:137 2:75 3:212 7:1 13:1 18:1 23:1 28:1 33:1 38:1 42:1 48:1 53:1 54:1 63:1 
2.522668110431377 1:173 2:152 3:325 8:1 10:1 17:1 23:1 24:1 31:1 35:1 43:1 48:1 53:1 54:1 63:1 
1.328055745678702 1:154 2:171 3:325 4:1 9:1 18:1 23:1 24:1 30:1 35:1 43:1 48:1 53:1 54:1 63:1 
0.4500939866338243 1:135 2:190 3:325 8:1 9:1 15:1 19:1 28:1 33:1 35:1 43:1 48:1 53:1 54:1 63:1 
1.662315137887561 1:-326 2:332 3:6 7:1 13:1 15:1 20:1 28:1 33:1 38:1 40:1 48:1 49:1 56:1 63:1 
0.3685425143744766 1:-278 2:332 3:54 7:1 13:1 15:1 20:1 28:1 33:1 38:1 43:1 44:1 53:1 54:1 60:1 
0.371085420383621 1:-183 2:332 3:149 7:1 13:1 15:1 20:1 28:1 33:1 38:1 42:1 48:1 50:1 57:1 61:1 
0.9164670072158563 1:-133 2:332 3:199 7:1 13:1 15:1 20:1 28:1 33:1 34:1 40:1 48:1 53:1 58:1 63:1 
1.867838186080412 1:-7 2:332 3:325 7:1 13:1 15:1 20:1 28:1 33:1 35:1 43:1 48:1 53:1 54:1 63:1 
4 1:-2 2:75 3:73 8:1 13:1 14:1 23:1 26:1 33:1 38:1 40:1 48:1 49:1 56:1 63:1 
3.221625094353632 1:-4 2:77 3:73 4:1 11:1 18:1 23:1 26:1 30:1 38:1 40:1 48:1 49:1 56:1 63:1 
0.7592295066397206 1:-84 2:86 3:2 8:1 10:1 18:1 23:1 28:1 33:1 43:1 47:1 49:1 56:1 63:1 
1.173764992482902 1:-13 2:86 3:73 8:1 10:1 18:1 23:1 28:1 33:1 38:1 40:1 48:1 49:1 56:1 63:1 
0.7659850324858066 1:86 2:4 3:90 7:1 13:1 14:1 23:1 28:1 30:1 38:1 43:1 48:1 51:1 56:1 62:1 
1.069275026916582 1:15 2:75 3:90 8:1 13:1 14:1 23:1 26:1 33:1 38:1 43:1 48:1 51:1 56:1 62:1 
0.3638639390288907 1:11 2:79 3:90 8:1 11:1 18:1 20:1 28:1 33:1 38:1 43:1 48:1 51:1 56:1 62:1 
0.1535703558785547 1:-84 2:92 3:8 8:1 13:1 16:1 22:1 26:1 29:1 38:1 43:1 45:1 52:1 58:1 59:1 
0.2764390261308641 1:-19 2:92 3:73 8:1 13:1 16:1 22:1 26:1 29:1 38:1 40:1 48:1 49:1 56:1 63:1 
4 1:-2 2:92 3:90 8:1 13:1 16:1 22:1 26:1 29:1 38:1 43:1 48:1 51:1 56:1 62:1 
0.8582085474205495 1:-21 2:94 3:73 6:1 11:1 17:1 19:1 28:1 32:1 38:1 40:1 48:1 49:1 56:1 63:1 
0.8048985758084172 1:15 2:86 3:101 8:1 10:1 18:1 23:1 28:1 33:1 35:1 43:1 47:1 52:1 58:1 59:1 
0.2937660801394808 1:10 2:91 3:101 8:1 13:1 18:1 21:1 27:1 31:1 35:1 43:1 47:1 52:1 58:1 59:1 
0.6769453596172249 1:9 2:92 3:101 8:1 13:1 16:1 22:1 26:1 29:1 35:1 43:1 47:1 52:1 58:1 59:1 
2.216179823486466 1:-99 2:107 3:8 4:1 10:1 18:1 23:1 26:1 32:1 38:1 43:1 45:1 52:1 58:1 59:1 
4 1:-17 2:107 3:90 4:1 10:1 18:1 23:1 26:1 32:1 38:1 43:1 48:1 51:1 56:1 62:1 
1.657625968045264 1:-6 2:107 3:101 4:1 10:1 18:1 23:1 26:1 32:1 35:1 43:1 47:1 52:1 58:1 59:1 
0.4585151365777616 1:-99 2:109 3:10 8:1 11:1 18:1 22:1 28:1 33:1 35:1 43:1 47:1 49:1 54:1 63:1 
0.529054525179015 1:-36 2:109 3:73 8:1 11:1 18:1 22:1 28:1 33:1 38:1 40:1 48:1 49:1 56:1 63:1 
0.8241115419922148 1:-8 2:109 3:101 8:1 11:1 18:1 22:1 28:1 33:1 35:1 43:1 47:1 52:1 58:1 59:1 
0.2022520067366922 1:-124 2:126 3:2 4:1 13:1 18:1 19:1 25:1 33:1 43:1 47:1 49:1 56:1 63:1 
0.7964855221404231 1:-36 2:126 3:90 4:1 13:1 18:1 19:1 25:1 33:1 38:1 43:1 48:1 51:1 56:1 62:1 
0.6744838516400039 1:-147 2:155 3:8 8:1 13:1 18:1 20:1 26:1 29:1 38:1 43:1 45:1 52:1 58:1 59:1 
0.72999356500313 1:-82 2:155 3:73 8:1 13:1 18:1 20:1 26:1 29:1 38:1 40:1 48:1 49:1 56:1 63:1 
1.952523093315655 1:-65 2:155 3:90 8:1 13:1 18:1 20:1 26:1 29:1 38:1 43:1 48:1 51:1 56:1 62:1 
0.9789384427888177 1:-84 2:157 3:73 8:1 11:1 15:1 19:1 27:1 33:1 38:1 40:1 48:1 49:1 56:1 63:1 
2.769356275608323 1:-155 2:163 3:8 8:1 10:1 18:1 23:1 28:1 30:1 38:1 43:1 45:1 52:1 58:1 59:1 
1.328024078842179 1:-73 2:163 3:90 8:1 10:1 18:1 23:1 28:1 30:1 38:1 43:1 48:1 51:1 56:1 62:1 
0.4709816314848961 1:-62 2:163 3:101 8:1 10:1 18:1 23:1 28:1 30:1 35:1 43:1 47:1 52:1 58:1 59:1 
1.133126589057921 1:164 2:4 3:168 7:1 13:1 14:1 23:1 28:1 30:1 38:1 40:1 48:1 53:1 54:1 62:1 
0.6468172549653929 1:93 2:75 3:168 8:1 13:1 14:1 23:1 26:1 33:1 38:1 40:1 48:1 53:1 54:1 62:1 
0.01901137244981369 1:89 2:79 3:168 8:1 11:1 18:1 20:1 28:1 33:1 38:1 40:1 48:1 53:1 54:1 62:1 
0.9180397453600322 1:82 2:86 3:168 8:1 10:1 18:1 23:1 28:1 33:1 38:1 40:1 48:1 53:1 54:1 62:1 
0.7535592652754108 1:76 2:92 3:168 8:1 13:1 16:1 22:1 26:1 29:1 38:1 40:1 48:1 53:1 54:1 62:1 
1.281605486237067 1:13 2:155 3:168 8:1 13:1 18:1 20:1 26:1 29:1 38:1 40:1 48:1 53:1 54:1 62:1 
0.7592668743880094 1:11 2:157 3:168 8:1 11:1 15:1 19:1 27:1 33:1 38:1 40:1 48:1 53:1 54:1 62:1 
0.6284690442469111 1:-104 2:177 3:73 8:1 9:1 15:1 23:1 28:1 33:1 38:1 40:1 48:1 49:1 56:1 63:1 
0.7127477355465316 1:-179 2:187 3:8 4:1 10:1 18:1 23:1 24:1 32:1 38:1 43:1 45:1 52:1 58:1 59:1 
1.964461124876288 1:-97 2:187 3:90 4:1 10:1 18:1 23:1 24:1 32:1 38:1 43:1 48:1 51:1 56:1 62:1 
0.05575657446917551 1:-19 2:187 3:168 4:1 10:1 18:1 23:1 24:1 32:1 38:1 40:1 48:1 53:1 54:1 62:1 
0.9395063037403307 1:-122 2:212 3:90 8:1 10:1 18:1 22:1 25:1 33:1 38:1 43:1 48:1 51:1 56:1 62:1 
0.6670333086235987 1:-214 2:216 3:2 7:1 10:1 18:1 23:1 28:1 30:1 43:1 47:1 49:1 56:1 63:1 
2.161878833951187 1:-143 2:216 3:73 7:1 10:1 18:1 23:1 28:1 30:1 38:1 40:1 48:1 49:1 56:1 63:1 
0.2661062136575711 1:-115 2:216 3:101 7:1 10:1 18:1 23:1 28:1 30:1 35:1 43:1 47:1 52:1 58:1 59:1 
0.8581592002362496 1:168 2:75 3:243 8:1 13:1 14:1 23:1 26:1 33:1 37:1 43:1 48:1 49:1 55:1 63:1 
2.687502263647061 1:157 2:86 3:243 8:1 10:1 18:1 23:1 28:1 33:1 37:1 43:1 48:1 49:1 55:1 63:1 
0.1556483584738649 1:152 2:91 3:243 8:1 13:1 18:1 21:1 27:1 31:1 37:1 43:1 48:1 49:1 55:1 63:1 
0.2773512721362033 1:151 2:92 3:243 8:1 13:1 16:1 22:1 26:1 29:1 37:1 43:1 48:1 49:1 55:1 63:1 
2.672007882832616 1:136 2:107 3:243 4:1 10:1 18:1 23:1 26:1 32:1 37:1 43:1 48:1 49:1 55:1 63:1 
0.7735782939328647 1:117 2:126 3:243 4:1 13:1 18:1 19:1 25:1 33:1 37:1 43:1 48:1 49:1 55:1 63:1 
1.371760088035691 1:88 2:155 3:243 8:1 13:1 18:1 20:1 26:1 29:1 37:1 43:1 48:1 49:1 55:1 63:1 
0.586187649795224 1:56 2:187 3:243 4:1 10:1 18:1 23:1 24:1 32:1 37:1 43:1 48:1 49:1 55:1 63:1 
0.2208318523681046 1:-257 2:259 3:2 5:1 13:1 18:1 23:1 27:1 33:1 43:1 47:1 49:1 56:1 63:1 
0.9163709804239709 1:-249 2:259 3:10 5:1 13:1 18:1 23:1 27:1 33:1 35:1 43:1 47:1 49:1 54:1 63:1 
2.10569443377468 1:-169 2:259 3:90 5:1 13:1 18:1 23:1 27:1 33:1 38:1 43:1 48:1 51:1 56:1 62:1 
0.2581795843866942 1:-158 2:259 3:101 5:1 13:1 18:1 23:1 27:1 33:1 35:1 43:1 47:1 52:1 58:1 59:1 
1.410389664648686 1:-91 2:259 3:168 5:1 13:1 18:1 23:1 27:1 33:1 38:1 40:1 48:1 53:1 54:1 62:1 
0.454493203175722 1:-271 2:273 3:2 8:1 9:1 15:1 23:1 27:1 33:1 43:1 47:1 49:1 56:1 63:1 
0.734935360734054 1:-183 2:273 3:90 8:1 9:1 15:1 23:1 27:1 33:1 38:1 43:1 48:1 51:1 56:1 62:1 
2.022551617418586 1:-30 2:273 3:243 8:1 9:1 15:1 23:1 27:1 33:1 37:1 43:1 48:1 49:1 55:1 63:1 
0.4262445594058963 1:272 2:4 3:276 7:1 13:1 14:1 23:1 28:1 30:1 36:1 43:1 47:1 53:1 56:1 63:1 
1.681066863725501 1:199 2:77 3:276 4:1 11:1 18:1 23:1 26:1 30:1 36:1 43:1 47:1 53:1 56:1 63:1 
2.068330389127306 1:190 2:86 3:276 8:1 10:1 18:1 23:1 28:1 33:1 36:1 43:1 47:1 53:1 56:1 63:1 
1.123343324067832 1:185 2:91 3:276 8:1 13:1 18:1 21:1 27:1 31:1 36:1 43:1 47:1 53:1 56:1 63:1 
0.7896289214465102 1:184 2:92 3:276 8:1 13:1 16:1 22:1 26:1 29:1 36:1 43:1 47:1 53:1 56:1 63:1 
1.069358881833286 1:169 2:107 3:276 4:1 10:1 18:1 23:1 26:1 32:1 36:1 43:1 47:1 53:1 56:1 63:1 
2.925149311859414 1:121 2:155 3:276 8:1 13:1 18:1 20:1 26:1 29:1 36:1 43:1 47:1 53:1 56:1 63:1 
1.364106886011322 1:64 2:212 3:276 8:1 10:1 18:1 22:1 25:1 33:1 36:1 43:1 47:1 53:1 56:1 63:1 
1.802920381992674 1:3 2:273 3:276 8:1 9:1 15:1 23:1 27:1 33:1 36:1 43:1 47:1 53:1 56:1 63:1 
0.01705028243566021 1:-177 2:278 3:101 7:1 13:1 18:1 23:1 24:1 31:1 35:1 43:1 47:1 52:1 58:1 59:1 
1.387432882364938 1:-2 2:278 3:276 7:1 13:1 18:1 23:1 24:1 31:1 36:1 43:1 47:1 53:1 56:1 63:1 
0.2573181649618815 1:-191 2:281 3:90 6:1 13:1 14:1 20:1 28:1 33:1 38:1 43:1 48:1 51:1 56:1 62:1 
0.1163692454878622 1:-113 2:281 3:168 6:1 13:1 14:1 20:1 28:1 33:1 38:1 40:1 48:1 53:1 54:1 62:1 
0.5816457301296345 1:-38 2:281 3:243 6:1 13:1 14:1 20:1 28:1 33:1 37:1 43:1 48:1 49:1 55:1 63:1 
3.459111372972906 1:-5 2:281 3:276 6:1 13:1 14:1 20:1 28:1 33:1 36:1 43:1 47:1 53:1 56:1 63:1 
1.042136970831457 1:-197 2:287 3:90 8:1 12:1 17:1 19:1 27:1 33:1 38:1 43:1 48:1 51:1 56:1 62:1 
0.2686385759852523 1:216 2:79 3:295 8:1 11:1 18:1 20:1 28:1 33:1 35:1 43:1 45:1 53:1 56:1 63:1 
1.515622553705531 1:209 2:86 3:295 8:1 10:1 18:1 23:1 28:1 33:1 35:1 43:1 45:1 53:1 56:1 63:1 
1.6269206009454 1:203 2:92 3:295 8:1 13:1 16:1 22:1 26:1 29:1 35:1 43:1 45:1 53:1 56:1 63:1 
2.018698476336475 1:188 2:107 3:295 4:1 10:1 18:1 23:1 26:1 32:1 35:1 43:1 45:1 53:1 56:1 63:1 
3.379672443171182 1:140 2:155 3:295 8:1 13:1 18:1 20:1 26:1 29:1 35:1 43:1 45:1 53:1 56:1 63:1 
0.05571240126483724 1:132 2:163 3:295 8:1 10:1 18:1 23:1 28:1 30:1 35:1 43:1 45:1 53:1 56:1 63:1 
0.4737810836595024 1:36 2:259 3:295 5:1 13:1 18:1 23:1 27:1 33:1 35:1 43:1 45:1 53:1 56:1 63:1 
0.07098082969228706 1:22 2:273 3:295 8:1 9:1 15:1 23:1 27:1 33:1 35:1 43:1 45:1 53:1 56:1 63:1 
0.7975842307975171 1:17 2:278 3:295 7:1 13:1 18:1 23:1 24:1 31:1 35:1 43:1 45:1 53:1 56:1 63:1 
0.3411979559641746 1:-289 2:297 3:8 5:1 13:1 18:1 23:1 24:1 30:1 38:1 43:1 45:1 52:1 58:1 59:1 
0.1875689470550435 1:-287 2:297 3:10 5:1 13:1 18:1 23:1 24:1 30:1 35:1 43:1 47:1 49:1 54:1 63:1 
1.173118209287617 1:-207 2:297 3:90 5:1 13:1 18:1 23:1 24:1 30:1 38:1 43:1 48:1 51:1 56:1 62:1 
0.8062881998716326 1:-196 2:297 3:101 5:1 13:1 18:1 23:1 24:1 30:1 35:1 43:1 47:1 52:1 58:1 59:1 
1.299725763493969 1:-129 2:297 3:168 5:1 13:1 18:1 23:1 24:1 30:1 38:1 40:1 48:1 53:1 54:1 62:1 
0.6571947186432746 1:-21 2:297 3:276 5:1 13:1 18:1 23:1 24:1 30:1 36:1 43:1 47:1 53:1 56:1 63:1 
4 1:-2 2:297 3:295 5:1 13:1 18:1 23:1 24:1 30:1 35:1 43:1 45:1 53:1 56:1 63:1 
0.1714370229413279 1:-201 2:302 3:101 4:1 10:1 18:1 19:1 27:1 33:1 35:1 43:1 47:1 52:1 58:1 59:1 
1.581525176360166 1:-134 2:302 3:168 4:1 10:1 18:1 19:1 27:1 33:1 38:1 40:1 48:1 53:1 54:1 62:1 
0.5720938198603185 1:-59 2:302 3:243 4:1 10:1 18:1 19:1 27:1 33:1 37:1 43:1 48:1 49:1 55:1 63:1 
1.248862983857012 1:-7 2:302 3:295 4:1 10:1 18:1 19:1 27:1 33:1 35:1 43:1 45:1 53:1 56:1 63:1 
3.546052377943022 1:301 2:4 3:305 7:1 13:1 14:1 23:1 28:1 30:1 36:1 39:1 47:1 49:1 58:1 63:1 
1.360529254792061 1:228 2:77 3:305 4:1 11:1 18:1 23:1 26:1 30:1 36:1 39:1 47:1 49:1 58:1 63:1 
3.832326517346319 1:219 2:86 3:305 8:1 10:1 18:1 23:1 28:1 33:1 36:1 39:1 47:1 49:1 58:1 63:1 
0.3665870043567947 1:214 2:91 3:305 8:1 13:1 18:1 21:1 27:1 31:1 36:1 39:1 47:1 49:1 58:1 63:1 
1.526854975018377 1:213 2:92 3:305 8:1 13:1 16:1 22:1 26:1 29:1 36:1 39:1 47:1 49:1 58:1 63:1 
2.406234305584798 1:198 2:107 3:305 4:1 10:1 18:1 23:1 26:1 32:1 36:1 39:1 47:1 49:1 58:1 63:1 
0.5119868856793586 1:179 2:126 3:305 4:1 13:1 18:1 19:1 25:1 33:1 36:1 39:1 47:1 49:1 58:1 63:1 
2.68545664964794 1:150 2:155 3:305 8:1 13:1 18:1 20:1 26:1 29:1 36:1 39:1 47:1 49:1 58:1 63:1 
1.268499007874388 1:118 2:187 3:305 4:1 10:1 18:1 23:1 24:1 32:1 36:1 39:1 47:1 49:1 58:1 63:1 
2.521384400980043 1:93 2:212 3:305 8:1 10:1 18:1 22:1 25:1 33:1 36:1 39:1 47:1 49:1 58:1 63:1 
1.150156373853463 1:46 2:259 3:305 5:1 13:1 18:1 23:1 27:1 33:1 36:1 39:1 47:1 49:1 58:1 63:1 
0.7473965952616954 1:32 2:273 3:305 8:1 9:1 15:1 23:1 27:1 33:1 36:1 39:1 47:1 49:1 58:1 63:1 
1.10158093281083 1:18 2:287 3:305 8:1 12:1 17:1 19:1 27:1 33:1 36:1 39:1 47:1 49:1 58:1 63:1 
0.4299560936093096 1:3 2:302 3:305 4:1 10:1 18:1 19:1 27:1 33:1 36:1 39:1 47:1 49:1 58:1 63:1 
0.5268063805504296 1:304 2:4 3:308 7:1 13:1 14:1 23:1 28:1 30:1 38:1 39:1 48:1 52:1 55:1 62:1 
2.805964287732179 1:199 2:109 3:308 8:1 11:1 18:1 22:1 28:1 33:1 38:1 39:1 48:1 52:1 55:1 62:1 
1.434029009847773 1:182 2:126 3:308 4:1 13:1 18:1 19:1 25:1 33:1 38:1 39:1 48:1 52:1 55:1 62:1 
0.2078539883867659 1:151 2:157 3:308 8:1 11:1 15:1 19:1 27:1 33:1 38:1 39:1 48:1 52:1 55:1 62:1 
3.862517226888327 1:131 2:177 3:308 8:1 9:1 15:1 23:1 28:1 33:1 38:1 39:1 48:1 52:1 55:1 62:1 
0.9677997796669766 1:121 2:187 3:308 4:1 10:1 18:1 23:1 24:1 32:1 38:1 39:1 48:1 52:1 55:1 62:1 
0.3616180917510015 1:96 2:212 3:308 8:1 10:1 18:1 22:1 25:1 33:1 38:1 39:1 48:1 52:1 55:1 62:1 
0.8776830870082236 1:92 2:216 3:308 7:1 10:1 18:1 23:1 28:1 30:1 38:1 39:1 48:1 52:1 55:1 62:1 
0.5787447142400625 1:49 2:259 3:308 5:1 13:1 18:1 23:1 27:1 33:1 38:1 39:1 48:1 52:1 55:1 62:1 
1.252482768640004 1:30 2:278 3:308 7:1 13:1 18:1 23:1 24:1 31:1 38:1 39:1 48:1 52:1 55:1 62:1 
2.100273295207353 1:27 2:281 3:308 6:1 13:1 14:1 20:1 28:1 33:1 38:1 39:1 48:1 52:1 55:1 62:1 
0.1114651642542298 1:21 2:287 3:308 8:1 12:1 17:1 19:1 27:1 33:1 38:1 39:1 48:1 52:1 55:1 62:1 
0.009247634111473526 1:-244 2:317 3:73 5:1 13:1 14:1 23:1 27:1 33:1 38:1 40:1 48:1 49:1 56:1 63:1 
1.143716017246828 1:-227 2:317 3:90 5:1 13:1 14:1 23:1 27:1 33:1 38:1 43:1 48:1 51:1 56:1 62:1 
0.01774081443205295 1:-149 2:317 3:168 5:1 13:1 14:1 23:1 27:1 33:1 38:1 40:1 48:1 53:1 54:1 62:1 
1.037321877610745 1:-74 2:317 3:243 5:1 13:1 14:1 23:1 27:1 33:1 37:1 43:1 48:1 49:1 55:1 63:1 
0.5341346161588729 1:-22 2:317 3:295 5:1 13:1 14:1 23:1 27:1 33:1 35:1 43:1 45:1 53:1 56:1 63:1 
1.391426665421071 1:-12 2:317 3:305 5:1 13:1 14:1 23:1 27:1 33:1 36:1 39:1 47:1 49:1 58:1 63:1 
0.7206419843649436 1:316 2:4 3:320 7:1 13:1 14:1 23:1 28:1 30:1 36:1 43:1 47:1 52:1 57:1 60:1 
1.987537675209453 1:241 2:79 3:320 8:1 11:1 18:1 20:1 28:1 33:1 36:1 43:1 47:1 52:1 57:1 60:1 
0.9625552185847238 1:234 2:86 3:320 8:1 10:1 18:1 23:1 28:1 33:1 36:1 43:1 47:1 52:1 57:1 60:1 
0.8773800054158104 1:229 2:91 3:320 8:1 13:1 18:1 21:1 27:1 31:1 36:1 43:1 47:1 52:1 57:1 60:1 
1.667561951628837 1:228 2:92 3:320 8:1 13:1 16:1 22:1 26:1 29:1 36:1 43:1 47:1 52:1 57:1 60:1 
1.95944332043484 1:213 2:107 3:320 4:1 10:1 18:1 23:1 26:1 32:1 36:1 43:1 47:1 52:1 57:1 60:1 
1.974215889121208 1:165 2:155 3:320 8:1 13:1 18:1 20:1 26:1 29:1 36:1 43:1 47:1 52:1 57:1 60:1 
0.3201845006675758 1:157 2:163 3:320 8:1 10:1 18:1 23:1 28:1 30:1 36:1 43:1 47:1 52:1 57:1 60:1 
1.214927760560979 1:133 2:187 3:320 4:1 10:1 18:1 23:1 24:1 32:1 36:1 43:1 47:1 52:1 57:1 60:1 
0.03602258983713025 1:104 2:216 3:320 7:1 10:1 18:1 23:1 28:1 30:1 36:1 43:1 47:1 52:1 57:1 60:1 
1.03014483677174 1:61 2:259 3:320 5:1 13:1 18:1 23:1 27:1 33:1 36:1 43:1 47:1 52:1 57:1 60:1 
2.288925903185009 1:39 2:281 3:320 6:1 13:1 14:1 20:1 28:1 33:1 36:1 43:1 47:1 52:1 57:1 60:1 
0.8281877771438527 1:18 2:302 3:320 4:1 10:1 18:1 19:1 27:1 33:1 36:1 43:1 47:1 52:1 57:1 60:1 
3.516855865356478 1:3 2:317 3:320 5:1 13:1 14:1 23:1 27:1 33:1 36:1 43:1 47:1 52:1 57:1 60:1 
0.01207487116564037 1:327 2:4 3:331 7:1 13:1 14:1 23:1 28:1 30:1 38:1 43:1 47:1 52:1 54:1 63:1 
0.3163739050200129 1:256 2:75 3:331 8:1 13:1 14:1 23:1 26:1 33:1 38:1 43:1 47:1 52:1 54:1 63:1 
0.607058391683872 1:254 2:77 3:331 4:1 11:1 18:1 23:1 26:1 30:1 38:1 43:1 47:1 52:1 54:1 63:1 
0.414166402682932 1:245 2:86 3:331 8:1 10:1 18:1 23:1 28:1 33:1 38:1 43:1 47:1 52:1 54:1 63:1 
0.09341675495720032 1:240 2:91 3:331 8:1 13:1 18:1 21:1 27:1 31:1 38:1 43:1 47:1 52:1 54:1 63:1 
2.405921782442892 1:239 2:92 3:331 8:1 13:1 16:1 22:1 26:1 29:1 38:1 43:1 47:1 52:1 54:1 63:1 
2.87409803292146 1:224 2:107 3:331 4:1 10:1 18:1 23:1 26:1 32:1 38:1 43:1 47:1 52:1 54:1 63:1 
0.9804328522522276 1:205 2:126 3:331 4:1 13:1 18:1 19:1 25:1 33:1 38:1 43:1 47:1 52:1 54:1 63:1 
2.168403273318328 1:176 2:155 3:331 8:1 13:1 18:1 20:1 26:1 29:1 38:1 43:1 47:1 52:1 54:1 63:1 
1.848824649728653 1:168 2:163 3:331 8:1 10:1 18:1 23:1 28:1 30:1 38:1 43:1 47:1 52:1 54:1 63:1 
1.890042554428557 1:58 2:273 3:331 8:1 9:1 15:1 23:1 27:1 33:1 38:1 43:1 47:1 52:1 54:1 63:1 
3.414006681799347 1:29 2:302 3:331 4:1 10:1 18:1 19:1 27:1 33:1 38:1 43:1 47:1 52:1 54:1 63:1 
0.6129073021200322 1:14 2:317 3:331 5:1 13:1 14:1 23:1 27:1 33:1 38:1 43:1 47:1 52:1 54:1 63:1 
0.3697708512581964 1:-348 2:350 3:2 4:1 13:1 14:1 23:1 28:1 29:1 43:1 47:1 49:1 56:1 63:1 
0.2501308351719007 1:-342 2:350 3:8 4:1 13:1 14:1 23:1 28:1 29:1 38:1 43:1 45:1 52:1 58:1 59:1 
2.340689126390176 1:-277 2:350 3:73 4:1 13:1 14:1 23:1 28:1 29:1 38:1 40:1 48:1 49:1 56:1 63:1 
1.274904164319522 1:-182 2:350 3:168 4:1 13:1 14:1 23:1 28:1 29:1 38:1 40:1 48:1 53:1 54:1 62:1 
0.4251408200810867 1:-107 2:350 3:243 4:1 13:1 14:1 23:1 28:1 29:1 37:1 43:1 48:1 49:1 55:1 63:1 
0.9665804548215559 1:-55 2:350 3:295 4:1 13:1 14:1 23:1 28:1 29:1 35:1 43:1 45:1 53:1 56:1 63:1 
1.330301113834803 1:-42 2:350 3:308 4:1 13:1 14:1 23:1 28:1 29:1 38:1 39:1 48:1 52:1 55:1 62:1 
0.7625878484404308 1:-30 2:350 3:320 4:1 13:1 14:1 23:1 28:1 29:1 36:1 43:1 47:1 52:1 57:1 60:1 
1.174560546469821 1:348 2:4 3:352 7:1 13:1 14:1 23:1 28:1 30:1 34:1 41:1 48:1 49:1 54:1 63:1 
0.8358858216461602 1:277 2:75 3:352 8:1 13:1 14:1 23:1 26:1 33:1 34:1 41:1 48:1 49:1 54:1 63:1 
0.2734924664926148 1:275 2:77 3:352 4:1 11:1 18:1 23:1 26:1 30:1 34:1 41:1 48:1 49:1 54:1 63:1 
0.6645306803694064 1:266 2:86 3:352 8:1 10:1 18:1 23:1 28:1 33:1 34:1 41:1 48:1 49:1 54:1 63:1 
1.467832050244533 1:260 2:92 3:352 8:1 13:1 16:1 22:1 26:1 29:1 34:1 41:1 48:1 49:1 54:1 63:1 
1.973888538924534 1:245 2:107 3:352 4:1 10:1 18:1 23:1 26:1 32:1 34:1 41:1 48:1 49:1 54:1 63:1 
1.419562686357877 1:197 2:155 3:352 8:1 13:1 18:1 20:1 26:1 29:1 34:1 41:1 48:1 49:1 54:1 63:1 
0.2183215072142324 1:65 2:287 3:352 8:1 12:1 17:1 19:1 27:1 33:1 34:1 41:1 48:1 49:1 54:1 63:1 
0.4343644289151304 1:50 2:302 3:352 4:1 10:1 18:1 19:1 27:1 33:1 34:1 41:1 48:1 49:1 54:1 63:1 
0.433498106774582 1:35 2:317 3:352 5:1 13:1 14:1 23:1 27:1 33:1 34:1 41:1 48:1 49:1 54:1 63:1 
1.700664350620367 1:2 2:350 3:352 4:1 13:1 14:1 23:1 28:1 29:1 34:1 41:1 48:1 49:1 54:1 63:1 
0.1478461748362533 1:-195 2:363 3:168 5:1 10:1 14:1 23:1 25:1 38:1 40:1 48:1 53:1 54:1 62:1 
0.159473859039524 1:-120 2:363 3:243 5:1 10:1 14:1 23:1 25:1 37:1 43:1 48:1 49:1 55:1 63:1 
0.3018824173908661 1:-87 2:363 3:276 5:1 10:1 14:1 23:1 25:1 36:1 43:1 47:1 53:1 56:1 63:1 
0.6754597408109753 1:-55 2:363 3:308 5:1 10:1 14:1 23:1 25:1 38:1 39:1 48:1 52:1 55:1 62:1 
0.2849417544035027 1:-32 2:363 3:331 5:1 10:1 14:1 23:1 25:1 38:1 43:1 47:1 52:1 54:1 63:1 
0.9442789382339025 1:-11 2:363 3:352 5:1 10:1 14:1 23:1 25:1 34:1 41:1 48:1 49:1 54:1 63:1 
0.1271675763917078 1:18 2:9 3:27 5:1 13:1 14:1 22:1 25:1 33:1 37:1 39:1 47:1 50:1 58:1 59:1 
0.9994434277595718 1:6 2:21 3:27 4:1 13:1 17:1 23:1 24:1 32:1 37:1 39:1 47:1 50:1 58:1 59:1 
0.3896783447107754 1:8 2:21 3:29 4:1 13:1 17:1 23:1 24:1 32:1 37:1 43:1 45:1 49:1 58:1 63:1 
0.01056975487543071 1:33 2:9 3:42 5:1 13:1 14:1 22:1 25:1 33:1 34:1 43:1 48:1 53:1 54:1 62:1 
0.752059564625531 1:37 2:21 3:58 4:1 13:1 17:1 23:1 24:1 32:1 34:1 42:1 48:1 49:1 58:1 62:1 
0.5306366149192879 1:-51 2:64 3:13 7:1 13:1 18:1 20:1 28:1 33:1 37:1 40:1 48:1 53:1 58:1 62:1 
3.136850983571032 1:-35 2:64 3:29 7:1 13:1 18:1 20:1 28:1 33:1 37:1 43:1 45:1 49:1 58:1 63:1 
4 1:-2 2:64 3:62 7:1 13:1 18:1 20:1 28:1 33:1 34:1 43:1 47:1 53:1 56:1 60:1 
0.8068790698395376 1:49 2:21 3:70 4:1 13:1 17:1 23:1 24:1 32:1 38:1 42:1 48:1 53:1 54:1 62:1 
1.421828416364287 1:-61 2:76 3:15 7:1 13:1 18:1 22:1 28:1 33:1 38:1 43:1 48:1 52:1 58:1 59:1 
0.06419676389373574 1:-49 2:76 3:27 7:1 13:1 18:1 22:1 28:1 33:1 37:1 39:1 47:1 50:1 58:1 59:1 
2.3137543627148 1:-47 2:76 3:29 7:1 13:1 18:1 22:1 28:1 33:1 37:1 43:1 45:1 49:1 58:1 63:1 
0.9409617440751691 1:-34 2:76 3:42 7:1 13:1 18:1 22:1 28:1 33:1 34:1 43:1 48:1 53:1 54:1 62:1 
0.04746162816591556 1:81 2:9 3:90 5:1 13:1 14:1 22:1 25:1 33:1 34:1 43:1 45:1 49:1 54:1 63:1 
1.793800056418026 1:69 2:21 3:90 4:1 13:1 17:1 23:1 24:1 32:1 34:1 43:1 45:1 49:1 54:1 63:1 
1.447465909108526 1:14 2:76 3:90 7:1 13:1 18:1 22:1 28:1 33:1 34:1 43:1 45:1 49:1 54:1 63:1 
1.099657486868388 1:87 2:9 3:96 5:1 13:1 14:1 22:1 25:1 33:1 38:1 42:1 48:1 53:1 58:1 63:1 
0.1593060456405594 1:20 2:76 3:96 7:1 13:1 18:1 22:1 28:1 33:1 38:1 42:1 48:1 53:1 58:1 63:1 
1.486716569747472 1:-100 2:115 3:15 7:1 9:1 15:1 22:1 25:1 33:1 38:1 43:1 48:1 52:1 58:1 59:1 
2.92327460112225 1:-88 2:115 3:27 7:1 9:1 15:1 22:1 25:1 33:1 37:1 39:1 47:1 50:1 58:1 59:1 
0.3466976355669247 1:-86 2:115 3:29 7:1 9:1 15:1 22:1 25:1 33:1 37:1 43:1 45:1 49:1 58:1 63:1 
1.738584322613329 1:-73 2:115 3:42 7:1 9:1 15:1 22:1 25:1 33:1 34:1 43:1 48:1 53:1 54:1 62:1 
0.6774166861363368 1:-57 2:115 3:58 7:1 9:1 15:1 22:1 25:1 33:1 34:1 42:1 48:1 49:1 58:1 62:1 
0.7697497429492752 1:-53 2:115 3:62 7:1 9:1 15:1 22:1 25:1 33:1 34:1 43:1 47:1 53:1 56:1 60:1 
0.2469214552303935 1:-48 2:115 3:67 7:1 9:1 15:1 22:1 25:1 33:1 36:1 40:1 48:1 52:1 58:1 63:1 
0.3413018332168056 1:-45 2:115 3:70 7:1 9:1 15:1 22:1 25:1 33:1 38:1 42:1 48:1 53:1 54:1 62:1 
1.924484089933985 1:-25 2:115 3:90 7:1 9:1 15:1 22:1 25:1 33:1 34:1 43:1 45:1 49:1 54:1 63:1 
1.264798776457448 1:-19 2:115 3:96 7:1 9:1 15:1 22:1 25:1 33:1 38:1 42:1 48:1 53:1 58:1 63:1 
0.2789608582246017 1:98 2:21 3:119 4:1 13:1 17:1 23:1 24:1 32:1 37:1 40:1 48:1 53:1 54:1 62:1 
1.060753967754109 1:43 2:76 3:119 7:1 13:1 18:1 22:1 28:1 33:1 37:1 40:1 48:1 53:1 54:1 62:1 
1.825605732339153 1:4 2:115 3:119 7:1 9:1 15:1 22:1 25:1 33:1 37:1 40:1 48:1 53:1 54:1 62:1 
0.6324822280873579 1:121 2:9 3:130 5:1 13:1 14:1 22:1 25:1 33:1 35:1 40:1 48:1 53:1 57:1 60:1 
0.1019403502706008 1:109 2:21 3:130 4:1 13:1 17:1 23:1 24:1 32:1 35:1 40:1 48:1 53:1 57:1 60:1 
0.01297025121651746 1:54 2:76 3:130 7:1 13:1 18:1 22:1 28:1 33:1 35:1 40:1 48:1 53:1 57:1 60:1 
0.1413415900409173 1:115 2:21 3:136 4:1 13:1 17:1 23:1 24:1 32:1 35:1 42:1 48:1 53:1 54:1 63:1 
0.6292296393467458 1:60 2:76 3:136 7:1 13:1 18:1 22:1 28:1 33:1 35:1 42:1 48:1 53:1 54:1 63:1 
1.761321295865081 1:21 2:115 3:136 7:1 9:1 15:1 22:1 25:1 33:1 35:1 42:1 48:1 53:1 54:1 63:1 
2.567504868725012 1:76 2:76 3:152 7:1 13:1 18:1 22:1 28:1 33:1 38:1 39:1 48:1 53:1 58:1 62:1 
1.241424063704305 1:37 2:115 3:152 7:1 9:1 15:1 22:1 25:1 33:1 38:1 39:1 48:1 53:1 58:1 62:1 
1.164491166632312 1:-149 2:162 3:13 4:1 10:1 15:1 23:1 27:1 33:1 37:1 40:1 48:1 53:1 58:1 62:1 
0.1756278259169169 1:-121 2:162 3:41 4:1 10:1 15:1 23:1 27:1 33:1 35:1 39:1 48:1 53:1 58:1 59:1 
1.795176182950241 1:-120 2:162 3:42 4:1 10:1 15:1 23:1 27:1 33:1 34:1 43:1 48:1 53:1 54:1 62:1 
1.054008309907876 1:-66 2:162 3:96 4:1 10:1 15:1 23:1 27:1 33:1 38:1 42:1 48:1 53:1 58:1 63:1 
0.5906422962428439 1:-32 2:162 3:130 4:1 10:1 15:1 23:1 27:1 33:1 35:1 40:1 48:1 53:1 57:1 60:1 
1.922001255385054 1:-10 2:162 3:152 4:1 10:1 15:1 23:1 27:1 33:1 38:1 39:1 48:1 53:1 58:1 62:1 
3.308119053219705 1:170 2:21 3:191 4:1 13:1 17:1 23:1 24:1 32:1 38:1 42:1 45:1 52:1 58:1 63:1 
3.744926817103387 1:127 2:64 3:191 7:1 13:1 18:1 20:1 28:1 33:1 38:1 42:1 45:1 52:1 58:1 63:1 
1.589816383484254 1:115 2:76 3:191 7:1 13:1 18:1 22:1 28:1 33:1 38:1 42:1 45:1 52:1 58:1 63:1 
1.829142447638952 1:76 2:115 3:191 7:1 9:1 15:1 22:1 25:1 33:1 38:1 42:1 45:1 52:1 58:1 63:1 
3.014531078630632 1:29 2:162 3:191 4:1 10:1 15:1 23:1 27:1 33:1 38:1 42:1 45:1 52:1 58:1 63:1 
1.346486933649309 1:-194 2:207 3:13 8:1 10:1 15:1 22:1 25:1 30:1 37:1 40:1 48:1 53:1 58:1 62:1 
3.082862011949897 1:-192 2:207 3:15 8:1 10:1 15:1 22:1 25:1 30:1 38:1 43:1 48:1 52:1 58:1 59:1 
1.405829376571851 1:-180 2:207 3:27 8:1 10:1 15:1 22:1 25:1 30:1 37:1 39:1 47:1 50:1 58:1 59:1 
1.825788306178468 1:-178 2:207 3:29 8:1 10:1 15:1 22:1 25:1 30:1 37:1 43:1 45:1 49:1 58:1 63:1 
0.1147863696213099 1:-165 2:207 3:42 8:1 10:1 15:1 22:1 25:1 30:1 34:1 43:1 48:1 53:1 54:1 62:1 
1.00579195535056 1:-145 2:207 3:62 8:1 10:1 15:1 22:1 25:1 30:1 34:1 43:1 47:1 53:1 56:1 60:1 
3.192029961228054 1:-140 2:207 3:67 8:1 10:1 15:1 22:1 25:1 30:1 36:1 40:1 48:1 52:1 58:1 63:1 
2.531546111336529 1:-137 2:207 3:70 8:1 10:1 15:1 22:1 25:1 30:1 38:1 42:1 48:1 53:1 54:1 62:1 
0.1187330721337984 1:-107 2:207 3:100 8:1 10:1 15:1 22:1 25:1 30:1 38:1 43:1 48:1 52:1 57:1 63:1 
2.262420957638907 1:-88 2:207 3:119 8:1 10:1 15:1 22:1 25:1 30:1 37:1 40:1 48:1 53:1 54:1 62:1 
1.065794504545234 1:-77 2:207 3:130 8:1 10:1 15:1 22:1 25:1 30:1 35:1 40:1 48:1 53:1 57:1 60:1 
0.5697332052340806 1:-71 2:207 3:136 8:1 10:1 15:1 22:1 25:1 30:1 35:1 42:1 48:1 53:1 54:1 63:1 
2.781210854549286 1:-55 2:207 3:152 8:1 10:1 15:1 22:1 25:1 30:1 38:1 39:1 48:1 53:1 58:1 62:1 
2.590639560735699 1:-16 2:207 3:191 8:1 10:1 15:1 22:1 25:1 30:1 38:1 42:1 45:1 52:1 58:1 63:1 
0.1346292330064114 1:136 2:76 3:212 7:1 13:1 18:1 22:1 28:1 33:1 35:1 40:1 48:1 53:1 58:1 62:1 
0.5669393619417884 1:5 2:207 3:212 8:1 10:1 15:1 22:1 25:1 30:1 35:1 40:1 48:1 53:1 58:1 62:1 
2.268293758574786 1:-250 2:263 3:13 8:1 12:1 15:1 23:1 24:1 30:1 37:1 40:1 48:1 53:1 58:1 62:1 
0.3883094825303358 1:-248 2:263 3:15 8:1 12:1 15:1 23:1 24:1 30:1 38:1 43:1 48:1 52:1 58:1 59:1 
0.6235288520703238 1:-236 2:263 3:27 8:1 12:1 15:1 23:1 24:1 30:1 37:1 39:1 47:1 50:1 58:1 59:1 
0.2550180775547478 1:-221 2:263 3:42 8:1 12:1 15:1 23:1 24:1 30:1 34:1 43:1 48:1 53:1 54:1 62:1 
0.2499416104568353 1:-201 2:263 3:62 8:1 12:1 15:1 23:1 24:1 30:1 34:1 43:1 47:1 53:1 56:1 60:1 
0.5610886897068493 1:-196 2:263 3:67 8:1 12:1 15:1 23:1 24:1 30:1 36:1 40:1 48:1 52:1 58:1 63:1 
0.8332375904220037 1:-189 2:263 3:74 8:1 12:1 15:1 23:1 24:1 30:1 38:1 39:1 47:1 53:1 56:1 62:1 
0.8615722704441086 1:-173 2:263 3:90 8:1 12:1 15:1 23:1 24:1 30:1 34:1 43:1 45:1 49:1 54:1 63:1 
0.5937591289193864 1:-165 2:263 3:98 8:1 12:1 15:1 23:1 24:1 30:1 38:1 43:1 48:1 53:1 58:1 62:1 
1.436680910406301 1:-163 2:263 3:100 8:1 12:1 15:1 23:1 24:1 30:1 38:1 43:1 48:1 52:1 57:1 63:1 
1.577038176592963 1:-144 2:263 3:119 8:1 12:1 15:1 23:1 24:1 30:1 37:1 40:1 48:1 53:1 54:1 62:1 
0.6521391880465366 1:-133 2:263 3:130 8:1 12:1 15:1 23:1 24:1 30:1 35:1 40:1 48:1 53:1 57:1 60:1 
2.448223790833574 1:-127 2:263 3:136 8:1 12:1 15:1 23:1 24:1 30:1 35:1 42:1 48:1 53:1 54:1 63:1 
1.179957466508774 1:-72 2:263 3:191 8:1 12:1 15:1 23:1 24:1 30:1 38:1 42:1 45:1 52:1 58:1 63:1 
2.038097469252945 1:-51 2:263 3:212 8:1 12:1 15:1 23:1 24:1 30:1 35:1 40:1 48:1 53:1 58:1 62:1 
1.422973122606263 1:197 2:76 3:273 7:1 13:1 18:1 22:1 28:1 33:1 38:1 40:1 47:1 53:1 54:1 59:1 
1.028124334117394 1:158 2:115 3:273 7:1 9:1 15:1 22:1 25:1 33:1 38:1 40:1 47:1 53:1 54:1 59:1 
0.6410101526964668 1:66 2:207 3:273 8:1 10:1 15:1 22:1 25:1 30:1 38:1 40:1 47:1 53:1 54:1 59:1 
2.151282606613061 1:10 2:263 3:273 8:1 12:1 15:1 23:1 24:1 30:1 38:1 40:1 47:1 53:1 54:1 59:1 
0.6601894229891918 1:257 2:21 3:278 4:1 13:1 17:1 23:1 24:1 32:1 34:1 39:1 45:1 49:1 58:1 63:1 
0.5077769046204712 1:116 2:162 3:278 4:1 10:1 15:1 23:1 27:1 33:1 34:1 39:1 45:1 49:1 58:1 63:1 
0.5206162156566689 1:15 2:263 3:278 8:1 12:1 15:1 23:1 24:1 30:1 34:1 39:1 45:1 49:1 58:1 63:1 
0.7821324414795591 1:280 2:9 3:289 5:1 13:1 14:1 22:1 25:1 33:1 35:1 42:1 48:1 53:1 58:1 62:1 
0.0871373501011689 1:268 2:21 3:289 4:1 13:1 17:1 23:1 24:1 32:1 35:1 42:1 48:1 53:1 58:1 62:1 
0.2899199319209448 1:26 2:263 3:289 8:1 12:1 15:1 23:1 24:1 30:1 35:1 42:1 48:1 53:1 58:1 62:1 
0.1507728583183813 1:176 2:115 3:291 7:1 9:1 15:1 22:1 25:1 33:1 38:1 43:1 48:1 52:1 58:1 59:1 
0.4404752833783872 1:129 2:162 3:291 4:1 10:1 15:1 23:1 27:1 33:1 38:1 43:1 48:1 52:1 58:1 59:1 
0.2884898582082758 1:28 2:263 3:291 8:1 12:1 15:1 23:1 24:1 30:1 38:1 43:1 48:1 52:1 58:1 59:1 
4 1:-9 2:11 3:2 8:1 10:1 14:1 20:1 28:1 32:1 43:1 48:1 50:1 55:1 63:1 
4 1:-2 2:17 3:15 7:1 13:1 14:1 19:1 25:1 30:1 35:1 43:1 47:1 49:1 56:1 59:1 
1.787369410906808 1:22 2:17 3:39 7:1 13:1 14:1 19:1 25:1 30:1 35:1 43:1 48:1 53:1 58:1 59:1 
0.8874912498793486 1:-48 2:63 3:15 8:1 9:1 15:1 22:1 25:1 33:1 35:1 43:1 47:1 49:1 56:1 59:1 
0.5971257621521013 1:-40 2:63 3:23 8:1 9:1 15:1 22:1 25:1 33:1 35:1 43:1 48:1 52:1 54:1 59:1 
1.144088557687816 1:-24 2:63 3:39 8:1 9:1 15:1 22:1 25:1 33:1 35:1 43:1 48:1 53:1 58:1 59:1 
0.7636325370897457 1:54 2:17 3:71 7:1 13:1 14:1 19:1 25:1 30:1 38:1 43:1 48:1 50:1 58:1 62:1 
0.2996351931616363 1:8 2:63 3:71 8:1 9:1 15:1 22:1 25:1 33:1 38:1 43:1 48:1 50:1 58:1 62:1 
4 1:75 2:17 3:92 7:1 13:1 14:1 19:1 25:1 30:1 38:1 43:1 47:1 50:1 55:1 63:1 
0.7183870201117297 1:108 2:17 3:125 7:1 13:1 14:1 19:1 25:1 30:1 35:1 43:1 47:1 49:1 54:1 59:1 
0.8086541410653283 1:62 2:63 3:125 8:1 9:1 15:1 22:1 25:1 33:1 35:1 43:1 47:1 49:1 54:1 59:1 
2.611839654316055 1:147 2:17 3:164 7:1 13:1 14:1 19:1 25:1 30:1 38:1 42:1 48:1 53:1 54:1 60:1 
1.561668687248442 1:101 2:63 3:164 8:1 9:1 15:1 22:1 25:1 33:1 38:1 42:1 48:1 53:1 54:1 60:1 
4 1:-194 2:209 3:15 8:1 9:1 15:1 22:1 28:1 33:1 35:1 43:1 47:1 49:1 56:1 59:1 
0.5566546918330589 1:-170 2:209 3:39 8:1 9:1 15:1 22:1 28:1 33:1 35:1 43:1 48:1 53:1 58:1 59:1 
1.273362759395507 1:-75 2:209 3:134 8:1 9:1 15:1 22:1 28:1 33:1 37:1 43:1 47:1 53:1 58:1 63:1 
0.8387100395388649 1:-73 2:209 3:136 8:1 9:1 15:1 22:1 28:1 33:1 37:1 43:1 48:1 53:1 54:1 63:1 
0.7515981005137883 1:206 2:11 3:217 8:1 10:1 14:1 20:1 28:1 32:1 38:1 42:1 48:1 53:1 54:1 62:1 
0.4485041129645476 1:200 2:17 3:217 7:1 13:1 14:1 19:1 25:1 30:1 38:1 42:1 48:1 53:1 54:1 62:1 
0.06615593563687129 1:154 2:63 3:217 8:1 9:1 15:1 22:1 25:1 33:1 38:1 42:1 48:1 53:1 54:1 62:1 
2.447567429281165 1:214 2:11 3:225 8:1 10:1 14:1 20:1 28:1 32:1 38:1 43:1 48:1 53:1 58:1 59:1 
1.245906341411414 1:208 2:17 3:225 7:1 13:1 14:1 19:1 25:1 30:1 38:1 43:1 48:1 53:1 58:1 59:1 
1.881656685057391 1:162 2:63 3:225 8:1 9:1 15:1 22:1 25:1 33:1 38:1 43:1 48:1 53:1 58:1 59:1 
4 1:16 2:209 3:225 8:1 9:1 15:1 22:1 28:1 33:1 38:1 43:1 48:1 53:1 58:1 59:1 
0.07034247830142791 1:-243 2:245 3:2 8:1 13:1 18:1 23:1 28:1 30:1 43:1 48:1 50:1 55:1 63:1 
2.470307052487695 1:-232 2:245 3:13 8:1 13:1 18:1 23:1 28:1 30:1 34:1 41:1 45:1 52:1 58:1 59:1 
0.8664645281779095 1:-206 2:245 3:39 8:1 13:1 18:1 23:1 28:1 30:1 35:1 43:1 48:1 53:1 58:1 59:1 
0.0671650711306179 1:-179 2:245 3:66 8:1 13:1 18:1 23:1 28:1 30:1 36:1 42:1 45:1 52:1 58:1 63:1 
1.367900548776824 1:-153 2:245 3:92 8:1 13:1 18:1 23:1 28:1 30:1 38:1 43:1 47:1 50:1 55:1 63:1 
0.1725107061666299 1:-131 2:245 3:114 8:1 13:1 18:1 23:1 28:1 30:1 38:1 43:1 47:1 53:1 55:1 60:1 
0.8773422831935049 1:-120 2:245 3:125 8:1 13:1 18:1 23:1 28:1 30:1 35:1 43:1 47:1 49:1 54:1 59:1 
0.4961935334051592 1:-111 2:245 3:134 8:1 13:1 18:1 23:1 28:1 30:1 37:1 43:1 47:1 53:1 58:1 63:1 
0.273271377639528 1:-109 2:245 3:136 8:1 13:1 18:1 23:1 28:1 30:1 37:1 43:1 48:1 53:1 54:1 63:1 
0.1291572267398756 1:230 2:17 3:247 7:1 13:1 14:1 19:1 25:1 30:1 38:1 41:1 48:1 50:1 58:1 63:1 
0.240614843656181 1:258 2:11 3:269 8:1 10:1 14:1 20:1 28:1 32:1 38:1 42:1 45:1 53:1 58:1 63:1 
4 1:-271 2:286 3:15 8:1 13:1 15:1 22:1 25:1 30:1 35:1 43:1 47:1 49:1 56:1 59:1 
4 1:-263 2:286 3:23 8:1 13:1 15:1 22:1 25:1 30:1 35:1 43:1 48:1 52:1 54:1 59:1 
1.239022301355375 1:-247 2:286 3:39 8:1 13:1 15:1 22:1 25:1 30:1 35:1 43:1 48:1 53:1 58:1 59:1 
0.01031354310681572 1:-215 2:286 3:71 8:1 13:1 15:1 22:1 25:1 30:1 38:1 43:1 48:1 50:1 58:1 62:1 
1.061887745967253 1:-194 2:286 3:92 8:1 13:1 15:1 22:1 25:1 30:1 38:1 43:1 47:1 50:1 55:1 63:1 
0.07388844313083009 1:-161 2:286 3:125 8:1 13:1 15:1 22:1 25:1 30:1 35:1 43:1 47:1 49:1 54:1 59:1 
0.9739772009390152 1:-150 2:286 3:136 8:1 13:1 15:1 22:1 25:1 30:1 37:1 43:1 48:1 53:1 54:1 63:1 
0.003915191852227743 1:-69 2:286 3:217 8:1 13:1 15:1 22:1 25:1 30:1 38:1 42:1 48:1 53:1 54:1 62:1 
1.168291093247232 1:-61 2:286 3:225 8:1 13:1 15:1 22:1 25:1 30:1 38:1 43:1 48:1 53:1 58:1 59:1 
0.6526722302052985 1:-39 2:286 3:247 8:1 13:1 15:1 22:1 25:1 30:1 38:1 41:1 48:1 50:1 58:1 63:1 
0.3726499715317814 1:233 2:63 3:296 8:1 9:1 15:1 22:1 25:1 33:1 38:1 43:1 47:1 50:1 58:1 63:1 
0.765080365467937 1:292 2:11 3:303 8:1 10:1 14:1 20:1 28:1 32:1 38:1 40:1 45:1 49:1 58:1 63:1 
1.429324623099948 1:321 2:11 3:332 8:1 10:1 14:1 20:1 28:1 32:1 38:1 39:1 48:1 53:1 54:1 63:1 
0.9210424931970556 1:269 2:63 3:332 8:1 9:1 15:1 22:1 25:1 33:1 38:1 39:1 48:1 53:1 54:1 63:1 
0.5608828601920188 1:46 2:286 3:332 8:1 13:1 15:1 22:1 25:1 30:1 38:1 39:1 48:1 53:1 54:1 63:1 
1.30924535502288 1:322 2:17 3:339 7:1 13:1 14:1 19:1 25:1 30:1 35:1 43:1 44:1 52:1 57:1 60:1 
1.361756380065213 1:276 2:63 3:339 8:1 9:1 15:1 22:1 25:1 33:1 35:1 43:1 44:1 52:1 57:1 60:1 
0.6469454640160974 1:130 2:209 3:339 8:1 9:1 15:1 22:1 28:1 33:1 35:1 43:1 44:1 52:1 57:1 60:1 
1.107192408102557 1:53 2:286 3:339 8:1 13:1 15:1 22:1 25:1 30:1 35:1 43:1 44:1 52:1 57:1 60:1 
1.599549415341917 1:344 2:17 3:361 7:1 13:1 14:1 19:1 25:1 30:1 35:1 43:1 47:1 53:1 58:1 63:1 
0.2974900220610802 1:298 2:63 3:361 8:1 9:1 15:1 22:1 25:1 33:1 35:1 43:1 47:1 53:1 58:1 63:1 
0.7683965819860875 1:152 2:209 3:361 8:1 9:1 15:1 22:1 28:1 33:1 35:1 43:1 47:1 53:1 58:1 63:1 
0.2745287722226759 1:116 2:245 3:361 8:1 13:1 18:1 23:1 28:1 30:1 35:1 43:1 47:1 53:1 58:1 63:1 
0.3873360500578468 1:75 2:286 3:361 8:1 13:1 15:1 22:1 25:1 30:1 35:1 43:1 47:1 53:1 58:1 63:1 
0.7301183850103302 1:374 2:17 3:391 7:1 13:1 14:1 19:1 25:1 30:1 38:1 39:1 47:1 49:1 58:1 63:1 
2.124686704842158 1:328 2:63 3:391 8:1 9:1 15:1 22:1 25:1 33:1 38:1 39:1 47:1 49:1 58:1 63:1 
1.191527768547848 1:182 2:209 3:391 8:1 9:1 15:1 22:1 28:1 33:1 38:1 39:1 47:1 49:1 58:1 63:1 
0.2886685882214005 1:146 2:245 3:391 8:1 13:1 18:1 23:1 28:1 30:1 38:1 39:1 47:1 49:1 58:1 63:1 
1.470530928162689 1:105 2:286 3:391 8:1 13:1 15:1 22:1 25:1 30:1 38:1 39:1 47:1 49:1 58:1 63:1 
1.60531539386895 1:-388 2:403 3:15 8:1 12:1 15:1 23:1 27:1 33:1 35:1 43:1 47:1 49:1 56:1 59:1 
0.742013399692471 1:-364 2:403 3:39 8:1 12:1 15:1 23:1 27:1 33:1 35:1 43:1 48:1 53:1 58:1 59:1 
0.1183715078613335 1:-332 2:403 3:71 8:1 12:1 15:1 23:1 27:1 33:1 38:1 43:1 48:1 50:1 58:1 62:1 
0.06197279201525768 1:-311 2:403 3:92 8:1 12:1 15:1 23:1 27:1 33:1 38:1 43:1 47:1 50:1 55:1 63:1 
0.435888716517127 1:-239 2:403 3:164 8:1 12:1 15:1 23:1 27:1 33:1 38:1 42:1 48:1 53:1 54:1 60:1 
0.6143355919658896 1:-186 2:403 3:217 8:1 12:1 15:1 23:1 27:1 33:1 38:1 42:1 48:1 53:1 54:1 62:1 
0.03636233541806413 1:-156 2:403 3:247 8:1 12:1 15:1 23:1 27:1 33:1 38:1 41:1 48:1 50:1 58:1 63:1 
0.06845308703234648 1:-107 2:403 3:296 8:1 12:1 15:1 23:1 27:1 33:1 38:1 43:1 47:1 50:1 58:1 63:1 
2.202356257752222 1:-64 2:403 3:339 8:1 12:1 15:1 23:1 27:1 33:1 35:1 43:1 44:1 52:1 57:1 60:1 
0.3222726538925443 1:-12 2:403 3:391 8:1 12:1 15:1 23:1 27:1 33:1 38:1 39:1 47:1 49:1 58:1 63:1 
0.5317122360220998 1:395 2:11 3:406 8:1 10:1 14:1 20:1 28:1 32:1 36:1 43:1 47:1 49:1 54:1 59:1 
0.974716443419683 1:389 2:17 3:406 7:1 13:1 14:1 19:1 25:1 30:1 36:1 43:1 47:1 49:1 54:1 59:1 
0.4801432701490893 1:343 2:63 3:406 8:1 9:1 15:1 22:1 25:1 33:1 36:1 43:1 47:1 49:1 54:1 59:1 
0.7829525351585283 1:197 2:209 3:406 8:1 9:1 15:1 22:1 28:1 33:1 36:1 43:1 47:1 49:1 54:1 59:1 
0.3610979277364934 1:120 2:286 3:406 8:1 13:1 15:1 22:1 25:1 30:1 36:1 43:1 47:1 49:1 54:1 59:1 
1.247356397616207 1:3 2:403 3:406 8:1 12:1 15:1 23:1 27:1 33:1 36:1 43:1 47:1 49:1 54:1 59:1 
0.5216956119507321 1:399 2:17 3:416 7:1 13:1 14:1 19:1 25:1 30:1 37:1 43:1 45:1 49:1 55:1 63:1 
0.9587164217088753 1:353 2:63 3:416 8:1 9:1 15:1 22:1 25:1 33:1 37:1 43:1 45:1 49:1 55:1 63:1 
0.3743968072203583 1:207 2:209 3:416 8:1 9:1 15:1 22:1 28:1 33:1 37:1 43:1 45:1 49:1 55:1 63:1 
1.689527747650092 1:171 2:245 3:416 8:1 13:1 18:1 23:1 28:1 30:1 37:1 43:1 45:1 49:1 55:1 63:1 
0.8558167522033967 1:13 2:403 3:416 8:1 12:1 15:1 23:1 27:1 33:1 37:1 43:1 45:1 49:1 55:1 63:1 
0.009106426872858838 1:436 2:11 3:447 8:1 10:1 14:1 20:1 28:1 32:1 38:1 42:1 48:1 49:1 54:1 63:1 
0.1798059092565877 1:246 2:245 3:491 8:1 13:1 18:1 23:1 28:1 30:1 35:1 39:1 45:1 53:1 54:1 62:1 
1.881932145246928 1:-134 2:146 3:12 5:1 9:1 15:1 19:1 25:1 33:1 38:1 40:1 48:1 53:1 54:1 63:1 
0.1605616219787126 1:-221 2:233 3:12 8:1 10:1 18:1 19:1 25:1 33:1 38:1 40:1 48:1 53:1 54:1 63:1 
0.1791918465173355 1:114 2:146 3:260 5:1 9:1 15:1 19:1 25:1 33:1 35:1 41:1 48:1 49:1 58:1 59:1 
0.5329079701932218 1:27 2:233 3:260 8:1 10:1 18:1 19:1 25:1 33:1 35:1 41:1 48:1 49:1 58:1 59:1 
2.945081666743838 1:2 2:258 3:260 5:1 9:1 15:1 23:1 28:1 29:1 35:1 41:1 48:1 49:1 58:1 59:1 
0.6613392871757096 1:-106 2:366 3:260 4:1 10:1 14:1 20:1 27:1 33:1 35:1 41:1 48:1 49:1 58:1 59:1 
2.528434328453809 1:-123 2:383 3:260 4:1 10:1 14:1 20:1 25:1 33:1 35:1 41:1 48:1 49:1 58:1 59:1 
1.333120240950819 1:-425 2:437 3:12 5:1 13:1 14:1 20:1 27:1 31:1 38:1 40:1 48:1 53:1 54:1 63:1 
0.4920080091970724 1:-180 2:440 3:260 6:1 10:1 17:1 20:1 24:1 33:1 35:1 41:1 48:1 49:1 58:1 59:1 
0.01232267993853241 1:-467 2:479 3:12 6:1 13:1 15:1 19:1 25:1 33:1 38:1 40:1 48:1 53:1 54:1 63:1 
0.05935530794667998 1:-290 2:550 3:260 4:1 10:1 15:1 20:1 35:1 41:1 48:1 49:1 58:1 59:1 
0.3679741133343422 1:63 2:19 3:82 7:1 13:1 18:1 20:1 24:1 33:1 38:1 43:1 48:1 50:1 58:1 63:1 
0.6260563427995286 1:-211 2:293 3:82 5:1 9:1 15:1 23:1 24:1 33:1 38:1 43:1 48:1 50:1 58:1 63:1 
2.929281854713605 1:429 2:19 3:448 7:1 13:1 18:1 20:1 24:1 33:1 35:1 42:1 48:1 49:1 58:1 59:1 
1.01971849520612 1:235 2:213 3:448 8:1 9:1 15:1 19:1 25:1 32:1 35:1 42:1 48:1 49:1 58:1 59:1 
0.2182712401363776 1:155 2:293 3:448 5:1 9:1 15:1 23:1 24:1 33:1 35:1 42:1 48:1 49:1 58:1 59:1 
3.764802792589141 1:-6 2:454 3:448 4:1 10:1 15:1 23:1 26:1 31:1 35:1 42:1 48:1 49:1 58:1 59:1 
0.0006344156006962698 1:-401 2:456 3:55 5:1 11:1 18:1 21:1 26:1 30:1 38:1 42:1 45:1 53:1 58:1 62:1 
0.2642522153242503 1:-8 2:456 3:448 5:1 11:1 18:1 21:1 26:1 30:1 35:1 42:1 48:1 49:1 58:1 59:1 
0.5171345820539686 1:-9 2:457 3:448 6:1 13:1 16:1 21:1 25:1 35:1 42:1 48:1 49:1 58:1 59:1 
2.408459679572697 1:-10 2:458 3:448 8:1 11:1 16:1 20:1 35:1 42:1 48:1 49:1 58:1 59:1 
1.898748529346681 1:-21 2:54 3:33 5:1 13:1 18:1 20:1 24:1 29:1 38:1 39:1 48:1 53:1 54:1 59:1 
0.4633749773246302 1:163 2:13 3:176 5:1 13:1 14:1 22:1 24:1 33:1 37:1 40:1 44:1 52:1 58:1 63:1 
0.6807499597821063 1:-132 2:308 3:176 7:1 9:1 14:1 20:1 28:1 32:1 37:1 40:1 44:1 52:1 58:1 63:1 
0.04968287739290485 1:-63 2:308 3:245 7:1 9:1 14:1 20:1 28:1 32:1 35:1 43:1 48:1 53:1 57:1 60:1 
0.8697714841981178 1:-307 2:340 3:33 8:1 13:1 18:1 23:1 24:1 32:1 38:1 39:1 48:1 53:1 54:1 59:1 
2.426720638681554 1:114 2:254 3:368 8:1 13:1 18:1 23:1 28:1 33:1 37:1 40:1 48:1 53:1 54:1 63:1 
1.935399247073721 1:60 2:308 3:368 7:1 9:1 14:1 20:1 28:1 32:1 37:1 40:1 48:1 53:1 54:1 63:1 
1.409932504087377 1:74 2:308 3:382 7:1 9:1 14:1 20:1 28:1 32:1 35:1 43:1 48:1 49:1 58:1 60:1 
1.28734979498549 1:177 2:50 3:227 4:1 10:1 17:1 20:1 28:1 29:1 38:1 42:1 45:1 49:1 57:1 63:1 
0.03054609509593969 1:162 2:65 3:227 7:1 13:1 15:1 22:1 28:1 30:1 38:1 42:1 45:1 49:1 57:1 63:1 
0.1949984907123223 1:65 2:162 3:227 7:1 13:1 18:1 20:1 26:1 30:1 38:1 42:1 45:1 49:1 57:1 63:1 
0.503752920784363 1:63 2:164 3:227 8:1 11:1 15:1 20:1 28:1 33:1 38:1 42:1 45:1 49:1 57:1 63:1 
0.2653872870198636 1:284 2:1 3:285 14:1 20:1 24:1 30:1 35:1 40:1 44:1 53:1 55:1 59:1 
2.682841967110543 1:255 2:30 3:285 5:1 13:1 15:1 20:1 26:1 30:1 35:1 40:1 44:1 53:1 55:1 59:1 
1.266631446724289 1:181 2:104 3:285 8:1 9:1 14:1 22:1 24:1 30:1 35:1 40:1 44:1 53:1 55:1 59:1 
0.2820336515048009 1:59 2:11 3:70 4:1 11:1 15:1 20:1 28:1 32:1 37:1 43:1 45:1 49:1 54:1 62:1 
2.365584527898732 1:-6 2:76 3:70 7:1 13:1 18:1 20:1 27:1 33:1 37:1 43:1 45:1 49:1 54:1 62:1 
1.417308086127304 1:-54 2:97 3:43 8:1 12:1 15:1 19:1 25:1 30:1 38:1 43:1 45:1 53:1 54:1 63:1 
1.234864377358147 1:-77 2:120 3:43 8:1 10:1 18:1 20:1 25:1 30:1 38:1 43:1 45:1 53:1 54:1 63:1 
0.2118179794338644 1:-88 2:158 3:70 8:1 10:1 18:1 23:1 27:1 30:1 37:1 43:1 45:1 49:1 54:1 62:1 
1.05749435038531 1:-170 2:171 3:1 4:1 10:1 18:1 23:1 26:1 29:1 48:1 53:1 55:1 63:1 
0.5699965182990504 1:-250 2:251 3:1 5:1 13:1 15:1 23:1 28:1 30:1 48:1 53:1 55:1 63:1 
0.4341652330771185 1:294 2:76 3:370 7:1 13:1 18:1 20:1 27:1 33:1 38:1 42:1 45:1 52:1 58:1 62:1 
0.6531497524443526 1:197 2:173 3:370 8:1 11:1 18:1 19:1 28:1 32:1 38:1 42:1 45:1 52:1 58:1 62:1 
0.1582913214396826 1:6 2:364 3:370 5:1 13:1 18:1 23:1 27:1 33:1 38:1 42:1 45:1 52:1 58:1 62:1 
0.6171553454703242 1:401 2:9 3:410 8:1 10:1 14:1 20:1 26:1 30:1 38:1 43:1 48:1 52:1 57:1 63:1 
0.4302730647227118 1:399 2:11 3:410 4:1 11:1 15:1 20:1 28:1 32:1 38:1 43:1 48:1 52:1 57:1 63:1 
0.1446731525373856 1:290 2:120 3:410 8:1 10:1 18:1 20:1 25:1 30:1 38:1 43:1 48:1 52:1 57:1 63:1 
0.02058185793208878 1:237 2:173 3:410 8:1 11:1 18:1 19:1 28:1 32:1 38:1 43:1 48:1 52:1 57:1 63:1 
0.1529114425658595 1:159 2:251 3:410 5:1 13:1 15:1 23:1 28:1 30:1 38:1 43:1 48:1 52:1 57:1 63:1 
0.8467087454295774 1:46 2:364 3:410 5:1 13:1 18:1 23:1 27:1 33:1 38:1 43:1 48:1 52:1 57:1 63:1 
3.063990575418804 1:-424 2:425 3:1 8:1 13:1 14:1 23:1 28:1 32:1 48:1 53:1 55:1 63:1 
0.007638454577649278 1:-355 2:425 3:70 8:1 13:1 14:1 23:1 28:1 32:1 37:1 43:1 45:1 49:1 54:1 62:1 
0.02071705627201855 1:337 2:97 3:434 8:1 12:1 15:1 19:1 25:1 30:1 35:1 43:1 45:1 53:1 57:1 60:1 
0.9574825611462634 1:276 2:158 3:434 8:1 10:1 18:1 23:1 27:1 30:1 35:1 43:1 45:1 53:1 57:1 60:1 
2.971727630672888 1:263 2:171 3:434 4:1 10:1 18:1 23:1 26:1 29:1 35:1 43:1 45:1 53:1 57:1 60:1 
0.8137907580264807 1:183 2:251 3:434 5:1 13:1 15:1 23:1 28:1 30:1 35:1 43:1 45:1 53:1 57:1 60:1 
1.474548797000546 1:70 2:364 3:434 5:1 13:1 18:1 23:1 27:1 33:1 35:1 43:1 45:1 53:1 57:1 60:1 
1.157477350953973 1:9 2:425 3:434 8:1 13:1 14:1 23:1 28:1 32:1 35:1 43:1 45:1 53:1 57:1 60:1 
0.2401177830443012 1:17 2:1 3:18 14:1 20:1 25:1 30:1 37:1 39:1 45:1 53:1 58:1 59:1 
2.844284901433508 1:26 2:1 3:27 14:1 20:1 25:1 30:1 38:1 39:1 45:1 49:1 56:1 63:1 
4 1:-11 2:29 3:18 5:1 13:1 14:1 23:1 24:1 31:1 37:1 39:1 45:1 53:1 58:1 59:1 
0.2668246673420919 1:-54 2:81 3:27 7:1 10:1 17:1 19:1 28:1 33:1 38:1 39:1 45:1 49:1 56:1 63:1 
3.188081569947816 1:-92 2:110 3:18 8:1 9:1 15:1 20:1 25:1 30:1 37:1 39:1 45:1 53:1 58:1 59:1 
1.288942662356316 1:123 2:1 3:124 14:1 20:1 25:1 30:1 35:1 43:1 45:1 53:1 58:1 62:1 
1.396384098836525 1:14 2:110 3:124 8:1 9:1 15:1 20:1 25:1 30:1 35:1 43:1 45:1 53:1 58:1 62:1 
0.8769509533676253 1:-167 2:194 3:27 5:1 12:1 18:1 23:1 27:1 33:1 38:1 39:1 45:1 49:1 56:1 63:1 
0.7013816691920128 1:-70 2:194 3:124 5:1 12:1 18:1 23:1 27:1 33:1 35:1 43:1 45:1 53:1 58:1 62:1 
0.6770209175260437 1:-176 2:203 3:27 5:1 13:1 18:1 19:1 27:1 29:1 38:1 39:1 45:1 49:1 56:1 63:1 
0.1968385052369913 1:-208 2:226 3:18 4:1 10:1 14:1 19:1 27:1 29:1 37:1 39:1 45:1 53:1 58:1 59:1 
1.475982984902962 1:20 2:81 3:101 4:1 13:1 14:1 19:1 24:1 33:1 38:1 43:1 45:1 53:1 54:1 63:1 
0.2674109164052824 1:127 2:81 3:208 4:1 13:1 14:1 19:1 24:1 33:1 38:1 43:1 45:1 50:1 58:1 60:1 
0.9358580807369397 1:260 2:8 3:268 8:1 10:1 14:1 20:1 28:1 33:1 35:1 43:1 48:1 53:1 54:1 59:1 
0.9667581187359486 1:187 2:81 3:268 4:1 13:1 14:1 19:1 24:1 33:1 35:1 43:1 48:1 53:1 54:1 59:1 
0.5836025153954947 1:349 2:8 3:357 8:1 10:1 14:1 20:1 28:1 33:1 35:1 43:1 48:1 52:1 58:1 59:1 
1.949024601141924 1:4 2:31 3:35 8:1 13:1 14:1 23:1 27:1 30:1 38:1 42:1 45:1 53:1 58:1 63:1 
0.4218357940875776 1:6 2:31 3:37 8:1 13:1 14:1 23:1 27:1 30:1 35:1 43:1 48:1 53:1 58:1 62:1 
2.098863604852062 1:17 2:31 3:48 8:1 13:1 14:1 23:1 27:1 30:1 37:1 42:1 45:1 53:1 57:1 63:1 
2.012324945421476 1:-104 2:116 3:12 8:1 13:1 18:1 19:1 28:1 31:1 35:1 43:1 47:1 49:1 54:1 63:1 
1.477862075382926 1:-79 2:116 3:37 8:1 13:1 18:1 19:1 28:1 31:1 35:1 43:1 48:1 53:1 58:1 62:1 
2.082370422749283 1:-51 2:116 3:65 8:1 13:1 18:1 19:1 28:1 31:1 38:1 43:1 45:1 49:1 58:1 63:1 
1.247999581275796 1:-100 2:119 3:19 6:1 9:1 18:1 19:1 25:1 31:1 34:1 40:1 48:1 53:1 58:1 59:1 
3.704313408920871 1:-84 2:119 3:35 6:1 9:1 18:1 19:1 25:1 31:1 38:1 42:1 45:1 53:1 58:1 63:1 
3.329418861001163 1:-71 2:119 3:48 6:1 9:1 18:1 19:1 25:1 31:1 37:1 42:1 45:1 53:1 57:1 63:1 
1.810404906177862 1:-110 2:122 3:12 6:1 9:1 15:1 19:1 27:1 33:1 35:1 43:1 47:1 49:1 54:1 63:1 
3.437675268679383 1:-85 2:122 3:37 6:1 9:1 15:1 19:1 27:1 33:1 35:1 43:1 48:1 53:1 58:1 62:1 
1.170017533971321 1:-57 2:122 3:65 6:1 9:1 15:1 19:1 27:1 33:1 38:1 43:1 45:1 49:1 58:1 63:1 
1.067431287766831 1:-121 2:140 3:19 8:1 12:1 15:1 22:1 25:1 32:1 34:1 40:1 48:1 53:1 58:1 59:1 
2.106074758914492 1:-75 2:140 3:65 8:1 12:1 15:1 22:1 25:1 32:1 38:1 43:1 45:1 49:1 58:1 63:1 
4 1:-138 2:150 3:12 8:1 9:1 15:1 23:1 28:1 32:1 35:1 43:1 47:1 49:1 54:1 63:1 
